
\data\
ngram 1=629
ngram 2=10366
ngram 3=44544


\1-grams:
-6.0227 !|e}EH -0.6779
-6.0227 "|c}K -0.6619
-6.0227 "|d}D -0.6784
-5.7216 "|e}EH -0.2250
-6.0227 "|i}IH -0.6541
-6.0227 "|q}K -0.6780
-6.0227 "|u}AH -0.6541
-6.0227 #|s}SH -0.6760
-6.0227 %|p}P -0.6703
-6.0227 &|a}AE -0.6671
-2.2942 '|s}Z -3.6650
-4.3506 '}AH -0.9499
-6.0227 '}EH -0.6623
-6.0227 '}ER|EY -0.6786
-3.4651 '}IH -2.1129
-5.5455 '}IH|Z -0.2880
-4.7439 '}IY -0.6774
-6.0227 '}IY|OW -0.6743
-6.0227 '}SH|AH -0.6786
-2.6697 '}_ -1.5565
-6.0227 (}AE|L -0.6749
-6.0227 (}AE|M -0.6749
-5.7216 (}AH|N -0.6749
-5.7216 (}AH|T -0.2459
-6.0227 (}AH|V -0.6786
-6.0227 (}AO|S -0.6786
-6.0227 (}B|AH -0.6786
-6.0227 (}CH|IY -0.6783
-6.0227 (}EH|T -0.6786
-5.3237 (}ER -0.6746
-6.0227 (}ER|AW -0.6786
-6.0227 (}EY|SH -0.6749
-4.4664 (}IY -1.5008
-6.0227 (}R|EY -0.6786
-6.0227 (}R|JH -0.6783
-6.0227 (}SH|AH -0.6749
-6.0227 (}S|T -0.6749
-5.5455 (}T|ER -0.5983
-6.0227 (}W|AY -0.6749
-5.7216 (}Y|UW -0.2459
-2.0261 (}_ -3.7081
-5.7216 )|c}K -0.2329
-5.4206 )|e}EH -0.3405
-5.7216 )|p}P -0.2488
-5.7216 )|r}R -0.2458
-6.0227 )|u}AH -0.6541
-5.5455 )}AH|L -0.2927
-6.0227 )}AH|N -0.6198
-6.0227 )}IH|V -0.6198
-6.0227 ,|c}K -0.6744
-5.7216 -}EY -0.2381
-6.0227 -}EY|T -0.6786
-6.0227 -}F -0.6786
-5.1196 -}IY -0.2696
-3.2660 -}_ -0.9934
-6.0227 .|'}IH -0.6713
-6.0227 .|(}OW -0.6749
-6.0227 .|.}IH -0.6786
-5.7216 .|d}D -0.6643
-6.0227 .|e}L -0.6786
-6.0227 .|f}F -0.6782
-5.7216 .|p}P -0.6746
-5.2445 .|s}Z -1.3969
-5.5455 .}AA|R -0.6088
-6.0227 .}AH|B -0.6786
-6.0227 .}AH|K -0.6786
-6.0227 .}AH|L -0.6198
-5.7216 .}AY -0.6173
-6.0227 .}AY|V -0.6198
-5.5455 .}CH -0.6149
-5.7216 .}D|AA -0.2496
-5.7216 .}ER|EY -0.6786
-5.1776 .}EY -1.4539
-6.0227 .}IH -0.6713
-6.0227 .}IH|V -0.6198
-6.0227 .}IH|Z -0.6198
-4.5175 .}IY -1.4909
-6.0227 .}P -0.6786
-6.0227 .}P|AO -0.6786
-4.9813 .}S -0.9465
-5.7216 .}T|ER -0.6151
-5.5455 .}UW -0.6088
-6.0227 .}Y|AH -0.6198
-5.2445 .}Y|UW -0.1798
-6.0227 /|s}S -0.6619
-6.0227 0}Z|IH -0.6786
-5.3237 1}AH|N -0.3534
-6.0227 1}HH|W -0.6786
-6.0227 2|)}AY -0.6786
-6.0227 2|)}D -0.6198
-5.7216 2|)}ER -0.1908
-4.9813 2|)}Z -1.0204
-2.0702 2|)}_ -3.3263
-6.0227 2}AH|B -0.6786
-6.0227 2}AH|T -0.6786
-6.0227 2}IH|ZH -0.6786
-5.1776 2}T|UW -1.1638
-6.0227 2}UW|S -0.6786
-6.0227 3|)}M -0.6198
-3.1234 3|)}_ -3.5189
-5.7216 3}AH|B -0.2496
-5.4206 3}TH -0.3651
-3.7130 4|)}_ -2.2529
-5.3237 4}AO|R -0.3534
-6.0227 5|)}IY -0.6198
-6.0227 5|)}Z -0.6198
-5.5455 5}AY|V -0.5432
-5.7216 6}S|IH -0.2496
-5.7216 7}EH|V -0.2496
-6.0227 8|0}IY -0.6198
-5.5455 8}EY|T -0.5432
-5.7216 9}N|AY -0.6786
-6.0227 :|c}K -0.6713
-5.7216 ;|s}S -0.2396
-0.8973 </s> 0.0000
-99.0000 <s> -2.5771
-6.0227 ?|q}K -0.6780
-6.0227 _|d}D -0.6637
-6.0227 _|p}P -0.6593
-5.3237 _}AA|N -0.4210
-5.7216 _}AA|R -0.6563
-3.3608 _}AH -1.2421
-4.8466 _}AH|L -1.3138
-5.3237 _}AH|N -1.0178
-5.3237 _}AO|R -0.4363
-4.7004 _}B -0.8070
-5.5455 _}B|ER -0.5432
-3.5802 _}EH -1.3650
-6.0227 _}EH|M -0.6786
-4.3414 _}EY -0.5735
-5.1776 _}EY|N -1.1250
-4.7674 _}F -0.6219
-5.7216 _}HH -0.6592
-4.4664 _}IH -0.4669
-6.0227 _}IH|L -0.6784
-6.0227 _}IH|M -0.6786
-3.6443 _}IY -0.9041
-6.0227 _}JH|UW -0.6786
-6.0227 _}K -0.6734
-5.7216 _}K|S -0.6198
-6.0227 _}L -0.6786
-5.7216 _}L|Z -0.6710
-6.0227 _}M|ER -0.6786
-4.8185 _}N -0.3848
-4.5455 _}N|T -0.9902
-4.9813 _}R -0.3601
-5.1196 _}R|IY -0.7187
-6.0227 _}R|OW -0.6198
-5.7216 _}R|T -0.2476
-4.8765 _}S -0.3504
-5.5455 _}S|T -0.2925
-4.8765 _}T -0.3605
-6.0227 _}T|ER -0.6785
-3.7626 _}W -1.5147
-3.1726 _}Y -1.8343
-4.6424 _}Y|UW -0.5755
-5.3237 _}Z -0.6110
-6.0227 a|_}AE -0.6695
-5.0227 a|c}AE -1.6765
-5.7216 a|g}AE -0.6500
-3.4109 a|i}EH -1.6046
-2.8237 a|i}EY -1.3844
-6.0227 a|i}OY -0.6593
-4.4316 a|j}AY -0.4254
-6.0227 a|k}AE -0.6735
-4.3506 a|l}AA -1.5252
-4.4664 a|l}AE -1.2307
-4.0270 a|l}AO -2.3361
-5.4206 a|n}AA -0.3516
-5.0684 a|n}AE -0.5603
-5.7216 a|n}AH -0.6528
-4.0684 a|o}AW -0.5606
-2.7373 a|r}ER -1.0455
-2.9257 a|u}AO -1.6225
-3.2240 a|u}AW -0.9274
-3.4283 a|u}OW -1.1376
-3.3108 a|w}AO -1.1456
-5.0684 a|w}AW -0.5828
-5.2445 a|y}EH -1.4298
-2.8787 a|y}EY -1.3097
-4.9435 a|y}_ -1.0131
-1.8734 a}AA -2.0306
-1.6887 a}AE -2.6153
-1.6120 a}AH -2.4797
-2.8542 a}AO -1.5440
-5.7216 a}AW -0.6682
-4.3237 a}AY -0.7436
-2.6477 a}EH -2.2482
-4.7674 a}ER -1.5277
-2.0882 a}EY -1.9802
-6.0227 a}EY|M -0.6713
-3.1629 a}IH -1.9384
-6.0227 a}IH|P -0.6786
-4.9435 a}IY -0.5514
-6.0227 a}OW -0.6671
-6.0227 a}T|R -0.6786
-5.0227 a}Y -0.9366
-2.7288 a}_ -1.1099
-6.0227 b|a}_ -0.6701
-3.3637 b|b}B -1.4140
-4.5755 b|t}T -0.2949
-6.0227 b|v}B -0.6784
-5.5455 b|y}B -0.3401
-4.1418 b}AH -1.8698
-1.7104 b}B -1.8347
-5.5455 b}B|AH -0.6538
-5.7216 b}N|D -0.6114
-6.0227 b}P -0.6623
-6.0227 c|.}K -0.6198
-3.8380 c|c}CH -1.3513
-3.4627 c|c}K -1.5542
-5.3237 c|g}G -0.2873
-2.5015 c|h}CH -1.3053
-4.2233 c|h}HH -0.9725
-6.0227 c|h}L -0.6734
-3.4700 c|h}SH -1.0327
-4.7922 c|h}_ -0.5239
-4.0831 c|i}CH -1.4403
-3.5588 c|i}SH -1.7769
-2.4691 c|k}K -1.5795
-6.0227 c|k}_ -0.6701
-4.9813 c|q}K -0.8510
-5.7216 c|y}S -0.2329
-3.7650 c|z}CH -1.0404
-5.4206 c|z}Z -0.3593
-4.9087 c|z}_ -0.3096
-4.1966 c}AE|K -1.2007
-3.2445 c}AH -2.0418
-3.3882 c}CH -1.3870
-5.3237 c}G -0.2682
-5.3237 c}IY -0.2380
-1.6803 c}K -1.9124
-2.3284 c}S -2.2179
-4.0684 c}SH -1.8678
-5.0227 c}T -0.7398
-6.0227 c}TH -0.6686
-4.1088 c}T|S -1.2891
-4.2373 c}Y -2.4539
-4.6609 c}_ -1.0572
-3.3599 d|g}JH -1.5335
-4.4545 d|z}JH -1.2769
-4.0449 d}AH -1.9656
-6.0227 d}B -0.6198
-1.5141 d}D -1.7205
-3.8796 d}JH -1.7675
-4.7922 d}T -0.5691
-3.0422 d}_ -1.2182
-6.0227 e|(}AY -0.6749
-2.7441 e|a}IY -1.9148
-6.0227 e|b}_ -0.6619
-3.0472 e|d}T -2.9124
-3.6553 e|i}EY -0.7865
-4.7439 e|j}EY -0.4594
-6.0227 e|l}AH -0.6198
-6.0227 e|m}EH -0.6623
-5.7216 e|m}IH -0.2411
-5.3237 e|n}AH -0.4338
-6.0227 e|n}AO -0.6593
-5.0684 e|n}EH -0.9809
-6.0227 e|n}IH -0.6766
-6.0227 e|n}_ -0.6198
-1.7182 e|r}ER -1.5583
-6.0227 e|u}AY -0.6713
-4.0542 e|u}OY -0.4793
-5.4206 e|w}OW -0.5527
-3.2570 e|w}UW -0.7439
-4.8185 e|y}EH -0.6504
-3.6317 e|y}EY -0.8385
-5.7216 e|z}EY -0.6151
-4.2984 e}AA -1.1756
-5.2445 e}AE -0.9429
-1.9614 e}AH -2.5181
-4.8185 e}AO -0.8062
-1.6425 e}EH -2.5419
-5.1776 e}ER -1.1232
-2.9522 e}EY -1.1892
-2.0620 e}IH -2.3641
-2.1082 e}IY -1.4469
-6.0227 e}M -0.6198
-6.0227 e}N|UW -0.6198
-5.7216 e}S -0.1908
-5.7216 e}TH|IY -0.6786
-4.5175 e}W -2.1708
-4.3792 e}Y -1.7560
-5.7216 e}Y|UW -0.6706
-1.4714 e}_ -1.7821
-5.7216 f|.}F -0.1908
-6.0227 f|_}F -0.6782
-6.0227 f|e}AH -0.6541
-2.8268 f|f}F -1.2765
-6.0227 f|f}_ -0.6198
-2.0017 f}F -1.6752
-5.4206 f}V -0.3418
-6.0227 g|(}_ -0.6749
-3.2226 g|g}G -1.2609
-4.4206 g|g}JH -1.1608
-5.7216 g|g}Z -0.2435
-4.1838 g|h}F -0.6597
-6.0227 g|h}OW -0.6198
-5.7216 g|h}P -0.6010
-2.9949 g|h}_ -1.2524
-6.0227 g|i}IH -0.6601
-3.9257 g|i}JH -1.5568
-4.0636 g|n}N -0.7415
-5.1196 g|t}T -0.5560
-3.4976 g|u}G -1.6711
-5.5455 g|u}UW -0.3499
-1.9306 g}G -1.6837
-4.8466 g}HH -1.3557
-6.0227 g}IY|N -0.6784
-2.4871 g}JH -2.5374
-4.5313 g}K -0.6366
-4.0056 g}ZH -1.3106
-6.0227 g}Z|EY -0.6637
-4.5603 h}AH -1.0677
-5.5455 h}EY -0.3415
-4.7216 h}EY|CH -0.7703
-2.0789 h}HH -2.2254
-5.5455 h}TH -0.2740
-2.2154 h}_ -1.3796
-5.7216 i|.}AY -0.6173
-5.1776 i|c}AY -0.7577
-6.0227 i|c}_ -0.6750
-5.7216 i|e}UW -0.2495
-6.0227 i|f}IH -0.6775
-4.1306 i|g}AY -1.8039
-4.4912 i|g}_ -1.5195
-6.0227 i|l}EY -0.6198
-6.0227 i|l}IH -0.6601
-6.0227 i|l}IY -0.6198
-5.7216 i|m}IH -0.2420
-5.2445 i|n}IH -0.2905
-6.0227 i|n}W -0.6739
-5.4206 i|o}SH -0.3608
-4.8466 i|o}_ -0.6898
-3.1036 i|r}ER -1.1149
-4.4206 i|s}_ -0.9696
-6.0227 i|y}_ -0.6749
-4.4316 i}AA -0.6930
-4.5455 i}AE -1.4668
-2.2685 i}AH -2.1601
-4.8185 i}AO -1.5525
-2.0572 i}AY -1.3849
-4.0449 i}EH -1.0748
-5.5455 i}ER -0.5827
-5.2445 i}EY -0.6028
-1.4411 i}IH -2.8765
-1.8523 i}IY -1.3497
-6.0227 i}W -0.6744
-3.1985 i}Y -1.8566
-3.7747 i}_ -0.6150
-5.2445 j|o}W -1.3053
-5.0684 j|u}W -0.9941
-4.4206 j}HH -0.7544
-2.6904 j}JH -1.3535
-6.0227 j}L|IY -0.6782
-6.0227 j}OY|CH -0.6626
-3.5455 j}Y -1.2234
-4.2097 j}ZH -0.3625
-4.6609 j}_ -0.2897
-6.0227 k|j}JH -0.6686
-4.2303 k|k}K -0.7357
-3.6479 k|n}N -1.2676
-6.0227 k|o}AH -0.6743
-6.0227 k|p}P -0.6697
-5.3237 k}G -0.2971
-5.0684 k}HH -1.6223
-1.9099 k}K -1.4176
-6.0227 k}OW|K -0.6686
-5.5455 l|.}L -0.2902
-5.4206 l|d}D -0.3936
-5.7216 l|e}AH -0.2329
-6.0227 l|e}IY -0.6679
-6.0227 l|e}_ -0.6784
-6.0227 l|f}F -0.6745
-4.2445 l|k}K -0.5389
-2.1650 l|l}L -1.6099
-5.4206 l|l}Y -0.3867
-4.7216 l|l}_ -0.6784
-4.6802 l|m}M -0.9840
-5.5455 l|o}ER -0.5775
-4.4206 l|t}_ -1.4104
-2.6394 l}AH|L -2.2967
-1.4232 l}L -1.8293
-5.7216 l}P|AW -0.2496
-6.0227 l}T|S -0.6769
-5.7216 l}UH|L -0.6624
-4.8765 l}Y -0.4365
-5.5455 m|.}M -0.2902
-6.0227 m|a}EY -0.6651
-3.8268 m|b}M -1.0339
-6.0227 m|e}_ -0.6671
-6.0227 m|m}AH -0.6671
-2.9945 m|m}M -1.6622
-4.7439 m|n}M -0.3600
-5.4206 m|n}N -0.2424
-5.5455 m|p}N -0.5835
-6.0227 m|u}AH -0.6757
-6.0227 m}AE|D -0.6739
-6.0227 m}D|AE -0.6786
-1.5823 m}M -1.6721
-5.3237 m}M|AE -0.6459
-3.3984 m}M|AH -2.6514
-6.0227 m}M|AW -0.6786
-5.7216 m}M|AY -0.2496
-6.0227 m}N -0.6198
-5.3237 n|.}N -1.0105
-6.0227 n|.}_ -0.6198
-4.9813 n|c}NG -1.7004
-5.1776 n|d}M -0.5977
-5.1776 n|d}_ -0.7647
-6.0227 n|e}_ -0.6541
-5.1196 n|g}G -0.6195
-2.1456 n|g}NG -1.7766
-5.4206 n|k}NG -1.2526
-5.0684 n|m}M -1.4724
-2.7113 n|n}N -1.4916
-6.0227 n}EH|T -0.6786
-6.0227 n}L|V -0.6786
-5.5455 n}M -0.6468
-1.2594 n}N -1.8619
-2.6607 n}NG -2.5006
-5.7216 n}N|ER -0.6786
-6.0227 n}S|IY -0.6198
-6.0227 n}Y -0.6784
-5.4206 o|.}OW -0.3362
-5.7216 o|_}ER -0.2303
-6.0227 o|_}OW -0.6710
-6.0227 o|b}AH -0.6778
-6.0227 o|g}OW -0.6619
-6.0227 o|h}F -0.6776
-3.2577 o|i}OY -1.2668
-4.7216 o|j}OY -0.4591
-6.0227 o|k}OW -0.6198
-5.4206 o|l}AH -0.3405
-6.0227 o|l}AO -0.6782
-5.0684 o|n}AH -0.2444
-6.0227 o|n}W -0.6739
-3.0627 o|o}UH -2.2625
-2.9331 o|o}UW -1.4182
-2.5819 o|r}ER -1.2611
-6.0227 o|r}EY -0.6713
-3.1794 o|u}AH -1.8016
-3.6590 o|u}AO -1.7334
-2.7816 o|u}AW -1.6080
-3.9508 o|u}UH -1.7607
-3.2533 o|u}UW -0.8503
-3.0777 o|w}AW -1.1372
-3.0270 o|w}OW -1.0612
-3.2807 o|y}OY -0.9135
-2.0134 o}AA -2.2843
-5.3237 o}AE -0.3796
-1.9236 o}AH -2.4004
-2.1417 o}AO -2.6314
-4.4664 o}AW -1.2407
-6.0227 o}D|OW -0.6671
-5.4206 o}EH -0.3585
-4.8185 o}ER -0.9756
-4.0227 o}IH -1.2612
-1.7772 o}OW -1.7905
-5.2445 o}OY -0.6421
-4.1593 o}UH -1.2625
-3.6783 o}UW -0.8008
-4.2097 o}W -1.0259
-3.1234 o}_ -1.4146
-6.0227 p|.}P -0.6198
-4.2518 p|f}F -0.6647
-5.7216 p|f}P -0.5916
-2.9446 p|h}F -1.5422
-5.2445 p|h}V -0.3145
-5.5455 p|l}P -0.3415
-2.9044 p|p}P -1.8332
-4.1901 p|s}S -0.8984
-5.4206 p|s}_ -0.3363
-5.7216 p}F -0.2484
-6.0227 p}IH -0.6619
-1.7599 p}P -1.7990
-5.7216 p}P|ER -0.6735
-4.1901 p}_ -0.7957
-6.0227 q|i}JH -0.6783
-5.5455 q|u}G -0.6445
-3.6443 q|u}K -1.2926
-4.3792 q|u}W -1.3717
-6.0227 q|v}K -0.6786
-5.7216 q}CH -0.6626
-2.9657 q}K -1.8820
-5.7216 r|z}JH -0.6784
-6.0227 r}AA -0.6593
-5.7216 r}AA|K -0.6786
-4.6077 r}AA|R -0.4804
-6.0227 r}AY|V -0.6198
-3.2540 r}ER -0.7930
-6.0227 r}IH -0.6623
-5.5455 r}IH|S -0.6786
-1.3610 r}R -1.6109
-2.6738 r}_ -1.0232
-5.4206 s|.}Z -1.2172
-2.9257 s|c}SH -2.5241
-2.4705 s|h}SH -1.3907
-5.0684 s|i}CH -0.9948
-4.2823 s|i}SH -1.2998
-3.6685 s|i}ZH -1.9292
-5.1776 s|j}SH -0.7689
-5.4206 s|k}S -0.6528
-2.4847 s|s}S -1.5937
-3.6590 s|s}SH -1.7806
-5.0227 s|t}_ -0.9152
-5.5455 s|u}ZH -0.5913
-3.9327 s|z}SH -0.8621
-4.5603 s}AH -2.1242
-5.1776 s}CH -0.6379
-6.0227 s}CH|UW -0.6786
-6.0227 s}ER|N -0.6786
-6.0227 s}L|Z -0.6198
-1.4321 s}S -1.9729
-4.0056 s}SH -0.9580
-6.0227 s}S|AW -0.6786
-6.0227 s}S|UW -0.6786
-6.0227 s}UW -0.6593
-1.7753 s}Z -2.0081
-3.9813 s}ZH -1.2134
-3.2653 s}_ -0.9742
-6.0227 t|.}T -0.6198
-6.0227 t|e}ER -0.6593
-3.2653 t|h}DH -1.1472
-2.5625 t|h}TH -1.1141
-3.9435 t|i}CH -1.6615
-2.6284 t|i}SH -3.4188
-5.7216 t|i}ZH -0.2444
-3.3932 t|s}_ -2.7942
-2.5429 t|t}T -1.7378
-4.7922 t|u}CH -1.8889
-6.0227 t|u}SH -0.6778
-3.6230 t}AH -3.0360
-3.2503 t}CH -1.9576
-4.6802 t}D -0.4147
-4.0056 t}EY -1.5677
-5.7216 t}IH -0.2329
-5.5455 t}S -0.3416
-4.0404 t}SH -1.3499
-1.3789 t}T -1.8211
-5.5455 t}TH -0.3318
-6.0227 t}T|OW -0.6786
-2.8054 t}_ -1.3601
-4.9813 u|b}AH -0.5529
-3.9188 u|i}UW -1.2328
-6.0227 u|j}AY -0.6728
-5.7216 u|l}AH -0.2411
-4.9087 u|l}UH -1.1326
-5.4206 u|n}AH -0.4041
-2.6110 u|r}ER -0.9882
-4.9435 u|x}OW -1.6943
-5.4206 u|y}OY -0.6510
-5.4206 u|y}UW -0.3232
-5.3237 u}AA -0.4054
-2.0048 u}AH -2.2864
-4.3414 u}AO -1.9734
-5.3237 u}AW -0.2801
-3.8437 u}EH -2.7960
-5.0684 u}ER -0.4673
-3.8380 u}IH -1.9753
-6.0227 u}L -0.6743
-2.9612 u}UH -1.6096
-2.3418 u}UW -1.1785
-2.8486 u}W -2.0965
-3.9257 u}Y -1.7104
-2.7253 u}Y|UW -0.8416
-3.3228 u}_ -0.8413
-5.1196 v|v}V -0.6154
-6.0227 v}EH|L -0.6786
-4.3892 v}F -1.5598
-2.0014 v}V -1.6337
-6.0227 v}V|ER -0.6786
-4.1476 w|h}HH -2.2222
-5.5455 w|y}OY -0.5937
-4.6802 w}D|AH -1.7200
-3.6110 w}F -2.3969
-3.5175 w}HH|W -2.0166
-6.0227 w}IY|D -0.6745
-5.0684 w}UW -0.9878
-3.7650 w}V -0.9051
-2.1967 w}W -2.2679
-3.9471 w}Y|UW -0.8319
-3.5108 w}_ -1.0754
-5.5455 x|i}SH -0.3457
-5.2445 x|i}ZH -0.3199
-6.0227 x}AE|K -0.6786
-6.0227 x}CH -0.6784
-3.7650 x}G|Z -1.4369
-5.4206 x}G|ZH -0.3641
-6.0227 x}HH -0.6713
-4.0270 x}K -1.5658
-2.7727 x}K|S -1.3158
-4.7439 x}K|SH -1.0358
-5.3237 x}SH -0.4263
-4.3067 x}Z -0.7650
-5.7216 x}ZH -0.2490
-4.0449 x}_ -1.5495
-6.0227 y|'}_ -0.6593
-6.0227 y|(}_ -0.6786
-6.0227 y|l}L -0.6739
-5.5455 y|n}IH -0.3288
-4.4545 y|r}ER -0.3747
-3.8673 y}AH -1.0670
-2.7522 y}AY -0.9105
-5.7216 y}EY -0.6027
-2.9244 y}IH -1.5775
-2.0617 y}IY -2.0064
-5.7216 y}W -0.2496
-2.9852 y}Y -1.6049
-6.0227 z|a}AA -0.6593
-6.0227 z|c}ZH -0.6626
-6.0227 z|h}JH -0.6786
-5.3237 z|i}ZH -0.6353
-6.0227 z|s}SH -0.6198
-5.1776 z|s}_ -1.5202
-5.4206 z|y}IH -0.4113
-5.5455 z|y}Z -0.3410
-3.6443 z|z}Z -1.0385
-3.0699 z}S -1.1834
-4.0056 z}T -2.6936
-4.3892 z}T|S -0.5999
-2.3967 z}Z -1.2408
-4.5455 z}ZH -1.0632
-4.9813 z}_ -0.3610
-6.0227 {|b}B -0.6593
-6.0227 {|l}L -0.6686
-6.0227 }|c}K -0.6619
-6.0227 }|r}R -0.6748

\2-grams:
-0.1021 !|e}EH x}K|S 0.0000
-0.1021 "|c}K l}L 0.0000
-0.1021 "|d}D o|u}AH 0.0000
-0.3594 "|e}EH n}N -0.3594
-0.1021 "|i}IH n}N 0.0000
-0.1021 "|q}K u}W 0.0000
-0.1021 "|u}AH n}N 0.0000
-0.1021 #|s}SH h}_ 0.0000
-0.1021 %|p}P e|r}ER 0.0000
-0.1021 &|a}AE m}M 0.0000
-1.0677 '|s}Z (}_ 0.0337
-0.0389 '|s}Z </s> 0.0000
-1.7304 '}AH (}_ -0.3977
-1.7742 '}AH d}D 0.0000
-1.7742 '}AH g}G 0.0000
-0.6721 '}AH l|l}L -1.0020
-1.7304 '}AH m}M 0.0000
-1.3152 '}AH n}N -0.0524
-0.3297 '}AH s}Z -0.8377
-0.9731 '}AH v}V -0.8040
-0.1021 '}EH s}S 0.0000
-0.1021 '}ER|EY s}SH 0.0000
-2.2006 '}IH (}_ -0.6542
-2.0804 '}IH d}D -0.1099
-2.6597 '}IH l|l}L 0.0000
-2.6597 '}IH r}R 0.0000
-1.3271 '}IH s}S -0.8791
-0.0338 '}IH s}Z -1.9160
-2.6597 '}IH v}V 0.0000
-0.5793 '}IH|Z (}_ 0.0000
-0.5354 '}IH|Z </s> 0.0000
-1.3371 '}IY a}AE -0.2847
-1.3371 '}IY a}AH -0.3810
-1.3809 '}IY g}JH 0.0000
-1.3371 '}IY s}S 0.0000
-0.1996 '}IY s}Z -0.6092
-0.1021 '}IY|OW v}V 0.0000
-0.1021 '}SH|AH _}N 0.0000
-1.4085 '}_ (}_ 0.6539
-0.4499 '}_ </s> 0.0000
-3.4551 '}_ a|u}AO 0.0000
-2.2738 '}_ a}AA -0.3400
-2.5874 '}_ a}AE -0.1722
-2.3987 '}_ a}AH -0.3636
-3.4551 '}_ a}AO 0.0000
-3.4551 '}_ a}EY 0.0000
-3.4551 '}_ a}_ 0.0000
-1.9380 '}_ b}B -0.3492
-2.0977 '}_ c}K -0.3041
-3.4551 '}_ c}S 0.0000
-1.7297 '}_ d}D -0.4564
-3.4551 '}_ e|r}ER 0.0000
-3.4551 '}_ e}AA 0.0000
-2.9961 '}_ e}AH -0.0817
-2.2390 '}_ e}EH -0.4125
-3.4113 '}_ e}EY -0.3820
-3.4551 '}_ e}IY 0.0000
-3.4113 '}_ e}_ 0.0000
-2.5874 '}_ f}F -0.2844
-2.5874 '}_ g}G 0.0004
-2.0742 '}_ h}HH -0.1972
-3.4113 '}_ h}_ -0.3975
-3.4113 '}_ i}IH 0.0000
-3.4551 '}_ i}IY 0.0000
-2.3987 '}_ k}K -0.2632
-2.2068 '}_ l|l}L -1.1481
-2.5966 '}_ l}L -0.2175
-2.3116 '}_ m}M -0.0252
-2.5966 '}_ n}N -0.4125
-2.8758 '}_ o}AO -0.4386
-3.4113 '}_ o}_ -0.3926
-3.4113 '}_ q}K 0.7143
-2.4499 '}_ r}ER -0.6670
-2.3116 '}_ r}R -0.1933
-2.8758 '}_ s|h}SH 0.0000
-0.3338 '}_ s}S -2.3209
-2.0519 '}_ s}_ -1.2674
-1.8758 '}_ t}T -0.7201
-2.4499 '}_ t}_ -0.6149
-2.5874 '}_ v}V -0.5412
-0.1021 (}AE|L 2|)}_ 0.0000
-0.1021 (}AE|M 2|)}_ 0.0000
-0.4032 (}AH|N 2|)}Z 0.0000
-0.4032 (}AH|N 2|)}_ 0.0000
-0.3594 (}AH|T 2|)}_ 0.0000
-0.1021 (}AH|V 2}IH|ZH 0.0000
-0.1021 (}AO|S 2}AH|B 0.0000
-0.1021 (}B|AH _}Y|UW 0.0000
-0.1021 (}CH|IY 3|)}_ 0.0000
-0.1021 (}EH|T 2}AH|T 0.0000
-0.8011 (}ER 2|)}Z 0.0000
-0.8011 (}ER 2|)}_ 0.0000
-0.8011 (}ER 3|)}_ 0.0000
-0.8011 (}ER 3}AH|B 0.0000
-0.8011 (}ER _}N 0.0000
-0.1021 (}ER|AW 2|)}ER 0.0000
-0.1021 (}EY|SH 2|)}_ 0.0000
-0.0649 (}IY 2|)}_ 1.4473
-1.0792 (}IY 3|)}_ 2.0069
-1.6146 (}IY 4|)}_ 1.9136
-0.1021 (}R|EY _}T 0.0000
-0.1021 (}R|JH 3|)}_ 0.0000
-0.1021 (}SH|AH 2|)}_ 0.0000
-0.1021 (}S|T 2|)}_ 0.0000
-0.1249 (}T|ER 2|)}_ 2.0601
-0.1021 (}W|AY 2|)}_ 0.0000
-0.3594 (}Y|UW 2|)}_ 2.5543
-4.0987 (}_ 2|)}AY 0.0000
-3.0423 (}_ 2|)}Z 0.0792
-0.0466 (}_ 2|)}_ -0.9381
-4.0987 (}_ 3|)}M 0.0000
-1.1006 (}_ 3|)}_ 0.0027
-4.0987 (}_ 3}AH|B 0.0000
-1.6912 (}_ 4|)}_ 0.0043
-4.0987 (}_ 5|)}Z 0.0000
-4.0987 (}_ b}B 0.0000
-4.0987 (}_ i}IH 0.0000
-4.0987 (}_ l}L 0.0000
-4.0987 (}_ o}OW 0.0000
-3.5194 (}_ p}P -0.8893
-0.3594 )|c}K l}L -0.3877
-0.2452 )|e}EH n}N -0.6159
-0.3594 )|p}P a|r}ER -0.3830
-0.3594 )|r}R i}AY -0.3743
-0.1021 )|u}AH n}N 0.0000
-0.5354 )}AH|L </s> 0.0000
-0.5793 )}AH|L _}Y|UW 0.0000
-0.1021 )}AH|N </s> 0.0000
-0.1021 )}IH|V </s> 0.0000
-0.1021 ,|c}K o}AA 0.0000
-0.3594 -}EY m}M -0.3744
-0.1021 -}EY|T 8|0}IY 0.0000
-0.1021 -}F 4}AO|R 0.0000
-1.0052 -}IY b}B 0.0000
-0.9614 -}IY c}K -0.3693
-0.9614 -}IY j}JH -0.3957
-1.0052 -}IY l}L 0.0000
-0.9614 -}IY s}S -0.3791
-2.8588 -}_ 2}T|UW 0.0000
-2.8588 -}_ 3}TH 0.0000
-2.8588 -}_ 8}EY|T 0.0000
-2.8588 -}_ _}W 0.0000
-2.8588 -}_ a|i}EH 0.0000
-2.2795 -}_ a|i}EY -0.8893
-2.8588 -}_ a|r}ER 0.0000
-2.8588 -}_ a|u}OW 0.0000
-2.0577 -}_ a}AA 0.0401
-1.9911 -}_ a}AE -0.1883
-1.7152 -}_ a}AH -0.5260
-2.8588 -}_ a}EH 0.0000
-2.8588 -}_ a}EY 0.0000
-1.2003 -}_ b}B -0.1994
-2.0577 -}_ c|h}CH -0.3011
-2.8150 -}_ c|h}SH -0.3574
-1.1232 -}_ c}K -0.3633
-2.0577 -}_ c}S -0.3586
-1.3253 -}_ d}D -0.2427
-2.8588 -}_ e|a}IY 0.0000
-2.2795 -}_ e}AA -0.0132
-2.8588 -}_ e}AH 0.0000
-2.3998 -}_ e}EH -0.1248
-2.8588 -}_ e}EY 0.0000
-2.2795 -}_ e}IH -0.2203
-2.8588 -}_ e}Y 0.0000
-2.3998 -}_ e}_ -0.4588
-1.3949 -}_ f}F -0.3481
-1.6775 -}_ g}G -0.2938
-1.2653 -}_ h}HH -0.1725
-2.2795 -}_ h}_ -0.2062
-2.0002 -}_ i}AY -0.9119
-1.8535 -}_ i}IH -0.1821
-2.8588 -}_ j|u}W 0.0000
-2.8588 -}_ j}HH 0.0000
-1.7566 -}_ j}JH -0.0411
-2.8150 -}_ k|n}N -0.3618
-1.9911 -}_ k}K 0.0000
-1.4142 -}_ l}L -0.2409
-1.3764 -}_ m}M -0.2734
-1.7566 -}_ n}N -0.1777
-2.8150 -}_ o|u}AW -0.2629
-1.4556 -}_ o}AA -1.3326
-2.8588 -}_ o}AH 0.0000
-1.8535 -}_ o}AO 0.0051
-2.0577 -}_ o}OW 0.0000
-2.8588 -}_ o}_ 0.0000
-1.1132 -}_ p}P -0.4531
-1.7152 -}_ q}K 0.0332
-2.8588 -}_ r}ER 0.0000
-1.4779 -}_ r}R -0.2192
-2.8588 -}_ r}_ 0.0000
-2.3998 -}_ s|h}SH -0.1432
-1.1034 -}_ s}S -0.2883
-2.8150 -}_ t|h}DH 0.0000
-2.8150 -}_ t|h}TH -0.3648
-1.4556 -}_ t}T -0.2641
-2.8588 -}_ u|r}ER 0.0000
-1.8535 -}_ u}AH -0.9387
-2.8588 -}_ u}Y|UW 0.0000
-2.0002 -}_ v}V 0.0000
-2.8588 -}_ w}HH|W 0.0000
-1.4556 -}_ w}W -0.4375
-1.6427 -}_ y}Y -0.2835
-2.2795 -}_ z}Z -0.2083
-2.8588 -}_ z}ZH 0.0000
-0.1021 .|'}IH s}Z 0.0000
-0.1021 .|(}OW 2|)}_ 0.0000
-0.1021 .|.}IH .|e}L 0.0000
-0.4032 .|d}D e}EH 0.0000
-0.4032 .|d}D o}AA 0.0000
-0.1021 .|e}L l|l}_ 0.0000
-0.1021 .|f}F u}UH 0.0000
-0.4032 .|p}P e}IH 0.0000
-0.4032 .|p}P o|i}OY 0.0000
-0.8803 .|s}Z '}_ 0.0000
-0.0792 .|s}Z </s> 0.0000
-0.5793 .}AA|R '|s}Z 0.0000
-0.5793 .}AA|R </s> 0.0000
-0.5793 .}AA|R s}Z 0.0000
-0.1021 .}AH|B (}AE|M 0.0000
-0.1021 .}AH|K (}AH|T 0.0000
-0.1021 .}AH|L </s> 0.0000
-0.4032 .}AY '|s}Z 0.0000
-0.4032 .}AY </s> 0.0000
-0.1021 .}AY|V </s> 0.0000
-0.5793 .}CH '}IH 0.0000
-0.5793 .}CH (}_ 0.0000
-0.5793 .}CH </s> 0.0000
-0.3594 .}D|AA _}T 0.0000
-0.4032 .}ER|EY '}SH|AH 0.0000
-0.4032 .}ER|EY (}SH|AH 0.0000
-0.3680 .}EY '|s}Z 0.1744
-0.3680 .}EY </s> 0.0000
-0.9472 .}EY s}Z 0.0000
-0.1021 .}IH s}Z 0.0000
-0.1021 .}IH|V </s> 0.0000
-0.1021 .}IH|Z </s> 0.0000
-0.5509 .}IY '|s}Z 0.0667
-1.6073 .}IY (}_ 0.0000
-0.5051 .}IY </s> 0.0000
-1.6073 .}IY _}EH 0.0000
-1.6073 .}IY d}D 0.0000
-1.6073 .}IY o|.}OW 0.0000
-0.5509 .}IY s}Z -0.4953
-0.1021 .}P _}AH|N 0.0000
-0.1021 .}P|AO (}R|EY 0.0000
-1.1435 .}S '}IH 0.0000
-0.5643 .}S '}_ -0.8885
-1.1435 .}S (}AH|T 0.0000
-1.1435 .}S (}ER 0.0000
-1.1435 .}S (}_ 0.0000
-0.5643 .}S </s> 0.0000
-1.1435 .}S e|r}ER 0.0000
-0.4032 .}T|ER (}_ 0.0000
-0.4032 .}T|ER </s> 0.0000
-0.5793 .}UW '|s}Z 0.0000
-0.5793 .}UW </s> 0.0000
-0.5793 .}UW s}Z 0.0000
-0.1021 .}Y|AH </s> 0.0000
-0.8365 .}Y|UW '|s}Z 0.6686
-0.8365 .}Y|UW </s> 0.0000
-0.8365 .}Y|UW s}Z 0.1066
-0.1021 /|s}S l}L 0.0000
-0.1021 0}Z|IH _}R|OW 0.0000
-0.8011 1}AH|N 2}T|UW 0.0000
-0.3421 1}AH|N </s> 0.0000
-0.1021 1}HH|W (}AH|N 0.0000
-0.1021 2|)}AY _}N 0.0000
-0.1021 2|)}D </s> 0.0000
-0.3594 2|)}ER </s> 0.0000
-0.0378 2|)}Z </s> 0.0000
-0.0005 2|)}_ </s> 0.0000
-4.0545 2|)}_ _}AH 0.0000
-4.0107 2|)}_ _}AH|N -0.0002
-4.0545 2|)}_ _}B|ER 0.0000
-3.5955 2|)}_ _}EY -0.5297
-4.0545 2|)}_ _}N 0.0000
-4.0545 2|)}_ _}S 0.0000
-0.1021 2}AH|B )}AH|L 0.0000
-0.1021 2}AH|T )}IH|V 0.0000
-0.1021 2}IH|ZH )}AH|N 0.0000
-0.9472 2}T|UW 8}EY|T 0.0000
-0.1461 2}T|UW </s> 0.0000
-0.9472 2}T|UW _}W 0.0000
-0.1021 2}UW|S 7}EH|V 0.0000
-0.1021 3|)}M </s> 0.0000
-0.0005 3|)}_ </s> 0.0000
-3.0014 3|)}_ _}AH 0.0000
-0.3594 3}AH|B )}AH|L 0.0000
-0.2452 3}TH _}R|IY -0.2286
-0.0021 4|)}_ </s> 0.0000
-0.8011 4}AO|R 2}T|UW 0.0000
-0.3421 4}AO|R </s> 0.0000
-0.1021 5|)}IY </s> 0.0000
-0.1021 5|)}Z </s> 0.0000
-0.1249 5}AY|V </s> 0.0000
-0.3594 6}S|IH _}K|S 0.0000
-0.3594 7}EH|V _}AH|N 0.0000
-0.1021 8|0}IY </s> 0.0000
-0.1249 8}EY|T </s> 0.0000
-0.4032 9}N|AY _}N 0.0000
-0.4032 9}N|AY _}N|T 0.0000
-0.1021 :|c}K o}OW 0.0000
-0.3594 ;|s}S e}EH -0.3756
-5.2275 <s> !|e}EH 0.0000
-5.2275 <s> "|c}K 0.0000
-5.2275 <s> "|d}D 0.0000
-5.1836 <s> "|e}EH -0.1485
-5.2275 <s> "|i}IH 0.0000
-5.2275 <s> "|q}K 0.0000
-5.2275 <s> "|u}AH 0.0000
-5.2275 <s> #|s}SH 0.0000
-5.2275 <s> %|p}P 0.0000
-5.2275 <s> &|a}AE 0.0000
-5.1836 <s> '}AH 0.0000
-5.2275 <s> '}EH 0.0000
-3.8949 <s> '}_ -0.1945
-4.3598 <s> (}_ -0.2031
-5.1836 <s> )|c}K -0.1485
-4.7684 <s> )|e}EH -0.2895
-5.1836 <s> )|p}P -0.1485
-5.1836 <s> )|r}R -0.1485
-5.2275 <s> )|u}AH 0.0000
-5.2275 <s> ,|c}K 0.0000
-5.1836 <s> -}_ 0.0000
-5.2275 <s> .|.}IH 0.0000
-5.1836 <s> .|d}D 0.0000
-5.2275 <s> .|f}F 0.0000
-5.1836 <s> .|p}P 0.0000
-5.2275 <s> /|s}S 0.0000
-5.2275 <s> 0}Z|IH 0.0000
-5.2275 <s> 1}HH|W 0.0000
-5.2275 <s> 2}T|UW 0.0000
-5.2275 <s> 3}TH 0.0000
-5.2275 <s> 6}S|IH 0.0000
-5.2275 <s> 8}EY|T 0.0000
-5.2275 <s> 9}N|AY 0.0000
-5.2275 <s> :|c}K 0.0000
-5.1836 <s> ;|s}S -0.1485
-5.2275 <s> ?|q}K 0.0000
-5.1836 <s> _}AH 0.2594
-3.0354 <s> _}EH -0.1723
-5.1836 <s> _}F 0.0000
-5.2275 <s> _}HH 0.0000
-4.7684 <s> _}IH -0.4230
-5.2275 <s> _}JH|UW 0.0000
-5.2275 <s> _}S 0.0000
-3.8700 <s> _}W -0.9132
-4.1711 <s> _}Y -0.5121
-5.2275 <s> a|c}AE 0.0000
-3.0390 <s> a|i}EH -0.6758
-3.3400 <s> a|i}EY -0.3501
-5.2275 <s> a|j}AY 0.0000
-4.7684 <s> a|l}AA 0.7342
-5.1836 <s> a|l}AO 0.0000
-5.1836 <s> a|n}AE -0.3538
-4.2222 <s> a|o}AW -0.1464
-3.1663 <s> a|r}ER -0.7864
-2.7598 <s> a|u}AO -0.7485
-3.4532 <s> a|u}AW -0.0865
-3.9212 <s> a|u}OW -0.1494
-4.0114 <s> a|w}AO -0.3616
-5.1836 <s> a|y}EH 0.3800
-3.5812 <s> a|y}EY -0.2253
-4.3689 <s> a|y}_ 0.2268
-2.0343 <s> a}AA -0.6079
-1.6646 <s> a}AE -0.6672
-1.8581 <s> a}AH -1.4933
-3.0354 <s> a}AO -1.7031
-4.7684 <s> a}AY -0.3631
-2.9521 <s> a}EH -1.0236
-2.6354 <s> a}EY -0.4476
-4.1711 <s> a}IH -0.9494
-5.2275 <s> a}T|R 0.0000
-3.2222 <s> a}_ -1.1128
-5.2275 <s> b|y}B 0.0000
-1.1429 <s> b}B -1.6200
-2.0927 <s> c|h}CH -1.1065
-4.6482 <s> c|h}HH 0.0000
-2.9580 <s> c|h}SH -0.1287
-3.6629 <s> c|i}CH -0.4711
-3.7103 <s> c|z}CH -0.4749
-4.7684 <s> c|z}Z -0.2895
-3.0839 <s> c}CH -0.5511
-1.1918 <s> c}K -1.8598
-2.2428 <s> c}S -0.7318
-5.2275 <s> c}SH 0.0000
-5.1836 <s> c}_ 0.0000
-4.0839 <s> d|z}JH -0.2626
-1.2399 <s> d}D -2.0709
-5.1836 <s> d}JH 0.0000
-4.3598 <s> d}_ -0.5772
-2.9610 <s> e|a}IY -0.4973
-3.8031 <s> e|i}EY -0.4232
-5.2275 <s> e|n}EH 0.0000
-3.1083 <s> e|r}ER -0.5567
-5.1836 <s> e|u}OY 0.0000
-4.6482 <s> e|y}EH -0.5333
-4.2222 <s> e|y}EY -0.0489
-3.7451 <s> e}AA -0.5188
-3.5233 <s> e}AH -0.5716
-5.2275 <s> e}AO 0.0000
-1.7324 <s> e}EH -0.7631
-3.5455 <s> e}EY -0.4216
-2.0545 <s> e}IH -1.3798
-2.6229 <s> e}IY -0.9202
-3.7829 <s> e}Y -0.7597
-2.5376 <s> e}_ -1.5452
-1.4096 <s> f}F -1.4060
-3.3400 <s> g|i}JH -0.5014
-3.6782 <s> g|n}N -0.4703
-2.8823 <s> g|u}G -1.5775
-1.4450 <s> g}G -1.5572
-5.1836 <s> g}HH 0.0000
-2.3198 <s> g}JH -0.6081
-5.2275 <s> g}K 0.0000
-3.6340 <s> g}ZH 0.0364
-5.1836 <s> h}EY -0.2485
-4.1253 <s> h}EY|CH 0.0150
-1.3283 <s> h}HH -0.2292
-2.9700 <s> h}_ -0.9790
-5.1836 <s> i|.}AY 0.0000
-4.4263 <s> i|n}IH -0.3025
-3.8243 <s> i|r}ER -0.5322
-5.2275 <s> i}AA 0.0000
-5.2275 <s> i}AH 0.0000
-2.5073 <s> i}AY -0.7385
-1.6614 <s> i}IH -0.9638
-3.1711 <s> i}IY -0.3448
-4.7684 <s> i}Y 0.0160
-5.1836 <s> i}_ 0.0000
-4.3689 <s> j|o}W 0.3980
-4.4263 <s> j|u}W 0.1309
-3.8243 <s> j}HH -0.0966
-1.9676 <s> j}JH -0.2707
-2.9435 <s> j}Y -0.2909
-3.6340 <s> j}ZH -0.1635
-5.2275 <s> k|j}JH 0.0000
-2.7929 <s> k|n}N -0.0186
-4.6482 <s> k}G -0.1385
-4.4263 <s> k}HH -0.5169
-1.5313 <s> k}K -1.4634
-5.2275 <s> k}OW|K 0.0000
-3.8466 <s> l|l}L -0.4336
-1.3892 <s> l}L -1.8620
-5.1836 <s> l}P|AW -0.1485
-5.1836 <s> m|m}M 0.0000
-4.7684 <s> m|n}N -0.1485
-1.1703 <s> m}M -1.7339
-4.4263 <s> m}M|AE 0.0219
-2.5010 <s> m}M|AH 0.0398
-5.2275 <s> m}M|AW 0.0000
-5.1836 <s> m}M|AY -0.1485
-4.3689 <s> n|g}G -0.0446
-1.6499 <s> n}N -1.8671
-5.1836 <s> o|.}OW 0.0000
-3.8700 <s> o|i}OY -0.7025
-5.2275 <s> o|n}W 0.0000
-3.9212 <s> o|o}UW -0.1524
-3.8466 <s> o|r}ER -0.5626
-4.6482 <s> o|u}AO -0.8276
-2.6876 <s> o|u}AW -0.8684
-4.4263 <s> o|u}UW 0.0000
-4.0839 <s> o|w}AW -0.0881
-3.7451 <s> o|w}OW -0.5248
-4.2222 <s> o|y}OY -0.0578
-2.3450 <s> o}AA -0.4425
-2.8265 <s> o}AH -0.5120
-2.4255 <s> o}AO -0.7830
-2.0322 <s> o}OW -1.2724
-5.2275 <s> o}UW 0.0000
-3.9792 <s> o}_ -0.3409
-3.5021 <s> p|f}F -0.3323
-2.5977 <s> p|h}F -0.8328
-3.3191 <s> p|s}S -0.1791
-1.2314 <s> p}P -1.7433
-3.9492 <s> p}_ -0.9234
-5.2275 <s> q|i}JH 0.0000
-3.7451 <s> q|u}K -0.1260
-5.1836 <s> q}CH 0.0000
-2.4760 <s> q}K -0.2874
-4.3598 <s> r}AA|R -0.0668
-4.6482 <s> r}ER -0.2015
-1.2615 <s> r}R -2.0191
-4.4263 <s> r}_ -0.3210
-2.2041 <s> s|c}SH -1.1672
-1.9883 <s> s|h}SH -1.2160
-5.1836 <s> s|i}SH 0.0000
-5.2275 <s> s|i}ZH 0.0000
-4.3598 <s> s|j}SH -0.1025
-5.2275 <s> s|s}S 0.0000
-3.5342 <s> s|z}SH -0.3259
-1.0655 <s> s}S -1.8174
-3.5233 <s> s}SH -0.4578
-5.2275 <s> s}S|AW 0.0000
-3.2388 <s> s}_ -1.0733
-3.3260 <s> t|h}DH -0.5424
-2.3178 <s> t|h}TH -1.1808
-4.3598 <s> t|s}_ -0.7757
-4.4263 <s> t}CH -0.3199
-4.3689 <s> t}D -0.7795
-1.4397 <s> t}T -1.5205
-3.6068 <s> t}_ -0.4670
-4.6482 <s> u|n}AH -0.1148
-3.2561 <s> u|r}ER -0.4692
-2.0167 <s> u}AH -1.2477
-4.2222 <s> u}AO -0.8641
-3.9792 <s> u}UH -0.6372
-3.3694 <s> u}UW -0.3157
-4.6482 <s> u}W -0.8372
-3.5455 <s> u}Y -0.7888
-2.6923 <s> u}Y|UW -0.7027
-5.1836 <s> u}_ -0.3573
-1.7557 <s> v}V -0.6218
-5.2275 <s> v}V|ER 0.0000
-3.2561 <s> w|h}HH 0.1323
-3.9492 <s> w}D|AH -0.1627
-2.6382 <s> w}HH|W -0.1313
-3.2168 <s> w}V -0.1261
-1.5541 <s> w}W -0.5387
-3.0047 <s> w}_ -1.6612
-5.2275 <s> x|i}SH 0.0000
-4.3689 <s> x|i}ZH -0.2283
-5.2275 <s> x}AE|K 0.0000
-5.2275 <s> x}K|S 0.0000
-4.7684 <s> x}SH -0.0715
-3.4532 <s> x}Z -0.0063
-5.1836 <s> x}ZH -0.1485
-4.3598 <s> y}IH -0.3281
-4.1711 <s> y}IY -0.1477
-5.1836 <s> y}W -0.1485
-2.2821 <s> y}Y 0.0372
-5.2275 <s> z|h}JH 0.0000
-5.1836 <s> z|i}ZH -0.3147
-5.1836 <s> z|y}Z -0.2485
-5.2275 <s> z}T|S 0.0000
-2.1749 <s> z}Z -0.7440
-3.9492 <s> z}ZH -0.7197
-5.2275 <s> {|b}B 0.0000
-5.2275 <s> {|l}L 0.0000
-5.2275 <s> }|c}K 0.0000
-5.2275 <s> }|r}R 0.0000
-0.1021 ?|q}K u}W 0.0000
-0.1021 _|d}D e}_ 0.0000
-0.1021 _|p}P r}R 0.0000
-0.8011 _}AA|N g}ZH 0.0000
-0.8011 _}AA|N j}ZH 0.0000
-0.7573 _}AA|N l}L 0.0000
-0.8011 _}AA|N s}S 0.0000
-0.4032 _}AA|R b}B 0.0000
-0.4032 _}AA|R d}D 0.0000
-2.7640 _}AH (}T|ER 0.0000
-2.7640 _}AH 2|)}D 0.0000
-2.3049 _}AH </s> 0.0000
-2.7640 _}AH _}EH 0.0000
-2.7640 _}AH _}S|T 0.0000
-2.7640 _}AH _}T 0.0000
-2.7640 _}AH _}W 0.0000
-2.3049 _}AH _}Y|UW 0.0000
-2.7201 _}AH b}B 0.0000
-2.7201 _}AH c}K -0.3881
-2.7640 _}AH d}D 0.0000
-2.7640 _}AH e}N|UW 0.0000
-2.7201 _}AH f}F 0.0000
-2.7201 _}AH g}G 0.0000
-2.1847 _}AH j}JH 0.0000
-2.1847 _}AH j}Y 0.0000
-2.7640 _}AH k}K 0.0000
-2.7640 _}AH l|l}L 0.0000
-2.7640 _}AH m|b}M 0.0000
-0.1079 _}AH m}M -1.5859
-1.1994 _}AH n}N -0.6000
-2.7640 _}AH n}S|IY 0.0000
-2.7640 _}AH p}P 0.0000
-2.1847 _}AH r}R -0.8716
-2.7640 _}AH s}CH|UW 0.0000
-1.9628 _}AH s}S 0.0000
-2.7640 _}AH s}Z 0.0000
-2.7640 _}AH t}T 0.0000
-2.7640 _}AH u}Y|UW 0.0000
-1.5479 _}AH v}V -0.0403
-1.8963 _}AH w}W -0.5768
-2.7640 _}AH z|y}Z 0.0000
-2.1847 _}AH z}Z 0.0000
-2.7640 _}AH z}ZH 0.0000
-0.6990 _}AH|L .}Y|UW 0.0000
-1.2782 _}AH|L </s> 0.0000
-0.2218 _}AH|L _}Y|UW 0.0393
-1.2782 _}AH|L a}EY 0.0000
-1.2782 _}AH|L u}Y|UW 0.0000
-0.8011 _}AH|N (}IY 0.0000
-0.8011 _}AH|N 6}S|IH 0.0000
-0.2218 _}AH|N </s> 0.0000
-0.8011 _}AO|R .}P|AO 0.0000
-0.7573 _}AO|R _}N 0.0000
-0.8011 _}AO|R e}TH|IY 0.0000
-0.8011 _}AO|R t}T 0.0000
-1.4244 _}B (}IY 0.0000
-0.9654 _}B _}AH -0.6525
-0.2083 _}B _}AH|L -0.2737
-1.4244 _}B _}EH 0.0000
-1.3805 _}B _}Y -0.3951
-0.1249 _}B|ER </s> 0.0000
-2.5008 _}EH .}S 0.0000
-2.5446 _}EH _}L 0.0000
-2.5446 _}EH _}R 0.0000
-2.5446 _}EH _}R|IY 0.0000
-2.5446 _}EH _}T 0.0000
-2.5446 _}EH _}T|ER 0.0000
-2.5446 _}EH c}S 0.0000
-2.5446 _}EH f|.}F 0.0000
-2.5446 _}EH f|f}F 0.0000
-1.1415 _}EH f}F -0.3246
-2.5008 _}EH l|.}L 0.0000
-1.0275 _}EH l}L -0.2222
-1.9654 _}EH m|.}M -0.0723
-0.7101 _}EH m}M -0.2129
-2.5008 _}EH n|.}N 0.0000
-2.5008 _}EH n|g}NG 0.0000
-0.7182 _}EH n}N -0.2817
-2.5008 _}EH r}R 0.0000
-2.5008 _}EH s|s}S -0.3979
-0.5851 _}EH s}S -0.3637
-2.5446 _}EH v}V 0.0000
-2.5446 _}EH x}G|Z 0.0000
-1.7435 _}EH x}K -0.3082
-1.1203 _}EH x}K|S -0.2649
-2.5446 _}EH z}Z 0.0000
-0.1021 _}EH|M _}B|ER 0.0000
-0.9823 _}EY '|s}Z 0.1976
-0.6021 _}EY </s> 0.0000
-1.2041 _}EY _}EH -0.8001
-1.7834 _}EY _}EY 0.0000
-1.7834 _}EY _}W 0.0000
-1.7834 _}EY a}AA 0.0000
-1.7396 _}EY a}AE -0.3674
-1.7834 _}EY a}EY 0.0000
-1.7396 _}EY c}K 0.0000
-1.7834 _}EY d}D 0.0000
-0.9248 _}EY e}AH -0.6890
-1.7396 _}EY j}JH -0.3957
-1.2041 _}EY k}K -0.8916
-1.7396 _}EY m}M -0.3744
-1.7834 _}EY n}N 0.0000
-1.7834 _}EY o}OW 0.0000
-1.7834 _}EY r}AA|R 0.0000
-1.7396 _}EY t}T 0.0000
-1.7834 _}EY w}D|AH 0.0000
-0.9472 _}EY|N _}Y 0.0000
-0.0887 _}EY|N t}T -0.0963
-0.8984 _}F 4}AO|R -0.1973
-0.7782 _}F 5}AY|V -0.2903
-1.3136 _}F e|r}ER -0.3939
-1.3574 _}F i}AH 0.0000
-1.3574 _}F i}IH 0.0000
-1.3574 _}F r}ER 0.0000
-0.5563 _}F r}R -0.5930
-1.3574 _}F s}S 0.0000
-0.4032 _}HH _}W 0.0000
-0.4032 _}HH r}R 0.0000
-1.6584 _}IH _}K 0.0000
-1.6584 _}IH _}S|T 0.0000
-1.6584 _}IH c|k}K 0.0000
-1.6146 _}IH c}K 0.0000
-1.6584 _}IH d}D 0.0000
-1.6584 _}IH k}K 0.0000
-1.6584 _}IH l}L 0.0000
-1.6146 _}IH m}M 0.0000
-1.6584 _}IH n|g}NG 0.0000
-1.6584 _}IH n}L|V 0.0000
-1.6584 _}IH n}N 0.0000
-1.6584 _}IH n}NG 0.0000
-1.6584 _}IH q}K 0.0000
-1.6584 _}IH r}R 0.0000
-1.6584 _}IH s|.}Z 0.0000
-1.1994 _}IH s}S -0.3461
-0.6021 _}IH s}Z -0.4495
-1.6146 _}IH t}T 0.0000
-1.6584 _}IH v}V 0.0000
-1.0792 _}IH x}G|Z -0.2198
-0.1021 _}IH|L _}Y 0.0000
-0.1021 _}IH|M _}IH 0.0000
-2.4805 _}IY 2}T|UW 0.0000
-2.4805 _}IY 3}TH 0.0000
-0.7252 _}IY </s> 0.0000
-0.7349 _}IY _}EH -0.3041
-2.4367 _}IY _}F 0.0000
-2.4805 _}IY _}N 0.0000
-1.6794 _}IY _}W -0.3938
-1.0774 _}IY a}EY -0.4653
-1.6220 _}IY b}B -0.5534
-1.1743 _}IY c}S -1.6133
-1.2645 _}IY d}D -0.6362
-1.4242 _}IY e}IY -0.2801
-2.4367 _}IY g}JH -0.3959
-1.6220 _}IY h}EY|CH -0.0960
-2.4367 _}IY h}HH -0.3630
-1.4753 _}IY i}AY -0.1536
-2.4805 _}IY j}JH 0.0000
-2.4805 _}IY k}K 0.0000
-2.4805 _}IY m}M 0.0000
-2.4805 _}IY o|r}ER 0.0000
-1.6220 _}IY o}OW -0.2445
-1.9013 _}IY p}P -0.8915
-2.4367 _}IY q}K -0.3960
-2.0215 _}IY r}AA|R -0.1017
-2.0215 _}IY r}R -0.3575
-2.4367 _}IY s}S 0.0000
-1.6129 _}IY s}Z 0.1930
-1.4242 _}IY t}T -0.3950
-1.6129 _}IY u}Y|UW -0.1810
-1.6129 _}IY v}V -0.7404
-2.4367 _}IY w}D|AH 0.6433
-2.4805 _}IY w}W 0.0000
-0.1021 _}JH|UW _}N 0.0000
-0.1021 _}K o}AH 0.0000
-0.4032 _}K|S 2}T|UW 0.0000
-0.4032 _}K|S </s> 0.0000
-0.1021 _}L _}Y|UW 0.0000
-0.4032 _}L|Z p}P 0.0000
-0.4032 _}L|Z p}P|ER 0.0000
-0.1021 _}M|ER _}IH 0.0000
-1.3063 _}N .}Y|AH 0.0000
-1.3063 _}N 2|)}ER 0.0000
-0.7270 _}N </s> 0.0000
-1.2624 _}N _}Y 0.0000
-1.3063 _}N a}AH 0.0000
-1.3063 _}N g}G 0.0000
-1.2624 _}N i}IH -0.3938
-1.3063 _}N j}Y 0.0000
-1.3063 _}N n|g}NG 0.0000
-1.3063 _}N s}Z 0.0000
-1.2624 _}N t}T 0.0000
-1.5793 _}N|T 2}UW|S 0.0000
-1.5793 _}N|T c|h}CH 0.0000
-1.0000 _}N|T c}K -0.1972
-1.5793 _}N|T c}S 0.0000
-1.5354 _}N|T d}D -0.3785
-1.0000 _}N|T g}JH -0.1804
-1.5793 _}N|T h}HH 0.0000
-0.7782 _}N|T j}JH 0.0000
-0.7207 _}N|T l}L -0.2143
-1.0000 _}N|T m}M 0.0000
-1.0000 _}N|T p}P -0.2179
-1.5793 _}N|T t}T 0.0000
-1.1435 _}R .}IY 0.0000
-1.0997 _}R e}EH -0.3680
-1.1435 _}R f}F 0.0000
-1.0997 _}R i}IH -0.3133
-1.1435 _}R o}AO 0.0000
-1.1435 _}R r}AY|V 0.0000
-1.0997 _}R r}_ -0.3871
-1.1435 _}R s}L|Z 0.0000
-0.2041 _}R|IY </s> 0.0000
-1.0052 _}R|IY _}T 0.0000
-0.9614 _}R|IY _}Z 0.0000
-0.1021 _}R|OW </s> 0.0000
-0.3594 _}R|T c}S -0.3763
-1.2483 _}S 7}EH|V 0.0000
-0.7893 _}S </s> 0.0000
-1.2483 _}S _}AH 0.0000
-1.2483 _}S _}IH 0.0000
-1.2045 _}S c}IY -0.3147
-1.2045 _}S i}AH -0.3978
-1.2483 _}S m}M 0.0000
-1.2483 _}S s|h}SH 0.0000
-1.2483 _}S x}K 0.0000
-0.5354 _}S|T </s> 0.0000
-0.5793 _}S|T r}ER 0.0000
-1.2483 _}T .}IH|V 0.0000
-1.2483 _}T </s> 0.0000
-1.2045 _}T _}AH 0.0000
-1.2483 _}T _}EY 0.0000
-1.2483 _}T a|_}AE 0.0000
-1.2483 _}T a|u}OW 0.0000
-1.2483 _}T c}K 0.0000
-1.2483 _}T i}IH 0.0000
-1.2483 _}T n}N 0.0000
-1.2483 _}T o}AO 0.0000
-1.2045 _}T s}S 0.0000
-1.2483 _}T z}Z 0.0000
-0.1021 _}T|ER _}AH 0.0000
-1.5611 _}W 1}AH|N -0.1599
-2.3622 _}W _}EH 0.0000
-2.3622 _}W a}AA 0.0000
-1.5037 _}W a}AE -0.8824
-0.5699 _}W a}AH -1.3804
-1.1461 _}W a}EH -0.7836
-0.7977 _}W a}EY -0.8939
-1.7830 _}W e}EH -0.1995
-2.3184 _}W i}AH -0.3203
-2.3184 _}W i}AY -0.3298
-2.3622 _}W i}IH 0.0000
-2.3622 _}W i}IY 0.0000
-0.7687 _}W o}AA -1.4900
-0.9379 _}W o}AH -0.9797
-1.7830 _}W u}AH -0.1717
-2.3184 _}W w}_ 0.0000
-1.1809 _}W y}AY -0.0925
-2.1511 _}Y _}AH 0.0000
-2.9084 _}Y a}AA -0.3519
-2.9084 _}Y a}AE -0.3794
-1.7039 _}Y a}AH -0.2793
-2.0845 _}Y e}EH -0.6388
-2.9522 _}Y e}EY 0.0000
-2.9522 _}Y h}_ 0.0000
-2.3729 _}Y i}IH -0.2178
-2.9084 _}Y o|r}ER 0.0000
-2.3729 _}Y o}AA -0.7838
-2.9522 _}Y o}AH 0.0000
-2.0936 _}Y o}AO -0.1001
-1.7361 _}Y o}OW -0.1313
-2.9084 _}Y r}ER -0.3754
-0.1873 _}Y u}AH -1.5988
-2.9084 _}Y u}AO -0.3080
-2.9522 _}Y u}ER 0.0000
-2.9522 _}Y u}IH 0.0000
-0.6045 _}Y u}UH -1.5608
-2.1511 _}Y y}IH -0.1649
-2.9522 _}Y y}IY 0.0000
-1.4385 _}Y|UW '|s}Z 0.6686
-1.4824 _}Y|UW 2|)}_ 0.0000
-0.6812 _}Y|UW </s> 0.0000
-1.4824 _}Y|UW _}B 0.0000
-0.9031 _}Y|UW _}EH 0.0000
-1.4824 _}Y|UW _}W 0.0000
-1.4824 _}Y|UW a}AE 0.0000
-0.9031 _}Y|UW a}EY -0.2143
-1.4824 _}Y|UW b}B 0.0000
-1.4824 _}Y|UW h}EY|CH 0.0000
-1.4385 _}Y|UW i}AY 0.0000
-1.4824 _}Y|UW m}M 0.0000
-1.4385 _}Y|UW o}OW -0.3981
-0.8011 _}Z (}EH|T 0.0000
-0.8011 _}Z </s> 0.0000
-0.8011 _}Z _}EH 0.0000
-0.8011 _}Z p}P 0.0000
-0.8011 _}Z s}S|UW 0.0000
-0.1021 a|_}AE c}K 0.0000
-1.1021 a|c}AE c}S 0.0000
-0.0458 a|c}AE q|u}K -0.0379
-0.4032 a|g}AE l}L 0.0000
-0.4032 a|g}AE m}M 0.0000
-2.1346 a|i}EH d}D -0.7803
-2.6700 a|i}EH g}G -0.3841
-2.1346 a|i}EH l|l}L 0.0000
-2.7139 a|i}EH m}M 0.0000
-2.2549 a|i}EH n}N -0.0524
-0.0274 a|i}EH r}R -1.1587
-2.6700 a|i}EH r}_ 0.0000
-2.6700 a|i}EH s|s}S -0.3850
-2.7139 a|i}EH s}S 0.0000
-2.6700 a|i}EH s}Z 0.0000
-2.6700 a|i}EH s}_ 0.0000
-2.1346 a|i}EH x}K|S -0.2200
-3.3011 a|i}EY '|s}Z 0.0000
-2.8421 a|i}EY (}_ 0.3380
-2.1575 a|i}EY </s> 0.0000
-3.3011 a|i}EY a}AH 0.0000
-1.9685 a|i}EY b}B -0.2388
-2.7218 a|i}EY c|h}CH -0.2043
-3.3011 a|i}EY c|k}K 0.0000
-2.8421 a|i}EY c}K -0.6311
-3.3011 a|i}EY c}S 0.0000
-1.2304 a|i}EY d}D -0.5810
-2.8421 a|i}EY e|r}ER -0.2394
-3.3011 a|i}EY e}_ 0.0000
-3.3011 a|i}EY f|f}F 0.0000
-2.4425 a|i}EY f}F -0.0828
-2.0228 a|i}EY g|h}_ -0.8186
-1.8979 a|i}EY g}G -0.3224
-3.2573 a|i}EY g}JH -0.2829
-3.3011 a|i}EY g}K 0.0000
-3.3011 a|i}EY h}HH 0.0000
-1.8372 a|i}EY k}K -0.1710
-1.9948 a|i}EY l|l}L -0.2207
-0.6911 a|i}EY l}L -0.9894
-1.3297 a|i}EY m}M -0.6238
-3.2573 a|i}EY n|g}NG 0.0000
-0.3761 a|i}EY n}N -0.9824
-3.3011 a|i}EY o}OW 0.0000
-2.8421 a|i}EY p}P -0.3755
-2.1575 a|i}EY r}R -0.2172
-2.8421 a|i}EY s|h}SH 0.0000
-2.4425 a|i}EY s|s}S -0.2355
-1.7676 a|i}EY s}S -0.1666
-1.3181 a|i}EY s}Z -0.0169
-3.3011 a|i}EY s}ZH 0.0000
-1.6938 a|i}EY s}_ -1.1396
-1.9948 a|i}EY t|h}TH -0.2111
-2.8421 a|i}EY t|i}SH -0.3710
-2.8421 a|i}EY t|t}T -0.3545
-1.3124 a|i}EY t}T -0.3375
-3.2573 a|i}EY t}_ 0.0000
-2.2958 a|i}EY v}V -0.1383
-3.2573 a|i}EY w}W -0.3898
-2.7218 a|i}EY x}K|S -0.2200
-3.3011 a|i}EY y}Y 0.0000
-3.3011 a|i}EY z|z}Z 0.0000
-2.1575 a|i}EY z}Z -0.0926
-3.3011 a|i}EY z}ZH 0.0000
-0.1021 a|i}OY r}R 0.0000
-1.6494 a|j}AY '|s}Z 0.0000
-1.6932 a|j}AY (}_ 0.0000
-1.1139 a|j}AY </s> 0.0000
-1.2342 a|j}AY a}AH -0.0376
-1.6932 a|j}AY c|h}_ 0.0000
-1.6494 a|j}AY c|z}CH 0.0000
-0.8347 a|j}AY d}D -0.5410
-0.8255 a|j}AY e}EH -0.3849
-1.6932 a|j}AY e}IY 0.0000
-1.6494 a|j}AY i}IH -0.3978
-1.6494 a|j}AY i}IY -0.3523
-0.8921 a|j}AY k}K -0.5983
-1.6932 a|j}AY n}N 0.0000
-1.6932 a|j}AY o}AO 0.0000
-1.6932 a|j}AY s}S 0.0000
-0.1021 a|k}AE g}G 0.0000
-1.7742 a|l}AA g}G 0.0000
-0.0286 a|l}AA m}M -0.4851
-1.7304 a|l}AA v}V -0.3330
-0.1413 a|l}AE f}F -0.2878
-1.1994 a|l}AE m}M -0.3349
-0.7999 a|l}AE v}V -0.4136
-0.0089 a|l}AO k}K -0.3252
-2.0978 a|l}AO m}M 0.0000
-2.0978 a|l}AO r}R 0.0000
-0.2452 a|n}AA d}D -0.1494
-0.1887 a|n}AE d}D -0.4005
-1.0126 a|n}AE t}T 0.0000
-0.4032 a|n}AH c}K 0.0000
-0.4032 a|n}AH s}S 0.0000
-1.5974 a|o}AW '|s}Z 0.4121
-1.5974 a|o}AW (}_ 0.3380
-2.0564 a|o}AW -}_ 0.0000
-0.3310 a|o}AW </s> 0.0000
-2.0126 a|o}AW b}B 0.0000
-2.0564 a|o}AW g}G 0.0000
-2.0564 a|o}AW h}HH 0.0000
-1.4771 a|o}AW i}AH -0.8416
-1.1978 a|o}AW i}IH -0.5105
-2.0564 a|o}AW i}IY 0.0000
-1.0512 a|o}AW l}L -0.3588
-2.0126 a|o}AW p}P -0.3730
-2.0126 a|o}AW r}R -0.3774
-2.0564 a|o}AW s|h}SH 0.0000
-2.0564 a|o}AW s}S 0.0000
-2.0564 a|o}AW s}Z 0.0000
-2.0564 a|o}AW t|i}SH 0.0000
-2.0564 a|o}AW t}T 0.0000
-2.0126 a|o}AW u}AH -0.3037
-2.0126 a|o}AW u}UW -0.3726
-2.0126 a|o}AW u}Y|UW 0.0000
-2.0126 a|o}AW y}Y 0.0000
-1.9429 a|r}ER '|s}Z 2.2890
-2.1092 a|r}ER (}_ 0.7293
-3.3437 a|r}ER -}_ 0.0000
-0.7802 a|r}ER </s> 0.0000
-3.3875 a|r}ER _}W 0.0000
-2.5864 a|r}ER a|i}EY -0.1103
-2.9285 a|r}ER a|u}AO -0.6104
-3.3875 a|r}ER a|y}EY 0.0000
-1.6943 a|r}ER a}AA 0.0091
-1.4528 a|r}ER a}AE -0.3955
-1.7802 a|r}ER a}AH -0.4507
-3.3875 a|r}ER a}AO 0.0000
-1.7802 a|r}ER a}EY -0.4354
-2.8082 a|r}ER a}IH -0.8613
-3.3875 a|r}ER a}_ 0.0000
-2.9285 a|r}ER b}B -0.1498
-2.0549 a|r}ER c|h}CH -0.1984
-2.5198 a|r}ER c|z}CH -0.5010
-2.8082 a|r}ER c}CH -0.8467
-2.5864 a|r}ER c}K -0.2817
-2.8082 a|r}ER c}S -0.1030
-0.6549 a|r}ER d}D -1.1236
-2.8082 a|r}ER d}_ -0.7910
-3.3437 a|r}ER e|a}IY -0.3639
-3.3875 a|r}ER e|m}EH 0.0000
-2.9285 a|r}ER e}AH 0.0692
-1.4658 a|r}ER e}EH -0.6705
-3.3437 a|r}ER e}EY 0.0000
-2.0812 a|r}ER e}IH -0.6520
-2.0549 a|r}ER e}IY -0.3009
-2.0549 a|r}ER e}_ -0.0159
-2.8082 a|r}ER f}F 0.0000
-2.9285 a|r}ER g}G 0.0000
-3.3437 a|r}ER g}JH 0.0000
-3.3437 a|r}ER h}HH 0.0000
-2.1392 a|r}ER i}AH -0.3696
-1.5693 a|r}ER i}AY -0.7732
-1.3359 a|r}ER i}IH -0.5189
-1.4929 a|r}ER i}IY -0.7432
-2.5289 a|r}ER k}K -0.1533
-3.3875 a|r}ER l|l}L 0.0000
-1.5611 a|r}ER l}L -0.4700
-2.5289 a|r}ER m}M -0.3757
-1.5450 a|r}ER n}N -0.5023
-2.9285 a|r}ER o|i}OY -0.5930
-2.5198 a|r}ER o|o}UW -0.1746
-2.9285 a|r}ER o|u}AH -0.1210
-2.2062 a|r}ER o|u}AW -0.6844
-2.8082 a|r}ER o|u}UW 0.0000
-3.3875 a|r}ER o|w}AW 0.0000
-3.3875 a|r}ER o|w}OW 0.0000
-1.8704 a|r}ER o}AA -0.1249
-2.9285 a|r}ER o}AH -0.1303
-2.9285 a|r}ER o}AO -0.1419
-3.3875 a|r}ER o}EH 0.0000
-1.6321 a|r}ER o}OW -0.2509
-2.8082 a|r}ER p}P 0.0000
-1.3822 a|r}ER r}_ -0.6467
-3.3437 a|r}ER s|h}SH -0.3391
-3.3875 a|r}ER s|s}S 0.0000
-3.3875 a|r}ER s|z}SH 0.0000
-2.0066 a|r}ER s}S -0.3707
-1.5072 a|r}ER s}Z -0.5513
-1.8382 a|r}ER t|h}TH -0.2103
-1.6321 a|r}ER t}T -0.4439
-2.5289 a|r}ER u}AH -0.3381
-2.2062 a|r}ER u}UW -0.0238
-3.3875 a|r}ER v}V 0.0000
-3.3437 a|r}ER w}V 0.0000
-3.3875 a|r}ER y|l}L 0.0000
-2.5198 a|r}ER y}IH -0.3328
-1.5693 a|r}ER y}IY -0.1910
-2.3822 a|r}ER z}Z -0.2982
-2.6198 a|u}AO </s> 0.0000
-1.5784 a|u}AO b}B -0.4455
-3.1991 a|u}AO c|c}CH 0.0000
-1.8665 a|u}AO c|h}CH -0.6708
-2.6198 a|u}AO c|k}K -0.7192
-3.1552 a|u}AO c}CH 0.0000
-1.8182 a|u}AO c}K -0.3127
-1.8665 a|u}AO c}S -0.2089
-3.1991 a|u}AO d}B 0.0000
-1.0141 a|u}AO d}D -0.2974
-3.1991 a|u}AO d}JH 0.0000
-3.1991 a|u}AO e}_ 0.0000
-2.1427 a|u}AO f|f}F -0.6819
-1.8928 a|u}AO f}F -0.6239
-3.1991 a|u}AO g|g}G 0.0000
-3.1991 a|u}AO g|h}F 0.0000
-0.8159 a|u}AO g|h}_ -0.3258
-1.4437 a|u}AO g}G -0.4816
-2.3405 a|u}AO g}JH -0.2456
-2.7400 a|u}AO g}K -0.4643
-3.1991 a|u}AO h}_ 0.0000
-2.0177 a|u}AO k}K -0.2530
-2.3405 a|u}AO l|k}K -0.0906
-2.1427 a|u}AO l|l}L -0.4064
-0.9266 a|u}AO l}L -0.6376
-1.7959 a|u}AO m}M -1.0346
-3.1552 a|u}AO n|g}NG 0.1217
-1.0287 a|u}AO n}N -0.7162
-3.1991 a|u}AO n}NG 0.0000
-3.1991 a|u}AO p|h}F 0.0000
-2.6198 a|u}AO p|p}P -0.1789
-2.0969 a|u}AO p}P -0.4296
-2.6198 a|u}AO q}K 0.2201
-1.1013 a|u}AO r}R -0.5451
-3.1991 a|u}AO r}_ 0.0000
-3.1991 a|u}AO s|c}SH 0.0000
-2.1427 a|u}AO s|s}S -0.2391
-1.2581 a|u}AO s}S -0.4895
-3.1991 a|u}AO s}SH 0.0000
-1.3188 a|u}AO s}Z 0.0582
-3.1991 a|u}AO s}ZH 0.0000
-3.1991 a|u}AO t|h}DH 0.0000
-1.4949 a|u}AO t|h}TH -1.0004
-2.0555 a|u}AO t|i}SH -0.4106
-3.1991 a|u}AO t|t}T 0.0000
-1.0287 a|u}AO t}T -0.6687
-2.7400 a|u}AO v}V -0.0898
-2.3405 a|u}AO x}K|S -0.1326
-2.7400 a|u}AO z}Z -0.0789
-2.8570 a|u}AW (}_ 0.5945
-1.1359 a|u}AW </s> 0.0000
-2.9008 a|u}AW a}AH 0.0000
-2.9008 a|u}AW a}_ 0.0000
-1.1552 a|u}AW b}B -0.3809
-2.4418 a|u}AW c|h}CH -0.1478
-2.9008 a|u}AW c|h}HH 0.0000
-2.9008 a|u}AW c}CH 0.0000
-1.7573 a|u}AW c}K -1.0393
-2.8570 a|u}AW c}S -0.3945
-1.4976 a|u}AW d}D -0.3985
-2.9008 a|u}AW d}_ 0.0000
-0.9178 a|u}AW e|r}ER -0.4874
-2.0331 a|u}AW e}AH -0.3212
-2.8570 a|u}AW e}IY -0.3380
-1.5682 a|u}AW e}_ -0.7751
-2.9008 a|u}AW f|f}F 0.0000
-1.7195 a|u}AW f}F -0.1799
-1.6226 a|u}AW g|h}_ -1.0912
-1.6525 a|u}AW g}G -0.2504
-2.3215 a|u}AW h}_ -0.2062
-2.9008 a|u}AW i|r}ER 0.0000
-2.9008 a|u}AW i}IH 0.0000
-2.9008 a|u}AW i}IY 0.0000
-2.9008 a|u}AW j}Y 0.0000
-2.4418 a|u}AW k}K 0.0000
-2.9008 a|u}AW l|d}D 0.0000
-1.5945 a|u}AW l}L -0.2179
-0.8744 a|u}AW m}M -0.7430
-2.0422 a|u}AW n}N -0.1461
-2.9008 a|u}AW n}NG 0.0000
-2.9008 a|u}AW p|h}F 0.0000
-2.8570 a|u}AW p|p}P 0.0000
-1.8956 a|u}AW p}P -0.4690
-2.8570 a|u}AW r}ER 0.0000
-1.7195 a|u}AW r}R -0.4826
-1.6847 a|u}AW s|c}SH 0.6084
-2.8570 a|u}AW s|h}SH 0.0000
-1.5434 a|u}AW s|s}S -0.1627
-2.9008 a|u}AW s|z}SH 0.0000
-2.8570 a|u}AW s}CH -0.3402
-0.8591 a|u}AW s}S -0.2336
-1.3215 a|u}AW s}Z -0.1791
-2.4418 a|u}AW t|h}TH -0.1409
-2.9008 a|u}AW t|s}_ 0.0000
-1.2935 a|u}AW t}T -0.3157
-2.9008 a|u}AW t}_ 0.0000
-2.0997 a|u}AW v}V -0.3571
-2.8570 a|u}AW w}W -0.3974
-2.9008 a|u}AW w}_ 0.0000
-2.9008 a|u}AW y}Y 0.0000
-2.0331 a|u}AW z}Z -0.0565
-2.2375 a|u}OW '|s}Z 0.4121
-2.6527 a|u}OW (}_ 0.5945
-2.6527 a|u}OW -}_ 0.0000
-0.3589 a|u}OW </s> 0.0000
-2.6965 a|u}OW _|p}P 0.0000
-2.1173 a|u}OW b}B 0.0000
-1.6913 a|u}OW c|h}SH 0.0006
-1.8289 a|u}OW c}K -0.0446
-2.6527 a|u}OW c}S 0.0000
-1.2327 a|u}OW d}D -0.2818
-1.5944 a|u}OW d}_ -1.0878
-2.6965 a|u}OW e}_ 0.0000
-1.8954 a|u}OW f|f}F -0.3928
-1.8380 a|u}OW f}F 0.0000
-2.6965 a|u}OW g|u}G 0.0000
-2.6965 a|u}OW i}IH 0.0000
-2.6965 a|u}OW j}JH 0.0000
-2.6527 a|u}OW j}ZH -0.3923
-0.9923 a|u}OW l|t}_ -0.0723
-1.6913 a|u}OW l}L -0.0915
-1.8289 a|u}OW m}M -0.0714
-2.6965 a|u}OW p|h}F 0.0000
-2.1173 a|u}OW p}P 0.0000
-2.6965 a|u}OW r}R 0.0000
-2.6527 a|u}OW s}S 0.0000
-2.6965 a|u}OW s}Z 0.0000
-2.6965 a|u}OW t|h}TH 0.0000
-1.4804 a|u}OW t}T -0.3085
-2.6527 a|u}OW t}_ 0.0000
-1.5152 a|u}OW v}V -0.1866
-2.6965 a|u}OW x}Z 0.0000
-0.8954 a|u}OW x}_ -0.8004
-1.9554 a|w}AO '|s}Z 0.1535
-2.3549 a|w}AO (}_ 0.3380
-0.6326 a|w}AO </s> 0.0000
-2.3549 a|w}AO a}AH -0.5981
-1.5077 a|w}AO b}B -0.2155
-2.7701 a|w}AO c|h}CH -0.3900
-2.8140 a|w}AO c}K 0.0000
-2.8140 a|w}AO c}S 0.0000
-1.4331 a|w}AO d}D -0.2085
-2.7701 a|w}AO e|r}ER -0.1768
-2.7701 a|w}AO e}AH 0.0000
-1.2804 a|w}AO e}_ -0.3504
-1.6326 a|w}AO f}F -0.6017
-2.8140 a|w}AO g}G 0.0000
-2.0128 a|w}AO h}HH 0.0000
-2.8140 a|w}AO i}AH 0.0000
-1.4331 a|w}AO i}IH -0.7168
-2.8140 a|w}AO i}IY 0.0000
-0.9958 a|w}AO k}K -0.5634
-0.9636 a|w}AO l}L -0.8328
-1.5979 a|w}AO m}M -0.2597
-0.9265 a|w}AO n}N -0.6381
-2.8140 a|w}AO p}P 0.0000
-2.8140 a|w}AO r}ER 0.0000
-1.6326 a|w}AO r}R -0.3289
-2.3549 a|w}AO s|h}SH -0.1323
-1.5357 a|w}AO s}S -0.6313
-1.2968 a|w}AO s}Z -0.5508
-2.8140 a|w}AO t|h}DH 0.0000
-1.8087 a|w}AO t|h}TH -0.3150
-1.8087 a|w}AO t}T -0.2110
-2.2347 a|w}AO v}V -0.8260
-2.8140 a|w}AO y}IY 0.0000
-1.7118 a|w}AO y}Y -1.0313
-1.0564 a|w}AW (}_ 0.0000
-1.0564 a|w}AW a}AA 0.0000
-1.0564 a|w}AW a}AH 0.0000
-1.0564 a|w}AW c|c}CH 0.0000
-1.0564 a|w}AW h}HH 0.0000
-1.0564 a|w}AW i}IH 0.0000
-1.0564 a|w}AW i}IY 0.0000
-1.0564 a|w}AW n}N 0.0000
-1.0564 a|w}AW s}S 0.0000
-0.0792 a|y}EH r}R -0.8455
-0.8803 a|y}EH s}Z 0.0000
-1.4627 a|y}EY '|s}Z 2.0383
-3.2461 a|y}EY '}AH 0.0000
-3.2023 a|y}EY '}_ -0.3954
-1.8217 a|y}EY (}_ -0.3296
-2.7871 a|y}EY -}_ -0.1450
-0.4869 a|y}EY </s> 0.0000
-2.6668 a|y}EY a|r}ER 0.0000
-3.2461 a|y}EY a}AA 0.0000
-3.2461 a|y}EY a}AE 0.0000
-1.7637 a|y}EY a}AH -0.0895
-3.2461 a|y}EY a}AO 0.0000
-3.2461 a|y}EY a}IH 0.0000
-1.4907 a|y}EY b}B -0.2217
-2.6668 a|y}EY c|h}CH -0.8635
-1.9135 a|y}EY c}K -0.2769
-2.6668 a|y}EY c}S -0.7734
-1.5642 a|y}EY d}D -0.3837
-3.2461 a|y}EY d}_ 0.0000
-1.2989 a|y}EY e|r}ER -0.5880
-2.4450 a|y}EY e}AH -0.0460
-2.2409 a|y}EY e}EH -0.3185
-3.2461 a|y}EY e}EY 0.0000
-1.3516 a|y}EY e}_ -0.5395
-1.9398 a|y}EY f}F -0.4838
-2.3784 a|y}EY g}G -0.1735
-1.9679 a|y}EY h}HH -0.1087
-2.6668 a|y}EY h}_ 0.0000
-1.5005 a|y}EY i}IH -1.0893
-2.6668 a|y}EY k}K -0.1792
-1.2689 a|y}EY l}L -0.4303
-1.3446 a|y}EY m}M -0.6016
-1.3051 a|y}EY n}N -0.6294
-2.4450 a|y}EY o|r}ER -0.1061
-2.4450 a|y}EY o|u}AW -0.2882
-2.6668 a|y}EY o}AA -0.1134
-2.3875 a|y}EY o}AH 0.0449
-2.0300 a|y}EY o}AO -0.1167
-1.9679 a|y}EY o}OW -0.4389
-2.3784 a|y}EY p}P -0.1518
-3.2461 a|y}EY r}ER 0.0000
-2.1026 a|y}EY r}R -0.2268
-3.2461 a|y}EY s|h}SH 0.0000
-2.7871 a|y}EY s|i}ZH -0.5411
-1.8887 a|y}EY s}S -0.1931
-1.0300 a|y}EY s}Z -0.4496
-2.4450 a|y}EY t|h}TH -0.2449
-1.6254 a|y}EY t}T -0.3587
-2.6668 a|y}EY u}AH 0.0000
-3.2023 a|y}EY v}V 0.0000
-1.9978 a|y}EY w}W -0.1643
-2.7871 a|y}EY w}_ -0.1920
-3.2461 a|y}EY y}Y 0.0000
-2.6668 a|y}EY z}Z -0.1459
-0.3802 a|y}_ e}EH -0.8466
-1.1375 a|y}_ i}AY 0.0000
-0.3802 a|y}_ y}AY -0.2759
-3.4503 a}AA '|s}Z 0.6433
-3.6722 a}AA '}_ 0.0000
-3.1493 a}AA (}_ 0.5531
-3.4503 a}AA -}_ -0.1186
-2.2742 a}AA </s> 0.0000
-4.2514 a}AA _}R 0.0000
-4.2514 a}AA a}AA 0.0000
-4.2514 a}AA a}EY 0.0000
-4.2514 a}AA a}IH 0.0000
-2.8069 a}AA a}_ -0.2734
-3.3929 a}AA b|b}B -0.0873
-1.8250 a}AA b}B -0.5500
-4.2514 a}AA b}B|AH 0.0000
-2.8483 a}AA c|c}CH -0.3175
-2.6308 a}AA c|c}K -0.5380
-2.6579 a}AA c|h}CH -0.4596
-3.7924 a}AA c|h}HH -0.1489
-4.2076 a}AA c|h}SH 0.0000
-3.2462 a}AA c|h}_ -0.4362
-3.3929 a}AA c|i}CH -0.5210
-3.0353 a}AA c|k}K -0.1698
-3.1493 a}AA c|z}CH 0.0687
-2.3934 a}AA c}CH -0.2767
-1.7427 a}AA c}K -1.0653
-2.8705 a}AA c}S -0.5156
-4.2514 a}AA c}SH 0.0000
-3.0032 a}AA c}T|S -0.1654
-3.4503 a}AA c}_ -0.5865
-3.7924 a}AA d|z}JH 0.1122
-1.5741 a}AA d}D -0.6100
-4.2514 a}AA d}T 0.0000
-2.7876 a}AA d}_ -0.7560
-4.2076 a}AA e|r}ER 0.0000
-3.3929 a}AA e}EH -0.0932
-4.2514 a}AA e}IH 0.0000
-3.1950 a}AA e}_ -0.3611
-2.8483 a}AA f|f}F -0.1421
-2.2572 a}AA f}F -0.4341
-3.1950 a}AA g|g}JH -0.5119
-3.6722 a}AA g|h}_ 0.0000
-4.2514 a}AA g|i}JH 0.0000
-3.7924 a}AA g|n}N -0.4880
-3.3838 a}AA g|u}G -0.7534
-1.7637 a}AA g}G -0.6019
-2.9732 a}AA g}JH -0.2392
-2.6052 a}AA g}ZH -0.5120
-4.2514 a}AA h}AH 0.0000
-2.3934 a}AA h}HH -0.6809
-1.7260 a}AA h}_ -0.8720
-3.0353 a}AA i}IH -0.2710
-2.5582 a}AA i}IY -0.4584
-3.2462 a}AA i}Y -0.5271
-3.7924 a}AA i}_ -0.3464
-4.2514 a}AA j}HH 0.0000
-2.7691 a}AA j}JH -0.3465
-2.9732 a}AA j}Y -0.0972
-3.0701 a}AA j}ZH -0.3849
-3.6722 a}AA j}_ -0.2051
-1.8312 a}AA k}K -0.5993
-3.1950 a}AA l|k}K 0.0176
-2.0126 a}AA l|l}L -0.3617
-4.2514 a}AA l|l}Y 0.0000
-1.1432 a}AA l}L -0.7190
-4.2514 a}AA l}T|S 0.0000
-2.8705 a}AA m|m}M -0.4864
-1.4689 a}AA m}M -0.6877
-2.6052 a}AA n|g}NG 0.0443
-2.2250 a}AA n|n}N -0.6902
-0.9961 a}AA n}N -0.6184
-2.2148 a}AA n}NG -0.3543
-4.2514 a}AA o|u}UW 0.0000
-4.2076 a}AA o}AO 0.0000
-2.8271 a}AA o}OW -0.3716
-4.2514 a}AA o}W 0.0000
-3.4503 a}AA p|h}F -0.1063
-2.8271 a}AA p|p}P -0.3459
-2.0701 a}AA p}P -0.5951
-3.3929 a}AA q|u}K -0.1780
-2.7691 a}AA q}K 0.3474
-0.3715 a}AA r}R -1.2482
-1.8548 a}AA r}_ -0.8716
-3.7924 a}AA s|c}SH 1.0999
-2.1625 a}AA s|h}SH -0.5743
-2.1625 a}AA s|s}S -0.4093
-4.2076 a}AA s|s}SH 0.0000
-3.0032 a}AA s|z}SH -0.2694
-1.5250 a}AA s}S -0.6771
-2.3232 a}AA s}Z -0.1903
-3.7924 a}AA s}ZH -0.1903
-3.1950 a}AA s}_ -0.2623
-2.6441 a}AA t|h}DH -0.5655
-3.0701 a}AA t|h}TH -0.1155
-3.7924 a}AA t|i}SH -0.6309
-4.2514 a}AA t|s}_ 0.0000
-2.2462 a}AA t|t}T -0.2614
-4.2076 a}AA t}S -0.2485
-1.4990 a}AA t}T -0.7721
-2.5260 a}AA t}_ -0.7685
-3.2462 a}AA u}UW -0.2095
-1.9939 a}AA u}_ -0.5928
-4.2514 a}AA v}F 0.0000
-1.7260 a}AA v}V -0.6125
-3.1950 a}AA w}F 1.4133
-2.7343 a}AA w}V -0.0636
-2.2860 a}AA w}W -1.0593
-2.6308 a}AA w}_ -0.0467
-2.7021 a}AA y}Y -0.4879
-3.0032 a}AA z|z}Z -0.5895
-4.2514 a}AA z}S 0.0000
-2.5582 a}AA z}T 0.4150
-3.2462 a}AA z}T|S -0.8523
-2.0489 a}AA z}Z -0.3499
-3.4503 a}AA z}ZH -0.3892
-4.4361 a}AE (}_ 0.0000
-4.3923 a}AE </s> 0.0000
-4.4361 a}AE _}N 0.0000
-2.3517 a}AE b|b}B -0.0253
-4.3923 a}AE b|y}B -0.2485
-1.5944 a}AE b}B -0.6199
-4.4361 a}AE b}P 0.0000
-3.8569 a}AE c|c}CH -0.2128
-2.6180 a}AE c|c}K -0.4534
-2.3702 a}AE c|h}CH -0.4195
-3.0118 a}AE c|h}SH -0.3382
-3.8569 a}AE c|i}SH -0.2098
-1.4424 a}AE c|k}K -0.0280
-3.8569 a}AE c|q}K -0.1860
-4.4361 a}AE c|z}CH 0.0000
-1.3749 a}AE c}K -1.0187
-2.3702 a}AE c}S -1.0042
-4.4361 a}AE c}T 0.0000
-3.0118 a}AE d|g}JH 0.2323
-1.4239 a}AE d}D -0.5740
-2.9360 a}AE d}JH -0.8630
-2.2476 a}AE d}_ -1.6044
-2.9538 a}AE e}_ -0.2841
-2.0598 a}AE f|f}F -0.2498
-1.8978 a}AE f}F -0.7373
-2.1245 a}AE g|g}G -0.0521
-3.3340 a}AE g|g}JH -0.1364
-4.4361 a}AE g|g}Z 0.0000
-4.4361 a}AE g|h}_ 0.0000
-4.3923 a}AE g|n}N 0.0000
-4.4361 a}AE g|t}T 0.0000
-3.6350 a}AE g|u}G -0.1535
-1.6113 a}AE g}G -0.6738
-2.4363 a}AE g}JH -0.3684
-4.4361 a}AE g}ZH 0.0000
-2.6438 a}AE h}HH -0.5087
-2.6712 a}AE h}_ -0.7393
-3.5776 a}AE i}_ -0.2034
-3.0552 a}AE j}JH -0.1744
-4.4361 a}AE j}_ 0.0000
-3.3340 a}AE k|k}K -0.0992
-1.9010 a}AE k}K -0.5495
-4.4361 a}AE l|.}L 0.0000
-1.5992 a}AE l|l}L -0.3052
-4.4361 a}AE l|l}_ 0.0000
-1.1649 a}AE l}L -0.6046
-3.1579 a}AE m|b}M -0.0804
-2.0118 a}AE m|m}M -0.6420
-3.6350 a}AE m|n}M 0.0399
-1.1620 a}AE m}M -0.9094
-4.4361 a}AE n|.}N 0.0000
-3.5776 a}AE n|c}NG 0.1282
-3.5684 a}AE n|d}M -0.1330
-3.5684 a}AE n|d}_ -0.1025
-1.9837 a}AE n|g}NG 0.4011
-3.9771 a}AE n|k}NG 0.1413
-1.6788 a}AE n|n}N -0.2570
-4.4361 a}AE n}M 0.0000
-0.6387 a}AE n}N -0.9676
-1.4754 a}AE n}NG -0.2419
-4.4361 a}AE o|u}UW 0.0000
-2.2733 a}AE p|h}F -0.7529
-1.8946 a}AE p|p}P -0.6238
-1.6429 a}AE p}P -0.7914
-4.4361 a}AE p}_ 0.0000
-3.5684 a}AE q|u}K -0.3107
-2.7107 a}AE q}K 0.1849
-1.9975 a}AE r}R -1.0049
-1.9685 a}AE r}_ -1.9888
-2.7777 a}AE s|c}SH 0.6074
-1.8656 a}AE s|h}SH -0.7006
-3.8569 a}AE s|k}S 0.0000
-1.6315 a}AE s|s}S -0.3247
-3.2548 a}AE s|s}SH -0.5080
-4.4361 a}AE s|t}_ 0.0000
-4.3923 a}AE s|u}ZH 0.2039
-1.3228 a}AE s}S -0.7154
-4.4361 a}AE s}SH 0.0000
-2.4255 a}AE s}Z -0.0994
-3.1878 a}AE s}ZH -0.5213
-2.8868 a}AE s}_ -0.4277
-2.6905 a}AE t|h}DH -0.5138
-1.9799 a}AE t|h}TH -0.4563
-2.3169 a}AE t|i}SH -0.9408
-3.6350 a}AE t|s}_ -0.7660
-1.8275 a}AE t|t}T -0.2122
-3.1878 a}AE t|u}CH 0.0544
-2.5631 a}AE t}CH -0.4374
-4.4361 a}AE t}D 0.0000
-4.3923 a}AE t}SH -0.3942
-1.3165 a}AE t}T -0.7074
-4.3923 a}AE t}TH -0.2485
-2.1353 a}AE t}_ -1.5597
-2.9538 a}AE u}_ -1.1245
-4.3923 a}AE v|v}V 0.0000
-1.7729 a}AE v}V -0.8330
-3.3340 a}AE w}W -0.2194
-3.3340 a}AE x}K -0.5607
-1.8994 a}AE x}K|S -0.1559
-3.8569 a}AE x}_ -0.8648
-2.7658 a}AE z|z}Z 0.0268
-3.8569 a}AE z}S -0.2215
-2.3169 a}AE z}Z -0.2872
-4.4361 a}AE z}ZH 0.0000
-1.6972 a}AH '|s}Z 1.0142
-3.6543 a}AH '}_ -0.2157
-1.9604 a}AH (}_ 0.1482
-2.9793 a}AH -}_ -0.2632
-0.6255 a}AH </s> 0.0000
-4.5128 a}AH _}M|ER 0.0000
-3.9335 a}AH _}Z 0.0000
-4.5128 a}AH a}AA 0.0000
-3.7117 a}AH a}_ -0.5931
-3.0489 a}AH b|b}B -0.4226
-1.3225 a}AH b}B -0.7337
-4.0538 a}AH c|c}CH 0.0249
-2.4284 a}AH c|c}K -1.0082
-3.7117 a}AH c|g}G -0.0972
-2.6625 a}AH c|h}CH -0.4072
-3.4564 a}AH c|h}HH -0.2010
-2.8544 a}AH c|h}SH -0.6220
-4.4690 a}AH c|i}CH 0.0000
-2.6045 a}AH c|k}K -0.5952
-3.2967 a}AH c|z}CH -0.0849
-3.2065 a}AH c}CH -0.1942
-1.7979 a}AH c}K -0.2361
-2.0722 a}AH c}S -0.7459
-4.5128 a}AH c}TH 0.0000
-4.5128 a}AH d|z}JH 0.0000
-1.6679 a}AH d}D -0.5669
-4.5128 a}AH d}T 0.0000
-2.5656 a}AH d}_ -1.1785
-4.4690 a}AH e}EH 0.0000
-3.1096 a}AH e}_ -0.4283
-2.4375 a}AH f|f}F -0.5130
-2.3388 a}AH f}F -0.2764
-3.0682 a}AH g|g}G -0.7695
-3.6543 a}AH g|h}_ -0.2050
-4.5128 a}AH g|n}N 0.0000
-4.4690 a}AH g|u}G 0.0000
-1.9990 a}AH g}G -0.5217
-4.0538 a}AH g}HH 0.0444
-2.2065 a}AH g}JH -0.5633
-3.9335 a}AH g}ZH -0.6949
-2.1435 a}AH h}HH -0.2001
-2.1854 a}AH h}_ -1.0499
-3.9335 a}AH i|s}_ -0.7954
-4.5128 a}AH i}IH 0.0000
-3.4564 a}AH j}HH -0.3312
-2.7874 a}AH j}JH -0.2934
-3.7117 a}AH j}Y -0.8529
-4.4690 a}AH j}ZH 0.0000
-4.5128 a}AH j}_ 0.0000
-4.5128 a}AH k|k}K 0.0000
-4.5128 a}AH k}HH 0.0000
-1.9682 a}AH k}K -0.5350
-3.9335 a}AH l|k}K -0.0458
-1.6318 a}AH l|l}L -1.0740
-4.5128 a}AH l|l}Y 0.0000
-3.5076 a}AH l|m}M -0.7579
-0.9133 a}AH l}L -0.8620
-2.9957 a}AH m|m}M -0.3654
-1.4133 a}AH m}M -0.6456
-4.5128 a}AH m}N 0.0000
-3.2065 a}AH n|g}NG 0.0313
-1.9082 a}AH n|n}N -1.1271
-0.6656 a}AH n}N -0.9313
-2.9635 a}AH n}NG -0.8341
-4.5128 a}AH n}Y 0.0000
-4.5128 a}AH o}AA 0.0000
-3.9335 a}AH o}AO -0.4386
-4.5128 a}AH o}OW 0.0000
-2.4812 a}AH p|h}F -0.6824
-2.1411 a}AH p|p}P -1.2360
-1.9957 a}AH p}P -0.3968
-3.6543 a}AH q|u}K -0.3415
-3.0682 a}AH q}K -0.2300
-2.6472 a}AH r}R -0.3745
-3.6451 a}AH r}_ -0.1316
-4.4690 a}AH s|c}SH 1.3563
-2.7205 a}AH s|h}SH -0.1973
-4.4690 a}AH s|i}SH 0.4391
-2.0433 a}AH s|s}S -0.5941
-3.1554 a}AH s|s}SH -1.2788
-3.4107 a}AH s|z}SH -0.4764
-1.6435 a}AH s}S -0.1478
-4.5128 a}AH s}SH 0.0000
-1.7722 a}AH s}Z -0.9770
-3.2065 a}AH s}_ -0.4933
-4.5128 a}AH t|h}DH 0.0000
-2.3813 a}AH t|h}TH -0.6205
-2.2317 a}AH t|t}T -0.7571
-2.9193 a}AH t}CH -1.1981
-4.5128 a}AH t}D 0.0000
-1.3768 a}AH t}T -0.6045
-4.4690 a}AH t}_ 0.0000
-4.5128 a}AH u}L 0.0000
-4.5128 a}AH u}Y|UW 0.0000
-1.9498 a}AH v}V -0.3190
-2.2836 a}AH w}W -0.5053
-4.0538 a}AH x}K|S -0.1496
-3.4564 a}AH y}Y -0.4158
-4.5128 a}AH z|s}SH 0.0000
-3.7117 a}AH z|z}Z -0.1996
-2.3388 a}AH z}Z -0.2326
-3.2706 a}AO '|s}Z 0.0000
-3.2706 a}AO (}R|JH 0.0000
-3.2706 a}AO </s> 0.0000
-3.2706 a}AO _}HH 0.0000
-2.6914 a}AO b}B -0.1960
-3.2706 a}AO c|c}CH 0.0000
-3.2706 a}AO c|c}K 0.0000
-3.2268 a}AO c|h}CH 0.0000
-2.6914 a}AO c|k}K -0.0488
-2.4030 a}AO c}K -0.5665
-3.2706 a}AO c}S 0.0000
-2.4030 a}AO d}D 0.0000
-3.2706 a}AO d}_ 0.0000
-3.2268 a}AO f}F 0.0000
-3.2268 a}AO g|h}_ -0.2853
-3.2268 a}AO g}G 0.0000
-2.6914 a}AO h}_ 0.0000
-3.2268 a}AO k}K 0.0000
-0.5452 a}AO l|l}L -0.6845
-0.5114 a}AO l}L -1.0481
-2.2143 a}AO m}M -0.3683
-2.4695 a}AO n|g}NG -0.4025
-3.2706 a}AO n|n}N 0.0000
-1.4873 a}AO n}N -0.3108
-2.6914 a}AO n}NG 0.0522
-3.2706 a}AO p|p}P 0.0000
-3.2268 a}AO p}P 0.0000
-0.6987 a}AO r}R -1.0299
-1.6914 a}AO r}_ -1.0312
-3.2268 a}AO s|c}SH 1.3563
-2.1685 a}AO s|h}SH -0.1870
-2.2143 a}AO s|s}S -0.1912
-2.0893 a}AO s}S -0.0298
-2.8116 a}AO s}Z -0.1502
-3.2268 a}AO t|h}TH 0.0000
-2.8116 a}AO t|t}T 0.0000
-1.1232 a}AO t}T -0.9937
-2.6914 a}AO t}_ -0.7366
-3.2706 a}AO v}V 0.0000
-2.6914 a}AO w}W 0.0000
-2.6914 a}AO z|z}Z -0.8299
-3.2706 a}AO z}Z 0.0000
-0.4032 a}AW e|r}ER 0.0000
-0.4032 a}AW u}UW 0.0000
-0.9334 a}AY e}EH -0.6943
-0.5528 a}AY e}_ -0.2556
-1.3421 a}AY h}_ -0.6200
-1.7573 a}AY i}AH -0.3978
-0.6576 a}AY i}IH -0.7676
-1.2218 a}AY i}IY 0.0000
-1.8011 a}AY i}Y 0.0000
-1.7573 a}AY j}JH -0.3682
-1.8011 a}AY l}L 0.0000
-1.8011 a}AY y}IY 0.0000
-1.3421 a}AY y}Y -0.1257
-3.4771 a}EH </s> 0.0000
-3.4333 a}EH c|h}CH -0.3719
-3.4771 a}EH c}K 0.0000
-0.8564 a}EH d}D -0.6663
-3.4333 a}EH d}_ 0.0000
-1.1960 a}EH e}_ -1.0330
-2.6760 a}EH f}F -0.1167
-2.6760 a}EH h}_ -0.3888
-3.4771 a}EH i|g}_ 0.0000
-3.4771 a}EH j}JH 0.0000
-2.8978 a}EH k}K -0.2213
-2.8978 a}EH l|l}L -0.2170
-1.6346 a}EH l}L -0.9336
-3.4333 a}EH m}M 0.0000
-3.4771 a}EH n|n}N 0.0000
-1.7951 a}EH n}N -0.5517
-2.6094 a}EH p}P -0.4111
-0.2472 a}EH r}R -1.3204
-1.0653 a}EH r}_ -1.8495
-2.2610 a}EH s}S -0.9992
-2.0962 a}EH s}Z -0.7979
-1.8836 a}EH s}ZH -1.2208
-1.5825 a}EH t|h}DH -1.3969
-1.8435 a}EH t|h}TH -0.3217
-3.4771 a}EH t}CH 0.0000
-1.9947 a}EH t}T -0.2626
-1.8698 a}EH v}V -0.5488
-3.4771 a}EH z}Z 0.0000
-0.1413 a}ER </s> 0.0000
-1.3574 a}ER c|h}CH 0.0000
-0.7782 a}ER r}R -0.2098
-1.3574 a}ER t}T 0.0000
-3.1780 a}EY '|s}Z 0.5128
-2.6122 a}EY (}_ 0.2309
-2.6557 a}EY </s> 0.0000
-2.7303 a}EY _}EH -0.1137
-4.0366 a}EY _}F 0.0000
-4.0366 a}EY _}S 0.0000
-3.9928 a}EY a}EY 0.0000
-1.5096 a}EY b}B -1.0688
-3.0314 a}EY c|h}CH -0.2206
-3.9928 a}EY c|h}SH -0.3858
-2.3112 a}EY c|i}SH 0.0601
-2.0424 a}EY c}K -0.9178
-1.4904 a}EY c}S -1.1886
-2.6557 a}EY c}SH -0.4607
-4.0366 a}EY c}_ 0.0000
-1.2726 a}EY d}D -1.2893
-4.0366 a}EY e|b}_ 0.0000
-4.0366 a}EY e|r}ER 0.0000
-3.9928 a}EY e}IY 0.0000
-2.0050 a}EY e}_ -0.4641
-3.9928 a}EY f|f}F -0.3499
-2.2102 a}EY f}F -0.9481
-3.1780 a}EY g|i}JH -0.3602
-3.1689 a}EY g|n}N -0.3586
-2.7584 a}EY g|u}G -0.7497
-1.7791 a}EY g}G -0.7986
-1.7584 a}EY g}JH -1.2843
-4.0366 a}EY h}AH 0.0000
-2.5920 a}EY h}HH -0.3237
-2.8205 a}EY h}_ -0.3328
-2.7584 a}EY i|g}_ 0.3399
-4.0366 a}EY i}AH 0.0000
-3.9928 a}EY i}AY -0.3971
-2.6792 a}EY i}IH -1.0752
-2.7040 a}EY j}JH -0.4404
-3.4573 a}EY k|k}K -0.7989
-1.2434 a}EY k}K -1.0231
-2.5920 a}EY l|l}L -0.7238
-4.0366 a}EY l|l}_ 0.0000
-1.3501 a}EY l}L -1.1047
-4.0366 a}EY m|e}_ 0.0000
-4.0366 a}EY m|m}M 0.0000
-1.5313 a}EY m}M -1.0219
-1.2541 a}EY n}N -1.3760
-2.5365 a}EY n}NG -1.2257
-4.0366 a}EY o|r}ER 0.0000
-4.0366 a}EY o|u}UW 0.0000
-3.9928 a}EY o}AA 0.0000
-3.9928 a}EY o}AO 0.0556
-2.6792 a}EY o}OW 0.0410
-3.4573 a}EY p|h}F -0.2131
-1.5784 a}EY p}P -0.9218
-4.0366 a}EY q|u}K 0.0000
-4.0366 a}EY q}K 0.0000
-2.8205 a}EY r}R -0.6484
-2.3434 a}EY s|i}ZH 0.4183
-3.2355 a}EY s|s}S -0.0832
-3.9928 a}EY s|t}_ -0.2432
-1.5279 a}EY s}S -1.1270
-2.0102 a}EY s}Z -0.7990
-3.1780 a}EY s}ZH -0.1524
-2.6792 a}EY t|h}DH -0.3761
-2.7584 a}EY t|h}TH -0.3529
-0.8000 a}EY t|i}SH -0.2113
-3.9928 a}EY t|i}ZH -0.1485
-4.0366 a}EY t|t}T 0.0000
-2.8205 a}EY t}CH -0.8422
-3.9928 a}EY t}D 0.0000
-3.1780 a}EY t}SH -0.4223
-0.5279 a}EY t}T -1.5496
-3.9928 a}EY t}_ -0.3936
-3.1780 a}EY u}_ -0.9082
-1.3324 a}EY v}V -1.1720
-3.9928 a}EY w}D|AH 0.0000
-3.4573 a}EY w}W 0.0000
-4.0366 a}EY y}AH 0.0000
-3.4573 a}EY y}IH -0.8906
-3.9928 a}EY y}Y 0.0000
-3.9928 a}EY z|i}ZH -0.0002
-1.8738 a}EY z}Z -0.8856
-0.1021 a}EY|M s}Z 0.0000
-2.9619 a}IH -}_ 0.0000
-2.9619 a}IH b}B 0.0000
-1.9566 a}IH c|k}K -0.9460
-1.6836 a}IH c}K -0.3487
-2.0942 a}IH c}S -0.2822
-2.9619 a}IH d}D 0.0000
-2.9181 a}IH e}_ 0.0000
-1.7806 a}IH g}G -0.6736
-0.3321 a}IH g}JH -1.8571
-2.1608 a}IH k}K -0.1162
-2.9619 a}IH l|l}L 0.0000
-2.3826 a}IH l}L 0.0000
-2.9619 a}IH m|m}M 0.0000
-2.9619 a}IH m}M 0.0000
-2.1608 a}IH n|n}N -0.1916
-1.6293 a}IH n}N -0.2183
-0.4723 a}IH r}R -0.7445
-2.1608 a}IH r}_ 0.1773
-2.1033 a}IH s}S -0.0931
-1.1608 a}IH t}T -0.9498
-2.9181 a}IH v}V -0.3330
-0.1021 a}IH|P _}AH|L 0.0000
-1.1813 a}IY </s> 0.0000
-1.1813 a}IY c}K 0.0000
-0.6021 a}IY e}AH -0.8191
-1.1813 a}IY g}JH 0.0000
-1.1813 a}IY i}AH 0.0000
-1.1375 a}IY i}IH -0.3921
-1.1813 a}IY o}OW 0.0000
-1.1813 a}IY u}AH 0.0000
-1.1813 a}IY y}Y 0.0000
-0.1021 a}OW m}M 0.0000
-0.1021 a}T|R a}IH|P 0.0000
-1.0583 a}Y e}EH -0.3555
-0.0969 a}Y u}UW -0.9243
-2.8167 a}_ '|s}Z 0.1744
-2.8167 a}_ '}_ -0.2196
-2.5948 a}_ (}_ 1.0246
-2.8167 a}_ .}EY 0.0000
-1.7887 a}_ </s> 0.0000
-3.3959 a}_ _}AH 0.0000
-1.0608 a}_ a}AA -0.2441
-2.9369 a}_ a}AE 0.0000
-2.5283 a}_ a}AH -0.2486
-2.5948 a}_ a}EH -0.5066
-3.3521 a}_ a}EY 0.0000
-2.8167 a}_ a}IH -0.8833
-3.3521 a}_ b}B -0.3775
-1.7497 a}_ c|h}CH -0.4705
-3.3521 a}_ c|k}K -0.2250
-3.3959 a}_ c|q}K 0.0000
-2.9369 a}_ c}AH -0.1543
-2.5283 a}_ c}K -0.3887
-1.1385 a}_ d}D -0.4747
-3.3959 a}_ d}_ 0.0000
-2.5948 a}_ e|r}ER -0.4219
-3.3959 a}_ e|y}EY 0.0000
-1.5230 a}_ e}IY -0.2369
-2.9369 a}_ e}_ -0.6546
-3.3959 a}_ f|f}F 0.0000
-2.5374 a}_ f}F -0.4085
-2.5283 a}_ g}G -0.2787
-2.2146 a}_ g}JH -0.7867
-2.1477 a}_ h}_ -0.4037
-2.3396 a}_ i|r}ER -0.3689
-1.4487 a}_ i}AH -0.8928
-0.9064 a}_ i}AY -0.5023
-2.0634 a}_ i}IH -0.8553
-2.8167 a}_ i}IY 0.0000
-3.3521 a}_ j}_ -0.3813
-1.5948 a}_ k}K -0.2066
-1.0173 a}_ l|l}L -2.2307
-1.5534 a}_ l}L -0.4377
-3.3959 a}_ m|m}M 0.0000
-1.7497 a}_ m}M -0.6550
-3.3959 a}_ n|g}NG 0.0000
-2.5374 a}_ n|n}N -0.3792
-1.2524 a}_ n}N -0.7031
-3.3521 a}_ n}NG 0.0000
-3.3521 a}_ o|u}AW 0.0000
-2.9369 a}_ o}AO -0.0070
-2.2938 a}_ o}OW -0.2193
-2.3396 a}_ p}P -0.1918
-1.0458 a}_ r}R -0.7997
-2.8167 a}_ r}_ -0.2200
-1.5778 a}_ s}S -1.0652
-2.5374 a}_ s}Z 0.1869
-2.9369 a}_ t|h}DH -0.0957
-2.3396 a}_ t|h}TH -0.1616
-2.9369 a}_ t}CH -0.1568
-1.1700 a}_ t}T -0.7280
-3.3521 a}_ t}_ 0.0000
-2.3396 a}_ u|r}ER -0.3952
-1.7753 a}_ u}AH -0.5807
-2.3907 a}_ u}UW -0.1422
-2.3907 a}_ u}_ -0.9302
-2.8167 a}_ v}V -0.1568
-2.8167 a}_ w|y}OY -0.2903
-3.3959 a}_ w}W 0.0000
-3.3959 a}_ w}_ 0.0000
-2.3907 a}_ x}K|S -0.0243
-1.3396 a}_ y}AY -0.5286
-3.3959 a}_ y}IH 0.0000
-1.5948 a}_ y}IY -0.0752
-0.1021 b|a}_ b}B 0.0000
-1.9600 b|b}B '|s}Z 0.1976
-1.2118 b|b}B </s> 0.0000
-1.9600 b|b}B a|r}ER -0.3148
-1.6590 b|b}B a}AA 0.0500
-2.1818 b|b}B a}AE -0.2005
-1.4548 b|b}B a}AH -0.1954
-2.7611 b|b}B a}EY 0.0000
-1.9026 b|b}B a}IH -0.6411
-0.9347 b|b}B e|r}ER -0.1503
-1.3367 b|b}B e}AH -0.2532
-2.3021 b|b}B e}EH -0.3517
-2.7611 b|b}B e}EY 0.0000
-1.6590 b|b}B e}IH -0.5063
-1.8934 b|b}B e}IY -0.2613
-0.9869 b|b}B e}_ -0.7955
-1.6176 b|b}B i}AH -0.4887
-2.7173 b|b}B i}AY 0.0000
-0.8528 b|b}B i}IH -1.1405
-1.2972 b|b}B i}IY -0.8280
-1.2972 b|b}B l}L -1.3041
-2.3021 b|b}B o|r}ER -0.4453
-2.7611 b|b}B o|u}AW 0.0000
-2.7611 b|b}B o|u}UH 0.0000
-2.7611 b|b}B o|u}UW 0.0000
-1.4285 b|b}B o}AH -0.3935
-2.7611 b|b}B o}IH 0.0000
-2.1818 b|b}B o}OW -0.7730
-1.6176 b|b}B r}R -0.4225
-1.2440 b|b}B s}Z -0.9102
-2.7173 b|b}B u}AH 0.0000
-2.1818 b|b}B u}UH -0.8840
-0.9962 b|b}B y}IY -0.4104
-1.5493 b|t}T '}_ 0.0000
-1.0903 b|t}T </s> 0.0000
-1.5493 b|t}T a}AH 0.0000
-1.5055 b|t}T e|r}ER 0.0000
-1.5493 b|t}T e}AH 0.0000
-0.7482 b|t}T e}IH -0.7873
-1.0903 b|t}T f}F -0.4406
-1.5055 b|t}T h}HH -0.3630
-1.5493 b|t}T i}IH 0.0000
-1.5493 b|t}T l}L 0.0000
-1.0903 b|t}T o|r}ER -0.0960
-1.5055 b|t}T s}S -0.3141
-0.1021 b|v}B r}ER 0.0000
-0.5793 b|y}B e}EH 0.0000
-0.5354 b|y}B s|s}S -0.3621
-0.0057 b}AH l}L -1.5624
-2.8809 b}B '|s}Z 1.8819
-4.3705 b}B '}AH 0.0000
-4.4144 b}B '}IY 0.0000
-4.4144 b}B '}_ 0.0000
-3.9554 b}B (}IY 0.2027
-3.4091 b}B (}_ 0.0384
-4.3705 b}B -}IY -0.3479
-4.4144 b}B -}_ 0.0000
-3.8351 b}B .}IY 0.0000
-1.8857 b}B </s> 0.0000
-4.4144 b}B _}AA|R 0.0000
-4.3705 b}B _}EH -0.3553
-4.4144 b}B _}IH 0.0000
-2.9505 b}B _}IY -0.1923
-4.3705 b}B _}R -0.3622
-3.3580 b}B _}W -0.9189
-2.5198 b}B _}Y -0.7997
-3.6132 b}B a|i}EH 0.3447
-2.5563 b}B a|i}EY -0.3071
-3.4091 b}B a|l}AA 0.2407
-3.6132 b}B a|l}AO 0.8255
-3.8351 b}B a|o}AW 0.0511
-2.5414 b}B a|r}ER -0.1959
-2.3079 b}B a|u}AO -0.7794
-2.2084 b}B a|u}AW -0.6254
-3.4091 b}B a|u}OW -0.2276
-3.5467 b}B a|w}AO -0.2738
-2.4927 b}B a|y}EY 0.0063
-1.3414 b}B a}AA -0.6380
-1.2374 b}B a}AE -0.8595
-1.6274 b}B a}AH -0.3346
-2.2553 b}B a}AO -1.6666
-3.4091 b}B a}AY -0.2952
-2.2910 b}B a}EH -1.4749
-1.8809 b}B a}EY -0.4847
-4.3705 b}B a}IH -0.1261
-2.5798 b}B a}_ -0.6363
-2.4314 b}B b}AH 0.0000
-4.3705 b}B c|h}CH 0.0000
-4.4144 b}B c|k}K 0.0000
-4.3705 b}B c|z}CH 0.0000
-4.3705 b}B c}CH -0.1803
-2.8351 b}B c}K -0.6660
-2.5719 b}B d}D -0.4915
-2.1755 b}B e|a}IY -0.2116
-3.1983 b}B e|i}EY -0.3061
-4.4144 b}B e|n}EH 0.0000
-1.1455 b}B e|r}ER -0.5374
-3.9554 b}B e|u}OY -0.3161
-3.0818 b}B e|y}EY -0.0410
-4.4144 b}B e}AE 0.0000
-1.8745 b}B e}AH -0.7441
-1.2177 b}B e}EH -0.8172
-4.3705 b}B e}ER 0.0000
-2.7807 b}B e}EY -0.1941
-1.8439 b}B e}IH -0.8086
-2.1420 b}B e}IY -0.3109
-1.5726 b}B e}_ -0.6076
-3.5558 b}B f}F -0.1873
-3.8351 b}B g}G -0.1398
-3.1361 b}B h}HH -0.3401
-2.8651 b}B h}_ -0.3627
-4.4144 b}B i|l}IY 0.0000
-2.2259 b}B i|r}ER -0.5970
-2.1000 b}B i}AH -0.7428
-1.8825 b}B i}AY -0.6153
-4.4144 b}B i}ER 0.0000
-1.3423 b}B i}IH -0.4365
-1.7440 b}B i}IY -0.2399
-4.3705 b}B i}Y 0.0000
-3.6132 b}B i}_ -0.3090
-2.7937 b}B j}JH -1.3184
-3.3122 b}B j}Y -0.5140
-2.8498 b}B k}K -0.7082
-4.4144 b}B l|e}_ 0.0000
-1.3327 b}B l}AH|L -0.5359
-1.2070 b}B l}L -1.3638
-4.4144 b}B l}UH|L 0.0000
-2.6688 b}B m}M -0.9560
-2.7559 b}B n}N -0.6488
-2.7440 b}B o|i}OY -0.1658
-4.4144 b}B o|k}OW 0.0000
-2.2478 b}B o|o}UH -1.6196
-2.2828 b}B o|o}UW -0.2995
-2.1304 b}B o|r}ER -0.5711
-3.6132 b}B o|u}AH 0.2513
-2.9505 b}B o|u}AO 0.1612
-2.3345 b}B o|u}AW -0.7417
-2.8972 b}B o|u}UH -0.0933
-2.5798 b}B o|u}UW -0.2461
-2.9698 b}B o|w}AW -0.3443
-2.3532 b}B o|w}OW -0.0312
-2.3391 b}B o|y}OY 0.0788
-1.6141 b}B o}AA -0.2531
-2.0267 b}B o}AH -0.2297
-1.6828 b}B o}AO -0.1217
-4.4144 b}B o}AW 0.0000
-3.8351 b}B o}ER -0.2903
-4.4144 b}B o}IH 0.0000
-1.4753 b}B o}OW -0.2290
-3.9554 b}B o}UH -0.4426
-4.4144 b}B o}UW 0.0000
-4.3705 b}B o}W -0.0476
-2.6590 b}B o}_ -0.7824
-3.5558 b}B p}P -0.3364
-2.9320 b}B r}ER -0.3733
-0.9358 b}B r}R -1.4124
-3.4091 b}B r}_ -0.3900
-4.3705 b}B s|c}SH 1.3563
-3.6132 b}B s|h}SH 0.0000
-1.9430 b}B s}S -0.9880
-2.1661 b}B s}Z -0.9197
-3.5467 b}B s}_ -0.6451
-2.8809 b}B t}T -0.4656
-1.5510 b}B u|r}ER -1.0412
-4.3705 b}B u}AA 0.0000
-1.4986 b}B u}AH -0.4535
-3.8351 b}B u}AO -0.6583
-2.4671 b}B u}EH -1.5799
-2.7102 b}B u}IH -0.4695
-2.0843 b}B u}UH -0.7168
-2.2016 b}B u}UW -0.2781
-2.8809 b}B u}W -0.5773
-3.8351 b}B u}Y -0.2868
-2.0134 b}B u}Y|UW -0.3206
-2.5341 b}B u}_ -1.3062
-3.1361 b}B v}V -0.8438
-3.4091 b}B w}W -0.1878
-3.3580 b}B y|r}ER -0.3805
-3.3580 b}B y}AH -0.7531
-2.4314 b}B y}AY -0.2412
-2.8351 b}B y}IH -0.2022
-1.9266 b}B y}IY -0.0934
-3.9554 b}B y}Y -0.1375
-3.5558 b}B z}Z 0.0000
-0.5793 b}B|AH -}_ 0.0000
-0.5793 b}B|AH _}Y|UW 0.0000
-0.5793 b}B|AH n}N 0.0000
-0.4032 b}N|D </s> 0.0000
-0.4032 b}N|D s}Z 0.0000
-0.1021 b}P s}S 0.0000
-0.1021 c|.}K </s> 0.0000
-1.8278 c|c}CH e}EH -0.3517
-2.2868 c|c}CH e}EY 0.0000
-2.2430 c|c}CH e}IY -0.3380
-1.7076 c|c}CH h}_ -0.2104
-1.1847 c|c}CH i}AH -1.0339
-1.8278 c|c}CH i}IH -0.1496
-0.1019 c|c}CH i}IY -1.0178
-1.4192 c|c}CH i}_ -0.7211
-2.2868 c|c}CH y}IH 0.0000
-1.6057 c|c}K a|r}ER -0.5621
-1.2589 c|c}K a}AA -0.5871
-2.6620 c|c}K a}AE 0.0000
-0.8697 c|c}K a}AH -0.3347
-1.5185 c|c}K a}EY -0.5222
-2.6182 c|c}K e|r}ER 0.0000
-0.7404 c|c}K h}_ -0.8685
-2.6620 c|c}K i}IH 0.0000
-1.4807 c|c}K l}L -0.4786
-2.6182 c|c}K o|o}UW -0.3172
-2.6182 c|c}K o|r}ER 0.0000
-2.6182 c|c}K o|u}AH -0.3976
-1.2377 c|c}K o|u}AW -1.1684
-2.2030 c|c}K o|u}UW -0.6216
-1.2589 c|c}K o}AA -0.8047
-1.3046 c|c}K o}AH -0.9557
-1.4807 c|c}K o}AO -0.6254
-0.7338 c|c}K o}OW -0.6691
-2.6620 c|c}K o}_ 0.0000
-1.3295 c|c}K r}R -0.9370
-1.6568 c|c}K u|r}ER -0.2802
-1.3558 c|c}K u}AH -0.5680
-2.6620 c|c}K u}UH 0.0000
-2.6620 c|c}K u}UW 0.0000
-0.8011 c|g}G o|w}AW 0.0000
-0.7573 c|g}G r}R 0.0000
-0.7573 c|g}G y}AY -0.3968
-2.8222 c|h}CH '}AH -0.5949
-2.1409 c|h}CH '}IH -0.2718
-3.5795 c|h}CH '}_ -0.3966
-2.2907 c|h}CH (}_ -0.2378
-3.6233 c|h}CH -}_ 0.0000
-0.8363 c|h}CH </s> 0.0000
-2.2201 c|h}CH a|i}EH -0.1084
-2.3170 c|h}CH a|i}EY -0.3665
-3.6233 c|h}CH a|l}AA 0.0000
-3.5795 c|h}CH a|l}AE 0.1582
-2.8222 c|h}CH a|l}AO 0.8255
-3.5795 c|h}CH a|o}AW -0.1251
-2.1787 c|h}CH a|r}ER -0.7791
-2.7556 c|h}CH a|u}AO -0.2929
-2.7647 c|h}CH a|u}AW -0.2072
-3.6233 c|h}CH a|u}OW 0.0000
-3.0440 c|h}CH a|w}AO -0.1067
-3.6233 c|h}CH a|y}EY 0.0000
-1.3364 c|h}CH a}AA -0.6072
-1.1767 c|h}CH a}AE -0.5599
-1.4530 c|h}CH a}AH -0.4149
-3.6233 c|h}CH a}AO 0.0000
-3.6233 c|h}CH a}AY 0.0000
-2.4072 c|h}CH a}EH -0.7526
-1.6346 c|h}CH a}EY -0.9372
-3.6233 c|h}CH a}OW 0.0000
-2.5669 c|h}CH a}_ -0.4305
-2.0898 c|h}CH b}B -0.2969
-2.4072 c|h}CH c}K -0.2886
-2.6180 c|h}CH d}D -0.2462
-2.1062 c|h}CH e|a}IY -0.9328
-1.5255 c|h}CH e|d}T 0.8102
-3.6233 c|h}CH e|i}EY 0.0000
-1.2311 c|h}CH e|r}ER -0.6608
-2.5211 c|h}CH e|w}UW 0.0131
-3.5795 c|h}CH e|y}EY -0.3594
-1.4173 c|h}CH e}AH -0.7178
-2.7647 c|h}CH e}AO -0.3912
-1.1928 c|h}CH e}EH -0.4955
-2.6180 c|h}CH e}EY -0.2180
-1.4006 c|h}CH e}IH -0.8444
-2.2201 c|h}CH e}IY -0.1875
-1.4006 c|h}CH e}_ -0.9216
-2.0898 c|h}CH f}F -0.8999
-3.1643 c|h}CH g}G -0.4377
-2.5211 c|h}CH h}HH -0.4095
-3.6233 c|h}CH h}_ 0.0000
-2.8222 c|h}CH i|r}ER -0.4187
-2.0898 c|h}CH i}AH -0.1141
-1.6951 c|h}CH i}AY -1.0252
-3.5795 c|h}CH i}EH -0.1364
-1.0201 c|h}CH i}IH -0.6479
-1.3940 c|h}CH i}IY -0.2621
-3.0440 c|h}CH i}_ -0.2145
-2.5669 c|h}CH k}K -0.4371
-3.0440 c|h}CH l}AH|L -0.2119
-1.9771 c|h}CH l}L -0.3830
-1.7730 c|h}CH m}M -0.7991
-2.3450 c|h}CH n}N -0.3689
-2.5669 c|h}CH o|i}OY -0.3624
-3.6233 c|h}CH o|o}UH 0.0000
-2.5669 c|h}CH o|o}UW -0.2704
-3.5795 c|h}CH o|r}ER 0.0000
-3.6233 c|h}CH o|u}AW 0.0000
-3.6233 c|h}CH o|u}UW 0.0000
-2.5211 c|h}CH o|w}AW -0.2873
-3.1643 c|h}CH o|w}OW -0.2720
-3.5795 c|h}CH o|y}OY 0.0000
-2.0587 c|h}CH o}AA -0.3735
-2.3450 c|h}CH o}AH -0.0911
-2.3450 c|h}CH o}AO 0.0514
-1.7887 c|h}CH o}OW -0.4194
-3.6233 c|h}CH p}P 0.0000
-2.5211 c|h}CH r}R -0.2140
-3.0440 c|h}CH s}S -0.1072
-3.6233 c|h}CH s}_ 0.0000
-2.2907 c|h}CH t}T -0.1899
-3.6233 c|h}CH t}_ 0.0000
-2.0298 c|h}CH u|r}ER -0.5995
-1.7287 c|h}CH u}AH -0.1410
-2.6180 c|h}CH u}UH 0.0452
-2.0440 c|h}CH u}UW -0.2495
-3.5795 c|h}CH u}W -0.3296
-3.5795 c|h}CH u}Y|UW 0.0000
-3.6233 c|h}CH u}_ 0.0000
-2.4420 c|h}CH w}W -0.2238
-3.5795 c|h}CH w}_ 0.0645
-3.5795 c|h}CH y}AY -0.3801
-3.0440 c|h}CH y}IH -0.1180
-2.0026 c|h}CH y}IY -0.4986
-3.6233 c|h}CH y}Y 0.0000
-0.5441 c|h}HH </s> 0.0000
-1.9015 c|h}HH a|r}ER 0.0000
-1.0338 c|h}HH a}AA -0.2232
-1.9015 c|h}HH a}AE 0.0000
-1.1004 c|h}HH a}AH -0.3060
-1.9015 c|h}HH a}AY 0.0000
-1.9015 c|h}HH e}AH 0.0000
-1.3222 c|h}HH e}EH -0.1994
-1.9015 c|h}HH i}IH 0.0000
-1.9015 c|h}HH m}M 0.0000
-1.3222 c|h}HH o|w}AW -0.2120
-1.8577 c|h}HH o}AH -0.3976
-0.7993 c|h}HH o}AO -1.0304
-1.0429 c|h}HH o}OW -0.2631
-1.9015 c|h}HH u|r}ER 0.0000
-1.9015 c|h}HH u}AH 0.0000
-1.9015 c|h}HH u}UH 0.0000
-0.1021 c|h}L o}AH 0.0000
-2.6548 c|h}SH </s> 0.0000
-2.6548 c|h}SH a|i}EH 0.0000
-1.8537 c|h}SH a|i}EY -0.1864
-2.0755 c|h}SH a|r}ER -0.2147
-1.3766 c|h}SH a|u}OW -0.3350
-0.9729 c|h}SH a}AA -0.7203
-1.1377 c|h}SH a}AE -0.4890
-1.0475 c|h}SH a}AH -0.2296
-2.6548 c|h}SH a}EY 0.0000
-2.0755 c|h}SH a}_ -0.8850
-2.6110 c|h}SH c}K -0.3664
-2.6110 c|h}SH e|d}T 0.8617
-2.1958 c|h}SH e|r}ER -0.1431
-1.4387 c|h}SH e}AH -0.2073
-0.8451 c|h}SH e}EH -0.8042
-1.5984 c|h}SH e}EY -0.1437
-1.2739 c|h}SH e}IH -0.1414
-2.6548 c|h}SH e}IY 0.0000
-0.8203 c|h}SH e}_ -0.5663
-1.5527 c|h}SH i}AH -0.4795
-1.4735 c|h}SH i}IH -0.1446
-1.1213 c|h}SH i}IY -0.6765
-2.6548 c|h}SH m}M 0.0000
-2.6548 c|h}SH n}N 0.0000
-2.6548 c|h}SH o|i}OY 0.0000
-2.6548 c|h}SH o|u}UW 0.0000
-2.6110 c|h}SH o}AA -0.2896
-2.6548 c|h}SH o}AH 0.0000
-2.6110 c|h}SH o}AO -0.3858
-2.6548 c|h}SH o}OW 0.0000
-2.6548 c|h}SH o}_ 0.0000
-2.6110 c|h}SH r}R 0.0000
-2.1958 c|h}SH s}_ -0.1442
-2.6110 c|h}SH u}UH -0.0786
-1.7871 c|h}SH u}UW -0.5764
-2.6548 c|h}SH w}W 0.0000
-2.6548 c|h}SH y}IY 0.0000
-1.3326 c|h}_ </s> 0.0000
-1.3326 c|h}_ a|r}ER 0.0000
-1.3326 c|h}_ a|u}AW 0.0000
-1.3326 c|h}_ a}AH 0.0000
-1.3326 c|h}_ c}K 0.0000
-1.3326 c|h}_ e|r}ER 0.0000
-1.3326 c|h}_ e}EH 0.0000
-1.3326 c|h}_ e}EY 0.0000
-1.3326 c|h}_ n}N 0.0000
-1.3326 c|h}_ r}R 0.0000
-0.4649 c|h}_ t}T -0.2195
-1.9978 c|i}CH a|o}AW 0.0000
-1.1740 c|i}CH a|r}ER -0.1943
-1.4624 c|i}CH a}AA -0.2079
-2.0417 c|i}CH a}AE 0.0000
-0.4924 c|i}CH a}AH -0.5194
-0.9853 c|i}CH a}AO -0.5336
-0.9853 c|i}CH e}EH -0.4917
-2.0417 c|i}CH e}_ 0.0000
-0.5971 c|i}CH o}OW -0.5187
-1.2405 c|i}CH u}UW -0.3166
-2.5660 c|i}SH a|r}ER 0.0000
-2.5660 c|i}SH a}AA 0.0000
-0.1783 c|i}SH a}AH -1.5609
-2.1070 c|i}SH a}AO 0.0000
-2.5222 c|i}SH a}_ -0.3543
-1.9868 c|i}SH e|r}ER 0.0000
-1.0325 c|i}SH e}AH -1.2230
-0.8406 c|i}SH o|u}AH -1.0896
-1.5608 c|i}SH o}AH -0.5915
-1.5608 c|i}SH o}_ -0.9443
-2.5222 c|i}SH u}AH -0.3479
-3.6118 c|k}K '|s}Z 0.0000
-3.6557 c|k}K '}AH 0.0000
-1.6902 c|k}K '}_ -1.5987
-2.1222 c|k}K (}_ -0.4545
-2.8545 c|k}K -}_ -0.1186
-0.4831 c|k}K </s> 0.0000
-3.6557 c|k}K _}S 0.0000
-2.2525 c|k}K a|r}ER -0.9363
-3.6557 c|k}K a|y}EY 0.0000
-2.7880 c|k}K a}AA -0.3659
-3.6557 c|k}K a}AE 0.0000
-1.9003 c|k}K a}AH -0.2817
-2.6504 c|k}K a}EY -0.6897
-2.3774 c|k}K a}IH -0.9321
-1.8723 c|k}K b}B -0.2946
-3.6557 c|k}K c}_ 0.0000
-2.4074 c|k}K d}D -0.6085
-1.6292 c|k}K e|d}T 0.6364
-1.0272 c|k}K e|r}ER -0.8819
-1.2397 c|k}K e}AH -1.0733
-2.4396 c|k}K e}EH -0.3015
-1.6397 c|k}K e}IH -0.9520
-2.4743 c|k}K e}IY -0.8521
-1.5492 c|k}K e}_ -1.0329
-2.3231 c|k}K f}F -0.6652
-3.0764 c|k}K g}G -0.1398
-1.7611 c|k}K h}HH -0.5380
-3.0764 c|k}K h}_ -0.2062
-2.7880 c|k}K i}AH -0.3398
-3.6557 c|k}K i}AY 0.0000
-1.4891 c|k}K i}IH -1.3872
-1.6962 c|k}K i}IY -0.5893
-3.6118 c|k}K i}Y 0.0000
-3.6557 c|k}K j}JH 0.0000
-3.6118 c|k}K k|n}N -0.3618
-1.5282 c|k}K l}AH|L 0.3665
-1.3105 c|k}K l}L -0.8242
-1.6241 c|k}K m}M -0.9053
-1.7274 c|k}K n}N -0.8396
-3.1967 c|k}K o|o}UW 0.0000
-3.6118 c|k}K o|r}ER 0.0000
-2.6504 c|k}K o|u}AW -0.8190
-3.6557 c|k}K o|w}AW 0.0000
-3.6118 c|k}K o}AA 0.0000
-2.2982 c|k}K o}AH -0.1444
-2.7971 c|k}K o}AO -0.8928
-2.2525 c|k}K o}OW -0.5979
-3.6118 c|k}K o}_ 0.0000
-2.1556 c|k}K p}P -0.4013
-3.6557 c|k}K r}ER 0.0000
-1.9737 c|k}K r}R -0.2350
-2.8545 c|k}K s|h}SH 0.0000
-1.0692 c|k}K s}S -0.8555
-3.6557 c|k}K t|h}TH 0.0000
-2.2313 c|k}K t}T -0.2337
-2.3774 c|k}K u}AH -0.5239
-3.6557 c|k}K u}Y|UW 0.0000
-3.6118 c|k}K v}V -0.3364
-1.8053 c|k}K w}W -0.2886
-3.6557 c|k}K y}IH 0.0000
-1.9737 c|k}K y}IY -0.8573
-2.7880 c|k}K y}Y -0.5203
-0.1021 c|k}_ b}B 0.0000
-1.1435 c|q}K '}_ 0.0000
-0.1383 c|q}K </s> 0.0000
-1.0997 c|q}K u}AH -0.3975
-0.3594 c|y}S l}L -0.3804
-2.3598 c|z}CH (}_ 0.0000
-0.5173 c|z}CH </s> 0.0000
-1.7806 c|z}CH a|j}AY -0.1624
-2.3160 c|z}CH a|r}ER 0.0000
-1.9008 c|z}CH a}AA -0.2204
-0.8775 c|z}CH a}AE -1.3925
-1.9008 c|z}CH a}AH -0.1506
-2.3598 c|z}CH a}EH 0.0000
-1.9008 c|z}CH e|r}ER -0.3858
-0.8960 c|z}CH e}EH -0.7132
-2.3160 c|z}CH e}IH 0.0000
-1.2577 c|z}CH k}K -0.6846
-1.7806 c|z}CH m}M -0.1982
-2.3160 c|z}CH n}N -0.3962
-2.3160 c|z}CH o|r}ER 0.0000
-2.3598 c|z}CH o}AO 0.0000
-0.6666 c|z}CH y}IH -0.7810
-2.3598 c|z}CH y}IY 0.0000
-0.2452 c|z}Z a}AA -0.4142
-1.1723 c|z}_ a}AE -0.3927
-1.2161 c|z}_ e|r}ER 0.0000
-0.7571 c|z}_ e}EH -0.1514
-0.7571 c|z}_ e}IH -0.6425
-1.1723 c|z}_ y}IH 0.0000
-0.7469 c}AE|K a}AH 0.0130
-1.9282 c}AE|K e|w}UW 0.0000
-0.3076 c}AE|K e}AH -0.8790
-1.4692 c}AE|K i}AH -0.2764
-0.7121 c}AE|K i}IH -0.6044
-1.4692 c}AE|K n}N -0.4441
-2.8803 c}AH c}G 0.0000
-0.3158 c}AH c}K -0.8987
-2.8803 c}AH c}S 0.0000
-2.8803 c}AH d}D 0.0000
-1.1549 c}AH e}_ -1.2631
-2.0126 c}AH g|u}G -0.3095
-0.6778 c}AH g}G -0.5262
-1.8751 c}AH h}_ -0.4282
-0.8191 c}AH k}K -0.6267
-2.0217 c}AH l}L -0.5227
-2.8803 c}AH o}_ 0.0000
-2.8365 c}AH q|u}K 0.0000
-1.4357 c}AH q}K -0.2493
-2.8365 c}AH z}Z -0.3946
-2.2776 c}CH '}IH 0.4715
-2.6928 c}CH (}_ 0.5945
-1.7314 c}CH </s> 0.0000
-2.6928 c}CH c}AH -0.3666
-2.7366 c}CH e|j}EY 0.0000
-1.2365 c}CH e|r}ER -0.3843
-0.4040 c}CH e}EH -0.8355
-1.7314 c}CH e}EY -0.1089
-2.2776 c}CH e}IH 0.0000
-1.4040 c}CH e}IY -0.9102
-2.1574 c}CH e}_ -0.8923
-1.9355 c}CH h}AH -0.3880
-2.6928 c}CH h}HH -0.3707
-2.7366 c}CH i|r}ER 0.0000
-2.2776 c}CH i}AH -0.3584
-2.7366 c}CH i}AY 0.0000
-1.0010 c}CH i}IH -0.3796
-0.5341 c}CH i}IY -0.4416
-2.6928 c}CH k}K -0.3807
-2.7366 c}CH n}N 0.0000
-2.7366 c}CH t}_ 0.0000
-2.7366 c}CH y}IY 0.0000
-0.8011 c}G a}AA 0.0000
-0.7573 c}G i}IH -0.3944
-0.7573 c}G l}L 0.0000
-0.7573 c}IY </s> 0.0000
-0.7573 c}IY c}K 0.0000
-0.8011 c}IY q}K 0.0000
-4.4445 c}K '}AH 0.0000
-2.4973 c}K '}_ -1.6644
-2.4790 c}K (}_ 1.0012
-3.9855 c}K -}_ -0.4251
-4.4445 c}K .}S 0.0000
-1.2672 c}K </s> 0.0000
-4.4007 c}K _}AH 0.0000
-4.4007 c}K _}AO|R 0.0000
-3.8652 c}K _}W -0.8113
-1.9825 c}K _}Y -1.1066
-3.4393 c}K a|i}EH 0.5115
-2.9806 c}K a|i}EY -0.1858
-3.3424 c}K a|l}AA 0.1536
-3.5860 c}K a|l}AE 0.3722
-4.4445 c}K a|l}AO 0.0000
-4.4007 c}K a|o}AW -0.1251
-2.5294 c}K a|r}ER -0.1589
-2.4559 c}K a|u}AO -0.5580
-3.8652 c}K a|u}AW -0.1890
-3.9855 c}K a|u}OW 0.0000
-3.1962 c}K a|w}AO -0.2782
-2.9274 c}K a|y}EY 0.1035
-1.3146 c}K a}AA -0.8123
-1.1712 c}K a}AE -0.9365
-1.2783 c}K a}AH -0.8365
-2.6703 c}K a}AO -1.2909
-4.4007 c}K a}AY -0.3779
-2.1328 c}K a}EH -1.7510
-4.4445 c}K a}ER 0.0000
-1.5086 c}K a}EY -0.6999
-4.4007 c}K a}IH -0.3671
-4.4445 c}K a}IY 0.0000
-2.0871 c}K a}_ -1.3573
-2.9806 c}K b}B -0.2997
-4.4445 c}K c|h}CH 0.0000
-3.5768 c}K c|i}CH -0.4797
-3.8652 c}K c}AH -0.2178
-2.3253 c}K c}S -0.9507
-2.5642 c}K c}Y 0.0000
-2.5035 c}K d}D -0.5829
-3.8652 c}K e|a}IY -0.8689
-4.4445 c}K e|d}T 0.0000
-4.4007 c}K e|r}ER 0.0000
-4.4007 c}K e}AH -0.3674
-3.1119 c}K e}EH -0.1663
-4.4445 c}K e}IY 0.0000
-3.9855 c}K e}_ -0.4593
-2.7626 c}K f}F -0.5039
-4.4007 c}K g}G 0.0000
-4.4445 c}K g}JH 0.0000
-3.1119 c}K h}AH -0.5710
-3.3010 c}K h}HH -0.3764
-1.0568 c}K h}_ -0.8065
-4.4007 c}K i|r}ER -0.3939
-3.6434 c}K i}AH -0.7912
-3.9855 c}K i}AY 0.0000
-3.1382 c}K i}IH -0.5008
-3.0636 c}K i}IY -0.5365
-3.8652 c}K i}_ -0.2198
-4.4007 c}K j}JH -0.3515
-3.8652 c}K k}HH -0.7163
-4.4445 c}K l|e}IY 0.0000
-2.3010 c}K l}AH|L -0.2110
-1.2564 c}K l}L -1.5242
-4.4445 c}K m|u}AH 0.0000
-2.4790 c}K m}M -0.5548
-2.5099 c}K n}N -0.5876
-4.4445 c}K o|.}OW 0.0000
-2.8652 c}K o|i}OY -0.4257
-3.9855 c}K o|l}AH -0.2895
-4.4445 c}K o|n}AH 0.0000
-2.7983 c}K o|o}UH -1.3723
-2.3556 c}K o|o}UW -0.4128
-2.2632 c}K o|r}ER -0.6842
-2.9110 c}K o|u}AH -0.9353
-2.4673 c}K o|u}AO -1.0881
-1.9479 c}K o|u}AW -0.8083
-3.3010 c}K o|u}UH -0.0487
-2.5942 c}K o|u}UW -0.2241
-2.5430 c}K o|w}AW -0.1527
-3.6434 c}K o|w}OW -0.1095
-3.1119 c}K o|y}OY -0.1215
-1.1518 c}K o}AA -0.6710
-4.4445 c}K o}AE 0.0000
-1.0969 c}K o}AH -1.0202
-1.4773 c}K o}AO -0.7467
-4.4445 c}K o}ER 0.0000
-4.4007 c}K o}IH -0.3943
-1.1916 c}K o}OW -0.3628
-4.4445 c}K o}UW 0.0000
-3.6434 c}K o}W -0.4080
-2.5500 c}K o}_ -0.8294
-3.1119 c}K p|h}F -0.2681
-3.2632 c}K p}P -0.2118
-2.6989 c}K q|u}W 0.1138
-3.0636 c}K r}ER -0.5157
-1.0873 c}K r}R -1.5393
-4.4007 c}K r}_ -0.3980
-3.5768 c}K s|h}SH -0.1990
-4.4007 c}K s|s}S -0.3850
-1.8624 c}K s}S -1.2150
-4.4445 c}K t|.}T 0.0000
-4.4445 c}K t|h}TH 0.0000
-1.8265 c}K t|i}SH -1.0990
-4.4007 c}K t|u}CH 0.0000
-4.4445 c}K t|u}SH 0.0000
-2.3010 c}K t}CH -1.2642
-3.3010 c}K t}SH -1.0842
-1.1834 c}K t}T -0.9493
-4.4445 c}K t}T|OW 0.0000
-2.6264 c}K t}_ -1.0808
-2.1750 c}K u|r}ER -0.8458
-4.4445 c}K u}AA 0.0000
-1.6391 c}K u}AH -0.8002
-4.4007 c}K u}AO 0.0000
-3.3881 c}K u}IH -0.3606
-2.8510 c}K u}UH -1.1039
-2.4790 c}K u}UW -0.3156
-2.8952 c}K u}W -0.2937
-3.0413 c}K u}Y -0.2926
-2.0019 c}K u}Y|UW -0.6824
-3.2284 c}K u}_ -0.9202
-3.2632 c}K v}V -0.1307
-2.9999 c}K w}W -0.1638
-4.4445 c}K w}_ 0.0000
-3.5860 c}K y}IH -0.2241
-3.3881 c}K y}IY 0.2309
-4.4007 c}K z}S 0.0000
-3.8652 c}K z}Z -0.1803
-3.3374 c}S '}IY -0.0271
-3.7526 c}S '}_ 0.0000
-2.9953 c}S (}IY -0.0117
-3.3374 c}S -}IY -0.2910
-2.9953 c}S .}IY 0.0000
-3.7526 c}S </s> 0.0000
-3.7964 c}S _}EH 0.0000
-1.8747 c}S _}IY -0.2070
-3.2171 c}S _}W -0.8113
-3.7964 c}S _}Y 0.0000
-3.7526 c}S a|i}EH 0.0000
-3.7964 c}S a|i}EY 0.0000
-3.7964 c}S a|o}AW 0.0000
-3.7526 c}S a}AA -0.3864
-3.7964 c}S a}AH 0.0000
-3.7964 c}S a}EH 0.0000
-3.3374 c}S a}_ -0.6414
-2.3720 c}S e|a}IY -0.6506
-1.5905 c}S e|d}T 0.8687
-3.7964 c}S e|n}IH 0.0000
-1.3499 c}S e|r}ER -0.4590
-1.3086 c}S e}AH -0.6190
-0.8949 c}S e}EH -1.0640
-2.0815 c}S e}EY -0.2389
-1.2015 c}S e}IH -0.9267
-1.6043 c}S e}IY -0.6246
-0.6205 c}S e}_ -1.3849
-3.7964 c}S h}HH 0.0000
-3.2171 c}S h}_ 0.0000
-1.8134 c}S i|r}ER -0.8813
-1.2629 c}S i}AH -0.8367
-1.4201 c}S i}AY -0.9124
-0.8579 c}S i}IH -0.8554
-1.2518 c}S i}IY -0.2508
-2.9953 c}S i}Y -0.3948
-3.2171 c}S i}_ -0.8430
-2.5481 c}S k}K -0.4482
-3.7964 c}S l}L 0.0000
-3.7964 c}S m}M 0.0000
-3.7964 c}S o|r}ER 0.0000
-3.7964 c}S o}AH 0.0000
-3.7526 c}S o}OW 0.0000
-3.7964 c}S o}W 0.0000
-3.7964 c}S o}_ 0.0000
-3.7964 c}S r}ER 0.0000
-3.7526 c}S s}_ 0.0000
-3.7964 c}S y|r}ER 0.0000
-2.9953 c}S y}AH -0.2223
-1.6529 c}S y}AY -0.8452
-1.8617 c}S y}IH -0.4238
-1.3538 c}S y}IY -0.2954
-3.7964 c}S z|a}AA 0.0000
-2.0564 c}SH a}AA 0.0000
-2.0564 c}SH a}AH 0.0000
-2.0564 c}SH e}AH 0.0000
-1.4771 c}SH e}IY -0.8880
-2.0564 c}SH e}Y 0.0000
-0.5925 c}SH e}_ -0.9233
-2.0564 c}SH i}IH 0.0000
-0.2218 c}SH i}IY -0.7016
-1.2553 c}SH i}Y -0.1507
-1.1021 c}T h}_ 0.0000
-1.1021 c}T t}S 0.0000
-0.2345 c}T z}S -0.2556
-1.1021 c}T z}Z 0.0000
-0.1021 c}TH e}EH 0.0000
-1.5570 c}T|S a}AH -0.1461
-1.9721 c}T|S e}AH -0.3914
-1.9721 c}T|S e}IH 0.0000
-0.0446 c}T|S k}K -1.9195
-1.8875 c}Y h}_ 0.0000
-0.7439 c}Y u|r}ER -0.4566
-0.4429 c}Y u}AH -1.0682
-0.3540 c}Y u}UW -0.6961
-1.4639 c}_ </s> 0.0000
-1.4639 c}_ a}AE 0.0000
-1.4639 c}_ a}EH 0.0000
-1.4639 c}_ l}L 0.0000
-1.4639 c}_ o}AA 0.0000
-1.4639 c}_ o}OW 0.0000
-0.3203 c}_ q|u}K -0.7458
-1.4639 c}_ s}Z 0.0000
-0.6628 c}_ t}T -0.5811
-2.7649 d|g}JH a}AH 0.0000
-2.7649 d|g}JH c}K 0.0000
-2.7649 d|g}JH d}D 0.0000
-1.2004 d|g}JH e|r}ER -0.2481
-1.0946 d|g}JH e}AH -0.4051
-2.7649 d|g}JH e}EH 0.0000
-0.9224 d|g}JH e}IH -1.6333
-2.7649 d|g}JH e}IY 0.0000
-0.2528 d|g}JH e}_ -1.0873
-2.7211 d|g}JH h}HH 0.0000
-1.1856 d|g}JH i}IH -0.8729
-2.3059 d|g}JH i}IY -0.3647
-1.9638 d|g}JH k}K -0.8264
-1.7597 d|g}JH l}L -0.7992
-1.5488 d|g}JH m}M -0.5194
-2.7649 d|g}JH o}AO 0.0000
-2.7649 d|g}JH p}P 0.0000
-2.7211 d|g}JH r}R 0.0000
-2.7649 d|g}JH s}S 0.0000
-2.7649 d|g}JH u|r}ER 0.0000
-2.3059 d|g}JH w}W -0.0698
-1.9638 d|g}JH y}IY -0.1502
-1.6703 d|z}JH e|r}ER 0.0000
-1.6703 d|z}JH e}EH 0.0000
-1.6703 d|z}JH e}IH 0.0000
-1.0911 d|z}JH h}_ -0.2104
-1.6703 d|z}JH i}AH 0.0000
-0.3378 d|z}JH i}IH -0.7207
-0.6140 d|z}JH i}IY -0.1425
-1.6703 d|z}JH k}K 0.0000
-1.6703 d|z}JH o}OW 0.0000
-1.6703 d|z}JH w}V 0.0000
-1.6703 d|z}JH y}IH 0.0000
-0.0045 d}AH l}L -1.9368
-0.1021 d}B </s> 0.0000
-2.0007 d}D '|s}Z 1.2193
-4.0314 d}D '}AH -0.8435
-4.6107 d}D '}IH 0.0000
-3.6055 d}D '}IY 0.2987
-2.9404 d}D '}_ -0.5913
-3.7430 d}D (}IY 0.2510
-1.5641 d}D (}_ -0.2495
-2.9771 d}D -}_ -0.2540
-3.8096 d}D .}IY 0.1071
-0.6432 d}D </s> 0.0000
-3.3044 d}D _}AH -0.5737
-4.6107 d}D _}EY 0.0000
-2.8751 d}D _}IY -0.1708
-4.6107 d}D _}R 0.0000
-4.6107 d}D _}W 0.0000
-3.7522 d}D _}Y -0.4298
-3.3946 d}D a|i}EH 0.3705
-2.7604 d}D a|i}EY 0.1408
-4.0314 d}D a|o}AW -0.6193
-2.8553 d}D a|r}ER -0.3478
-2.9404 d}D a|u}AO -0.5435
-3.2781 d}D a|u}AW -0.2255
-3.8096 d}D a|u}OW 0.0000
-3.2533 d}D a|w}AO -0.3384
-2.3750 d}D a|y}EY -0.7237
-1.9322 d}D a}AA -0.1830
-1.7967 d}D a}AE -0.3777
-1.5350 d}D a}AH -0.6656
-3.2075 d}D a}AO -0.3168
-2.9900 d}D a}EH -0.8550
-1.9758 d}D a}EY -0.6850
-3.3946 d}D a}IH -0.8789
-4.5669 d}D a}IY -0.3653
-2.8273 d}D a}_ -0.6756
-2.2911 d}D b}B -0.3538
-3.3044 d}D c|h}CH -0.2745
-4.6107 d}D c|k}K 0.0000
-2.6393 d}D c}K -0.4382
-4.6107 d}D c}S 0.0000
-2.5308 d}D d}AH 0.0000
-3.8096 d}D d}D -0.1122
-2.5947 d}D d}_ -1.0014
-2.6452 d}D e|a}IY -0.3561
-4.1517 d}D e|i}EY 0.0000
-4.5669 d}D e|n}EH -0.0460
-4.6107 d}D e|n}_ 0.0000
-1.3096 d}D e|r}ER -0.5509
-3.2781 d}D e|u}OY -0.4747
-2.9065 d}D e|w}UW -0.0791
-3.7522 d}D e|y}EY -0.3098
-1.4632 d}D e}AH -0.1627
-1.3550 d}D e}EH -0.5145
-2.4751 d}D e}EY -0.0878
-1.3354 d}D e}IH -0.9211
-1.8947 d}D e}IY -0.3770
-1.4330 d}D e}_ -1.0059
-2.4222 d}D f}F -0.4733
-3.0034 d}D g}G -0.6596
-4.5669 d}D g}JH -0.2829
-4.6107 d}D h}AH 0.0000
-2.4330 d}D h}HH -0.2615
-2.8096 d}D h}_ -0.5776
-3.7430 d}D i|c}AY -0.1025
-4.5669 d}D i|g}AY -0.3932
-2.8010 d}D i|r}ER -0.6713
-3.7522 d}D i}AE 0.5782
-2.0007 d}D i}AH -0.5990
-4.6107 d}D i}AO 0.0000
-1.8802 d}D i}AY -0.5536
-1.0891 d}D i}IH -0.4704
-1.5169 d}D i}IY -0.3050
-3.2781 d}D i}Y -0.1617
-4.1517 d}D i}_ -0.1323
-4.0314 d}D j}JH 0.0000
-4.5669 d}D j}Y -0.3030
-2.8853 d}D k}K -0.6744
-4.6107 d}D l|l}L 0.0000
-2.1968 d}D l}AH|L 0.1129
-1.7746 d}D l}L -1.3560
-2.0804 d}D m}M -1.0070
-2.2437 d}D n}N -0.8932
-4.6107 d}D o|h}F 0.0000
-3.3624 d}D o|i}OY -0.1710
-4.6107 d}D o|l}AO 0.0000
-4.6107 d}D o|o}UH 0.0000
-2.9175 d}D o|o}UW -0.3964
-2.6697 d}D o|r}ER -0.3379
-3.0034 d}D o|u}AH -1.0278
-3.7430 d}D o|u}AO 0.3214
-2.8458 d}D o|u}AW -0.4447
-4.5669 d}D o|u}UH 0.6323
-2.9175 d}D o|u}UW -0.4784
-2.2730 d}D o|w}AW -0.6283
-2.7604 d}D o|w}OW -0.1800
-3.4672 d}D o|y}OY -0.0658
-1.8300 d}D o}AA -0.3773
-2.0007 d}D o}AH -0.4638
-1.9109 d}D o}AO -0.3975
-3.7522 d}D o}AW 0.4592
-4.6107 d}D o}D|OW 0.0000
-3.5543 d}D o}IH -0.5775
-1.6221 d}D o}OW -0.4604
-3.0462 d}D o}UW -0.4503
-4.6107 d}D o}W 0.0000
-3.1863 d}D o}_ -1.3268
-4.6107 d}D p|f}F 0.0000
-4.5669 d}D p|h}F -0.3575
-2.8553 d}D p}P -0.2940
-3.7522 d}D q|u}K -0.8811
-3.3624 d}D q}K -0.0637
-4.5669 d}D r}AA|K 0.0000
-3.0034 d}D r}ER -0.1071
-1.4127 d}D r}R -1.2879
-4.1517 d}D r}_ -0.4498
-3.7430 d}D s|c}SH 0.8757
-2.9900 d}D s|h}SH -0.4552
-4.5669 d}D s|s}S 0.0000
-2.0692 d}D s}S -0.8054
-1.6405 d}D s}Z -0.9914
-3.4294 d}D t|h}TH -0.2531
-2.8958 d}D t}T -0.6700
-3.5543 d}D t}_ -0.8968
-4.5669 d}D u|i}UW 0.0000
-2.7843 d}D u|r}ER -0.2647
-1.7596 d}D u}AH -0.2678
-3.8096 d}D u}AO -0.6350
-3.5543 d}D u}IH -0.4064
-2.7527 d}D u}UH -1.1301
-1.9720 d}D u}UW -0.3901
-3.3325 d}D u}W -0.1205
-3.0172 d}D u}Y|UW -0.3785
-4.1517 d}D u}_ -0.1141
-2.2911 d}D v}V -1.1223
-4.6107 d}D w}V 0.0000
-2.1449 d}D w}W -0.4938
-4.0314 d}D w}_ -0.4297
-4.1517 d}D y}AH -0.1523
-2.4833 d}D y}AY -0.6780
-2.8651 d}D y}IH -0.2567
-1.9596 d}D y}IY -0.0273
-3.3946 d}D y}Y -0.1072
-3.0936 d}D z}Z -0.3993
-2.2452 d}JH _}Y 0.0000
-1.6659 d}JH i}AH -0.8849
-1.4440 d}JH i}_ -0.8548
-2.2452 d}JH o|o}UW 0.0000
-2.2452 d}JH r}_ 0.0000
-1.3866 d}JH u|r}ER -0.4888
-0.4027 d}JH u}AH -2.0822
-1.3775 d}JH u}UH -0.5735
-0.4898 d}JH u}UW -0.7540
-0.9969 d}JH u}Y|UW -1.1997
-2.2452 d}JH u}_ 0.0000
-1.3326 d}T '}_ 0.0000
-0.5315 d}T </s> 0.0000
-1.2888 d}T a}AH -0.2808
-1.2888 d}T e|r}ER 0.0000
-1.3326 d}T e}AH 0.0000
-0.7533 d}T i}IH 0.0000
-1.3326 d}T i}IY 0.0000
-1.3326 d}T s}S 0.0000
-1.3326 d}T u}AH 0.0000
-2.6236 d}_ '|s}Z -0.4219
-1.9805 d}_ (}_ -0.0487
-3.0826 d}_ -}_ 0.0000
-1.7252 d}_ </s> 0.0000
-3.0826 d}_ a}AH 0.0000
-3.0826 d}_ a}IH 0.0000
-2.5033 d}_ b}B -0.2162
-2.5033 d}_ c|h}CH -0.1784
-0.2974 d}_ d}D -0.7414
-1.9805 d}_ e|r}ER -0.3042
-1.8343 d}_ e}AH -0.6209
-3.0826 d}_ e}EH 0.0000
-3.0388 d}_ e}IH -0.3164
-2.2241 d}_ e}_ -0.2421
-2.2149 d}_ f}F -0.5935
-3.0826 d}_ h}HH 0.0000
-3.0388 d}_ i}AH -0.3789
-1.9013 d}_ i}IH -0.3922
-2.2149 d}_ i}IY -0.5103
-1.1881 d}_ j}JH -0.4922
-2.2241 d}_ k}K -0.4833
-1.8665 d}_ l}L -0.4836
-2.2149 d}_ m}M -0.2480
-1.9805 d}_ n}N -0.4208
-3.0826 d}_ o|r}ER 0.0000
-2.2815 d}_ o}AH -0.4201
-2.6236 d}_ p}P -0.4569
-3.0388 d}_ r|z}JH 0.0000
-3.0388 d}_ r}ER -0.1109
-3.0388 d}_ s|h}SH -0.3391
-1.7252 d}_ s}S -0.4424
-1.6794 d}_ s}Z -0.8929
-3.0388 d}_ t|h}TH 0.0000
-0.6816 d}_ t}T -1.2132
-3.0388 d}_ u}AH 0.0000
-2.6236 d}_ w}W -0.3756
-1.9013 d}_ y}IY -0.1011
-0.1021 e|(}AY 2|)}_ 0.0000
-2.8014 e|a}IY '|s}Z 0.1744
-3.3807 e|a}IY (}_ 0.0000
-1.9361 e|a}IY </s> 0.0000
-1.8983 e|a}IY b}B -0.1757
-1.2785 e|a}IY c|h}CH -0.5435
-2.0233 e|a}IY c}K -0.3123
-2.0233 e|a}IY c}S -1.1363
-1.3008 e|a}IY d}D -0.5065
-3.3807 e|a}IY d}_ 0.0000
-3.3807 e|a}IY f|f}F 0.0000
-1.8014 e|a}IY f}F -0.2904
-2.1024 e|a}IY g|u}G -1.1714
-1.4212 e|a}IY g}G -0.5109
-2.5221 e|a}IY g}JH -0.2493
-2.5796 e|a}IY h}HH -0.1166
-2.9217 e|a}IY h}_ -0.1392
-1.1646 e|a}IY k}K -0.8553
-2.3754 e|a}IY l|l}L -0.7286
-0.9361 e|a}IY l}L -0.7521
-3.3807 e|a}IY m|m}M 0.0000
-1.1142 e|a}IY m}M -0.7900
-2.9217 e|a}IY n|n}N -0.1272
-1.1202 e|a}IY n}N -0.5912
-3.3807 e|a}IY p|h}F 0.0000
-3.3807 e|a}IY p|p}P 0.0000
-1.6987 e|a}IY p}P -0.2581
-2.8014 e|a}IY q}K 0.8905
-1.3440 e|a}IY r}R -0.5903
-3.3369 e|a}IY r}_ 0.0620
-2.2371 e|a}IY s|h}SH -0.2455
-1.0506 e|a}IY s}S -0.8526
-1.1450 e|a}IY s}Z -0.2854
-2.2785 e|a}IY t|h}DH -0.2730
-1.8983 e|a}IY t|h}TH -0.2437
-2.5130 e|a}IY t|t}T -0.2180
-2.5130 e|a}IY t}CH -0.5748
-0.9263 e|a}IY t}T -0.8583
-3.3807 e|a}IY t}_ 0.0000
-1.3440 e|a}IY v}V -0.7158
-2.2785 e|a}IY w}W -0.1124
-3.3807 e|a}IY w}_ 0.0000
-3.3807 e|a}IY y}IY 0.0000
-2.1993 e|a}IY z}Z -0.1836
-0.1021 e|b}_ l}L 0.0000
-1.2683 e|d}T (}_ -0.1099
-0.0246 e|d}T </s> 0.0000
-1.8902 e|i}EY '|s}Z 0.1744
-2.0105 e|i}EY (}_ 0.3380
-2.4257 e|i}EY -}_ 0.0000
-0.8902 e|i}EY </s> 0.0000
-2.4257 e|i}EY a}AH -0.2808
-2.4695 e|i}EY c|h}HH 0.0000
-2.4257 e|i}EY d}D 0.0000
-1.8902 e|i}EY e|r}ER -0.6710
-0.4329 e|i}EY g|h}_ -0.1963
-1.4131 e|i}EY g}G -0.3756
-1.8902 e|i}EY g}ZH -0.2005
-2.4257 e|i}EY i}IY -0.3975
-1.8902 e|i}EY j}JH -0.8746
-2.4257 e|i}EY j}ZH -0.3923
-1.6110 e|i}EY k}K -0.4968
-1.6684 e|i}EY l|l}L -0.0804
-1.2882 e|i}EY l}L -0.5542
-2.4695 e|i}EY m}M 0.0000
-2.4695 e|i}EY n|g}NG 0.0000
-0.8902 e|i}EY n}N -0.3028
-2.4257 e|i}EY n}NG -0.1240
-2.4695 e|i}EY o}OW 0.0000
-2.4695 e|i}EY p}P 0.0000
-1.4131 e|i}EY r}R -0.5214
-2.4257 e|i}EY s|h}SH 0.0000
-2.4257 e|i}EY s|s}S 0.0000
-2.4257 e|i}EY s}S 0.0000
-2.4695 e|i}EY s}Z 0.0000
-2.0105 e|i}EY t}T 0.0000
-2.4257 e|i}EY y}Y 0.0000
-0.9219 e|j}EY </s> 0.0000
-1.3809 e|j}EY a}AA 0.0000
-1.3809 e|j}EY c|h}CH 0.0000
-1.3809 e|j}EY d}D 0.0000
-0.8016 e|j}EY e}EH -0.8914
-1.3809 e|j}EY e}IH 0.0000
-1.3371 e|j}EY k}K -0.3799
-1.3809 e|j}EY m}M 0.0000
-0.8016 e|j}EY n}N -0.2054
-1.3809 e|j}EY o}AA 0.0000
-1.3809 e|j}EY s}S 0.0000
-0.1021 e|l}AH </s> 0.0000
-0.1021 e|m}EH s}S 0.0000
-0.3594 e|m}IH b}B -0.3875
-0.7573 e|n}AH e}_ -0.3743
-0.8011 e|n}AH f}F 0.0000
-0.8011 e|n}AH g}JH 0.0000
-0.8011 e|n}AH k|n}N 0.0000
-0.1021 e|n}AO r}R 0.0000
-1.0564 e|n}EH a}AH 0.0000
-0.2553 e|n}EH d}D -0.2591
-1.0564 e|n}EH d}JH 0.0000
-1.0564 e|n}EH g}G 0.0000
-1.0564 e|n}EH t}T 0.0000
-0.1021 e|n}IH c}S 0.0000
-0.1021 e|n}_ </s> 0.0000
-1.5410 e|r}ER '|s}Z 0.9643
-3.8273 e|r}ER '}_ -0.2181
-1.5680 e|r}ER (}_ -0.1380
-3.3502 e|r}ER -}_ -0.0974
-0.3987 e|r}ER </s> 0.0000
-4.4065 e|r}ER _}EH 0.0000
-4.3627 e|r}ER _}R|T -0.1485
-4.4065 e|r}ER a|i}EY 0.0000
-4.4065 e|r}ER a|r}ER 0.0000
-4.3627 e|r}ER a|u}AO 0.0000
-4.3627 e|r}ER a|u}AW 0.0000
-4.4065 e|r}ER a|u}OW 0.0000
-4.4065 e|r}ER a|y}EY 0.0000
-2.4593 e|r}ER a}AA -0.2613
-2.5120 e|r}ER a}AE -0.7146
-1.9242 e|r}ER a}AH -0.8509
-3.3502 e|r}ER a}AO -0.5515
-3.5480 e|r}ER a}EH -0.1914
-1.9581 e|r}ER a}EY -1.1606
-2.9242 e|r}ER a}IH -1.1082
-3.5480 e|r}ER a}_ -0.5461
-1.7374 e|r}ER b}B -0.4342
-2.5968 e|r}ER c|h}CH -0.5418
-4.4065 e|r}ER c|h}SH 0.0000
-3.1003 e|r}ER c|i}SH -0.7315
-3.6054 e|r}ER c|k}K -0.4391
-3.9475 e|r}ER c|q}K 0.1035
-4.4065 e|r}ER c|z}CH 0.0000
-4.3627 e|r}ER c}CH 0.0000
-2.0589 e|r}ER c}K -0.2897
-2.2630 e|r}ER c}S -0.3583
-2.0443 e|r}ER d}D -0.2191
-3.6054 e|r}ER d}_ -0.7677
-3.5389 e|r}ER e|a}IY -0.2644
-2.4915 e|r}ER e|r}ER -1.5106
-4.4065 e|r}ER e|w}UW 0.0000
-4.4065 e|r}ER e|y}EH 0.0000
-4.3627 e|r}ER e|y}EY 0.0000
-2.5801 e|r}ER e}AH -0.6891
-2.3044 e|r}ER e}EH -0.3465
-3.2630 e|r}ER e}EY -0.3618
-2.9242 e|r}ER e}IH -0.4578
-3.0034 e|r}ER e}IY -0.4779
-1.8962 e|r}ER e}_ -1.1037
-4.3627 e|r}ER f|f}F -0.2637
-1.9522 e|r}ER f}F -0.6348
-4.4065 e|r}ER g|g}G 0.0000
-4.4065 e|r}ER g|n}N 0.0000
-1.4862 e|r}ER g}G -0.7768
-2.2475 e|r}ER g}JH 0.1783
-4.4065 e|r}ER g}ZH 0.0000
-2.2145 e|r}ER h}HH -0.4325
-4.4065 e|r}ER h}_ 0.0000
-2.9427 e|r}ER i}AH -0.6205
-2.6812 e|r}ER i}AY -0.9928
-4.4065 e|r}ER i}EY 0.0000
-1.7023 e|r}ER i}IH -0.7094
-2.2791 e|r}ER i}IY -0.4712
-3.8273 e|r}ER i}_ -0.2198
-3.0257 e|r}ER j}JH -0.2882
-4.4065 e|r}ER k|k}K 0.0000
-2.1521 e|r}ER k}K -0.3178
-2.9620 e|r}ER l}AH|L -0.6266
-1.6969 e|r}ER l}L -0.7769
-1.4719 e|r}ER m}M -1.0075
-3.3502 e|r}ER n|m}M 0.5812
-3.8273 e|r}ER n|n}N -0.2060
-1.5539 e|r}ER n}N -0.4075
-3.6054 e|r}ER o|i}OY -0.3618
-4.4065 e|r}ER o|o}UW 0.0000
-3.5480 e|r}ER o|r}ER -0.2090
-2.8130 e|r}ER o|u}AH -0.9715
-3.5480 e|r}ER o|u}UW -0.3021
-4.4065 e|r}ER o|w}AW 0.0000
-3.9475 e|r}ER o|w}OW -0.4658
-3.9475 e|r}ER o|y}OY -0.5349
-2.7993 e|r}ER o}AA -0.2324
-2.9242 e|r}ER o}AH 0.0535
-2.8894 e|r}ER o}AO -0.7960
-2.4656 e|r}ER o}OW -0.2219
-3.8273 e|r}ER o}_ -0.2097
-4.4065 e|r}ER p|h}F 0.0000
-1.9863 e|r}ER p}P -0.4575
-3.8273 e|r}ER q|u}K 0.0737
-3.3044 e|r}ER q}K 0.0710
-2.3221 e|r}ER r}R -0.3342
-2.1552 e|r}ER r}_ -0.8467
-2.9427 e|r}ER s|c}SH 0.3743
-2.4013 e|r}ER s|h}SH -0.3447
-3.8273 e|r}ER s|i}SH -0.8740
-2.9065 e|r}ER s|i}ZH -0.4591
-3.9475 e|r}ER s|s}S -0.6415
-4.4065 e|r}ER s|z}SH 0.0000
-1.4501 e|r}ER s}S -0.7013
-4.4065 e|r}ER s}SH 0.0000
-0.9910 e|r}ER s}Z -1.5439
-3.8273 e|r}ER s}_ -0.8847
-3.9475 e|r}ER t|h}DH 0.0000
-2.7246 e|r}ER t|h}TH -0.2345
-3.2630 e|r}ER t|i}SH 0.5146
-3.9475 e|r}ER t|s}_ -0.5515
-4.4065 e|r}ER t|t}T 0.0000
-3.8273 e|r}ER t}CH 0.0820
-4.3627 e|r}ER t}SH 0.0000
-1.3411 e|r}ER t}T -0.5535
-4.4065 e|r}ER t}_ 0.0000
-4.4065 e|r}ER u|r}ER 0.0000
-3.4013 e|r}ER u}AH -0.3571
-4.4065 e|r}ER u}IH 0.0000
-2.9822 e|r}ER u}UW -0.2433
-3.4013 e|r}ER u}Y|UW -0.6177
-1.7939 e|r}ER v}V -0.4363
-3.5480 e|r}ER w}HH|W 0.5128
-3.8273 e|r}ER w}V 0.0000
-2.2325 e|r}ER w}W -0.2113
-3.1003 e|r}ER w}_ -0.7678
-3.8273 e|r}ER x}K|S 0.0000
-4.3627 e|r}ER y}IH 0.0000
-2.0121 e|r}ER y}IY -0.5951
-3.9475 e|r}ER y}Y -0.0689
-4.3627 e|r}ER z}T|S -0.3745
-2.7859 e|r}ER z}Z -0.0373
-0.1021 e|u}AY s}Z 0.0000
-2.0268 e|u}OY </s> 0.0000
-2.0706 e|u}OY a}AA 0.0000
-1.0142 e|u}OY b}B -0.2449
-1.4914 e|u}OY c}K 0.0000
-1.6116 e|u}OY d}D 0.0000
-1.0142 e|u}OY e|r}ER -0.1932
-1.6116 e|u}OY f}F -0.1524
-2.0268 e|u}OY g}G -0.3763
-1.2121 e|u}OY l}L -0.0882
-1.6116 e|u}OY n}N -0.1306
-2.0268 e|u}OY p}P 0.0000
-1.4914 e|u}OY r}R -0.1858
-1.4914 e|u}OY s|c}SH 0.8621
-2.0268 e|u}OY s|s}S -0.3805
-1.2121 e|u}OY s}S -0.3145
-2.0706 e|u}OY s}SH 0.0000
-2.0268 e|u}OY s}Z 0.1066
-2.0706 e|u}OY t|h}DH 0.0000
-2.0268 e|u}OY t|h}TH 0.0000
-0.9685 e|u}OY t|s}_ -0.9383
-2.0706 e|u}OY t|t}T 0.0000
-0.8545 e|u}OY t}T -0.3228
-2.0706 e|u}OY t}_ 0.0000
-2.0268 e|u}OY v}V -0.3810
-0.7042 e|w}OW </s> 0.0000
-0.7042 e|w}OW e}_ 0.0000
-0.7042 e|w}OW i}IH 0.0000
-0.7042 e|w}OW n}N 0.0000
-2.0001 e|w}UW '|s}Z 0.1880
-2.0667 e|w}UW (}_ 0.1236
-1.3855 e|w}UW -}_ -0.3344
-0.7789 e|w}UW </s> 0.0000
-2.8678 e|w}UW _}F 0.0000
-1.6195 e|w}UW a|r}ER -0.3430
-2.8240 e|w}UW a}AA 0.0000
-2.8678 e|w}UW a}AE 0.0000
-1.4646 e|w}UW a}AH -0.1262
-2.2885 e|w}UW a}AO -0.0763
-2.8240 e|w}UW a}EH 0.0000
-2.8678 e|w}UW a}EY 0.0000
-2.8240 e|w}UW a}IH 0.0000
-2.8678 e|w}UW a}_ 0.0000
-1.3855 e|w}UW b}B -0.1982
-2.8678 e|w}UW c|h}CH 0.0000
-2.8678 e|w}UW c|z}CH 0.0000
-1.7657 e|w}UW c}K -0.3827
-2.0001 e|w}UW d}D -0.0481
-1.3033 e|w}UW e|r}ER -0.3077
-1.4646 e|w}UW e}AH -0.2320
-1.8626 e|w}UW e}EH -0.5947
-1.8626 e|w}UW e}IH -0.4945
-2.8240 e|w}UW e}IY -0.3779
-1.1424 e|w}UW e}_ -0.3262
-1.8626 e|w}UW f}F -0.0995
-2.2885 e|w}UW g}G -0.2108
-2.0667 e|w}UW h}HH -0.2444
-2.8678 e|w}UW i|r}ER 0.0000
-2.8240 e|w}UW i}AH -0.3474
-2.2885 e|w}UW i}AY -0.1873
-1.1424 e|w}UW i}IH -0.6595
-2.2885 e|w}UW i}IY -0.1232
-2.0667 e|w}UW k}K 0.0000
-1.7657 e|w}UW l}L -0.1734
-1.6195 e|w}UW m}M -0.2593
-2.4088 e|w}UW n}N 0.0000
-2.8678 e|w}UW o|r}ER 0.0000
-2.8240 e|w}UW o}OW -0.3434
-2.8240 e|w}UW o}UH -0.1030
-2.0667 e|w}UW p}P -0.6140
-2.8678 e|w}UW q}K 0.0000
-2.2885 e|w}UW r}R -0.8837
-2.8678 e|w}UW s|h}SH 0.0000
-1.4434 e|w}UW s}S -0.7831
-0.7879 e|w}UW s}Z -0.0557
-1.6865 e|w}UW t}T -0.1812
-2.8678 e|w}UW u}AH 0.0000
-2.8240 e|w}UW v}V 0.0000
-2.8678 e|w}UW w}W 0.0000
-2.4088 e|w}UW y}IY 0.0643
-1.2624 e|y}EH e}_ -0.3879
-1.3063 e|y}EH k}K 0.0000
-0.8473 e|y}EH n}N -0.6520
-0.2499 e|y}EH r}R -0.1349
-1.9138 e|y}EY '|s}Z 0.1744
-1.9138 e|y}EY '}_ 0.0000
-1.4878 e|y}EY (}_ 0.5262
-0.6056 e|y}EY </s> 0.0000
-2.4931 e|y}EY a|r}ER 0.0000
-1.6254 e|y}EY a}AH -0.4143
-1.6345 e|y}EY b}B -0.0822
-2.4931 e|y}EY c|h}SH 0.0000
-2.4931 e|y}EY c}K 0.0000
-1.3118 e|y}EY d}D -0.1341
-1.1122 e|y}EY e|r}ER -0.5294
-1.6254 e|y}EY e}_ -0.5692
-1.4878 e|y}EY f}F -0.1558
-2.4931 e|y}EY g}G 0.0000
-1.9138 e|y}EY h}HH -0.2111
-2.4493 e|y}EY h}_ 0.0000
-2.4493 e|y}EY i}AH -0.3907
-1.3909 e|y}EY i}IH -0.9589
-2.4931 e|y}EY i}IY 0.0000
-2.4931 e|y}EY k}K 0.0000
-2.4931 e|y}EY l|l}L 0.0000
-1.3118 e|y}EY l}L -0.3575
-1.2448 e|y}EY m}M -0.6316
-1.0687 e|y}EY n}N -0.3277
-1.6345 e|y}EY o|r}ER -0.2744
-2.4931 e|y}EY o}AO 0.0000
-2.0341 e|y}EY o}OW -0.0356
-1.9138 e|y}EY r}R -0.1858
-1.6345 e|y}EY s}S -0.0992
-1.3118 e|y}EY s}Z -0.9683
-1.6345 e|y}EY t}T -0.4110
-2.4931 e|y}EY v}V 0.0000
-2.4493 e|y}EY w}W 0.0000
-0.4032 e|z}EY (}_ 0.0000
-0.4032 e|z}EY </s> 0.0000
-1.7826 e}AA m}M -0.3811
-0.0615 e}AA n}N -0.6613
-1.3674 e}AA r}R -0.3935
-1.8264 e}AA v}V 0.0000
-0.8803 e}AE l|l}L 0.0000
-0.3010 e}AE n|n}N -0.8468
-0.8803 e}AE n}N 0.0000
-0.8803 e}AE p}P 0.0000
-2.5989 e}AH '|s}Z 2.0960
-3.5841 e}AH '}_ -0.8896
-2.9473 e}AH (}_ 0.7914
-3.3623 e}AH -}_ -0.2376
-2.3370 e}AH </s> 0.0000
-1.9821 e}AH b}B -0.4307
-3.5841 e}AH c|h}CH 0.0000
-4.1196 e}AH c|k}K 0.0000
-4.1634 e}AH c}CH 0.0000
-1.8133 e}AH c}K -0.3381
-2.3054 e}AH c}S -0.4959
-3.5841 e}AH d|g}JH -0.5371
-1.1647 e}AH d}D -1.0298
-3.1582 e}AH f|f}F -0.4499
-2.0928 e}AH f}F -0.2391
-4.1196 e}AH g|u}G -0.3782
-1.8108 e}AH g}G -0.7386
-2.6995 e}AH g}JH -0.1744
-3.5841 e}AH g}ZH -0.1826
-2.6463 e}AH h}HH -0.1693
-3.2957 e}AH h}_ -0.3101
-3.1070 e}AH j}JH -0.2492
-4.1196 e}AH j}Y -0.3819
-4.1196 e}AH k}G -0.3147
-2.5989 e}AH k}K -0.1202
-1.3782 e}AH l|l}L -1.3219
-0.8091 e}AH l}L -0.8714
-4.1196 e}AH m|n}M 0.0000
-1.5197 e}AH m}M -0.3363
-3.1070 e}AH n|n}N -0.3985
-0.3945 e}AH n}N -0.8106
-4.1196 e}AH n}NG -0.3396
-2.5989 e}AH p|h}F -0.3073
-4.1634 e}AH p|p}P 0.0000
-2.3537 e}AH p}P -0.3015
-3.7044 e}AH q|u}K -0.3557
-2.6463 e}AH q}K -0.3189
-3.1070 e}AH r}R -0.0550
-3.0199 e}AH r}_ 0.2490
-4.1634 e}AH s|c}SH 0.0000
-3.5841 e}AH s|h}SH -0.2014
-1.2524 e}AH s|s}S -1.1721
-1.4178 e}AH s}S -0.6702
-1.4370 e}AH s}Z -1.1730
-3.7044 e}AH s}_ -0.2272
-2.6463 e}AH t|h}TH -0.2879
-2.3985 e}AH t|t}T -0.7013
-4.1634 e}AH t}CH 0.0000
-1.2391 e}AH t}T -0.4081
-1.8969 e}AH v}V -0.7102
-4.1196 e}AH w}V -0.1405
-2.8571 e}AH w}W -0.3988
-3.1070 e}AH x}G|Z -0.6307
-4.1634 e}AH x}K 0.0000
-2.5050 e}AH x}K|S -0.6724
-2.8852 e}AH z}Z -0.0881
-0.8473 e}AO n}N -0.4508
-0.4477 e}AO r}R -0.9129
-0.5051 e}AO v}F -0.0556
-1.3063 e}AO v}V 0.0000
-4.4823 e}EH '|s}Z 0.0000
-4.4823 e}EH '}_ 0.0000
-4.4823 e}EH (}CH|IY 0.0000
-3.9031 e}EH (}_ 0.1003
-3.6146 e}EH </s> 0.0000
-4.4823 e}EH _}S 0.0000
-2.7781 e}EH b|b}B -0.0663
-3.2662 e}EH b|t}T -0.1134
-1.9788 e}EH b}B -0.5627
-4.0233 e}EH c|c}CH 0.2187
-2.9178 e}EH c|c}K -0.7327
-2.8239 e}EH c|h}CH -0.2972
-4.4823 e}EH c|h}HH 0.0000
-3.6146 e}EH c|h}SH -0.2519
-4.4385 e}EH c|i}CH 0.0000
-2.9031 e}EH c|i}SH -0.5278
-1.7759 e}EH c|k}K 0.1931
-4.4385 e}EH c|q}K 0.1661
-4.4385 e}EH c|z}CH 0.0000
-3.4259 e}EH c}CH -0.4020
-1.2218 e}EH c}K -1.0170
-2.6243 e}EH c}S -0.9343
-4.4823 e}EH c}SH 0.0000
-3.1014 e}EH c}T|S -0.2680
-3.9031 e}EH c}_ -0.1155
-2.4457 e}EH d|g}JH -0.0130
-1.4313 e}EH d}D -0.5290
-2.6900 e}EH d}JH -0.5453
-4.4823 e}EH d}T 0.0000
-2.3845 e}EH d}_ -1.2451
-2.2435 e}EH f|f}F -0.3029
-2.0924 e}EH f}F -0.5925
-4.4823 e}EH f}V 0.0000
-2.5228 e}EH g|g}G -0.0362
-3.6238 e}EH g|g}JH -0.4251
-4.4385 e}EH g|t}T -0.3479
-4.4385 e}EH g|u}G 0.0000
-1.7792 e}EH g}G -0.7320
-2.4937 e}EH g}JH -0.7199
-4.4385 e}EH g}K -0.3650
-4.4823 e}EH g}ZH 0.0000
-2.6726 e}EH h}HH -0.3132
-2.0147 e}EH h}_ -1.2662
