
\data\
ngram 1=629
ngram 2=10366
ngram 3=70730


\1-grams:
-4.0156 !|e}EH -0.2257
-4.0156 "|c}K -0.2257
-4.0156 "|d}D -0.2257
-4.0156 "|e}EH -0.2257
-4.0156 "|i}IH -0.2257
-4.0156 "|q}K -0.2257
-4.0156 "|u}AH -0.2257
-4.0156 #|s}SH -0.2257
-4.0156 %|p}P -0.2257
-4.0156 &|a}AE -0.2257
-2.0566 '|s}Z -2.0353
-2.8115 '}AH -0.6843
-4.0156 '}EH -0.2257
-4.0156 '}ER|EY -0.2257
-2.7369 '}IH -0.8278
-4.0156 '}IH|Z -0.2257
-3.1125 '}IY -0.6407
-4.0156 '}IY|OW -0.2257
-4.0156 '}SH|AH -0.2257
-2.1644 '}_ -0.8252
-4.0156 (}AE|L -0.2257
-4.0156 (}AE|M -0.2257
-3.7146 (}AH|N -0.2257
-3.7146 (}AH|T -0.5267
-4.0156 (}AH|V -0.2257
-4.0156 (}AO|S -0.2257
-4.0156 (}B|AH -0.2257
-4.0156 (}CH|IY -0.2257
-4.0156 (}EH|T -0.2257
-3.3166 (}ER -0.2257
-4.0156 (}ER|AW -0.2257
-4.0156 (}EY|SH -0.2257
-2.9742 (}IY -0.9247
-4.0156 (}R|EY -0.2257
-4.0156 (}R|JH -0.2257
-4.0156 (}SH|AH -0.2257
-4.0156 (}S|T -0.2257
-3.5385 (}T|ER -0.7028
-4.0156 (}W|AY -0.2257
-3.7146 (}Y|UW -0.5267
-1.8950 (}_ -1.4562
-4.0156 )|c}K -0.2257
-4.0156 )|e}EH -0.2257
-4.0156 )|p}P -0.2257
-4.0156 )|r}R -0.2257
-4.0156 )|u}AH -0.2257
-3.7146 )}AH|L -0.4018
-4.0156 )}AH|N -0.2257
-4.0156 )}IH|V -0.2257
-4.0156 ,|c}K -0.2257
-4.0156 -}EY -0.2257
-4.0156 -}EY|T -0.2257
-4.0156 -}F -0.2257
-3.5385 -}IY -0.2257
-2.2094 -}_ -0.9273
-4.0156 .|'}IH -0.2257
-4.0156 .|(}OW -0.2257
-4.0156 .|.}IH -0.2257
-4.0156 .|d}D -0.2257
-4.0156 .|e}L -0.2257
-4.0156 .|f}F -0.2257
-4.0156 .|p}P -0.2257
-3.3166 .|s}Z -0.7028
-4.0156 .}AA|R -0.2257
-4.0156 .}AH|B -0.2257
-4.0156 .}AH|K -0.2257
-4.0156 .}AH|L -0.2257
-4.0156 .}AY -0.2257
-4.0156 .}AY|V -0.2257
-3.7146 .}CH -0.2257
-3.7146 .}D|AA -0.5267
-4.0156 .}ER|EY -0.2257
-3.5385 .}EY -0.5937
-4.0156 .}IH -0.2257
-4.0156 .}IH|V -0.2257
-4.0156 .}IH|Z -0.2257
-3.0156 .}IY -0.8577
-4.0156 .}P -0.2257
-4.0156 .}P|AO -0.2257
-3.1125 .}S -0.4220
-3.7146 .}T|ER -0.2257
-4.0156 .}UW -0.2257
-4.0156 .}Y|AH -0.2257
-3.7146 .}Y|UW -0.5267
-4.0156 /|s}S -0.2257
-4.0156 0}Z|IH -0.2257
-4.0156 1}AH|N -0.2257
-4.0156 1}HH|W -0.2257
-4.0156 2|)}AY -0.2257
-4.0156 2|)}D -0.2257
-3.7146 2|)}ER -0.5267
-3.5385 2|)}Z -0.7028
-2.7852 2|)}_ -0.6594
-4.0156 2}AH|B -0.2257
-4.0156 2}AH|T -0.2257
-4.0156 2}IH|ZH -0.2257
-3.1705 2}T|UW -0.5937
-4.0156 2}UW|S -0.2257
-4.0156 3|)}M -0.2257
-3.3166 3|)}_ -0.6236
-3.7146 3}AH|B -0.5267
-3.4136 3}TH -0.8278
-3.7146 4|)}_ -0.5267
-3.7146 4}AO|R -0.4018
-4.0156 5|)}IY -0.2257
-4.0156 5|)}Z -0.2257
-4.0156 5}AY|V -0.2257
-3.7146 6}S|IH -0.5267
-3.7146 7}EH|V -0.5267
-4.0156 8|0}IY -0.2257
-3.5385 8}EY|T -0.7028
-3.7146 9}N|AY -0.2257
-4.0156 :|c}K -0.2257
-4.0156 ;|s}S -0.2257
-1.6445 </s> 0.0000
-99.0000 <s> -2.9744
-4.0156 ?|q}K -0.2257
-4.0156 _|d}D -0.2257
-4.0156 _|p}P -0.2257
-3.5385 _}AA|N -0.3226
-3.7146 _}AA|R -0.2257
-2.5685 _}AH -0.5071
-3.5385 _}AH|L -0.2257
-3.5385 _}AH|N -0.3506
-3.5385 _}AO|R -0.2257
-3.7146 _}B -0.2257
-3.5385 _}B|ER -0.7028
-2.5385 _}EH -0.7520
-4.0156 _}EH|M -0.2257
-2.9742 _}EY -0.4094
-3.7146 _}EY|N -0.2257
-3.1705 _}F -0.4687
-3.7146 _}HH -0.2257
-2.7146 _}IH -0.3560
-4.0156 _}IH|L -0.2257
-4.0156 _}IH|M -0.2257
-2.9742 _}IY -0.6843
-4.0156 _}JH|UW -0.2257
-4.0156 _}K -0.2257
-4.0156 _}K|S -0.2257
-4.0156 _}L -0.2257
-4.0156 _}L|Z -0.2257
-4.0156 _}M|ER -0.2257
-2.8695 _}N -0.3604
-3.7146 _}N|T -0.2257
-3.1125 _}R -0.2257
-3.4136 _}R|IY -0.3506
-4.0156 _}R|OW -0.2257
-4.0156 _}R|T -0.2257
-2.9364 _}S -0.3506
-3.5385 _}S|T -0.4018
-3.0614 _}T -0.2605
-4.0156 _}T|ER -0.2257
-2.5105 _}W -0.6855
-2.5532 _}Y -0.6743
-3.1125 _}Y|UW -0.4542
-3.7146 _}Z -0.2257
-4.0156 a|_}AE -0.2257
-3.4136 a|c}AE -0.5267
-3.7146 a|g}AE -0.2257
-2.5532 a|i}EH -0.7800
-2.3435 a|i}EY -0.9895
-4.0156 a|i}OY -0.2257
-2.9017 a|j}AY -0.5410
-4.0156 a|k}AE -0.2257
-2.9742 a|l}AA -0.8625
-3.4136 a|l}AE -0.5267
-2.9742 a|l}AO -0.8278
-3.4136 a|n}AA -0.8278
-3.2375 a|n}AE -0.7028
-3.7146 a|n}AH -0.2257
-2.5532 a|o}AW -0.6236
-2.1235 a|r}ER -1.0526
-2.4245 a|u}AO -0.9717
-2.4474 a|u}AW -0.8541
-2.5532 a|u}OW -0.7540
-2.6006 a|w}AO -0.8817
-3.3166 a|w}AW -0.2257
-3.5385 a|y}EH -0.5267
-2.4245 a|y}EY -1.0186
-3.5385 a|y}_ -0.4476
-1.9257 a}AA -1.2952
-2.0070 a}AE -1.3128
-1.8918 a}AH -1.4038
-2.2996 a}AO -0.7547
-3.7146 a}AW -0.2257
-2.7852 a}AY -0.6467
-2.2996 a}EH -0.9121
-2.9364 a}ER -0.7698
-2.1235 a}EY -1.1577
-4.0156 a}EY|M -0.2257
-2.3080 a}IH -0.9329
-4.0156 a}IH|P -0.2257
-3.0614 a}IY -0.2715
-4.0156 a}OW -0.2257
-4.0156 a}T|R -0.2257
-3.7146 a}Y -0.2257
-2.1831 a}_ -0.8768
-4.0156 b|a}_ -0.2257
-2.8695 b|b}B -0.7580
-3.7146 b|t}T -0.3226
-4.0156 b|v}B -0.2257
-3.7146 b|y}B -0.2257
-4.0156 b}AH -0.2257
-1.9587 b}B -1.3235
-3.5385 b}B|AH -0.2257
-4.0156 b}N|D -0.2257
-4.0156 b}P -0.2257
-4.0156 c|.}K -0.2257
-2.9364 c|c}CH -0.6864
-2.7603 c|c}K -0.7486
-4.0156 c|g}G -0.2257
-2.1464 c|h}CH -1.0463
-2.8115 c|h}HH -0.6080
-4.0156 c|h}L -0.2257
-2.5385 c|h}SH -0.7331
-3.1705 c|h}_ -0.2257
-2.8695 c|i}CH -0.7309
-2.8395 c|i}SH -0.7525
-2.3529 c|k}K -0.9233
-4.0156 c|k}_ -0.2257
-3.3166 c|q}K -0.5937
-4.0156 c|y}S -0.2257
-2.5532 c|z}CH -0.8278
-4.0156 c|z}Z -0.2257
-3.5385 c|z}_ -0.4298
-4.0156 c}AE|K -0.2257
-3.0156 c}AH -0.4018
-2.4971 c}CH -0.8471
-3.5385 c}G -0.3506
-3.7146 c}IY -0.2257
-1.9944 c}K -1.1636
-2.1235 c}S -1.1422
-2.9742 c}SH -0.5937
-3.5385 c}T -0.2257
-4.0156 c}TH -0.2257
-2.9364 c}T|S -0.7376
-3.7146 c}Y -0.2257
-3.0156 c}_ -0.4176
-2.9017 d|g}JH -0.7028
-2.9742 d|z}JH -0.5460
-4.0156 d}AH -0.2257
-4.0156 d}B -0.2257
-1.9118 d}D -1.3646
-2.9017 d}JH -0.5823
-3.0156 d}T -0.4476
-2.4715 d}_ -0.6703
-4.0156 e|(}AY -0.2257
-2.4474 e|a}IY -1.0694
-4.0156 e|b}_ -0.2257
-2.6539 e|d}T -1.4687
-2.6006 e|i}EY -0.7217
-2.9364 e|j}EY -0.3604
-4.0156 e|l}AH -0.2257
-4.0156 e|m}EH -0.2257
-4.0156 e|m}IH -0.2257
-3.4136 e|n}AH -0.2257
-4.0156 e|n}AO -0.2257
-3.1705 e|n}EH -0.3718
-4.0156 e|n}IH -0.2257
-4.0156 e|n}_ -0.2257
-1.9152 e|r}ER -1.2947
-4.0156 e|u}AY -0.2257
-2.8695 e|u}OY -0.5937
-4.0156 e|w}OW -0.2257
-2.5242 e|w}UW -0.7382
-3.2375 e|y}EH -0.5779
-2.5685 e|y}EY -0.8245
-4.0156 e|z}EY -0.2257
-2.9742 e}AA -0.7698
-3.4136 e}AE -0.2257
-1.9822 e}AH -1.3195
-3.0614 e}AO -0.6236
-1.8757 e}EH -1.3462
-3.4136 e}ER -0.6236
-2.2027 e}EY -1.0500
-2.0425 e}IH -1.2466
-2.0761 e}IY -1.1178
-4.0156 e}M -0.2257
-4.0156 e}N|UW -0.2257
-4.0156 e}S -0.2257
-3.7146 e}TH|IY -0.2257
-3.4136 e}W -0.3506
-3.1125 e}Y -0.5267
-3.7146 e}Y|UW -0.2257
-1.8088 e}_ -1.3164
-3.7146 f|.}F -0.5267
-4.0156 f|_}F -0.2257
-4.0156 f|e}AH -0.2257
-2.3924 f|f}F -0.9584
-4.0156 f|f}_ -0.2257
-2.0425 f}F -1.2063
-3.7146 f}V -0.2257
-4.0156 g|(}_ -0.2257
-2.8115 g|g}G -0.7827
-3.1125 g|g}JH -0.5681
-3.7146 g|g}Z -0.5267
-3.3166 g|h}F -0.5138
-4.0156 g|h}OW -0.2257
-4.0156 g|h}P -0.2257
-2.6354 g|h}_ -0.7593
-4.0156 g|i}IH -0.2257
-3.0156 g|i}JH -0.6895
-2.8395 g|n}N -0.4366
-3.2375 g|t}T -0.3718
-2.5532 g|u}G -0.8341
-3.5385 g|u}UW -0.4018
-1.9862 g}G -1.2423
-3.3166 g}HH -0.4018
-4.0156 g}IY|N -0.2257
-2.2375 g}JH -1.1744
-3.0614 g}K -0.3854
-2.6732 g}ZH -0.6831
-4.0156 g}Z|EY -0.2257
-3.1705 h}AH -0.5267
-3.7146 h}EY -0.2257
-3.2375 h}EY|CH -0.4298
-2.0425 h}HH -1.1588
-4.0156 h}TH -0.2257
-2.0288 h}_ -1.0303
-4.0156 i|.}AY -0.2257
-4.0156 i|c}AY -0.2257
-4.0156 i|c}_ -0.2257
-4.0156 i|e}UW -0.2257
-4.0156 i|f}IH -0.2257
-3.1705 i|g}AY -0.7698
-3.4136 i|g}_ -0.8278
-4.0156 i|l}EY -0.2257
-4.0156 i|l}IH -0.2257
-4.0156 i|l}IY -0.2257
-4.0156 i|m}IH -0.2257
-3.7146 i|n}IH -0.4018
-4.0156 i|n}W -0.2257
-4.0156 i|o}SH -0.2257
-3.2375 i|o}_ -0.5267
-2.4358 i|r}ER -0.8059
-3.3166 i|s}_ -0.4018
-4.0156 i|y}_ -0.2257
-3.4136 i}AA -0.2983
-2.9017 i}AE -1.3397
-2.0425 i}AH -1.2042
-2.9364 i}AO -0.8278
-2.1180 i}AY -1.1282
-3.0156 i}EH -0.4396
-3.5385 i}ER -0.7028
-3.3166 i}EY -0.4476
-1.8338 i}IH -1.4150
-1.9364 i}IY -1.2704
-4.0156 i}W -0.2257
-2.4028 i}Y -0.9581
-2.3924 i}_ -0.6182
-4.0156 j|o}W -0.2257
-3.3166 j|u}W -0.9247
-3.1125 j}HH -0.4542
-2.2448 j}JH -0.8625
-4.0156 j}L|IY -0.2257
-4.0156 j}OY|CH -0.2257
-2.5842 j}Y -0.6942
-2.8695 j}ZH -0.3841
-2.9017 j}_ -0.3003
-4.0156 k|j}JH -0.2257
-2.8695 k|k}K -0.5375
-2.8395 k|n}N -0.4253
-4.0156 k|o}AH -0.2257
-4.0156 k|p}P -0.2257
-3.7146 k}G -0.2257
-3.5385 k}HH -0.2257
-1.9474 k}K -1.2437
-4.0156 k}OW|K -0.2257
-3.7146 l|.}L -0.4018
-3.5385 l|d}D -0.2257
-4.0156 l|e}AH -0.2257
-4.0156 l|e}IY -0.2257
-4.0156 l|e}_ -0.2257
-4.0156 l|f}F -0.2257
-3.1125 l|k}K -0.4987
-2.2752 l|l}L -1.0600
-3.4136 l|l}Y -0.3506
-3.3166 l|l}_ -0.4298
-3.5385 l|m}M -0.2927
-4.0156 l|o}ER -0.2257
-4.0156 l|t}_ -0.2257
-2.4841 l}AH|L -0.8612
-1.8253 l}L -1.4160
-4.0156 l}P|AW -0.2257
-4.0156 l}T|S -0.2257
-3.7146 l}UH|L -0.2257
-3.7146 l}Y -0.3049
-4.0156 m|.}M -0.2257
-4.0156 m|a}EY -0.2257
-2.9364 m|b}M -0.7251
-4.0156 m|e}_ -0.2257
-4.0156 m|m}AH -0.2257
-2.6177 m|m}M -0.8527
-3.2375 m|n}M -0.6780
-4.0156 m|n}N -0.2257
-3.7146 m|p}N -0.5267
-4.0156 m|u}AH -0.2257
-4.0156 m}AE|D -0.2257
-4.0156 m}D|AE -0.2257
-1.8726 m}M -1.2810
-4.0156 m}M|AE -0.2257
-4.0156 m}M|AH -0.2257
-4.0156 m}M|AW -0.2257
-4.0156 m}M|AY -0.2257
-4.0156 m}N -0.2257
-3.4136 n|.}N -0.4476
-4.0156 n|.}_ -0.2257
-3.5385 n|c}NG -0.5267
-4.0156 n|d}M -0.2257
-4.0156 n|d}_ -0.2257
-4.0156 n|e}_ -0.2257
-3.7146 n|g}G -0.2257
-2.4593 n|g}NG -0.8007
-4.0156 n|k}NG -0.2257
-4.0156 n|m}M -0.2257
-2.4971 n|n}N -0.8747
-4.0156 n}EH|T -0.2257
-4.0156 n}L|V -0.2257
-3.5385 n}M -0.2257
-1.8008 n}N -1.3473
-2.5385 n}NG -0.9637
-4.0156 n}N|ER -0.2257
-4.0156 n}S|IY -0.2257
-4.0156 n}Y -0.2257
-3.5385 o|.}OW -0.3506
-4.0156 o|_}ER -0.2257
-4.0156 o|_}OW -0.2257
-4.0156 o|b}AH -0.2257
-4.0156 o|g}OW -0.2257
-4.0156 o|h}F -0.2257
-2.4971 o|i}OY -0.8336
-3.2375 o|j}OY -0.3226
-4.0156 o|k}OW -0.2257
-4.0156 o|l}AH -0.2257
-4.0156 o|l}AO -0.2257
-3.3166 o|n}AH -0.2927
-4.0156 o|n}W -0.2257
-2.6732 o|o}UH -0.7956
-2.4245 o|o}UW -1.0496
-2.2303 o|r}ER -1.0493
-4.0156 o|r}EY -0.2257
-2.4245 o|u}AH -0.7028
-2.6934 o|u}AO -0.8512
-2.3624 o|u}AW -0.9103
-2.8115 o|u}UH -0.7230
-2.3624 o|u}UW -0.8438
-2.4841 o|w}AW -0.9641
-2.4358 o|w}OW -0.9377
-2.5242 o|y}OY -0.9057
-2.0761 o}AA -1.2099
-3.5385 o}AE -0.4018
-2.0244 o}AH -1.1994
-2.0471 o}AO -1.2058
-2.9017 o}AW -0.6111
-4.0156 o}D|OW -0.2257
-3.5385 o}EH -0.2257
-3.3166 o}ER -0.4687
-2.8395 o}IH -0.5267
-1.9474 o}OW -1.2665
-3.5385 o}OY -0.2257
-3.1705 o}UH -0.3226
-2.7603 o}UW -0.4889
-2.7146 o}W -0.6157
-2.2996 o}_ -0.7091
-4.0156 p|.}P -0.2257
-3.3166 p|f}F -0.2740
-4.0156 p|f}P -0.2257
-2.3722 p|h}F -0.9602
-4.0156 p|h}V -0.2257
-3.7146 p|l}P -0.2257
-2.6732 p|p}P -0.8397
-3.7146 p|s}S -0.2257
-3.7146 p|s}_ -0.2257
-4.0156 p}F -0.2257
-4.0156 p}IH -0.2257
-1.9862 p}P -1.2197
-3.7146 p}P|ER -0.2257
-3.0614 p}_ -0.3806
-4.0156 q|i}JH -0.2257
-3.7146 q|u}G -0.2257
-2.4971 q|u}K -0.7985
-4.0156 q|u}W -0.2257
-4.0156 q|v}K -0.2257
-4.0156 q}CH -0.2257
-2.3435 q}K -0.8178
-4.0156 r|z}JH -0.2257
-4.0156 r}AA -0.2257
-4.0156 r}AA|K -0.2257
-3.1125 r}AA|R -0.4128
-4.0156 r}AY|V -0.2257
-2.3924 r}ER -0.7089
-4.0156 r}IH -0.2257
-3.7146 r}IH|S -0.2257
-1.8338 r}R -1.2881
-2.2752 r}_ -0.7028
-3.5385 s|.}Z -0.4018
-2.4358 s|c}SH -1.1288
-2.1291 s|h}SH -1.0730
-4.0156 s|i}CH -0.2257
-3.0614 s|i}SH -0.4889
-2.8695 s|i}ZH -0.9069
-4.0156 s|j}SH -0.2257
-3.7146 s|k}S -0.2257
-2.3080 s|s}S -1.0546
-3.1705 s|s}SH -0.4562
-3.3166 s|t}_ -0.6236
-3.7146 s|u}ZH -0.5267
-2.6934 s|z}SH -0.6379
-3.5385 s}AH -0.4018
-3.5385 s}CH -0.2257
-4.0156 s}CH|UW -0.2257
-4.0156 s}ER|N -0.2257
-4.0156 s}L|Z -0.2257
-1.8603 s}S -1.3088
-2.7603 s}SH -0.5033
-4.0156 s}S|AW -0.2257
-4.0156 s}S|UW -0.2257
-4.0156 s}UW -0.2257
-1.9328 s}Z -1.2622
-2.8115 s}ZH -0.6432
-2.3624 s}_ -0.7390
-4.0156 t|.}T -0.2257
-4.0156 t|e}ER -0.2257
-2.4136 t|h}DH -0.8022
-2.1291 t|h}TH -1.1229
-3.5385 t|i}CH -0.4298
-2.6354 t|i}SH -0.9319
-4.0156 t|i}ZH -0.2257
-2.6934 t|s}_ -0.7376
-2.4245 t|t}T -1.0143
-3.5385 t|u}CH -0.5267
-4.0156 t|u}SH -0.2257
-3.5385 t}AH -0.5267
-2.4715 t}CH -0.8608
-2.9017 t}D -0.3718
-3.4136 t}EY -0.2983
-4.0156 t}IH -0.2257
-3.7146 t}S -0.2257
-2.9017 t}SH -0.7028
-1.8757 t}T -1.3822
-3.7146 t}TH -0.2257
-4.0156 t}T|OW -0.2257
-2.3722 t}_ -0.6833
-4.0156 u|b}AH -0.2257
-2.7852 u|i}UW -0.6178
-4.0156 u|j}AY -0.2257
-4.0156 u|l}AH -0.2257
-3.7146 u|l}UH -0.5267
-3.7146 u|n}AH -0.2257
-2.2996 u|r}ER -0.9605
-4.0156 u|x}OW -0.2257
-3.7146 u|y}OY -0.2257
-3.5385 u|y}UW -0.3506
-3.5385 u}AA -0.2257
-2.0244 u}AH -1.2335
-2.8115 u}AO -0.7263
-3.7146 u}AW -0.3506
-3.4136 u}EH -0.4476
-3.4136 u}ER -0.4476
-2.6732 u}IH -0.7540
-4.0156 u}L -0.2257
-2.3344 u}UH -0.8901
-2.0913 u}UW -1.1674
-2.4474 u}W -0.7782
-2.9742 u}Y -0.6650
-2.3344 u}Y|UW -0.8887
-2.4971 u}_ -0.5595
-3.4136 v|v}V -0.3718
-4.0156 v}EH|L -0.2257
-3.3166 v}F -0.8278
-2.0156 v}V -1.1244
-4.0156 v}V|ER -0.2257
-3.7146 w|h}HH -0.2837
-4.0156 w|y}OY -0.2257
-3.3166 w}D|AH -0.5937
-3.3166 w}F -0.9247
-3.1705 w}HH|W -0.4366
-4.0156 w}IY|D -0.2257
-3.5385 w}UW -0.2257
-2.6354 w}V -0.5867
-2.1125 w}W -1.2313
-4.0156 w}Y|UW -0.2257
-2.5242 w}_ -0.5867
-3.5385 x|i}SH -0.4018
-4.0156 x|i}ZH -0.2257
-4.0156 x}AE|K -0.2257
-4.0156 x}CH -0.2257
-3.1705 x}G|Z -0.4298
-4.0156 x}G|ZH -0.2257
-4.0156 x}HH -0.2257
-3.0156 x}K -0.5779
-2.5385 x}K|S -0.8093
-3.5385 x}K|SH -0.4018
-3.7146 x}SH -0.2257
-3.4136 x}Z -0.2480
-4.0156 x}ZH -0.2257
-3.0156 x}_ -0.7997
-4.0156 y|'}_ -0.2257
-4.0156 y|(}_ -0.2257
-4.0156 y|l}L -0.2257
-4.0156 y|n}IH -0.2257
-3.0614 y|r}ER -0.4598
-2.6934 y}AH -0.5554
-2.4245 y}AY -0.9808
-3.7146 y}EY -0.2257
-2.3080 y}IH -0.9517
-2.1071 y}IY -1.0623
-4.0156 y}W -0.2257
-2.2832 y}Y -0.8236
-4.0156 z|a}AA -0.2257
-4.0156 z|c}ZH -0.2257
-4.0156 z|h}JH -0.2257
-3.5385 z|i}ZH -0.4018
-4.0156 z|s}SH -0.2257
-3.5385 z|s}_ -0.3506
-3.7146 z|y}IH -0.3506
-3.7146 z|y}Z -0.2257
-2.8695 z|z}Z -0.7206
-2.7603 z}S -0.4642
-3.1705 z}T -0.8278
-3.0614 z}T|S -0.3806
-2.1464 z}Z -1.0906
-3.0156 z}ZH -0.5267
-3.4136 z}_ -0.2257
-4.0156 {|b}B -0.2257
-4.0156 {|l}L -0.2257
-4.0156 }|c}K -0.2257
-4.0156 }|r}R -0.2257

\2-grams:
-0.3904 !|e}EH x}K|S -0.2701
-0.3828 "|c}K l}L -0.2701
-0.3898 "|d}D o|u}AH -0.2701
-0.3823 "|e}EH n}N -0.5711
-0.3823 "|i}IH n}N -0.2701
-0.3899 "|q}K u}W -0.2701
-0.3823 "|u}AH n}N -0.2701
-0.3863 #|s}SH h}_ -0.2701
-0.3845 %|p}P e|r}ER -0.2701
-0.3838 &|a}AE m}M -0.2701
-0.5149 '|s}Z (}_ -2.4538
-0.1640 '|s}Z </s> 0.0000
-1.1956 '}AH (}_ -0.5711
-1.6956 '}AH d}D -0.2701
-1.7043 '}AH g}G -0.2701
-0.8264 '}AH l|l}L -0.9691
-1.1947 '}AH m}M -0.2701
-0.8201 '}AH n}N -0.3950
-0.5514 '}AH s}Z -1.3115
-1.2000 '}AH v}V -0.9691
-0.3835 '}EH s}S -0.2701
-0.3911 '}ER|EY s}SH -0.2701
-1.2833 '}IH (}_ -0.8721
-1.7879 '}IH d}D -0.4462
-1.8163 '}IH l|l}L -0.2701
-1.7784 '}IH r}R -0.2701
-0.7097 '}IH s}S -1.0234
-0.2581 '}IH s}Z -2.4928
-1.7983 '}IH v}V -0.2701
-0.6773 '}IH|Z (}_ -0.2701
-0.6653 '}IH|Z </s> 0.0000
-1.4759 '}IY a}AE -0.5711
-1.4671 '}IY a}AH -0.5711
-1.4881 '}IY g}JH -0.2701
-0.9537 '}IY s}S -0.2701
-0.2424 '}IY s}Z -1.3493
-0.3861 '}IY|OW v}V -0.2701
-0.3914 '}SH|AH _}N -0.2701
-1.6518 '}_ (}_ -1.7374
-1.1446 '}_ </s> 0.0000
-2.5244 '}_ a|u}AO -0.2701
-1.6543 '}_ a}AA -0.7472
-1.6603 '}_ a}AE -0.4162
-1.9857 '}_ a}AH -0.6223
-2.4979 '}_ a}AO -0.2701
-2.4495 '}_ a}EY -0.2701
-2.4675 '}_ a}_ -0.2701
-1.7946 '}_ b}B -0.6851
-1.6594 '}_ c}K -0.6223
-2.4495 '}_ c}S -0.2701
-1.1185 '}_ d}D -0.7794
-2.3721 '}_ e|r}ER -0.2701
-2.5874 '}_ e}AA -0.2701
-2.0012 '}_ e}AH -0.3950
-1.5471 '}_ e}EH -0.6851
-2.4730 '}_ e}EY -0.5711
-2.4339 '}_ e}IY -0.2701
-1.9691 '}_ e}_ -0.2701
-2.0100 '}_ f}F -0.5131
-2.0018 '}_ g}G -0.3370
-2.0100 '}_ h}HH -0.5488
-2.4172 '}_ h}_ -0.5711
-1.9744 '}_ i}IH -0.2701
-2.3811 '}_ i}IY -0.2701
-1.9955 '}_ k}K -0.5254
-1.2914 '}_ l|l}L -1.1152
-2.3313 '}_ l}L -0.4462
-1.7849 '}_ m}M -0.3572
-1.9673 '}_ n}N -0.5711
-2.0107 '}_ o}AO -0.7472
-2.4979 '}_ o}_ -0.5711
-2.0413 '}_ q}K -0.5711
-1.5689 '}_ r}ER -1.1732
-1.3920 '}_ r}R -0.4664
-2.4512 '}_ s|h}SH -0.2701
-0.6694 '}_ s}S -2.5110
-1.2010 '}_ s}_ -1.2701
-1.7853 '}_ t}T -0.9691
-2.5140 '}_ t}_ -0.8721
-1.4001 '}_ v}V -0.8142
-0.3912 (}AE|L 2|)}_ -0.2701
-0.3912 (}AE|M 2|)}_ -0.2701
-0.6929 (}AH|N 2|)}Z -0.2701
-0.6912 (}AH|N 2|)}_ -0.2701
-0.1530 (}AH|T 2|)}_ -0.2701
-0.3922 (}AH|V 2}IH|ZH -0.2701
-0.3922 (}AO|S 2}AH|B -0.2701
-0.3917 (}B|AH _}Y|UW -0.2701
-0.3919 (}CH|IY 3|)}_ -0.2701
-0.3922 (}EH|T 2}AH|T -0.2701
-1.0903 (}ER 2|)}Z -0.2701
-1.0860 (}ER 2|)}_ -0.2701
-1.0897 (}ER 3|)}_ -0.2701
-1.0906 (}ER 3}AH|B -0.2701
-1.0869 (}ER _}N -0.2701
-0.3921 (}ER|AW 2|)}ER -0.2701
-0.3912 (}EY|SH 2|)}_ -0.2701
-0.2026 (}IY 2|)}_ -1.7614
-0.7948 (}IY 3|)}_ -0.7472
-1.0282 (}IY 4|)}_ -0.5711
-0.3917 (}R|EY _}T -0.2701
-0.3919 (}R|JH 3|)}_ -0.2701
-0.3912 (}SH|AH 2|)}_ -0.2701
-0.3912 (}S|T 2|)}_ -0.2701
-0.0958 (}T|ER 2|)}_ -0.7472
-0.3912 (}W|AY 2|)}_ -0.2701
-0.1530 (}Y|UW 2|)}_ -0.5711
-2.7358 (}_ 2|)}AY -0.2701
-1.7002 (}_ 2|)}Z -1.2243
-0.2495 (}_ 2|)}_ -3.9190
-2.7358 (}_ 3|)}M -0.2701
-0.6087 (}_ 3|)}_ -3.1661
-2.7350 (}_ 3}AH|B -0.2701
-0.9227 (}_ 4|)}_ -2.5754
-2.7358 (}_ 5|)}Z -0.2701
-2.6539 (}_ b}B -0.2701
-2.6295 (}_ i}IH -0.2701
-2.6276 (}_ l}L -0.2701
-2.6519 (}_ o}OW -0.2701
-2.6586 (}_ p}P -0.7472
-0.3828 )|c}K l}L -0.5711
-0.3823 )|e}EH n}N -0.8721
-0.3874 )|p}P a|r}ER -0.5711
-0.3874 )|r}R i}AY -0.5711
-0.3823 )|u}AH n}N -0.2701
-0.3211 )}AH|L </s> 0.0000
-0.8684 )}AH|L _}Y|UW -0.2701
-0.3780 )}AH|N </s> 0.0000
-0.3780 )}IH|V </s> 0.0000
-0.3869 ,|c}K o}AA -0.2701
-0.3838 -}EY m}M -0.5711
-0.3922 -}EY|T 8|0}IY -0.2701
-0.3921 -}F 4}AO|R -0.2701
-1.0575 -}IY b}B -0.2701
-1.0601 -}IY c}K -0.5711
-1.0734 -}IY j}JH -0.5711
-1.0460 -}IY l}L -0.2701
-1.0493 -}IY s}S -0.5711
-2.8858 -}_ 2}T|UW -0.2701
-2.8974 -}_ 3}TH -0.2701
-2.9014 -}_ 8}EY|T -0.2701
-2.7998 -}_ _}W -0.2701
-2.8092 -}_ a|i}EH -0.2701
-2.7553 -}_ a|i}EY -0.7472
-2.6756 -}_ a|r}ER -0.2701
-2.8092 -}_ a|u}OW -0.2701
-1.8335 -}_ a}AA -0.4919
-1.6892 -}_ a}AE -0.5131
-1.5713 -}_ a}AH -0.7094
-2.7414 -}_ a}EH -0.2701
-2.6756 -}_ a}EY -0.2701
-1.4127 -}_ b}B -0.5959
-1.9546 -}_ c|h}CH -0.4919
-2.8061 -}_ c|h}SH -0.5711
-1.2244 -}_ c}K -0.7896
-1.8490 -}_ c}S -0.6680
-1.3786 -}_ d}D -0.5254
-2.7844 -}_ e|a}IY -0.2701
-2.3607 -}_ e}AA -0.7472
-2.6104 -}_ e}AH -0.2701
-2.0546 -}_ e}EH -0.3950
-2.7073 -}_ e}EY -0.2701
-2.2753 -}_ e}IH -0.4462
-2.8821 -}_ e}Y -0.2701
-2.2169 -}_ e}_ -0.5711
-1.4507 -}_ f}F -0.6318
-1.5294 -}_ g}G -0.5711
-1.3235 -}_ h}HH -0.5854
-2.2725 -}_ h}_ -0.4462
-2.2896 -}_ i}AY -1.0482
-1.6772 -}_ i}IH -0.4742
-2.8935 -}_ j|u}W -0.2701
-2.8821 -}_ j}HH -0.2701
-1.6387 -}_ j}JH -0.3670
-2.8564 -}_ k|n}N -0.5711
-1.6856 -}_ k}K -0.2701
-1.4422 -}_ l}L -0.5333
-1.4444 -}_ m}M -0.6089
-1.5656 -}_ n}N -0.4250
-2.3237 -}_ o|u}AW -0.5711
-1.6327 -}_ o}AA -1.2701
-2.6311 -}_ o}AH -0.2701
-1.7609 -}_ o}AO -0.6961
-1.9359 -}_ o}OW -0.2701
-2.7414 -}_ o}_ -0.2701
-1.2242 -}_ p}P -0.7996
-1.7027 -}_ q}K -1.3115
-2.7696 -}_ r}ER -0.2701
-1.4078 -}_ r}R -0.5074
-2.7333 -}_ r}_ -0.2701
-2.0903 -}_ s|h}SH -0.3950
-1.2436 -}_ s}S -0.6928
-2.3289 -}_ t|h}DH -0.2701
-2.6780 -}_ t|h}TH -0.5711
-1.4446 -}_ t}T -0.5297
-2.7414 -}_ u|r}ER -0.2701
-1.9441 -}_ u}AH -1.1732
-2.7525 -}_ u}Y|UW -0.2701
-1.7589 -}_ v}V -0.2701
-2.8858 -}_ w}HH|W -0.2701
-1.6342 -}_ w}W -0.7930
-1.7722 -}_ y}Y -0.5389
-2.2944 -}_ z}Z -0.4462
-2.8746 -}_ z}ZH -0.2701
-0.3848 .|'}IH s}Z -0.2701
-0.3912 .|(}OW 2|)}_ -0.2701
-0.3922 .|.}IH .|e}L -0.2701
-0.6766 .|d}D e}EH -0.2701
-0.6827 .|d}D o}AA -0.2701
-0.3919 .|e}L l|l}_ -0.2701
-0.3893 .|f}F u}UH -0.2701
-0.6818 .|p}P e}IH -0.2701
-0.6892 .|p}P o|i}OY -0.2701
-1.1617 .|s}Z '}_ -0.2701
-0.1315 .|s}Z </s> 0.0000
-0.8529 .}AA|R '|s}Z -0.2701
-0.8280 .}AA|R </s> 0.0000
-0.8476 .}AA|R s}Z -0.2701
-0.3922 .}AH|B (}AE|M -0.2701
-0.3921 .}AH|K (}AH|T -0.2701
-0.3780 .}AH|L </s> 0.0000
-0.6822 .}AY '|s}Z -0.2701
-0.6653 .}AY </s> 0.0000
-0.3780 .}AY|V </s> 0.0000
-0.8658 .}CH '}IH -0.2701
-0.8457 .}CH (}_ -0.2701
-0.8280 .}CH </s> 0.0000
-0.1531 .}D|AA _}T -0.2701
-0.6931 .}ER|EY '}SH|AH -0.2701
-0.6931 .}ER|EY (}SH|AH -0.2701
-0.4611 .}EY '|s}Z -0.7472
-0.4567 .}EY </s> 0.0000
-1.2156 .}EY s}Z -0.2701
-0.3848 .}IH s}Z -0.2701
-0.3780 .}IH|V </s> 0.0000
-0.3780 .}IH|Z </s> 0.0000
-0.5507 .}IY '|s}Z -1.2243
-1.8160 .}IY (}_ -0.2701
-0.5477 .}IY </s> 0.0000
-1.8566 .}IY _}EH -0.2701
-1.8179 .}IY d}D -0.2701
-1.8680 .}IY o|.}OW -0.2701
-0.6047 .}IY s}Z -1.2243
-0.3920 .}P _}AH|N -0.2701
-0.3922 .}P|AO (}R|EY -0.2701
-1.4255 .}S '}IH -0.2701
-0.6551 .}S '}_ -0.7472
-1.4327 .}S (}AH|T -0.2701
-1.4315 .}S (}ER -0.2701
-1.3802 .}S (}_ -0.2701
-0.6435 .}S </s> 0.0000
-1.3825 .}S e|r}ER -0.2701
-0.6773 .}T|ER (}_ -0.2701
-0.6653 .}T|ER </s> 0.0000
-0.8529 .}UW '|s}Z -0.2701
-0.8280 .}UW </s> 0.0000
-0.8476 .}UW s}Z -0.2701
-0.3780 .}Y|AH </s> 0.0000
-0.6256 .}Y|UW '|s}Z -0.5711
-0.6181 .}Y|UW </s> 0.0000
-0.6240 .}Y|UW s}Z -0.5711
-0.3828 /|s}S l}L -0.2701
-0.3922 0}Z|IH _}R|OW -0.2701
-0.6924 1}AH|N 2}T|UW -0.2701
-0.6653 1}AH|N </s> 0.0000
-0.3921 1}HH|W (}AH|N -0.2701
-0.3914 2|)}AY _}N -0.2701
-0.3780 2|)}D </s> 0.0000
-0.1491 2|)}ER </s> 0.0000
-0.0935 2|)}Z </s> 0.0000
-0.2181 2|)}_ </s> 0.0000
-1.6591 2|)}_ _}AH -0.2701
-1.1306 2|)}_ _}AH|N -0.5711
-1.6697 2|)}_ _}B|ER -0.2701
-1.6663 2|)}_ _}EY -0.8721
-1.6650 2|)}_ _}N -0.2701
-1.6658 2|)}_ _}S -0.2701
-0.3921 2}AH|B )}AH|L -0.2701
-0.3922 2}AH|T )}IH|V -0.2701
-0.3922 2}IH|ZH )}AH|N -0.2701
-1.2368 2}T|UW 8}EY|T -0.2701
-0.1972 2}T|UW </s> 0.0000
-1.2315 2}T|UW _}W -0.2701
-0.3921 2}UW|S 7}EH|V -0.2701
-0.3780 3|)}M </s> 0.0000
-0.1634 3|)}_ </s> 0.0000
-1.0878 3|)}_ _}AH -0.2701
-0.1532 3}AH|B )}AH|L -0.2701
-0.0699 3}TH _}R|IY -0.8721
-0.1491 4|)}_ </s> 0.0000
-0.8685 4}AO|R 2}T|UW -0.2701
-0.3211 4}AO|R </s> 0.0000
-0.3780 5|)}IY </s> 0.0000
-0.3780 5|)}Z </s> 0.0000
-0.3780 5}AY|V </s> 0.0000
-0.1532 6}S|IH _}K|S -0.2701
-0.1532 7}EH|V _}AH|N -0.2701
-0.3780 8|0}IY </s> 0.0000
-0.0935 8}EY|T </s> 0.0000
-0.6915 9}N|AY _}N -0.2701
-0.6930 9}N|AY _}N|T -0.2701
-0.3851 :|c}K o}OW -0.2701
-0.3838 ;|s}S e}EH -0.5711
-5.5031 <s> !|e}EH -0.2701
-5.5031 <s> "|c}K -0.2701
-5.5031 <s> "|d}D -0.2701
-4.9733 <s> "|e}EH -0.5711
-5.5031 <s> "|i}IH -0.2701
-5.5031 <s> "|q}K -0.2701
-5.5031 <s> "|u}AH -0.2701
-5.5031 <s> #|s}SH -0.2701
-5.5031 <s> %|p}P -0.2701
-5.5031 <s> &|a}AE -0.2701
-4.9148 <s> '}AH -0.2701
-5.5031 <s> '}EH -0.2701
-3.8854 <s> '}_ -0.4214
-4.2111 <s> (}_ -0.4162
-4.9733 <s> )|c}K -0.5711
-4.5914 <s> )|e}EH -0.8721
-4.9733 <s> )|p}P -0.5711
-4.9733 <s> )|r}R -0.5711
-5.5031 <s> )|u}AH -0.2701
-5.5031 <s> ,|c}K -0.2701
-4.7675 <s> -}_ -0.2701
-5.5031 <s> .|.}IH -0.2701
-4.9733 <s> .|d}D -0.2701
-5.5031 <s> .|f}F -0.2701
-4.9733 <s> .|p}P -0.2701
-5.5031 <s> /|s}S -0.2701
-5.5031 <s> 0}Z|IH -0.2701
-5.5031 <s> 1}HH|W -0.2701
-5.4256 <s> 2}T|UW -0.2701
-5.4626 <s> 3}TH -0.2701
-5.4892 <s> 6}S|IH -0.2701
-5.4757 <s> 8}EY|T -0.2701
-5.4892 <s> 9}N|AY -0.2701
-5.5031 <s> :|c}K -0.2701
-4.9733 <s> ;|s}S -0.5711
-5.5031 <s> ?|q}K -0.2701
-4.8730 <s> _}AH -0.5711
-3.0361 <s> _}EH -1.2460
-4.9490 <s> _}F -0.2701
-5.4892 <s> _}HH -0.2701
-4.5597 <s> _}IH -0.5711
-5.5031 <s> _}JH|UW -0.2701
-5.3701 <s> _}S -0.2701
-3.8739 <s> _}W -1.0482
-4.1808 <s> _}Y -0.7472
-5.4626 <s> a|c}AE -0.2701
-3.0397 <s> a|i}EH -1.8793
-3.3396 <s> a|i}EY -0.9762
-5.3598 <s> a|j}AY -0.2701
-4.5744 <s> a|l}AA -0.5711
-4.9334 <s> a|l}AO -0.2701
-4.9529 <s> a|n}AE -0.5711
-4.2331 <s> a|o}AW -0.3950
-3.1640 <s> a|r}ER -1.0250
-2.7599 <s> a|u}AO -1.2931
-3.4540 <s> a|u}AW -0.6200
-3.9266 <s> a|u}OW -0.4328
-4.0195 <s> a|w}AO -0.6059
-4.9651 <s> a|y}EH -0.5711
-3.5820 <s> a|y}EY -0.5354
-4.3892 <s> a|y}_ -0.7472
-2.0340 <s> a}AA -1.7176
-1.6644 <s> a}AE -1.9750
-1.8579 <s> a}AH -1.8297
-3.0350 <s> a}AO -2.0590
-4.5645 <s> a}AY -0.5711
-2.9518 <s> a}EH -1.5402
-2.6347 <s> a}EY -1.1580
-4.1662 <s> a}IH -0.9233
-5.5031 <s> a}T|R -0.2701
-3.2204 <s> a}_ -1.1732
-5.4892 <s> b|y}B -0.2701
-1.1428 <s> b}B -2.2935
-2.0925 <s> c|h}CH -1.5318
-4.7064 <s> c|h}HH -0.2701
-2.9585 <s> c|h}SH -1.0757
-3.6690 <s> c|i}CH -0.8874
-3.7137 <s> c|z}CH -0.7820
-4.5914 <s> c|z}Z -0.8721
-3.0845 <s> c}CH -1.3572
-1.1917 <s> c}K -2.3907
-2.2425 <s> c}S -1.7212
-5.3806 <s> c}SH -0.2701
-4.9373 <s> c}_ -0.2701
-4.1018 <s> d|z}JH -0.6125
-1.2398 <s> d}D -2.2470
-4.9259 <s> d}JH -0.2701
-4.2875 <s> d}_ -0.8142
-2.9612 <s> e|a}IY -1.1792
-3.8081 <s> e|i}EY -0.8142
-5.4256 <s> e|n}EH -0.2701
-3.1036 <s> e|r}ER -0.8247
-4.9222 <s> e|u}OY -0.2701
-4.7296 <s> e|y}EH -0.7472
-4.2339 <s> e|y}EY -0.3281
-3.7532 <s> e}AA -1.6503
-3.5138 <s> e}AH -0.8721
-5.4025 <s> e}AO -0.2701
-1.7322 <s> e}EH -1.9554
-3.5422 <s> e}EY -0.7359
-2.0543 <s> e}IH -1.8357
-2.6221 <s> e}IY -1.2674
-3.7926 <s> e}Y -1.6125
-2.5358 <s> e}_ -1.6025
-1.4096 <s> f}F -2.1407
-3.3433 <s> g|i}JH -1.2103
-3.6842 <s> g|n}N -0.7630
-2.8828 <s> g|u}G -1.5589
-1.4449 <s> g}G -2.0931
-4.9569 <s> g}HH -0.2701
-2.3197 <s> g}JH -1.7139
-5.4025 <s> g}K -0.2701
-3.6381 <s> g}ZH -0.7201
-4.9692 <s> h}EY -0.5711
-4.1482 <s> h}EY|CH -0.3158
-1.3283 <s> h}HH -2.1694
-2.9678 <s> h}_ -1.1244
-4.9733 <s> i|.}AY -0.2701
-4.4787 <s> i|n}IH -0.6680
-3.8259 <s> i|r}ER -0.7930
-5.4626 <s> i}AA -0.2701
-4.8977 <s> i}AH -0.2701
-2.5068 <s> i}AY -1.3083
-1.6612 <s> i}IH -2.0438
-3.1661 <s> i}IY -0.7192
-4.5271 <s> i}Y -0.3950
-4.8289 <s> i}_ -0.2701
-4.3914 <s> j|o}W -1.0482
-4.4747 <s> j|u}W -0.9691
-3.8350 <s> j}HH -0.5711
-1.9675 <s> j}JH -1.6797
-2.9441 <s> j}Y -1.0902
-3.6396 <s> j}ZH -0.6475
-5.5031 <s> k|j}JH -0.2701
-2.7937 <s> k|n}N -1.2223
-4.7392 <s> k}G -0.4462
-4.4773 <s> k}HH -0.9691
-1.5311 <s> k}K -1.9665
-5.5031 <s> k}OW|K -0.2701
-3.8430 <s> l|l}L -0.6457
-1.3891 <s> l}L -2.1428
-4.9733 <s> l}P|AW -0.5711
-4.8831 <s> m|m}M -0.2701
-4.5914 <s> m|n}N -0.5711
-1.1703 <s> m}M -2.2338
-4.4800 <s> m}M|AE -0.6680
-2.5016 <s> m}M|AH -2.1162
-5.5031 <s> m}M|AW -0.2701
-4.9733 <s> m}M|AY -0.5711
-4.3903 <s> n|g}G -0.4462
-1.6497 <s> n}N -1.9259
-4.9651 <s> o|.}OW -0.2701
-3.8735 <s> o|i}OY -0.9233
-5.5031 <s> o|n}W -0.2701
-3.9229 <s> o|o}UW -0.5200
-3.8411 <s> o|r}ER -0.7707
-4.6952 <s> o|u}AO -0.7472
-2.6875 <s> o|u}AW -1.6664
-4.4246 <s> o|u}UW -0.2701
-4.0891 <s> o|w}AW -0.5333
-3.7465 <s> o|w}OW -0.7472
-4.2316 <s> o|y}OY -0.3281
-2.3446 <s> o}AA -1.4376
-2.8248 <s> o}AH -1.2467
-2.4249 <s> o}AO -1.6477
-2.0319 <s> o}OW -1.6730
-5.3117 <s> o}UW -0.2701
-3.9756 <s> o}_ -0.5711
-3.5075 <s> p|f}F -0.8142
-2.5977 <s> p|h}F -1.3206
-3.3230 <s> p|s}S -1.0349
-1.2313 <s> p}P -2.2832
-3.9631 <s> p}_ -1.1451
-5.5031 <s> q|i}JH -0.2701
-3.7477 <s> q|u}K -0.7472
-4.9733 <s> q}CH -0.2701
-2.4759 <s> q}K -1.7733
-4.3114 <s> r}AA|R -0.3370
-4.6513 <s> r}ER -0.4462
-1.2614 <s> r}R -2.3345
-4.4130 <s> r}_ -0.4919
-2.2042 <s> s|c}SH -3.1913
-1.9881 <s> s|h}SH -1.6747
-4.9411 <s> s|i}SH -0.2701
-5.3497 <s> s|i}ZH -0.2701
-4.3178 <s> s|j}SH -1.1152
-5.0833 <s> s|s}S -0.2701
-3.5377 <s> s|z}SH -0.6851
-1.0655 <s> s}S -2.2730
-3.5271 <s> s}SH -1.0270
-5.5031 <s> s}S|AW -0.2701
-3.2387 <s> s}_ -1.4576
-3.3263 <s> t|h}DH -0.8653
-2.3175 <s> t|h}TH -1.5094
-4.2998 <s> t|s}_ -1.1152
-4.4366 <s> t}CH -0.4919
-4.3785 <s> t}D -1.0482
-1.4395 <s> t}T -2.0212
-3.6067 <s> t}_ -0.9435
-4.7392 <s> u|n}AH -0.4462
-3.2554 <s> u|r}ER -0.8383
-2.0165 <s> u}AH -1.9473
-4.2431 <s> u}AO -1.1732
-3.9773 <s> u}UH -0.8142
-3.3653 <s> u}UW -0.7037
-4.6613 <s> u}W -0.7472
-3.5506 <s> u}Y -1.3727
-2.6922 <s> u}Y|UW -1.2881
-4.8568 <s> u}_ -0.5711
-1.7556 <s> v}V -1.8403
-5.5031 <s> v}V|ER -0.2701
-3.2594 <s> w|h}HH -1.2942
-3.9647 <s> w}D|AH -1.4462
-2.6389 <s> w}HH|W -1.9121
-3.2183 <s> w}V -0.9233
-1.5540 <s> w}W -2.0705
-3.0053 <s> w}_ -2.3907
-5.4757 <s> x|i}SH -0.2701
-4.3914 <s> x|i}ZH -0.7472
-5.5031 <s> x}AE|K -0.2701
-5.2142 <s> x}K|S -0.2701
-4.5897 <s> x}SH -0.3950
-3.4582 <s> x}Z -0.7381
-4.9733 <s> x}ZH -0.5711
-4.2740 <s> y}IH -0.5131
-4.1471 <s> y}IY -0.3792
-4.9733 <s> y}W -0.5711
-2.2820 <s> y}Y -1.4506
-5.5031 <s> z|h}JH -0.2701
-4.9651 <s> z|i}ZH -0.5711
-4.9692 <s> z|y}Z -0.5711
-5.4025 <s> z}T|S -0.2701
-2.1747 <s> z}Z -1.4801
-3.9627 <s> z}ZH -1.1451
-5.5031 <s> {|b}B -0.2701
-5.5031 <s> {|l}L -0.2701
-5.5031 <s> }|c}K -0.2701
-5.5031 <s> }|r}R -0.2701
-0.3899 ?|q}K u}W -0.2701
-0.3824 _|d}D e}_ -0.2701
-0.3830 _|p}P r}R -0.2701
-1.0858 _}AA|N g}ZH -0.2701
-1.0878 _}AA|N j}ZH -0.2701
-0.5403 _}AA|N l}L -0.2701
-1.0574 _}AA|N s}S -0.2701
-0.6795 _}AA|R b}B -0.2701
-0.6779 _}AA|R d}D -0.2701
-2.1989 _}AH (}T|ER -0.2701
-2.2030 _}AH 2|)}D -0.2701
-1.2259 _}AH </s> 0.0000
-2.1466 _}AH _}EH -0.2701
-2.1989 _}AH _}S|T -0.2701
-2.1867 _}AH _}T -0.2701
-2.1429 _}AH _}W -0.2701
-2.1887 _}AH _}Y|UW -0.2701
-2.0152 _}AH b}B -0.2701
-2.0275 _}AH c}K -0.5711
-1.9980 _}AH d}D -0.2701
-2.2030 _}AH e}N|UW -0.2701
-1.6119 _}AH f}F -0.2701
-2.0247 _}AH g}G -0.2701
-2.0966 _}AH j}JH -0.2701
-2.1521 _}AH j}Y -0.2701
-2.0112 _}AH k}K -0.2701
-2.1031 _}AH l|l}L -0.2701
-2.1807 _}AH m|b}M -0.2701
-0.7845 _}AH m}M -1.7100
-0.9250 _}AH n}N -0.8874
-2.2030 _}AH n}S|IY -0.2701
-2.0247 _}AH p}P -0.2701
-1.5820 _}AH r}R -0.7472
-2.2030 _}AH s}CH|UW -0.2701
-1.1423 _}AH s}S -0.2701
-2.0058 _}AH s}Z -0.2701
-1.9839 _}AH t}T -0.2701
-2.1149 _}AH u}Y|UW -0.2701
-1.2566 _}AH v}V -0.4298
-1.6194 _}AH w}W -0.8142
-2.2010 _}AH z|y}Z -0.2701
-1.6227 _}AH z}Z -0.2701
-2.1847 _}AH z}ZH -0.2701
-1.0906 _}AH|L .}Y|UW -0.2701
-1.0244 _}AH|L </s> 0.0000
-1.0887 _}AH|L _}Y|UW -0.3212
-1.0679 _}AH|L a}EY -0.2701
-1.0767 _}AH|L u}Y|UW -0.2701
-0.9923 _}AH|N (}IY -0.2701
-0.9939 _}AH|N 6}S|IH -0.2701
-0.4420 _}AH|N </s> 0.0000
-0.9940 _}AO|R .}P|AO -0.2701
-0.9908 _}AO|R _}N -0.2701
-0.9938 _}AO|R e}TH|IY -0.2701
-0.9616 _}AO|R t}T -0.2701
-1.0878 _}B (}IY -0.2701
-1.0827 _}B _}AH -0.8721
-1.0903 _}B _}AH|L -0.9069
-1.0821 _}B _}EH -0.2701
-1.0824 _}B _}Y -0.5711
-0.0935 _}B|ER </s> 0.0000
-1.7730 _}EH .}S -0.2701
-2.3150 _}EH _}L -0.2701
-2.3044 _}EH _}R -0.2701
-2.3104 _}EH _}R|IY -0.2701
-2.3029 _}EH _}T -0.2701
-2.3150 _}EH _}T|ER -0.2701
-2.2106 _}EH c}S -0.2701
-2.3134 _}EH f|.}F -0.2701
-2.2563 _}EH f|f}F -0.2701
-1.0469 _}EH f}F -0.5711
-2.3134 _}EH l|.}L -0.2701
-1.0419 _}EH l}L -0.5090
-1.7761 _}EH m|.}M -0.4462
-0.9418 _}EH m}M -0.5254
-2.3104 _}EH n|.}N -0.2701
-2.2644 _}EH n|g}NG -0.2701
-0.9402 _}EH n}N -0.6326
-1.7139 _}EH r}R -0.2701
-2.2444 _}EH s|s}S -0.5711
-0.7596 _}EH s}S -0.7850
-2.1849 _}EH v}V -0.2701
-2.3059 _}EH x}G|Z -0.2701
-1.7721 _}EH x}K -0.4919
-0.9489 _}EH x}K|S -0.5923
-2.2155 _}EH z}Z -0.2701
-0.3920 _}EH|M _}B|ER -0.2701
-1.2850 _}EY '|s}Z -0.9691
-1.0373 _}EY </s> 0.0000
-1.3046 _}EY _}EH -0.7472
-1.8420 _}EY _}EY -0.2701
-1.8188 _}EY _}W -0.2701
-1.7305 _}EY a}AA -0.2701
-1.2816 _}EY a}AE -0.5711
-1.7719 _}EY a}EY -0.2701
-1.7466 _}EY c}K -0.2701
-1.7270 _}EY d}D -0.2701
-0.8070 _}EY e}AH -1.0482
-1.7907 _}EY j}JH -0.5711
-1.7358 _}EY k}K -0.7472
-1.7167 _}EY m}M -0.5711
-1.6959 _}EY n}N -0.2701
-1.7358 _}EY o}OW -0.2701
-1.8454 _}EY r}AA|R -0.2701
-1.2705 _}EY t}T -0.2701
-1.8488 _}EY w}D|AH -0.2701
-0.6897 _}EY|N _}Y -0.2701
-0.6766 _}EY|N t}T -0.3493
-0.6139 _}F 4}AO|R -0.5711
-0.7649 _}F 5}AY|V -0.7472
-1.4804 _}F e|r}ER -0.5711
-1.4944 _}F i}AH -0.2701
-1.4694 _}F i}IH -0.2701
-1.5182 _}F r}ER -0.2701
-0.9773 _}F r}R -0.6680
-1.4732 _}F s}S -0.2701
-0.6893 _}HH _}W -0.2701
-0.6750 _}HH r}R -0.2701
-1.8224 _}IH _}K -0.2701
-1.8199 _}IH _}S|T -0.2701
-1.7704 _}IH c|k}K -0.2701
-1.2479 _}IH c}K -0.2701
-1.6902 _}IH d}D -0.2701
-1.6993 _}IH k}K -0.2701
-1.6656 _}IH l}L -0.2701
-1.2369 _}IH m}M -0.2701
-1.7814 _}IH n|g}NG -0.2701
-1.8224 _}IH n}L|V -0.2701
-1.6580 _}IH n}N -0.2701
-1.7882 _}IH n}NG -0.2701
-1.7693 _}IH q}K -0.2701
-1.6682 _}IH r}R -0.2701
-1.8199 _}IH s|.}Z -0.2701
-1.2356 _}IH s}S -0.5711
-0.8819 _}IH s}Z -0.9233
-1.2372 _}IH t}T -0.2701
-1.7153 _}IH v}V -0.2701
-1.8151 _}IH x}G|Z -0.4462
-0.3904 _}IH|L _}Y -0.2701
-0.3910 _}IH|M _}IH -0.2701
-2.3424 _}IY 2}T|UW -0.2701
-2.3482 _}IY 3}TH -0.2701
-1.0697 _}IY </s> 0.0000
-1.0910 _}IY _}EH -1.0684
-2.3424 _}IY _}F -0.2701
-2.3293 _}IY _}N -0.2701
-1.4242 _}IY _}W -0.6680
-1.2196 _}IY a}EY -0.6680
-1.4057 _}IY b}B -0.7472
-1.3059 _}IY c}S -1.1732
-1.2974 _}IY d}D -0.7820
-1.5547 _}IY e}IY -0.5254
-2.2516 _}IY g}JH -0.5711
-1.4302 _}IY h}EY|CH -0.5711
-2.2020 _}IY h}HH -0.5711
-1.3057 _}IY i}AY -0.3950
-2.2531 _}IY j}JH -0.2701
-2.1713 _}IY k}K -0.2701
-2.1439 _}IY m}M -0.2701
-2.2501 _}IY o|r}ER -0.2701
-1.2991 _}IY o}OW -0.4462
-1.5485 _}IY p}P -0.7472
-1.7901 _}IY q}K -0.5711
-1.8115 _}IY r}AA|R -0.3950
-2.1285 _}IY r}R -0.5711
-1.7416 _}IY s}S -0.2701
-1.5443 _}IY s}Z -0.6381
-1.4005 _}IY t}T -0.6223
-1.4205 _}IY u}Y|UW -0.4162
-1.7627 _}IY v}V -0.8142
-2.3463 _}IY w}D|AH -0.5711
-2.2217 _}IY w}W -0.2701
-0.3914 _}JH|UW _}N -0.2701
-0.3862 _}K o}AH -0.2701
-0.6924 _}K|S 2}T|UW -0.2701
-0.6653 _}K|S </s> 0.0000
-0.3917 _}L _}Y|UW -0.2701
-0.6803 _}L|Z p}P -0.2701
-0.6930 _}L|Z p}P|ER -0.2701
-0.3910 _}M|ER _}IH -0.2701
-1.5676 _}N .}Y|AH -0.2701
-1.5670 _}N 2|)}ER -0.2701
-0.7689 _}N </s> 0.0000
-1.0227 _}N _}Y -0.2701
-1.4866 _}N a}AH -0.2701
-1.5014 _}N g}G -0.2701
-1.4761 _}N i}IH -0.5711
-1.5504 _}N j}Y -0.2701
-1.5446 _}N n|g}NG -0.2701
-1.4933 _}N s}Z -0.2701
-1.0022 _}N t}T -0.2701
-1.4707 _}N|T 2}UW|S -0.2701
-1.4200 _}N|T c|h}CH -0.2701
-1.4001 _}N|T c}K -0.4462
-1.4174 _}N|T c}S -0.2701
-1.3866 _}N|T d}D -0.5711
-1.4293 _}N|T g}JH -0.4462
-1.4071 _}N|T h}HH -0.2701
-1.4299 _}N|T j}JH -0.2701
-1.3699 _}N|T l}L -0.4462
-1.3793 _}N|T m}M -0.2701
-1.3989 _}N|T p}P -0.4462
-1.3799 _}N|T t}T -0.2701
-1.2904 _}R .}IY -0.2701
-1.2322 _}R e}EH -0.5711
-1.2514 _}R f}F -0.2701
-1.2263 _}R i}IH -0.5711
-1.2518 _}R o}AO -0.2701
-1.2948 _}R r}AY|V -0.2701
-1.2691 _}R r}_ -0.5711
-1.2948 _}R s}L|Z -0.2701
-0.4420 _}R|IY </s> 0.0000
-0.9926 _}R|IY _}T -0.2701
-0.9939 _}R|IY _}Z -0.2701
-0.3780 _}R|OW </s> 0.0000
-0.3874 _}R|T c}S -0.5711
-1.4703 _}S 7}EH|V -0.2701
-0.8954 _}S </s> 0.0000
-1.4562 _}S _}AH -0.2701
-1.4605 _}S _}IH -0.2701
-0.9311 _}S c}IY -0.5711
-0.9167 _}S i}AH -0.5711
-1.4006 _}S m}M -0.2701
-1.4308 _}S s|h}SH -0.2701
-1.4659 _}S x}K -0.2701
-0.3211 _}S|T </s> 0.0000
-0.8642 _}S|T r}ER -0.2701
-1.5054 _}T .}IH|V -0.2701
-1.3603 _}T </s> 0.0000
-0.9603 _}T _}AH -0.2701
-1.4981 _}T _}EY -0.2701
-1.5054 _}T a|_}AE -0.2701
-1.4853 _}T a|u}OW -0.2701
-1.4349 _}T c}K -0.2701
-1.4064 _}T i}IH -0.2701
-1.3994 _}T n}N -0.2701
-1.4425 _}T o}AO -0.2701
-1.4117 _}T s}S -0.2701
-1.4547 _}T z}Z -0.2701
-0.3905 _}T|ER _}AH -0.2701
-1.0461 _}W 1}AH|N -0.6680
-2.0521 _}W _}EH -0.2701
-1.9698 _}W a}AA -0.2701
-1.9871 _}W a}AE -1.0482
-1.2862 _}W a}AH -1.4832
-1.3000 _}W a}EH -1.3840
-1.5195 _}W a}EY -1.2554
-1.5027 _}W e}EH -0.4462
-1.9939 _}W i}AH -0.5711
-2.0068 _}W i}AY -0.5711
-1.9470 _}W i}IH -0.2701
-1.9722 _}W i}IY -0.2701
-0.5936 _}W o}AA -1.4604
-1.2921 _}W o}AH -1.5923
-1.5138 _}W u}AH -0.4462
-1.5332 _}W w}_ -0.2701
-0.8811 _}W y}AY -0.3493
-1.2344 _}Y _}AH -0.2701
-1.5795 _}Y a}AA -0.5711
-2.0481 _}Y a}AE -0.5711
-1.2187 _}Y a}AH -0.7172
-1.3607 _}Y e}EH -0.8142
-2.0864 _}Y e}EY -0.2701
-2.0530 _}Y h}_ -0.2701
-1.5699 _}Y i}IH -0.4462
-2.0907 _}Y o|r}ER -0.2701
-1.5918 _}Y o}AA -0.7472
-2.0520 _}Y o}AH -0.2701
-1.5898 _}Y o}AO -0.7472
-1.5816 _}Y o}OW -0.5389
-1.6077 _}Y r}ER -0.5711
-0.6731 _}Y u}AH -1.8537
-2.1429 _}Y u}AO -0.5711
-2.1579 _}Y u}ER -0.2701
-2.1356 _}Y u}IH -0.2701
-0.6752 _}Y u}UH -1.9135
-2.1018 _}Y y}IH -0.4919
-2.0694 _}Y y}IY -0.2701
-1.1742 _}Y|UW '|s}Z -0.5711
-1.7213 _}Y|UW 2|)}_ -0.2701
-0.9307 _}Y|UW </s> 0.0000
-1.7330 _}Y|UW _}B -0.2701
-0.9572 _}Y|UW _}EH -0.2701
-1.7098 _}Y|UW _}W -0.2701
-1.6599 _}Y|UW a}AE -0.2701
-0.9509 _}Y|UW a}EY -0.4462
-1.6519 _}Y|UW b}B -0.2701
-1.7299 _}Y|UW h}EY|CH -0.2701
-1.1768 _}Y|UW i}AY -0.2701
-1.6357 _}Y|UW m}M -0.2701
-1.1685 _}Y|UW o}OW -0.5711
-1.0909 _}Z (}EH|T -0.2701
-1.0244 _}Z </s> 0.0000
-1.0821 _}Z _}EH -0.2701
-1.0595 _}Z p}P -0.2701
-1.0909 _}Z s}S|UW -0.2701
-0.3858 a|_}AE c}K -0.2701
-0.9848 a|c}AE c}S -0.2701
-0.2202 a|c}AE q|u}K -0.6223
-0.6746 a|g}AE l}L -0.2701
-0.6765 a|g}AE m}M -0.2701
-1.9409 a|i}EH d}D -0.7472
-1.9532 a|i}EH g}G -0.5711
-1.9869 a|i}EH l|l}L -0.2701
-1.9336 a|i}EH m}M -0.2701
-1.4521 a|i}EH n}N -0.3950
-0.1940 a|i}EH r}R -1.3493
-1.4742 a|i}EH r}_ -0.2701
-1.9896 a|i}EH s|s}S -0.5711
-1.9313 a|i}EH s}S -0.2701
-1.4607 a|i}EH s}Z -0.2701
-1.4762 a|i}EH s}_ -0.2701
-2.0041 a|i}EH x}K|S -0.4462
-2.6166 a|i}EY '|s}Z -0.2701
-1.9866 a|i}EY (}_ -0.8721
-1.4254 a|i}EY </s> 0.0000
-2.5478 a|i}EY a}AH -0.2701
-1.6702 a|i}EY b}B -0.4591
-2.2222 a|i}EY c|h}CH -0.4462
-2.7049 a|i}EY c|k}K -0.2701
-2.5925 a|i}EY c}K -0.8721
-2.6404 a|i}EY c}S -0.2701
-1.2295 a|i}EY d}D -1.0344
-1.9891 a|i}EY e|r}ER -0.5711
-2.5073 a|i}EY e}_ -0.2701
-2.7137 a|i}EY f|f}F -0.2701
-1.7587 a|i}EY f}F -0.3493
-2.0341 a|i}EY g|h}_ -1.1451
-1.4876 a|i}EY g}G -0.5711
-2.2324 a|i}EY g}JH -0.5711
-2.7940 a|i}EY g}K -0.2701
-2.6114 a|i}EY h}HH -0.2701
-1.3578 a|i}EY k}K -0.6318
-1.3639 a|i}EY l|l}L -0.5711
-1.0683 a|i}EY l}L -1.2866
-1.3557 a|i}EY m}M -0.9352
-2.2503 a|i}EY n|g}NG -0.2701
-0.8971 a|i}EY n}N -1.5488
-2.5728 a|i}EY o}OW -0.2701
-2.1992 a|i}EY p}P -0.5711
-1.6626 a|i}EY r}R -0.4664
-1.8692 a|i}EY s|h}SH -0.2701
-2.0217 a|i}EY s|s}S -0.4462
-1.3199 a|i}EY s}S -0.5254
-1.2032 a|i}EY s}Z -0.8721
-2.7757 a|i}EY s}ZH -0.2701
-1.2954 a|i}EY s}_ -1.2981
-1.7630 a|i}EY t|h}TH -0.5711
-2.7557 a|i}EY t|i}SH -0.5711
-1.8814 a|i}EY t|t}T -0.5711
-1.2571 a|i}EY t}T -0.8555
-2.2443 a|i}EY t}_ -0.2701
-2.0001 a|i}EY v}V -0.4742
-2.6366 a|i}EY w}W -0.5711
-2.7412 a|i}EY x}K|S -0.4462
-2.6879 a|i}EY y}Y -0.2701
-2.7808 a|i}EY z|z}Z -0.2701
-1.5457 a|i}EY z}Z -0.4664
-2.7913 a|i}EY z}ZH -0.2701
-0.3830 a|i}OY r}R -0.2701
-1.8069 a|j}AY '|s}Z -0.2701
-1.7763 a|j}AY (}_ -0.2701
-1.0751 a|j}AY </s> 0.0000
-0.9448 a|j}AY a}AH -0.3950
-1.8772 a|j}AY c|h}_ -0.2701
-1.8576 a|j}AY c|z}CH -0.2701
-0.7498 a|j}AY d}D -0.7472
-0.9443 a|j}AY e}EH -0.6381
-1.8100 a|j}AY e}IY -0.2701
-1.3049 a|j}AY i}IH -0.5711
-1.7850 a|j}AY i}IY -0.5711
-1.0924 a|j}AY k}K -0.6680
-1.7538 a|j}AY n}N -0.2701
-1.8053 a|j}AY o}AO -0.2701
-1.7684 a|j}AY s}S -0.2701
-0.3857 a|k}AE g}G -0.2701
-1.4869 a|l}AA g}G -0.2701
-0.0957 a|l}AA m}M -0.7996
-1.4881 a|l}AA v}V -0.5711
-0.3941 a|l}AE f}F -0.5389
-1.1455 a|l}AE m}M -0.5711
-0.6251 a|l}AE v}V -0.7472
-0.1049 a|l}AO k}K -0.8589
-1.4465 a|l}AO m}M -0.2701
-1.4442 a|l}AO r}R -0.2701
-0.0690 a|n}AA d}D -0.3950
-0.1327 a|n}AE d}D -0.6381
-1.1537 a|n}AE t}T -0.2701
-0.6805 a|n}AH c}K -0.2701
-0.6760 a|n}AH s}S -0.2701
-1.1938 a|o}AW '|s}Z -0.8721
-1.3301 a|o}AW (}_ -0.8721
-2.0537 a|o}AW -}_ -0.2701
-0.3656 a|o}AW </s> 0.0000
-1.5503 a|o}AW b}B -0.2701
-2.0077 a|o}AW g}G -0.2701
-2.0211 a|o}AW h}HH -0.2701
-2.0211 a|o}AW i}AH -0.7472
-1.5370 a|o}AW i}IH -0.7472
-1.9947 a|o}AW i}IY -0.2701
-1.5360 a|o}AW l}L -0.5711
-2.0077 a|o}AW p}P -0.5711
-1.9643 a|o}AW r}R -0.5711
-2.0392 a|o}AW s|h}SH -0.2701
-1.9726 a|o}AW s}S -0.2701
-1.9937 a|o}AW s}Z -0.2701
-2.1013 a|o}AW t|i}SH -0.2701
-1.9773 a|o}AW t}T -0.2701
-2.0169 a|o}AW u}AH -0.5711
-2.0317 a|o}AW u}UW -0.5711
-1.5743 a|o}AW u}Y|UW -0.2701
-1.5720 a|o}AW y}Y -0.2701
-1.6996 a|r}ER '|s}Z -1.3115
-1.8477 a|r}ER (}_ -0.9691
-2.8620 a|r}ER -}_ -0.2701
-1.0948 a|r}ER </s> 0.0000
-2.9583 a|r}ER _}W -0.2701
-2.1336 a|r}ER a|i}EY -0.3670
-2.9354 a|r}ER a|u}AO -0.8721
-2.9354 a|r}ER a|y}EY -0.2701
-1.4882 a|r}ER a}AA -0.6570
-1.4390 a|r}ER a}AE -0.8985
-1.9945 a|r}ER a}AH -0.8721
-2.8957 a|r}ER a}AO -0.2701
-1.9319 a|r}ER a}EY -0.8721
-2.8986 a|r}ER a}IH -0.7472
-2.8513 a|r}ER a}_ -0.2701
-2.2304 a|r}ER b}B -0.3950
-2.4559 a|r}ER c|h}CH -0.5974
-1.9477 a|r}ER c|z}CH -0.8142
-2.9550 a|r}ER c}CH -0.7472
-2.2361 a|r}ER c}K -0.4919
-2.8257 a|r}ER c}S -0.4462
-1.0006 a|r}ER d}D -1.5581
-2.4993 a|r}ER d}_ -0.7472
-2.9418 a|r}ER e|a}IY -0.5711
-3.0779 a|r}ER e|m}EH -0.2701
-2.1039 a|r}ER e}AH -0.3950
-1.3481 a|r}ER e}EH -1.0104
-2.4655 a|r}ER e}EY -0.2701
-1.9268 a|r}ER e}IH -0.7752
-1.7998 a|r}ER e}IY -0.5974
-1.6457 a|r}ER e}_ -0.5463
-2.4352 a|r}ER f}F -0.2701
-2.2348 a|r}ER g}G -0.2701
-2.4710 a|r}ER g}JH -0.2701
-2.4352 a|r}ER h}HH -0.2701
-1.7458 a|r}ER i}AH -0.7172
-1.5523 a|r}ER i}AY -1.0830
-1.3671 a|r}ER i}IH -0.9184
-1.4136 a|r}ER i}IY -1.1082
-2.0004 a|r}ER k}K -0.4462
-2.8870 a|r}ER l|l}L -0.2701
-1.9081 a|r}ER l}L -0.8183
-2.3919 a|r}ER m}M -0.5711
-1.9833 a|r}ER n}N -0.8344
-2.5017 a|r}ER o|i}OY -0.8721
-2.1377 a|r}ER o|o}UW -0.5131
-2.4947 a|r}ER o|u}AH -0.8721
-2.1346 a|r}ER o|u}AW -1.0482
-2.2763 a|r}ER o|u}UW -0.2701
-2.9517 a|r}ER o|w}AW -0.2701
-2.9386 a|r}ER o|w}OW -0.2701
-1.5840 a|r}ER o}AA -0.5711
-2.2406 a|r}ER o}AH -0.3950
-2.2438 a|r}ER o}AO -0.3950
-3.0692 a|r}ER o}EH -0.2701
-1.4624 a|r}ER o}OW -0.7772
-2.2348 a|r}ER p}P -0.2701
-1.4438 a|r}ER r}_ -0.8721
-2.8282 a|r}ER s|h}SH -0.5711
-2.8986 a|r}ER s|s}S -0.2701
-2.9971 a|r}ER s|z}SH -0.2701
-2.3883 a|r}ER s}S -0.6457
-1.4371 a|r}ER s}Z -1.3493
-2.2544 a|r}ER t|h}TH -0.5711
-1.4353 a|r}ER t}T -0.7772
-2.0075 a|r}ER u}AH -0.5711
-1.8005 a|r}ER u}UW -0.3079
-2.7742 a|r}ER v}V -0.2701
-2.9862 a|r}ER w}V -0.2701
-3.0779 a|r}ER y|l}L -0.2701
-2.1316 a|r}ER y}IH -0.5131
-1.3733 a|r}ER y}IY -1.3840
-2.0167 a|r}ER z}Z -0.5711
-2.1210 a|u}AO </s> 0.0000
-1.2128 a|u}AO b}B -0.7472
-2.7937 a|u}AO c|c}CH -0.2701
-1.4533 a|u}AO c|h}CH -0.8985
-2.0322 a|u}AO c|k}K -0.7472
-2.2606 a|u}AO c}CH -0.2701
-1.7640 a|u}AO c}K -0.5946
-1.8769 a|u}AO c}S -0.6554
-2.8254 a|u}AO d}B -0.2701
-1.3657 a|u}AO d}D -0.9057
-2.7909 a|u}AO d}JH -0.2701
-2.5027 a|u}AO e}_ -0.2701
-1.6940 a|u}AO f|f}F -0.7472
-1.5514 a|u}AO f}F -0.7752
-2.7827 a|u}AO g|g}G -0.2701
-2.8136 a|u}AO g|h}F -0.2701
-1.2466 a|u}AO g|h}_ -1.2958
-1.4491 a|u}AO g}G -0.7472
-1.7759 a|u}AO g}JH -0.5711
-2.2806 a|u}AO g}K -0.8721
-2.6049 a|u}AO h}_ -0.2701
-1.6079 a|u}AO k}K -0.5711
-2.2815 a|u}AO l|k}K -0.3493
-1.6193 a|u}AO l|l}L -0.7472
-1.1172 a|u}AO l}L -1.0601
-1.6039 a|u}AO m}M -0.9691
-2.2582 a|u}AO n|g}NG -0.5711
-1.1380 a|u}AO n}N -1.1622
-2.7463 a|u}AO n}NG -0.2701
-2.7127 a|u}AO p|h}F -0.2701
-2.2697 a|u}AO p|p}P -0.4462
-1.6097 a|u}AO p}P -0.6680
-2.7058 a|u}AO q}K -0.7472
-1.4014 a|u}AO r}R -0.9647
-2.6880 a|u}AO r}_ -0.2701
-2.7268 a|u}AO s|c}SH -0.2701
-1.5043 a|u}AO s|s}S -0.6223
-1.4024 a|u}AO s}S -0.8785
-2.7773 a|u}AO s}SH -0.2701
-1.3308 a|u}AO s}Z -0.7930
-2.7827 a|u}AO s}ZH -0.2701
-2.7220 a|u}AO t|h}DH -0.2701
-1.5006 a|u}AO t|h}TH -1.0940
-2.7615 a|u}AO t|i}SH -1.0104
-2.7244 a|u}AO t|t}T -0.2701
-1.2377 a|u}AO t}T -1.0595
-2.2092 a|u}AO v}V -0.3950
-1.7840 a|u}AO x}K|S -0.4462
-2.0190 a|u}AO z}Z -0.3950
-2.0893 a|u}AW (}_ -0.5711
-1.0411 a|u}AW </s> 0.0000
-2.4402 a|u}AW a}AH -0.2701
-2.5604 a|u}AW a}_ -0.2701
-1.4026 a|u}AW b}B -0.7094
-1.9251 a|u}AW c|h}CH -0.3950
-2.6883 a|u}AW c|h}HH -0.2701
-2.6422 a|u}AW c}CH -0.2701
-1.5171 a|u}AW c}K -1.3115
-2.5396 a|u}AW c}S -0.5711
-1.4532 a|u}AW d}D -0.6680
-2.6371 a|u}AW d}_ -0.2701
-1.0944 a|u}AW e|r}ER -1.0717
-1.7730 a|u}AW e}AH -0.8142
-2.1230 a|u}AW e}IY -0.5711
-1.3957 a|u}AW e}_ -1.0234
-2.6196 a|u}AW f|f}F -0.2701
-1.5896 a|u}AW f}F -0.4462
-2.1750 a|u}AW g|h}_ -1.4462
-1.5867 a|u}AW g}G -0.5131
-2.1153 a|u}AW h}_ -0.4462
-2.6295 a|u}AW i|r}ER -0.2701
-2.4105 a|u}AW i}IH -0.2701
-2.4617 a|u}AW i}IY -0.2701
-2.6579 a|u}AW j}Y -0.2701
-1.7699 a|u}AW k}K -0.2701
-2.7271 a|u}AW l|d}D -0.2701
-1.4485 a|u}AW l}L -0.5200
-1.3989 a|u}AW m}M -1.0482
-1.6547 a|u}AW n}N -0.4462
-2.6500 a|u}AW n}NG -0.2701
-2.6148 a|u}AW p|h}F -0.2701
-2.1768 a|u}AW p|p}P -0.2701
-1.6700 a|u}AW p}P -0.6961
-2.1595 a|u}AW r}ER -0.2701
-1.7579 a|u}AW r}R -0.7472
-1.4683 a|u}AW s|c}SH -1.3840
-2.1309 a|u}AW s|h}SH -0.2701
-1.5995 a|u}AW s|s}S -0.5711
-2.6742 a|u}AW s|z}SH -0.2701
-2.7271 a|u}AW s}CH -0.5711
-1.1732 a|u}AW s}S -0.8117
-1.4542 a|u}AW s}Z -0.8441
-1.9236 a|u}AW t|h}TH -0.3950
-2.6742 a|u}AW t|s}_ -0.2701
-1.3524 a|u}AW t}T -0.6613
-2.6148 a|u}AW t}_ -0.2701
-1.9124 a|u}AW v}V -0.6680
-2.1285 a|u}AW w}W -0.5711
-2.6473 a|u}AW w}_ -0.2701
-2.5913 a|u}AW y}Y -0.2701
-1.5231 a|u}AW z}Z -0.3370
-2.2757 a|u}OW '|s}Z -0.8721
-1.8166 a|u}OW (}_ -0.5711
-1.8508 a|u}OW -}_ -0.2701
-0.9985 a|u}OW </s> 0.0000
-2.4237 a|u}OW _|p}P -0.2701
-1.6160 a|u}OW b}B -0.2701
-1.6424 a|u}OW c|h}SH -0.3281
-1.6188 a|u}OW c}K -0.3370
-1.8435 a|u}OW c}S -0.2701
-1.0494 a|u}OW d}D -0.6318
-1.2955 a|u}OW d}_ -0.9691
-2.1878 a|u}OW e}_ -0.2701
-1.8625 a|u}OW f|f}F -0.6680
-1.4798 a|u}OW f}F -0.2701
-2.3720 a|u}OW g|u}G -0.2701
-2.1981 a|u}OW i}IH -0.2701
-2.3228 a|u}OW j}JH -0.2701
-2.3989 a|u}OW j}ZH -0.5711
-1.1088 a|u}OW l|t}_ -1.3950
-1.2783 a|u}OW l}L -0.3950
-1.3650 a|u}OW m}M -0.3370
-2.3467 a|u}OW p|h}F -0.2701
-1.6182 a|u}OW p}P -0.2701
-2.1981 a|u}OW r}R -0.2701
-1.8113 a|u}OW s}S -0.2701
-2.2359 a|u}OW s}Z -0.2701
-2.2957 a|u}OW t|h}TH -0.2701
-1.1493 a|u}OW t}T -0.6059
-2.3467 a|u}OW t}_ -0.2701
-1.2146 a|u}OW v}V -0.4462
-2.4178 a|u}OW x}Z -0.2701
-1.2256 a|u}OW x}_ -1.6680
-1.6333 a|w}AO '|s}Z -1.0482
-1.7622 a|w}AO (}_ -0.8721
-0.8284 a|w}AO </s> 0.0000
-2.3649 a|w}AO a}AH -0.8721
-1.3662 a|w}AO b}B -0.5711
-1.9973 a|w}AO c|h}CH -0.5711
-2.4021 a|w}AO c}K -0.2701
-2.4413 a|w}AO c}S -0.2701
-1.4352 a|w}AO d}D -0.4697
-1.9698 a|w}AO e|r}ER -0.5711
-2.3980 a|w}AO e}AH -0.2701
-1.1574 a|w}AO e}_ -0.8563
-1.7744 a|w}AO f}F -0.8721
-2.3993 a|w}AO g}G -0.2701
-1.6326 a|w}AO h}HH -0.2701
-2.4177 a|w}AO i}AH -0.2701
-1.3613 a|w}AO i}IH -0.9468
-2.3818 a|w}AO i}IY -0.2701
-1.3048 a|w}AO k}K -0.8721
-1.1578 a|w}AO l}L -1.0640
-1.5176 a|w}AO m}M -0.5389
-1.1996 a|w}AO n}N -0.9415
-2.3993 a|w}AO p}P -0.2701
-2.4998 a|w}AO r}ER -0.2701
-1.7559 a|w}AO r}R -0.5711
-1.6366 a|w}AO s|h}SH -0.3950
-1.4328 a|w}AO s}S -0.7472
-1.1605 a|w}AO s}Z -1.2079
-2.5033 a|w}AO t|h}DH -0.2701
-1.7800 a|w}AO t|h}TH -0.5711
-1.5178 a|w}AO t}T -0.4742
-1.7725 a|w}AO v}V -0.7472
-2.4368 a|w}AO y}IY -0.2701
-2.0084 a|w}AO y}Y -1.2701
-1.2790 a|w}AW (}_ -0.2701
-1.2832 a|w}AW a}AA -0.2701
-1.2785 a|w}AW a}AH -0.2701
-1.3399 a|w}AW c|c}CH -0.2701
-1.2973 a|w}AW h}HH -0.2701
-1.2696 a|w}AW i}IH -0.2701
-1.2847 a|w}AW i}IY -0.2701
-1.2641 a|w}AW n}N -0.2701
-1.2738 a|w}AW s}S -0.2701
-0.2178 a|y}EH r}R -0.9691
-0.9797 a|y}EH s}Z -0.2701
-1.4885 a|y}EY '|s}Z -1.6503
-2.8602 a|y}EY '}AH -0.2701
-2.7240 a|y}EY '}_ -0.5711
-1.5724 a|y}EY (}_ -1.2913
-2.1022 a|y}EY -}_ -0.3950
-0.9716 a|y}EY </s> 0.0000
-2.3017 a|y}EY a|r}ER -0.2701
-2.6255 a|y}EY a}AA -0.2701
-2.6626 a|y}EY a}AE -0.2701
-1.5722 a|y}EY a}AH -0.7472
-2.7664 a|y}EY a}AO -0.2701
-2.7687 a|y}EY a}IH -0.2701
-1.5751 a|y}EY b}B -0.6011
-2.7176 a|y}EY c|h}CH -0.7472
-1.5765 a|y}EY c}K -0.5974
-2.3017 a|y}EY c}S -0.7472
-1.4103 a|y}EY d}D -0.6457
-2.8082 a|y}EY d}_ -0.2701
-1.4104 a|y}EY e|r}ER -1.1152
-1.9451 a|y}EY e}AH -0.3670
-1.8337 a|y}EY e}EH -0.5711
-2.7369 a|y}EY e}EY -0.2701
-1.1972 a|y}EY e}_ -1.0211
-1.9500 a|y}EY f}F -0.6961
-1.9454 a|y}EY g}G -0.5131
-1.6917 a|y}EY h}HH -0.4048
-2.2867 a|y}EY h}_ -0.2701
-1.4077 a|y}EY i}IH -1.3115
-2.2714 a|y}EY k}K -0.4462
-1.3164 a|y}EY l}L -0.7834
-1.4090 a|y}EY m}M -0.9233
-1.2642 a|y}EY n}N -0.9628
-2.7458 a|y}EY o|r}ER -0.3670
-2.1120 a|y}EY o|u}AW -0.6680
-2.2945 a|y}EY o}AA -0.4462
-1.9486 a|y}EY o}AH -0.5711
-1.9504 a|y}EY o}AO -0.7820
-1.5746 a|y}EY o}OW -0.7472
-2.2790 a|y}EY p}P -0.4162
-2.7905 a|y}EY r}ER -0.2701
-1.5694 a|y}EY r}R -0.4664
-2.7114 a|y}EY s|h}SH -0.2701
-2.8660 a|y}EY s|i}ZH -0.8721
-1.5707 a|y}EY s}S -0.5711
-1.2211 a|y}EY s}Z -1.3840
-2.3025 a|y}EY t|h}TH -0.4919
-1.4444 a|y}EY t}T -0.6747
-2.6701 a|y}EY u}AH -0.2701
-2.2844 a|y}EY v}V -0.2701
-1.5803 a|y}EY w}W -0.4162
-2.8186 a|y}EY w}_ -0.8721
-2.7617 a|y}EY y}Y -0.2701
-2.3049 a|y}EY z}Z -0.4462
-0.5439 a|y}_ e}EH -0.9691
-1.0769 a|y}_ i}AY -0.2701
-0.5491 a|y}_ y}AY -0.4919
-2.6461 a}AA '|s}Z -0.6680
-2.8517 a}AA '}_ -0.2701
-2.2055 a}AA (}_ -0.9691
-2.6723 a}AA -}_ -0.3670
-1.6765 a}AA </s> 0.0000
-3.4625 a}AA _}R -0.2701
-3.0424 a}AA a}AA -0.2701
-3.1630 a}AA a}EY -0.2701
-3.2557 a}AA a}IH -0.2701
-2.1293 a}AA a}_ -0.5711
-2.7253 a}AA b|b}B -0.3493
-1.6889 a}AA b}B -1.0759
-3.4944 a}AA b}B|AH -0.2701
-2.2485 a}AA c|c}CH -1.0940
-1.9605 a}AA c|c}K -0.9435
-1.9216 a}AA c|h}CH -0.6823
-2.5774 a}AA c|h}HH -0.3950
-2.9185 a}AA c|h}SH -0.2701
-2.9610 a}AA c|h}_ -0.8721
-2.5790 a}AA c|i}CH -0.7472
-2.4501 a}AA c|k}K -0.6059
-2.5670 a}AA c|z}CH -0.4919
-1.8526 a}AA c}CH -1.1229
-1.6442 a}AA c}K -1.3979
-2.1264 a}AA c}S -0.7707
-3.4444 a}AA c}SH -0.2701
-2.3835 a}AA c}T|S -1.4162
-2.9552 a}AA c}_ -0.9691
-2.9533 a}AA d|z}JH -0.3950
-1.4671 a}AA d}D -1.2542
-3.4503 a}AA d}T -0.2701
-2.1388 a}AA d}_ -1.1547
-2.7758 a}AA e|r}ER -0.2701
-2.3983 a}AA e}EH -0.3493
-3.1162 a}AA e}IH -0.2701
-2.3130 a}AA e}_ -0.5254
-2.2373 a}AA f|f}F -0.4250
-1.8000 a}AA f}F -0.7642
-2.3856 a}AA g|g}JH -1.2243
-2.7142 a}AA g|h}_ -0.2701
-3.4503 a}AA g|i}JH -0.2701
-2.7242 a}AA g|n}N -0.8721
-2.5670 a}AA g|u}G -1.1152
-1.6027 a}AA g}G -1.2085
-2.2308 a}AA g}JH -0.6680
-2.0994 a}AA g}ZH -1.0360
-3.4687 a}AA h}AH -0.2701
-1.8669 a}AA h}HH -0.9120
-1.6749 a}AA h}_ -1.2784
-2.1498 a}AA i}IH -0.6059
-1.8396 a}AA i}IY -0.8198
-2.3689 a}AA i}Y -0.8721
-2.6948 a}AA i}_ -0.5711
-3.4625 a}AA j}HH -0.2701
-2.1319 a}AA j}JH -0.6089
-2.2429 a}AA j}Y -0.4919
-2.7253 a}AA j}ZH -0.6503
-2.9495 a}AA j}_ -0.4462
-1.6289 a}AA k}K -1.1410
-2.7321 a}AA l|k}K -0.5254
-1.7848 a}AA l|l}L -1.0089
-3.4878 a}AA l|l}Y -0.2701
-1.3712 a}AA l}L -1.5127
-3.5079 a}AA l}T|S -0.2701
-2.1418 a}AA m|m}M -0.7037
-1.5065 a}AA m}M -1.3822
-1.9014 a}AA n|g}NG -0.7728
-1.8299 a}AA n|n}N -1.0482
-1.2999 a}AA n}N -1.6171
-1.8303 a}AA n}NG -1.5056
-3.2793 a}AA o|u}UW -0.2701
-2.8197 a}AA o}AO -0.2701
-2.2107 a}AA o}OW -0.7472
-3.3942 a}AA o}W -0.2701
-2.6927 a}AA p|h}F -0.3670
-2.3784 a}AA p|p}P -0.6381
-1.8415 a}AA p}P -1.0270
-2.4580 a}AA q|u}K -0.4462
-2.1825 a}AA q}K -0.8721
-1.1761 a}AA r}R -2.0611
-1.6637 a}AA r}_ -1.5232
-3.3085 a}AA s|c}SH -0.8721
-1.8236 a}AA s|h}SH -0.9558
-1.8273 a}AA s|s}S -1.0016
-2.9610 a}AA s|s}SH -0.2701
-2.1429 a}AA s|z}SH -0.6381
-1.5278 a}AA s}S -1.3262
-1.8395 a}AA s}Z -1.0548
-2.7230 a}AA s}ZH -0.5711
-2.3669 a}AA s}_ -0.5254
-2.6969 a}AA t|h}DH -1.1732
-2.2834 a}AA t|h}TH -0.4462
-2.5710 a}AA t|i}SH -0.8721
-3.3890 a}AA t|s}_ -0.2701
-1.8290 a}AA t|t}T -0.8510
-3.5011 a}AA t}S -0.5711
-1.4962 a}AA t}T -1.3183
-2.3674 a}AA t}_ -1.1152
-2.5260 a}AA u}UW -0.4742
-1.8083 a}AA u}_ -1.0104
-3.4813 a}AA v}F -0.2701
-1.5778 a}AA v}V -1.2162
-2.4754 a}AA w}F -1.2243
-2.1420 a}AA w}V -0.6851
-1.8940 a}AA w}W -1.2303
-2.0220 a}AA w}_ -0.7886
-2.1333 a}AA y}Y -0.8721
-2.2477 a}AA z|z}Z -0.8142
-3.4049 a}AA z}S -0.2701
-2.0637 a}AA z}T -1.8611
-2.9571 a}AA z}T|S -1.1732
-1.6930 a}AA z}Z -0.9725
-2.7298 a}AA z}ZH -0.6680
-3.0276 a}AE (}_ -0.2701
-2.6558 a}AE </s> 0.0000
-3.4150 a}AE _}N -0.2701
-1.9141 a}AE b|b}B -0.9736
-3.4838 a}AE b|y}B -0.5711
-1.6557 a}AE b}B -1.2103
-3.4900 a}AE b}P -0.2701
-2.7102 a}AE c|c}CH -0.7472
-2.1741 a}AE c|c}K -0.9447
-1.8526 a}AE c|h}CH -0.8359
-2.3572 a}AE c|h}SH -0.6892
-2.9296 a}AE c|i}SH -0.4462
-1.6620 a}AE c|k}K -1.5384
-2.7176 a}AE c|q}K -0.4462
-3.3420 a}AE c|z}CH -0.2701
-1.4806 a}AE c}K -1.6059
-1.8284 a}AE c}S -1.3308
-3.4776 a}AE c}T -0.2701
-2.3651 a}AE d|g}JH -0.7472
-1.5225 a}AE d}D -1.3740
-2.9330 a}AE d}JH -1.3670
-1.9394 a}AE d}_ -1.8793
-1.9468 a}AE e}_ -0.5364
-1.7686 a}AE f|f}F -1.1293
-1.8262 a}AE f}F -1.1877
-1.7924 a}AE g|g}G -1.2008
-2.7144 a}AE g|g}JH -0.9691
-3.4838 a}AE g|g}Z -0.2701
-3.3650 a}AE g|h}_ -0.2701
-2.9296 a}AE g|n}N -0.2701
-3.4596 a}AE g|t}T -0.2701
-2.6928 a}AE g|u}G -0.4919
-1.5984 a}AE g}G -1.3115
-2.0336 a}AE g}JH -1.1677
-3.3745 a}AE g}ZH -0.2701
-1.9591 a}AE h}HH -0.7842
-1.8493 a}AE h}_ -1.0298
-2.3516 a}AE i}_ -0.5711
-2.2144 a}AE j}JH -0.4349
-3.4203 a}AE j}_ -0.2701
-2.4520 a}AE k|k}K -0.4919
-1.6113 a}AE k}K -1.1467
-3.4838 a}AE l|.}L -0.2701
-1.6309 a}AE l|l}L -1.3059
-3.4655 a}AE l|l}_ -0.2701
-1.4110 a}AE l}L -1.5699
-2.4532 a}AE m|b}M -0.6011
-1.8357 a}AE m|m}M -1.2701
-3.4596 a}AE m|n}M -0.3670
-1.5217 a}AE m}M -1.5908
-3.4715 a}AE n|.}N -0.2701
-3.4776 a}AE n|c}NG -1.0482
-2.9545 a}AE n|d}M -0.8142
-3.4900 a}AE n|d}_ -1.1152
-1.5524 a}AE n|g}NG -1.0521
-2.9545 a}AE n|k}NG -0.5711
-1.5064 a}AE n|n}N -1.4067
-3.4776 a}AE n}M -0.2701
-1.2954 a}AE n}N -1.9786
-1.6635 a}AE n}NG -2.0147
-3.2756 a}AE o|u}UW -0.2701
-2.1662 a}AE p|h}F -1.0755
-1.7710 a}AE p|p}P -1.3670
-1.5984 a}AE p}P -1.3080
-3.4423 a}AE p}_ -0.2701
-2.3558 a}AE q|u}K -0.8142
-1.9679 a}AE q}K -1.1152
-1.7008 a}AE r}R -1.2641
-1.7475 a}AE r}_ -2.3345
-2.0385 a}AE s|c}SH -1.3493
-1.7847 a}AE s|h}SH -1.1364
-2.7208 a}AE s|k}S -0.2701
-1.6940 a}AE s|s}S -1.3705
-2.9437 a}AE s|s}SH -1.0482
-3.4655 a}AE s|t}_ -0.2701
-3.4838 a}AE s|u}ZH -0.5711
-1.5955 a}AE s}S -1.5409
-3.3943 a}AE s}SH -0.2701
-1.8004 a}AE s}Z -0.8775
-2.9278 a}AE s}ZH -0.8142
-2.0758 a}AE s}_ -0.8721
-2.1674 a}AE t|h}DH -1.1354
-1.8521 a}AE t|h}TH -1.0221
-2.9142 a}AE t|i}SH -1.9861
-2.5563 a}AE t|s}_ -0.9691
-1.7689 a}AE t|t}T -1.3294
-3.4776 a}AE t|u}CH -1.4162
-2.0783 a}AE t}CH -1.2628
-3.4203 a}AE t}D -0.2701
-3.4203 a}AE t}SH -0.5711
-1.4785 a}AE t}T -1.5022
-3.4838 a}AE t}TH -0.5711
-1.9684 a}AE t}_ -1.7698
-2.5476 a}AE u}_ -1.1732
-3.4715 a}AE v|v}V -0.2701
-1.7819 a}AE v}V -1.3541
-2.3346 a}AE w}W -0.4919
-2.4543 a}AE x}K -0.7930
-1.7315 a}AE x}K|S -1.1249
-3.4367 a}AE x}_ -0.7472
-1.9431 a}AE z|z}Z -0.7243
-2.9244 a}AE z}S -0.4462
-1.7648 a}AE z}Z -0.7686
-3.4367 a}AE z}ZH -0.2701
-1.4587 a}AH '|s}Z -2.6825
-2.4997 a}AH '}_ -0.4462
-1.5472 a}AH (}_ -2.2432
-2.3514 a}AH -}_ -0.6223
-1.1834 a}AH </s> 0.0000
-3.5685 a}AH _}M|ER -0.2701
-2.7992 a}AH _}Z -0.2701
-3.1340 a}AH a}AA -0.2701
-2.6027 a}AH a}_ -0.6680
-2.3704 a}AH b|b}B -0.6776
-1.3495 a}AH b}B -1.5948
-2.7889 a}AH c|c}CH -0.8721
-2.3068 a}AH c|c}K -1.1732
-3.5685 a}AH c|g}G -0.4919
-2.0741 a}AH c|h}CH -0.7878
-2.4422 a}AH c|h}HH -0.5254
-2.3642 a}AH c|h}SH -0.9233
-3.4954 a}AH c|i}CH -0.2701
-1.8670 a}AH c|k}K -1.0349
-2.4363 a}AH c|z}CH -0.6851
-2.3018 a}AH c}CH -0.8721
-1.6141 a}AH c}K -1.2201
-1.7870 a}AH c}S -1.3781
-3.5685 a}AH c}TH -0.2701
-3.5112 a}AH d|z}JH -0.2701
-1.6010 a}AH d}D -1.2885
-3.5166 a}AH d}T -0.2701
-2.2475 a}AH d}_ -1.5131
-2.8390 a}AH e}EH -0.2701
-2.2122 a}AH e}_ -0.7930
-2.1161 a}AH f|f}F -0.9645
-1.7853 a}AH f}F -0.8948
-2.5294 a}AH g|g}G -0.9135
-2.6329 a}AH g|h}_ -0.5711
-3.4903 a}AH g|n}N -0.2701
-2.9856 a}AH g|u}G -0.2701
-1.6380 a}AH g}G -1.1376
-3.0258 a}AH g}HH -0.8721
-1.6414 a}AH g}JH -1.4742
-2.9969 a}AH g}ZH -0.7472
-1.8031 a}AH h}HH -1.0459
-1.6388 a}AH h}_ -1.3493
-3.0258 a}AH i|s}_ -0.7472
-3.0732 a}AH i}IH -0.2701
-2.6444 a}AH j}HH -0.7472
-2.0442 a}AH j}JH -0.7794
-3.4329 a}AH j}Y -0.9691
-3.0103 a}AH j}ZH -0.2701
-3.5006 a}AH j}_ -0.2701
-3.4954 a}AH k|k}K -0.2701
-3.5564 a}AH k}HH -0.2701
-1.5904 a}AH k}K -1.2212
-3.0206 a}AH l|k}K -0.4462
-1.4947 a}AH l|l}L -1.5175
-3.5505 a}AH l|l}Y -0.2701
-3.5564 a}AH l|m}M -1.1732
-1.2831 a}AH l}L -1.8982
-2.1592 a}AH m|m}M -0.6851
-1.4647 a}AH m}M -1.5432
-3.5685 a}AH m}N -0.2701
-2.2472 a}AH n|g}NG -0.6961
-1.9370 a}AH n|n}N -1.4108
-1.2411 a}AH n}N -2.0807
-2.0495 a}AH n}NG -1.4162
-3.5685 a}AH n}Y -0.2701
-3.2237 a}AH o}AA -0.2701
-2.8937 a}AH o}AO -0.7472
-3.1477 a}AH o}OW -0.2701
-2.1546 a}AH p|h}F -1.0534
-2.2032 a}AH p|p}P -1.3935
-1.7349 a}AH p}P -1.1288
-2.5200 a}AH q|u}K -0.5711
-2.3578 a}AH q}K -1.3115
-1.8752 a}AH r}R -0.7548
-2.5081 a}AH r}_ -0.6381
-2.9714 a}AH s|c}SH -0.5711
-1.9307 a}AH s|h}SH -0.6593
-3.5221 a}AH s|i}SH -0.5711
-1.8664 a}AH s|s}S -1.1750
-3.0223 a}AH s|s}SH -1.2243
-2.4399 a}AH s|z}SH -0.7930
-1.4814 a}AH s}S -1.2814
-3.4752 a}AH s}SH -0.2701
-1.4739 a}AH s}Z -1.8294
-2.4291 a}AH s}_ -0.8721
-3.3782 a}AH t|h}DH -0.2701
-1.9558 a}AH t|h}TH -0.9984
-1.7909 a}AH t|t}T -1.1938
-2.2475 a}AH t}CH -1.2843
-3.5006 a}AH t}D -0.2701
-1.4647 a}AH t}T -1.5715
-2.9622 a}AH t}_ -0.2701
-3.5685 a}AH u}L -0.2701
-3.3477 a}AH u}Y|UW -0.2701
-1.5915 a}AH v}V -1.1747
-1.7373 a}AH w}W -1.0962
-3.4196 a}AH x}K|S -0.3950
-2.4252 a}AH y}Y -0.7472
-3.5685 a}AH z|s}SH -0.2701
-2.6400 a}AH z|z}Z -0.4919
-1.7874 a}AH z}Z -0.8368
-2.3567 a}AO '|s}Z -0.2701
-2.5419 a}AO (}R|JH -0.2701
-2.1648 a}AO </s> 0.0000
-2.5394 a}AO _}HH -0.2701
-2.3198 a}AO b}B -0.4462
-2.5146 a}AO c|c}CH -0.2701
-2.5004 a}AO c|c}K -0.2701
-2.3862 a}AO c|h}CH -0.2701
-2.4395 a}AO c|k}K -0.4462
-1.9326 a}AO c}K -0.8142
-2.3791 a}AO c}S -0.2701
-2.3002 a}AO d}D -0.2701
-2.4624 a}AO d}_ -0.2701
-1.9396 a}AO f}F -0.2701
-1.9870 a}AO g|h}_ -0.5711
-1.9314 a}AO g}G -0.2701
-1.9377 a}AO h}_ -0.2701
-1.9251 a}AO k}K -0.2701
-0.6819 a}AO l|l}L -1.3370
-0.6640 a}AO l}L -1.3589
-1.7145 a}AO m}M -0.6223
-1.9785 a}AO n|g}NG -0.6680
-2.4667 a}AO n|n}N -0.2701
-0.9820 a}AO n}N -0.7472
-2.4732 a}AO n}NG -0.4462
-2.4911 a}AO p|p}P -0.2701
-1.9314 a}AO p}P -0.2701
-1.2618 a}AO r}R -1.2348
-1.7478 a}AO r}_ -1.7472
-2.4560 a}AO s|c}SH -0.5711
-1.9507 a}AO s|h}SH -0.4919
-2.4295 a}AO s|s}S -0.4462
-1.7130 a}AO s}S -0.3079
-1.9226 a}AO s}Z -0.3950
-2.3808 a}AO t|h}TH -0.2701
-1.9764 a}AO t|t}T -0.2701
-1.5797 a}AO t}T -1.2362
-2.4436 a}AO t}_ -0.7472
-2.3419 a}AO v}V -0.2701
-2.3755 a}AO w}W -0.2701
-2.5098 a}AO z|z}Z -0.7472
-2.3862 a}AO z}Z -0.2701
-0.6780 a}AW e|r}ER -0.2701
-0.6830 a}AW u}UW -0.2701
-0.7226 a}AY e}EH -0.8142
-0.5326 a}AY e}_ -0.6381
-1.7935 a}AY h}_ -0.8721
-1.7953 a}AY i}AH -0.5711
-0.9182 a}AY i}IH -0.8344
-1.2918 a}AY i}IY -0.2701
-1.8277 a}AY i}Y -0.2701
-1.8164 a}AY j}JH -0.5711
-1.7607 a}AY l}L -0.2701
-1.8030 a}AY y}IY -0.2701
-1.3042 a}AY y}Y -0.3950
-2.2399 a}EH </s> 0.0000
-2.4141 a}EH c|h}CH -0.5711
-2.3746 a}EH c}K -0.2701
-1.5761 a}EH d}D -1.2088
-2.4693 a}EH d}_ -0.2701
-0.8399 a}EH e}_ -1.1703
-2.3882 a}EH f}F -0.3670
-1.5820 a}EH h}_ -0.6680
-2.5189 a}EH i|g}_ -0.2701
-2.4345 a}EH j}JH -0.2701
-1.9313 a}EH k}K -0.4462
-1.9593 a}EH l|l}L -0.4462
-1.5707 a}EH l}L -1.0562
-1.9217 a}EH m}M -0.2701
-2.4724 a}EH n|n}N -0.2701
-1.2488 a}EH n}N -0.8085
-2.3722 a}EH p}P -0.6381
-0.4555 a}EH r}R -1.8181
-0.8907 a}EH r}_ -2.2787
-1.9200 a}EH s}S -1.0830
-1.7186 a}EH s}Z -0.9468
-2.4991 a}EH s}ZH -1.4604
-2.4618 a}EH t|h}DH -1.7614
-2.4101 a}EH t|h}TH -0.6554
-2.4693 a}EH t}CH -0.2701
-1.9222 a}EH t}T -0.6503
-1.7243 a}EH v}V -0.7752
-2.4141 a}EH z}Z -0.2701
-0.2188 a}ER </s> 0.0000
-1.5205 a}ER c|h}CH -0.2701
-0.7587 a}ER r}R -0.4462
-1.5057 a}ER t}T -0.2701
-2.1517 a}EY '|s}Z -0.7472
-1.7932 a}EY (}_ -1.2913
-1.9065 a}EY </s> 0.0000
-1.9034 a}EY _}EH -0.8721
-3.1941 a}EY _}F -0.2701
-3.1719 a}EY _}S -0.2701
-2.5887 a}EY a}EY -0.2701
-1.4747 a}EY b}B -1.3148
-2.3965 a}EY c|h}CH -0.4742
-3.1003 a}EY c|h}SH -0.5711
-1.8149 a}EY c|i}SH -1.1152
-1.6075 a}EY c}K -1.2079
-1.5392 a}EY c}S -1.5680
-2.0251 a}EY c}SH -1.2478
-3.1807 a}EY c}_ -0.2701
-1.2789 a}EY d}D -1.5169
-3.2224 a}EY e|b}_ -0.2701
-2.8422 a}EY e|r}ER -0.2701
-2.5787 a}EY e}IY -0.2701
-1.4898 a}EY e}_ -0.9442
-2.6315 a}EY f|f}F -0.5711
-1.8002 a}EY f}F -1.0913
-2.6733 a}EY g|i}JH -0.5711
-2.1843 a}EY g|n}N -0.6381
-2.0917 a}EY g|u}G -0.9691
-1.4947 a}EY g}G -1.1950
-1.4794 a}EY g}JH -1.5431
-3.1941 a}EY h}AH -0.2701
-1.8422 a}EY h}HH -0.5711
-2.0679 a}EY h}_ -0.6059
-2.4506 a}EY i|g}_ -1.4462
-2.9125 a}EY i}AH -0.2701
-2.5876 a}EY i}AY -0.5711
-1.8759 a}EY i}IH -1.0482
-2.1652 a}EY j}JH -0.7224
-3.1634 a}EY k|k}K -0.7472
-1.4381 a}EY k}K -1.5632
-1.8074 a}EY l|l}L -0.9135
-3.2034 a}EY l|l}_ -0.2701
-1.3709 a}EY l}L -1.4073
-3.2224 a}EY m|e}_ -0.2701
-3.1190 a}EY m|m}M -0.2701
-1.4725 a}EY m}M -1.3945
-1.2650 a}EY n}N -1.5887
-1.9575 a}EY n}NG -1.6680
-2.9992 a}EY o|r}ER -0.2701
-3.0484 a}EY o|u}UW -0.2701
-2.9295 a}EY o}AA -0.2701
-2.9149 a}EY o}AO -0.5711
-1.9936 a}EY o}OW -0.4462
-2.6290 a}EY p|h}F -0.4462
-1.5587 a}EY p}P -1.3039
-3.0894 a}EY q|u}K -0.2701
-3.0420 a}EY q}K -0.2701
-2.0495 a}EY r}R -0.7820
-1.8587 a}EY s|i}ZH -1.2591
-3.0293 a}EY s|s}S -0.3670
-2.6803 a}EY s|t}_ -0.5711
-1.4914 a}EY s}S -1.3544
-1.4934 a}EY s}Z -0.9902
-2.2936 a}EY s}ZH -0.4462
-1.9011 a}EY t|h}DH -0.9233
-2.2600 a}EY t|h}TH -0.6011
-1.3098 a}EY t|i}SH -2.4046
-3.2224 a}EY t|i}ZH -0.5711
-3.0684 a}EY t|t}T -0.2701
-2.6403 a}EY t}CH -1.3840
-2.6692 a}EY t}D -0.2701
-2.6692 a}EY t}SH -1.0482
-1.1626 a}EY t}T -2.0968
-2.6290 a}EY t}_ -0.5711
-3.0894 a}EY u}_ -1.0482
-1.3900 a}EY v}V -1.5499
-3.2034 a}EY w}D|AH -0.2701
-2.9472 a}EY w}W -0.2701
-3.1346 a}EY y}AH -0.2701
-2.4136 a}EY y}IH -0.7472
-2.6167 a}EY y}Y -0.2701
-3.2128 a}EY z|i}ZH -0.5711
-1.6969 a}EY z}Z -1.1547
-0.3848 a}EY|M s}Z -0.2701
-2.3460 a}IH -}_ -0.2701
-2.2949 a}IH b}B -0.2701
-2.3659 a}IH c|k}K -1.1732
-1.2144 a}IH c}K -0.6011
-1.3762 a}IH c}S -0.6381
-2.2825 a}IH d}D -0.2701
-1.8255 a}IH e}_ -0.2701
-1.4811 a}IH g}G -0.8721
-0.4442 a}IH g}JH -2.0196
-1.8401 a}IH k}K -0.3670
-2.3558 a}IH l|l}L -0.2701
-1.8274 a}IH l}L -0.2701
-2.3905 a}IH m|m}M -0.2701
-2.2714 a}IH m}M -0.2701
-1.4922 a}IH n|n}N -0.4919
-1.0470 a}IH n}N -0.5974
-2.2597 a}IH r}R -1.0893
-2.3558 a}IH r}_ -0.4919
-1.3687 a}IH s}S -0.3493
-0.8100 a}IH t}T -1.1909
-2.3086 a}IH v}V -0.5711
-0.3920 a}IH|P _}AH|L -0.2701
-1.2785 a}IY </s> 0.0000
-1.3377 a}IY c}K -0.2701
-0.8353 a}IY e}AH -0.7472
-1.3602 a}IY g}JH -0.2701
-1.3431 a}IY i}AH -0.2701
-1.3153 a}IY i}IH -0.5711
-1.3319 a}IY o}OW -0.2701
-1.3411 a}IY u}AH -0.2701
-1.3633 a}IY y}Y -0.2701
-0.3838 a}OW m}M -0.2701
-0.3922 a}T|R a}IH|P -0.2701
-0.6766 a}Y e}EH -0.5711
-0.6830 a}Y u}UW -1.1732
-2.6060 a}_ '|s}Z -0.7472
-2.0608 a}_ '}_ -0.4462
-2.2049 a}_ (}_ -0.6680
-2.8696 a}_ .}EY -0.2701
-1.6882 a}_ </s> 0.0000
-2.7772 a}_ _}AH -0.2701
-1.0939 a}_ a}AA -1.0881
-1.9091 a}_ a}AE -0.2701
-1.7970 a}_ a}AH -0.5131
-2.7038 a}_ a}EH -0.9691
-2.6362 a}_ a}EY -0.2701
-2.7066 a}_ a}IH -0.7472
-2.5572 a}_ b}B -0.5711
-2.6460 a}_ c|h}CH -0.8142
-2.2893 a}_ c|k}K -0.5711
-2.8615 a}_ c|q}K -0.2701
-2.1017 a}_ c}AH -0.3950
-2.2297 a}_ c}K -0.6381
-2.2094 a}_ d}D -1.0275
-2.7545 a}_ d}_ -0.2701
-2.0269 a}_ e|r}ER -0.6680
-2.7772 a}_ e|y}EY -0.2701
-1.1944 a}_ e}IY -0.7187
-2.1798 a}_ e}_ -0.8721
-2.7329 a}_ f|f}F -0.2701
-2.5993 a}_ f}F -0.5711
-2.5715 a}_ g}G -0.5131
-2.2744 a}_ g}JH -0.8721
-1.6581 a}_ h}_ -0.6381
-1.8314 a}_ i|r}ER -0.6223
-1.4574 a}_ i}AH -1.2701
-0.9887 a}_ i}AY -1.0664
-1.7113 a}_ i}IH -1.0234
-2.0305 a}_ i}IY -0.2701
-2.8303 a}_ j}_ -0.5711
-2.2185 a}_ k}K -0.6680
-1.3249 a}_ l|l}L -2.2455
-1.3754 a}_ l}L -0.7552
-2.7873 a}_ m|m}M -0.2701
-1.7949 a}_ m}M -0.8599
-2.7513 a}_ n|g}NG -0.2701
-2.3036 a}_ n|n}N -0.5711
-1.5331 a}_ n}N -1.1074
-2.3070 a}_ n}NG -0.2701
-2.7240 a}_ o|u}AW -0.2701
-2.0469 a}_ o}AO -0.5711
-1.9024 a}_ o}OW -0.5711
-2.2278 a}_ p}P -0.4462
-1.3436 a}_ r}R -1.1958
-2.2796 a}_ r}_ -0.4462
-2.0170 a}_ s}S -1.2871
-2.0299 a}_ s}Z -0.5711
-2.7390 a}_ t|h}DH -0.3950
-2.2569 a}_ t|h}TH -0.5254
-2.7545 a}_ t}CH -0.5711
-2.0199 a}_ t}T -1.1152
-2.2914 a}_ t}_ -0.2701
-2.0731 a}_ u|r}ER -0.6223
-1.4990 a}_ u}AH -0.8344
-2.0526 a}_ u}UW -0.3950
-2.7608 a}_ u}_ -1.1732
-2.2344 a}_ v}V -0.4462
-2.3410 a}_ w|y}OY -0.7472
-2.6314 a}_ w}W -0.2701
-2.7673 a}_ w}_ -0.2701
-2.7706 a}_ x}K|S -0.3950
-1.1563 a}_ y}AY -0.8819
-2.7066 a}_ y}IH -0.2701
-1.4595 a}_ y}IY -1.1909
-0.3853 b|a}_ b}B -0.2701
-1.4845 b|b}B '|s}Z -0.9691
-1.3529 b|b}B </s> 0.0000
-1.6311 b|b}B a|r}ER -0.6680
-1.6173 b|b}B a}AA -0.4919
-2.2647 b|b}B a}AE -0.4462
-1.1538 b|b}B a}AH -0.5711
-2.2982 b|b}B a}EY -0.2701
-1.6397 b|b}B a}IH -1.0482
-1.2864 b|b}B e|r}ER -0.7902
-1.2176 b|b}B e}AH -0.8142
-1.6128 b|b}B e}EH -0.5711
-2.3176 b|b}B e}EY -0.2701
-1.4838 b|b}B e}IH -0.7930
-1.3780 b|b}B e}IY -0.5131
-1.2815 b|b}B e}_ -1.1640
-1.3768 b|b}B i}AH -0.8344
-2.2968 b|b}B i}AY -0.2701
-1.2827 b|b}B i}IH -1.2981
-1.3723 b|b}B i}IY -1.0298
-1.2823 b|b}B l}L -1.1547
-2.3237 b|b}B o|r}ER -0.5711
-2.3491 b|b}B o|u}AW -0.2701
-2.3993 b|b}B o|u}UH -0.2701
-2.3491 b|b}B o|u}UW -0.2701
-1.6249 b|b}B o}AH -0.8016
-2.4011 b|b}B o}IH -0.2701
-1.6191 b|b}B o}OW -0.7472
-1.6086 b|b}B r}R -0.7094
-1.3721 b|b}B s}Z -1.3840
-2.2701 b|b}B u}AH -0.2701
-2.3442 b|b}B u}UH -0.7472
-1.3790 b|b}B y}IY -1.2339
-1.5189 b|t}T '}_ -0.2701
-0.9810 b|t}T </s> 0.0000
-1.4798 b|t}T a}AH -0.2701
-1.4841 b|t}T e|r}ER -0.2701
-1.4952 b|t}T e}AH -0.2701
-1.0088 b|t}T e}IH -0.9691
-1.5040 b|t}T f}F -0.5711
-1.5040 b|t}T h}HH -0.5711
-1.4686 b|t}T i}IH -0.2701
-1.4668 b|t}T l}L -0.2701
-1.5255 b|t}T o|r}ER -0.3950
-0.9989 b|t}T s}S -0.5711
-0.3896 b|v}B r}ER -0.2701
-0.6766 b|y}B e}EH -0.2701
-0.6870 b|y}B s|s}S -0.5711
-0.3828 b}AH l}L -1.5488
-2.0489 b}B '|s}Z -1.4004
-3.5045 b}B '}AH -0.2701
-3.5586 b}B '}IY -0.2701
-3.2481 b}B '}_ -0.2701
-2.6853 b}B (}IY -0.8721
-2.4201 b}B (}_ -1.1732
-3.5962 b}B -}IY -0.5711
-3.2734 b}B -}_ -0.2701
-3.5444 b}B .}IY -0.2701
-1.7478 b}B </s> 0.0000
-3.6041 b}B _}AA|R -0.2701
-3.4236 b}B _}EH -0.5711
-3.4798 b}B _}IH -0.2701
-2.4159 b}B _}IY -0.6318
-3.5586 b}B _}R -0.5711
-2.4759 b}B _}W -1.2243
-2.2921 b}B _}Y -1.5854
-3.0160 b}B a|i}EH -0.9691
-2.3976 b}B a|i}EY -1.0260
-2.8319 b}B a|l}AA -1.1732
-3.5375 b}B a|l}AO -0.9691
-3.0160 b}B a|o}AW -0.4462
-2.0518 b}B a|r}ER -0.7399
-1.8181 b}B a|u}AO -1.1952
-1.8183 b}B a|u}AW -1.1186
-2.4776 b}B a|u}OW -0.4742
-3.0222 b}B a|w}AO -0.5131
-2.1241 b}B a|y}EY -0.7674
-1.5348 b}B a}AA -1.5974
-1.5105 b}B a}AE -1.6821
-1.5520 b}B a}AH -1.4234
-2.0293 b}B a}AO -1.8499
-2.8238 b}B a}AY -0.5711
-2.2833 b}B a}EH -1.6892
-1.7656 b}B a}EY -1.2865
-2.9728 b}B a}IH -0.5711
-2.2772 b}B a}_ -0.9233
-2.4211 b}B b}AH -2.1509
-2.9318 b}B c|h}CH -0.2701
-3.3464 b}B c|k}K -0.2701
-3.4289 b}B c|z}CH -0.2701
-3.0078 b}B c}CH -0.5711
-2.7205 b}B c}K -0.9691
-2.2555 b}B d}D -0.7800
-2.0056 b}B e|a}IY -1.1058
-3.0222 b}B e|i}EY -0.5389
-3.5658 b}B e|n}EH -0.2701
-1.4262 b}B e|r}ER -1.7208
-3.5174 b}B e|u}OY -0.5711
-2.4782 b}B e|y}EY -0.5005
-3.5884 b}B e}AE -0.2701
-1.7334 b}B e}AH -1.4068
-1.5082 b}B e}EH -1.7311
-3.0709 b}B e}ER -0.2701
-2.5372 b}B e}EY -0.6876
-1.7946 b}B e}IH -1.2760
-1.7798 b}B e}IY -1.0254
-1.5687 b}B e}_ -1.4299
-2.6118 b}B f}F -0.4462
-2.8791 b}B g}G -0.4462
-2.5177 b}B h}HH -0.6011
-2.2664 b}B h}_ -0.6381
-3.6121 b}B i|l}IY -0.2701
-2.0914 b}B i|r}ER -1.1804
-1.8831 b}B i}AH -1.3361
-1.8661 b}B i}AY -1.2227
-3.5962 b}B i}ER -0.2701
-1.4832 b}B i}IH -1.5324
-1.7052 b}B i}IY -1.2255
-2.9919 b}B i}Y -0.2701
-2.9899 b}B i}_ -0.6680
-2.6413 b}B j}JH -1.3115
-3.4397 b}B j}Y -0.7930
-2.1746 b}B k}K -0.8874
-3.6121 b}B l|e}_ -0.2701
-1.7140 b}B l}AH|L -2.4045
-1.5987 b}B l}L -1.6851
-3.6041 b}B l}UH|L -0.2701
-2.2077 b}B m}M -1.0684
-2.1609 b}B n}N -0.8264
-2.4753 b}B o|i}OY -0.7969
-3.6121 b}B o|k}OW -0.2701
-1.9592 b}B o|o}UH -1.7325
-2.2410 b}B o|o}UW -1.0207
-1.7385 b}B o|r}ER -1.0370
-2.6591 b}B o|u}AH -0.4919
-2.3492 b}B o|u}AO -1.0298
-2.0592 b}B o|u}AW -1.2478
-2.4133 b}B o|u}UH -1.2079
-2.5511 b}B o|u}UW -0.6601
-2.4041 b}B o|w}AW -0.6583
-1.9337 b}B o|w}OW -0.9069
-1.9576 b}B o|y}OY -0.8118
-1.7499 b}B o}AA -1.3054
-1.7633 b}B o}AH -1.1243
-1.6140 b}B o}AO -1.4081
-3.5240 b}B o}AW -0.2701
-3.0686 b}B o}ER -0.7472
-3.5109 b}B o}IH -0.2701
-1.5352 b}B o}OW -1.4168
-3.5658 b}B o}UH -0.5711
-3.4920 b}B o}UW -0.2701
-3.4798 b}B o}W -0.5711
-2.0576 b}B o}_ -0.9691
-2.8791 b}B p}P -0.5711
-2.1588 b}B r}ER -0.8721
-1.4387 b}B r}R -1.8541
-3.3084 b}B r}_ -0.5711
-2.9978 b}B s|c}SH -0.5711
-2.7508 b}B s|h}SH -0.2701
-2.2498 b}B s}S -1.3171
-2.0148 b}B s}Z -1.5131
-2.7882 b}B s}_ -1.1152
-2.5774 b}B t}T -0.7014
-1.6174 b}B u|r}ER -1.5541
-3.0733 b}B u}AA -0.2701
-1.6465 b}B u}AH -1.4402
-3.5045 b}B u}AO -0.7472
-2.0396 b}B u}EH -1.8142
-2.2470 b}B u}IH -1.5711
-2.0034 b}B u}UH -1.4188
-1.9963 b}B u}UW -0.8009
-2.4026 b}B u}W -0.9233
-3.5375 b}B u}Y -0.7472
-1.9320 b}B u}Y|UW -1.0776
-2.4046 b}B u}_ -1.3493
-2.7257 b}B v}V -0.9691
-2.6234 b}B w}W -0.4742
-2.6872 b}B y|r}ER -0.7472
-2.5684 b}B y}AH -0.9233
-2.3412 b}B y}AY -0.7892
-2.1563 b}B y}IH -0.6333
-1.6367 b}B y}IY -1.4516
-2.9672 b}B y}Y -0.3950
-2.7542 b}B z}Z -0.2701
-0.8577 b}B|AH -}_ -0.2701
-0.8679 b}B|AH _}Y|UW -0.2701
-0.8401 b}B|AH n}N -0.2701
-0.6653 b}N|D </s> 0.0000
-0.6786 b}N|D s}Z -0.2701
-0.3835 b}P s}S -0.2701
-0.3780 c|.}K </s> 0.0000
-1.0211 c|c}CH e}EH -0.5711
-1.7726 c|c}CH e}EY -0.2701
-1.7615 c|c}CH e}IY -0.5711
-1.2520 c|c}CH h}_ -0.4462
-0.8767 c|c}CH i}AH -1.2701
-1.2436 c|c}CH i}IH -0.3950
-0.4387 c|c}CH i}IY -1.3529
-1.2606 c|c}CH i}_ -0.8142
-1.7799 c|c}CH y}IH -0.2701
-1.1617 c|c}K a|r}ER -0.7472
-1.0237 c|c}K a}AA -0.9691
-2.1661 c|c}K a}AE -0.2701
-0.8783 c|c}K a}AH -0.9189
-1.7233 c|c}K a}EY -0.8344
-2.1406 c|c}K e|r}ER -0.2701
-1.0258 c|c}K h}_ -1.0896
-2.1145 c|c}K i}IH -0.2701
-1.3445 c|c}K l}L -0.6503
-2.2413 c|c}K o|o}UW -0.5711
-1.7301 c|c}K o|r}ER -0.2701
-2.2413 c|c}K o|u}AH -0.5711
-2.2335 c|c}K o|u}AW -1.5923
-2.2335 c|c}K o|u}UW -0.8721
-1.7198 c|c}K o}AA -0.9691
-1.2460 c|c}K o}AH -1.0482
-1.7174 c|c}K o}AO -1.0482
-0.9223 c|c}K o}OW -1.0962
-2.2247 c|c}K o}_ -0.2701
-1.6950 c|c}K r}R -1.0234
-2.2247 c|c}K u|r}ER -0.5711
-1.0875 c|c}K u}AH -0.7752
-2.2297 c|c}K u}UH -0.2701
-2.1863 c|c}K u}UW -0.2701
-0.8631 c|g}G o|w}AW -0.2701
-0.8422 c|g}G r}R -0.2701
-0.8622 c|g}G y}AY -0.5711
-2.2369 c|h}CH '}AH -0.9691
-1.8017 c|h}CH '}IH -1.6503
-2.8898 c|h}CH '}_ -0.5711
-1.9287 c|h}CH (}_ -1.1995
-2.9107 c|h}CH -}_ -0.2701
-1.2528 c|h}CH </s> 0.0000
-2.2285 c|h}CH a|i}EH -1.5711
-2.2172 c|h}CH a|i}EY -0.7752
-3.1143 c|h}CH a|l}AA -0.2701
-3.1500 c|h}CH a|l}AE -0.5711
-3.1143 c|h}CH a|l}AO -0.9691
-2.5874 c|h}CH a|o}AW -0.5711
-1.9463 c|h}CH a|r}ER -1.0104
-2.9950 c|h}CH a|u}AO -0.5131
-2.3649 c|h}CH a|u}AW -0.4462
-3.0340 c|h}CH a|u}OW -0.2701
-2.5918 c|h}CH a|w}AO -0.4462
-2.9950 c|h}CH a|y}EY -0.2701
-1.5232 c|h}CH a}AA -1.2243
-1.7027 c|h}CH a}AE -1.1995
-1.4352 c|h}CH a}AH -1.0830
-2.9491 c|h}CH a}AO -0.2701
-3.0858 c|h}CH a}AY -0.2701
-2.9491 c|h}CH a}EH -1.0830
-1.9463 c|h}CH a}EY -1.1152
-3.1663 c|h}CH a}OW -0.2701
-2.1020 c|h}CH a}_ -0.7472
-1.9345 c|h}CH b}B -0.6223
-2.0048 c|h}CH c}K -0.6059
-2.1702 c|h}CH d}D -0.4742
-3.0026 c|h}CH e|a}IY -0.9861
-1.5886 c|h}CH e|d}T -1.9647
-3.0464 c|h}CH e|i}EY -0.2701
-1.3163 c|h}CH e|r}ER -1.2591
-2.5845 c|h}CH e|w}UW -0.4250
-3.0381 c|h}CH e|y}EY -0.5711
-1.3999 c|h}CH e}AH -1.3325
-2.3900 c|h}CH e}AO -0.7472
-1.3462 c|h}CH e}EH -1.1071
-2.2062 c|h}CH e}EY -0.4742
-1.4392 c|h}CH e}IH -1.3907
-1.7055 c|h}CH e}IY -0.6169
-1.3286 c|h}CH e}_ -1.2445
-1.8822 c|h}CH f}F -1.0025
-2.4865 c|h}CH g}G -0.5711
-2.3178 c|h}CH h}HH -0.6680
-2.8197 c|h}CH h}_ -0.2701
-2.5745 c|h}CH i|r}ER -0.6680
-1.6691 c|h}CH i}AH -0.6601
-1.6392 c|h}CH i}AY -1.2511
-3.1192 c|h}CH i}EH -0.5711
-1.2855 c|h}CH i}IH -1.3398
-1.3811 c|h}CH i}IY -1.0170
-2.9840 c|h}CH i}_ -0.4462
-2.3001 c|h}CH k}K -0.6223
-2.5802 c|h}CH l}AH|L -0.4462
-1.6927 c|h}CH l}L -0.7002
-1.6957 c|h}CH m}M -1.0183
-2.0585 c|h}CH n}N -0.6011
-2.5816 c|h}CH o|i}OY -0.6223
-3.0635 c|h}CH o|o}UH -0.2701
-2.9950 c|h}CH o|o}UW -0.5254
-2.5431 c|h}CH o|r}ER -0.2701
-2.9733 c|h}CH o|u}AW -0.2701
-2.9733 c|h}CH o|u}UW -0.2701
-2.0327 c|h}CH o|w}AW -0.5711
-2.3640 c|h}CH o|w}OW -0.5711
-3.0259 c|h}CH o|y}OY -0.2701
-2.0930 c|h}CH o}AA -0.7325
-1.9397 c|h}CH o}AH -0.6680
-2.1896 c|h}CH o}AO -0.6680
-1.5750 c|h}CH o}OW -0.8885
-2.7956 c|h}CH p}P -0.2701
-2.2746 c|h}CH r}R -0.4919
-2.2810 c|h}CH s}S -0.4462
-2.9733 c|h}CH s}_ -0.2701
-1.8697 c|h}CH t}T -0.4591
-2.9768 c|h}CH t}_ -0.2701
-2.2141 c|h}CH u|r}ER -0.8584
-1.6684 c|h}CH u}AH -0.8072
-2.0271 c|h}CH u}UH -0.4742
-1.8851 c|h}CH u}UW -0.6011
-2.5759 c|h}CH u}W -0.5711
-2.5606 c|h}CH u}Y|UW -0.2701
-3.0180 c|h}CH u}_ -0.2701
-2.0145 c|h}CH w}W -0.5042
-3.0259 c|h}CH w}_ -0.5711
-2.9950 c|h}CH y}AY -0.5711
-2.3528 c|h}CH y}IH -0.4462
-1.6714 c|h}CH y}IY -1.3115
-2.9425 c|h}CH y}Y -0.2701
-0.8619 c|h}HH </s> 0.0000
-1.9303 c|h}HH a|r}ER -0.2701
-0.9571 c|h}HH a}AA -0.5131
-1.9097 c|h}HH a}AE -0.2701
-0.9562 c|h}HH a}AH -0.6680
-1.9876 c|h}HH a}AY -0.2701
-1.9047 c|h}HH e}AH -0.2701
-1.2080 c|h}HH e}EH -0.4462
-1.8696 c|h}HH i}IH -0.2701
-1.8797 c|h}HH m}M -0.2701
-1.4549 c|h}HH o|w}AW -0.4462
-1.9130 c|h}HH o}AH -0.5711
-0.8727 c|h}HH o}AO -1.2701
-1.0663 c|h}HH o}OW -0.5711
-1.9538 c|h}HH u|r}ER -0.2701
-1.9130 c|h}HH u}AH -0.2701
-1.9575 c|h}HH u}UH -0.2701
-0.3862 c|h}L o}AH -0.2701
-2.1193 c|h}SH </s> 0.0000
-2.4064 c|h}SH a|i}EH -0.2701
-1.4218 c|h}SH a|i}EY -0.6680
-2.3190 c|h}SH a|r}ER -0.4462
-1.9092 c|h}SH a|u}OW -0.6680
-1.0903 c|h}SH a}AA -1.1509
-1.5166 c|h}SH a}AE -0.8400
-1.3206 c|h}SH a}AH -0.5991
-2.3190 c|h}SH a}EY -0.2701
-2.3355 c|h}SH a}_ -0.7472
-2.2775 c|h}SH c}K -0.5711
-2.4184 c|h}SH e|d}T -0.5711
-1.6486 c|h}SH e|r}ER -0.3950
-1.2537 c|h}SH e}AH -0.5389
-0.9389 c|h}SH e}EH -1.0234
-1.4182 c|h}SH e}EY -0.4462
-1.1945 c|h}SH e}IH -0.5488
-2.3047 c|h}SH e}IY -0.2701
-0.9068 c|h}SH e}_ -0.9233
-1.5187 c|h}SH i}AH -0.6680
-1.4009 c|h}SH i}IH -0.4462
-1.6507 c|h}SH i}IY -0.9233
-2.2302 c|h}SH m}M -0.2701
-2.1985 c|h}SH n}N -0.2701
-2.3985 c|h}SH o|i}OY -0.2701
-2.3759 c|h}SH o|u}UW -0.2701
-1.8742 c|h}SH o}AA -0.5711
-2.2879 c|h}SH o}AH -0.2701
-2.2954 c|h}SH o}AO -0.5711
-2.2602 c|h}SH o}OW -0.2701
-2.3632 c|h}SH o}_ -0.2701
-2.2134 c|h}SH r}R -0.2701
-1.6775 c|h}SH s}_ -0.3950
-2.3704 c|h}SH u}UH -0.5711
-1.6633 c|h}SH u}UW -0.8142
-2.3158 c|h}SH w}W -0.2701
-2.3142 c|h}SH y}IY -0.2701
-1.2982 c|h}_ </s> 0.0000
-1.3838 c|h}_ a|r}ER -0.2701
-1.4093 c|h}_ a|u}AW -0.2701
-1.3519 c|h}_ a}AH -0.2701
-1.3678 c|h}_ c}K -0.2701
-1.3558 c|h}_ e|r}ER -0.2701
-1.3491 c|h}_ e}EH -0.2701
-1.3917 c|h}_ e}EY -0.2701
-1.3348 c|h}_ n}N -0.2701
-1.3414 c|h}_ r}R -0.2701
-1.3491 c|h}_ t}T -0.5131
-1.8799 c|i}CH a|o}AW -0.2701
-1.1160 c|i}CH a|r}ER -0.4162
-1.1114 c|i}CH a}AA -0.4462
-1.8388 c|i}CH a}AE -0.2701
-0.5767 c|i}CH a}AH -1.0183
-1.8665 c|i}CH a}AO -0.7472
-1.1099 c|i}CH e}EH -0.7472
-1.8082 c|i}CH e}_ -0.2701
-0.6941 c|i}CH o}OW -0.7674
-1.1154 c|i}CH u}UW -0.4919
-1.9106 c|i}SH a|r}ER -0.2701
-1.8843 c|i}SH a}AA -0.2701
-0.4717 c|i}SH a}AH -1.7775
-1.9266 c|i}SH a}AO -0.2701
-1.9167 c|i}SH a}_ -0.5711
-1.8826 c|i}SH e|r}ER -0.2701
-1.1749 c|i}SH e}AH -1.7014
-0.9218 c|i}SH o|u}AH -1.5923
-0.9182 c|i}SH o}AH -1.1732
-1.0319 c|i}SH o}_ -1.1732
-1.4017 c|i}SH u}AH -0.5711
-2.6272 c|k}K '|s}Z -0.2701
-2.8251 c|k}K '}AH -0.2701
-1.5525 c|k}K '}_ -2.1334
-1.7210 c|k}K (}_ -1.7014
-2.0695 c|k}K -}_ -0.3670
-0.9308 c|k}K </s> 0.0000
-2.8387 c|k}K _}S -0.2701
-1.8195 c|k}K a|r}ER -1.0940
-2.7543 c|k}K a|y}EY -0.2701
-1.8049 c|k}K a}AA -0.8142
-2.6045 c|k}K a}AE -0.2701
-1.6525 c|k}K a}AH -0.7772
-2.2639 c|k}K a}EY -0.8721
-2.0772 c|k}K a}IH -1.4462
-1.8077 c|k}K b}B -0.7209
-2.8456 c|k}K c}_ -0.2701
-2.2211 c|k}K d}D -0.8142
-1.7506 c|k}K e|d}T -1.8933
-1.3484 c|k}K e|r}ER -1.4742
-1.4992 c|k}K e}AH -1.6809
-1.5925 c|k}K e}EH -0.6851
-1.8142 c|k}K e}IH -1.1839
-1.6026 c|k}K e}IY -0.8721
-1.3768 c|k}K e}_ -1.3202
-1.9171 c|k}K f}F -0.8016
-2.5946 c|k}K g}G -0.4462
-1.6012 c|k}K h}HH -0.9485
-2.0506 c|k}K h}_ -0.4462
-2.0523 c|k}K i}AH -0.6381
-2.6534 c|k}K i}AY -0.2701
-1.5898 c|k}K i}IH -1.5564
-1.7241 c|k}K i}IY -1.0860
-2.2993 c|k}K i}Y -0.2701
-2.7010 c|k}K j}JH -0.2701
-2.8285 c|k}K k|n}N -0.5711
-1.6134 c|k}K l}AH|L -1.5964
-1.5892 c|k}K l}L -1.1514
-1.5406 c|k}K m}M -1.1581
-1.5363 c|k}K n}N -0.9822
-2.3013 c|k}K o|o}UW -0.2701
-2.6960 c|k}K o|r}ER -0.2701
-2.0808 c|k}K o|u}AW -1.1732
-2.7688 c|k}K o|w}AW -0.2701
-2.2558 c|k}K o}AA -0.2701
-1.9155 c|k}K o}AH -0.7472
-1.9175 c|k}K o}AO -1.0482
-1.6561 c|k}K o}OW -0.8721
-2.2885 c|k}K o}_ -0.2701
-1.9118 c|k}K p}P -0.7138
-2.7459 c|k}K r}ER -0.2701
-1.7157 c|k}K r}R -0.5711
-2.0620 c|k}K s|h}SH -0.2701
-1.3465 c|k}K s}S -1.3927
-2.6580 c|k}K t|h}TH -0.2701
-1.8001 c|k}K t}T -0.5509
-1.8129 c|k}K u}AH -0.8441
-2.7295 c|k}K u}Y|UW -0.2701
-2.2442 c|k}K v}V -0.5711
-1.7349 c|k}K w}W -0.8422
-2.7215 c|k}K y}IH -0.2701
-1.7346 c|k}K y}IY -1.5488
-2.0754 c|k}K y}Y -0.8142
-0.3853 c|k}_ b}B -0.2701
-1.2244 c|q}K '}_ -0.2701
-0.1972 c|q}K </s> 0.0000
-1.2196 c|q}K u}AH -0.5711
-0.3828 c|y}S l}L -0.5711
-2.1236 c|z}CH (}_ -0.2701
-0.9738 c|z}CH </s> 0.0000
-2.2354 c|z}CH a|j}AY -0.4462
-1.6854 c|z}CH a|r}ER -0.2701
-1.6720 c|z}CH a}AA -0.5711
-0.8357 c|z}CH a}AE -1.6503
-1.6691 c|z}CH a}AH -0.3950
-2.1955 c|z}CH a}EH -0.2701
-2.1286 c|z}CH e|r}ER -0.5711
-0.9255 c|z}CH e}EH -0.8537
-1.6806 c|z}CH e}IH -0.2701
-1.0427 c|z}CH k}K -0.7930
-1.6673 c|z}CH m}M -0.4462
-2.0979 c|z}CH n}N -0.5711
-1.6905 c|z}CH o|r}ER -0.2701
-2.1572 c|z}CH o}AO -0.2701
-0.6153 c|z}CH y}IH -1.0160
-2.1681 c|z}CH y}IY -0.2701
-0.3847 c|z}Z a}AA -0.8721
-0.7464 c|z}_ a}AE -0.5711
-1.2582 c|z}_ e|r}ER -0.2701
-0.7433 c|z}_ e}EH -0.3950
-0.7471 c|z}_ e}IH -0.8721
-1.2799 c|z}_ y}IH -0.2701
-1.1239 c}AE|K a}AH -0.3950
-1.1591 c}AE|K e|w}UW -0.2701
-1.1323 c}AE|K e}AH -1.3115
-1.1370 c}AE|K i}AH -0.5711
-1.1176 c}AE|K i}IH -0.9069
-1.1137 c}AE|K n}N -0.5711
-1.7119 c}AH c}G -0.2701
-1.1491 c}AH c}K -1.2701
-1.6520 c}AH c}S -0.2701
-1.6169 c}AH d}D -0.2701
-0.9183 c}AH e}_ -1.2913
-1.6902 c}AH g|u}G -0.6381
-1.6309 c}AH g}G -0.9391
-0.9272 c}AH h}_ -0.6961
-1.6239 c}AH k}K -0.9281
-1.1376 c}AH l}L -0.7472
-1.6718 c}AH o}_ -0.2701
-1.1663 c}AH q|u}K -0.2701
-1.6758 c}AH q}K -1.6125
-1.6550 c}AH z}Z -0.5711
-1.8087 c}CH '}IH -0.8721
-2.2065 c}CH (}_ -0.5711
-1.7329 c}CH </s> 0.0000
-2.3427 c}CH c}AH -0.5711
-2.3401 c}CH e|j}EY -0.2701
-1.5548 c}CH e|r}ER -0.5888
-0.6297 c}CH e}EH -1.2701
-1.2244 c}CH e}EY -0.4742
-1.5617 c}CH e}IH -0.2701
-1.5632 c}CH e}IY -1.0234
-2.1795 c}CH e}_ -0.7472
-1.8133 c}CH h}AH -0.6680
-2.2445 c}CH h}HH -0.5711
-2.3074 c}CH i|r}ER -0.2701
-1.5617 c}CH i}AH -0.5711
-2.2605 c}CH i}AY -0.2701
-0.7707 c}CH i}IH -0.7275
-0.6953 c}CH i}IY -0.9725
-2.2211 c}CH k}K -0.5711
-2.1768 c}CH n}N -0.2701
-2.3002 c}CH t}_ -0.2701
-2.2583 c}CH y}IY -0.2701
-0.9722 c}G a}AA -0.2701
-0.9671 c}G i}IH -0.5711
-0.4461 c}G l}L -0.2701
-0.8280 c}IY </s> 0.0000
-0.8504 c}IY c}K -0.2701
-0.8608 c}IY q}K -0.2701
-3.3293 c}K '}AH -0.2701
-2.1491 c}K '}_ -1.8142
-2.1251 c}K (}_ -1.6563
-3.1045 c}K -}_ -0.5711
-3.3814 c}K .}S -0.2701
-1.6480 c}K </s> 0.0000
-3.2613 c}K _}AH -0.2701
-2.8939 c}K _}AO|R -0.2701
-2.8330 c}K _}W -0.7472
-1.7557 c}K _}Y -2.0279
-2.6302 c}K a|i}EH -0.8721
-2.2885 c}K a|i}EY -0.6776
-2.8762 c}K a|l}AA -1.2701
-2.8916 c}K a|l}AE -0.7472
-3.3612 c}K a|l}AO -0.2701
-2.8389 c}K a|o}AW -0.5711
-2.1463 c}K a|r}ER -0.7820
-2.1623 c}K a|u}AO -1.0426
-2.6204 c}K a|u}AW -0.4462
-2.8389 c}K a|u}OW -0.2701
-2.3859 c}K a|w}AO -0.6381
-2.1623 c}K a|y}EY -0.4809
-1.4323 c}K a}AA -1.7068
-1.4902 c}K a}AE -1.7978
-1.4212 c}K a}AH -1.8157
-1.9416 c}K a}AO -1.6412
-3.3233 c}K a}AY -0.5711
-1.7102 c}K a}EH -2.0025
-3.3546 c}K a}ER -0.2701
-1.4689 c}K a}EY -1.6725
-2.7974 c}K a}IH -0.5711
-3.3746 c}K a}IY -0.2701
-1.9726 c}K a}_ -1.6223
-2.5367 c}K b}B -0.6318
-3.0694 c}K c|h}CH -0.2701
-2.6490 c}K c|i}CH -0.8142
-2.8784 c}K c}AH -0.4462
-2.2716 c}K c}S -1.4420
-2.4030 c}K c}Y -1.5711
-2.4104 c}K d}D -0.8302
-2.8234 c}K e|a}IY -0.7472
-3.2884 c}K e|d}T -0.2701
-2.6796 c}K e|r}ER -0.2701
-2.9676 c}K e}AH -0.5711
-2.3139 c}K e}EH -0.5463
-3.0276 c}K e}IY -0.2701
-2.6340 c}K e}_ -0.5711
-2.5569 c}K f}F -0.7707
-2.9703 c}K g}G -0.2701
-3.1194 c}K g}JH -0.2701
-2.1759 c}K h}AH -1.5005
-2.1971 c}K h}HH -0.6125
-1.3398 c}K h}_ -1.7775
-3.2118 c}K i|r}ER -0.5711
-3.0067 c}K i}AH -0.9691
-2.5728 c}K i}AY -0.2701
-2.2335 c}K i}IH -0.6961
-1.9588 c}K i}IY -0.8499
-2.8139 c}K i}_ -0.4462
-3.1232 c}K j}JH -0.5711
-3.4175 c}K k}HH -0.7472
-3.4328 c}K l|e}IY -0.2701
-1.8824 c}K l}AH|L -1.6125
-1.3805 c}K l}L -1.7126
-3.4328 c}K m|u}AH -0.2701
-2.3133 c}K m}M -0.9573
-2.2988 c}K n}N -0.8016
-3.4175 c}K o|.}OW -0.2701
-2.1648 c}K o|i}OY -0.8441
-3.4328 c}K o|l}AH -0.8721
-3.4027 c}K o|n}AH -0.2701
-2.2310 c}K o|o}UH -1.8142
-2.1092 c}K o|o}UW -1.0264
-1.9393 c}K o|r}ER -1.0705
-2.2930 c}K o|u}AH -1.0994
-1.9162 c}K o|u}AO -1.6680
-2.0600 c}K o|u}AW -1.6231
-2.3062 c}K o|u}UH -1.3115
-2.2199 c}K o|u}UW -0.7395
-2.4853 c}K o|w}AW -0.6892
-2.8214 c}K o|w}OW -0.3670
-2.2266 c}K o|y}OY -0.5463
-1.3490 c}K o}AA -1.8075
-3.4175 c}K o}AE -0.2701
-1.4037 c}K o}AH -2.0104
-1.3755 c}K o}AO -1.7372
-3.4027 c}K o}ER -0.2701
-3.3355 c}K o}IH -0.5711
-1.2905 c}K o}OW -1.6284
-3.3172 c}K o}UW -0.2701
-3.3055 c}K o}W -0.6680
-2.1569 c}K o}_ -1.0625
-2.8102 c}K p|h}F -0.5005
-2.5437 c}K p}P -0.4462
-2.6659 c}K q|u}W -0.8344
-2.1610 c}K r}ER -0.9468
-1.3280 c}K r}R -1.8624
-3.1387 c}K r}_ -0.5711
-2.5749 c}K s|h}SH -0.4162
-3.1548 c}K s|s}S -0.5711
-1.8882 c}K s}S -1.6040
-3.4328 c}K t|.}T -0.2701
-3.0594 c}K t|h}TH -0.2701
-2.1148 c}K t|i}SH -2.1839
-2.8939 c}K t|u}CH -0.2701
-3.4328 c}K t|u}SH -0.2701
-2.2953 c}K t}CH -1.8344
-2.5042 c}K t}SH -1.0104
-1.8072 c}K t}T -1.7758
-3.4328 c}K t}T|OW -0.2701
-2.2902 c}K t}_ -1.2079
-1.8785 c}K u|r}ER -1.1821
-3.4175 c}K u}AA -0.2701
-1.4672 c}K u}AH -1.4820
-3.3293 c}K u}AO -0.2701
-2.4960 c}K u}IH -0.9233
-2.3708 c}K u}UH -1.2843
-1.9015 c}K u}UW -0.7532
-2.2942 c}K u}W -0.8142
-2.2364 c}K u}Y -1.0940
-1.7312 c}K u}Y|UW -1.2488
-2.4862 c}K u}_ -0.9069
-2.4309 c}K v}V -0.4462
-2.2705 c}K w}W -0.6125
-3.2459 c}K w}_ -0.2701
-2.7974 c}K y}IH -0.4462
-2.1451 c}K y}IY -0.7472
-3.3172 c}K z}S -0.2701
-2.7577 c}K z}Z -0.4462
-2.4774 c}S '}IY -0.5711
-2.8421 c}S '}_ -0.2701
-2.0961 c}S (}IY -0.9691
-3.0152 c}S -}IY -0.5711
-2.9938 c}S .}IY -0.2701
-2.5886 c}S </s> 0.0000
-2.9380 c}S _}EH -0.2701
-1.6138 c}S _}IY -0.8592
-2.4561 c}S _}W -0.7472
-2.9407 c}S _}Y -0.2701
-2.9407 c}S a|i}EH -0.2701
-2.8956 c}S a|i}EY -0.2701
-2.9407 c}S a|o}AW -0.2701
-2.7447 c}S a}AA -0.5711
-2.7282 c}S a}AH -0.2701
-2.8839 c}S a}EH -0.2701
-2.8484 c}S a}_ -0.8721
-2.0864 c}S e|a}IY -0.8933
-1.4719 c}S e|d}T -2.0729
-3.0215 c}S e|n}IH -0.2701
-1.3587 c}S e|r}ER -1.1374
-1.1895 c}S e}AH -1.5417
-1.1033 c}S e}EH -1.6892
-1.6980 c}S e}EY -0.7689
-1.1902 c}S e}IH -1.5076
-1.3614 c}S e}IY -1.1559
-0.9614 c}S e}_ -1.8253
-2.7963 c}S h}HH -0.2701
-2.2020 c}S h}_ -0.2701
-1.8183 c}S i|r}ER -1.1509
-1.2580 c}S i}AH -1.4710
-1.4113 c}S i}AY -1.3138
-1.0659 c}S i}IH -1.5749
-1.1171 c}S i}IY -1.1328
-2.2297 c}S i}Y -0.6680
-2.9077 c}S i}_ -0.7472
-1.8029 c}S k}K -0.6381
-2.6941 c}S l}L -0.2701
-2.7187 c}S m}M -0.2701
-2.8636 c}S o|r}ER -0.2701
-2.7888 c}S o}AH -0.2701
-2.7549 c}S o}OW -0.2701
-2.9650 c}S o}W -0.2701
-2.8839 c}S o}_ -0.2701
-2.9077 c}S r}ER -0.2701
-2.4451 c}S s}_ -0.2701
-2.9968 c}S y|r}ER -0.2701
-2.0924 c}S y}AH -0.6680
-1.6537 c}S y}AY -1.1354
-1.6521 c}S y}IH -1.0234
-1.2587 c}S y}IY -1.5691
-3.0215 c}S z|a}AA -0.2701
-1.6512 c}SH a}AA -0.2701
-1.6465 c}SH a}AH -0.2701
-1.6585 c}SH e}AH -0.2701
-1.6688 c}SH e}IY -0.7472
-1.7100 c}SH e}Y -0.2701
-0.9263 c}SH e}_ -1.0298
-1.6376 c}SH i}IH -0.2701
-0.3945 c}SH i}IY -1.0482
-0.9372 c}SH i}Y -0.4919
-0.9711 c}T h}_ -0.2701
-0.9938 c}T t}S -0.2701
-0.9899 c}T z}S -0.8142
-0.9765 c}T z}Z -0.2701
-0.3838 c}TH e}EH -0.2701
-1.4746 c}T|S a}AH -0.3950
-1.4804 c}T|S e}AH -0.5711
-0.9596 c}T|S e}IH -0.2701
-0.1880 c}T|S k}K -1.8383
-0.9711 c}Y h}_ -0.2701
-0.9817 c}Y u|r}ER -0.7094
-0.9708 c}Y u}AH -1.1354
-0.9741 c}Y u}UW -0.8563
-1.4246 c}_ </s> 0.0000
-1.4853 c}_ a}AE -0.2701
-1.5105 c}_ a}EH -0.2701
-1.4601 c}_ l}L -0.2701
-1.4927 c}_ o}AA -0.2701
-1.4780 c}_ o}OW -0.2701
-0.5005 c}_ q|u}K -1.0104
-1.4761 c}_ s}Z -0.2701
-0.9769 c}_ t}T -0.6680
-2.0613 d|g}JH a}AH -0.2701
-2.0889 d|g}JH c}K -0.2701
-2.0670 d|g}JH d}D -0.2701
-1.0741 d|g}JH e|r}ER -0.7325
-1.0759 d|g}JH e}AH -0.9932
-2.0565 d|g}JH e}EH -0.2701
-1.0050 d|g}JH e}IH -1.3115
-2.1076 d|g}JH e}IY -0.2701
-0.7939 d|g}JH e}_ -1.4496
-1.6366 d|g}JH h}HH -0.2701
-1.0716 d|g}JH i}IH -1.1451
-1.6273 d|g}JH i}IY -0.5711
-2.0768 d|g}JH k}K -0.9691
-1.2631 d|g}JH l}L -0.8721
-1.1586 d|g}JH m}M -0.7820
-2.1013 d|g}JH o}AO -0.2701
-2.0869 d|g}JH p}P -0.2701
-2.0435 d|g}JH r}R -0.2701
-2.0518 d|g}JH s}S -0.2701
-2.1466 d|g}JH u|r}ER -0.2701
-1.4205 d|g}JH w}W -0.3950
-1.4203 d|g}JH y}IY -0.9691
-1.6761 d|z}JH e|r}ER -0.2701
-1.6694 d|z}JH e}EH -0.2701
-1.6946 d|z}JH e}IH -0.2701
-1.6929 d|z}JH h}_ -0.4462
-1.6946 d|z}JH i}AH -0.2701
-0.4322 d|z}JH i}IH -0.8985
-0.7104 d|z}JH i}IY -0.4462
-1.6813 d|z}JH k}K -0.2701
-1.6813 d|z}JH o}OW -0.2701
-1.7380 d|z}JH w}V -0.2701
-1.7208 d|z}JH y}IH -0.2701
-0.3828 d}AH l}L -1.7707
-0.3780 d}B </s> 0.0000
-1.6985 d}D '|s}Z -2.4769
-3.5623 d}D '}AH -0.7472
-3.5429 d}D '}IH -0.2701
-3.1237 d}D '}IY -0.4742
-2.9937 d}D '}_ -0.7591
-2.5512 d}D (}IY -0.8142
-1.8071 d}D (}_ -2.7374
-2.2146 d}D -}_ -0.5974
-2.8955 d}D .}IY -0.4919
-1.4630 d}D </s> 0.0000
-2.4694 d}D _}AH -0.7752
-3.5966 d}D _}EY -0.2701
-2.4164 d}D _}IY -0.6731
-3.6186 d}D _}R -0.2701
-3.4677 d}D _}W -0.2701
-2.8693 d}D _}Y -0.7472
-2.4689 d}D a|i}EH -0.9069
-2.3004 d}D a|i}EY -0.7878
-2.8693 d}D a|o}AW -0.7472
-2.2105 d}D a|r}ER -0.8094
-2.5335 d}D a|u}AO -0.8840
-2.8587 d}D a|u}AW -0.5463
-3.4839 d}D a|u}OW -0.2701
-3.0824 d}D a|w}AO -0.6223
-1.8037 d}D a|y}EY -1.2275
-1.7067 d}D a}AA -1.2444
-1.7202 d}D a}AE -1.3691
-1.5095 d}D a}AH -1.7122
-2.6073 d}D a}AO -0.8721
-2.7081 d}D a}EH -1.3115
-1.7466 d}D a}EY -1.4604
-2.7090 d}D a}IH -1.0830
-3.6112 d}D a}IY -0.5711
-2.3389 d}D a}_ -0.9971
-1.9232 d}D b}B -0.9824
-2.5915 d}D c|h}CH -0.5711
-3.3990 d}D c|k}K -0.2701
-2.2396 d}D c}K -0.9632
-3.2738 d}D c}S -0.2701
-2.5577 d}D d}AH -2.2478
-2.6438 d}D d}D -0.3670
-2.6199 d}D d}_ -1.0700
-2.3513 d}D e|a}IY -1.0195
-2.8733 d}D e|i}EY -0.2701
-3.6262 d}D e|n}EH -0.5711
-3.6747 d}D e|n}_ -0.2701
-1.5799 d}D e|r}ER -1.7366
-2.8899 d}D e|u}OY -0.7224
-2.3537 d}D e|w}UW -0.6417
-2.8706 d}D e|y}EY -0.5711
-1.5038 d}D e}AH -1.8103
-1.6524 d}D e}EH -1.7160
-2.1794 d}D e}EY -0.7850
-1.5737 d}D e}IH -1.8522
-1.7845 d}D e}IY -1.2711
-1.5610 d}D e}_ -1.7328
-2.1715 d}D f}F -1.0342
-2.3237 d}D g}G -0.9301
-3.3398 d}D g}JH -0.5711
-3.6262 d}D h}AH -0.2701
-1.9864 d}D h}HH -0.9839
-2.0312 d}D h}_ -0.8551
-3.6747 d}D i|c}AY -1.1152
-3.6262 d}D i|g}AY -0.5711
-2.5341 d}D i|r}ER -0.9777
-2.7457 d}D i}AE -1.0482
-1.8733 d}D i}AH -1.4769
-3.5895 d}D i}AO -0.2701
-1.8432 d}D i}AY -1.2964
-1.5013 d}D i}IH -1.9187
-1.5889 d}D i}IY -1.5375
-2.3026 d}D i}Y -0.5974
-2.8522 d}D i}_ -0.3950
-3.0156 d}D j}JH -0.2701
-3.0802 d}D j}Y -0.5711
-2.1992 d}D k}K -0.8933
-3.3600 d}D l|l}L -0.2701
-1.8988 d}D l}AH|L -1.6787
-1.6610 d}D l}L -1.5727
-1.8840 d}D m}M -1.3365
-1.8326 d}D n}N -1.0877
-3.6747 d}D o|h}F -0.2701
-2.5372 d}D o|i}OY -0.6381
-3.6747 d}D o|l}AO -0.2701
-3.5243 d}D o|o}UH -0.2701
-2.3033 d}D o|o}UW -0.8611
-1.9710 d}D o|r}ER -0.7867
-2.5335 d}D o|u}AH -1.2981
-2.8801 d}D o|u}AO -0.8142
-2.4006 d}D o|u}AW -0.8537
-3.1049 d}D o|u}UH -0.5711
-2.3012 d}D o|u}UW -0.7472
-1.9167 d}D o|w}AW -1.3295
-2.2224 d}D o|w}OW -0.9391
-2.6230 d}D o|y}OY -0.4084
-1.8422 d}D o}AA -1.3923
-1.6762 d}D o}AH -1.3466
-1.6873 d}D o}AO -1.4528
-2.7457 d}D o}AW -0.5711
-3.6747 d}D o}D|OW -0.2701
-2.7437 d}D o}IH -0.9233
-1.6746 d}D o}OW -1.5438
-2.3111 d}D o}UW -0.7782
-3.5366 d}D o}W -0.2701
-2.8395 d}D o}_ -1.5923
-3.6418 d}D p|f}F -0.2701
-3.4082 d}D p|h}F -0.5711
-2.2390 d}D p}P -0.7472
-2.8640 d}D q|u}K -1.0482
-2.6110 d}D q}K -1.4162
-3.6747 d}D r}AA|K -0.2701
-2.3023 d}D r}ER -0.7752
-1.5229 d}D r}R -1.6847
-3.0232 d}D r}_ -0.5711
-2.8574 d}D s|c}SH -1.1152
-2.2108 d}D s|h}SH -0.7472
-3.0309 d}D s|s}S -0.2701
-1.8352 d}D s}S -1.2623
-1.7302 d}D s}Z -1.9077
-2.5106 d}D t|h}TH -0.5711
-2.0474 d}D t}T -0.9286
-2.4011 d}D t}_ -0.9233
-3.5557 d}D u|i}UW -0.2701
-2.2182 d}D u|r}ER -0.6721
-1.7571 d}D u}AH -1.3856
-3.5623 d}D u}AO -0.9691
-2.4726 d}D u}IH -1.2243
-2.3001 d}D u}UH -1.5488
-1.8274 d}D u}UW -1.1345
-2.6184 d}D u}W -0.4919
-2.6102 d}D u}Y|UW -0.6823
-3.0674 d}D u}_ -0.3950
-2.1699 d}D v}V -1.3736
-3.5124 d}D w}V -0.2701
-1.8589 d}D w}W -1.2023
-3.0716 d}D w}_ -0.7472
-2.8801 d}D y}AH -0.3950
-2.0678 d}D y}AY -1.0401
-2.2990 d}D y}IH -0.7996
-1.7106 d}D y}IY -1.5403
-2.3965 d}D y}Y -0.4809
-2.2117 d}D z}Z -0.7308
-1.7710 d}JH _}Y -0.2701
-1.7308 d}JH i}AH -0.7472
-1.7626 d}JH i}_ -0.9691
-1.7646 d}JH o|o}UW -0.2701
-1.7545 d}JH r}_ -0.2701
-1.7563 d}JH u|r}ER -0.7472
-0.5872 d}JH u}AH -1.4084
-1.7589 d}JH u}UH -0.8142
-0.5253 d}JH u}UW -0.9233
-1.2409 d}JH u}Y|UW -1.1152
-1.7684 d}JH u}_ -0.2701
-1.5307 d}T '}_ -0.2701
-0.6287 d}T </s> 0.0000
-1.0076 d}T a}AH -0.5711
-1.5037 d}T e|r}ER -0.2701
-1.5123 d}T e}AH -0.2701
-0.7810 d}T i}IH -0.2701
-1.5065 d}T i}IY -0.2701
-1.4956 d}T s}S -0.2701
-1.5172 d}T u}AH -0.2701
-1.8091 d}_ '|s}Z -0.5711
-1.5838 d}_ (}_ -1.2701
-2.2795 d}_ -}_ -0.2701
-1.3223 d}_ </s> 0.0000
-2.1755 d}_ a}AH -0.2701
-2.3022 d}_ a}IH -0.2701
-2.2017 d}_ b}B -0.4462
-2.2628 d}_ c|h}CH -0.4462
-0.7189 d}_ d}D -1.3968
-2.1850 d}_ e|r}ER -0.7930
-1.7994 d}_ e}AH -0.9391
-2.1688 d}_ e}EH -0.2701
-2.2312 d}_ e}IH -0.5711
-2.1395 d}_ e}_ -0.4462
-1.8074 d}_ f}F -0.8142
-2.2312 d}_ h}HH -0.2701
-2.2312 d}_ i}AH -0.5711
-2.1507 d}_ i}IH -0.6503
-1.7927 d}_ i}IY -0.8142
-0.9510 d}_ j}JH -0.8584
-1.7944 d}_ k}K -0.7472
-1.7737 d}_ l}L -0.6851
-2.1675 d}_ m}M -0.5131
-1.5730 d}_ n}N -0.6680
-2.2847 d}_ o|r}ER -0.2701
-2.2251 d}_ o}AH -0.6680
-2.2118 d}_ p}P -0.5711
-1.8644 d}_ r|z}JH -0.2701
-2.3187 d}_ r}ER -0.5711
-2.2579 d}_ s|h}SH -0.5711
-1.7801 d}_ s}S -0.7472
-1.7922 d}_ s}Z -0.9691
-2.2579 d}_ t|h}TH -0.2701
-0.7184 d}_ t}T -1.4898
-2.2251 d}_ u}AH -0.2701
-2.2531 d}_ w}W -0.5711
-2.2515 d}_ y}IY -0.8721
-0.3912 e|(}AY 2|)}_ -0.2701
-2.2650 e|a}IY '|s}Z -0.7472
-2.6132 e|a}IY (}_ -0.2701
-1.3637 e|a}IY </s> 0.0000
-1.8063 e|a}IY b}B -0.5711
-1.4523 e|a}IY c|h}CH -0.9479
-1.5926 e|a}IY c}K -0.6803
-2.2736 e|a}IY c}S -1.2243
-1.4895 e|a}IY d}D -0.9468
-2.7855 e|a}IY d}_ -0.2701
-2.7705 e|a}IY f|f}F -0.2701
-1.6551 e|a}IY f}F -0.5711
-1.9359 e|a}IY g|u}G -1.1451
-1.2821 e|a}IY g}G -0.9233
-1.9265 e|a}IY g}JH -0.5711
-2.0560 e|a}IY h}HH -0.3670
-1.9155 e|a}IY h}_ -0.3950
-1.4092 e|a}IY k}K -1.1288
-1.6615 e|a}IY l|l}L -0.8721
-1.1194 e|a}IY l}L -1.1811
-2.8078 e|a}IY m|m}M -0.2701
-1.4882 e|a}IY m}M -1.1557
-2.3049 e|a}IY n|n}N -0.3950
-1.2027 e|a}IY n}N -1.0667
-2.7663 e|a}IY p|h}F -0.2701
-2.8148 e|a}IY p|p}P -0.2701
-1.5924 e|a}IY p}P -0.5946
-2.7601 e|a}IY q}K -0.4462
-1.2272 e|a}IY r}R -0.8622
-2.7439 e|a}IY r}_ -0.5711
-2.0629 e|a}IY s|h}SH -0.5333
-1.3081 e|a}IY s}S -1.1758
-1.1611 e|a}IY s}Z -1.1249
-2.0785 e|a}IY t|h}DH -0.5711
-1.5429 e|a}IY t|h}TH -0.6089
-1.8238 e|a}IY t|t}T -0.5131
-2.3035 e|a}IY t}CH -1.1152
-1.1602 e|a}IY t}T -1.2073
-2.7663 e|a}IY t}_ -0.2701
-1.3419 e|a}IY v}V -1.1254
-2.6971 e|a}IY w}W -0.3670
-2.7943 e|a}IY w}_ -0.2701
-2.6953 e|a}IY y}IY -0.2701
-1.6584 e|a}IY z}Z -0.5042
-0.3828 e|b}_ l}L -0.2701
-0.4499 e|d}T (}_ -1.6766
-0.2130 e|d}T </s> 0.0000
-1.7795 e|i}EY '|s}Z -0.7472
-1.5528 e|i}EY (}_ -0.8721
-1.7926 e|i}EY -}_ -0.2701
-0.8026 e|i}EY </s> 0.0000
-1.7598 e|i}EY a}AH -0.5711
-2.3368 e|i}EY c|h}HH -0.2701
-1.7626 e|i}EY d}D -0.2701
-1.7630 e|i}EY e|r}ER -0.7472
-0.9979 e|i}EY g|h}_ -1.2046
-1.0929 e|i}EY g}G -0.6223
-2.3266 e|i}EY g}ZH -0.4462
-1.7658 e|i}EY i}IY -0.5711
-1.5740 e|i}EY j}JH -0.7472
-2.3403 e|i}EY j}ZH -0.5711
-1.3097 e|i}EY k}K -0.7472
-1.7970 e|i}EY l|l}L -0.3670
-1.5463 e|i}EY l}L -0.7472
-2.1639 e|i}EY m}M -0.2701
-2.3036 e|i}EY n|g}NG -0.2701
-1.0873 e|i}EY n}N -0.6680
-2.3133 e|i}EY n}NG -0.5711
-2.1902 e|i}EY o}OW -0.2701
-2.2027 e|i}EY p}P -0.2701
-1.4088 e|i}EY r}R -0.7472
-1.7862 e|i}EY s|h}SH -0.2701
-1.7990 e|i}EY s|s}S -0.2701
-1.7553 e|i}EY s}S -0.2701
-2.1853 e|i}EY s}Z -0.2701
-1.4117 e|i}EY t}T -0.2701
-1.7975 e|i}EY y}Y -0.2701
-0.7689 e|j}EY </s> 0.0000
-1.4922 e|j}EY a}AA -0.2701
-1.5209 e|j}EY c|h}CH -0.2701
-1.4899 e|j}EY d}D -0.2701
-1.0022 e|j}EY e}EH -0.7472
-1.5090 e|j}EY e}IH -0.2701
-1.0061 e|j}EY k}K -0.5711
-1.4832 e|j}EY m}M -0.2701
-1.4695 e|j}EY n}N -0.4462
-1.5131 e|j}EY o}AA -0.2701
-1.4810 e|j}EY s}S -0.2701
-0.3780 e|l}AH </s> 0.0000
-0.3835 e|m}EH s}S -0.2701
-0.3853 e|m}IH b}B -0.5711
-0.9564 e|n}AH e}_ -0.5711
-0.9718 e|n}AH f}F -0.2701
-0.9798 e|n}AH g}JH -0.2701
-0.9906 e|n}AH k|n}N -0.2701
-0.3830 e|n}AO r}R -0.2701
-1.1982 e|n}EH a}AH -0.2701
-0.4574 e|n}EH d}D -0.4919
-1.2333 e|n}EH d}JH -0.2701
-1.2056 e|n}EH g}G -0.2701
-1.1968 e|n}EH t}T -0.2701
-0.3874 e|n}IH c}S -0.2701
-0.3780 e|n}_ </s> 0.0000
-1.3421 e|r}ER '|s}Z -2.7325
-2.6926 e|r}ER '}_ -0.4462
-1.4284 e|r}ER (}_ -2.5294
-2.3194 e|r}ER -}_ -0.3792
-1.1508 e|r}ER </s> 0.0000
-3.3663 e|r}ER _}EH -0.2701
-3.5401 e|r}ER _}R|T -0.5711
-3.2895 e|r}ER a|i}EY -0.2701
-3.1770 e|r}ER a|r}ER -0.2701
-2.9305 e|r}ER a|u}AO -0.2701
-2.9341 e|r}ER a|u}AW -0.2701
-3.3712 e|r}ER a|u}OW -0.2701
-3.3239 e|r}ER a|y}EY -0.2701
-1.8937 e|r}ER a}AA -0.8599
-2.0055 e|r}ER a}AE -1.1082
-1.7873 e|r}ER a}AH -1.4198
-2.5791 e|r}ER a}AO -0.9233
-2.5791 e|r}ER a}EH -0.7472
-1.9807 e|r}ER a}EY -1.6622
-2.2127 e|r}ER a}IH -1.3493
-2.8809 e|r}ER a}_ -0.7472
-1.5848 e|r}ER b}B -1.1744
-2.1170 e|r}ER c|h}CH -0.8985
-3.3663 e|r}ER c|h}SH -0.2701
-2.6100 e|r}ER c|i}SH -1.1732
-2.7196 e|r}ER c|k}K -0.6680
-3.5116 e|r}ER c|q}K -0.5711
-3.3712 e|r}ER c|z}CH -0.2701
-2.9415 e|r}ER c}CH -0.2701
-1.8102 e|r}ER c}K -1.0532
-2.1159 e|r}ER c}S -1.1975
-1.7523 e|r}ER d}D -0.9861
-2.7320 e|r}ER d}_ -0.9691
-2.7298 e|r}ER e|a}IY -0.5131
-1.9176 e|r}ER e|r}ER -1.6059
-3.3614 e|r}ER e|w}UW -0.2701
-3.5047 e|r}ER e|y}EH -0.2701
-2.9509 e|r}ER e|y}EY -0.2701
-2.1076 e|r}ER e}AH -1.1493
-1.8912 e|r}ER e}EH -0.9913
-2.3874 e|r}ER e}EY -0.6125
-2.4509 e|r}ER e}IH -0.6961
-2.1547 e|r}ER e}IY -0.7260
-1.5695 e|r}ER e}_ -1.6369
-2.9251 e|r}ER f|f}F -0.5711
-1.7740 e|r}ER f}F -1.1751
-3.4416 e|r}ER g|g}G -0.2701
-3.4475 e|r}ER g|n}N -0.2701
-1.8099 e|r}ER g}G -1.5085
-2.0473 e|r}ER g}JH -1.2130
-3.4077 e|r}ER g}ZH -0.2701
-1.9233 e|r}ER h}HH -0.9620
-3.1202 e|r}ER h}_ -0.2701
-2.3063 e|r}ER i}AH -0.8537
-2.2031 e|r}ER i}AY -1.1944
-3.5116 e|r}ER i}EY -0.2701
-1.4882 e|r}ER i}IH -1.4919
-1.6336 e|r}ER i}IY -1.0649
-2.9251 e|r}ER i}_ -0.4462
-2.2100 e|r}ER j}JH -0.6457
-3.4535 e|r}ER k|k}K -0.2701
-1.7894 e|r}ER k}K -0.9039
-2.2187 e|r}ER l}AH|L -1.3115
-1.5374 e|r}ER l}L -1.3335
-1.4618 e|r}ER m}M -1.5344
-3.5401 e|r}ER n|m}M -0.9233
-2.9415 e|r}ER n|n}N -0.4462
-1.5924 e|r}ER n}N -1.2647
-2.9415 e|r}ER o|i}OY -0.6680
-3.3239 e|r}ER o|o}UW -0.2701
-2.8924 e|r}ER o|r}ER -0.5711
-2.1695 e|r}ER o|u}AH -1.7614
-2.3979 e|r}ER o|u}UW -0.5711
-3.3469 e|r}ER o|w}AW -0.2701
-2.5905 e|r}ER o|w}OW -0.8721
-2.7367 e|r}ER o|y}OY -0.8721
-2.0756 e|r}ER o}AA -0.6961
-2.1514 e|r}ER o}AH -0.6089
-2.1984 e|r}ER o}AO -0.9069
-1.8285 e|r}ER o}OW -0.7867
-2.9075 e|r}ER o}_ -0.4462
-3.3021 e|r}ER p|h}F -0.2701
-1.8510 e|r}ER p}P -1.1257
-2.9415 e|r}ER q|u}K -0.4462
-2.4801 e|r}ER q}K -1.2701
-2.2275 e|r}ER r}R -0.8374
-1.9052 e|r}ER r}_ -1.0391
-2.1271 e|r}ER s|c}SH -1.6318
-1.9527 e|r}ER s|h}SH -0.8308
-3.4848 e|r}ER s|i}SH -0.7472
-2.6109 e|r}ER s|i}ZH -1.3670
-2.7141 e|r}ER s|s}S -0.8721
-3.4132 e|r}ER s|z}SH -0.2701
-1.5279 e|r}ER s}S -1.4909
-3.4300 e|r}ER s}SH -0.2701
-1.2196 e|r}ER s}Z -2.4374
-3.2978 e|r}ER s}_ -0.7472
-2.5889 e|r}ER t|h}DH -0.2701
-2.1162 e|r}ER t|h}TH -0.6738
-2.4092 e|r}ER t|i}SH -0.8344
-2.7484 e|r}ER t|s}_ -0.8721
-3.3239 e|r}ER t|t}T -0.2701
-2.9378 e|r}ER t}CH -0.4462
-3.4596 e|r}ER t}SH -0.2701
-1.4532 e|r}ER t}T -1.5258
-3.3021 e|r}ER t}_ -0.2701
-3.2693 e|r}ER u|r}ER -0.2701
-2.3706 e|r}ER u}AH -0.5711
-3.4077 e|r}ER u}IH -0.2701
-2.3777 e|r}ER u}UW -0.5131
-2.9145 e|r}ER u}Y|UW -0.8721
-1.6767 e|r}ER v}V -1.3182
-3.4980 e|r}ER w}HH|W -1.0482
-2.9585 e|r}ER w}V -0.2701
-1.8774 e|r}ER w}W -0.9440
-2.9452 e|r}ER w}_ -1.4742
-2.7378 e|r}ER x}K|S -0.2701
-2.9093 e|r}ER y}IH -0.2701
-1.5324 e|r}ER y}IY -1.7842
-2.7108 e|r}ER y}Y -0.3950
-3.4848 e|r}ER z}T|S -0.5711
-1.9533 e|r}ER z}Z -0.5333
-0.3848 e|u}AY s}Z -0.2701
-1.5104 e|u}OY </s> 0.0000
-1.9888 e|u}OY a}AA -0.2701
-1.1965 e|u}OY b}B -0.5254
-1.5579 e|u}OY c}K -0.2701
-1.9846 e|u}OY d}D -0.2701
-1.0874 e|u}OY e|r}ER -0.6223
-1.5622 e|u}OY f}F -0.3950
-1.5571 e|u}OY g}G -0.5711
-1.1896 e|u}OY l}L -0.3493
-1.1881 e|u}OY n}N -0.3950
-1.5571 e|u}OY p}P -0.2701
-1.3308 e|u}OY r}R -0.4462
-1.3577 e|u}OY s|c}SH -0.7472
-2.0710 e|u}OY s|s}S -0.5711
-1.0852 e|u}OY s}S -0.5711
-2.1146 e|u}OY s}SH -0.2701
-1.5518 e|u}OY s}Z -0.5711
-2.0851 e|u}OY t|h}DH -0.2701
-1.5688 e|u}OY t|h}TH -0.2701
-1.5916 e|u}OY t|s}_ -1.2701
-2.0864 e|u}OY t|t}T -0.2701
-1.3340 e|u}OY t}T -0.6059
-2.0799 e|u}OY t}_ -0.2701
-1.5598 e|u}OY v}V -0.5711
-0.9400 e|w}OW </s> 0.0000
-0.9564 e|w}OW e}_ -0.2701
-0.9584 e|w}OW i}IH -0.2701
-0.9557 e|w}OW n}N -0.2701
-1.6553 e|w}UW '|s}Z -1.1152
-1.6413 e|w}UW (}_ -0.9691
-2.4474 e|w}UW -}_ -0.6503
-0.9626 e|w}UW </s> 0.0000
-2.5909 e|w}UW _}F -0.2701
-1.5542 e|w}UW a|r}ER -0.6381
-1.9733 e|w}UW a}AA -0.2701
-2.3727 e|w}UW a}AE -0.2701
-1.4571 e|w}UW a}AH -0.7930
-1.8123 e|w}UW a}AO -0.4462
-2.4739 e|w}UW a}EH -0.2701
-2.4183 e|w}UW a}EY -0.2701
-2.0285 e|w}UW a}IH -0.2701
-2.4389 e|w}UW a}_ -0.2701
-1.7825 e|w}UW b}B -0.5364
-2.4264 e|w}UW c|h}CH -0.2701
-2.5298 e|w}UW c|z}CH -0.2701
-1.9865 e|w}UW c}K -0.6680
-1.9704 e|w}UW d}D -0.4162
-1.4586 e|w}UW e|r}ER -0.7782
-1.5460 e|w}UW e}AH -0.7930
-1.9627 e|w}UW e}EH -0.8721
-1.5498 e|w}UW e}IH -0.6961
-2.4007 e|w}UW e}IY -0.5711
-1.1454 e|w}UW e}_ -0.8933
-1.7919 e|w}UW f}F -0.3950
-2.3638 e|w}UW g}G -0.4462
-2.3874 e|w}UW h}HH -0.4919
-2.5070 e|w}UW i|r}ER -0.2701
-2.3874 e|w}UW i}AH -0.5711
-2.0062 e|w}UW i}AY -0.4462
-1.2732 e|w}UW i}IH -0.9902
-1.7798 e|w}UW i}IY -0.4462
-1.6464 e|w}UW k}K -0.2701
-2.2862 e|w}UW l}L -0.4250
-1.6390 e|w}UW m}M -0.5711
-1.7599 e|w}UW n}N -0.2701
-2.4539 e|w}UW o|r}ER -0.2701
-2.3464 e|w}UW o}OW -0.5711
-2.5909 e|w}UW o}UH -0.5711
-1.9850 e|w}UW p}P -0.6680
-2.4855 e|w}UW q}K -0.2701
-1.9529 e|w}UW r}R -0.7472
-2.4204 e|w}UW s|h}SH -0.2701
-1.1857 e|w}UW s}S -0.8933
-1.1143 e|w}UW s}Z -0.9256
-1.7715 e|w}UW t}T -0.4462
-2.3800 e|w}UW u}AH -0.2701
-2.3763 e|w}UW v}V -0.2701
-2.4144 e|w}UW w}W -0.2701
-1.6587 e|w}UW y}IY -0.8721
-1.3086 e|y}EH e}_ -0.5711
-1.3186 e|y}EH k}K -0.2701
-1.3079 e|y}EH n}N -0.8721
-0.2186 e|y}EH r}R -0.4462
-1.9193 e|y}EY '|s}Z -0.7472
-2.3851 e|y}EY '}_ -0.2701
-1.2941 e|y}EY (}_ -0.6961
-0.8420 e|y}EY </s> 0.0000
-2.3746 e|y}EY a|r}ER -0.2701
-1.4492 e|y}EY a}AH -0.8142
-1.5584 e|y}EY b}B -0.3493
-2.4525 e|y}EY c|h}SH -0.2701
-2.3362 e|y}EY c}K -0.2701
-1.5555 e|y}EY d}D -0.3950
-1.0512 e|y}EY e|r}ER -0.9468
-1.6843 e|y}EY e}_ -0.8142
-1.7051 e|y}EY f}F -0.3950
-2.3335 e|y}EY g}G -0.2701
-1.9177 e|y}EY h}HH -0.4462
-1.9162 e|y}EY h}_ -0.2701
-2.3514 e|y}EY i}AH -0.5711
-1.5499 e|y}EY i}IH -0.9691
-2.3162 e|y}EY i}IY -0.2701
-2.3201 e|y}EY k}K -0.2701
-2.4102 e|y}EY l|l}L -0.2701
-1.1778 e|y}EY l}L -0.5711
-1.2932 e|y}EY m}M -0.8142
-1.0872 e|y}EY n}N -0.6381
-2.4006 e|y}EY o|r}ER -0.5711
-2.3528 e|y}EY o}AO -0.2701
-1.9059 e|y}EY o}OW -0.3950
-1.6870 e|y}EY r}R -0.4462
-1.4474 e|y}EY s}S -0.4462
-1.1810 e|y}EY s}Z -1.0482
-1.4483 e|y}EY t}T -0.5711
-2.3430 e|y}EY v}V -0.2701
-2.3716 e|y}EY w}W -0.2701
-0.6773 e|z}EY (}_ -0.2701
-0.6653 e|z}EY </s> 0.0000
-1.5054 e}AA m}M -0.5711
-0.1710 e}AA n}N -0.9328
-0.9877 e}AA r}R -0.5711
-1.5144 e}AA v}V -0.2701
-0.9810 e}AE l|l}L -0.2701
-0.9862 e}AE n|n}N -0.7472
-0.9557 e}AE n}N -0.2701
-0.9687 e}AE p}P -0.2701
-1.7383 e}AH '|s}Z -1.4315
-2.4215 e}AH '}_ -0.7472
-1.9483 e}AH (}_ -0.9069
-2.2844 e}AH -}_ -0.4919
-1.6613 e}AH </s> 0.0000
-1.5685 e}AH b}B -0.8869
-2.6263 e}AH c|h}CH -0.2701
-2.6508 e}AH c|k}K -0.2701
-3.1333 e}AH c}CH -0.2701
-1.5930 e}AH c}K -1.1378
-1.9580 e}AH c}S -1.0260
-2.6815 e}AH d|g}JH -0.7472
-1.3394 e}AH d}D -1.6752
-2.2930 e}AH f|f}F -0.6961
-1.7379 e}AH f}F -0.8768
-2.6663 e}AH g|u}G -0.5711
-1.5690 e}AH g}G -1.1588
-2.2859 e}AH g}JH -0.7287
-2.6729 e}AH g}ZH -0.4462
-1.9551 e}AH h}HH -0.5711
-2.0848 e}AH h}_ -0.6381
-2.4279 e}AH j}JH -0.5254
-3.1500 e}AH j}Y -0.5711
-3.2274 e}AH k}G -0.5711
-1.8516 e}AH k}K -0.5284
-1.2027 e}AH l|l}L -1.6979
-1.0573 e}AH l}L -1.7588
-3.2140 e}AH m|n}M -0.2701
-1.2998 e}AH m}M -1.2096
-1.9663 e}AH n|n}N -0.6223
-0.8929 e}AH n}N -2.0561
-3.1416 e}AH n}NG -0.5711
-2.1843 e}AH p|h}F -0.6533
-3.1644 e}AH p|p}P -0.2701
-1.9000 e}AH p}P -0.7224
-2.6626 e}AH q|u}K -0.5711
-2.1834 e}AH q}K -1.6851
-2.0035 e}AH r}R -0.3212
-2.0952 e}AH r}_ -0.4664
-3.1199 e}AH s|c}SH -0.2701
-2.6238 e}AH s|h}SH -0.4462
-1.5732 e}AH s|s}S -1.7172
-1.1356 e}AH s}S -1.3453
-1.5240 e}AH s}Z -1.8944
-2.4355 e}AH s}_ -0.5711
-1.8573 e}AH t|h}TH -0.6059
-1.5982 e}AH t|t}T -1.0298
-3.1279 e}AH t}CH -0.2701
-1.2526 e}AH t}T -1.4202
-1.4855 e}AH v}V -1.0920
-3.1586 e}AH w}V -0.5711
