			
\data\			
ngram 1=629			
ngram 2=10366			
ngram 3=44544			
			
\1-grams:			
-6.022654	!|e}EH	-0.6779149
-6.022654	"|c}K	-0.6619391
-6.022654	"|d}D	-0.678361
-5.721623	"|e}EH	-0.2250338
-6.022654	"|i}IH	-0.654065
-6.022654	"|q}K	-0.6780325
-6.022654	"|u}AH	-0.654065
-6.022654	#|s}SH	-0.6759955
-6.022654	%|p}P	-0.6702592
-6.022654	&|a}AE	-0.6671338
-2.294219	'|s}Z	-3.664971
-4.350555	'}AH	-0.9499118
-6.022654	'}EH	-0.6622868
-6.022654	'}ER|EY	-0.6786056
-3.465146	'}IH	-2.112936
-5.545532	'}IH|Z	-0.2880293
-4.7439	'}IY	-0.6773854
-6.022654	'}IY|OW	-0.6742979
-6.022654	'}SH|AH	-0.6786418
-2.6697	'}_	-1.556504
-6.022654	(}AE|L	-0.6749383
-6.022654	(}AE|M	-0.6749383
-5.721623	(}AH|N	-0.6749338
-5.721623	(}AH|T	-0.2459071
-6.022654	(}AH|V	-0.678648
-6.022654	(}AO|S	-0.678648
-6.022654	(}B|AH	-0.6786385
-6.022654	(}CH|IY	-0.6783214
-6.022654	(}EH|T	-0.678648
-5.323683	(}ER	-0.6745964
-6.022654	(}ER|AW	-0.6786476
-6.022654	(}EY|SH	-0.6749383
-4.466351	(}IY	-1.500765
-6.022654	(}R|EY	-0.6786426
-6.022654	(}R|JH	-0.6783214
-6.022654	(}SH|AH	-0.6749383
-6.022654	(}S|T	-0.6749383
-5.545532	(}T|ER	-0.5983499
-6.022654	(}W|AY	-0.6749383
-5.721623	(}Y|UW	-0.2459071
-2.026098	(}_	-3.708133
-5.721623	)|c}K	-0.2329079
-5.420594	)|e}EH	-0.3405323
-5.721623	)|p}P	-0.2488213
-5.721623	)|r}R	-0.2457931
-6.022654	)|u}AH	-0.654065
-5.545532	)}AH|L	-0.2927262
-6.022654	)}AH|N	-0.619829
-6.022654	)}IH|V	-0.619829
-6.022654	,|c}K	-0.674417
-5.721623	-}EY	-0.2381026
-6.022654	-}EY|T	-0.678648
-6.022654	-}F	-0.6786463
-5.119564	-}IY	-0.2696468
-3.266017	-}_	-0.9933674
-6.022654	.|'}IH	-0.6713014
-6.022654	.|(}OW	-0.6749383
-6.022654	.|.}IH	-0.678648
-5.721623	.|d}D	-0.6643111
-6.022654	.|e}L	-0.6786402
-6.022654	.|f}F	-0.6781732
-5.721623	.|p}P	-0.6746252
-5.244502	.|s}Z	-1.396915
-5.545532	.}AA|R	-0.6088232
-6.022654	.}AH|B	-0.678648
-6.022654	.}AH|K	-0.6786476
-6.022654	.}AH|L	-0.619829
-5.721623	.}AY	-0.617296
-6.022654	.}AY|V	-0.619829
-5.545532	.}CH	-0.6149485
-5.721623	.}D|AA	-0.2496115
-5.721623	.}ER|EY	-0.6786476
-5.177556	.}EY	-1.453921
-6.022654	.}IH	-0.6713014
-6.022654	.}IH|V	-0.619829
-6.022654	.}IH|Z	-0.619829
-4.517504	.}IY	-1.490858
-6.022654	.}P	-0.6786463
-6.022654	.}P|AO	-0.678648
-4.981261	.}S	-0.9465363
-5.721623	.}T|ER	-0.6151208
-5.545532	.}UW	-0.6088232
-6.022654	.}Y|AH	-0.619829
-5.244502	.}Y|UW	-0.179792
-6.022654	/|s}S	-0.6619391
-6.022654	0}Z|IH	-0.678648
-5.323683	1}AH|N	-0.3534221
-6.022654	1}HH|W	-0.6786476
-6.022654	2|)}AY	-0.6786418
-6.022654	2|)}D	-0.619829
-5.721623	2|)}ER	-0.1907978
-4.981261	2|)}Z	-1.020362
-2.070249	2|)}_	-3.326347
-6.022654	2}AH|B	-0.6786472
-6.022654	2}AH|T	-0.678648
-6.022654	2}IH|ZH	-0.678648
-5.177556	2}T|UW	-1.16381
-6.022654	2}UW|S	-0.6786476
-6.022654	3|)}M	-0.619829
-3.12338	3|)}_	-3.518886
-5.721623	3}AH|B	-0.249616
-5.420594	3}TH	-0.3651125
-3.713023	4|)}_	-2.252934
-5.323683	4}AO|R	-0.3534221
-6.022654	5|)}IY	-0.619829
-6.022654	5|)}Z	-0.619829
-5.545532	5}AY|V	-0.5432406
-5.721623	6}S|IH	-0.2496164
-5.721623	7}EH|V	-0.2496152
-6.022654	8|0}IY	-0.619829
-5.545532	8}EY|T	-0.5432406
-5.721623	9}N|AY	-0.6786295
-6.022654	:|c}K	-0.6713337
-5.721623	;|s}S	-0.2396103
-0.8973414	</s>	0.0000
-99	<s>	-2.577073
-6.022654	?|q}K	-0.6780325
-6.022654	_|d}D	-0.6637269
-6.022654	_|p}P	-0.6593115
-5.323683	_}AA|N	-0.4210364
-5.721623	_}AA|R	-0.6563301
-3.360841	_}AH	-1.242079
-4.846562	_}AH|L	-1.313761
-5.323683	_}AH|N	-1.017751
-5.323683	_}AO|R	-0.436287
-4.700434	_}B	-0.8069947
-5.545532	_}B|ER	-0.5432406
-3.580174	_}EH	-1.365034
-6.022654	_}EH|M	-0.6786472
-4.341412	_}EY	-0.573508
-5.177556	_}EY|N	-1.124985
-4.767381	_}F	-0.621868
-5.721623	_}HH	-0.6592332
-4.466351	_}IH	-0.4669373
-6.022654	_}IH|L	-0.6783565
-6.022654	_}IH|M	-0.6786336
-3.644256	_}IY	-0.9040985
-6.022654	_}JH|UW	-0.6786418
-6.022654	_}K	-0.673439
-5.721623	_}K|S	-0.6198257
-6.022654	_}L	-0.6786385
-5.721623	_}L|Z	-0.6710331
-6.022654	_}M|ER	-0.6786336
-4.818533	_}N	-0.3847636
-4.545532	_}N|T	-0.9902372
-4.981261	_}R	-0.3600652
-5.119564	_}R|IY	-0.7186973
-6.022654	_}R|OW	-0.619829
-5.721623	_}R|T	-0.2475736
-4.876525	_}S	-0.3504102
-5.545532	_}S|T	-0.2924604
-4.876525	_}T	-0.3604936
-6.022654	_}T|ER	-0.6784592
-3.762582	_}W	-1.514657
-3.17262	_}Y	-1.834265
-4.642442	_}Y|UW	-0.5755387
-5.323683	_}Z	-0.6109645
-6.022654	a|_}AE	-0.6694848
-5.022654	a|c}AE	-1.676506
-5.721623	a|g}AE	-0.6499666
-3.41093	a|i}EH	-1.604615
-2.823722	a|i}EY	-1.384411
-6.022654	a|i}OY	-0.6593115
-4.431589	a|j}AY	-0.4254162
-6.022654	a|k}AE	-0.6735232
-4.350555	a|l}AA	-1.525233
-4.466351	a|l}AE	-1.23074
-4.027018	a|l}AO	-2.336087
-5.420594	a|n}AA	-0.351613
-5.068411	a|n}AE	-0.5603392
-5.721623	a|n}AH	-0.6527675
-4.068411	a|o}AW	-0.5605943
-2.737321	a|r}ER	-1.045472
-2.925744	a|u}AO	-1.622459
-3.224003	a|u}AW	-0.9273877
-3.428261	a|u}OW	-1.137641
-3.310846	a|w}AO	-1.145634
-5.068411	a|w}AW	-0.582826
-5.244502	a|y}EH	-1.429778
-2.878702	a|y}EY	-1.309679
-4.943472	a|y}_	-1.013054
-1.873373	a}AA	-2.030607
-1.688683	a}AE	-2.61529
-1.611994	a}AH	-2.479738
-2.854156	a}AO	-1.543979
-5.721623	a}AW	-0.6682389
-4.323683	a}AY	-0.7436263
-2.647722	a}EH	-2.248203
-4.767381	a}ER	-1.527671
-2.088206	a}EY	-1.980204
-6.022654	a}EY|M	-0.6713014
-3.162915	a}IH	-1.938436
-6.022654	a}IH|P	-0.6786422
-4.943472	a}IY	-0.5513685
-6.022654	a}OW	-0.6671338
-6.022654	a}T|R	-0.678648
-5.022654	a}Y	-0.9365525
-2.728849	a}_	-1.109882
-6.022654	b|a}_	-0.6701053
-3.363689	b|b}B	-1.413977
-4.575495	b|t}T	-0.2948672
-6.022654	b|v}B	-0.6784064
-5.545532	b|y}B	-0.3400919
-4.14184	b}AH	-1.869781
-1.710434	b}B	-1.834692
-5.545532	b}B|AH	-0.6538053
-5.721623	b}N|D	-0.6114061
-6.022654	b}P	-0.6622868
-6.022654	c|.}K	-0.619829
-3.837962	c|c}CH	-1.351301
-3.462747	c|c}K	-1.554152
-5.323683	c|g}G	-0.2873492
-2.501515	c|h}CH	-1.305333
-4.223313	c|h}HH	-0.9724689
-6.022654	c|h}L	-0.673439
-3.469985	c|h}SH	-1.032725
-4.792204	c|h}_	-0.5238756
-4.083134	c|i}CH	-1.440271
-3.55876	c|i}SH	-1.776892
-2.469135	c|k}K	-1.579453
-6.022654	c|k}_	-0.6701053
-4.981261	c|q}K	-0.8509851
-5.721623	c|y}S	-0.2329079
-3.764975	c|z}CH	-1.040379
-5.420594	c|z}Z	-0.3592634
-4.90871	c|z}_	-0.3096287
-4.196579	c}AE|K	-1.200738
-3.244502	c}AH	-2.041791
-3.388176	c}CH	-1.386965
-5.323683	c}G	-0.268177
-5.323683	c}IY	-0.2379909
-1.68029	c}K	-1.912422
-2.328399	c}S	-2.217874
-4.068411	c}SH	-1.867782
-5.022654	c}T	-0.7398006
-6.022654	c}TH	-0.6686415
-4.10884	c}T|S	-1.289078
-4.237324	c}Y	-2.453883
-4.660926	c}_	-1.05721
-3.359896	d|g}JH	-1.533538
-4.454452	d|z}JH	-1.276897
-4.04493	d}AH	-1.965562
-6.022654	d}B	-0.619829
-1.514097	d}D	-1.720479
-3.879639	d}JH	-1.76751
-4.792204	d}T	-0.5691057
-3.042196	d}_	-1.218151
-6.022654	e|(}AY	-0.6749383
-2.744128	e|a}IY	-1.914815
-6.022654	e|b}_	-0.6619391
-3.047222	e|d}T	-2.912366
-3.655298	e|i}EY	-0.7864716
-4.7439	e|j}EY	-0.4593884
-6.022654	e|l}AH	-0.619829
-6.022654	e|m}EH	-0.6622868
-5.721623	e|m}IH	-0.2410741
-5.323683	e|n}AH	-0.4338309
-6.022654	e|n}AO	-0.6593115
-5.068411	e|n}EH	-0.9808514
-6.022654	e|n}IH	-0.6766047
-6.022654	e|n}_	-0.619829
-1.718249	e|r}ER	-1.558268
-6.022654	e|u}AY	-0.6713014
-4.054171	e|u}OY	-0.4792883
-5.420594	e|w}OW	-0.55273
-3.256985	e|w}UW	-0.7439398
-4.818533	e|y}EH	-0.6504132
-3.631718	e|y}EY	-0.8384836
-5.721623	e|z}EY	-0.6151208
-4.298378	e}AA	-1.175591
-5.244502	e}AE	-0.9429007
-1.96139	e}AH	-2.518084
-4.818533	e}AO	-0.8062307
-1.642478	e}EH	-2.541851
-5.177556	e}ER	-1.123193
-2.952246	e}EY	-1.189195
-2.06204	e}IH	-2.364149
-2.108205	e}IY	-1.446865
-6.022654	e}M	-0.619829
-6.022654	e}N|UW	-0.619829
-5.721623	e}S	-0.1907978
-5.721623	e}TH|IY	-0.6786468
-4.517504	e}W	-2.170832
-4.379201	e}Y	-1.756
-5.721623	e}Y|UW	-0.6706356
-1.471411	e}_	-1.782086
-5.721623	f|.}F	-0.1907978
-6.022654	f|_}F	-0.6781989
-6.022654	f|e}AH	-0.654065
-2.826754	f|f}F	-1.276488
-6.022654	f|f}_	-0.619829
-2.001713	f}F	-1.675174
-5.420594	f}V	-0.3417566
-6.022654	g|(}_	-0.6749383
-3.222624	g|g}G	-1.260857
-4.420594	g|g}JH	-1.160809
-5.721623	g|g}Z	-0.2434722
-4.183805	g|h}F	-0.6596671
-6.022654	g|h}OW	-0.619829
-5.721623	g|h}P	-0.6010423
-2.994896	g|h}_	-1.252406
-6.022654	g|i}IH	-0.6601064
-3.925744	g|i}JH	-1.556819
-4.063612	g|n}N	-0.7414974
-5.119564	g|t}T	-0.5559548
-3.497609	g|u}G	-1.671117
-5.545532	g|u}UW	-0.3499153
-1.930635	g}G	-1.683747
-4.846562	g}HH	-1.355746
-6.022654	g}IY|N	-0.6783565
-2.487106	g}JH	-2.537402
-4.531292	g}K	-0.6366452
-4.00562	g}ZH	-1.310619
-6.022654	g}Z|EY	-0.6637269
-4.560256	h}AH	-1.067672
-5.545532	h}EY	-0.3415488
-4.721623	h}EY|CH	-0.7703185
-2.078862	h}HH	-2.225416
-5.545532	h}TH	-0.2739508
-2.215389	h}_	-1.379601
-5.721623	i|.}AY	-0.617296
-5.177556	i|c}AY	-0.7576844
-6.022654	i|c}_	-0.6750115
-5.721623	i|e}UW	-0.2495109
-6.022654	i|f}IH	-0.6774575
-4.130559	i|g}AY	-1.803904
-4.491175	i|g}_	-1.519485
-6.022654	i|l}EY	-0.619829
-6.022654	i|l}IH	-0.6601064
-6.022654	i|l}IY	-0.619829
-5.721623	i|m}IH	-0.2420027
-5.244502	i|n}IH	-0.2904664
-6.022654	i|n}W	-0.6738756
-5.420594	i|o}SH	-0.360799
-4.846562	i|o}_	-0.6897774
-3.103575	i|r}ER	-1.11491
-4.420594	i|s}_	-0.9695914
-6.022654	i|y}_	-0.6748643
-4.431589	i}AA	-0.6930115
-4.545532	i}AE	-1.466778
-2.268458	i}AH	-2.160085
-4.818533	i}AO	-1.552482
-2.05717	i}AY	-1.384913
-4.04493	i}EH	-1.07476
-5.545532	i}ER	-0.5827231
-5.244502	i}EY	-0.6028122
-1.441091	i}IH	-2.876515
-1.852333	i}IY	-1.349732
-6.022654	i}W	-0.674417
-3.198528	i}Y	-1.856591
-3.77468	i}_	-0.6150184
-5.244502	j|o}W	-1.305328
-5.068411	j|u}W	-0.9941476
-4.420594	j}HH	-0.7543859
-2.690417	j}JH	-1.353486
-6.022654	j}L|IY	-0.6781633
-6.022654	j}OY|CH	-0.6626278
-3.545532	j}Y	-1.22339
-4.20974	j}ZH	-0.3625159
-4.660926	j}_	-0.2897498
-6.022654	k|j}JH	-0.6686415
-4.230262	k|k}K	-0.7357186
-3.647905	k|n}N	-1.267643
-6.022654	k|o}AH	-0.6742979
-6.022654	k|p}P	-0.669662
-5.323683	k}G	-0.297076
-5.068411	k}HH	-1.622328
-1.909914	k}K	-1.417626
-6.022654	k}OW|K	-0.6686415
-5.545532	l|.}L	-0.2902044
-5.420594	l|d}D	-0.393585
-5.721623	l|e}AH	-0.2329079
-6.022654	l|e}IY	-0.6679048
-6.022654	l|e}_	-0.6784126
-6.022654	l|f}F	-0.6745394
-4.244502	l|k}K	-0.5388746
-2.164959	l|l}L	-1.609886
-5.420594	l|l}Y	-0.3867042
-4.721623	l|l}_	-0.6783562
-4.680231	l|m}M	-0.9840357
-5.545532	l|o}ER	-0.5774766
-4.420594	l|t}_	-1.410407
-2.639377	l}AH|L	-2.296651
-1.423153	l}L	-1.829287
-5.721623	l}P|AW	-0.2496164
-6.022654	l}T|S	-0.6769028
-5.721623	l}UH|L	-0.6624315
-4.876525	l}Y	-0.4364555
-5.545532	m|.}M	-0.2902044
-6.022654	m|a}EY	-0.6651457
-3.826754	m|b}M	-1.033853
-6.022654	m|e}_	-0.6671338
-6.022654	m|m}AH	-0.6671338
-2.994489	m|m}M	-1.662225
-4.7439	m|n}M	-0.3600394
-5.420594	m|n}N	-0.2424077
-5.545532	m|p}N	-0.583518
-6.022654	m|u}AH	-0.6756678
-6.022654	m}AE|D	-0.6738756
-6.022654	m}D|AE	-0.678648
-1.58228	m}M	-1.672132
-5.323683	m}M|AE	-0.64593
-3.398371	m}M|AH	-2.651381
-6.022654	m}M|AW	-0.6786418
-5.721623	m}M|AY	-0.2496164
-6.022654	m}N	-0.619829
-5.323683	n|.}N	-1.0105
-6.022654	n|.}_	-0.619829
-4.981261	n|c}NG	-1.700431
-5.177556	n|d}M	-0.5977203
-5.177556	n|d}_	-0.7647117
-6.022654	n|e}_	-0.654065
-5.119564	n|g}G	-0.6194719
-2.145628	n|g}NG	-1.776605
-5.420594	n|k}NG	-1.252599
-5.068411	n|m}M	-1.472381
-2.711323	n|n}N	-1.491553
-6.022654	n}EH|T	-0.678648
-6.022654	n}L|V	-0.6786456
-5.545532	n}M	-0.6468353
-1.259375	n}N	-1.861877
-2.660737	n}NG	-2.500551
-5.721623	n}N|ER	-0.6786419
-6.022654	n}S|IY	-0.619829
-6.022654	n}Y	-0.678408
-5.420594	o|.}OW	-0.3362363
-5.721623	o|_}ER	-0.2302803
-6.022654	o|_}OW	-0.6710339
-6.022654	o|b}AH	-0.6778302
-6.022654	o|g}OW	-0.6619391
-6.022654	o|h}F	-0.6775836
-3.25773	o|i}OY	-1.266817
-4.721623	o|j}OY	-0.4591118
-6.022654	o|k}OW	-0.619829
-5.420594	o|l}AH	-0.3405323
-6.022654	o|l}AO	-0.6781547
-5.068411	o|n}AH	-0.2443666
-6.022654	o|n}W	-0.6738756
-3.062659	o|o}UH	-2.262535
-2.933102	o|o}UW	-1.418212
-2.581902	o|r}ER	-1.261118
-6.022654	o|r}EY	-0.6713014
-3.179421	o|u}AH	-1.801625
-3.659041	o|u}AO	-1.733437
-2.781605	o|u}AW	-1.607964
-3.950772	o|u}UH	-1.760706
-3.253276	o|u}UW	-0.8502638
-3.077677	o|w}AW	-1.137244
-3.027018	o|w}OW	-1.06122
-3.280715	o|y}OY	-0.9134897
-2.013415	o}AA	-2.284287
-5.323683	o}AE	-0.3796014
-1.923595	o}AH	-2.400365
-2.141726	o}AO	-2.631436
-4.466351	o}AW	-1.240748
-6.022654	o}D|OW	-0.6671338
-5.420594	o}EH	-0.3585155
-4.818533	o}ER	-0.9755746
-4.022654	o}IH	-1.261166
-1.77724	o}OW	-1.790533
-5.244502	o}OY	-0.6421183
-4.159331	o}UH	-1.262452
-3.678261	o}UW	-0.8008218
-4.20974	o}W	-1.025892
-3.12338	o}_	-1.414599
-6.022654	p|.}P	-0.619829
-4.251801	p|f}F	-0.6646664
-5.721623	p|f}P	-0.5915617
-2.944559	p|h}F	-1.542203
-5.244502	p|h}V	-0.3145137
-5.545532	p|l}P	-0.3414518
-2.904389	p|p}P	-1.833249
-4.190145	p|s}S	-0.8984165
-5.420594	p|s}_	-0.3362934
-5.721623	p}F	-0.2484263
-6.022654	p}IH	-0.6619391
-1.759941	p}P	-1.799037
-5.721623	p}P|ER	-0.6735229
-4.190145	p}_	-0.795724
-6.022654	q|i}JH	-0.6783499
-5.545532	q|u}G	-0.6444687
-3.644256	q|u}K	-1.292575
-4.379201	q|u}W	-1.371721
-6.022654	q|v}K	-0.6785734
-5.721623	q}CH	-0.6625521
-2.965749	q}K	-1.881998
-5.721623	r|z}JH	-0.6784002
-6.022654	r}AA	-0.6593115
-5.721623	r}AA|K	-0.6786464
-4.60768	r}AA|R	-0.4804184
-6.022654	r}AY|V	-0.619829
-3.254015	r}ER	-0.7930297
-6.022654	r}IH	-0.6622868
-5.545532	r}IH|S	-0.6786315
-1.36103	r}R	-1.61094
-2.673765	r}_	-1.023233
-5.420594	s|.}Z	-1.217181
-2.925744	s|c}SH	-2.524118
-2.470472	s|h}SH	-1.390691
-5.068411	s|i}CH	-0.9947906
-4.282291	s|i}SH	-1.299778
-3.668545	s|i}ZH	-1.929152
-5.177556	s|j}SH	-0.7689117
-5.420594	s|k}S	-0.6527889
-2.484709	s|s}S	-1.593662
-3.659041	s|s}SH	-1.78062
-5.022654	s|t}_	-0.915244
-5.545532	s|u}ZH	-0.5913164
-3.932748	s|z}SH	-0.8621025
-4.560256	s}AH	-2.124184
-5.177556	s}CH	-0.6379402
-6.022654	s}CH|UW	-0.6786439
-6.022654	s}ER|N	-0.6786463
-6.022654	s}L|Z	-0.619829
-1.432113	s}S	-1.972857
-4.00562	s}SH	-0.9579833
-6.022654	s}S|AW	-0.6786476
-6.022654	s}S|UW	-0.6786418
-6.022654	s}UW	-0.6593115
-1.775343	s}Z	-2.008122
-3.981261	s}ZH	-1.213398
-3.265257	s}_	-0.9742378
-6.022654	t|.}T	-0.619829
-6.022654	t|e}ER	-0.6593115
-3.265257	t|h}DH	-1.147241
-2.562508	t|h}TH	-1.114115
-3.943472	t|i}CH	-1.661519
-2.628377	t|i}SH	-3.41885
-5.721623	t|i}ZH	-0.2444078
-3.393244	t|s}_	-2.794217
-2.542934	t|t}T	-1.737812
-4.792204	t|u}CH	-1.888912
-6.022654	t|u}SH	-0.6778368
-3.62298	t}AH	-3.036036
-3.250332	t}CH	-1.95762
-4.680231	t}D	-0.4147156
-4.00562	t}EY	-1.567676
-5.721623	t}IH	-0.2329079
-5.545532	t}S	-0.3415737
-4.040382	t}SH	-1.34993
-1.378865	t}T	-1.821059
-5.545532	t}TH	-0.3317621
-6.022654	t}T|OW	-0.6786472
-2.805433	t}_	-1.360106
-4.981261	u|b}AH	-0.5528827
-3.91885	u|i}UW	-1.232834
-6.022654	u|j}AY	-0.672796
-5.721623	u|l}AH	-0.2410741
-4.90871	u|l}UH	-1.132625
-5.420594	u|n}AH	-0.4040682
-2.611034	u|r}ER	-0.9882469
-4.943472	u|x}OW	-1.694302
-5.420594	u|y}OY	-0.651048
-5.420594	u|y}UW	-0.3231678
-5.323683	u}AA	-0.4054257
-2.004786	u}AH	-2.286396
-4.341412	u}AO	-1.973414
-5.323683	u}AW	-0.2801448
-3.843677	u}EH	-2.795967
-5.068411	u}ER	-0.4672654
-3.837962	u}IH	-1.975309
-6.022654	u}L	-0.6743008
-2.961201	u}UH	-1.60964
-2.341774	u}UW	-1.178504
-2.848594	u}W	-2.096538
-3.925744	u}Y	-1.710392
-2.725331	u}Y|UW	-0.8415536
-3.322816	u}_	-0.8412848
-5.119564	v|v}V	-0.6154448
-6.022654	v}EH|L	-0.678648
-4.389185	v}F	-1.559804
-2.001423	v}V	-1.633717
-6.022654	v}V|ER	-0.6786426
-4.147592	w|h}HH	-2.222239
-5.545532	w|y}OY	-0.5936708
-4.680231	w}D|AH	-1.720031
-3.611034	w}F	-2.396938
-3.517503	w}HH|W	-2.016625
-6.022654	w}IY|D	-0.6745394
-5.068411	w}UW	-0.9878105
-3.764975	w}V	-0.9050858
-2.196708	w}W	-2.267856
-3.947107	w}Y|UW	-0.8319279
-3.51077	w}_	-1.075376
-5.545532	x|i}SH	-0.3456669
-5.244502	x|i}ZH	-0.3199273
-6.022654	x}AE|K	-0.6786439
-6.022654	x}CH	-0.6783734
-3.764975	x}G|Z	-1.436867
-5.420594	x}G|ZH	-0.3640509
-6.022654	x}HH	-0.6713337
-4.027018	x}K	-1.565758
-2.772722	x}K|S	-1.315827
-4.7439	x}K|SH	-1.035763
-5.323683	x}SH	-0.426268
-4.30665	x}Z	-0.7649724
-5.721623	x}ZH	-0.2490013
-4.04493	x}_	-1.549521
-6.022654	y|'}_	-0.6593115
-6.022654	y|(}_	-0.678648
-6.022654	y|l}L	-0.6738756
-5.545532	y|n}IH	-0.328781
-4.454452	y|r}ER	-0.3746977
-3.867317	y}AH	-1.067016
-2.752208	y}AY	-0.9104756
-5.721623	y}EY	-0.6027002
-2.924356	y}IH	-1.577452
-2.061707	y}IY	-2.006423
-5.721623	y}W	-0.2496164
-2.985227	y}Y	-1.604908
-6.022654	z|a}AA	-0.6593115
-6.022654	z|c}ZH	-0.6626278
-6.022654	z|h}JH	-0.6786113
-5.323683	z|i}ZH	-0.6353097
-6.022654	z|s}SH	-0.619829
-5.177556	z|s}_	-1.520177
-5.420594	z|y}IH	-0.4113232
-5.545532	z|y}Z	-0.3409929
-3.644256	z|z}Z	-1.038508
-3.069861	z}S	-1.183444
-4.00562	z}T	-2.693565
-4.389185	z}T|S	-0.5998987
-2.396724	z}Z	-1.240814
-4.545532	z}ZH	-1.063235
-4.981261	z}_	-0.3610168
-6.022654	{|b}B	-0.6593115
-6.022654	{|l}L	-0.6686415
-6.022654	}|c}K	-0.6619391
-6.022654	}|r}R	-0.6748244
			
\2-grams:			
-0.1021425	!|e}EH x}K|S	0.0000
-0.1021425	"|c}K l}L	0.0000
-0.1021425	"|d}D o|u}AH	0.0000
-0.3593568	"|e}EH n}N	-0.3593929
-0.1021425	"|i}IH n}N	0.0000
-0.1021425	"|q}K u}W	0.0000
-0.1021425	"|u}AH n}N	0.0000
-0.1021425	#|s}SH h}_	0.0000
-0.1021425	%|p}P e|r}ER	0.0000
-0.1021425	&|a}AE m}M	0.0000
-1.067651	'|s}Z (}_	0.03371096
-0.03894089	'|s}Z </s>	0.0000
-1.730425	'}AH (}_	-0.3977471
-1.77424	'}AH d}D	0.0000
-1.77424	'}AH g}G	0.0000
-0.6720979	'}AH l|l}L	-1.00202
-1.730425	'}AH m}M	0.0000
-1.315234	'}AH n}N	-0.05235702
-0.3296752	'}AH s}Z	-0.8376805
-0.9731278	'}AH v}V	-0.8039666
-0.1021425	'}EH s}S	0.0000
-0.1021425	'}ER|EY s}SH	0.0000
-2.200644	'}IH (}_	-0.6542224
-2.080386	'}IH d}D	-0.1098773
-2.65965	'}IH l|l}L	0.0000
-2.65965	'}IH r}R	0.0000
-1.327058	'}IH s}S	-0.8790744
-0.03376073	'}IH s}Z	-1.916023
-2.65965	'}IH v}V	0.0000
-0.5792638	'}IH|Z (}_	0.0000
-0.5354481	'}IH|Z </s>	0.0000
-1.33708	'}IY a}AE	-0.2847491
-1.33708	'}IY a}AH	-0.3810398
-1.380896	'}IY g}JH	0.0000
-1.33708	'}IY s}S	0.0000
-0.1995724	'}IY s}Z	-0.6092011
-0.1021425	'}IY|OW v}V	0.0000
-0.1021425	'}SH|AH _}N	0.0000
-1.408471	'}_ (}_	0.6539321
-0.4498639	'}_ </s>	0.0000
-3.455096	'}_ a|u}AO	0.0000
-2.273773	'}_ a}AA	-0.3400183
-2.587423	'}_ a}AE	-0.1721975
-2.398711	'}_ a}AH	-0.363555
-3.455096	'}_ a}AO	0.0000
-3.455096	'}_ a}EY	0.0000
-3.455096	'}_ a}_	0.0000
-1.937981	'}_ b}B	-0.3492166
-2.097682	'}_ c}K	-0.3041255
-3.455096	'}_ c}S	0.0000
-1.729705	'}_ d}D	-0.4564267
-3.455096	'}_ e|r}ER	0.0000
-3.455096	'}_ e}AA	0.0000
-2.99609	'}_ e}AH	-0.08171906
-2.239011	'}_ e}EH	-0.4124799
-3.411281	'}_ e}EY	-0.3819638
-3.455096	'}_ e}IY	0.0000
-3.411281	'}_ e}_	0.0000
-2.587423	'}_ f}F	-0.2843544
-2.587423	'}_ g}G	0.0004450306
-2.0742	'}_ h}HH	-0.1971689
-3.411281	'}_ h}_	-0.3974639
-3.411281	'}_ i}IH	0.0000
-3.455096	'}_ i}IY	0.0000
-2.398711	'}_ k}K	-0.2632087
-2.206826	'}_ l|l}L	-1.148149
-2.596551	'}_ l}L	-0.2174767
-2.311561	'}_ m}M	-0.025235
-2.596551	'}_ n}N	-0.4124583
-2.875833	'}_ o}AO	-0.4385782
-3.411281	'}_ o}_	-0.3926298
-3.411281	'}_ q}K	0.7142808
-2.449864	'}_ r}ER	-0.667047
-2.311561	'}_ r}R	-0.1933481
-2.875833	'}_ s|h}SH	0.0000
-0.3338376	'}_ s}S	-2.320864
-2.051924	'}_ s}_	-1.267363
-1.875833	'}_ t}T	-0.7200922
-2.449864	'}_ t}_	-0.6148549
-2.587423	'}_ v}V	-0.5412419
-0.1021425	(}AE|L 2|)}_	0.0000
-0.1021425	(}AE|M 2|)}_	0.0000
-0.4031725	(}AH|N 2|)}Z	0.0000
-0.4031725	(}AH|N 2|)}_	0.0000
-0.3593568	(}AH|T 2|)}_	0.0000
-0.1021425	(}AH|V 2}IH|ZH	0.0000
-0.1021425	(}AO|S 2}AH|B	0.0000
-0.1021425	(}B|AH _}Y|UW	0.0000
-0.1021425	(}CH|IY 3|)}_	0.0000
-0.1021425	(}EH|T 2}AH|T	0.0000
-0.8011125	(}ER 2|)}Z	0.0000
-0.8011125	(}ER 2|)}_	0.0000
-0.8011125	(}ER 3|)}_	0.0000
-0.8011125	(}ER 3}AH|B	0.0000
-0.8011125	(}ER _}N	0.0000
-0.1021425	(}ER|AW 2|)}ER	0.0000
-0.1021425	(}EY|SH 2|)}_	0.0000
-0.06494081	(}IY 2|)}_	1.447255
-1.079181	(}IY 3|)}_	2.006928
-1.614629	(}IY 4|)}_	1.913612
-0.1021425	(}R|EY _}T	0.0000
-0.1021425	(}R|JH 3|)}_	0.0000
-0.1021425	(}SH|AH 2|)}_	0.0000
-0.1021425	(}S|T 2|)}_	0.0000
-0.1249387	(}T|ER 2|)}_	2.06006
-0.1021425	(}W|AY 2|)}_	0.0000
-0.3593568	(}Y|UW 2|)}_	2.554264
-4.098698	(}_ 2|)}AY	0.0000
-3.042313	(}_ 2|)}Z	0.07918119
-0.04658027	(}_ 2|)}_	-0.9380603
-4.098698	(}_ 3|)}M	0.0000
-1.100581	(}_ 3|)}_	0.00274682
-4.098698	(}_ 3}AH|B	0.0000
-1.691204	(}_ 4|)}_	0.004257679
-4.098698	(}_ 5|)}Z	0.0000
-4.098698	(}_ b}B	0.0000
-4.098698	(}_ i}IH	0.0000
-4.098698	(}_ l}L	0.0000
-4.098698	(}_ o}OW	0.0000
-3.519434	(}_ p}P	-0.8892503
-0.3593568	)|c}K l}L	-0.3877182
-0.2451963	)|e}EH n}N	-0.6158682
-0.3593568	)|p}P a|r}ER	-0.3830219
-0.3593568	)|r}R i}AY	-0.3742681
-0.1021425	)|u}AH n}N	0.0000
-0.5354481	)}AH|L </s>	0.0000
-0.5792638	)}AH|L _}Y|UW	0.0000
-0.1021425	)}AH|N </s>	0.0000
-0.1021425	)}IH|V </s>	0.0000
-0.1021425	,|c}K o}AA	0.0000
-0.3593568	-}EY m}M	-0.3743747
-0.1021425	-}EY|T 8|0}IY	0.0000
-0.1021425	-}F 4}AO|R	0.0000
-1.005233	-}IY b}B	0.0000
-0.9614168	-}IY c}K	-0.3692654
-0.9614168	-}IY j}JH	-0.3957094
-1.005233	-}IY l}L	0.0000
-0.9614168	-}IY s}S	-0.3790879
-2.858779	-}_ 2}T|UW	0.0000
-2.858779	-}_ 3}TH	0.0000
-2.858779	-}_ 8}EY|T	0.0000
-2.858779	-}_ _}W	0.0000
-2.858779	-}_ a|i}EH	0.0000
-2.279515	-}_ a|i}EY	-0.8893124
-2.858779	-}_ a|r}ER	0.0000
-2.858779	-}_ a|u}OW	0.0000
-2.057666	-}_ a}AA	0.04012379
-1.991105	-}_ a}AE	-0.1883341
-1.715243	-}_ a}AH	-0.5259776
-2.858779	-}_ a}EH	0.0000
-2.858779	-}_ a}EY	0.0000
-1.200334	-}_ b}B	-0.1994011
-2.057666	-}_ c|h}CH	-0.301102
-2.814963	-}_ c|h}SH	-0.3573564
-1.123168	-}_ c}K	-0.3633009
-2.057666	-}_ c}S	-0.3585792
-1.325272	-}_ d}D	-0.2426926
-2.858779	-}_ e|a}IY	0.0000
-2.279515	-}_ e}AA	-0.01316684
-2.858779	-}_ e}AH	0.0000
-2.399772	-}_ e}EH	-0.1248385
-2.858779	-}_ e}EY	0.0000
-2.279515	-}_ e}IH	-0.2203184
-2.858779	-}_ e}Y	0.0000
-2.399772	-}_ e}_	-0.4588185
-1.394908	-}_ f}F	-0.3480925
-1.677455	-}_ g}G	-0.2937697
-1.265274	-}_ h}HH	-0.1724748
-2.279515	-}_ h}_	-0.2062241
-2.000233	-}_ i}AY	-0.9118531
-1.853546	-}_ i}IH	-0.182149
-2.858779	-}_ j|u}W	0.0000
-2.858779	-}_ j}HH	0.0000
-1.756636	-}_ j}JH	-0.04105681
-2.814963	-}_ k|n}N	-0.3618494
-1.991105	-}_ k}K	0.0000
-1.414213	-}_ l}L	-0.2409285
-1.376425	-}_ m}M	-0.2733777
-1.756636	-}_ n}N	-0.1776716
-2.814963	-}_ o|u}AW	-0.2629438
-1.455606	-}_ o}AA	-1.332595
-2.858779	-}_ o}AH	0.0000
-1.853546	-}_ o}AO	0.005085945
-2.057666	-}_ o}OW	0.0000
-2.858779	-}_ o}_	0.0000
-1.113183	-}_ p}P	-0.4531377
-1.715243	-}_ q}K	0.03324091
-2.858779	-}_ r}ER	0.0000
-1.477883	-}_ r}R	-0.2192103
-2.858779	-}_ r}_	0.0000
-2.399772	-}_ s|h}SH	-0.1432327
-1.103424	-}_ s}S	-0.2883453
-2.814963	-}_ t|h}DH	0.0000
-2.814963	-}_ t|h}TH	-0.3648319
-1.455606	-}_ t}T	-0.2640943
-2.858779	-}_ u|r}ER	0.0000
-1.853546	-}_ u}AH	-0.9386705
-2.858779	-}_ u}Y|UW	0.0000
-2.000233	-}_ v}V	0.0000
-2.858779	-}_ w}HH|W	0.0000
-1.455606	-}_ w}W	-0.4375359
-1.642693	-}_ y}Y	-0.2834718
-2.279515	-}_ z}Z	-0.2082626
-2.858779	-}_ z}ZH	0.0000
-0.1021425	.|'}IH s}Z	0.0000
-0.1021425	.|(}OW 2|)}_	0.0000
-0.1021425	.|.}IH .|e}L	0.0000
-0.4031725	.|d}D e}EH	0.0000
-0.4031725	.|d}D o}AA	0.0000
-0.1021425	.|e}L l|l}_	0.0000
-0.1021425	.|f}F u}UH	0.0000
-0.4031725	.|p}P e}IH	0.0000
-0.4031725	.|p}P o|i}OY	0.0000
-0.8802938	.|s}Z '}_	0.0000
-0.07918125	.|s}Z </s>	0.0000
-0.5792638	.}AA|R '|s}Z	0.0000
-0.5792638	.}AA|R </s>	0.0000
-0.5792638	.}AA|R s}Z	0.0000
-0.1021425	.}AH|B (}AE|M	0.0000
-0.1021425	.}AH|K (}AH|T	0.0000
-0.1021425	.}AH|L </s>	0.0000
-0.4031725	.}AY '|s}Z	0.0000
-0.4031725	.}AY </s>	0.0000
-0.1021425	.}AY|V </s>	0.0000
-0.5792638	.}CH '}IH	0.0000
-0.5792638	.}CH (}_	0.0000
-0.5792638	.}CH </s>	0.0000
-0.3593568	.}D|AA _}T	0.0000
-0.4031725	.}ER|EY '}SH|AH	0.0000
-0.4031725	.}ER|EY (}SH|AH	0.0000
-0.3679768	.}EY '|s}Z	0.1743588
-0.3679768	.}EY </s>	0.0000
-0.9472406	.}EY s}Z	0.0000
-0.1021425	.}IH s}Z	0.0000
-0.1021425	.}IH|V </s>	0.0000
-0.1021425	.}IH|Z </s>	0.0000
-0.5509075	.}IY '|s}Z	0.06670344
-1.607293	.}IY (}_	0.0000
-0.50515	.}IY </s>	0.0000
-1.607293	.}IY _}EH	0.0000
-1.607293	.}IY d}D	0.0000
-1.607293	.}IY o|.}OW	0.0000
-0.5509075	.}IY s}Z	-0.4952577
-0.1021425	.}P _}AH|N	0.0000
-0.1021425	.}P|AO (}R|EY	0.0000
-1.143535	.}S '}IH	0.0000
-0.5642715	.}S '}_	-0.8884739
-1.143535	.}S (}AH|T	0.0000
-1.143535	.}S (}ER	0.0000
-1.143535	.}S (}_	0.0000
-0.5642715	.}S </s>	0.0000
-1.143535	.}S e|r}ER	0.0000
-0.4031725	.}T|ER (}_	0.0000
-0.4031725	.}T|ER </s>	0.0000
-0.5792638	.}UW '|s}Z	0.0000
-0.5792638	.}UW </s>	0.0000
-0.5792638	.}UW s}Z	0.0000
-0.1021425	.}Y|AH </s>	0.0000
-0.8364781	.}Y|UW '|s}Z	0.6685622
-0.8364781	.}Y|UW </s>	0.0000
-0.8364781	.}Y|UW s}Z	0.106601
-0.1021425	/|s}S l}L	0.0000
-0.1021425	0}Z|IH _}R|OW	0.0000
-0.8011125	1}AH|N 2}T|UW	0.0000
-0.3421063	1}AH|N </s>	0.0000
-0.1021425	1}HH|W (}AH|N	0.0000
-0.1021425	2|)}AY _}N	0.0000
-0.1021425	2|)}D </s>	0.0000
-0.3593568	2|)}ER </s>	0.0000
-0.03778856	2|)}Z </s>	0.0000
-0.0004848661	2|)}_ </s>	0.0000
-4.054547	2|)}_ _}AH	0.0000
-4.010732	2|)}_ _}AH|N	-0.0002012551
-4.054547	2|)}_ _}B|ER	0.0000
-3.595541	2|)}_ _}EY	-0.5296778
-4.054547	2|)}_ _}N	0.0000
-4.054547	2|)}_ _}S	0.0000
-0.1021425	2}AH|B )}AH|L	0.0000
-0.1021425	2}AH|T )}IH|V	0.0000
-0.1021425	2}IH|ZH )}AH|N	0.0000
-0.9472406	2}T|UW 8}EY|T	0.0000
-0.146128	2}T|UW </s>	0.0000
-0.9472406	2}T|UW _}W	0.0000
-0.1021425	2}UW|S 7}EH|V	0.0000
-0.1021425	3|)}M </s>	0.0000
-0.0005480057	3|)}_ </s>	0.0000
-3.001416	3|)}_ _}AH	0.0000
-0.3593568	3}AH|B )}AH|L	0.0000
-0.2451963	3}TH _}R|IY	-0.2286478
-0.002123694	4|)}_ </s>	0.0000
-0.8011125	4}AO|R 2}T|UW	0.0000
-0.3421063	4}AO|R </s>	0.0000
-0.1021425	5|)}IY </s>	0.0000
-0.1021425	5|)}Z </s>	0.0000
-0.1249387	5}AY|V </s>	0.0000
-0.3593568	6}S|IH _}K|S	0.0000
-0.3593568	7}EH|V _}AH|N	0.0000
-0.1021425	8|0}IY </s>	0.0000
-0.1249387	8}EY|T </s>	0.0000
-0.4031725	9}N|AY _}N	0.0000
-0.4031725	9}N|AY _}N|T	0.0000
-0.1021425	:|c}K o}OW	0.0000
-0.3593568	;|s}S e}EH	-0.3756152
-5.227455	<s> !|e}EH	0.0000
-5.227455	<s> "|c}K	0.0000
-5.227455	<s> "|d}D	0.0000
-5.183639	<s> "|e}EH	-0.148524
-5.227455	<s> "|i}IH	0.0000
-5.227455	<s> "|q}K	0.0000
-5.227455	<s> "|u}AH	0.0000
-5.227455	<s> #|s}SH	0.0000
-5.227455	<s> %|p}P	0.0000
-5.227455	<s> &|a}AE	0.0000
-5.183639	<s> '}AH	0.0000
-5.227455	<s> '}EH	0.0000
-3.894863	<s> '}_	-0.1945237
-4.359781	<s> (}_	-0.2030571
-5.183639	<s> )|c}K	-0.148524
-4.768448	<s> )|e}EH	-0.2895008
-5.183639	<s> )|p}P	-0.148524
-5.183639	<s> )|r}R	-0.148524
-5.227455	<s> )|u}AH	0.0000
-5.227455	<s> ,|c}K	0.0000
-5.183639	<s> -}_	0.0000
-5.227455	<s> .|.}IH	0.0000
-5.183639	<s> .|d}D	0.0000
-5.227455	<s> .|f}F	0.0000
-5.183639	<s> .|p}P	0.0000
-5.227455	<s> /|s}S	0.0000
-5.227455	<s> 0}Z|IH	0.0000
-5.227455	<s> 1}HH|W	0.0000
-5.227455	<s> 2}T|UW	0.0000
-5.227455	<s> 3}TH	0.0000
-5.227455	<s> 6}S|IH	0.0000
-5.227455	<s> 8}EY|T	0.0000
-5.227455	<s> 9}N|AY	0.0000
-5.227455	<s> :|c}K	0.0000
-5.183639	<s> ;|s}S	-0.148524
-5.227455	<s> ?|q}K	0.0000
-5.183639	<s> _}AH	0.2593501
-3.035407	<s> _}EH	-0.1723384
-5.183639	<s> _}F	0.0000
-5.227455	<s> _}HH	0.0000
-4.768448	<s> _}IH	-0.4230117
-5.227455	<s> _}JH|UW	0.0000
-5.227455	<s> _}S	0.0000
-3.870039	<s> _}W	-0.9132043
-4.17107	<s> _}Y	-0.5120871
-5.227455	<s> a|c}AE	0.0000
-3.038952	<s> a|i}EH	-0.6757996
-3.339982	<s> a|i}EY	-0.3500665
-5.227455	<s> a|j}AY	0.0000
-4.768448	<s> a|l}AA	0.7341763
-5.183639	<s> a|l}AO	0.0000
-5.183639	<s> a|n}AE	-0.3537582
-4.222222	<s> a|o}AW	-0.1464383
-3.166271	<s> a|r}ER	-0.7863615
-2.759824	<s> a|u}AO	-0.7485309
-3.453214	<s> a|u}AW	-0.08648583
-3.921192	<s> a|u}OW	-0.1494099
-4.011369	<s> a|w}AO	-0.3616002
-5.183639	<s> a|y}EH	0.38001
-3.581244	<s> a|y}EY	-0.2253194
-4.368909	<s> a|y}_	0.2267672
-2.034349	<s> a}AA	-0.6079478
-1.664564	<s> a}AE	-0.6672418
-1.85814	<s> a}AH	-1.493287
-3.035407	<s> a}AO	-1.703076
-4.768448	<s> a}AY	-0.363114
-2.952126	<s> a}EH	-1.023564
-2.635354	<s> a}EY	-0.4475537
-4.17107	<s> a}IH	-0.949417
-5.227455	<s> a}T|R	0.0000
-3.222222	<s> a}_	-1.112774
-5.227455	<s> b|y}B	0.0000
-1.14286	<s> b}B	-1.620044
-2.092693	<s> c|h}CH	-1.106488
-4.648191	<s> c|h}HH	0.0000
-2.957995	<s> c|h}SH	-0.128697
-3.662914	<s> c|i}CH	-0.4710539
-3.710339	<s> c|z}CH	-0.4749298
-4.768448	<s> c|z}Z	-0.2895008
-3.083919	<s> c}CH	-0.5510956
-1.191774	<s> c}K	-1.859769
-2.242788	<s> c}S	-0.7318383
-5.227455	<s> c}SH	0.0000
-5.183639	<s> c}_	0.0000
-4.08392	<s> d|z}JH	-0.2625717
-1.239894	<s> d}D	-2.070945
-5.183639	<s> d}JH	0.0000
-4.359781	<s> d}_	-0.5772318
-2.960959	<s> e|a}IY	-0.4973026
-3.803093	<s> e|i}EY	-0.4232107
-5.227455	<s> e|n}EH	0.0000
-3.108279	<s> e|r}ER	-0.5567107
-5.183639	<s> e|u}OY	0.0000
-4.648191	<s> e|y}EH	-0.5333227
-4.222222	<s> e|y}EY	-0.04888549
-3.745101	<s> e}AA	-0.5187622
-3.523252	<s> e}AH	-0.5716348
-5.227455	<s> e}AO	0.0000
-1.732439	<s> e}EH	-0.7630796
-3.545528	<s> e}EY	-0.4215795
-2.054536	<s> e}IH	-1.379759
-2.622885	<s> e}IY	-0.9201742
-3.782889	<s> e}Y	-0.7596678
-2.537601	<s> e}_	-1.545212
-1.409643	<s> f}F	-1.405988
-3.339982	<s> g|i}JH	-0.5014235
-3.678154	<s> g|n}N	-0.4703215
-2.882274	<s> g|u}G	-1.57748
-1.444977	<s> g}G	-1.55717
-5.183639	<s> g}HH	0.0000
-2.319811	<s> g}JH	-0.6080697
-5.227455	<s> g}K	0.0000
-3.63395	<s> g}ZH	0.03643227
-5.183639	<s> h}EY	-0.2485168
-4.125312	<s> h}EY|CH	0.01504545
-1.328322	<s> h}HH	-0.2291942
-2.969976	<s> h}_	-0.9790093
-5.183639	<s> i|.}AY	0.0000
-4.426342	<s> i|n}IH	-0.3025
-3.824282	<s> i|r}ER	-0.5321858
-5.227455	<s> i}AA	0.0000
-5.227455	<s> i}AH	0.0000
-2.507264	<s> i}AY	-0.73849
-1.661419	<s> i}IH	-0.9638238
-3.17107	<s> i}IY	-0.3447748
-4.768448	<s> i}Y	0.01595388
-5.183639	<s> i}_	0.0000
-4.368909	<s> j|o}W	0.3980092
-4.426342	<s> j|u}W	0.1309232
-3.824282	<s> j}HH	-0.09663963
-1.967553	<s> j}JH	-0.2706798
-2.943469	<s> j}Y	-0.2908947
-3.63395	<s> j}ZH	-0.1635371
-5.227455	<s> k|j}JH	0.0000
-2.792874	<s> k|n}N	-0.01857305
-4.648191	<s> k}G	-0.1384631
-4.426342	<s> k}HH	-0.5168943
-1.531251	<s> k}K	-1.463354
-5.227455	<s> k}OW|K	0.0000
-3.846559	<s> l|l}L	-0.4335584
-1.389234	<s> l}L	-1.862017
-5.183639	<s> l}P|AW	-0.148524
-5.183639	<s> m|m}M	0.0000
-4.768448	<s> m|n}N	-0.148524
-1.170346	<s> m}M	-1.733921
-4.426342	<s> m}M|AE	0.02194744
-2.50103	<s> m}M|AH	0.03984976
-5.227455	<s> m}M|AW	0.0000
-5.183639	<s> m}M|AY	-0.148524
-4.368909	<s> n|g}G	-0.04455036
-1.649931	<s> n}N	-1.86709
-5.183639	<s> o|.}OW	0.0000
-3.870039	<s> o|i}OY	-0.7025372
-5.227455	<s> o|n}W	0.0000
-3.921192	<s> o|o}UW	-0.1523815
-3.846559	<s> o|r}ER	-0.5626054
-4.648191	<s> o|u}AO	-0.8275858
-2.687562	<s> o|u}AW	-0.8684248
-4.426342	<s> o|u}UW	0.0000
-4.08392	<s> o|w}AW	-0.08813906
-3.745101	<s> o|w}OW	-0.524847
-4.222222	<s> o|y}OY	-0.05783045
-2.344995	<s> o}AA	-0.442467
-2.826459	<s> o}AH	-0.5119523
-2.425474	<s> o}AO	-0.7830012
-2.032241	<s> o}OW	-1.272367
-5.227455	<s> o}UW	0.0000
-3.979184	<s> o}_	-0.340935
-3.502063	<s> p|f}F	-0.3323053
-2.597682	<s> p|h}F	-0.8327737
-3.319132	<s> p|s}S	-0.1790833
-1.231384	<s> p}P	-1.743348
-3.949221	<s> p}_	-0.9234245
-5.227455	<s> q|i}JH	0.0000
-3.745101	<s> q|u}K	-0.1259933
-5.183639	<s> q}CH	0.0000
-2.475977	<s> q}K	-0.2874348
-4.359781	<s> r}AA|R	-0.06684218
-4.648191	<s> r}ER	-0.2014881
-1.261513	<s> r}R	-2.019062
-4.426342	<s> r}_	-0.3210081
-2.204146	<s> s|c}SH	-1.167199
-1.988275	<s> s|h}SH	-1.215959
-5.183639	<s> s|i}SH	0.0000
-5.227455	<s> s|i}ZH	0.0000
-4.359781	<s> s|j}SH	-0.1025189
-5.227455	<s> s|s}S	0.0000
-3.534247	<s> s|z}SH	-0.3258631
-1.065521	<s> s}S	-1.817381
-3.523252	<s> s}SH	-0.4578106
-5.227455	<s> s}S|AW	0.0000
-3.238821	<s> s}_	-1.073323
-3.325972	<s> t|h}DH	-0.5424492
-2.317777	<s> t|h}TH	-1.180782
-4.359781	<s> t|s}_	-0.7756749
-4.426342	<s> t}CH	-0.3199203
-4.368909	<s> t}D	-0.7795088
-1.43966	<s> t}T	-1.520479
-3.606798	<s> t}_	-0.4669998
-4.648191	<s> u|n}AH	-0.1148219
-3.25608	<s> u|r}ER	-0.4692006
-2.016747	<s> u}AH	-1.247674
-4.222222	<s> u}AO	-0.8640659
-3.979184	<s> u}UH	-0.6372135
-3.369437	<s> u}UW	-0.3156993
-4.648191	<s> u}W	-0.8372106
-3.545528	<s> u}Y	-0.7887718
-2.692343	<s> u}Y|UW	-0.7026758
-5.183639	<s> u}_	-0.3572684
-1.755725	<s> v}V	-0.6218456
-5.227455	<s> v}V|ER	0.0000
-3.25608	<s> w|h}HH	0.1322718
-3.949221	<s> w}D|AH	-0.1627274
-2.638174	<s> w}HH|W	-0.1313125
-3.216827	<s> w}V	-0.1260812
-1.554069	<s> w}W	-0.5387141
-3.004738	<s> w}_	-1.661186
-5.227455	<s> x|i}SH	0.0000
-4.368909	<s> x|i}ZH	-0.2282743
-5.227455	<s> x}AE|K	0.0000
-5.227455	<s> x}K|S	0.0000
-4.768448	<s> x}SH	-0.07148439
-3.453214	<s> x}Z	-0.006346166
-5.183639	<s> x}ZH	-0.148524
-4.359781	<s> y}IH	-0.3281478
-4.17107	<s> y}IY	-0.147695
-5.183639	<s> y}W	-0.148524
-2.282079	<s> y}Y	0.03723156
-5.227455	<s> z|h}JH	0.0000
-5.183639	<s> z|i}ZH	-0.3146662
-5.183639	<s> z|y}Z	-0.2485168
-5.227455	<s> z}T|S	0.0000
-2.174947	<s> z}Z	-0.7439874
-3.949221	<s> z}ZH	-0.7196858
-5.227455	<s> {|b}B	0.0000
-5.227455	<s> {|l}L	0.0000
-5.227455	<s> }|c}K	0.0000
-5.227455	<s> }|r}R	0.0000
-0.1021425	?|q}K u}W	0.0000
-0.1021425	_|d}D e}_	0.0000
-0.1021425	_|p}P r}R	0.0000
-0.8011125	_}AA|N g}ZH	0.0000
-0.8011125	_}AA|N j}ZH	0.0000
-0.7572968	_}AA|N l}L	0.0000
-0.8011125	_}AA|N s}S	0.0000
-0.4031725	_}AA|R b}B	0.0000
-0.4031725	_}AA|R d}D	0.0000
-2.763955	_}AH (}T|ER	0.0000
-2.763955	_}AH 2|)}D	0.0000
-2.304949	_}AH </s>	0.0000
-2.763955	_}AH _}EH	0.0000
-2.763955	_}AH _}S|T	0.0000
-2.763955	_}AH _}T	0.0000
-2.763955	_}AH _}W	0.0000
-2.304949	_}AH _}Y|UW	0.0000
-2.72014	_}AH b}B	0.0000
-2.72014	_}AH c}K	-0.3880546
-2.763955	_}AH d}D	0.0000
-2.763955	_}AH e}N|UW	0.0000
-2.72014	_}AH f}F	0.0000
-2.72014	_}AH g}G	0.0000
-2.184691	_}AH j}JH	0.0000
-2.184691	_}AH j}Y	0.0000
-2.763955	_}AH k}K	0.0000
-2.763955	_}AH l|l}L	0.0000
-2.763955	_}AH m|b}M	0.0000
-0.1079297	_}AH m}M	-1.585908
-1.199415	_}AH n}N	-0.6000347
-2.763955	_}AH n}S|IY	0.0000
-2.763955	_}AH p}P	0.0000
-2.184691	_}AH r}R	-0.8716497
-2.763955	_}AH s}CH|UW	0.0000
-1.962843	_}AH s}S	0.0000
-2.763955	_}AH s}Z	0.0000
-2.763955	_}AH t}T	0.0000
-2.763955	_}AH u}Y|UW	0.0000
-1.547869	_}AH v}V	-0.04027273
-1.896282	_}AH w}W	-0.5768425
-2.763955	_}AH z|y}Z	0.0000
-2.184691	_}AH z}Z	0.0000
-2.763955	_}AH z}ZH	0.0000
-0.69897	_}AH|L .}Y|UW	0.0000
-1.278234	_}AH|L </s>	0.0000
-0.2218488	_}AH|L _}Y|UW	0.03928911
-1.278234	_}AH|L a}EY	0.0000
-1.278234	_}AH|L u}Y|UW	0.0000
-0.8011125	_}AH|N (}IY	0.0000
-0.8011125	_}AH|N 6}S|IH	0.0000
-0.2218488	_}AH|N </s>	0.0000
-0.8011125	_}AO|R .}P|AO	0.0000
-0.7572968	_}AO|R _}N	0.0000
-0.8011125	_}AO|R e}TH|IY	0.0000
-0.8011125	_}AO|R t}T	0.0000
-1.424362	_}B (}IY	0.0000
-0.9653556	_}B _}AH	-0.6524592
-0.2082759	_}B _}AH|L	-0.2737137
-1.424362	_}B _}EH	0.0000
-1.380546	_}B _}Y	-0.3950633
-0.1249387	_}B|ER </s>	0.0000
-2.500807	_}EH .}S	0.0000
-2.544622	_}EH _}L	0.0000
-2.544622	_}EH _}R	0.0000
-2.544622	_}EH _}R|IY	0.0000
-2.544622	_}EH _}T	0.0000
-2.544622	_}EH _}T|ER	0.0000
-2.544622	_}EH c}S	0.0000
-2.544622	_}EH f|.}F	0.0000
-2.544622	_}EH f|f}F	0.0000
-1.14145	_}EH f}F	-0.324572
-2.500807	_}EH l|.}L	0.0000
-1.027506	_}EH l}L	-0.2221965
-1.965358	_}EH m|.}M	-0.07231367
-0.710086	_}EH m}M	-0.2128536
-2.500807	_}EH n|.}N	0.0000
-2.500807	_}EH n|g}NG	0.0000
-0.7182039	_}EH n}N	-0.2816615
-2.500807	_}EH r}R	0.0000
-2.500807	_}EH s|s}S	-0.397855
-0.5851473	_}EH s}S	-0.3636929
-2.544622	_}EH v}V	0.0000
-2.544622	_}EH x}G|Z	0.0000
-1.74351	_}EH x}K	-0.308228
-1.12026	_}EH x}K|S	-0.2649313
-2.544622	_}EH z}Z	0.0000
-0.1021425	_}EH|M _}B|ER	0.0000
-0.9822713	_}EY '|s}Z	0.1976266
-0.60206	_}EY </s>	0.0000
-1.20412	_}EY _}EH	-0.8001129
-1.783384	_}EY _}EY	0.0000
-1.783384	_}EY _}W	0.0000
-1.783384	_}EY a}AA	0.0000
-1.739568	_}EY a}AE	-0.3673664
-1.783384	_}EY a}EY	0.0000
-1.739568	_}EY c}K	0.0000
-1.783384	_}EY d}D	0.0000
-0.9248387	_}EY e}AH	-0.688991
-1.739568	_}EY j}JH	-0.3957094
-1.20412	_}EY k}K	-0.8916406
-1.739568	_}EY m}M	-0.3743747
-1.783384	_}EY n}N	0.0000
-1.783384	_}EY o}OW	0.0000
-1.783384	_}EY r}AA|R	0.0000
-1.739568	_}EY t}T	0.0000
-1.783384	_}EY w}D|AH	0.0000
-0.9472406	_}EY|N _}Y	0.0000
-0.08869544	_}EY|N t}T	-0.09631187
-0.8984088	_}F 4}AO|R	-0.197295
-0.7781513	_}F 5}AY|V	-0.2902846
-1.313599	_}F e|r}ER	-0.3938974
-1.357415	_}F i}AH	0.0000
-1.357415	_}F i}IH	0.0000
-1.357415	_}F r}ER	0.0000
-0.5563025	_}F r}R	-0.5929676
-1.357415	_}F s}S	0.0000
-0.4031725	_}HH _}W	0.0000
-0.4031725	_}HH r}R	0.0000
-1.658445	_}IH _}K	0.0000
-1.658445	_}IH _}S|T	0.0000
-1.658445	_}IH c|k}K	0.0000
-1.614629	_}IH c}K	0.0000
-1.658445	_}IH d}D	0.0000
-1.658445	_}IH k}K	0.0000
-1.658445	_}IH l}L	0.0000
-1.614629	_}IH m}M	0.0000
-1.658445	_}IH n|g}NG	0.0000
-1.658445	_}IH n}L|V	0.0000
-1.658445	_}IH n}N	0.0000
-1.658445	_}IH n}NG	0.0000
-1.658445	_}IH q}K	0.0000
-1.658445	_}IH r}R	0.0000
-1.658445	_}IH s|.}Z	0.0000
-1.199439	_}IH s}S	-0.3461048
-0.60206	_}IH s}Z	-0.4495003
-1.614629	_}IH t}T	0.0000
-1.658445	_}IH v}V	0.0000
-1.079181	_}IH x}G|Z	-0.2198352
-0.1021425	_}IH|L _}Y	0.0000
-0.1021425	_}IH|M _}IH	0.0000
-2.480541	_}IY 2}T|UW	0.0000
-2.480541	_}IY 3}TH	0.0000
-0.7251854	_}IY </s>	0.0000
-0.7349452	_}IY _}EH	-0.304108
-2.436725	_}IY _}F	0.0000
-2.480541	_}IY _}N	0.0000
-1.679428	_}IY _}W	-0.3938013
-1.077368	_}IY a}EY	-0.465327
-1.621995	_}IY b}B	-0.5534118
-1.174278	_}IY c}S	-1.613307
-1.264455	_}IY d}D	-0.6362427
-1.424155	_}IY e}IY	-0.2800748
-2.436725	_}IY g}JH	-0.3958575
-1.621995	_}IY h}EY|CH	-0.0960032
-2.436725	_}IY h}HH	-0.3629959
-1.475308	_}IY i}AY	-0.1536075
-2.480541	_}IY j}JH	0.0000
-2.480541	_}IY k}K	0.0000
-2.480541	_}IY m}M	0.0000
-2.480541	_}IY o|r}ER	0.0000
-1.621995	_}IY o}OW	-0.2445289
-1.901277	_}IY p}P	-0.8914662
-2.436725	_}IY q}K	-0.3959617
-2.021534	_}IY r}AA|R	-0.1017139
-2.021534	_}IY r}R	-0.3574551
-2.436725	_}IY s}S	0.0000
-1.612867	_}IY s}Z	0.192972
-1.424155	_}IY t}T	-0.3949907
-1.612867	_}IY u}Y|UW	-0.1809665
-1.612867	_}IY v}V	-0.7404077
-2.436725	_}IY w}D|AH	0.6432514
-2.480541	_}IY w}W	0.0000
-0.1021425	_}JH|UW _}N	0.0000
-0.1021425	_}K o}AH	0.0000
-0.4031725	_}K|S 2}T|UW	0.0000
-0.4031725	_}K|S </s>	0.0000
-0.1021425	_}L _}Y|UW	0.0000
-0.4031725	_}L|Z p}P	0.0000
-0.4031725	_}L|Z p}P|ER	0.0000
-0.1021425	_}M|ER _}IH	0.0000
-1.306262	_}N .}Y|AH	0.0000
-1.306262	_}N 2|)}ER	0.0000
-0.7269987	_}N </s>	0.0000
-1.262447	_}N _}Y	0.0000
-1.306262	_}N a}AH	0.0000
-1.306262	_}N g}G	0.0000
-1.262447	_}N i}IH	-0.3937829
-1.306262	_}N j}Y	0.0000
-1.306262	_}N n|g}NG	0.0000
-1.306262	_}N s}Z	0.0000
-1.262447	_}N t}T	0.0000
-1.579264	_}N|T 2}UW|S	0.0000
-1.579264	_}N|T c|h}CH	0.0000
-1	_}N|T c}K	-0.1971785
-1.579264	_}N|T c}S	0.0000
-1.535448	_}N|T d}D	-0.37853
-1	_}N|T g}JH	-0.1804063
-1.579264	_}N|T h}HH	0.0000
-0.7781513	_}N|T j}JH	0.0000
-0.7207187	_}N|T l}L	-0.2142917
-1	_}N|T m}M	0.0000
-1	_}N|T p}P	-0.2179113
-1.579264	_}N|T t}T	0.0000
-1.143535	_}R .}IY	0.0000
-1.09972	_}R e}EH	-0.3680203
-1.143535	_}R f}F	0.0000
-1.09972	_}R i}IH	-0.313259
-1.143535	_}R o}AO	0.0000
-1.143535	_}R r}AY|V	0.0000
-1.09972	_}R r}_	-0.387111
-1.143535	_}R s}L|Z	0.0000
-0.20412	_}R|IY </s>	0.0000
-1.005233	_}R|IY _}T	0.0000
-0.9614168	_}R|IY _}Z	0.0000
-0.1021425	_}R|OW </s>	0.0000
-0.3593568	_}R|T c}S	-0.3762621
-1.248271	_}S 7}EH|V	0.0000
-0.7892643	_}S </s>	0.0000
-1.248271	_}S _}AH	0.0000
-1.248271	_}S _}IH	0.0000
-1.204455	_}S c}IY	-0.3146662
-1.204455	_}S i}AH	-0.3977587
-1.248271	_}S m}M	0.0000
-1.248271	_}S s|h}SH	0.0000
-1.248271	_}S x}K	0.0000
-0.5354481	_}S|T </s>	0.0000
-0.5792638	_}S|T r}ER	0.0000
-1.248271	_}T .}IH|V	0.0000
-1.248271	_}T </s>	0.0000
-1.204455	_}T _}AH	0.0000
-1.248271	_}T _}EY	0.0000
-1.248271	_}T a|_}AE	0.0000
-1.248271	_}T a|u}OW	0.0000
-1.248271	_}T c}K	0.0000
-1.248271	_}T i}IH	0.0000
-1.248271	_}T n}N	0.0000
-1.248271	_}T o}AO	0.0000
-1.204455	_}T s}S	0.0000
-1.248271	_}T z}Z	0.0000
-0.1021425	_}T|ER _}AH	0.0000
-1.561101	_}W 1}AH|N	-0.1599185
-2.362214	_}W _}EH	0.0000
-2.362214	_}W a}AA	0.0000
-1.503669	_}W a}AE	-0.8823969
-0.5698753	_}W a}AH	-1.38041
-1.146128	_}W a}EH	-0.7836119
-0.7976734	_}W a}EY	-0.8938915
-1.78295	_}W e}EH	-0.1995074
-2.318398	_}W i}AH	-0.3202736
-2.318398	_}W i}AY	-0.3297894
-2.362214	_}W i}IH	0.0000
-2.362214	_}W i}IY	0.0000
-0.7687097	_}W o}AA	-1.490042
-0.9378521	_}W o}AH	-0.9796808
-1.78295	_}W u}AH	-0.1716652
-2.318398	_}W w}_	0.0000
-1.18089	_}W y}AY	-0.0925236
-2.151063	_}Y _}AH	0.0000
-2.90836	_}Y a}AA	-0.3519455
-2.90836	_}Y a}AE	-0.3794267
-1.703905	_}Y a}AH	-0.2792804
-2.084502	_}Y e}EH	-0.6387678
-2.952176	_}Y e}EY	0.0000
-2.952176	_}Y h}_	0.0000
-2.372912	_}Y i}IH	-0.2177867
-2.90836	_}Y o|r}ER	0.0000
-2.372912	_}Y o}AA	-0.7838011
-2.952176	_}Y o}AH	0.0000
-2.093631	_}Y o}AO	-0.1001324
-1.73609	_}Y o}OW	-0.1312862
-2.90836	_}Y r}ER	-0.3753584
-0.1872754	_}Y u}AH	-1.598773
-2.90836	_}Y u}AO	-0.3079646
-2.952176	_}Y u}ER	0.0000
-2.952176	_}Y u}IH	0.0000
-0.6045206	_}Y u}UH	-1.560806
-2.151063	_}Y y}IH	-0.1649158
-2.952176	_}Y y}IY	0.0000
-1.438538	_}Y|UW '|s}Z	0.6685622
-1.482354	_}Y|UW 2|)}_	0.0000
-0.6812412	_}Y|UW </s>	0.0000
-1.482354	_}Y|UW _}B	0.0000
-0.90309	_}Y|UW _}EH	0.0000
-1.482354	_}Y|UW _}W	0.0000
-1.482354	_}Y|UW a}AE	0.0000
-0.90309	_}Y|UW a}EY	-0.2142955
-1.482354	_}Y|UW b}B	0.0000
-1.482354	_}Y|UW h}EY|CH	0.0000
-1.438538	_}Y|UW i}AY	0.0000
-1.482354	_}Y|UW m}M	0.0000
-1.438538	_}Y|UW o}OW	-0.3981197
-0.8011125	_}Z (}EH|T	0.0000
-0.8011125	_}Z </s>	0.0000
-0.8011125	_}Z _}EH	0.0000
-0.8011125	_}Z p}P	0.0000
-0.8011125	_}Z s}S|UW	0.0000
-0.1021425	a|_}AE c}K	0.0000
-1.102143	a|c}AE c}S	0.0000
-0.04575749	a|c}AE q|u}K	-0.03792849
-0.4031725	a|g}AE l}L	0.0000
-0.4031725	a|g}AE m}M	0.0000
-2.134602	a|i}EH d}D	-0.7802837
-2.67005	a|i}EH g}G	-0.3840718
-2.134602	a|i}EH l|l}L	0.0000
-2.713866	a|i}EH m}M	0.0000
-2.254859	a|i}EH n}N	-0.05235702
-0.02739208	a|i}EH r}R	-1.158657
-2.67005	a|i}EH r}_	0.0000
-2.67005	a|i}EH s|s}S	-0.3849818
-2.713866	a|i}EH s}S	0.0000
-2.67005	a|i}EH s}Z	0.0000
-2.67005	a|i}EH s}_	0.0000
-2.134602	a|i}EH x}K|S	-0.2199797
-3.301075	a|i}EY '|s}Z	0.0000
-2.842068	a|i}EY (}_	0.3380477
-2.157539	a|i}EY </s>	0.0000
-3.301075	a|i}EY a}AH	0.0000
-1.968483	a|i}EY b}B	-0.2388033
-2.721811	a|i}EY c|h}CH	-0.2043184
-3.301075	a|i}EY c|k}K	0.0000
-2.842068	a|i}EY c}K	-0.6311091
-3.301075	a|i}EY c}S	0.0000
-1.230449	a|i}EY d}D	-0.5809714
-2.842068	a|i}EY e|r}ER	-0.2394325
-3.301075	a|i}EY e}_	0.0000
-3.301075	a|i}EY f|f}F	0.0000
-2.442529	a|i}EY f}F	-0.08281069
-2.02284	a|i}EY g|h}_	-0.8185799
-1.897902	a|i}EY g}G	-0.3224145
-3.257259	a|i}EY g}JH	-0.2828799
-3.301075	a|i}EY g}K	0.0000
-3.301075	a|i}EY h}HH	0.0000
-1.837204	a|i}EY k}K	-0.1709892
-1.994812	a|i}EY l|l}L	-0.2206758
-0.691076	a|i}EY l}L	-0.9894029
-1.3297	a|i}EY m}M	-0.6237506
-3.257259	a|i}EY n|g}NG	0.0000
-0.3761102	a|i}EY n}N	-0.9824342
-3.301075	a|i}EY o}OW	0.0000
-2.842068	a|i}EY p}P	-0.375479
-2.157539	a|i}EY r}R	-0.2171938
-2.842068	a|i}EY s|h}SH	0.0000
-2.442529	a|i}EY s|s}S	-0.2355108
-1.767568	a|i}EY s}S	-0.1665869
-1.318118	a|i}EY s}Z	-0.01693505
-3.301075	a|i}EY s}ZH	0.0000
-1.693782	a|i}EY s}_	-1.139571
-1.994812	a|i}EY t|h}TH	-0.2110554
-2.842068	a|i}EY t|i}SH	-0.3710342
-2.842068	a|i}EY t|t}T	-0.3545448
-1.312441	a|i}EY t}T	-0.3375473
-3.257259	a|i}EY t}_	0.0000
-2.295842	a|i}EY v}V	-0.1383272
-3.257259	a|i}EY w}W	-0.3897615
-2.721811	a|i}EY x}K|S	-0.2199797
-3.301075	a|i}EY y}Y	0.0000
-3.301075	a|i}EY z|z}Z	0.0000
-2.157539	a|i}EY z}Z	-0.09261013
-3.301075	a|i}EY z}ZH	0.0000
-0.1021425	a|i}OY r}R	0.0000
-1.649391	a|j}AY '|s}Z	0.0000
-1.693207	a|j}AY (}_	0.0000
-1.113943	a|j}AY </s>	0.0000
-1.234201	a|j}AY a}AH	-0.03757442
-1.693207	a|j}AY c|h}_	0.0000
-1.649391	a|j}AY c|z}CH	0.0000
-0.834662	a|j}AY d}D	-0.5410391
-0.8255338	a|j}AY e}EH	-0.3848791
-1.693207	a|j}AY e}IY	0.0000
-1.649391	a|j}AY i}IH	-0.3978339
-1.649391	a|j}AY i}IY	-0.3522925
-0.8920946	a|j}AY k}K	-0.598304
-1.693207	a|j}AY n}N	0.0000
-1.693207	a|j}AY o}AO	0.0000
-1.693207	a|j}AY s}S	0.0000
-0.1021425	a|k}AE g}G	0.0000
-1.77424	a|l}AA g}G	0.0000
-0.02864518	a|l}AA m}M	-0.4851257
-1.730425	a|l}AA v}V	-0.333031
-0.1413292	a|l}AE f}F	-0.2877524
-1.199439	a|l}AE m}M	-0.334928
-0.7998999	a|l}AE v}V	-0.4136445
-0.00886346	a|l}AO k}K	-0.3252051
-2.097778	a|l}AO m}M	0.0000
-2.097778	a|l}AO r}R	0.0000
-0.2451963	a|n}AA d}D	-0.1493895
-0.1887117	a|n}AE d}D	-0.4005005
-1.012569	a|n}AE t}T	0.0000
-0.4031725	a|n}AH c}K	0.0000
-0.4031725	a|n}AH s}S	0.0000
-1.597379	a|o}AW '|s}Z	0.4120869
-1.597379	a|o}AW (}_	0.3380477
-2.056385	a|o}AW -}_	0.0000
-0.3309932	a|o}AW </s>	0.0000
-2.012569	a|o}AW b}B	0.0000
-2.056385	a|o}AW g}G	0.0000
-2.056385	a|o}AW h}HH	0.0000
-1.477121	a|o}AW i}AH	-0.8416126
-1.19784	a|o}AW i}IH	-0.5105074
-2.056385	a|o}AW i}IY	0.0000
-1.051152	a|o}AW l}L	-0.3587841
-2.012569	a|o}AW p}P	-0.3729729
-2.012569	a|o}AW r}R	-0.3774463
-2.056385	a|o}AW s|h}SH	0.0000
-2.056385	a|o}AW s}S	0.0000
-2.056385	a|o}AW s}Z	0.0000
-2.056385	a|o}AW t|i}SH	0.0000
-2.056385	a|o}AW t}T	0.0000
-2.012569	a|o}AW u}AH	-0.303673
-2.012569	a|o}AW u}UW	-0.3725927
-2.012569	a|o}AW u}Y|UW	0.0000
-2.012569	a|o}AW y}Y	0.0000
-1.94291	a|r}ER '|s}Z	2.288965
-2.109241	a|r}ER (}_	0.7292944
-3.343659	a|r}ER -}_	0.0000
-0.7801822	a|r}ER </s>	0.0000
-3.387475	a|r}ER _}W	0.0000
-2.586362	a|r}ER a|i}EY	-0.1103483
-2.928468	a|r}ER a|u}AO	-0.6104004
-3.387475	a|r}ER a|y}EY	0.0000
-1.694268	a|r}ER a}AA	0.009081781
-1.452823	a|r}ER a}AE	-0.3954988
-1.780182	a|r}ER a}AH	-0.4506656
-3.387475	a|r}ER a}AO	0.0000
-1.780182	a|r}ER a}EY	-0.4354134
-2.808211	a|r}ER a}IH	-0.861266
-3.387475	a|r}ER a}_	0.0000
-2.928468	a|r}ER b}B	-0.1497863
-2.054883	a|r}ER c|h}CH	-0.1983659
-2.519801	a|r}ER c|z}CH	-0.5009619
-2.808211	a|r}ER c}CH	-0.8466991
-2.586362	a|r}ER c}K	-0.281711
-2.808211	a|r}ER c}S	-0.1029874
-0.6549044	a|r}ER d}D	-1.123624
-2.808211	a|r}ER d}_	-0.7909826
-3.343659	a|r}ER e|a}IY	-0.3638934
-3.387475	a|r}ER e|m}EH	0.0000
-2.928468	a|r}ER e}AH	0.06922135
-1.465788	a|r}ER e}EH	-0.6704867
-3.343659	a|r}ER e}EY	0.0000
-2.081212	a|r}ER e}IH	-0.6519653
-2.054883	a|r}ER e}IY	-0.3009279
-2.054883	a|r}ER e}_	-0.01586562
-2.808211	a|r}ER f}F	0.0000
-2.928468	a|r}ER g}G	0.0000
-3.343659	a|r}ER g}JH	0.0000
-3.343659	a|r}ER h}HH	0.0000
-2.139204	a|r}ER i}AH	-0.3696027
-1.569329	a|r}ER i}AY	-0.7731951
-1.335942	a|r}ER i}IH	-0.5189111
-1.492941	a|r}ER i}IY	-0.7431571
-2.52893	a|r}ER k}K	-0.1533075
-3.387475	a|r}ER l|l}L	0.0000
-1.561056	a|r}ER l}L	-0.4699801
-2.52893	a|r}ER m}M	-0.3756807
-1.54497	a|r}ER n}N	-0.5022662
-2.928468	a|r}ER o|i}OY	-0.5929849
-2.519801	a|r}ER o|o}UW	-0.1746413
-2.928468	a|r}ER o|u}AH	-0.1210139
-2.206151	a|r}ER o|u}AW	-0.6844087
-2.808211	a|r}ER o|u}UW	0.0000
-3.387475	a|r}ER o|w}AW	0.0000
-3.387475	a|r}ER o|w}OW	0.0000
-1.870359	a|r}ER o}AA	-0.1248572
-2.928468	a|r}ER o}AH	-0.1303148
-2.928468	a|r}ER o}AO	-0.1418525
-3.387475	a|r}ER o}EH	0.0000
-1.63212	a|r}ER o}OW	-0.2509008
-2.808211	a|r}ER p}P	0.0000
-1.382242	a|r}ER r}_	-0.6466886
-3.343659	a|r}ER s|h}SH	-0.339139
-3.387475	a|r}ER s|s}S	0.0000
-3.387475	a|r}ER s|z}SH	0.0000
-2.006579	a|r}ER s}S	-0.3707397
-1.507181	a|r}ER s}Z	-0.5513148
-1.838174	a|r}ER t|h}TH	-0.2103061
-1.63212	a|r}ER t}T	-0.443855
-2.52893	a|r}ER u}AH	-0.3380589
-2.206151	a|r}ER u}UW	-0.02376282
-3.387475	a|r}ER v}V	0.0000
-3.343659	a|r}ER w}V	0.0000
-3.387475	a|r}ER y|l}L	0.0000
-2.519801	a|r}ER y}IH	-0.3327725
-1.569329	a|r}ER y}IY	-0.1909996
-2.382242	a|r}ER z}Z	-0.2981571
-2.619789	a|u}AO </s>	0.0000
-1.578396	a|u}AO b}B	-0.4454951
-3.199053	a|u}AO c|c}CH	0.0000
-1.866461	a|u}AO c|h}CH	-0.6707799
-2.619789	a|u}AO c|k}K	-0.7192179
-3.155237	a|u}AO c}CH	0.0000
-1.818156	a|u}AO c}K	-0.3127039
-1.866461	a|u}AO c}S	-0.2089063
-3.199053	a|u}AO d}B	0.0000
-1.014125	a|u}AO d}D	-0.2974061
-3.199053	a|u}AO d}JH	0.0000
-3.199053	a|u}AO e}_	0.0000
-2.142668	a|u}AO f|f}F	-0.6818713
-1.89279	a|u}AO f}F	-0.623867
-3.199053	a|u}AO g|g}G	0.0000
-3.199053	a|u}AO g|h}F	0.0000
-0.8158767	a|u}AO g|h}_	-0.3258363
-1.443697	a|u}AO g}G	-0.4816163
-2.340508	a|u}AO g}JH	-0.2455719
-2.740046	a|u}AO g}K	-0.4642848
-3.199053	a|u}AO h}_	0.0000
-2.017729	a|u}AO k}K	-0.2530495
-2.340508	a|u}AO l|k}K	-0.0905684
-2.142668	a|u}AO l|l}L	-0.4064255
-0.9266483	a|u}AO l}L	-0.6375804
-1.79588	a|u}AO m}M	-1.034611
-3.155237	a|u}AO n|g}NG	0.1217121
-1.028724	a|u}AO n}N	-0.7162105
-3.199053	a|u}AO n}NG	0.0000
-3.199053	a|u}AO p|h}F	0.0000
-2.619789	a|u}AO p|p}P	-0.1788553
-2.09691	a|u}AO p}P	-0.4296339
-2.619789	a|u}AO q}K	0.2200775
-1.101275	a|u}AO r}R	-0.5451285
-3.199053	a|u}AO r}_	0.0000
-3.199053	a|u}AO s|c}SH	0.0000
-2.142668	a|u}AO s|s}S	-0.2390658
-1.258061	a|u}AO s}S	-0.4895403
-3.199053	a|u}AO s}SH	0.0000
-1.318759	a|u}AO s}Z	0.05815339
-3.199053	a|u}AO s}ZH	0.0000
-3.199053	a|u}AO t|h}DH	0.0000
-1.49485	a|u}AO t|h}TH	-1.00038
-2.055517	a|u}AO t|i}SH	-0.4106444
-3.199053	a|u}AO t|t}T	0.0000
-1.028724	a|u}AO t}T	-0.6686784
-2.740046	a|u}AO v}V	-0.08984917
-2.340508	a|u}AO x}K|S	-0.1325967
-2.740046	a|u}AO z}Z	-0.07889113
-2.856977	a|u}AW (}_	0.594523
-1.135893	a|u}AW </s>	0.0000
-2.900793	a|u}AW a}AH	0.0000
-2.900793	a|u}AW a}_	0.0000
-1.155198	a|u}AW b}B	-0.3809164
-2.441787	a|u}AW c|h}CH	-0.1478375
-2.900793	a|u}AW c|h}HH	0.0000
-2.900793	a|u}AW c}CH	0.0000
-1.757258	a|u}AW c}K	-1.0393
-2.856977	a|u}AW c}S	-0.3945262
-1.497621	a|u}AW d}D	-0.3985088
-2.900793	a|u}AW d}_	0.0000
-0.917837	a|u}AW e|r}ER	-0.4873687
-2.03312	a|u}AW e}AH	-0.3211723
-2.856977	a|u}AW e}IY	-0.3379984
-1.568202	a|u}AW e}_	-0.7750849
-2.900793	a|u}AW f|f}F	0.0000
-1.719469	a|u}AW f}F	-0.1799181
-1.622559	a|u}AW g|h}_	-1.091235
-1.652523	a|u}AW g}G	-0.2504016
-2.321529	a|u}AW h}_	-0.2062241
-2.900793	a|u}AW i|r}ER	0.0000
-2.900793	a|u}AW i}IH	0.0000
-2.900793	a|u}AW i}IY	0.0000
-2.900793	a|u}AW j}Y	0.0000
-2.441787	a|u}AW k}K	0.0000
-2.900793	a|u}AW l|d}D	0.0000
-1.594531	a|u}AW l}L	-0.2178919
-0.8743713	a|u}AW m}M	-0.7429993
-2.042248	a|u}AW n}N	-0.1460679
-2.900793	a|u}AW n}NG	0.0000
-2.900793	a|u}AW p|h}F	0.0000
-2.856977	a|u}AW p|p}P	0.0000
-1.895561	a|u}AW p}P	-0.468955
-2.856977	a|u}AW r}ER	0.0000
-1.719469	a|u}AW r}R	-0.4826445
-1.684707	a|u}AW s|c}SH	0.6083592
-2.856977	a|u}AW s|h}SH	0.0000
-1.543378	a|u}AW s|s}S	-0.1627412
-2.900793	a|u}AW s|z}SH	0.0000
-2.856977	a|u}AW s}CH	-0.3401971
-0.8591314	a|u}AW s}S	-0.2335745
-1.321529	a|u}AW s}Z	-0.1790663
-2.441787	a|u}AW t|h}TH	-0.1408846
-2.900793	a|u}AW t|s}_	0.0000
-1.293501	a|u}AW t}T	-0.3157474
-2.900793	a|u}AW t}_	0.0000
-2.099681	a|u}AW v}V	-0.3571107
-2.856977	a|u}AW w}W	-0.3974274
-2.900793	a|u}AW w}_	0.0000
-2.900793	a|u}AW y}Y	0.0000
-2.03312	a|u}AW z}Z	-0.05652346
-2.237529	a|u}OW '|s}Z	0.4120869
-2.652719	a|u}OW (}_	0.594523
-2.652719	a|u}OW -}_	0.0000
-0.3588641	a|u}OW </s>	0.0000
-2.696535	a|u}OW _|p}P	0.0000
-2.117271	a|u}OW b}B	0.0000
-1.691303	a|u}OW c|h}SH	0.000620842
-1.828862	a|u}OW c}K	-0.04464272
-2.652719	a|u}OW c}S	0.0000
-1.232665	a|u}OW d}D	-0.2817505
-1.594393	a|u}OW d}_	-1.087802
-2.696535	a|u}OW e}_	0.0000
-1.895423	a|u}OW f|f}F	-0.3927684
-1.83799	a|u}OW f}F	0.0000
-2.696535	a|u}OW g|u}G	0.0000
-2.696535	a|u}OW i}IH	0.0000
-2.696535	a|u}OW j}JH	0.0000
-2.652719	a|u}OW j}ZH	-0.3922599
-0.9923326	a|u}OW l|t}_	-0.07231367
-1.691303	a|u}OW l}L	-0.09151161
-1.828862	a|u}OW m}M	-0.07141525
-2.696535	a|u}OW p|h}F	0.0000
-2.117271	a|u}OW p}P	0.0000
-2.696535	a|u}OW r}R	0.0000
-2.652719	a|u}OW s}S	0.0000
-2.696535	a|u}OW s}Z	0.0000
-2.696535	a|u}OW t|h}TH	0.0000
-1.480449	a|u}OW t}T	-0.3085292
-2.652719	a|u}OW t}_	0.0000
-1.515211	a|u}OW v}V	-0.1866225
-2.696535	a|u}OW x}Z	0.0000
-0.8954225	a|u}OW x}_	-0.8004277
-1.955405	a|w}AO '|s}Z	0.1535317
-2.354944	a|w}AO (}_	0.3380477
-0.632626	a|w}AO </s>	0.0000
-2.354944	a|w}AO a}AH	-0.5980658
-1.507687	a|w}AO b}B	-0.215523
-2.770134	a|w}AO c|h}CH	-0.3899543
-2.81395	a|w}AO c}K	0.0000
-2.81395	a|w}AO c}S	0.0000
-1.433054	a|w}AO d}D	-0.2085318
-2.770134	a|w}AO e|r}ER	-0.1767735
-2.770134	a|w}AO e}AH	0.0000
-1.280443	a|w}AO e}_	-0.3503844
-1.632626	a|w}AO f}F	-0.6016836
-2.81395	a|w}AO g}G	0.0000
-2.012837	a|w}AO h}HH	0.0000
-2.81395	a|w}AO i}AH	0.0000
-1.433054	a|w}AO i}IH	-0.7167501
-2.81395	a|w}AO i}IY	0.0000
-0.9958039	a|w}AO k}K	-0.5634397
-0.9636192	a|w}AO l}L	-0.8328454
-1.597864	a|w}AO m}M	-0.2597232
-0.9264774	a|w}AO n}N	-0.6381407
-2.81395	a|w}AO p}P	0.0000
-2.81395	a|w}AO r}ER	0.0000
-1.632626	a|w}AO r}R	-0.3289206
-2.354944	a|w}AO s|h}SH	-0.1323368
-1.535716	a|w}AO s}S	-0.6313034
-1.296834	a|w}AO s}Z	-0.5507695
-2.81395	a|w}AO t|h}DH	0.0000
-1.808717	a|w}AO t|h}TH	-0.3149725
-1.808717	a|w}AO t}T	-0.2109588
-2.234686	a|w}AO v}V	-0.8260316
-2.81395	a|w}AO y}IY	0.0000
-1.711807	a|w}AO y}Y	-1.031316
-1.056385	a|w}AW (}_	0.0000
-1.056385	a|w}AW a}AA	0.0000
-1.056385	a|w}AW a}AH	0.0000
-1.056385	a|w}AW c|c}CH	0.0000
-1.056385	a|w}AW h}HH	0.0000
-1.056385	a|w}AW i}IH	0.0000
-1.056385	a|w}AW i}IY	0.0000
-1.056385	a|w}AW n}N	0.0000
-1.056385	a|w}AW s}S	0.0000
-0.07918125	a|y}EH r}R	-0.8455431
-0.8802938	a|y}EH s}Z	0.0000
-1.46271	a|y}EY '|s}Z	2.038303
-3.246094	a|y}EY '}AH	0.0000
-3.202278	a|y}EY '}_	-0.3954354
-1.821732	a|y}EY (}_	-0.329555
-2.787087	a|y}EY -}_	-0.1449575
-0.4868953	a|y}EY </s>	0.0000
-2.66683	a|y}EY a|r}ER	0.0000
-3.246094	a|y}EY a}AA	0.0000
-3.246094	a|y}EY a}AE	0.0000
-1.76374	a|y}EY a}AH	-0.08946082
-3.246094	a|y}EY a}AO	0.0000
-3.246094	a|y}EY a}IH	0.0000
-1.490739	a|y}EY b}B	-0.2217421
-2.66683	a|y}EY c|h}CH	-0.8635478
-1.913502	a|y}EY c}K	-0.2768982
-2.66683	a|y}EY c}S	-0.7733939
-1.564167	a|y}EY d}D	-0.3837246
-3.246094	a|y}EY d}_	0.0000
-1.298853	a|y}EY e|r}ER	-0.5880328
-2.444981	a|y}EY e}AH	-0.04598838
-2.240861	a|y}EY e}EH	-0.3185062
-3.246094	a|y}EY e}EY	0.0000
-1.351559	a|y}EY e}_	-0.5395209
-1.939831	a|y}EY f}F	-0.4838344
-2.37842	a|y}EY g}G	-0.1734502
-1.96786	a|y}EY h}HH	-0.1087084
-2.66683	a|y}EY h}_	0.0000
-1.500498	a|y}EY i}IH	-1.089277
-2.66683	a|y}EY k}K	-0.179237
-1.26889	a|y}EY l}L	-0.4303035
-1.344611	a|y}EY m}M	-0.6015571
-1.305102	a|y}EY n}N	-0.6293815
-2.444981	a|y}EY o|r}ER	-0.1061254
-2.444981	a|y}EY o|u}AW	-0.2882263
-2.66683	a|y}EY o}AA	-0.1133946
-2.387548	a|y}EY o}AH	0.04489002
-2.030008	a|y}EY o}AO	-0.1166605
-1.96786	a|y}EY o}OW	-0.4389499
-2.37842	a|y}EY p}P	-0.1517535
-3.246094	a|y}EY r}ER	0.0000
-2.102558	a|y}EY r}R	-0.2267547
-3.246094	a|y}EY s|h}SH	0.0000
-2.787087	a|y}EY s|i}ZH	-0.5410573
-1.888679	a|y}EY s}S	-0.193109
-1.030008	a|y}EY s}Z	-0.4496478
-2.444981	a|y}EY t|h}TH	-0.2449201
-1.625437	a|y}EY t}T	-0.3586973
-2.66683	a|y}EY u}AH	0.0000
-3.202278	a|y}EY v}V	0.0000
-1.997823	a|y}EY w}W	-0.1643437
-2.787087	a|y}EY w}_	-0.1919512
-3.246094	a|y}EY y}Y	0.0000
-2.66683	a|y}EY z}Z	-0.1458699
-0.3802112	a|y}_ e}EH	-0.8466461
-1.137508	a|y}_ i}AY	0.0000
-0.3802112	a|y}_ y}AY	-0.2758883
-3.450311	a}AA '|s}Z	0.6432797
-3.672159	a}AA '}_	0.0000
-3.149281	a}AA (}_	0.5530913
-3.450311	a}AA -}_	-0.1185633
-2.27422	a}AA </s>	0.0000
-4.251423	a}AA _}R	0.0000
-4.251423	a}AA a}AA	0.0000
-4.251423	a}AA a}EY	0.0000
-4.251423	a}AA a}IH	0.0000
-2.806858	a}AA a}_	-0.2734432
-3.392878	a}AA b|b}B	-0.08731356
-1.824998	a}AA b}B	-0.5500069
-4.251423	a}AA b}B|AH	0.0000
-2.848251	a}AA c|c}CH	-0.3175015
-2.630767	a}AA c|c}K	-0.5380432
-2.657919	a}AA c|h}CH	-0.4595639
-3.792417	a}AA c|h}HH	-0.14889
-4.207608	a}AA c|h}SH	0.0000
-3.246191	a}AA c|h}_	-0.4362339
-3.392878	a}AA c|i}CH	-0.5210271
-3.035337	a}AA c|k}K	-0.1698124
-3.149281	a}AA c|z}CH	0.0687356
-2.393406	a}AA c}CH	-0.2767026
-1.742741	a}AA c}K	-1.065288
-2.870527	a}AA c}S	-0.5155725
-4.251423	a}AA c}SH	0.0000
-3.003153	a}AA c}T|S	-0.1653675
-3.450311	a}AA c}_	-0.5865303
-3.792417	a}AA d|z}JH	0.1122123
-1.574093	a}AA d}D	-0.6100345
-4.251423	a}AA d}T	0.0000
-2.787553	a}AA d}_	-0.7560182
-4.207608	a}AA e|r}ER	0.0000
-3.392878	a}AA e}EH	-0.09318119
-4.251423	a}AA e}IH	0.0000
-3.195038	a}AA e}_	-0.3610655
-2.848251	a}AA f|f}F	-0.1420698
-2.257186	a}AA f}F	-0.434096
-3.195038	a}AA g|g}JH	-0.5118834
-3.672159	a}AA g|h}_	0.0000
-4.251423	a}AA g|i}JH	0.0000
-3.792417	a}AA g|n}N	-0.4879668
-3.38375	a}AA g|u}G	-0.7533741
-1.763674	a}AA g}G	-0.6018896
-2.973189	a}AA g}JH	-0.2391812
-2.605213	a}AA g}ZH	-0.5119721
-4.251423	a}AA h}AH	0.0000
-2.393406	a}AA h}HH	-0.6809487
-1.726035	a}AA h}_	-0.8719561
-3.035337	a}AA i}IH	-0.2709526
-2.558216	a}AA i}IY	-0.4584396
-3.246191	a}AA i}Y	-0.527055
-3.792417	a}AA i}_	-0.3463659
-4.251423	a}AA j}HH	0.0000
-2.769069	a}AA j}JH	-0.3465369
-2.973189	a}AA j}Y	-0.09716317
-3.070099	a}AA j}ZH	-0.3848956
-3.672159	a}AA j}_	-0.2051069
-1.831217	a}AA k}K	-0.5993026
-3.195038	a}AA l|k}K	0.01755723
-2.01256	a}AA l|l}L	-0.3617085
-4.251423	a}AA l|l}Y	0.0000
-1.143243	a}AA l}L	-0.7189819
-4.251423	a}AA l}T|S	0.0000
-2.870527	a}AA m|m}M	-0.4864203
-1.468945	a}AA m}M	-0.6877048
-2.605213	a}AA n|g}NG	0.04427159
-2.225001	a}AA n|n}N	-0.6901904
-0.9960758	a}AA n}N	-0.6183542
-2.214782	a}AA n}NG	-0.3543375
-4.251423	a}AA o|u}UW	0.0000
-4.207608	a}AA o}AO	0.0000
-2.827061	a}AA o}OW	-0.3715852
-4.251423	a}AA o}W	0.0000
-3.450311	a}AA p|h}F	-0.1063407
-2.827061	a}AA p|p}P	-0.3459256
-2.070099	a}AA p}P	-0.5951146
-3.392878	a}AA q|u}K	-0.177994
-2.769069	a}AA q}K	0.3473747
-0.3714915	a}AA r}R	-1.248216
-1.854815	a}AA r}_	-0.8715715
-3.792417	a}AA s|c}SH	1.099871
-2.162509	a}AA s|h}SH	-0.5743048
-2.162509	a}AA s|s}S	-0.4093359
-4.207608	a}AA s|s}SH	0.0000
-3.003153	a}AA s|z}SH	-0.2694083
-1.524999	a}AA s}S	-0.6770706
-2.323206	a}AA s}Z	-0.1903325
-3.792417	a}AA s}ZH	-0.1902596
-3.195038	a}AA s}_	-0.2623071
-2.644131	a}AA t|h}DH	-0.5654712
-3.070099	a}AA t|h}TH	-0.1154745
-3.792417	a}AA t|i}SH	-0.6308531
-4.251423	a}AA t|s}_	0.0000
-2.246191	a}AA t|t}T	-0.2613938
-4.207608	a}AA t}S	-0.2485168
-1.498973	a}AA t}T	-0.7720627
-2.526031	a}AA t}_	-0.7685111
-3.246191	a}AA u}UW	-0.2094991
-1.993945	a}AA u}_	-0.5928016
-4.251423	a}AA v}F	0.0000
-1.726035	a}AA v}V	-0.6125162
-3.195038	a}AA w}F	1.4133
-2.734307	a}AA w}V	-0.06355223
-2.285958	a}AA w}W	-1.059329
-2.630767	a}AA w}_	-0.04667366
-2.702123	a}AA y}Y	-0.4878835
-3.003153	a}AA z|z}Z	-0.5894619
-4.251423	a}AA z}S	0.0000
-2.558216	a}AA z}T	0.4149734
-3.246191	a}AA z}T|S	-0.852253
-2.04891	a}AA z}Z	-0.3498917
-3.450311	a}AA z}ZH	-0.3891837
-4.436113	a}AE (}_	0.0000
-4.392298	a}AE </s>	0.0000
-4.436113	a}AE _}N	0.0000
-2.3517	a}AE b|b}B	-0.02533704
-4.392298	a}AE b|y}B	-0.2485168
-1.594399	a}AE b}B	-0.619922
-4.436113	a}AE b}P	0.0000
-3.85685	a}AE c|c}CH	-0.2128032
-2.617968	a}AE c|c}K	-0.45336
-2.370183	a}AE c|h}CH	-0.4195234
-3.011752	a}AE c|h}SH	-0.3382078
-3.85685	a}AE c|i}SH	-0.2098316
-1.442433	a}AE c|k}K	-0.02804494
-3.85685	a}AE c|q}K	-0.1859695
-4.436113	a}AE c|z}CH	0.0000
-1.37493	a}AE c}K	-1.01871
-2.370183	a}AE c}S	-1.004193
-4.436113	a}AE c}T	0.0000
-3.011752	a}AE d|g}JH	0.2322833
-1.42388	a}AE d}D	-0.574021
-2.936031	a}AE d}JH	-0.8630231
-2.247611	a}AE d}_	-1.604389
-2.95376	a}AE e}_	-0.2840861
-2.059813	a}AE f|f}F	-0.2498447
-1.897808	a}AE f}F	-0.7372777
-2.124456	a}AE g|g}G	-0.05209804
-3.333971	a}AE g|g}JH	-0.1363516
-4.436113	a}AE g|g}Z	0.0000
-4.436113	a}AE g|h}_	0.0000
-4.392298	a}AE g|n}N	0.0000
-4.436113	a}AE g|t}T	0.0000
-3.635001	a}AE g|u}G	-0.1535273
-1.611337	a}AE g}G	-0.6737774
-2.436344	a}AE g}JH	-0.368382
-4.436113	a}AE g}ZH	0.0000
-2.643775	a}AE h}HH	-0.5086905
-2.671213	a}AE h}_	-0.7392734
-3.577568	a}AE i}_	-0.2034176
-3.055217	a}AE j}JH	-0.1744385
-4.436113	a}AE j}_	0.0000
-3.333971	a}AE k|k}K	-0.09916402
-1.901002	a}AE k}K	-0.5495144
-4.436113	a}AE l|.}L	0.0000
-1.599171	a}AE l|l}L	-0.3052314
-4.436113	a}AE l|l}_	0.0000
-1.164885	a}AE l}L	-0.6046114
-3.15788	a}AE m|b}M	-0.0803993
-2.011752	a}AE m|m}M	-0.641952
-3.635001	a}AE m|n}M	0.03987809
-1.161952	a}AE m}M	-0.9093795
-4.436113	a}AE n|.}N	0.0000
-3.577568	a}AE n|c}NG	0.1282209
-3.56844	a}AE n|d}M	-0.1329989
-3.56844	a}AE n|d}_	-0.1025189
-1.983723	a}AE n|g}NG	0.4011218
-3.977107	a}AE n|k}NG	0.1412598
-1.678833	a}AE n|n}N	-0.2570429
-4.436113	a}AE n}M	0.0000
-0.6386644	a}AE n}N	-0.9676237
-1.475434	a}AE n}NG	-0.2419449
-4.436113	a}AE o|u}UW	0.0000
-2.273273	a}AE p|h}F	-0.7528915
-1.894638	a}AE p|p}P	-0.6237757
-1.642889	a}AE p}P	-0.7913965
-4.436113	a}AE p}_	0.0000
-3.56844	a}AE q|u}K	-0.3107396
-2.710722	a}AE q}K	0.1849236
-1.997511	a}AE r}R	-1.00493
-1.968483	a}AE r}_	-1.988772
-2.777668	a}AE s|c}SH	0.6073941
-1.865624	a}AE s|h}SH	-0.7005767
-3.85685	a}AE s|k}S	0.0000
-1.63154	a}AE s|s}S	-0.324739
-3.25479	a}AE s|s}SH	-0.5079609
-4.436113	a}AE s|t}_	0.0000
-4.392298	a}AE s|u}ZH	0.2039188
-1.322824	a}AE s}S	-0.7153838
-4.436113	a}AE s}SH	0.0000
-2.425486	a}AE s}Z	-0.09937918
-3.187843	a}AE s}ZH	-0.5213138
-2.886813	a}AE s}_	-0.4277424
-2.690518	a}AE t|h}DH	-0.5138144
-1.979862	a}AE t|h}TH	-0.4563453
-2.316938	a}AE t|i}SH	-0.9407799
-3.635001	a}AE t|s}_	-0.7660065
-1.827466	a}AE t|t}T	-0.2121942
-3.187843	a}AE t|u}CH	0.05435765
-2.563119	a}AE t}CH	-0.4374242
-4.436113	a}AE t}D	0.0000
-4.392298	a}AE t}SH	-0.3941678
-1.31652	a}AE t}T	-0.7073798
-4.392298	a}AE t}TH	-0.2485168
-2.135314	a}AE t}_	-1.559694
-2.95376	a}AE u}_	-1.124507
-4.392298	a}AE v|v}V	0.0000
-1.77287	a}AE v}V	-0.8329801
-3.333971	a}AE w}W	-0.2194283
-3.333971	a}AE x}K	-0.5606673
-1.899402	a}AE x}K|S	-0.1559334
-3.85685	a}AE x}_	-0.8648488
-2.765769	a}AE z|z}Z	0.02681398
-3.85685	a}AE z}S	-0.2215147
-2.316938	a}AE z}Z	-0.2871577
-4.436113	a}AE z}ZH	0.0000
-1.697169	a}AH '|s}Z	1.014169
-3.654257	a}AH '}_	-0.2157283
-1.96041	a}AH (}_	0.148165
-2.979295	a}AH -}_	-0.2631722
-0.6255429	a}AH </s>	0.0000
-4.512802	a}AH _}M|ER	0.0000
-3.933538	a}AH _}Z	0.0000
-4.512802	a}AH a}AA	0.0000
-3.711689	a}AH a}_	-0.5930682
-3.048931	a}AH b|b}B	-0.4225677
-1.322523	a}AH b}B	-0.7337352
-4.053795	a}AH c|c}CH	0.02492493
-2.428388	a}AH c|c}K	-1.008174
-3.711689	a}AH c|g}G	-0.09721403
-2.662471	a}AH c|h}CH	-0.4071847
-3.456417	a}AH c|h}HH	-0.2009563
-2.854357	a}AH c|h}SH	-0.6219568
-4.468986	a}AH c|i}CH	0.0000
-2.604479	a}AH c|k}K	-0.5951921
-3.296716	a}AH c|z}CH	-0.08488601
-3.206539	a}AH c}CH	-0.1941733
-1.797875	a}AH c}K	-0.236072
-2.072203	a}AH c}S	-0.7458771
-4.512802	a}AH c}TH	0.0000
-4.512802	a}AH d|z}JH	0.0000
-1.667934	a}AH d}D	-0.5668905
-4.512802	a}AH d}T	0.0000
-2.565561	a}AH d}_	-1.178508
-4.468986	a}AH e}EH	0.0000
-3.109629	a}AH e}_	-0.4283164
-2.437531	a}AH f|f}F	-0.5130159
-2.338777	a}AH f}F	-0.2764454
-3.068237	a}AH g|g}G	-0.7695485
-3.654257	a}AH g|h}_	-0.2049666
-4.512802	a}AH g|n}N	0.0000
-4.468986	a}AH g|u}G	0.0000
-1.999039	a}AH g}G	-0.5217259
-4.053795	a}AH g}HH	0.04435349
-2.206539	a}AH g}JH	-0.5632585
-3.933538	a}AH g}ZH	-0.6948553
-2.143487	a}AH h}HH	-0.2000682
-2.18535	a}AH h}_	-1.049921
-3.933538	a}AH i|s}_	-0.7954347
-4.512802	a}AH i}IH	0.0000
-3.456417	a}AH j}HH	-0.3312337
-2.78741	a}AH j}JH	-0.2934327
-3.711689	a}AH j}Y	-0.8528534
-4.468986	a}AH j}ZH	0.0000
-4.512802	a}AH j}_	0.0000
-4.512802	a}AH k|k}K	0.0000
-4.512802	a}AH k}HH	0.0000
-1.968179	a}AH k}K	-0.5350319
-3.933538	a}AH l|k}K	-0.04584692
-1.631785	a}AH l|l}L	-1.073966
-4.512802	a}AH l|l}Y	0.0000
-3.507569	a}AH l|m}M	-0.7579479
-0.9133148	a}AH l}L	-0.8619725
-2.995686	a}AH m|m}M	-0.3653898
-1.413273	a}AH m}M	-0.645636
-4.512802	a}AH m}N	0.0000
-3.206539	a}AH n|g}NG	0.03128785
-1.908232	a}AH n|n}N	-1.127135
-0.6655844	a}AH n}N	-0.9312991
-2.963501	a}AH n}NG	-0.8341035
-4.512802	a}AH n}Y	0.0000
-4.512802	a}AH o}AA	0.0000
-3.933538	a}AH o}AO	-0.4385782
-4.512802	a}AH o}OW	0.0000
-2.48124	a}AH p|h}F	-0.6823696
-2.141146	a}AH p|p}P	-1.236008
-1.995686	a}AH p}P	-0.3967649
-3.654257	a}AH q|u}K	-0.3415294
-3.068237	a}AH q}K	-0.2300006
-2.647231	a}AH r}R	-0.374548
-3.645128	a}AH r}_	-0.1316269
-4.468986	a}AH s|c}SH	1.356346
-2.720463	a}AH s|h}SH	-0.1972533
-4.468986	a}AH s|i}SH	0.4391314
-2.043303	a}AH s|s}S	-0.5941347
-3.155387	a}AH s|s}SH	-1.278806
-3.410659	a}AH s|z}SH	-0.4764309
-1.643503	a}AH s}S	-0.1477501
-4.512802	a}AH s}SH	0.0000
-1.77217	a}AH s}Z	-0.9769931
-3.206539	a}AH s}_	-0.4933492
-4.512802	a}AH t|h}DH	0.0000
-2.381275	a}AH t|h}TH	-0.6205109
-2.231682	a}AH t|t}T	-0.757068
-2.919297	a}AH t}CH	-1.198108
-4.512802	a}AH t}D	0.0000
-1.376833	a}AH t}T	-0.6044809
-4.468986	a}AH t}_	0.0000
-4.512802	a}AH u}L	0.0000
-4.512802	a}AH u}Y|UW	0.0000
-1.949761	a}AH v}V	-0.3189955
-2.283554	a}AH w}W	-0.5052801
-4.053795	a}AH x}K|S	-0.1495522
-3.456417	a}AH y}Y	-0.4158272
-4.512802	a}AH z|s}SH	0.0000
-3.711689	a}AH z|z}Z	-0.1995835
-2.338777	a}AH z}Z	-0.2325906
-3.27064	a}AO '|s}Z	0.0000
-3.27064	a}AO (}R|JH	0.0000
-3.27064	a}AO </s>	0.0000
-3.27064	a}AO _}HH	0.0000
-2.691376	a}AO b}B	-0.1960402
-3.27064	a}AO c|c}CH	0.0000
-3.27064	a}AO c|c}K	0.0000
-3.226824	a}AO c|h}CH	0.0000
-2.691376	a}AO c|k}K	-0.04881141
-2.402967	a}AO c}K	-0.5664712
-3.27064	a}AO c}S	0.0000
-2.402967	a}AO d}D	0.0000
-3.27064	a}AO d}_	0.0000
-3.226824	a}AO f}F	0.0000
-3.226824	a}AO g|h}_	-0.2852559
-3.226824	a}AO g}G	0.0000
-2.691376	a}AO h}_	0.0000
-3.226824	a}AO k}K	0.0000
-0.5452482	a}AO l|l}L	-0.6845295
-0.5114416	a}AO l}L	-1.048074
-2.214255	a}AO m}M	-0.3683293
-2.469527	a}AO n|g}NG	-0.4024621
-3.27064	a}AO n|n}N	0.0000
-1.487256	a}AO n}N	-0.3108373
-2.691376	a}AO n}NG	0.05219702
-3.27064	a}AO p|p}P	0.0000
-3.226824	a}AO p}P	0.0000
-0.6986755	a}AO r}R	-1.02991
-1.691376	a}AO r}_	-1.031214
-3.226824	a}AO s|c}SH	1.356346
-2.168498	a}AO s|h}SH	-0.1869618
-2.214255	a}AO s|s}S	-0.1911672
-2.089316	a}AO s}S	-0.02979516
-2.811634	a}AO s}Z	-0.1502154
-3.226824	a}AO t|h}TH	0.0000
-2.811634	a}AO t|t}T	0.0000
-1.123175	a}AO t}T	-0.9937474
-2.691376	a}AO t}_	-0.7365764
-3.27064	a}AO v}V	0.0000
-2.691376	a}AO w}W	0.0000
-2.691376	a}AO z|z}Z	-0.8299171
-3.27064	a}AO z}Z	0.0000
-0.4031725	a}AW e|r}ER	0.0000
-0.4031725	a}AW u}UW	0.0000
-0.9334392	a}AY e}EH	-0.6943443
-0.552842	a}AY e}_	-0.2556264
-1.342106	a}AY h}_	-0.6200405
-1.757297	a}AY i}AH	-0.3977587
-0.6575773	a}AY i}IH	-0.7675817
-1.221849	a}AY i}IY	0.0000
-1.801113	a}AY i}Y	0.0000
-1.757297	a}AY j}JH	-0.3682358
-1.801113	a}AY l}L	0.0000
-1.801113	a}AY y}IY	0.0000
-1.342106	a}AY y}Y	-0.1257071
-3.477074	a}EH </s>	0.0000
-3.433258	a}EH c|h}CH	-0.3718532
-3.477074	a}EH c}K	0.0000
-0.8564176	a}EH d}D	-0.6662787
-3.433258	a}EH d}_	0.0000
-1.195955	a}EH e}_	-1.032996
-2.675961	a}EH f}F	-0.1166553
-2.675961	a}EH h}_	-0.3888478
-3.477074	a}EH i|g}_	0.0000
-3.477074	a}EH j}JH	0.0000
-2.89781	a}EH k}K	-0.2213012
-2.89781	a}EH l|l}L	-0.2169678
-1.634569	a}EH l}L	-0.9336277
-3.433258	a}EH m}M	0.0000
-3.477074	a}EH n|n}N	0.0000
-1.795148	a}EH n}N	-0.5516889
-2.609401	a}EH p}P	-0.4110536
-0.247179	a}EH r}R	-1.3204
-1.065301	a}EH r}_	-1.849482
-2.260988	a}EH s}S	-0.9992479
-2.096178	a}EH s}Z	-0.7979057
-1.88357	a}EH s}ZH	-1.220821
-1.58254	a}EH t|h}DH	-1.396925
-1.843453	a}EH t|h}TH	-0.3217046
-3.477074	a}EH t}CH	0.0000
-1.99472	a}EH t}T	-0.2626202
-1.869782	a}EH v}V	-0.5488374
-3.477074	a}EH z}Z	0.0000
-0.1413292	a}ER </s>	0.0000
-1.357415	a}ER c|h}CH	0.0000
-0.7781513	a}ER r}R	-0.2098443
-1.357415	a}ER t}T	0.0000
-3.178045	a}EY '|s}Z	0.5128046
-2.612229	a}EY (}_	0.2308719
-2.655694	a}EY </s>	0.0000
-2.730328	a}EY _}EH	-0.1137379
-4.036591	a}EY _}F	0.0000
-4.036591	a}EY _}S	0.0000
-3.992775	a}EY a}EY	0.0000
-1.509566	a}EY b}B	-1.068813
-3.031358	a}EY c|h}CH	-0.2206246
-3.992775	a}EY c|h}SH	-0.3858025
-2.311199	a}EY c|i}SH	0.06011939
-2.042353	a}EY c}K	-0.9178224
-1.490403	a}EY c}S	-1.188627
-2.655694	a}EY c}SH	-0.4607311
-4.036591	a}EY c}_	0.0000
-1.272635	a}EY d}D	-1.289349
-4.036591	a}EY e|b}_	0.0000
-4.036591	a}EY e|r}ER	0.0000
-3.992775	a}EY e}IY	0.0000
-2.005029	a}EY e}_	-0.4640995
-3.992775	a}EY f|f}F	-0.3499179
-2.210172	a}EY f}F	-0.9480693
-3.178045	a}EY g|i}JH	-0.3602394
-3.168917	a}EY g|n}N	-0.3586053
-2.758357	a}EY g|u}G	-0.7496902
-1.779112	a}EY g}G	-0.79863
-1.758357	a}EY g}JH	-1.284299
-4.036591	a}EY h}AH	0.0000
-2.592025	a}EY h}HH	-0.3237295
-2.820505	a}EY h}_	-0.3327952
-2.758357	a}EY i|g}_	0.3399479
-4.036591	a}EY i}AH	0.0000
-3.992775	a}EY i}AY	-0.3970584
-2.679175	a}EY i}IH	-1.075238
-2.703999	a}EY j}JH	-0.4403841
-3.457327	a}EY k|k}K	-0.798923
-1.243366	a}EY k}K	-1.02305
-2.592025	a}EY l|l}L	-0.7238116
-4.036591	a}EY l|l}_	0.0000
-1.350117	a}EY l}L	-1.104736
-4.036591	a}EY m|e}_	0.0000
-4.036591	a}EY m|m}M	0.0000
-1.531327	a}EY m}M	-1.021944
-1.254112	a}EY n}N	-1.376041
-2.536508	a}EY n}NG	-1.22566
-4.036591	a}EY o|r}ER	0.0000
-4.036591	a}EY o|u}UW	0.0000
-3.992775	a}EY o}AA	0.0000
-3.992775	a}EY o}AO	0.05562517
-2.679175	a}EY o}OW	0.04097246
-3.457327	a}EY p|h}F	-0.213142
-1.578422	a}EY p}P	-0.9217994
-4.036591	a}EY q|u}K	0.0000
-4.036591	a}EY q}K	0.0000
-2.820505	a}EY r}R	-0.6483753
-2.343383	a}EY s|i}ZH	0.4182614
-3.235478	a}EY s|s}S	-0.0831643
-3.992775	a}EY s|t}_	-0.2432393
-1.527908	a}EY s}S	-1.126975
-2.010169	a}EY s}Z	-0.7990475
-3.178045	a}EY s}ZH	-0.1524038
-2.679175	a}EY t|h}DH	-0.3761032
-2.758357	a}EY t|h}TH	-0.3529449
-0.7999521	a}EY t|i}SH	-0.2113059
-3.992775	a}EY t|i}ZH	-0.148524
-4.036591	a}EY t|t}T	0.0000
-2.820505	a}EY t}CH	-0.8421537
-3.992775	a}EY t}D	0.0000
-3.178045	a}EY t}SH	-0.4222623
-0.5279078	a}EY t}T	-1.549638
-3.992775	a}EY t}_	-0.3936408
-3.178045	a}EY u}_	-0.9081963
-1.332388	a}EY v}V	-1.172002
-3.992775	a}EY w}D|AH	0.0000
-3.457327	a}EY w}W	0.0000
-4.036591	a}EY y}AH	0.0000
-3.457327	a}EY y}IH	-0.8906096
-3.992775	a}EY y}Y	0.0000
-3.992775	a}EY z|i}ZH	-0.0002012551
-1.87375	a}EY z}Z	-0.8855668
-0.1021425	a}EY|M s}Z	0.0000
-2.961881	a}IH -}_	0.0000
-2.961881	a}IH b}B	0.0000
-1.956649	a}IH c|k}K	-0.9460307
-1.683647	a}IH c}K	-0.3486958
-2.094208	a}IH c}S	-0.2821796
-2.961881	a}IH d}D	0.0000
-2.918065	a}IH e}_	0.0000
-1.780557	a}IH g}G	-0.6736019
-0.3321087	a}IH g}JH	-1.857141
-2.160769	a}IH k}K	-0.116237
-2.961881	a}IH l|l}L	0.0000
-2.382617	a}IH l}L	0.0000
-2.961881	a}IH m|m}M	0.0000
-2.961881	a}IH m}M	0.0000
-2.160769	a}IH n|n}N	-0.1915885
-1.62929	a}IH n}N	-0.2182879
-0.4723487	a}IH r}R	-0.7444777
-2.160769	a}IH r}_	0.1773053
-2.103336	a}IH s}S	-0.09312493
-1.160769	a}IH t}T	-0.9497726
-2.918065	a}IH v}V	-0.333031
-0.1021425	a}IH|P _}AH|L	0.0000
-1.181324	a}IY </s>	0.0000
-1.181324	a}IY c}K	0.0000
-0.60206	a}IY e}AH	-0.8191043
-1.181324	a}IY g}JH	0.0000
-1.181324	a}IY i}AH	0.0000
-1.137508	a}IY i}IH	-0.3920895
-1.181324	a}IY o}OW	0.0000
-1.181324	a}IY u}AH	0.0000
-1.181324	a}IY y}Y	0.0000
-0.1021425	a}OW m}M	0.0000
-0.1021425	a}T|R a}IH|P	0.0000
-1.058327	a}Y e}EH	-0.3554854
-0.09691001	a}Y u}UW	-0.9242534
-2.816683	a}_ '|s}Z	0.1743588
-2.816683	a}_ '}_	-0.2196199
-2.594834	a}_ (}_	1.024593
-2.816683	a}_ .}EY	0.0000
-1.788654	a}_ </s>	0.0000
-3.395947	a}_ _}AH	0.0000
-1.060808	a}_ a}AA	-0.2440568
-2.936941	a}_ a}AE	0.0000
-2.528274	a}_ a}AH	-0.2486205
-2.594834	a}_ a}EH	-0.5065607
-3.352131	a}_ a}EY	0.0000
-2.816683	a}_ a}IH	-0.8832523
-3.352131	a}_ b}B	-0.377468
-1.749736	a}_ c|h}CH	-0.4704674
-3.352131	a}_ c|k}K	-0.2250145
-3.395947	a}_ c|q}K	0.0000
-2.936941	a}_ c}AH	-0.1543261
-2.528274	a}_ c}K	-0.3887496
-1.138468	a}_ d}D	-0.4747487
-3.395947	a}_ d}_	0.0000
-2.594834	a}_ e|r}ER	-0.4219345
-3.395947	a}_ e|y}EY	0.0000
-1.522952	a}_ e}IY	-0.2369463
-2.936941	a}_ e}_	-0.6545888
-3.395947	a}_ f|f}F	0.0000
-2.537402	a}_ f}F	-0.4085138
-2.528274	a}_ g}G	-0.2787152
-2.214623	a}_ g}JH	-0.7867277
-2.147676	a}_ h}_	-0.4037114
-2.339562	a}_ i|r}ER	-0.3689267
-1.448706	a}_ i}AH	-0.8928202
-0.9064145	a}_ i}AY	-0.5022846
-2.063355	a}_ i}IH	-0.8553072
-2.816683	a}_ i}IY	0.0000
-3.352131	a}_ j}_	-0.38131
-1.594834	a}_ k}K	-0.2065836
-1.017343	a}_ l|l}L	-2.230678
-1.553442	a}_ l}L	-0.4377435
-3.395947	a}_ m|m}M	0.0000
-1.749736	a}_ m}M	-0.6549634
-3.395947	a}_ n|g}NG	0.0000
-2.537402	a}_ n|n}N	-0.3792022
-1.252412	a}_ n}N	-0.7030818
-3.352131	a}_ n}NG	0.0000
-3.352131	a}_ o|u}AW	0.0000
-2.936941	a}_ o}AO	-0.007033825
-2.293804	a}_ o}OW	-0.219338
-2.339562	a}_ p}P	-0.1917868
-1.045831	a}_ r}R	-0.7996529
-2.816683	a}_ r}_	-0.2199889
-1.577801	a}_ s}S	-1.065171
-2.537402	a}_ s}Z	0.1868903
-2.936941	a}_ t|h}DH	-0.09566396
-2.339562	a}_ t|h}TH	-0.1615842
-2.936941	a}_ t}CH	-0.1568259
-1.169953	a}_ t}T	-0.728022
-3.352131	a}_ t}_	0.0000
-2.339562	a}_ u|r}ER	-0.3951871
-1.77529	a}_ u}AH	-0.5807102
-2.390714	a}_ u}UW	-0.1421581
-2.390714	a}_ u}_	-0.9301832
-2.816683	a}_ v}V	-0.1568279
-2.816683	a}_ w|y}OY	-0.2902846
-3.395947	a}_ w}W	0.0000
-3.395947	a}_ w}_	0.0000
-2.390714	a}_ x}K|S	-0.02428359
-1.339562	a}_ y}AY	-0.5285643
-3.395947	a}_ y}IH	0.0000
-1.594834	a}_ y}IY	-0.07520378
-0.1021425	b|a}_ b}B	0.0000
-1.959995	b|b}B '|s}Z	0.1976266
-1.211807	b|b}B </s>	0.0000
-1.959995	b|b}B a|r}ER	-0.3147615
-1.658965	b|b}B a}AA	0.05004606
-2.181844	b|b}B a}AE	-0.200462
-1.454845	b|b}B a}AH	-0.1954046
-2.761107	b|b}B a}EY	0.0000
-1.902562	b|b}B a}IH	-0.6411442
-0.934689	b|b}B e|r}ER	-0.1502641
-1.336746	b|b}B e}AH	-0.2532266
-2.302101	b|b}B e}EH	-0.3516754
-2.761107	b|b}B e}EY	0.0000
-1.658965	b|b}B e}IH	-0.5063367
-1.893434	b|b}B e}IY	-0.2613298
-0.986867	b|b}B e}_	-0.7955491
-1.617572	b|b}B i}AH	-0.4887228
-2.717292	b|b}B i}AY	0.0000
-0.8527849	b|b}B i}IH	-1.140454
-1.297237	b|b}B i}IY	-0.8280035
-1.297237	b|b}B l}L	-1.304056
-2.302101	b|b}B o|r}ER	-0.4452566
-2.761107	b|b}B o|u}AW	0.0000
-2.761107	b|b}B o|u}UH	0.0000
-2.761107	b|b}B o|u}UW	0.0000
-1.428516	b|b}B o}AH	-0.3935084
-2.761107	b|b}B o}IH	0.0000
-2.181844	b|b}B o}OW	-0.7729647
-1.617572	b|b}B r}R	-0.4224756
-1.243991	b|b}B s}Z	-0.9102311
-2.717292	b|b}B u}AH	0.0000
-2.181844	b|b}B u}UH	-0.8839706
-0.996207	b|b}B y}IY	-0.4104373
-1.549301	b|t}T '}_	0.0000
-1.090294	b|t}T </s>	0.0000
-1.549301	b|t}T a}AH	0.0000
-1.505485	b|t}T e|r}ER	0.0000
-1.549301	b|t}T e}AH	0.0000
-0.748188	b|t}T e}IH	-0.7873297
-1.090294	b|t}T f}F	-0.4406402
-1.505485	b|t}T h}HH	-0.3629959
-1.549301	b|t}T i}IH	0.0000
-1.549301	b|t}T l}L	0.0000
-1.090294	b|t}T o|r}ER	-0.09604454
-1.505485	b|t}T s}S	-0.3140783
-0.1021425	b|v}B r}ER	0.0000
-0.5792638	b|y}B e}EH	0.0000
-0.5354481	b|y}B s|s}S	-0.3620768
-0.005677133	b}AH l}L	-1.562419
-2.880856	b}B '|s}Z	1.881912
-4.370546	b}B '}AH	0.0000
-4.414362	b}B '}IY	0.0000
-4.414362	b}B '}_	0.0000
-3.955356	b}B (}IY	0.2027159
-3.40913	b}B (}_	0.03842175
-4.370546	b}B -}IY	-0.3478773
-4.414362	b}B -}_	0.0000
-3.835099	b}B .}IY	0.0000
-1.885708	b}B </s>	0.0000
-4.414362	b}B _}AA|R	0.0000
-4.370546	b}B _}EH	-0.3553352
-4.414362	b}B _}IH	0.0000
-2.950492	b}B _}IY	-0.1922802
-4.370546	b}B _}R	-0.3621725
-3.357977	b}B _}W	-0.9189056
-2.519828	b}B _}Y	-0.7996904
-3.61325	b}B a|i}EH	0.3447064
-2.556345	b}B a|i}EY	-0.3071116
-3.40913	b}B a|l}AA	0.240734
-3.61325	b}B a|l}AO	0.8255284
-3.835099	b}B a|o}AW	0.05106311
-2.541368	b}B a|r}ER	-0.1958547
-2.307898	b}B a|u}AO	-0.7793952
-2.208416	b}B a|u}AW	-0.6253905
-3.40913	b}B a|u}OW	-0.2276479
-3.546689	b}B a|w}AO	-0.2737672
-2.492676	b}B a|y}EY	0.006261885
-1.341408	b}B a}AA	-0.6380118
-1.237403	b}B a}AE	-0.8594761
-1.627374	b}B a}AH	-0.3346313
-2.255315	b}B a}AO	-1.666559
-3.40913	b}B a}AY	-0.2951517
-2.29103	b}B a}EH	-1.474919
-1.880856	b}B a}EY	-0.4847215
-4.370546	b}B a}IH	-0.1261137
-2.579826	b}B a}_	-0.6363461
-2.431406	b}B b}AH	0
-4.370546	b}B c|h}CH	0.0000
-4.414362	b}B c|k}K	0.0000
-4.370546	b}B c|z}CH	0.0000
-4.370546	b}B c}CH	-0.1803045
-2.835099	b}B c}K	-0.666032
-2.571857	b}B d}D	-0.4915202
-2.175499	b}B e|a}IY	-0.2116254
-3.198276	b}B e|i}EY	-0.3060663
-4.414362	b}B e|n}EH	0.0000
-1.145494	b}B e|r}ER	-0.5374439
-3.955356	b}B e|u}OY	-0.316149
-3.081771	b}B e|y}EY	-0.04097338
-4.414362	b}B e}AE	0.0000
-1.874469	b}B e}AH	-0.7441275
-1.217749	b}B e}EH	-0.817245
-4.370546	b}B e}ER	0.0000
-2.780741	b}B e}EY	-0.1941259
-1.843872	b}B e}IH	-0.8086056
-2.141958	b}B e}IY	-0.3109432
-1.572647	b}B e}_	-0.607558
-3.555817	b}B f}F	-0.1873209
-3.835099	b}B g}G	-0.1397953
-3.136128	b}B h}HH	-0.3400942
-2.865062	b}B h}_	-0.3627204
-4.414362	b}B i|l}IY	0.0000
-2.22586	b}B i|r}ER	-0.5970399
-2.100032	b}B i}AH	-0.7428318
-1.882467	b}B i}AY	-0.6153361
-4.414362	b}B i}ER	0.0000
-1.342338	b}B i}IH	-0.4365281
-1.744018	b}B i}IY	-0.2398747
-4.370546	b}B i}Y	0.0000
-3.61325	b}B i}_	-0.3089894
-2.793706	b}B j}JH	-1.318392
-3.31222	b}B j}Y	-0.5140108
-2.849822	b}B k}K	-0.7082337
-4.414362	b}B l|e}_	0.0000
-1.332671	b}B l}AH|L	-0.5359466
-1.20705	b}B l}L	-1.363762
-4.414362	b}B l}UH|L	0.0000
-2.668767	b}B m}M	-0.9560269
-2.755917	b}B n}N	-0.648775
-2.744018	b}B o|i}OY	-0.1657984
-4.414362	b}B o|k}OW	0.0000
-2.247762	b}B o|o}UH	-1.619649
-2.282836	b}B o|o}UW	-0.2995458
-2.130376	b}B o|r}ER	-0.5710703
-3.61325	b}B o|u}AH	0.2513475
-2.950492	b}B o|u}AO	0.1611536
-2.334496	b}B o|u}AW	-0.7416824
-2.897246	b}B o|u}UH	-0.09333229
-2.579826	b}B o|u}UW	-0.2461295
-2.969797	b}B o|w}AW	-0.3443425
-2.353178	b}B o|w}OW	-0.03121156
-2.339092	b}B o|y}OY	0.07883596
-1.614119	b}B o}AA	-0.253127
-2.026662	b}B o}AH	-0.2296715
-1.68281	b}B o}AO	-0.1216809
-4.414362	b}B o}AW	0.0000
-3.835099	b}B o}ER	-0.2902846
-4.414362	b}B o}IH	0.0000
-1.475263	b}B o}OW	-0.229001
-3.955356	b}B o}UH	-0.4425755
-4.414362	b}B o}UW	0.0000
-4.370546	b}B o}W	-0.04762593
-2.659007	b}B o}_	-0.7823731
-3.555817	b}B p}P	-0.3364103
-2.932009	b}B r}ER	-0.3732787
-0.9358252	b}B r}R	-1.412416
-3.40913	b}B r}_	-0.3899788
-4.370546	b}B s|c}SH	1.356346
-3.61325	b}B s|h}SH	0.0000
-1.943004	b}B s}S	-0.9879628
-2.166092	b}B s}Z	-0.9196628
-3.546689	b}B s}_	-0.6450956
-2.880856	b}B t}T	-0.4655576
-1.551044	b}B u|r}ER	-1.041182
-4.370546	b}B u}AA	0.0000
-1.498639	b}B u}AH	-0.4534663
-3.835099	b}B u}AO	-0.6582614
-2.467122	b}B u}EH	-1.579935
-2.71016	b}B u}IH	-0.4694852
-2.084333	b}B u}UH	-0.7168229
-2.20163	b}B u}UW	-0.2781277
-2.880856	b}B u}W	-0.5773485
-3.835099	b}B u}Y	-0.2867963
-2.013367	b}B u}Y|UW	-0.3206137
-2.534068	b}B u}_	-1.30624
-3.136128	b}B v}V	-0.8437929
-3.40913	b}B w}W	-0.1877678
-3.357977	b}B y|r}ER	-0.3805307
-3.357977	b}B y}AH	-0.753149
-2.431406	b}B y}AY	-0.2412376
-2.835099	b}B y}IH	-0.2021892
-1.926613	b}B y}IY	-0.09336996
-3.955356	b}B y}Y	-0.1374796
-3.555817	b}B z}Z	0.0000
-0.5792638	b}B|AH -}_	0.0000
-0.5792638	b}B|AH _}Y|UW	0.0000
-0.5792638	b}B|AH n}N	0.0000
-0.4031725	b}N|D </s>	0.0000
-0.4031725	b}N|D s}Z	0.0000
-0.1021425	b}P s}S	0.0000
-0.1021425	c|.}K </s>	0.0000
-1.827828	c|c}CH e}EH	-0.3516754
-2.286834	c|c}CH e}EY	0.0000
-2.243018	c|c}CH e}IY	-0.3379984
-1.70757	c|c}CH h}_	-0.2104148
-1.184691	c|c}CH i}AH	-1.033909
-1.827828	c|c}CH i}IH	-0.1495536
-0.1019061	c|c}CH i}IY	-1.01783
-1.419161	c|c}CH i}_	-0.7211142
-2.286834	c|c}CH y}IH	0.0000
-1.605664	c|c}K a|r}ER	-0.5620713
-1.258877	c|c}K a}AA	-0.5870594
-2.662049	c|c}K a}AE	0.0000
-0.8697106	c|c}K a}AH	-0.334672
-1.518514	c|c}K a}EY	-0.5222366
-2.618233	c|c}K e|r}ER	0.0000
-0.7403627	c|c}K h}_	-0.8685155
-2.662049	c|c}K i}IH	0.0000
-1.480725	c|c}K l}L	-0.4785717
-2.618233	c|c}K o|o}UW	-0.3171895
-2.618233	c|c}K o|r}ER	0.0000
-2.618233	c|c}K o|u}AH	-0.3975962
-1.237687	c|c}K o|u}AW	-1.168445
-2.203043	c|c}K o|u}UW	-0.6216357
-1.258877	c|c}K o}AA	-0.8046787
-1.304634	c|c}K o}AH	-0.9557301
-1.480725	c|c}K o}AO	-0.6254147
-0.7338318	c|c}K o}OW	-0.6691031
-2.662049	c|c}K o}_	0.0000
-1.329458	c|c}K r}R	-0.937009
-1.656817	c|c}K u|r}ER	-0.2802162
-1.355787	c|c}K u}AH	-0.5680045
-2.662049	c|c}K u}UH	0.0000
-2.662049	c|c}K u}UW	0.0000
-0.8011125	c|g}G o|w}AW	0.0000
-0.7572968	c|g}G r}R	0.0000
-0.7572968	c|g}G y}AY	-0.3967812
-2.822168	c|h}CH '}AH	-0.594919
-2.140927	c|h}CH '}IH	-0.2717966
-3.579465	c|h}CH '}_	-0.3965971
-2.290689	c|h}CH (}_	-0.2377847
-3.623281	c|h}CH -}_	0.0000
-0.8362927	c|h}CH </s>	0.0000
-2.220108	c|h}CH a|i}EH	-0.108436
-2.317018	c|h}CH a|i}EY	-0.3665345
-3.623281	c|h}CH a|l}AA	0.0000
-3.579465	c|h}CH a|l}AE	0.1581612
-2.822168	c|h}CH a|l}AO	0.8255284
-3.579465	c|h}CH a|o}AW	-0.12514
-2.178715	c|h}CH a|r}ER	-0.7790763
-2.755607	c|h}CH a|u}AO	-0.292876
-2.764735	c|h}CH a|u}AW	-0.2071911
-3.623281	c|h}CH a|u}OW	0.0000
-3.044017	c|h}CH a|w}AO	-0.106728
-3.623281	c|h}CH a|y}EY	0.0000
-1.336447	c|h}CH a}AA	-0.6072217
-1.176746	c|h}CH a}AE	-0.5598836
-1.452952	c|h}CH a}AH	-0.4148816
-3.623281	c|h}CH a}AO	0.0000
-3.623281	c|h}CH a}AY	0.0000
-2.407195	c|h}CH a}EH	-0.7525769
-1.634647	c|h}CH a}EY	-0.9371527
-3.623281	c|h}CH a}OW	0.0000
-2.566895	c|h}CH a}_	-0.4305308
-2.089774	c|h}CH b}B	-0.2968729
-2.407195	c|h}CH c}K	-0.2885528
-2.618048	c|h}CH d}D	-0.2461655
-2.106165	c|h}CH e|a}IY	-0.9328393
-1.525503	c|h}CH e|d}T	0.8101513
-3.623281	c|h}CH e|i}EY	0.0000
-1.231103	c|h}CH e|r}ER	-0.6608141
-2.521138	c|h}CH e|w}UW	0.01306449
-3.579465	c|h}CH e|y}EY	-0.3593887
-1.417334	c|h}CH e}AH	-0.7178092
-2.764735	c|h}CH e}AO	-0.3911715
-1.192758	c|h}CH e}EH	-0.4954588
-2.618048	c|h}CH e}EY	-0.2179823
-1.400564	c|h}CH e}IH	-0.8444003
-2.220108	c|h}CH e}IY	-0.1874965
-1.400564	c|h}CH e}_	-0.9215733
-2.089774	c|h}CH f}F	-0.8999099
-3.164274	c|h}CH g}G	-0.4377465
-2.521138	c|h}CH h}HH	-0.4094859
-3.623281	c|h}CH h}_	0.0000
-2.822168	c|h}CH i|r}ER	-0.4186888
-2.089774	c|h}CH i}AH	-0.1141178
-1.695063	c|h}CH i}AY	-1.025229
-3.579465	c|h}CH i}EH	-0.136421
-1.020079	c|h}CH i}IH	-0.6479021
-1.394033	c|h}CH i}IY	-0.2621158
-3.044017	c|h}CH i}_	-0.2145142
-2.566895	c|h}CH k}K	-0.4371471
-3.044017	c|h}CH l}AH|L	-0.2119414
-1.97707	c|h}CH l}L	-0.3829741
-1.77295	c|h}CH m}M	-0.7990706
-2.345047	c|h}CH n}N	-0.3688923
-2.566895	c|h}CH o|i}OY	-0.3623607
-3.623281	c|h}CH o|o}UH	0.0000
-2.566895	c|h}CH o|o}UW	-0.2703708
-3.579465	c|h}CH o|r}ER	0.0000
-3.623281	c|h}CH o|u}AW	0.0000
-3.623281	c|h}CH o|u}UW	0.0000
-2.521138	c|h}CH o|w}AW	-0.2872714
-3.164274	c|h}CH o|w}OW	-0.2720231
-3.579465	c|h}CH o|y}OY	0.0000
-2.05874	c|h}CH o}AA	-0.3735375
-2.345047	c|h}CH o}AH	-0.09105396
-2.345047	c|h}CH o}AO	0.05143416
-1.788744	c|h}CH o}OW	-0.4193813
-3.623281	c|h}CH p}P	0.0000
-2.521138	c|h}CH r}R	-0.2139624
-3.044017	c|h}CH s}S	-0.1072427
-3.623281	c|h}CH s}_	0.0000
-2.290689	c|h}CH t}T	-0.189871
-3.623281	c|h}CH t}_	0.0000
-2.029776	c|h}CH u|r}ER	-0.5994685
-1.728746	c|h}CH u}AH	-0.1409584
-2.618048	c|h}CH u}UH	0.04515675
-2.044017	c|h}CH u}UW	-0.2495409
-3.579465	c|h}CH u}W	-0.3295916
-3.579465	c|h}CH u}Y|UW	0.0000
-3.623281	c|h}CH u}_	0.0000
-2.441957	c|h}CH w}W	-0.2237607
-3.579465	c|h}CH w}_	0.06452405
-3.579465	c|h}CH y}AY	-0.3800629
-3.044017	c|h}CH y}IH	-0.1179578
-2.002624	c|h}CH y}IY	-0.4985821
-3.623281	c|h}CH y}Y	0.0000
-0.544068	c|h}HH </s>	0.0000
-1.901483	c|h}HH a|r}ER	0.0000
-1.03381	c|h}HH a}AA	-0.2231856
-1.901483	c|h}HH a}AE	0.0000
-1.100371	c|h}HH a}AH	-0.3060387
-1.901483	c|h}HH a}AY	0.0000
-1.901483	c|h}HH e}AH	0.0000
-1.322219	c|h}HH e}EH	-0.1994122
-1.901483	c|h}HH i}IH	0.0000
-1.901483	c|h}HH m}M	0.0000
-1.322219	c|h}HH o|w}AW	-0.2119654
-1.857667	c|h}HH o}AH	-0.3975877
-0.7993405	c|h}HH o}AO	-1.0304
-1.042938	c|h}HH o}OW	-0.2631058
-1.901483	c|h}HH u|r}ER	0.0000
-1.901483	c|h}HH u}AH	0.0000
-1.901483	c|h}HH u}UH	0.0000
-0.1021425	c|h}L o}AH	0.0000
-2.654811	c|h}SH </s>	0.0000
-2.654811	c|h}SH a|i}EH	0.0000
-1.853698	c|h}SH a|i}EY	-0.1863874
-2.075547	c|h}SH a|r}ER	-0.2146733
-1.376577	c|h}SH a|u}OW	-0.3349978
-0.9728846	c|h}SH a}AA	-0.7202684
-1.137695	c|h}SH a}AE	-0.4890417
-1.047518	c|h}SH a}AH	-0.2295551
-2.654811	c|h}SH a}EY	0.0000
-2.075547	c|h}SH a}_	-0.8849968
-2.610995	c|h}SH c}K	-0.3663862
-2.610995	c|h}SH e|d}T	0.8617465
-2.195804	c|h}SH e|r}ER	-0.1430548
-1.438725	c|h}SH e}AH	-0.2073131
-0.845098	c|h}SH e}EH	-0.8042323
-1.598426	c|h}SH e}EY	-0.1436799
-1.273915	c|h}SH e}IH	-0.1413596
-2.654811	c|h}SH e}IY	0.0000
-0.8202745	c|h}SH e}_	-0.5663248
-1.552668	c|h}SH i}AH	-0.4795123
-1.473487	c|h}SH i}IH	-0.1446312
-1.121304	c|h}SH i}IY	-0.6765411
-2.654811	c|h}SH m}M	0.0000
-2.654811	c|h}SH n}N	0.0000
-2.654811	c|h}SH o|i}OY	0.0000
-2.654811	c|h}SH o|u}UW	0.0000
-2.610995	c|h}SH o}AA	-0.2895977
-2.654811	c|h}SH o}AH	0.0000
-2.610995	c|h}SH o}AO	-0.3857991
-2.654811	c|h}SH o}OW	0.0000
-2.654811	c|h}SH o}_	0.0000
-2.610995	c|h}SH r}R	0.0000
-2.195804	c|h}SH s}_	-0.1441976
-2.610995	c|h}SH u}UH	-0.07862788
-1.787137	c|h}SH u}UW	-0.576363
-2.654811	c|h}SH w}W	0.0000
-2.654811	c|h}SH y}IY	0.0000
-1.332591	c|h}_ </s>	0.0000
-1.332591	c|h}_ a|r}ER	0.0000
-1.332591	c|h}_ a|u}AW	0.0000
-1.332591	c|h}_ a}AH	0.0000
-1.332591	c|h}_ c}K	0.0000
-1.332591	c|h}_ e|r}ER	0.0000
-1.332591	c|h}_ e}EH	0.0000
-1.332591	c|h}_ e}EY	0.0000
-1.332591	c|h}_ n}N	0.0000
-1.332591	c|h}_ r}R	0.0000
-0.4649181	c|h}_ t}T	-0.2194545
-1.997846	c|i}CH a|o}AW	0.0000
-1.173988	c|i}CH a|r}ER	-0.194318
-1.462398	c|i}CH a}AA	-0.2079492
-2.041662	c|i}CH a}AE	0.0000
-0.4923612	c|i}CH a}AH	-0.5194222
-0.9852768	c|i}CH a}AO	-0.5335792
-0.9852768	c|i}CH e}EH	-0.4917158
-2.041662	c|i}CH e}_	0.0000
-0.5970966	c|i}CH o}OW	-0.5186864
-1.240549	c|i}CH u}UW	-0.3165828
-2.566036	c|i}SH a|r}ER	0.0000
-2.566036	c|i}SH a}AA	0.0000
-0.1783357	c|i}SH a}AH	-1.560923
-2.107029	c|i}SH a}AO	0.0000
-2.52222	c|i}SH a}_	-0.3542687
-1.986772	c|i}SH e|r}ER	0.0000
-1.032529	c|i}SH e}AH	-1.222977
-0.8406437	c|i}SH o|u}AH	-1.089647
-1.560803	c|i}SH o}AH	-0.5915005
-1.560803	c|i}SH o}_	-0.944271
-2.52222	c|i}SH u}AH	-0.3478683
-3.611846	c|k}K '|s}Z	0.0000
-3.655662	c|k}K '}AH	0.0000
-1.690196	c|k}K '}_	-1.598704
-2.122155	c|k}K (}_	-0.4544937
-2.854549	c|k}K -}_	-0.1185633
-0.4831116	c|k}K </s>	0.0000
-3.655662	c|k}K _}S	0.0000
-2.252489	c|k}K a|r}ER	-0.9363164
-3.655662	c|k}K a|y}EY	0.0000
-2.787988	c|k}K a}AA	-0.3659316
-3.655662	c|k}K a}AE	0.0000
-1.900306	c|k}K a}AH	-0.2816508
-2.650429	c|k}K a}EY	-0.6897072
-2.377428	c|k}K a}IH	-0.9320924
-1.872278	c|k}K b}B	-0.2946316
-3.655662	c|k}K c}_	0.0000
-2.407391	c|k}K d}D	-0.6084849
-1.62924	c|k}K e|d}T	0.6363909
-1.02718	c|k}K e|r}ER	-0.8819181
-1.239652	c|k}K e}AH	-1.073309
-2.439576	c|k}K e}EH	-0.3015438
-1.639705	c|k}K e}IH	-0.9520303
-2.474338	c|k}K e}IY	-0.8520681
-1.549198	c|k}K e}_	-1.032863
-2.32307	c|k}K f}F	-0.665159
-3.076398	c|k}K g}G	-0.1397953
-1.761127	c|k}K h}HH	-0.5379619
-3.076398	c|k}K h}_	-0.2062241
-2.787988	c|k}K i}AH	-0.3397578
-3.655662	c|k}K i}AY	0.0000
-1.489061	c|k}K i}IH	-1.38718
-1.696186	c|k}K i}IY	-0.5893206
-3.611846	c|k}K i}Y	0.0000
-3.655662	c|k}K j}JH	0.0000
-3.611846	c|k}K k|n}N	-0.3618494
-1.528213	c|k}K l}AH|L	0.3664602
-1.310481	c|k}K l}L	-0.8242366
-1.6241	c|k}K m}M	-0.9052532
-1.727444	c|k}K n}N	-0.8396404
-3.196655	c|k}K o|o}UW	0.0000
-3.611846	c|k}K o|r}ER	0.0000
-2.650429	c|k}K o|u}AW	-0.8190451
-3.655662	c|k}K o|w}AW	0.0000
-3.611846	c|k}K o}AA	0.0000
-2.298246	c|k}K o}AH	-0.1443559
-2.797116	c|k}K o}AO	-0.8927616
-2.252489	c|k}K o}OW	-0.5978736
-3.611846	c|k}K o}_	0.0000
-2.155579	c|k}K p}P	-0.401286
-3.655662	c|k}K r}ER	0.0000
-1.973735	c|k}K r}R	-0.2349735
-2.854549	c|k}K s|h}SH	0.0000
-1.069219	c|k}K s}S	-0.8555226
-3.655662	c|k}K t|h}TH	0.0000
-2.2313	c|k}K t}T	-0.2337277
-2.377428	c|k}K u}AH	-0.5239146
-3.655662	c|k}K u}Y|UW	0.0000
-3.611846	c|k}K v}V	-0.3363813
-1.805331	c|k}K w}W	-0.2886098
-3.655662	c|k}K y}IH	0.0000
-1.973735	c|k}K y}IY	-0.8573196
-2.787988	c|k}K y}Y	-0.5202632
-0.1021425	c|k}_ b}B	0.0000
-1.143535	c|q}K '}_	0.0000
-0.1383027	c|q}K </s>	0.0000
-1.09972	c|q}K u}AH	-0.3975156
-0.3593568	c|y}S l}L	-0.3803966
-2.359821	c|z}CH (}_	0.0000
-0.5173159	c|z}CH </s>	0.0000
-1.780557	c|z}CH a|j}AY	-0.1623525
-2.316005	c|z}CH a|r}ER	0.0000
-1.900815	c|z}CH a}AA	-0.2203797
-0.8774673	c|z}CH a}AE	-1.392451
-1.900815	c|z}CH a}AH	-0.1505508
-2.359821	c|z}CH a}EH	0.0000
-1.900815	c|z}CH e|r}ER	-0.3857713
-0.8959507	c|z}CH e}EH	-0.7131881
-2.316005	c|z}CH e}IH	0.0000
-1.257679	c|z}CH k}K	-0.6846468
-1.780557	c|z}CH m}M	-0.1981716
-2.316005	c|z}CH n}N	-0.3961593
-2.316005	c|z}CH o|r}ER	0.0000
-2.359821	c|z}CH o}AO	0.0000
-0.666614	c|z}CH y}IH	-0.7809752
-2.359821	c|z}CH y}IY	0.0000
-0.2451963	c|z}Z a}AA	-0.414196
-1.17227	c|z}_ a}AE	-0.3926519
-1.216086	c|z}_ e|r}ER	0.0000
-0.7570796	c|z}_ e}EH	-0.1514161
-0.7570796	c|z}_ e}IH	-0.6424649
-1.17227	c|z}_ y}IH	0.0000
-0.7468936	c}AE|K a}AH	0.01297519
-1.928217	c}AE|K e|w}UW	0.0000
-0.3075609	c}AE|K e}AH	-0.8790088
-1.469211	c}AE|K i}AH	-0.2764031
-0.7121314	c}AE|K i}IH	-0.6044022
-1.469211	c}AE|K n}N	-0.4441329
-2.880294	c}AH c}G	0.0000
-0.3157533	c}AH c}K	-0.8986584
-2.880294	c}AH c}S	0.0000
-2.880294	c}AH d}D	0.0000
-1.154902	c}AH e}_	-1.263103
-2.01262	c}AH g|u}G	-0.3095135
-0.6777807	c}AH g}G	-0.5261568
-1.875061	c}AH h}_	-0.4281533
-0.8191099	c}AH k}K	-0.626726
-2.021749	c}AH l}L	-0.5227052
-2.880294	c}AH o}_	0.0000
-2.836478	c}AH q|u}K	0.0000
-1.435729	c}AH q}K	-0.2493057
-2.836478	c}AH z}Z	-0.3946331
-2.277614	c}CH '}IH	0.4715269
-2.692804	c}CH (}_	0.594523
-1.731387	c}CH </s>	0.0000
-2.692804	c}CH c}AH	-0.3666242
-2.73662	c}CH e|j}EY	0.0000
-1.236537	c}CH e|r}ER	-0.3842545
-0.4040284	c}CH e}EH	-0.8355214
-1.731387	c}CH e}EY	-0.1089408
-2.277614	c}CH e}IH	0.0000
-1.404028	c}CH e}IY	-0.9101749
-2.157356	c}CH e}_	-0.8923081
-1.935507	c}CH h}AH	-0.3879535
-2.692804	c}CH h}HH	-0.3706987
-2.73662	c}CH i|r}ER	0.0000
-2.277614	c}CH i}AH	-0.3583595
-2.73662	c}CH i}AY	0.0000
-1.001009	c}CH i}IH	-0.3795638
-0.5341067	c}CH i}IY	-0.4416371
-2.692804	c}CH k}K	-0.380746
-2.73662	c}CH n}N	0.0000
-2.73662	c}CH t}_	0.0000
-2.73662	c}CH y}IY	0.0000
-0.8011125	c}G a}AA	0.0000
-0.7572968	c}G i}IH	-0.3943574
-0.7572968	c}G l}L	0.0000
-0.7572968	c}IY </s>	0.0000
-0.7572968	c}IY c}K	0.0000
-0.8011125	c}IY q}K	0.0000
-4.444506	c}K '}AH	0.0000
-2.497265	c}K '}_	-1.664437
-2.479041	c}K (}_	1.001156
-3.9855	c}K -}_	-0.4251499
-4.444506	c}K .}S	0.0000
-1.267182	c}K </s>	0.0000
-4.40069	c}K _}AH	0.0000
-4.40069	c}K _}AO|R	0.0000
-3.865242	c}K _}W	-0.8112502
-1.982528	c}K _}Y	-1.106645
-3.439273	c}K a|i}EH	0.5115315
-2.980636	c}K a|i}EY	-0.1857742
-3.342363	c}K a|l}AA	0.1535839
-3.585961	c}K a|l}AE	0.3721506
-4.444506	c}K a|l}AO	0.0000
-4.40069	c}K a|o}AW	-0.12514
-2.52945	c}K a|r}ER	-0.1589407
-2.455873	c}K a|u}AO	-0.5580274
-3.865242	c}K a|u}AW	-0.1889561
-3.9855	c}K a|u}OW	0.0000
-3.196235	c}K a|w}AO	-0.2782498
-2.92739	c}K a|y}EY	0.1035159
-1.314606	c}K a}AA	-0.8123062
-1.171222	c}K a}AE	-0.9364865
-1.27828	c}K a}AH	-0.8365265
-2.670266	c}K a}AO	-1.290895
-4.40069	c}K a}AY	-0.3779228
-2.132849	c}K a}EH	-1.751039
-4.444506	c}K a}ER	0.0000
-1.508579	c}K a}EY	-0.6999209
-4.40069	c}K a}IH	-0.3670626
-4.444506	c}K a}IY	0.0000
-2.087091	c}K a}_	-1.357342
-2.980636	c}K b}B	-0.299709
-4.444506	c}K c|h}CH	0.0000
-3.576833	c}K c|i}CH	-0.4797463
-3.865242	c}K c}AH	-0.2177876
-2.32533	c}K c}S	-0.9507238
-2.564212	c}K c}Y	0
-2.503514	c}K d}D	-0.5829437
-3.865242	c}K e|a}IY	-0.8688508
-4.444506	c}K e|d}T	0.0000
-4.40069	c}K e|r}ER	0.0000
-4.40069	c}K e}AH	-0.3673556
-3.111915	c}K e}EH	-0.1663004
-4.444506	c}K e}IY	0.0000
-3.9855	c}K e}_	-0.4593454
-2.76258	c}K f}F	-0.5039027
-4.40069	c}K g}G	0.0000
-4.444506	c}K g}JH	0.0000
-3.111915	c}K h}AH	-0.5710257
-3.300971	c}K h}HH	-0.3764344
-1.056806	c}K h}_	-0.8064561
-4.40069	c}K i|r}ER	-0.393935
-3.643394	c}K i}AH	-0.7912092
-3.9855	c}K i}AY	0.0000
-3.138243	c}K i}IH	-0.50081
-3.06361	c}K i}IY	-0.5365078
-3.865242	c}K i}_	-0.2197876
-4.40069	c}K j}JH	-0.3514622
-3.865242	c}K k}HH	-0.7162534
-4.444506	c}K l|e}IY	0.0000
-2.300971	c}K l}AH|L	-0.2110155
-1.25636	c}K l}L	-1.524245
-4.444506	c}K m|u}AH	0.0000
-2.479041	c}K m}M	-0.554751
-2.509855	c}K n}N	-0.5875983
-4.444506	c}K o|.}OW	0.0000
-2.865242	c}K o|i}OY	-0.425666
-3.9855	c}K o|l}AH	-0.2895008
-4.444506	c}K o|n}AH	0.0000
-2.798295	c}K o|o}UH	-1.372282
-2.355592	c}K o|o}UW	-0.4127625
-2.263182	c}K o|r}ER	-0.684213
-2.911	c}K o|u}AH	-0.9353206
-2.467302	c}K o|u}AO	-1.088076
-1.947912	c}K o|u}AW	-0.8083257
-3.300971	c}K o|u}UH	-0.04869187
-2.594175	c}K o|u}UW	-0.2241376
-2.543023	c}K o|w}AW	-0.1527148
-3.643394	c}K o|w}OW	-0.1094689
-3.111915	c}K o|y}OY	-0.1215014
-1.151752	c}K o}AA	-0.6709948
-4.444506	c}K o}AE	0.0000
-1.096851	c}K o}AH	-1.020177
-1.47726	c}K o}AO	-0.746652
-4.444506	c}K o}ER	0.0000
-4.40069	c}K o}IH	-0.3943274
-1.191607	c}K o}OW	-0.3627919
-4.444506	c}K o}UW	0.0000
-3.643394	c}K o}W	-0.4079553
-2.549972	c}K o}_	-0.8293591
-3.111915	c}K p|h}F	-0.2680647
-3.263182	c}K p}P	-0.2117861
-2.698911	c}K q|u}W	0.1137577
-3.06361	c}K r}ER	-0.5157054
-1.087332	c}K r}R	-1.539275
-4.40069	c}K r}_	-0.3979712
-3.576833	c}K s|h}SH	-0.1990278
-4.40069	c}K s|s}S	-0.3849818
-1.862357	c}K s}S	-1.215022
-4.444506	c}K t|.}T	0.0000
-4.444506	c}K t|h}TH	0.0000
-1.82649	c}K t|i}SH	-1.09895
-4.40069	c}K t|u}CH	0.0000
-4.444506	c}K t|u}SH	0.0000
-2.300971	c}K t}CH	-1.264228
-3.300971	c}K t}SH	-1.084247
-1.183398	c}K t}T	-0.9493103
-4.444506	c}K t}T|OW	0.0000
-2.62636	c}K t}_	-1.080849
-2.175046	c}K u|r}ER	-0.8458357
-4.444506	c}K u}AA	0.0000
-1.639072	c}K u}AH	-0.8002365
-4.40069	c}K u}AO	0.0000
-3.388121	c}K u}IH	-0.3606157
-2.851002	c}K u}UH	-1.103851
-2.479041	c}K u}UW	-0.3156481
-2.895205	c}K u}W	-0.2937213
-3.041333	c}K u}Y	-0.2926302
-2.001919	c}K u}Y|UW	-0.6823503
-3.22842	c}K u}_	-0.9202289
-3.263182	c}K v}V	-0.1307383
-2.999941	c}K w}W	-0.1637754
-4.444506	c}K w}_	0.0000
-3.585961	c}K y}IH	-0.2240912
-3.388121	c}K y}IY	0.2308521
-4.40069	c}K z}S	0.0000
-3.865242	c}K z}Z	-0.1803399
-3.33739	c}S '}IY	-0.0271447
-3.752581	c}S '}_	0.0000
-2.995284	c}S (}IY	-0.01174438
-3.33739	c}S -}IY	-0.291025
-2.995284	c}S .}IY	0.0000
-3.752581	c}S </s>	0.0000
-3.796397	c}S _}EH	0.0000
-1.87471	c}S _}IY	-0.2070032
-3.217133	c}S _}W	-0.8112502
-3.796397	c}S _}Y	0.0000
-3.752581	c}S a|i}EH	0.0000
-3.796397	c}S a|i}EY	0.0000
-3.796397	c}S a|o}AW	0.0000
-3.752581	c}S a}AA	-0.3864045
-3.796397	c}S a}AH	0.0000
-3.796397	c}S a}EH	0.0000
-3.33739	c}S a}_	-0.6413906
-2.372035	c}S e|a}IY	-0.6506377
-1.59045	c}S e|d}T	0.8686829
-3.796397	c}S e|n}IH	0.0000
-1.349862	c}S e|r}ER	-0.459011
-1.308648	c}S e}AH	-0.6189743
-0.8949136	c}S e}EH	-1.064039
-2.08147	c}S e}EY	-0.2389238
-1.201494	c}S e}IH	-0.9267198
-1.604349	c}S e}IY	-0.6245997
-0.6205358	c}S e}_	-1.384858
-3.796397	c}S h}HH	0.0000
-3.217133	c}S h}_	0.0000
-1.813441	c}S i|r}ER	-0.8812569
-1.26289	c}S i}AH	-0.836749
-1.420096	c}S i}AY	-0.9124048
-0.85793	c}S i}IH	-0.8554096
-1.251774	c}S i}IY	-0.2507905
-2.995284	c}S i}Y	-0.39477
-3.217133	c}S i}_	-0.8430285
-2.548126	c}S k}K	-0.4481515
-3.796397	c}S l}L	0.0000
-3.796397	c}S m}M	0.0000
-3.796397	c}S o|r}ER	0.0000
-3.796397	c}S o}AH	0.0000
-3.752581	c}S o}OW	0.0000
-3.796397	c}S o}W	0.0000
-3.796397	c}S o}_	0.0000
-3.796397	c}S r}ER	0.0000
-3.752581	c}S s}_	0.0000
-3.796397	c}S y|r}ER	0.0000
-2.995284	c}S y}AH	-0.2223302
-1.652861	c}S y}AY	-0.8451906
-1.861745	c}S y}IH	-0.4238185
-1.35381	c}S y}IY	-0.2953657
-3.796397	c}S z|a}AA	0.0000
-2.056385	c}SH a}AA	0.0000
-2.056385	c}SH a}AH	0.0000
-2.056385	c}SH e}AH	0.0000
-1.477121	c}SH e}IY	-0.8880396
-2.056385	c}SH e}Y	0.0000
-0.5925147	c}SH e}_	-0.9233114
-2.056385	c}SH i}IH	0.0000
-0.2218488	c}SH i}IY	-0.7016192
-1.255273	c}SH i}Y	-0.1506787
-1.102143	c}T h}_	0.0000
-1.102143	c}T t}S	0.0000
-0.2344692	c}T z}S	-0.2556197
-1.102143	c}T z}Z	0.0000
-0.1021425	c}TH e}EH	0.0000
-1.55695	c}T|S a}AH	-0.1461487
-1.972141	c}T|S e}AH	-0.3913755
-1.972141	c}T|S e}IH	0.0000
-0.04458213	c}T|S k}K	-1.91952
-1.887472	c}Y h}_	0.0000
-0.7439371	c}Y u|r}ER	-0.4565994
-0.4429072	c}Y u}AH	-1.068217
-0.3539661	c}Y u}UW	-0.6960516
-1.46387	c}_ </s>	0.0000
-1.46387	c}_ a}AE	0.0000
-1.46387	c}_ a}EH	0.0000
-1.46387	c}_ l}L	0.0000
-1.46387	c}_ o}AA	0.0000
-1.46387	c}_ o}OW	0.0000
-0.3203351	c}_ q|u}K	-0.7457802
-1.46387	c}_ s}Z	0.0000
-0.6627578	c}_ t}T	-0.581126
-2.7649	d|g}JH a}AH	0.0000
-2.7649	d|g}JH c}K	0.0000
-2.7649	d|g}JH d}D	0.0000
-1.20036	d|g}JH e|r}ER	-0.2480805
-1.094556	d|g}JH e}AH	-0.4051285
-2.7649	d|g}JH e}EH	0.0000
-0.9223952	d|g}JH e}IH	-1.633326
-2.7649	d|g}JH e}IY	0.0000
-0.2528247	d|g}JH e}_	-1.087325
-2.721085	d|g}JH h}HH	0.0000
-1.185637	d|g}JH i}IH	-0.8728513
-2.305894	d|g}JH i}IY	-0.364711
-1.963788	d|g}JH k}K	-0.8263757
-1.759668	d|g}JH l}L	-0.7991762
-1.548815	d|g}JH m}M	-0.5193791
-2.7649	d|g}JH o}AO	0.0000
-2.7649	d|g}JH p}P	0.0000
-2.721085	d|g}JH r}R	0.0000
-2.7649	d|g}JH s}S	0.0000
-2.7649	d|g}JH u|r}ER	0.0000
-2.305894	d|g}JH w}W	-0.06977163
-1.963788	d|g}JH y}IY	-0.1501749
-1.670344	d|z}JH e|r}ER	0.0000
-1.670344	d|z}JH e}EH	0.0000
-1.670344	d|z}JH e}IH	0.0000
-1.09108	d|z}JH h}_	-0.2104148
-1.670344	d|z}JH i}AH	0.0000
-0.3377528	d|z}JH i}IH	-0.7206872
-0.6139592	d|z}JH i}IY	-0.1425335
-1.670344	d|z}JH k}K	0.0000
-1.670344	d|z}JH o}OW	0.0000
-1.670344	d|z}JH w}V	0.0000
-1.670344	d|z}JH y}IH	0.0000
-0.004547628	d}AH l}L	-1.936796
-0.1021425	d}B </s>	0.0000
-2.000701	d}D '|s}Z	1.219296
-4.031435	d}D '}AH	-0.8434961
-4.610699	d}D '}IH	0.0000
-3.605467	d}D '}IY	0.2987357
-2.940355	d}D '}_	-0.5913407
-3.743026	d}D (}IY	0.2509803
-1.564074	d}D (}_	-0.2494512
-2.977078	d}D -}_	-0.2539991
-3.809587	d}D .}IY	0.1070862
-0.6431565	d}D </s>	0.0000
-3.304437	d}D _}AH	-0.5737158
-4.610699	d}D _}EY	0.0000
-2.875088	d}D _}IY	-0.170784
-4.610699	d}D _}R	0.0000
-4.610699	d}D _}W	0.0000
-3.752154	d}D _}Y	-0.4297772
-3.394613	d}D a|i}EH	0.3704836
-2.760369	d}D a|i}EY	0.140788
-4.031435	d}D a|o}AW	-0.6193434
-2.855344	d}D a|r}ER	-0.3478082
-2.940355	d}D a|u}AO	-0.5434734
-3.278108	d}D a|u}AW	-0.2255318
-3.809587	d}D a|u}OW	0.0000
-3.253284	d}D a|w}AO	-0.338434
-2.375018	d}D a|y}EY	-0.7236732
-1.932215	d}D a}AA	-0.1830388
-1.796749	d}D a}AE	-0.3777444
-1.534967	d}D a}AH	-0.6656389
-3.207527	d}D a}AO	-0.3167944
-2.990043	d}D a}EH	-0.8550227
-1.975802	d}D a}EY	-0.6849558
-3.394613	d}D a}IH	-0.8789459
-4.566884	d}D a}IY	-0.3652864
-2.827315	d}D a}_	-0.6755761
-2.291073	d}D b}B	-0.3538452
-3.304437	d}D c|h}CH	-0.2744984
-4.610699	d}D c|k}K	0.0000
-2.639325	d}D c}K	-0.4381988
-4.610699	d}D c}S	0.0000
-2.530833	d}D d}AH	0
-3.809587	d}D d}D	-0.112238
-2.594743	d}D d}_	-1.001384
-2.645234	d}D e|a}IY	-0.3561136
-4.151693	d}D e|i}EY	0.0000
-4.566884	d}D e|n}EH	-0.04595876
-4.610699	d}D e|n}_	0.0000
-1.309625	d}D e|r}ER	-0.5508845
-3.278108	d}D e|u}OY	-0.4747485
-2.906497	d}D e|w}UW	-0.07913229
-3.752154	d}D e|y}EY	-0.3097583
-1.463234	d}D e}AH	-0.1626711
-1.355047	d}D e}EH	-0.5144552
-2.475133	d}D e}EY	-0.08782828
-1.33537	d}D e}IH	-0.9210732
-1.894715	d}D e}IY	-0.3770009
-1.43301	d}D e}_	-1.005908
-2.422197	d}D f}F	-0.4733278
-3.003407	d}D g}G	-0.6595697
-4.566884	d}D g}JH	-0.2828799
-4.610699	d}D h}AH	0.0000
-2.43301	d}D h}HH	-0.2615113
-2.809587	d}D h}_	-0.5776489
-3.743026	d}D i|c}AY	-0.1025189
-4.566884	d}D i|g}AY	-0.3932456
-2.800987	d}D i|r}ER	-0.6712515
-3.752154	d}D i}AE	0.57819
-2.000701	d}D i}AH	-0.5989666
-4.610699	d}D i}AO	0.0000
-1.880168	d}D i}AY	-0.5535955
-1.089097	d}D i}IH	-0.4703788
-1.516888	d}D i}IY	-0.3049756
-3.278108	d}D i}Y	-0.1616908
-4.151693	d}D i}_	-0.1322955
-4.031435	d}D j}JH	0.0000
-4.566884	d}D j}Y	-0.303037
-2.885307	d}D k}K	-0.6744263
-4.610699	d}D l|l}L	0.0000
-2.196803	d}D l}AH|L	0.1128898
-1.774557	d}D l}L	-1.35602
-2.080422	d}D m}M	-1.006978
-2.243739	d}D n}N	-0.8931936
-4.610699	d}D o|h}F	0.0000
-3.362429	d}D o|i}OY	-0.170964
-4.610699	d}D o|l}AO	0.0000
-4.610699	d}D o|o}UH	0.0000
-2.917492	d}D o|o}UW	-0.3964342
-2.669708	d}D o|r}ER	-0.3378704
-3.003407	d}D o|u}AH	-1.027825
-3.743026	d}D o|u}AO	0.3214293
-2.845799	d}D o|u}AW	-0.4446549
-4.566884	d}D o|u}UH	0.6323481
-2.917492	d}D o|u}UW	-0.4784046
-2.273028	d}D o|w}AW	-0.6282595
-2.760369	d}D o|w}OW	-0.1799627
-3.467164	d}D o|y}OY	-0.06577088
-1.830038	d}D o}AA	-0.3773006
-2.000701	d}D o}AH	-0.4637665
-1.910861	d}D o}AO	-0.3975048
-3.752154	d}D o}AW	0.4591913
-4.610699	d}D o}D|OW	0.0000
-3.554314	d}D o}IH	-0.5774918
-1.622066	d}D o}OW	-0.4603883
-3.046159	d}D o}UW	-0.4503058
-4.610699	d}D o}W	0.0000
-3.186337	d}D o}_	-1.326811
-4.610699	d}D p|f}F	0.0000
-4.566884	d}D p|h}F	-0.3574736
-2.855344	d}D p}P	-0.294016
-3.752154	d}D q|u}K	-0.8811268
-3.362429	d}D q}K	-0.0636692
-4.566884	d}D r}AA|K	0.0000
-3.003407	d}D r}ER	-0.1071401
-1.41269	d}D r}R	-1.287925
-4.151693	d}D r}_	-0.44977
-3.743026	d}D s|c}SH	0.8757421
-2.990043	d}D s|h}SH	-0.4552313
-4.566884	d}D s|s}S	0.0000
-2.069224	d}D s}S	-0.805438
-1.6405	d}D s}Z	-0.9913885
-3.429375	d}D t|h}TH	-0.2531155
-2.895773	d}D t}T	-0.6699647
-3.554314	d}D t}_	-0.8968006
-4.566884	d}D u|i}UW	0.0000
-2.784281	d}D u|r}ER	-0.2646764
-1.759594	d}D u}AH	-0.2678455
-3.809587	d}D u}AO	-0.6349937
-3.554314	d}D u}IH	-0.4063731
-2.752682	d}D u}UH	-1.130086
-1.971998	d}D u}UW	-0.390137
-3.332465	d}D u}W	-0.1204548
-3.017195	d}D u}Y|UW	-0.378454
-4.151693	d}D u}_	-0.1140866
-2.291073	d}D v}V	-1.122303
-4.610699	d}D w}V	0.0000
-2.144945	d}D w}W	-0.4938118
-4.031435	d}D w}_	-0.4296793
-4.151693	d}D y}AH	-0.1522959
-2.483251	d}D y}AY	-0.6779918
-2.865104	d}D y}IH	-0.2566991
-1.959553	d}D y}IY	-0.02728558
-3.394613	d}D y}Y	-0.1072083
-3.093583	d}D z}Z	-0.3992952
-2.245157	d}JH _}Y	0.0000
-1.665894	d}JH i}AH	-0.8848613
-1.444045	d}JH i}_	-0.8548434
-2.245157	d}JH o|o}UW	0.0000
-2.245157	d}JH r}_	0.0000
-1.386612	d}JH u|r}ER	-0.4888475
-0.4026521	d}JH u}AH	-2.082249
-1.377484	d}JH u}UH	-0.573471
-0.4898023	d}JH u}UW	-0.7540218
-0.9968868	d}JH u}Y|UW	-1.199739
-2.245157	d}JH u}_	0.0000
-1.332591	d}T '}_	0.0000
-0.5314789	d}T </s>	0.0000
-1.288776	d}T a}AH	-0.2807562
-1.288776	d}T e|r}ER	0.0000
-1.332591	d}T e}AH	0.0000
-0.7533277	d}T i}IH	0.0000
-1.332591	d}T i}IY	0.0000
-1.332591	d}T s}S	0.0000
