
\data\
ngram 1=515
ngram 2=6849
ngram 3=25608


\1-grams:
-5.9705 &}ei -0.2788
-5.9705 &}ei|ei -0.2788
-3.3965 '}_ -1.0284
-5.9705 '}| -0.3010
-3.9882 (|1}_ -1.6013
-1.9441 (}_ -3.4707
-5.9705 (}aa|yy -0.2968
-5.9705 (}ai|dd -0.2973
-5.2716 (}bb|ll -0.6221
-5.1924 (}ei -0.3514
-5.6695 (}gg|rr -0.4729
-5.0163 (}ii -0.9952
-5.9705 (}ii|ai -0.2968
-4.6483 (}nn -1.3375
-5.4934 (}rr -0.4075
-5.9705 (}ss|an -0.2968
-5.6695 (}tt -0.4729
-5.6695 (}uu|bb -0.2287
-5.9705 )}ai|kk -0.2493
-5.6695 )}uu|bb -0.1833
-5.6695 -|j}zz -0.2117
-5.6695 -|u}un -0.2266
-2.7352 -}_ -1.3037
-5.4934 -}ai -0.5482
-4.7944 -}ee -0.4451
-5.3685 -}nn -0.2311
-4.9291 -}tt -0.4710
-4.7401 -}zz -1.1238
-5.9705 .}ei -0.2493
-5.9705 .}rr|aa -0.2493
-4.6281 0|)}_ -1.3100
-5.6695 0|0}tt -0.4771
-5.6695 0|4}tt -0.4197
-5.6695 0}an|tt -0.1833
-5.3685 0}ii|ss -0.6472
-5.6695 0}rr|an -0.4771
-5.6695 0}ss|an -0.4252
-5.6695 0}tt|rr -0.2351
-4.7944 1|)}_ -1.1523
-5.9705 1|1}zz -0.2493
-5.4934 1|6}zz -0.3824
-5.0674 1}dd -0.8601
-5.3685 1}ei|un -0.6472
-5.9705 1}kk|aa -0.3010
-5.9705 1}kk|in -0.3010
-5.3685 1}ss|an -0.5361
-5.6695 1}tt|oo -0.2351
-5.9705 1}tt|rr -0.3010
-5.1924 1}un -0.3038
-5.9705 2|(}tt -0.3010
-2.0183 2|)}_ -3.9004
-1.8334 2|)}ee -4.0194
-5.9705 2|)}ou -0.2493
-4.6088 2|)}rr -1.3283
-2.0705 2|)}zz -3.8482
-4.9291 2}dd|eu -1.0274
-5.6695 2}ee|kk -0.2351
-5.9705 2}in|tt -0.3010
-5.6695 2}ou|zz -0.1833
-5.6695 2}rr|ei -0.1833
-5.9705 2}|vv -0.3010
-5.9705 3|(}ff -0.3010
-2.8596 3|)}_ -3.0595
-5.0674 3|)}ee -0.9025
-5.3685 3|)}ei -0.6472
-2.3003 3|)}zz -3.6186
-5.6695 3}ai|tt -0.4771
-5.9705 3}ai|zz -0.2493
-5.4934 3}tt|rr -0.4112
-5.6695 3}uu|bb -0.1833
-5.1924 3}ww|aa -0.7933
-3.3839 4|)}_ -2.5359
-3.5708 4|)}ee -2.3496
-2.3194 4|)}zz -3.5334
-5.9705 4}aa|rr -0.3010
-5.9705 4}gg|rr -0.3010
-5.9705 4}in|tt -0.3010
-4.9705 4}kk|aa -0.3320
-5.6695 4}rr|zz -0.1833
-5.9705 4}tt|oo -0.3010
-3.4722 5|)}_ -2.4479
-5.6695 5|)}ee -0.1833
-5.1924 5}in|kk -0.3824
-5.9705 5}zz -0.2493
-3.7691 6|)}_ -2.1523
-4.3371 6|)}ee -1.5917
-5.9705 6|)}ei -0.2493
-4.2984 6|)}zz -1.6295
-5.2716 6}ii|ss -0.7264
-3.9705 7|)}_ -1.9525
-5.6695 7|)}ee -0.1833
-4.3685 7|)}zz -1.5610
-5.1924 7}ai|tt -0.7877
-5.6695 7}tt|dd -0.4770
-4.0674 8|)}_ -1.8567
-5.4934 8|)}ee -0.3824
-4.2146 8|)}zz -1.7117
-5.6695 8}ei|uy -0.2350
-5.6695 8}vv|in -0.4771
-5.9705 8}zz|uy -0.3009
-4.5555 9|)}_ -1.3796
-5.6695 9}eu|ff -0.1833
-0.9493 </s> 0.0000
-99.0000 <s> -2.9882
-5.6695 @}aa|zz -0.2350
-5.2716 _|u}un -0.7696
-2.7162 _}_ -1.7344
-3.7128 _}aa -0.8032
-5.9705 _}aa|rr -0.3010
-5.9705 _}aa|yy -0.3010
-4.6695 _}ai -1.1693
-4.8913 _}ai|dd -0.6600
-5.6695 _}ai|gg -0.4253
-5.9705 _}ai|ll -0.2493
-5.9705 _}ai|ss -0.3010
-5.1254 _}ai|tt -0.4225
-5.0163 _}an|tt -0.5872
-5.6695 _}au|bb -0.2351
-5.9705 _}au|kk -0.3010
-5.9705 _}au|yy -0.3010
-4.6088 _}bb|ll -1.3802
-5.9705 _}dd -0.3001
-5.6695 _}dd|aa -0.2257
-5.6695 _}dd|ee -0.2351
-4.5903 _}ee -0.6246
-4.7152 _}ei -0.3367
-5.9705 _}ei|rr -0.3009
-5.1254 _}ei|ss -0.4895
-3.7300 _}ii -0.6744
-5.1254 _}kk|aa -0.3096
-5.6695 _}ll|oo -0.2257
-4.3473 _}nn -0.5121
-5.9705 _}oe -0.2878
-5.9705 _}on|ss -0.3010
-5.9705 _}pp|aa -0.3010
-5.6695 _}rr|an -0.4771
-5.0674 _}rr|kk -0.8371
-5.4934 _}rr|oo -0.3594
-4.9291 _}ss -0.9984
-5.4934 _}ss|ai -0.4342
-5.3685 _}ss|an -0.5360
-4.0784 _}tt -1.2662
-5.6695 _}tt|kk -0.4771
-5.9705 _}tt|oe -0.2712
-5.0163 _}tt|rr -0.4799
-5.9705 _}vv|ai -0.2493
-4.5392 _}vv|ei -0.8243
-5.0674 _}ww -0.3349
-5.6695 _}yy|eu -0.1833
-5.3685 _}zz|ai -0.5151
-2.0791 a|i}ai -2.6122
-4.4023 a|i}ee -1.5757
-4.1510 a|i}ei -0.8584
-5.6695 a|i}eu -0.2310
-4.6088 a|l}oo -0.9248
-4.4390 a|m}aa -1.5356
-3.2430 a|m}an -2.2456
-5.1254 a|n}aa -0.7503
-1.9697 a|n}an -2.6569
-5.6695 a|r}aa -0.4603
-5.9705 a|t}vv -0.2984
-2.6832 a|u}au -2.1014
-2.8576 a|u}oo -2.0049
-4.7401 a|w}au -0.7896
-5.4934 a|w}oo -0.3256
-3.9452 a|y}ai -0.8251
-4.0462 a|y}ei -1.4440
-5.6695 a|z}aa -0.1833
-5.6695 a|ë}aa -0.4639
-3.5296 a|î}ai -2.4030
-4.7944 a|î}ei -1.0855
-3.2294 a}_ -1.4564
-1.2801 a}aa -2.5128
-5.9705 a}aa|on -0.3010
-5.9705 a}aa|vv -0.3010
-3.3795 a}ai -1.4468
-4.5903 a}ai|yy -0.6247
-5.0674 a}an -0.3041
-5.0163 a}au -0.9852
-4.4792 a}ei -1.0223
-4.9705 a}oe -0.5104
-5.2716 a}oo -0.7645
-5.4934 a}tt -0.4089
-5.4934 b|u}bb -0.4133
-4.0567 b}_ -1.2482
-1.8370 b}bb -1.7488
-3.9061 b}bb|ei -0.8100
-5.9705 b}mm -0.2965
-5.6695 b}oe -0.2219
-4.5081 b}pp -1.4369
-2.2766 c|h}ch -1.7022
-5.6695 c|h}rr -0.2129
-2.9510 c}_ -2.8836
-4.6918 c}ch -0.8958
-4.6281 c}gg -1.3514
-1.6830 c}kk -2.3395
-5.9705 c}kk|on -0.3010
-2.0773 c}ss -3.0265
-3.3988 c}ss|ei -1.6250
-4.3577 c}tt|ch -1.0382
-2.9887 d}_ -1.8988
-1.6714 d}dd -1.8725
-3.6462 d}dd|ei -1.0781
-5.1924 d}nn -0.3510
-5.6695 d}oe -0.2219
-4.1510 d}tt -1.8027
-1.9813 e|(}_ -3.9300
-3.9928 e|a}ii -1.0743
-5.6695 e|f}ei -0.4137
-3.4834 e|i}ai -1.1388
-2.9983 e|m}an -2.9130
-5.3685 e|m}in -0.5437
-2.7396 e|n}_ -3.2033
-5.6695 e|n}aa -0.4425
-4.9705 e|n}ai -1.0092
-2.0262 e|n}an -2.5892
-4.0897 e|n}ee -1.8643
-3.0096 e|n}in -1.8612
-5.3685 e|r}ai -0.2258
-2.4768 e|r}ei -3.3362
-5.9705 e|r}ii -0.2947
-2.1541 e|s}_ -3.2901
-3.2389 e|u}ee -1.6966
-2.7583 e|u}eu -1.7592
-2.6945 e|u}oe -2.4049
-3.7915 e|y}ei -0.7663
-4.6695 e|z}ai -1.1824
-3.4533 e|z}ei -2.3985
-5.1924 e|û}eu -0.3471
-1.5134 e}_ -2.5345
-3.6588 e}aa -2.2044
-5.9705 e}aa|rr -0.3010
-1.7065 e}ai -2.4383
-1.7606 e}ee -2.6988
-5.9705 e}ee|mm -0.3010
-2.3084 e}ei -1.8635
-4.3685 e}ei|eu -0.8294
-5.9705 e}ei|oe -0.2493
-4.1576 e}eu -0.5186
-3.7104 e}ii -1.0668
-4.1444 e}oe -0.9027
-3.6987 e}yy -1.2773
-5.4934 f|-}_ -0.3963
-2.8552 f|f}ff -1.7452
-5.0674 f|s}_ -0.9016
-3.5995 f}ai|ff -1.1349
-2.0413 f}ff -1.7965
-5.6695 g|-}kk -0.2310
-2.9573 g|n}gn -2.1587
-2.9522 g|u}gg -1.9940
-3.2254 g}_ -1.6971
-4.6695 g}aa -1.2210
-4.8244 g}dd -1.1733
-5.9705 g}dd|ei -0.2982
-4.0955 g}dd|jj -1.4360
-5.9705 g}ei|gn -0.3010
-2.1608 g}gg -1.7902
-4.7664 g}gg|gg -0.7716
-5.3685 g}gg|oe -0.6858
-5.9705 g}gn -0.2917
-2.1868 g}jj -3.0143
-3.8667 g}jj|ei -0.7435
-5.9705 g}kk -0.2961
-5.9705 g}nn|yy -0.2997
-5.6695 g}zz -0.4589
-5.9705 h|Ô}oo -0.2788
-2.2231 h}_ -1.5572
-4.8913 h}aa -0.6807
-4.2223 h}aa|ch -0.6296
-5.6695 h}nn -0.2348
-5.0674 h}yy -0.4931
-5.9705 i|(}un -0.2968
-3.9291 i|l}yy -1.9176
-3.1361 i|m}in -2.3156
-2.2445 i|n}in -2.6517
-5.9705 i|r}oe -0.2893
-5.9705 i|s}zz -0.3010
-5.6695 i|z}ii -0.1833
-4.0620 i}_ -0.5692
-4.8244 i}ai -0.4168
-5.6695 i}dd|eu -0.2351
-5.0674 i}ee -0.9244
-1.3282 i}ii -2.4556
-3.2866 i}ii|yy -1.7945
-4.6483 i}oe -1.3115
-5.9705 i}pp|rr -0.3010
-2.6843 i}ww|aa -2.0923
-1.8490 i}yy -2.4053
-5.6695 i}zz|ii -0.1833
-4.3371 j}dd|jj -1.0086
-2.6539 j}jj -1.6656
-4.9705 j}jj|yy -0.3081
-5.2716 j}rr -0.7381
-4.7152 j}yy -1.1493
-5.6695 k|-}aa -0.2319
-4.7664 k|k}kk -0.6059
-5.4934 k|n}nn -0.5723
-5.6695 k}gg|kk -0.4316
-2.5928 k}kk -1.2061
-5.3685 l|h}yy -0.6648
-2.9260 l|l}_ -2.2271
-5.6695 l|l}kk -0.4589
-2.4527 l|l}ll -1.8598
-3.2063 l|l}yy -2.2884
-4.3795 l|t}_ -1.5447
-4.4520 l}_ -0.7593
-3.9371 l}ai|ll -1.0029
-5.6695 l}dd|mm -0.4771
-1.5241 l}ll -1.8595
-5.6695 l}mm|ww -0.2350
-5.9705 l}ww|aa -0.2965
-5.2716 l}yy -0.2973
-2.9087 m|m}mm -1.8345
-3.6609 m}ai|mm -0.8559
-1.6715 m}mm -1.8235
-5.9705 n|c}ss -0.2801
-5.1924 n|i}gn -0.3442
-2.4379 n|n}nn -2.3735
-4.8913 n|t}_ -0.9205
-5.4934 n|t}an -0.5313
-2.8695 n|t}ee -3.0440
-5.1254 n}ai -0.4140
-3.7177 n}ai|nn -0.7924
-4.1380 n}ii -1.7114
-5.4934 n}ii|gg -0.4342
-5.6695 n}mm -0.2142
-1.7118 n}nn -1.6704
-5.9705 n}nn|uu -0.3010
-3.7152 n}nn|yy -1.3769
-4.5903 o|i}ww -1.0014
-2.8579 o|m}on -2.8994
-5.6695 o|m}oo -0.2266
-5.9705 o|n}_ -0.2893
-5.6695 o|n}an -0.1833
-5.9705 o|n}ee -0.2893
-1.9843 o|n}on -3.2884
-5.9705 o|n}oo -0.3008
-3.8338 o|o}ou -0.9874
-5.6695 o|r}oe -0.2219
-2.1400 o|u}ou -2.0394
-3.6341 o|u}ww -1.4462
-4.8244 o|w}au -0.3787
-5.0674 o|w}oo -0.7592
-5.9705 o|z}oo -0.2493
-4.1132 o|û}ou -1.8354
-2.6325 o}_ -2.4216
-2.3318 o}au -1.5884
-5.1924 o}ee -0.1863
-4.4654 o}oe -1.3914
-1.5876 o}oo -2.1666
-5.6695 o}ou -0.4627
-3.5796 o}ww -2.3895
-3.3003 o}ww|aa -2.5974
-5.9705 p|-}bb -0.2956
-2.9464 p|h}ff -1.9145
-2.8990 p|p}pp -1.7012
-3.4613 p}_ -2.0169
-5.9705 p}bb|tt -0.3010
-5.9705 p}oe -0.2878
-1.6928 p}pp -2.0827
-3.4876 p}pp|ei -1.2936
-5.9705 q|u}gg -0.2970
-2.2178 q|u}kk -2.6456
-4.9705 q}_ -0.9896
-5.9705 q}gg -0.2970
-3.6695 q}kk -0.9799
-5.0163 q}kk|uu -0.5038
-4.6483 r|(}ei -1.3418
-5.9705 r|(}ss -0.2968
-5.9705 r|d}au -0.2493
-5.3685 r|f}rr -0.1717
-2.7114 r|r}rr -1.8070
-5.9705 r|r}ww -0.3001
-5.1254 r|z}rr -0.2096
-3.7375 r}ai|rr -1.1002
-5.9705 r}ee|ss -0.3010
-5.9705 r}oe|rr -0.2493
-1.1774 r}rr -2.3334
-5.9705 r}ww -0.3001
-5.9705 r}yy|ei -0.2493
-1.6295 s|(}_ -4.2550
-3.5640 s|h}ch -0.6527
-5.9705 s|z}ch -0.2493
-1.8405 s}_ -2.0128
-3.5126 s}ai|ss -1.6478
-4.5234 s}ch -0.8657
-1.5743 s}ss -1.8426
-5.1254 s}tt -0.7247
-2.0325 s}zz -2.4162
-5.9705 t|(}in -0.2968
-4.2223 t|h}ff -1.2014
-4.8244 t|h}zz -0.3058
-1.9081 t}_ -2.1749
-4.6483 t}dd -1.2653
-5.9705 t}ee -0.2878
-5.4934 t}oe -0.4210
-2.4861 t}ss -3.4544
-1.3021 t}tt -2.0809
-3.7557 t}tt|ei -0.8718
-5.9705 t}tt|eu -0.2712
-5.0674 u|e}eu -0.9480
-5.2716 u|f}eu -0.3128
-4.7152 u|m}un -1.1866
-5.4934 u|n}on -0.5675
-3.8062 u|n}un -0.9088
-5.2716 u|r}eu -0.5564
-5.0163 u|x}eu -0.8309
-5.0674 u|x}zz -0.9480
-5.1254 u|ë}uu -0.2388
-5.2716 u}ai -0.6877
-5.6695 u}ch|oe -0.2052
-4.0840 u}ee -1.4263
-5.2716 u}ii -0.7734
-3.8806 u}oe -1.0312
-3.9535 u}oo -1.9292
-3.5921 u}ou -0.6463
-1.8351 u}uu -1.7664
-2.8834 u}uy -2.0062
-3.7691 u}ww -0.9927
-4.6695 u}yy|ou -0.8984
-5.9705 v|o}au -0.2919
-3.8986 v}ff -1.6257
-1.9059 v}vv -2.2416
-4.1510 v}vv|ei -0.6733
-5.9705 w|r}rr -0.3009
-4.5234 w}dd|ou -1.4624
-5.4934 w}ff -0.4225
-5.9705 w}oe|vv -0.2776
-4.3173 w}ou -0.6960
-5.0163 w}ou|vv -0.8523
-5.9705 w}tt|rr -0.3007
-5.6695 w}uu|ou -0.4627
-3.5743 w}vv -1.0317
-3.1873 w}ww -0.8858
-5.6695 x|_}zz -0.4494
-2.9001 x}_ -2.9644
-5.9705 x}ch -0.2989
-3.2562 x}gg|zz -2.0391
-3.8633 x}kk -1.4902
-2.8119 x}kk|ss -1.4490
-4.0955 x}ss -1.7594
-4.9291 x}zz -1.0730
-3.9213 y|m}in -1.9833
-5.6695 y|n}ai -0.2260
-4.0462 y|n}in -1.1426
-5.9705 y|y}yy -0.2776
-5.9705 y}_ -0.2875
-4.0840 y}ai -1.6349
-2.6626 y}ii -1.8061
-5.9705 y}oe -0.2712
-5.4934 y}uu -0.5824
-4.4792 y}ww|aa -1.3822
-2.8086 y}yy -1.2808
-5.9705 z|(}_ -0.2968
-3.7557 z|(}ei -2.2042
-5.6695 z|e}ei -0.4678
-5.9705 z|s}_ -0.2987
-5.6695 z|y}ii -0.4182
-4.6695 z|z}zz -0.3195
-5.3685 z}ai|ch -0.6959
-4.4654 z}dd -1.5169
-5.3685 z}dd|zz -0.5292
-5.3685 z}ei|ch -0.6959
-3.9023 z}ss -0.8118
-2.7357 z}zz -1.3825
-5.9705 °}mm|ei -0.3010
-5.6695 ²}rr|ei -0.1833
-5.6695 ³}ai|tt -0.4771
-5.6695 ³}uu|bb -0.1833
-5.6695 º}uu|mm -0.2351
-5.9705 Â}aa -0.2982
-5.6695 Ä}aa -0.2266
-4.3795 É}ei -0.8208
-5.4934 Î}ii -0.4210
-5.9705 Ô}au -0.2493
-5.4934 Ö}au -0.5921
-5.6695 Ö}ei|oo -0.1833
-3.6301 à|_}aa -1.2296
-4.0674 à}aa -1.8558
-5.6695 á}aa -0.2266
-3.2866 â}aa -1.5932
-4.9705 ä}aa -0.4215
-5.9705 æ}ss|ei -0.2788
-3.3493 ç}ss -2.1825
-2.5146 è}ai -2.1994
-5.4934 é}_ -0.4015
-1.7450 é}ai -2.6245
-5.6695 é}ee -0.2219
-1.8756 é}ei -2.1368
-5.9705 ê|m}ai -0.2875
-3.1563 ê}ai -2.6650
-4.5726 ê}ei -0.6533
-5.6695 ê}ww|aa -0.2219
-4.3577 ë}ai -0.9522
-4.9705 î|n}in -0.9061
-4.0674 î}ii -1.8358
-4.3795 î}ww|aa -1.1406
-4.6695 ï|n}in -1.2663
-3.5111 ï}ii -1.1021
-3.9705 ï}yy -0.9183
-5.3685 ñ}gn -0.6764
-5.6695 ñ}nn -0.4686
-3.5344 ô}au -1.3998
-3.7057 ô}oo -2.1451
-5.1254 ö}au -0.4138
-4.5234 ö}eu -0.6025
-5.2716 ö}oe -0.3154
-5.9705 ö}oo -0.2917
-5.0674 ù}ou -0.9015
-5.6695 ú}ou -0.2266
-3.8370 û}uu -1.9064
-5.9705 ü}oo -0.2917
-5.9705 ü}ou -0.2712
-4.3173 ü}uu -0.4006
-5.9705 ÿ}ii -0.2893

\2-grams:
-0.3010 &}ei t}tt 0.0000
-0.3010 &}ei|ei t}tt 0.0000
-0.3212 '}_ </s> 0.0000
-0.9508 '}_ _}_ -0.7355
-2.5740 '}_ a|i}ai 0.0000
-2.6518 '}_ a|n}an 0.0000
-1.9720 '}_ a|u}au -0.0822
-1.9720 '}_ a|u}oo -0.2542
-1.2730 '}_ a}aa -0.1257
-2.0484 '}_ d}dd -0.2596
-2.5740 '}_ e|m}an 0.0000
-1.9720 '}_ e|n}an -0.5591
-1.6709 '}_ e}ai -0.5209
-2.5740 '}_ e}ei 0.0000
-2.2962 '}_ g|u}gg -1.5636
-1.4279 '}_ h}_ -0.0944
-2.6518 '}_ i|m}in 0.7267
-1.7289 '}_ i|n}in -0.0382
-1.7289 '}_ i}ii -0.2926
-2.2962 '}_ m}mm -0.1572
-2.5740 '}_ n}nn 0.0000
-2.5740 '}_ o|n}on 0.0000
-2.5740 '}_ o|u}ou 0.0000
-1.5740 '}_ o}_ 0.0678
-2.6518 '}_ o}oe 0.7332
-1.6198 '}_ o}oo -0.1183
-2.5740 '}_ r}rr 0.0000
-1.6198 '}_ s}_ -0.6646
-1.9720 '}_ s}ss 0.0000
-2.5740 '}_ s}zz 0.0000
-2.6518 '}_ t}tt -0.2609
-1.9720 '}_ u|n}un -0.4422
-1.6709 '}_ u}uu -0.8782
-2.5740 '}_ y}yy 0.0000
-2.2962 '}_ É}ei 0.0000
-2.5740 '}_ à|_}aa 0.0000
-2.5740 '}_ à}aa 0.0000
-2.0484 '}_ é}ei -0.2860
-2.6518 '}_ î}ii -0.2188
-0.3010 '}| _}nn 0.0000
-0.6398 (|1}_ 0|)}_ 0.0000
-0.8062 (|1}_ 1|)}_ 0.0000
-0.8683 (|1}_ 2|)}_ 2.0280
-2.0601 (|1}_ 2|)}ee 3.5413
-0.9409 (|1}_ 3|)}_ 2.0321
-1.0792 (|1}_ 4|)}_ 1.6335
-1.9823 (|1}_ 4|)}ee 0.0000
-2.0601 (|1}_ 4|)}zz 3.0553
-0.9409 (|1}_ 5|)}_ 1.1195
-0.9409 (|1}_ 6|)}_ 1.1249
-0.0973 (}_ 2|)}_ -0.7550
-1.7663 (}_ 2|)}ee 1.5737
-4.0264 (}_ 2|)}rr 0.0000
-1.3562 (}_ 2|)}zz 0.7517
-1.2155 (}_ 3|)}_ 0.2997
-3.1813 (}_ 3|)}ee 0.0512
-3.4244 (}_ 3|)}ei 0.4391
-2.7960 (}_ 3|)}zz 2.1140
-1.4924 (}_ 4|)}_ 0.0524
-2.7711 (}_ 4|)}ee 0.8216
-3.1813 (}_ 4|)}zz 3.0713
-4.0264 (}_ 4}gg|rr 0.0000
-1.8169 (}_ 5|)}_ -0.0135
-4.1042 (}_ 5|)}ee -0.0597
-2.0221 (}_ 6|)}_ 0.1955
-2.7477 (}_ 6|)}ee 0.3424
-4.0264 (}_ 6|)}ei 0.0000
-4.0264 (}_ 6|)}zz 0.0000
-2.2705 (}_ 7|)}_ 0.2409
-4.1042 (}_ 7|)}ee -0.0597
-2.1343 (}_ 8|)}_ 0.0109
-3.7486 (}_ 8|)}ee -1.1468
-2.9125 (}_ 9|)}_ 0.2852
-0.3010 (}aa|yy 2|)}_ 0.0000
-0.3010 (}ai|dd 2|)}zz 0.0000
-0.6990 (}bb|ll 2|)}_ 0.0000
-0.7768 (}bb|ll 2|)}ee -0.2948
-0.6990 (}bb|ll 4|)}ee 0.0000
-0.6990 (}bb|ll 5|)}_ 0.0000
-0.2526 (}ei 2|)}_ 2.8247
-0.4771 (}gg|rr 2|)}_ 0.0000
-0.4771 (}gg|rr _}ai|gg 0.0000
-0.0969 (}ii 2|)}_ 2.2199
-1.0000 (}ii 3|)}_ 0.0000
-0.3010 (}ii|ai 2|)}_ 0.0000
-0.1663 (}nn 2|)}_ 1.9700
-0.6435 (}nn 3|)}_ 2.3331
-1.3424 (}nn 4|)}_ 0.0000
-0.4771 (}rr 2|)}zz 0.0000
-0.5549 (}rr 2}ee|kk -0.0597
-0.3010 (}ss|an 2|)}_ 0.0000
-0.4771 (}tt 2|)}_ 0.0000
-0.4771 (}tt 2|)}rr 0.0000
-0.3788 (}uu|bb 2|)}ee 3.5413
-0.3010 )}ai|kk </s> 0.0000
-0.3788 )}uu|bb </s> 0.0000
-0.3788 -|j}zz a}aa -0.2902
-0.3788 -|u}un n}nn -0.2922
-2.1561 -}_ </s> 0.0000
-3.3131 -}_ a|i}ai -0.1893
-3.2353 -}_ a|n}an 0.0000
-2.6332 -}_ a|u}au -0.2554
-3.2353 -}_ a|u}oo 0.0000
-1.4291 -}_ a}aa -0.5779
-1.3602 -}_ b}bb -0.4074
-2.0312 -}_ c|h}ch -0.1167
-1.2668 -}_ c}kk -0.5519
-1.7301 -}_ c}ss -0.5632
-2.9574 -}_ c}ss|ei 0.0000
-3.2353 -}_ d}_ 0.0000
-0.9922 -}_ d}dd -0.9768
-2.9574 -}_ e|m}an -1.2795
-2.0048 -}_ e|n}an -0.5455
-3.3131 -}_ e}_ -0.2946
-1.6332 -}_ e}ai -1.0373
-1.7881 -}_ e}ei -0.8255
-1.3008 -}_ f}ff -0.2782
-2.6332 -}_ g|u}gg -0.2092
-1.7729 -}_ g}gg -0.2540
-3.3131 -}_ g}jj -0.2827
-3.2353 -}_ g}jj|ei 0.0000
-1.5451 -}_ h}_ -0.4235
-2.9574 -}_ i|n}in -0.1675
-2.3322 -}_ i}ii -0.0909
-3.2353 -}_ j}dd|jj 0.0000
-1.9131 -}_ j}jj -0.3167
-3.3131 -}_ k}kk -0.2210
-1.3720 -}_ l}ll -0.2908
-1.0650 -}_ m}mm -0.8273
-1.6912 -}_ n}nn -0.4820
-3.3131 -}_ o|n}on -0.2929
-2.9574 -}_ o|u}ou -1.5416
-2.3902 -}_ o|u}ww -0.4277
-2.2810 -}_ o}au -0.9722
-1.8551 -}_ o}oo -0.7973
-2.9574 -}_ p|h}ff -0.0376
-1.0126 -}_ p}pp -0.2051
-3.2353 -}_ p}pp|ei 0.0000
-1.9131 -}_ q|u}kk -0.9555
-1.6018 -}_ r}rr -0.6234
-2.7097 -}_ s|h}ch -1.5630
-2.0891 -}_ s}_ -0.8102
-1.2530 -}_ s}ss -0.8384
-1.2059 -}_ t}tt -0.4861
-2.9574 -}_ u|n}un -0.0460
-2.9574 -}_ u}oe -1.5690
-2.3902 -}_ u}uu -0.3151
-1.1900 -}_ v}vv -0.6536
-3.3131 -}_ w}ww 0.0000
-3.2353 -}_ x}kk|ss 0.0000
-2.9574 -}_ y}ii -0.1676
-2.2810 -}_ y}yy -0.9722
-2.2353 -}_ z}zz -1.0278
-1.8551 -}_ à}aa -1.1127
-2.2353 -}_ é}ai -0.2604
-3.3131 -}_ ê}ai -0.0088
-0.6021 -}ai l}ll 0.0000
-0.6021 -}ai p}pp 0.0000
-0.6021 -}ai r}rr 0.0000
-1.1761 -}ee b}bb 0.0000
-1.2539 -}ee c}ss -0.2899
-0.8982 -}ee d}dd -0.1719
-1.1761 -}ee n}nn 0.0000
-1.2539 -}ee q|u}kk -0.2751
-0.5740 -}ee s}ss -0.5429
-1.2539 -}ee t}tt -0.2402
-0.6798 -}nn a|i}ai -0.2912
-0.6798 -}nn ê}ai -0.0088
-0.4393 -}tt e}ai -0.2213
-1.1192 -}tt i}ii -0.2749
-0.7635 -}tt o|n}on -0.1614
-1.1192 -}tt à}aa -0.0096
-1.3082 -}zz a}aa -0.2335
-1.2304 -}zz e|n}an 0.0000
-0.3274 -}zz h}_ -0.9485
-0.5315 -}zz n}nn -0.6570
-1.2304 -}zz y}ii 0.0000
-0.3010 .}ei </s> 0.0000
-0.3010 .}rr|aa </s> 0.0000
-0.0193 0|)}_ </s> 0.0000
-0.4771 0|0}tt (}ss|an 0.0000
-0.4771 0|0}tt _}ss|an 0.0000
-0.4771 0|4}tt (}_ 0.0000
-0.4771 0|4}tt </s> 0.0000
-0.3788 0}an|tt </s> 0.0000
-0.0969 0}ii|ss </s> 0.0000
-0.4771 0}rr|an (}tt 0.0000
-0.4771 0}rr|an _}tt 0.0000
-0.4771 0}ss|an </s> 0.0000
-0.4771 0}ss|an m}ai|mm 0.0000
-0.3788 0}tt|rr 0}ss|an 0.0000
-0.0280 1|)}_ </s> 0.0000
-0.3010 1|1}zz </s> 0.0000
-0.1993 1|6}zz </s> 0.0000
-0.3010 1}dd 0}ii|ss 0.4391
-0.9031 1}dd 2}ou|zz 0.0000
-0.6252 1}dd _}ii -0.1682
-0.0969 1}ei|un </s> 0.0000
-0.3010 1}kk|aa 4}tt|oo 0.0000
-0.3010 1}kk|in 5}zz 0.0000
-0.6021 1}ss|an 1}dd 0.0000
-0.6021 1}ss|an 3}tt|rr 0.0000
-0.6798 1}ss|an _}kk|aa -0.2396
-0.3788 1}tt|oo 4}rr|zz -0.0597
-0.3010 1}tt|rr 3}ai|zz 0.0000
-0.2526 1}un </s> 0.0000
-0.3010 2|(}tt 2|)}ou 0.0000
-0.0003 2|)}_ </s> 0.0000
-3.9523 2|)}_ _}ai 0.0000
-3.9523 2|)}_ _}ai|gg 0.0000
-3.9523 2|)}_ _}nn 0.0000
-3.9523 2|)}_ _}vv|ei 0.0000
-3.9523 2|)}_ _}yy|eu 0.0000
-0.0001 2|)}ee </s> 0.0000
-4.2149 2|)}ee _}vv|ei -0.0395
-0.3010 2|)}ou </s> 0.0000
-0.0378 2|)}rr </s> 0.0000
-1.3802 2|)}rr _}ii 0.0000
-0.0002 2|)}zz </s> 0.0000
-3.9000 2|)}zz _}ai|dd 0.0000
-3.9000 2|)}zz _}ee 0.0000
-0.0792 2}dd|eu </s> 0.0000
-1.0792 2}dd|eu _}zz|ai 0.0000
-0.3788 2}ee|kk )}uu|bb -0.0597
-0.3010 2}in|tt 1}ei|un 0.0000
-0.3788 2}ou|zz </s> 0.0000
-0.3788 2}rr|ei </s> 0.0000
-0.3010 2}|vv 4}in|tt 0.0000
-0.3010 3|(}ff 2|)}rr 0.0000
-0.0003 3|)}_ </s> 0.0000
-0.0512 3|)}ee </s> 0.0000
-0.0969 3|)}ei </s> 0.0000
-0.0002 3|)}zz </s> 0.0000
-3.6703 3|)}zz _}ai|ll 0.0000
-0.4771 3}ai|tt (}rr 0.0000
-0.4771 3}ai|tt _}rr|kk 0.0000
-0.3010 3}ai|zz </s> 0.0000
-0.4771 3}tt|rr 0}an|tt 0.0000
-0.5549 3}tt|rr _}an|tt 0.0000
-0.3788 3}uu|bb </s> 0.0000
-0.1461 3}ww|aa </s> 0.0000
-0.8451 3}ww|aa _}ss|an 0.0000
-0.0011 4|)}_ </s> 0.0000
-0.0035 4|)}ee </s> 0.0000
-2.4014 4|)}ee _}vv|ei 0.0000
-0.0002 4|)}zz </s> 0.0000
-3.7289 4|)}zz _}ee -0.1933
-0.3010 4}aa|rr 0}an|tt 0.0000
-0.3010 4}gg|rr )}ai|kk 0.0000
-0.3010 4}in|tt _}kk|aa 0.0000
-1.0000 4}kk|aa (}tt 0.0000
-1.0778 4}kk|aa 0|0}tt 0.0000
-1.0778 4}kk|aa 0}rr|an 0.0000
-1.0778 4}kk|aa 0}tt|rr -0.0597
-1.0778 4}kk|aa _}rr|an 0.0000
-1.0000 4}kk|aa _}tt 0.0000
-0.3788 4}rr|zz </s> 0.0000
-0.3010 4}tt|oo (}rr 0.0000
-0.0028 5|)}_ </s> 0.0000
-2.4997 5|)}_ _}vv|ei 0.0000
-0.3788 5|)}ee </s> 0.0000
-0.5003 5}in|kk </s> 0.0000
-0.5003 5}in|kk _}an|tt 0.0000
-0.3010 5}zz </s> 0.0000
-0.0027 6|)}_ </s> 0.0000
-0.0100 6|)}ee </s> 0.0000
-0.3010 6|)}ei </s> 0.0000
-0.0091 6|)}zz </s> 0.0000
-0.0792 6}ii|ss </s> 0.0000
-0.0043 7|)}_ </s> 0.0000
-0.3788 7|)}ee </s> 0.0000
-0.0107 7|)}zz </s> 0.0000
-0.8451 7}ai|tt (}_ 0.0000
-0.1461 7}ai|tt </s> 0.0000
-0.4771 7}tt|dd 2}ou|zz 0.0000
-0.4771 7}tt|dd _}ii 0.0000
-0.0054 8|)}_ </s> 0.0000
-0.1993 8|)}ee </s> 0.0000
-0.0076 8|)}zz </s> 0.0000
-0.3788 8}ei|uy _}ii -0.2900
-0.4771 8}vv|in _}nn 0.0000
-0.4771 8}vv|in _}ss 0.0000
-0.3010 8}zz|uy _}ii 0.0000
-0.0164 9|)}_ </s> 0.0000
-0.3788 9}eu|ff </s> 0.0000
-3.3877 <s> -}_ -0.4255
-4.1761 <s> -}tt 0.0310
-5.0990 <s> -}zz 0.0000
-4.0670 <s> _}aa -0.3456
-4.4191 <s> _}ei -0.5208
-5.0212 <s> _}ii 0.0000
-3.9420 <s> _}tt -0.4633
-2.7356 <s> a|i}ai -0.2865
-5.0990 <s> a|i}ei -0.2676
-5.0212 <s> a|l}oo 0.0000
-2.8689 <s> a|m}an -0.8335
-2.2746 <s> a|n}an -0.8807
-2.5174 <s> a|u}au -0.6898
-2.3537 <s> a|u}oo -0.8797
-4.4191 <s> a|y}ai -0.0843
-5.0212 <s> a|y}ei 0.0000
-4.4956 <s> a|î}ai -0.1646
-4.3222 <s> a}_ 0.7020
-1.1565 <s> a}aa -1.1754
-5.0212 <s> a}aa|on 0.0000
-5.0212 <s> a}aa|vv 0.0000
-3.8171 <s> a}ai -0.6217
-5.0212 <s> a}an 0.0000
-5.0212 <s> a}au 0.0000
-4.3222 <s> a}ei -0.4945
-5.0212 <s> a}oe 0.0000
-4.7433 <s> b|u}bb -1.1468
-1.3262 <s> b}bb -0.6410
-3.3777 <s> b}bb|ei -0.1023
-1.8873 <s> c|h}ch -0.9483
-1.0899 <s> c}kk -1.9069
-5.0212 <s> c}kk|on 0.0000
-1.9943 <s> c}ss -0.9750
-2.8011 <s> c}ss|ei -0.4090
-4.0670 <s> c}tt|ch -0.1278
-5.0990 <s> d}_ -0.2540
-1.1594 <s> d}dd -1.1136
-3.2808 <s> d}dd|ei -0.2351
-4.0212 <s> e|a}ii -0.1088
-4.4191 <s> e|i}ai 0.0000
-2.3603 <s> e|m}an -0.7853
-5.0212 <s> e|n}aa 0.0000
-1.8448 <s> e|n}an -1.5153
-5.0990 <s> e|r}ai -0.1930
-3.4301 <s> e|u}ee -0.6038
-3.0256 <s> e|u}eu -0.7031
-3.6595 <s> e|u}oe -0.0458
-5.0990 <s> e|y}ei -0.2331
-5.0212 <s> e|z}ei 0.0000
-3.5898 <s> e}_ -0.5125
-3.9798 <s> e}aa -0.6372
-1.7219 <s> e}ai -0.8553
-2.5355 <s> e}ei -0.1540
-3.8751 <s> e}eu -0.0709
-5.0990 <s> e}oe 0.0000
-5.0990 <s> e}yy -0.2928
-3.1127 <s> f}ai|ff -0.3605
-1.4101 <s> f}ff -1.0941
-2.6320 <s> g|u}gg -0.9044
-4.1761 <s> g}_ -0.7412
-3.4084 <s> g}dd|jj -0.8991
-1.6963 <s> g}gg -0.8885
-2.1585 <s> g}jj -1.1607
-3.4301 <s> g}jj|ei -0.1144
-5.0212 <s> h|Ô}oo 0.0000
-1.6552 <s> h}_ -0.9407
-4.4191 <s> h}aa -0.0915
-3.6062 <s> h}aa|ch -0.0582
-4.4191 <s> h}yy -0.4517
-5.0212 <s> i|(}un 0.0000
-2.2646 <s> i|m}in -0.8781
-1.5572 <s> i|n}in -2.5444
-1.7691 <s> i}ii -1.0232
-5.0212 <s> i}pp|rr 0.0000
-3.7908 <s> i}yy -0.3586
-3.4414 <s> j}dd|jj 0.2509
-1.9842 <s> j}jj -0.0907
-4.7433 <s> j}jj|yy 0.0000
-4.4191 <s> j}rr 0.0000
-4.4956 <s> j}yy 0.0312
-4.7433 <s> k|n}nn 0.0000
-2.1111 <s> k}kk -0.7132
-4.0670 <s> l|l}ll -0.4669
-3.5441 <s> l}ai|ll -0.0543
-1.5236 <s> l}ll -1.2590
-5.0212 <s> m|m}mm 0.0000
-3.2017 <s> m}ai|mm -0.2934
-1.2081 <s> m}mm -1.0169
-5.0212 <s> n}ai 0.0000
-3.3400 <s> n}ai|nn -0.1013
-1.7341 <s> n}nn -1.0893
-5.0212 <s> n}nn|uu 0.0000
-3.8451 <s> o|m}on -1.0277
-3.3052 <s> o|n}on -0.7005
-2.6410 <s> o|u}ou -0.7259
-3.7424 <s> o|u}ww 0.0307
-3.1579 <s> o}_ 0.2621
-2.7832 <s> o}au -0.2662
-5.0212 <s> o}oe 0.0000
-1.8245 <s> o}oo -1.0406
-4.7433 <s> o}ww 1.3746
-2.6374 <s> p|h}ff -0.8538
-1.0703 <s> p}pp -0.9297
-3.0622 <s> p}pp|ei -0.3428
-5.0212 <s> q|u}gg 0.0000
-2.4063 <s> q|u}kk -0.8713
-3.2017 <s> q}kk -0.2909
-4.4956 <s> q}kk|uu -0.0356
-5.0212 <s> r|z}rr 0.0000
-3.2219 <s> r}ai|rr -0.3071
-1.1284 <s> r}rr -1.8695
-2.9759 <s> s|h}ch -0.4196
-2.7402 <s> s}_ -1.9568
-3.0718 <s> s}ai|ss -0.1405
-3.7659 <s> s}ch -0.2225
-1.1653 <s> s}ss -1.2068
-4.1761 <s> s}zz -0.3543
-4.0212 <s> t|h}ff -0.1788
-4.0212 <s> t|h}zz -0.0281
-3.9798 <s> t}dd -0.7317
-5.0990 <s> t}ss -0.2929
-1.3740 <s> t}tt -1.5042
-3.3491 <s> t}tt|ei -0.2026
-3.7424 <s> u|n}un -0.4071
-4.7433 <s> u}ee -0.1621
-4.3222 <s> u}oe -0.3125
-4.4191 <s> u}ou -0.0455
-2.2452 <s> u}uu -0.6973
-4.0212 <s> u}yy|ou -0.4393
-1.5850 <s> v}vv -0.8298
-3.8451 <s> v}vv|ei 0.0000
-5.0212 <s> w|r}rr 0.0000
-4.0212 <s> w}dd|ou -0.3158
-5.0212 <s> w}tt|rr 0.0000
-2.8813 <s> w}vv -0.2133
-2.6338 <s> w}ww -0.3700
-4.3222 <s> x}gg|zz -0.2512
-3.7659 <s> x}kk|ss -0.1494
-3.6410 <s> y}ii -0.4179
-2.7517 <s> y}yy -0.4592
-2.6250 <s> z}zz -0.7214
-5.0212 <s> Â}aa 0.0000
-3.4649 <s> É}ei 0.0306
-4.7433 <s> Î}ii -1.1468
-5.0212 <s> Ô}au 0.0000
-4.7433 <s> Ö}au 0.0000
-2.7470 <s> à|_}aa -0.0770
-4.0670 <s> à}aa -0.6690
-3.4301 <s> â}aa -0.4599
-4.7433 <s> ç}ss 0.0000
-4.4191 <s> è}ai -0.0244
-1.6152 <s> é}ai -2.2564
-5.0990 <s> é}ee -0.0597
-2.6768 <s> é}ei -1.2779
-4.0212 <s> ê}ai -0.7554
-3.9798 <s> î}ii -1.0032
-4.7433 <s> ô}au -0.0110
-4.3222 <s> ô}oo -0.5427
-4.7433 <s> ö}au 0.0000
-0.3788 @}aa|zz r}ai|rr -0.2632
-0.0792 _|u}un n}nn -0.7756
-3.2543 _}_ a|m}an 0.0000
-2.9764 _}_ a|n}an -0.1557
-1.7492 _}_ a|u}au -0.6690
-3.3321 _}_ a}_ 0.6013
-1.9756 _}_ a}aa -0.3541
-3.2543 _}_ a}ai 0.0000
-1.6745 _}_ b}bb -0.3999
-2.5553 _}_ c|h}ch -0.0917
-1.2675 _}_ c}kk -0.4092
-1.9119 _}_ c}ss -0.5039
-0.5358 _}_ d}dd -1.5454
-1.9990 _}_ e|n}an -0.6966
-2.2543 _}_ e}_ -1.0412
-1.7772 _}_ e}ai -0.5545
-2.2543 _}_ e}ei -1.0329
-1.3792 _}_ f}ff -0.5880
-3.3321 _}_ g|u}gg 0.0000
-1.9533 _}_ g}gg -0.3267
-3.3321 _}_ g}jj -0.2592
-1.9533 _}_ h}_ -0.6553
-3.3321 _}_ i|m}in 0.7267
-2.3001 _}_ i|n}in -0.2927
-2.7287 _}_ i}ii -0.4240
-2.7287 _}_ j}jj -0.0842
-2.6522 _}_ k}kk 0.0000
-1.3249 _}_ l}ll -0.7307
-1.1861 _}_ m}mm -0.6682
-1.8741 _}_ n}nn -0.4698
-2.9764 _}_ o|n}on -0.1711
-2.6522 _}_ o|u}ou -0.2596
-2.6522 _}_ o}_ -0.2585
-2.5553 _}_ o}oo -0.0952
-1.1176 _}_ p}pp -0.7897
-1.0395 _}_ q|u}kk -1.2842
-1.6415 _}_ r}rr -0.5245
-3.2543 _}_ s|h}ch 0.0000
-2.4092 _}_ s}_ -0.2759
-1.3910 _}_ s}ss -0.5562
-1.4030 _}_ t}tt -0.6599
-2.2129 _}_ u|n}un -0.3124
-2.0502 _}_ u}uu -0.8782
-1.7492 _}_ v}vv -0.2493
-3.2543 _}_ y}yy 0.0000
-1.9990 _}_ à|_}aa -0.0196
-2.1751 _}_ à}aa -0.8075
-2.6522 _}_ ç}ss -0.2093
-2.3001 _}_ é}ei -0.9504
-2.2577 _}aa 2}dd|eu 0.0000
-2.3355 _}aa 2}rr|ei -0.0597
-1.1116 _}aa </s> 0.0000
-2.3355 _}aa _}dd|aa -0.0597
-2.3355 _}aa _}dd|ee -0.0597
-2.3355 _}aa _}ss|an -0.1930
-1.9798 _}aa _}zz|ai -1.3019
-2.2577 _}aa b}bb|ei 0.0000
-1.7321 _}aa c}kk 0.0000
-2.3355 _}aa c}ss|ei 0.0000
-2.2577 _}aa d}dd 0.0000
-2.2577 _}aa f}ff 0.0000
-2.2577 _}aa g}jj|ei 0.0000
-1.3546 _}aa i}ii -0.3152
-0.4188 _}aa i}yy -0.7774
-1.9798 _}aa k}kk -0.1667
-2.2577 _}aa l}ai|ll 0.0000
-2.3355 _}aa l}dd|mm 0.0000
-2.3355 _}aa m}ai|mm 0.0000
-1.1116 _}aa o|u}ou -0.1524
-1.6556 _}aa o|u}ww 0.0000
-2.2577 _}aa o|w}oo 0.0000
-2.3355 _}aa o}oo -0.2940
-2.2577 _}aa p}pp 0.0000
-2.2577 _}aa p}pp|ei 0.0000
-2.3355 _}aa q|u}kk 0.0000
-2.2577 _}aa r}ai|rr 0.0000
-2.2577 _}aa s}ai|ss 0.0000
-2.2577 _}aa t}tt 0.0000
-2.2577 _}aa t}tt|ei 0.0000
-2.2577 _}aa v}vv|ei 0.0000
-2.2577 _}aa w}dd|ou 0.0000
-2.3355 _}aa w}ou 0.0000
-1.9798 _}aa w}ww -0.1599
-0.9566 _}aa y}yy -0.1130
-2.3355 _}aa ²}rr|ei -0.0597
-0.3010 _}aa|rr _}au|bb 0.0000
-0.3010 _}aa|yy i}oe 0.0000
-1.3010 _}ai .}rr|aa 0.0000
-0.3468 _}ai </s> 0.0000
-1.3788 _}ai _}tt|kk 0.0000
-1.3010 _}ai e}eu 0.0000
-1.3010 _}ai f}ai|ff 0.0000
-0.6990 _}ai m}ai|mm -0.1121
-1.3010 _}ai o}oo 0.0000
-1.3010 _}ai z}zz 0.0000
-0.3802 _}ai|dd </s> 0.0000
-1.0792 _}ai|dd _}ii 0.0000
-1.1570 _}ai|dd d}dd|ei 0.0000
-1.1570 _}ai|dd f}ai|ff 0.0000
-1.0792 _}ai|dd l}ai|ll 0.0000
-1.0792 _}ai|dd t}tt|ei 0.0000
-0.4771 _}ai|gg 3|)}ee 0.0000
-0.4771 _}ai|gg </s> 0.0000
-0.3010 _}ai|ll </s> 0.0000
-0.3010 _}ai|ss 7}ai|tt 0.0000
-0.8451 _}ai|tt _}ai 0.0000
-0.3195 _}ai|tt _}rr|kk 0.1460
-1.0320 _}an|tt 1}ei|un 0.4042
-0.9542 _}an|tt 2}dd|eu 0.0000
-0.3522 _}an|tt _}ii -0.2498
-1.0320 _}an|tt _}ss 0.0000
-0.3788 _}au|bb @}aa|zz -0.0597
-0.3010 _}au|kk _}tt|oe 0.0000
-0.3010 _}au|yy _}tt 0.0000
-0.5351 _}bb|ll _}ee -0.2134
-0.1761 _}bb|ll _}vv|ei 0.1105
-0.3010 _}dd j}jj 0.0000
-0.3788 _}dd|aa m}mm 0.0000
-0.3788 _}dd|ee l}mm|ww -0.0597
-1.3802 _}ee 8}vv|in 0.0000
-0.6812 _}ee </s> 0.0000
-1.3802 _}ee _}vv|ai 0.0000
-0.8546 _}ee _}vv|ei 0.1410
-1.3802 _}ee a}aa 0.0000
-1.3802 _}ee c}kk 0.0000
-1.3802 _}ee c}ss 0.0000
-1.1024 _}ee e}ai -0.1511
-1.3802 _}ee e}ei 0.0000
-1.3802 _}ee g}jj 0.0000
-1.3802 _}ee l}ll 0.0000
-1.3802 _}ee p}pp 0.0000
-1.3802 _}ee r}rr 0.0000
-1.3331 _}ei </s> 0.0000
-1.3331 _}ei _}rr|oo 0.0000
-0.5563 _}ei f}ff -0.3352
-1.3331 _}ei m}mm 0.0000
-1.2553 _}ei n}nn 0.0000
-0.9774 _}ei r}rr 0.0000
-1.3331 _}ei s}ss 0.0000
-1.2553 _}ei t}tt 0.0000
-0.3010 _}ei|rr _}aa 0.0000
-0.5672 _}ei|ss 5}in|kk -0.0080
-0.8451 _}ei|ss 6}ii|ss 0.0000
-0.8451 _}ei|ss 7}ai|tt 0.0000
-0.9229 _}ei|ss _}ww -0.1773
-2.2405 _}ii 8}zz|uy 0.0000
-0.6608 _}ii </s> 0.0000
-2.3183 _}ii _}aa -0.0863
-2.3183 _}ii _}ll|oo -0.0597
-1.9627 _}ii _}ss -1.3847
-1.9627 _}ii _}tt -1.5522
-2.2405 _}ii a}aa 0.0000
-2.3183 _}ii a}ai -0.2939
-1.9627 _}ii b}bb -0.1727
-2.3183 _}ii c}kk -0.2298
-2.3183 _}ii c}ss 0.0000
-2.3183 _}ii c}ss|ei -0.1749
-2.2405 _}ii d}dd 0.0000
-1.6385 _}ii d}dd|ei -0.4517
-2.3183 _}ii e}ee 0.0000
-2.2405 _}ii i}ii 0.0000
-2.2405 _}ii j}dd|jj 0.0000
-2.2405 _}ii j}jj 0.0000
-2.2405 _}ii j}yy 0.0000
-1.3955 _}ii k}kk -0.2015
-1.6385 _}ii m}mm -0.1228
-2.2405 _}ii n}ai|nn 0.0000
-2.3183 _}ii o}au 0.0000
-1.9627 _}ii p}pp|ei -1.4183
-2.2405 _}ii r}ai|rr 0.0000
-2.2405 _}ii s}ai|ss 0.0000
-1.9627 _}ii s}zz 0.0000
-1.9627 _}ii t}tt 0.0000
-1.9627 _}ii t}tt|ei 0.0000
-2.3183 _}ii v}vv -0.2948
-2.3183 _}ii v}vv|ei 0.0000
-1.7150 _}ii x}kk|ss -0.7472
-0.4344 _}ii y}yy -0.3118
-0.9229 _}kk|aa 0|4}tt 0.0000
-0.9229 _}kk|aa 1}tt|oo -0.0597
-0.5672 _}kk|aa _}tt|rr 0.0000
-0.3788 _}ll|oo m}mm -0.2947
-1.7010 _}nn 9}eu|ff -0.0597
-1.6232 _}nn </s> 0.0000
-1.3454 _}nn _}tt 0.4181
-1.7010 _}nn a|n}an 0.0000
-1.7010 _}nn a|u}au -0.2892
-0.7782 _}nn a}aa -0.7602
-1.7010 _}nn b}bb -0.2393
-1.6232 _}nn c}ss 0.0000
-1.6232 _}nn e|m}an 0.0000
-1.6232 _}nn e|n}an 0.0000
-1.6232 _}nn e}ei 0.0000
-1.6232 _}nn g|u}gg 0.0000
-1.0212 _}nn g}gg 0.0000
-1.6232 _}nn i}yy 0.0000
-1.7010 _}nn n}nn -0.2892
-0.9243 _}nn o|u}ou -0.7388
-1.3454 _}nn o}_ -1.5697
-1.3454 _}nn o}oo -1.4816
-0.3010 _}oe l}ll 0.0000
-0.3010 _}on|ss g}ei|gn 0.0000
-0.3010 _}pp|aa _}nn 0.0000
-0.4771 _}rr|an _}tt 0.0000
-0.4771 _}rr|an _}tt|rr 0.0000
-0.9809 _}rr|kk (}uu|bb -0.0597
-0.9031 _}rr|kk 3}uu|bb 0.0000
-0.3010 _}rr|kk _}aa -0.2908
-0.9031 _}rr|kk ³}uu|bb 0.0000
-0.4771 _}rr|oo 1}un 0.0000
-0.5549 _}rr|oo </s> 0.0000
-0.7635 _}ss 5}in|kk -0.0080
-0.4393 _}ss 6}ii|ss 0.5182
-0.4393 _}ss 7}ai|tt 0.2842
-0.1993 _}ss|ai 1|6}zz -1.1468
-0.6021 _}ss|an 1}dd 0.0000
-0.6798 _}ss|an 7}tt|dd 0.0000
-0.6021 _}ss|an m}ai|mm 0.0000
-1.1931 _}tt </s> 0.0000
-1.8921 _}tt _}ei|rr 0.0000
-1.8921 _}tt _}ii 0.0000
-1.8921 _}tt _}ss 0.0000
-1.8921 _}tt a|u}au 0.0000
-0.1287 _}tt c|h}ch -0.2500
-1.6142 _}tt c}ss 0.0000
-1.9699 _}tt e|n}an 0.0000
-1.8921 _}tt e}oe 0.0000
-1.8921 _}tt s}ch 0.0000
-1.8921 _}tt t}tt 0.0000
-1.9699 _}tt z}ss -0.2917
-1.8921 _}tt à}aa 0.0000
-0.4771 _}tt|kk 3}uu|bb 0.0000
-0.4771 _}tt|kk ³}uu|bb 0.0000
-0.3010 _}tt|oe r}rr 0.0000
-0.4287 _}tt|rr 3}ww|aa -0.2341
-0.9542 _}tt|rr 8}vv|in 0.0000
-0.9542 _}tt|rr </s> 0.0000
-0.9542 _}tt|rr _}ee 0.0000
-0.3010 _}vv|ai </s> 0.0000
-0.3522 _}vv|ei </s> 0.0000
-1.1535 _}vv|ei a}aa -0.1485
-1.4314 _}vv|ei b}bb|ei 0.0000
-1.5091 _}vv|ei c}ss|ei 0.0000
-1.4314 _}vv|ei e}eu 0.0000
-1.4314 _}vv|ei f}ai|ff 0.0000
-1.4314 _}vv|ei m}ai|mm 0.0000
-1.4314 _}vv|ei p}pp|ei 0.0000
-1.4314 _}vv|ei r}ai|rr 0.0000
-1.4314 _}vv|ei t}tt|ei 0.0000
-1.1535 _}vv|ei w}dd|ou -0.8967
-0.6252 _}ww _}aa -0.1709
-0.9809 _}ww a|y}ai -0.2651
-0.9809 _}ww a}aa -0.2335
-0.9031 _}ww e}ai 0.0000
-0.3788 _}yy|eu </s> 0.0000
-0.3242 _}zz|ai l}ll -0.1581
-0.6021 _}zz|ai r}rr 0.0000
-3.6136 a|i}ai (|1}_ 0.0000
-2.6362 a|i}ai (}_ 0.5800
-2.0852 a|i}ai </s> 0.0000
-3.8914 a|i}ai _}_ 0.0000
-3.8914 a|i}ai a}aa 0.0000
-2.3474 a|i}ai b}bb -1.4480
-3.8914 a|i}ai c|h}ch 0.0000
-3.8914 a|i}ai c}ss 0.0000
-3.2894 a|i}ai d}_ 0.1943
-1.9883 a|i}ai d}dd -0.3714
-3.8914 a|i}ai d}tt 0.0000
-3.8914 a|i}ai e|(}_ 0.0000
-0.7994 a|i}ai e|n}_ -0.1622
-3.9692 a|i}ai e|n}an -0.1844
-3.8914 a|i}ai e|r}ei 0.0000
-3.3658 a|i}ai e|s}_ 1.6281
-2.2193 a|i}ai e}_ -0.2530
-1.9276 a|i}ai g|n}gn -0.1726
-2.6873 a|i}ai g|u}gg -0.4282
-2.6610 a|i}ai g}_ -0.4475
-2.2102 a|i}ai g}gg -0.6251
-3.9692 a|i}ai g}jj 0.0000
-3.8914 a|i}ai k|k}kk 0.0000
-3.8914 a|i}ai k}kk 0.0000
-2.6127 a|i}ai l}ll -0.1354
-2.0785 a|i}ai m}mm -0.2775
-1.2460 a|i}ai n}nn -1.0043
-3.8914 a|i}ai p}pp 0.0000
-0.6664 a|i}ai r}rr -1.5284
-1.5412 a|i}ai s|(}_ -1.0882
-1.2600 a|i}ai s}_ -1.1079
-1.9183 a|i}ai s}ss -1.5331
-1.1534 a|i}ai s}zz -0.8164
-3.8914 a|i}ai t|h}ff 0.0000
-0.8104 a|i}ai t}_ -1.6573
-0.7519 a|i}ai t}tt -1.6296
-3.2894 a|i}ai v}vv -0.1025
-2.9883 a|i}ai x}_ 0.9500
-2.9372 a|i}ai x}kk|ss -0.2025
-3.8914 a|i}ai y}yy 0.0000
-3.6136 a|i}ai z}zz -0.1485
-0.0116 a|i}ee s}zz -0.9214
-1.2175 a|i}ei (|1}_ 0.0000
-0.5185 a|i}ei (}_ 0.5077
-1.8195 a|i}ei </s> 0.0000
-1.5417 a|i}ei d}dd -0.1645
-1.2175 a|i}ei g}_ -0.0980
-1.2175 a|i}ei m}mm -0.1110
-1.5417 a|i}ei n}nn -0.1356
-1.8973 a|i}ei r}rr 0.0000
-1.8973 a|i}ei s|(}_ -0.2920
-0.9744 a|i}ei s}_ 0.3168
-1.8973 a|i}ei s}ss -0.2781
-0.8195 a|i}ei s}zz -0.2157
-1.2175 a|i}ei t}tt -0.2876
-0.3788 a|i}eu s}zz -0.2730
-0.8361 a|l}oo k}kk -0.3893
-0.1313 a|l}oo l}ll -1.1779
-0.0126 a|m}aa n}nn -0.3837
-2.7275 a|m}an </s> 0.0000
-0.2819 a|m}an b}bb -0.3328
-2.4497 a|m}an d}dd 0.0000
-2.4497 a|m}an f}ff 0.0000
-1.4265 a|m}an p|h}ff -0.5051
-1.4723 a|m}an p}_ -0.2723
-0.4179 a|m}an p}pp -0.6295
-2.0286 a|m}an r}rr 0.0000
-2.7275 a|m}an s}ss 0.0000
-0.9229 a|n}aa s}_ -0.2887
-0.1461 a|n}aa t}tt -0.3434
-4.0787 a|n}an '}_ -0.2842
-2.2933 a|n}an (}_ -0.6301
-4.0787 a|n}an -|j}zz -0.0597
-2.4694 a|n}an -}_ -0.3148
-1.5909 a|n}an </s> 0.0000
-3.3019 a|n}an _}_ -0.0445
-4.0787 a|n}an _}tt 0.2963
-3.4753 a|n}an b}bb -0.0718
-1.6584 a|n}an c|h}ch -0.4392
-2.5385 a|n}an c}_ -0.5584
-1.8738 a|n}an c}kk -0.8272
-1.0579 a|n}an c}ss -1.0225
-1.8937 a|n}an d}_ -0.3848
-1.0324 a|n}an d}dd -0.4796
-4.0009 a|n}an d}nn 0.0000
-2.9217 a|n}an d}tt -0.1562
-3.0466 a|n}an f}ff -0.8428
-2.2685 a|n}an g|u}gg -0.3728
-2.8869 a|n}an g}_ -0.4539
-3.1558 a|n}an g}dd|jj -0.7285
-1.6298 a|n}an g}gg -0.4031
-1.4098 a|n}an g}jj -1.0398
-3.7230 a|n}an h}_ 0.0000
-4.0009 a|n}an j}dd|jj 0.0000
-3.0978 a|n}an j}jj 0.0145
-2.3381 a|n}an k}kk -0.1976
-2.6029 a|n}an l}ll -0.1435
-3.7230 a|n}an m}mm -0.0824
-4.0009 a|n}an n}ii 0.0000
-3.7230 a|n}an p}pp 0.0000
-1.9327 a|n}an q|u}kk -0.3119
-2.3107 a|n}an s|(}_ -1.0176
-2.0009 a|n}an s}_ -1.0990
-1.5081 a|n}an s}ss -0.5245
-2.1880 a|n}an s}zz -1.1940
-0.6921 a|n}an t}_ -2.0286
-2.9595 a|n}an t}ss 0.6420
-0.4273 a|n}an t}tt -1.0323
-2.9217 a|n}an v}vv -0.0891
-4.0009 a|n}an w}vv 0.0000
-4.0787 a|n}an x}kk -0.2919
-3.1558 a|n}an x}kk|ss -0.8153
-3.7230 a|n}an z}ss 0.2518
-2.9595 a|n}an z}zz -0.1099
-2.2155 a|n}an ç}ss -1.1812
-0.4771 a|r}aa s|(}_ 0.0000
-0.4771 a|r}aa s}_ 0.0000
-0.3010 a|t}vv h}_ 0.0000
-2.4423 a|u}au (}_ -0.2057
-1.9863 a|u}au -}_ -0.6626
-0.9973 a|u}au </s> 0.0000
-1.0942 a|u}au _}_ -1.1940
-3.2874 a|u}au _}tt 0.0000
-1.6853 a|u}au b}bb -0.1703
-1.7311 a|u}au c|h}ch -0.3937
-3.3651 a|u}au c}_ 0.0000
-1.8894 a|u}au c}kk -0.2423
-2.3843 a|u}au c}ss -0.1927
-1.4181 a|u}au d}_ -0.4305
-1.2381 a|u}au d}dd -0.4413
-3.0095 a|u}au d}tt -0.6580
-3.2874 a|u}au e|r}ei 0.0000
-3.0095 a|u}au e}ai -1.4543
-1.8724 a|u}au f|f}ff -0.3241
-1.9651 a|u}au f}ff -0.2586
-3.0095 a|u}au g|u}gg -0.1646
-3.2874 a|u}au g}_ 0.0000
-2.2460 a|u}au g}gg -0.3331
-2.0086 a|u}au g}jj -0.0713
-3.2874 a|u}au h}_ 0.0000
-2.6853 a|u}au j}jj -0.0902
-3.2874 a|u}au k}kk 0.0000
-3.2874 a|u}au l|h}yy 0.0000
-2.5884 a|u}au l|l}ll -0.0549
-1.7688 a|u}au l|t}_ 0.0706
-2.5884 a|u}au l}_ -0.1647
-1.5972 a|u}au l}ll -0.1155
-1.5470 a|u}au m}mm -0.8266
-1.8894 a|u}au n}nn -0.1052
-3.0095 a|u}au p|h}ff -0.0376
-3.2874 a|u}au p}_ 0.0000
-2.1412 a|u}au p}pp -0.1716
-2.2460 a|u}au q|u}kk -0.3365
-3.2874 a|u}au r|r}rr 0.0000
-1.7822 a|u}au r}rr -0.3572
-1.8402 a|u}au s}_ 0.0351
-1.7311 a|u}au s}ss -1.0881
-1.7688 a|u}au s}zz -0.4758
-1.5020 a|u}au t}_ -0.6821
-1.0493 a|u}au t}tt -0.2971
-1.4548 a|u}au v}vv -0.3543
-3.2874 a|u}au w}vv 0.0000
-3.2874 a|u}au w}ww 0.0000
-3.3651 a|u}au x|_}zz 0.0000
-0.5798 a|u}au x}_ -1.3282
-2.4423 a|u}au x}kk|ss -0.2733
-2.6853 a|u}au x}ss -0.1407
-2.3331 a|u}au z}zz -0.2023
-3.1129 a|u}oo (}_ 0.0000
-1.8825 a|u}oo -}_ -0.5397
-3.1129 a|u}oo </s> 0.0000
-2.8351 a|u}oo _}_ -0.1544
-1.7512 a|u}oo b}bb -0.5129
-1.4317 a|u}oo c|h}ch -0.3301
-1.5815 a|u}oo c}kk -0.2042
-2.1587 a|u}oo c}ss -0.8412
-0.9254 a|u}oo d}dd -0.9694
-3.1129 a|u}oo d}nn 0.0000
-3.1907 a|u}oo e}ai -0.1681
-3.1129 a|u}oo e}ee 0.0000
-1.5566 a|u}oo f|f}ff -1.3592
-1.7327 a|u}oo f}ff -1.2616
-1.3276 a|u}oo g}gg -1.6122
-3.1907 a|u}oo g}jj 0.0000
-2.8351 a|u}oo j}jj -0.1403
-1.9668 a|u}oo l|l}ll -1.0845
-3.1129 a|u}oo l}_ 0.0000
-1.6078 a|u}oo l}ll -0.2440
-1.4597 a|u}oo m}mm -0.6589
-2.8351 a|u}oo n}nn -0.1015
-2.2678 a|u}oo p|h}ff -0.3495
-1.9668 a|u}oo p}pp -0.3976
-3.1129 a|u}oo q|u}kk 0.0000
-0.8529 a|u}oo r}rr -0.5357
-1.3805 a|u}oo s}_ -1.5743
-1.3648 a|u}oo s}ss -2.6683
-1.7327 a|u}oo s}zz -0.2334
-2.2098 a|u}oo t}_ -0.5916
-2.0715 a|u}oo t}ss 0.6420
-0.6024 a|u}oo t}tt -1.0009
-1.2496 a|u}oo v}vv -0.3952
-1.9668 a|u}oo x}_ -1.0898
-2.1129 a|u}oo x}kk|ss -0.2458
-2.5109 a|u}oo x}ss -0.1407
-1.2304 a|w}au </s> 0.0000
-1.2304 a|w}au f}ff 0.0000
-0.3274 a|w}au k}kk 0.0150
-0.9526 a|w}au l}ll 0.0000
-1.2304 a|w}au n}nn 0.0000
-0.9526 a|w}au s}ss -0.1560
-0.4771 a|w}oo </s> 0.0000
-0.5549 a|w}oo r}rr -0.2902
-1.1222 a|y}ai (}_ -0.2568
-0.4938 a|y}ai </s> 0.0000
-2.0253 a|y}ai _}_ 0.0000
-2.1031 a|y}ai b}bb 0.0000
-2.0253 a|y}ai d}dd 0.0000
-2.1031 a|y}ai e|(}_ -0.2940
-1.7474 a|y}ai e}_ -1.3036
-2.0253 a|y}ai f}ff 0.0000
-1.0711 a|y}ai l}ll -0.2545
-1.4997 a|y}ai m}mm -0.2790
-0.8792 a|y}ai n}nn -0.2540
-1.7474 a|y}ai r}rr 0.0000
-2.0253 a|y}ai s|(}_ 0.0000
-1.3263 a|y}ai s}_ 0.1442
-2.0253 a|y}ai s}ss 0.0000
-1.1802 a|y}ai s}zz -0.1244
-2.0253 a|y}ai t|h}ff 0.0000
-1.4232 a|y}ai t}tt -0.1095
-2.0253 a|y}ai w}ww 0.0000
-2.1031 a|y}ai ç}ss -0.2442
-1.6464 a|y}ei (}_ -0.8836
-0.0730 a|y}ei </s> 0.0000
-1.9243 a|y}ei _}_ 0.0000
-1.9243 a|y}ei j}jj 0.0000
-1.3222 a|y}ei m}mm -0.5583
-1.9243 a|y}ei n}nn 0.0000
-2.0021 a|y}ei r}rr 0.0000
-1.9243 a|y}ei s}_ 0.0000
-0.3788 a|z}aa </s> 0.0000
-0.4771 a|ë}aa _}ei 0.0000
-0.4771 a|ë}aa l}ll 0.0000
-1.1872 a|î}ai c|h}ch -0.4699
-0.4602 a|î}ai n}nn -0.8365
-1.2664 a|î}ai t}_ -0.8521
-0.2752 a|î}ai t}tt -1.3979
-1.2539 a|î}ei c|h}ch -0.2373
-0.0621 a|î}ei t}tt -1.0915
-2.7412 a}_ (}_ 0.0000
-2.7412 a}_ </s> 0.0000
-1.6998 a}_ a}aa -0.4430
-1.8961 a}_ d}dd -0.3463
-2.8189 a}_ e|n}an -0.2946
-2.7412 a}_ h}_ 0.0000
-2.2156 a}_ i|m}in -0.0774
-0.0590 a}_ i|n}in -1.0013
-1.5370 a}_ i}yy -1.1903
-2.8189 a}_ k}kk -0.2819
-2.7412 a}_ l}ll 0.0000
-2.7412 a}_ n}nn 0.0000
-2.8189 a}_ o|n}an -0.0597
-2.7412 a}_ o|û}ou 0.0000
-2.7412 a}_ r|d}au 0.0000
-2.1391 a}_ s}ss -0.1486
-2.7412 a}_ t}tt 0.0000
-2.8189 a}_ u}ou -0.2724
-2.8189 a}_ î|n}in -0.2569
-2.2156 a}_ ô}au -0.2712
-2.8189 a}_ ô}oo -0.2341
-2.3500 a}aa (}_ -0.7034
-3.5443 a}aa -}_ -0.0743
-4.6905 a}aa 1}dd 0.0000
-4.6905 a}aa 1}kk|in 0.0000
-4.7682 a}aa 1}ss|an -0.1930
-4.6905 a}aa 1}tt|rr 0.0000
-4.6905 a}aa 1}un 0.0000
-4.7682 a}aa 3}tt|rr -0.1529
-3.8454 a}aa 4}kk|aa -0.0280
-1.2609 a}aa </s> 0.0000
-2.6905 a}aa _}_ -0.3834
-4.6905 a}aa _}kk|aa 0.0000
-4.6905 a}aa _}nn 0.0000
-4.0884 a}aa _}ss -0.0407
-4.6905 a}aa _}ss|ai 0.0000
-3.6491 a}aa _}tt -0.4503
-4.7682 a}aa _}tt|rr -0.0923
-4.6905 a}aa a|y}ei 0.0000
-2.7560 a}aa a}aa -0.1818
-3.1342 a}aa b}_ -0.8585
-1.2324 a}aa b}bb -0.5732
-4.4126 a}aa b}bb|ei -0.1602
-3.6491 a}aa b}pp -0.5643
-1.9736 a}aa c|h}ch -0.5539
-4.7682 a}aa c|h}rr -0.0597
-1.9820 a}aa c}_ -0.2635
-1.5569 a}aa c}kk -0.5763
-1.8676 a}aa c}ss -0.7258
-4.0884 a}aa c}ss|ei -0.0964
-4.0884 a}aa c}tt|ch -0.1139
-2.8709 a}aa d}_ -0.9298
-1.4318 a}aa d}dd -0.3974
-4.0884 a}aa d}dd|ei 0.0000
-4.4126 a}aa d}nn -1.2254
-4.6905 a}aa d}tt 0.0000
-4.6905 a}aa e|u}eu 0.0000
-3.8454 a}aa e}_ -0.0735
-3.4352 a}aa e}ai -0.5563
-3.7362 a}aa e}ei 0.1511
-4.7682 a}aa e}eu 0.0000
-2.1305 a}aa f|f}ff -0.5497
-4.4126 a}aa f}ai|ff 0.0000
-2.2417 a}aa f}ff -0.4663
-2.3500 a}aa g|n}gn -0.1992
-2.7460 a}aa g|u}gg 0.1856
-2.5412 a}aa g}_ -1.6919
-3.7874 a}aa g}dd 0.2218
-3.7362 a}aa g}dd|jj -0.0505
-1.8802 a}aa g}gg -0.8452
-1.3949 a}aa g}jj -0.7517
-4.4126 a}aa g}jj|ei 0.0000
-4.6905 a}aa g}nn|yy 0.0000
-2.1246 a}aa h}_ -0.5977
-4.7682 a}aa h}yy -0.2469
-3.0777 a}aa i|l}yy 0.5356
-3.9915 a}aa i}_ -0.3709
-2.8516 a}aa i}ii -0.6013
-2.0101 a}aa i}yy -1.8044
-4.6905 a}aa j}dd|jj 0.0000
-2.3808 a}aa j}jj -0.8169
-4.6905 a}aa j}rr 0.0000
-4.0884 a}aa j}yy -0.0137
-4.0884 a}aa k|k}kk -0.3193
-2.3013 a}aa k}kk -0.4211
-1.9058 a}aa l|l}ll -0.1099
-4.4126 a}aa l|t}_ -0.7571
-4.6905 a}aa l}_ 0.0000
-0.9467 a}aa l}ll -0.7550
-2.3851 a}aa m|m}mm -0.5664
-3.6491 a}aa m}ai|mm 0.0172
-1.4717 a}aa m}mm -0.3267
-2.1107 a}aa n|n}nn -0.7618
-4.6905 a}aa n|t}_ 0.0000
-4.0884 a}aa n}ai|nn 0.0000
-1.2832 a}aa n}nn -0.4649
-4.4126 a}aa o|n}on 0.0000
-2.7928 a}aa o|u}ou -0.4749
-3.9915 a}aa o|u}ww -0.7018
-2.9501 a}aa o}au -0.3495
-2.9581 a}aa o}oo -0.7036
-4.6905 a}aa p|-}bb 0.0000
-2.2722 a}aa p|h}ff -0.4408
-1.8096 a}aa p|p}pp -0.2968
-3.0672 a}aa p}_ -0.0856
-1.7489 a}aa p}pp -0.2178
-3.5443 a}aa p}pp|ei 0.0249
-2.1991 a}aa q|u}kk -0.3086
-4.6905 a}aa q}gg 0.0000
-3.0994 a}aa q}kk -0.0052
-1.9109 a}aa r|r}rr -0.5134
-4.7682 a}aa r|z}rr 0.0000
-4.0884 a}aa r}ai|rr 0.0000
-0.8808 a}aa r}rr -0.7292
-2.6734 a}aa s|(}_ -1.0155
-3.1223 a}aa s|h}ch -0.1766
-1.5403 a}aa s}_ -1.4291
-3.6113 a}aa s}ai|ss 0.0781
-1.6397 a}aa s}ss -1.5605
-2.0610 a}aa s}zz -0.3138
-4.0884 a}aa t|h}ff 0.0411
-1.6883 a}aa t}_ -1.0801
-1.4690 a}aa t}ss -0.8832
-1.0982 a}aa t}tt -0.5689
-3.7362 a}aa t}tt|ei 0.1075
-4.7682 a}aa u}oo -0.2913
-4.0884 a}aa u}ou -0.1005
-4.4126 a}aa u}uu 0.0000
-3.6491 a}aa u}ww -0.4082
-1.5604 a}aa v}vv -0.1451
-4.6905 a}aa w}dd|ou 0.0000
-4.0884 a}aa w}vv 0.0000
-2.8331 a}aa w}ww -0.4163
-4.7682 a}aa x}_ 0.0000
-4.4126 a}aa x}kk -1.5268
-2.4756 a}aa x}kk|ss -0.5600
-4.6905 a}aa y|y}yy 0.0000
-4.6905 a}aa y}ai 0.0000
-3.4117 a}aa y}ii -0.4095
-2.6041 a}aa y}yy -0.3432
-3.5443 a}aa z|z}zz -0.0484
-3.8454 a}aa z}dd 0.3144
-4.4126 a}aa z}dd|zz 0.1061
-4.6905 a}aa z}ss 0.0000
-2.2356 a}aa z}zz 0.2211
-3.5765 a}aa â}aa -0.3285
-2.6530 a}aa ç}ss -1.3887
-2.7610 a}aa é}ai -1.8334
-3.2433 a}aa é}ei -1.4385
-3.4117 a}aa ë}ai 0.0351
-4.1649 a}aa î}ii -0.2021
-4.6905 a}aa ï|n}in 0.0000
-2.4474 a}aa ï}ii 0.1154
-2.8271 a}aa ï}yy 0.0250
-4.6905 a}aa ñ}gn 0.0000
-4.6905 a}aa ô}au 0.0000
-4.6905 a}aa ü}oo 0.0000
-4.6905 a}aa ü}uu 0.0000
-0.3010 a}aa|on 1|1}zz 0.0000
-0.3010 a}aa|vv 2}in|tt 0.0000
-2.6688 a}ai (}_ 0.4026
-1.4150 a}ai _}ii -0.5362
-2.0655 a}ai c}ss -0.2569
-2.5911 a}ai d}dd 0.0000
-2.5911 a}ai e|s}_ 0.0000
-0.9283 a}ai e}_ -0.2044
-2.6688 a}ai i}yy 0.0000
-1.6880 a}ai k}kk -0.2168
-1.6368 a}ai l}ll -0.1995
-2.5911 a}ai m}mm 0.0000
-2.6688 a}ai n}nn 0.0000
-1.5911 a}ai r}rr -0.1672
-2.5911 a}ai s|h}ch 0.0000
-2.6688 a}ai s}_ -0.2948
-2.6688 a}ai t}tt 0.0000
-2.5911 a}ai t}tt|eu 0.0000
-2.3132 a}ai v}vv -0.0902
-1.0348 a}ai y}ii -0.6639
-0.2072 a}ai y}yy -0.6328
-1.3802 a}ai|yy b}bb 0.0000
-1.3802 a}ai|yy c}kk 0.0000
-1.3802 a}ai|yy c}ss 0.0000
-1.4580 a}ai|yy d}dd 0.0000
-0.3388 a}ai|yy k}kk -0.7132
-1.4580 a}ai|yy s}zz 0.0000
-0.8546 a}ai|yy t}tt -0.4042
-0.9809 a}an m}mm 0.0000
-0.3775 a}an n}nn 0.0000
-0.0969 a}au l|l}ll -0.2230
-1.0000 a}au l}ll 0.0000
-1.5691 a}ei c}ss 0.0000
-0.7924 a}ei d}dd -0.0864
-0.8893 a}ei e}_ -0.1219
-0.5371 a}ei i}ii -0.0676
-1.4914 a}ei k}kk 0.0000
-1.4914 a}ei r}rr 0.0000
-1.4914 a}ei t}tt 0.0000
-1.2135 a}ei y}ii -0.1695
-0.7924 a}ei y}yy -0.3395
-1.0000 a}oe l}ll 0.0000
-1.0000 a}oe n}nn 0.0000
-0.4744 a}oe r}rr 0.0000
-1.0000 a}oe s}ss 0.0000
-1.0000 a}oe w}ww 0.0000
-0.1761 a}oo c}_ -0.2578
-0.7782 a}oo l}ll 0.0000
-0.5549 a}tt c|h}ch 0.0000
-0.4771 a}tt t}oe 0.0000
-0.1993 b|u}bb i}ii -1.5611
-1.0687 b}_ </s> 0.0000
-0.0943 b}_ b}bb -0.4344
-1.9138 b}_ s|(}_ 0.0000
-1.9916 b}_ s}_ 0.0406
-1.3882 b}_ v}vv -0.3290
-3.6079 b}bb (}_ 0.4649
-4.2113 b}bb (}ei 0.0608
-4.1335 b}bb -}_ 0.0000
-4.1335 b}bb .}ei 0.0000
-4.1335 b}bb 1}ei|un 0.0000
-2.2041 b}bb </s> 0.0000
-4.1335 b}bb _}aa 0.0000
-3.4346 b}bb _}ai -0.2843
-4.1335 b}bb _}ee 0.0000
-4.1335 b}bb _}ei|ss 0.0000
-3.1793 b}bb _}ii -0.1032
-2.1124 b}bb a|i}ai -0.6354
-3.4346 b}bb a|i}ei -0.6054
-3.2304 b}bb a|l}oo -0.3707
-3.0921 b}bb a|m}an -0.7582
-1.7794 b}bb a|n}an -0.5198
-2.2470 b}bb a|u}au -0.6177
-2.7718 b}bb a|u}oo -0.8502
-3.5315 b}bb a|y}ai -0.0688
-3.8557 b}bb a|y}ei 0.0000
-2.9294 b}bb a}_ -0.3081
-0.8629 b}bb a}aa -0.8567
-3.2884 b}bb a}ai -0.7207
-3.8557 b}bb a}ai|yy 0.0000
-3.8557 b}bb a}au -0.8820
-4.2113 b}bb a}ei 0.0000
-3.8557 b}bb b}bb -1.5783
-4.2113 b}bb b}oe -0.0597
-4.1335 b}bb c|h}ch 0.0000
-3.8557 b}bb c}kk -0.1094
-3.8557 b}bb c}ss -0.1669
-2.3075 b}bb d}dd -0.8017
-2.3701 b}bb e|(}_ -0.0123
-3.6079 b}bb e|a}ii -0.0296
-3.1335 b}bb e|i}ai -0.0603
-3.8557 b}bb e|n}_ 0.1381
-2.9294 b}bb e|n}an -0.1491
-4.1335 b}bb e|n}ee 0.0000
-3.1335 b}bb e|n}in -0.4892
-2.7533 b}bb e|r}ei -0.6865
-2.5315 b}bb e|s}_ 0.3647
-3.6079 b}bb e|u}eu 0.1460
-2.9874 b}bb e|u}oe 0.4422
-3.1793 b}bb e|y}ei -0.3758
-4.1335 b}bb e|z}ai 0.0000
-4.1335 b}bb e|z}ei 0.0000
-1.7391 b}bb e}_ -0.2482
-3.8557 b}bb e}aa -1.3026
-1.2947 b}bb e}ai -0.8885
-2.0196 b}bb e}ee -0.3473
-2.0401 b}bb e}ei -0.0827
-3.8557 b}bb e}ei|eu 0.0000
-3.5315 b}bb e}ii -0.1208
-4.1335 b}bb e}oe 0.0000
-4.2113 b}bb g}gg 0.0000
-3.0921 b}bb h}_ -0.1947
-2.5772 b}bb i|n}in -0.9286
-4.1335 b}bb i|z}ii 0.0000
-1.0706 b}bb i}ii -0.6301
-4.1335 b}bb i}oe 0.0000
-1.7087 b}bb i}yy -0.6971
-2.4433 b}bb j}jj -0.8713
-3.4346 b}bb k}kk -0.1683
-0.7023 b}bb l}ll -1.4523
-3.0196 b}bb m}mm -0.6998
-3.0921 b}bb n}nn -0.2494
-4.1335 b}bb o|i}ww 0.0000
-2.6284 b}bb o|m}on -1.3568
-2.0196 b}bb o|n}on -0.2625
-2.9574 b}bb o|o}ou -0.4702
-1.2714 b}bb o|u}ou -0.6788
-3.1793 b}bb o|u}ww -0.2243
-4.1335 b}bb o|w}oo 0.0000
-2.1651 b}bb o}_ -0.0832
-1.9349 b}bb o}au -0.2212
-4.1335 b}bb o}oe 0.0000
-1.2359 b}bb o}oo -0.9951
-2.9294 b}bb o}ww|aa 0.9890
-0.9211 b}bb r}rr -1.4108
-3.6079 b}bb s|(}_ 0.0257
-3.0921 b}bb s}_ -0.3324
-1.6926 b}bb s}ss -1.0973
-2.8113 b}bb s}zz -1.2826
-4.1335 b}bb t}_ 0.0000
-2.4011 b}bb t}tt -0.8046
-3.6079 b}bb u|n}un -0.2684
-3.5315 b}bb u}ii 0.2172
-2.8783 b}bb u}oe -0.7823
-3.8557 b}bb u}oo -0.0411
-2.6564 b}bb u}ou -0.4129
-1.3503 b}bb u}uu -0.5304
-3.0196 b}bb u}uy -0.0585
-4.1335 b}bb u}yy|ou 0.0000
-2.7186 b}bb v}vv -1.3490
-4.1335 b}bb w}vv 0.0000
-3.4346 b}bb w}ww -0.3788
-4.1335 b}bb y}_ 0.0000
-2.1891 b}bb y}ii -0.5761
-4.1335 b}bb y}oe 0.0000
-2.9031 b}bb y}yy -0.2860
-4.1335 b}bb z}zz 0.0000
-2.4011 b}bb â}aa -0.4744
-2.5001 b}bb è}ai -0.1900
-1.7391 b}bb é}ai -0.9118
-1.8571 b}bb é}ei 0.0035
-2.6422 b}bb ê}ai -0.6570
-3.5315 b}bb ê}ei 0.1411
-2.9874 b}bb î}ii -1.0385
-4.2113 b}bb ô}au -0.2050
-4.2113 b}bb ö}eu 0.0000
-3.0196 b}bb û}uu -1.1025
-4.2113 b}bb ü}uu -0.2611
-2.0645 b}bb|ei 2}dd|eu 0.0000
-0.5082 b}bb|ei </s> 0.0000
-2.0645 b}bb|ei _}ei 0.0000
-2.0645 b}bb|ei _}ii 0.0000
-1.7866 b}bb|ei a}aa -0.1485
-1.5389 b}bb|ei b}bb|ei -0.6168
-2.0645 b}bb|ei c}kk 0.0000
-2.0645 b}bb|ei c}ss 0.0000
-1.0645 b}bb|ei c}ss|ei -0.4030
-1.7866 b}bb|ei d}dd|ei 0.0000
-1.4624 b}bb|ei f}ai|ff 0.0468
-1.7866 b}bb|ei g}jj|ei -1.4314
-2.0645 b}bb|ei h}aa|ch 0.0000
-1.7866 b}bb|ei i}ii 0.0000
-2.0645 b}bb|ei j}jj 0.0000
-2.1422 b}bb|ei l}ai|ll 0.0000
-1.5389 b}bb|ei m}ai|mm -0.0671
-1.3655 b}bb|ei n}ai|nn -0.0215
-1.7866 b}bb|ei o}oo -1.5802
-1.4624 b}bb|ei p}pp|ei 0.0399
-1.3655 b}bb|ei r}ai|rr 0.0621
-1.1102 b}bb|ei s}ai|ss -0.0427
-1.4624 b}bb|ei t}tt|ei 0.0000
-1.7866 b}bb|ei v}vv|ei 0.0000
-0.3010 b}mm e|(}_ 0.0000
-0.3788 b}oe l}ll -0.2546
-1.4771 b}pp k}kk 0.0000
-0.1761 b}pp s}ss -0.6323
-1.4771 b}pp s}zz 0.0000
-0.6320 b}pp t}tt -0.4211
-2.6147 c|h}ch (}_ 0.5811
-3.6939 c|h}ch -}_ 0.0000
-1.6111 c|h}ch </s> 0.0000
-1.6605 c|h}ch a|i}ai -0.2365
-1.8018 c|h}ch a|m}an -0.6831
-1.1611 c|h}ch a|n}an -0.6225
-1.8018 c|h}ch a|u}au -0.6775
-1.7544 c|h}ch a|u}oo -1.1087
-2.1141 c|h}ch a|î}ai -1.4063
-2.9949 c|h}ch a}_ 0.1179
-0.8342 c|h}ch a}aa -0.6985
-2.9949 c|h}ch a}ai -0.7236
-3.6939 c|h}ch a}ai|yy 0.0000
-1.5295 c|h}ch e|(}_ 0.5714
-3.1683 c|h}ch e|i}ai -0.3446
-2.7397 c|h}ch e|n}_ 2.4173
-3.6939 c|h}ch e|n}an 0.0000
-3.4160 c|h}ch e|n}ee 0.3055
-1.7397 c|h}ch e|r}ei -0.3628
-1.7748 c|h}ch e|s}_ 0.1875
-3.7717 c|h}ch e|u}ee -0.1906
-2.2789 c|h}ch e|u}eu -0.7894
-2.2467 c|h}ch e|u}oe -0.6136
-3.6939 c|h}ch e|y}ei 0.0000
-2.6525 c|h}ch e|z}ei 0.6599
-1.0864 c|h}ch e}_ -0.3347
-1.2360 c|h}ch e}ai -0.5347
-1.0368 c|h}ch e}ee -0.8213
-1.6075 c|h}ch e}ei -0.1273
-3.4160 c|h}ch e}ii -0.1534
-3.4160 c|h}ch h}_ 0.0000
-3.4160 c|h}ch i|m}in -0.5595
-2.7397 c|h}ch i|n}in -0.1545
-0.9064 c|h}ch i}ii -0.8113
-2.0311 c|h}ch i}yy -0.3102
-3.6939 c|h}ch j}jj 0.0000
-2.6525 c|h}ch k}kk -0.5405
-2.3929 c|h}ch l}ll -0.1971
-2.6525 c|h}ch m}mm -0.2489
-2.3515 c|h}ch n}nn -0.4434
-3.7717 c|h}ch o|m}on 0.0000
-2.1141 c|h}ch o|n}on -1.0231
-3.7717 c|h}ch o|o}ou -0.2409
-2.0811 c|h}ch o|u}ou -0.2046
-3.1683 c|h}ch o|u}ww 0.0696
-1.9086 c|h}ch o}_ -0.8435
-2.0811 c|h}ch o}au -0.3876
-3.7717 c|h}ch o}oe 0.7332
-1.8247 c|h}ch o}oo -0.3208
-3.4160 c|h}ch o}ww|aa 0.6121
-3.6939 c|h}ch p}pp 0.0000
-2.6525 c|h}ch r}rr -0.4953
-3.4160 c|h}ch s|(}_ -1.4003
-3.1683 c|h}ch s}_ -0.1217
-3.6939 c|h}ch t}_ 0.0000
-2.4635 c|h}ch t}tt -0.3599
-2.9949 c|h}ch u}ai 0.0000
-3.0918 c|h}ch u}oe -0.0061
-2.5800 c|h}ch u}ou -0.3850
-1.7445 c|h}ch u}uu -0.6610
-3.7717 c|h}ch u}uy -0.2873
-2.6939 c|h}ch w}vv -0.3829
-2.6939 c|h}ch w}ww -0.1473
-2.5478 c|h}ch y}ii -0.2488
-2.0311 c|h}ch â}aa -0.8700
-3.7717 c|h}ch ä}aa 0.0000
-1.8614 c|h}ch è}ai -0.7021
-3.7717 c|h}ch é}_ -0.1529
-1.9615 c|h}ch é}ai -0.7329
-1.2467 c|h}ch é}ei -0.5134
-2.7908 c|h}ch ê}ai -0.9261
-3.6939 c|h}ch ô}au 0.0000
-2.7908 c|h}ch ô}oo -0.9095
-3.7717 c|h}ch ü}uu 0.0000
-0.3788 c|h}rr t}tt -0.2904
-2.4179 c}_ (}_ 0.4375
-2.4179 c}_ -}_ -0.0837
-1.5575 c}_ </s> 0.0000
-0.2610 c}_ c}kk -1.6861
-3.0199 c}_ c}ss 0.0000
-1.6397 c}_ c}tt|ch -0.9979
-2.3210 c}_ h}_ -0.1906
-0.6000 c}_ k}kk -0.5420
-1.1223 c}_ q|u}kk -0.1891
-1.9060 c}_ s|(}_ -0.7419
-1.7895 c}_ s}_ -0.5395
-1.6220 c}_ t}_ -0.8410
-2.1169 c}_ t}tt -0.1730
-1.0009 c}ch e}ai -0.1607
-1.2788 c}ch e}ei 0.0000
-1.0009 c}ch i}_ -0.1453
-0.2374 c}ch i}ii -0.9626
-1.2788 c}ch i}yy 0.0000
-1.3617 c}gg (}_ 0.0000
-0.0830 c}gg o|n}on -1.2100
-1.3617 c}gg u|n}on 0.0000
-1.3617 c}gg z}zz 0.0000
-2.7690 c}kk (}_ -0.2774
-3.3333 c}kk -}_ -0.0860
-4.2875 c}kk 4}aa|rr 0.0000
-4.2875 c}kk 4}kk|aa 0.0000
-1.7892 c}kk </s> 0.0000
-4.0097 c}kk _}_ 0.0000
-4.2875 c}kk _}aa 0.0000
-4.2875 c}kk _}ee 0.0000
-2.1322 c}kk a|i}ai -1.3732
-4.2875 c}kk a|l}oo 0.0000
-2.3430 c}kk a|m}an -0.0852
-1.9128 c}kk a|n}an -0.9305
-2.4550 c}kk a|u}au -0.3882
-2.7560 c}kk a|u}oo -0.9624
-4.3653 c}kk a|y}ai 0.0000
-2.5715 c}kk a}_ -0.8199
-0.7976 c}kk a}aa -0.8987
-3.7619 c}kk a}ai -0.1550
-4.2875 c}kk a}au 0.0000
-4.3653 c}kk b}bb 0.0000
-3.3844 c}kk c}kk -0.0330
-1.9511 c}kk c}ss -2.0011
-3.2083 c}kk d}dd -1.0474
-4.3653 c}kk e}ai 0.0000
-4.2875 c}kk e}ei 0.0000
-4.2875 c}kk e}oe 0.0000
-3.6855 c}kk f}ff 0.0000
-4.3653 c}kk g|u}gg -0.2069
-4.3653 c}kk g}gg 0.0000
-4.2875 c}kk g}jj 0.0000
-1.5608 c}kk h}_ -0.9785
-4.2875 c}kk i}ii 0.0000
-4.3653 c}kk k|-}aa -0.0597
-4.3653 c}kk k}kk -0.2944
-1.2116 c}kk l}ll -1.1417
-3.3333 c}kk m}mm -0.1511
-3.1114 c}kk n}nn -0.0826
-4.2875 c}kk o|i}ww 0.0000
-1.3601 c}kk o|m}on -0.8006
-0.8662 c}kk o|n}on -1.6723
-3.2083 c}kk o|o}ou -0.2633
-1.3586 c}kk o|u}ou -1.0024
-3.7619 c}kk o|u}ww -0.1165
-4.0097 c}kk o|w}oo -1.2799
-2.8104 c}kk o|û}ou 0.5139
-2.4550 c}kk o}_ 0.0030
-1.7548 c}kk o}au -0.4399
-4.2875 c}kk o}oe 0.0000
-0.8568 c}kk o}oo -0.7018
-2.9451 c}kk o}ww 0.1859
-4.2875 c}kk o}ww|aa 0.0000
-4.3653 c}kk p}pp -0.1978
-4.2875 c}kk q|u}kk 0.0000
-4.0097 c}kk q}_ -0.5396
-3.3333 c}kk q}kk -0.9345
-1.0337 c}kk r}rr -1.4528
-2.6747 c}kk s|(}_ -0.6268
-2.6747 c}kk s}_ -1.2879
-2.9865 c}kk s}ss -0.2218
-3.2875 c}kk t}_ -1.0015
-1.6737 c}kk t}ss -0.8937
-1.0520 c}kk t}tt -0.9613
-3.3844 c}kk u|e}eu 0.0000
-4.2875 c}kk u|m}un 0.0000
-3.7619 c}kk u|n}un 0.0490
-2.5471 c}kk u}ee -1.2156
-2.8104 c}kk u}oe -0.8878
-3.5885 c}kk u}ou -0.3550
-1.1426 c}kk u}uu -1.1631
-2.3144 c}kk u}uy -0.5194
-3.6855 c}kk u}yy|ou -0.1350
-4.2875 c}kk v}vv 0.0000
-3.3844 c}kk z}ss 0.2471
-4.2875 c}kk z}zz 0.0000
-2.9865 c}kk â}aa -0.7416
-4.2875 c}kk æ}ss|ei 0.0000
-4.2875 c}kk è}ai 0.0000
-2.5022 c}kk ô}au -1.2703
-2.7312 c}kk ô}oo -1.3209
-4.3653 c}kk ú}ou -0.0597
-0.3010 c}kk|on _}pp|aa 0.0000
-2.9390 c}ss '}_ -0.2202
-3.9710 c}ss (}ii 0.4042
-3.8933 c}ss -}_ 0.0000
-3.8933 c}ss _}ai 0.0000
-3.8933 c}ss _}ai|tt 0.0000
-3.2912 c}ss _}an|tt -0.0046
-3.6154 c}ss _}ii 0.0000
-3.8933 c}ss a}ei 0.0000
-1.1374 c}ss e|(}_ 0.1604
-3.9710 c}ss e|m}an -0.0593
-1.2138 c}ss e|n}an -1.3031
-2.1374 c}ss e|r}ei -0.4981
-1.4850 c}ss e|s}_ -0.2758
-2.9902 c}ss e|u}ee -0.2774
-2.9390 c}ss e|u}eu 0.3433
-2.7471 c}ss e|u}oe -0.3126
-3.1943 c}ss e|y}ei 0.2843
-3.1943 c}ss e|z}ei 0.9609
-0.8868 c}ss e}_ -0.8414
-3.0482 c}ss e}aa -0.1254
-1.0028 c}ss e}ai -0.9172
-1.0790 c}ss e}ee -0.9796
-1.8479 c}ss e}ei -0.1448
-2.6628 c}ss e}ei|eu 0.0937
-3.9710 c}ss e}oe 0.1511
-1.9537 c}ss i|n}in -0.5276
-0.6397 c}ss i}ii -0.8206
-0.9078 c}ss i}yy -1.1060
-3.2912 c}ss y|m}in -0.0761
-3.8933 c}ss y|n}in 0.0000
-1.6758 c}ss y}ii -0.8956
-3.9710 c}ss y}yy -0.1832
-1.8558 c}ss è}ai -0.9413
-1.3033 c}ss é}ai -1.1848
-1.4309 c}ss é}ei -0.4128
-3.0482 c}ss ê}ai -0.6171
-1.8727 c}ss|ei (}_ -0.0807
-2.6495 c}ss|ei 1}dd 0.0000
-2.5717 c}ss|ei 1}ss|an 0.0000
-2.5717 c}ss|ei 2}dd|eu 0.0000
-0.6175 c}ss|ei </s> 0.0000
-2.5717 c}ss|ei _}ei 0.0000
-2.5717 c}ss|ei _}tt 0.0000
-1.5717 c}ss|ei a}aa -0.3717
-1.6175 c}ss|ei b}bb|ei 0.0644
-2.5717 c}ss|ei c}ss 0.0000
-1.2495 c}ss|ei c}ss|ei 0.0158
-2.5717 c}ss|ei d}dd 0.0000
-1.2100 c}ss|ei d}dd|ei 0.0661
-1.8727 c}ss|ei e}oe -0.1625
-1.1915 c}ss|ei f}ai|ff -0.0534
-2.6495 c}ss|ei g}jj -0.2945
-1.3164 c}ss|ei g}jj|ei -0.1632
-1.9696 c}ss|ei h}aa|ch 0.0571
-1.2293 c}ss|ei i}ii -0.4227
-1.9696 c}ss|ei i}yy 0.0000
-2.6495 c}ss|ei j}jj -0.2872
-2.6495 c}ss|ei j}jj|yy 0.0000
-2.6495 c}ss|ei k}kk -0.2886
-1.6686 c}ss|ei l}ai|ll 0.0036
-1.4578 c}ss|ei m}ai|mm 0.0234
-1.1093 c}ss|ei n}ai|nn 0.0762
-1.9696 c}ss|ei o}oo 0.0000
-2.5717 c}ss|ei p}pp 0.0000
-1.2293 c}ss|ei p}pp|ei -0.2576
-2.5717 c}ss|ei q}kk|uu 0.0000
-1.4578 c}ss|ei r}ai|rr 0.0291
-1.3676 c}ss|ei s}ai|ss 0.1208
-1.8727 c}ss|ei t}tt|ei -0.0399
-2.5717 c}ss|ei u}uu 0.0000
-1.6175 c}ss|ei v}vv|ei 0.0891
-1.6128 c}tt|ch e}aa 0.0000
-1.3349 c}tt|ch e}ai -0.1729
-1.6128 c}tt|ch e}ei 0.0000
-1.6906 c}tt|ch i}_ -0.2671
-0.2326 c}tt|ch i}ii -0.5880
-1.6906 c}tt|ch i}yy 0.0000
-1.0107 c}tt|ch z}ai|ch 0.4391
-1.0107 c}tt|ch z}ei|ch 0.4391
-3.0596 d}_ '}_ -0.2926
-1.3286 d}_ (}_ -0.7659
-2.9818 d}_ (}nn 0.0000
-1.4136 d}_ -}_ -0.5600
-2.3798 d}_ -}tt -0.1708
-0.2855 d}_ </s> 0.0000
-1.7514 d}_ _}_ -0.7799
-2.3798 d}_ _}tt -0.1182
-2.7040 d}_ a}aa -0.1697
-1.0473 d}_ d}dd -0.7575
-2.9818 d}_ e|u}eu 0.0000
-2.7040 d}_ e}_ -0.1729
-2.9818 d}_ e}ee 0.0000
-1.7514 d}_ h}_ -2.2055
-2.3798 d}_ i}ii -0.0793
-0.9565 d}_ s|(}_ -0.8868
-0.8955 d}_ s}_ -1.7411
-2.9818 d}_ t}_ 0.0000
-2.4562 d}_ t}tt -0.3450
-3.0596 d}_ y}ii -0.1627
-2.1088 d}dd '}_ -0.7387
-2.4796 d}dd (}_ -0.0564
-3.2200 d}dd -}_ -0.4606
-1.7465 d}dd </s> 0.0000
-4.3769 d}dd _}_ 0.0000
-3.6971 d}dd _}aa 0.0856
-4.3769 d}dd _}ai 0.0000
-4.2991 d}dd _}au|kk 0.0000
-4.3769 d}dd _}ee 0.0000
-4.2991 d}dd _}ii 0.0000
-1.8022 d}dd a|i}ai -0.7335
-4.0213 d}dd a|i}ei -1.5323
-4.2991 d}dd a|l}oo 0.0000
-2.7677 d}dd a|m}aa 0.0000
-4.0213 d}dd a|m}an 0.0361
-1.7125 d}dd a|n}an -0.8066
-2.9189 d}dd a|u}au -0.2684
-3.3960 d}dd a|u}oo -0.9007
-4.3769 d}dd a|w}au 0.0000
-4.0213 d}dd a|y}ai 0.0000
-3.2991 d}dd a|y}ei 0.1114
-3.3449 d}dd a}_ -0.0582
-1.2974 d}dd a}aa -0.3179
-4.0213 d}dd a}ai -0.1708
-4.2991 d}dd a}ei 0.0000
-3.2991 d}dd b}bb -0.3060
-3.6971 d}dd c|h}ch -0.5116
-3.7735 d}dd c}kk -0.0990
-2.8678 d}dd d}_ -0.9192
-4.2991 d}dd d}dd 0.0000
-4.3769 d}dd d}oe -0.0597
-1.6895 d}dd e|(}_ -0.0051
-3.6002 d}dd e|a}ii -0.3479
-4.3769 d}dd e|i}ai 0.0000
-3.6971 d}dd e|m}an 0.0416
-3.6971 d}dd e|n}_ -0.2581
-1.7793 d}dd e|n}an -1.1045
-4.3769 d}dd e|n}ee 1.5917
-4.3769 d}dd e|n}in -0.2331
-2.2905 d}dd e|r}ei -0.1740
-2.0343 d}dd e|s}_ 0.0137
-3.2991 d}dd e|u}ee -0.1648
-2.6089 d}dd e|u}eu -0.5290
-2.3169 d}dd e|u}oe -0.4909
-4.2991 d}dd e|y}ei 0.0000
-4.0213 d}dd e|z}ai -0.1544
-3.2577 d}dd e|z}ei 0.6599
-1.2905 d}dd e}_ -0.5051
-3.0950 d}dd e}aa -0.2603
-1.4842 d}dd e}ai -0.4597
-1.2200 d}dd e}ee -0.6757
-1.7321 d}dd e}ei -0.3611
-4.0213 d}dd e}ei|eu -1.1550
-3.6971 d}dd e}eu -0.1172
-3.6971 d}dd e}ii -0.5496
-3.4540 d}dd e}oe -0.0061
-3.7735 d}dd f}ff -0.1156
-3.7735 d}dd g}gg -0.1725
-2.6270 d}dd g}jj -0.5479
-2.5509 d}dd h}_ -0.2315
-4.2991 d}dd i|m}in 0.0000
-2.4796 d}dd i|n}in -0.7300
-0.8036 d}dd i}ii -0.4404
-1.4043 d}dd i}yy -1.0144
-2.2128 d}dd j}jj -0.4854
-4.0213 d}dd k}kk 0.0000
-2.9769 d}dd l}ll -0.5083
-2.2057 d}dd m}mm -1.0264
-2.8678 d}dd n}nn -0.3851
-3.6971 d}dd o|i}ww 0.5182
-3.1852 d}dd o|m}on 0.0364
-2.2384 d}dd o|n}on -0.4523
-4.2991 d}dd o|o}ou 0.0000
-1.8206 d}dd o|u}ou -0.3085
-2.6557 d}dd o|u}ww -0.0762
-4.2991 d}dd o|w}au 0.0000
-2.6864 d}dd o}_ 0.0784
-1.9508 d}dd o}au -0.1834
-4.2991 d}dd o}oe 0.0000
-1.3377 d}dd o}oo -0.7614
-4.2991 d}dd o}ww 0.0000
-3.2200 d}dd o}ww|aa 1.1139
-4.2991 d}dd r|z}rr 0.0000
-1.2472 d}dd r}rr -1.1500
-3.0204 d}dd s|(}_ -0.2300
-3.1852 d}dd s}_ -0.7609
-2.9012 d}dd s}ss -0.0975
-2.9567 d}dd s}zz -1.3376
-3.2200 d}dd t}_ -0.7619
-4.2991 d}dd t}tt 0.0000
-4.2991 d}dd u|m}un 0.0000
-3.4540 d}dd u|n}un -0.0732
-4.2991 d}dd u}ee 0.0000
-4.3769 d}dd u}oe 0.0000
-3.7735 d}dd u}oo 1.1905
-3.3960 d}dd u}ou -0.0950
-1.3697 d}dd u}uu -0.8466
-1.9047 d}dd u}uy -1.2449
-4.2991 d}dd u}yy|ou 0.0000
-2.8220 d}dd v}vv -0.5021
-3.2577 d}dd w}vv -0.4007
-3.0439 d}dd w}ww -0.2071
-2.3449 d}dd y}ii -0.8367
-4.2991 d}dd y}uu 0.0000
-4.0213 d}dd y}yy -0.0614
-4.2991 d}dd z|(}ei 0.0000
-3.2200 d}dd z}zz -0.1654
-4.3769 d}dd â}aa -0.0626
-2.4418 d}dd è}ai -0.1065
-0.7659 d}dd é}ai -1.4393
-1.3651 d}dd é}ei -0.1979
-3.0687 d}dd î}ii -0.3235
-4.2991 d}dd ï}ii 0.0000
-3.3960 d}dd ô}au -0.8644
-3.6971 d}dd ô}oo -0.2152
-3.2577 d}dd û}uu -0.1086
-4.0213 d}dd ü}uu 0.0000
-2.3243 d}dd|ei (}_ 0.0000
-0.6253 d}dd|ei </s> 0.0000
-2.3243 d}dd|ei _}kk|aa 0.0000
-1.4792 d}dd|ei a}aa -0.5196
-2.3243 d}dd|ei b}bb 0.0000
-2.0464 d}dd|ei b}bb|ei -0.0116
-1.1782 d}dd|ei c}ss|ei -0.2314
-2.3243 d}dd|ei d}dd 0.0000
-1.7987 d}dd|ei d}dd|ei -0.0376
-1.7222 d}dd|ei e}oe -0.0961
-1.0938 d}dd|ei f}ai|ff -0.7254
-1.3243 d}dd|ei g}jj|ei -0.0198
-1.3700 d}dd|ei h}aa|ch -0.4732
-1.4212 d}dd|ei i}ii -0.4111
-2.3243 d}dd|ei i}yy 0.0000
-2.0464 d}dd|ei j}jj -0.1654
-2.3243 d}dd|ei j}jj|yy 0.0000
-2.4021 d}dd|ei k}kk -0.2886
-1.7987 d}dd|ei l}ai|ll -0.1948
-1.4792 d}dd|ei m}ai|mm 0.0221
-1.7987 d}dd|ei n}ai|nn -0.3737
-1.2829 d}dd|ei p}pp|ei -0.7881
-1.4212 d}dd|ei r}ai|rr -0.2685
-1.0233 d}dd|ei s}ai|ss -0.1442
-1.6253 d}dd|ei t}tt|ei -0.2270
-2.3243 d}dd|ei u}ou 0.0000
-1.7222 d}dd|ei u}uu -0.1220
-2.0464 d}dd|ei v}vv|ei 0.0000
-2.3243 d}dd|ei w}dd|ou 0.0000
-0.2526 d}nn e|(}_ -0.7651
-0.3788 d}oe l}ll 0.0000
-0.0552 d}tt (}_ -0.4115
-1.8261 d}tt c|h}ch 0.0000
-1.8261 d}tt f}ff 0.0000
-1.1271 d}tt s}ss -0.1771
-1.5843 e|(}_ 2|)}_ 0.7676
-0.0406 e|(}_ 2|)}ee -0.1125
-1.5298 e|(}_ 3|)}_ 0.6504
-2.8752 e|(}_ 3|)}zz 2.2554
-2.7339 e|(}_ 4|)}_ 1.3090
-1.6256 e|(}_ 4|)}ee -0.2651
-3.9892 e|(}_ 4|)}zz 0.0000
-2.6090 e|(}_ 5|)}_ 0.8007
-3.9892 e|(}_ 6|)}_ 0.0000
-2.6275 e|(}_ 6|)}ee 0.2632
-2.8431 e|(}_ 7|)}_ 0.8282
-3.7113 e|(}_ 9|)}_ -0.1496
-1.9777 e|a}ii </s> 0.0000
-2.0555 e|a}ii c}kk 0.0000
-2.0555 e|a}ii c}ss 0.0000
-0.8985 e|a}ii d}dd -0.3279
-1.3757 e|a}ii g}gg -0.0863
-1.9777 e|a}ii g}gg|oe 0.0000
-1.9777 e|a}ii h}_ 0.0000
-1.6999 e|a}ii k}kk 0.0000
-1.1326 e|a}ii l}ll -0.0654
-1.2788 e|a}ii m}mm -0.1851
-0.8316 e|a}ii n}nn -0.3442
-0.7473 e|a}ii r}rr -0.1991
-1.3757 e|a}ii s}ss -0.1486
-1.2788 e|a}ii s}zz -0.0948
-1.3757 e|a}ii t|h}ff 0.1782
-1.9777 e|a}ii t}_ 0.0000
-0.9777 e|a}ii t}tt -0.2691
-2.0555 e|a}ii v}vv 0.0000
-0.4771 e|f}ei </s> 0.0000
-0.4771 e|f}ei s|(}_ 0.0000
-1.7882 e|i}ai </s> 0.0000
-2.2093 e|i}ai c|h}ch 0.0000
-2.4871 e|i}ai c}kk 0.0000
-1.7882 e|i}ai d}dd -0.0725
-2.4871 e|i}ai e|r}ei 0.0000
-2.5649 e|i}ai f|f}ff -0.2462
-0.5733 e|i}ai g|n}gn -0.1247
-1.7882 e|i}ai g}_ -0.2193
-2.4871 e|i}ai g}gg 0.0000
-1.1069 e|i}ai g}jj -0.3644
-1.9615 e|i}ai k}kk -0.2641
-2.5649 e|i}ai l|l}_ -0.2940
-1.5840 e|i}ai l|l}ll -0.9496
-2.2093 e|i}ai l}ll 0.0000
-2.2093 e|i}ai m}mm -0.1640
-2.2093 e|i}ai n|t}_ 0.0000
-0.4785 e|i}ai n}nn -0.4654
-1.3110 e|i}ai r}rr -0.3736
-2.4871 e|i}ai s|h}ch 0.0000
-2.5649 e|i}ai s}_ -0.1367
-2.2093 e|i}ai s}ss -0.1585
-2.4871 e|i}ai s}zz 0.0000
-2.2093 e|i}ai t}tt 0.0000
-1.8851 e|i}ai x}kk|ss -0.2290
-1.1447 e|i}ai z}zz -0.4250
-0.3783 e|m}an b}bb -1.1344
-2.9727 e|m}an c}ss 0.0000
-1.4813 e|m}an m}mm -0.5991
-2.2737 e|m}an p|h}ff -0.1431
-1.4164 e|m}an p}_ -1.6360
-0.3006 e|m}an p}pp -0.7464
-2.9727 e|m}an t}tt 0.0000
-2.9727 e|m}an v}vv 0.0000
-0.6021 e|m}in b}bb 0.0000
-0.3242 e|m}in p}pp -1.5539
-0.2912 e|n}_ t}_ -2.5416
-0.3121 e|n}_ t}tt -2.5236
-3.2312 e|n}_ w}oe|vv 0.0000
-0.4771 e|n}aa s}ss 0.0000
-0.4771 e|n}aa t}tt 0.0000
-1.0414 e|n}ai d}dd 0.0000
-0.1383 e|n}ai t}tt -0.9060
-1.0414 e|n}ai w}vv 0.0000
-4.0221 e|n}an (}_ 0.0000
-4.0221 e|n}an (}nn 0.0000
-2.8304 e|n}an -}_ -0.2983
-3.4187 e|n}an </s> 0.0000
-1.7920 e|n}an _}_ -0.4350
-2.6019 e|n}an _}nn -0.6222
-3.9443 e|n}an b}bb 0.0000
-1.8761 e|n}an c|h}ch -0.6283
-3.9443 e|n}an c}_ 0.0000
-1.6390 e|n}an c}kk -1.5050
-1.1157 e|n}an c}ss -0.8088
-2.2201 e|n}an d}_ -1.1117
-1.0159 e|n}an d}dd -0.7303
-2.5130 e|n}an d}tt -0.5242
-1.7568 e|n}an f}ff -1.3412
-3.6665 e|n}an g|u}gg -0.1716
-3.6665 e|n}an g}_ 0.0000
-1.9400 e|n}an g}gg -0.8027
-2.3423 e|n}an g}jj -0.3615
-4.0221 e|n}an h}_ -0.2119
-2.5826 e|n}an j}jj -0.6374
-2.3646 e|n}an l}ll -1.0759
-2.5130 e|n}an n}nn -0.9999
-4.0221 e|n}an p}pp 0.0000
-2.5294 e|n}an q|u}kk -0.5993
-4.0221 e|n}an q}kk 0.0000
-1.9999 e|n}an r}rr -0.6550
-3.0992 e|n}an s|(}_ 0.0515
-2.9901 e|n}an s}_ -0.6189
-1.1817 e|n}an s}ss -1.4944
-3.9443 e|n}an s}zz 0.0000
-0.6490 e|n}an t}_ -2.3288
-1.6221 e|n}an t}ss -0.6011
-0.4457 e|n}an t}tt -1.1862
-1.6019 e|n}an v}vv -1.8411
-3.9443 e|n}an z|(}_ 0.0000
-2.9901 e|n}an z}zz -0.1945
-2.7402 e|n}an ç}ss -0.1047
-0.0057 e|n}ee t}tt -1.8261
-1.4424 e|n}in (}_ -0.3220
-2.4354 e|n}in (}nn 0.3423
-2.2620 e|n}in -}_ -0.1628
-2.3589 e|n}in -}nn -0.0597
-0.6126 e|n}in </s> 0.0000
-1.7305 e|n}in _}_ -0.1960
-2.9609 e|n}in _}nn 0.0000
-2.6831 e|n}in c}kk -0.1658
-0.8782 e|n}in d}dd -1.1889
-2.0579 e|n}in f}ff -0.3251
-2.6831 e|n}in g}gg -1.4637
-2.9609 e|n}in g}jj 0.0000
-3.0387 e|n}in h}nn -0.0597
-2.6831 e|n}in j}jj -1.5101
-3.0387 e|n}in q|u}kk -0.2446
-0.6599 e|n}in s|(}_ -0.8065
-0.6891 e|n}in s}_ -1.5809
-1.5630 e|n}in s}ss -1.3082
-1.5807 e|n}in t}_ -1.0282
-1.4985 e|n}in t}tt -0.6759
-1.7568 e|n}in v}vv -0.5446
-2.9609 e|n}in z}zz 0.0000
-0.6798 e|r}ai -}_ 0.0000
-0.6798 e|r}ai n}nn -0.2909
-1.4445 e|r}ei (}_ -0.5025
-3.2159 e|r}ei -}_ 0.0000
-0.0982 e|r}ei </s> 0.0000
-2.7948 e|r}ei _}_ -0.0083
-1.6364 e|r}ei r}rr -0.3332
-3.4937 e|r}ei r}ww 0.0000
-1.1799 e|r}ei s|(}_ -1.1230
-1.1282 e|r}ei s}_ -2.0320
-0.3010 e|r}ii s}_ 0.0000
-3.2908 e|s}_ (|1}_ -0.2369
-2.5859 e|s}_ -}_ -0.3265
-0.0046 e|s}_ </s> 0.0000
-2.9133 e|s}_ _}_ 0.0924
-3.8164 e|s}_ c|h}ch 0.0000
-2.5153 e|s}_ s}_ -1.3211
-2.8621 e|s}_ s}ss -0.0902
-2.9133 e|s}_ t}tt -0.2437
-2.4537 e|u}ee -}_ -0.1286
-2.7316 e|u}ee </s> 0.0000
-1.8865 e|u}ee b}bb -0.8070
-2.8094 e|u}ee c}kk 0.0000
-1.8865 e|u}ee c}ss -0.8809
-1.6524 e|u}ee d}dd -0.5050
-1.6524 e|u}ee g}gg -1.0774
-2.8094 e|u}ee g}jj -0.2627
-1.3336 e|u}ee i}yy -1.3771
-1.7773 e|u}ee l}ll -0.3806
-1.8285 e|u}ee m}mm -0.2068
-1.3892 e|u}ee n}nn -0.4689
-1.7773 e|u}ee p|h}ff -0.7984
-1.4094 e|u}ee p}pp -1.3028
-2.8094 e|u}ee r|r}rr 0.0000
-0.4986 e|u}ee r}rr -0.8786
-2.8094 e|u}ee s}ss -0.1835
-0.6709 e|u}ee s}zz -1.0696
-0.9757 e|u}ee t}tt -0.9525
-1.1188 e|u}ee v}vv -0.5561
-1.7316 e|u}ee x}_ -1.0302
-2.7316 e|u}ee z}zz 0.0000
-2.6101 e|u}eu (}_ 0.4375
-1.3371 e|u}eu </s> 0.0000
-1.7351 e|u}eu _}_ -0.2538
-3.2122 e|u}eu c|h}ch 0.0000
-3.2122 e|u}eu c}_ 0.0000
-3.2122 e|u}eu c}kk 0.0000
-2.9343 e|u}eu d}_ 0.0000
-2.3671 e|u}eu d}dd -0.0610
-2.6101 e|u}eu e|s}_ 1.7176
-2.2579 e|u}eu e}_ 0.1708
-3.2900 e|u}eu e}ai -0.1681
-3.2122 e|u}eu e}yy 0.0000
-2.9343 e|u}eu f}ff -0.1552
-3.2900 e|u}eu g}_ -0.1329
-3.2900 e|u}eu g}gg 0.0000
-2.3091 e|u}eu g}jj -0.2648
-2.6101 e|u}eu h}_ -0.1169
-3.2900 e|u}eu i}yy -0.2569
-2.2579 e|u}eu l}ll -0.1253
-2.5132 e|u}eu m}mm -0.0864
-1.9817 e|u}eu n}nn -0.3732
-3.2122 e|u}eu o}oo 0.0000
-3.2900 e|u}eu p|h}ff -0.2810
-1.1910 e|u}eu r}rr -0.8650
-3.2900 e|u}eu s|(}_ -0.1141
-3.2900 e|u}eu s}_ 0.0406
-2.3091 e|u}eu s}ss -0.6999
-0.3240 e|u}eu s}zz -2.4311
-2.3671 e|u}eu t}_ -0.5510
-1.5401 e|u}eu t}tt -0.4901
-2.0661 e|u}eu v}vv -0.0906
-3.2900 e|u}eu w}vv 0.0000
-0.5392 e|u}eu x}_ -0.7898
-3.2122 e|u}eu y}ii 0.0000
-2.5132 e|u}eu z}zz -0.3733
-2.1968 e|u}oe b}bb -1.0179
-3.2760 e|u}oe d}dd 0.0000
-1.8958 e|u}oe f}ff -0.8662
-2.4309 e|u}oe g}gg -0.2422
-2.7504 e|u}oe g}jj -0.1467
-2.0207 e|u}oe i|l}yy 0.1507
-1.9750 e|u}oe i}yy -1.2844
-1.9538 e|u}oe l}ll -0.3379
-1.9750 e|u}oe n}nn -0.8625
-2.4309 e|u}oe p}pp -0.8635
-2.3729 e|u}oe r|r}rr -0.1375
-0.0689 e|u}oe r}rr -2.1367
-2.9981 e|u}oe s}_ -0.1707
-3.2760 e|u}oe s}ss 0.0000
-1.7989 e|u}oe s}zz -0.8530
-3.2760 e|u}oe t}_ 0.0000
-2.3729 e|u}oe t}tt -0.1051
-1.3365 e|u}oe v}vv -1.8391
-3.3538 e|u}oe x}_ -0.2836
-3.2760 e|u}oe z}zz 0.0000
-0.2345 e|y}ei </s> 0.0000
-2.1790 e|y}ei b}bb 0.0000
-2.2568 e|y}ei c|h}ch -0.2688
-1.9011 e|y}ei d}dd -0.1663
-2.1790 e|y}ei f}ff 0.0000
-2.2568 e|y}ei g}gg 0.0000
-2.1790 e|y}ei h}_ 0.0000
-1.4800 e|y}ei l}ll -0.1796
-1.6534 e|y}ei m}mm -0.0645
-1.6534 e|y}ei n}nn 0.0000
-0.8779 e|y}ei r}rr -0.3344
-1.9011 e|y}ei s}_ -0.0149
-2.1790 e|y}ei s}ss 0.0000
-1.6534 e|y}ei s}zz -0.4413
-2.1790 e|y}ei t}_ 0.0000
-2.2568 e|y}ei t}tt 0.0000
-2.1790 e|y}ei w}ww 0.0000
-2.2568 e|y}ei z}zz 0.0000
-1.3788 e|z}ai -}_ -0.2658
-0.0458 e|z}ai </s> 0.0000
-1.9151 e|z}ei (|1}_ 0.0000
-0.0080 e|z}ei </s> 0.0000
-2.5950 e|z}ei z}zz -0.2300
-0.2526 e|û}eu n}nn -0.2524
-4.4571 e}_ '}_ 0.0000
-4.5349 e}_ (|1}_ 0.0000
-2.1670 e}_ -}_ -0.2981
-0.3261 e}_ </s> 0.0000
-2.7943 e}_ _}_ -0.0899
-4.5349 e}_ _}ii 0.0000
-4.1792 e}_ _}nn -0.1642
-2.4703 e}_ a|i}ai -1.3929
-4.4571 e}_ a|m}an 0.0000
-2.2018 e}_ a|n}an -1.0344
-1.8972 e}_ a|u}au -0.7400
-2.7581 e}_ a|u}oo -0.8301
-4.4571 e}_ a|y}ei 0.0000
-2.4659 e}_ a}aa -0.4217
-3.2530 e}_ a}ai -0.4301
-4.5349 e}_ a}ei 0.0000
-3.9315 e}_ a}oe -0.1719
-2.8660 e}_ b}bb 0.0705
-3.2530 e}_ c|h}ch -0.3088
-4.4571 e}_ c}_ 0.0000
-2.8338 e}_ c}kk -0.2557
-3.3431 e}_ c}ss -0.3549
-2.7328 e}_ d}dd -0.3127
-4.4571 e}_ e|r}ii 0.0000
-3.8550 e}_ e}ai -0.1176
-3.8550 e}_ e}ei -0.5587
-2.3533 e}_ e}ii -0.3500
-3.6120 e}_ f|f}ff -0.0806
-3.0421 e}_ f}ff -0.4416
-3.7581 e}_ g|u}gg -0.0779
-4.4571 e}_ g}_ 0.0000
-3.1147 e}_ g}gg -0.0391
-3.5540 e}_ g}jj -0.1289
-4.4571 e}_ h}_ 0.0000
-3.2810 e}_ i|l}yy -0.6365
-4.4571 e}_ i|m}in 0.0000
-2.1328 e}_ i|n}in -1.6386
-4.4571 e}_ i}ii 0.0000
-2.6120 e}_ i}yy -1.8134
-3.5540 e}_ j}jj -0.1793
-3.7581 e}_ k}kk -0.3549
-3.8550 e}_ l|l}ll 0.0000
-2.1970 e}_ l}ll -0.3898
-2.2612 e}_ m}mm -0.7495
-4.1792 e}_ n|n}nn -0.0831
-1.3564 e}_ n|t}ee -0.3003
-2.3365 e}_ n}nn -0.0432
-3.0421 e}_ o|n}on -0.7306
-4.4571 e}_ o|u}ou 0.0000
-2.9800 e}_ o}_ -0.5425
-3.6120 e}_ o}au -0.6632
-2.9519 e}_ o}oo -0.4280
-3.0257 e}_ p}pp -0.2072
-4.5349 e}_ q|u}kk -0.2942
-1.7850 e}_ r}rr -0.9397
-0.4399 e}_ s|(}_ -1.0240
-2.6058 e}_ s}ss -0.6863
-4.4571 e}_ s}tt 0.0000
-2.4359 e}_ s}zz -0.9619
-3.3431 e}_ t}_ -0.7802
-2.6789 e}_ t}tt -0.1771
-3.7581 e}_ u|f}eu -0.0409
-4.4571 e}_ u|n}un 0.0000
-3.7581 e}_ u|r}eu -0.0159
-3.3431 e}_ u}uu -0.0487
-2.4659 e}_ v}vv -0.0740
-3.2530 e}_ w}ou -0.4175
-3.5028 e}_ w}ou|vv -0.0677
-4.5349 e}_ w}uu|ou 0.0000
-4.5349 e}_ w}vv -0.2889
-4.5349 e}_ w}ww 0.0000
-2.5878 e}_ y}ai 0.0698
-3.7581 e}_ y}ii -0.3545
-4.4571 e}_ y}yy 0.0000
-2.2868 e}_ z|(}ei -0.7309
-4.4571 e}_ z}ss 0.0000
-4.1792 e}_ z}zz -0.1536
-3.9315 e}_ ô}au -0.2596
-4.5349 e}_ ô}oo -0.1338
-4.5349 e}_ û}uu 0.0000
-2.3118 e}aa a|u}au 0.0000
-0.3250 e}aa i}ii -0.4630
-0.8968 e}aa i}yy -1.3496
-1.7097 e}aa l|l}ll -0.1227
-0.5264 e}aa m|m}mm -0.8676
-1.1656 e}aa n|n}nn -0.7104
-2.3895 e}aa n}nn 0.0000
-0.3010 e}aa|rr _}au|bb 0.0000
-3.6620 e}ai (}_ 0.5596
-3.7384 e}ai </s> 0.0000
-3.2226 e}ai _}_ -1.0390
-4.2640 e}ai _}nn 0.0000
-4.2640 e}ai a|t}vv 0.0000
-4.3418 e}ai a}aa 0.0000
-3.3098 e}ai b}_ 0.1998
-2.7727 e}ai b}bb -0.5736
-2.9853 e}ai c|h}ch -0.4883
-2.4647 e}ai c}_ -0.8115
-1.2060 e}ai c}kk -1.8295
-4.3418 e}ai c}ss -0.1817
-2.9023 e}ai d}_ -0.2966
-2.3098 e}ai d}dd -0.5146
-4.3418 e}ai f|-}_ -0.1529
-1.9177 e}ai f|f}ff -0.5455
-4.3418 e}ai f|s}_ -0.0395
-2.4932 e}ai f}ff -0.9548
-3.3609 e}ai g}_ -0.9116
-4.2640 e}ai g}dd|ei 0.0000
-2.7325 e}ai g}gg -0.4611
-4.3418 e}ai g}jj -0.2908
-3.0336 e}ai h}_ -0.4166
-2.7589 e}ai i|l}yy -0.1627
-3.2226 e}ai i}ii -0.5207
-1.8474 e}ai i}yy -1.5914
-3.7384 e}ai j}jj -0.1692
-2.7589 e}ai k}kk -0.9129
-1.0703 e}ai l|l}ll -0.6935
-1.3098 e}ai l}ll -1.3396
-3.1501 e}ai m|m}mm -0.2052
-2.2470 e}ai m}mm -0.9400
-3.9862 e}ai n|i}gn -1.2254
-1.3336 e}ai n|n}nn -1.3051
-3.3609 e}ai n|t}_ 0.1246
-1.5564 e}ai n}nn -1.0731
-3.9862 e}ai o}oo -0.1387
-3.3609 e}ai p|h}ff -0.1940
-3.0879 e}ai p|p}pp -0.3950
-3.0879 e}ai p}_ -0.7707
-1.8678 e}ai p}pp -1.6583
-4.2640 e}ai q|u}kk 0.0000
-3.6620 e}ai q}kk -0.5036
-3.6620 e}ai r|f}rr -0.0597
-1.4471 e}ai r|r}rr -0.7741
-4.2640 e}ai r|r}ww 0.0000
-4.3418 e}ai r|z}rr 0.0000
-0.5967 e}ai r}rr -1.9681
-3.3609 e}ai s|(}_ 0.0134
-3.7384 e}ai s|h}ch -0.2315
-1.2584 e}ai s}_ -1.3496
-0.9615 e}ai s}ss -1.9581
-2.9418 e}ai s}zz -0.5813
-3.6620 e}ai t|h}ff 0.0411
-1.0245 e}ai t}_ -0.8362
-4.2640 e}ai t}dd 0.0000
-4.2640 e}ai t}ss 0.0000
-1.9216 e}ai t}tt -0.8870
-2.7199 e}ai v}ff -1.3542
-2.8016 e}ai v}vv -0.3825
-3.9862 e}ai w}vv -0.1696
-3.1501 e}ai w}ww -0.3915
-4.2640 e}ai x}_ 0.0000
-1.5624 e}ai x}gg|zz -0.1714
-2.1921 e}ai x}kk -0.2030
-1.3156 e}ai x}kk|ss -0.6648
-4.2640 e}ai x}ss 0.0000
-3.0879 e}ai y}yy -0.1658
-4.2640 e}ai z|z}zz 0.0000
-3.4189 e}ai z}dd 0.9387
-4.2640 e}ai z}dd|zz 0.0000
-3.2640 e}ai z}ss -0.2742
-2.4189 e}ai z}zz -0.9143
-4.3418 e}ai ï}yy -0.2911
-3.9320 e}ee (|1}_ -1.4679
-2.1646 e}ee (}_ -2.0146
-1.6078 e}ee -}_ -1.1126
-1.8655 e}ee </s> 0.0000
-1.6476 e}ee _}_ -0.6769
-4.2099 e}ee _}nn 0.0000
-4.2099 e}ee a}_ 0.0000
-4.2099 e}ee a}aa 0.0000
-2.0196 e}ee b}bb -0.0235
-2.4465 e}ee c|h}ch -0.3723
-2.9089 e}ee c}gg -0.5414
-1.5606 e}ee c}kk -0.9861
-2.1454 e}ee c}ss -0.7088
-1.8154 e}ee d}dd -0.5416
-4.2877 e}ee f|f}ff -0.2462
-2.0004 e}ee f}ff -0.6134
-3.2556 e}ee g|u}gg 0.0324
-3.6078 e}ee g}_ -0.0980
-2.0280 e}ee g}gg -0.6884
-2.5378 e}ee g}jj -0.7733
-2.8675 e}ee h}_ -0.4704
-3.6843 e}ee i}ai -0.2304
-3.2099 e}ee i}yy -1.0035
-2.3466 e}ee j}jj -0.5682
-3.6843 e}ee k}kk -0.1351
-3.3648 e}ee l|l}ll -0.1941
-1.2789 e}ee l}ll -1.0192
-0.8286 e}ee m}mm -1.3823
-4.2877 e}ee n|n}nn 0.0000
-1.1850 e}ee n}nn -0.8350
-3.9320 e}ee p|h}ff -0.0563
-1.5396 e}ee p}pp -0.5048
-2.6536 e}ee q|u}kk -0.6281
-0.8602 e}ee r}rr -1.4078
-0.5378 e}ee s|(}_ -3.4210
-2.0168 e}ee s}_ -0.7930
-2.5109 e}ee s}ss -0.4101
-2.0485 e}ee s}zz -0.3319
-1.4317 e}ee t}tt -1.2541
-3.6843 e}ee u|x}zz 0.6049
-1.3090 e}ee v}vv -0.7612
-3.5109 e}ee w}vv -0.0971
-3.3648 e}ee z}zz -0.0011
-2.7047 e}ee ç}ss -0.7150
-4.2099 e}ee è}ai 0.0000
-3.5109 e}ee ï}ii -0.1739
-4.2099 e}ee ï}yy 0.0000
-0.3010 e}ee|mm r}yy|ei 0.0000
-2.1850 e}ei (}_ -0.3217
-2.8170 e}ei -}_ -0.2077
-1.6247 e}ei </s> 0.0000
-3.6621 e}ei _}_ 0.0000
-3.7399 e}ei _}tt 0.2963
-3.6621 e}ei a|u}oo 0.0000
-2.1436 e}ei a}aa -0.5110
-3.6621 e}ei b}_ 0.0000
-2.1707 e}ei b}bb -0.2254
-2.6207 e}ei c|h}ch -0.0364
-2.4580 e}ei c}_ -0.5064
-1.9461 e}ei c}kk -0.3502
-2.5160 e}ei c}ss -0.2729
-3.6621 e}ei c}ss|ei 0.0000
-2.3197 e}ei d}_ -0.7857
-1.6844 e}ei d}dd -0.5729
-3.7399 e}ei d}tt 0.6282
-3.6621 e}ei e|u}eu 0.0000
-3.3842 e}ei e}ai -0.1721
-3.7399 e}ei e}ei 0.0000
-3.6621 e}ei e}ei|eu 0.0000
-2.6621 e}ei f|f}ff -0.2473
-3.6621 e}ei f|s}_ 0.0000
-2.4580 e}ei f}ff -0.1527
-3.6621 e}ei g}_ 0.0000
-3.6621 e}ei g}dd 0.0000
-2.0710 e}ei g}gg -0.3438
-2.9631 e}ei g}jj -0.3772
-2.1997 e}ei h}_ -0.0771
-1.9993 e}ei i}_ -0.2665
-2.3004 e}ei i}ii -0.3909
-2.6207 e}ei i}yy -2.0637
-2.7079 e}ei j}jj -0.1754
-3.6621 e}ei k|k}kk 0.0000
-2.1306 e}ei k}kk -0.1187
-1.8912 e}ei l|l}ll -0.1645
-1.4092 e}ei l}ll -0.5994
-2.7079 e}ei m|m}mm -0.4175
-1.7176 e}ei m}mm -0.3016
-2.4860 e}ei n|n}nn -0.3730
-1.4316 e}ei n}nn -0.5065
-3.6621 e}ei o|n}on 0.0000
-2.4068 e}ei o}au -0.3300
-2.7590 e}ei o}oo -0.1768
-3.7399 e}ei p|h}ff 0.0000
-3.7399 e}ei p|p}pp -0.2870
-2.1997 e}ei p}pp -0.2241
-3.3842 e}ei q|u}kk -0.1397
-3.7399 e}ei q}kk 0.0000
-0.3109 e}ei r}rr -1.7112
-2.0089 e}ei s|(}_ -1.4308
-3.7399 e}ei s|h}ch 0.0000
-1.2837 e}ei s}_ -0.3060
-1.7645 e}ei s}ss -0.4580
-2.1569 e}ei s}zz -0.6134
-1.7127 e}ei t}_ -1.8436
-1.6709 e}ei t}tt -0.4821
-3.3842 e}ei u}oo -0.0411
-3.3842 e}ei u}ou 0.0000
-3.7399 e}ei u}uu 0.0000
-1.7988 e}ei v}vv -0.1900
-2.6207 e}ei w}vv -0.5663
-2.7590 e}ei w}ww 0.0430
-2.6621 e}ei x}gg|zz -1.0225
-2.3611 e}ei x}kk|ss -0.0030
-2.6621 e}ei y}yy -0.1293
-3.6621 e}ei z}dd 0.0000
-1.1010 e}ei z}zz -1.2245
-2.6621 e}ei ï}ii -0.1405
-3.7399 e}ei ï}yy -0.2633
-3.6621 e}ei ñ}gn 0.0000
-1.6798 e}ei|eu (}_ 0.4026
-1.6021 e}ei|eu 2}dd|eu 0.0000
-0.2041 e}ei|eu </s> 0.0000
-1.3242 e}ei|eu a}aa -0.1485
-1.6798 e}ei|eu d}dd|ei 0.0000
-1.6021 e}ei|eu e}eu 0.0000
-1.6021 e}ei|eu g}jj|ei 0.0000
-1.6798 e}ei|eu i}ii -0.2799
-1.6021 e}ei|eu p}pp|ei 0.0000
-1.6021 e}ei|eu r}ai|rr 0.0000
-1.6021 e}ei|eu t}tt|ei 0.0000
-0.3010 e}ei|oe </s> 0.0000
-1.8129 e}eu (}_ 0.0000
-1.8129 e}eu -}_ 0.0000
-0.3979 e}eu </s> 0.0000
-1.8129 e}eu _}_ 0.0000
-1.5351 e}eu a}aa -0.1485
-1.8129 e}eu b}bb|ei 0.0000
-1.8907 e}eu c}ss|ei 0.0000
-1.8907 e}eu d}dd -0.2205
-1.8907 e}eu d}dd|ei -0.2583
-1.8907 e}eu f}ai|ff 0.0000
-1.8129 e}eu j}jj|yy 0.0000
-1.8129 e}eu k}kk 0.0000
-1.8129 e}eu m}ai|mm 0.0000
-1.8129 e}eu p}pp 0.0000
-1.5351 e}eu p}pp|ei 0.0000
-1.8907 e}eu r}ai|rr -0.1373
-1.8907 e}eu r}rr 0.0000
-1.8907 e}eu s}_ -0.1367
-1.5351 e}eu s}ai|ss 0.0000
-1.2109 e}eu t}tt -0.1132
-1.8129 e}eu t}tt|ei 0.0000
-1.8907 e}eu u|x}zz 0.6595
-1.8129 e}eu z}zz 0.0000
-1.6580 e}ii -}_ -0.5683
-0.9176 e}ii </s> 0.0000
-2.2601 e}ii a}aa 0.0000
-1.9822 e}ii a}ai 0.0000
-2.3379 e}ii a}tt 0.0000
-1.6580 e}ii b}bb -0.1201
-2.2601 e}ii c|h}ch 0.0000
-1.0840 e}ii d}dd -0.4105
-1.9822 e}ii e|(}_ -1.5695
-2.3379 e}ii e|s}_ 1.6827
-1.6580 e}ii e}_ -0.1208
-1.6580 e}ii f}ff -0.1051
-1.3058 e}ii k}kk -0.3922
-1.4150 e}ii l}ll -0.0207
-1.5611 e}ii m}mm -0.2173
-0.7977 e}ii n}nn -0.3656
-1.1461 e}ii p}pp -0.2795
-1.1809 e}ii r}rr -0.5368
-1.6580 e}ii s|(}_ -0.0197
-2.3379 e}ii s}ss 0.0000
-1.3570 e}ii s}zz -0.3826
-2.3379 e}ii t}_ 0.0573
-1.2601 e}ii t}tt -0.0268
-1.2187 e}ii v}vv -0.1132
-1.6580 e}ii w}ww -0.1061
-2.2601 e}ii z}dd 0.0000
-1.5482 e}oe (}_ -0.8836
-1.2240 e}oe </s> 0.0000
-1.9039 e}oe a}aa 0.0000
-1.8261 e}oe c}ss|ei 0.0000
-1.8261 e}oe d}dd|ei 0.0000
-1.9039 e}oe l}ll 0.0000
-1.9039 e}oe n}nn -0.2710
-1.8261 e}oe p}pp|ei 0.0000
-0.1926 e}oe r}rr -1.0320
-1.2240 e}oe s}ai|ss -0.2699
-1.5482 e}oe s}ss 0.0000
-1.8261 e}oe u}oe 0.0000
-0.5816 e}yy (}_ -0.8760
-2.2718 e}yy -}_ 0.0000
-2.2718 e}yy -}ee 0.0000
-0.7278 e}yy </s> 0.0000
-2.2718 e}yy a|u}au 0.0000
-2.2718 e}yy a}oe 0.0000
-1.9940 e}yy n|t}an 0.0000
-2.2718 e}yy n|t}ee 0.0000
-1.7462 e}yy n}ai -0.0661
-0.9496 e}yy r|(}ei -0.2808
-1.7462 e}yy r}rr -0.1815
-1.6698 e}yy s|(}_ -0.1209
-1.6698 e}yy s}_ -0.2338
-2.2718 e}yy s}ai|ss 0.0000
-1.3176 e}yy u|x}eu -0.0597
-2.2718 e}yy u}ee 0.0000
-1.4267 e}yy u}oe -0.7863
-2.3496 e}yy u}ou -0.2568
-1.0166 e}yy w}ou -0.0213
-2.2718 e}yy y}ai 0.0000
-1.0958 e}yy z|(}ei -0.4240
-0.5549 f|-}_ d}dd -0.2914
-0.4771 f|-}_ v}vv 0.0000
-3.1153 f|f}ff (}_ 0.0000
-1.5838 f|f}ff </s> 0.0000
-3.1153 f|f}ff _}_ 0.0000
-1.3993 f|f}ff a|i}ai -0.6962
-2.4163 f|f}ff a|n}an -0.2866
-3.1153 f|f}ff a|u}au 0.0000
-1.3229 f|f}ff a}aa -0.6818
-1.8600 f|f}ff e|(}_ 0.0954
-3.1931 f|f}ff e|n}_ 0.0000
-1.7351 f|f}ff e|n}an -1.3684
-3.1153 f|f}ff e|n}ee 0.0000
-2.2122 f|f}ff e|r}ei -0.2605
-2.2702 f|f}ff e|s}_ 1.0744
-3.1931 f|f}ff e|u}eu -0.0156
-2.2122 f|f}ff e|u}oe -0.1207
-1.5712 f|f}ff e}_ -0.5934
-0.9754 f|f}ff e}ai -1.2932
-1.8848 f|f}ff e}ee -0.4626
-2.2122 f|f}ff e}ei -0.6628
-3.1153 f|f}ff e}oe 0.0000
-2.5132 f|f}ff i|n}in -0.2146
-0.6681 f|f}ff i}ii -1.2744
-2.0739 f|f}ff i}yy -0.0640
-1.1376 f|f}ff l}ll -0.6038
-3.1931 f|f}ff m}mm -0.2042
-3.1153 f|f}ff n}nn 0.0000
-1.7351 f|f}ff o|n}on -0.5727
-2.5132 f|f}ff o|u}ou -0.1616
-3.1931 f|f}ff o}au -0.2894
-1.4251 f|f}ff o}oo -1.4756
-0.7517 f|f}ff r}rr -0.9823
-3.1931 f|f}ff s|h}ch -0.2703
-3.1153 f|f}ff s}_ 0.0000
-3.1153 f|f}ff s}ss 0.0000
-1.3671 f|f}ff u}uu -0.8344
-3.1931 f|f}ff y}ii 0.0000
-2.4163 f|f}ff è}ai -0.5247
-1.3159 f|f}ff é}ai -1.7381
-1.4718 f|f}ff é}ei -0.9860
-3.1931 f|f}ff û}uu 0.0000
-0.3522 f|s}_ -}_ -0.2158
-0.3522 f|s}_ </s> 0.0000
-1.8455 f}ai|ff (}_ -0.8448
-2.0932 f}ai|ff -}_ 0.0000
-2.3711 f}ai|ff -}ai 0.0000
-2.3711 f}ai|ff 1}dd 0.0000
-2.3711 f}ai|ff 1}ss|an 0.0000
-2.4489 f}ai|ff 1}un 0.0608
-0.4903 f}ai|ff </s> 0.0000
-2.3711 f}ai|ff _}kk|aa 0.0000
-2.3711 f}ai|ff _}ss|ai 0.0000
-1.3297 f}ai|ff a}aa -0.1313
-2.3711 f}ai|ff b}bb 0.0000
-2.4489 f}ai|ff b}bb|ei 0.0000
-2.4489 f}ai|ff c}ss -0.2938
-1.4168 f}ai|ff c}ss|ei -0.2323
-1.3297 f}ai|ff d}dd|ei 0.0398
-1.6721 f}ai|ff e}eu -0.1593
-1.2571 f}ai|ff f}ai|ff 0.0873
-1.7690 f}ai|ff g}jj|ei -0.1090
-2.3711 f}ai|ff h}aa|ch 0.0000
-2.3711 f}ai|ff i}dd|eu 0.0000
-1.3711 f}ai|ff i}ii -0.2293
-2.4489 f}ai|ff i}yy 0.0000
-2.3711 f}ai|ff j}jj 0.0000
-2.4489 f}ai|ff k}kk -0.2886
-1.4680 f}ai|ff l}ai|ll -0.1250
-1.3297 f}ai|ff m}ai|mm -0.2881
-1.2919 f}ai|ff n}ai|nn -0.0041
-2.4489 f}ai|ff o}au -0.1631
-2.3711 f}ai|ff p}pp 0.0000
-1.2571 f}ai|ff p}pp|ei -0.1133
-1.5260 f}ai|ff r}ai|rr 0.0282
-1.4680 f}ai|ff s}ai|ss 0.0998
-1.7690 f}ai|ff t}tt|ei -0.0983
-2.4489 f}ai|ff u}uu -0.2831
-2.6988 f}ff (}_ -0.5191
-4.0070 f}ff -}_ 0.0000
-1.3977 f}ff </s> 0.0000
-3.3272 f}ff _}_ -0.0813
-3.9292 f}ff _}aa 0.0000
-3.9292 f}ff _}aa|yy 0.0000
-1.7333 f}ff a|i}ai -0.7972
-2.3610 f}ff a|i}ee 0.0000
-4.0070 f}ff a|i}eu -0.0597
-4.0070 f}ff a|l}oo 0.2888
-1.9424 f}ff a|n}an -0.7072
-2.1968 f}ff a|u}au -0.4338
-2.0484 f}ff a|u}oo -0.5487
-3.3272 f}ff a|y}ai -0.1194
-3.9292 f}ff a|y}ei 0.0000
-3.4036 f}ff a|î}ai -0.0209
-3.9292 f}ff a}_ 0.0000
-0.9983 f}ff a}aa -1.0056
-3.9292 f}ff a}ai 0.0000
-3.9292 f}ff a}ei 0.0000
-3.9292 f}ff a}oe 0.0000
-3.9292 f}ff c|h}ch 0.0000
-3.9292 f}ff c}kk 0.0000
-3.9292 f}ff c}ss 0.0000
-3.9292 f}ff d}dd 0.0000
-3.0261 f}ff e|(}_ 0.1466
-3.9292 f}ff e|a}ii 0.0000
-3.3272 f}ff e|i}ai -0.4342
-2.0780 f}ff e|n}an -1.7367
-2.6988 f}ff e|r}ei -0.1800
-4.0070 f}ff e|s}_ 1.6827
-2.4668 f}ff e|u}ee -1.4054
-2.7531 f}ff e|u}eu -0.0722
-2.6070 f}ff e|u}oe 0.1102
-2.5313 f}ff e}_ -0.1160
-2.8153 f}ff e}aa -0.9606
-1.2525 f}ff e}ai -1.0827
-2.2480 f}ff e}ee -0.5889
-2.2858 f}ff e}ei -0.1765
-3.9292 f}ff f}ff 0.0000
-3.0261 f}ff g}gg -0.2234
-2.4668 f}ff i|n}in -0.6578
-3.9292 f}ff i|r}oe 0.0000
-0.8106 f}ff i}ii -0.6648
-3.9292 f}ff i}oe 0.0000
-1.2809 f}ff i}yy -1.0839
-3.6514 f}ff j}yy -1.4718
-3.4036 f}ff k}kk -1.4276
-1.1210 f}ff l}ll -0.9849
-3.2302 f}ff m}mm -0.6876
-3.0841 f}ff n}nn -0.2925
-4.0070 f}ff o|i}ww -0.2794
-1.4899 f}ff o|n}on -1.1359
-2.8500 f}ff o|o}ou -0.8537
-1.5330 f}ff o|u}ou -0.6262
-3.3272 f}ff o|u}ww -0.1436
-2.3977 f}ff o}_ -0.5407
-2.3272 f}ff o}au -0.2852
-1.0617 f}ff o}oo -1.1859
-3.9292 f}ff o}ww 0.0000
-3.6514 f}ff o}ww|aa 0.6121
-3.3272 f}ff p}pp -0.0259
-0.9402 f}ff r}rr -1.5076
-1.8086 f}ff s|(}_ -1.4585
-1.7709 f}ff s}_ -1.5054
-3.9292 f}ff s}ch 0.0000
-4.0070 f}ff s}ss 0.0000
-3.6514 f}ff t}_ -1.2289
-2.3851 f}ff t}tt -0.4896
-3.6514 f}ff u|m}un 0.0000
-2.9750 f}ff u|n}un -0.3574
-4.0070 f}ff u}oe -0.2261
-3.6514 f}ff u}ou 0.0000
-1.3282 f}ff u}uu -1.0084
-2.3382 f}ff u}uy -0.6999
-3.9292 f}ff u}yy|ou 0.0000
-3.6514 f}ff y}ii -1.4489
-2.6070 f}ff â}aa -1.1967
-2.1163 f}ff è}ai -0.6557
-1.4323 f}ff é}ai -1.7831
-2.2571 f}ff é}ei -0.1763
-2.5490 f}ff ê}ai -0.5944
-3.9292 f}ff ê}ei 0.0000
-4.0070 f}ff î}ii 0.0000
-3.0261 f}ff û}uu -0.2834
-3.3272 f}ff ü}uu -0.5355
-0.3788 g|-}kk e|n}an -0.2941
-1.1559 g|n}gn a|i}ai -2.2893
-0.9679 g|n}gn a|n}an -1.0660
-3.0910 g|n}gn a|u}au -0.1622
-0.9880 g|n}gn a}aa -0.9058
-1.2003 g|n}gn e|(}_ 0.0869
-1.5661 g|n}gn e|r}ei -0.7535
-1.7345 g|n}gn e|s}_ 0.6765
-3.0910 g|n}gn e|u}ee -0.1906
-1.7122 g|n}gn e|u}eu -0.6966
-2.1682 g|n}gn e|u}oe -0.0696
-2.4877 g|n}gn e|z}ei 1.3897
-0.8862 g|n}gn e}_ -1.1283
-1.9341 g|n}gn e}ai -1.0361
-1.1499 g|n}gn e}ee -1.0042
-1.4818 g|n}gn e}ei -0.7382
-1.1807 g|n}gn i}ii -1.2697
-2.1682 g|n}gn i}yy -0.2203
-1.5081 g|n}gn o|n}on -1.2372
-2.0133 g|n}gn o}_ -0.0925
-1.1212 g|n}gn o}oo -1.0565
-3.0133 g|n}gn y}ii 0.0000
-1.6153 g|n}gn é}ai -1.3519
-0.9377 g|n}gn é}ei -1.4546
-2.0183 g|u}gg a|i}ai -0.2058
-1.7395 g|u}gg a|n}an -0.9050
-3.0183 g|u}gg a|y}ei 0.0000
-2.4927 g|u}gg a}aa -0.0167
-1.0592 g|u}gg e|(}_ 0.1123
-3.0961 g|u}gg e|n}in -0.1733
-1.5711 g|u}gg e|r}ei -1.8047
-1.2859 g|u}gg e|s}_ 0.2372
-2.4927 g|u}gg e|u}ee -0.3421
-1.9391 g|u}gg e|u}eu 0.0514
-1.7395 g|u}gg e|u}oe 0.0178
-3.0961 g|u}gg e|z}ei 1.4443
-0.7044 g|u}gg e}_ -0.3994
-0.9576 g|u}gg e}ai -0.5922
-1.1098 g|u}gg e}ee -1.3073
-1.4055 g|u}gg e}ei -0.0378
-3.0183 g|u}gg i|l}yy 0.0000
-1.7173 g|u}gg i|n}in -0.3010
-0.7373 g|u}gg i}ii -0.9749
-1.9391 g|u}gg i}yy -0.3036
-3.0183 g|u}gg o}au 0.0000
-2.1732 g|u}gg y}ii -0.7710
-2.3193 g|u}gg è}ai -0.5247
-1.7173 g|u}gg é}ai -0.9273
-1.0545 g|u}gg é}ei -0.2376
-3.0183 g|u}gg ê}ai 0.0000
-1.7037 g}_ (}_ -0.0429
-2.2195 g}_ -}_ -0.4286
-1.0461 g}_ </s> 0.0000
-2.2195 g}_ _}_ -0.6287
-2.8229 g}_ c|h}ch -0.2879
-2.8229 g}_ e|(}_ 0.0000
-1.0291 g}_ g}gg -0.5251
-2.7451 g}_ g}jj 0.0000
-1.5410 g}_ h}_ -1.2007
-2.7451 g}_ j}jj 0.0000
-2.7451 g}_ k}kk 0.0000
-2.7451 g}_ l}_ 0.0000
-2.7451 g}_ l}ll 0.0000
-0.6084 g}_ n}nn -1.6102
-0.5070 g}_ n}nn|yy 0.1494
-1.8420 g}_ s|(}_ -0.7735
-1.8420 g}_ s}_ -0.6189
-1.1653 g}_ t}_ -0.8736
-1.1323 g}_ t}tt -0.8754
-2.7451 g}_ w}ww 0.0000
-0.3468 g}aa n}nn -0.6500
-0.4559 g}aa n}nn|yy -0.0758
-1.0232 g}aa t}_ 0.0000
-1.3010 g}aa t}tt 0.0000
-0.0300 g}dd g}jj -0.7070
-0.3010 g}dd|ei g}jj 0.0000
-1.8751 g}dd|jj _}ii 0.0000
-1.8751 g}dd|jj e|r}ei 0.0000
-1.9528 g}dd|jj e}_ -0.2920
-0.8337 g}dd|jj e}ai -0.5561
-0.6709 g}dd|jj e}ee -0.6331
-1.8751 g}dd|jj e}ei 0.0000
-1.8751 g}dd|jj e}oe 0.0000
-0.8337 g}dd|jj i}_ -0.6770
-0.4949 g}dd|jj i}ii -0.6105
-1.2730 g}dd|jj i}yy -0.2336
-1.8751 g}dd|jj y}ii 0.0000
-1.9528 g}dd|jj é}ei 0.0000
-0.3010 g}ei|gn r}oe|rr 0.0000
-2.2300 g}gg (}_ -0.1023
-3.5319 g}gg -}_ -0.1286
-1.2899 g}gg </s> 0.0000
-3.5319 g}gg _}_ -0.1720
-3.8098 g}gg _}ei 0.0000
-2.1196 g}gg a|i}ai -0.8322
-3.2842 g}gg a|m}an -0.4572
-1.6308 g}gg a|n}an -0.4400
-3.8875 g}gg a|r}aa 0.0000
-2.0463 g}gg a|u}au -0.2302
-2.2535 g}gg a|u}oo -1.1482
-3.2077 g}gg a|y}ai 0.0000
-3.8875 g}gg a|y}ei 0.0000
-3.8098 g}gg a|ë}aa 0.0000
-3.8098 g}gg a|î}ai 0.0000
-2.8098 g}gg a}_ -0.1453
-0.6259 g}gg a}aa -0.7753
-3.2077 g}gg a}ai -0.1483
-3.8875 g}gg a}ai|yy -0.2294
-2.3948 g}gg b}bb -0.2105
-3.8098 g}gg c}kk 0.0000
-2.5310 g}gg d}dd -0.3091
-2.9647 g}gg e}_ -0.0636
-3.8098 g}gg e}aa 0.0000
-1.8855 g}gg e}ai -0.7755
-2.5545 g}gg e}ee -0.8227
-2.9647 g}gg e}ei 0.1493
-3.5319 g}gg e}oe 0.0000
-3.8875 g}gg f}ff 0.0000
-3.1108 g}gg g}gg -0.3583
-2.4118 g}gg g}jj -1.3046
-1.6827 g}gg h}_ -0.4760
-2.4118 g}gg i}ii -0.1389
-3.5319 g}gg i}oe -0.5396
-3.8875 g}gg j}jj 0.0000
-3.1108 g}gg k}kk -0.1978
-1.0929 g}gg l}ll -1.1098
-1.7270 g}gg m}mm -0.9866
-2.2416 g}gg n}nn -0.5022
-1.9837 g}gg o|n}on -0.6666
-2.8555 g}gg o|o}ou -0.2367
-1.4615 g}gg o|u}ou -0.5677
-2.6958 g}gg o|u}ww -0.3137
-3.8875 g}gg o|w}au 0.0000
-2.4673 g}gg o|û}ou 0.6486
-2.5087 g}gg o}_ -0.3369
-1.5793 g}gg o}au -0.3376
-3.8875 g}gg o}oe 0.7332
-1.1489 g}gg o}oo -0.7491
-3.8875 g}gg o}ww 1.2528
-3.8098 g}gg o}ww|aa 0.0000
-3.8098 g}gg q}kk 0.0000
-0.5962 g}gg r}rr -1.3795
-2.4118 g}gg s|(}_ -0.7292
-2.4480 g}gg s}_ -1.0448
-2.6337 g}gg s}ss -0.3577
-2.9067 g}gg s}zz -0.9494
-2.7306 g}gg t}tt -0.5355
-3.5319 g}gg u|n}un -0.1705
-2.9647 g}gg u|ë}uu -0.2117
-3.8098 g}gg u}ii 0.0000
-3.8875 g}gg u}oe 0.0000
-3.8875 g}gg u}oo 1.2451
-2.8555 g}gg u}ou -0.1810
-1.3283 g}gg u}uu -0.6641
-2.2077 g}gg u}uy 0.2619
-2.3184 g}gg u}ww -0.2732
-3.8875 g}gg v}vv 0.0000
-3.2842 g}gg w}ww -0.0013
-3.1108 g}gg y}ii -0.2490
-2.8098 g}gg y}yy -0.4113
-3.8875 g}gg z}zz 0.0000
-2.3326 g}gg â}aa -0.9881
-2.9067 g}gg ö}eu -0.5059
-3.1108 g}gg ö}oe -0.3169
-3.2077 g}gg ü}uu -0.0824
-0.6021 g}gg|gg e}_ -0.2579
-0.6021 g}gg|gg e}ai -0.2477
-0.6021 g}gg|gg e}ee -0.2306
-1.2819 g}gg|gg h}_ -0.2119
-1.2819 g}gg|gg r}rr 0.0000
-0.0969 g}gg|oe l}ll -0.5290
-0.3010 g}gn m}mm 0.0000
-3.7837 g}jj 8}ei|uy 0.0000
-3.5058 g}jj _}ai 0.0000
-3.7837 g}jj _}ai|ss 0.0000
-3.8615 g}jj _}ei|ss 0.0000
-1.1383 g}jj e|(}_ -0.3009
-3.8615 g}jj e|m}an -0.0593
-2.7837 g}jj e|n}_ 2.6188
-1.3771 g}jj e|n}an -0.9488
-3.1816 g}jj e|n}ee 1.6266
-3.1816 g}jj e|n}in -0.5075
-1.5823 g}jj e|r}ei -0.6189
-1.4574 g}jj e|s}_ -0.3488
-2.8806 g}jj e|u}ee -0.8500
-2.0203 g}jj e|u}eu -1.1453
-2.1502 g}jj e|u}oe -0.7999
-3.7837 g}jj e|y}ei 0.0000
-2.6697 g}jj e|z}ei 0.5929
-0.6441 g}jj e}_ -0.7731
-3.1816 g}jj e}aa -0.1065
-1.5610 g}jj e}ai -0.7061
-1.1162 g}jj e}ee -0.7731
-1.6134 g}jj e}ei -0.3764
-3.1816 g}jj e}ei|eu -0.1432
-3.7837 g}jj e}ii 0.0000
-3.7837 g}jj i|m}in 0.0000
-2.6697 g}jj i|n}in -0.5619
-0.6868 g}jj i}ii -0.8033
-1.4201 g}jj i}yy -0.3174
-2.0355 g}jj y}ii -1.1775
-3.7837 g}jj y}yy 0.0000
-1.5072 g}jj è}ai -0.4874
-1.1472 g}jj é}ai -1.5215
-1.1043 g}jj é}ei -1.0845
-2.3213 g}jj ê}ai -1.4490
-3.8615 g}jj ê}ei -0.2800
-2.8806 g}jj î}ii -0.7505
-2.1038 g}jj|ei (}_ 0.0000
-2.1038 g}jj|ei 1}dd 0.0000
-2.1038 g}jj|ei 1}kk|aa 0.0000
-2.1038 g}jj|ei 2}dd|eu 0.0000
-0.5356 g}jj|ei </s> 0.0000
-2.1038 g}jj|ei _}kk|aa 0.0000
-1.5017 g}jj|ei a}aa -0.0984
-1.5782 g}jj|ei b}bb|ei 0.0063
-1.2587 g}jj|ei c}ss|ei -0.4241
-1.8259 g}jj|ei d}dd|ei -0.1365
-2.1038 g}jj|ei e}oe 0.0000
-1.5782 g}jj|ei f}ai|ff -0.1201
-1.2007 g}jj|ei i}ii -0.1079
-2.1816 g}jj|ei i}yy 0.0000
-2.1038 g}jj|ei k}kk 0.0000
-1.8259 g}jj|ei l}ai|ll 0.0000
-1.2007 g}jj|ei m}ai|mm 0.0405
-1.8259 g}jj|ei n}ai|nn -0.0991
-2.1038 g}jj|ei o}oo 0.0000
-1.5782 g}jj|ei p}pp|ei -0.1271
-1.8259 g}jj|ei r}ai|rr 0.0000
-1.1496 g}jj|ei s}ai|ss -0.1953
-2.1038 g}jj|ei s}ss 0.0000
-2.1038 g}jj|ei t}tt 0.0000
-1.1496 g}jj|ei t}tt|ei 0.0286
-2.1038 g}jj|ei u}uu 0.0000
-2.1816 g}jj|ei v}vv|ei 0.0000
-0.3010 g}kk (}_ 0.0000
-0.3010 g}nn|yy è}ai 0.0000
-0.4771 g}zz e|(}_ 0.0000
-0.4771 g}zz e}_ 0.0000
-0.3010 h|Ô}oo t}tt 0.0000
-2.2423 h}_ (}_ 0.6778
-3.1454 h}_ -}_ -0.2828
-1.4596 h}_ </s> 0.0000
-3.7474 h}_ _}_ 0.0000
-1.8724 h}_ a|i}ai -0.7410
-3.8252 h}_ a|l}oo 0.2888
-2.7474 h}_ a|m}an 0.3378
-1.8666 h}_ a|n}an -0.3662
-1.8389 h}_ a|u}au -1.2323
-1.9915 h}_ a|u}oo -1.5568
-2.8443 h}_ a|w}au -0.6780
-3.1454 h}_ a|y}ai 0.0000
-3.8252 h}_ a|y}ei 0.5155
-0.7602 h}_ a}aa -0.6538
-3.2218 h}_ a}ai 0.3112
-3.7474 h}_ a}an 0.0000
-3.4696 h}_ a}au -0.8820
-3.7474 h}_ a}ei 0.0000
-3.1454 h}_ b}bb -0.5306
-3.7474 h}_ c}ss 0.0000
-3.7474 h}_ d}_ 0.0000
-2.6335 h}_ d}dd -0.1485
-2.7060 h}_ e|(}_ -0.0295
-2.9023 h}_ e|a}ii -0.1536
-3.0484 h}_ e|i}ai -0.3785
-3.7474 h}_ e|n}_ 0.0000
-3.7474 h}_ e|n}ai 0.0000
-1.9345 h}_ e|n}an -1.4912
-3.1454 h}_ e|r}ei -0.2498
-3.0484 h}_ e|s}_ 1.1994
-2.2033 h}_ e|u}ee -1.3906
-3.0484 h}_ e|u}eu -0.0749
-2.2423 h}_ e|u}oe -0.6850
-3.4696 h}_ e|y}ei 0.0000
-1.9992 h}_ e}_ 0.2367
-2.2850 h}_ e}aa -1.0792
-1.2956 h}_ e}ai -0.3959
-2.3672 h}_ e}ee 0.0016
-2.0847 h}_ e}ei 0.1448
-3.4696 h}_ e}ii -0.1684
-3.8252 h}_ e}oe 0.1511
-3.4696 h}_ f}ff -0.1600
-3.1454 h}_ h}_ -0.4863
-2.4921 h}_ i|n}in -0.6823
-3.8252 h}_ i}ai -0.1487
-1.0809 h}_ i}ii -0.5421
-3.8252 h}_ i}ii|yy 0.0000
-3.8252 h}_ i}oe 0.7466
-1.7100 h}_ i}yy -0.6134
-3.7474 h}_ j}jj 0.0000
-3.4696 h}_ k}kk -0.1600
-1.9693 h}_ l}ll -0.3852
-1.8231 h}_ m}mm -0.2841
-3.8252 h}_ n|n}nn -0.2930
-1.6682 h}_ n}nn -0.8277
-3.7474 h}_ o|m}on 0.0000
-2.2033 h}_ o|n}on -0.3623
-2.7474 h}_ o|o}ou -0.0323
-1.8029 h}_ o|u}ou -0.4307
-2.7060 h}_ o|u}ww -0.4436
-3.4696 h}_ o}_ -1.5697
-1.6013 h}_ o}au -0.1781
-3.0484 h}_ o}oe 0.8340
-0.9488 h}_ o}oo -0.6535
-3.7474 h}_ o}ou 0.0000
-3.7474 h}_ p}pp 0.0000
-1.3763 h}_ r}rr -0.9884
-3.0484 h}_ s|(}_ -0.5974
-2.6682 h}_ s}_ -0.4428
-2.7474 h}_ s}ss -0.1356
-3.4696 h}_ t}_ -0.1561
-2.1040 h}_ t}tt -0.3222
-2.8443 h}_ u|m}un -0.4536
-3.7474 h}_ u|n}un 0.0000
-2.9023 h}_ u}oe -0.2054
-3.8252 h}_ u}oo 1.2451
-3.4696 h}_ u}ou -0.1467
-1.2835 h}_ u}uu -0.3328
-1.8841 h}_ u}uy -0.0230
-2.9023 h}_ u}ww -0.2695
-2.8443 h}_ v}vv -0.8715
-3.7474 h}_ w}vv 0.0000
-3.1454 h}_ w}ww 0.0000
-3.7474 h}_ y|m}in 0.0000
-1.6575 h}_ y}ii -0.5783
-2.7932 h}_ y}yy -0.0451
-3.7474 h}_ z}zz 0.0000
-2.5713 h}_ â}aa -0.9364
-3.7474 h}_ ä}aa 0.0000
-1.7388 h}_ è}ai -1.0861
-1.0572 h}_ é}ai -0.8267
-1.6719 h}_ é}ei 0.0065
-2.8443 h}_ ê}ai 0.0632
-2.4464 h}_ ô}au -0.7135
-2.4050 h}_ ô}oo -2.2031
-3.8252 h}_ ö}eu 0.0000
-3.7474 h}_ ü}uu 0.0000
-1.1570 h}aa i}ii -0.2495
-0.2341 h}aa i}yy -0.2131
-1.0792 h}aa o|u}ou 0.0000
-1.1570 h}aa y}yy 0.0000
-1.7482 h}aa|ch (}_ 0.0000
-0.4694 h}aa|ch </s> 0.0000
-1.7482 h}aa|ch a}aa 0.0000
-1.8260 h}aa|ch b}bb|ei 0.0000
-1.7482 h}aa|ch c}ss 0.0000
-1.0492 h}aa|ch c}ss|ei 0.0246
-1.8260 h}aa|ch d}dd 0.0000
-1.4703 h}aa|ch d}dd|ei -0.0555
-1.7482 h}aa|ch e}ei 0.0000
-1.7482 h}aa|ch e}eu 0.0000
-1.7482 h}aa|ch f}ai|ff 0.0000
-1.7482 h}aa|ch g}jj|ei 0.0000
-1.7482 h}aa|ch i}ii 0.0000
-1.7482 h}aa|ch k}kk 0.0000
-1.8260 h}aa|ch l}ai|ll 0.0000
-1.7482 h}aa|ch o}oo 0.0000
-1.7482 h}aa|ch p}pp|ei 0.0000
-1.8260 h}aa|ch r}ai|rr 0.0000
-1.4703 h}aa|ch s}ai|ss -0.0161
-1.8260 h}aa|ch t}tt|ei 0.0000
-1.7482 h}aa|ch u}uu 0.0000
-1.4703 h}aa|ch v}vv|ei 0.0000
-1.7482 h}aa|ch z}zz 0.0000
-0.3788 h}nn e|u}ee -0.1291
-0.9031 h}yy a|n}an 0.0000
-0.9031 h}yy a}aa 0.0000
-0.9809 h}yy i}ii -0.2803
-0.9031 h}yy o|u}ou 0.0000
-0.6252 h}yy u}ou 0.0000
-0.3010 i|(}un 2|)}_ 0.0000
-1.7635 i|l}yy (}_ -0.8836
-0.1663 i|l}yy </s> 0.0000
-2.0414 i|l}yy h}_ 0.0000
-0.8653 i|l}yy s|(}_ -1.0234
-0.8653 i|l}yy s}_ -0.8687
-2.0414 i|l}yy y}ii 0.0000
-2.8344 i|m}in (}_ 0.0000
-2.9122 i|m}in </s> 0.0000
-1.0941 i|m}in b}bb -0.4768
-2.8344 i|m}in c}kk 0.0000
-2.8344 i|m}in l}ll 0.0000
-2.9122 i|m}in m}mm -0.2824
-0.0434 i|m}in p}pp -0.8649
-2.8344 i|m}in s|(}_ 0.0000
-2.8344 i|m}in s}_ 0.0000
-2.8344 i|m}in s}ss 0.0000
-1.8999 i|n}in (}_ -0.3512
-3.8038 i|n}in (}nn 0.2025
-2.7718 i|n}in -}_ -0.0358
-1.0042 i|n}in </s> 0.0000
-2.2489 i|n}in _}_ -0.4896
-3.7260 i|n}in _}nn 0.0000
-3.1239 i|n}in b}bb -0.0990
-2.6468 i|n}in c|h}ch -0.2917
-2.6468 i|n}in c}_ -0.1080
-3.7260 i|n}in c}gg 0.0000
-1.0966 i|n}in c}kk -1.0747
-1.3333 i|n}in c}ss -0.5347
-3.7260 i|n}in d}_ 0.0000
-1.0042 i|n}in d}dd -1.0266
-1.2154 i|n}in f}ff -1.5301
-1.9336 i|n}in g|u}gg 0.0515
-1.7865 i|n}in g}_ -1.5010
-1.7090 i|n}in g}gg -0.1788
-1.8999 i|n}in g}jj -0.0636
-2.0448 i|n}in j}jj -1.1742
-3.8038 i|n}in k}kk 0.0000
-2.4472 i|n}in l}ll -1.2176
-3.4481 i|n}in m}mm -0.1101
-3.7260 i|n}in n}nn 0.0000
-1.6653 i|n}in q|u}kk -0.6939
-2.8809 i|n}in q}_ 0.1383
-2.8809 i|n}in q}kk -0.8876
-3.4481 i|n}in r}rr -1.5546
-1.4780 i|n}in s|(}_ -1.5652
-1.4121 i|n}in s}_ -3.0553
-0.9856 i|n}in s}ss -1.5008
-3.4481 i|n}in s}zz -0.1714
-1.6154 i|n}in t}_ -1.1067
-0.6208 i|n}in t}tt -0.9911
-1.3333 i|n}in v}vv -1.4122
-3.7260 i|n}in x}kk|ss 0.0000
-2.6846 i|n}in z}zz -0.4820
-2.8229 i|n}in ç}ss -0.1611
-0.3010 i|r}oe s}ss 0.0000
-0.3010 i|s}zz e}oe 0.0000
-0.3788 i|z}ii </s> 0.0000
-1.3064 i}_ </s> 0.0000
-1.2095 i}_ a}aa -0.7659
-1.9085 i}_ a}au 0.0000
-1.9085 i}_ c}kk 0.0000
-1.3829 i}_ d}dd -0.0037
-1.6306 i}_ g|n}gn -1.5673
-1.9085 i}_ g}_ 0.0000
-1.9085 i}_ i}ii 0.0000
-1.9085 i}_ i}yy 0.0000
-1.2095 i}_ k}kk -0.3555
-1.9085 i}_ l|l}_ 0.0000
-1.6306 i}_ l|l}ll -1.5617
-1.9863 i}_ l}ll 0.0000
-1.3829 i}_ m}mm -0.2588
-1.9085 i}_ n}ii 0.0000
-0.8671 i}_ n}nn -0.1861
-1.2095 i}_ o}au -0.3704
-1.9863 i}_ o}oo 0.0000
-0.7324 i}_ r}rr -0.7765
-1.9085 i}_ t}tt 0.0000
-1.6306 i}_ u}ou -0.1656
-1.9085 i}_ w}ww 0.0000
-1.9085 i}_ y}ii 0.0000
-1.9085 i}_ z}zz 0.0000
-1.2239 i}ai k}kk -0.2930
-0.6205 i}ai l|l}yy -0.1305
-1.2239 i}ai n}nn -0.2574
-0.5441 i}ai t}tt -0.2806
-0.3788 i}dd|eu i}zz|ii -0.0597
-0.0512 i}ee r}rr -0.9386
-4.6423 i}ii '}_ 0.0000
-2.7338 i}ii (}_ -0.3384
-4.6423 i}ii (}aa|yy 0.0000
-2.8714 i}ii -}_ -0.3741
-4.6423 i}ii 2}|vv 0.0000
-1.4720 i}ii </s> 0.0000
-3.2806 i}ii _}_ -0.0536
-3.4118 i}ii _}tt -1.7000
-3.9433 i}ii a|n}an -0.2004
-3.5283 i}ii a}_ -1.1011
-2.7672 i}ii a}aa -0.3768
-3.9433 i}ii b}_ -0.0685
-1.5977 i}ii b}bb -0.4691
-4.3644 i}ii b}bb|ei -0.0116
-2.1007 i}ii c|h}ch -0.1445
-2.7790 i}ii c}_ -0.8341
-4.6423 i}ii c}ch 0.0000
-1.4622 i}ii c}kk -0.6721
-1.5552 i}ii c}ss -1.2706
-3.6423 i}ii c}ss|ei -0.0550
-3.3870 i}ii d}_ -0.0188
-1.4836 i}ii d}dd -0.4101
-4.1167 i}ii d}dd|ei 0.0395
-4.6423 i}ii d}tt 0.0000
-2.6785 i}ii e|(}_ -1.9381
-2.5419 i}ii e|n}_ 0.8264
-4.7201 i}ii e|n}an -0.1021
-2.2340 i}ii e|s}_ -0.3638
-1.5103 i}ii e}_ -1.0439
-3.6009 i}ii e}ai -0.1533
-3.5283 i}ii e}ee -1.1251
-4.0402 i}ii e}ei -0.2592
-4.6423 i}ii e}eu 0.0000
-3.0625 i}ii e}yy -0.4554
-2.3500 i}ii f|f}ff -0.4082
-4.6423 i}ii f}ai|ff 0.0000
-1.5361 i}ii f}ff -1.0641
-2.0568 i}ii g|n}gn -0.7294
-2.5892 i}ii g|u}gg 0.0147
-2.6170 i}ii g}_ -1.6712
-4.6423 i}ii g}dd 0.0000
-4.6423 i}ii g}dd|jj 0.0000
-1.9172 i}ii g}gg -0.4509
-1.9254 i}ii g}jj -0.6405
-3.7972 i}ii g}jj|ei -0.1047
-3.3635 i}ii h}_ -0.3093
-4.7201 i}ii h}yy 0.0000
-4.6423 i}ii i}ii 0.0000
-4.7201 i}ii i}yy 0.0000
-3.1108 i}ii j}jj -0.0712
-4.7201 i}ii k|k}kk 0.0000
-2.5385 i}ii k}kk -0.4763
-4.3644 i}ii l|h}yy 0.0000
-4.6423 i}ii l|l}_ 0.0000
-4.7201 i}ii l|l}kk 0.0000
-1.9381 i}ii l|l}ll -0.1919
-1.8826 i}ii l|l}yy -0.1353
-3.3635 i}ii l}_ 0.0634
-4.6423 i}ii l}ai|ll 0.0000
-1.3494 i}ii l}ll -0.6855
-2.3635 i}ii m|m}mm -0.6818
-4.6423 i}ii m}ai|mm 0.0000
-1.4447 i}ii m}mm -0.5649
-2.7910 i}ii n|n}nn -0.4652
-3.7972 i}ii n}ai|nn -0.0358
-2.8294 i}ii n}ii -0.4642
-4.3644 i}ii n}ii|gg -1.1468
-1.0203 i}ii n}nn -0.4848
-4.0402 i}ii o|u}ou -0.1203
-3.1799 i}ii o}au -0.4506
-3.7392 i}ii o}oo -0.1885
-3.4662 i}ii p|h}ff -0.5491
-2.7558 i}ii p|p}pp -0.4326
-4.0402 i}ii p}_ -0.1658
-1.8478 i}ii p}pp -0.3216
-3.7392 i}ii p}pp|ei -0.0698
-1.1850 i}ii q|u}kk -1.5387
-3.5283 i}ii q}kk -0.3693
-2.4409 i}ii r|r}rr -0.8761
-4.6423 i}ii r|z}rr 0.0000
-4.7201 i}ii r}ai|rr 0.0000
-1.3545 i}ii r}rr -0.8632
-2.2125 i}ii s|(}_ -1.1151
-3.2443 i}ii s|h}ch -0.0583
-1.4556 i}ii s}_ -1.5671
-3.7972 i}ii s}ai|ss -0.1073
-1.0594 i}ii s}ss -1.8757
-4.7201 i}ii s}tt -0.2396
-1.1757 i}ii s}zz -1.2291
-3.7392 i}ii t|h}ff 0.0685
-1.9131 i}ii t}_ 0.0026
-4.6423 i}ii t}dd 0.0000
-2.1331 i}ii t}ss -0.1721
-1.0045 i}ii t}tt -0.5603
-4.1167 i}ii t}tt|ei 0.0762
-4.1167 i}ii u}ou -0.1288
-3.7972 i}ii u}uu -0.0449
-1.3374 i}ii v}vv -1.1224
-4.0402 i}ii v}vv|ei -0.3831
-4.6423 i}ii w}dd|ou 0.0000
-4.6423 i}ii w}vv 0.0000
-3.6009 i}ii w}ww 0.0858
-2.9019 i}ii x}_ -0.3759
-4.6423 i}ii x}kk 0.0000
-2.6978 i}ii x}kk|ss -0.1580
-3.6423 i}ii x}ss -0.9792
-3.6009 i}ii x}zz 0.0000
-3.0088 i}ii y}yy -0.7028
-4.7201 i}ii z|z}zz 0.0000
-3.7392 i}ii z}dd 0.2632
-2.4633 i}ii z}zz -0.0504
-4.7201 i}ii ç}ss -0.2511
-4.6423 i}ii ù}ou 0.0000
-1.5378 i}ii|yy a|i}ai -1.0010
-0.8916 i}ii|yy a|n}an -0.1970
-2.6839 i}ii|yy a|u}au 0.0000
-0.9679 i}ii|yy a}aa -0.2916
-1.5378 i}ii|yy e|n}an -0.9834
-2.4061 i}ii|yy e|n}in -1.4595
-1.0118 i}ii|yy e|r}ei -0.4731
-2.6839 i}ii|yy e|u}eu 0.0000
-2.1584 i}ii|yy e|z}ei 1.3897
-1.0929 i}ii|yy e}ai -0.7853
-2.6839 i}ii|yy e}ei 0.0000
-2.6839 i}ii|yy l|l}ll 0.0000
-1.3037 i}ii|yy o|m}on -1.3898
-1.4535 i}ii|yy o|n}on -2.0787
-2.7617 i}ii|yy o|u}ou 0.0000
-1.7809 i}ii|yy o}au -0.1153
-0.8514 i}ii|yy o}oo -1.2588
-2.7617 i}ii|yy u}oo 1.2451
-2.6839 i}ii|yy u}uu 0.0000
-1.0212 i}ii|yy è}ai -1.3043
-1.4798 i}ii|yy é}ai -1.1844
-0.9205 i}ii|yy é}ei -0.7101
-1.3424 i}oe o}_ 0.0000
-0.0414 i}oe r}rr -0.6364
-0.3010 i}pp|rr e}ee|mm 0.0000
-3.0084 i}ww|aa (}_ -0.8836
-2.3320 i}ww|aa -}_ -0.1183
-1.7422 i}ww|aa </s> 0.0000
-3.2862 i}ww|aa b}bb 0.0000
-2.6842 i}ww|aa c}ss -0.0625
-2.2862 i}ww|aa d}_ -0.0152
-2.1401 i}ww|aa d}dd -0.5109
-3.2862 i}ww|aa d}tt 0.0000
-3.3640 i}ww|aa e|(}_ -0.2833
-1.7811 i}ww|aa e|n}_ 1.4117
-3.3640 i}ww|aa e|n}an -0.1844
-2.7606 i}ww|aa e|s}_ 1.6281
-1.5873 i}ww|aa e}_ -0.4255
-1.8091 i}ww|aa f|f}ff -0.4046
-3.2862 i}ww|aa f}ff 0.0000
-1.2255 i}ww|aa g|n}gn -0.3874
-1.4112 i}ww|aa l}ll -0.4149
-3.2862 i}ww|aa m}mm 0.0000
-1.7180 i}ww|aa n}nn -1.1236
-2.5873 i}ww|aa q|u}kk -0.0881
-0.5388 i}ww|aa r}rr -1.4676
-1.3417 i}ww|aa s|(}_ -0.5289
-1.0121 i}ww|aa s}_ -0.9517
-1.7299 i}ww|aa s}ss -1.2386
-0.7447 i}ww|aa s}zz -0.5400
-1.5960 i}ww|aa t}_ -0.7452
-1.1464 i}ww|aa t}tt -0.1468
-1.9060 i}ww|aa v}vv -0.4482
-1.8883 i}ww|aa x}_ 0.1873
-1.6528 i}ww|aa x}ss -1.2598
-3.3640 i}ww|aa z}zz 0.0000
-4.1216 i}yy '}_ 0.0000
-4.1216 i}yy (}_ 0.0000
-2.9754 i}yy </s> 0.0000
-4.1993 i}yy _}_ -0.2924
-1.8937 i}yy a|i}ai -0.8670
-1.6488 i}yy a|n}an -0.6998
-2.3362 i}yy a|u}au -1.0809
-3.5960 i}yy a|u}oo -0.3447
-4.1216 i}yy a|z}aa 0.0000
-3.8437 i}yy a}_ 0.0000
-0.9584 i}yy a}aa -0.7452
-4.1216 i}yy a}oe 0.0000
-3.8437 i}yy c}ss -1.5432
-3.0424 i}yy d}dd -0.5410
-4.1216 i}yy e|(}_ 0.0000
-3.2185 i}yy e|n}ai -0.3900
-1.8077 i}yy e|n}an -1.2226
-1.2362 i}yy e|n}in -0.3681
-4.1216 i}yy e|r}ai 0.0000
-1.1942 i}yy e|r}ei 0.0190
-2.3292 i}yy e|u}ee -0.7300
-1.5406 i}yy e|u}eu -0.9272
-2.1531 i}yy e|u}oe -0.1795
-4.1993 i}yy e|z}ai 0.7052
-2.4588 i}yy e|z}ei 0.0669
-2.5534 i}yy e}_ -1.2233
-3.1216 i}yy e}aa -0.8880
-1.0571 i}yy e}ai -1.0988
-3.2185 i}yy e}ee -0.2324
-1.6760 i}yy e}ei -0.5505
-4.1216 i}yy e}eu 0.0000
-4.1216 i}yy e}ii 0.0000
-4.1993 i}yy e}yy -0.2585
-4.1216 i}yy f}ai|ff 0.0000
-4.1216 i}yy f}ff 0.0000
-2.8911 i}yy g}_ -0.5398
-2.9174 i}yy h}_ -0.5869
-4.1993 i}yy h}aa|ch -0.1148
-3.0424 i}yy i}ii -0.0759
-3.5195 i}yy k}kk -0.2813
-1.0786 i}yy l|l}_ -0.0734
-3.8437 i}yy l}ai|ll -1.3801
-3.0802 i}yy l}ll -0.1320
-4.1216 i}yy m}ai|mm 0.0000
-2.8911 i}yy m}mm -0.3378
-4.1993 i}yy n}ai|nn 0.0000
-2.9174 i}yy n}nn -0.1612
-4.1216 i}yy o|m}on 0.0000
-0.6942 i}yy o|n}on -2.4381
-2.6030 i}yy o|u}ou -0.1090
-4.1216 i}yy o|u}ww 0.0000
-1.7973 i}yy o}au -0.5033
-0.9372 i}yy o}oo -1.2798
-4.1216 i}yy p}bb|tt 0.0000
-3.8437 i}yy p}pp -0.1729
-3.5195 i}yy r}ai|rr -0.1025
-3.8437 i}yy s}ai|ss -1.4241
-3.5195 i}yy s}zz -0.0938
-4.1216 i}yy t|h}ff 0.0000
-3.0076 i}yy t}tt -0.1331
-4.1993 i}yy u}oe -0.2656
-2.4495 i}yy u}oo -0.1413
-3.8437 i}yy u}ou -0.1656
-2.6030 i}yy u}uu -0.4731
-3.1673 i}yy v}vv -0.0680
-4.1216 i}yy y}ii 0.0000
-3.2765 i}yy â}aa -0.6709
-1.1901 i}yy è}ai -0.9354
-1.8293 i}yy é}ai -1.6995
-1.4693 i}yy é}ei -0.9056
-3.8437 i}yy ê}ai -1.2950
-4.1216 i}yy ë}ai 0.0000
-0.3788 i}zz|ii </s> 0.0000
-1.6335 j}dd|jj (}ii 0.0000
-1.6335 j}dd|jj a|y}ei 0.0000
-0.6792 j}dd|jj a}aa -0.2426
-1.6335 j}dd|jj a}ai 0.0000
-1.0314 j}dd|jj e|a}ii -0.1907
-1.3556 j}dd|jj e}_ -1.5791
-0.9345 j}dd|jj e}ai -0.3759
-1.7113 j}dd|jj e}ei -0.2934
-1.7113 j}dd|jj i}ii 0.0000
-0.9345 j}dd|jj o}au -0.3766
-0.6792 j}dd|jj o}oo -0.3083
-1.6335 j}dd|jj u}oe 0.0000
-3.3166 j}jj '}_ 0.0000
-3.3166 j}jj (}_ 0.0000
-3.3166 j}jj (}ii 0.0000
-3.3166 j}jj -}_ 0.0000
-2.0861 j}jj </s> 0.0000
-1.7603 j}jj _}ii -0.4945
-2.6176 j}jj a|i}ai -0.0917
-1.9944 j}jj a|m}an -1.0214
-2.1705 j}jj a|n}an -0.4875
-2.2374 j}jj a|u}au -0.4656
-2.6176 j}jj a|u}oo -0.2168
-3.3944 j}jj a|y}ai 0.0000
-0.8224 j}jj a}aa -0.4934
-3.3166 j}jj a}ai 0.0000
-3.3166 j}jj b}bb 0.0000
-2.4715 j}jj d}dd -0.1067
-3.3944 j}jj e|(}_ 0.0000
-3.3166 j}jj e|a}ii 0.0000
-1.9187 j}jj e|u}ee -2.4735
-2.0378 j}jj e|u}eu -1.0618
-1.8542 j}jj e|u}oe -0.6111
-2.7910 j}jj e|û}eu 0.0062
-1.5842 j}jj e}_ -0.9678
-1.0736 j}jj e}ai -0.6189
-1.5684 j}jj e}ee -1.1220
-1.8694 j}jj e}ei 0.2382
-3.3944 j}jj h}_ 0.0000
-1.4415 j}jj i}ii -0.1539
-2.2752 j}jj i}yy -0.1819
-2.7145 j}jj j}jj -0.4983
-2.7145 j}jj k}kk -0.1043
-3.3944 j}jj l}ll 0.0000
-3.3944 j}jj m}mm -0.2042
-3.3944 j}jj n}nn 0.0000
-2.7145 j}jj o|i}ww 0.5182
-1.6445 j}jj o|n}on -0.8899
-3.3166 j}jj o|o}ou 0.0000
-0.9084 j}jj o|u}ou -0.5163
-2.3166 j}jj o|u}ww -0.1624
-1.8694 j}jj o}_ -0.1972
