			
\data\			
ngram 1=515			
ngram 2=6849			
ngram 3=25608			
			
\1-grams:			
-5.97052	&}ei	-0.2788116
-5.97052	&}ei|ei	-0.2788116
-3.396489	'}_	-1.028359
-5.97052	'}|	-0.3010105
-3.988249	(|1}_	-1.60132
-1.94411	(}_	-3.470663
-5.97052	(}aa|yy	-0.2968462
-5.97052	(}ai|dd	-0.2973223
-5.27155	(}bb|ll	-0.6220863
-5.192369	(}ei	-0.3514144
-5.66949	(}gg|rr	-0.4729365
-5.016278	(}ii	-0.99521
-5.97052	(}ii|ai	-0.2968462
-4.648301	(}nn	-1.337451
-5.493399	(}rr	-0.4074665
-5.97052	(}ss|an	-0.2968462
-5.66949	(}tt	-0.4729267
-5.66949	(}uu|bb	-0.2286624
-5.97052	)}ai|kk	-0.249258
-5.66949	)}uu|bb	-0.183312
-5.66949	-|j}zz	-0.2116757
-5.66949	-|u}un	-0.2265677
-2.735245	-}_	-1.303684
-5.493399	-}ai	-0.5481883
-4.794429	-}ee	-0.4450633
-5.36846	-}nn	-0.2311432
-4.929128	-}tt	-0.4710281
-4.740071	-}zz	-1.1238
-5.97052	.}ei	-0.249258
-5.97052	.}rr|aa	-0.249258
-4.628098	0|)}_	-1.309956
-5.66949	0|0}tt	-0.4771189
-5.66949	0|4}tt	-0.4197485
-5.66949	0}an|tt	-0.183312
-5.36846	0}ii|ss	-0.6471981
-5.66949	0}rr|an	-0.477084
-5.66949	0}ss|an	-0.4252425
-5.66949	0}tt|rr	-0.235083
-4.794429	1|)}_	-1.152348
-5.97052	1|1}zz	-0.249258
-5.493399	1|6}zz	-0.3824134
-5.06743	1}dd	-0.8600703
-5.36846	1}ei|un	-0.6471981
-5.97052	1}kk|aa	-0.3010295
-5.97052	1}kk|in	-0.3010295
-5.36846	1}ss|an	-0.5361055
-5.66949	1}tt|oo	-0.235083
-5.97052	1}tt|rr	-0.3010295
-5.192369	1}un	-0.3038262
-5.97052	2|(}tt	-0.3010295
-2.018309	2|)}_	-3.900439
-1.833356	2|)}ee	-4.019432
-5.97052	2|)}ou	-0.249258
-4.608792	2|)}rr	-1.328348
-2.070536	2|)}zz	-3.848249
-4.929128	2}dd|eu	-1.027407
-5.66949	2}ee|kk	-0.235083
-5.97052	2}in|tt	-0.3010281
-5.66949	2}ou|zz	-0.183312
-5.66949	2}rr|ei	-0.183312
-5.97052	2}|vv	-0.3010295
-5.97052	3|(}ff	-0.3010193
-2.859594	3|)}_	-3.059491
-5.06743	3|)}ee	-0.9024706
-5.36846	3|)}ei	-0.6471981
-2.300274	3|)}zz	-3.618566
-5.66949	3}ai|tt	-0.4771161
-5.97052	3}ai|zz	-0.249258
-5.493399	3}tt|rr	-0.41117
-5.66949	3}uu|bb	-0.183312
-5.192369	3}ww|aa	-0.7933241
-3.383933	4|)}_	-2.535939
-3.570847	4|)}ee	-2.349614
-2.319436	4|)}zz	-3.533354
-5.97052	4}aa|rr	-0.3010291
-5.97052	4}gg|rr	-0.3010295
-5.97052	4}in|tt	-0.3010267
-4.97052	4}kk|aa	-0.331953
-5.66949	4}rr|zz	-0.183312
-5.97052	4}tt|oo	-0.3010286
-3.47221	5|)}_	-2.447901
-5.66949	5|)}ee	-0.183312
-5.192369	5}in|kk	-0.3824088
-5.97052	5}zz	-0.249258
-3.769123	6|)}_	-2.152348
-4.337052	6|)}ee	-1.591681
-5.97052	6|)}ei	-0.249258
-4.298422	6|)}zz	-1.629469
-5.27155	6}ii|ss	-0.7263793
-3.97052	7|)}_	-1.952549
-5.66949	7|)}ee	-0.183312
-4.36846	7|)}zz	-1.561012
-5.192369	7}ai|tt	-0.7877254
-5.66949	7}tt|dd	-0.4770394
-4.06743	8|)}_	-1.856713
-5.493399	8|)}ee	-0.3824134
-4.214645	8|)}zz	-1.711656
-5.66949	8}ei|uy	-0.235003
-5.66949	8}vv|in	-0.4770966
-5.97052	8}zz|uy	-0.3009491
-4.555547	9|)}_	-1.379592
-5.66949	9}eu|ff	-0.183312
-0.9493186	</s>	0.0000
-99	<s>	-2.988208
-5.66949	@}aa|zz	-0.2350044
-5.27155	_|u}un	-0.769635
-2.716214	_}_	-1.734407
-3.712842	_}aa	-0.8032189
-5.97052	_}aa|rr	-0.3010291
-5.97052	_}aa|yy	-0.3010202
-4.66949	_}ai	-1.169276
-4.891339	_}ai|dd	-0.6599659
-5.66949	_}ai|gg	-0.4253451
-5.97052	_}ai|ll	-0.249258
-5.97052	_}ai|ss	-0.3010272
-5.125422	_}ai|tt	-0.4225319
-5.016278	_}an|tt	-0.5871735
-5.66949	_}au|bb	-0.235083
-5.97052	_}au|kk	-0.3010295
-5.97052	_}au|yy	-0.3009937
-4.608792	_}bb|ll	-1.380188
-5.97052	_}dd	-0.3000654
-5.66949	_}dd|aa	-0.2257302
-5.66949	_}dd|ee	-0.235083
-4.590309	_}ee	-0.6246157
-4.715248	_}ei	-0.3367335
-5.97052	_}ei|rr	-0.3009458
-5.125422	_}ei|ss	-0.4894631
-3.729971	_}ii	-0.674418
-5.125422	_}kk|aa	-0.3095601
-5.66949	_}ll|oo	-0.2257302
-4.347271	_}nn	-0.5121089
-5.97052	_}oe	-0.2878406
-5.97052	_}on|ss	-0.3010295
-5.97052	_}pp|aa	-0.3010105
-5.66949	_}rr|an	-0.4770808
-5.06743	_}rr|kk	-0.8370569
-5.493399	_}rr|oo	-0.3594
-4.929128	_}ss	-0.9984489
-5.493399	_}ss|ai	-0.434184
-5.36846	_}ss|an	-0.5360144
-4.078426	_}tt	-1.266166
-5.66949	_}tt|kk	-0.4771194
-5.97052	_}tt|oe	-0.2711631
-5.016278	_}tt|rr	-0.4799007
-5.97052	_}vv|ai	-0.249258
-4.539156	_}vv|ei	-0.8243396
-5.06743	_}ww	-0.334902
-5.66949	_}yy|eu	-0.183312
-5.36846	_}zz|ai	-0.5151135
-2.079094	a|i}ai	-2.612162
-4.402318	a|i}ee	-1.575735
-4.150976	a|i}ei	-0.8584147
-5.66949	a|i}eu	-0.2310353
-4.608792	a|l}oo	-0.9248406
-4.439041	a|m}aa	-1.535552
-3.242979	a|m}an	-2.245581
-5.125422	a|n}aa	-0.7502837
-1.969653	a|n}an	-2.656856
-5.66949	a|r}aa	-0.4603379
-5.97052	a|t}vv	-0.2984239
-2.683167	a|u}au	-2.101351
-2.85758	a|u}oo	-2.004925
-4.740071	a|w}au	-0.7895705
-5.493399	a|w}oo	-0.3256042
-3.945215	a|y}ai	-0.825088
-4.046241	a|y}ei	-1.443998
-5.66949	a|z}aa	-0.183312
-5.66949	a|ë}aa	-0.4639232
-3.529611	a|î}ai	-2.402982
-4.794429	a|î}ei	-1.085503
-3.229369	a}_	-1.456417
-1.280067	a}aa	-2.512797
-5.97052	a}aa|on	-0.3010295
-5.97052	a}aa|vv	-0.3010295
-3.379456	a}ai	-1.446839
-4.590309	a}ai|yy	-0.624696
-5.06743	a}an	-0.3041354
-5.016278	a}au	-0.985229
-4.479158	a}ei	-1.022274
-4.97052	a}oe	-0.5103823
-5.27155	a}oo	-0.7644604
-5.493399	a}tt	-0.4088706
-5.493399	b|u}bb	-0.4132946
-4.056706	b}_	-1.248179
-1.836981	b}bb	-1.748754
-3.906062	b}bb|ei	-0.8100137
-5.97052	b}mm	-0.2964725
-5.66949	b}oe	-0.2218945
-4.508122	b}pp	-1.436947
-2.276618	c|h}ch	-1.702204
-5.66949	c|h}rr	-0.2128656
-2.950989	c}_	-2.883586
-4.691767	c}ch	-0.8958377
-4.628098	c}gg	-1.351364
-1.68301	c}kk	-2.339536
-5.97052	c}kk|on	-0.3010295
-2.077258	c}ss	-3.026451
-3.398811	c}ss|ei	-1.624978
-4.357737	c}tt|ch	-1.038194
-2.988702	d}_	-1.898776
-1.671384	d}dd	-1.872528
-3.646238	d}dd|ei	-1.078121
-5.192369	d}nn	-0.3510407
-5.66949	d}oe	-0.2218945
-4.150976	d}tt	-1.802698
-1.981338	e|(}_	-3.929952
-3.992797	e|a}ii	-1.074276
-5.66949	e|f}ei	-0.4137112
-3.483382	e|i}ai	-1.138767
-2.998317	e|m}an	-2.913032
-5.36846	e|m}in	-0.5437227
-2.739561	e|n}_	-3.203304
-5.66949	e|n}aa	-0.4425478
-4.97052	e|n}ai	-1.009197
-2.026186	e|n}an	-2.589158
-4.089707	e|n}ee	-1.864272
-3.009574	e|n}in	-1.861203
-5.36846	e|r}ai	-0.2257521
-2.476784	e|r}ei	-3.33623
-5.97052	e|r}ii	-0.2947142
-2.154146	e|s}_	-3.290077
-3.238931	e|u}ee	-1.696642
-2.758333	e|u}eu	-1.759236
-2.694518	e|u}oe	-2.404943
-3.791543	e|y}ei	-0.7663098
-4.66949	e|z}ai	-1.182411
-3.453324	e|z}ei	-2.398527
-5.192369	e|û}eu	-0.3470819
-1.513441	e}_	-2.534458
-3.658767	e}aa	-2.204358
-5.97052	e}aa|rr	-0.3010291
-1.706506	e}ai	-2.43833
-1.76063	e}ee	-2.698824
-5.97052	e}ee|mm	-0.3010295
-2.308424	e}ei	-1.863494
-4.36846	e}ei|eu	-0.8293785
-5.97052	e}ei|oe	-0.249258
-4.157607	e}eu	-0.5186056
-3.710449	e}ii	-1.066824
-4.144445	e}oe	-0.9026921
-3.698679	e}yy	-1.277276
-5.493399	f|-}_	-0.3962733
-2.855243	f|f}ff	-1.745192
-5.06743	f|s}_	-0.9015695
-3.599452	f}ai|ff	-1.13492
-2.041306	f}ff	-1.796526
-5.66949	g|-}kk	-0.2309757
-2.957262	g|n}gn	-2.158671
-2.952236	g|u}gg	-1.993995
-3.225446	g}_	-1.697089
-4.66949	g}aa	-1.221012
-4.824392	g}dd	-1.173257
-5.97052	g}dd|ei	-0.2981962
-4.095459	g}dd|jj	-1.43603
-5.97052	g}ei|gn	-0.3010295
-2.160759	g}gg	-1.79023
-4.7664	g}gg|gg	-0.7715867
-5.36846	g}gg|oe	-0.6857806
-5.97052	g}gn	-0.2916763
-2.186831	g}jj	-3.014269
-3.866717	g}jj|ei	-0.7435158
-5.97052	g}kk	-0.2960623
-5.97052	g}nn|yy	-0.2997
-5.66949	g}zz	-0.4588954
-5.97052	h|Ô}oo	-0.2788116
-2.223109	h}_	-1.557188
-4.891339	h}aa	-0.6807247
-4.222332	h}aa|ch	-0.6296064
-5.66949	h}nn	-0.2348333
-5.06743	h}yy	-0.4931022
-5.97052	i|(}un	-0.2968462
-3.929128	i|l}yy	-1.91763
-3.1361	i|m}in	-2.31556
-2.244527	i|n}in	-2.651691
-5.97052	i|r}oe	-0.2892995
-5.97052	i|s}zz	-0.3009988
-5.66949	i|z}ii	-0.183312
-4.062035	i}_	-0.5692405
-4.824392	i}ai	-0.4167745
-5.66949	i}dd|eu	-0.235083
-5.06743	i}ee	-0.9243757
-1.328234	i}ii	-2.455609
-3.286573	i}ii|yy	-1.794457
-4.648301	i}oe	-1.31147
-5.97052	i}pp|rr	-0.3010295
-2.684289	i}ww|aa	-2.092279
-1.84896	i}yy	-2.405278
-5.66949	i}zz|ii	-0.183312
-4.337052	j}dd|jj	-1.008602
-2.653921	j}jj	-1.665596
-4.97052	j}jj|yy	-0.3080924
-5.27155	j}rr	-0.7381158
-4.715248	j}yy	-1.149296
-5.66949	k|-}aa	-0.2319262
-4.7664	k|k}kk	-0.605881
-5.493399	k|n}nn	-0.5722946
-5.66949	k}gg|kk	-0.4316355
-2.59285	k}kk	-1.206126
-5.36846	l|h}yy	-0.6648342
-2.925981	l|l}_	-2.227129
-5.66949	l|l}kk	-0.4588954
-2.452665	l|l}ll	-1.85976
-3.206344	l|l}yy	-2.288426
-4.379456	l|t}_	-1.544687
-4.452006	l}_	-0.7592881
-3.937097	l}ai|ll	-1.002949
-5.66949	l}dd|mm	-0.4771171
-1.524138	l}ll	-1.859471
-5.66949	l}mm|ww	-0.2349998
-5.97052	l}ww|aa	-0.2964725
-5.27155	l}yy	-0.2972962
-2.908691	m|m}mm	-1.834539
-3.66089	m}ai|mm	-0.8559093
-1.671471	m}mm	-1.823488
-5.97052	n|c}ss	-0.2801392
-5.192369	n|i}gn	-0.3442252
-2.437893	n|n}nn	-2.373508
-4.891339	n|t}_	-0.9204756
-5.493399	n|t}an	-0.5313328
-2.869461	n|t}ee	-3.043979
-5.125422	n}ai	-0.4140282
-3.717667	n}ai|nn	-0.7923923
-4.138011	n}ii	-1.711356
-5.493399	n}ii|gg	-0.4341835
-5.66949	n}mm	-0.2141932
-1.711787	n}nn	-1.670439
-5.97052	n}nn|uu	-0.3010295
-3.715248	n}nn|yy	-1.376905
-4.590309	o|i}ww	-1.00143
-2.857915	o|m}on	-2.899392
-5.66949	o|m}oo	-0.2265677
-5.97052	o|n}_	-0.2892995
-5.66949	o|n}an	-0.183312
-5.97052	o|n}ee	-0.2892995
-1.984331	o|n}on	-3.288381
-5.97052	o|n}oo	-0.3007715
-3.8338	o|o}ou	-0.9873872
-5.66949	o|r}oe	-0.2218945
-2.139996	o|u}ou	-2.039379
-3.634061	o|u}ww	-1.446246
-4.824392	o|w}au	-0.3786503
-5.06743	o|w}oo	-0.7591968
-5.97052	o|z}oo	-0.249258
-4.113188	o|û}ou	-1.835403
-2.632463	o}_	-2.421632
-2.331831	o}au	-1.588398
-5.192369	o}ee	-0.1863416
-4.46537	o}oe	-1.391448
-1.587585	o}oo	-2.166585
-5.66949	o}ou	-0.4626911
-3.579585	o}ww	-2.38953
-3.300274	o}ww|aa	-2.59742
-5.97052	p|-}bb	-0.2956027
-2.946445	p|h}ff	-1.914507
-2.899006	p|p}pp	-1.701239
-3.461318	p}_	-2.016912
-5.97052	p}bb|tt	-0.3009756
-5.97052	p}oe	-0.2878406
-1.692796	p}pp	-2.082701
-3.487647	p}pp|ei	-1.293582
-5.97052	q|u}gg	-0.2969814
-2.217781	q|u}kk	-2.64563
-4.97052	q}_	-0.9896207
-5.97052	q}gg	-0.2969814
-3.66949	q}kk	-0.9798876
-5.016278	q}kk|uu	-0.503805
-4.648301	r|(}ei	-1.341811
-5.97052	r|(}ss	-0.2968462
-5.97052	r|d}au	-0.249258
-5.36846	r|f}rr	-0.1716739
-2.711404	r|r}rr	-1.806991
-5.97052	r|r}ww	-0.3000845
-5.125422	r|z}rr	-0.2095758
-3.737524	r}ai|rr	-1.100211
-5.97052	r}ee|ss	-0.3010291
-5.97052	r}oe|rr	-0.249258
-1.177443	r}rr	-2.333413
-5.97052	r}ww	-0.3000845
-5.97052	r}yy|ei	-0.249258
-1.629482	s|(}_	-4.25496
-3.56398	s|h}ch	-0.6526605
-5.97052	s|z}ch	-0.249258
-1.840508	s}_	-2.012808
-3.512638	s}ai|ss	-1.647827
-4.523362	s}ch	-0.8656518
-1.574321	s}ss	-1.842603
-5.125422	s}tt	-0.7247228
-2.032501	s}zz	-2.416158
-5.97052	t|(}in	-0.2968462
-4.222332	t|h}ff	-1.201361
-4.824392	t|h}zz	-0.3057665
-1.908089	t}_	-2.174853
-4.648301	t}dd	-1.265314
-5.97052	t}ee	-0.2878406
-5.493399	t}oe	-0.420996
-2.486078	t}ss	-3.454419
-1.302134	t}tt	-2.08093
-3.755677	t}tt|ei	-0.8717967
-5.97052	t}tt|eu	-0.2711631
-5.06743	u|e}eu	-0.9480493
-5.27155	u|f}eu	-0.3128165
-4.715248	u|m}un	-1.186643
-5.493399	u|n}on	-0.5675092
-3.806167	u|n}un	-0.908816
-5.27155	u|r}eu	-0.5564445
-5.016278	u|x}eu	-0.8309237
-5.06743	u|x}zz	-0.9480493
-5.125422	u|ë}uu	-0.238839
-5.27155	u}ai	-0.6877301
-5.66949	u}ch|oe	-0.205217
-4.08403	u}ee	-1.42631
-5.27155	u}ii	-0.7734209
-3.880615	u}oe	-1.031181
-3.953487	u}oo	-1.929181
-3.592122	u}ou	-0.6463409
-1.83507	u}uu	-1.766372
-2.883449	u}uy	-2.006226
-3.769123	u}ww	-0.9927096
-4.66949	u}yy|ou	-0.8984386
-5.97052	v|o}au	-0.2919241
-3.898638	v}ff	-1.62565
-1.905913	v}vv	-2.241556
-4.150976	v}vv|ei	-0.6733131
-5.97052	w|r}rr	-0.3009458
-4.523362	w}dd|ou	-1.462385
-5.493399	w}ff	-0.4224549
-5.97052	w}oe|vv	-0.2776217
-4.317308	w}ou	-0.6959512
-5.016278	w}ou|vv	-0.8523284
-5.97052	w}tt|rr	-0.3007478
-5.66949	w}uu|ou	-0.4626603
-3.574321	w}vv	-1.031693
-3.187332	w}ww	-0.8857952
-5.66949	x|_}zz	-0.4493762
-2.900113	x}_	-2.964422
-5.97052	x}ch	-0.2988899
-3.256191	x}gg|zz	-2.039105
-3.86331	x}kk	-1.490177
-2.811856	x}kk|ss	-1.448978
-4.095459	x}ss	-1.759428
-4.929128	x}zz	-1.072988
-3.921302	y|m}in	-1.983339
-5.66949	y|n}ai	-0.2259781
-4.046241	y|n}in	-1.142613
-5.97052	y|y}yy	-0.2776217
-5.97052	y}_	-0.2875065
-4.08403	y}ai	-1.634904
-2.662596	y}ii	-1.806086
-5.97052	y}oe	-0.2711631
-5.493399	y}uu	-0.5823531
-4.479158	y}ww|aa	-1.382202
-2.808554	y}yy	-1.280801
-5.97052	z|(}_	-0.2968462
-3.755677	z|(}ei	-2.204164
-5.66949	z|e}ei	-0.4677904
-5.97052	z|s}_	-0.2987269
-5.66949	z|y}ii	-0.4182273
-4.66949	z|z}zz	-0.319544
-5.36846	z}ai|ch	-0.6959139
-4.46537	z}dd	-1.516914
-5.36846	z}dd|zz	-0.5291771
-5.36846	z}ei|ch	-0.6959139
-3.902334	z}ss	-0.8118498
-2.73575	z}zz	-1.382513
-5.97052	°}mm|ei	-0.3010286
-5.66949	²}rr|ei	-0.183312
-5.66949	³}ai|tt	-0.4771161
-5.66949	³}uu|bb	-0.183312
-5.66949	º}uu|mm	-0.2350755
-5.97052	Â}aa	-0.2981962
-5.66949	Ä}aa	-0.2265677
-4.379456	É}ei	-0.8207671
-5.493399	Î}ii	-0.420996
-5.97052	Ô}au	-0.249258
-5.493399	Ö}au	-0.5921069
-5.66949	Ö}ei|oo	-0.183312
-3.630076	à|_}aa	-1.229579
-4.06743	à}aa	-1.855811
-5.66949	á}aa	-0.2265677
-3.286573	â}aa	-1.593245
-4.97052	ä}aa	-0.4215291
-5.97052	æ}ss|ei	-0.2788116
-3.349344	ç}ss	-2.182505
-2.51461	è}ai	-2.199352
-5.493399	é}_	-0.4014708
-1.74503	é}ai	-2.624503
-5.66949	é}ee	-0.2218945
-1.87556	é}ei	-2.136797
-5.97052	ê|m}ai	-0.2875065
-3.156273	ê}ai	-2.665038
-4.57258	ê}ei	-0.6533257
-5.66949	ê}ww|aa	-0.2218945
-4.357737	ë}ai	-0.9522057
-4.97052	î|n}in	-0.9061294
-4.06743	î}ii	-1.835763
-4.379456	î}ww|aa	-1.140608
-4.66949	ï|n}in	-1.266333
-3.511128	ï}ii	-1.102058
-3.97052	ï}yy	-0.918336
-5.36846	ñ}gn	-0.676385
-5.66949	ñ}nn	-0.4685533
-3.534358	ô}au	-1.39979
-3.705703	ô}oo	-2.145068
-5.125422	ö}au	-0.4138365
-4.523362	ö}eu	-0.6024872
-5.27155	ö}oe	-0.315443
-5.97052	ö}oo	-0.2916763
-5.06743	ù}ou	-0.901529
-5.66949	ú}ou	-0.2265677
-3.836981	û}uu	-1.906396
-5.97052	ü}oo	-0.2916763
-5.97052	ü}ou	-0.2711631
-4.317308	ü}uu	-0.4005713
-5.97052	ÿ}ii	-0.2892995
			
\2-grams:			
-0.30103	&}ei t}tt	0.0000
-0.30103	&}ei|ei t}tt	0.0000
-0.3211782	'}_ </s>	0.0000
-0.950782	'}_ _}_	-0.7355236
-2.574031	'}_ a|i}ai	0.0000
-2.651815	'}_ a|n}an	0.0000
-1.971971	'}_ a|u}au	-0.08224006
-1.971971	'}_ a|u}oo	-0.2541794
-1.273001	'}_ a}aa	-0.1256814
-2.048439	'}_ d}dd	-0.259598
-2.574031	'}_ e|m}an	0.0000
-1.971971	'}_ e|n}an	-0.5590585
-1.670941	'}_ e}ai	-0.5209099
-2.574031	'}_ e}ei	0.0000
-2.296174	'}_ g|u}gg	-1.563564
-1.427903	'}_ h}_	-0.09444703
-2.651815	'}_ i|m}in	0.7267163
-1.728933	'}_ i|n}in	-0.03819951
-1.728933	'}_ i}ii	-0.29261
-2.296174	'}_ m}mm	-0.157235
-2.574031	'}_ n}nn	0.0000
-2.574031	'}_ o|n}on	0.0000
-2.574031	'}_ o|u}ou	0.0000
-1.574031	'}_ o}_	0.06783503
-2.651815	'}_ o}oe	0.7332377
-1.619789	'}_ o}oo	-0.1183458
-2.574031	'}_ r}rr	0.0000
-1.619789	'}_ s}_	-0.6646155
-1.971971	'}_ s}ss	0.0000
-2.574031	'}_ s}zz	0.0000
-2.651815	'}_ t}tt	-0.2608522
-1.971971	'}_ u|n}un	-0.4422209
-1.670941	'}_ u}uu	-0.878229
-2.574031	'}_ y}yy	0.0000
-2.296174	'}_ É}ei	0.0000
-2.574031	'}_ à|_}aa	0.0000
-2.574031	'}_ à}aa	0.0000
-2.048439	'}_ é}ei	-0.2859588
-2.651815	'}_ î}ii	-0.2188149
-0.30103	'}| _}nn	0.0000
-0.6398485	(|1}_ 0|)}_	0
-0.80618	(|1}_ 1|)}_	0
-0.8683279	(|1}_ 2|)}_	2.02798
-2.060055	(|1}_ 2|)}ee	3.541343
-0.9408786	(|1}_ 3|)}_	2.032081
-1.079181	(|1}_ 4|)}_	1.633468
-1.982271	(|1}_ 4|)}ee	0.0000
-2.060055	(|1}_ 4|)}zz	3.055263
-0.9408786	(|1}_ 5|)}_	1.119476
-0.9408786	(|1}_ 6|)}_	1.124939
-0.09729842	(}_ 2|)}_	-0.7550039
-1.766339	(}_ 2|)}ee	1.573683
-4.026411	(}_ 2|)}rr	0.0000
-1.356165	(}_ 2|)}zz	0.7517452
-1.215506	(}_ 3|)}_	0.2996876
-3.181313	(}_ 3|)}ee	0.05115253
-3.424351	(}_ 3|)}ei	0.4390607
-2.795962	(}_ 3|)}zz	2.114036
-1.492385	(}_ 4|)}_	0.0524168
-2.771138	(}_ 4|)}ee	0.821617
-3.181313	(}_ 4|)}zz	3.071261
-4.026411	(}_ 4}gg|rr	0.0000
-1.816896	(}_ 5|)}_	-0.01353049
-4.104195	(}_ 5|)}ee	-0.05970713
-2.022089	(}_ 6|)}_	0.1955197
-2.747657	(}_ 6|)}ee	0.3424226
-4.026411	(}_ 6|)}ei	0.0000
-4.026411	(}_ 6|)}zz	0.0000
-2.270536	(}_ 7|)}_	0.2408934
-4.104195	(}_ 7|)}ee	-0.05970713
-2.134316	(}_ 8|)}_	0.01085794
-3.748553	(}_ 8|)}ee	-1.146795
-2.912467	(}_ 9|)}_	0.2852356
-0.30103	(}aa|yy 2|)}_	0.0000
-0.30103	(}ai|dd 2|)}zz	0.0000
-0.69897	(}bb|ll 2|)}_	0.0000
-0.7767541	(}bb|ll 2|)}ee	-0.2947646
-0.69897	(}bb|ll 4|)}ee	0.0000
-0.69897	(}bb|ll 5|)}_	0.0000
-0.2525592	(}ei 2|)}_	2.824719
-0.4771213	(}gg|rr 2|)}_	0.0000
-0.4771213	(}gg|rr _}ai|gg	0.0000
-0.09691001	(}ii 2|)}_	2.219866
-1	(}ii 3|)}_	0.0000
-0.30103	(}ii|ai 2|)}_	0.0000
-0.1663314	(}nn 2|)}_	1.969988
-0.6434527	(}nn 3|)}_	2.333111
-1.342423	(}nn 4|)}_	0.0000
-0.4771213	(}rr 2|)}zz	0.0000
-0.5549054	(}rr 2}ee|kk	-0.05970713
-0.30103	(}ss|an 2|)}_	0.0000
-0.4771213	(}tt 2|)}_	0.0000
-0.4771213	(}tt 2|)}rr	0.0000
-0.3788141	(}uu|bb 2|)}ee	3.541343
-0.30103	)}ai|kk </s>	0.0000
-0.3788141	)}uu|bb </s>	0.0000
-0.3788141	-|j}zz a}aa	-0.2902409
-0.3788141	-|u}un n}nn	-0.2922223
-2.156095	-}_ </s>	0.0000
-3.31306	-}_ a|i}ai	-0.1893352
-3.235276	-}_ a|n}an	0.0000
-2.633216	-}_ a|u}au	-0.2554042
-3.235276	-}_ a|u}oo	0.0000
-1.429096	-}_ a}aa	-0.5778548
-1.360215	-}_ b}bb	-0.4074214
-2.031156	-}_ c|h}ch	-0.1166519
-1.266793	-}_ c}kk	-0.5519262
-1.730126	-}_ c}ss	-0.5632377
-2.957418	-}_ c}ss|ei	0.0000
-3.235276	-}_ d}_	0.0000
-0.9922378	-}_ d}dd	-0.9768076
-2.957418	-}_ e|m}an	-1.279488
-2.004827	-}_ e|n}an	-0.5455254
-3.31306	-}_ e}_	-0.2945939
-1.633216	-}_ e}ai	-1.037333
-1.788118	-}_ e}ei	-0.825478
-1.300777	-}_ f}ff	-0.2782378
-2.633216	-}_ g|u}gg	-0.209173
-1.772878	-}_ g}gg	-0.2540407
-3.31306	-}_ g}jj	-0.2826893
-3.235276	-}_ g}jj|ei	0.0000
-1.54508	-}_ h}_	-0.4235477
-2.957418	-}_ i|n}in	-0.1674574
-2.332186	-}_ i}ii	-0.09091931
-3.235276	-}_ j}dd|jj	0.0000
-1.913057	-}_ j}jj	-0.3167077
-3.31306	-}_ k}kk	-0.2209644
-1.371953	-}_ l}ll	-0.2908439
-1.065014	-}_ m}mm	-0.8272671
-1.691208	-}_ n}nn	-0.4820261
-3.31306	-}_ o|n}on	-0.292904
-2.957418	-}_ o|u}ou	-1.541585
-2.390178	-}_ o|u}ww	-0.4277164
-2.281033	-}_ o}au	-0.9721841
-1.855065	-}_ o}oo	-0.7972986
-2.957418	-}_ p|h}ff	-0.03762656
-1.012559	-}_ p}pp	-0.2050611
-3.235276	-}_ p}pp|ei	0.0000
-1.913057	-}_ q|u}kk	-0.9555204
-1.601807	-}_ r}rr	-0.6234342
-2.709684	-}_ s|h}ch	-1.562978
-2.089148	-}_ s}_	-0.8102165
-1.253005	-}_ s}ss	-0.8383642
-1.205892	-}_ t}tt	-0.4861201
-2.957418	-}_ u|n}un	-0.04603422
-2.957418	-}_ u}oe	-1.568973
-2.390178	-}_ u}uu	-0.3151059
-1.189953	-}_ v}vv	-0.6536499
-3.31306	-}_ w}ww	0.0000
-3.235276	-}_ x}kk|ss	0.0000
-2.957418	-}_ y}ii	-0.1675843
-2.281033	-}_ y}yy	-0.9722105
-2.235276	-}_ z}zz	-1.027776
-1.855065	-}_ à}aa	-1.112704
-2.235276	-}_ é}ai	-0.2603756
-3.31306	-}_ ê}ai	-0.008794546
-0.60206	-}ai l}ll	0.0000
-0.60206	-}ai p}pp	0.0000
-0.60206	-}ai r}rr	0.0000
-1.176091	-}ee b}bb	0.0000
-1.253875	-}ee c}ss	-0.2899329
-0.8982336	-}ee d}dd	-0.1718906
-1.176091	-}ee n}nn	0.0000
-1.253875	-}ee q|u}kk	-0.275088
-0.5740313	-}ee s}ss	-0.542887
-1.253875	-}ee t}tt	-0.2402047
-0.6798441	-}nn a|i}ai	-0.2911511
-0.6798441	-}nn ê}ai	-0.008794546
-0.4393327	-}tt e}ai	-0.2213075
-1.119177	-}tt i}ii	-0.2749155
-0.763535	-}tt o|n}on	-0.1613751
-1.119177	-}tt à}aa	-0.00955531
-1.308233	-}zz a}aa	-0.2335233
-1.230449	-}zz e|n}an	0.0000
-0.3273589	-}zz h}_	-0.9485337
-0.5314789	-}zz n}nn	-0.6569548
-1.230449	-}zz y}ii	0.0000
-0.30103	.}ei </s>	0.0000
-0.30103	.}rr|aa </s>	0.0000
-0.01930515	0|)}_ </s>	0.0000
-0.4771213	0|0}tt (}ss|an	0.0000
-0.4771213	0|0}tt _}ss|an	0.0000
-0.4771213	0|4}tt (}_	0.0000
-0.4771213	0|4}tt </s>	0.0000
-0.3788141	0}an|tt </s>	0.0000
-0.09691001	0}ii|ss </s>	0.0000
-0.4771213	0}rr|an (}tt	0.0000
-0.4771213	0}rr|an _}tt	0.0000
-0.4771213	0}ss|an </s>	0.0000
-0.4771213	0}ss|an m}ai|mm	0.0000
-0.3788141	0}tt|rr 0}ss|an	0.0000
-0.02802872	1|)}_ </s>	0.0000
-0.30103	1|1}zz </s>	0.0000
-0.1992636	1|6}zz </s>	0.0000
-0.30103	1}dd 0}ii|ss	0.4390607
-0.90309	1}dd 2}ou|zz	0.0000
-0.6252323	1}dd _}ii	-0.1682021
-0.09691001	1}ei|un </s>	0.0000
-0.30103	1}kk|aa 4}tt|oo	0.0000
-0.30103	1}kk|in 5}zz	0.0000
-0.60206	1}ss|an 1}dd	0.0000
-0.60206	1}ss|an 3}tt|rr	0.0000
-0.6798441	1}ss|an _}kk|aa	-0.2395543
-0.3788141	1}tt|oo 4}rr|zz	-0.05970713
-0.30103	1}tt|rr 3}ai|zz	0.0000
-0.2525592	1}un </s>	0.0000
-0.30103	2|(}tt 2|)}ou	0.0000
-0.0002909521	2|)}_ </s>	0.0000
-3.95226	2|)}_ _}ai	0.0000
-3.95226	2|)}_ _}ai|gg	0.0000
-3.95226	2|)}_ _}nn	0.0000
-3.95226	2|)}_ _}vv|ei	0.0000
-3.95226	2|)}_ _}yy|eu	0.0000
-6.334055e-05	2|)}ee </s>	0.0000
-4.214948	2|)}ee _}vv|ei	-0.03951854
-0.30103	2|)}ou </s>	0.0000
-0.03778856	2|)}rr </s>	0.0000
-1.380211	2|)}rr _}ii	0.0000
-0.0001640395	2|)}zz </s>	0.0000
-3.900039	2|)}zz _}ai|dd	0.0000
-3.900039	2|)}zz _}ee	0.0000
-0.07918125	2}dd|eu </s>	0.0000
-1.079181	2}dd|eu _}zz|ai	0.0000
-0.3788141	2}ee|kk )}uu|bb	-0.05970713
-0.30103	2}in|tt 1}ei|un	0.0000
-0.3788141	2}ou|zz </s>	0.0000
-0.3788141	2}rr|ei </s>	0.0000
-0.30103	2}|vv 4}in|tt	0.0000
-0.30103	3|(}ff 2|)}rr	0.0000
-0.0003362714	3|)}_ </s>	0.0000
-0.05115252	3|)}ee </s>	0.0000
-0.09691001	3|)}ei </s>	0.0000
-0.0001855959	3|)}zz </s>	0.0000
-3.670339	3|)}zz _}ai|ll	0.0000
-0.4771213	3}ai|tt (}rr	0.0000
-0.4771213	3}ai|tt _}rr|kk	0.0000
-0.30103	3}ai|zz </s>	0.0000
-0.4771213	3}tt|rr 0}an|tt	0.0000
-0.5549054	3}tt|rr _}an|tt	0.0000
-0.3788141	3}uu|bb </s>	0.0000
-0.146128	3}ww|aa </s>	0.0000
-0.845098	3}ww|aa _}ss|an	0.0000
-0.00112366	4|)}_ </s>	0.0000
-0.003460532	4|)}ee </s>	0.0000
-2.401401	4|)}ee _}vv|ei	0.0000
-0.0001940114	4|)}zz </s>	0.0000
-3.728868	4|)}zz _}ee	-0.1933334
-0.30103	4}aa|rr 0}an|tt	0.0000
-0.30103	4}gg|rr )}ai|kk	0.0000
-0.30103	4}in|tt _}kk|aa	0.0000
-1	4}kk|aa (}tt	0.0000
-1.077784	4}kk|aa 0|0}tt	0.0000
-1.077784	4}kk|aa 0}rr|an	0.0000
-1.077784	4}kk|aa 0}tt|rr	-0.05970713
-1.077784	4}kk|aa _}rr|an	0.0000
-1	4}kk|aa _}tt	0.0000
-0.3788141	4}rr|zz </s>	0.0000
-0.30103	4}tt|oo (}rr	0.0000
-0.002757435	5|)}_ </s>	0.0000
-2.499687	5|)}_ _}vv|ei	0.0000
-0.3788141	5|)}ee </s>	0.0000
-0.5002936	5}in|kk </s>	0.0000
-0.5002936	5}in|kk _}an|tt	0.0000
-0.30103	5}zz </s>	0.0000
-0.002722858	6|)}_ </s>	0.0000
-0.009984221	6|)}ee </s>	0.0000
-0.30103	6|)}ei </s>	0.0000
-0.00914338	6|)}zz </s>	0.0000
-0.07918125	6}ii|ss </s>	0.0000
-0.004321374	7|)}_ </s>	0.0000
-0.3788141	7|)}ee </s>	0.0000
-0.01072387	7|)}zz </s>	0.0000
-0.845098	7}ai|tt (}_	0.0000
-0.146128	7}ai|tt </s>	0.0000
-0.4771213	7}tt|dd 2}ou|zz	0.0000
-0.4771213	7}tt|dd _}ii	0.0000
-0.005395032	8|)}_ </s>	0.0000
-0.1992636	8|)}ee </s>	0.0000
-0.007553138	8|)}zz </s>	0.0000
-0.3788141	8}ei|uy _}ii	-0.2900325
-0.4771213	8}vv|in _}nn	0.0000
-0.4771213	8}vv|in _}ss	0.0000
-0.30103	8}zz|uy _}ii	0.0000
-0.01639042	9|)}_ </s>	0.0000
-0.3788141	9}eu|ff </s>	0.0000
-3.387733	<s> -}_	-0.4255043
-4.176104	<s> -}tt	0.03103423
-5.098986	<s> -}zz	0.0000
-4.066959	<s> _}aa	-0.3456394
-4.419142	<s> _}ei	-0.5208062
-5.021202	<s> _}ii	0.0000
-3.94202	<s> _}tt	-0.4633335
-2.735644	<s> a|i}ai	-0.2864615
-5.098986	<s> a|i}ei	-0.2676388
-5.021202	<s> a|l}oo	0.0000
-2.868913	<s> a|m}an	-0.8334812
-2.274568	<s> a|n}an	-0.8807256
-2.517411	<s> a|u}au	-0.6898397
-2.353749	<s> a|u}oo	-0.8796818
-4.419142	<s> a|y}ai	-0.08431499
-5.021202	<s> a|y}ei	0.0000
-4.49561	<s> a|î}ai	-0.1645881
-4.322232	<s> a}_	0.7020465
-1.156513	<s> a}aa	-1.175371
-5.021202	<s> a}aa|on	0.0000
-5.021202	<s> a}aa|vv	0.0000
-3.817082	<s> a}ai	-0.6216556
-5.021202	<s> a}an	0.0000
-5.021202	<s> a}au	0.0000
-4.322232	<s> a}ei	-0.4945062
-5.021202	<s> a}oe	0.0000
-4.743344	<s> b|u}bb	-1.146795
-1.326246	<s> b}bb	-0.6409718
-3.377749	<s> b}bb|ei	-0.1022514
-1.887344	<s> c|h}ch	-0.948294
-1.089947	<s> c}kk	-1.906905
-5.021202	<s> c}kk|on	0.0000
-1.99426	<s> c}ss	-0.9750498
-2.801094	<s> c}ss|ei	-0.4089622
-4.066959	<s> c}tt|ch	-0.1278005
-5.098986	<s> d}_	-0.2539867
-1.159428	<s> d}dd	-1.113551
-3.280839	<s> d}dd|ei	-0.2351081
-4.021202	<s> e|a}ii	-0.108772
-4.419142	<s> e|i}ai	0.0000
-2.360336	<s> e|m}an	-0.7852972
-5.021202	<s> e|n}aa	0.0000
-1.844821	<s> e|n}an	-1.515252
-5.098986	<s> e|r}ai	-0.192965
-3.430137	<s> e|u}ee	-0.6038431
-3.025567	<s> e|u}eu	-0.7031473
-3.659474	<s> e|u}oe	-0.04579335
-5.098986	<s> e|y}ei	-0.2330854
-5.021202	<s> e|z}ei	0.0000
-3.589838	<s> e}_	-0.5124674
-3.979809	<s> e}aa	-0.6372137
-1.721912	<s> e}ai	-0.8553231
-2.53548	<s> e}ei	-0.1539748
-3.875074	<s> e}eu	-0.07094575
-5.098986	<s> e}oe	0.0000
-5.098986	<s> e}yy	-0.2928451
-3.112717	<s> f}ai|ff	-0.3604847
-1.410116	<s> f}ff	-1.094145
-2.632036	<s> g|u}gg	-0.9044188
-4.176104	<s> g}_	-0.741214
-3.408418	<s> g}dd|jj	-0.8990905
-1.696302	<s> g}gg	-0.888499
-2.158474	<s> g}jj	-1.160678
-3.430137	<s> g}jj|ei	-0.1143818
-5.021202	<s> h|Ô}oo	0.0000
-1.655152	<s> h}_	-0.9407065
-4.419142	<s> h}aa	-0.09148699
-3.606228	<s> h}aa|ch	-0.05818826
-4.419142	<s> h}yy	-0.4516658
-5.021202	<s> i|(}un	0.0000
-2.264566	<s> i|m}in	-0.8780606
-1.55716	<s> i|n}in	-2.544436
-1.769077	<s> i}ii	-1.023176
-5.021202	<s> i}pp|rr	0.0000
-3.790753	<s> i}yy	-0.3586293
-3.441418	<s> j}dd|jj	0.2509035
-1.984174	<s> j}jj	-0.09073174
-4.743344	<s> j}jj|yy	0.0000
-4.419142	<s> j}rr	0.0000
-4.49561	<s> j}yy	0.03121821
-4.743344	<s> k|n}nn	0.0000
-2.111111	<s> k}kk	-0.7132372
-4.066959	<s> l|l}ll	-0.4669162
-3.54408	<s> l}ai|ll	-0.05426306
-1.523581	<s> l}ll	-1.259009
-5.021202	<s> m|m}mm	0.0000
-3.201658	<s> m}ai|mm	-0.2934443
-1.208088	<s> m}mm	-1.016876
-5.021202	<s> n}ai	0.0000
-3.339961	<s> n}ai|nn	-0.1012504
-1.734072	<s> n}nn	-1.089292
-5.021202	<s> n}nn|uu	0.0000
-3.84511	<s> o|m}on	-1.027746
-3.305198	<s> o|n}on	-0.7005152
-2.64099	<s> o|u}ou	-0.7258653
-3.742448	<s> o|u}ww	0.03072351
-3.157879	<s> o}_	0.2621148
-2.783156	<s> o}au	-0.2662456
-5.021202	<s> o}oe	0.0000
-1.824473	<s> o}oo	-1.040585
-4.743344	<s> o}ww	1.374638
-2.637386	<s> p|h}ff	-0.8537974
-1.070253	<s> p}pp	-0.9297347
-3.06216	<s> p}pp|ei	-0.3427957
-5.021202	<s> q|u}gg	0.0000
-2.406305	<s> q|u}kk	-0.8712662
-3.201658	<s> q}kk	-0.2909493
-4.49561	<s> q}kk|uu	-0.03558578
-5.021202	<s> r|z}rr	0.0000
-3.221861	<s> r}ai|rr	-0.3070787
-1.128384	<s> r}rr	-1.869475
-2.975879	<s> s|h}ch	-0.4195936
-2.740168	<s> s}_	-1.95681
-3.071812	<s> s}ai|ss	-0.1404907
-3.765929	<s> s}ch	-0.2224827
-1.165259	<s> s}ss	-1.206849
-4.176104	<s> s}zz	-0.3542714
-4.021202	<s> t|h}ff	-0.1787858
-4.021202	<s> t|h}zz	-0.02805015
-3.979809	<s> t}dd	-0.7317368
-5.098986	<s> t}ss	-0.2929372
-1.374014	<s> t}tt	-1.504203
-3.349104	<s> t}tt|ei	-0.2025767
-3.742448	<s> u|n}un	-0.4070854
-4.743344	<s> u}ee	-0.1621324
-4.322232	<s> u}oe	-0.3124561
-4.419142	<s> u}ou	-0.04548122
-2.245227	<s> u}uu	-0.6973228
-4.021202	<s> u}yy|ou	-0.4393327
-1.585039	<s> v}vv	-0.8298135
-3.84511	<s> v}vv|ei	0.0000
-5.021202	<s> w|r}rr	0.0000
-4.021202	<s> w}dd|ou	-0.3157532
-5.021202	<s> w}tt|rr	0.0000
-2.881323	<s> w}vv	-0.2133442
-2.633812	<s> w}ww	-0.3700476
-4.322232	<s> x}gg|zz	-0.2511734
-3.765929	<s> x}kk|ss	-0.1493952
-3.64099	<s> y}ii	-0.4179335
-2.751689	<s> y}yy	-0.4591864
-2.625002	<s> z}zz	-0.7214388
-5.021202	<s> Â}aa	0.0000
-3.464899	<s> É}ei	0.03058469
-4.743344	<s> Î}ii	-1.146795
-5.021202	<s> Ô}au	0.0000
-4.743344	<s> Ö}au	0.0000
-2.747044	<s> à|_}aa	-0.07704663
-4.066959	<s> à}aa	-0.6690068
-3.430137	<s> â}aa	-0.4598977
-4.743344	<s> ç}ss	0.0000
-4.419142	<s> è}ai	-0.02442297
-1.615173	<s> é}ai	-2.256445
-5.098986	<s> é}ee	-0.05970713
-2.67681	<s> é}ei	-1.277882
-4.021202	<s> ê}ai	-0.7553962
-3.979809	<s> î}ii	-1.003205
-4.743344	<s> ô}au	-0.01095578
-4.322232	<s> ô}oo	-0.5427172
-4.743344	<s> ö}au	0.0000
-0.3788141	@}aa|zz r}ai|rr	-0.2631921
-0.07918125	_|u}un n}nn	-0.7755826
-3.254306	_}_ a|m}an	0.0000
-2.976449	_}_ a|n}an	-0.1557191
-1.749156	_}_ a|u}au	-0.6690016
-3.33209	_}_ a}_	0.6012625
-1.975553	_}_ a}aa	-0.3540796
-3.254306	_}_ a}ai	0.0000
-1.674523	_}_ b}bb	-0.3998694
-2.555336	_}_ c|h}ch	-0.09172381
-1.267535	_}_ c}kk	-0.4091798
-1.911884	_}_ c}ss	-0.5039463
-0.5358046	_}_ d}dd	-1.545426
-1.999034	_}_ e|n}an	-0.6966438
-2.254306	_}_ e}_	-1.041196
-1.777185	_}_ e}ai	-0.5544913
-2.254306	_}_ e}ei	-1.032895
-1.379245	_}_ f}ff	-0.5879897
-3.33209	_}_ g|u}gg	0.0000
-1.953276	_}_ g}gg	-0.3266734
-3.33209	_}_ g}jj	-0.2592123
-1.953276	_}_ h}_	-0.6552759
-3.33209	_}_ i|m}in	0.7267163
-2.300064	_}_ i|n}in	-0.292734
-2.728714	_}_ i}ii	-0.4240293
-2.728714	_}_ j}jj	-0.08420449
-2.652246	_}_ k}kk	0.0000
-1.324887	_}_ l}ll	-0.7306522
-1.186121	_}_ m}mm	-0.6682035
-1.874095	_}_ n}nn	-0.4697742
-2.976449	_}_ o|n}on	-0.1710735
-2.652246	_}_ o|u}ou	-0.2595885
-2.652246	_}_ o}_	-0.2585113
-2.555336	_}_ o}oo	-0.09521595
-1.117586	_}_ p}pp	-0.7896626
-1.039462	_}_ q|u}kk	-1.284237
-1.641523	_}_ r}rr	-0.5244973
-3.254306	_}_ s|h}ch	0.0000
-2.409208	_}_ s}_	-0.2759187
-1.390983	_}_ s}ss	-0.5561737
-1.403048	_}_ t}tt	-0.6599201
-2.212914	_}_ u|n}un	-0.3124063
-2.050186	_}_ u}uu	-0.878229
-1.749156	_}_ v}vv	-0.2492783
-3.254306	_}_ y}yy	0.0000
-1.999034	_}_ à|_}aa	-0.01956433
-2.175125	_}_ à}aa	-0.8075184
-2.652246	_}_ ç}ss	-0.209276
-2.300064	_}_ é}ei	-0.9504217
-2.257679	_}aa 2}dd|eu	0.0000
-2.335463	_}aa 2}rr|ei	-0.05970713
-1.111551	_}aa </s>	0.0000
-2.335463	_}aa _}dd|aa	-0.05970713
-2.335463	_}aa _}dd|ee	-0.05970713
-2.335463	_}aa _}ss|an	-0.192965
-1.979821	_}aa _}zz|ai	-1.301949
-2.257679	_}aa b}bb|ei	0.0000
-1.732087	_}aa c}kk	0.0000
-2.335463	_}aa c}ss|ei	0.0000
-2.257679	_}aa d}dd	0.0000
-2.257679	_}aa f}ff	0.0000
-2.257679	_}aa g}jj|ei	0.0000
-1.354589	_}aa i}ii	-0.3152075
-0.4188295	_}aa i}yy	-0.7774293
-1.979821	_}aa k}kk	-0.1667275
-2.257679	_}aa l}ai|ll	0.0000
-2.335463	_}aa l}dd|mm	0.0000
-2.335463	_}aa m}ai|mm	0.0000
-1.111551	_}aa o|u}ou	-0.1523984
-1.655619	_}aa o|u}ww	0.0000
-2.257679	_}aa o|w}oo	0.0000
-2.335463	_}aa o}oo	-0.2940351
-2.257679	_}aa p}pp	0.0000
-2.257679	_}aa p}pp|ei	0.0000
-2.335463	_}aa q|u}kk	0.0000
-2.257679	_}aa r}ai|rr	0.0000
-2.257679	_}aa s}ai|ss	0.0000
-2.257679	_}aa t}tt	0.0000
-2.257679	_}aa t}tt|ei	0.0000
-2.257679	_}aa v}vv|ei	0.0000
-2.257679	_}aa w}dd|ou	0.0000
-2.335463	_}aa w}ou	0.0000
-1.979821	_}aa w}ww	-0.1598872
-0.9566486	_}aa y}yy	-0.1129535
-2.335463	_}aa ²}rr|ei	-0.05970713
-0.30103	_}aa|rr _}au|bb	0.0000
-0.30103	_}aa|yy i}oe	0.0000
-1.30103	_}ai .}rr|aa	0.0000
-0.3467875	_}ai </s>	0.0000
-1.378814	_}ai _}tt|kk	0.0000
-1.30103	_}ai e}eu	0.0000
-1.30103	_}ai f}ai|ff	0.0000
-0.69897	_}ai m}ai|mm	-0.112072
-1.30103	_}ai o}oo	0.0000
-1.30103	_}ai z}zz	0.0000
-0.3802112	_}ai|dd </s>	0.0000
-1.079181	_}ai|dd _}ii	0.0000
-1.156965	_}ai|dd d}dd|ei	0.0000
-1.156965	_}ai|dd f}ai|ff	0.0000
-1.079181	_}ai|dd l}ai|ll	0.0000
-1.079181	_}ai|dd t}tt|ei	0.0000
-0.4771213	_}ai|gg 3|)}ee	0.0000
-0.4771213	_}ai|gg </s>	0.0000
-0.30103	_}ai|ll </s>	0.0000
-0.30103	_}ai|ss 7}ai|tt	0.0000
-0.845098	_}ai|tt _}ai	0.0000
-0.319506	_}ai|tt _}rr|kk	0.1459855
-1.032027	_}an|tt 1}ei|un	0.404179
-0.9542425	_}an|tt 2}dd|eu	0.0000
-0.3521825	_}an|tt _}ii	-0.249809
-1.032027	_}an|tt _}ss	0.0000
-0.3788141	_}au|bb @}aa|zz	-0.05970713
-0.30103	_}au|kk _}tt|oe	0.0000
-0.30103	_}au|yy _}tt	0.0000
-0.5351132	_}bb|ll _}ee	-0.2134134
-0.1760913	_}bb|ll _}vv|ei	0.1104706
-0.30103	_}dd j}jj	0.0000
-0.3788141	_}dd|aa m}mm	0.0000
-0.3788141	_}dd|ee l}mm|ww	-0.05970713
-1.380211	_}ee 8}vv|in	0.0000
-0.6812412	_}ee </s>	0.0000
-1.380211	_}ee _}vv|ai	0.0000
-0.8546192	_}ee _}vv|ei	0.1410021
-1.380211	_}ee a}aa	0.0000
-1.380211	_}ee c}kk	0.0000
-1.380211	_}ee c}ss	0.0000
-1.102354	_}ee e}ai	-0.1511395
-1.380211	_}ee e}ei	0.0000
-1.380211	_}ee g}jj	0.0000
-1.380211	_}ee l}ll	0.0000
-1.380211	_}ee p}pp	0.0000
-1.380211	_}ee r}rr	0.0000
-1.333057	_}ei </s>	0.0000
-1.333057	_}ei _}rr|oo	0.0000
-0.5563025	_}ei f}ff	-0.3352213
-1.333057	_}ei m}mm	0.0000
-1.255273	_}ei n}nn	0.0000
-0.9774148	_}ei r}rr	0.0000
-1.333057	_}ei s}ss	0.0000
-1.255273	_}ei t}tt	0.0000
-0.30103	_}ei|rr _}aa	0.0000
-0.5672404	_}ei|ss 5}in|kk	-0.008007735
-0.845098	_}ei|ss 6}ii|ss	0.0000
-0.845098	_}ei|ss 7}ai|tt	0.0000
-0.9228822	_}ei|ss _}ww	-0.1773096
-2.240549	_}ii 8}zz|uy	0.0000
-0.6607656	_}ii </s>	0.0000
-2.318333	_}ii _}aa	-0.08633049
-2.318333	_}ii _}ll|oo	-0.05970713
-1.962692	_}ii _}ss	-1.384686
-1.962692	_}ii _}tt	-1.552209
-2.240549	_}ii a}aa	0.0000
-2.318333	_}ii a}ai	-0.2938591
-1.962692	_}ii b}bb	-0.1726731
-2.318333	_}ii c}kk	-0.2297628
-2.318333	_}ii c}ss	0.0000
-2.318333	_}ii c}ss|ei	-0.1748686
-2.240549	_}ii d}dd	0.0000
-1.638489	_}ii d}dd|ei	-0.4516906
-2.318333	_}ii e}ee	0.0000
-2.240549	_}ii i}ii	0.0000
-2.240549	_}ii j}dd|jj	0.0000
-2.240549	_}ii j}jj	0.0000
-2.240549	_}ii j}yy	0.0000
-1.395451	_}ii k}kk	-0.2015228
-1.638489	_}ii m}mm	-0.1228309
-2.240549	_}ii n}ai|nn	0.0000
-2.318333	_}ii o}au	0.0000
-1.962692	_}ii p}pp|ei	-1.418253
-2.240549	_}ii r}ai|rr	0.0000
-2.240549	_}ii s}ai|ss	0.0000
-1.962692	_}ii s}zz	0.0000
-1.962692	_}ii t}tt	0.0000
-1.962692	_}ii t}tt|ei	0.0000
-2.318333	_}ii v}vv	-0.2947598
-2.318333	_}ii v}vv|ei	0.0000
-1.714957	_}ii x}kk|ss	-0.7472398
-0.4343693	_}ii y}yy	-0.3118095
-0.9228822	_}kk|aa 0|4}tt	0.0000
-0.9228822	_}kk|aa 1}tt|oo	-0.05970713
-0.5672404	_}kk|aa _}tt|rr	0.0000
-0.3788141	_}ll|oo m}mm	-0.2947179
-1.701033	_}nn 9}eu|ff	-0.05970713
-1.623249	_}nn </s>	0.0000
-1.345392	_}nn _}tt	0.4181041
-1.701033	_}nn a|n}an	0.0000
-1.701033	_}nn a|u}au	-0.2891522
-0.7781513	_}nn a}aa	-0.7602233
-1.701033	_}nn b}bb	-0.23931
-1.623249	_}nn c}ss	0.0000
-1.623249	_}nn e|m}an	0.0000
-1.623249	_}nn e|n}an	0.0000
-1.623249	_}nn e}ei	0.0000
-1.623249	_}nn g|u}gg	0.0000
-1.021189	_}nn g}gg	0.0000
-1.623249	_}nn i}yy	0.0000
-1.701033	_}nn n}nn	-0.2891536
-0.9242793	_}nn o|u}ou	-0.7387558
-1.345392	_}nn o}_	-1.569668
-1.345392	_}nn o}oo	-1.481595
-0.30103	_}oe l}ll	0.0000
-0.30103	_}on|ss g}ei|gn	0.0000
-0.30103	_}pp|aa _}nn	0.0000
-0.4771213	_}rr|an _}tt	0.0000
-0.4771213	_}rr|an _}tt|rr	0.0000
-0.9808741	_}rr|kk (}uu|bb	-0.05970713
-0.90309	_}rr|kk 3}uu|bb	0.0000
-0.30103	_}rr|kk _}aa	-0.2907605
-0.90309	_}rr|kk ³}uu|bb	0.0000
-0.4771213	_}rr|oo 1}un	0.0000
-0.5549054	_}rr|oo </s>	0.0000
-0.763535	_}ss 5}in|kk	-0.008007735
-0.4393327	_}ss 6}ii|ss	0.5182419
-0.4393327	_}ss 7}ai|tt	0.2841587
-0.1992636	_}ss|ai 1|6}zz	-1.146795
-0.60206	_}ss|an 1}dd	0.0000
-0.6798441	_}ss|an 7}tt|dd	0.0000
-0.60206	_}ss|an m}ai|mm	0.0000
-1.193125	_}tt </s>	0.0000
-1.892095	_}tt _}ei|rr	0.0000
-1.892095	_}tt _}ii	0.0000
-1.892095	_}tt _}ss	0.0000
-1.892095	_}tt a|u}au	0.0000
-0.1286666	_}tt c|h}ch	-0.2500271
-1.614237	_}tt c}ss	0.0000
-1.969879	_}tt e|n}an	0.0000
-1.892095	_}tt e}oe	0.0000
-1.892095	_}tt s}ch	0.0000
-1.892095	_}tt t}tt	0.0000
-1.969879	_}tt z}ss	-0.2916767
-1.892095	_}tt à}aa	0.0000
-0.4771213	_}tt|kk 3}uu|bb	0.0000
-0.4771213	_}tt|kk ³}uu|bb	0.0000
-0.30103	_}tt|oe r}rr	0.0000
-0.4286505	_}tt|rr 3}ww|aa	-0.2340832
-0.9542425	_}tt|rr 8}vv|in	0.0000
-0.9542425	_}tt|rr </s>	0.0000
-0.9542425	_}tt|rr _}ee	0.0000
-0.30103	_}vv|ai </s>	0.0000
-0.3521825	_}vv|ei </s>	0.0000
-1.153506	_}vv|ei a}aa	-0.1484636
-1.431364	_}vv|ei b}bb|ei	0.0000
-1.509148	_}vv|ei c}ss|ei	0.0000
-1.431364	_}vv|ei e}eu	0.0000
-1.431364	_}vv|ei f}ai|ff	0.0000
-1.431364	_}vv|ei m}ai|mm	0.0000
-1.431364	_}vv|ei p}pp|ei	0.0000
-1.431364	_}vv|ei r}ai|rr	0.0000
-1.431364	_}vv|ei t}tt|ei	0.0000
-1.153506	_}vv|ei w}dd|ou	-0.8967335
-0.6252323	_}ww _}aa	-0.17095
-0.9808741	_}ww a|y}ai	-0.2651204
-0.9808741	_}ww a}aa	-0.2335233
-0.90309	_}ww e}ai	0.0000
-0.3788141	_}yy|eu </s>	0.0000
-0.3242023	_}zz|ai l}ll	-0.1580712
-0.60206	_}zz|ai r}rr	0.0000
-3.613568	a|i}ai (|1}_	0.0000
-2.636153	a|i}ai (}_	0.5800436
-2.085246	a|i}ai </s>	0.0000
-3.891426	a|i}ai _}_	0.0000
-3.891426	a|i}ai a}aa	0.0000
-2.347358	a|i}ai b}bb	-1.447995
-3.891426	a|i}ai c|h}ch	0.0000
-3.891426	a|i}ai c}ss	0.0000
-3.289366	a|i}ai d}_	0.1943275
-1.988336	a|i}ai d}dd	-0.3713543
-3.891426	a|i}ai d}tt	0.0000
-3.891426	a|i}ai e|(}_	0.0000
-0.7994075	a|i}ai e|n}_	-0.1621809
-3.96921	a|i}ai e|n}an	-0.1844318
-3.891426	a|i}ai e|r}ei	0.0000
-3.365834	a|i}ai e|s}_	1.628135
-2.219328	a|i}ai e}_	-0.2529628
-1.927638	a|i}ai g|n}gn	-0.1726308
-2.687306	a|i}ai g|u}gg	-0.4282008
-2.660977	a|i}ai g}_	-0.4475473
-2.210185	a|i}ai g}gg	-0.6250611
-3.96921	a|i}ai g}jj	0.0000
-3.891426	a|i}ai k|k}kk	0.0000
-3.891426	a|i}ai k}kk	0.0000
-2.612672	a|i}ai l}ll	-0.1354198
-2.078513	a|i}ai m}mm	-0.2775434
-1.246004	a|i}ai n}nn	-1.004251
-3.891426	a|i}ai p}pp	0.0000
-0.6663752	a|i}ai r}rr	-1.528436
-1.541178	a|i}ai s|(}_	-1.088235
-1.259982	a|i}ai s}_	-1.107903
-1.918298	a|i}ai s}ss	-1.533054
-1.153439	a|i}ai s}zz	-0.8163906
-3.891426	a|i}ai t|h}ff	0.0000
-0.8104389	a|i}ai t}_	-1.657259
-0.7518617	a|i}ai t}tt	-1.629601
-3.289366	a|i}ai v}vv	-0.1025067
-2.988336	a|i}ai x}_	0.9499946
-2.937183	a|i}ai x}kk|ss	-0.2024886
-3.891426	a|i}ai y}yy	0.0000
-3.613568	a|i}ai z}zz	-0.1485088
-0.01158187	a|i}ee s}zz	-0.9214331
-1.217484	a|i}ei (|1}_	0.0000
-0.5185139	a|i}ei (}_	0.5076874
-1.819544	a|i}ei </s>	0.0000
-1.541686	a|i}ei d}dd	-0.1644594
-1.217484	a|i}ei g}_	-0.09803335
-1.217484	a|i}ei m}mm	-0.1109966
-1.541686	a|i}ei n}nn	-0.1356157
-1.897328	a|i}ei r}rr	0.0000
-1.897328	a|i}ei s|(}_	-0.2919897
-0.9744459	a|i}ei s}_	0.3168284
-1.897328	a|i}ei s}ss	-0.2780966
-0.819544	a|i}ei s}zz	-0.2156814
-1.217484	a|i}ei t}tt	-0.287574
-0.3788141	a|i}eu s}zz	-0.2729626
-0.8361358	a|l}oo k}kk	-0.3893003
-0.1312789	a|l}oo l}ll	-1.177942
-0.01258913	a|m}aa n}nn	-0.3837432
-2.727541	a|m}an </s>	0.0000
-0.2819371	a|m}an b}bb	-0.3327598
-2.449684	a|m}an d}dd	0.0000
-2.449684	a|m}an f}ff	0.0000
-1.426511	a|m}an p|h}ff	-0.5051066
-1.472269	a|m}an p}_	-0.2722852
-0.4179111	a|m}an p}pp	-0.6294778
-2.028571	a|m}an r}rr	0.0000
-2.727541	a|m}an s}ss	0.0000
-0.9228822	a|n}aa s}_	-0.2887287
-0.146128	a|n}aa t}tt	-0.3433969
-4.078652	a|n}an '}_	-0.2842409
-2.293298	a|n}an (}_	-0.6300943
-4.078652	a|n}an -|j}zz	-0.05970713
-2.469389	a|n}an -}_	-0.3148387
-1.590935	a|n}an </s>	0.0000
-3.301898	a|n}an _}_	-0.0445291
-4.078652	a|n}an _}tt	0.2962736
-3.475276	a|n}an b}bb	-0.07184853
-1.658445	a|n}an c|h}ch	-0.4391909
-2.53847	a|n}an c}_	-0.5583631
-1.873763	a|n}an c}kk	-0.8271644
-1.057868	a|n}an c}ss	-1.022451
-1.893658	a|n}an d}_	-0.3848352
-1.032385	a|n}an d}dd	-0.4796484
-4.000868	a|n}an d}nn	0.0000
-2.921686	a|n}an d}tt	-0.1561964
-3.046625	a|n}an f}ff	-0.8427846
-2.268474	a|n}an g|u}gg	-0.3728198
-2.886924	a|n}an g}_	-0.4538739
-3.15577	a|n}an g}dd|jj	-0.728452
-1.6298	a|n}an g}gg	-0.4030708
-1.409803	a|n}an g}jj	-1.039788
-3.72301	a|n}an h}_	0.0000
-4.000868	a|n}an j}dd|jj	0.0000
-3.097778	a|n}an j}jj	0.01448636
-2.33811	a|n}an k}kk	-0.197567
-2.602928	a|n}an l}ll	-0.1434707
-3.72301	a|n}an m}mm	-0.08240624
-4.000868	a|n}an n}ii	0.0000
-3.72301	a|n}an p}pp	0.0000
-1.932682	a|n}an q|u}kk	-0.3118542
-2.310672	a|n}an s|(}_	-1.017638
-2.000868	a|n}an s}_	-1.099025
-1.508107	a|n}an s}ss	-0.5245469
-2.187954	a|n}an s}zz	-1.193969
-0.69209	a|n}an t}_	-2.028607
-2.959475	a|n}an t}ss	0.6419754
-0.4272999	a|n}an t}tt	-1.032302
-2.921686	a|n}an v}vv	-0.08908588
-4.000868	a|n}an w}vv	0.0000
-4.078652	a|n}an x}kk	-0.2919452
-3.15577	a|n}an x}kk|ss	-0.8153278
-3.72301	a|n}an z}ss	0.2517726
-2.959475	a|n}an z}zz	-0.1098998
-2.215538	a|n}an ç}ss	-1.181188
-0.4771213	a|r}aa s|(}_	0.0000
-0.4771213	a|r}aa s}_	0.0000
-0.30103	a|t}vv h}_	0.0000
-2.442256	a|u}au (}_	-0.2056702
-1.986324	a|u}au -}_	-0.6626347
-0.9973192	a|u}au </s>	0.0000
-1.094229	a|u}au _}_	-1.194003
-3.287354	a|u}au _}tt	0.0000
-1.685294	a|u}au b}bb	-0.1702689
-1.731051	a|u}au c|h}ch	-0.3937224
-3.365138	a|u}au c}_	0.0000
-1.889414	a|u}au c}kk	-0.2423043
-2.384264	a|u}au c}ss	-0.1926709
-1.418122	a|u}au d}_	-0.4305401
-1.238136	a|u}au d}dd	-0.4412749
-3.009496	a|u}au d}tt	-0.6579955
-3.287354	a|u}au e|r}ei	0.0000
-3.009496	a|u}au e}ai	-1.454257
-1.87238	a|u}au f|f}ff	-0.3240814
-1.965135	a|u}au f}ff	-0.2585834
-3.009496	a|u}au g|u}gg	-0.1645519
-3.287354	a|u}au g}_	0.0000
-2.245961	a|u}au g}gg	-0.3330944
-2.0086	a|u}au g}jj	-0.07126415
-3.287354	a|u}au h}_	0.0000
-2.685294	a|u}au j}jj	-0.09022911
-3.287354	a|u}au k}kk	0.0000
-3.287354	a|u}au l|h}yy	0.0000
-2.588384	a|u}au l|l}ll	-0.05489712
-1.76884	a|u}au l|t}_	0.07058132
-2.588384	a|u}au l}_	-0.1646648
-1.597158	a|u}au l}ll	-0.1155044
-1.546991	a|u}au m}mm	-0.8266237
-1.889414	a|u}au n}nn	-0.1051789
-3.009496	a|u}au p|h}ff	-0.03762656
-3.287354	a|u}au p}_	0.0000
-2.141226	a|u}au p}pp	-0.1716108
-2.245961	a|u}au q|u}kk	-0.3364609
-3.287354	a|u}au r|r}rr	0.0000
-1.782204	a|u}au r}rr	-0.3571848
-1.840196	a|u}au s}_	0.03510988
-1.731051	a|u}au s}ss	-1.088064
-1.76884	a|u}au s}zz	-0.4758086
-1.502024	a|u}au t}_	-0.6820717
-1.049308	a|u}au t}tt	-0.29707
-1.454845	a|u}au v}vv	-0.3542944
-3.287354	a|u}au w}vv	0.0000
-3.287354	a|u}au w}ww	0.0000
-3.365138	a|u}au x|_}zz	0.0000
-0.5797836	a|u}au x}_	-1.328207
-2.442256	a|u}au x}kk|ss	-0.2733343
-2.685294	a|u}au x}ss	-0.140723
-2.333111	a|u}au z}zz	-0.2022525
-3.11294	a|u}oo (}_	0.0000
-1.882491	a|u}oo -}_	-0.5397218
-3.11294	a|u}oo </s>	0.0000
-2.835082	a|u}oo _}_	-0.1544351
-1.751212	a|u}oo b}bb	-0.5129101
-1.431699	a|u}oo c|h}ch	-0.3300543
-1.581461	a|u}oo c}kk	-0.204237
-2.158697	a|u}oo c}ss	-0.8411535
-0.9254193	a|u}oo d}dd	-0.9694342
-3.11294	a|u}oo d}nn	0.0000
-3.190724	a|u}oo e}ai	-0.1680673
-3.11294	a|u}oo e}ee	0.0000
-1.556638	a|u}oo f|f}ff	-1.35916
-1.732729	a|u}oo f}ff	-1.261607
-1.32761	a|u}oo g}gg	-1.61219
-3.190724	a|u}oo g}jj	0.0000
-2.835082	a|u}oo j}jj	-0.1403406
-1.966812	a|u}oo l|l}ll	-1.084487
-3.11294	a|u}oo l}_	0.0000
-1.60779	a|u}oo l}ll	-0.2439898
-1.459727	a|u}oo m}mm	-0.658881
-2.835082	a|u}oo n}nn	-0.1015226
-2.267842	a|u}oo p|h}ff	-0.3495192
-1.966812	a|u}oo p}pp	-0.3975777
-3.11294	a|u}oo q|u}kk	0.0000
-0.8528686	a|u}oo r}rr	-0.535727
-1.380546	a|u}oo s}_	-1.574307
-1.364752	a|u}oo s}ss	-2.668326
-1.732729	a|u}oo s}zz	-0.2333851
-2.20985	a|u}oo t}_	-0.5916083
-2.071547	a|u}oo t}ss	0.6419754
-0.6023949	a|u}oo t}tt	-1.000943
-1.249617	a|u}oo v}vv	-0.3952184
-1.966812	a|u}oo x}_	-1.089755
-2.11294	a|u}oo x}kk|ss	-0.2457655
-2.51088	a|u}oo x}ss	-0.140723
-1.230449	a|w}au </s>	0.0000
-1.230449	a|w}au f}ff	0.0000
-0.3273589	a|w}au k}kk	0.01502152
-0.9525912	a|w}au l}ll	0.0000
-1.230449	a|w}au n}nn	0.0000
-0.9525912	a|w}au s}ss	-0.1560486
-0.4771213	a|w}oo </s>	0.0000
-0.5549054	a|w}oo r}rr	-0.2901858
-1.122216	a|y}ai (}_	-0.2568227
-0.493827	a|y}ai </s>	0.0000
-2.025306	a|y}ai _}_	0.0000
-2.10309	a|y}ai b}bb	0.0000
-2.025306	a|y}ai d}dd	0.0000
-2.10309	a|y}ai e|(}_	-0.2939889
-1.747448	a|y}ai e}_	-1.303625
-2.025306	a|y}ai f}ff	0.0000
-1.071063	a|y}ai l}ll	-0.2545017
-1.499714	a|y}ai m}mm	-0.2789794
-0.8791778	a|y}ai n}nn	-0.2540329
-1.747448	a|y}ai r}rr	0.0000
-2.025306	a|y}ai s|(}_	0.0000
-1.326336	a|y}ai s}_	0.1442257
-2.025306	a|y}ai s}ss	0.0000
-1.180208	a|y}ai s}zz	-0.1243742
-2.025306	a|y}ai t|h}ff	0.0000
-1.423246	a|y}ai t}tt	-0.1094767
-2.025306	a|y}ai w}ww	0.0000
-2.10309	a|y}ai ç}ss	-0.2441577
-1.646422	a|y}ei (}_	-0.8835605
-0.07302094	a|y}ei </s>	0.0000
-1.924279	a|y}ei _}_	0.0000
-1.924279	a|y}ei j}jj	0.0000
-1.322219	a|y}ei m}mm	-0.558347
-1.924279	a|y}ei n}nn	0.0000
-2.002064	a|y}ei r}rr	0.0000
-1.924279	a|y}ei s}_	0.0000
-0.3788141	a|z}aa </s>	0.0000
-0.4771213	a|ë}aa _}ei	0.0000
-0.4771213	a|ë}aa l}ll	0.0000
-1.187207	a|î}ai c|h}ch	-0.4699495
-0.4602085	a|î}ai n}nn	-0.8364753
-1.266389	a|î}ai t}_	-0.8520597
-0.2751624	a|î}ai t}tt	-1.397851
-1.253875	a|î}ei c|h}ch	-0.2372759
-0.06214791	a|î}ei t}tt	-1.091542
-2.741152	a}_ (}_	0.0000
-2.741152	a}_ </s>	0.0000
-1.699759	a}_ a}aa	-0.4430476
-1.896054	a}_ d}dd	-0.3462779
-2.818936	a}_ e|n}an	-0.2946254
-2.741152	a}_ h}_	0.0000
-2.215559	a}_ i|m}in	-0.07739435
-0.05900652	a}_ i|n}in	-1.001257
-1.537032	a}_ i}yy	-1.190308
-2.818936	a}_ k}kk	-0.2818592
-2.741152	a}_ l}ll	0.0000
-2.741152	a}_ n}nn	0.0000
-2.818936	a}_ o|n}an	-0.05970713
-2.741152	a}_ o|û}ou	0.0000
-2.741152	a}_ r|d}au	0.0000
-2.139091	a}_ s}ss	-0.1486368
-2.741152	a}_ t}tt	0.0000
-2.818936	a}_ u}ou	-0.272419
-2.818936	a}_ î|n}in	-0.2568752
-2.215559	a}_ ô}au	-0.2711615
-2.818936	a}_ ô}oo	-0.2340932
-2.350009	a}aa (}_	-0.7034124
-3.544325	a}aa -}_	-0.07434653
-4.690453	a}aa 1}dd	0.0000
-4.690453	a}aa 1}kk|in	0.0000
-4.768237	a}aa 1}ss|an	-0.192965
-4.690453	a}aa 1}tt|rr	0.0000
-4.690453	a}aa 1}un	0.0000
-4.768237	a}aa 3}tt|rr	-0.1529233
-3.845355	a}aa 4}kk|aa	-0.02798493
-1.260862	a}aa </s>	0.0000
-2.690453	a}aa _}_	-0.3833615
-4.690453	a}aa _}kk|aa	0.0000
-4.690453	a}aa _}nn	0.0000
-4.088393	a}aa _}ss	-0.04068466
-4.690453	a}aa _}ss|ai	0.0000
-3.64906	a}aa _}tt	-0.4503281
-4.768237	a}aa _}tt|rr	-0.09227219
-4.690453	a}aa a|y}ei	0.0000
-2.755955	a}aa a}aa	-0.1818143
-3.134151	a}aa b}_	-0.8585078
-1.23242	a}aa b}bb	-0.5732062
-4.412595	a}aa b}bb|ei	-0.1602175
-3.64906	a}aa b}pp	-0.5642715
-1.973615	a}aa c|h}ch	-0.5538994
-4.768237	a}aa c|h}rr	-0.05970713
-1.982032	a}aa c}_	-0.2635436
-1.556914	a}aa c}kk	-0.5763426
-1.867631	a}aa c}ss	-0.7258199
-4.088393	a}aa c}ss|ei	-0.09644741
-4.088393	a}aa c}tt|ch	-0.113902
-2.870909	a}aa d}_	-0.9298105
-1.431816	a}aa d}dd	-0.3974329
-4.088393	a}aa d}dd|ei	0.0000
-4.412595	a}aa d}nn	-1.225382
-4.690453	a}aa d}tt	0.0000
-4.690453	a}aa e|u}eu	0.0000
-3.845355	a}aa e}_	-0.0735285
-3.43518	a}aa e}ai	-0.5563481
-3.736211	a}aa e}ei	0.1511076
-4.768237	a}aa e}eu	0.0000
-2.130546	a}aa f|f}ff	-0.5496739
-4.412595	a}aa f}ai|ff	0.0000
-2.241747	a}aa f}ff	-0.4663158
-2.350009	a}aa g|n}gn	-0.199226
-2.74597	a}aa g|u}gg	0.1855528
-2.541234	a}aa g}_	-1.691947
-3.787363	a}aa g}dd	0.2218488
-3.736211	a}aa g}dd|jj	-0.05052762
-1.880221	a}aa g}gg	-0.8452053
-1.394886	a}aa g}jj	-0.751703
-4.412595	a}aa g}jj|ei	0.0000
-4.690453	a}aa g}nn|yy	0.0000
-2.124605	a}aa h}_	-0.5977254
-4.768237	a}aa h}yy	-0.2468555
-3.077669	a}aa i|l}yy	0.5356317
-3.991483	a}aa i}_	-0.3708849
-2.851604	a}aa i}ii	-0.601337
-2.010118	a}aa i}yy	-1.804435
-4.690453	a}aa j}dd|jj	0.0000
-2.380823	a}aa j}jj	-0.8168557
-4.690453	a}aa j}rr	0.0000
-4.088393	a}aa j}yy	-0.01370464
-4.088393	a}aa k|k}kk	-0.3192697
-2.301287	a}aa k}kk	-0.4210511
-1.905836	a}aa l|l}ll	-0.1098726
-4.412595	a}aa l|t}_	-0.7570716
-4.690453	a}aa l}_	0.0000
-0.9467081	a}aa l}ll	-0.7550176
-2.385102	a}aa m|m}mm	-0.5663517
-3.64906	a}aa m}ai|mm	0.01721807
-1.471655	a}aa m}mm	-0.3267226
-2.110669	a}aa n|n}nn	-0.7617924
-4.690453	a}aa n|t}_	0.0000
-4.088393	a}aa n}ai|nn	0.0000
-1.283232	a}aa n}nn	-0.4648762
-4.412595	a}aa o|n}on	0.0000
-2.792826	a}aa o|u}ou	-0.4748992
-3.991483	a}aa o|u}ww	-0.7017629
-2.95009	a}aa o}au	-0.3494753
-2.958059	a}aa o}oo	-0.7035842
-4.690453	a}aa p|-}bb	0.0000
-2.272152	a}aa p|h}ff	-0.4407753
-1.809639	a}aa p|p}pp	-0.2968341
-3.067204	a}aa p}_	-0.08555478
-1.748942	a}aa p}pp	-0.2178465
-3.544325	a}aa p}pp|ei	0.02494659
-2.199091	a}aa q|u}kk	-0.3085663
-4.690453	a}aa q}gg	0.0000
-3.099388	a}aa q}kk	-0.005194664
-1.910856	a}aa r|r}rr	-0.5133703
-4.768237	a}aa r|z}rr	0.0000
-4.088393	a}aa r}ai|rr	0.0000
-0.880826	a}aa r}rr	-0.7292372
-2.67342	a}aa s|(}_	-1.015532
-3.122251	a}aa s|h}ch	-0.1765997
-1.540311	a}aa s}_	-1.42907
-3.611272	a}aa s}ai|ss	0.07809542
-1.639687	a}aa s}ss	-1.560451
-2.061044	a}aa s}zz	-0.3137553
-4.088393	a}aa t|h}ff	0.04112062
-1.688287	a}aa t}_	-1.080063
-1.469039	a}aa t}ss	-0.883219
-1.098165	a}aa t}tt	-0.5689266
-3.736211	a}aa t}tt|ei	0.1074911
-4.768237	a}aa u}oo	-0.2912858
-4.088393	a}aa u}ou	-0.1004771
-4.412595	a}aa u}uu	0.0000
-3.64906	a}aa u}ww	-0.4082266
-1.560441	a}aa v}vv	-0.1451094
-4.690453	a}aa w}dd|ou	0.0000
-4.088393	a}aa w}vv	0.0000
-2.833121	a}aa w}ww	-0.416273
-4.768237	a}aa x}_	0.0000
-4.412595	a}aa x}kk	-1.526849
-2.475609	a}aa x}kk|ss	-0.5599511
-4.690453	a}aa y|y}yy	0.0000
-4.690453	a}aa y}ai	0.0000
-3.4117	a}aa y}ii	-0.4095435
-2.604093	a}aa y}yy	-0.3431524
-3.544325	a}aa z|z}zz	-0.04838152
-3.845355	a}aa z}dd	0.314394
-4.412595	a}aa z}dd|zz	0.1060711
-4.690453	a}aa z}ss	0.0000
-2.235608	a}aa z}zz	0.2211267
-3.57651	a}aa â}aa	-0.3285386
-2.653027	a}aa ç}ss	-1.388698
-2.761034	a}aa é}ai	-1.833382
-3.243295	a}aa é}ei	-1.43851
-3.4117	a}aa ë}ai	0.03508988
-4.164861	a}aa î}ii	-0.2020681
-4.690453	a}aa ï|n}in	0.0000
-2.447415	a}aa ï}ii	0.1153731
-2.82713	a}aa ï}yy	0.02497065
-4.690453	a}aa ñ}gn	0.0000
-4.690453	a}aa ô}au	0.0000
-4.690453	a}aa ü}oo	0.0000
-4.690453	a}aa ü}uu	0.0000
-0.30103	a}aa|on 1|1}zz	0.0000
-0.30103	a}aa|vv 2}in|tt	0.0000
-2.668849	a}ai (}_	0.4026288
-1.414973	a}ai _}ii	-0.5362201
-2.065473	a}ai c}ss	-0.2569152
-2.591065	a}ai d}dd	0.0000
-2.591065	a}ai e|s}_	0.0000
-0.9283068	a}ai e}_	-0.2044341
-2.668849	a}ai i}yy	0.0000
-1.687975	a}ai k}kk	-0.2167687
-1.636822	a}ai l}ll	-0.1994894
-2.591065	a}ai m}mm	0.0000
-2.668849	a}ai n}nn	0.0000
-1.591065	a}ai r}rr	-0.1672355
-2.591065	a}ai s|h}ch	0.0000
-2.668849	a}ai s}_	-0.2947641
-2.668849	a}ai t}tt	0.0000
-2.591065	a}ai t}tt|eu	0.0000
-2.313207	a}ai v}vv	-0.09021675
-1.034762	a}ai y}ii	-0.6639249
-0.2072492	a}ai y}yy	-0.6328264
-1.380211	a}ai|yy b}bb	0.0000
-1.380211	a}ai|yy c}kk	0.0000
-1.380211	a}ai|yy c}ss	0.0000
-1.457995	a}ai|yy d}dd	0.0000
-0.3388186	a}ai|yy k}kk	-0.7132437
-1.457995	a}ai|yy s}zz	0.0000
-0.8546192	a}ai|yy t}tt	-0.4042102
-0.9808741	a}an m}mm	0.0000
-0.377498	a}an n}nn	0.0000
-0.09691001	a}au l|l}ll	-0.2230245
-1	a}au l}ll	0.0000
-1.569146	a}ei c}ss	0.0000
-0.7923917	a}ei d}dd	-0.08637337
-0.8893017	a}ei e}_	-0.1219386
-0.5371192	a}ei i}ii	-0.06756075
-1.491362	a}ei k}kk	0.0000
-1.491362	a}ei r}rr	0.0000
-1.491362	a}ei t}tt	0.0000
-1.213504	a}ei y}ii	-0.1695274
-0.7923917	a}ei y}yy	-0.3394501
-1	a}oe l}ll	0.0000
-1	a}oe n}nn	0.0000
-0.474408	a}oe r}rr	0.0000
-1	a}oe s}ss	0.0000
-1	a}oe w}ww	0.0000
-0.1760913	a}oo c}_	-0.2578304
-0.7781513	a}oo l}ll	0.0000
-0.5549054	a}tt c|h}ch	0.0000
-0.4771213	a}tt t}oe	0.0000
-0.1992636	b|u}bb i}ii	-1.561105
-1.068716	b}_ </s>	0.0000
-0.09426992	b}_ b}bb	-0.4344332
-1.913814	b}_ s|(}_	0.0000
-1.991598	b}_ s}_	0.04059345
-1.388222	b}_ v}vv	-0.3290469
-3.607947	b}bb (}_	0.4649253
-4.211323	b}bb (}ei	0.06080711
-4.133539	b}bb -}_	0.0000
-4.133539	b}bb .}ei	0.0000
-4.133539	b}bb 1}ei|un	0.0000
-2.20412	b}bb </s>	0.0000
-4.133539	b}bb _}aa	0.0000
-3.434569	b}bb _}ai	-0.2842619
-4.133539	b}bb _}ee	0.0000
-4.133539	b}bb _}ei|ss	0.0000
-3.179296	b}bb _}ii	-0.1031593
-2.11235	b}bb a|i}ai	-0.635417
-3.434569	b}bb a|i}ei	-0.6053808
-3.230449	b}bb a|l}oo	-0.370666
-3.092146	b}bb a|m}an	-0.7581801
-1.779431	b}bb a|n}an	-0.5197799
-2.247048	b}bb a|u}au	-0.6177384
-2.771811	b}bb a|u}oo	-0.8502035
-3.531479	b}bb a|y}ai	-0.06882577
-3.855681	b}bb a|y}ei	0.0000
-2.929419	b}bb a}_	-0.3080665
-0.8628601	b}bb a}aa	-0.8566688
-3.288441	b}bb a}ai	-0.7207271
-3.855681	b}bb a}ai|yy	0.0000
-3.855681	b}bb a}au	-0.8820103
-4.211323	b}bb a}ei	0.0000
-3.855681	b}bb b}bb	-1.578257
-4.211323	b}bb b}oe	-0.05970713
-4.133539	b}bb c|h}ch	0.0000
-3.855681	b}bb c}kk	-0.1094388
-3.855681	b}bb c}ss	-0.1668653
-2.307464	b}bb d}dd	-0.8016567
-2.370111	b}bb e|(}_	-0.01228344
-3.607947	b}bb e|a}ii	-0.02962159
-3.133539	b}bb e|i}ai	-0.06030914
-3.855681	b}bb e|n}_	0.1381308
-2.929419	b}bb e|n}an	-0.14907
-4.133539	b}bb e|n}ee	0.0000
-3.133539	b}bb e|n}in	-0.4891688
-2.753328	b}bb e|r}ei	-0.6865038
-2.531479	b}bb e|s}_	0.364741
-3.607947	b}bb e|u}eu	0.1460202
-2.987411	b}bb e|u}oe	0.4421843
-3.179296	b}bb e|y}ei	-0.3758212
-4.133539	b}bb e|z}ai	0.0000
-4.133539	b}bb e|z}ei	0.0000
-1.739087	b}bb e}_	-0.2481527
-3.855681	b}bb e}aa	-1.30265
-1.29469	b}bb e}ai	-0.8884664
-2.019596	b}bb e}ee	-0.347254
-2.040117	b}bb e}ei	-0.08270711
-3.855681	b}bb e}ei|eu	0.0000
-3.531479	b}bb e}ii	-0.1208496
-4.133539	b}bb e}oe	0.0000
-4.211323	b}bb g}gg	0.0000
-3.092146	b}bb h}_	-0.1947288
-2.577236	b}bb i|n}in	-0.9286376
-4.133539	b}bb i|z}ii	0.0000
-1.070581	b}bb i}ii	-0.6300591
-4.133539	b}bb i}oe	0.0000
-1.708657	b}bb i}yy	-0.6971099
-2.443343	b}bb j}jj	-0.8713269
-3.434569	b}bb k}kk	-0.168326
-0.702336	b}bb l}ll	-1.452345
-3.019596	b}bb m}mm	-0.6997741
-3.092146	b}bb n}nn	-0.249379
-4.133539	b}bb o|i}ww	0.0000
-2.628389	b}bb o|m}on	-1.356805
-2.019596	b}bb o|n}on	-0.2625057
-2.957448	b}bb o|o}ou	-0.4702384
-1.271407	b}bb o|u}ou	-0.6788188
-3.179296	b}bb o|u}ww	-0.2242955
-4.133539	b}bb o|w}oo	0.0000
-2.165056	b}bb o}_	-0.08318019
-1.934882	b}bb o}au	-0.2212142
-4.133539	b}bb o}oe	0.0000
-1.235912	b}bb o}oo	-0.9951064
-2.929419	b}bb o}ww|aa	0.9890045
-0.9210849	b}bb r}rr	-1.410808
-3.607947	b}bb s|(}_	0.02567576
-3.092146	b}bb s}_	-0.3324333
-1.69263	b}bb s}ss	-1.097256
-2.81132	b}bb s}zz	-1.282581
-4.133539	b}bb t}_	0.0000
-2.401145	b}bb t}tt	-0.8045672
-3.607947	b}bb u|n}un	-0.2684416
-3.531479	b}bb u}ii	0.2172119
-2.878266	b}bb u}oe	-0.7823042
-3.855681	b}bb u}oo	-0.0410682
-2.656418	b}bb u}ou	-0.412907
-1.35035	b}bb u}uu	-0.5304283
-3.019596	b}bb u}uy	-0.05846173
-4.133539	b}bb u}yy|ou	0.0000
-2.718565	b}bb v}vv	-1.349017
-4.133539	b}bb w}vv	0.0000
-3.434569	b}bb w}ww	-0.3787654
-4.133539	b}bb y}_	0.0000
-2.189056	b}bb y}ii	-0.5761162
-4.133539	b}bb y}oe	0.0000
-2.90309	b}bb y}yy	-0.2860267
-4.133539	b}bb z}zz	0.0000
-2.401145	b}bb â}aa	-0.4743804
-2.500071	b}bb è}ai	-0.1899556
-1.739087	b}bb é}ai	-0.911843
-1.857077	b}bb é}ei	0.003478944
-2.642177	b}bb ê}ai	-0.6569812
-3.531479	b}bb ê}ei	0.1410647
-2.987411	b}bb î}ii	-1.038458
-4.211323	b}bb ô}au	-0.2049814
-4.211323	b}bb ö}eu	0.0000
-3.019596	b}bb û}uu	-1.102494
-4.211323	b}bb ü}uu	-0.2611495
-2.064458	b}bb|ei 2}dd|eu	0.0000
-0.5081555	b}bb|ei </s>	0.0000
-2.064458	b}bb|ei _}ei	0.0000
-2.064458	b}bb|ei _}ii	0.0000
-1.7866	b}bb|ei a}aa	-0.1484636
-1.538866	b}bb|ei b}bb|ei	-0.6167833
-2.064458	b}bb|ei c}kk	0.0000
-2.064458	b}bb|ei c}ss	0.0000
-1.064458	b}bb|ei c}ss|ei	-0.4029563
-1.7866	b}bb|ei d}dd|ei	0.0000
-1.462398	b}bb|ei f}ai|ff	0.04682161
-1.7866	b}bb|ei g}jj|ei	-1.431419
-2.064458	b}bb|ei h}aa|ch	0.0000
-1.7866	b}bb|ei i}ii	0.0000
-2.064458	b}bb|ei j}jj	0.0000
-2.142242	b}bb|ei l}ai|ll	0.0000
-1.538866	b}bb|ei m}ai|mm	-0.06714918
-1.365488	b}bb|ei n}ai|nn	-0.02146576
-1.7866	b}bb|ei o}oo	-1.580224
-1.462398	b}bb|ei p}pp|ei	0.03987819
-1.365488	b}bb|ei r}ai|rr	0.06210731
-1.110215	b}bb|ei s}ai|ss	-0.04274626
-1.462398	b}bb|ei t}tt|ei	0.0000
-1.7866	b}bb|ei v}vv|ei	0.0000
-0.30103	b}mm e|(}_	0.0000
-0.3788141	b}oe l}ll	-0.2546427
-1.477121	b}pp k}kk	0.0000
-0.1760913	b}pp s}ss	-0.6322665
-1.477121	b}pp s}zz	0.0000
-0.6320232	b}pp t}tt	-0.4210595
-2.614722	c|h}ch (}_	0.581109
-3.693903	c|h}ch -}_	0.0000
-1.611117	c|h}ch </s>	0.0000
-1.660479	c|h}ch a|i}ai	-0.2364659
-1.801808	c|h}ch a|m}an	-0.6830672
-1.161148	c|h}ch a|n}an	-0.6225418
-1.801808	c|h}ch a|u}au	-0.6775484
-1.754383	c|h}ch a|u}oo	-1.108749
-2.114119	c|h}ch a|î}ai	-1.406263
-2.994933	c|h}ch a}_	0.1179023
-0.8341642	c|h}ch a}aa	-0.6984634
-2.994933	c|h}ch a}ai	-0.7236451
-3.693903	c|h}ch a}ai|yy	0.0000
-1.52955	c|h}ch e|(}_	0.571393
-3.168311	c|h}ch e|i}ai	-0.3446182
-2.73966	c|h}ch e|n}_	2.417258
-3.693903	c|h}ch e|n}an	0.0000
-3.416045	c|h}ch e|n}ee	0.3055104
-1.73966	c|h}ch e|r}ei	-0.3627518
-1.774825	c|h}ch e|s}_	0.1875315
-3.771687	c|h}ch e|u}ee	-0.1905681
-2.278929	c|h}ch e|u}eu	-0.7893732
-2.246745	c|h}ch e|u}oe	-0.6136358
-3.693903	c|h}ch e|y}ei	0.0000
-2.65251	c|h}ch e|z}ei	0.6598635
-1.086448	c|h}ch e}_	-0.3346947
-1.236021	c|h}ch e}ai	-0.5346861
-1.036847	c|h}ch e}ee	-0.821295
-1.607543	c|h}ch e}ei	-0.1273361
-3.416045	c|h}ch e}ii	-0.1534384
-3.416045	c|h}ch h}_	0.0000
-3.416045	c|h}ch i|m}in	-0.5594729
-2.73966	c|h}ch i|n}in	-0.1544872
-0.9064423	c|h}ch i}ii	-0.811308
-2.031145	c|h}ch i}yy	-0.31021
-3.693903	c|h}ch j}jj	0.0000
-2.65251	c|h}ch k}kk	-0.5404679
-2.392873	c|h}ch l}ll	-0.1971305
-2.65251	c|h}ch m}mm	-0.2489263
-2.35148	c|h}ch n}nn	-0.4433511
-3.771687	c|h}ch o|m}on	0.0000
-2.114119	c|h}ch o|n}on	-1.023104
-3.771687	c|h}ch o|o}ou	-0.2408558
-2.081119	c|h}ch o|u}ou	-0.2046006
-3.168311	c|h}ch o|u}ww	0.06959641
-1.908573	c|h}ch o}_	-0.8434999
-2.081119	c|h}ch o}au	-0.3876251
-3.771687	c|h}ch o}oe	0.7332377
-1.824671	c|h}ch o}oo	-0.320796
-3.416045	c|h}ch o}ww|aa	0.6121442
-3.693903	c|h}ch p}pp	0.0000
-2.65251	c|h}ch r}rr	-0.4952868
-3.416045	c|h}ch s|(}_	-1.40026
-3.168311	c|h}ch s}_	-0.1217223
-3.693903	c|h}ch t}_	0.0000
-2.463454	c|h}ch t}tt	-0.3598633
-2.994933	c|h}ch u}ai	0.0000
-3.091843	c|h}ch u}oe	-0.006071858
-2.579959	c|h}ch u}ou	-0.3850317
-1.744513	c|h}ch u}uu	-0.6609508
-3.771687	c|h}ch u}uy	-0.2872629
-2.693903	c|h}ch w}vv	-0.3829125
-2.693903	c|h}ch w}ww	-0.1472509
-2.547775	c|h}ch y}ii	-0.2487721
-2.031145	c|h}ch â}aa	-0.8700471
-3.771687	c|h}ch ä}aa	0.0000
-1.861394	c|h}ch è}ai	-0.7021242
-3.771687	c|h}ch é}_	-0.1529233
-1.961509	c|h}ch é}ai	-0.7328861
-1.246745	c|h}ch é}ei	-0.5134039
-2.790813	c|h}ch ê}ai	-0.9260808
-3.693903	c|h}ch ô}au	0.0000
-2.790813	c|h}ch ô}oo	-0.9095328
-3.771687	c|h}ch ü}uu	0.0000
-0.3788141	c|h}rr t}tt	-0.2904451
-2.417887	c}_ (}_	0.4375105
-2.417887	c}_ -}_	-0.08374943
-1.557549	c}_ </s>	0.0000
-0.2610348	c}_ c}kk	-1.686113
-3.019947	c}_ c}ss	0.0000
-1.639735	c}_ c}tt|ch	-0.9978763
-2.320977	c}_ h}_	-0.1905751
-0.5999909	c}_ k}kk	-0.5419986
-1.12232	c}_ q|u}kk	-0.1890697
-1.906003	c}_ s|(}_	-0.7418985
-1.789498	c}_ s}_	-0.539467
-1.622007	c}_ t}_	-0.8409511
-2.116857	c}_ t}tt	-0.1729778
-1.000896	c}ch e}ai	-0.1607302
-1.278754	c}ch e}ei	0.0000
-1.000896	c}ch i}_	-0.1452892
-0.2373609	c}ch i}ii	-0.9625572
-1.278754	c}ch i}yy	0.0000
-1.361728	c}gg (}_	0.0000
-0.08297423	c}gg o|n}on	-1.209968
-1.361728	c}gg u|n}on	0.0000
-1.361728	c}gg z}zz	0.0000
-2.768997	c}kk (}_	-0.2773976
-3.333268	c}kk -}_	-0.08599126
-4.28751	c}kk 4}aa|rr	0.0000
-4.28751	c}kk 4}kk|aa	0.0000
-1.7892	c}kk </s>	0.0000
-4.009653	c}kk _}_	0.0000
-4.28751	c}kk _}aa	0.0000
-4.28751	c}kk _}ee	0.0000
-2.132174	c}kk a|i}ai	-1.373236
-4.28751	c}kk a|l}oo	0.0000
-2.343028	c}kk a|m}an	-0.08515573
-1.912762	c}kk a|n}an	-0.9304756
-2.455002	c}kk a|u}au	-0.388156
-2.756032	c}kk a|u}oo	-0.9623821
-4.365295	c}kk a|y}ai	0.0000
-2.571507	c}kk a}_	-0.8199497
-0.7975521	c}kk a}aa	-0.8986776
-3.761919	c}kk a}ai	-0.154958
-4.28751	c}kk a}au	0.0000
-4.365295	c}kk b}bb	0.0000
-3.384421	c}kk c}kk	-0.03300492
-1.951051	c}kk c}ss	-2.001127
-3.208329	c}kk d}dd	-1.047386
-4.365295	c}kk e}ai	0.0000
-4.28751	c}kk e}ei	0.0000
-4.28751	c}kk e}oe	0.0000
-3.685451	c}kk f}ff	0.0000
-4.365295	c}kk g|u}gg	-0.2069463
-4.365295	c}kk g}gg	0.0000
-4.28751	c}kk g}jj	0.0000
-1.560783	c}kk h}_	-0.9785347
-4.28751	c}kk i}ii	0.0000
-4.365295	c}kk k|-}aa	-0.05970713
-4.365295	c}kk k}kk	-0.2944458
-1.211599	c}kk l}ll	-1.141677
-3.333268	c}kk m}mm	-0.151072
-3.111419	c}kk n}nn	-0.08255522
-4.28751	c}kk o|i}ww	0.0000
-1.36014	c}kk o|m}on	-0.8006392
-0.8662358	c}kk o|n}on	-1.672319
-3.208329	c}kk o|o}ou	-0.2632989
-1.358603	c}kk o|u}ou	-1.002404
-3.761919	c}kk o|u}ww	-0.1165161
-4.009653	c}kk o|w}oo	-1.27995
-2.810389	c}kk o|û}ou	0.5139335
-2.455002	c}kk o}_	0.002967954
-1.754756	c}kk o}au	-0.4398621
-4.28751	c}kk o}oe	0.0000
-0.8567907	c}kk o}oo	-0.7017978
-2.945088	c}kk o}ww	0.1858711
-4.28751	c}kk o}ww|aa	0.0000
-4.365295	c}kk p}pp	-0.1978237
-4.28751	c}kk q|u}kk	0.0000
-4.009653	c}kk q}_	-0.5395876
-3.333268	c}kk q}kk	-0.9344984
-1.033688	c}kk r}rr	-1.452771
-2.674727	c}kk s|(}_	-0.6268491
-2.674727	c}kk s}_	-1.287865
-2.986481	c}kk s}ss	-0.2217893
-3.287511	c}kk t}_	-1.001513
-1.673669	c}kk t}ss	-0.8937407
-1.051982	c}kk t}tt	-0.9613068
-3.384421	c}kk u|e}eu	0
-4.28751	c}kk u|m}un	0.0000
-3.761919	c}kk u|n}un	0.04900009
-2.547148	c}kk u}ee	-1.2156
-2.810389	c}kk u}oe	-0.8878185
-3.588541	c}kk u}ou	-0.3549565
-1.142625	c}kk u}uu	-1.163137
-2.314383	c}kk u}uy	-0.5194468
-3.685451	c}kk u}yy|ou	-0.1349706
-4.28751	c}kk v}vv	0.0000
-3.384421	c}kk z}ss	0.2470697
-4.28751	c}kk z}zz	0.0000
-2.986481	c}kk â}aa	-0.7416035
-4.28751	c}kk æ}ss|ei	0.0000
-4.28751	c}kk è}ai	0.0000
-2.502181	c}kk ô}au	-1.270291
-2.731208	c}kk ô}oo	-1.320868
-4.365295	c}kk ú}ou	-0.05970713
-0.30103	c}kk|on _}pp|aa	0.0000
-2.93902	c}ss '}_	-0.22015
-3.971046	c}ss (}ii	0.404179
-3.893262	c}ss -}_	0.0000
-3.893262	c}ss _}ai	0.0000
-3.893262	c}ss _}ai|tt	0.0000
-3.291202	c}ss _}an|tt	-0.004636854
-3.615405	c}ss _}ii	0.0000
-3.893262	c}ss a}ei	0.0000
-1.137387	c}ss e|(}_	0.1603653
-3.971046	c}ss e|m}an	-0.0593181
-1.213834	c}ss e|n}an	-1.303089
-2.137388	c}ss e|r}ei	-0.4980946
-1.485022	c}ss e|s}_	-0.2758231
-2.990172	c}ss e|u}ee	-0.2774361
-2.93902	c}ss e|u}eu	0.3433025
-2.747134	c}ss e|u}oe	-0.3126059
-3.194292	c}ss e|y}ei	0.2842945
-3.194292	c}ss e|z}ei	0.9608934
-0.8867962	c}ss e}_	-0.8414049
-3.048164	c}ss e}aa	-0.125402
-1.002841	c}ss e}ai	-0.9171775
-1.079015	c}ss e}ee	-0.9796159
-1.847939	c}ss e}ei	-0.1448108
-2.662813	c}ss e}ei|eu	0.09373707
-3.971046	c}ss e}oe	0.1510725
-1.953743	c}ss i|n}in	-0.5275887
-0.639682	c}ss i}ii	-0.8205565
-0.9078358	c}ss i}yy	-1.10602
-3.291202	c}ss y|m}in	-0.07606263
-3.893262	c}ss y|n}in	0.0000
-1.675778	c}ss y}ii	-0.8955929
-3.971046	c}ss y}yy	-0.1832042
-1.855836	c}ss è}ai	-0.9412621
-1.303313	c}ss é}ai	-1.184777
-1.430864	c}ss é}ei	-0.4127746
-3.048164	c}ss ê}ai	-0.6170935
-1.872739	c}ss|ei (}_	-0.08073145
-2.649493	c}ss|ei 1}dd	0.0000
-2.571709	c}ss|ei 1}ss|an	0.0000
-2.571709	c}ss|ei 2}dd|eu	0.0000
-0.6174663	c}ss|ei </s>	0.0000
-2.571709	c}ss|ei _}ei	0.0000
-2.571709	c}ss|ei _}tt	0.0000
-1.571709	c}ss|ei a}aa	-0.3717436
-1.617466	c}ss|ei b}bb|ei	0.06437489
-2.571709	c}ss|ei c}ss	0.0000
-1.24949	c}ss|ei c}ss|ei	0.01578876
-2.571709	c}ss|ei d}dd	0.0000
-1.209981	c}ss|ei d}dd|ei	0.06607093
-1.872739	c}ss|ei e}oe	-0.1624567
-1.191498	c}ss|ei f}ai|ff	-0.05343878
-2.649493	c}ss|ei g}jj	-0.2945051
-1.316436	c}ss|ei g}jj|ei	-0.1632038
-1.969649	c}ss|ei h}aa|ch	0.05713718
-1.229286	c}ss|ei i}ii	-0.4226801
-1.969649	c}ss|ei i}yy	0.0000
-2.649493	c}ss|ei j}jj	-0.2871828
-2.649493	c}ss|ei j}jj|yy	0.0000
-2.649493	c}ss|ei k}kk	-0.2885579
-1.668619	c}ss|ei l}ai|ll	0.003579989
-1.457765	c}ss|ei m}ai|mm	0.0233734
-1.109311	c}ss|ei n}ai|nn	0.0762125
-1.969649	c}ss|ei o}oo	0.0000
-2.571709	c}ss|ei p}pp	0.0000
-1.229286	c}ss|ei p}pp|ei	-0.2575573
-2.571709	c}ss|ei q}kk|uu	0.0000
-1.457765	c}ss|ei r}ai|rr	0.02910548
-1.367589	c}ss|ei s}ai|ss	0.1207954
-1.872739	c}ss|ei t}tt|ei	-0.03986102
-2.571709	c}ss|ei u}uu	0.0000
-1.617466	c}ss|ei v}vv|ei	0.08908235
-1.612784	c}tt|ch e}aa	0.0000
-1.334926	c}tt|ch e}ai	-0.1728813
-1.612784	c}tt|ch e}ei	0.0000
-1.690568	c}tt|ch i}_	-0.2671196
-0.2325726	c}tt|ch i}ii	-0.5880209
-1.690568	c}tt|ch i}yy	0.0000
-1.010724	c}tt|ch z}ai|ch	0.4390607
-1.010724	c}tt|ch z}ei|ch	0.4390607
-3.059603	d}_ '}_	-0.2925896
-1.328606	d}_ (}_	-0.7659079
-2.981819	d}_ (}nn	0.0000
-1.413617	d}_ -}_	-0.5599595
-2.379759	d}_ -}tt	-0.1707935
-0.2854622	d}_ </s>	0.0000
-1.75137	d}_ _}_	-0.779941
-2.379759	d}_ _}tt	-0.1181692
-2.703961	d}_ a}aa	-0.1696886
-1.04732	d}_ d}dd	-0.7575083
-2.981819	d}_ e|u}eu	0.0000
-2.703961	d}_ e}_	-0.1729318
-2.981819	d}_ e}ee	0.0000
-1.75137	d}_ h}_	-2.205466
-2.379759	d}_ i}ii	-0.07928757
-0.9565127	d}_ s|(}_	-0.8867826
-0.8954588	d}_ s}_	-1.741074
-2.981819	d}_ t}_	0.0000
-2.456227	d}_ t}tt	-0.3450433
-3.059603	d}_ y}ii	-0.162669
-2.108805	d}dd '}_	-0.7386763
-2.479593	d}dd (}_	-0.05637944
-3.219955	d}dd -}_	-0.4606434
-1.746468	d}dd </s>	0.0000
-4.376921	d}dd _}_	0.0000
-3.697077	d}dd _}aa	0.08561143
-4.376921	d}dd _}ai	0.0000
-4.299137	d}dd _}au|kk	0.0000
-4.376921	d}dd _}ee	0.0000
-4.299137	d}dd _}ii	0.0000
-1.802207	d}dd a|i}ai	-0.7334653
-4.021279	d}dd a|i}ei	-1.532288
-4.299137	d}dd a|l}oo	0.0000
-2.767658	d}dd a|m}aa	0
-4.021279	d}dd a|m}an	0.03606674
-1.712549	d}dd a|n}an	-0.8065918
-2.918926	d}dd a|u}au	-0.2684475
-3.396047	d}dd a|u}oo	-0.9007397
-4.376921	d}dd a|w}au	0.0000
-4.021279	d}dd a|y}ai	0.0000
-3.299137	d}dd a|y}ei	0.1113659
-3.344894	d}dd a}_	-0.05818897
-1.297403	d}dd a}aa	-0.3179138
-4.021279	d}dd a}ai	-0.170844
-4.299137	d}dd a}ei	0.0000
-3.299137	d}dd b}bb	-0.3059987
-3.697077	d}dd c|h}ch	-0.5116321
-3.773545	d}dd c}kk	-0.09896774
-2.867773	d}dd d}_	-0.9191577
-4.299137	d}dd d}dd	0.0000
-4.376921	d}dd d}oe	-0.05970713
-1.689542	d}dd e|(}_	-0.005123377
-3.600167	d}dd e|a}ii	-0.347931
-4.376921	d}dd e|i}ai	0.0000
-3.697077	d}dd e|m}an	0.04158339
-3.697077	d}dd e|n}_	-0.2580559
-1.779309	d}dd e|n}an	-1.104492
-4.376921	d}dd e|n}ee	1.5917
-4.376921	d}dd e|n}in	-0.233118
-2.290536	d}dd e|r}ei	-0.1740218
-2.034319	d}dd e|s}_	0.01373696
-3.299137	d}dd e|u}ee	-0.1648488
-2.608941	d}dd e|u}eu	-0.5289974
-2.316865	d}dd e|u}oe	-0.4908986
-4.299137	d}dd e|y}ei	0.0000
-4.021279	d}dd e|z}ai	-0.1544163
-3.257744	d}dd e|z}ei	0.6598635
-1.290537	d}dd e}_	-0.5051283
-3.095017	d}dd e}aa	-0.2603034
-1.484223	d}dd e}ai	-0.4597139
-1.219955	d}dd e}ee	-0.6757281
-1.73211	d}dd e}ei	-0.3611364
-4.021279	d}dd e}ei|eu	-1.155012
-3.697077	d}dd e}eu	-0.1172271
-3.697077	d}dd e}ii	-0.5496251
-3.454039	d}dd e}oe	-0.00606221
-3.773545	d}dd f}ff	-0.1156357
-3.773545	d}dd g}gg	-0.1725124
-2.627039	d}dd g}jj	-0.5479347
-2.550949	d}dd h}_	-0.2315369
-4.299137	d}dd i|m}in	0.0000
-2.479593	d}dd i|n}in	-0.7299724
-0.8035924	d}dd i}ii	-0.4403968
-1.404267	d}dd i}yy	-1.014423
-2.212777	d}dd j}jj	-0.4854235
-4.021279	d}dd k}kk	0.0000
-2.976918	d}dd l}ll	-0.5082558
-2.205715	d}dd m}mm	-1.026427
-2.867773	d}dd n}nn	-0.3850743
-3.697077	d}dd o|i}ww	0.5182419
-3.185193	d}dd o|m}on	0.0364176
-2.238439	d}dd o|n}on	-0.4522678
-4.299137	d}dd o|o}ou	0.0000
-1.82057	d}dd o|u}ou	-0.308493
-2.655684	d}dd o|u}ww	-0.07618928
-4.299137	d}dd o|w}au	0.0000
-2.686353	d}dd o}_	0.07844543
-1.950832	d}dd o}au	-0.1834317
-4.299137	d}dd o}oe	0.0000
-1.337716	d}dd o}oo	-0.7614244
-4.299137	d}dd o}ww	0.0000
-3.219955	d}dd o}ww|aa	1.113943
-4.299137	d}dd r|z}rr	0.0000
-1.247213	d}dd r}rr	-1.149988
-3.020383	d}dd s|(}_	-0.2300434
-3.185193	d}dd s}_	-0.7608812
-2.901197	d}dd s}ss	-0.09751901
-2.956714	d}dd s}zz	-1.337587
-3.219955	d}dd t}_	-0.761883
-4.299137	d}dd t}tt	0.0000
-4.299137	d}dd u|m}un	0.0000
-3.454039	d}dd u|n}un	-0.07317761
-4.299137	d}dd u}ee	0.0000
-4.376921	d}dd u}oe	0.0000
-3.773545	d}dd u}oo	1.190523
-3.396047	d}dd u}ou	-0.09501704
-1.369718	d}dd u}uu	-0.846566
-1.904685	d}dd u}uy	-1.244855
-4.299137	d}dd u}yy|ou	0.0000
-2.822016	d}dd v}vv	-0.5021483
-3.257744	d}dd w}vv	-0.4007213
-3.043864	d}dd w}ww	-0.2070664
-2.344894	d}dd y}ii	-0.8367344
-4.299137	d}dd y}uu	0.0000
-4.021279	d}dd y}yy	-0.06137373
-4.299137	d}dd z|(}ei	0.0000
-3.219955	d}dd z}zz	-0.1654225
-4.376921	d}dd â}aa	-0.06263036
-2.441804	d}dd è}ai	-0.1064886
-0.7658732	d}dd é}ai	-1.439304
-1.365144	d}dd é}ei	-0.1979222
-3.068688	d}dd î}ii	-0.3234567
-4.299137	d}dd ï}ii	0.0000
-3.396047	d}dd ô}au	-0.8644329
-3.697077	d}dd ô}oo	-0.2151996
-3.257744	d}dd û}uu	-0.1086334
-4.021279	d}dd ü}uu	0.0000
-2.324282	d}dd|ei (}_	0.0000
-0.6253124	d}dd|ei </s>	0.0000
-2.324282	d}dd|ei _}kk|aa	0.0000
-1.479184	d}dd|ei a}aa	-0.519571
-2.324282	d}dd|ei b}bb	0.0000
-2.046425	d}dd|ei b}bb|ei	-0.01159257
-1.178154	d}dd|ei c}ss|ei	-0.2313845
-2.324282	d}dd|ei d}dd	0.0000
-1.79869	d}dd|ei d}dd|ei	-0.03758786
-1.722222	d}dd|ei e}oe	-0.09611487
-1.093834	d}dd|ei f}ai|ff	-0.7253847
-1.324282	d}dd|ei g}jj|ei	-0.01983589
-1.37004	d}dd|ei h}aa|ch	-0.4732262
-1.421193	d}dd|ei i}ii	-0.4110687
-2.324282	d}dd|ei i}yy	0.0000
-2.046425	d}dd|ei j}jj	-0.1653523
-2.324282	d}dd|ei j}jj|yy	0.0000
-2.402067	d}dd|ei k}kk	-0.2885579
-1.79869	d}dd|ei l}ai|ll	-0.1947689
-1.479184	d}dd|ei m}ai|mm	0.02205789
-1.79869	d}dd|ei n}ai|nn	-0.3737086
-1.28289	d}dd|ei p}pp|ei	-0.7880574
-1.421193	d}dd|ei r}ai|rr	-0.2685196
-1.023252	d}dd|ei s}ai|ss	-0.1441781
-1.625312	d}dd|ei t}tt|ei	-0.2270259
-2.324282	d}dd|ei u}ou	0.0000
-1.722222	d}dd|ei u}uu	-0.1220217
-2.046425	d}dd|ei v}vv|ei	0.0000
-2.324282	d}dd|ei w}dd|ou	0.0000
-0.2525592	d}nn e|(}_	-0.765135
-0.3788141	d}oe l}ll	0.0000
-0.05522279	d}tt (}_	-0.4114972
-1.826075	d}tt c|h}ch	0.0000
-1.826075	d}tt f}ff	0.0000
-1.127105	d}tt s}ss	-0.1770951
-1.584349	e|(}_ 2|)}_	0.7675681
-0.0405742	e|(}_ 2|)}ee	-0.1125233
-1.52979	e|(}_ 3|)}_	0.6503646
-2.875239	e|(}_ 3|)}zz	2.255365
-2.73391	e|(}_ 4|)}_	1.308957
-1.625571	e|(}_ 4|)}ee	-0.2651174
-3.989183	e|(}_ 4|)}zz	0.0000
-2.608972	e|(}_ 5|)}_	0.800717
-3.989183	e|(}_ 6|)}_	0.0000
-2.627455	e|(}_ 6|)}ee	0.2632414
-2.843055	e|(}_ 7|)}_	0.82823
-3.711325	e|(}_ 9|)}_	-0.1496166
-1.977724	e|a}ii </s>	0.0000
-2.055508	e|a}ii c}kk	0.0000
-2.055508	e|a}ii c}ss	0.0000
-0.8985423	e|a}ii d}dd	-0.3279344
-1.375664	e|a}ii g}gg	-0.0862886
-1.977724	e|a}ii g}gg|oe	0.0000
-1.977724	e|a}ii h}_	0.0000
-1.699866	e|a}ii k}kk	0.0000
-1.132626	e|a}ii l}ll	-0.06537988
-1.278754	e|a}ii m}mm	-0.185059
-0.8315955	e|a}ii n}nn	-0.3442163
-0.7472747	e|a}ii r}rr	-0.1991213
-1.375664	e|a}ii s}ss	-0.1486368
-1.278754	e|a}ii s}zz	-0.09479049
-1.375664	e|a}ii t|h}ff	0.1781809
-1.977724	e|a}ii t}_	0.0000
-0.9777236	e|a}ii t}tt	-0.2690592
-2.055508	e|a}ii v}vv	0.0000
-0.4771213	e|f}ei </s>	0.0000
-0.4771213	e|f}ei s|(}_	0.0000
-1.788168	e|i}ai </s>	0.0000
-2.209281	e|i}ai c|h}ch	0.0000
-2.487138	e|i}ai c}kk	0.0000
-1.788168	e|i}ai d}dd	-0.07250608
-2.487138	e|i}ai e|r}ei	0.0000
-2.564923	e|i}ai f|f}ff	-0.246212
-0.5733245	e|i}ai g|n}gn	-0.1246849
-1.788168	e|i}ai g}_	-0.2192959
-2.487138	e|i}ai g}gg	0.0000
-1.106927	e|i}ai g}jj	-0.3644186
-1.961546	e|i}ai k}kk	-0.2640986
-2.564923	e|i}ai l|l}_	-0.2940472
-1.584048	e|i}ai l|l}ll	-0.9496047
-2.209281	e|i}ai l}ll	0.0000
-2.209281	e|i}ai m}mm	-0.1640126
-2.209281	e|i}ai n|t}_	0.0000
-0.4785382	e|i}ai n}nn	-0.465437
-1.311047	e|i}ai r}rr	-0.3736174
-2.487138	e|i}ai s|h}ch	0.0000
-2.564923	e|i}ai s}_	-0.1367041
-2.209281	e|i}ai s}ss	-0.1585079
-2.487138	e|i}ai s}zz	0.0000
-2.209281	e|i}ai t}tt	0.0000
-1.885078	e|i}ai x}kk|ss	-0.2289979
-1.144716	e|i}ai z}zz	-0.4250092
-0.378273	e|m}an b}bb	-1.134427
-2.972666	e|m}an c}ss	0.0000
-1.481304	e|m}an m}mm	-0.5990767
-2.273695	e|m}an p|h}ff	-0.1430599
-1.416363	e|m}an p}_	-1.635998
-0.3005677	e|m}an p}pp	-0.7464213
-2.972666	e|m}an t}tt	0.0000
-2.972666	e|m}an v}vv	0.0000
-0.60206	e|m}in b}bb	0.0000
-0.3242023	e|m}in p}pp	-1.553896
-0.2911965	e|n}_ t}_	-2.541591
-0.3121366	e|n}_ t}tt	-2.523618
-3.231215	e|n}_ w}oe|vv	0.0000
-0.4771213	e|n}aa s}ss	0.0000
-0.4771213	e|n}aa t}tt	0.0000
-1.041393	e|n}ai d}dd	0.0000
-0.1383027	e|n}ai t}tt	-0.9060344
-1.041393	e|n}ai w}vv	0.0000
-4.022119	e|n}an (}_	0.0000
-4.022119	e|n}an (}nn	0.0000
-2.830391	e|n}an -}_	-0.2982927
-3.418743	e|n}an </s>	0.0000
-1.792046	e|n}an _}_	-0.4350066
-2.601912	e|n}an _}nn	-0.6222012
-3.944335	e|n}an b}bb	0.0000
-1.876149	e|n}an c|h}ch	-0.6282655
-3.944335	e|n}an c}_	0.0000
-1.638983	e|n}an c}kk	-1.504979
-1.115675	e|n}an c}ss	-0.8087715
-2.220059	e|n}an d}_	-1.111673
-1.015939	e|n}an d}dd	-0.7303499
-2.512971	e|n}an d}tt	-0.5241731
-1.756814	e|n}an f}ff	-1.341151
-3.666477	e|n}an g|u}gg	-0.1715617
-3.666477	e|n}an g}_	0.0000
-1.940013	e|n}an g}gg	-0.802738
-2.342275	e|n}an g}jj	-0.3615132
-4.022119	e|n}an h}_	-0.2119272
-2.582607	e|n}an j}jj	-0.6373672
-2.364551	e|n}an l}ll	-1.075871
-2.512971	e|n}an n}nn	-0.9998885
-4.022119	e|n}an p}pp	0.0000
-2.529361	e|n}an q|u}kk	-0.5992902
-4.022119	e|n}an q}kk	0.0000
-1.999852	e|n}an r}rr	-0.6549833
-3.099236	e|n}an s|(}_	0.05151042
-2.990092	e|n}an s}_	-0.618858
-1.181656	e|n}an s}ss	-1.494427
-3.944335	e|n}an s}zz	0.0000
-0.6489875	e|n}an t}_	-2.328774
-1.622115	e|n}an t}ss	-0.6010628
-0.4457484	e|n}an t}tt	-1.186189
-1.601912	e|n}an v}vv	-1.841069
-3.944335	e|n}an z|(}_	0.0000
-2.990092	e|n}an z}zz	-0.1945097
-2.740215	e|n}an ç}ss	-0.1046741
-0.005677133	e|n}ee t}tt	-1.826127
-1.442432	e|n}in (}_	-0.3219715
-2.435354	e|n}in (}nn	0.3422802
-2.261976	e|n}in -}_	-0.1628162
-2.358886	e|n}in -}nn	-0.05970718
-0.6126413	e|n}in </s>	0.0000
-1.730497	e|n}in _}_	-0.1960459
-2.960946	e|n}in _}nn	0.0000
-2.683089	e|n}in c}kk	-0.1658462
-0.8781608	e|n}in d}dd	-1.188927
-2.057856	e|n}in f}ff	-0.3250511
-2.683089	e|n}in g}gg	-1.463713
-2.960946	e|n}in g}jj	0.0000
-3.03873	e|n}in h}nn	-0.05970713
-2.683089	e|n}in j}jj	-1.51014
-3.03873	e|n}in q|u}kk	-0.244568
-0.6599162	e|n}in s|(}_	-0.8064622
-0.6891046	e|n}in s}_	-1.58086
-1.563006	e|n}in s}ss	-1.308219
-1.580735	e|n}in t}_	-1.028151
-1.498548	e|n}in t}tt	-0.6758619
-1.756826	e|n}in v}vv	-0.5446329
-2.960946	e|n}in z}zz	0.0000
-0.6798441	e|r}ai -}_	0.0000
-0.6798441	e|r}ai n}nn	-0.290896
-1.444519	e|r}ei (}_	-0.5024772
-3.215879	e|r}ei -}_	0.0000
-0.09823568	e|r}ei </s>	0.0000
-2.794767	e|r}ei _}_	-0.008304685
-1.636404	e|r}ei r}rr	-0.333179
-3.493737	e|r}ei r}ww	0.0000
-1.17987	e|r}ei s|(}_	-1.122951
-1.128249	e|r}ei s}_	-2.031971
-0.30103	e|r}ii s}_	0.0000
-3.290782	e|s}_ (|1}_	-0.2369273
-2.585925	e|s}_ -}_	-0.3264617
-0.004597867	e|s}_ </s>	0.0000
-2.913284	e|s}_ _}_	0.09238277
-3.816374	e|s}_ c|h}ch	0.0000
-2.515344	e|s}_ s}_	-1.321091
-2.862131	e|s}_ s}ss	-0.09020498
-2.913284	e|s}_ t}tt	-0.2436634
-2.453731	e|u}ee -}_	-0.1285764
-2.731589	e|u}ee </s>	0.0000
-1.886491	e|u}ee b}bb	-0.8070174
-2.809373	e|u}ee c}kk	0.0000
-1.886491	e|u}ee c}ss	-0.8809334
-1.652408	e|u}ee d}dd	-0.5050101
-1.652408	e|u}ee g}gg	-1.077383
-2.809373	e|u}ee g}jj	-0.2626888
-1.333649	e|u}ee i}yy	-1.377131
-1.777346	e|u}ee l}ll	-0.3805781
-1.828499	e|u}ee m}mm	-0.2067937
-1.389166	e|u}ee n}nn	-0.4689457
-1.777346	e|u}ee p|h}ff	-0.7984104
-1.409369	e|u}ee p}pp	-1.30282
-2.809373	e|u}ee r|r}rr	0.0000
-0.4985926	e|u}ee r}rr	-0.8785656
-2.809373	e|u}ee s}ss	-0.1835185
-0.6708909	e|u}ee s}zz	-1.069643
-0.9757139	e|u}ee t}tt	-0.9525034
-1.118805	e|u}ee v}vv	-0.556098
-1.731589	e|u}ee x}_	-1.03017
-2.731589	e|u}ee z}zz	0.0000
-2.610128	e|u}eu (}_	0.4375105
-1.337126	e|u}eu </s>	0.0000
-1.735066	e|u}eu _}_	-0.2538011
-3.212188	e|u}eu c|h}ch	0.0000
-3.212188	e|u}eu c}_	0.0000
-3.212188	e|u}eu c}kk	0.0000
-2.93433	e|u}eu d}_	0.0000
-2.36709	e|u}eu d}dd	-0.06100974
-2.610128	e|u}eu e|s}_	1.717615
-2.257945	e|u}eu e}_	0.1707693
-3.289972	e|u}eu e}ai	-0.1680673
-3.212188	e|u}eu e}yy	0.0000
-2.93433	e|u}eu f}ff	-0.1552233
-3.289972	e|u}eu g}_	-0.132915
-3.289972	e|u}eu g}gg	0.0000
-2.309098	e|u}eu g}jj	-0.2648098
-2.610128	e|u}eu h}_	-0.1169041
-3.289972	e|u}eu i}yy	-0.2569488
-2.257945	e|u}eu l}ll	-0.125276
-2.513218	e|u}eu m}mm	-0.08639382
-1.981739	e|u}eu n}nn	-0.3731605
-3.212188	e|u}eu o}oo	0.0000
-3.289972	e|u}eu p|h}ff	-0.281016
-1.190998	e|u}eu r}rr	-0.8649693
-3.289972	e|u}eu s|(}_	-0.1140708
-3.289972	e|u}eu s}_	0.04059345
-2.309098	e|u}eu s}ss	-0.699894
-0.3240081	e|u}eu s}zz	-2.431101
-2.36709	e|u}eu t}_	-0.5510297
-1.54009	e|u}eu t}tt	-0.4900913
-2.06606	e|u}eu v}vv	-0.09058848
-3.289972	e|u}eu w}vv	0.0000
-0.5391667	e|u}eu x}_	-0.7898129
-3.212188	e|u}eu y}ii	0.0000
-2.513218	e|u}eu z}zz	-0.3732592
-2.196821	e|u}oe b}bb	-1.017871
-3.276002	e|u}oe d}dd	0.0000
-1.895791	e|u}oe f}ff	-0.8662325
-2.430904	e|u}oe g}gg	-0.2422329
-2.75041	e|u}oe g}jj	-0.1467433
-2.02073	e|u}oe i|l}yy	0.1506561
-1.974972	e|u}oe i}yy	-1.284377
-1.953783	e|u}oe l}ll	-0.3378685
-1.974972	e|u}oe n}nn	-0.8624983
-2.430904	e|u}oe p}pp	-0.8634876
-2.372912	e|u}oe r|r}rr	-0.1374648
-0.06890645	e|u}oe r}rr	-2.136719
-2.998144	e|u}oe s}_	-0.1706688
-3.276002	e|u}oe s}ss	0.0000
-1.798881	e|u}oe s}zz	-0.8530246
-3.276002	e|u}oe t}_	0.0000
-2.372912	e|u}oe t}tt	-0.1050815
-1.336483	e|u}oe v}vv	-1.839107
-3.353786	e|u}oe x}_	-0.2835683
-3.276002	e|u}oe z}zz	0.0000
-0.2344943	e|y}ei </s>	0.0000
-2.178977	e|y}ei b}bb	0.0000
-2.256761	e|y}ei c|h}ch	-0.268808
-1.901119	e|y}ei d}dd	-0.1663458
-2.178977	e|y}ei f}ff	0.0000
-2.256761	e|y}ei g}gg	0.0000
-2.178977	e|y}ei h}_	0.0000
-1.480007	e|y}ei l}ll	-0.1796158
-1.653385	e|y}ei m}mm	-0.06449009
-1.653385	e|y}ei n}nn	0.0000
-0.877947	e|y}ei r}rr	-0.3343659
-1.901119	e|y}ei s}_	-0.01487359
-2.178977	e|y}ei s}ss	0.0000
-1.653385	e|y}ei s}zz	-0.441268
-2.178977	e|y}ei t}_	0.0000
-2.256761	e|y}ei t}tt	0.0000
-2.178977	e|y}ei w}ww	0.0000
-2.256761	e|y}ei z}zz	0.0000
-1.378814	e|z}ai -}_	-0.2658012
-0.04575749	e|z}ai </s>	0.0000
-1.915136	e|z}ei (|1}_	0.0000
-0.007993376	e|z}ei </s>	0.0000
-2.59498	e|z}ei z}zz	-0.2299889
-0.2525592	e|û}eu n}nn	-0.2524348
-4.457079	e}_ '}_	0.0000
-4.534863	e}_ (|1}_	0.0000
-2.167045	e}_ -}_	-0.2981172
-0.3260703	e}_ </s>	0.0000
-2.794321	e}_ _}_	-0.08990642
-4.534863	e}_ _}ii	0.0000
-4.179222	e}_ _}nn	-0.1642287
-2.470307	e}_ a|i}ai	-1.392888
-4.457079	e}_ a|m}an	0.0000
-2.201807	e}_ a|n}an	-1.034434
-1.897173	e}_ a|u}au	-0.7400311
-2.758109	e}_ a|u}oo	-0.8300734
-4.457079	e}_ a|y}ei	0.0000
-2.465853	e}_ a}aa	-0.4217353
-3.252959	e}_ a}ai	-0.4301198
-4.534863	e}_ a}ei	0.0000
-3.931487	e}_ a}oe	-0.171935
-2.866014	e}_ b}bb	0.07053518
-3.252959	e}_ c|h}ch	-0.3088211
-4.457079	e}_ c}_	0.0000
-2.83383	e}_ c}kk	-0.2557465
-3.343136	e}_ c}ss	-0.3548547
-2.732803	e}_ d}dd	-0.3127058
-4.457079	e}_ e|r}ii	0.0000
-3.855019	e}_ e}ai	-0.1176154
-3.855019	e}_ e}ei	-0.5587164
-2.353276	e}_ e}ii	-0.3499863
-3.611981	e}_ f|f}ff	-0.08063073
-3.042106	e}_ f}ff	-0.4415774
-3.758109	e}_ g|u}gg	-0.07791698
-4.457079	e}_ g}_	0.0000
-3.114656	e}_ g}gg	-0.0390825
-3.553989	e}_ g}jj	-0.1289053
-4.457079	e}_ h}_	0.0000
-3.280988	e}_ i|l}yy	-0.6364983
-4.457079	e}_ i|m}in	0.0000
-2.132797	e}_ i|n}in	-1.63864
-4.457079	e}_ i}ii	0.0000
-2.611981	e}_ i}yy	-1.813416
-3.553989	e}_ j}jj	-0.1793337
-3.758109	e}_ k}kk	-0.3549112
-3.855019	e}_ l|l}ll	0.0000
-2.197008	e}_ l}ll	-0.3897769
-2.261179	e}_ m}mm	-0.7495494
-4.179222	e}_ n|n}nn	-0.0831268
-1.356364	e}_ n|t}ee	-0.3003411
-2.336505	e}_ n}nn	-0.0432139
-3.042106	e}_ o|n}on	-0.7305622
-4.457079	e}_ o|u}ou	0.0000
-2.979958	e}_ o}_	-0.54247
-3.611981	e}_ o}au	-0.6631669
-2.951929	e}_ o}oo	-0.4279999
-3.025715	e}_ p}pp	-0.2072013
-4.534863	e}_ q|u}kk	-0.2941767
-1.784981	e}_ r}rr	-0.9396695
-0.4399205	e}_ s|(}_	-1.024026
-2.605821	e}_ s}ss	-0.6862658
-4.457079	e}_ s}tt	0.0000
-2.43589	e}_ s}zz	-0.96193
-3.343136	e}_ t}_	-0.7801517
-2.678928	e}_ t}tt	-0.1770702
-3.758109	e}_ u|f}eu	-0.04088798
-4.457079	e}_ u|n}un	0.0000
-3.758109	e}_ u|r}eu	-0.01588064
-3.343136	e}_ u}uu	-0.04865266
-2.465853	e}_ v}vv	-0.07398158
-3.252959	e}_ w}ou	-0.4175038
-3.502837	e}_ w}ou|vv	-0.06768493
-4.534863	e}_ w}uu|ou	0.0000
-4.534863	e}_ w}vv	-0.288901
-4.534863	e}_ w}ww	0.0000
-2.587847	e}_ y}ai	0.06976241
-3.758109	e}_ y}ii	-0.3545089
-4.457079	e}_ y}yy	0.0000
-2.286818	e}_ z|(}ei	-0.7309297
-4.457079	e}_ z}ss	0.0000
-4.179222	e}_ z}zz	-0.1535634
-3.931487	e}_ ô}au	-0.2595796
-4.534863	e}_ ô}oo	-0.1337769
-4.534863	e}_ û}uu	0.0000
-2.311754	e}aa a|u}au	0.0000
-0.3249821	e}aa i}ii	-0.463026
-0.8967805	e}aa i}yy	-1.349559
-1.709694	e}aa l|l}ll	-0.1227389
-0.5264241	e}aa m|m}mm	-0.867555
-1.165626	e}aa n|n}nn	-0.7103671
-2.389538	e}aa n}nn	0.0000
-0.30103	e}aa|rr _}au|bb	0.0000
-3.661955	e}ai (}_	0.5596008
-3.738423	e}ai </s>	0.0000
-3.222622	e}ai _}_	-1.038968
-4.264015	e}ai _}nn	0.0000
-4.264015	e}ai a|t}vv	0.0000
-4.341799	e}ai a}aa	0.0000
-3.309772	e}ai b}_	0.1997765
-2.772653	e}ai b}bb	-0.5735997
-2.985261	e}ai c|h}ch	-0.4883026
-2.464674	e}ai c}_	-0.8115391
-1.205968	e}ai c}kk	-1.829494
-4.341799	e}ai c}ss	-0.181702
-2.902287	e}ai d}_	-0.2965587
-2.309772	e}ai d}dd	-0.5146066
-4.341799	e}ai f|-}_	-0.1529233
-1.917662	e}ai f|f}ff	-0.545474
-4.341799	e}ai f|s}_	-0.03951854
-2.493163	e}ai f}ff	-0.9547973
-3.360924	e}ai g}_	-0.9115983
-4.264015	e}ai g}dd|ei	0.0000
-2.732536	e}ai g}gg	-0.4611166
-4.341799	e}ai g}jj	-0.2907704
-3.033566	e}ai h}_	-0.4165736
-2.758865	e}ai i|l}yy	-0.1627272
-3.222622	e}ai i}ii	-0.5207099
-1.847374	e}ai i}yy	-1.59138
-3.738423	e}ai j}jj	-0.1692078
-2.758865	e}ai k}kk	-0.9129313
-1.070334	e}ai l|l}ll	-0.6934911
-1.309772	e}ai l}ll	-1.339612
-3.150071	e}ai m|m}mm	-0.2052498
-2.246981	e}ai m}mm	-0.9399827
-3.986157	e}ai n|i}gn	-1.225382
-1.333575	e}ai n|n}nn	-1.30506
-3.360924	e}ai n|t}_	0.1245896
-1.556444	e}ai n}nn	-1.073093
-3.986157	e}ai o}oo	-0.1387196
-3.360924	e}ai p|h}ff	-0.1940354
-3.087923	e}ai p|p}pp	-0.3950499
-3.087923	e}ai p}_	-0.7706925
-1.867815	e}ai p}pp	-1.658315
-4.264015	e}ai q|u}kk	0.0000
-3.661955	e}ai q}kk	-0.5036457
-3.661955	e}ai r|f}rr	-0.05970718
-1.447111	e}ai r|r}rr	-0.7740809
-4.264015	e}ai r|r}ww	0.0000
-4.341799	e}ai r|z}rr	0.0000
-0.5967485	e}ai r}rr	-1.968077
-3.360924	e}ai s|(}_	0.01340228
-3.738423	e}ai s|h}ch	-0.2315443
-1.258405	e}ai s}_	-1.349626
-0.9614672	e}ai s}ss	-1.958088
-2.941795	e}ai s}zz	-0.5812839
-3.661955	e}ai t|h}ff	0.04112062
-1.024465	e}ai t}_	-0.8362201
-4.264015	e}ai t}dd	0.0000
-4.264015	e}ai t}ss	0.0000
-1.921592	e}ai t}tt	-0.8870487
-2.719947	e}ai v}ff	-1.354197
-2.801617	e}ai v}vv	-0.3825182
-3.986157	e}ai w}vv	-0.1696409
-3.150071	e}ai w}ww	-0.3914525
-4.264015	e}ai x}_	0.0000
-1.562447	e}ai x}gg|zz	-0.1713945
-2.192132	e}ai x}kk	-0.2029685
-1.315602	e}ai x}kk|ss	-0.6648188
-4.264015	e}ai x}ss	0.0000
-3.087923	e}ai y}yy	-0.1657912
-4.264015	e}ai z|z}zz	0.0000
-3.418916	e}ai z}dd	0.9386906
-4.264015	e}ai z}dd|zz	0.0000
-3.264014	e}ai z}ss	-0.2742368
-2.418916	e}ai z}zz	-0.9142746
-4.341799	e}ai ï}yy	-0.291145
-3.932033	e}ee (|1}_	-1.467941
-2.164567	e}ee (}_	-2.014635
-1.60783	e}ee -}_	-1.112585
-1.865498	e}ee </s>	0.0000
-1.647597	e}ee _}_	-0.6768759
-4.20989	e}ee _}nn	0.0000
-4.20989	e}ee a}_	0.0000
-4.20989	e}ee a}aa	0.0000
-2.019558	e}ee b}bb	-0.02352273
-2.446462	e}ee c|h}ch	-0.3722576
-2.90886	e}ee c}gg	-0.5413622
-1.560555	e}ee c}kk	-0.9861116
-2.145432	e}ee c}ss	-0.7087582
-1.815439	e}ee d}dd	-0.5416398
-4.287674	e}ee f|f}ff	-0.246212
-2.000375	e}ee f}ff	-0.6133824
-3.255648	e}ee g|u}gg	0.03240975
-3.60783	e}ee g}_	-0.09803335
-2.028047	e}ee g}gg	-0.6883768
-2.537792	e}ee g}jj	-0.7732503
-2.867467	e}ee h}_	-0.4703526
-3.684298	e}ee i}ai	-0.2304386
-3.20989	e}ee i}yy	-1.00355
-2.346567	e}ee j}jj	-0.5682081
-3.684298	e}ee k}kk	-0.1351389
-3.364792	e}ee l|l}ll	-0.1941283
-1.278941	e}ee l}ll	-1.019176
-0.8285946	e}ee m}mm	-1.382281
-4.287674	e}ee n|n}nn	0.0000
-1.184994	e}ee n}nn	-0.8350254
-3.932033	e}ee p|h}ff	-0.05629695
-1.539644	e}ee p}pp	-0.5047662
-2.653588	e}ee q|u}kk	-0.6280664
-0.8602242	e}ee r}rr	-1.407822
-0.5377923	e}ee s|(}_	-3.421041
-2.016766	e}ee s}_	-0.7929787
-2.51092	e}ee s}ss	-0.4100774
-2.048522	e}ee s}zz	-0.3318969
-1.431739	e}ee t}tt	-1.254141
-3.684298	e}ee u|x}zz	0.6048532
-1.308977	e}ee v}vv	-0.7611645
-3.51092	e}ee w}vv	-0.09712722
-3.364792	e}ee z}zz	-0.001098603
-2.70474	e}ee ç}ss	-0.7150445
-4.20989	e}ee è}ai	0.0000
-3.51092	e}ee ï}ii	-0.1739472
-4.20989	e}ee ï}yy	0.0000
-0.30103	e}ee|mm r}yy|ei	0.0000
-2.184975	e}ei (}_	-0.3216993
-2.816998	e}ei -}_	-0.2077203
-1.62467	e}ei </s>	0.0000
-3.662097	e}ei _}_	0.0000
-3.739881	e}ei _}tt	0.2962736
-3.662097	e}ei a|u}oo	0.0000
-2.143583	e}ei a}aa	-0.5110164
-3.662097	e}ei b}_	0.0000
-2.170735	e}ei b}bb	-0.2254062
-2.620704	e}ei c|h}ch	-0.03639588
-2.457977	e}ei c}_	-0.5063926
-1.946093	e}ei c}kk	-0.350152
-2.515968	e}ei c}ss	-0.2728828
-3.662097	e}ei c}ss|ei	0.0000
-2.319674	e}ei d}_	-0.7857287
-1.684373	e}ei d}dd	-0.572852
-3.739881	e}ei d}tt	0.6281938
-3.662097	e}ei e|u}eu	0.0000
-3.384239	e}ei e}ai	-0.1721322
-3.739881	e}ei e}ei	0.0000
-3.662097	e}ei e}ei|eu	0.0000
-2.662097	e}ei f|f}ff	-0.2473162
-3.662097	e}ei f|s}_	0.0000
-2.457977	e}ei f}ff	-0.1527417
-3.662097	e}ei g}_	0.0000
-3.662097	e}ei g}dd	0.0000
-2.071032	e}ei g}gg	-0.3438493
-2.963126	e}ei g}jj	-0.3771513
-2.199698	e}ei h}_	-0.07706772
-1.999339	e}ei i}_	-0.2664649
-2.300369	e}ei i}ii	-0.3908533
-2.620704	e}ei i}yy	-2.063741
-2.707854	e}ei j}jj	-0.1754243
-3.662097	e}ei k|k}kk	0.0000
-2.130618	e}ei k}kk	-0.1186816
-1.891244	e}ei l|l}ll	-0.1645432
-1.409243	e}ei l}ll	-0.5994021
-2.707854	e}ei m|m}mm	-0.4175237
-1.717614	e}ei m}mm	-0.3016328
-2.486005	e}ei n|n}nn	-0.373011
-1.431648	e}ei n}nn	-0.5064577
-3.662097	e}ei o|n}on	0.0000
-2.406824	e}ei o}au	-0.3299648
-2.759007	e}ei o}oo	-0.1768103
-3.739881	e}ei p|h}ff	0.0000
-3.739881	e}ei p|p}pp	-0.2869858
-2.199698	e}ei p}pp	-0.2240566
-3.384239	e}ei q|u}kk	-0.1397179
-3.739881	e}ei q}kk	0.0000
-0.3108801	e}ei r}rr	-1.711174
-2.008884	e}ei s|(}_	-1.430754
-3.739881	e}ei s|h}ch	0.0000
-1.283699	e}ei s}_	-0.3059517
-1.764469	e}ei s}ss	-0.4580304
-2.156946	e}ei s}zz	-0.6133779
-1.712706	e}ei t}_	-1.843606
-1.67087	e}ei t}tt	-0.4821113
-3.384239	e}ei u}oo	-0.0410682
-3.384239	e}ei u}ou	0.0000
-3.739881	e}ei u}uu	0.0000
-1.798774	e}ei v}vv	-0.1900066
-2.620704	e}ei w}vv	-0.5663419
-2.759007	e}ei w}ww	0.04298428
-2.662097	e}ei x}gg|zz	-1.022545
-2.361066	e}ei x}kk|ss	-0.002987385
-2.662097	e}ei y}yy	-0.129297
-3.662097	e}ei z}dd	0.0000
-1.100995	e}ei z}zz	-1.22451
-2.662097	e}ei ï}ii	-0.140461
-3.739881	e}ei ï}yy	-0.263274
-3.662097	e}ei ñ}gn	0.0000
-1.679844	e}ei|eu (}_	0.4026288
-1.60206	e}ei|eu 2}dd|eu	0.0000
-0.20412	e}ei|eu </s>	0.0000
-1.324202	e}ei|eu a}aa	-0.1484636
-1.679844	e}ei|eu d}dd|ei	0.0000
-1.60206	e}ei|eu e}eu	0.0000
-1.60206	e}ei|eu g}jj|ei	0.0000
-1.679844	e}ei|eu i}ii	-0.279891
-1.60206	e}ei|eu p}pp|ei	0.0000
-1.60206	e}ei|eu r}ai|rr	0.0000
-1.60206	e}ei|eu t}tt|ei	0.0000
-0.30103	e}ei|oe </s>	0.0000
-1.812913	e}eu (}_	0.0000
-1.812913	e}eu -}_	0.0000
-0.39794	e}eu </s>	0.0000
-1.812913	e}eu _}_	0.0000
-1.535056	e}eu a}aa	-0.1484636
-1.812913	e}eu b}bb|ei	0.0000
-1.890697	e}eu c}ss|ei	0.0000
-1.890697	e}eu d}dd	-0.220524
-1.890697	e}eu d}dd|ei	-0.2583103
-1.890697	e}eu f}ai|ff	0.0000
-1.812913	e}eu j}jj|yy	0.0000
-1.812913	e}eu k}kk	0.0000
-1.812913	e}eu m}ai|mm	0.0000
-1.812913	e}eu p}pp	0.0000
-1.535056	e}eu p}pp|ei	0.0000
-1.890697	e}eu r}ai|rr	-0.1373419
-1.890697	e}eu r}rr	0.0000
-1.890697	e}eu s}_	-0.1367041
-1.535056	e}eu s}ai|ss	0.0000
-1.210853	e}eu t}tt	-0.1131994
-1.812913	e}eu t}tt|ei	0.0000
-1.890697	e}eu u|x}zz	0.6594515
-1.812913	e}eu z}zz	0.0000
-1.658011	e}ii -}_	-0.568299
-0.9176487	e}ii </s>	0.0000
-2.260071	e}ii a}aa	0.0000
-1.982214	e}ii a}ai	0.0000
-2.337856	e}ii a}tt	0.0000
-1.658011	e}ii b}bb	-0.1201263
-2.260071	e}ii c|h}ch	0.0000
-1.08398	e}ii d}dd	-0.4105273
-1.982214	e}ii e|(}_	-1.569521
-2.337856	e}ii e|s}_	1.682734
-1.658011	e}ii e}_	-0.1208434
-1.658011	e}ii f}ff	-0.1051118
-1.305829	e}ii k}kk	-0.3921542
-1.414973	e}ii l}ll	-0.02074708
-1.561101	e}ii m}mm	-0.2172648
-0.7976734	e}ii n}nn	-0.3656468
-1.146128	e}ii p}pp	-0.2794724
-1.18089	e}ii r}rr	-0.5368448
-1.658011	e}ii s|(}_	-0.01973105
-2.337856	e}ii s}ss	0.0000
-1.356981	e}ii s}zz	-0.3826352
-2.337856	e}ii t}_	0.05726925
-1.260071	e}ii t}tt	-0.02675208
-1.218679	e}ii v}vv	-0.1131569
-1.658011	e}ii w}ww	-0.1061303
-2.260071	e}ii z}dd	0.0000
-1.548217	e}oe (}_	-0.8835605
-1.224015	e}oe </s>	0.0000
-1.903859	e}oe a}aa	0.0000
-1.826075	e}oe c}ss|ei	0.0000
-1.826075	e}oe d}dd|ei	0.0000
-1.903859	e}oe l}ll	0.0000
-1.903859	e}oe n}nn	-0.2710306
-1.826075	e}oe p}pp|ei	0.0000
-0.1926063	e}oe r}rr	-1.032021
-1.224015	e}oe s}ai|ss	-0.2698785
-1.548217	e}oe s}ss	0.0000
-1.826075	e}oe u}oe	0.0000
-0.5816455	e}yy (}_	-0.875973
-2.271842	e}yy -}_	0.0000
-2.271842	e}yy -}ee	0.0000
-0.7277735	e}yy </s>	0.0000
-2.271842	e}yy a|u}au	0.0000
-2.271842	e}yy a}oe	0.0000
-1.993984	e}yy n|t}an	0.0000
-2.271842	e}yy n|t}ee	0.0000
-1.74625	e}yy n}ai	-0.06608129
-0.9496223	e}yy r|(}ei	-0.2808266
-1.74625	e}yy r}rr	-0.1814935
-1.669782	e}yy s|(}_	-0.1208841
-1.669782	e}yy s}_	-0.2337627
-2.271842	e}yy s}ai|ss	0.0000
-1.317599	e}yy u|x}eu	-0.05970716
-2.271842	e}yy u}ee	0.0000
-1.426744	e}yy u}oe	-0.7863128
-2.349626	e}yy u}ou	-0.2568372
-1.016569	e}yy w}ou	-0.02134161
-2.271842	e}yy y}ai	0.0000
-1.09575	e}yy z|(}ei	-0.4240052
-0.5549054	f|-}_ d}dd	-0.2913973
-0.4771213	f|-}_ v}vv	0.0000
-3.115278	f|f}ff (}_	0.0000
-1.583799	f|f}ff </s>	0.0000
-3.115278	f|f}ff _}_	0.0000
-1.399274	f|f}ff a|i}ai	-0.6962405
-2.416308	f|f}ff a|n}an	-0.2865638
-3.115278	f|f}ff a|u}au	0.0000
-1.322886	f|f}ff a}aa	-0.6818326
-1.860005	f|f}ff e|(}_	0.09542102
-3.193062	f|f}ff e|n}_	0.0000
-1.735066	f|f}ff e|n}an	-1.368372
-3.115278	f|f}ff e|n}ee	0.0000
-2.212188	f|f}ff e|r}ei	-0.2605351
-2.27018	f|f}ff e|s}_	1.074435
-3.193062	f|f}ff e|u}eu	-0.01558426
-2.212188	f|f}ff e|u}oe	-0.1207203
-1.57121	f|f}ff e}_	-0.593403
-0.9753985	f|f}ff e}ai	-1.29318
-1.884829	f|f}ff e}ee	-0.4625846
-2.212188	f|f}ff e}ei	-0.6628442
-3.115278	f|f}ff e}oe	0.0000
-2.513218	f|f}ff i|n}in	-0.2146141
-0.6681195	f|f}ff i}ii	-1.274427
-2.073885	f|f}ff i}yy	-0.06404299
-1.137554	f|f}ff l}ll	-0.6038126
-3.193062	f|f}ff m}mm	-0.2042367
-3.115278	f|f}ff n}nn	0.0000
-1.735066	f|f}ff o|n}on	-0.5726675
-2.513218	f|f}ff o|u}ou	-0.1616177
-3.193062	f|f}ff o}au	-0.2893686
-1.425081	f|f}ff o}oo	-1.475641
-0.7516656	f|f}ff r}rr	-0.9822616
-3.193062	f|f}ff s|h}ch	-0.2702679
-3.115278	f|f}ff s}_	0.0000
-3.115278	f|f}ff s}ss	0.0000
-1.36709	f|f}ff u}uu	-0.8343899
-3.193062	f|f}ff y}ii	0.0000
-2.416308	f|f}ff è}ai	-0.5247294
-1.315937	f|f}ff é}ai	-1.738086
-1.471825	f|f}ff é}ei	-0.9859896
-3.193062	f|f}ff û}uu	0.0000
-0.3521825	f|s}_ -}_	-0.2157614
-0.3521825	f|s}_ </s>	0.0000
-1.845476	f}ai|ff (}_	-0.8448268
-2.09321	f}ai|ff -}_	0.0000
-2.371068	f}ai|ff -}ai	0.0000
-2.371068	f}ai|ff 1}dd	0.0000
-2.371068	f}ai|ff 1}ss|an	0.0000
-2.448852	f}ai|ff 1}un	0.06080711
-0.4902543	f}ai|ff </s>	0.0000
-2.371068	f}ai|ff _}kk|aa	0.0000
-2.371068	f}ai|ff _}ss|ai	0.0000
-1.329675	f}ai|ff a}aa	-0.1313155
-2.371068	f}ai|ff b}bb	0.0000
-2.448852	f}ai|ff b}bb|ei	0.0000
-2.448852	f}ai|ff c}ss	-0.293846
-1.416825	f}ai|ff c}ss|ei	-0.2322601
-1.329675	f}ai|ff d}dd|ei	0.03978669
-1.672098	f}ai|ff e}eu	-0.1593232
-1.257125	f}ai|ff f}ai|ff	0.08730479
-1.769008	f}ai|ff g}jj|ei	-0.1089505
-2.371068	f}ai|ff h}aa|ch	0.0000
-2.371068	f}ai|ff i}dd|eu	0.0000
-1.371068	f}ai|ff i}ii	-0.229317
-2.448852	f}ai|ff i}yy	0.0000
-2.371068	f}ai|ff j}jj	0.0000
-2.448852	f}ai|ff k}kk	-0.2885579
-1.467978	f}ai|ff l}ai|ll	-0.1249951
-1.329675	f}ai|ff m}ai|mm	-0.288065
-1.291887	f}ai|ff n}ai|nn	-0.004050188
-2.448852	f}ai|ff o}au	-0.163148
-2.371068	f}ai|ff p}pp	0.0000
-1.257125	f}ai|ff p}pp|ei	-0.11328
-1.52597	f}ai|ff r}ai|rr	0.02823938
-1.467978	f}ai|ff s}ai|ss	0.09975675
-1.769008	f}ai|ff t}tt|ei	-0.09833696
-2.448852	f}ai|ff u}uu	-0.283094
-2.698766	f}ff (}_	-0.5191192
-4.006999	f}ff -}_	0.0000
-1.397736	f}ff </s>	0.0000
-3.327154	f}ff _}_	-0.08126294
-3.929214	f}ff _}aa	0.0000
-3.929214	f}ff _}aa|yy	0.0000
-1.733315	f}ff a|i}ai	-0.7972268
-2.361013	f}ff a|i}ee	0
-4.006999	f}ff a|i}eu	-0.05970713
-4.006999	f}ff a|l}oo	0.2887855
-1.942443	f}ff a|n}an	-0.7072223
-2.196821	f}ff a|u}au	-0.4337597
-2.048401	f}ff a|u}oo	-0.5487381
-3.327154	f}ff a|y}ai	-0.1194103
-3.929214	f}ff a|y}ei	0.0000
-3.403622	f}ff a|î}ai	-0.02085289
-3.929214	f}ff a}_	0.0000
-0.9982654	f}ff a}aa	-1.00561
-3.929214	f}ff a}ai	0.0000
-3.929214	f}ff a}ei	0.0000
-3.929214	f}ff a}oe	0.0000
-3.929214	f}ff c|h}ch	0.0000
-3.929214	f}ff c}kk	0.0000
-3.929214	f}ff c}ss	0.0000
-3.929214	f}ff d}dd	0.0000
-3.026124	f}ff e|(}_	0.1465735
-3.929214	f}ff e|a}ii	0.0000
-3.327154	f}ff e|i}ai	-0.4341913
-2.077956	f}ff e|n}an	-1.736739
-2.698766	f}ff e|r}ei	-0.1799632
-4.006999	f}ff e|s}_	1.682734
-2.466816	f}ff e|u}ee	-1.405448
-2.753123	f}ff e|u}eu	-0.07221095
-2.606995	f}ff e|u}oe	0.1101542
-2.531275	f}ff e}_	-0.1160191
-2.815271	f}ff e}aa	-0.960552
-1.252521	f}ff e}ai	-1.082731
-2.247973	f}ff e}ee	-0.5889485
-2.285762	f}ff e}ei	-0.1765423
-3.929214	f}ff f}ff	0.0000
-3.026124	f}ff g}gg	-0.2233716
-2.466816	f}ff i|n}in	-0.6577913
-3.929214	f}ff i|r}oe	0.0000
-0.8106191	f}ff i}ii	-0.6647637
-3.929214	f}ff i}oe	0.0000
-1.280854	f}ff i}yy	-1.083884
-3.651357	f}ff j}yy	-1.471836
-3.403622	f}ff k}kk	-1.427584
-1.121004	f}ff l}ll	-0.98487
-3.230244	f}ff m}mm	-0.6875969
-3.084116	f}ff n}nn	-0.2924954
-4.006999	f}ff o|i}ww	-0.279393
-1.489882	f}ff o|n}on	-1.135931
-2.850033	f}ff o|o}ou	-0.8536581
-1.533015	f}ff o|u}ou	-0.6261881
-3.327154	f}ff o|u}ww	-0.1435577
-2.397736	f}ff o}_	-0.5407194
-2.327154	f}ff o}au	-0.2852007
-1.061747	f}ff o}oo	-1.185872
-3.929214	f}ff o}ww	0.0000
-3.651357	f}ff o}ww|aa	0.6121442
-3.327154	f}ff p}pp	-0.02588183
-0.9402099	f}ff r}rr	-1.507607
-1.808641	f}ff s|(}_	-1.458545
-1.770852	f}ff s}_	-1.505371
-3.929214	f}ff s}ch	0.0000
-4.006999	f}ff s}ss	0.0000
-3.651357	f}ff t}_	-1.22892
-2.385146	f}ff t}tt	-0.4896103
-3.651357	f}ff u|m}un	0.0000
-2.974972	f}ff u|n}un	-0.3574208
-4.006999	f}ff u}oe	-0.2260752
-3.651357	f}ff u}ou	0.0000
-1.328242	f}ff u}uu	-1.008433
-2.33815	f}ff u}uy	-0.6998929
-3.929214	f}ff u}yy|ou	0.0000
-3.651357	f}ff y}ii	-1.448858
-2.606995	f}ff â}aa	-1.196699
-2.116301	f}ff è}ai	-0.6556866
-1.432285	f}ff é}ai	-1.783073
-2.257117	f}ff é}ei	-0.1762675
-2.549003	f}ff ê}ai	-0.5944179
-3.929214	f}ff ê}ei	0.0000
-4.006999	f}ff î}ii	0.0000
-3.026124	f}ff û}uu	-0.2834117
-3.327154	f}ff ü}uu	-0.5355057
-0.3788141	g|-}kk e|n}an	-0.2941488
-1.155926	g|n}gn a|i}ai	-2.289345
-0.9679357	g|n}gn a|n}an	-1.065961
-3.091043	g|n}gn a|u}au	-0.1621655
-0.9879528	g|n}gn a}aa	-0.9057854
-1.200345	g|n}gn e|(}_	0.08691359
-1.566101	g|n}gn e|r}ei	-0.7534506
-1.734505	g|n}gn e|s}_	0.6764947
-3.091043	g|n}gn e|u}ee	-0.1905681
-1.712229	g|n}gn e|u}eu	-0.6966192
-2.168161	g|n}gn e|u}oe	-0.0695678
-2.487667	g|n}gn e|z}ei	1.389655
-0.8861539	g|n}gn e}_	-1.128335
-1.934077	g|n}gn e}ai	-1.036059
-1.149936	g|n}gn e}ee	-1.004169
-1.48178	g|n}gn e}ei	-0.7381622
-1.18075	g|n}gn i}ii	-1.269687
-2.168161	g|n}gn i}yy	-0.2203048
-1.508109	g|n}gn o|n}on	-1.237243
-2.013259	g|n}gn o}_	-0.09250093
-1.121164	g|n}gn o}oo	-1.056481
-3.013259	g|n}gn y}ii	0.0000
-1.615319	g|n}gn é}ai	-1.351887
-0.9377117	g|n}gn é}ei	-1.454634
-2.018284	g|u}gg a|i}ai	-0.2058222
-1.739531	g|u}gg a|n}an	-0.905047
-3.018284	g|u}gg a|y}ei	0.0000
-2.492692	g|u}gg a}aa	-0.01665849
-1.059243	g|u}gg e|(}_	0.1122713
-3.096068	g|u}gg e|n}in	-0.1733229
-1.571126	g|u}gg e|r}ei	-1.804693
-1.285891	g|u}gg e|s}_	0.2371621
-2.492692	g|u}gg e|u}ee	-0.3420764
-1.939103	g|u}gg e|u}eu	0.05138206
-1.739531	g|u}gg e|u}oe	0.01777041
-3.096068	g|u}gg e|z}ei	1.444254
-0.7044171	g|u}gg e}_	-0.3993769
-0.9575865	g|u}gg e}ai	-0.5922232
-1.109799	g|u}gg e}ee	-1.307278
-1.4055	g|u}gg e}ei	-0.03776556
-3.018284	g|u}gg i|l}yy	0.0000
-1.717254	g|u}gg i|n}in	-0.3009936
-0.7372509	g|u}gg i}ii	-0.974905
-1.939103	g|u}gg i}yy	-0.3035625
-3.018284	g|u}gg o}au	0.0000
-2.173186	g|u}gg y}ii	-0.770968
-2.319314	g|u}gg è}ai	-0.5247294
-1.717254	g|u}gg é}ai	-0.9272615
-1.054497	g|u}gg é}ei	-0.237591
-3.018284	g|u}gg ê}ai	0.0000
-1.703682	g}_ (}_	-0.04294288
-2.219483	g}_ -}_	-0.4286208
-1.046105	g}_ </s>	0.0000
-2.219483	g}_ _}_	-0.6286733
-2.822859	g}_ c|h}ch	-0.2878819
-2.822859	g}_ e|(}_	0.0000
-1.029071	g}_ g}gg	-0.5250938
-2.745075	g}_ g}jj	0.0000
-1.540955	g}_ h}_	-1.200688
-2.745075	g}_ j}jj	0.0000
-2.745075	g}_ k}kk	0.0000
-2.745075	g}_ l}_	0.0000
-2.745075	g}_ l}ll	0.0000
-0.6083542	g}_ n}nn	-1.610188
-0.5070287	g}_ n}nn|yy	0.1494126
-1.841985	g}_ s|(}_	-0.7735223
-1.841985	g}_ s}_	-0.618858
-1.165291	g}_ t}_	-0.8736457
-1.132291	g}_ t}tt	-0.8754045
-2.745075	g}_ w}ww	0.0000
-0.3467875	g}aa n}nn	-0.6500414
-0.455932	g}aa n}nn|yy	-0.07581434
-1.023172	g}aa t}_	0.0000
-1.30103	g}aa t}tt	0.0000
-0.02996322	g}dd g}jj	-0.7070207
-0.30103	g}dd|ei g}jj	0.0000
-1.875061	g}dd|jj _}ii	0.0000
-1.875061	g}dd|jj e|r}ei	0.0000
-1.952845	g}dd|jj e}_	-0.2920231
-0.8336686	g}dd|jj e}ai	-0.5560645
-0.6709413	g}dd|jj e}ee	-0.6330852
-1.875061	g}dd|jj e}ei	0.0000
-1.875061	g}dd|jj e}oe	0.0000
-0.8336686	g}dd|jj i}_	-0.6770108
-0.49485	g}dd|jj i}ii	-0.6105399
-1.273001	g}dd|jj i}yy	-0.2335513
-1.875061	g}dd|jj y}ii	0.0000
-1.952845	g}dd|jj é}ei	0.0000
-0.30103	g}ei|gn r}oe|rr	0.0000
-2.229978	g}gg (}_	-0.1023458
-3.531904	g}gg -}_	-0.1285764
-1.289934	g}gg </s>	0.0000
-3.531904	g}gg _}_	-0.1719923
-3.809762	g}gg _}ei	0.0000
-2.119565	g}gg a|i}ai	-0.8322276
-3.28417	g}gg a|m}an	-0.4571502
-1.630785	g}gg a|n}an	-0.4400176
-3.887546	g}gg a|r}aa	0.0000
-2.046334	g}gg a|u}au	-0.2302455
-2.253459	g}gg a|u}oo	-1.148228
-3.207702	g}gg a|y}ai	0.0000
-3.887546	g}gg a|y}ei	0.0000
-3.809762	g}gg a|ë}aa	0.0000
-3.809762	g}gg a|î}ai	0.0000
-2.809762	g}gg a}_	-0.1453391
-0.6259226	g}gg a}aa	-0.7753035
-3.207702	g}gg a}ai	-0.1483443
-3.887546	g}gg a}ai|yy	-0.229411
-2.394788	g}gg b}bb	-0.2104752
-3.809762	g}gg c}kk	0.0000
-2.531008	g}gg d}dd	-0.3090709
-2.964664	g}gg e}_	-0.06362644
-3.809762	g}gg e}aa	0.0000
-1.885482	g}gg e}ai	-0.7755139
-2.554489	g}gg e}ee	-0.822749
-2.964664	g}gg e}ei	0.1492589
-3.531904	g}gg e}oe	0.0000
-3.887546	g}gg f}ff	0.0000
-3.110792	g}gg g}gg	-0.3583036
-2.411822	g}gg g}jj	-1.304629
-1.682657	g}gg h}_	-0.4760026
-2.411822	g}gg i}ii	-0.138854
-3.531904	g}gg i}oe	-0.5395876
-3.887546	g}gg j}jj	0.0000
-3.110792	g}gg k}kk	-0.1977534
-1.092924	g}gg l}ll	-1.109767
-1.726976	g}gg m}mm	-0.9866257
-2.24156	g}gg n}nn	-0.5021719
-1.983687	g}gg o|n}on	-0.666582
-2.855519	g}gg o|o}ou	-0.2366512
-1.461457	g}gg o|u}ou	-0.5677451
-2.695818	g}gg o|u}ww	-0.3137345
-3.887546	g}gg o|w}au	0.0000
-2.467339	g}gg o|û}ou	0.6486321
-2.508732	g}gg o}_	-0.3369443
-1.579313	g}gg o}au	-0.3376101
-3.887546	g}gg o}oe	0.7332377
-1.148896	g}gg o}oo	-0.749056
-3.887546	g}gg o}ww	1.252808
-3.809762	g}gg o}ww|aa	0.0000
-3.809762	g}gg q}kk	0.0000
-0.5962439	g}gg r}rr	-1.37947
-2.411822	g}gg s|(}_	-0.729183
-2.448034	g}gg s}_	-1.044827
-2.63367	g}gg s}ss	-0.3577402
-2.906672	g}gg s}zz	-0.9494069
-2.73058	g}gg t}tt	-0.5354955
-3.531904	g}gg u|n}un	-0.1704666
-2.964664	g}gg u|ë}uu	-0.2117296
-3.809762	g}gg u}ii	0.0000
-3.887546	g}gg u}oe	0.0000
-3.887546	g}gg u}oo	1.245121
-2.855519	g}gg u}ou	-0.1810357
-1.328319	g}gg u}uu	-0.6640911
-2.207702	g}gg u}uy	0.2618974
-2.3184	g}gg u}ww	-0.2731518
-3.887546	g}gg v}vv	0.0000
-3.28417	g}gg w}ww	-0.001265347
-3.110792	g}gg y}ii	-0.2490498
-2.809762	g}gg y}yy	-0.4112918
-3.887546	g}gg z}zz	0.0000
-2.33264	g}gg â}aa	-0.9881482
-2.906672	g}gg ö}eu	-0.5059451
-3.110792	g}gg ö}oe	-0.3169239
-3.207702	g}gg ü}uu	-0.08242046
-0.60206	g}gg|gg e}_	-0.2579036
-0.60206	g}gg|gg e}ai	-0.247679
-0.60206	g}gg|gg e}ee	-0.2305751
-1.281904	g}gg|gg h}_	-0.2119272
-1.281904	g}gg|gg r}rr	0.0000
-0.09691001	g}gg|oe l}ll	-0.5289989
-0.30103	g}gn m}mm	0.0000
-3.783689	g}jj 8}ei|uy	0.0000
-3.505831	g}jj _}ai	0.0000
-3.783689	g}jj _}ai|ss	0.0000
-3.861473	g}jj _}ei|ss	0.0000
-1.138267	g}jj e|(}_	-0.3008604
-3.861473	g}jj e|m}an	-0.0593181
-2.783689	g}jj e|n}_	2.618823
-1.377149	g}jj e|n}an	-0.9488389
-3.181629	g}jj e|n}ee	1.626581
-3.181629	g}jj e|n}in	-0.5074742
-1.582292	g}jj e|r}ei	-0.6188681
-1.457353	g}jj e|s}_	-0.3488111
-2.880599	g}jj e|u}ee	-0.8500196
-2.020261	g}jj e|u}eu	-1.145251
-2.150221	g}jj e|u}oe	-0.7999463
-3.783689	g}jj e|y}ei	0.0000
-2.669746	g}jj e|z}ei	0.5929166
-0.644125	g}jj e}_	-0.7731408
-3.181629	g}jj e}aa	-0.106518
-1.560973	g}jj e}ai	-0.7060888
-1.116236	g}jj e}ee	-0.7731071
-1.613428	g}jj e}ei	-0.3763548
-3.181629	g}jj e}ei|eu	-0.1431785
-3.783689	g}jj e}ii	0.0000
-3.783689	g}jj i|m}in	0.0000
-2.669746	g}jj i|n}in	-0.5618941
-0.6867792	g}jj i}ii	-0.8032657
-1.420077	g}jj i}yy	-0.3174101
-2.035501	g}jj y}ii	-1.177496
-3.783689	g}jj y}yy	0.0000
-1.507227	g}jj è}ai	-0.4873709
-1.147201	g}jj é}ai	-1.521529
-1.104261	g}jj é}ei	-1.084473
-2.321291	g}jj ê}ai	-1.448959
-3.861473	g}jj ê}ei	-0.2800195
-2.880599	g}jj î}ii	-0.7504798
-2.103804	g}jj|ei (}_	0.0000
-2.103804	g}jj|ei 1}dd	0.0000
-2.103804	g}jj|ei 1}kk|aa	0.0000
-2.103804	g}jj|ei 2}dd|eu	0.0000
-0.535602	g}jj|ei </s>	0.0000
-2.103804	g}jj|ei _}kk|aa	0.0000
-1.501744	g}jj|ei a}aa	-0.09835212
-1.578212	g}jj|ei b}bb|ei	0.006323576
-1.258706	g}jj|ei c}ss|ei	-0.4241456
-1.825946	g}jj|ei d}dd|ei	-0.1364799
-2.103804	g}jj|ei e}oe	0.0000
-1.578212	g}jj|ei f}ai|ff	-0.1201089
-1.200714	g}jj|ei i}ii	-0.1078671
-2.181588	g}jj|ei i}yy	0.0000
-2.103804	g}jj|ei k}kk	0.0000
-1.825946	g}jj|ei l}ai|ll	0.0000
-1.200714	g}jj|ei m}ai|mm	0.04047285
-1.825946	g}jj|ei n}ai|nn	-0.0990845
-2.103804	g}jj|ei o}oo	0.0000
-1.578212	g}jj|ei p}pp|ei	-0.1270523
-1.825946	g}jj|ei r}ai|rr	0.0000
-1.149561	g}jj|ei s}ai|ss	-0.1953306
-2.103804	g}jj|ei s}ss	0.0000
-2.103804	g}jj|ei t}tt	0.0000
-1.149561	g}jj|ei t}tt|ei	0.02860324
-2.103804	g}jj|ei u}uu	0.0000
-2.181588	g}jj|ei v}vv|ei	0.0000
-0.30103	g}kk (}_	0.0000
-0.30103	g}nn|yy è}ai	0.0000
-0.4771213	g}zz e|(}_	0.0000
-0.4771213	g}zz e}_	0.0000
-0.30103	h|Ô}oo t}tt	0.0000
-2.242262	h}_ (}_	0.6777977
-3.145352	h}_ -}_	-0.2827515
-1.45961	h}_ </s>	0.0000
-3.747412	h}_ _}_	0.0000
-1.872351	h}_ a|i}ai	-0.7410415
-3.825196	h}_ a|l}oo	0.2887855
-2.747412	h}_ a|m}an	0.3377692
-1.866598	h}_ a|n}an	-0.366243
-1.838927	h}_ a|u}au	-1.232347
-1.991537	h}_ a|u}oo	-1.55682
-2.844322	h}_ a|w}au	-0.6780361
-3.145352	h}_ a|y}ai	0.0000
-3.825196	h}_ a|y}ei	0.5155449
-0.7601926	h}_ a}aa	-0.6537552
-3.22182	h}_ a}ai	0.3112363
-3.747412	h}_ a}an	0.0000
-3.469554	h}_ a}au	-0.8820103
-3.747412	h}_ a}ei	0.0000
-3.145352	h}_ b}bb	-0.5305683
-3.747412	h}_ c}ss	0.0000
-3.747412	h}_ d}_	0.0000
-2.633468	h}_ d}dd	-0.148506
-2.706019	h}_ e|(}_	-0.02951765
-2.902314	h}_ e|a}ii	-0.1536335
-3.048442	h}_ e|i}ai	-0.3784813
-3.747412	h}_ e|n}_	0.0000
-3.747412	h}_ e|n}ai	0.0000
-1.934498	h}_ e|n}an	-1.491159
-3.145352	h}_ e|r}ei	-0.2497599
-3.048442	h}_ e|s}_	1.199373
-2.203344	h}_ e|u}ee	-1.390561
-3.048442	h}_ e|u}eu	-0.07488464
