
\data\
ngram 1=515
ngram 2=6849
ngram 3=38777


\1-grams:
-3.8356 &}ei -0.2379
-3.8356 &}ei|ei -0.2379
-2.5134 '}_ -0.5562
-3.8356 '}| -0.2379
-2.7564 (|1}_ -0.8814
-1.8313 (}_ -1.3401
-3.8356 (}aa|yy -0.2379
-3.8356 (}ai|dd -0.2379
-3.8356 (}bb|ll -0.2379
-3.3585 (}ei -0.7150
-3.8356 (}gg|rr -0.2379
-3.0575 (}ii -0.7150
-3.8356 (}ii|ai -0.2379
-3.0575 (}nn -0.7608
-3.3585 (}rr -0.4140
-3.8356 (}ss|an -0.2379
-3.5346 (}tt -0.2379
-3.8356 (}uu|bb -0.2379
-3.8356 )}ai|kk -0.2379
-3.8356 )}uu|bb -0.2379
-3.8356 -|j}zz -0.2379
-3.8356 -|u}un -0.2379
-2.0031 -}_ -1.0520
-3.5346 -}ai -0.2379
-3.3585 -}ee -0.2959
-3.8356 -}nn -0.2379
-3.5346 -}tt -0.3348
-3.5346 -}zz -0.2379
-3.8356 .}ei -0.2379
-3.8356 .}rr|aa -0.2379
-3.8356 0|)}_ -0.2379
-3.8356 0|0}tt -0.2379
-3.8356 0|4}tt -0.2379
-3.5346 0}an|tt -0.5389
-3.8356 0}ii|ss -0.2379
-3.8356 0}rr|an -0.2379
-3.8356 0}ss|an -0.2379
-3.8356 0}tt|rr -0.2379
-3.8356 1|)}_ -0.2379
-3.8356 1|1}zz -0.2379
-3.8356 1|6}zz -0.2379
-2.9905 1}dd -0.6639
-3.3585 1}ei|un -0.7150
-3.8356 1}kk|aa -0.2379
-3.8356 1}kk|in -0.2379
-3.3585 1}ss|an -0.2379
-3.8356 1}tt|oo -0.2379
-3.8356 1}tt|rr -0.2379
-3.1367 1}un -0.9369
-3.8356 2|(}tt -0.2379
-2.5804 2|)}_ -0.7385
-3.0575 2|)}ee -0.7150
-3.8356 2|)}ou -0.2379
-3.2336 2|)}rr -0.5389
-3.1367 2|)}zz -0.5389
-2.7942 2}dd|eu -0.9783
-3.8356 2}ee|kk -0.2379
-3.8356 2}in|tt -0.2379
-3.5346 2}ou|zz -0.5389
-3.8356 2}rr|ei -0.2379
-3.8356 2}|vv -0.2379
-3.8356 3|(}ff -0.2379
-2.9325 3|)}_ -1.1410
-3.5346 3|)}ee -0.5389
-3.8356 3|)}ei -0.2379
-3.2336 3|)}zz -0.6359
-3.8356 3}ai|tt -0.2379
-3.8356 3}ai|zz -0.2379
-3.5346 3}tt|rr -0.2379
-3.5346 3}uu|bb -0.5389
-3.8356 3}ww|aa -0.2379
-3.0575 4|)}_ -1.0161
-3.2336 4|)}ee -0.5389
-3.1367 4|)}zz -0.7150
-3.8356 4}aa|rr -0.2379
-3.8356 4}gg|rr -0.2379
-3.8356 4}in|tt -0.2379
-3.3585 4}kk|aa -0.4140
-3.8356 4}rr|zz -0.2379
-3.8356 4}tt|oo -0.2379
-3.0575 5|)}_ -0.7150
-3.8356 5|)}ee -0.2379
-3.5346 5}in|kk -0.5389
-3.8356 5}zz -0.2379
-3.2336 6|)}_ -0.8400
-3.3585 6|)}ee -0.7150
-3.8356 6|)}ei -0.2379
-3.3585 6|)}zz -0.7150
-3.5346 6}ii|ss -0.5389
-3.2336 7|)}_ -0.8400
-3.8356 7|)}ee -0.2379
-3.8356 7|)}zz -0.2379
-3.3585 7}ai|tt -0.4140
-3.8356 7}tt|dd -0.2379
-3.5346 8|)}_ -0.5389
-3.8356 8|)}ee -0.2379
-3.8356 8|)}zz -0.2379
-3.5346 8}ei|uy -0.5389
-3.5346 8}vv|in -0.2379
-3.8356 8}zz|uy -0.2379
-3.2336 9|)}_ -0.8400
-3.8356 9}eu|ff -0.2379
-1.4664 </s> 0.0000
-99.0000 <s> -3.0577
-3.8356 @}aa|zz -0.2379
-3.8356 _|u}un -0.2379
-2.0953 _}_ -1.1024
-2.4377 _}aa -0.5329
-3.8356 _}aa|rr -0.2379
-3.8356 _}aa|yy -0.2379
-2.7942 _}ai -0.5653
-3.5346 _}ai|dd -0.3049
-3.5346 _}ai|gg -0.2379
-3.8356 _}ai|ll -0.2379
-3.8356 _}ai|ss -0.2379
-3.5346 _}ai|tt -0.2379
-3.3585 _}an|tt -0.4140
-3.5346 _}au|bb -0.5389
-3.8356 _}au|kk -0.2379
-3.8356 _}au|yy -0.2379
-3.8356 _}bb|ll -0.2379
-3.8356 _}dd -0.2379
-3.8356 _}dd|aa -0.2379
-3.8356 _}dd|ee -0.2379
-2.7217 _}ee -0.3544
-2.7217 _}ei -0.5109
-3.8356 _}ei|rr -0.2379
-3.2336 _}ei|ss -0.4810
-2.3885 _}ii -0.4437
-3.0575 _}kk|aa -0.5389
-3.8356 _}ll|oo -0.2379
-2.6595 _}nn -0.3251
-3.8356 _}oe -0.2379
-3.8356 _}on|ss -0.2379
-3.8356 _}pp|aa -0.2379
-3.8356 _}rr|an -0.2379
-3.3585 _}rr|kk -0.3348
-3.5346 _}rr|oo -0.4140
-3.1367 _}ss -0.6639
-3.3585 _}ss|ai -0.7150
-3.3585 _}ss|an -0.2379
-2.5346 _}tt -0.5389
-3.8356 _}tt|kk -0.2379
-3.8356 _}tt|oe -0.2379
-3.0575 _}tt|rr -0.5389
-3.8356 _}vv|ai -0.2379
-3.0575 _}vv|ei -0.4753
-3.2336 _}ww -0.3348
-3.5346 _}yy|eu -0.5389
-3.5346 _}zz|ai -0.2379
-2.1196 a|i}ai -1.1933
-3.8356 a|i}ee -0.2379
-2.8814 a|i}ei -0.4250
-3.8356 a|i}eu -0.2379
-2.8356 a|l}oo -0.9369
-3.8356 a|m}aa -0.2379
-2.4739 a|m}an -0.9826
-3.5346 a|n}aa -0.2379
-2.0575 a|n}an -1.2559
-3.8356 a|r}aa -0.2379
-3.8356 a|t}vv -0.2379
-2.1454 a|u}au -1.0414
-2.3585 a|u}oo -0.7922
-3.1367 a|w}au -0.3629
-3.5346 a|w}oo -0.2379
-2.5134 a|y}ai -0.7150
-2.4554 a|y}ei -0.8533
-3.5346 a|z}aa -0.5389
-3.5346 a|ë}aa -0.2379
-2.8356 a|î}ai -0.8400
-3.3585 a|î}ei -0.5389
-2.3732 a}_ -0.6866
-1.7864 a}aa -1.3622
-3.8356 a}aa|on -0.2379
-3.8356 a}aa|vv -0.2379
-2.3732 a}ai -0.7653
-2.8356 a}ai|yy -0.5389
-3.0575 a}an -0.7150
-3.1367 a}au -0.6359
-2.6895 a}ei -0.6261
-3.1367 a}oe -0.2379
-3.5346 a}oo -0.2379
-3.5346 a}tt -0.4140
-3.8356 b|u}bb -0.2379
-2.7942 b}_ -0.6851
-1.9435 b}bb -1.0695
-2.5134 b}bb|ei -0.6966
-3.8356 b}mm -0.2379
-3.8356 b}oe -0.2379
-3.3585 b}pp -0.4810
-2.0648 c|h}ch -1.1035
-3.8356 c|h}rr -0.2379
-2.4207 c}_ -0.9752
-3.2336 c}ch -0.4420
-3.3585 c}gg -0.2379
-1.9844 c}kk -1.0768
-3.8356 c}kk|on -0.2379
-2.0161 c}ss -1.2144
-2.3885 c}ss|ei -0.8670
-3.0575 c}tt|ch -0.4140
-2.3885 d}_ -0.9054
-1.8489 d}dd -1.1826
-2.4207 d}dd|ei -0.8689
-3.2336 d}nn -0.8400
-3.8356 d}oe -0.2379
-2.7217 d}tt -0.7820
-2.0953 e|(}_ -1.4164
-2.5569 e|a}ii -0.7385
-3.8356 e|f}ei -0.2379
-2.4932 e|i}ai -0.6788
-2.5804 e|m}an -0.8400
-3.5346 e|m}in -0.2379
-2.3732 e|n}_ -1.5090
-3.5346 e|n}aa -0.2379
-3.3585 e|n}ai -0.2379
-2.1729 e|n}an -1.0122
-2.5134 e|n}ee -1.5601
-2.4932 e|n}in -0.7084
-3.3585 e|r}ai -0.4140
-2.1454 e|r}ei -1.4176
-3.8356 e|r}ii -0.2379
-2.1281 e|s}_ -1.2269
-2.4554 e|u}ee -0.6948
-2.2228 e|u}eu -0.9192
-2.2336 e|u}oe -0.9663
-2.4554 e|y}ei -0.7750
-2.7564 e|z}ai -1.0508
-2.3305 e|z}ei -1.2923
-3.8356 e|û}eu -0.2379
-1.8911 e}_ -1.1328
-2.4207 e}aa -0.9839
-3.8356 e}aa|rr -0.2379
-1.9062 e}ai -1.2804
-2.1032 e}ee -1.2398
-3.8356 e}ee|mm -0.2379
-1.9491 e}ei -1.2075
-2.9325 e}ei|eu -0.4976
-3.8356 e}ei|oe -0.2379
-2.4932 e}eu -0.5097
-2.6595 e}ii -0.5042
-2.3732 e}oe -0.7498
-2.8814 e}yy -0.4071
-3.5346 f|-}_ -0.2379
-2.5569 f|f}ff -0.8206
-3.3585 f|s}_ -0.5389
-2.3885 f}ai|ff -0.7439
-2.0503 f}ff -0.9737
-3.8356 g|-}kk -0.2379
-2.7217 g|n}gn -0.9731
-2.3443 g|u}gg -1.0854
-2.3585 g}_ -0.8061
-3.8356 g}aa -0.2379
-3.1367 g}dd -0.9369
-3.8356 g}dd|ei -0.2379
-2.9905 g}dd|jj -0.5205
-3.8356 g}ei|gn -0.2379
-2.0227 g}gg -1.0428
-3.8356 g}gg|gg -0.2379
-3.5346 g}gg|oe -0.5389
-3.8356 g}gn -0.2379
-2.1454 g}jj -1.1758
-2.4932 g}jj|ei -0.6874
-3.8356 g}kk -0.2379
-3.8356 g}nn|yy -0.2379
-3.8356 g}zz -0.2379
-3.8356 h|Ô}oo -0.2379
-2.0227 h}_ -0.9587
-3.2336 h}aa -0.4810
-2.6895 h}aa|ch -0.4783
-3.8356 h}nn -0.2379
-3.3585 h}yy -0.2379
-3.8356 i|(}un -0.2379
-2.9905 i|l}yy -0.7608
-2.5346 i|m}in -0.7150
-2.2228 i|n}in -1.1068
-3.8356 i|r}oe -0.2379
-3.8356 i|s}zz -0.2379
-3.5346 i|z}ii -0.5389
-2.7217 i}_ -0.3348
-3.1367 i}ai -0.3348
-3.5346 i}dd|eu -0.5389
-3.8356 i}ee -0.2379
-1.8186 i}ii -1.3480
-3.1367 i}ii|yy -0.4518
-2.8814 i}oe -0.9369
-3.8356 i}pp|rr -0.2379
-3.8356 i}ww|aa -0.2379
-1.9271 i}yy -1.1418
-3.8356 i}zz|ii -0.2379
-3.0575 j}dd|jj -0.3629
-2.1114 j}jj -0.8787
-3.0575 j}jj|yy -0.4598
-3.5346 j}rr -0.2379
-2.9905 j}yy -0.5389
-3.8356 k|-}aa -0.2379
-2.9325 k|k}kk -0.6529
-3.8356 k|n}nn -0.2379
-3.8356 k}gg|kk -0.2379
-1.9271 k}kk -0.9889
-3.5346 l|h}yy -0.2379
-3.2336 l|l}_ -0.2517
-3.8356 l|l}kk -0.2379
-2.4739 l|l}ll -0.8341
-3.5346 l|l}yy -0.2912
-3.3585 l|t}_ -0.5389
-2.9325 l}_ -0.4270
-2.4932 l}ai|ll -0.7286
-3.8356 l}dd|mm -0.2379
-1.7864 l}ll -1.2121
-3.8356 l}mm|ww -0.2379
-3.8356 l}ww|aa -0.2379
-3.8356 l}yy -0.2379
-2.7564 m|m}mm -0.7298
-2.4043 m}ai|mm -0.7595
-1.8718 m}mm -1.0794
-3.8356 n|c}ss -0.2379
-3.5346 n|i}gn -0.5389
-2.6895 n|n}nn -0.6908
-3.3585 n|t}_ -0.3171
-3.8356 n|t}an -0.2379
-3.5346 n|t}ee -0.3629
-3.5346 n}ai -0.2379
-2.5346 n}ai|nn -0.7783
-3.2336 n}ii -0.3629
-3.8356 n}ii|gg -0.2379
-3.5346 n}mm -0.5389
-1.7749 n}nn -1.1901
-3.8356 n}nn|uu -0.2379
-3.5346 n}nn|yy -0.3085
-2.8814 o|i}ww -0.7608
-2.5134 o|m}on -0.8308
-3.8356 o|m}oo -0.2379
-3.8356 o|n}_ -0.2379
-3.8356 o|n}an -0.2379
-3.8356 o|n}ee -0.2379
-2.0874 o|n}on -1.1946
-3.8356 o|n}oo -0.2379
-2.5804 o|o}ou -0.7972
-3.8356 o|r}oe -0.2379
-2.1032 o|u}ou -1.1606
-2.4739 o|u}ww -0.6803
-3.2336 o|w}au -0.4932
-3.0575 o|w}oo -0.4140
-3.8356 o|z}oo -0.2379
-3.0575 o|û}ou -0.6639
-2.2916 o}_ -0.9054
-2.0096 o}au -1.1870
-3.3585 o}ee -0.2379
-2.6595 o}oe -1.0161
-1.9325 o}oo -1.2299
-3.5346 o}ou -0.2379
-2.7217 o}ww -0.8400
-2.6052 o}ww|aa -1.0618
-3.8356 p|-}bb -0.2379
-2.4043 p|h}ff -0.8796
-2.9905 p|p}pp -0.6442
-2.5804 p}_ -0.8300
-3.8356 p}bb|tt -0.2379
-3.8356 p}oe -0.2379
-1.9664 p}pp -1.1208
-2.3732 p}pp|ei -0.8695
-3.8356 q|u}gg -0.2379
-2.2022 q|u}kk -1.1137
-3.5346 q}_ -0.5389
-3.8356 q}gg -0.2379
-2.5346 q}kk -0.6090
-3.2336 q}kk|uu -0.2959
-3.8356 r|(}ei -0.2379
-3.8356 r|(}ss -0.2379
-3.8356 r|d}au -0.2379
-3.8356 r|f}rr -0.2379
-2.7564 r|r}rr -0.7468
-3.8356 r|r}ww -0.2379
-3.1367 r|z}rr -0.4810
-2.3885 r}ai|rr -0.7532
-3.8356 r}ee|ss -0.2379
-3.8356 r}oe|rr -0.2379
-1.8144 r}rr -1.2376
-3.8356 r}ww -0.2379
-3.8356 r}yy|ei -0.2379
-1.9844 s|(}_ -1.4140
-2.4554 s|h}ch -0.6001
-3.8356 s|z}ch -0.2379
-1.8625 s}_ -0.9064
-2.3885 s}ai|ss -0.9154
-2.9905 s}ch -0.4932
-1.8489 s}ss -1.1014
-3.3585 s}tt -0.2379
-2.0363 s}zz -1.0967
-3.8356 t|(}in -0.2379
-2.6315 t|h}ff -0.6589
-3.5346 t|h}zz -0.3629
-2.0363 t}_ -0.9710
-2.9905 t}dd -0.5901
-3.8356 t}ee -0.2379
-3.5346 t}oe -0.5389
-2.4932 t}ss -1.2659
-1.7217 t}tt -1.3064
-2.4207 t}tt|ei -0.8533
-3.8356 t}tt|eu -0.2379
-3.8356 u|e}eu -0.2379
-3.8356 u|f}eu -0.2379
-2.9905 u|m}un -0.4140
-3.3585 u|n}on -0.2379
-2.5134 u|n}un -0.7545
-3.8356 u|r}eu -0.2379
-3.8356 u|x}eu -0.2379
-3.5346 u|x}zz -0.5389
-3.8356 u|ë}uu -0.2379
-3.8356 u}ai -0.2379
-3.8356 u}ch|oe -0.2379
-2.8814 u}ee -0.3840
-3.5346 u}ii -0.2379
-2.4554 u}oe -0.7064
-2.5804 u}oo -1.0395
-2.2916 u}ou -0.6879
-2.0294 u}uu -1.1276
-2.4207 u}uy -0.8038
-2.9905 u}ww -0.4236
-2.9905 u}yy|ou -0.4932
-3.8356 v|o}au -0.2379
-3.5346 v}ff -0.3840
-2.0161 v}vv -1.1396
-2.5804 v}vv|ei -0.6400
-3.8356 w|r}rr -0.2379
-2.8356 w}dd|ou -1.0161
-3.8356 w}ff -0.2379
-3.8356 w}oe|vv -0.2379
-3.1367 w}ou -0.3955
-3.8356 w}ou|vv -0.2379
-3.8356 w}tt|rr -0.2379
-3.8356 w}uu|ou -0.2379
-2.3732 w}vv -0.6488
-2.2336 w}ww -0.7415
-3.8356 x|_}zz -0.2379
-2.7217 x}_ -0.8699
-3.8356 x}ch -0.2379
-3.3585 x}gg|zz -0.3281
-3.0575 x}kk -0.5389
-2.4377 x}kk|ss -0.7419
-2.9905 x}ss -0.4810
-3.8356 x}zz -0.2379
-3.0575 y|m}in -0.5901
-3.8356 y|n}ai -0.2379
-3.0575 y|n}in -0.3427
-3.8356 y|y}yy -0.2379
-3.8356 y}_ -0.2379
-3.2336 y}ai -0.3001
-2.0722 y}ii -1.0112
-3.8356 y}oe -0.2379
-3.5346 y}uu -0.2379
-3.8356 y}ww|aa -0.2379
-2.1824 y}yy -0.8400
-3.8356 z|(}_ -0.2379
-3.3585 z|(}ei -0.3840
-3.8356 z|e}ei -0.2379
-3.8356 z|s}_ -0.2379
-3.8356 z|y}ii -0.2379
-3.0575 z|z}zz -0.3976
-3.8356 z}ai|ch -0.2379
-2.9325 z}dd -0.8911
-3.5346 z}dd|zz -0.4140
-3.8356 z}ei|ch -0.2379
-2.6895 z}ss -0.4810
-2.0798 z}zz -1.0101
-3.8356 °}mm|ei -0.2379
-3.8356 ²}rr|ei -0.2379
-3.8356 ³}ai|tt -0.2379
-3.5346 ³}uu|bb -0.5389
-3.8356 º}uu|mm -0.2379
-3.8356 Â}aa -0.2379
-3.8356 Ä}aa -0.2379
-3.5346 É}ei -0.3281
-3.8356 Î}ii -0.2379
-3.8356 Ô}au -0.2379
-3.8356 Ö}au -0.2379
-3.8356 Ö}ei|oo -0.2379
-3.1367 à|_}aa -0.4063
-2.8814 à}aa -1.0161
-3.8356 á}aa -0.2379
-2.4739 â}aa -0.7028
-3.0575 ä}aa -0.3629
-3.8356 æ}ss|ei -0.2379
-2.6595 ç}ss -0.8955
-2.2228 è}ai -1.0852
-3.5346 é}_ -0.2379
-2.2022 é}ai -1.0830
-3.8356 é}ee -0.2379
-2.0798 é}ei -1.2584
-3.8356 ê|m}ai -0.2379
-2.5134 ê}ai -0.8497
-3.0575 ê}ei -0.5389
-3.8356 ê}ww|aa -0.2379
-3.0575 ë}ai -0.4932
-3.3585 î|n}in -0.4598
-2.7564 î}ii -0.7820
-3.8356 î}ww|aa -0.2379
-3.5346 ï|n}in -0.2379
-2.7942 ï}ii -0.5774
-2.9905 ï}yy -0.3676
-3.2336 ñ}gn -0.2379
-3.8356 ñ}nn -0.2379
-2.6052 ô}au -0.9271
-2.8356 ô}oo -0.6639
-3.3585 ö}au -0.2379
-2.7942 ö}eu -0.4462
-3.8356 ö}oe -0.2379
-3.8356 ö}oo -0.2379
-3.5346 ù}ou -0.4140
-3.8356 ú}ou -0.2379
-2.6895 û}uu -0.7820
-3.8356 ü}oo -0.2379
-3.8356 ü}ou -0.2379
-2.6595 ü}uu -0.5532
-3.8356 ÿ}ii -0.2379

\2-grams:
-0.3637 &}ei t}tt -0.2665
-0.3637 &}ei|ei t}tt -0.2665
-0.9249 '}_ </s> 0.0000
-1.2243 '}_ _}_ -0.8106
-2.1199 '}_ a|i}ai -0.2665
-1.6799 '}_ a|n}an -0.2665
-1.4757 '}_ a|u}au -0.3914
-2.1743 '}_ a|u}oo -0.8686
-1.3100 '}_ a}aa -0.4883
-1.6498 '}_ d}dd -0.5675
-2.2070 '}_ e|m}an -0.2665
-2.1341 '}_ e|n}an -0.5675
-1.6593 '}_ e}ai -0.6925
-2.0654 '}_ e}ei -0.2665
-1.7050 '}_ g|u}gg -0.7436
-1.4674 '}_ h}_ -0.5675
-2.2014 '}_ i|m}in -0.5675
-2.1462 '}_ i|n}in -0.6345
-1.4477 '}_ i}ii -0.5095
-1.6537 '}_ m}mm -0.4426
-1.9938 '}_ n}nn -0.2665
-2.1107 '}_ o|n}on -0.2665
-2.1153 '}_ o|u}ou -0.2665
-2.1613 '}_ o}_ -0.9655
-2.2156 '}_ o}oe -0.5675
-1.6633 '}_ o}oo -0.7436
-2.0116 '}_ r}rr -0.2665
-1.0594 '}_ s}_ -1.2207
-1.4512 '}_ s}ss -0.2665
-2.0951 '}_ s}zz -0.2665
-1.6245 '}_ t}tt -0.5675
-1.4907 '}_ u|n}un -0.5675
-1.4679 '}_ u}uu -0.8686
-2.1365 '}_ y}yy -0.2665
-2.2550 '}_ É}ei -0.2665
-2.2456 '}_ à|_}aa -0.2665
-2.2334 '}_ à}aa -0.2665
-2.1085 '}_ é}ei -0.4426
-2.2244 '}_ î}ii -0.5675
-0.3736 '}| _}nn -0.2665
-0.8357 (|1}_ 0|)}_ -1.6089
-0.7729 (|1}_ 1|)}_ -1.4426
-1.1073 (|1}_ 2|)}_ -1.3804
-1.4891 (|1}_ 2|)}ee -0.5675
-0.9972 (|1}_ 3|)}_ -1.3079
-1.2584 (|1}_ 4|)}_ -1.1696
-2.0149 (|1}_ 4|)}ee -0.2665
-1.4893 (|1}_ 4|)}zz -0.5675
-0.8355 (|1}_ 5|)}_ -1.3079
-0.9975 (|1}_ 6|)}_ -1.3079
-0.5123 (}_ 2|)}_ -3.8946
-1.0941 (}_ 2|)}ee -2.5266
-2.8309 (}_ 2|)}rr -0.2665
-1.8173 (}_ 2|)}zz -2.9367
-0.7878 (}_ 3|)}_ -3.0774
-1.8179 (}_ 3|)}ee -1.1116
-1.9294 (}_ 3|)}ei -0.8686
-2.3087 (}_ 3|)}zz -1.4969
-1.0101 (}_ 4|)}_ -2.8005
-1.7291 (}_ 4|)}ee -1.5218
-2.0780 (}_ 4|)}zz -0.8106
-2.8368 (}_ 4}gg|rr -0.2665
-1.1983 (}_ 5|)}_ -2.4760
-2.3105 (}_ 5|)}ee -0.5675
-1.3046 (}_ 6|)}_ -2.2708
-1.7293 (}_ 6|)}ee -1.5453
-2.8368 (}_ 6|)}ei -0.2665
-2.8328 (}_ 6|)}zz -0.2665
-1.4059 (}_ 7|)}_ -2.0224
-2.3105 (}_ 7|)}ee -0.5675
-1.4896 (}_ 8|)}_ -2.1586
-2.3105 (}_ 8|)}ee -0.7436
-2.0784 (}_ 9|)}_ -1.3804
-0.3733 (}aa|yy 2|)}_ -0.2665
-0.3745 (}ai|dd 2|)}zz -0.2665
-0.9707 (}bb|ll 2|)}_ -0.2665
-0.9749 (}bb|ll 2|)}ee -0.5675
-0.9756 (}bb|ll 4|)}ee -0.2665
-0.9749 (}bb|ll 5|)}_ -0.2665
-0.0927 (}ei 2|)}_ -1.0447
-0.6728 (}gg|rr 2|)}_ -0.2665
-0.6756 (}gg|rr _}ai|gg -0.2665
-0.1323 (}ii 2|)}_ -1.1696
-1.1517 (}ii 3|)}_ -0.2665
-0.3733 (}ii|ai 2|)}_ -0.2665
-0.3540 (}nn 2|)}_ -1.4426
-0.4655 (}nn 3|)}_ -0.9655
-1.3733 (}nn 4|)}_ -0.2665
-0.8512 (}rr 2|)}zz -0.2665
-0.3242 (}rr 2}ee|kk -0.5675
-0.3733 (}ss|an 2|)}_ -0.2665
-0.6728 (}tt 2|)}_ -0.2665
-0.6752 (}tt 2|)}rr -0.2665
-0.3744 (}uu|bb 2|)}ee -0.5675
-0.3550 )}ai|kk </s> 0.0000
-0.3550 )}uu|bb </s> 0.0000
-0.3653 -|j}zz a}aa -0.5675
-0.3650 -|u}un n}nn -0.5675
-1.6985 -}_ </s> 0.0000
-2.7473 -}_ a|i}ai -0.5675
-2.7228 -}_ a|n}an -0.2665
-2.7568 -}_ a|u}au -0.8686
-2.8226 -}_ a|u}oo -0.2665
-1.5373 -}_ a}aa -0.9935
-1.2807 -}_ b}bb -1.0624
-1.7507 -}_ c|h}ch -0.5675
-1.3040 -}_ c}kk -1.0889
-1.6357 -}_ c}ss -0.9266
-2.1694 -}_ c}ss|ei -0.2665
-2.8302 -}_ d}_ -0.2665
-1.1992 -}_ d}dd -1.3054
-2.3985 -}_ e|m}an -0.7436
-1.8257 -}_ e|n}an -0.7980
-2.6467 -}_ e}_ -0.5675
-1.4364 -}_ e}ai -1.0235
-1.8142 -}_ e}ei -1.0147
-1.3810 -}_ f}ff -1.0871
-2.3806 -}_ g|u}gg -0.8686
-1.8186 -}_ g}gg -0.7747
-2.7568 -}_ g}jj -0.5675
-2.8536 -}_ g}jj|ei -0.2665
-1.6887 -}_ h}_ -0.8775
-2.3673 -}_ i|n}in -0.4426
-1.8846 -}_ i}ii -0.4706
-2.9231 -}_ j}dd|jj -0.2665
-1.5916 -}_ j}jj -0.6856
-2.3178 -}_ k}kk -0.5675
-1.3742 -}_ l}ll -0.7874
-1.3503 -}_ m}mm -1.1815
-1.4318 -}_ n}nn -0.8563
-2.7349 -}_ o|n}on -0.5675
-2.3506 -}_ o|u}ou -0.7436
-1.9210 -}_ o|u}ww -0.6345
-2.1382 -}_ o}au -1.2207
-1.6323 -}_ o}oo -0.9477
-2.8340 -}_ p|h}ff -0.4426
-1.2012 -}_ p}pp -1.0742
-2.8264 -}_ p}pp|ei -0.2665
-2.0173 -}_ q|u}kk -1.2877
-1.5006 -}_ r}rr -0.8586
-2.3902 -}_ s|h}ch -0.7436
-2.1178 -}_ s}_ -0.8106
-1.4044 -}_ s}ss -1.0447
-1.3456 -}_ t}tt -1.0171
-2.3943 -}_ u|n}un -0.4426
-2.1728 -}_ u}oe -0.7436
-1.9022 -}_ u}uu -0.5095
-1.3803 -}_ v}vv -1.1657
-2.3686 -}_ w}ww -0.2665
-2.8417 -}_ x}kk|ss -0.2665
-2.3456 -}_ y}ii -0.4426
-2.7699 -}_ y}yy -1.2207
-2.1460 -}_ z}zz -1.2665
-1.9276 -}_ à}aa -1.6467
-2.1571 -}_ é}ai -0.7894
-2.8576 -}_ ê}ai -0.5675
-0.8238 -}ai l}ll -0.2665
-0.8331 -}ai p}pp -0.2665
-0.8255 -}ai r}rr -0.2665
-1.2329 -}ee b}bb -0.2665
-1.2396 -}ee c}ss -0.5675
-0.7331 -}ee d}dd -0.4426
-1.2131 -}ee n}nn -0.2665
-1.2526 -}ee q|u}kk -0.5675
-1.2226 -}ee s}ss -0.5675
-1.2053 -}ee t}tt -0.5675
-0.6670 -}nn a|i}ai -0.5675
-0.6723 -}nn ê}ai -0.5675
-1.0453 -}tt e}ai -0.8686
-1.0391 -}tt i}ii -0.5675
-0.5404 -}tt o|n}on -0.4426
-1.0708 -}tt à}aa -0.5675
-1.0277 -}zz a}aa -0.5675
-1.0543 -}zz e|n}an -0.2665
-1.0465 -}zz h}_ -1.1696
-1.0266 -}zz n}nn -0.6644
-1.0494 -}zz y}ii -0.2665
-0.3550 .}ei </s> 0.0000
-0.3550 .}rr|aa </s> 0.0000
-0.3550 0|)}_ </s> 0.0000
-0.6758 0|0}tt (}ss|an -0.2665
-0.6754 0|0}tt _}ss|an -0.2665
-0.6587 0|4}tt (}_ -0.2665
-0.6370 0|4}tt </s> 0.0000
-0.1422 0}an|tt </s> 0.0000
-0.3550 0}ii|ss </s> 0.0000
-0.6756 0}rr|an (}tt -0.2665
-0.6725 0}rr|an _}tt -0.2665
-0.6370 0}ss|an </s> 0.0000
-0.6713 0}ss|an m}ai|mm -0.2665
-0.3748 0}tt|rr 0}ss|an -0.2665
-0.3550 1|)}_ </s> 0.0000
-0.3550 1|1}zz </s> 0.0000
-0.3550 1|6}zz </s> 0.0000
-0.3688 1}dd 0}ii|ss -0.8686
-1.2775 1}dd 2}ou|zz -0.2665
-0.5177 1}dd _}ii -0.4426
-0.0895 1}ei|un </s> 0.0000
-0.3748 1}kk|aa 4}tt|oo -0.2665
-0.3748 1}kk|in 5}zz -0.2665
-0.8502 1}ss|an 1}dd -0.2665
-0.8515 1}ss|an 3}tt|rr -0.2665
-0.8505 1}ss|an _}kk|aa -0.5675
-0.3748 1}tt|oo 4}rr|zz -0.5675
-0.3748 1}tt|rr 3}ai|zz -0.2665
-0.0514 1}un </s> 0.0000
-0.3748 2|(}tt 2|)}ou -0.2665
-0.1471 2|)}_ </s> 0.0000
-1.6480 2|)}_ _}ai -0.2665
-1.6526 2|)}_ _}ai|gg -0.2665
-1.6459 2|)}_ _}nn -0.2665
-1.6505 2|)}_ _}vv|ei -0.2665
-1.6526 2|)}_ _}yy|eu -0.2665
-0.1287 2|)}ee </s> 0.0000
-1.1520 2|)}ee _}vv|ei -0.5675
-0.3550 2|)}ou </s> 0.0000
-0.2109 2|)}rr </s> 0.0000
-0.9721 2|)}rr _}ii -0.2665
-0.2364 2|)}zz </s> 0.0000
-1.1525 2|)}zz _}ai|dd -0.2665
-1.1497 2|)}zz _}ee -0.2665
-0.0654 2}dd|eu </s> 0.0000
-1.4159 2}dd|eu _}zz|ai -0.2665
-0.3748 2}ee|kk )}uu|bb -0.5675
-0.3746 2}in|tt 1}ei|un -0.2665
-0.1422 2}ou|zz </s> 0.0000
-0.3550 2}rr|ei </s> 0.0000
-0.3748 2}|vv 4}in|tt -0.2665
-0.3746 3|(}ff 2|)}rr -0.2665
-0.0314 3|)}_ </s> 0.0000
-0.1422 3|)}ee </s> 0.0000
-0.3550 3|)}ei </s> 0.0000
-0.1597 3|)}zz </s> 0.0000
-1.0737 3|)}zz _}ai|ll -0.2665
-0.6754 3}ai|tt (}rr -0.2665
-0.6754 3}ai|tt _}rr|kk -0.2665
-0.3550 3}ai|zz </s> 0.0000
-0.6756 3}tt|rr 0}an|tt -0.2665
-0.6754 3}tt|rr _}an|tt -0.2665
-0.1422 3}uu|bb </s> 0.0000
-0.6370 3}ww|aa </s> 0.0000
-0.6754 3}ww|aa _}ss|an -0.2665
-0.0424 4|)}_ </s> 0.0000
-0.2109 4|)}ee </s> 0.0000
-0.9759 4|)}ee _}vv|ei -0.2665
-0.2389 4|)}zz </s> 0.0000
-0.6246 4|)}zz _}ee -0.5675
-0.3747 4}aa|rr 0}an|tt -0.2665
-0.3748 4}gg|rr )}ai|kk -0.2665
-0.3744 4}in|tt _}kk|aa -0.2665
-1.3281 4}kk|aa (}tt -0.2665
-0.8013 4}kk|aa 0|0}tt -0.2665
-0.8013 4}kk|aa 0}rr|an -0.2665
-0.8013 4}kk|aa 0}tt|rr -0.5675
-1.3286 4}kk|aa _}rr|an -0.2665
-1.3188 4}kk|aa _}tt -0.2665
-0.3550 4}rr|zz </s> 0.0000
-0.3746 4}tt|oo (}rr -0.2665
-0.1287 5|)}_ </s> 0.0000
-1.1520 5|)}_ _}vv|ei -0.2665
-0.3550 5|)}ee </s> 0.0000
-0.4373 5}in|kk </s> 0.0000
-0.4491 5}in|kk _}an|tt -0.2665
-0.3550 5}zz </s> 0.0000
-0.0653 6|)}_ </s> 0.0000
-0.0895 6|)}ee </s> 0.0000
-0.3550 6|)}ei </s> 0.0000
-0.0895 6|)}zz </s> 0.0000
-0.1422 6}ii|ss </s> 0.0000
-0.0653 7|)}_ </s> 0.0000
-0.3550 7|)}ee </s> 0.0000
-0.3550 7|)}zz </s> 0.0000
-0.8348 7}ai|tt (}_ -0.2665
-0.3124 7}ai|tt </s> 0.0000
-0.6756 7}tt|dd 2}ou|zz -0.2665
-0.6711 7}tt|dd _}ii -0.2665
-0.1422 8|)}_ </s> 0.0000
-0.3550 8|)}ee </s> 0.0000
-0.3550 8|)}zz </s> 0.0000
-0.1475 8}ei|uy _}ii -0.5675
-0.6733 8}vv|in _}nn -0.2665
-0.6751 8}vv|in _}ss -0.2665
-0.3725 8}zz|uy _}ii -0.2665
-0.0653 9|)}_ </s> 0.0000
-0.3550 9}eu|ff </s> 0.0000
-3.3844 <s> -}_ -0.8586
-4.2117 <s> -}tt -0.6345
-4.8602 <s> -}zz -0.2665
-4.0788 <s> _}aa -0.9197
-4.4653 <s> _}ei -0.5675
-5.1194 <s> _}ii -0.2665
-3.9534 <s> _}tt -1.0447
-2.7354 <s> a|i}ai -1.3216
-4.8329 <s> a|i}ei -0.5675
-5.2761 <s> a|l}oo -0.2665
-2.8697 <s> a|m}an -1.8167
-2.2744 <s> a|n}an -1.6329
-2.5173 <s> a|u}au -1.3079
-2.3539 <s> a|u}oo -1.6552
-4.4526 <s> a|y}ai -0.3914
-5.1497 <s> a|y}ei -0.2665
-4.2764 <s> a|î}ai -1.0447
-4.3390 <s> a}_ -0.6644
-1.1565 <s> a}aa -2.1489
-5.3825 <s> a}aa|on -0.2665
-5.3825 <s> a}aa|vv -0.2665
-3.8222 <s> a}ai -0.9935
-5.3202 <s> a}an -0.2665
-5.3320 <s> a}au -0.2665
-4.3575 <s> a}ei -0.6644
-5.3320 <s> a}oe -0.2665
-4.6347 <s> b|u}bb -0.7436
-1.3262 <s> b}bb -2.0638
-3.3807 <s> b}bb|ei -0.5675
-1.8873 <s> c|h}ch -1.7876
-1.0899 <s> c}kk -2.6067
-5.3825 <s> c}kk|on -0.2665
-1.9941 <s> c}ss -1.8785
-2.8016 <s> c}ss|ei -1.0552
-4.0917 <s> c}tt|ch -0.7436
-4.7665 <s> d}_ -0.5675
-1.1594 <s> d}dd -2.2770
-3.2827 <s> d}dd|ei -0.7058
-4.0355 <s> e|a}ii -0.5675
-4.4510 <s> e|i}ai -0.2665
-2.3607 <s> e|m}an -2.2284
-5.3693 <s> e|n}aa -0.2665
-1.8448 <s> e|n}an -1.9957
-4.8562 <s> e|r}ai -0.5675
-3.4330 <s> e|u}ee -1.0125
-3.0257 <s> e|u}eu -1.1830
-3.6603 <s> e|u}oe -0.9293
-4.7797 <s> e|y}ei -0.5675
-5.0911 <s> e|z}ei -0.2665
-3.5802 <s> e}_ -0.6979
-3.9890 <s> e}aa -1.0069
-1.7218 <s> e}ai -2.0473
-2.5348 <s> e}ei -1.1840
-3.8839 <s> e}eu -0.3712
-4.7633 <s> e}oe -0.2665
-4.8329 <s> e}yy -0.5675
-3.1138 <s> f}ai|ff -0.7948
-1.4101 <s> f}ff -2.0923
-2.6323 <s> g|u}gg -1.4004
-4.1871 <s> g}_ -1.1116
-3.4136 <s> g}dd|jj -1.1803
-1.6962 <s> g}gg -1.9012
-2.1584 <s> g}jj -1.8070
-3.4333 <s> g}jj|ei -0.5565
-5.3825 <s> h|Ô}oo -0.2665
-1.6551 <s> h}_ -1.8402
-4.4802 <s> h}aa -0.3914
-3.6128 <s> h}aa|ch -0.4027
-4.4819 <s> h}yy -0.5675
-5.3825 <s> i|(}un -0.2665
-2.2648 <s> i|m}in -2.5460
-1.5572 <s> i|n}in -2.5264
-1.7689 <s> i}ii -1.7783
-5.3825 <s> i}pp|rr -0.2665
-3.7779 <s> i}yy -0.6519
-3.4471 <s> j}dd|jj -0.8049
-1.9841 <s> j}jj -1.6601
-4.6229 <s> j}jj|yy -0.2665
-4.4836 <s> j}rr -0.2665
-4.2796 <s> j}yy -0.3457
-4.6347 <s> k|n}nn -0.2665
-2.1108 <s> k}kk -1.4776
-4.0802 <s> l|l}ll -0.6187
-3.5482 <s> l}ai|ll -0.5395
-1.5235 <s> l}ll -1.9068
-5.2556 <s> m|m}mm -0.2665
-3.2031 <s> m}ai|mm -0.7243
-1.2080 <s> m}mm -2.1605
-5.3693 <s> n}ai -0.2665
-3.3428 <s> n}ai|nn -0.5498
-1.7339 <s> n}nn -1.7902
-5.3825 <s> n}nn|uu -0.2665
-3.8538 <s> o|m}on -1.1416
-3.3038 <s> o|n}on -0.9411
-2.6407 <s> o|u}ou -1.2665
-3.7487 <s> o|u}ww -0.6422
-3.1585 <s> o}_ -1.1756
-2.7824 <s> o}au -0.8056
-5.2266 <s> o}oe -0.2665
-1.8243 <s> o}oo -1.7820
-4.6068 <s> o}ww -0.4426
-2.6378 <s> p|h}ff -1.4742
-1.0702 <s> p}pp -2.3914
-3.0631 <s> p}pp|ei -0.8638
-5.3825 <s> q|u}gg -0.2665
-2.4063 <s> q|u}kk -1.5197
-3.2037 <s> q}kk -1.0069
-4.2828 <s> q}kk|uu -0.3457
-5.3320 <s> r|z}rr -0.2665
-3.2233 <s> r}ai|rr -0.7436
-1.1283 <s> r}rr -2.3081
-2.9769 <s> s|h}ch -0.9316
-2.7386 <s> s}_ -1.9455
-3.0728 <s> s}ai|ss -0.8937
-3.7778 <s> s}ch -1.0447
-1.1652 <s> s}ss -2.1731
-4.1598 <s> s}zz -0.5095
-4.0373 <s> t|h}ff -0.6644
-4.0458 <s> t|h}zz -0.9655
-3.9994 <s> t}dd -0.8308
-4.7864 <s> t}ss -0.5675
-1.3739 <s> t}tt -2.0686
-3.3512 <s> t}tt|ei -0.6598
-3.7493 <s> u|n}un -0.7002
-4.6159 <s> u}ee -0.4426
-4.3451 <s> u}oe -0.4883
-4.4311 <s> u}ou -0.3914
-2.2450 <s> u}uu -1.3704
-4.0428 <s> u}yy|ou -0.7894
-1.5850 <s> v}vv -2.0399
-3.8550 <s> v}vv|ei -0.2665
-5.3825 <s> w|r}rr -0.2665
-4.0409 <s> w}dd|ou -0.9655
-5.3825 <s> w}tt|rr -0.2665
-2.8819 <s> w}vv -0.9914
-2.6339 <s> w}ww -1.1915
-4.3717 <s> x}gg|zz -0.4883
-3.7718 <s> x}kk|ss -0.6187
-3.6374 <s> y}ii -0.6467
-2.7516 <s> y}yy -1.1936
-2.6247 <s> z}zz -1.1442
-5.3825 <s> Â}aa -0.2665
-3.4716 <s> É}ei -0.7089
-4.6347 <s> Î}ii -0.7436
-5.3825 <s> Ô}au -0.2665
-4.6347 <s> Ö}au -0.2665
-2.7482 <s> à|_}aa -1.3365
-4.0896 <s> à}aa -0.9197
-3.4331 <s> â}aa -1.0125
-4.6024 <s> ç}ss -0.2665
-4.4222 <s> è}ai -0.5675
-1.6152 <s> é}ai -2.3715
-4.8643 <s> é}ee -0.5675
-2.6764 <s> é}ei -1.4068
-4.0343 <s> ê}ai -1.2665
-3.9966 <s> î}ii -1.3079
-4.5980 <s> ô}au -0.4426
-4.3626 <s> ô}oo -0.9655
-4.6299 <s> ö}au -0.2665
-0.3725 @}aa|zz r}ai|rr -0.5675
-0.3650 _|u}un n}nn -0.9655
-2.8264 _}_ a|m}an -0.2665
-2.3165 _}_ a|n}an -0.4426
-1.7159 _}_ a|u}au -1.0727
-2.3499 _}_ a}_ -0.5675
-1.5888 _}_ a}aa -0.5910
-2.8067 _}_ a}ai -0.2665
-1.4672 _}_ b}bb -0.8049
-2.7197 _}_ c|h}ch -0.3634
-1.3406 _}_ c}kk -1.1393
-1.7819 _}_ c}ss -0.9100
-0.9949 _}_ d}dd -1.8389
-1.7167 _}_ e|n}an -0.8228
-2.6495 _}_ e}_ -1.2665
-1.5941 _}_ e}ai -0.8405
-1.7786 _}_ e}ei -1.2665
-1.4697 _}_ f}ff -1.1002
-2.8003 _}_ g|u}gg -0.2665
-1.5507 _}_ g}gg -0.7224
-2.3281 _}_ g}jj -0.5675
-1.7118 _}_ h}_ -0.8686
-2.8366 _}_ i|m}in -0.5675
-1.7896 _}_ i|n}in -0.6187
-1.9529 _}_ i}ii -0.5675
-1.9764 _}_ j}jj -0.5675
-2.0983 _}_ k}kk -0.2665
-1.3946 _}_ l}ll -1.0198
-1.2188 _}_ m}mm -1.1306
-1.6991 _}_ n}nn -0.8016
-2.3207 _}_ o|n}on -0.4426
-1.9759 _}_ o|u}ou -0.8686
-1.9850 _}_ o}_ -0.8686
-2.0989 _}_ o}oo -0.3634
-1.2418 _}_ p}pp -1.1991
-1.2445 _}_ q|u}kk -1.6362
-1.5436 _}_ r}rr -0.8001
-2.8230 _}_ s|h}ch -0.2665
-2.6363 _}_ s}_ -0.8106
-1.3377 _}_ s}ss -0.9537
-1.2369 _}_ t}tt -0.9716
-1.9919 _}_ u|n}un -0.6089
-1.8667 _}_ u}uu -0.9935
-1.7115 _}_ v}vv -0.8686
-2.7582 _}_ y}yy -0.2665
-1.9998 _}_ à|_}aa -0.7436
-1.8875 _}_ à}aa -1.3457
-1.9948 _}_ ç}ss -0.8686
-1.7847 _}_ é}ei -0.9197
-2.1930 _}aa 2}dd|eu -0.2665
-2.2230 _}aa 2}rr|ei -0.5675
-1.5223 _}aa </s> 0.0000
-2.2230 _}aa _}dd|aa -0.5675
-2.2230 _}aa _}dd|ee -0.5675
-2.2169 _}aa _}ss|an -0.5675
-1.6966 _}aa _}zz|ai -0.7436
-2.1650 _}aa b}bb|ei -0.2665
-2.0467 _}aa c}kk -0.2665
-2.1463 _}aa c}ss|ei -0.2665
-1.9960 _}aa d}dd -0.2665
-2.0679 _}aa f}ff -0.2665
-2.1623 _}aa g}jj|ei -0.2665
-1.1757 _}aa i}ii -0.5675
-0.6849 _}aa i}yy -0.8749
-1.6291 _}aa k}kk -0.4426
-2.1623 _}aa l}ai|ll -0.2665
-2.2230 _}aa l}dd|mm -0.2665
-2.1490 _}aa m}ai|mm -0.2665
-1.2967 _}aa o|u}ou -0.6345
-1.6776 _}aa o|u}ww -0.2665
-2.2078 _}aa o|w}oo -0.2665
-2.0285 _}aa o}oo -0.5675
-2.0406 _}aa p}pp -0.2665
-2.1437 _}aa p}pp|ei -0.2665
-2.1089 _}aa q|u}kk -0.2665
-2.1463 _}aa r}ai|rr -0.2665
-2.1463 _}aa s}ai|ss -0.2665
-1.9391 _}aa t}tt -0.2665
-2.1516 _}aa t}tt|ei -0.2665
-2.1732 _}aa v}vv|ei -0.2665
-2.1959 _}aa w}dd|ou -0.2665
-2.2108 _}aa w}ou -0.2665
-2.1162 _}aa w}ww -0.4426
-0.8277 _}aa y}yy -0.4214
-2.2230 _}aa ²}rr|ei -0.5675
-0.3747 _}aa|rr _}au|bb -0.2665
-0.3741 _}aa|yy i}oe -0.2665
-1.6047 _}ai .}rr|aa -0.2665
-0.2970 _}ai </s> 0.0000
-1.6047 _}ai _}tt|kk -0.2665
-1.5903 _}ai e}eu -0.2665
-1.5863 _}ai f}ai|ff -0.2665
-1.0721 _}ai m}ai|mm -0.3914
-1.5530 _}ai o}oo -0.2665
-1.5674 _}ai z}zz -0.2665
-0.6575 _}ai|dd </s> 0.0000
-1.2056 _}ai|dd _}ii -0.2665
-1.2066 _}ai|dd d}dd|ei -0.2665
-1.2056 _}ai|dd f}ai|ff -0.2665
-1.2087 _}ai|dd l}ai|ll -0.2665
-1.2066 _}ai|dd t}tt|ei -0.2665
-0.6756 _}ai|gg 3|)}ee -0.2665
-0.6370 _}ai|gg </s> 0.0000
-0.3550 _}ai|ll </s> 0.0000
-0.3746 _}ai|ss 7}ai|tt -0.2665
-0.6740 _}ai|tt _}ai -0.2665
-0.6754 _}ai|tt _}rr|kk -0.5675
-0.6250 _}an|tt 1}ei|un -0.5675
-1.1492 _}an|tt 2}dd|eu -0.2665
-1.1434 _}an|tt _}ii -0.8686
-0.6248 _}an|tt _}ss -0.2665
-0.1482 _}au|bb @}aa|zz -0.5675
-0.3748 _}au|kk _}tt|oe -0.2665
-0.3732 _}au|yy _}tt -0.2665
-0.6737 _}bb|ll _}ee -0.8106
-0.6749 _}bb|ll _}vv|ei -0.4292
-0.3703 _}dd j}jj -0.2665
-0.3670 _}dd|aa m}mm -0.2665
-0.3748 _}dd|ee l}mm|ww -0.5675
-1.6031 _}ee 8}vv|in -0.2665
-0.6648 _}ee </s> 0.0000
-1.6042 _}ee _}vv|ai -0.2665
-1.5986 _}ee _}vv|ei -0.4426
-1.4943 _}ee a}aa -0.2665
-1.5317 _}ee c}kk -0.2665
-1.5365 _}ee c}ss -0.2665
-1.0500 _}ee e}ai -0.4426
-1.5260 _}ee e}ei -0.2665
-1.5532 _}ee g}jj -0.2665
-1.4943 _}ee l}ll -0.2665
-1.5289 _}ee p}pp -0.2665
-1.5004 _}ee r}rr -0.2665
-0.9775 _}ei </s> 0.0000
-1.5496 _}ei _}rr|oo -0.2665
-0.5265 _}ei f}ff -0.4883
-1.0047 _}ei m}mm -0.2665
-1.4776 _}ei n}nn -0.2665
-1.4835 _}ei r}rr -0.2665
-1.0037 _}ei s}ss -0.2665
-1.4689 _}ei t}tt -0.2665
-0.3727 _}ei|rr _}aa -0.2665
-0.4608 _}ei|ss 5}in|kk -0.4426
-1.2193 _}ei|ss 6}ii|ss -0.2665
-1.2190 _}ei|ss 7}ai|tt -0.2665
-0.6918 _}ei|ss _}ww -0.5675
-2.0963 _}ii 8}zz|uy -0.2665
-0.9408 _}ii </s> 0.0000
-1.5507 _}ii _}aa -0.5675
-2.0963 _}ii _}ll|oo -0.5675
-1.5672 _}ii _}ss -0.7436
-1.5547 _}ii _}tt -0.7436
-1.8587 _}ii a}aa -0.2665
-2.0231 _}ii a}ai -0.5675
-1.3028 _}ii b}bb -0.4426
-1.5149 _}ii c}kk -0.5675
-1.9420 _}ii c}ss -0.2665
-2.0255 _}ii c}ss|ei -0.5675
-1.8842 _}ii d}dd -0.2665
-2.0303 _}ii d}dd|ei -0.5675
-1.5278 _}ii e}ee -0.2665
-1.8721 _}ii i}ii -0.2665
-2.0823 _}ii j}dd|jj -0.2665
-1.9688 _}ii j}jj -0.2665
-2.0795 _}ii j}yy -0.2665
-1.9131 _}ii k}kk -0.6345
-1.8930 _}ii m}mm -0.3914
-2.0453 _}ii n}ai|nn -0.2665
-1.5179 _}ii o}au -0.2665
-2.0231 _}ii p}pp|ei -0.7436
-2.0255 _}ii r}ai|rr -0.2665
-2.0255 _}ii s}ai|ss -0.2665
-1.9481 _}ii s}zz -0.2665
-1.4729 _}ii t}tt -0.2665
-2.0303 _}ii t}tt|ei -0.2665
-1.9420 _}ii v}vv -0.5675
-2.0504 _}ii v}vv|ei -0.2665
-0.9846 _}ii x}kk|ss -0.7436
-1.5347 _}ii y}yy -0.9587
-1.1528 _}kk|aa 0|4}tt -0.2665
-0.6252 _}kk|aa 1}tt|oo -0.5675
-0.3937 _}kk|aa _}tt|rr -0.2665
-0.3670 _}ll|oo m}mm -0.5675
-1.1891 _}nn 9}eu|ff -0.5675
-1.4518 _}nn </s> 0.0000
-1.1804 _}nn _}tt -0.4426
-1.6323 _}nn a|n}an -0.2665
-1.6467 _}nn a|u}au -0.5675
-1.5701 _}nn a}aa -0.6345
-1.6098 _}nn b}bb -0.5675
-1.6247 _}nn c}ss -0.2665
-1.6900 _}nn e|m}an -0.2665
-1.6507 _}nn e|n}an -0.2665
-1.6110 _}nn e}ei -0.2665
-1.6713 _}nn g|u}gg -0.2665
-1.1604 _}nn g}gg -0.2665
-1.6061 _}nn i}yy -0.2665
-1.1392 _}nn n}nn -0.5675
-1.6401 _}nn o|u}ou -0.9655
-1.6657 _}nn o}_ -0.7436
-1.6073 _}nn o}oo -0.7436
-0.3653 _}oe l}ll -0.2665
-0.3748 _}on|ss g}ei|gn -0.2665
-0.3736 _}pp|aa _}nn -0.2665
-0.6725 _}rr|an _}tt -0.2665
-0.6749 _}rr|an _}tt|rr -0.2665
-0.5460 _}rr|kk (}uu|bb -0.5675
-1.0732 _}rr|kk 3}uu|bb -0.2665
-1.0653 _}rr|kk _}aa -0.5675
-1.0732 _}rr|kk ³}uu|bb -0.2665
-0.8512 _}rr|oo 1}un -0.2665
-0.3124 _}rr|oo </s> 0.0000
-0.7501 _}ss 5}in|kk -0.4426
-0.3688 _}ss 6}ii|ss -0.8686
-0.7500 _}ss 7}ai|tt -0.8686
-0.0930 _}ss|ai 1|6}zz -0.7436
-0.8502 _}ss|an 1}dd -0.2665
-0.8518 _}ss|an 7}tt|dd -0.2665
-0.8450 _}ss|an m}ai|mm -0.2665
-0.9871 _}tt </s> 0.0000
-1.7887 _}tt _}ei|rr -0.2665
-1.7593 _}tt _}ii -0.2665
-1.7843 _}tt _}ss -0.2665
-1.7378 _}tt a|u}au -0.2665
-0.3548 _}tt c|h}ch -0.7289
-1.7210 _}tt c}ss -0.2665
-1.7408 _}tt e|n}an -0.2665
-1.7583 _}tt e}oe -0.2665
-1.7820 _}tt s}ch -0.2665
-1.6633 _}tt t}tt -0.2665
-1.7743 _}tt z}ss -0.5675
-1.7798 _}tt à}aa -0.2665
-0.6756 _}tt|kk 3}uu|bb -0.2665
-0.6756 _}tt|kk ³}uu|bb -0.2665
-0.3659 _}tt|oe r}rr -0.2665
-0.2575 _}tt|rr 3}ww|aa -0.7436
-1.2773 _}tt|rr 8}vv|in -0.2665
-1.2034 _}tt|rr </s> 0.0000
-1.2735 _}tt|rr _}ee -0.2665
-0.3550 _}vv|ai </s> 0.0000
-0.5275 _}vv|ei </s> 0.0000
-1.0953 _}vv|ei a}aa -0.4426
-1.6340 _}vv|ei b}bb|ei -0.2665
-1.1180 _}vv|ei c}ss|ei -0.2665
-1.6331 _}vv|ei e}eu -0.2665
-1.6277 _}vv|ei f}ai|ff -0.2665
-1.6286 _}vv|ei m}ai|mm -0.2665
-1.6268 _}vv|ei p}pp|ei -0.2665
-1.6277 _}vv|ei r}ai|rr -0.2665
-1.6295 _}vv|ei t}tt|ei -0.2665
-1.1231 _}vv|ei w}dd|ou -0.7436
-0.5436 _}ww _}aa -0.4426
-1.0666 _}ww a|y}ai -0.5675
-1.0366 _}ww a}aa -0.5675
-1.0453 _}ww e}ai -0.2665
-0.1422 _}yy|eu </s> 0.0000
-0.6569 _}zz|ai l}ll -0.4426
-0.6580 _}zz|ai r}rr -0.2665
-2.9023 a|i}ai (|1}_ -0.2665
-2.1255 a|i}ai (}_ -0.8228
-1.4149 a|i}ai </s> 0.0000
-2.7813 a|i}ai _}_ -0.2665
-2.6600 a|i}ai a}aa -0.2665
-2.1382 a|i}ai b}bb -1.5095
-2.7716 a|i}ai c|h}ch -0.2665
-2.7551 a|i}ai c}ss -0.2665
-2.3867 a|i}ai d}_ -0.3914
-1.7384 a|i}ai d}dd -0.8079
-2.8991 a|i}ai d}tt -0.2665
-2.7813 a|i}ai e|(}_ -0.2665
-1.0836 a|i}ai e|n}_ -3.0575
-2.8040 a|i}ai e|n}an -0.5675
-2.7963 a|i}ai e|r}ei -0.2665
-1.8201 a|i}ai e|s}_ -1.0447
-1.5802 a|i}ai e}_ -1.2396
-1.8305 a|i}ai g|n}gn -1.0262
-2.3838 a|i}ai g|u}gg -0.7716
-1.8258 a|i}ai g}_ -1.1959
-1.8164 a|i}ai g}gg -1.1026
-2.3664 a|i}ai g}jj -0.2665
-2.9155 a|i}ai k|k}kk -0.2665
-2.7218 a|i}ai k}kk -0.2665
-1.8041 a|i}ai l}ll -0.4313
-1.8093 a|i}ai m}mm -0.8753
-1.2936 a|i}ai n}nn -1.6332
-2.7370 a|i}ai p}pp -0.2665
-1.1244 a|i}ai r}rr -1.9730
-1.0159 a|i}ai s|(}_ -1.6625
-1.0030 a|i}ai s}_ -2.0528
-1.6785 a|i}ai s}ss -1.6376
-1.1946 a|i}ai s}zz -1.7492
-2.8895 a|i}ai t|h}ff -0.2665
-0.9593 a|i}ai t}_ -2.4444
-0.9568 a|i}ai t}tt -2.0443
-2.3507 a|i}ai v}vv -0.3914
-1.9182 a|i}ai x}_ -0.8686
-2.1688 a|i}ai x}kk|ss -0.6187
-2.8066 a|i}ai y}yy -0.2665
-2.3589 a|i}ai z}zz -0.4426
-0.3695 a|i}ee s}zz -1.0566
-1.6626 a|i}ei (|1}_ -0.2665
-1.5746 a|i}ei (}_ -0.9655
-1.4694 a|i}ei </s> 0.0000
-1.5782 a|i}ei d}dd -0.4426
-1.1383 a|i}ei g}_ -0.8686
-1.1184 a|i}ei m}mm -0.3914
-1.1113 a|i}ei n}nn -0.4426
-1.5710 a|i}ei r}rr -0.2665
-1.1250 a|i}ei s|(}_ -0.5675
-0.8988 a|i}ei s}_ -0.8106
-1.5782 a|i}ei s}ss -0.5675
-1.1276 a|i}ei s}zz -0.6644
-1.5494 a|i}ei t}tt -0.5675
-0.3695 a|i}eu s}zz -0.5675
-0.8430 a|l}oo k}kk -0.5675
-0.1284 a|l}oo l}ll -0.8949
-0.3650 a|m}aa n}nn -0.7566
-1.9211 a|m}an </s> 0.0000
-0.4564 a|m}an b}bb -1.1936
-1.5242 a|m}an d}dd -0.2665
-1.3066 a|m}an f}ff -0.2665
-1.1621 a|m}an p|h}ff -0.8686
-1.3124 a|m}an p}_ -0.7436
-0.5693 a|m}an p}pp -1.1448
-1.1547 a|m}an r}rr -0.2665
-2.0039 a|m}an s}ss -0.2665
-0.6599 a|n}aa s}_ -0.5675
-0.6539 a|n}aa t}tt -0.4883
-2.9708 a|n}an '}_ -0.5675
-1.3326 a|n}an (}_ -1.4969
-3.0422 a|n}an -|j}zz -0.5675
-2.1053 a|n}an -}_ -0.6519
-1.0879 a|n}an </s> 0.0000
-2.4588 a|n}an _}_ -0.6644
-2.4957 a|n}an _}tt -0.5675
-1.9139 a|n}an b}bb -0.3457
-1.7877 a|n}an c|h}ch -1.3079
-2.2697 a|n}an c}_ -0.9507
-1.5347 a|n}an c}kk -1.1632
-1.2291 a|n}an c}ss -1.9791
-1.4033 a|n}an d}_ -1.2945
-1.1689 a|n}an d}dd -1.5629
-3.0307 a|n}an d}nn -0.2665
-1.8602 a|n}an d}tt -1.0447
-2.4528 a|n}an f}ff -0.9197
-1.7938 a|n}an g|u}gg -0.9575
-2.1227 a|n}an g}_ -0.6815
-2.5103 a|n}an g}dd|jj -0.8106
-1.2452 a|n}an g}gg -1.2574
-1.4015 a|n}an g}jj -1.6534
-2.4488 a|n}an h}_ -0.2665
-3.0232 a|n}an j}dd|jj -0.2665
-2.0062 a|n}an j}jj -0.4706
-1.7302 a|n}an k}kk -0.7532
-2.0860 a|n}an l}ll -0.6230
-2.2285 a|n}an m}mm -0.4426
-3.0307 a|n}an n}ii -0.2665
-2.2393 a|n}an p}pp -0.2665
-1.9241 a|n}an q|u}kk -1.1306
-1.4755 a|n}an s|(}_ -1.2577
-1.3536 a|n}an s}_ -1.5675
-1.5012 a|n}an s}ss -1.1911
-2.1076 a|n}an s}zz -1.2343
-1.0311 a|n}an t}_ -2.6210
-2.9676 a|n}an t}ss -1.3079
-0.9395 a|n}an t}tt -2.2490
-1.8469 a|n}an v}vv -0.4426
-2.9453 a|n}an w}vv -0.2665
-3.0232 a|n}an x}kk -0.5675
-2.4903 a|n}an x}kk|ss -0.8106
-2.5024 a|n}an z}ss -0.4426
-1.7882 a|n}an z}zz -0.4048
-1.7428 a|n}an ç}ss -1.2737
-0.6638 a|r}aa s|(}_ -0.2665
-0.6599 a|r}aa s}_ -0.2665
-0.3693 a|t}vv h}_ -0.2665
-2.5740 a|u}au (}_ -1.1116
-2.0696 a|u}au -}_ -1.0904
-1.1718 a|u}au </s> 0.0000
-2.0785 a|u}au _}_ -1.3804
-2.7981 a|u}au _}tt -0.2665
-1.3336 a|u}au b}bb -0.6381
-1.6176 a|u}au c|h}ch -0.7814
-2.3173 a|u}au c}_ -0.2665
-1.6147 a|u}au c}kk -0.7102
-2.2719 a|u}au c}ss -0.4706
-1.1126 a|u}au d}_ -1.5337
-1.3029 a|u}au d}dd -0.9007
-2.1086 a|u}au d}tt -0.7436
-2.7040 a|u}au e|r}ei -0.2665
-2.0583 a|u}au e}ai -0.7436
-2.1041 a|u}au f|f}ff -0.7272
-1.6777 a|u}au f}ff -0.5887
-2.0954 a|u}au g|u}gg -0.4426
-2.7633 a|u}au g}_ -0.2665
-1.8307 a|u}au g}gg -0.7058
-1.6810 a|u}au g}jj -0.5453
-2.6597 a|u}au h}_ -0.2665
-2.2861 a|u}au j}jj -0.3914
-2.6195 a|u}au k}kk -0.2665
-2.8687 a|u}au l|h}yy -0.2665
-2.3209 a|u}au l|l}ll -0.3634
-1.3742 a|u}au l|t}_ -1.4840
-1.9639 a|u}au l}_ -0.4883
-1.4652 a|u}au l}ll -0.7262
-1.3622 a|u}au m}mm -0.9655
-1.4647 a|u}au n}nn -0.4883
-2.7735 a|u}au p|h}ff -0.4426
-2.8054 a|u}au p}_ -0.2665
-1.8272 a|u}au p}pp -0.5675
-1.9457 a|u}au q|u}kk -0.6089
-2.8281 a|u}au r|r}rr -0.2665
-1.6067 a|u}au r}rr -0.6577
-1.5104 a|u}au s}_ -1.2365
-1.8184 a|u}au s}ss -1.1238
-1.8315 a|u}au s}zz -0.8308
-1.5162 a|u}au t}_ -1.2067
-1.2020 a|u}au t}tt -1.0896
-1.5629 a|u}au v}vv -0.8949
-2.7667 a|u}au w}vv -0.2665
-2.7311 a|u}au w}ww -0.2665
-2.8730 a|u}au x|_}zz -0.2665
-1.0963 a|u}au x}_ -2.4969
-2.0998 a|u}au x}kk|ss -0.8106
-2.8479 a|u}au x}ss -0.8686
-1.6788 a|u}au z}zz -0.4426
-2.2480 a|u}oo (}_ -0.2665
-1.5509 a|u}oo -}_ -0.7980
-2.0564 a|u}oo </s> 0.0000
-2.3405 a|u}oo _}_ -0.4426
-1.4423 a|u}oo b}bb -0.7251
-1.4477 a|u}oo c|h}ch -0.9477
-1.3595 a|u}oo c}kk -0.8949
-1.6919 a|u}oo c}ss -0.9197
-1.1231 a|u}oo d}dd -1.3079
-2.4731 a|u}oo d}nn -0.2665
-1.8852 a|u}oo e}ai -0.5675
-2.3428 a|u}oo e}ee -0.2665
-2.4298 a|u}oo f|f}ff -0.9197
-1.6944 a|u}oo f}ff -1.3457
-1.6924 a|u}oo g}gg -1.5747
-2.3542 a|u}oo g}jj -0.2665
-1.9111 a|u}oo j}jj -0.4426
-2.4189 a|u}oo l|l}ll -0.9355
-2.4611 a|u}oo l}_ -0.2665
-1.4328 a|u}oo l}ll -0.7716
-1.2844 a|u}oo m}mm -0.9197
-1.8623 a|u}oo n}nn -0.4426
-2.4083 a|u}oo p|h}ff -0.8106
-1.6879 a|u}oo p}pp -0.7137
-2.3683 a|u}oo q|u}kk -0.2665
-0.9726 a|u}oo r}rr -1.0952
-1.5415 a|u}oo s}_ -1.6979
-1.4370 a|u}oo s}ss -1.4126
-1.5527 a|u}oo s}zz -0.7436
-1.9029 a|u}oo t}_ -0.6925
-2.4216 a|u}oo t}ss -1.3079
-0.9702 a|u}oo t}tt -1.4548
-1.2285 a|u}oo v}vv -0.9837
-1.5714 a|u}oo x}_ -0.9355
-2.4136 a|u}oo x}kk|ss -0.9655
-2.4641 a|u}oo x}ss -0.8686
-1.1704 a|w}au </s> 0.0000
-1.2473 a|w}au f}ff -0.2665
-1.2377 a|w}au k}kk -0.3914
-0.7333 a|w}au l}ll -0.2665
-1.2218 a|w}au n}nn -0.2665
-0.7355 a|w}au s}ss -0.4426
-0.6370 a|w}oo </s> 0.0000
-0.6580 a|w}oo r}rr -0.5675
-1.3645 a|y}ai (}_ -1.1696
-0.7056 a|y}ai </s> 0.0000
-2.0666 a|y}ai _}_ -0.2665
-1.5868 a|y}ai b}bb -0.2665
-2.0106 a|y}ai d}dd -0.2665
-2.0666 a|y}ai e|(}_ -0.5675
-1.5821 a|y}ai e}_ -0.7436
-2.0582 a|y}ai f}ff -0.2665
-1.1144 a|y}ai l}ll -0.6187
-1.2246 a|y}ai m}mm -0.4426
-0.9576 a|y}ai n}nn -0.7137
-1.3633 a|y}ai r}rr -0.2665
-2.0444 a|y}ai s|(}_ -0.2665
-1.2242 a|y}ai s}_ -0.6644
-2.0106 a|y}ai s}ss -0.2665
-1.0356 a|y}ai s}zz -0.5095
-2.1261 a|y}ai t|h}ff -0.2665
-1.3563 a|y}ai t}tt -0.3914
-2.0885 a|y}ai w}ww -0.2665
-2.1277 a|y}ai ç}ss -0.5675
-1.1223 a|y}ei (}_ -0.7436
-0.1845 a|y}ei </s> 0.0000
-1.8568 a|y}ei _}_ -0.2665
-1.8580 a|y}ei j}jj -0.2665
-1.3471 a|y}ei m}mm -0.5675
-1.8200 a|y}ei n}nn -0.2665
-1.3445 a|y}ei r}rr -0.2665
-1.8325 a|y}ei s}_ -0.2665
-0.1422 a|z}aa </s> 0.0000
-0.6737 a|ë}aa _}ei -0.2665
-0.6569 a|ë}aa l}ll -0.2665
-1.5590 a|î}ai c|h}ch -0.6767
-0.8131 a|î}ai n}nn -1.1696
-0.6672 a|î}ai t}_ -1.4426
-0.3311 a|î}ai t}tt -1.5887
-0.9668 a|î}ei c|h}ch -0.5675
-0.2140 a|î}ei t}tt -1.3804
-1.9921 a}_ (}_ -0.2665
-1.8483 a}_ </s> 0.0000
-0.8889 a}_ a}aa -0.6089
-1.5684 a}_ d}dd -0.5095
-1.5938 a}_ e|n}an -0.5675
-2.0409 a}_ h}_ -0.2665
-1.2321 a}_ i|m}in -0.3457
-0.4385 a}_ i|n}in -1.6476
-1.3617 a}_ i}yy -1.1696
-1.5762 a}_ k}kk -0.5675
-1.9782 a}_ l}ll -0.2665
-1.9745 a}_ n}nn -0.2665
-1.6175 a}_ o|n}an -0.5675
-2.1349 a}_ o|û}ou -0.2665
-2.1439 a}_ r|d}au -0.2665
-1.5684 a}_ s}ss -0.8686
-1.9564 a}_ t}tt -0.2665
-2.0861 a}_ u}ou -0.5675
-2.1403 a}_ î|n}in -0.5675
-2.1158 a}_ ô}au -1.0447
-2.1279 a}_ ô}oo -0.5675
-1.7097 a}aa (}_ -1.7618
-2.5443 a}aa -}_ -0.5095
-3.5597 a}aa 1}dd -0.2665
-3.6242 a}aa 1}kk|in -0.2665
-3.6016 a}aa 1}ss|an -0.5675
-3.6242 a}aa 1}tt|rr -0.2665
-3.5801 a}aa 1}un -0.2665
-3.6127 a}aa 3}tt|rr -0.5675
-3.6016 a}aa 4}kk|aa -0.3334
-1.3361 a}aa </s> 0.0000
-2.2585 a}aa _}_ -1.0624
-3.5698 a}aa _}kk|aa -0.2665
-3.4863 a}aa _}nn -0.2665
-3.5801 a}aa _}ss -0.3914
-3.6016 a}aa _}ss|ai -0.2665
-2.6984 a}aa _}tt -1.0069
-3.5698 a}aa _}tt|rr -0.5675
-3.4163 a}aa a|y}ei -0.2665
-1.8680 a}aa a}aa -0.7696
-2.3831 a}aa b}_ -1.8228
-1.5769 a}aa b}bb -2.0170
-3.0397 a}aa b}bb|ei -0.4426
-2.8707 a}aa b}pp -1.0069
-1.8280 a}aa c|h}ch -1.4648
-3.6242 a}aa c|h}rr -0.5675
-1.9241 a}aa c}_ -2.0207
-1.5776 a}aa c}kk -1.8686
-1.7812 a}aa c}ss -1.8852
-2.8224 a}aa c}ss|ei -0.3914
-2.8646 a}aa c}tt|ch -0.3914
-2.0119 a}aa d}_ -1.3871
-1.5405 a}aa d}dd -1.8091
-3.0249 a}aa d}dd|ei -0.2665
-3.0943 a}aa d}nn -0.7436
-3.5035 a}aa d}tt -0.2665
-3.3087 a}aa e|u}eu -0.2665
-2.6137 a}aa e}_ -0.5095
-2.1338 a}aa e}ai -0.8228
-2.4608 a}aa e}ei -0.5218
-3.0367 a}aa e}eu -0.2665
-2.1592 a}aa f|f}ff -1.5711
-3.0191 a}aa f}ai|ff -0.2665
-1.8276 a}aa f}ff -1.2101
-2.4433 a}aa g|n}gn -1.3517
-2.0629 a}aa g|u}gg -1.0349
-2.0917 a}aa g}_ -1.8137
-2.7195 a}aa g}dd -1.1696
-3.0841 a}aa g}dd|jj -0.5218
-1.7402 a}aa g}gg -1.6618
-1.6277 a}aa g}jj -2.2398
-3.4309 a}aa g}jj|ei -0.2665
-3.6242 a}aa g}nn|yy -0.2665
-1.7026 a}aa h}_ -1.2413
-3.6016 a}aa h}yy -0.5675
-2.1306 a}aa i|l}yy -1.1803
-2.8507 a}aa i}_ -0.4883
-1.8697 a}aa i}ii -0.8749
-1.8083 a}aa i}yy -2.0437
-3.5698 a}aa j}dd|jj -0.2665
-1.9815 a}aa j}jj -1.2974
-3.6127 a}aa j}rr -0.2665
-3.0841 a}aa j}yy -0.3914
-2.8606 a}aa k|k}kk -0.5675
-1.7250 a}aa k}kk -1.2085
-1.9052 a}aa l|l}ll -1.5326
-2.8707 a}aa l|t}_ -0.7436
-3.5498 a}aa l}_ -0.2665
-1.4849 a}aa l}ll -2.1294
-1.9480 a}aa m|m}mm -1.2708
-2.5858 a}aa m}ai|mm -0.3537
-1.6646 a}aa m}mm -1.7449
-1.8049 a}aa n|n}nn -1.4483
-3.6016 a}aa n|t}_ -0.2665
-3.4460 a}aa n}ai|nn -0.2665
-1.5070 a}aa n}nn -1.8542
-3.2319 a}aa o|n}on -0.2665
-1.8984 a}aa o|u}ou -0.9089
-2.6943 a}aa o|u}ww -0.9655
-1.8428 a}aa o}au -0.7516
-2.0218 a}aa o}oo -0.9989
-3.6242 a}aa p|-}bb -0.2665
-2.2727 a}aa p|h}ff -1.4060
-2.1640 a}aa p|p}pp -1.7159
-2.5954 a}aa p}_ -1.2877
-1.7799 a}aa p}pp -1.5004
-2.5008 a}aa p}pp|ei -0.5095
-2.0326 a}aa q|u}kk -1.5026
-3.6242 a}aa q}gg -0.2665
-2.2335 a}aa q}kk -1.0125
-1.8888 a}aa r|r}rr -1.5409
-3.0909 a}aa r|z}rr -0.2665
-3.0191 a}aa r}ai|rr -0.2665
-1.4373 a}aa r}rr -2.1267
-1.8947 a}aa s|(}_ -1.5846
-2.1572 a}aa s|h}ch -0.6586
-1.7359 a}aa s}_ -2.4166
-2.4320 a}aa s}ai|ss -0.4426
-1.5839 a}aa s}ss -1.7988
-1.7676 a}aa s}zz -1.4335
-2.8449 a}aa t|h}ff -0.8686
-1.6260 a}aa t}_ -2.3656
-1.8349 a}aa t}ss -3.1869
-1.5292 a}aa t}tt -2.0879
-2.6902 a}aa t}tt|ei -0.3756
-3.0488 a}aa u}oo -0.5675
-2.8098 a}aa u}ou -0.3914
-2.9262 a}aa u}uu -0.2665
-2.5204 a}aa u}ww -0.5297
-1.7025 a}aa v}vv -1.7433
-3.5307 a}aa w}dd|ou -0.2665
-2.8206 a}aa w}vv -0.2665
-1.9412 a}aa w}ww -0.9477
-3.5035 a}aa x}_ -0.2665
-3.0875 a}aa x}kk -0.7436
-2.1568 a}aa x}kk|ss -1.1389
-3.6242 a}aa y|y}yy -0.2665
-3.5907 a}aa y}ai -0.2665
-2.2160 a}aa y}ii -0.7002
-2.0071 a}aa y}yy -0.9911
-2.5214 a}aa z|z}zz -0.5675
-2.6064 a}aa z}dd -1.1116
-3.1012 a}aa z}dd|zz -0.4426
-3.4948 a}aa z}ss -0.2665
-1.7685 a}aa z}zz -1.1650
-2.3221 a}aa â}aa -0.5353
-2.3805 a}aa ç}ss -1.6050
-2.6678 a}aa é}ai -1.8949
-2.9427 a}aa é}ei -1.4126
-2.2837 a}aa ë}ai -0.7002
-2.7095 a}aa î}ii -0.5675
-3.6127 a}aa ï|n}in -0.2665
-1.9927 a}aa ï}ii -1.1478
-2.0435 a}aa ï}yy -0.8288
-3.5907 a}aa ñ}gn -0.2665
-3.4697 a}aa ô}au -0.2665
-3.6242 a}aa ü}oo -0.2665
-3.4863 a}aa ü}uu -0.2665
-0.3748 a}aa|on 1|1}zz -0.2665
-0.3748 a}aa|vv 2}in|tt -0.2665
-2.0399 a}ai (}_ -0.5675
-1.0685 a}ai _}ii -0.6644
-1.6222 a}ai c}ss -0.4426
-2.0447 a}ai d}dd -0.2665
-2.1041 a}ai e|s}_ -0.2665
-0.5870 a}ai e}_ -0.6505
-1.6154 a}ai i}yy -0.2665
-1.3993 a}ai k}kk -0.4706
-1.6017 a}ai l}ll -0.6187
-2.0508 a}ai m}mm -0.2665
-1.6004 a}ai n}nn -0.2665
-1.2511 a}ai r}rr -0.5675
-2.1431 a}ai s|h}ch -0.2665
-2.0484 a}ai s}_ -0.5675
-1.5939 a}ai t}tt -0.2665
-2.1794 a}ai t}tt|eu -0.2665
-1.6222 a}ai v}vv -0.4426
-1.4057 a}ai y}ii -0.9777
-0.7457 a}ai y}yy -1.3716
-1.4760 a}ai|yy b}bb -0.2665
-1.4798 a}ai|yy c}kk -0.2665
-1.4826 a}ai|yy c}ss -0.2665
-1.4657 a}ai|yy d}dd -0.2665
-0.4959 a}ai|yy k}kk -0.8308
-0.9821 a}ai|yy s}zz -0.2665
-0.7484 a}ai|yy t}tt -0.5675
-1.1373 a}an m}mm -0.2665
-0.1306 a}an n}nn -0.2665
-0.1642 a}au l|l}ll -0.6925
-1.0548 a}au l}ll -0.2665
-1.6685 a}ei c}ss -0.2665
-0.9453 a}ei d}dd -0.3634
-0.7998 a}ei e}_ -0.3914
-0.6020 a}ei i}ii -0.4426
-1.6582 a}ei k}kk -0.2665
-1.6421 a}ei r}rr -0.2665
-1.6259 a}ei t}tt -0.2665
-1.1763 a}ei y}ii -0.4426
-0.9522 a}ei y}yy -0.4883
-1.0277 a}oe l}ll -0.2665
-1.0266 a}oe n}nn -0.2665
-1.0305 a}oe r}rr -0.2665
-1.0336 a}oe s}ss -0.2665
-1.0568 a}oe w}ww -0.2665
-0.6714 a}oo c}_ -0.8686
-0.6569 a}oo l}ll -0.2665
-0.3213 a}tt c|h}ch -0.2665
-0.8517 a}tt t}oe -0.2665
-0.3660 b|u}bb i}ii -0.7436
-1.4297 b}_ </s> 0.0000
-0.2737 b}_ b}bb -0.8073
-1.4912 b}_ s|(}_ -0.2665
-0.9813 b}_ s}_ -0.5675
-0.9849 b}_ v}vv -1.0447
-2.0762 b}bb (}_ -0.7436
-2.7194 b}bb (}ei -0.5675
-2.8536 b}bb -}_ -0.2665
-3.2461 b}bb .}ei -0.2665
-3.2274 b}bb 1}ei|un -0.2665
-1.5878 b}bb </s> 0.0000
-3.0625 b}bb _}aa -0.2665
-3.1600 b}bb _}ai -0.4883
-3.1446 b}bb _}ee -0.2665
-3.2184 b}bb _}ei|ss -0.2665
-2.2100 b}bb _}ii -0.3756
-1.9308 b}bb a|i}ai -1.1737
-2.3359 b}bb a|i}ei -0.6644
-2.4800 b}bb a|l}oo -1.1696
-2.4593 b}bb a|m}an -1.3079
-1.4831 b}bb a|n}an -1.2984
-1.7383 b}bb a|u}au -0.9489
-2.4486 b}bb a|u}oo -1.0262
-2.4625 b}bb a|y}ai -0.5675
-2.6637 b}bb a|y}ei -0.2665
-2.0550 b}bb a}_ -1.1696
-1.2736 b}bb a}aa -1.8129
-2.6514 b}bb a}ai -0.6345
-3.1679 b}bb a}ai|yy -0.2665
-2.4883 b}bb a}au -0.7436
-3.1372 b}bb a}ei -0.2665
-2.5465 b}bb b}bb -0.7436
-2.7251 b}bb b}oe -0.5675
-2.8897 b}bb c|h}ch -0.2665
-2.5600 b}bb c}kk -0.4426
-2.5699 b}bb c}ss -0.4426
-2.1534 b}bb d}dd -1.0926
-1.8417 b}bb e|(}_ -1.5528
-3.1016 b}bb e|a}ii -0.3457
-3.0816 b}bb e|i}ai -0.6644
-3.0382 b}bb e|n}_ -0.4426
-2.2946 b}bb e|n}an -0.6925
-3.0882 b}bb e|n}ee -0.2665
-3.0816 b}bb e|n}in -0.5675
-1.8440 b}bb e|r}ei -1.3457
-1.7701 b}bb e|s}_ -1.8686
-2.2999 b}bb e|u}eu -0.4426
-2.0483 b}bb e|u}oe -0.6345
-2.2135 b}bb e|y}ei -0.7436
-3.1523 b}bb e|z}ai -0.2665
-3.0209 b}bb e|z}ei -0.2665
-1.6195 b}bb e}_ -1.4568
-2.6587 b}bb e}aa -0.7436
-1.2451 b}bb e}ai -1.6904
-1.6272 b}bb e}ee -1.1763
-1.5986 b}bb e}ei -0.9128
-3.1841 b}bb e}ei|eu -0.2665
-3.1298 b}bb e}ii -0.3914
-3.0382 b}bb e}oe -0.2665
-2.5720 b}bb g}gg -0.2665
-2.2748 b}bb h}_ -0.5297
-1.7733 b}bb i|n}in -0.9777
-3.2367 b}bb i|z}ii -0.2665
-1.3702 b}bb i}ii -1.7167
-3.1759 b}bb i}oe -0.2665
-1.5978 b}bb i}yy -1.4873
-2.2872 b}bb j}jj -1.1785
-2.5408 b}bb k}kk -0.6644
-1.4113 b}bb l}ll -2.1066
-2.3634 b}bb m}mm -0.9033
-2.2267 b}bb n}nn -0.4628
-3.1759 b}bb o|i}ww -0.2665
-2.4625 b}bb o|m}on -1.4706
-1.7362 b}bb o|n}on -1.0582
-2.6789 b}bb o|o}ou -0.6644
-1.4670 b}bb o|u}ou -1.5604
-2.3198 b}bb o|u}ww -0.5218
-3.2009 b}bb o|w}oo -0.2665
-1.8107 b}bb o}_ -1.3319
-1.5786 b}bb o}au -0.9600
-3.1298 b}bb o}oe -0.2665
-1.3471 b}bb o}oo -1.6201
-2.6815 b}bb o}ww|aa -1.1696
-1.3569 b}bb r}rr -1.7714
-2.3904 b}bb s|(}_ -0.5675
-2.5171 b}bb s}_ -1.0069
-1.9597 b}bb s}ss -1.4287
-2.8733 b}bb s}zz -1.5887
-2.8733 b}bb t}_ -0.2665
-2.2133 b}bb t}tt -0.9989
-2.4625 b}bb u|n}un -0.4426
-2.7222 b}bb u}ii -0.8686
-2.2135 b}bb u}oe -0.9197
-3.1085 b}bb u}oo -0.7436
-1.9914 b}bb u}ou -0.7436
-1.4332 b}bb u}uu -1.4162
-2.4547 b}bb u}uy -0.9033
-3.1924 b}bb u}yy|ou -0.2665
-2.8613 b}bb v}vv -1.2044
-3.0382 b}bb w}vv -0.2665
-2.6255 b}bb w}ww -0.4883
-3.2461 b}bb y}_ -0.2665
-1.6263 b}bb y}ii -1.0970
-3.2461 b}bb y}oe -0.2665
-2.1139 b}bb y}yy -0.5939
-2.8982 b}bb z}zz -0.2665
-2.3198 b}bb â}aa -1.1538
-1.8470 b}bb è}ai -0.9457
-1.9871 b}bb é}ai -1.4057
-1.6030 b}bb é}ei -1.1116
-2.3221 b}bb ê}ai -1.2807
-2.7110 b}bb ê}ei -0.5675
-3.1523 b}bb î}ii -1.4126
-3.1155 b}bb ô}au -0.5675
-3.1600 b}bb ö}eu -0.2665
-2.6893 b}bb û}uu -1.3804
-2.6867 b}bb ü}uu -0.5675
-2.1914 b}bb|ei 2}dd|eu -0.2665
-0.6960 b}bb|ei </s> 0.0000
-2.1874 b}bb|ei _}ei -0.2665
-2.1589 b}bb|ei _}ii -0.2665
-1.4158 b}bb|ei a}aa -0.4426
-1.1891 b}bb|ei b}bb|ei -0.7436
-2.0863 b}bb|ei c}kk -0.2665
-2.0941 b}bb|ei c}ss -0.2665
-1.1002 b}bb|ei c}ss|ei -0.6644
-1.6702 b}bb|ei d}dd|ei -0.2665
-1.4447 b}bb|ei f}ai|ff -0.3914
-1.4468 b}bb|ei g}jj|ei -0.7436
-2.1855 b}bb|ei h}aa|ch -0.2665
-1.6260 b}bb|ei i}ii -0.2665
-2.1152 b}bb|ei j}jj -0.2665
-1.6726 b}bb|ei l}ai|ll -0.2665
-1.6696 b}bb|ei m}ai|mm -0.3457
-1.6738 b}bb|ei n}ai|nn -0.3634
-1.4266 b}bb|ei o}oo -0.7436
-1.6684 b}bb|ei p}pp|ei -0.3914
-1.6690 b}bb|ei r}ai|rr -0.3634
-1.0274 b}bb|ei s}ai|ss -0.6187
-1.6702 b}bb|ei t}tt|ei -0.2665
-1.6750 b}bb|ei v}vv|ei -0.2665
-0.3701 b}mm e|(}_ -0.2665
-0.3653 b}oe l}ll -0.5675
-1.1927 b}pp k}kk -0.2665
-0.4551 b}pp s}ss -0.7894
-1.1986 b}pp s}zz -0.2665
-0.6791 b}pp t}tt -0.8106
-1.8289 c|h}ch (}_ -0.5675
-2.8071 c|h}ch -}_ -0.2665
-1.3753 c|h}ch </s> 0.0000
-1.6649 c|h}ch a|i}ai -1.2999
-1.8560 c|h}ch a|m}an -1.5565
-1.3769 c|h}ch a|n}an -1.7201
-1.7468 c|h}ch a|u}au -1.0447
-2.0712 c|h}ch a|u}oo -1.5070
-2.0831 c|h}ch a|î}ai -1.8463
-2.3193 c|h}ch a}_ -0.9655
-1.2147 c|h}ch a}aa -1.5242
-2.3193 c|h}ch a}ai -0.9655
-3.0497 c|h}ch a}ai|yy -0.2665
-1.5656 c|h}ch e|(}_ -1.8288
-2.9872 c|h}ch e|i}ai -1.0447
-2.5299 c|h}ch e|n}_ -0.9197
-2.8841 c|h}ch e|n}an -0.2665
-2.5436 c|h}ch e|n}ee -0.7436
-1.5114 c|h}ch e|r}ei -1.6187
-1.5663 c|h}ch e|s}_ -1.8845
-2.9776 c|h}ch e|u}ee -0.5675
-1.8496 c|h}ch e|u}eu -1.2044
-1.8499 c|h}ch e|u}oe -1.4126
-2.9776 c|h}ch e|y}ei -0.2665
-1.8527 c|h}ch e|z}ei -1.3079
-1.3551 c|h}ch e}_ -1.6435
-1.3377 c|h}ch e}ai -1.3627
-1.3411 c|h}ch e}ee -1.7475
-1.4359 c|h}ch e}ei -1.1224
-2.5542 c|h}ch e}ii -0.4426
-2.2833 c|h}ch h}_ -0.2665
-2.9970 c|h}ch i|m}in -0.7436
-2.1692 c|h}ch i|n}in -0.6187
-1.2424 c|h}ch i}ii -1.5354
-1.9619 c|h}ch i}yy -0.8501
-2.8581 c|h}ch j}jj -0.2665
-1.9619 c|h}ch k}kk -0.7058
-2.1197 c|h}ch l}ll -0.4883
-1.9569 c|h}ch m}mm -0.7058
-1.8242 c|h}ch n}nn -0.7638
-2.5436 c|h}ch o|m}on -0.2665
-1.7025 c|h}ch o|n}on -1.1473
-3.0071 c|h}ch o|o}ou -0.5675
-1.6644 c|h}ch o|u}ou -0.6240
-2.3256 c|h}ch o|u}ww -0.7436
-1.8517 c|h}ch o}_ -2.0518
-1.6262 c|h}ch o}au -0.8001
-3.0226 c|h}ch o}oe -0.5675
-1.5911 c|h}ch o}oo -0.8805
-3.0122 c|h}ch o}ww|aa -0.7436
-2.7883 c|h}ch p}pp -0.2665
-2.0291 c|h}ch r}rr -0.6089
-2.4640 c|h}ch s|(}_ -0.7436
-2.0350 c|h}ch s}_ -0.5675
-2.8234 c|h}ch t}_ -0.2665
-2.0160 c|h}ch t}tt -0.7188
-3.1033 c|h}ch u}ai -0.2665
-2.3246 c|h}ch u}oe -0.3914
-2.5198 c|h}ch u}ou -0.5353
-1.6269 c|h}ch u}uu -1.1019
-2.5350 c|h}ch u}uy -0.5675
-2.9545 c|h}ch w}vv -0.6644
-2.3080 c|h}ch w}ww -0.4883
-1.8436 c|h}ch y}ii -0.7137
-2.1827 c|h}ch â}aa -1.3272
-3.0727 c|h}ch ä}aa -0.2665
-1.9102 c|h}ch è}ai -1.2539
-3.0970 c|h}ch é}_ -0.5675
-1.9093 c|h}ch é}ai -1.0958
-1.4172 c|h}ch é}ei -1.4832
-2.5436 c|h}ch ê}ai -1.1696
-3.0122 c|h}ch ô}au -0.2665
-3.0497 c|h}ch ô}oo -1.1696
-3.0226 c|h}ch ü}uu -0.2665
-0.3637 c|h}rr t}tt -0.5675
-1.6658 c}_ (}_ -0.8686
-2.1554 c}_ -}_ -0.3914
-0.9128 c}_ </s> 0.0000
-0.9762 c}_ c}kk -1.8213
-2.1573 c}_ c}ss -0.2665
-1.1166 c}_ c}tt|ch -1.3457
-1.6772 c}_ h}_ -0.6644
-0.5186 c}_ k}kk -1.2241
-1.2010 c}_ q|u}kk -1.0849
-1.1981 c}_ s|(}_ -0.9033
-1.1956 c}_ s}_ -1.1959
-1.4549 c}_ t}_ -1.1873
-1.6569 c}_ t}tt -0.6925
-0.5126 c}ch e}ai -0.4426
-1.2457 c}ch e}ei -0.2665
-0.7486 c}ch i}_ -0.4426
-1.2350 c}ch i}ii -1.0069
-1.2441 c}ch i}yy -0.2665
-0.9432 c}gg (}_ -0.2665
-0.9579 c}gg o|n}on -1.0681
-0.9759 c}gg u|n}on -0.2665
-0.9576 c}gg z}zz -0.2665
-1.6965 c}kk (}_ -1.3079
-1.9725 c}kk -}_ -0.4426
-3.1099 c}kk 4}aa|rr -0.2665
-3.0965 c}kk 4}kk|aa -0.2665
-1.4631 c}kk </s> 0.0000
-2.4883 c}kk _}_ -0.2665
-2.9706 c}kk _}aa -0.2665
-3.0347 c}kk _}ee -0.2665
-1.7096 c}kk a|i}ai -1.5187
-3.0523 c}kk a|l}oo -0.2665
-1.9239 c}kk a|m}an -1.5120
-1.6012 c}kk a|n}an -1.5621
-1.6718 c}kk a|u}au -0.9529
-2.5312 c}kk a|u}oo -1.0990
-2.5478 c}kk a|y}ai -0.2665
-1.9212 c}kk a}_ -1.6815
-1.1379 c}kk a}aa -2.0322
-2.3240 c}kk a}ai -0.4426
-3.0834 c}kk a}au -0.2665
-2.4522 c}kk b}bb -0.2665
-2.2793 c}kk c}kk -0.3914
-2.2844 c}kk c}ss -1.6999
-2.4245 c}kk d}dd -1.0447
-2.4418 c}kk e}ai -0.2665
-2.7680 c}kk e}ei -0.2665
-2.9512 c}kk e}oe -0.2665
-2.1583 c}kk f}ff -0.2665
-2.9418 c}kk g|u}gg -0.5675
-2.4722 c}kk g}gg -0.2665
-2.8653 c}kk g}jj -0.2665
-1.3293 c}kk h}_ -1.5619
-2.6911 c}kk i}ii -0.2665
-2.5870 c}kk k|-}aa -0.5675
-2.4477 c}kk k}kk -0.5675
-1.2622 c}kk l}ll -1.7513
-1.9607 c}kk m}mm -0.4426
-2.2370 c}kk n}nn -0.5975
-3.0584 c}kk o|i}ww -0.2665
-1.5228 c}kk o|m}on -2.2908
-1.4239 c}kk o|n}on -2.4090
-2.5535 c}kk o|o}ou -0.7436
-1.3843 c}kk o|u}ou -1.7330
-2.5441 c}kk o|u}ww -0.5675
-3.0770 c}kk o|w}oo -0.7436
-2.5769 c}kk o|û}ou -1.4426
-1.6753 c}kk o}_ -1.3209
-1.2967 c}kk o}au -1.3079
-3.0234 c}kk o}oe -0.2665
-1.1513 c}kk o}oo -1.9729
-2.0008 c}kk o}ww -1.6089
-3.0123 c}kk o}ww|aa -0.2665
-2.7774 c}kk p}pp -0.5675
-2.8893 c}kk q|u}kk -0.2665
-2.5850 c}kk q}_ -0.7436
-1.9971 c}kk q}kk -1.2207
-1.2776 c}kk r}rr -1.8301
-1.8442 c}kk s|(}_ -1.1803
-1.8358 c}kk s}_ -1.8793
-1.8347 c}kk s}ss -0.5261
-2.2875 c}kk t}_ -0.9655
-1.8089 c}kk t}ss -2.8803
-1.6181 c}kk t}tt -1.9706
-3.1099 c}kk u|e}eu -1.1696
-3.0707 c}kk u|m}un -0.2665
-2.3331 c}kk u|n}un -0.3457
-2.3470 c}kk u}ee -1.7058
-1.9235 c}kk u}oe -1.1416
-2.3174 c}kk u}ou -0.4883
-1.3644 c}kk u}uu -1.8432
-1.8613 c}kk u}uy -1.7625
-2.5749 c}kk u}yy|ou -0.8686
-2.8036 c}kk v}vv -0.2665
-2.0872 c}kk z}ss -0.5675
-2.8352 c}kk z}zz -0.2665
-2.9807 c}kk â}aa -1.0904
-3.1099 c}kk æ}ss|ei -0.2665
-2.8976 c}kk è}ai -0.2665
-1.8107 c}kk ô}au -1.4498
-2.5689 c}kk ô}oo -1.5218
-2.5870 c}kk ú}ou -0.5675
-0.3748 c}kk|on _}pp|aa -0.2665
-2.8465 c}ss '}_ -0.7436
-2.3744 c}ss (}ii -0.5675
-2.7345 c}ss -}_ -0.2665
-2.8745 c}ss _}ai -0.2665
-2.9014 c}ss _}ai|tt -0.2665
-2.8984 c}ss _}an|tt -0.8686
-2.3547 c}ss _}ii -0.2665
-2.8659 c}ss a}ei -0.2665
-1.2191 c}ss e|(}_ -2.1773
-2.8547 c}ss e|m}an -0.5675
-1.2641 c}ss e|n}an -1.9917
-1.7151 c}ss e|r}ei -1.4203
-1.3133 c}ss e|s}_ -2.3737
-2.3582 c}ss e|u}ee -0.8686
-1.9830 c}ss e|u}eu -0.7436
-1.8754 c}ss e|u}oe -1.1116
-2.1357 c}ss e|y}ei -0.3634
-2.1315 c}ss e|z}ei -0.9655
-1.0750 c}ss e}_ -2.0425
-2.1347 c}ss e}aa -0.8106
-1.0752 c}ss e}ai -1.7952
-1.1421 c}ss e}ee -1.8766
-1.3381 c}ss e}ei -0.9694
-1.5575 c}ss e}ei|eu -0.5939
-2.3538 c}ss e}oe -0.5675
-1.6010 c}ss i|n}in -1.0599
-0.9920 c}ss i}ii -1.9403
-1.1234 c}ss i}yy -1.8902
-2.8893 c}ss y|m}in -0.8686
-2.8893 c}ss y|n}in -0.2665
-1.4684 c}ss y}ii -1.4840
-2.7857 c}ss y}yy -0.5675
-1.4009 c}ss è}ai -1.3497
-1.3410 c}ss é}ai -1.6523
-1.2874 c}ss é}ei -1.4501
-2.3608 c}ss ê}ai -1.1116
-1.4992 c}ss|ei (}_ -0.9655
-2.0141 c}ss|ei 1}dd -0.2665
-2.5391 c}ss|ei 1}ss|an -0.2665
-2.5158 c}ss|ei 2}dd|eu -0.2665
-0.8486 c}ss|ei </s> 0.0000
-2.5102 c}ss|ei _}ei -0.2665
-2.4911 c}ss|ei _}tt -0.2665
-1.4962 c}ss|ei a}aa -0.5675
-1.5215 c}ss|ei b}bb|ei -0.4426
-2.3830 c}ss|ei c}ss -0.2665
-1.3600 c}ss|ei c}ss|ei -0.5095
-2.3229 c}ss|ei d}dd -0.2665
-1.2438 c}ss|ei d}dd|ei -0.4821
-1.9949 c}ss|ei e}oe -0.4883
-1.4325 c}ss|ei f}ai|ff -0.5328
-2.4199 c}ss|ei g}jj -0.5675
-1.2989 c}ss|ei g}jj|ei -0.5218
-2.0079 c}ss|ei h}aa|ch -0.3914
-1.1426 c}ss|ei i}ii -0.6547
-2.3529 c}ss|ei i}yy -0.2665
-1.9750 c}ss|ei j}jj -0.5675
-2.5302 c}ss|ei j}jj|yy -0.2665
-1.9528 c}ss|ei k}kk -0.5675
-1.6308 c}ss|ei l}ai|ll -0.3914
-1.2980 c}ss|ei m}ai|mm -0.4774
-1.6315 c}ss|ei n}ai|nn -0.4736
-1.9536 c}ss|ei o}oo -0.2665
-2.3667 c}ss|ei p}pp -0.2665
-1.1122 c}ss|ei p}pp|ei -0.6089
-2.5361 c}ss|ei q}kk|uu -0.2665
-1.2979 c}ss|ei r}ai|rr -0.5353
-1.7745 c}ss|ei s}ai|ss -0.4706
-1.6293 c}ss|ei t}tt|ei -0.6644
-2.3872 c}ss|ei u}uu -0.2665
-1.5224 c}ss|ei v}vv|ei -0.4426
-1.4364 c}tt|ch e}aa -0.2665
-0.6849 c}tt|ch e}ai -0.4426
-1.4036 c}tt|ch e}ei -0.2665
-1.4451 c}tt|ch i}_ -0.5675
-0.9054 c}tt|ch i}ii -0.8016
-0.9099 c}tt|ch i}yy -0.2665
-1.4534 c}tt|ch z}ai|ch -0.8686
-1.4534 c}tt|ch z}ei|ch -0.8686
-2.3083 d}_ '}_ -0.5675
-1.0881 d}_ (}_ -1.4426
-2.3331 d}_ (}nn -0.2665
-1.3118 d}_ -}_ -0.8347
-1.8146 d}_ -}tt -0.5675
-0.5737 d}_ </s> 0.0000
-1.5680 d}_ _}_ -1.0198
-1.8055 d}_ _}tt -0.3914
-2.1825 d}_ a}aa -0.4426
-1.0347 d}_ d}dd -1.1218
-2.2774 d}_ e|u}eu -0.2665
-1.7725 d}_ e}_ -0.4426
-2.2584 d}_ e}ee -0.2665
-2.2429 d}_ h}_ -1.1959
-1.7651 d}_ i}ii -0.3914
-0.9889 d}_ s|(}_ -1.5928
-0.8688 d}_ s}_ -2.0518
-2.2457 d}_ t}_ -0.2665
-1.4072 d}_ t}tt -1.0447
-2.2527 d}_ y}ii -0.5675
-2.0769 d}dd '}_ -1.3429
-1.7718 d}dd (}_ -1.0860
-2.5224 d}dd -}_ -0.6467
-1.5252 d}dd </s> 0.0000
-2.7195 d}dd _}_ -0.2665
-2.5865 d}dd _}aa -0.3914
-2.8280 d}dd _}ai -0.2665
-3.3777 d}dd _}au|kk -0.2665
-2.8224 d}dd _}ee -0.2665
-3.1688 d}dd _}ii -0.2665
-1.9360 d}dd a|i}ai -1.6495
-3.3047 d}dd a|i}ei -0.7436
-3.2964 d}dd a|l}oo -0.2665
-2.8570 d}dd a|m}aa -1.7980
-2.7956 d}dd a|m}an -0.4426
-1.6903 d}dd a|n}an -1.7739
-2.2416 d}dd a|u}au -0.5675
-2.7778 d}dd a|u}oo -0.8686
-3.3396 d}dd a|w}au -0.2665
-2.8009 d}dd a|y}ai -0.2665
-2.1894 d}dd a|y}ei -0.7894
-2.2563 d}dd a}_ -0.9197
-1.3842 d}dd a}aa -1.5124
-3.1627 d}dd a}ai -0.4426
-3.2646 d}dd a}ei -0.2665
-2.1560 d}dd b}bb -0.5675
-2.4103 d}dd c|h}ch -0.5675
-2.2259 d}dd c}kk -0.4426
-2.1869 d}dd d}_ -0.9197
-2.8730 d}dd d}dd -0.2665
-3.3777 d}dd d}oe -0.5675
-1.6333 d}dd e|(}_ -1.9730
-3.2279 d}dd e|a}ii -0.4883
-2.7982 d}dd e|i}ai -0.2665
-3.2350 d}dd e|m}an -0.8686
-2.7803 d}dd e|n}_ -0.5675
-2.0182 d}dd e|n}an -1.8832
-2.8009 d}dd e|n}ee -0.5675
-3.2073 d}dd e|n}in -0.5675
-1.7362 d}dd e|r}ei -1.6730
-1.7134 d}dd e|s}_ -2.0542
-2.7930 d}dd e|u}ee -0.6644
-2.1193 d}dd e|u}eu -1.2577
-1.7871 d}dd e|u}oe -1.4706
-3.1940 d}dd e|y}ei -0.2665
-2.8252 d}dd e|z}ai -0.4426
-2.3373 d}dd e|z}ei -1.3079
-1.4530 d}dd e}_ -1.8949
-2.2586 d}dd e}aa -0.9935
-1.4655 d}dd e}ai -1.5901
-1.4336 d}dd e}ee -1.8686
-1.5785 d}dd e}ei -1.3284
-2.6148 d}dd e}ei|eu -0.7436
-2.5914 d}dd e}eu -0.3914
-3.2570 d}dd e}ii -0.5675
-2.4437 d}dd e}oe -0.8106
-2.2329 d}dd f}ff -0.5675
-2.4039 d}dd g}gg -0.4426
-2.2416 d}dd g}jj -0.9844
-1.8349 d}dd h}_ -0.8106
-3.2209 d}dd i|m}in -0.2665
-1.9400 d}dd i|n}in -1.1830
-1.3276 d}dd i}ii -2.0297
-1.5325 d}dd i}yy -1.7812
-1.7838 d}dd j}jj -1.1487
-2.5047 d}dd k}kk -0.2665
-2.0820 d}dd l}ll -0.6856
-1.9586 d}dd m}mm -1.4057
-1.9893 d}dd n}nn -0.6979
-3.3047 d}dd o|i}ww -0.8686
-2.5930 d}dd o|m}on -0.9033
-1.7347 d}dd o|n}on -1.2480
-3.2350 d}dd o|o}ou -0.2665
-1.5221 d}dd o|u}ou -1.2679
-2.1901 d}dd o|u}ww -1.1318
-3.3489 d}dd o|w}au -0.2665
-1.9807 d}dd o}_ -1.1011
-1.5492 d}dd o}au -1.1524
-3.2570 d}dd o}oe -0.2665
-1.4661 d}dd o}oo -1.6839
-3.2723 d}dd o}ww -0.2665
-2.4578 d}dd o}ww|aa -1.0447
-3.3396 d}dd r|z}rr -0.2665
-1.5151 d}dd r}rr -1.6850
-2.1031 d}dd s|(}_ -0.7671
-2.0911 d}dd s}_ -1.0794
-1.8551 d}dd s}ss -0.5853
-2.0565 d}dd s}zz -1.3079
-2.3101 d}dd t}_ -1.3457
-2.7809 d}dd t}tt -0.2665
-3.3218 d}dd u|m}un -0.2665
-2.4530 d}dd u|n}un -0.6345
-3.3047 d}dd u}ee -0.2665
-3.1940 d}dd u}oe -0.2665
-2.8088 d}dd u}oo -1.0447
-2.4368 d}dd u}ou -0.3914
-1.5806 d}dd u}uu -1.5939
-1.9454 d}dd u}uy -2.0589
-3.3218 d}dd u}yy|ou -0.2665
-2.4028 d}dd v}vv -0.7894
-2.4437 d}dd w}vv -0.8308
-2.1198 d}dd w}ww -0.6187
-1.7342 d}dd y}ii -1.2665
-3.3679 d}dd y}uu -0.2665
-2.5555 d}dd y}yy -0.4426
-3.3582 d}dd z|(}ei -0.2665
-2.1687 d}dd z}zz -0.5006
-3.2006 d}dd â}aa -0.5675
-1.8418 d}dd è}ai -1.1238
-1.8715 d}dd é}ai -2.3084
-1.5981 d}dd é}ei -1.6564
-2.8252 d}dd î}ii -0.8949
-3.2882 d}dd ï}ii -0.2665
-2.8115 d}dd ô}au -1.1696
-3.2964 d}dd ô}oo -0.8686
-2.6046 d}dd û}uu -0.5297
-3.2570 d}dd ü}uu -0.2665
-2.2680 d}dd|ei (}_ -0.2665
-0.8894 d}dd|ei </s> 0.0000
-2.4535 d}dd|ei _}kk|aa -0.2665
-1.4217 d}dd|ei a}aa -0.6345
-2.3061 d}dd|ei b}bb -0.2665
-1.7002 d}dd|ei b}bb|ei -0.4426
-1.2189 d}dd|ei c}ss|ei -0.5675
-2.2744 d}dd|ei d}dd -0.2665
-1.3542 d}dd|ei d}dd|ei -0.5675
-1.9194 d}dd|ei e}oe -0.3914
-1.1161 d}dd|ei f}ai|ff -0.8949
-1.9244 d}dd|ei g}jj|ei -0.4214
-1.2835 d}dd|ei h}aa|ch -0.7436
-1.2689 d}dd|ei i}ii -0.5675
-2.3010 d}dd|ei i}yy -0.2665
-1.6866 d}dd|ei j}jj -0.4426
-2.4535 d}dd|ei j}jj|yy -0.2665
-1.8839 d}dd|ei k}kk -0.5675
-1.4426 d}dd|ei l}ai|ll -0.5675
-1.5509 d}dd|ei m}ai|mm -0.5095
-1.5530 d}dd|ei n}ai|nn -0.5675
-1.2810 d}dd|ei p}pp|ei -0.8308
-1.3538 d}dd|ei r}ai|rr -0.5675
-1.0726 d}dd|ei s}ai|ss -0.5261
-1.5512 d}dd|ei t}tt|ei -0.4883
-2.3880 d}dd|ei u}ou -0.2665
-1.6821 d}dd|ei u}uu -0.3914
-2.4252 d}dd|ei v}vv|ei -0.2665
-2.4438 d}dd|ei w}dd|ou -0.2665
-0.0672 d}nn e|(}_ -0.7436
-0.3653 d}oe l}ll -0.2665
-0.3362 d}tt (}_ -1.5602
-1.5010 d}tt c|h}ch -0.2665
-1.5003 d}tt f}ff -0.2665
-0.4973 d}tt s}ss -0.6644
-0.7334 e|(}_ 2|)}_ -2.6713
-0.6619 e|(}_ 2|)}ee -4.2151
-0.7744 e|(}_ 3|)}_ -2.7259
-1.8728 e|(}_ 3|)}zz -1.0794
-1.5230 e|(}_ 4|)}_ -1.5218
-0.8524 e|(}_ 4|)}ee -2.6301
-2.6274 e|(}_ 4|)}zz -0.2665
-1.1297 e|(}_ 5|)}_ -1.6467
-2.6284 e|(}_ 6|)}_ -0.2665
-1.1634 e|(}_ 6|)}ee -1.6282
-1.3321 e|(}_ 7|)}_ -1.4126
-1.8728 e|(}_ 9|)}_ -0.7436
-1.8652 e|a}ii </s> 0.0000
-1.5713 e|a}ii c}kk -0.2665
-2.0381 e|a}ii c}ss -0.2665
-1.0960 e|a}ii d}dd -0.6467
-1.2093 e|a}ii g}gg -0.3914
-2.1277 e|a}ii g}gg|oe -0.2665
-2.0394 e|a}ii h}_ -0.2665
-1.5670 e|a}ii k}kk -0.2665
-1.0939 e|a}ii l}ll -0.4126
-1.5623 e|a}ii m}mm -0.6644
-0.7738 e|a}ii n}nn -0.5675
-0.8761 e|a}ii r}rr -0.7188
-2.0006 e|a}ii s}ss -0.8686
-1.3549 e|a}ii s}zz -0.3634
-1.3674 e|a}ii t|h}ff -0.3914
-2.0419 e|a}ii t}_ -0.2665
-1.0062 e|a}ii t}tt -0.4883
-2.0381 e|a}ii v}vv -0.2665
-0.6370 e|f}ei </s> 0.0000
-0.6638 e|f}ei s|(}_ -0.2665
-1.2460 e|i}ai </s> 0.0000
-2.1014 e|i}ai c|h}ch -0.2665
-2.0817 e|i}ai c}kk -0.2665
-1.4195 e|i}ai d}dd -0.3634
-2.1185 e|i}ai e|r}ei -0.2665
-1.6739 e|i}ai f|f}ff -0.5675
-1.1025 e|i}ai g|n}gn -0.9762
-1.4435 e|i}ai g}_ -0.4883
-2.0915 e|i}ai g}gg -0.2665
-1.4366 e|i}ai g}jj -0.8016
-2.0660 e|i}ai k}kk -0.4426
-2.2051 e|i}ai l|l}_ -0.5675
-2.1664 e|i}ai l|l}ll -1.1696
-1.4143 e|i}ai l}ll -0.2665
-2.0493 e|i}ai m}mm -0.4426
-2.2073 e|i}ai n|t}_ -0.2665
-0.8537 e|i}ai n}nn -0.9529
-0.8546 e|i}ai r}rr -0.6644
-2.1645 e|i}ai s|h}ch -0.2665
-1.6293 e|i}ai s}_ -0.5675
-1.4195 e|i}ai s}ss -0.4426
-2.0947 e|i}ai s}zz -0.2665
-1.6094 e|i}ai t}tt -0.2665
-1.4454 e|i}ai x}kk|ss -0.8686
-1.2896 e|i}ai z}zz -0.9100
-0.4454 e|m}an b}bb -1.6304
-1.8364 e|m}an c}ss -0.2665
-1.8204 e|m}an m}mm -1.0589
-1.3468 e|m}an p|h}ff -0.6644
-1.3486 e|m}an p}_ -1.1238
-0.4455 e|m}an p}pp -1.5769
-1.7979 e|m}an t}tt -0.2665
-1.8364 e|m}an v}vv -0.2665
-0.6626 e|m}in b}bb -0.2665
-0.6633 e|m}in p}pp -0.7436
-0.3260 e|n}_ t}_ -2.7294
-0.3096 e|n}_ t}tt -2.7085
-2.1228 e|n}_ w}oe|vv -0.2665
-0.6594 e|n}aa s}ss -0.2665
-0.6539 e|n}aa t}tt -0.2665
-0.8274 e|n}ai d}dd -0.2665
-0.8194 e|n}ai t}tt -1.1696
-0.8445 e|n}ai w}vv -0.2665
-2.1121 e|n}an (}_ -0.2665
-2.1954 e|n}an (}nn -0.2665
-1.9325 e|n}an -}_ -0.6815
-1.7337 e|n}an </s> 0.0000
-1.9394 e|n}an _}_ -1.2147
-1.9614 e|n}an _}nn -0.7638
-2.5267 e|n}an b}bb -0.2665
-1.4191 e|n}an c|h}ch -1.0559
-2.6506 e|n}an c}_ -0.2665
-1.4171 e|n}an c}kk -1.5719
-1.0395 e|n}an c}ss -1.9191
-1.5404 e|n}an d}_ -1.3887
-1.1573 e|n}an d}dd -1.7035
-1.6166 e|n}an d}tt -1.6979
-1.7957 e|n}an f}ff -1.3748
-2.1719 e|n}an g|u}gg -0.4426
-2.6397 e|n}an g}_ -0.2665
-1.6036 e|n}an g}gg -1.3677
-1.6076 e|n}an g}jj -0.9143
-2.5545 e|n}an h}_ -0.5675
-2.5819 e|n}an j}jj -0.9293
-1.9099 e|n}an l}ll -1.1473
-2.4561 e|n}an n}nn -1.3968
-2.1342 e|n}an p}pp -0.2665
-2.1611 e|n}an q|u}kk -0.8364
-2.1821 e|n}an q}kk -0.2665
-1.7791 e|n}an r}rr -1.0649
-1.7919 e|n}an s|(}_ -0.5095
-1.7832 e|n}an s}_ -0.9197
-1.1305 e|n}an s}ss -1.5978
-2.5590 e|n}an s}zz -0.2665
-0.9808 e|n}an t}_ -2.7167
-1.4251 e|n}an t}ss -2.2877
-0.8793 e|n}an t}tt -2.2210
-1.6033 e|n}an v}vv -1.6089
-2.7257 e|n}an z|(}_ -0.2665
-1.7972 e|n}an z}zz -0.6187
-1.8138 e|n}an ç}ss -0.7716
-0.0119 e|n}ee t}tt -1.8463
-0.9928 e|n}in (}_ -1.4840
-1.4268 e|n}in (}nn -0.5675
-2.0741 e|n}in -}_ -0.4883
-2.1859 e|n}in -}nn -0.5675
-0.8192 e|n}in </s> 0.0000
-1.6299 e|n}in _}_ -0.7188
-2.1600 e|n}in _}nn -0.2665
-2.0697 e|n}in c}kk -0.4426
-0.9320 e|n}in d}dd -1.5711
-2.0845 e|n}in f}ff -0.8686
-2.0785 e|n}in g}gg -0.7436
-2.1030 e|n}in g}jj -0.2665
-2.1859 e|n}in h}nn -0.5675
-2.0967 e|n}in j}jj -0.7436
-2.1125 e|n}in q|u}kk -0.5675
-1.0683 e|n}in s|(}_ -1.6133
-1.0650 e|n}in s}_ -2.2373
-1.0646 e|n}in s}ss -0.9655
-2.0815 e|n}in t}_ -1.3457
-1.3875 e|n}in t}tt -0.9507
-1.6242 e|n}in v}vv -0.9935
-2.0906 e|n}in z}zz -0.2665
-0.3208 e|r}ai -}_ -0.2665
-0.8325 e|r}ai n}nn -0.5675
-0.6597 e|r}ei (}_ -1.5376
-1.9161 e|r}ei -}_ -0.2665
-0.4240 e|r}ei </s> 0.0000
-1.6920 e|r}ei _}_ -0.4883
-0.9861 e|r}ei r}rr -0.8686
-2.4570 e|r}ei r}ww -0.2665
-1.0232 e|r}ei s|(}_ -1.7353
-0.8657 e|r}ei s}_ -2.6320
-0.3668 e|r}ii s}_ -0.2665
-1.5065 e|s}_ (|1}_ -0.4426
-1.2420 e|s}_ -}_ -0.6519
-0.2147 e|s}_ </s> 0.0000
-1.2429 e|s}_ _}_ -0.3245
-2.2278 e|s}_ c|h}ch -0.2665
-0.9634 e|s}_ s}_ -1.5675
-1.2401 e|s}_ s}ss -0.3756
-1.7132 e|s}_ t}tt -0.8686
-1.6095 e|u}ee -}_ -0.4426
-1.8667 e|u}ee </s> 0.0000
-2.0460 e|u}ee b}bb -1.1116
-2.0561 e|u}ee c}kk -0.2665
-2.0634 e|u}ee c}ss -1.1116
-1.3840 e|u}ee d}dd -0.8686
-2.0649 e|u}ee g}gg -1.3457
-2.0894 e|u}ee g}jj -0.5675
-1.6028 e|u}ee i}yy -1.6644
-1.3794 e|u}ee l}ll -0.6187
-2.0265 e|u}ee m}mm -0.8686
-1.9963 e|u}ee n}nn -0.7638
-2.1255 e|u}ee p|h}ff -0.9197
-2.0517 e|u}ee p}pp -1.5887
-2.1519 e|u}ee r|r}rr -0.2665
-0.7733 e|u}ee r}rr -1.1985
-2.0198 e|u}ee s}ss -0.5675
-0.7372 e|u}ee s}zz -1.4821
-0.8617 e|u}ee t}tt -1.1193
-1.1419 e|u}ee v}vv -0.9250
-1.4109 e|u}ee x}_ -1.2665
-2.0770 e|u}ee z}zz -0.2665
-1.7907 e|u}eu (}_ -0.8686
-1.0181 e|u}eu </s> 0.0000
-2.0255 e|u}eu _}_ -0.8985
-2.4500 e|u}eu c|h}ch -0.2665
-2.5275 e|u}eu c}_ -0.2665
-2.4249 e|u}eu c}kk -0.2665
-2.5224 e|u}eu d}_ -0.2665
-1.6561 e|u}eu d}dd -0.3334
-1.8150 e|u}eu e|s}_ -0.8686
-1.5549 e|u}eu e}_ -0.9197
-2.0018 e|u}eu e}ai -0.5675
-2.5737 e|u}eu e}yy -0.2665
-1.8100 e|u}eu f}ff -0.4426
-2.0462 e|u}eu g}_ -0.5675
-2.0174 e|u}eu g}gg -0.2665
-1.8160 e|u}eu g}jj -0.4706
-2.0174 e|u}eu h}_ -0.3914
-2.0049 e|u}eu i}yy -0.5675
-1.4654 e|u}eu l}ll -0.3756
-1.7950 e|u}eu m}mm -0.3634
-1.3953 e|u}eu n}nn -0.6519
-2.4070 e|u}eu o}oo -0.2665
-2.5250 e|u}eu p|h}ff -0.5675
-1.2371 e|u}eu r}rr -1.2085
-2.0127 e|u}eu s|(}_ -0.5675
-1.9950 e|u}eu s}_ -0.5675
-1.6561 e|u}eu s}ss -0.6925
-0.8169 e|u}eu s}zz -2.3765
-1.5618 e|u}eu t}_ -1.1116
-1.2338 e|u}eu t}tt -0.8247
-2.0166 e|u}eu v}vv -0.7137
-2.0471 e|u}eu w}vv -0.2665
-0.7561 e|u}eu x}_ -2.3375
-2.4521 e|u}eu y}ii -0.2665
-2.0239 e|u}eu z}zz -0.4883
-1.8381 e|u}oe b}bb -1.3457
-2.2618 e|u}oe d}dd -0.2665
-1.2148 e|u}oe f}ff -1.0447
-1.8443 e|u}oe g}gg -0.8106
-1.8520 e|u}oe g}jj -0.4426
-1.2943 e|u}oe i|l}yy -0.9197
-1.4781 e|u}oe i}yy -1.5675
-1.2804 e|u}oe l}ll -0.7436
-2.2398 e|u}oe n}nn -0.8686
-2.2916 e|u}oe p}pp -1.1116
-1.8704 e|u}oe r|r}rr -0.5675
-0.4542 e|u}oe r}rr -2.2183
-1.8306 e|u}oe s}_ -0.4426
-2.2618 e|u}oe s}ss -0.2665
-0.8672 e|u}oe s}zz -1.1416
-2.3066 e|u}oe t}_ -0.2665
-1.3627 e|u}oe t}tt -0.3914
-1.0983 e|u}oe v}vv -1.5070
-2.3823 e|u}oe x}_ -0.5675
-2.3150 e|u}oe z}zz -0.2665
-0.4748 e|y}ei </s> 0.0000
-2.0597 e|y}ei b}bb -0.2665
-2.0836 e|y}ei c|h}ch -0.5675
-1.5967 e|y}ei d}dd -0.4426
-2.0810 e|y}ei f}ff -0.2665
-1.6104 e|y}ei g}gg -0.2665
-2.0759 e|y}ei h}_ -0.2665
-1.2371 e|y}ei l}ll -0.6644
-1.2407 e|y}ei m}mm -0.5675
-2.0167 e|y}ei n}nn -0.2665
-0.8110 e|y}ei r}rr -0.6644
-1.3834 e|y}ei s}_ -0.4426
-2.0371 e|y}ei s}ss -0.2665
-1.1375 e|y}ei s}zz -0.5675
-2.0785 e|y}ei t}_ -0.2665
-2.0005 e|y}ei t}tt -0.2665
-2.1088 e|y}ei w}ww -0.2665
-1.6139 e|y}ei z}zz -0.2665
-1.4772 e|z}ai -}_ -0.5675
-0.0547 e|z}ai </s> 0.0000
-1.9033 e|z}ei (|1}_ -0.2665
-0.0474 e|z}ei </s> 0.0000
-1.3743 e|z}ei z}zz -0.5675
-0.3650 e|û}eu n}nn -0.4426
-3.0470 e}_ '}_ -0.2665
-3.0965 e}_ (|1}_ -0.2665
-1.5219 e}_ -}_ -1.1252
-1.0126 e}_ </s> 0.0000
-1.6279 e}_ _}_ -0.5868
-3.0120 e}_ _}ii -0.2665
-2.6152 e}_ _}nn -0.4426
-2.9098 e}_ a|i}ai -1.5543
-3.0367 e}_ a|m}an -0.2665
-2.1143 e}_ a|n}an -1.5218
-1.4809 e}_ a|u}au -1.5254
-2.0479 e}_ a|u}oo -1.0112
-3.0316 e}_ a|y}ei -0.2665
-1.6167 e}_ a}aa -0.9355
-2.1335 e}_ a}ai -0.7716
-2.6172 e}_ a}ei -0.2665
-2.2594 e}_ a}oe -1.0447
-1.7586 e}_ b}bb -0.6271
-1.9642 e}_ c|h}ch -0.6255
-3.0217 e}_ c}_ -0.2665
-2.0270 e}_ c}kk -0.8106
-2.5267 e}_ c}ss -0.9033
-1.7946 e}_ d}dd -0.7603
-3.1660 e}_ e|r}ii -0.2665
-2.4978 e}_ e}ai -0.3914
-2.2023 e}_ e}ei -0.5675
-1.3910 e}_ e}ii -1.0916
-2.1399 e}_ f|f}ff -0.5095
-1.9040 e}_ f}ff -0.7784
-2.5855 e}_ g|u}gg -0.4883
-3.0025 e}_ g}_ -0.2665
-2.1113 e}_ g}gg -0.7058
-2.2236 e}_ g}jj -0.4706
-2.8631 e}_ h}_ -0.2665
-2.6309 e}_ i|l}yy -0.9655
-3.0522 e}_ i|m}in -0.2665
-1.7298 e}_ i|n}in -1.5908
-2.7471 e}_ i}ii -0.2665
-2.5037 e}_ i}yy -2.1116
-2.2205 e}_ j}jj -0.4706
-2.3254 e}_ k}kk -0.4883
-2.2444 e}_ l|l}ll -0.2665
-1.3480 e}_ l}ll -1.0642
-1.4170 e}_ m}mm -1.2583
-2.6172 e}_ n|n}nn -0.4426
-1.3291 e}_ n|t}ee -2.8901
-1.3477 e}_ n}nn -0.8556
-2.5427 e}_ o|n}on -1.2044
-2.9023 e}_ o|u}ou -0.2665
-2.5783 e}_ o}_ -1.7436
-2.8563 e}_ o}au -0.8106
-1.9552 e}_ o}oo -0.8174
-2.0255 e}_ p}pp -0.6565
-2.9454 e}_ q|u}kk -0.5675
-1.2523 e}_ r}rr -1.4472
-1.1555 e}_ s|(}_ -3.2423
-1.7946 e}_ s}ss -1.0764
-3.1525 e}_ s}tt -0.2665
-1.4027 e}_ s}zz -1.2085
-2.3435 e}_ t}_ -0.7784
-1.6741 e}_ t}tt -0.8405
-2.6431 e}_ u|f}eu -0.4883
-3.0470 e}_ u|n}un -0.2665
-3.1660 e}_ u|r}eu -0.3634
-2.5298 e}_ u}uu -0.4262
-1.6257 e}_ v}vv -0.9567
-2.4078 e}_ w}ou -0.6925
-2.6431 e}_ w}ou|vv -0.3756
-3.1660 e}_ w}uu|ou -0.2665
-3.0072 e}_ w}vv -0.5675
-2.5696 e}_ w}ww -0.2665
-1.5320 e}_ y}ai -1.0566
-2.2166 e}_ y}ii -0.4883
-2.9372 e}_ y}yy -0.2665
-1.5092 e}_ z|(}ei -1.5337
-3.0850 e}_ z}ss -0.2665
-2.5411 e}_ z}zz -0.4426
-3.0683 e}_ ô}au -1.0447
-3.1084 e}_ ô}oo -0.5675
-3.0850 e}_ û}uu -0.2665
-1.9371 e}aa a|u}au -0.2665
-0.4012 e}aa i}ii -0.9980
-0.7802 e}aa i}yy -0.9825
-1.9522 e}aa l|l}ll -0.3914
-0.6166 e}aa m|m}mm -1.3529
-1.4357 e}aa n|n}nn -1.1116
-1.4180 e}aa n}nn -0.2665
-0.3747 e}aa|rr _}au|bb -0.2665
-2.4270 e}ai (}_ -0.5675
-2.1420 e}ai </s> 0.0000
-2.6648 e}ai _}_ -1.0069
-3.1995 e}ai _}nn -0.2665
-3.2802 e}ai a|t}vv -0.2665
-2.5851 e}ai a}aa -0.2665
-2.3688 e}ai b}_ -0.9197
-1.8358 e}ai b}bb -0.7579
-1.8402 e}ai c|h}ch -0.6422
-1.8870 e}ai c}_ -1.4638
-1.4990 e}ai c}kk -2.0693
-2.6483 e}ai c}ss -0.5675
-1.9296 e}ai d}_ -0.9293
-1.4963 e}ai d}dd -0.8590
-3.2739 e}ai f|-}_ -0.5675
-1.7491 e}ai f|f}ff -1.3576
-3.2677 e}ai f|s}_ -0.5675
-1.6863 e}ai f}ff -1.0831
-2.1628 e}ai g}_ -1.1696
-3.2802 e}ai g}dd|ei -0.2665
-1.8771 e}ai g}gg -0.7566
-3.0496 e}ai g}jj -0.5675
-1.8388 e}ai h}_ -0.6519
-1.8919 e}ai i|l}yy -1.1696
-2.1284 e}ai i}ii -0.7058
-1.7377 e}ai i}yy -1.7801
-2.2347 e}ai j}jj -0.4426
-1.7377 e}ai k}kk -1.1696
-1.2826 e}ai l|l}ll -1.9161
-1.2573 e}ai l}ll -1.6644
-2.5143 e}ai m|m}mm -0.4774
-1.5693 e}ai m}mm -1.2421
-3.2739 e}ai n|i}gn -0.7436
-1.5593 e}ai n|n}nn -1.9928
-3.2677 e}ai n|t}_ -0.8686
-1.2571 e}ai n}nn -1.3720
-2.6280 e}ai o}oo -0.4426
-2.4983 e}ai p|h}ff -0.3914
-2.1011 e}ai p|p}pp -0.5975
-2.7258 e}ai p}_ -1.1416
-1.7107 e}ai p}pp -1.8176
-3.0726 e}ai q|u}kk -0.2665
-2.7223 e}ai q}kk -0.5675
-2.7569 e}ai r|f}rr -0.5675
-1.5407 e}ai r|r}rr -1.5783
-3.2802 e}ai r|r}ww -0.2665
-2.7494 e}ai r|z}rr -0.2665
-1.1787 e}ai r}rr -2.1934
-2.0750 e}ai s|(}_ -0.8686
-2.2516 e}ai s|h}ch -0.4426
-1.4644 e}ai s}_ -2.2307
-1.2680 e}ai s}ss -2.2266
-2.0187 e}ai s}zz -0.7436
-2.5100 e}ai t|h}ff -0.8686
-1.2701 e}ai t}_ -2.5061
-3.2437 e}ai t}dd -0.2665
-3.1641 e}ai t}ss -0.2665
-1.3901 e}ai t}tt -1.2110
-1.9370 e}ai v}ff -1.5095
-1.8769 e}ai v}vv -0.6150
-2.4962 e}ai w}vv -0.4426
-1.9736 e}ai w}ww -0.6023
-3.2101 e}ai x}_ -0.2665
-2.0401 e}ai x}gg|zz -1.8889
-2.2624 e}ai x}kk -1.8613
-1.6922 e}ai x}kk|ss -1.7525
-3.2437 e}ai x}ss -0.2665
-2.0250 e}ai y}yy -0.5395
-3.2496 e}ai z|z}zz -0.2665
-2.7438 e}ai z}dd -0.8106
-3.2739 e}ai z}dd|zz -0.2665
-2.0982 e}ai z}ss -0.7894
-1.5355 e}ai z}zz -1.2085
-3.2437 e}ai ï}yy -0.5675
-2.2813 e}ee (|1}_ -0.7436
-1.3156 e}ee (}_ -1.8347
-1.3181 e}ee -}_ -1.5675
-1.6590 e}ee </s> 0.0000
-1.4035 e}ee _}_ -1.4864
-2.9915 e}ee _}nn -0.2665
-2.9441 e}ee a}_ -0.2665
-2.7363 e}ee a}aa -0.2665
-1.4504 e}ee b}bb -1.0766
-1.8507 e}ee c|h}ch -0.9885
-3.0368 e}ee c}gg -1.2665
-1.6056 e}ee c}kk -1.6606
-1.7884 e}ee c}ss -1.2896
-1.5339 e}ee d}dd -1.3387
-2.9774 e}ee f|f}ff -0.5675
-1.6888 e}ee f}ff -1.2999
-2.0164 e}ee g|u}gg -0.3756
-2.4862 e}ee g}_ -0.8686
-1.5708 e}ee g}gg -1.3344
-1.9245 e}ee g}jj -1.0935
-2.0037 e}ee h}_ -0.7638
-3.0289 e}ee i}ai -1.0447
-2.4326 e}ee i}yy -1.2665
-2.0082 e}ee j}jj -1.0884
-1.9979 e}ee k}kk -0.4426
-2.0195 e}ee l|l}ll -0.4126
-1.1988 e}ee l}ll -1.5847
-1.1582 e}ee m}mm -2.1564
-2.9951 e}ee n|n}nn -0.2665
-1.2287 e}ee n}nn -1.6193
-2.2710 e}ee p|h}ff -0.4426
-1.7866 e}ee p}pp -1.4743
-2.1186 e}ee q|u}kk -0.9197
-1.0736 e}ee r}rr -1.9172
-1.1593 e}ee s|(}_ -3.0935
-1.5038 e}ee s}_ -1.7607
-1.9921 e}ee s}ss -0.9241
-1.4788 e}ee s}zz -1.0854
-1.3328 e}ee t}tt -1.6467
-3.0407 e}ee u|x}zz -1.0447
-1.4785 e}ee v}vv -1.6761
-2.2696 e}ee w}vv -0.4883
-2.0067 e}ee z}zz -0.3334
-2.0225 e}ee ç}ss -0.9935
-2.9072 e}ee è}ai -0.2665
-2.5080 e}ee ï}ii -0.6644
-3.0211 e}ee ï}yy -0.2665
-0.3748 e}ee|mm r}yy|ei -0.2665
-1.6160 e}ei (}_ -1.1416
-2.3692 e}ei -}_ -0.6345
-1.3047 e}ei </s> 0.0000
-2.9450 e}ei _}_ -0.2665
-2.6329 e}ei _}tt -0.5675
-3.0415 e}ei a|u}oo -0.2665
-1.6421 e}ei a}aa -0.7436
-3.1327 e}ei b}_ -0.2665
-1.5446 e}ei b}bb -0.7165
-2.0593 e}ei c|h}ch -0.5297
-1.8396 e}ei c}_ -0.9935
-1.7472 e}ei c}kk -0.9411
-1.9278 e}ei c}ss -0.6345
-3.0503 e}ei c}ss|ei -0.2665
-2.1591 e}ei d}_ -1.1318
-1.4406 e}ei d}dd -0.9655
-3.1221 e}ei d}tt -0.5675
-2.9964 e}ei e|u}eu -0.2665
-2.3538 e}ei e}ai -0.4426
-2.5459 e}ei e}ei -0.2665
-3.1490 e}ei e}ei|eu -0.2665
-2.2724 e}ei f|f}ff -0.5675
-3.1776 e}ei f|s}_ -0.2665
-1.8302 e}ei f}ff -0.5164
-3.0415 e}ei g}_ -0.2665
-3.1659 e}ei g}dd -0.2665
-1.6219 e}ei g}gg -0.8162
-2.9662 e}ei g}jj -0.4883
-1.7133 e}ei h}_ -0.5828
-1.5308 e}ei i}_ -0.8879
-1.6733 e}ei i}ii -0.6282
-2.1300 e}ei i}yy -1.0069
-2.0620 e}ei j}jj -0.4426
-3.1490 e}ei k|k}kk -0.2665
-1.6193 e}ei k}kk -0.6519
-1.5078 e}ei l|l}ll -0.8912
-1.3424 e}ei l}ll -1.0008
-2.6466 e}ei m|m}mm -0.6187
-1.4790 e}ei m}mm -0.8493
-1.8911 e}ei n|n}nn -0.7436
-1.3279 e}ei n}nn -1.0198
-2.9415 e}ei o|n}on -0.2665
-1.9869 e}ei o}au -0.6767
-2.2296 e}ei o}oo -0.4706
-2.6212 e}ei p|h}ff -0.2665
-3.1546 e}ei p|p}pp -0.5675
-1.8732 e}ei p}pp -0.6875
-2.5957 e}ei q|u}kk -0.4426
-2.6329 e}ei q}kk -0.2665
-1.1302 e}ei r}rr -2.1406
-2.3664 e}ei s|(}_ -1.4426
-2.6262 e}ei s|h}ch -0.2665
-1.5424 e}ei s}_ -1.3439
-1.4591 e}ei s}ss -0.9600
-1.7490 e}ei s}zz -0.8686
-1.5028 e}ei t}_ -1.6138
-1.4945 e}ei t}tt -0.9153
-2.6363 e}ei u}oo -0.7436
-3.0204 e}ei u}ou -0.2665
-2.5643 e}ei u}uu -0.2665
-1.5700 e}ei v}vv -0.9257
-2.0016 e}ei w}vv -0.8308
-2.0679 e}ei w}ww -0.4706
-3.1776 e}ei x}gg|zz -1.2665
-2.0032 e}ei x}kk|ss -0.6133
-1.9953 e}ei y}yy -0.5675
-3.1490 e}ei z}dd -0.2665
-1.3055 e}ei z}zz -1.6515
-1.9465 e}ei ï}ii -0.5675
-2.6554 e}ei ï}yy -0.5675
-3.1717 e}ei ñ}gn -0.2665
-1.5887 e}ei|eu (}_ -0.5675
-1.6655 e}ei|eu 2}dd|eu -0.2665
-0.4789 e}ei|eu </s> 0.0000
-0.8986 e}ei|eu a}aa -0.4426
-1.6518 e}ei|eu d}dd|ei -0.2665
-1.6554 e}ei|eu e}eu -0.2665
-1.6554 e}ei|eu g}jj|ei -0.2665
-1.1197 e}ei|eu i}ii -0.5675
-1.6490 e}ei|eu p}pp|ei -0.2665
-1.6499 e}ei|eu r}ai|rr -0.2665
-1.6518 e}ei|eu t}tt|ei -0.2665
-0.3550 e}ei|oe </s> 0.0000
-1.8425 e}eu (}_ -0.2665
-1.8901 e}eu -}_ -0.2665
-0.5237 e}eu </s> 0.0000
-1.9104 e}eu _}_ -0.2665
-1.4188 e}eu a}aa -0.4426
-1.9683 e}eu b}bb|ei -0.2665
-1.4643 e}eu c}ss|ei -0.2665
-1.8480 e}eu d}dd -0.5675
-1.9593 e}eu d}dd|ei -0.5675
-1.4643 e}eu f}ai|ff -0.2665
-1.9965 e}eu j}jj|yy -0.2665
-1.8707 e}eu k}kk -0.2665
-1.9575 e}eu m}ai|mm -0.2665
-1.8811 e}eu p}pp -0.2665
-1.4638 e}eu p}pp|ei -0.2665
-1.4643 e}eu r}ai|rr -0.5675
-1.4224 e}eu r}rr -0.2665
-1.8522 e}eu s}_ -0.5675
-1.4643 e}eu s}ai|ss -0.2665
-1.4097 e}eu t}tt -0.3914
-1.9593 e}eu t}tt|ei -0.2665
-2.0044 e}eu u|x}zz -0.5675
-1.9072 e}eu z}zz -0.2665
-1.4850 e}ii -}_ -0.5675
-1.0862 e}ii </s> 0.0000
-1.8567 e}ii a}aa -0.2665
-1.5094 e}ii a}ai -0.2665
-2.0516 e}ii a}tt -0.2665
-1.9082 e}ii b}bb -0.3914
-1.9399 e}ii c|h}ch -0.2665
-1.4678 e}ii d}dd -0.7436
-1.4930 e}ii e|(}_ -0.7436
-1.4955 e}ii e|s}_ -0.5675
-1.1231 e}ii e}_ -0.3914
-1.9364 e}ii f}ff -0.3914
-1.9034 e}ii k}kk -0.5218
-1.8567 e}ii l}ll -0.3334
-1.4707 e}ii m}mm -0.4883
-1.8524 e}ii n}nn -0.6875
-1.9147 e}ii p}pp -0.6815
-1.8668 e}ii r}rr -0.7436
-1.2700 e}ii s|(}_ -0.3914
-1.4678 e}ii s}ss -0.2665
-1.1298 e}ii s}zz -0.6925
-1.9330 e}ii t}_ -0.5675
-1.2487 e}ii t}tt -0.4214
-1.2719 e}ii v}vv -0.7058
-1.9740 e}ii w}ww -0.8686
-2.0384 e}ii z}dd -0.2665
-1.1890 e}oe (}_ -0.7436
-1.1664 e}oe </s> 0.0000
-1.4049 e}oe a}aa -0.2665
-1.9377 e}oe c}ss|ei -0.2665
-1.9397 e}oe d}dd|ei -0.2665
-1.4049 e}oe l}ll -0.2665
-1.4040 e}oe n}nn -0.5675
-1.9367 e}oe p}pp|ei -0.2665
-0.3004 e}oe r}rr -1.2979
-1.4296 e}oe s}ai|ss -0.5675
-1.8750 e}oe s}ss -0.2665
-1.9416 e}oe u}oe -0.2665
-1.2870 e}yy (}_ -1.0025
-1.7571 e}yy -}_ -0.2665
-1.8608 e}yy -}ee -0.2665
-1.5688 e}yy </s> 0.0000
-1.7849 e}yy a|u}au -0.2665
-1.8572 e}yy a}oe -0.2665
-1.8644 e}yy n|t}an -0.2665
-1.8626 e}yy n|t}ee -0.2665
-1.3374 e}yy n}ai -1.0447
-1.1069 e}yy r|(}ei -1.2877
-1.7075 e}yy r}rr -0.7436
-1.7528 e}yy s|(}_ -0.3914
-1.7217 e}yy s}_ -0.5675
-1.8179 e}yy s}ai|ss -0.2665
-1.1069 e}yy u|x}eu -0.9197
-1.8501 e}yy u}ee -0.2665
-1.3257 e}yy u}oe -1.1116
-1.8067 e}yy u}ou -0.5675
-1.8572 e}yy w}ou -0.4804
-1.8590 e}yy y}ai -0.2665
-0.9564 e}yy z|(}ei -0.7436
-0.6594 f|-}_ d}dd -0.5675
-0.6646 f|-}_ v}vv -0.2665
-2.3022 f|f}ff (}_ -0.2665
-1.1756 f|f}ff </s> 0.0000
-2.4011 f|f}ff _}_ -0.2665
-1.6287 f|f}ff a|i}ai -1.2044
-1.9740 f|f}ff a|n}an -0.6644
-2.4159 f|f}ff a|u}au -0.2665
-1.3522 f|f}ff a}aa -0.9797
-1.3034 f|f}ff e|(}_ -1.0447
-2.4689 f|f}ff e|n}_ -0.2665
-2.4234 f|f}ff e|n}an -1.6467
-2.4921 f|f}ff e|n}ee -0.2665
-1.5231 f|f}ff e|r}ei -1.1696
-1.4370 f|f}ff e|s}_ -1.1116
-2.4363 f|f}ff e|u}eu -0.5675
-1.7770 f|f}ff e|u}oe -1.1696
-1.2971 f|f}ff e}_ -1.2085
-1.1549 f|f}ff e}ai -1.5613
-1.3036 f|f}ff e}ee -0.7980
-1.5143 f|f}ff e}ei -1.1696
-2.4689 f|f}ff e}oe -0.2665
-1.7764 f|f}ff i|n}in -0.8686
-1.3539 f|f}ff i}ii -1.5675
-1.6170 f|f}ff i}yy -0.5297
-1.3522 f|f}ff l}ll -1.0981
-1.9460 f|f}ff m}mm -0.5675
-2.2761 f|f}ff n}nn -0.2665
-1.5209 f|f}ff o|n}on -0.9477
-1.9794 f|f}ff o|u}ou -0.8686
-2.3731 f|f}ff o}au -0.5675
-1.5133 f|f}ff o}oo -1.3546
-1.2939 f|f}ff r}rr -1.2499
-2.4833 f|f}ff s|h}ch -0.5675
-2.3159 f|f}ff s}_ -0.2665
-2.3100 f|f}ff s}ss -0.2665
-1.4336 f|f}ff u}uu -1.1696
-1.9758 f|f}ff y}ii -0.2665
-2.4363 f|f}ff è}ai -0.9655
-1.9896 f|f}ff é}ai -2.0658
-1.3031 f|f}ff é}ei -1.1318
-2.5135 f|f}ff û}uu -0.2665
-0.4457 f|s}_ -}_ -0.5675
-0.4373 f|s}_ </s> 0.0000
-1.3642 f}ai|ff (}_ -0.7436
-2.2472 f}ai|ff -}_ -0.2665
-2.4065 f}ai|ff -}ai -0.2665
-2.3921 f}ai|ff 1}dd -0.2665
-2.4035 f}ai|ff 1}ss|an -0.2665
-1.8802 f}ai|ff 1}un -0.5675
-0.7344 f}ai|ff </s> 0.0000
-2.3949 f}ai|ff _}kk|aa -0.2665
-2.4035 f}ai|ff _}ss|ai -0.2665
-1.2086 f}ai|ff a}aa -0.5297
-2.2274 f}ai|ff b}bb -0.2665
-1.8666 f}ai|ff b}bb|ei -0.2665
-1.8303 f}ai|ff c}ss -0.5675
-1.3840 f}ai|ff c}ss|ei -0.5218
-1.4938 f}ai|ff d}dd|ei -0.4048
-1.6421 f}ai|ff e}eu -0.4883
-1.4931 f}ai|ff f}ai|ff -0.4262
-1.8657 f}ai|ff g}jj|ei -0.3914
-2.3728 f}ai|ff h}aa|ch -0.2665
-2.4065 f}ai|ff i}dd|eu -0.2665
-1.2800 f}ai|ff i}ii -0.6644
-1.8188 f}ai|ff i}yy -0.2665
-2.2786 f}ai|ff j}jj -0.2665
-1.8188 f}ai|ff k}kk -0.5675
-1.4952 f}ai|ff l}ai|ll -0.6925
-1.2246 f}ai|ff m}ai|mm -0.6089
-2.3569 f}ai|ff n}ai|nn -0.3457
-1.8295 f}ai|ff o}au -0.5675
-2.2352 f}ai|ff p}pp -0.2665
-1.2967 f}ai|ff p}pp|ei -0.5353
-1.4931 f}ai|ff r}ai|rr -0.5095
-1.6391 f}ai|ff s}ai|ss -0.3245
-1.6401 f}ai|ff t}tt|ei -0.3914
-1.8318 f}ai|ff u}uu -0.5675
-1.7086 f}ff (}_ -1.1959
-2.7086 f}ff -}_ -0.2665
-1.3062 f}ff </s> 0.0000
-2.7558 f}ff _}_ -0.3914
-2.8897 f}ff _}aa -0.2665
-3.0377 f}ff _}aa|yy -0.2665
-1.5984 f}ff a|i}ai -1.4624
-2.1351 f}ff a|i}ee -1.8347
-3.0377 f}ff a|i}eu -0.5675
-2.9762 f}ff a|l}oo -0.5675
-2.0840 f}ff a|n}an -1.5543
-1.8392 f}ff a|u}au -0.8228
-2.2487 f}ff a|u}oo -1.0681
-2.4732 f}ff a|y}ai -0.3914
-2.8950 f}ff a|y}ei -0.2665
-2.9762 f}ff a|î}ai -1.0447
-2.8693 f}ff a}_ -0.2665
-1.1756 f}ff a}aa -1.5847
-2.8693 f}ff a}ai -0.2665
-2.9514 f}ff a}ei -0.2665
-3.0093 f}ff a}oe -0.2665
-2.7408 f}ff c|h}ch -0.2665
-2.6984 f}ff c}kk -0.2665
-2.7155 f}ff c}ss -0.2665
-2.6187 f}ff d}dd -0.2665
-2.0881 f}ff e|(}_ -0.8686
-2.9223 f}ff e|a}ii -0.2665
-2.4712 f}ff e|i}ai -0.5675
-1.9930 f}ff e|n}an -1.4188
-1.9910 f}ff e|r}ei -1.0198
-2.4169 f}ff e|s}_ -0.5675
-2.4672 f}ff e|u}ee -1.4279
-2.0998 f}ff e|u}eu -0.8405
-1.9970 f}ff e|u}oe -1.1116
-1.7639 f}ff e}_ -0.9655
-2.4633 f}ff e}aa -1.0794
-1.3472 f}ff e}ai -1.7127
-1.9058 f}ff e}ee -1.1696
-1.8263 f}ff e}ei -0.8308
-2.7334 f}ff f}ff -0.2665
-2.2088 f}ff g}gg -0.6925
-1.9964 f}ff i|n}in -0.9507
-3.0377 f}ff i|r}oe -0.2665
-1.1764 f}ff i}ii -1.7416
-2.9826 f}ff i}oe -0.2665
-1.6698 f}ff i}yy -1.6844
-2.9957 f}ff j}yy -0.7436
-2.0671 f}ff k}kk -0.7436
-1.4093 f}ff l}ll -1.5065
-2.1803 f}ff m}mm -0.9655
-2.0412 f}ff n}nn -0.5095
-2.9826 f}ff o|i}ww -0.5675
-1.4442 f}ff o|n}on -1.6644
-2.9279 f}ff o|o}ou -0.8686
-1.5626 f}ff o|u}ou -1.2313
-2.9003 f}ff o|u}ww -0.8686
-2.0004 f}ff o}_ -1.3209
-1.6743 f}ff o}au -0.6925
-1.1788 f}ff o}oo -1.8117
-2.9574 f}ff o}ww -0.2665
-2.9337 f}ff o}ww|aa -0.7436
-2.0727 f}ff p}pp -0.3914
-1.2522 f}ff r}rr -1.6534
-1.7706 f}ff s|(}_ -1.9100
-1.7615 f}ff s}_ -1.9477
-2.9957 f}ff s}ch -0.2665
-2.3427 f}ff s}ss -0.2665
-2.3963 f}ff t}_ -0.7436
-1.6987 f}ff t}tt -0.8106
-2.9957 f}ff u|m}un -0.2665
-2.4732 f}ff u|n}un -0.5218
-2.8950 f}ff u}oe -0.5675
-2.8404 f}ff u}ou -0.2665
-1.4427 f}ff u}uu -1.5251
-2.4633 f}ff u}uy -1.2555
-2.9957 f}ff u}yy|ou -0.2665
-2.2165 f}ff y}ii -0.7436
-2.4692 f}ff â}aa -1.2877
-1.7298 f}ff è}ai -1.3013
-1.7290 f}ff é}ai -1.7220
-1.8355 f}ff é}ei -0.7081
-2.4732 f}ff ê}ai -1.3457
-3.0025 f}ff ê}ei -0.2665
-2.9636 f}ff î}ii -0.2665
-2.9514 f}ff û}uu -0.6925
-2.9454 f}ff ü}uu -0.5675
-0.3709 g|-}kk e|n}an -0.5675
-1.2825 g|n}gn a|i}ai -1.4249
-1.2196 g|n}gn a|n}an -1.7098
-2.3835 g|n}gn a|u}au -0.5675
-1.1604 g|n}gn a}aa -1.1779
-1.0745 g|n}gn e|(}_ -1.3013
-1.2209 g|n}gn e|r}ei -1.4126
-1.2826 g|n}gn e|s}_ -1.5453
-2.4263 g|n}gn e|u}ee -0.5675
-1.4436 g|n}gn e|u}eu -1.2665
-1.6991 g|n}gn e|u}oe -1.1116
-1.7018 g|n}gn e|z}ei -1.0447
-1.0719 g|n}gn e}_ -1.6946
-1.5422 g|n}gn e}ai -1.0447
-1.1180 g|n}gn e}ee -1.3517
-1.2177 g|n}gn e}ei -1.4969
-1.4319 g|n}gn i}ii -1.4000
-1.6854 g|n}gn i}yy -0.5095
-1.2820 g|n}gn o|n}on -1.1696
-1.9238 g|n}gn o}_ -1.2665
-1.8990 g|n}gn o}oo -1.3135
-2.3690 g|n}gn y}ii -0.2665
-2.3934 g|n}gn é}ai -1.3634
-1.2200 g|n}gn é}ei -1.6431
-1.7139 g|u}gg a|i}ai -0.5675
-1.3843 g|u}gg a|n}an -1.0681
-2.5862 g|u}gg a|y}ei -0.2665
-1.8363 g|u}gg a}aa -0.3457
-1.2002 g|u}gg e|(}_ -1.6235
-2.0951 g|u}gg e|n}in -0.5675
-1.2834 g|u}gg e|r}ei -1.4126
-1.2005 g|u}gg e|s}_ -1.9989
-1.8690 g|u}gg e|u}ee -1.0447
-1.7169 g|u}gg e|u}eu -0.8686
-1.4489 g|u}gg e|u}oe -1.2442
-2.0887 g|u}gg e|z}ei -0.5675
-1.0689 g|u}gg e}_ -1.6773
-1.0978 g|u}gg e}ai -1.2858
-1.1641 g|u}gg e}ee -1.2719
-1.0984 g|u}gg e}ei -0.8001
-2.6218 g|u}gg i|l}yy -0.2665
-1.3324 g|u}gg i|n}in -0.6644
-1.0410 g|u}gg i}ii -1.2253
-1.5143 g|u}gg i}yy -0.6467
-2.5074 g|u}gg o}au -0.2665
-1.5182 g|u}gg y}ii -1.1116
-1.8625 g|u}gg è}ai -0.9655
-2.5497 g|u}gg é}ai -1.0904
-1.2393 g|u}gg é}ei -1.0842
-2.5923 g|u}gg ê}ai -0.2665
-1.4555 g}_ (}_ -0.8308
-1.4650 g}_ -}_ -0.5675
-0.9762 g}_ </s> 0.0000
-2.1577 g}_ _}_ -0.7436
-2.1521 g}_ c|h}ch -0.5675
-2.1577 g}_ e|(}_ -0.2665
-1.1264 g}_ g}gg -0.9411
-2.1663 g}_ g}jj -0.2665
-1.3213 g}_ h}_ -1.1696
-2.1606 g}_ j}jj -0.2665
-2.1222 g}_ k}kk -0.2665
-2.2304 g}_ l}_ -0.2665
-2.0833 g}_ l}ll -0.2665
-0.8042 g}_ n}nn -1.6251
-0.6810 g}_ n}nn|yy -1.2741
-1.2120 g}_ s|(}_ -1.1696
-1.2083 g}_ s}_ -1.1696
-2.1465 g}_ t}_ -1.0681
-1.6540 g}_ t}tt -1.0342
-2.1796 g}_ w}ww -0.2665
-0.9387 g}aa n}nn -0.7436
-0.9763 g}aa n}nn|yy -0.6345
-0.9556 g}aa t}_ -0.2665
-0.9340 g}aa t}tt -0.2665
-0.0530 g}dd g}jj -0.8106
-0.3707 g}dd|ei g}jj -0.2665
-1.7084 g}dd|jj _}ii -0.2665
-1.6883 g}dd|jj e|r}ei -0.2665
-1.6534 g}dd|jj e}_ -0.5675
-0.9624 g}dd|jj e}ai -1.0069
-0.7108 g}dd|jj e}ee -0.8686
-1.6629 g}dd|jj e}ei -0.2665
-1.7074 g}dd|jj e}oe -0.2665
-1.2049 g}dd|jj i}_ -0.7058
-0.9591 g}dd|jj i}ii -0.8016
-0.9631 g}dd|jj i}yy -0.5675
-1.6800 g}dd|jj y}ii -0.2665
-1.6809 g}dd|jj é}ei -0.2665
-0.3748 g}ei|gn r}oe|rr -0.2665
-1.7789 g}gg (}_ -1.2442
-2.7522 g}gg -}_ -0.4426
-1.3864 g}gg </s> 0.0000
-2.2425 g}gg _}_ -0.4426
-2.9823 g}gg _}ei -0.2665
-1.7961 g}gg a|i}ai -1.0025
-2.4900 g}gg a|m}an -0.7436
-1.4869 g}gg a|n}an -1.2993
-3.0541 g}gg a|r}aa -0.2665
-1.7444 g}gg a|u}au -0.9160
-2.4778 g}gg a|u}oo -1.1238
-2.9403 g}gg a|y}ai -0.2665
-2.9255 g}gg a|y}ei -0.2665
-3.0476 g}gg a|ë}aa -0.2665
-2.9991 g}gg a|î}ai -0.2665
-2.1285 g}gg a}_ -1.2665
-1.1399 g}gg a}aa -1.7428
-2.4795 g}gg a}ai -0.5675
-2.5137 g}gg a}ai|yy -0.5675
-1.6891 g}gg b}bb -0.6815
-2.7426 g}gg c}kk -0.2665
-1.9044 g}gg d}dd -0.5910
-1.9880 g}gg e}_ -0.5095
-2.9159 g}gg e}aa -0.2665
-1.3854 g}gg e}ai -1.1908
-1.9247 g}gg e}ee -0.9197
-2.0929 g}gg e}ei -0.4126
-2.2695 g}gg e}oe -0.2665
-2.4273 g}gg f}ff -0.2665
-2.1015 g}gg g}gg -0.4883
-2.2486 g}gg g}jj -1.0624
-1.2735 g}gg h}_ -1.0319
-1.7778 g}gg i}ii -0.5183
-3.0049 g}gg i}oe -0.7436
-2.4398 g}gg j}jj -0.2665
-1.9919 g}gg k}kk -0.4883
-1.2212 g}gg l}ll -1.5854
-1.6852 g}gg m}mm -1.3950
-2.1861 g}gg n}nn -0.8347
-1.5792 g}gg o|n}on -1.0134
-2.4990 g}gg o|o}ou -0.5218
-1.5469 g}gg o|u}ou -1.1998
-2.1332 g}gg o|u}ww -0.6815
-2.5251 g}gg o|w}au -0.2665
-2.0364 g}gg o|û}ou -1.3079
-1.9340 g}gg o}_ -1.2665
-1.3082 g}gg o}au -1.1545
-2.9714 g}gg o}oe -0.5675
-1.3649 g}gg o}oo -1.4650
-2.5081 g}gg o}ww -0.5675
-2.9608 g}gg o}ww|aa -0.2665
-2.9453 g}gg q}kk -0.2665
-1.2072 g}gg r}rr -1.8465
-1.8483 g}gg s|(}_ -1.0624
-1.9058 g}gg s}_ -1.6282
-1.8379 g}gg s}ss -0.6644
-2.4242 g}gg s}zz -1.1696
-1.9651 g}gg t}tt -0.6467
-2.4936 g}gg u|n}un -0.4426
-2.5309 g}gg u|ë}uu -0.6345
-3.0476 g}gg u}ii -0.2665
-2.4882 g}gg u}oe -0.2665
-2.4990 g}gg u}oo -0.5675
-2.1239 g}gg u}ou -0.6187
-1.4596 g}gg u}uu -1.3330
-1.8669 g}gg u}uy -1.0904
-1.9480 g}gg u}ww -1.0589
-2.4197 g}gg v}vv -0.2665
-2.0156 g}gg w}ww -0.5675
-2.2395 g}gg y}ii -0.4883
-2.0127 g}gg y}yy -0.6644
-2.4335 g}gg z}zz -0.2665
-2.2759 g}gg â}aa -1.1416
-2.9934 g}gg ö}eu -0.5675
-3.0541 g}gg ö}oe -0.6644
-2.9714 g}gg ü}uu -0.3914
-1.0372 g}gg|gg e}_ -0.8686
-1.0384 g}gg|gg e}ai -0.8686
-1.0510 g}gg|gg e}ee -0.8686
-1.0465 g}gg|gg h}_ -0.5675
-1.0305 g}gg|gg r}rr -0.2665
-0.1453 g}gg|oe l}ll -0.5675
-0.3670 g}gn m}mm -0.2665
-2.8628 g}jj 8}ei|uy -0.2665
-2.3312 g}jj _}ai -0.2665
-2.8659 g}jj _}ai|ss -0.2665
-2.8567 g}jj _}ei|ss -0.2665
-1.2743 g}jj e|(}_ -2.3099
-2.8161 g}jj e|m}an -0.5675
-2.0945 g}jj e|n}_ -0.9655
-1.3618 g}jj e|n}an -1.7188
-2.0987 g}jj e|n}ee -0.8686
-2.8052 g}jj e|n}in -0.5675
-1.2748 g}jj e|r}ei -1.8658
-1.3305 g}jj e|s}_ -2.2918
-2.7998 g}jj e|u}ee -1.1696
-1.7501 g}jj e|u}eu -1.7289
-1.7504 g}jj e|u}oe -1.5989
-2.7998 g}jj e|y}ei -0.2665
-1.5638 g}jj e|z}ei -1.3804
-1.0216 g}jj e}_ -2.0259
-2.7945 g}jj e}aa -0.8686
-1.1786 g}jj e}ai -1.3431
-1.1600 g}jj e}ee -1.7298
-1.2473 g}jj e}ei -1.2326
-2.1057 g}jj e}ei|eu -0.5675
-2.8245 g}jj e}ii -0.2665
-2.8106 g}jj i|m}in -0.2665
-1.5624 g}jj i|n}in -0.7784
-1.1569 g}jj i}ii -1.7952
-1.2470 g}jj i}yy -1.3514
-1.4689 g}jj y}ii -1.2365
-2.7471 g}jj y}yy -0.2665
-1.2755 g}jj è}ai -1.5887
-1.3954 g}jj é}ai -1.8616
-1.1598 g}jj é}ei -1.7998
-2.8079 g}jj ê}ai -1.7289
-2.8507 g}jj ê}ei -0.5675
-2.8330 g}jj î}ii -0.8686
-2.0666 g}jj|ei (}_ -0.2665
-2.2396 g}jj|ei 1}dd -0.2665
-2.2534 g}jj|ei 1}kk|aa -0.2665
-2.2306 g}jj|ei 2}dd|eu -0.2665
-0.7684 g}jj|ei </s> 0.0000
-2.2419 g}jj|ei _}kk|aa -0.2665
-1.4532 g}jj|ei a}aa -0.3914
-1.2305 g}jj|ei b}bb|ei -0.5675
-1.2290 g}jj|ei c}ss|ei -0.6345
-1.4862 g}jj|ei d}dd|ei -0.4426
-2.1925 g}jj|ei e}oe -0.2665
-1.3385 g}jj|ei f}ai|ff -0.4426
-1.3175 g}jj|ei i}ii -0.3914
-1.6750 g}jj|ei i}yy -0.2665
-2.0980 g}jj|ei k}kk -0.2665
-1.7129 g}jj|ei l}ai|ll -0.2665
-1.2292 g}jj|ei m}ai|mm -0.4706
-1.7143 g}jj|ei n}ai|nn -0.4426
-2.0997 g}jj|ei o}oo -0.2665
-1.2288 g}jj|ei p}pp|ei -0.4426
-2.1945 g}jj|ei r}ai|rr -0.2665
-1.2290 g}jj|ei s}ai|ss -0.5218
-2.0727 g}jj|ei s}ss -0.2665
-2.0246 g}jj|ei t}tt -0.2665
-1.3391 g}jj|ei t}tt|ei -0.5218
-2.1267 g}jj|ei u}uu -0.2665
-1.7156 g}jj|ei v}vv|ei -0.2665
-0.3662 g}kk (}_ -0.2665
-0.3713 g}nn|yy è}ai -0.2665
-0.6665 g}zz e|(}_ -0.2665
-0.6609 g}zz e}_ -0.2665
-0.3637 h|Ô}oo t}tt -0.2665
-1.7415 h}_ (}_ -0.8174
-2.7169 h}_ -}_ -0.5675
-1.3395 h}_ </s> 0.0000
-2.7670 h}_ _}_ -0.2665
-1.9406 h}_ a|i}ai -1.1416
-2.5304 h}_ a|l}oo -0.5675
-2.0439 h}_ a|m}an -0.6644
-1.6315 h}_ a|n}an -1.0334
-1.7153 h}_ a|u}au -1.3299
-2.1432 h}_ a|u}oo -1.3234
-2.3162 h}_ a|w}au -1.1696
-2.9340 h}_ a|y}ai -0.2665
-2.4985 h}_ a|y}ei -0.5675
-1.1472 h}_ a}aa -1.5377
-2.2828 h}_ a}ai -0.7436
-3.0346 h}_ a}an -0.2665
-3.0422 h}_ a}au -0.7436
-2.9780 h}_ a}ei -0.2665
-2.3936 h}_ b}bb -0.5675
-2.7243 h}_ c}ss -0.2665
-2.8939 h}_ d}_ -0.2665
-1.9141 h}_ d}dd -0.5353
-2.7670 h}_ e|(}_ -1.3079
-2.5096 h}_ e|a}ii -0.5095
-2.2923 h}_ e|i}ai -0.4883
-2.8885 h}_ e|n}_ -0.2665
-3.0579 h}_ e|n}ai -0.2665
-2.1280 h}_ e|n}an -1.4774
-2.7921 h}_ e|r}ei -0.8686
-2.2543 h}_ e|s}_ -0.9655
-2.4985 h}_ e|u}ee -1.8106
-2.1327 h}_ e|u}eu -0.3634
-1.9480 h}_ e|u}oe -1.7716
-2.4985 h}_ e|y}ei -0.2665
-1.7968 h}_ e}_ -0.9007
-1.7237 h}_ e}aa -1.4279
-1.3829 h}_ e}ai -1.3961
-2.2506 h}_ e}ee -0.6925
-1.7053 h}_ e}ei -0.6988
-2.5187 h}_ e}ii -0.4426
-2.4877 h}_ e}oe -0.5675
-2.4240 h}_ f}ff -0.4426
-2.4166 h}_ h}_ -0.5675
-1.9473 h}_ i|n}in -0.8228
-3.0422 h}_ i}ai -0.5675
-1.3598 h}_ i}ii -1.3648
-2.5424 h}_ i}ii|yy -0.2665
-2.5328 h}_ i}oe -0.5675
-1.7492 h}_ i}yy -1.1278
-2.7752 h}_ j}jj -0.2665
-2.3884 h}_ k}kk -0.4426
-1.6163 h}_ l}ll -0.8142
-1.7951 h}_ m}mm -0.9603
-2.9780 h}_ n|n}nn -0.5675
-1.6921 h}_ n}nn -1.2317
-2.9340 h}_ o|m}on -0.2665
-2.0191 h}_ o|n}on -0.8106
-2.2978 h}_ o|o}ou -0.4214
-1.5657 h}_ o|u}ou -0.8888
-2.1500 h}_ o|u}ww -0.7058
-2.8573 h}_ o}_ -0.7436
-1.3657 h}_ o}au -0.9075
-2.5187 h}_ o}oe -0.6644
-1.3083 h}_ o}oo -1.5211
-3.0659 h}_ o}ou -0.2665
-2.6957 h}_ p}pp -0.2665
-1.4700 h}_ r}rr -1.3153
-2.2300 h}_ s|(}_ -0.9655
-2.0852 h}_ s}_ -0.8686
-1.7929 h}_ s}ss -0.3634
-2.4203 h}_ t}_ -0.4426
-1.7305 h}_ t}tt -0.7960
-3.0271 h}_ u|m}un -1.1696
-2.9340 h}_ u|n}un -0.2665
-2.9164 h}_ u}oe -0.4126
-2.5119 h}_ u}oo -0.5675
-2.4750 h}_ u}ou -0.4426
-1.3662 h}_ u}uu -1.1622
-1.8857 h}_ u}uy -1.2847
-2.5376 h}_ u}ww -0.8106
-2.4148 h}_ v}vv -1.1696
-2.8885 h}_ w}vv -0.2665
-2.2683 h}_ w}ww -0.2665
-3.0346 h}_ y|m}in -0.2665
-1.9370 h}_ y}ii -1.2772
-2.2619 h}_ y}yy -0.5218
-2.7589 h}_ z}zz -0.2665
-2.5007 h}_ â}aa -1.1416
-3.0346 h}_ ä}aa -0.2665
-1.9473 h}_ è}ai -1.3720
-1.7644 h}_ é}ai -1.6557
-1.6324 h}_ é}ei -0.9803
-2.5051 h}_ ê}ai -0.8686
-2.5142 h}_ ô}au -0.9655
-3.0054 h}_ ô}oo -1.3079
-2.9984 h}_ ö}eu -0.2665
-2.9715 h}_ ü}uu -0.2665
-1.1853 h}aa i}ii -0.5675
-0.3074 h}aa i}yy -0.6345
-1.2016 h}aa o|u}ou -0.2665
-1.2046 h}aa y}yy -0.2665
-1.8111 h}aa|ch (}_ -0.2665
-0.6075 h}aa|ch </s> 0.0000
-1.7964 h}aa|ch a}aa -0.2665
-1.9369 h}aa|ch b}bb|ei -0.2665
-1.8617 h}aa|ch c}ss -0.2665
-1.2083 h}aa|ch c}ss|ei -0.3634
-1.8166 h}aa|ch d}dd -0.2665
-1.4341 h}aa|ch d}dd|ei -0.4426
-1.8452 h}aa|ch e}ei -0.2665
-1.9351 h}aa|ch e}eu -0.2665
-1.9243 h}aa|ch f}ai|ff -0.2665
-1.9351 h}aa|ch g}jj|ei -0.2665
-1.8071 h}aa|ch i}ii -0.2665
-1.8393 h}aa|ch k}kk -0.2665
-1.4364 h}aa|ch l}ai|ll -0.2665
-1.8408 h}aa|ch o}oo -0.2665
-1.9225 h}aa|ch p}pp|ei -0.2665
-1.4329 h}aa|ch r}ai|rr -0.2665
-1.2083 h}aa|ch s}ai|ss -0.4426
-1.9279 h}aa|ch t}tt|ei -0.2665
-1.8648 h}aa|ch u}uu -0.2665
-1.4387 h}aa|ch v}vv|ei -0.2665
-1.8758 h}aa|ch z}zz -0.2665
-0.3728 h}nn e|u}ee -0.5675
-1.0485 h}yy a|n}an -0.2665
-1.0277 h}yy a}aa -0.2665
-1.0309 h}yy i}ii -0.5675
-1.0510 h}yy o|u}ou -0.2665
-1.0589 h}yy u}ou -0.2665
-0.3733 i|(}un 2|)}_ -0.2665
-0.9078 i|l}yy (}_ -0.7436
-0.4854 i|l}yy </s> 0.0000
-1.6433 i|l}yy h}_ -0.2665
-0.7622 i|l}yy s|(}_ -1.4426
-0.7608 i|l}yy s}_ -1.4426
-1.6467 i|l}yy y}ii -0.2665
-1.7721 i|m}in (}_ -0.2665
-1.6852 i|m}in </s> 0.0000
-0.5483 i|m}in b}bb -0.9277
-1.7943 i|m}in c}kk -0.2665
-1.7642 i|m}in l}ll -0.2665
-1.7786 i|m}in m}mm -0.5675
-0.3808 i|m}in p}pp -1.6595
-1.7943 i|m}in s|(}_ -0.2665
-1.7772 i|m}in s}_ -0.2665
-1.7750 i|m}in s}ss -0.2665
-1.1532 i|n}in (}_ -1.6155
-2.8042 i|n}in (}nn -0.5675
-2.0271 i|n}in -}_ -0.3756
-0.8785 i|n}in </s> 0.0000
-1.7007 i|n}in _}_ -0.8405
-2.7767 i|n}in _}nn -0.2665
-2.2255 i|n}in b}bb -0.3914
-1.8911 i|n}in c|h}ch -0.7436
-1.7079 i|n}in c}_ -0.6467
-2.8138 i|n}in c}gg -0.2665
-1.4642 i|n}in c}kk -1.7498
-1.3830 i|n}in c}ss -1.4831
-2.7398 i|n}in d}_ -0.2665
-1.2804 i|n}in d}dd -1.6661
-2.0308 i|n}in f}ff -1.6979
-1.7067 i|n}in g|u}gg -0.9449
-1.9024 i|n}in g}_ -1.5070
-1.3142 i|n}in g}gg -1.1074
-1.4243 i|n}in g}jj -0.9786
-2.2468 i|n}in j}jj -1.4706
-2.2230 i|n}in k}kk -0.2665
-2.0045 i|n}in l}ll -1.0681
-2.5932 i|n}in m}mm -0.4426
-2.5507 i|n}in n}nn -0.2665
-1.7037 i|n}in q|u}kk -1.3272
-2.8170 i|n}in q}_ -1.1116
-2.7621 i|n}in q}kk -1.1116
-2.5687 i|n}in r}rr -0.7436
-1.0936 i|n}in s|(}_ -1.8155
-1.0218 i|n}in s}_ -2.1032
-1.3109 i|n}in s}ss -1.7764
-2.2381 i|n}in s}zz -0.4426
-1.6987 i|n}in t}_ -1.5320
-1.1512 i|n}in t}tt -1.9245
-1.4649 i|n}in v}vv -1.5800
-2.7480 i|n}in x}kk|ss -0.2665
-2.6672 i|n}in z}zz -0.6089
-2.2814 i|n}in ç}ss -0.8686
-0.3665 i|r}oe s}ss -0.2665
-0.3724 i|s}zz e}oe -0.2665
-0.1422 i|z}ii </s> 0.0000
-1.5249 i}_ </s> 0.0000
-1.6651 i}_ a}aa -0.9655
-1.8417 i}_ a}au -0.2665
-1.7246 i}_ c}kk -0.2665
-1.2681 i}_ d}dd -0.3457
-1.8257 i}_ g|n}gn -0.7436
-1.7936 i}_ g}_ -0.2665
-1.6761 i}_ i}ii -0.2665
-1.7093 i}_ i}yy -0.2665
-1.2768 i}_ k}kk -0.4883
-1.8438 i}_ l|l}_ -0.2665
-1.8065 i}_ l|l}ll -0.7436
-1.2600 i}_ l}ll -0.2665
-1.6931 i}_ m}mm -1.0447
-1.8438 i}_ n}ii -0.2665
-1.2584 i}_ n}nn -0.7058
-1.0693 i}_ o}au -0.4883
-1.7108 i}_ o}oo -0.2665
-1.6747 i}_ r}rr -0.7436
-1.6413 i}_ t}tt -0.2665
-1.7845 i}_ u}ou -0.4426
-1.7757 i}_ w}ww -0.2665
-1.7453 i}_ y}ii -0.2665
-1.7469 i}_ z}zz -0.2665
-1.0466 i}ai k}kk -0.5675
-1.0732 i}ai l|l}yy -0.5675
-1.0356 i}ai n}nn -0.5675
-0.5329 i}ai t}tt -0.5675
-0.1482 i}dd|eu i}zz|ii -0.5675
-0.3659 i}ee r}rr -1.1696
-3.3693 i}ii '}_ -0.2665
-1.7586 i}ii (}_ -1.3299
-3.5283 i}ii (}aa|yy -0.2665
-2.1190 i}ii -}_ -0.8332
-3.5283 i}ii 2}|vv -0.2665
-1.3019 i}ii </s> 0.0000
-2.2630 i}ii _}_ -0.6740
-2.2816 i}ii _}tt -1.1959
-2.5617 i}ii a|n}an -0.4883
-2.7320 i}ii a}_ -1.0794
-1.9204 i}ii a}aa -0.8193
-2.6158 i}ii b}_ -0.9655
-1.6296 i}ii b}bb -1.7428
-2.7445 i}ii b}bb|ei -0.4426
-1.7162 i}ii c|h}ch -1.2283
-1.8694 i}ii c}_ -1.5278
-3.5004 i}ii c}ch -0.2665
-1.6433 i}ii c}kk -1.9842
-1.7820 i}ii c}ss -2.1775
-2.3378 i}ii c}ss|ei -0.5675
-2.1769 i}ii d}_ -0.7436
-1.5794 i}ii d}dd -1.6928
-2.4939 i}ii d}dd|ei -0.3457
-3.4261 i}ii d}tt -0.2665
-1.8856 i}ii e|(}_ -1.6282
-2.1338 i}ii e|n}_ -2.0658
-3.2283 i}ii e|n}an -0.5675
-1.7333 i}ii e|s}_ -2.3737
-1.5692 i}ii e}_ -2.0182
-2.2476 i}ii e}ai -0.4048
-2.8760 i}ii e}ee -1.0794
-3.1001 i}ii e}ei -0.8686
-3.3627 i}ii e}eu -0.2665
-2.9849 i}ii e}yy -0.9432
-2.2285 i}ii f|f}ff -1.2800
-3.3250 i}ii f}ai|ff -0.2665
-1.6717 i}ii f}ff -1.9577
-2.0314 i}ii g|n}gn -1.6215
-2.2228 i}ii g|u}gg -1.1435
-1.9402 i}ii g}_ -1.8147
-3.4915 i}ii g}dd -0.2665
-3.4742 i}ii g}dd|jj -0.2665
-1.6186 i}ii g}gg -1.5444
-1.8229 i}ii g}jj -1.7529
-2.7429 i}ii g}jj|ei -0.4126
-2.1613 i}ii h}_ -0.7002
-3.5095 i}ii h}yy -0.2665
-3.0127 i}ii i}ii -0.2665
-3.0860 i}ii i}yy -0.2665
-1.9892 i}ii j}jj -0.6840
-3.4658 i}ii k|k}kk -0.2665
-1.8169 i}ii k}kk -1.0916
-2.7756 i}ii l|h}yy -0.2665
-3.5004 i}ii l|l}_ -0.2665
-3.5283 i}ii l|l}kk -0.2665
-1.7542 i}ii l|l}ll -1.5393
-1.8527 i}ii l|l}yy -1.6644
-2.5101 i}ii l}_ -0.8463
-3.3627 i}ii l}ai|ll -0.2665
-1.5052 i}ii l}ll -1.7886
-2.2319 i}ii m|m}mm -1.3692
-3.3311 i}ii m}ai|mm -0.2665
-1.6154 i}ii m}mm -1.8513
-2.1397 i}ii n|n}nn -0.9716
-2.9556 i}ii n}ai|nn -0.3334
-1.9467 i}ii n}ii -2.0794
-3.5283 i}ii n}ii|gg -0.7436
-1.3672 i}ii n}nn -2.0193
-2.8760 i}ii o|u}ou -0.3914
-2.0818 i}ii o}au -0.8258
-2.4484 i}ii o}oo -0.4706
-2.4089 i}ii p|h}ff -0.7436
-2.2343 i}ii p|p}pp -1.0069
-2.7493 i}ii p}_ -0.5675
-1.7140 i}ii p}pp -1.4482
-2.4912 i}ii p}pp|ei -0.6925
-1.7860 i}ii q|u}kk -2.3814
-2.4140 i}ii q}kk -0.7784
-2.3478 i}ii r|r}rr -1.3540
-3.4915 i}ii r|z}rr -0.2665
-3.3250 i}ii r}ai|rr -0.2665
-1.4964 i}ii r}rr -1.7909
-1.6993 i}ii s|(}_ -1.8512
-2.1358 i}ii s|h}ch -0.6644
-1.5686 i}ii s}_ -2.4118
-2.9356 i}ii s}ai|ss -0.4126
-1.4612 i}ii s}ss -2.3179
-3.5095 i}ii s}tt -0.5675
-1.6443 i}ii s}zz -2.1890
-2.5028 i}ii t|h}ff -0.6925
-1.6715 i}ii t}_ -1.9957
-3.4742 i}ii t}dd -0.2665
-2.1366 i}ii t}ss -2.4747
-1.4176 i}ii t}tt -2.1334
-2.5985 i}ii t}tt|ei -0.3457
-2.9187 i}ii u}ou -0.5675
-2.4614 i}ii u}uu -0.3334
-1.6853 i}ii v}vv -1.9916
-2.6076 i}ii v}vv|ei -0.5675
-3.4495 i}ii w}dd|ou -0.2665
-3.3190 i}ii w}vv -0.2665
-2.3304 i}ii w}ww -0.6089
-2.3472 i}ii x}_ -1.3079
-3.4828 i}ii x}kk -0.2665
-2.0607 i}ii x}kk|ss -0.8686
-2.9904 i}ii x}ss -1.2665
-3.0074 i}ii x}zz -1.3079
-1.9631 i}ii y}yy -1.1218
-2.9932 i}ii z|z}zz -0.2665
-2.6193 i}ii z}dd -1.1696
-1.7488 i}ii z}zz -1.0305
-3.4112 i}ii ç}ss -0.5675
-3.5188 i}ii ù}ou -0.2665
-1.3749 i}ii|yy a|i}ai -1.1116
-1.3707 i}ii|yy a|n}an -1.1046
-1.8464 i}ii|yy a|u}au -0.2665
-1.3442 i}ii|yy a}aa -0.9825
-1.8511 i}ii|yy e|n}an -1.4126
-1.8910 i}ii|yy e|n}in -0.7436
-1.0106 i}ii|yy e|r}ei -1.4615
-1.8591 i}ii|yy e|u}eu -0.2665
-1.3857 i}ii|yy e|z}ei -1.0447
-1.1447 i}ii|yy e}ai -1.0794
-1.8044 i}ii|yy e}ei -0.2665
-1.8893 i}ii|yy l|l}ll -0.2665
-1.8928 i}ii|yy o|m}on -1.6467
-1.3728 i}ii|yy o|n}on -1.0198
-1.8386 i}ii|yy o|u}ou -0.2665
-1.3670 i}ii|yy o}au -0.4706
-1.3603 i}ii|yy o}oo -1.2539
-1.8981 i}ii|yy u}oo -0.5675
-1.8234 i}ii|yy u}uu -0.2665
-1.3808 i}ii|yy è}ai -1.4521
-1.8559 i}ii|yy é}ai -1.4706
-1.3723 i}ii|yy é}ei -1.3310
-1.3689 i}oe o}_ -0.2665
-0.0737 i}oe r}rr -0.7224
-0.3748 i}pp|rr e}ee|mm -0.2665
-1.6550 i}ww|aa (}_ -0.7436
-1.7134 i}ww|aa -}_ -0.6187
-1.4768 i}ww|aa </s> 0.0000
-1.6948 i}ww|aa b}bb -0.2665
-1.7172 i}ww|aa c}ss -0.3914
-1.7967 i}ww|aa d}_ -0.7894
-1.6616 i}ww|aa d}dd -0.6345
-1.8326 i}ww|aa d}tt -0.2665
-1.7387 i}ww|aa e|(}_ -0.5675
-1.7944 i}ww|aa e|n}_ -1.4706
-1.7572 i}ww|aa e|n}an -0.5675
-1.7469 i}ww|aa e|s}_ -1.0447
-1.6770 i}ww|aa e}_ -1.3634
-1.8179 i}ww|aa f|f}ff -0.7436
-1.7269 i}ww|aa f}ff -0.2665
-1.8326 i}ww|aa g|n}gn -1.1511
-1.6371 i}ww|aa l}ll -0.8863
-1.6701 i}ww|aa m}mm -0.2665
-1.6324 i}ww|aa n}nn -0.9896
-1.7636 i}ww|aa q|u}kk -0.3634
-1.6484 i}ww|aa r}rr -1.6917
-1.7077 i}ww|aa s|(}_ -1.2110
-1.6667 i}ww|aa s}_ -1.7625
-1.6616 i}ww|aa s}ss -1.3457
-1.7230 i}ww|aa s}zz -1.5070
-1.7230 i}ww|aa t}_ -1.2577
-1.6094 i}ww|aa t}tt -1.1053
-1.7172 i}ww|aa v}vv -0.8686
-1.8326 i}ww|aa x}_ -1.1873
-1.8478 i}ww|aa x}ss -1.9000
-1.7348 i}ww|aa z}zz -0.2665
-3.0213 i}yy '}_ -0.2665
-2.7459 i}yy (}_ -0.2665
-1.9945 i}yy </s> 0.0000
-2.5166 i}yy _}_ -0.5675
-1.6916 i}yy a|i}ai -1.6493
-1.4648 i}yy a|n}an -1.6253
-1.7735 i}yy a|u}au -1.3529
-2.9800 i}yy a|u}oo -1.0447
-3.1237 i}yy a|z}aa -0.2665
-2.3465 i}yy a}_ -0.2665
-1.1802 i}yy a}aa -1.7669
-3.1059 i}yy a}oe -0.2665
-2.8458 i}yy c}ss -0.7436
-2.2824 i}yy d}dd -0.7436
-2.8826 i}yy e|(}_ -0.2665
-3.1177 i}yy e|n}ai -1.1696
-1.7743 i}yy e|n}an -1.8022
-1.3537 i}yy e|n}in -1.9477
-3.1177 i}yy e|r}ai -0.2665
-1.2738 i}yy e|r}ei -2.3488
-1.8283 i}yy e|u}ee -1.3599
-1.4057 i}yy e|u}eu -1.8474
-1.8234 i}yy e|u}oe -1.5360
-2.5866 i}yy e|z}ai -0.5675
-1.5153 i}yy e|z}ei -1.9293
-1.8604 i}yy e}_ -1.2326
-2.5626 i}yy e}aa -1.2665
-1.2569 i}yy e}ai -1.8838
-2.3218 i}yy e}ee -0.6925
-1.2441 i}yy e}ei -1.3899
-3.0165 i}yy e}eu -0.2665
-3.0511 i}yy e}ii -0.2665
-3.0831 i}yy e}yy -0.5675
-2.9889 i}yy f}ai|ff -0.2665
-2.8621 i}yy f}ff -0.2665
-2.3455 i}yy g}_ -1.0198
-1.8681 i}yy h}_ -0.7716
-2.5831 i}yy h}aa|ch -0.5675
-1.9791 i}yy i}ii -0.3457
-2.8002 i}yy k}kk -0.5675
-1.6661 i}yy l|l}_ -1.8471
-2.3537 i}yy l}ai|ll -0.7436
-2.1481 i}yy l}ll -0.4048
-2.9933 i}yy m}ai|mm -0.2665
-2.4643 i}yy m}mm -0.6519
-2.5727 i}yy n}ai|nn -0.2665
-2.1462 i}yy n}nn -0.5675
-3.0213 i}yy o|m}on -0.2665
-1.3024 i}yy o|n}on -2.6938
-1.5924 i}yy o|u}ou -0.6389
-3.0118 i}yy o|u}ww -0.2665
-1.3326 i}yy o}au -1.2106
-1.3002 i}yy o}oo -1.9324
-3.1299 i}yy p}bb|tt -0.2665
-2.4890 i}yy p}pp -0.4426
-2.2058 i}yy r}ai|rr -0.8686
-2.3475 i}yy s}ai|ss -0.7436
-2.5048 i}yy s}zz -0.3914
-3.0460 i}yy t|h}ff -0.2665
-2.0442 i}yy t}tt -0.4774
-2.5659 i}yy u}oe -0.5675
-1.6993 i}yy u}oo -1.9386
-2.5478 i}yy u}ou -0.4426
-1.7695 i}yy u}uu -0.8308
-2.8458 i}yy v}vv -0.4426
-2.8722 i}yy y}ii -0.2665
-3.0118 i}yy â}aa -1.1116
-1.3517 i}yy è}ai -2.0518
-1.5657 i}yy é}ai -1.7137
-1.4234 i}yy é}ei -1.6883
-3.0213 i}yy ê}ai -0.7436
-3.1001 i}yy ë}ai -0.2665
-0.3550 i}zz|ii </s> 0.0000
-1.5728 j}dd|jj (}ii -0.2665
-1.5547 j}dd|jj a|y}ei -0.2665
-0.8001 j}dd|jj a}aa -0.4426
-1.5498 j}dd|jj a}ai -0.2665
-1.5596 j}dd|jj e|a}ii -0.8686
