			
\data\			
ngram 1=154			
ngram 2=1585			
ngram 3=5548			
			
\1-grams:			
-4.834512	'|s}s	-0.5511659
-0.9563157	</s>	0.0000
-99	<s>	-2.308181
-5.311633	]}a	-0.2651649
-4.081184	_|a}a	-0.5222806
-4.533482	_|b}b	-1.093723
-4.533482	_|c}k	-0.4250599
-4.165505	_|c}z	-1.17564
-4.466535	_|d}d	-0.9026384
-4.466535	_|e}e	-0.3033449
-5.010603	_|f}f	-0.2651531
-5.010603	_|g}j	-0.4699149
-4.612663	_|i}i	-0.3708825
-4.834512	_|k}k	-0.6020473
-5.311633	_|n}n	-0.3160463
-4.311633	_|o}o	-0.4582492
-4.19769	_|p}p	-1.429515
-4.533482	_|t}t	-1.093723
-4.834512	_|u}u	-0.3612203
-4.834512	_|v}b	-0.6016084
-5.311633	_|y}i	-0.2651649
-5.311633	_|z}z	-0.3156074
-4.533482	_}a	-0.6622431
-5.010603	_}b|l	-0.4699149
-5.311633	_}d|o	-0.3160548
-2.983253	_}e	-0.4627317
-5.311633	_}e|k	-0.3160569
-5.311633	_}e|z	-0.2747157
-4.834512	_}j|o	-0.6020536
-5.010603	_}t|a	-0.2951571
-5.311633	_}t|e	-0.3160569
-4.35739	a|h}a	-0.6414918
-4.834512	a|q}a	-0.3321858
-0.9484726	a}a	-1.637803
-2.487507	a}a|	-2.773882
-1.851337	b}b	-1.013515
-2.675145	c|h}ch	-1.508479
-1.526873	c}k	-2.275136
-4.709573	c}k|	-0.3532518
-4.709573	c}s	-0.2360687
-4.834512	c}s|z	-0.5688856
-1.813874	c}z	-3.062284
-5.311633	d|h}d	-0.2651649
-5.311633	d|z}z	-0.2828845
-1.390571	d}d	-1.553683
-4.612663	d}d|	-0.7272572
-4.834512	e|h}e	-0.234274
-1.041887	e}e	-1.075297
-3.014968	e}e|	-2.247959
-5.311633	e}i|s	-0.3156074
-2.023831	f}f	-1.690976
-4.408543	g|h}g	-0.345492
-3.14728	g|u}g	-2.399156
-5.311633	g|ü}g	-0.2747157
-2.03288	g}g	-1.807626
-2.49672	g}j	-2.535365
-2.944277	h|a}a	-0.8316343
-3.211262	h|e}e	-0.444272
-3.194362	h|i}i	-0.3808994
-3.184528	h|o}o	-0.8686306
-5.311633	h|r}r	-0.3146284
-3.329362	h|u}u	-0.2806891
-4.834512	h|y}i	-0.5511659
-5.311633	h|y}y	-0.3061936
-4.834512	h|á}a	-0.4023598
-4.709573	h|é}e	-0.3416426
-4.533482	h|í}i	-0.3874411
-5.010603	h|ú}u	-0.2758958
-4.834512	h}a|ch	-0.6016084
-4.834512	h}ch|e	-0.5511659
-5.311633	i|q}i	-0.2651649
-1.133462	i}i	-1.220611
-5.010603	i}i|	-0.4194725
-5.311633	j|ü}j	-0.2878854
-2.382214	j}j	-1.54454
-4.834512	j}t|a	-0.5511659
-5.311633	j}y	-0.2641798
-4.612663	k|h}k	-0.6255502
-2.953698	k}k	-0.8243459
-2.614404	l|l}ll	-1.388569
-1.515059	l}l	-1.078123
-3.767565	l}l|	-1.505408
-5.010603	m|h}m	-0.2519303
-1.573566	m}m	-2.109272
-4.612663	m}m|	-0.7272572
-5.010603	n|h}n	-0.4194725
-1.210161	n}n	-1.844895
-2.269451	n}n|	-2.991682
-5.010603	o|'}o	-0.2975055
-4.533482	o|h}o	-0.5161756
-5.311633	o|q}o	-0.2651649
-5.311633	o|ã}o	-0.3151808
-1.151134	o}o	-1.549586
-2.694633	o}o|	-2.567154
-4.709573	p|h}p	-0.8360346
-1.636313	p}p	-2.064326
-4.834512	q|a}a	-0.3852573
-5.010603	q|i}i	-0.2637593
-2.650768	q|u}k	-1.956506
-4.834512	q}k	-0.5921946
-5.010603	q}k|u	-0.4194725
-2.598983	r|r}rr	-2.085029
-1.201953	r}r	-1.615285
-2.112152	r}rr	-2.489614
-3.743431	r}r|	-1.52889
-3.89666	s|c}z	-1.5055
-4.533482	s|h}s	-1.042773
-1.232923	s}s	-1.589049
-2.478486	s}s|	-2.78289
-4.408543	s}z	-0.2658154
-4.35739	t|h}t	-1.21476
-5.311633	t}d|o	-0.3160548
-1.328052	t}t	-2.041647
-4.834512	t}t|	-0.5511659
-5.010603	u|h}u	-0.241595
-1.648592	u}u	-1.548255
-5.010603	u}u|	-0.4194725
-1.933417	v}b	-1.945924
-3.307312	w}u	-0.7555981
-5.311633	x|_}k	-0.3160569
-5.311633	x}i|s	-0.2651649
-4.27024	x}j	-0.9669664
-2.685293	x}x	-0.9874656
-4.709573	x}x|	-0.3532518
-3.06612	y}i	-1.056685
-5.311633	y}i|	-0.2651649
-2.802431	y}y	-1.989095
-5.311633	z|_}e	-0.3025866
-5.311633	z|h}z	-0.28843
-5.311633	z|z}s	-0.2651649
-4.107513	z}s	-0.4925992
-4.834512	z}s|	-0.5511659
-5.311633	z}t	-0.3160251
-2.323074	z}z	-1.098692
-3.66818	z}z|	-1.602319
-4.35739	Á}a	-0.3264643
-4.408543	É}e	-1.192895
-5.010603	Í}i	-0.4427376
-5.311633	Ó}o	-0.2898842
-4.834512	Ú}u	-0.3706211
-2.482973	á}a	-1.244449
-2.852241	á}a|	-2.410004
-2.794437	é}e	-0.4519206
-3.505453	é}e|	-1.762019
-5.311633	ë}e	-0.28843
-2.359325	í}i	-1.102783
-3.630392	í}i|	-1.639302
-2.853751	ñ}gn	-1.618569
-5.311633	ñ}gn|	-0.2651649
-2.33943	ó}o	-2.058449
-2.488811	ó}o|	-2.77258
-3.236086	ú}u	-0.5854536
-4.27024	ú}u|	-1.028287
-4.232452	ü}u	-1.015733
			
\2-grams:			
-0.1249387	'|s}s </s>	0.0000
-4.641821	<s> ]}a	0.0000
-3.401075	<s> _|a}a	-0.03601753
-3.878196	<s> _|b}b	0.2818857
-4.233796	<s> _|c}k	-0.2708646
-3.241374	<s> _|c}z	0.02996325
-3.656348	<s> _|d}d	0.2019217
-3.759394	<s> _|e}e	-0.02074721
-4.641821	<s> _|f}f	0.0000
-4.233796	<s> _|g}j	-0.025094
-3.878196	<s> _|i}i	0.0000
-4.641821	<s> _|k}k	0.0000
-3.759394	<s> _|o}o	-0.02589685
-3.401075	<s> _|p}p	0.1139433
-3.878196	<s> _|t}t	0.2818857
-3.878196	<s> _|u}u	-0.009957552
-3.878196	<s> _|v}b	0.1057945
-4.641821	<s> _|y}i	0.0000
-4.641821	<s> _}a	0.0000
-4.641821	<s> _}d|o	0.0000
-3.124868	<s> _}e	-0.5539332
-4.641821	<s> _}e|k	0.0000
-4.641821	<s> _}e|z	0.0000
-4.641821	<s> _}j|o	0.0000
-4.641821	<s> _}t|e	0.0000
-3.878196	<s> a|h}a	0.0000
-0.9682837	<s> a}a	-1.403594
-1.553228	<s> b}b	-0.9788738
-2.321894	<s> c|h}ch	-0.4893142
-0.9780111	<s> c}k	-2.164375
-1.912838	<s> c}z	-0.2473147
-1.11402	<s> d}d	-1.110098
-4.641821	<s> e|h}e	0.0000
-1.120041	<s> e}e	-1.548786
-1.494979	<s> f}f	-0.6261835
-2.940344	<s> g|u}g	-0.04711115
-1.796609	<s> g}g	-1.007973
-2.355317	<s> g}j	-0.7840148
-2.15392	<s> h|a}a	-0.2518551
-2.510219	<s> h|e}e	-0.09907687
-2.529243	<s> h|i}i	-0.413026
-2.38219	<s> h|o}o	-0.1624668
-2.504059	<s> h|u}u	-0.2913511
-4.641821	<s> h|y}y	0.0000
-3.878196	<s> h|á}a	-0.009957552
-3.878196	<s> h|é}e	-0.08812284
-4.641821	<s> h|í}i	0.0000
-4.233796	<s> h|ú}u	0.0000
-1.288619	<s> i}i	-1.588312
-4.641821	<s> j|ü}j	0.0000
-1.971502	<s> j}j	-0.2356803
-4.641821	<s> j}y	0.0000
-4.233796	<s> k|h}k	-0.09752053
-2.480256	<s> k}k	-0.4679613
-2.364091	<s> l|l}ll	-1.096601
-1.613378	<s> l}l	-1.440876
-4.641821	<s> m|h}m	0.0000
-1.265412	<s> m}m	-1.402751
-1.747862	<s> n}n	-1.738497
-4.233796	<s> o|'}o	0.0000
-4.641821	<s> o|h}o	0.0000
-1.634332	<s> o}o	-0.9625064
-4.641821	<s> p|h}p	0.0000
-1.02592	<s> p}p	-1.154661
-3.878196	<s> q|a}a	-0.009957552
-4.233796	<s> q|i}i	0.0000
-2.224984	<s> q|u}k	0.2152498
-4.641821	<s> q}k	0.0000
-4.641821	<s> q}k|u	0.0000
-1.161081	<s> r}rr	-0.1946816
-1.19365	<s> s}s	-1.771835
-1.399149	<s> t}t	-0.5453917
-4.641821	<s> u|h}u	0.0000
-2.151197	<s> u}u	-0.9801602
-1.524729	<s> v}b	-0.649979
-2.683219	<s> w}u	-0.4176058
-3.759394	<s> x}x	-0.1275369
-3.878196	<s> y}i	-0.2592389
-2.753258	<s> y}y	-0.268786
-2.674076	<s> z}z	-0.1826191
-3.401075	<s> Á}a	-0.1579443
-3.452227	<s> É}e	0
-4.233796	<s> Í}i	-0.025094
-4.641821	<s> Ó}o	0.0000
-3.878196	<s> Ú}u	-0.009957552
-3.124868	<s> á}a	-0.4771811
-2.940344	<s> é}e	-0.4271844
-3.452227	<s> í}i	-0.8827481
-4.641821	<s> ñ}gn	0.0000
-3.452227	<s> ó}o	-0.2935003
-3.209189	<s> ú}u	-0.4987722
-0.2865037	]}a </s>	0.0000
-0.3853509	_|a}a </s>	0.0000
-1.516953	_|a}a _|b}b	0.0000
-1.516953	_|a}a _|c}k	0.0000
-1.516953	_|a}a _|d}d	0.0000
-1.516953	_|a}a _|f}f	0.0000
-1.516953	_|a}a _|i}i	0.0000
-1.108927	_|a}a _|k}k	0.1065995
-1.516953	_|a}a _|p}p	0.0000
-1.516953	_|a}a _|z}z	0.0000
-1.516953	_|a}a _}a	0.0000
-1.064655	_|b}b _|a}a	0.0000
-0.07918125	_|b}b _}e	-0.06244934
-0.6566297	_|c}k _|a}a	0.0000
-0.3938515	_|c}k _|o}o	0.0000
-0.02996322	_|c}z _}e	-0.1247111
-0.05799195	_|d}d _}e	-0.0743634
-1.131602	_|e}e </s>	0.0000
-1.131602	_|e}e _|a}a	0.0000
-1.131602	_|e}e _|c}k	0.0000
-1.131602	_|e}e _|p}p	0.0000
-0.7235765	_|e}e _|t}t	0.0000
-1.131602	_|e}e _}e	0.0000
-0.5875337	_|f}f </s>	0.0000
-0.5875337	_|f}f _|i}i	0.0000
-0.1795084	_|g}j _}e	0.0000
-0.5774484	_|i}i _|b}b	0.0000
-0.9854738	_|i}i _|p}p	0.0000
-0.9854738	_|i}i _|t}t	0.0000
-0.9854738	_|i}i _}e	0.0000
-0.1249387	_|k}k _}a	-0.1543425
-0.2865037	_|n}n _|c}k	0.0000
-0.8784785	_|o}o </s>	0.0000
-1.286504	_|o}o _|c}k	0.0000
-1.286504	_|o}o _|c}z	0.0000
-1.286504	_|o}o _|e}e	0.0000
-1.286504	_|o}o _|n}n	0.0000
-1.286504	_|o}o _|p}p	0.0000
-0.5228788	_|o}o _}e	-0.2351659
-1.400447	_|p}p _|a}a	0.0000
-0.03476211	_|p}p _}e	-0.04297596
-1.064655	_|t}t _|a}a	0.0000
-0.07918125	_|t}t _}e	-0.06244934
-0.763625	_|u}u </s>	0.0000
-0.3555997	_|u}u _}e	0.0000
-0.1249387	_|v}b _}e	-0.2458898
-0.2865037	_|y}i </s>	0.0000
-0.2865037	_|z}z _}e	0.0000
-0.6566297	_}a </s>	0.0000
-1.064655	_}a _}e	0.0000
-0.30103	_}a h}ch|e	0.1057945
-0.1795084	_}b|l _}e	-0.4927548
-0.2865037	_}d|o _}b|l	0.0000
-0.5801916	_}e </s>	0.0000
-0.7969007	_}e _}e	-0.7649476
-2.206858	_}e _}j|o	0.1065995
-2.614883	_}e _}t|a	0.0000
-1.62941	_}e a}a	-0.6307068
-1.62941	_}e b}b	-0.7004153
-1.374137	_}e c}z	-0.9987558
-1.732456	_}e d}d	-0.6409934
-2.206858	_}e e}e	-0.4498327
-1.94408	_}e f}f	-2.477189
-1.94408	_}e g}j	-2.476117
-1.851258	_}e h}a|ch	0.1057945
-1.42529	_}e i}i	-0.295368
-1.94408	_}e l}l	-2.477385
-1.214436	_}e m}m	-1.145095
-1.152288	_}e n}n	-1.203604
-1.732456	_}e p}p	-0.640837
-2.614883	_}e q}k|u	0.0000
-1.249198	_}e r}r	-1.113538
-1.32838	_}e s}s	-1.04103
-1.483282	_}e t}t	-0.902729
-2.614883	_}e u}u	0.0000
-2.206858	_}e v}b	-0.49522
-2.206858	_}e w}u	0.0000
-2.614883	_}e x|_}k	0.0000
-0.2865037	_}e|k x}i|s	0.0000
-0.2865037	_}e|z e}e	0.0000
-0.1249387	_}j|o j}t|a	0.1057945
-0.5875337	_}t|a t}t	0.0000
-0.5875337	_}t|a z|_}e	0.0000
-0.2865037	_}t|e t}d|o	0.0000
-0.2552725	a|h}a </s>	0.0000
-1.240746	a|h}a m}m	0.0000
-0.8327209	a|h}a r}r	0.0000
-1.240746	a|h}a í}i|	0.0000
-0.3555997	a|q}a </s>	0.0000
-0.763625	a|q}a s}s	0.0000
-0.8245868	a}a </s>	0.0000
-3.408918	a}a a}a	-0.1363598
-1.496873	a}a b}b	-0.3624891
-2.806858	a}a c|h}ch	0.261252
-1.639705	a}a c}k	-0.3145943
-4.649664	a}a c}k|	0.0000
-4.241639	a}a c}s	0.0000
-1.513127	a}a c}z	-0.2784235
-4.649664	a}a d|z}z	0.0000
-0.9359992	a}a d}d	-0.1362898
-4.649664	a}a d}d|	0.0000
-2.543617	a}a e}e	-0.4442157
-2.181317	a}a f}f	0.508052
-4.649664	a}a g|h}g	0.0000
-3.249217	a}a g|u}g	0.4490415
-4.649664	a}a g|ü}g	0.0000
-1.928592	a}a g}g	-0.07709479
-2.599733	a}a g}j	-0.3136925
-3.363161	a}a h|a}a	-0.3326858
-3.664191	a}a h|e}e	-0.1221415
-3.886039	a}a h|i}i	-0.2280296
-3.06213	a}a h|o}o	-0.228302
-3.408918	a}a h|u}u	-0.3092072
-4.649664	a}a h|í}i	0.0000
-2.358839	a}a i}i	-0.5308768
-2.145677	a}a j}j	0.09163606
-4.649664	a}a k|h}k	0.0000
-2.886039	a}a k}k	-0.08742523
-2.390033	a}a l|l}ll	0.080522
-1.147259	a}a l}l	-0.05712128
-4.241639	a}a l}l|	1.060842
-1.345293	a}a m}m	-0.2930467
-4.649664	a}a n|h}n	0.0000
-0.8920156	a}a n}n	-0.7957512
-2.259357	a}a n}n|	0.9353657
-3.06213	a}a o}o	-0.1913828
-1.768768	a}a p}p	-5.531311e-05
-2.622798	a}a q|u}k	0.3486081
-4.649664	a}a q}k	0.0000
-2.089003	a}a r|r}rr	0.08938706
-0.8169882	a}a r}r	-0.5436004
-3.15904	a}a r}r|	0.3493346
-3.767237	a}a s|c}z	0.1503164
-4.241639	a}a s|h}s	0.0000
-1.072458	a}a s}s	-0.2153633
-2.026701	a}a s}s|	0.4953279
-4.241639	a}a s}z	-0.4169595
-4.649664	a}a t|h}t	0.0000
-1.44513	a}a t}t	-0.07094121
-4.649664	a}a u|h}u	0.0000
-1.958327	a}a u}u	-1.068628
-2.034781	a}a v}b	0.02116835
-3.518063	a}a w}u	0.009333372
-4.649664	a}a x}j	0.0000
-3.15904	a}a x}x	-0.4675655
-4.241639	a}a x}x|	-0.0913147
-3.001433	a}a y}i	0.08775693
-2.376389	a}a y}y	0.1803346
-4.649664	a}a z|z}s	0.0000
-3.886039	a}a z}s	0.03851444
-4.649664	a}a z}t	0.0000
-2.132712	a}a z}z	-0.09401858
-4.649664	a}a z}z|	0.0000
-3.664191	a}a é}e	-0.6105987
-2.982949	a}a í}i	-0.2493046
-2.280375	a}a ñ}gn	0.3203199
-4.649664	a}a ó}o	0.0000
-3.518063	a}a ú}u	-0.0827992
-0.0006506286	a}a| </s>	0.0000
-2.256176	b}b </s>	0.0000
-2.761326	b}b _}e	-0.005495951
-3.7468	b}b a|h}a	0.0000
-0.5709946	b}b a}a	-0.5152386
-3.075997	b}b a}a|	0.3470447
-3.075997	b}b b}b	-0.0447959
-2.761326	b}b c}k	-0.05974747
-3.338775	b}b c}z	-0.3740963
-2.460296	b}b d}d	-0.01411459
-0.9470787	b}b e}e	-0.664807
-3.338775	b}b e}e|	1.803393
-3.7468	b}b f}f	0.0000
-3.7468	b}b h|u}u	0.0000
-0.8805127	b}b i}i	-0.6237089
-2.506054	b}b j}j	-0.8848287
-3.7468	b}b k}k	0.0000
-0.9052019	b}b l}l	-1.260474
-2.761326	b}b m}m	-0.5907432
-3.7468	b}b n}n	0.0000
-1.033785	b}b o}o	-0.2853251
-3.075997	b}b p}p	-2.365418
-0.9039938	b}b r}r	-1.443819
-3.338775	b}b s|c}z	0.07441476
-1.627787	b}b s}s	-1.08222
-2.314168	b}b t}t	-0.8002404
-1.207443	b}b u}u	-0.5949984
-2.418904	b}b v}b	-2.552943
-3.7468	b}b w}u	0.0000
-3.075997	b}b y}i	-1.865687
-3.338775	b}b y}y	0.0000
-2.314168	b}b á}a	-0.2379721
-2.506054	b}b é}e	-0.1292487
-3.7468	b}b é}e|	0.0000
-2.284205	b}b í}i	-0.3294569
-3.7468	b}b í}i|	0.0000
-2.506054	b}b ó}o	-0.3420767
-2.460296	b}b ó}o|	1.782081
-2.864373	b}b ú}u	0.0000
-3.338775	b}b ú}u|	0.5837207
-1.595095	c|h}ch </s>	0.0000
-0.4350908	c|h}ch a}a	-0.3482048
-0.7333979	c|h}ch e}e	-0.284067
-0.8511581	c|h}ch i}i	-0.3354755
-2.922992	c|h}ch l}l	0.0000
-0.7614266	c|h}ch o}o	-0.3684763
-2.252188	c|h}ch r}r	-0.2577979
-2.159367	c|h}ch t}t	-0.2579817
-1.357734	c|h}ch u}u	-0.1288638
-2.922992	c|h}ch w}u	0.0000
-2.922992	c|h}ch á}a	0.0000
-2.514966	c|h}ch é}e|	1.317453
-1.937518	c|h}ch í}i	-0.6615627
-2.514966	c|h}ch ó}o	0.05349639
-1.733398	c|h}ch ó}o|	1.869232
-2.922992	c|h}ch ú}u	0.0000
-2.1827	c}k </s>	0.0000
-0.518999	c}k a}a	-0.7612113
-1.635541	c}k a}a|	0.672488
-3.40046	c}k c}k	0.0000
-1.701975	c}k c}z	-0.6220248
-3.307639	c}k d}d	-0.1018761
-4.071264	c}k g}j	0.0000
-4.071264	c}k h|o}o	0.0000
-2.38682	c}k k}k	-0.3751
-1.440368	c}k l}l	-1.289951
-4.071264	c}k m}m	0.0000
-2.705579	c}k n}n	-1.026286
-4.071264	c}k o|h}o	0.0000
-0.4929472	c}k o}o	-0.06389976
-1.629424	c}k o}o|	0.4596858
-4.071264	c}k q|u}k	0.0000
-4.071264	c}k q}k	0.0000
-1.274215	c}k r}r	-1.49446
-3.663238	c}k s}s	0.0000
-1.156371	c}k t}t	-0.8216462
-0.9440266	c}k u}u	-1.063169
-4.071264	c}k v}b	0.0000
-3.40046	c}k y}i	0.3015476
-4.071264	c}k z}z	0.0000
-2.122002	c}k á}a	-0.3508809
-4.071264	c}k á}a|	0.0000
-2.353396	c}k ó}o	0.1635813
-2.171976	c}k ó}o|	1.200225
-2.88167	c}k ú}u	-0.1331283
-4.071264	c}k ú}u|	0.0000
-0.2177602	c}k| </s>	0.0000
-0.8885638	c}s e}e	0.0000
-0.8885638	c}s i}i	0.0000
-0.8885638	c}s á}a	0.0000
-0.8885638	c}s ú}u	0.0000
-0.1249387	c}s|z i}i	-0.4659564
-2.543516	c}z _}e	-0.1812084
-0.6129634	c}z e}e	-0.9644187
-3.113459	c}z e}e|	-0.1788785
-0.1415416	c}z i}i	-1.147287
-2.155336	c}z é}e	-0.006049007
-3.376237	c}z é}e|	1.317453
-1.678215	c}z í}i	-0.5413585
-2.798789	c}z í}i|	0.9890277
-0.2865037	d|h}d </s>	0.0000
-0.2865037	d|z}z i}i	0.0000
-4.207566	d}d '|s}s	0.0000
-1.478582	d}d </s>	0.0000
-3.325139	d}d _}e	-0.1052722
-4.207566	d}d a|q}a	0.0000
-0.675056	d}d a}a	-0.6636947
-2.578639	d}d a}a|	1.463049
-3.79954	d}d b}b	0.0000
-3.536762	d}d c}k	-0.07053617
-4.207566	d}d d|h}d	0.0000
-3.325139	d}d d}d	-0.04423208
-0.6674816	d}d e}e	-0.9327112
-3.443941	d}d e}e|	1.802588
-4.207566	d}d f}f	0.0000
-4.207566	d}d g}g	0.0000
-3.79954	d}d g}j	-0.2804304
-3.79954	d}d h|a}a	0.0000
-3.536762	d}d h|e}e	-0.1132161
-0.8418806	d}d i}i	-0.3576933
-2.966819	d}d j}j	-0.21996
-4.207566	d}d k}k	0.0000
-4.207566	d}d l}l	0.0000
-2.402548	d}d m}m	-1.328637
-3.222092	d}d n}n	-0.1926551
-0.509779	d}d o}o	-1.107845
-2.239821	d}d o}o|	0.9278522
-3.017972	d}d q|u}k	-0.6947776
-1.771843	d}d r}r	-1.15582
-2.841881	d}d s}s	-0.1344502
-3.443941	d}d t}t	-0.4917317
-1.530127	d}d u}u	-0.5803063
-2.716942	d}d v}b	-0.8422025
-3.443941	d}d w}u	-0.1032922
-3.075964	d}d y}i	0.1418286
-4.207566	d}d y}y	0.0000
-4.207566	d}d z}z	0.0000
-2.665789	d}d á}a	-0.03098223
-4.207566	d}d á}a|	0.0000
-2.540851	d}d é}e	-0.3475592
-3.443941	d}d é}e|	1.316648
-2.205059	d}d í}i	-0.5365075
-3.536762	d}d í}i|	-0.7875357
-2.879669	d}d ó}o	0.282805
-2.578639	d}d ó}o|	1.461746
-3.79954	d}d ú}u	0.0000
-0.07918125	d}d| </s>	0.0000
-0.763625	e|h}e </s>	0.0000
-0.763625	e|h}e b}b	0.0000
-0.763625	e|h}e t}t	0.0000
-1.001168	e}e </s>	0.0000
-4.55625	e}e _}t|a	0.0000
-1.714652	e}e a}a	-0.4610236
-3.190565	e}e a}a|	1.710833
-2.142642	e}e b}b	-0.2628589
-2.340328	e}e c|h}ch	-0.4360843
-1.493045	e}e c}k	-0.6008707
-4.55625	e}e c}k|	0.0000
-4.55625	e}e c}s	0.0000
-1.619439	e}e c}z	-0.506145
-1.61557	e}e d}d	-0.02702188
-2.484416	e}e e}e	-0.4448555
-1.947527	e}e f}f	-0.1268014
-4.55625	e}e g|h}g	0.0000
-2.626294	e}e g|u}g	0.2187725
-1.721972	e}e g}g	-0.5227968
-2.310705	e}e g}j	-0.2280562
-3.570776	e}e h|a}a	-0.2589212
-3.366656	e}e h|e}e	-0.3906953
-3.792625	e}e h|i}i	0.0000
-4.55625	e}e h|o}o	0.0000
-3.570776	e}e h|u}u	-0.2099183
-4.55625	e}e h|é}e	0.0000
-4.148225	e}e h|í}i	-0.3872875
-2.224423	e}e i}i	-0.5027177
-1.957993	e}e j}j	0.1553631
-3.315504	e}e k}k	-0.1538613
-2.406424	e}e l|l}ll	0.206185
-1.40405	e}e l}l	-0.0001481771
-3.885447	e}e l}l|	-0.9214293
-1.448888	e}e m}m	-0.532691
-4.55625	e}e m}m|	0.0000
-4.55625	e}e n|h}n	0.0000
-0.7217257	e}e n}n	-0.2571282
-3.366656	e}e n}n|	2.088333
-2.087903	e}e o}o	-0.5263917
-3.269746	e}e o}o|	1.576656
-4.55625	e}e p|h}p	0.0000
-1.731927	e}e p}p	0.1015553
-2.521558	e}e q|u}k	-0.168702
-2.065626	e}e r|r}rr	0.02349627
-0.8465005	e}e r}r	-0.1772416
-3.190565	e}e r}r|	0.4658402
-3.065626	e}e s|c}z	-0.3286688
-4.55625	e}e s|h}s	0.0000
-0.7491319	e}e s}s	-0.4960077
-2.372119	e}e s}s|	0.9306943
-3.885447	e}e s}z	-0.102103
-4.148225	e}e t|h}t	0.458782
-1.504078	e}e t}t	-0.03028584
-2.506318	e}e u}u	-0.8924026
-1.731927	e}e v}b	-0.06100702
-3.673823	e}e w}u	-0.1449604
-3.673823	e}e x}j	0.09916389
-1.728167	e}e x}x	-0.0007811785
-4.55625	e}e x}x|	0.0000
-2.713444	e}e y}i	-0.03815418
-4.55625	e}e y}i|	0.0000
-3.014474	e}e y}y	-0.9609296
-4.55625	e}e z}s	0.0000
-3.792625	e}e z}s|	0.1057945
-2.190565	e}e z}z	-0.2063992
-2.725678	e}e z}z|	0.09691012
-4.148225	e}e á}a	0.0000
-4.55625	e}e á}a|	0.0000
-4.148225	e}e é}e|	1.317453
-2.990993	e}e í}i	0.05776778
-4.55625	e}e í}i|	0.0000
-2.183387	e}e ñ}gn	-0.56942
-4.55625	e}e ñ}gn|	0.0000
-3.190565	e}e ó}o	0.07183567
-3.315504	e}e ó}o|	1.823474
-3.673823	e}e ú}u	-0.4112722
-0.002187886	e}e| </s>	0.0000
-0.2865037	e}i|s _}e	0.0000
-2.111711	f}f </s>	0.0000
-2.903502	f}f _}e	-0.1780167
-3.574306	f}f a|h}a	0.0000
-0.9241897	f}f a}a	-0.3680445
-3.574306	f}f c}k	0.0000
-0.8150453	f}f e}e	-0.9744957
-3.574306	f}f e}e|	0.0000
-2.032529	f}f f}f	-0.02185684
-2.81068	f}f g}g	-0.07225242
-3.574306	f}f g}j	0.0000
-3.574306	f}f i|q}i	0.0000
-0.5288898	f}f i}i	-1.222547
-3.574306	f}f k}k	0.0000
-1.363522	f}f l}l	-1.03404
-2.81068	f}f m}m	-0.3937831
-0.9336933	f}f o}o	-0.2856342
-2.384712	f}f o}o|	1.663806
-0.9130534	f}f r}r	-1.483581
-3.574306	f}f s}s	0.0000
-2.691878	f}f t}t	0.01713274
-1.089145	f}f u}u	-0.9439572
-2.057353	f}f á}a	-0.2653455
-2.208621	f}f é}e	-0.5702817
-3.16628	f}f é}e|	1.317453
-1.840644	f}f í}i	-0.193543
-2.384712	f}f ó}o	-0.4507793
-3.574306	f}f ó}o|	0.0000
-3.574306	f}f ú}u	0.0000
-0.5187902	g|h}g </s>	0.0000
-0.7815684	g|h}g l}l	0.0000
-0.7815684	g|h}g t}t	-0.4909267
-0.3514395	g|u}g e}e	-0.3389736
-0.3448089	g|u}g i}i	-0.5274929
-2.450857	g|u}g é}e	0.0000
-1.687232	g|u}g é}e|	1.316648
-1.12296	g|u}g í}i	-0.06568879
-0.2865037	g|ü}g e}e	0.0000
-1.500602	g}g </s>	0.0000
-0.4500937	g}g a}a	-0.8238354
-2.579784	g}g a}a|	2.123608
-2.801632	g}g d}d	-0.1594155
-3.157232	g}g f}f	0.0000
-3.157232	g}g g}g	0.0000
-2.801632	g}g g}j	0.07383114
-3.565257	g}g h|a}a	0.0000
-3.157232	g}g h|e}e	0.0000
-3.565257	g}g h|i}i	0.0000
-1.554478	g}g l}l	-0.9011698
-2.68283	g}g m}m	-0.134044
-1.375664	g}g n}n	-1.218215
-0.8490013	g}g o}o	-0.4494852
-2.102662	g}g o}o|	1.413928
-0.684361	g}g r}r	-2.064966
-2.433656	g}g s}s	0.1253838
-2.894454	g}g t}t	-2.418688
-0.8790799	g}g u}u	-0.7571225
-3.565257	g}g w}u	0.0000
-2.801632	g}g y}i	0.0000
-3.157232	g}g y}y	-0.3345629
-3.565257	g}g z}z	0.0000
-2.579784	g}g á}a	-0.1366696
-3.157232	g}g í}i	-0.3919572
-2.199572	g}g ó}o	0.3628531
-1.86378	g}g ó}o|	1.39211
-2.579784	g}g ú}u	-0.1979129
-2.199572	g}g ü}u	0
-2.430614	g}j _}e	-0.04812403
-0.408373	g}j e}e	-0.9857011
-0.2683705	g}j i}i	-0.8165054
-1.911823	g}j é}e	-0.3680343
-1.283434	g}j í}i	-0.426386
-2.65386	h|a}a '|s}s	0.0000
-1.413113	h|a}a </s>	0.0000
-0.5285068	h|a}a b}b	-0.5720291
-2.65386	h|a}a c}k	0.0000
-0.904958	h|a}a c}z	0.3929667
-1.522258	h|a}a d}d	-0.2629535
-2.65386	h|a}a f}f	0.0000
-1.983056	h|a}a g}g	-0.1202335
-2.65386	h|a}a h|a}a	0.0000
-2.65386	h|a}a h|r}r	0.0000
-1.668386	h|a}a i}i	-0.2027129
-1.983056	h|a}a k}k	-0.1280205
-1.191265	h|a}a l|l}ll	-0.4919748
-1.464266	h|a}a l}l	-0.01538067
-1.191265	h|a}a m}m	-0.05263977
-1.136907	h|a}a n}n	-0.4091389
-2.65386	h|a}a r|r}rr	0.0000
-1.088602	h|a}a r}r	0.07822692
-1.413113	h|a}a s}s	-0.09112386
-2.245834	h|a}a t}t	0.0000
-2.245834	h|a}a u}u	-0.4582463
-2.245834	h|a}a v}b	-0.3567941
-2.245834	h|a}a w}u	0.0000
-2.65386	h|a}a y}i	0.0000
-1.983056	h|a}a y}y	-0.149599
-1.983056	h|a}a z}z	0.0000
-1.978849	h|e}e </s>	0.0000
-2.386874	h|e}e a}a	0.0000
-1.623249	h|e}e b}b	-0.4384026
-1.197281	h|e}e c|h}ch	-0.1418136
-2.386874	h|e}e c}k	0.0000
-2.386874	h|e}e f}f	0.0000
-1.504447	h|e}e i}i	-0.1623755
-0.8699216	h|e}e l}l	0.07153764
-1.100371	h|e}e m}m	-0.2578712
-0.9542425	h|e}e n}n	-0.1781641
-1.978849	h|e}e o}o	-0.4892338
-1.978849	h|e}e p}p	0.0000
-1.716071	h|e}e r|r}rr	-0.07540932
-0.4376127	h|e}e r}r	-0.5025711
-1.716071	h|e}e s}s	0.0000
-2.386874	h|e}e t}t	0.0000
-2.386874	h|e}e v}b	0.0000
-2.386874	h|e}e x}x	0.0000
-2.386874	h|e}e y}i	0.0000
-2.386874	h|e}e z}z	0.0000
-1.99575	h|i}i </s>	0.0000
-2.403775	h|i}i a}a	0.0000
-0.6701133	h|i}i b}b	-0.9164188
-2.403775	h|i}i c}k	0.0000
-1.418301	h|i}i c}z	-0.137475
-1.075879	h|i}i d}d	-0.7329558
-1.732972	h|i}i e}e	0.0000
-2.403775	h|i}i g|h}g	0.0000
-1.99575	h|i}i g}j	-0.1591139
-1.732972	h|i}i j}j	-0.2045309
-1.99575	h|i}i k}k	-0.459745
-1.99575	h|i}i l|l}ll	0.0000
-1.521348	h|i}i l}l	-0.01333068
-1.117271	h|i}i m}m	-0.07716317
-1.272173	h|i}i n}n	-0.1760732
-2.403775	h|i}i o}o	0.0000
-1.163029	h|i}i p}p	-0.8823007
-1.214181	h|i}i r}r	-0.3661339
-0.795052	h|i}i s}s	-0.7628117
-1.418301	h|i}i t}t	0.0000
-2.403775	h|i}i z}z	0.0000
-1.649984	h|o}o </s>	0.0000
-2.413609	h|o}o e}e	0.0000
-2.005583	h|o}o f}f	-0.4914122
-1.224015	h|o}o g}g	-0.1851027
-2.005583	h|o}o j}j	-0.318858
-1.649984	h|o}o k}k	0.0000
-2.413609	h|o}o l|l}ll	0.0000
-1.047924	h|o}o l}l	-0.1232081
-0.8718323	h|o}o m}m	-0.1634858
-0.7121314	h|o}o n}n	-0.7616971
-2.413609	h|o}o o}o	0.0000
-2.413609	h|o}o p}p	0.0000
-1.282007	h|o}o r|r}rr	-0.00587216
-0.7291648	h|o}o r}r	-0.6261563
-0.8966559	h|o}o s}s	-0.7732801
-2.413609	h|o}o t}t	0.0000
-2.413609	h|o}o u}u	0.0000
-2.413609	h|o}o v}b	0.0000
-2.005583	h|o}o w}u	0.0000
-2.413609	h|o}o y}i	0.0000
-2.413609	h|o}o y}y	0.0000
-0.2865037	h|r}r á}a	0.0000
-1.86075	h|u}u </s>	0.0000
-0.8361432	h|u}u a}a	-0.06135692
-1.386348	h|u}u b}b	-0.4129243
-2.268775	h|u}u d}d	0.0000
-0.8683279	h|u}u e}e	-0.2076895
-1.86075	h|u}u g}g	0.0000
-1.50515	h|u}u i}i	0.0000
-0.5843312	h|u}u m}m	-0.3068404
-1.028029	h|u}u n}n	-0.2631371
-2.268775	h|u}u o}o	0.0000
-1.597971	h|u}u r}r	-0.3782018
-1.386348	h|u}u s}s	-0.07380699
-1.50515	h|u}u t}t	-0.2430053
-1.597971	h|u}u y}y	-0.1554026
-2.268775	h|u}u é}e	0.0000
-1.86075	h|u}u í}i	0.0000
-0.1249387	h|y}i </s>	0.0000
-0.2865037	h|y}y u}u	0.0000
-0.3555997	h|á}a b}b	0.0000
-0.763625	h|á}a g}g	0.0000
-0.8885638	h|é}e c}k	0.0000
-0.8885638	h|é}e n}n|	0.0000
-0.4805384	h|é}e r}r	0.0000
-1.064655	h|í}i a}a|	0.0000
-0.6566297	h|í}i b}b	0.0000
-0.6566297	h|í}i c}k	-0.443014
-1.064655	h|í}i g}g	0.0000
-0.5875337	h|ú}u m}m	0.0000
-0.5875337	h|ú}u n}n	0.0000
-0.1249387	h}a|ch _}e	0.0000
-0.1249387	h}ch|e </s>	0.0000
-0.2865037	i|q}i </s>	0.0000
-1.847757	i}i </s>	0.0000
-4.464674	i}i _|a}a	0.0000
-4.464674	i}i _|d}d	0.0000
-4.464674	i}i _}a	0.0000
-1.077456	i}i a}a	-1.2475
-4.056649	i}i a}a|	2.329316
-1.686809	i}i b}b	-0.4748178
-2.686809	i}i c|h}ch	0.258179
-1.134809	i}i c}k	-0.6890504
-1.545714	i}i c}z	-0.7207328
-1.140346	i}i d}d	-0.5151892
-4.464674	i}i d}d|	0.0000
-1.171277	i}i e}e	-1.44053
-1.781972	i}i f}f	-0.07236338
-3.70105	i}i g|h}g	-0.1840145
-2.731013	i}i g|u}g	-0.4741363
-1.75987	i}i g}g	-0.1744785
-2.106289	i}i g}j	-0.03621721
-4.056649	i}i h|i}i	0.0000
-4.056649	i}i h|u}u	-0.4270031
-3.793871	i}i i}i	-0.1191404
-2.506073	i}i j}j	-0.5732646
-4.464674	i}i k|h}k	0.0000
-3.223928	i}i k}k	-0.0127846
-1.99065	i}i l|l}ll	-0.3905092
-1.502393	i}i l}l	-0.3182681
-3.136778	i}i l}l|	0.4771212
-1.381597	i}i m}m	-0.3468084
-0.8795361	i}i n}n	-0.1629823
-4.464674	i}i n}n|	0.0000
-1.133631	i}i o}o	-1.011302
-2.013818	i}i p}p	0.4945652
-2.544703	i}i q|u}k	-0.1900867
-2.947722	i}i r|r}rr	-0.4996977
-1.348224	i}i r}r	-0.6860579
-4.056649	i}i r}r|	1.084323
-4.056649	i}i s|c}z	-0.4027065
-4.056649	i}i s|h}s	0.2826907
-1.172133	i}i s}s	-0.08442557
-3.032043	i}i s}s|	1.657693
-4.056649	i}i t|h}t	0.458782
-1.24519	i}i t}t	-0.1564178
-4.056649	i}i t}t|	0.1065995
-2.731013	i}i u}u	-0.6830555
-1.51447	i}i v}b	-0.2237006
-4.056649	i}i w}u	-0.3362372
-3.178171	i}i x}x	-0.3150718
-4.464674	i}i x}x|	0.0000
-3.70105	i}i y}y	0.0000
-3.582247	i}i z}s	0.1202312
-1.607628	i}i z}z	-0.7818512
-4.464674	i}i z}z|	0.0000
-3.032043	i}i á}a	-0.2184629
-2.576111	i}i é}e	-0.6302673
-3.793871	i}i é}e|	-0.6648183
-4.056649	i}i í}i	-0.4637975
-2.974051	i}i ñ}gn	0.5373064
-1.396415	i}i ó}o	-1.239704
-1.927751	i}i ó}o|	0.5706213
-4.464674	i}i ú}u	0.0000
-0.1795084	i}i| </s>	0.0000
-0.2865037	j|ü}j r}r	0.0000
-2.452298	j}j </s>	0.0000
-0.4761006	j}j a}a	-0.4984745
-3.215923	j}j a}a|	0.0000
-3.215923	j}j d}d	0.0000
-0.6327537	j}j e}e	-0.6283209
-1.410905	j}j i}i	-0.08338438
-3.215923	j}j m}m	0.0000
-3.215923	j}j n}n	0.0000
-2.452298	j}j o|h}o	-0.1952356
-3.215923	j}j o|ã}o	0.0000
-0.8121476	j}j o}o	-0.5406278
-3.215923	j}j s}s	0.0000
-0.711935	j}j u}u	-0.6841537
-2.452298	j}j á}a	-0.1710483
-3.215923	j}j á}a|	0.0000
-2.452298	j}j é}e	-0.4136386
-3.215923	j}j é}e|	0.0000
-2.545119	j}j í}i	0.01430798
-2.545119	j}j ó}o	0.2384603
-1.929419	j}j ó}o|	1.782081
-3.215923	j}j ú}u	0.0000
-0.1249387	j}t|a </s>	0.0000
-0.2865037	j}y a}a	0.0000
-0.9854738	k|h}k </s>	0.0000
-0.2218488	k|h}k m}m	-0.3989783
-0.9854738	k|h}k t}t	0.0000
-0.9429615	k}k </s>	0.0000
-0.6419315	k}k a}a	0.2240647
-2.644439	k}k b}b	0.0000
-2.644439	k}k d}d	0.0000
-0.8808136	k}k e}e	-0.1821799
-1.973635	k}k h|a}a	0.0000
-2.236413	k}k h|i}i	0.0000
-2.644439	k}k h|o}o	0.0000
-0.685837	k}k i}i	-0.6634947
-1.512837	k}k l}l	-0.406054
-2.644439	k}k m}m	0.0000
-2.644439	k}k o|h}o	0.0000
-1.102662	k}k o}o	-0.07334271
-1.880814	k}k r}r	-0.1707868
-1.973635	k}k s}s	-0.1579212
-2.644439	k}k t}t	0.0000
-1.211807	k}k u}u	-0.1322988
-2.236413	k}k w}u	0.0000
-1.278754	k}k y}i	-0.467137
-2.644439	k}k í}i	0.0000
-1.655837	l|l}ll </s>	0.0000
-2.575708	l|l}ll a|h}a	-0.143278
-0.3647909	l|l}ll a}a	-0.6101516
-0.5542145	l|l}ll e}e	-0.73605
-1.335502	l|l}ll i}i	-0.2790092
-0.8339065	l|l}ll o}o	-0.8113674
-2.31293	l|l}ll s}s	-0.09122469
-1.852131	l|l}ll u}u	-0.2488686
-2.101306	l|l}ll y}i	0.1338252
-2.220108	l|l}ll á}a	-0.08995385
-2.983733	l|l}ll á}a|	0.0000
-2.983733	l|l}ll é}e	0.0000
-2.983733	l|l}ll é}e|	0.0000
-2.575708	l|l}ll í}i	0.0000
-2.983733	l|l}ll í}i|	0.0000
-2.220108	l|l}ll ó}o	0.2864414
-2.101306	l|l}ll ó}o|	2.182275
-1.199977	l}l </s>	0.0000
-3.097604	l}l _}e	-0.1029033
-4.083078	l}l a|q}a	0.0000
-0.6931127	l}l a}a	-0.3339758
-2.334176	l}l a}a|	1.347655
-2.365211	l}l b}b	-0.4306411
-3.200651	l}l c|h}ch	-0.1714073
-1.983661	l}l c}k	-0.4011842
-3.200651	l}l c}z	0.5007077
-1.787974	l}l d}d	0.1755922
-4.083078	l}l e|h}e	0.0000
-0.6944838	l}l e}e	-0.4515963
-2.334176	l}l e}e|	0.8217319
-2.398634	l}l f}f	-0.7210688
-3.200651	l}l g|u}g	-0.03834665
-2.133816	l}l g}g	-0.5475937
-3.200651	l}l g}j	0.1885284
-4.083078	l}l h|a}a	0.0000
-4.083078	l}l h|e}e	0.0000
-4.083078	l}l h|i}i	0.0000
-0.7077298	l}l i}i	-0.8424714
-2.951476	l}l j}j	0.02671252
-2.951476	l}l k}k	0.006368108
-2.650446	l}l l}l	-0.5342293
-1.663035	l}l m}m	-0.6974244
-2.951476	l}l n}n	-0.5251591
-1.014819	l}l o}o	-0.07948482
-2.216791	l}l o}o|	1.026984
-3.675053	l}l p|h}p	0.1065995
-2.305213	l}l p}p	-1.224936
-2.893484	l}l q|u}k	0.659886
-3.675053	l}l r}r	-0.4348825
-2.064181	l}l s}s	-0.8052301
-1.452182	l}l t}t	-0.2287108
-1.346325	l}l u}u	-0.04951787
-1.787974	l}l v}b	0.05395555
-4.083078	l}l w}u	0.0000
-2.951476	l}l y}i	0.3597172
-4.083078	l}l y}y	0.0000
-4.083078	l}l z}s	0.0000
-2.893484	l}l z}z	0.1231243
-2.124476	l}l á}a	0.08998024
-3.097604	l}l á}a|	1.75973
-2.381601	l}l é}e	-0.1394219
-3.675053	l}l é}e|	1.317453
-1.990394	l}l í}i	0.1925009
-2.951476	l}l í}i|	0.787106
-2.20551	l}l ó}o	0.02835894
-2.474355	l}l ó}o|	1.481051
-3.675053	l}l ú}u	0.0000
-0.01223446	l}l| </s>	0.0000
-0.5875337	m|h}m </s>	0.0000
-0.5875337	m|h}m m}m	0.0000
-4.02457	m}m '|s}s	0.0000
-2.022063	m}m </s>	0.0000
-2.624123	m}m _}e	-0.2954662
-0.6773689	m}m a}a	-0.17749
-2.415847	m}m a}a|	1.482354
-1.363318	m}m b}b	-0.8072298
-2.696674	m}m c}k	-0.2012921
-4.02457	m}m d}d	0.0000
-0.6974643	m}m e}e	-0.9727752
-2.624123	m}m e}e|	1.152725
-0.7649389	m}m i}i	-0.9780211
-3.260946	m}m l}l	0.0000
-4.02457	m}m m|h}m	0.0000
-3.039097	m}m m}m	-0.1256544
-2.415847	m}m n}n	-0.641647
-0.8096709	m}m o}o	-0.5902896
-2.232917	m}m o}o|	1.099534
-0.9591922	m}m p}p	-0.6309323
-2.783824	m}m s}s	-0.06278569
-4.02457	m}m t}t	0.0000
-1.403613	m}m u}u	-0.8133266
-3.353767	m}m y}i	0.4314402
-4.02457	m}m y}y	0.0000
-1.952737	m}m á}a	-0.3739089
-3.260946	m}m á}a|	1.964632
-2.193999	m}m é}e	-0.4759543
-3.260946	m}m é}e|	1.316648
-2.275669	m}m í}i	-0.1043892
-3.616545	m}m í}i|	1.194736
-2.323093	m}m ó}o	0.233972
-2.306703	m}m ó}o|	1.376316
-3.142143	m}m ú}u	-0.3011407
-0.07918125	m}m| </s>	0.0000
-0.1795084	n|h}n </s>	0.0000
-0.8842515	n}n </s>	0.0000
-2.925381	n}n _}e	-0.01130617
-0.9374169	n}n a}a	-0.7879982
-3.14723	n}n a}a|	1.824776
-3.060079	n}n b}b	-0.08191369
-2.521688	n}n c|h}ch	0.1916859
-1.604542	n}n c}k	-1.040902
-4.387976	n}n c}s|z	0.0000
-1.340296	n}n c}z	-0.415833
-0.9590827	n}n d}d	-0.642247
-1.105398	n}n e}e	-0.5749831
-3.979951	n}n e}e|	1.803393
-1.703532	n}n f}f	-0.4988037
-2.987529	n}n g|u}g	-0.1199372
-1.761028	n}n g}g	-0.5160871
-2.316142	n}n g}j	0.5341235
-3.717172	n}n h|a}a	-0.3212292
-3.717172	n}n h|e}e	-0.1176599
-3.717172	n}n h|i}i	-0.2060626
-4.387976	n}n h|o}o	0.0000
-3.717172	n}n h|u}u	-2.346719
-1.215546	n}n i}i	-0.3938241
-4.387976	n}n i}i|	0.0000
-2.488688	n}n j}j	-0.7351283
-3.060079	n}n k}k	-0.1300283
-3.979951	n}n l|l}ll	-0.3533257
-2.8462	n}n l}l	-0.1407427
-2.338044	n}n m}m	-2.986998
-2.385469	n}n n}n	-0.7313427
-1.234594	n}n o}o	-0.5869637
-2.8462	n}n o}o|	1.339295
-3.979951	n}n p}p	0.0000
-2.478223	n}n q|u}k	-0.4911168
-2.822719	n}n r}rr	0.7705157
-1.318283	n}n s}s	0.009324431
-4.387976	n}n s}s|	0.0000
-0.6964675	n}n t}t	-0.7388022
-1.811437	n}n u}u	-0.5829148
-1.809216	n}n v}b	-0.3779019
-4.387976	n}n x}x	0.0000
-2.987529	n}n y}i	-0.5340838
-3.402502	n}n y}y	-0.08711141
-4.387976	n}n z}s	0.0000
-2.056149	n}n z}z	-0.5045786
-2.739744	n}n á}a	-0.2590767
-2.800442	n}n é}e	-0.4008225
-3.402502	n}n é}e|	1.111745
-2.468004	n}n í}i	-0.2999787
-3.505549	n}n í}i|	1.048997
-2.739744	n}n ó}o	-0.6502424
-2.458019	n}n ó}o|	1.170262
-2.987529	n}n ú}u	-0.1057428
-4.387976	n}n ú}u|	0.0000
-0.0003939179	n}n| </s>	0.0000
-0.5875337	o|'}o d}d	0.0000
-0.5875337	o|'}o h|a}a	0.0000
-1.064655	o|h}o </s>	0.0000
-1.064655	o|h}o l}l	0.0000
-0.30103	o|h}o n}n	-0.2411285
-1.064655	o|h}o ó}o	0.0000
-0.2865037	o|q}o </s>	0.0000
-0.2865037	o|ã}o o}o|	0.0000
-0.6078303	o}o </s>	0.0000
-2.354319	o}o a}a	-0.1767635
-1.656708	o}o b}b	-0.3778018
-2.729135	o}o c|h}ch	-0.09385133
-1.662188	o}o c}k	-0.1748488
-4.447002	o}o c}k|	0.0000
-4.038977	o}o c}s|z	0.1065995
-1.927502	o}o c}z	0.2665528
-1.846631	o}o d}d	0.4010847
-2.592297	o}o e}e	-0.1558371
-4.447002	o}o e}e|	0.0000
-2.103594	o}o f}f	-0.1922975
-4.447002	o}o g|h}g	0.0000
-4.447002	o}o g|u}g	0.0000
-2.088617	o}o g}g	-0.7582808
-2.470303	o}o g}j	0.0367626
-3.564575	o}o h|a}a	-0.4159064
-3.461529	o}o h|e}e	0.05930464
-2.859468	o}o h|i}i	-0.8955659
-4.038977	o}o h|o}o	-0.4547156
-4.038977	o}o h|í}i	-0.3872875
-2.62902	o}o i}i	-0.2923889
-2.547715	o}o j}j	-0.4546101
-4.447002	o}o k|h}k	0.0000
-3.081317	o}o k}k	0.1182819
-2.62902	o}o l|l}ll	0.2449096
-1.318514	o}o l}l	-0.0215255
-3.315401	o}o l}l|	0.6532124
-1.342933	o}o m}m	-0.07926095
-0.7663972	o}o n}n	-0.4928499
-3.315401	o}o n}n|	2.139486
-4.447002	o}o o|q}o	0.0000
-2.62902	o}o o}o	-0.3091237
-1.789431	o}o p}p	-0.06709969
-2.641985	o}o q|u}k	0.2764363
-2.211108	o}o r|r}rr	-0.1265906
-0.955565	o}o r}r	-0.6155647
-3.564575	o}o r}r|	0.9385847
-0.7768627	o}o s}s	-0.480148
-1.676199	o}o s}s|	0.348063
-4.447002	o}o t|h}t	0.0000
-1.611495	o}o t}t	-0.08682346
-2.683377	o}o u}u	-0.17871
-1.877197	o}o v}b	-0.3743252
-3.160499	o}o w}u	-0.221495
-2.838279	o}o x}x	-0.4657301
-3.160499	o}o y}i	-0.3879558
-2.375169	o}o y}y	0.2350833
-4.447002	o}o z}s	0.0000
-2.470303	o}o z}z	-0.4178507
-4.447002	o}o z}z|	0.0000
-4.447002	o}o é}e	0.0000
-4.447002	o}o é}e|	0.0000
-3.315401	o}o í}i	-0.1657031
-4.447002	o}o í}i|	0.0000
-3.206256	o}o ñ}gn	-0.04334205
-0.001047756	o}o| </s>	0.0000
-0.1249387	p|h}p </s>	0.0000
-0.8885638	p|h}p n}n	0.0000
-2.444871	p}p </s>	0.0000
-3.079396	p}p _}e	-0.02404107
-0.7068371	p}p a}a	-0.5305742
-3.961824	p}p b}b	0.0000
-2.228162	p}p c}z	-0.9066474
-0.7363002	p}p e}e	-0.8578254
-3.961824	p}p e}e|	0.0000
-3.961824	p}p f}f	0.0000
-3.29102	p}p h|a}a	-0.2775945
-3.553798	p}p h|e}e	0.0000
-3.29102	p}p h|i}i	-0.1673283
-3.961824	p}p h|o}o	0.0000
-1.146403	p}p i}i	-0.773467
-3.961824	p}p k}k	0.0000
-1.100132	p}p l}l	-1.731916
-0.8971688	p}p o}o	-0.8724777
-3.198199	p}p p}p	-0.1744574
-0.6422985	p}p r}r	-1.984997
-2.353101	p}p s}s	-0.1730925
-1.662483	p}p t}t	-0.9701157
-1.240751	p}p u}u	-1.166911
-3.553798	p}p y}y	0.0000
-2.313592	p}p á}a	-0.109434
-3.961824	p}p á}a|	0.0000
-2.721077	p}p é}e	-0.363936
-2.633927	p}p í}i	-0.2734762
-2.4712	p}p ó}o	0.3318401
-2.97635	p}p ó}o|	2.122306
-2.633927	p}p ú}u	-0.2940938
-0.763625	q|a}a b}b	0.0000
-0.3555997	q|a}a t}t	-0.3666103
-0.5875337	q|i}i a}a	0.0000
-0.5875337	q|i}i y}i	0.0000
-2.947369	q|u}k </s>	0.0000
-0.3204214	q|u}k e}e	-0.4446497
-0.3469982	q|u}k i}i	-0.6601616
-2.276566	q|u}k é}e	-0.4751943
-2.183744	q|u}k é}e|	1.316648
-1.338646	q|u}k í}i	0.05106896
-2.276566	q|u}k í}i|	-0.7875357
-0.1249387	q}k u}u	-0.463449
-0.1795084	q}k|u </s>	0.0000
-2.999153	r|r}rr </s>	0.0000
-0.6673267	r|r}rr a}a	-0.4953682
-0.5953784	r|r}rr e}e	-0.2412093
-0.6792259	r|r}rr i}i	-0.6973518
-0.6832659	r|r}rr o}o	-0.4853055
-1.265492	r|r}rr u}u	-0.6167858
-1.867552	r|r}rr y}i	-0.2910458
-1.867552	r|r}rr á}a	-0.2745863
-2.591128	r|r}rr é}e	0.0000
-2.999153	r|r}rr é}e|	0.0000
-1.867552	r|r}rr í}i	-0.708178
-2.01368	r|r}rr ó}o	0.32082
-2.999153	r|r}rr ó}o|	0.0000
-0.9632416	r}r </s>	0.0000
-3.030499	r}r _}e	-0.09928448
-4.396183	r}r a|h}a	0.0000
-4.396183	r}r a|q}a	0.0000
-0.7203364	r}r a}a	-0.2894485
-2.80865	r}r a}a|	1.502557
-2.217585	r}r b}b	-1.191402
-2.879231	r}r c|h}ch	-0.4233044
-1.979346	r}r c}k	-1.158345
-2.030499	r}r c}z	-0.6148472
-1.623958	r}r d}d	-0.1863997
-4.396183	r}r d}d|	0.0000
-0.8854058	r}r e}e	-0.722698
-4.396183	r}r e}e|	0.0000
-2.694706	r}r f}f	-0.4440448
-4.396183	r}r g|h}g	0.0000
-3.155437	r}r g|u}g	-0.7441322
-1.982575	r}r g}g	-0.9645762
-2.228866	r}r g}j	-0.3395106
-3.988158	r}r h|a}a	0.0000
-4.396183	r}r h|o}o	0.0000
-0.9420671	r}r i}i	-0.2333087
-2.80865	r}r j}j	-0.6733627
-3.155437	r}r k}k	-0.03876345
-1.62538	r}r l}l	-0.8851481
-1.503298	r}r m}m	-1.120744
-1.771223	r}r n}n	-1.241226
-0.9182287	r}r o}o	-0.4096714
-2.830926	r}r o}o|	1.317018
-2.217585	r}r p}p	-0.5807672
-2.578201	r}r q|u}k	0.3501377
-2.787461	r}r r}r	-0.5315206
-1.514184	r}r s}s	-0.6930754
-3.988158	r}r s}z	-0.4169595
-3.988158	r}r t|h}t	0.458782
-1.335163	r}r t}t	-0.3187779
-4.396183	r}r t}t|	0.0000
-1.779266	r}r u}u	-0.807767
-2.170161	r}r v}b	-0.4503943
-3.632559	r}r w}u	-0.172008
-3.988158	r}r x}x	0.0000
-3.155437	r}r y}i	-0.3421983
-2.632559	r}r z}z	-0.618896
-1.734931	r}r á}a	-0.4846068
-1.686434	r}r á}a|	0.03601623
-2.933589	r}r é}e	-0.1975069
-2.995736	r}r é}e|	0.6667854
-1.644297	r}r í}i	-0.6051774
-3.988158	r}r í}i|	1.194736
-2.529896	r}r ó}o	0.3226761
-2.32435	r}r ó}o|	1.031083
-3.513756	r}r ú}u	-0.1505748
-3.632559	r}r ú}u|	0.5829157
-1.095677	r}rr a}a	-0.3814737
-0.1342748	r}rr e}e	-1.4015
-1.354383	r}rr i}i	-0.4323339
-1.032164	r}rr o}o	-0.7706976
-1.436053	r}rr u}u	-0.4040827
-2.815181	r}rr y}i	0.0000
-2.815181	r}rr á}a	-0.305311
-2.72236	r}rr é}e	0.0000
-2.500511	r}rr í}i	0.0000
-2.72236	r}rr ó}o	0.2864414
-0.01158187	r}r| </s>	0.0000
-0.1362197	s|c}z e}e	-1.209627
-0.7160034	s|c}z i}i	-0.283748
-1.293452	s|c}z é}e	-0.4820553
-0.07918125	s|h}s </s>	0.0000
-1.064655	s|h}s k}k	0.0000
-0.4018341	s}s </s>	0.0000
-3.078711	s}s _}e	-0.1374866
-1.077843	s}s a}a	-0.1840614
-3.957189	s}s a}a|	2.329316
-2.848262	s}s b}b	-0.5326774
-2.964767	s}s c|h}ch	-0.2127262
-1.504679	s}s c}k	-1.05442
-2.487646	s}s c}z	-0.1377251
-3.175621	s}s d}d	-0.02639017
-1.079145	s}s e}e	-0.6561632
-2.315283	s}s e}e|	0.5280012
-2.307858	s}s f}f	-0.6494955
-3.957189	s}s g|u}g	0.0000
-2.663737	s}s g}g	-0.104691
-2.698499	s}s h|a}a	0.05764446
-3.124468	s}s h|e}e	-0.1145962
-3.037318	s}s h|i}i	-0.3043478
-3.694411	s}s h|o}o	-0.09092569
-1.115868	s}s i}i	-0.922415
-3.694411	s}s j}j	-0.2378066
-2.902619	s}s k}k	-0.1904106
-2.265797	s}s l}l	-0.836554
-1.902619	s}s m}m	-1.293846
-2.716983	s}s n}n	-0.5273315
-1.293381	s}s o}o	-0.730637
-3.957189	s}s o}o|	2.122588
-1.448283	s}s p}p	-1.078517
-2.716983	s}s q|u}k	-0.2193763
-3.037318	s}s r}r	-0.9874525
-2.587349	s}s s}s	-0.1529557
-0.8633373	s}s t}t	-0.6019522
-1.356077	s}s u}u	-0.6793945
-2.932582	s}s v}b	0.1634062
-3.37974	s}s w}u	-0.06891353
-3.957189	s}s y}i	0.0000
-4.365214	s}s z}z	0.0000
-2.848262	s}s á}a	-0.8803337
-3.078711	s}s é}e	-0.4126531
-3.694411	s}s é}e|	-0.6648183
-2.756491	s}s í}i	-0.09546125
-3.601589	s}s í}i|	1.193931
-2.823438	s}s ó}o	-0.2062479
-2.663737	s}s ó}o|	1.39211
-3.482787	s}s ú}u	-0.06959423
-4.365214	s}s ú}u|	0.0000
-0.0006372628	s}s| </s>	0.0000
-0.7815684	s}z </s>	0.0000
-1.189594	s}z c}k	0.0000
-0.7815684	s}z e}e	0.0000
-0.7815684	s}z i}i	-0.4628279
-1.189594	s}z í}i	0.0000
-0.05115252	t|h}t </s>	0.0000
-1.240746	t|h}t f}f	0.0000
-0.2865037	t}d|o _}b|l	0.0000
-1.983581	t}t </s>	0.0000
-3.080491	t}t _}e	-0.1690986
-4.270085	t}t a|h}a	0.0000
-0.5905327	t}t a}a	-0.734512
-2.869638	t}t a}a|	1.678648
-3.029339	t}t b}b	-0.9120817
-3.284611	t}t c|h}ch	-0.238916
-4.270085	t}t c}k	0.0000
-4.270085	t}t c}z	0.0000
-0.6611551	t}t e}e	-0.4558765
-2.120258	t}t e}e|	0.4296215
-4.270085	t}t g}g	0.0000
-3.387658	t}t h|a}a	-0.1636909
-3.080491	t}t h|e}e	0.02391811
-3.86206	t}t h|i}i	0.0000
-3.86206	t}t h|o}o	0.0000
-4.270085	t}t h|u}u	0.0000
-3.50646	t}t h|y}i	0.1057945
-0.7918508	t}t i}i	-0.172107
-2.568608	t}t l}l	-0.6522608
-3.50646	t}t l}l|	1.060037
-2.983581	t}t m}m	-0.280506
-2.983581	t}t n}n	-0.3935961
-0.8957998	t}t o}o	-0.5416392
-2.704828	t}t o}o|	1.317018
-0.9328149	t}t r}r	-1.880272
-2.779461	t}t s}s	-0.02374676
-4.270085	t}t s}s|	0.0000
-2.641159	t}t t}t	-0.1640351
-1.357241	t}t u}u	-0.4254067
-4.270085	t}t u}u|	0.0000
-3.50646	t}t w}u	0.0000
-2.983581	t}t y}i	-0.0869258
-4.270085	t}t y}y	0.0000
-3.86206	t}t z}s	0.0000
-3.080491	t}t z}z	0.1187001
-2.177401	t}t á}a	-0.3677624
-3.50646	t}t á}a|	1.964632
-2.427279	t}t é}e	-0.07430524
-3.029339	t}t é}e|	0.8129134
-2.085954	t}t í}i	-0.1277719
-3.387658	t}t í}i|	1.048997
-2.293385	t}t ó}o	0.1759524
-1.996809	t}t ó}o|	0.8322481
-2.682551	t}t ú}u	-0.2878822
-4.270085	t}t ú}u|	0.0000
-0.1249387	t}t| </s>	0.0000
-0.5875337	u|h}u </s>	0.0000
-0.5875337	u|h}u t}t	0.0000
-1.9818	u}u </s>	0.0000
-1.137996	u}u a}a	-0.8881265
-1.349174	u}u b}b	0.06702828
-1.914853	u}u c|h}ch	-0.2013507
-1.598583	u}u c}k	-0.8860472
-1.520026	u}u c}z	-0.2876496
-1.24474	u}u d}d	-0.2854902
-1.096015	u}u e}e	-0.9151693
-2.071976	u}u f}f	-0.3556051
-3.541519	u}u g|u}g	0.0000
-1.877711	u}u g}g	-0.617049
-2.265101	u}u g}j	-0.2457848
-3.949545	u}u h|e}e	0.0000
-1.507705	u}u i}i	-1.02244
-2.009829	u}u j}j	-0.5551076
-2.663041	u}u k}k	-0.04550247
-2.384287	u}u l|l}ll	0.3258579
-0.9937241	u}u l}l	-0.5160348
-3.949545	u}u l}l|	0.0000
-1.291973	u}u m}m	-0.4774112
-3.18592	u}u m}m|	0.2818857
-1.016637	u}u n}n	-0.4957972
-2.28283	u}u o}o	-1.022455
-1.450853	u}u p}p	0.2827265
-2.964071	u}u q|u}k	-0.4187007
-2.050257	u}u r|r}rr	-0.5559593
-1.000283	u}u r}r	-0.2838404
-3.949545	u}u s|h}s	0.0000
-1.085549	u}u s}s	-0.4000649
-3.18592	u}u s}s|	2.337519
-3.949545	u}u t|h}t	0.0000
-1.226878	u}u t}t	-0.2957549
-2.060981	u}u v}b	-1.0589
-3.541519	u}u w}u	-0.3362372
-3.18592	u}u x}x	-0.3764302
-2.964071	u}u y}i	-0.08118147
-1.77655	u}u y}y	-0.9393054
-3.949545	u}u z|h}z	0.0000
-2.029572	u}u z}z	-0.3403912
-2.458921	u}u á}a	-0.01364127
-3.541519	u}u á}a|	1.965437
-2.708798	u}u é}e	-0.119854
-3.949545	u}u ë}e	0.0000
-2.663041	u}u í}i	-0.009026125
-2.516913	u}u ñ}gn	-0.05846569
-3.067117	u}u ó}o|	2.182275
-0.1795084	u}u| </s>	0.0000
-1.915818	v}b </s>	0.0000
-3.256695	v}b _}e	-0.3629806
-0.6547605	v}b a}a	-0.6582723
-3.66472	v}b a}a|	0.0000
-0.563303	v}b e}e	-0.7364307
-3.66472	v}b e}e|	0.0000
-3.66472	v}b g}j	0.0000
-0.5312608	v}b i}i	-0.8628019
-2.993917	v}b l}l	-2.379345
-0.8353907	v}b o}o	-0.9578556
-3.256695	v}b r}r	0.0000
-2.993917	v}b s}s	-0.3099529
-1.765432	v}b u}u	-1.525738
-3.66472	v}b y}i	0.0000
-2.147767	v}b á}a	-0.01252139
-3.66472	v}b á}a|	0.0000
-2.993917	v}b é}e	-0.1317554
-3.256695	v}b é}e|	1.317453
-1.946852	v}b í}i	-0.02363408
-2.901095	v}b í}i|	1.193931
-2.679246	v}b ó}o	-0.3096915
-2.378216	v}b ó}o|	1.782081
-1.101231	w}u </s>	0.0000
-2.290825	w}u _|a}a	0.0000
-0.5129597	w}u a}a	-0.1660078
-2.290825	w}u e|h}e	0.0000
-0.7255678	w}u e}e	-0.1682817
-1.5272	w}u h|i}i	-0.2456148
-0.7255678	w}u i}i	-0.2085073
-2.290825	w}u m}m	0.0000
-1.5272	w}u n}n	0.0000
-1.159223	w}u o}o	-0.2064774
-2.290825	w}u r}r	0.0000
-1.620022	w}u s}s	-0.2752873
-2.290825	w}u t}t	0.0000
-2.290825	w}u y}y	0.0000
-2.290825	w}u á}a	0.0000
-0.2865037	x|_}k e}i|s	0.0000
-0.2865037	x}i|s </s>	0.0000
-1.327896	x}j a}a	0.0000
-0.08715018	x}j i}i	-0.9669322
-1.327896	x}j i}i|	0.0000
-1.480212	x}x </s>	0.0000
-1.179182	x}x a}a	-0.1944622
-1.395891	x}x c}k	-0.07442278
-2.912844	x}x c}s	0.0000
-1.512397	x}x c}z	-1.024764
-2.912844	x}x d}d	0.0000
-1.584948	x}x e}e	-0.2397014
-2.504819	x}x h|a}a	-0.4929878
-2.912844	x}x h|e}e	0.0000
-1.781242	x}x h|i}i	-0.3657816
-2.030417	x}x h|o}o	-0.3885407
-0.6177402	x}x i}i	-0.6965909
-2.912844	x}x j}j	0.0000
-2.504819	x}x m}m	0.0000
-1.584948	x}x o}o	0.163456
-0.5694355	x}x p}p	-2.690146
-2.912844	x}x q|u}k	0.0000
-2.504819	x}x s}s	0.0000
-0.7287133	x}x t}t	-0.7612695
-2.242041	x}x u}u	-2.444915
-2.912844	x}x v}b	0.0000
-2.912844	x}x y}i	0.0000
-2.504819	x}x á}a	0.0000
-2.912844	x}x í}i	0.0000
-2.912844	x}x ó}o|	0.0000
-0.2177602	x}x| </s>	0.0000
-0.121661	y}i </s>	0.0000
-1.768391	y}i a}a	-0.192054
-2.532017	y}i b}b	0.0000
-2.123991	y}i d}d	0.0000
-2.123991	y}i f}f	0.0000
-1.546543	y}i l}l	-0.1297501
-2.123991	y}i m}m	-0.3929781
-1.20412	y}i n}n	-0.07791261
-2.532017	y}i p}p	0.0000
-1.546543	y}i r}r	-0.04624721
-1.546543	y}i s}s	0.08129606
-2.532017	y}i t}t	0.0000
-2.532017	y}i u}u	0.0000
-2.123991	y}i v}b	0.0000
-2.532017	y}i w}u	0.0000
-2.532017	y}i z}z	0.0000
-0.2865037	y}i| </s>	0.0000
-0.5092025	y}y a}a	-0.3865653
-0.5224308	y}y e}e	-0.6740166
-2.124903	y}y i}i	0.0000
-0.7533277	y}y o}o	-0.1016379
-0.8859532	y}y u}u	-0.6095615
-2.032081	y}y á}a	0.0000
-2.795706	y}y á}a|	0.0000
-1.230449	y}y ó}o|	1.522444
-0.2865037	z|_}e l}l	0.0000
-0.2865037	z|h}z n}n	0.0000
-0.2865037	z|z}s </s>	0.0000
-1.082598	z}s </s>	0.0000
-0.30103	z}s a}a	-0.1871962
-1.082598	z}s c}k	-0.3270711
-1.490624	z}s e}e	0.0000
-1.082598	z}s o}o	0.0000
-1.490624	z}s á}a	0.0000
-0.1249387	z}s| </s>	0.0000
-0.2865037	z}t z}s	0.0000
-1.162484	z}z </s>	0.0000
-0.2060863	z}z a}a	-0.9997498
-2.511438	z}z a}a|	2.328511
-2.511438	z}z b}b	-0.1267074
-1.35509	z}z c}k	-0.6373959
-1.812468	z}z e}e	-0.2062878
-1.988559	z}z g}g	-0.7213025
-3.275063	z}z h|a}a	0.0000
-2.392636	z}z h|e}e	-0.1178548
-3.275063	z}z h|i}i	0.0000
-3.275063	z}z h|u}u	0.0000
-1.812468	z}z i}i	-0.292435
-2.867037	z}z k}k	0.0000
-2.511438	z}z l}l	-0.1641288
-2.392636	z}z m}m	-0.134044
-2.392636	z}z n}n	-0.4012667
-0.9973329	z}z o}o	-0.5203128
-2.085469	z}z q|u}k	0.5424215
-3.275063	z}z r}r	0.0000
-3.275063	z}z s}s	0.0000
-2.511438	z}z t}t	-0.155614
-1.66634	z}z u}u	-0.6169083
-3.275063	z}z y}i	0.0000
-2.143461	z}z á}a	-0.05842272
-2.867037	z}z á}a|	1.965437
-3.275063	z}z í}i|	0.0000
-2.034317	z}z ó}o	0.1462546
-1.497197	z}z ó}o|	1.318324
-3.275063	z}z ú}u	0.0000
-2.867037	z}z ú}u|	0.5837207
-0.009759837	z}z| </s>	0.0000
-1.240746	Á}a b}b	0.0000
-1.240746	Á}a f}f	0.0000
-0.8327209	Á}a l}l	-0.4883259
-0.5699428	Á}a n}n	-0.3083944
-1.240746	Á}a v}b	0.0000
-1.189594	É}e l}l|	0.0000
-0.05799195	É}e s}s	-0.3020735
-0.1795084	Í}i n}n	0.0000
-0.2865037	Ó}o s}s	0.0000
-0.3555997	Ú}u l}l	-0.4798512
-0.763625	Ú}u n}n	0.0000
-1.62454	á}a b}b	-1.18154
-1.52763	á}a c}k	-0.5171592
-3.115164	á}a c}k|	0.0000
-1.874417	á}a c}z	0.3156617
-2.44436	á}a d}d	-2.410246
-2.351539	á}a e}e	-0.495448
-1.52763	á}a f}f	-0.847649
-3.115164	á}a g|u}g	0.0000
-2.707138	á}a g}g	0.0000
-1.82866	á}a g}j	-0.6636533
-2.707138	á}a h|u}u	-0.4270031
-2.707138	á}a i}i	0.0000
-2.351539	á}a j}j	-0.319663
-1.381502	á}a l}l	-0.4195948
-3.115164	á}a l}l|	0.0000
-1.381502	á}a m}m	-0.3949679
-3.115164	á}a m}m|	0.0000
-0.7214499	á}a n}n	-0.9781128
-0.4842676	á}a n}n|	0.6962225
-1.92557	á}a p}p	-0.4452058
-2.707138	á}a q|u}k	-0.2359956
-2.44436	á}a r|r}rr	-2.372537
-1.215876	á}a r}r	-0.3411133
-1.43072	á}a s}s	-1.118588
-1.598211	á}a s}s|	1.578512
-1.088297	á}a t}t	-1.05393
-2.12969	á}a u}u	-0.4078592
-2.232737	á}a v}b	-0.1321497
-2.44436	á}a x}x	-2.357896
-3.115164	á}a y}y	0.0000
-2.351539	á}a z}z	-0.2589337
-3.115164	á}a z}z|	0.0000
-2.707138	á}a ñ}gn	-0.4608245
-0.001505355	á}a| </s>	0.0000
-2.395674	é}e </s>	0.0000
-2.395674	é}e a}a	-0.4358632
-2.8037	é}e a}a|	0.0000
-2.132896	é}e b}b	-0.1192887
-1.403253	é}e c}k	-0.3482429
-2.040075	é}e c}z	0.05948511
-1.517196	é}e d}d	-0.59228
-1.921273	é}e f}f	-0.1329535
-2.8037	é}e g}g	0.0000
-1.818226	é}e g}j	-0.3648216
-1.921273	é}e i}i	-0.473836
-2.132896	é}e j}j	-0.1318895
-1.818226	é}e l|l}ll	0.1974891
-1.313076	é}e l}l	-0.3935575
-2.395674	é}e l}l|	1.060842
-1.438015	é}e m}m	-0.5201874
-0.845098	é}e n}n	-1.023825
-1.313076	é}e n}n|	1.812127
-2.8037	é}e o}o	0.0000
-1.517196	é}e p}p	-0.3270743
-2.040075	é}e r|r}rr	-0.3690766
-0.7613211	é}e r}r	-0.4206735
-1.194977	é}e s}s	-0.5031178
-0.9731278	é}e s}s|	1.277482
-1.012046	é}e t}t	-0.6044294
-2.395674	é}e u}u	-0.4689074
-2.8037	é}e u}u|	0.0000
-2.132896	é}e v}b	-0.2017935
-2.132896	é}e x}j	0.429866
-2.132896	é}e x}x	-0.1906613
-0.006733383	é}e| </s>	0.0000
-0.2865037	ë}e n}n	0.0000
-3.238812	í}i </s>	0.0000
-0.6735544	í}i a}a	-1.219605
-0.441763	í}i a}a|	0.3128932
-2.356385	í}i b}b	-0.7468647
-3.238812	í}i c|h}ch	0.0000
-1.697036	í}i c}k	-0.4070097
-1.952308	í}i c}z	-0.4442493
-1.460946	í}i d}d	-0.02681547
-3.238812	í}i d}d|	0.0000
-2.568008	í}i e}e	-2.475884
-2.568008	í}i e}e|	-0.1788785
-1.572097	í}i f}f	-1.123586
-3.238812	í}i g|u}g	0.0000
-2.830786	í}i g}g	-0.3948202
-2.049218	í}i g}j	0.5522253
-2.10721	í}i l}l	-0.1970032
-1.59058	í}i m}m	-0.3705915
-1.339524	í}i n}n	-0.1731018
-1.350248	í}i n}n|	1.429792
-1.998065	í}i o}o	-1.13306
-1.651278	í}i o}o|	1.295829
-2.10721	í}i p}p	-0.2468232
-2.475187	í}i q|u}k	-0.003050596
-1.998065	í}i r}r	-0.4663037
-3.238812	í}i r}r|	0.0000
-1.152967	í}i s}s	-1.111756
-2.253338	í}i s}s|	2.132616
-1.460946	í}i t}t	-0.5983754
-2.10721	í}i v}b	-0.374894
-3.238812	í}i z}z	0.0000
-2.568008	í}i z}z|	-0.8245192
-0.008954843	í}i| </s>	0.0000
-0.4125589	ñ}gn a}a	-0.8694679
-0.8046694	ñ}gn a}a|	1.162019
-1.115459	ñ}gn e}e	-0.6139013
-2.744386	ñ}gn e}e|	0.0000
-1.503639	ñ}gn i}i	-0.2721846
-0.8346326	ñ}gn o}o	-0.53307
-0.8558219	ñ}gn o}o|	1.005264
-2.744386	ñ}gn u}u	0.0000
-2.33636	ñ}gn á}a	-0.4039933
-2.744386	ñ}gn é}e	0.0000
-1.980761	ñ}gn í}i	0.0000
-2.073582	ñ}gn ó}o	-1.928775
-1.758912	ñ}gn ó}o|	2.122306
-2.744386	ñ}gn ú}u	0.0000
-0.2865037	ñ}gn| </s>	0.0000
-2.273233	ó}o </s>	0.0000
-2.850681	ó}o b}b	-0.3596525
-2.069113	ó}o c}k	-0.3516312
-2.495082	ó}o c}z	-0.3749013
-2.069113	ó}o d}d	-0.399749
-2.273233	ó}o f}f	-0.1010819
-2.01796	ó}o g}g	-0.8993596
-1.495082	ó}o g}j	-0.3271641
-3.258707	ó}o j}j	0.0000
-1.440724	ó}o l}l	-0.2814568
-1.467053	ó}o m}m	0.1278465
-1.359419	ó}o n}n	-0.5331852
-0.1441878	ó}o n}n|	0.2139158
-1.93081	ó}o p}p	-0.5232778
-3.258707	ó}o q|u}k	0.0000
-2.850681	ó}o r|r}rr	-0.3945341
-1.574263	ó}o r}r	-0.8196911
-1.741754	ó}o s}s	-0.5857285
-2.850681	ó}o s}s|	2.338324
-1.826075	ó}o t}t	-0.3491467
-2.127105	ó}o v}b	-0.2677164
-2.127105	ó}o x}x	-0.7832547
-3.258707	ó}o y}y	0.0000
-0.0006525838	ó}o| </s>	0.0000
-1.954025	ú}u </s>	0.0000
-1.034154	ú}u a}a	-1.2293
-1.034154	ú}u a}a|	1.745595
-1.034154	ú}u b}b	-0.5356137
-1.954025	ú}u c|h}ch	-0.4067473
-1.954025	ú}u c}k	0.0000
-2.362051	ú}u d}d|	0.0000
-1.954025	ú}u e}e	-0.4952738
-1.598426	ú}u e}e|	1.802588
-2.362051	ú}u f}f	0.0000
-1.954025	ú}u g}j	-0.1591139
-2.362051	ú}u l|l}ll	0.0000
-1.121304	ú}u l}l	-0.9386332
-1.598426	ú}u l}l|	1.060037
-1.598426	ú}u m}m	-0.3989783
-0.845098	ú}u n}n	-0.2976264
-1.172457	ú}u n}n|	2.088333
-2.362051	ú}u o}o|	0.0000
-1.598426	ú}u p}p	-0.2368224
-1.172457	ú}u r}r	-0.2990069
-1.230449	ú}u s}s	-0.1849441
-1.954025	ú}u s}s|	2.338324
-1.479624	ú}u t}t	-0.3977472
-2.362051	ú}u z}z|	0.0000
-1.954025	ú}u ñ}gn	-0.4608245
-0.03778856	ú}u| </s>	0.0000
-0.07918125	ü}u e}e	-0.007854775
-1.365685	ü}u e}e|	0.0000
-1.365685	ü}u i}i	0.0000
			
\3-grams:			
-0.8204166	<s> _|a}a _|k}k	0.0000
-0.1668265	<s> _|b}b _}e	0.0000
-0.1672041	<s> _|c}k _|o}o	0.0000
-0.03218468	<s> _|c}z _}e	0.0000
-0.09636217	<s> _|d}d _}e	0.0000
-0.6443253	<s> _|e}e _|t}t	0.0000
-0.1672041	<s> _|g}j _}e	0.0000
-0.1672041	_|a}a _|k}k _}a	0.0000
-0.4678566	<s> _|o}o _}e	0.0000
-0.04575749	<s> _|p}p _}e	0.0000
-0.1668265	<s> _|t}t _}e	0.0000
-0.3432953	<s> _|u}u _}e	0.0000
-0.1668265	<s> _|v}b _}e	0.0000
-0.3432953	_|k}k _}a </s>	0.0000
-1.096623	<s> _}e f}f	0.0000
-0.629837	<s> _}e m}m	0.0000
-0.9201542	<s> _}e n}n	0.0000
-0.629837	<s> _}e r}r	0.0000
-0.9201542	<s> _}e s}s	0.0000
-0.5651441	_|b}b _}e _}e	0.0000
-0.5435202	_|c}z _}e _}e	0.0000
-1.012302	_|c}z _}e d}d	0.0000
-0.5348033	_|d}d _}e _}e	0.0000
-0.3432953	_|o}o _}e m}m	0.0000
-0.7688866	_|p}p _}e </s>	0.0000
-0.9453554	_|p}p _}e _}e	0.0000
-0.9453554	_|p}p _}e d}d	0.0000
-0.9453554	_|p}p _}e p}p	0.0000
-0.5651441	_|t}t _}e _}e	0.0000
-0.3432953	_|v}b _}e i}i	0.0000
-0.1672041	_}b|l _}e w}u	0.0000
-1.397653	_}e _}e f}f	0.0000
-1.221184	_}e _}e l}l	0.0000
-0.8659666	_}e _}e m}m	0.0000
-0.5314789	_}e _}e n}n	0.0000
-0.6863809	_}e _}e r}r	0.0000
-0.8659666	_}e _}e s}s	0.0000
-0.5651441	b}b _}e </s>	0.0000
-0.2887301	c}z _}e </s>	0.0000
-0.4678566	d}d _}e _}e	0.0000
-0.2917653	f}f _}e </s>	0.0000
-0.4682341	g}j _}e </s>	0.0000
-0.5651441	l}l _}e </s>	0.0000
-0.5651441	l}l _}e _}e	0.0000
-0.5113356	m}m _}e </s>	0.0000
-0.5133314	m}m _}e _}e	0.0000
-0.9801174	m}m _}e b}b	0.0000
-0.5734834	n}n _}e </s>	0.0000
-1.042265	n}n _}e _}e	0.0000
-1.042265	n}n _}e g}j	0.0000
-0.6443253	p}p _}e </s>	0.0000
-0.6443253	p}p _}e _}e	0.0000
-0.4765734	r}r _}e </s>	0.0000
-0.9453554	r}r _}e c}z	0.0000
-0.3344876	s}s _}e </s>	0.0000
-0.3004822	t}t _}e </s>	0.0000
-0.1672041	v}b _}e </s>	0.0000
-0.1672041	_}e _}j|o j}t|a	0.0000
-0.1672041	l|l}ll a|h}a </s>	0.0000
-1.269762	<s> a}a b}b	0.0000
-1.044611	<s> a}a c}k	0.0000
-1.714936	<s> a}a c}z	0.0000
-1.174846	<s> a}a d}d	0.0000
-2.182914	<s> a}a e}e	0.0000
-1.535775	<s> a}a f}f	0.0000
-2.784426	<s> a}a g|u}g	0.0000
-1.374197	<s> a}a g}g	0.0000
-2.432791	<s> a}a g}j	0.0000
-2.182914	<s> a}a h|o}o	0.0000
-2.210943	<s> a}a i}i	0.0000
-2.27309	<s> a}a j}j	0.0000
-3.253208	<s> a}a k}k	0.0000
-2.721521	<s> a}a l|l}ll	0.0000
-0.975414	<s> a}a l}l	0.0000
-1.293612	<s> a}a m}m	0.0000
-0.9804935	<s> a}a n}n	0.0000
-1.058654	<s> a}a p}p	0.0000
-2.27309	<s> a}a q|u}k	0.0000
-1.56749	<s> a}a r|r}rr	0.0000
-1.216772	<s> a}a r}r	0.0000
-2.786422	<s> a}a s|c}z	0.0000
-1.20519	<s> a}a s}s	0.0000
-1.300674	<s> a}a t}t	0.0000
-1.311487	<s> a}a u}u	0.0000
-1.616182	<s> a}a v}b	0.0000
-3.253208	<s> a}a y}i	0.0000
-1.939876	<s> a}a y}y	0.0000
-2.006822	<s> a}a z}z	0.0000
-2.786422	<s> a}a é}e	0.0000
-2.210943	<s> a}a ñ}gn	0.0000
-3.076739	<s> a}a ú}u	0.0000
-0.09636217	_}e a}a </s>	0.0000
-0.8204166	a}a a}a t}t	0.0000
-0.8204166	a}a a}a v}b	0.0000
-0.7161154	b}b a}a </s>	0.0000
-1.889302	b}b a}a b}b	0.0000
-2.755476	b}b a}a c|h}ch	0.0000
-1.889302	b}b a}a c}k	0.0000
-2.044204	b}b a}a c}z	0.0000
-1.41218	b}b a}a d}d	0.0000
-2.755476	b}b a}a g}g	0.0000
-2.755476	b}b a}a h|a}a	0.0000
-1.775358	b}b a}a i}i	0.0000
-1.245849	b}b a}a j}j	0.0000
-2.579007	b}b a}a k}k	0.0000
-1.889302	b}b a}a l|l}ll	0.0000
-1.217204	b}b a}a l}l	0.0000
-1.775358	b}b a}a m}m	0.0000
-0.6388817	b}b a}a n}n	0.0000
-2.579007	b}b a}a n}n|	0.0000
-1.546879	b}b a}a r|r}rr	0.0000
-0.90253	b}b a}a r}r	0.0000
-1.181732	b}b a}a s}s	0.0000
-1.173298	b}b a}a t}t	0.0000
-2.28869	b}b a}a u}u	0.0000
-2.579007	b}b a}a y}i	0.0000
-2.579007	b}b a}a y}y	0.0000
-2.28869	b}b a}a z}z	0.0000
-1.986212	b}b a}a ñ}gn	0.0000
-0.7389991	c|h}ch a}a </s>	0.0000
-1.598789	c|h}ch a}a b}b	0.0000
-1.598789	c|h}ch a}a c|h}ch	0.0000
-0.9003671	c|h}ch a}a d}d	0.0000
-2.067571	c|h}ch a}a i}i	0.0000
-2.067571	c|h}ch a}a l}l	0.0000
-1.201397	c|h}ch a}a m}m	0.0000
-1.122216	c|h}ch a}a n}n	0.0000
-2.067571	c|h}ch a}a p}p	0.0000
-2.067571	c|h}ch a}a q|u}k	0.0000
-0.7100354	c|h}ch a}a r}r	0.0000
-1.025306	c|h}ch a}a s}s	0.0000
-2.067571	c|h}ch a}a t}t	0.0000
-1.600785	c|h}ch a}a v}b	0.0000
-1.087454	c|h}ch a}a z}z	0.0000
-1.193879	c}k a}a </s>	0.0000
-1.341482	c}k a}a b}b	0.0000
-3.131935	c}k a}a c|h}ch	0.0000
-1.480431	c}k a}a c}z	0.0000
-0.9847276	c}k a}a d}d	0.0000
-2.600249	c}k a}a e}e	0.0000
-2.663153	c}k a}a f}f	0.0000
-2.955466	c}k a}a g}g	0.0000
-2.420663	c}k a}a i}i	0.0000
-2.362671	c}k a}a j}j	0.0000
-2.035312	c}k a}a l|l}ll	0.0000
-1.119633	c}k a}a l}l	0.0000
-1.061641	c}k a}a m}m	0.0000
-0.8376261	c}k a}a n}n	0.0000
-1.480431	c}k a}a p}p	0.0000
-1.867821	c}k a}a r|r}rr	0.0000
-0.7304668	c}k a}a r}r	0.0000
-3.131935	c}k a}a r}r|	0.0000
-1.244572	c}k a}a s}s	0.0000
-1.368134	c}k a}a s}s|	0.0000
-1.439686	c}k a}a t}t	0.0000
-1.603003	c}k a}a u}u	0.0000
-2.665149	c}k a}a v}b	0.0000
-3.131935	c}k a}a y}i	0.0000
-2.311518	c}k a}a y}y	0.0000
-2.665149	c}k a}a z}z	0.0000
-2.362671	c}k a}a í}i	0.0000
-2.224368	c}k a}a ñ}gn	0.0000
-0.464969	d}d a}a </s>	0.0000
-1.903583	d}d a}a b}b	0.0000
-2.342916	d}d a}a c}k	0.0000
-2.132062	d}d a}a c}z	0.0000
-0.7504616	d}d a}a d}d	0.0000
-3.11218	d}d a}a e}e	0.0000
-2.400908	d}d a}a f}f	0.0000
-2.935711	d}d a}a g}g	0.0000
-3.11218	d}d a}a i}i	0.0000
-2.645394	d}d a}a l|l}ll	0.0000
-1.798848	d}d a}a l}l	0.0000
-1.394748	d}d a}a m}m	0.0000
-1.291763	d}d a}a n}n	0.0000
-2.291763	d}d a}a p}p	0.0000
-3.11218	d}d a}a r|r}rr	0.0000
-1.067029	d}d a}a r}r	0.0000
-0.6860993	d}d a}a s}s	0.0000
-2.204613	d}d a}a s}s|	0.0000
-2.041886	d}d a}a t}t	0.0000
-3.11218	d}d a}a u}u	0.0000
-2.204613	d}d a}a v}b	0.0000
-2.935711	d}d a}a y}y	0.0000
-2.643398	d}d a}a z}z	0.0000
-2.041886	d}d a}a ñ}gn	0.0000
-0.921626	e}e a}a </s>	0.0000
-1.324646	e}e a}a b}b	0.0000
-1.555094	e}e a}a c}k	0.0000
-2.2448	e}e a}a c}z	0.0000
-0.8227007	e}e a}a d}d	0.0000
-1.952487	e}e a}a f}f	0.0000
-2.421268	e}e a}a g}g	0.0000
-0.8923366	e}e a}a l}l	0.0000
-1.299822	e}e a}a m}m	0.0000
-0.8069064	e}e a}a n}n	0.0000
-1.709996	e}e a}a p}p	0.0000
-0.8069064	e}e a}a r}r	0.0000
-1.379003	e}e a}a s}s	0.0000
-1.889582	e}e a}a s}s|	0.0000
-1.408966	e}e a}a t}t	0.0000
-2.421268	e}e a}a v}b	0.0000
-1.409369	f}f a}a </s>	0.0000
-1.159492	f}f a}a b}b	0.0000
-2.229786	f}f a}a c|h}ch	0.0000
-1.001884	f}f a}a c}k	0.0000
-1.133163	f}f a}a c}z	0.0000
-1.763	f}f a}a d}d	0.0000
-2.229786	f}f a}a g}g	0.0000
-1.133163	f}f a}a l|l}ll	0.0000
-1.001884	f}f a}a l}l	0.0000
-1.187521	f}f a}a m}m	0.0000
-1.062582	f}f a}a n}n	0.0000
-1.041393	f}f a}a r}r	0.0000
-1.217484	f}f a}a s}s	0.0000
-1.159492	f}f a}a t}t	0.0000
-2.053317	f}f a}a u}u	0.0000
-1.062582	f}f a}a v}b	0.0000
-2.053317	f}f a}a x}x	0.0000
-0.9148461	g}g a}a </s>	0.0000
-1.62454	g}g a}a b}b	0.0000
-1.448449	g}g a}a c}z	0.0000
-0.8116266	g}g a}a d}d	0.0000
-2.694834	g}g a}a g}g	0.0000
-2.694834	g}g a}a i}i	0.0000
-2.228048	g}g a}a l|l}ll	0.0000
-1.272357	g}g a}a l}l	0.0000
-1.549906	g}g a}a m}m	0.0000
-0.6983261	g}g a}a n}n	0.0000
-1.787267	g}g a}a r|r}rr	0.0000
-0.6583982	g}g a}a r}r	0.0000
-1.138464	g}g a}a s}s	0.0000
-2.518365	g}g a}a s}s|	0.0000
-1.549906	g}g a}a t}t	0.0000
-1.787267	g}g a}a ñ}gn	0.0000
-1.012302	h|u}u a}a </s>	0.0000
-1.012302	h|u}u a}a c}k	0.0000
-1.012302	h|u}u a}a l}l	0.0000
-1.012302	h|u}u a}a n}n	0.0000
-1.012302	h|u}u a}a t}t	0.0000
-0.4795388	i}i a}a </s>	0.0000
-1.738987	i}i a}a b}b	0.0000
-2.79042	i}i a}a c|h}ch	0.0000
-2.255617	i}i a}a c}k	0.0000
-1.758292	i}i a}a c}z	0.0000
-0.9867718	i}i a}a d}d	0.0000
-2.197625	i}i a}a g}g	0.0000
-1.870266	i}i a}a j}j	0.0000
-0.9393471	i}i a}a l}l	0.0000
-1.638317	i}i a}a m}m	0.0000
-0.9639945	i}i a}a n}n	0.0000
-2.966889	i}i a}a o}o	0.0000
-2.79042	i}i a}a p}p	0.0000
-2.500103	i}i a}a r|r}rr	0.0000
-0.9801412	i}i a}a r}r	0.0000
-0.899318	i}i a}a s}s	0.0000
-1.870266	i}i a}a t}t	0.0000
-2.79042	i}i a}a z}z	0.0000
-0.8001058	j}j a}a </s>	0.0000
-1.277227	j}j a}a b}b	0.0000
-1.60822	j}j a}a c}k	0.0000
-1.850711	j}j a}a c}z	0.0000
-0.8405345	j}j a}a d}d	0.0000
-2.319492	j}j a}a i}i	0.0000
-1.550228	j}j a}a l}l	0.0000
-1.339375	j}j a}a m}m	0.0000
-0.8405345	j}j a}a n}n	0.0000
-1.787806	j}j a}a p}p	0.0000
-0.6337744	j}j a}a r}r	0.0000
-1.091591	j}j a}a s}s	0.0000
-2.319492	j}j a}a v}b	0.0000
-2.319492	j}j a}a w}u	0.0000
-0.7617608	k}k a}a </s>	0.0000
-1.113396	k}k a}a b}b	0.0000
-1.582177	k}k a}a d}d	0.0000
-1.582177	k}k a}a i}i	0.0000
-1.582177	k}k a}a l}l	0.0000
-1.050491	k}k a}a n}n	0.0000
-1.050491	k}k a}a r}r	0.0000
-1.582177	k}k a}a s}s	0.0000
-1.050491	k}k a}a t}t	0.0000
-0.5690105	l|l}ll a}a </s>	0.0000
-1.729831	l|l}ll a}a b}b	0.0000
-0.9522272	l|l}ll a}a d}d	0.0000
-0.9522272	l|l}ll a}a m}m	0.0000
-0.9174651	l|l}ll a}a n}n	0.0000
-2.022144	l|l}ll a}a r|r}rr	0.0000
-0.9344984	l|l}ll a}a r}r	0.0000
-0.776136	l|l}ll a}a s}s	0.0000
-2.198612	l|l}ll a}a z}z	0.0000
-0.9331999	l}l a}a </s>	0.0000
-1.31107	l}l a}a b}b	0.0000
-1.824708	l}l a}a c}k	0.0000
-1.318132	l}l a}a c}z	0.0000
-0.8966358	l}l a}a d}d	0.0000
-2.969636	l}l a}a f}f	0.0000
-1.824708	l}l a}a g}g	0.0000
-2.969636	l}l a}a g}j	0.0000
-2.50285	l}l a}a i}i	0.0000
-2.437949	l}l a}a j}j	0.0000
-2.969636	l}l a}a l}l	0.0000
-1.200372	l}l a}a m}m	0.0000
-0.7917078	l}l a}a n}n	0.0000
-2.103462	l}l a}a p}p	0.0000
-2.969636	l}l a}a q|u}k	0.0000
-2.50285	l}l a}a r|r}rr	0.0000
-0.7361057	l}l a}a r}r	0.0000
-2.969636	l}l a}a r}r|	0.0000
-1.23423	l}l a}a s}s	0.0000
-2.02428	l}l a}a s}s|	0.0000
-1.297282	l}l a}a t}t	0.0000
-1.899342	l}l a}a u}u	0.0000
-1.656304	l}l a}a v}b	0.0000
-2.969636	l}l a}a w}u	0.0000
-2.793167	l}l a}a x}x	0.0000
-2.793167	l}l a}a y}i	0.0000
-2.50285	l}l a}a y}y	0.0000
-1.598312	l}l a}a z}z	0.0000
-1.126199	m}m a}a </s>	0.0000
-1.981517	m}m a}a b}b	0.0000
-2.395185	m}m a}a c|h}ch	0.0000
-1.884607	m}m a}a c}k	0.0000
-1.61354	m}m a}a c}z	0.0000
-1.031314	m}m a}a d}d	0.0000
-2.395185	m}m a}a e}e	0.0000
-2.750403	m}m a}a f}f	0.0000
-1.738479	m}m a}a g}g	0.0000
-1.738479	m}m a}a g}j	0.0000
-2.060698	m}m a}a i}i	0.0000
-2.45809	m}m a}a j}j	0.0000
-2.926872	m}m a}a k}k	0.0000
-1.185637	m}m a}a l}l	0.0000
-1.662758	m}m a}a m}m	0.0000
-0.595315	m}m a}a n}n	0.0000
-2.750403	m}m a}a o}o	0.0000
-2.460086	m}m a}a p}p	0.0000
-2.395185	m}m a}a q|u}k	0.0000
-2.395185	m}m a}a r|r}rr	0.0000
-0.6877859	m}m a}a r}r	0.0000
-1.282547	m}m a}a s}s	0.0000
-1.946754	m}m a}a s}s|	0.0000
-1.254518	m}m a}a t}t	0.0000
-2.45809	m}m a}a u}u	0.0000
-2.750403	m}m a}a x}x	0.0000
-2.750403	m}m a}a y}i	0.0000
-1.856578	m}m a}a y}y	0.0000
-2.395185	m}m a}a z}z	0.0000
-2.926872	m}m a}a í}i	0.0000
-2.460086	m}m a}a ñ}gn	0.0000
-0.715349	n}n a}a </s>	0.0000
-1.885302	n}n a}a b}b	0.0000
-2.498543	n}n a}a c}k	0.0000
-1.271961	n}n a}a c}z	0.0000
-0.8061205	n}n a}a d}d	0.0000
-3.030229	n}n a}a f}f	0.0000
-2.209813	n}n a}a g}g	0.0000
-2.164055	n}n a}a j}j	0.0000
-0.9063767	n}n a}a l}l	0.0000
-1.40818	n}n a}a m}m	0.0000
-1.092173	n}n a}a n}n	0.0000
-2.563443	n}n a}a p}p	0.0000
-3.030229	n}n a}a r|r}rr	0.0000
-0.7820383	n}n a}a r}r	0.0000
-1.130632	n}n a}a s}s	0.0000
-2.260965	n}n a}a s}s|	0.0000
-1.540806	n}n a}a t}t	0.0000
-2.084874	n}n a}a u}u	0.0000
-1.821633	n}n a}a v}b	0.0000
-3.030229	n}n a}a w}u	0.0000
-1.821633	n}n a}a z}z	0.0000
-0.7269987	o}o a}a </s>	0.0000
-1.203572	o}o a}a c}k	0.0000
-1.672354	o}o a}a d}d	0.0000
-1.140668	o}o a}a l}l	0.0000
-0.50515	o}o a}a m}m	0.0000
-1.672354	o}o a}a r}r	0.0000
-1.205568	o}o a}a s}s	0.0000
-1.672354	o}o a}a t}t	0.0000
-1.495885	o}o a}a u}u	0.0000
-1.377418	p}p a}a </s>	0.0000
-2.014241	p}p a}a b}b	0.0000
-2.365875	p}p a}a c|h}ch	0.0000
-1.71321	p}p a}a c}k	0.0000
-1.32503	p}p a}a c}z	0.0000
-1.296385	p}p a}a d}d	0.0000
-2.658188	p}p a}a g|u}g	0.0000
-1.377418	p}p a}a g}g	0.0000
-2.658188	p}p a}a j}j	0.0000
-2.834657	p}p a}a k}k	0.0000
-1.111151	p}p a}a l}l	0.0000
-2.014241	p}p a}a m}m	0.0000
-1.076388	p}p a}a n}n	0.0000
-2.834657	p}p a}a o}o	0.0000
-1.968483	p}p a}a p}p	0.0000
-2.123385	p}p a}a q|u}k	0.0000
-2.302971	p}p a}a r|r}rr	0.0000
-0.4606271	p}p a}a r}r	0.0000
-1.039064	p}p a}a s}s	0.0000
-1.093422	p}p a}a t}t	0.0000
-2.014241	p}p a}a u}u	0.0000
-2.658188	p}p a}a v}b	0.0000
-2.834657	p}p a}a z}z	0.0000
-2.834657	p}p a}a í}i	0.0000
-1.437004	p}p a}a ñ}gn	0.0000
-0.841203	r|r}rr a}a </s>	0.0000
-1.735028	r|r}rr a}a b}b	0.0000
-1.735028	r|r}rr a}a c}z	0.0000
-0.8148741	r|r}rr a}a d}d	0.0000
-1.911497	r|r}rr a}a f}f	0.0000
-1.735028	r|r}rr a}a g}g	0.0000
-1.735028	r|r}rr a}a i}i	0.0000
-1.142233	r|r}rr a}a m}m	0.0000
-0.7231037	r|r}rr a}a n}n	0.0000
-0.8692317	r|r}rr a}a r}r	0.0000
-0.841203	r|r}rr a}a s}s	0.0000
-0.7294271	r}r a}a </s>	0.0000
-3.255517	r}r a}a a}a	0.0000
-1.491716	r}r a}a b}b	0.0000
-3.255517	r}r a}a c|h}ch	0.0000
-1.618491	r}r a}a c}k	0.0000
-1.389343	r}r a}a c}z	0.0000
-0.8761257	r}r a}a d}d	0.0000
-1.95798	r}r a}a e}e	0.0000
-1.897982	r}r a}a f}f	0.0000
-2.134071	r}r a}a g}g	0.0000
-2.723831	r}r a}a g}j	0.0000
-3.255517	r}r a}a h|a}a	0.0000
-2.243215	r}r a}a i}i	0.0000
-2.310162	r}r a}a j}j	0.0000
-2.723831	r}r a}a k}k	0.0000
-3.079049	r}r a}a l|l}ll	0.0000
-1.340125	r}r a}a l}l	0.0000
-1.42086	r}r a}a m}m	0.0000
-0.8016323	r}r a}a n}n	0.0000
-2.788731	r}r a}a o}o	0.0000
-2.185223	r}r a}a p}p	0.0000
-3.079049	r}r a}a q|u}k	0.0000
-2.788731	r}r a}a r|r}rr	0.0000
-0.9794102	r}r a}a r}r	0.0000
-1.14137	r}r a}a s}s	0.0000
-2.347951	r}r a}a s}s|	0.0000
-1.249464	r}r a}a t}t	0.0000
-2.435101	r}r a}a u}u	0.0000
-1.884193	r}r a}a v}b	0.0000
-2.347951	r}r a}a y}y	0.0000
-1.942185	r}r a}a z}z	0.0000
-2.435101	r}r a}a í}i	0.0000
-2.544245	r}r a}a ñ}gn	0.0000
-1.793509	r}rr a}a b}b	0.0000
-1.969978	r}rr a}a c|h}ch	0.0000
-1.200714	r}rr a}a c}z	0.0000
-0.8027737	r}rr a}a d}d	0.0000
-1.501196	r}rr a}a f}f	0.0000
-1.969978	r}rr a}a j}j	0.0000
-1.024622	r}rr a}a m}m	0.0000
-0.8996837	r}rr a}a n}n	0.0000
-1.438291	r}rr a}a p}p	0.0000
-1.503192	r}rr a}a r}r	0.0000
-1.062411	r}rr a}a s}s	0.0000
-0.9576757	r}rr a}a t}t	0.0000
-1.969978	r}rr a}a u}u	0.0000
-1.793509	r}rr a}a y}y	0.0000
-1.258706	r}rr a}a z}z	0.0000
-1.969978	r}rr a}a í}i	0.0000
-0.813347	s}s a}a </s>	0.0000
-2.867042	s}s a}a a}a	0.0000
-1.284864	s}s a}a b}b	0.0000
-1.469389	s}s a}a c}k	0.0000
-1.770419	s}s a}a c}z	0.0000
-1.051478	s}s a}a d}d	0.0000
-2.690573	s}s a}a e}e	0.0000
-1.921687	s}s a}a f}f	0.0000
-2.867042	s}s a}a g|u}g	0.0000
-2.335355	s}s a}a g}g	0.0000
-2.690573	s}s a}a g}j	0.0000
-2.690573	s}s a}a h|a}a	0.0000
-2.400256	s}s a}a i}i	0.0000
-1.921687	s}s a}a j}j	0.0000
-2.335355	s}s a}a k}k	0.0000
-0.8394997	s}s a}a l}l	0.0000
-1.310672	s}s a}a m}m	0.0000
-0.9477893	s}s a}a n}n	0.0000
-1.796748	s}s a}a p}p	0.0000
-2.400256	s}s a}a q|u}k	0.0000
-1.796748	s}s a}a r|r}rr	0.0000
-0.8673288	s}s a}a r}r	0.0000
-1.137545	s}s a}a s}s	0.0000
-2.867042	s}s a}a s}s|	0.0000
-1.569504	s}s a}a t}t	0.0000
-2.335355	s}s a}a u}u	0.0000
-2.690573	s}s a}a v}b	0.0000
-2.400256	s}s a}a y}y	0.0000
-2.867042	s}s a}a ñ}gn	0.0000
-0.7667081	t}t a}a </s>	0.0000
-3.259223	t}t a}a a}a	0.0000
-1.324863	t}t a}a b}b	0.0000
-3.259223	t}t a}a c|h}ch	0.0000
-1.749596	t}t a}a c}k	0.0000
-1.463629	t}t a}a c}z	0.0000
-0.869302	t}t a}a d}d	0.0000
-2.792437	t}t a}a f}f	0.0000
-2.114295	t}t a}a g}g	0.0000
-2.727536	t}t a}a g}j	0.0000
-2.489959	t}t a}a i}i	0.0000
-2.1626	t}t a}a j}j	0.0000
-3.082754	t}t a}a k}k	0.0000
-2.070829	t}t a}a l|l}ll	0.0000
-1.24692	t}t a}a l}l	0.0000
-1.367743	t}t a}a m}m	0.0000
-0.9899279	t}t a}a n}n	0.0000
-2.24692	t}t a}a p}p	0.0000
-2.489959	t}t a}a q|u}k	0.0000
-2.547951	t}t a}a r|r}rr	0.0000
-0.6795579	t}t a}a r}r	0.0000
-1.002113	t}t a}a s}s	0.0000
-2.351656	t}t a}a s}s|	0.0000
-1.86157	t}t a}a t}t	0.0000
-2.24692	t}t a}a u}u	0.0000
-2.393049	t}t a}a v}b	0.0000
-2.790441	t}t a}a x}x	0.0000
-2.438806	t}t a}a z}z	0.0000
-2.489959	t}t a}a ñ}gn	0.0000
-1.294596	u}u a}a </s>	0.0000
-1.621955	u}u a}a b}b	0.0000
-1.348954	u}u a}a c}z	0.0000
-0.8815922	u}u a}a d}d	0.0000
-2.391219	u}u a}a g}j	0.0000
-1.922437	u}u a}a j}j	0.0000
-0.6737865	u}u a}a l}l	0.0000
-1.621955	u}u a}a m}m	0.0000
-0.862287	u}u a}a n}n	0.0000
-0.6558131	u}u a}a r}r	0.0000
-1.679947	u}u a}a s}s	0.0000
-1.269772	u}u a}a t}t	0.0000
-1.922437	u}u a}a v}b	0.0000
-1.924433	u}u a}a y}i	0.0000
-1.621955	u}u a}a y}y	0.0000
-0.7278205	v}b a}a </s>	0.0000
-2.58963	v}b a}a b}b	0.0000
-1.401236	v}b a}a c}k	0.0000
-1.519336	v}b a}a c}z	0.0000
-0.983093	v}b a}a d}d	0.0000
-2.58963	v}b a}a g}g	0.0000
-2.413161	v}b a}a j}j	0.0000
-1.769213	v}b a}a l|l}ll	0.0000
-0.8661232	v}b a}a l}l	0.0000
-1.381033	v}b a}a m}m	0.0000
-0.8601328	v}b a}a n}n	0.0000
-2.58963	v}b a}a p}p	0.0000
-2.58963	v}b a}a q|u}k	0.0000
-2.057943	v}b a}a r|r}rr	0.0000
-0.9172757	v}b a}a r}r	0.0000
-0.9039117	v}b a}a s}s	0.0000
-1.878358	v}b a}a t}t	0.0000
-2.122844	v}b a}a y}y	0.0000
-0.8907498	w}u a}a i}i	0.0000
-0.8907498	w}u a}a l}l	0.0000
-0.8258494	w}u a}a n}n	0.0000
-0.8887539	w}u a}a r}r	0.0000
-1.357536	w}u a}a s}s	0.0000
-1.357536	w}u a}a z}z	0.0000
-1.136863	x}x a}a </s>	0.0000
-0.8445502	x}x a}a c}k	0.0000
-1.313332	x}x a}a c}z	0.0000
-1.136863	x}x a}a g}j	0.0000
-1.136863	x}x a}a l}l	0.0000
-0.7816457	x}x a}a m}m	0.0000
-1.136863	x}x a}a n}n	0.0000
-0.3432953	y}i a}a </s>	0.0000
-0.49485	y}y a}a </s>	0.0000
-1.689705	y}y a}a b}b	0.0000
-1.866174	y}y a}a c}z	0.0000
-1.689705	y}y a}a d}d	0.0000
-1.399388	y}y a}a m}m	0.0000
-0.5686362	y}y a}a n}n	0.0000
-1.866174	y}y a}a q|u}k	0.0000
-0.9586073	y}y a}a r}r	0.0000
-1.09691	y}y a}a s}s	0.0000
-1.689705	y}y a}a t}t	0.0000
-0.5927953	z}s a}a d}d	0.0000
-0.769264	z}s a}a s}z	0.0000
-0.7654393	z}z a}a </s>	0.0000
-1.668529	z}z a}a b}b	0.0000
-2.648647	z}z a}a c}k	0.0000
-1.110375	z}z a}a c}z	0.0000
-0.6718829	z}z a}a d}d	0.0000
-2.648647	z}z a}a f}f	0.0000
-2.179865	z}z a}a g}g	0.0000
-2.472178	z}z a}a i}i	0.0000
-2.181861	z}z a}a j}j	0.0000
-1.44005	z}z a}a m}m	0.0000
-0.9074113	z}z a}a n}n	0.0000
-2.11696	z}z a}a p}p	0.0000
-0.5783526	z}z a}a r}r	0.0000
-1.351109	z}z a}a s}s	0.0000
-0.1672041	é}e a}a n}n	0.0000
-1.613241	í}i a}a </s>	0.0000
-1.676146	í}i a}a c}k	0.0000
-0.9565343	í}i a}a m}m	0.0000
-1.968459	í}i a}a n}n	0.0000
-0.2453298	í}i a}a n}n|	0.0000
-0.6452851	í}i a}a s}s|	0.0000
-1.735028	ñ}gn a}a b}b	0.0000
-0.526809	ñ}gn a}a d}d	0.0000
-0.744293	ñ}gn a}a l}l	0.0000
-1.911497	ñ}gn a}a m}m	0.0000
-1.045323	ñ}gn a}a n}n	0.0000
-1.442715	ñ}gn a}a n}n|	0.0000
-0.899195	ñ}gn a}a r}r	0.0000
-1.200225	ñ}gn a}a r}r|	0.0000
-0.9313796	ñ}gn a}a s}s|	0.0000
-0.08715018	ú}u a}a n}n|	0.0000
-0.9075668	ú}u a}a s}s|	0.0000
-0.001448026	b}b a}a| </s>	0.0000
-0.003069232	c}k a}a| </s>	0.0000
-0.01930515	d}d a}a| </s>	0.0000
-0.03476211	e}e a}a| </s>	0.0000
-0.09636217	g}g a}a| </s>	0.0000
-0.1672041	i}i a}a| </s>	0.0000
-0.01472326	l}l a}a| </s>	0.0000
-0.02020339	m}m a}a| </s>	0.0000
-0.04575749	n}n a}a| </s>	0.0000
-0.0211893	r}r a}a| </s>	0.0000
-0.1672041	s}s a}a| </s>	0.0000
-0.03218468	t}t a}a| </s>	0.0000
-0.1668265	z}z a}a| </s>	0.0000
-0.001338351	í}i a}a| </s>	0.0000
-0.009545318	ñ}gn a}a| </s>	0.0000
-0.03778856	ú}u a}a| </s>	0.0000
-0.4988932	<s> b}b a}a	0.0000
-0.86257	<s> b}b e}e	0.0000
-1.211025	<s> b}b i}i	0.0000
-1.324968	<s> b}b l}l	0.0000
-0.7850559	<s> b}b o}o	0.0000
-0.927028	<s> b}b r}r	0.0000
-0.9044622	<s> b}b u}u	0.0000
-1.802089	<s> b}b á}a	0.0000
-2.491795	<s> b}b é}e	0.0000
-2.491795	<s> b}b ú}u	0.0000
-0.09636217	_}e b}b _}e	0.0000
-2.732461	a}a b}b </s>	0.0000
-0.3877209	a}a b}b a}a	0.0000
-2.555993	a}a b}b a}a|	0.0000
-2.732461	a}a b}b b}b	0.0000
-2.021189	a}a b}b d}d	0.0000
-1.222835	a}a b}b e}e	0.0000
-1.133894	a}a b}b i}i	0.0000
-0.6787666	a}a b}b l}l	0.0000
-1.080958	a}a b}b o}o	0.0000
-1.167317	a}a b}b r}r	0.0000
-1.565257	a}a b}b s}s	0.0000
-1.565257	a}a b}b u}u	0.0000
-2.265675	a}a b}b í}i	0.0000
-2.555993	a}a b}b ó}o	0.0000
-2.732461	a}a b}b ó}o|	0.0000
-0.4682341	b}b b}b a}a	0.0000
-1.526493	e}e b}b </s>	0.0000
-0.7121314	e}e b}b a}a	0.0000
-0.765377	e}e b}b e}e	0.0000
-0.765377	e}e b}b i}i	0.0000
-1.172862	e}e b}b l}l	0.0000
-1.461592	e}e b}b o}o	0.0000
-0.5830368	e}e b}b r}r	0.0000
-1.81681	e}e b}b u}u	0.0000
-1.81681	e}e b}b í}i	0.0000
-1.528554	h|a}a b}b a}a	0.0000
-1.173337	h|a}a b}b e}e	0.0000
-0.3474874	h|a}a b}b i}i	0.0000
-0.5166298	h|a}a b}b l}l	0.0000
-1.238237	h|a}a b}b r}r	0.0000
-1.528554	h|a}a b}b í}i	0.0000
-0.1668265	h|e}e b}b r}r	0.0000
-1.313332	h|i}i b}b a}a	0.0000
-0.8465461	h|i}i b}b e}e	0.0000
-0.1249387	h|i}i b}b i}i	0.0000
-0.1775393	h|u}u b}b i}i	0.0000
-0.8681124	i}i b}b a}a	0.0000
-0.69897	i}i b}b e}e	0.0000
-0.7205097	i}i b}b i}i	0.0000
-0.7923917	i}i b}b l}l	0.0000
-1.537119	i}i b}b o}o	0.0000
-1.028964	i}i b}b r}r	0.0000
-0.8192638	i}i b}b u}u	0.0000
-2.357536	i}i b}b á}a	0.0000
-2.181067	i}i b}b í}i	0.0000
-2.357536	i}i b}b ó}o|	0.0000
-0.8287559	l}l b}b a}a	0.0000
-0.3174204	l}l b}b e}e	0.0000
-0.8307518	l}l b}b o}o	0.0000
-1.297538	l}l b}b u}u	0.0000
-0.6113204	m}m b}b a}a	0.0000
-1.374748	m}m b}b e}e	0.0000
-0.6265603	m}m b}b i}i	0.0000
-1.333356	m}m b}b l}l	0.0000
-1.052529	m}m b}b o}o	0.0000
-0.561835	m}m b}b r}r	0.0000
-1.333356	m}m b}b u}u	0.0000
-2.064454	m}m b}b ó}o	0.0000
-0.9075668	n}n b}b a}a	0.0000
-0.4387849	n}n b}b e}e	0.0000
-1.903179	o}o b}b </s>	0.0000
-0.763428	o}o b}b a}a	0.0000
-2.369965	o}o b}b b}b	0.0000
-2.369965	o}o b}b c}z	0.0000
-0.9017307	o}o b}b e}e	0.0000
-1.299671	o}o b}b i}i	0.0000
-1.549548	o}o b}b j}j	0.0000
-0.8225495	o}o b}b l}l	0.0000
-1.248518	o}o b}b o}o	0.0000
-0.6908773	o}o b}b r}r	0.0000
-2.369965	o}o b}b s|c}z	0.0000
-1.012429	o}o b}b s}s	0.0000
-1.424609	o}o b}b t}t	0.0000
-1.903179	o}o b}b u}u	0.0000
-1.903179	o}o b}b v}b	0.0000
-1.901183	o}o b}b ó}o|	0.0000
-0.4941546	r}r b}b a}a	0.0000
-0.9378521	r}r b}b e}e	0.0000
-0.5698753	r}r b}b i}i	0.0000
-0.6879746	r}r b}b o}o	0.0000
-1.291483	r}r b}b u}u	0.0000
-1.758269	r}r b}b ó}o	0.0000
-1.096623	s}s b}b e}e	0.0000
-0.3273589	s}s b}b o}o	0.0000
-0.629837	s}s b}b u}u	0.0000
-0.05115252	t}t b}b o}o	0.0000
-2.003572	u}u b}b </s>	0.0000
-0.8825034	u}u b}b a}a	0.0000
-1.713255	u}u b}b c}k	0.0000
-2.003572	u}u b}b d}d	0.0000
-1.109747	u}u b}b e}e	0.0000
-0.6511094	u}u b}b i}i	0.0000
-0.933656	u}u b}b l}l	0.0000
-1.711259	u}u b}b m}m	0.0000
-1.468769	u}u b}b o}o	0.0000
-1.713255	u}u b}b p}p	0.0000
-0.8514692	u}u b}b r}r	0.0000
-1.083418	u}u b}b s}s	0.0000
-2.180041	u}u b}b t}t	0.0000
-1.713255	u}u b}b u}u	0.0000
-1.468769	u}u b}b v}b	0.0000
-2.180041	u}u b}b y}y	0.0000
-2.003572	u}u b}b é}e	0.0000
-0.3432953	z}z b}b a}a	0.0000
-0.05799195	á}a b}b a}a	0.0000
-1.070294	á}a b}b r}r	0.0000
-0.4682341	é}e b}b i}i	0.0000
-0.6443253	í}i b}b a}a	0.0000
-0.1775393	í}i b}b l}l	0.0000
-0.1672041	ó}o b}b a}a	0.0000
-0.4407807	ú}u b}b i}i	0.0000
-0.3758803	ú}u b}b l}l	0.0000
-0.60206	<s> c|h}ch a}a	0.0000
-0.7546701	<s> c|h}ch e}e	0.0000
-0.5149098	<s> c|h}ch i}i	0.0000
-0.8293038	<s> c|h}ch o}o	0.0000
-1.723129	<s> c|h}ch r}r	0.0000
-1.130334	<s> c|h}ch u}u	0.0000
-1.422477	a}a c|h}ch </s>	0.0000
-0.4101745	a}a c|h}ch a}a	0.0000
-1.422477	a}a c|h}ch e}e	0.0000
-0.9556906	a}a c|h}ch i}i	0.0000
-0.60206	a}a c|h}ch o}o	0.0000
-1.246008	a}a c|h}ch u}u	0.0000
-0.2481777	e}e c|h}ch a}a	0.0000
-0.7832909	e}e c|h}ch e}e	0.0000
-1.795593	e}e c|h}ch i}i	0.0000
-0.7252989	e}e c|h}ch o}o	0.0000
-1.619124	e}e c|h}ch ó}o|	0.0000
-0.769264	h|e}e c|h}ch a}a	0.0000
-0.302478	h|e}e c|h}ch o}o	0.0000
-1.181067	i}i c|h}ch </s>	0.0000
-0.5882717	i}i c|h}ch a}a	0.0000
-0.8887539	i}i c|h}ch e}e	0.0000
-0.8907498	i}i c|h}ch i}i	0.0000
-0.6462637	i}i c|h}ch o}o	0.0000
-1.357536	i}i c|h}ch t}t	0.0000
-1.357536	i}i c|h}ch u}u	0.0000
-0.6443253	l}l c|h}ch e}e	0.0000
-0.4678566	l}l c|h}ch o}o	0.0000
-0.4336556	n}n c|h}ch a}a	0.0000
-0.5383909	n}n c|h}ch e}e	0.0000
-1.269489	n}n c|h}ch i}i	0.0000
-0.9771758	n}n c|h}ch o}o	0.0000
-1.445958	n}n c|h}ch u}u	0.0000
-1.445958	n}n c|h}ch ó}o|	0.0000
-1.121069	o}o c|h}ch a}a	0.0000
-0.3521825	o}o c|h}ch e}e	0.0000
-1.121069	o}o c|h}ch i}i	0.0000
-0.5282738	o}o c|h}ch o}o	0.0000
-0.2762064	r}r c|h}ch a}a	0.0000
-0.9201542	r}r c|h}ch e}e	0.0000
-0.629837	r}r c|h}ch i}i	0.0000
-0.9801174	s}s c|h}ch </s>	0.0000
-0.9801174	s}s c|h}ch i}i	0.0000
-0.5133314	s}s c|h}ch u}u	0.0000
-0.5651441	t}t c|h}ch </s>	0.0000
-0.5651441	t}t c|h}ch e}e	0.0000
-0.243038	u}u c|h}ch a}a	0.0000
-0.90309	u}u c|h}ch e}e	0.0000
-1.147576	u}u c|h}ch i}i	0.0000
-1.14558	u}u c|h}ch o}o	0.0000
-1.147576	u}u c|h}ch í}i	0.0000
-1.614362	u}u c|h}ch ó}o|	0.0000
-0.1672041	ú}u c|h}ch e}e	0.0000
-0.5955509	<s> c}k a}a	0.0000
-1.591976	<s> c}k l}l	0.0000
-0.2508501	<s> c}k o}o	0.0000
-1.225018	<s> c}k r}r	0.0000
-1.067676	<s> c}k u}u	0.0000
-3.24348	<s> c}k y}i	0.0000
-2.146857	<s> c}k á}a	0.0000
-2.335914	<s> c}k ó}o	0.0000
-3.067012	<s> c}k ú}u	0.0000
-1.769213	a}a c}k </s>	0.0000
-0.6406703	a}a c}k a}a	0.0000
-1.110672	a}a c}k c}z	0.0000
-2.120848	a}a c}k k}k	0.0000
-1.468183	a}a c}k l}l	0.0000
-0.778973	a}a c}k o}o	0.0000
-2.413161	a}a c}k o}o|	0.0000
-1.246334	a}a c}k r}r	0.0000
-0.6515737	a}a c}k t}t	0.0000
-0.8096418	a}a c}k u}u	0.0000
-2.120848	a}a c}k á}a	0.0000
-2.413161	a}a c}k ó}o|	0.0000
-2.58963	a}a c}k ú}u	0.0000
-0.3886753	b}b c}k o}o	0.0000
-0.4682341	d}d c}k a}a	0.0000
-0.4682341	d}d c}k o}o	0.0000
-2.174093	e}e c}k </s>	0.0000
-1.028513	e}e c}k a}a	0.0000
-1.104603	e}e c}k c}z	0.0000
-1.086505	e}e c}k l}l	0.0000
-2.111189	e}e c}k n}n	0.0000
-0.6561273	e}e c}k o}o	0.0000
-1.39649	e}e c}k r}r	0.0000
-0.5361519	e}e c}k t}t	0.0000
-0.8129134	e}e c}k u}u	0.0000
-2.111189	e}e c}k á}a	0.0000
-2.642875	e}e c}k ó}o	0.0000
-0.1672041	h|í}i c}k u}u	0.0000
-1.929419	i}i c}k </s>	0.0000
-0.309363	i}i c}k a}a	0.0000
-0.9003475	i}i c}k a}a|	0.0000
-1.964181	i}i c}k c}z	0.0000
-1.964181	i}i c}k k}k	0.0000
-2.00197	i}i c}k l}l	0.0000
-0.9227883	i}i c}k o}o	0.0000
-0.9162575	i}i c}k o}o|	0.0000
-2.198264	i}i c}k r}r	0.0000
-1.344392	i}i c}k t}t	0.0000
-1.681634	i}i c}k u}u	0.0000
-2.909536	i}i c}k á}a	0.0000
-2.733068	i}i c}k ó}o	0.0000
-1.645422	i}i c}k ó}o|	0.0000
-0.3657553	l}l c}k a}a	0.0000
-1.679087	l}l c}k l}l	0.0000
-0.69897	l}l c}k o}o	0.0000
-0.69897	l}l c}k u}u	0.0000
-1.210306	l}l c}k á}a	0.0000
-0.731098	m}m c}k c}k	0.0000
-0.731098	m}m c}k d}d	0.0000
-1.896318	n}n c}k </s>	0.0000
-0.5284467	n}n c}k a}a	0.0000
-0.8948697	n}n c}k l}l	0.0000
-0.5884447	n}n c}k o}o	0.0000
-1.09899	n}n c}k r}r	0.0000
-0.6975891	n}n c}k u}u	0.0000
-2.363104	n}n c}k y}i	0.0000
-2.186635	n}n c}k ó}o	0.0000
-2.188016	o}o c}k </s>	0.0000
-0.3777366	o}o c}k a}a	0.0000
-1.832798	o}o c}k c}z	0.0000
-1.832798	o}o c}k k}k	0.0000
-1.595221	o}o c}k l}l	0.0000
-1.118099	o}o c}k o}o	0.0000
-2.364485	o}o c}k o}o|	0.0000
-1.197281	o}o c}k r}r	0.0000
-1.322219	o}o c}k t}t	0.0000
-0.5638121	o}o c}k u}u	0.0000
-2.188016	o}o c}k á}a	0.0000
-1.595221	o}o c}k ó}o|	0.0000
-1.996508	r}r c}k </s>	0.0000
-0.2730013	r}r c}k a}a	0.0000
-0.6251838	r}r c}k o}o	0.0000
-0.7879111	r}r c}k u}u	0.0000
-1.529722	r}r c}k ó}o	0.0000
-1.996508	r}r c}k ó}o|	0.0000
-0.4806096	s}s c}k a}a	0.0000
-1.619789	s}s c}k l}l	0.0000
-0.6102434	s}s c}k o}o	0.0000
-0.8336686	s}s c}k r}r	0.0000
-0.6549532	s}s c}k u}u	0.0000
-1.971423	s}s c}k á}a	0.0000
-2.440205	s}s c}k ó}o	0.0000
-2.440205	s}s c}k ú}u	0.0000
-0.6330943	u}u c}k a}a	0.0000
-0.8883668	u}u c}k c}z	0.0000
-1.930632	u}u c}k k}k	0.0000
-1.463846	u}u c}k l}l	0.0000
-1.930632	u}u c}k o}o|	0.0000
-0.91833	u}u c}k r}r	0.0000
-0.4112455	u}u c}k t}t	0.0000
-1.930632	u}u c}k u}u	0.0000
-1.930632	u}u c}k á}a	0.0000
-0.9201542	x}x c}k a}a	0.0000
-0.2762064	x}x c}k l}l	0.0000
-1.096623	x}x c}k o}o	0.0000
-1.096623	x}x c}k u}u	0.0000
-0.1672041	z}s c}k o}o	0.0000
-0.1421068	z}z c}k a}a	0.0000
-1.030861	z}z c}k l}l	0.0000
-0.9679561	z}z c}k o}o	0.0000
-1.167204	á}a c}k o}o	0.0000
-0.2596373	á}a c}k t}t	0.0000
-0.6355177	á}a c}k u}u	0.0000
-0.9801174	é}e c}k a}a	0.0000
-0.5113356	é}e c}k n}n	0.0000
-0.5133314	é}e c}k t}t	0.0000
-1.121447	í}i c}k l}l	0.0000
-1.121447	í}i c}k o}o	0.0000
-0.9449778	í}i c}k t}t	0.0000
-0.2552725	í}i c}k u}u	0.0000
-0.2375776	ó}o c}k r}r	0.0000
-0.1672041	o}o c}s|z i}i	0.0000
-0.30103	<s> c}z e}e	0.0000
-0.3758589	<s> c}z i}i	0.0000
-1.444045	<s> c}z é}e	0.0000
-1.402652	<s> c}z í}i	0.0000
-0.04575749	_}e c}z _}e	0.0000
-0.9309552	a}a c}z e}e	0.0000
-0.06541596	a}a c}z i}i	0.0000
-2.184521	a}a c}z é}e	0.0000
-1.895791	a}a c}z í}i	0.0000
-0.1672041	b}b c}z e}e	0.0000
-1.241262	c}k c}z e}e	0.0000
-0.02945498	c}k c}z i}i	0.0000
-0.4434817	e}e c}z e}e	0.0000
-0.2420676	e}e c}z i}i	0.0000
-1.218944	e}e c}z í}i	0.0000
-2.516482	e}e c}z í}i|	0.0000
-0.1836444	h|a}a c}z e}e	0.0000
-0.6173	h|a}a c}z i}i	0.0000
-1.152103	h|a}a c}z í}i	0.0000
-0.09835804	h|i}i c}z i}i	0.0000
-0.8400656	i}i c}z e}e	0.0000
-2.031845	i}i c}z e}e|	0.0000
-0.07857426	i}i c}z i}i	0.0000
-2.031845	i}i c}z í}i	0.0000
-0.6443253	l}l c}z e}e	0.0000
-0.1775393	l}l c}z i}i	0.0000
-0.7080974	n}n c}z e}e	0.0000
-0.09936313	n}n c}z i}i	0.0000
-2.450881	n}n c}z í}i	0.0000
-0.4476663	o}o c}z e}e	0.0000
-0.2329961	o}o c}z i}i	0.0000
-1.632384	o}o c}z é}e	0.0000
-1.630388	o}o c}z í}i	0.0000
-0.01523997	p}p c}z i}i	0.0000
-0.3716111	r}r c}z e}e	0.0000
-0.2466723	r}r c}z i}i	0.0000
-0.4881167	s}s c}z e}e	0.0000
-0.1870866	s}s c}z i}i	0.0000
-0.6115359	u}u c}z e}e	0.0000
-0.1344146	u}u c}z i}i	0.0000
-1.83272	u}u c}z í}i	0.0000
-0.03218468	x}x c}z e}e	0.0000
-0.8204166	á}a c}z e}e	0.0000
-0.1091445	á}a c}z i}i	0.0000
-0.1668265	é}e c}z i}i	0.0000
-0.04575749	í}i c}z i}i	0.0000
-0.1668265	ó}o c}z e}e	0.0000
-1.332812	<s> d}d a}a	0.0000
-0.2335496	<s> d}d e}e	0.0000
-0.6068201	<s> d}d i}i	0.0000
-1.192079	<s> d}d o}o	0.0000
-2.095169	<s> d}d r}r	0.0000
-1.485422	<s> d}d u}u	0.0000
-2.575785	<s> d}d á}a	0.0000
-2.199905	<s> d}d é}e	0.0000
-2.63869	<s> d}d í}i	0.0000
-2.931003	<s> d}d ó}o	0.0000
-0.1126389	_}e d}d _}e	0.0000
-1.148408	a}a d}d </s>	0.0000
-0.5674228	a}a d}d a}a	0.0000
-2.761649	a}a d}d a}a|	0.0000
-3.293335	a}a d}d d}d	0.0000
-1.271825	a}a d}d e}e	0.0000
-2.82655	a}a d}d h|e}e	0.0000
-1.482679	a}a d}d i}i	0.0000
-2.582063	a}a d}d j}j	0.0000
-1.95004	a}a d}d m}m	0.0000
-0.2994089	a}a d}d o}o	0.0000
-2.313218	a}a d}d o}o|	0.0000
-2.524071	a}a d}d q|u}k	0.0000
-1.883093	a}a d}d r}r	0.0000
-2.82655	a}a d}d s}s	0.0000
-1.870859	a}a d}d u}u	0.0000
-2.223042	a}a d}d v}b	0.0000
-2.82655	a}a d}d á}a	0.0000
-3.116867	a}a d}d é}e	0.0000
-2.761649	a}a d}d í}i	0.0000
-3.293335	a}a d}d ó}o	0.0000
-3.116867	a}a d}d ó}o|	0.0000
-0.8661741	b}b d}d a}a	0.0000
-0.6897053	b}b d}d e}e	0.0000
-0.8661741	b}b d}d i}i	0.0000
-0.8661741	b}b d}d u}u	0.0000
-0.3432953	c}k d}d o}o	0.0000
-0.6443253	d}d d}d i}i	0.0000
-1.508049	e}e d}d </s>	0.0000
-0.7908537	e}e d}d a}a	0.0000
-2.520351	e}e d}d a}a|	0.0000
-2.520351	e}e d}d d}d	0.0000
-0.7456915	e}e d}d e}e	0.0000
-0.4610519	e}e d}d i}i	0.0000
-0.9299006	e}e d}d o}o	0.0000
-2.520351	e}e d}d o}o|	0.0000
-1.450057	e}e d}d r}r	0.0000
-1.063112	e}e d}d u}u	0.0000
-2.053565	e}e d}d í}i	0.0000
-0.3432953	g}g d}d a}a	0.0000
-0.2444861	h|a}a d}d a}a	0.0000
-0.08715018	h|i}i d}d r}r	0.0000
-1.996432	i}i d}d </s>	0.0000
-0.3798133	i}i d}d a}a	0.0000
-2.192727	i}i d}d a}a|	0.0000
-0.8337048	i}i d}d e}e	0.0000
-1.140198	i}i d}d i}i	0.0000
-0.5037987	i}i d}d o}o	0.0000
-1.958644	i}i d}d o}o|	0.0000
-2.435217	i}i d}d r}r	0.0000
-2.037825	i}i d}d u}u	0.0000
-2.903999	i}i d}d é}e	0.0000
-2.903999	i}i d}d í}i	0.0000
-2.903999	i}i d}d ó}o|	0.0000
-0.9294189	l}l d}d </s>	0.0000
-0.5172385	l}l d}d a}a	0.0000
-0.7533277	l}l d}d e}e	0.0000
-1.405992	l}l d}d i}i	0.0000
-0.7075702	l}l d}d o}o	0.0000
-1.405992	l}l d}d r}r	0.0000
-1.698305	l}l d}d s}s	0.0000
-1.874774	l}l d}d í}i	0.0000
-2.063208	n}n d}d </s>	0.0000
-0.8728765	n}n d}d a}a	0.0000
-0.8264191	n}n d}d e}e	0.0000
-3.008564	n}n d}d e}e|	0.0000
-0.7639916	n}n d}d i}i	0.0000
-0.3606341	n}n d}d o}o	0.0000
-2.2393	n}n d}d o}o|	0.0000
-1.470292	n}n d}d r}r	0.0000
-2.832095	n}n d}d s}s	0.0000
-1.461148	n}n d}d u}u	0.0000
-2.832095	n}n d}d y}i	0.0000
-2.832095	n}n d}d á}a	0.0000
-2.476877	n}n d}d é}e	0.0000
-2.100997	n}n d}d í}i	0.0000
-2.297292	n}n d}d ó}o|	0.0000
-2.180041	o}o d}d </s>	0.0000
-1.058595	o}o d}d a}a	0.0000
-2.180041	o}o d}d a}a|	0.0000
-0.5814735	o}o d}d e}e	0.0000
-0.7823883	o}o d}d i}i	0.0000
-2.003572	o}o d}d m}m	0.0000
-1.012837	o}o d}d o}o	0.0000
-1.713255	o}o d}d o}o|	0.0000
-1.359625	o}o d}d r}r	0.0000
-0.6906179	o}o d}d u}u	0.0000
-1.410777	o}o d}d í}i	0.0000
-2.180041	o}o d}d ó}o	0.0000
-1.339593	r}r d}d </s>	0.0000
-0.5266801	r}r d}d a}a	0.0000
-0.6344631	r}r d}d e}e	0.0000
-0.7375334	r}r d}d i}i	0.0000
-2.351896	r}r d}d n}n	0.0000
-0.8624721	r}r d}d o}o	0.0000
-2.351896	r}r d}d t}t	0.0000
-1.883114	r}r d}d u}u	0.0000
-2.175427	r}r d}d á}a	0.0000
-1.531479	r}r d}d í}i	0.0000
-2.351896	r}r d}d ó}o	0.0000
-1.883114	r}r d}d ó}o|	0.0000
-0.769264	s}s d}d a}a	0.0000
-0.769264	s}s d}d e}e	0.0000
-0.5927953	s}s d}d i}i	0.0000
-1.163029	u}u d}d </s>	0.0000
-0.478782	u}u d}d a}a	0.0000
-2.284475	u}u d}d c}k	0.0000
-0.9711432	u}u d}d e}e	0.0000
-0.4992232	u}u d}d i}i	0.0000
-0.9711432	u}u d}d o}o	0.0000
-1.817689	u}u d}d u}u	0.0000
-1.815693	u}u d}d í}i	0.0000
-2.108006	u}u d}d ó}o|	0.0000
-0.001448026	á}a d}d i}i	0.0000
-0.8661741	é}e d}d e}e	0.0000
-0.154902	é}e d}d i}i	0.0000
-1.357536	í}i d}d a}a	0.0000
-0.8887539	í}i d}d a}a|	0.0000
-1.357536	í}i d}d e}e	0.0000
-0.8887539	í}i d}d i}i	0.0000
-0.5882717	í}i d}d o}o	0.0000
-0.5371192	í}i d}d o}o|	0.0000
-0.3004822	ó}o d}d i}i	0.0000
-0.769264	ó}o d}d u}u	0.0000
-2.924981	<s> e}e a}a	0.0000
-3.10145	<s> e}e b}b	0.0000
-2.193883	<s> e}e c|h}ch	0.0000
-1.803912	<s> e}e c}k	0.0000
-1.691208	<s> e}e d}d	0.0000
-1.716762	<s> e}e f}f	0.0000
-2.634664	<s> e}e g}g	0.0000
-2.634664	<s> e}e g}j	0.0000
-3.10145	<s> e}e i}i	0.0000
-1.691208	<s> e}e j}j	0.0000
-2.634664	<s> e}e l|l}ll	0.0000
-1.24405	<s> e}e l}l	0.0000
-1.067959	<s> e}e m}m	0.0000
-0.6299708	<s> e}e n}n	0.0000
-2.390178	<s> e}e p}p	0.0000
-1.913057	<s> e}e q|u}k	0.0000
-2.121332	<s> e}e r|r}rr	0.0000
-1.913057	<s> e}e r}r	0.0000
-3.10145	<s> e}e s|c}z	0.0000
-0.565959	<s> e}e s}s	0.0000
-2.121332	<s> e}e t}t	0.0000
-2.121332	<s> e}e u}u	0.0000
-1.563178	<s> e}e v}b	0.0000
-0.7581546	<s> e}e x}x	0.0000
-2.924981	<s> e}e z}z	0.0000
-0.1672041	_}e e}e </s>	0.0000
-1.509249	a}a e}e </s>	0.0000
-1.685718	a}a e}e d}d	0.0000
-0.6434527	a}a e}e l}l	0.0000
-1.509249	a}a e}e n}n	0.0000
-0.3881802	a}a e}e r}r	0.0000
-0.916454	a}a e}e s}s	0.0000
-1.685718	a}a e}e v}b	0.0000
-1.509249	a}a e}e z}z	0.0000
-1.133006	b}b e}e </s>	0.0000
-2.379392	b}b e}e a}a	0.0000
-1.91061	b}b e}e b}b	0.0000
-2.379392	b}b e}e c}k	0.0000
-1.558975	b}b e}e d}d	0.0000
-1.847705	b}b e}e i}i	0.0000
-1.471825	b}b e}e l|l}ll	0.0000
-1.133006	b}b e}e l}l	0.0000
-2.379392	b}b e}e m}m	0.0000
-0.8797491	b}b e}e n}n	0.0000
-2.379392	b}b e}e r|r}rr	0.0000
-0.3548551	b}b e}e r}r	0.0000
-1.471825	b}b e}e s}s	0.0000
-1.399274	b}b e}e t}t	0.0000
-1.282769	b}b e}e z}z	0.0000
-1.912606	b}b e}e ñ}gn	0.0000
-0.60206	c|h}ch e}e </s>	0.0000
-1.302478	c|h}ch e}e c|h}ch	0.0000
-1.302478	c|h}ch e}e c}k	0.0000
-1.300482	c|h}ch e}e l}l	0.0000
-0.7891467	c|h}ch e}e n}n	0.0000
-1.300482	c|h}ch e}e q|u}k	0.0000
-0.8616973	c|h}ch e}e r}r	0.0000
-1.592795	c|h}ch e}e s}s	0.0000
-1.302478	c|h}ch e}e t}t	0.0000
-1.592795	c|h}ch e}e v}b	0.0000
-1.769264	c|h}ch e}e z}z	0.0000
-0.925754	c}z e}e </s>	0.0000
-1.981705	c}z e}e a}a	0.0000
-2.750969	c}z e}e b}b	0.0000
-2.750969	c}z e}e c}k	0.0000
-1.113943	c}z e}e d}d	0.0000
-2.282187	c}z e}e f}f	0.0000
-2.750969	c}z e}e g}g	0.0000
-2.284184	c}z e}e i}i	0.0000
-1.078615	c}z e}e l}l	0.0000
-1.805614	c}z e}e m}m	0.0000
-0.7145336	c}z e}e n}n	0.0000
-2.282187	c}z e}e o}o	0.0000
-1.185825	c}z e}e p}p	0.0000
-0.5859423	c}z e}e r}r	0.0000
-0.9025241	c}z e}e s}s	0.0000
-2.284184	c}z e}e s}s|	0.0000
-1.930553	c}z e}e t}t	0.0000
-2.750969	c}z e}e v}b	0.0000
-1.339766	d}d e}e </s>	0.0000
-1.873369	d}d e}e a}a	0.0000
-1.581482	d}d e}e b}b	0.0000
-1.513218	d}d e}e c}k	0.0000
-1.329301	d}d e}e c}z	0.0000
-1.822217	d}d e}e d}d	0.0000
-1.537577	d}d e}e f}f	0.0000
-2.652968	d}d e}e g}g	0.0000
-2.943286	d}d e}e i}i	0.0000
-1.822217	d}d e}e j}j	0.0000
-1.36709	d}d e}e l}l	0.0000
-1.345095	d}d e}e m}m	0.0000
-0.8956454	d}d e}e n}n	0.0000
-2.107452	d}d e}e o}o	0.0000
-1.461189	d}d e}e p}p	0.0000
-1.838607	d}d e}e r|r}rr	0.0000
-0.9503843	d}d e}e r}r	0.0000
-2.212188	d}d e}e s|c}z	0.0000
-0.5092873	d}d e}e s}s	0.0000
-3.119754	d}d e}e s}s|	0.0000
-1.408482	d}d e}e t}t	0.0000
-2.139637	d}d e}e u}u	0.0000
-1.95255	d}d e}e v}b	0.0000
-2.174399	d}d e}e z}z	0.0000
-2.652968	d}d e}e z}z|	0.0000
-3.119754	d}d e}e ó}o|	0.0000
-0.7439371	e}e e}e </s>	0.0000
-1.119817	e}e e}e d}d	0.0000
-1.182722	e}e e}e l}l	0.0000
-0.8310874	e}e e}e m}m	0.0000
-0.8310874	e}e e}e n}n	0.0000
-0.8822398	e}e e}e r}r	0.0000
-0.8310874	e}e e}e s}s	0.0000
-1.627658	f}f e}e </s>	0.0000
-2.338931	f}f e}e b}b	0.0000
-1.807244	f}f e}e c|h}ch	0.0000
-0.7168816	f}f e}e c}k	0.0000
-1.431364	f}f e}e d}d	0.0000
-2.338931	f}f e}e i}i	0.0000
-1.296665	f}f e}e l}l	0.0000
-1.872144	f}f e}e m}m	0.0000
-0.8929728	f}f e}e n}n	0.0000
-2.338931	f}f e}e o}o	0.0000
-1.431364	f}f e}e r|r}rr	0.0000
-0.4996286	f}f e}e r}r	0.0000
-0.8706965	f}f e}e s}s	0.0000
-2.338931	f}f e}e s}s|	0.0000
-1.870149	f}f e}e t}t	0.0000
-0.5341598	g|u}g e}e </s>	0.0000
-1.502619	g|u}g e}e l}l	0.0000
-0.7715207	g|u}g e}e n}n	0.0000
-0.7715207	g|u}g e}e r|r}rr	0.0000
-0.9098234	g|u}g e}e r}r	0.0000
-1.502619	g|u}g e}e s}s	0.0000
-1.679087	g|u}g e}e t}t	0.0000
-1.679087	g|u}g e}e z}z|	0.0000
-1.127787	g}j e}e </s>	0.0000
-2.096246	g}j e}e d}d	0.0000
-1.044812	g}j e}e l}l	0.0000
-2.272714	g}j e}e l}l|	0.0000
-0.3131185	g}j e}e n}n	0.0000
-1.452298	g}j e}e o}o	0.0000
-0.6661775	g}j e}e r}r	0.0000
-1.327359	g}j e}e s}s	0.0000
-2.096246	g}j e}e t}t	0.0000
-0.9801174	h|u}u e}e l|l}ll	0.0000
-0.5113356	h|u}u e}e l}l	0.0000
-0.9801174	h|u}u e}e s}s	0.0000
-1.404834	i}i e}e </s>	0.0000
-2.696599	i}i e}e b}b	0.0000
-2.341381	i}i e}e c}z	0.0000
-1.89295	i}i e}e d}d	0.0000
-2.873068	i}i e}e g|u}g	0.0000
-1.927712	i}i e}e g}g	0.0000
-2.406282	i}i e}e j}j	0.0000
-1.664471	i}i e}e l}l	0.0000
-1.927712	i}i e}e m}m	0.0000
-0.2745	i}i e}e n}n	0.0000
-1.830802	i}i e}e r|r}rr	0.0000
-0.5723248	i}i e}e r}r	0.0000
-1.450591	i}i e}e s}s	0.0000
-1.608954	i}i e}e t}t	0.0000
-2.404286	i}i e}e v}b	0.0000
-2.161796	i}i e}e z}z	0.0000
-0.6838813	j}j e}e </s>	0.0000
-1.98637	j}j e}e a}a	0.0000
-2.162839	j}j e}e b}b	0.0000
-1.255273	j}j e}e c}k	0.0000
-2.162839	j}j e}e c}z	0.0000
-1.694057	j}j e}e d}d	0.0000
-2.162839	j}j e}e e}e	0.0000
-1.393575	j}j e}e f}f	0.0000
-1.393575	j}j e}e m}m	0.0000
-1.296665	j}j e}e n}n	0.0000
-2.162839	j}j e}e o}o	0.0000
-0.5642715	j}j e}e r}r	0.0000
-0.9349374	j}j e}e s}s	0.0000
-0.9542425	j}j e}e t}t	0.0000
-2.162839	j}j e}e v}b	0.0000
-0.8765093	k}k e}e </s>	0.0000
-1.166827	k}k e}e e}e	0.0000
-1.343295	k}k e}e i}i	0.0000
-1.343295	k}k e}e l}l	0.0000
-0.8745134	k}k e}e n}n	0.0000
-0.6320232	k}k e}e r}r	0.0000
-1.063834	l|l}ll e}e </s>	0.0000
-1.143015	l|l}ll e}e c}z	0.0000
-1.542403	l|l}ll e}e g|u}g	0.0000
-0.8005921	l|l}ll e}e g}g	0.0000
-1.477502	l|l}ll e}e j}j	0.0000
-1.101622	l|l}ll e}e n}n	0.0000
-0.7280415	l|l}ll e}e r}r	0.0000
-1.477502	l|l}ll e}e s}s	0.0000
-1.540407	l|l}ll e}e t}t	0.0000
-0.6516531	l|l}ll e}e v}b	0.0000
-2.009189	l|l}ll e}e z}z	0.0000
-2.009189	l|l}ll e}e z}z|	0.0000
-0.8396394	l}l e}e </s>	0.0000
-1.411894	l}l e}e a}a	0.0000
-1.721879	l}l e}e b}b	0.0000
-2.968265	l}l e}e c|h}ch	0.0000
-1.420849	l}l e}e c}k	0.0000
-1.558022	l}l e}e c}z	0.0000
-2.256993	l}l e}e d}d	0.0000
-2.501479	l}l e}e e}e	0.0000
-2.199001	l}l e}e f}f	0.0000
-1.403121	l}l e}e g}g	0.0000
-1.596941	l}l e}e g}j	0.0000
-2.060698	l}l e}e i}i	0.0000
-1.596941	l}l e}e j}j	0.0000
-2.499483	l}l e}e l}l	0.0000
-1.316761	l}l e}e m}m	0.0000
-1.157608	l}l e}e n}n	0.0000
-1.779871	l}l e}e o}o	0.0000
-2.791796	l}l e}e o}o|	0.0000
-2.791796	l}l e}e p}p	0.0000
-1.331239	l}l e}e r}r	0.0000
-2.791796	l}l e}e s|c}z	0.0000
-0.5494223	l}l e}e s}s	0.0000
-1.639693	l}l e}e s}s|	0.0000
-1.478841	l}l e}e t}t	0.0000
-1.448878	l}l e}e v}b	0.0000
-1.925999	l}l e}e x}x	0.0000
-2.147848	l}l e}e y}i	0.0000
-2.436578	l}l e}e y}y	0.0000
-2.102091	l}l e}e z}z	0.0000
-2.436578	l}l e}e í}i	0.0000
-2.102091	l}l e}e ñ}gn	0.0000
-2.791796	l}l e}e ó}o	0.0000
-1.333032	m}m e}e </s>	0.0000
-2.37509	m}m e}e a}a	0.0000
-2.195504	m}m e}e c}k	0.0000
-2.906776	m}m e}e c}z	0.0000
-1.154112	m}m e}e d}d	0.0000
-2.437994	m}m e}e i}i	0.0000
-1.761849	m}m e}e j}j	0.0000
-1.739572	m}m e}e l}l	0.0000
-1.739572	m}m e}e m}m	0.0000
-0.2531419	m}m e}e n}n	0.0000
-0.9333923	m}m e}e r}r	0.0000
-1.593444	m}m e}e s}s	0.0000
-1.091212	m}m e}e t}t	0.0000
-2.37509	m}m e}e x}j	0.0000
-2.906776	m}m e}e x}x	0.0000
-2.906776	m}m e}e y}y	0.0000
-2.08636	m}m e}e z}z	0.0000
-2.43999	m}m e}e ñ}gn	0.0000
-1.103979	n}n e}e </s>	0.0000
-1.548916	n}n e}e a}a	0.0000
-2.330561	n}n e}e a}a|	0.0000
-1.819982	n}n e}e c}k	0.0000
-1.314832	n}n e}e c}z	0.0000
-2.150976	n}n e}e d}d	0.0000
-1.740801	n}n e}e f}f	0.0000
-1.28007	n}n e}e g}g	0.0000
-2.685779	n}n e}e i}i	0.0000
-1.791954	n}n e}e j}j	0.0000
-2.862248	n}n e}e l|l}ll	0.0000
-1.740801	n}n e}e l}l	0.0000
-1.88213	n}n e}e m}m	0.0000
-1.150976	n}n e}e n}n	0.0000
-1.819982	n}n e}e o}o	0.0000
-2.393466	n}n e}e o}o|	0.0000
-2.685779	n}n e}e q|u}k	0.0000
-0.8922699	n}n e}e r}r	0.0000
-0.4325926	n}n e}e s}s	0.0000
-1.740801	n}n e}e s}s|	0.0000
-1.518952	n}n e}e t}t	0.0000
-2.685779	n}n e}e u}u	0.0000
-2.092984	n}n e}e v}b	0.0000
-2.395462	n}n e}e w}u	0.0000
-2.041831	n}n e}e x}x	0.0000
-2.330561	n}n e}e y}i	0.0000
-1.954681	n}n e}e z}z	0.0000
-2.685779	n}n e}e z}z|	0.0000
-0.9675897	o}o e}e </s>	0.0000
-0.9026893	o}o e}e c}k	0.0000
-1.434376	o}o e}e l}l	0.0000
-0.9655939	o}o e}e n}n	0.0000
-0.6139592	o}o e}e s}s	0.0000
-1.257907	o}o e}e t}t	0.0000
-1.434376	o}o e}e x}x	0.0000
-1.708571	p}p e}e </s>	0.0000
-1.897627	p}p e}e a}a	0.0000
-1.93902	p}p e}e c|h}ch	0.0000
-1.248824	p}p e}e c}k	0.0000
-1.54108	p}p e}e c}z	0.0000
-1.420506	p}p e}e d}d	0.0000
-2.805194	p}p e}e g|u}g	0.0000
-1.897627	p}p e}e g}g	0.0000
-2.03593	p}p e}e j}j	0.0000
-2.628725	p}p e}e k}k	0.0000
-1.897627	p}p e}e l|l}ll	0.0000
-1.248824	p}p e}e l}l	0.0000
-2.805194	p}p e}e m}m	0.0000
-0.952248	p}p e}e n}n	0.0000
-1.859838	p}p e}e o}o	0.0000
-2.338408	p}p e}e p}p	0.0000
-2.03593	p}p e}e q|u}k	0.0000
-2.03593	p}p e}e r|r}rr	0.0000
-0.361528	p}p e}e r}r	0.0000
-2.805194	p}p e}e r}r|	0.0000
-1.507656	p}p e}e s}s	0.0000
-1.13284	p}p e}e t}t	0.0000
-1.859838	p}p e}e z}z	0.0000
-1.7349	p}p e}e ñ}gn	0.0000
-2.628725	p}p e}e ó}o	0.0000
-0.6683463	q|u}k e}e </s>	0.0000
-1.194316	q|u}k e}e a}a	0.0000
-1.674932	q|u}k e}e b}b	0.0000
-2.206618	q|u}k e}e c}z	0.0000
-1.018225	q|u}k e}e d}d	0.0000
-1.261263	q|u}k e}e j}j	0.0000
-1.739832	q|u}k e}e l|l}ll	0.0000
-1.737836	q|u}k e}e l}l	0.0000
-1.340444	q|u}k e}e m}m	0.0000
-1.340444	q|u}k e}e n}n	0.0000
-1.674932	q|u}k e}e o}o	0.0000
-2.206618	q|u}k e}e p}p	0.0000
-0.9425041	q|u}k e}e r}r	0.0000
-1.085172	q|u}k e}e s}s	0.0000
-1.194316	q|u}k e}e t}t	0.0000
-1.737836	q|u}k e}e z}z	0.0000
-2.030149	q|u}k e}e z}z|	0.0000
-1.340444	q|u}k e}e ñ}gn	0.0000
-1.03809	r|r}rr e}e </s>	0.0000
-1.451759	r|r}rr e}e a}a	0.0000
-1.163029	r|r}rr e}e c}k	0.0000
-1.516659	r|r}rr e}e d}d	0.0000
-1.117271	r|r}rr e}e g}g	0.0000
-1.983445	r|r}rr e}e i}i	0.0000
-1.806977	r|r}rr e}e m}m	0.0000
-0.8868224	r|r}rr e}e n}n	0.0000
-1.806977	r|r}rr e}e p}p	0.0000
-1.03809	r|r}rr e}e r}r	0.0000
-0.6259096	r|r}rr e}e s}s	0.0000
-1.214181	r|r}rr e}e t}t	0.0000
-1.514663	r|r}rr e}e v}b	0.0000
-1.19489	r}r e}e </s>	0.0000
-1.453422	r}r e}e a}a	0.0000
-3.090448	r}r e}e a}a|	0.0000
-3.090448	r}r e}e b}b	0.0000
-1.969002	r}r e}e c|h}ch	0.0000
-1.633209	r}r e}e c}k	0.0000
-1.039583	r}r e}e c}z	0.0000
-1.552176	r}r e}e d}d	0.0000
-2.110331	r}r e}e e}e	0.0000
-2.110331	r}r e}e f}f	0.0000
-2.913979	r}r e}e g|u}g	0.0000
-1.431882	r}r e}e g}g	0.0000
-2.623662	r}r e}e h|e}e	0.0000
-2.379176	r}r e}e i}i	0.0000
-2.048183	r}r e}e j}j	0.0000
-2.270031	r}r e}e l|l}ll	0.0000
-2.145093	r}r e}e l}l	0.0000
-1.237502	r}r e}e m}m	0.0000
-0.9364723	r}r e}e n}n	0.0000
-1.732912	r}r e}e o}o	0.0000
-1.656072	r}r e}e p}p	0.0000
-3.090448	r}r e}e r|r}rr	0.0000
-1.844063	r}r e}e r}r	0.0000
-0.5049427	r}r e}e s}s	0.0000
-2.321184	r}r e}e s}s|	0.0000
-1.355042	r}r e}e t}t	0.0000
-1.424933	r}r e}e v}b	0.0000
-2.623662	r}r e}e y}i	0.0000
-2.913979	r}r e}e y}y	0.0000
-2.078146	r}r e}e z}z	0.0000
-2.621666	r}r e}e z}z|	0.0000
-2.321184	r}r e}e í}i	0.0000
-2.020154	r}r e}e ñ}gn	0.0000
-1.190145	r}rr e}e a}a	0.0000
-1.889115	r}rr e}e b}b	0.0000
-1.951263	r}rr e}e c|h}ch	0.0000
-0.8805147	r}rr e}e c}k	0.0000
-1.402448	r}rr e}e c}z	0.0000
-1.474141	r}rr e}e d}d	0.0000
-1.703478	r}rr e}e e}e	0.0000
-1.245662	r}rr e}e f}f	0.0000
-2.93138	r}rr e}e g|u}g	0.0000
-1.411994	r}rr e}e g}g	0.0000
-1.560056	r}rr e}e g}j	0.0000
-2.464594	r}rr e}e h|a}a	0.0000
-2.754911	r}rr e}e h|u}u	0.0000
-1.633842	r}rr e}e i}i	0.0000
-2.754911	r}rr e}e j}j	0.0000
-2.93138	r}rr e}e l|l}ll	0.0000
-1.485422	r}rr e}e l}l	0.0000
-1.618048	r}rr e}e m}m	0.0000
-1.393108	r}rr e}e n}n	0.0000
-2.464594	r}rr e}e o}o	0.0000
-0.9316672	r}rr e}e p}p	0.0000
-1.951263	r}rr e}e q|u}k	0.0000
-0.8123531	r}rr e}e s}s	0.0000
-2.93138	r}rr e}e s}z	0.0000
-1.309331	r}rr e}e t}t	0.0000
-1.684995	r}rr e}e u}u	0.0000
-1.259026	r}rr e}e v}b	0.0000
-2.399694	r}rr e}e y}i	0.0000
-2.754911	r}rr e}e z}z	0.0000
-2.754911	r}rr e}e ñ}gn	0.0000
-2.464594	r}rr e}e ú}u	0.0000
-0.02227639	s|c}z e}e n}n	0.0000
-0.5555207	s}s e}e </s>	0.0000
-1.657143	s}s e}e a}a	0.0000
-2.86574	s}s e}e a}a|	0.0000
-2.86574	s}s e}e b}b	0.0000
-2.334053	s}s e}e c|h}ch	0.0000
-1.318324	s}s e}e c}k	0.0000
-2.045323	s}s e}e d}d	0.0000
-2.154467	s}s e}e e}e	0.0000
-1.537168	s}s e}e g|u}g	0.0000
-1.522444	s}s e}e g}g	0.0000
-2.154467	s}s e}e i}i	0.0000
-2.154467	s}s e}e j}j	0.0000
-2.86574	s}s e}e k}k	0.0000
-2.096476	s}s e}e l|l}ll	0.0000
-1.455498	s}s e}e l}l	0.0000
-1.309369	s}s e}e m}m	0.0000
-0.8009084	s}s e}e n}n	0.0000
-2.154467	s}s e}e o}o	0.0000
-1.584592	s}s e}e p}p	0.0000
-2.689271	s}s e}e q|u}k	0.0000
-1.045323	s}s e}e r}r	0.0000
-1.09108	s}s e}e s}s	0.0000
-2.86574	s}s e}e s}s|	0.0000
-2.045323	s}s e}e t}t	0.0000
-1.853437	s}s e}e v}b	0.0000
-2.045323	s}s e}e x}x	0.0000
-2.689271	s}s e}e y}i	0.0000
-2.86574	s}s e}e í}i	0.0000
-1.356113	s}s e}e ñ}gn	0.0000
-2.86574	s}s e}e ú}u	0.0000
-0.5176054	t}t e}e </s>	0.0000
-1.699177	t}t e}e a}a	0.0000
-3.1886	t}t e}e b}b	0.0000
-3.012131	t}t e}e c|h}ch	0.0000
-1.699177	t}t e}e c}k	0.0000
-2.176298	t}t e}e c}z	0.0000
-2.477328	t}t e}e d}d	0.0000
-2.721814	t}t e}e f}f	0.0000
-1.817276	t}t e}e g}g	0.0000
-2.146335	t}t e}e g}j	0.0000
-3.012131	t}t e}e i}i	0.0000
-2.176298	t}t e}e j}j	0.0000
-2.368184	t}t e}e l|l}ll	0.0000
-1.435935	t}t e}e l}l	0.0000
-1.373036	t}t e}e m}m	0.0000
-0.8039121	t}t e}e n}n	0.0000
-2.067153	t}t e}e o}o	0.0000
-2.243245	t}t e}e p}p	0.0000
-1.509513	t}t e}e r|r}rr	0.0000
-0.7613246	t}t e}e r}r	0.0000
-3.012131	t}t e}e r}r|	0.0000
-0.8926738	t}t e}e s}s	0.0000
-2.477328	t}t e}e s}s|	0.0000
-2.477328	t}t e}e t}t	0.0000
-3.1886	t}t e}e u}u	0.0000
-2.719818	t}t e}e v}b	0.0000
-2.368184	t}t e}e x}x	0.0000
-3.012131	t}t e}e z}z	0.0000
-2.721814	t}t e}e ñ}gn	0.0000
-3.012131	t}t e}e ó}o	0.0000
-1.612784	u}u e}e </s>	0.0000
-1.390935	u}u e}e b}b	0.0000
-1.966414	u}u e}e c}k	0.0000
-2.4332	u}u e}e c}z	0.0000
-1.567026	u}u e}e d}d	0.0000
-1.567026	u}u e}e g}g	0.0000
-0.754113	u}u e}e l}l	0.0000
-2.4332	u}u e}e m}m	0.0000
-0.7888751	u}u e}e n}n	0.0000
-0.7474824	u}u e}e r}r	0.0000
-0.6127838	u}u e}e s}s	0.0000
-1.265996	u}u e}e v}b	0.0000
-2.4332	u}u e}e z}z	0.0000
-1.663936	u}u e}e ñ}gn	0.0000
-1.246711	v}b e}e </s>	0.0000
-2.504618	v}b e}e a}a	0.0000
-1.77352	v}b e}e c|h}ch	0.0000
-1.638822	v}b e}e c}z	0.0000
-1.735732	v}b e}e d}d	0.0000
-2.149401	v}b e}e e}e	0.0000
-2.504618	v}b e}e g}g	0.0000
-2.504618	v}b e}e g}j	0.0000
-2.681087	v}b e}e h|e}e	0.0000
-2.681087	v}b e}e h|í}i	0.0000
-1.492694	v}b e}e i}i	0.0000
-2.212305	v}b e}e j}j	0.0000
-1.161701	v}b e}e l}l	0.0000
-2.212305	v}b e}e m}m	0.0000
-0.5454003	v}b e}e n}n	0.0000
-2.504618	v}b e}e r|r}rr	0.0000
-0.4865336	v}b e}e r}r	0.0000
-1.051485	v}b e}e s}s	0.0000
-1.814913	v}b e}e t}t	0.0000
-2.504618	v}b e}e z}z	0.0000
-2.681087	v}b e}e í}i	0.0000
-1.144928	w}u e}e </s>	0.0000
-0.6781417	w}u e}e i}i	0.0000
-0.6781417	w}u e}e l|l}ll	0.0000
-1.144928	w}u e}e n}n	0.0000
-1.144928	w}u e}e r}r	0.0000
-0.9684589	w}u e}e s}s	0.0000
-0.9075668	x}x e}e a}a	0.0000
-0.3758803	x}x e}e n}n	0.0000
-0.8406437	y}y e}e </s>	0.0000
-0.7826517	y}y e}e c}k	0.0000
-0.41857	y}y e}e n}n	0.0000
-0.7563228	y}y e}e r}r	0.0000
-1.38616	y}y e}e s}s	0.0000
-1.676477	y}y e}e v}b	0.0000
-0.3309932	z}z e}e r}r	0.0000
-0.1668265	á}a e}e z}z|	0.0000
-0.001448026	í}i e}e s}s|	0.0000
-1.208597	ñ}gn e}e c}k	0.0000
-1.208597	ñ}gn e}e d}d	0.0000
-0.4973246	ñ}gn e}e r}r	0.0000
-0.4393327	ñ}gn e}e z}z|	0.0000
-0.1672041	ú}u e}e n}n|	0.0000
-0.6897053	ü}u e}e n}n	0.0000
-0.1672041	b}b e}e| </s>	0.0000
-0.001448026	c}z e}e| </s>	0.0000
-0.1668265	d}d e}e| </s>	0.0000
-0.01472326	l}l e}e| </s>	0.0000
-0.03218468	m}m e}e| </s>	0.0000
-0.1672041	n}n e}e| </s>	0.0000
-0.007424018	s}s e}e| </s>	0.0000
-0.005908859	t}t e}e| </s>	0.0000
-0.001448026	í}i e}e| </s>	0.0000
-0.1668265	ú}u e}e| </s>	0.0000
-0.7080497	<s> f}f a}a	0.0000
-1.040794	<s> f}f e}e	0.0000
-0.71421	<s> f}f i}i	0.0000
-1.216885	<s> f}f l}l	0.0000
-0.8647028	<s> f}f o}o	0.0000
-0.815015	<s> f}f r}r	0.0000
-0.8780668	<s> f}f u}u	0.0000
-1.957248	<s> f}f á}a	0.0000
-2.194826	<s> f}f é}e	0.0000
-2.01524	<s> f}f í}i	0.0000
-2.726512	<s> f}f ó}o	0.0000
-0.001448026	_}e f}f _}e	0.0000
-2.048018	a}a f}f </s>	0.0000
-1.102662	a}a f}f a}a	0.0000
-0.8808136	a}a f}f e}e	0.0000
-1.871549	a}a f}f f}f	0.0000
-1.871549	a}a f}f g}g	0.0000
-0.5383909	a}a f}f i}i	0.0000
-1.871549	a}a f}f l}l	0.0000
-1.005752	a}a f}f o}o	0.0000
-1.336746	a}a f}f o}o|	0.0000
-0.90309	a}a f}f r}r	0.0000
-1.871549	a}a f}f u}u	0.0000
-2.048018	a}a f}f á}a	0.0000
-1.0679	a}a f}f í}i	0.0000
-1.322219	e}e f}f a}a	0.0000
-0.447158	e}e f}f e}e	0.0000
-1.719612	e}e f}f f}f	0.0000
-0.5160393	e}e f}f i}i	0.0000
-1.146128	e}e f}f l}l	0.0000
-1.176091	e}e f}f o}o	0.0000
-1.656707	e}e f}f r}r	0.0000
-2.188393	e}e f}f t}t	0.0000
-1.367977	e}e f}f u}u	0.0000
-2.011925	e}e f}f á}a	0.0000
-1.719612	e}e f}f ó}o	0.0000
-0.9449778	f}f f}f </s>	0.0000
-1.121447	f}f f}f a}a	0.0000
-0.6526647	f}f f}f e}e	0.0000
-1.121447	f}f f}f i}i	0.0000
-0.9449778	f}f f}f m}m	0.0000
-0.9449778	f}f f}f r}r	0.0000
-0.1672041	h|o}o f}f f}f	0.0000
-1.493109	i}i f}f a}a	0.0000
-0.9048377	i}i f}f e}e	0.0000
-2.262373	i}i f}f f}f	0.0000
-0.1657504	i}i f}f i}i	0.0000
-2.085905	i}i f}f l}l	0.0000
-1.354807	i}i f}f o}o	0.0000
-2.085905	i}i f}f r}r	0.0000
-1.317018	i}i f}f u}u	0.0000
-2.262373	i}i f}f é}e	0.0000
-2.085905	i}i f}f í}i	0.0000
-0.7973281	l}l f}f </s>	0.0000
-0.552842	l}l f}f a}a	0.0000
-1.087645	l}l f}f i}i	0.0000
-0.4436975	l}l f}f o}o	0.0000
-1.264114	l}l f}f r}r	0.0000
-1.055517	n}n f}f a}a	0.0000
-0.8664611	n}n f}f e}e	0.0000
-0.6819367	n}n f}f i}i	0.0000
-1.142668	n}n f}f l}l	0.0000
-0.6055483	n}n f}f o}o	0.0000
-0.8538719	n}n f}f r}r	0.0000
-1.09691	n}n f}f u}u	0.0000
-2.264114	n}n f}f á}a	0.0000
