
\data\
ngram 1=154
ngram 2=1585
ngram 3=5548


\1-grams:
-4.8345 '|s}s -0.5512
-0.9563 </s> 0.0000
-99.0000 <s> -2.3082
-5.3116 ]}a -0.2652
-4.0812 _|a}a -0.5223
-4.5335 _|b}b -1.0937
-4.5335 _|c}k -0.4251
-4.1655 _|c}z -1.1756
-4.4665 _|d}d -0.9026
-4.4665 _|e}e -0.3033
-5.0106 _|f}f -0.2652
-5.0106 _|g}j -0.4699
-4.6127 _|i}i -0.3709
-4.8345 _|k}k -0.6020
-5.3116 _|n}n -0.3160
-4.3116 _|o}o -0.4582
-4.1977 _|p}p -1.4295
-4.5335 _|t}t -1.0937
-4.8345 _|u}u -0.3612
-4.8345 _|v}b -0.6016
-5.3116 _|y}i -0.2652
-5.3116 _|z}z -0.3156
-4.5335 _}a -0.6622
-5.0106 _}b|l -0.4699
-5.3116 _}d|o -0.3161
-2.9833 _}e -0.4627
-5.3116 _}e|k -0.3161
-5.3116 _}e|z -0.2747
-4.8345 _}j|o -0.6021
-5.0106 _}t|a -0.2952
-5.3116 _}t|e -0.3161
-4.3574 a|h}a -0.6415
-4.8345 a|q}a -0.3322
-0.9485 a}a -1.6378
-2.4875 a}a| -2.7739
-1.8513 b}b -1.0135
-2.6751 c|h}ch -1.5085
-1.5269 c}k -2.2751
-4.7096 c}k| -0.3533
-4.7096 c}s -0.2361
-4.8345 c}s|z -0.5689
-1.8139 c}z -3.0623
-5.3116 d|h}d -0.2652
-5.3116 d|z}z -0.2829
-1.3906 d}d -1.5537
-4.6127 d}d| -0.7273
-4.8345 e|h}e -0.2343
-1.0419 e}e -1.0753
-3.0150 e}e| -2.2480
-5.3116 e}i|s -0.3156
-2.0238 f}f -1.6910
-4.4085 g|h}g -0.3455
-3.1473 g|u}g -2.3992
-5.3116 g|ü}g -0.2747
-2.0329 g}g -1.8076
-2.4967 g}j -2.5354
-2.9443 h|a}a -0.8316
-3.2113 h|e}e -0.4443
-3.1944 h|i}i -0.3809
-3.1845 h|o}o -0.8686
-5.3116 h|r}r -0.3146
-3.3294 h|u}u -0.2807
-4.8345 h|y}i -0.5512
-5.3116 h|y}y -0.3062
-4.8345 h|á}a -0.4024
-4.7096 h|é}e -0.3416
-4.5335 h|í}i -0.3874
-5.0106 h|ú}u -0.2759
-4.8345 h}a|ch -0.6016
-4.8345 h}ch|e -0.5512
-5.3116 i|q}i -0.2652
-1.1335 i}i -1.2206
-5.0106 i}i| -0.4195
-5.3116 j|ü}j -0.2879
-2.3822 j}j -1.5445
-4.8345 j}t|a -0.5512
-5.3116 j}y -0.2642
-4.6127 k|h}k -0.6256
-2.9537 k}k -0.8243
-2.6144 l|l}ll -1.3886
-1.5151 l}l -1.0781
-3.7676 l}l| -1.5054
-5.0106 m|h}m -0.2519
-1.5736 m}m -2.1093
-4.6127 m}m| -0.7273
-5.0106 n|h}n -0.4195
-1.2102 n}n -1.8449
-2.2695 n}n| -2.9917
-5.0106 o|'}o -0.2975
-4.5335 o|h}o -0.5162
-5.3116 o|q}o -0.2652
-5.3116 o|ã}o -0.3152
-1.1511 o}o -1.5496
-2.6946 o}o| -2.5672
-4.7096 p|h}p -0.8360
-1.6363 p}p -2.0643
-4.8345 q|a}a -0.3853
-5.0106 q|i}i -0.2638
-2.6508 q|u}k -1.9565
-4.8345 q}k -0.5922
-5.0106 q}k|u -0.4195
-2.5990 r|r}rr -2.0850
-1.2020 r}r -1.6153
-2.1122 r}rr -2.4896
-3.7434 r}r| -1.5289
-3.8967 s|c}z -1.5055
-4.5335 s|h}s -1.0428
-1.2329 s}s -1.5890
-2.4785 s}s| -2.7829
-4.4085 s}z -0.2658
-4.3574 t|h}t -1.2148
-5.3116 t}d|o -0.3161
-1.3281 t}t -2.0416
-4.8345 t}t| -0.5512
-5.0106 u|h}u -0.2416
-1.6486 u}u -1.5483
-5.0106 u}u| -0.4195
-1.9334 v}b -1.9459
-3.3073 w}u -0.7556
-5.3116 x|_}k -0.3161
-5.3116 x}i|s -0.2652
-4.2702 x}j -0.9670
-2.6853 x}x -0.9875
-4.7096 x}x| -0.3533
-3.0661 y}i -1.0567
-5.3116 y}i| -0.2652
-2.8024 y}y -1.9891
-5.3116 z|_}e -0.3026
-5.3116 z|h}z -0.2884
-5.3116 z|z}s -0.2652
-4.1075 z}s -0.4926
-4.8345 z}s| -0.5512
-5.3116 z}t -0.3160
-2.3231 z}z -1.0987
-3.6682 z}z| -1.6023
-4.3574 Á}a -0.3265
-4.4085 É}e -1.1929
-5.0106 Í}i -0.4427
-5.3116 Ó}o -0.2899
-4.8345 Ú}u -0.3706
-2.4830 á}a -1.2444
-2.8522 á}a| -2.4100
-2.7944 é}e -0.4519
-3.5055 é}e| -1.7620
-5.3116 ë}e -0.2884
-2.3593 í}i -1.1028
-3.6304 í}i| -1.6393
-2.8538 ñ}gn -1.6186
-5.3116 ñ}gn| -0.2652
-2.3394 ó}o -2.0584
-2.4888 ó}o| -2.7726
-3.2361 ú}u -0.5855
-4.2702 ú}u| -1.0283
-4.2325 ü}u -1.0157

\2-grams:
-0.1249 '|s}s </s> 0.0000
-4.6418 <s> ]}a 0.0000
-3.4011 <s> _|a}a -0.0360
-3.8782 <s> _|b}b 0.2819
-4.2338 <s> _|c}k -0.2709
-3.2414 <s> _|c}z 0.0300
-3.6563 <s> _|d}d 0.2019
-3.7594 <s> _|e}e -0.0207
-4.6418 <s> _|f}f 0.0000
-4.2338 <s> _|g}j -0.0251
-3.8782 <s> _|i}i 0.0000
-4.6418 <s> _|k}k 0.0000
-3.7594 <s> _|o}o -0.0259
-3.4011 <s> _|p}p 0.1139
-3.8782 <s> _|t}t 0.2819
-3.8782 <s> _|u}u -0.0100
-3.8782 <s> _|v}b 0.1058
-4.6418 <s> _|y}i 0.0000
-4.6418 <s> _}a 0.0000
-4.6418 <s> _}d|o 0.0000
-3.1249 <s> _}e -0.5539
-4.6418 <s> _}e|k 0.0000
-4.6418 <s> _}e|z 0.0000
-4.6418 <s> _}j|o 0.0000
-4.6418 <s> _}t|e 0.0000
-3.8782 <s> a|h}a 0.0000
-0.9683 <s> a}a -1.4036
-1.5532 <s> b}b -0.9789
-2.3219 <s> c|h}ch -0.4893
-0.9780 <s> c}k -2.1644
-1.9128 <s> c}z -0.2473
-1.1140 <s> d}d -1.1101
-4.6418 <s> e|h}e 0.0000
-1.1200 <s> e}e -1.5488
-1.4950 <s> f}f -0.6262
-2.9403 <s> g|u}g -0.0471
-1.7966 <s> g}g -1.0080
-2.3553 <s> g}j -0.7840
-2.1539 <s> h|a}a -0.2519
-2.5102 <s> h|e}e -0.0991
-2.5292 <s> h|i}i -0.4130
-2.3822 <s> h|o}o -0.1625
-2.5041 <s> h|u}u -0.2914
-4.6418 <s> h|y}y 0.0000
-3.8782 <s> h|á}a -0.0100
-3.8782 <s> h|é}e -0.0881
-4.6418 <s> h|í}i 0.0000
-4.2338 <s> h|ú}u 0.0000
-1.2886 <s> i}i -1.5883
-4.6418 <s> j|ü}j 0.0000
-1.9715 <s> j}j -0.2357
-4.6418 <s> j}y 0.0000
-4.2338 <s> k|h}k -0.0975
-2.4803 <s> k}k -0.4680
-2.3641 <s> l|l}ll -1.0966
-1.6134 <s> l}l -1.4409
-4.6418 <s> m|h}m 0.0000
-1.2654 <s> m}m -1.4028
-1.7479 <s> n}n -1.7385
-4.2338 <s> o|'}o 0.0000
-4.6418 <s> o|h}o 0.0000
-1.6343 <s> o}o -0.9625
-4.6418 <s> p|h}p 0.0000
-1.0259 <s> p}p -1.1547
-3.8782 <s> q|a}a -0.0100
-4.2338 <s> q|i}i 0.0000
-2.2250 <s> q|u}k 0.2152
-4.6418 <s> q}k 0.0000
-4.6418 <s> q}k|u 0.0000
-1.1611 <s> r}rr -0.1947
-1.1936 <s> s}s -1.7718
-1.3991 <s> t}t -0.5454
-4.6418 <s> u|h}u 0.0000
-2.1512 <s> u}u -0.9802
-1.5247 <s> v}b -0.6500
-2.6832 <s> w}u -0.4176
-3.7594 <s> x}x -0.1275
-3.8782 <s> y}i -0.2592
-2.7533 <s> y}y -0.2688
-2.6741 <s> z}z -0.1826
-3.4011 <s> Á}a -0.1579
-3.4522 <s> É}e 0.0000
-4.2338 <s> Í}i -0.0251
-4.6418 <s> Ó}o 0.0000
-3.8782 <s> Ú}u -0.0100
-3.1249 <s> á}a -0.4772
-2.9403 <s> é}e -0.4272
-3.4522 <s> í}i -0.8827
-4.6418 <s> ñ}gn 0.0000
-3.4522 <s> ó}o -0.2935
-3.2092 <s> ú}u -0.4988
-0.2865 ]}a </s> 0.0000
-0.3854 _|a}a </s> 0.0000
-1.5170 _|a}a _|b}b 0.0000
-1.5170 _|a}a _|c}k 0.0000
-1.5170 _|a}a _|d}d 0.0000
-1.5170 _|a}a _|f}f 0.0000
-1.5170 _|a}a _|i}i 0.0000
-1.1089 _|a}a _|k}k 0.1066
-1.5170 _|a}a _|p}p 0.0000
-1.5170 _|a}a _|z}z 0.0000
-1.5170 _|a}a _}a 0.0000
-1.0647 _|b}b _|a}a 0.0000
-0.0792 _|b}b _}e -0.0624
-0.6566 _|c}k _|a}a 0.0000
-0.3939 _|c}k _|o}o 0.0000
-0.0300 _|c}z _}e -0.1247
-0.0580 _|d}d _}e -0.0744
-1.1316 _|e}e </s> 0.0000
-1.1316 _|e}e _|a}a 0.0000
-1.1316 _|e}e _|c}k 0.0000
-1.1316 _|e}e _|p}p 0.0000
-0.7236 _|e}e _|t}t 0.0000
-1.1316 _|e}e _}e 0.0000
-0.5875 _|f}f </s> 0.0000
-0.5875 _|f}f _|i}i 0.0000
-0.1795 _|g}j _}e 0.0000
-0.5774 _|i}i _|b}b 0.0000
-0.9855 _|i}i _|p}p 0.0000
-0.9855 _|i}i _|t}t 0.0000
-0.9855 _|i}i _}e 0.0000
-0.1249 _|k}k _}a -0.1543
-0.2865 _|n}n _|c}k 0.0000
-0.8785 _|o}o </s> 0.0000
-1.2865 _|o}o _|c}k 0.0000
-1.2865 _|o}o _|c}z 0.0000
-1.2865 _|o}o _|e}e 0.0000
-1.2865 _|o}o _|n}n 0.0000
-1.2865 _|o}o _|p}p 0.0000
-0.5229 _|o}o _}e -0.2352
-1.4004 _|p}p _|a}a 0.0000
-0.0348 _|p}p _}e -0.0430
-1.0647 _|t}t _|a}a 0.0000
-0.0792 _|t}t _}e -0.0624
-0.7636 _|u}u </s> 0.0000
-0.3556 _|u}u _}e 0.0000
-0.1249 _|v}b _}e -0.2459
-0.2865 _|y}i </s> 0.0000
-0.2865 _|z}z _}e 0.0000
-0.6566 _}a </s> 0.0000
-1.0647 _}a _}e 0.0000
-0.3010 _}a h}ch|e 0.1058
-0.1795 _}b|l _}e -0.4928
-0.2865 _}d|o _}b|l 0.0000
-0.5802 _}e </s> 0.0000
-0.7969 _}e _}e -0.7649
-2.2069 _}e _}j|o 0.1066
-2.6149 _}e _}t|a 0.0000
-1.6294 _}e a}a -0.6307
-1.6294 _}e b}b -0.7004
-1.3741 _}e c}z -0.9988
-1.7325 _}e d}d -0.6410
-2.2069 _}e e}e -0.4498
-1.9441 _}e f}f -2.4772
-1.9441 _}e g}j -2.4761
-1.8513 _}e h}a|ch 0.1058
-1.4253 _}e i}i -0.2954
-1.9441 _}e l}l -2.4774
-1.2144 _}e m}m -1.1451
-1.1523 _}e n}n -1.2036
-1.7325 _}e p}p -0.6408
-2.6149 _}e q}k|u 0.0000
-1.2492 _}e r}r -1.1135
-1.3284 _}e s}s -1.0410
-1.4833 _}e t}t -0.9027
-2.6149 _}e u}u 0.0000
-2.2069 _}e v}b -0.4952
-2.2069 _}e w}u 0.0000
-2.6149 _}e x|_}k 0.0000
-0.2865 _}e|k x}i|s 0.0000
-0.2865 _}e|z e}e 0.0000
-0.1249 _}j|o j}t|a 0.1058
-0.5875 _}t|a t}t 0.0000
-0.5875 _}t|a z|_}e 0.0000
-0.2865 _}t|e t}d|o 0.0000
-0.2553 a|h}a </s> 0.0000
-1.2407 a|h}a m}m 0.0000
-0.8327 a|h}a r}r 0.0000
-1.2407 a|h}a í}i| 0.0000
-0.3556 a|q}a </s> 0.0000
-0.7636 a|q}a s}s 0.0000
-0.8246 a}a </s> 0.0000
-3.4089 a}a a}a -0.1364
-1.4969 a}a b}b -0.3625
-2.8069 a}a c|h}ch 0.2613
-1.6397 a}a c}k -0.3146
-4.6497 a}a c}k| 0.0000
-4.2416 a}a c}s 0.0000
-1.5131 a}a c}z -0.2784
-4.6497 a}a d|z}z 0.0000
-0.9360 a}a d}d -0.1363
-4.6497 a}a d}d| 0.0000
-2.5436 a}a e}e -0.4442
-2.1813 a}a f}f 0.5081
-4.6497 a}a g|h}g 0.0000
-3.2492 a}a g|u}g 0.4490
-4.6497 a}a g|ü}g 0.0000
-1.9286 a}a g}g -0.0771
-2.5997 a}a g}j -0.3137
-3.3632 a}a h|a}a -0.3327
-3.6642 a}a h|e}e -0.1221
-3.8860 a}a h|i}i -0.2280
-3.0621 a}a h|o}o -0.2283
-3.4089 a}a h|u}u -0.3092
-4.6497 a}a h|í}i 0.0000
-2.3588 a}a i}i -0.5309
-2.1457 a}a j}j 0.0916
-4.6497 a}a k|h}k 0.0000
-2.8860 a}a k}k -0.0874
-2.3900 a}a l|l}ll 0.0805
-1.1473 a}a l}l -0.0571
-4.2416 a}a l}l| 1.0608
-1.3453 a}a m}m -0.2930
-4.6497 a}a n|h}n 0.0000
-0.8920 a}a n}n -0.7958
-2.2594 a}a n}n| 0.9354
-3.0621 a}a o}o -0.1914
-1.7688 a}a p}p -0.0001
-2.6228 a}a q|u}k 0.3486
-4.6497 a}a q}k 0.0000
-2.0890 a}a r|r}rr 0.0894
-0.8170 a}a r}r -0.5436
-3.1590 a}a r}r| 0.3493
-3.7672 a}a s|c}z 0.1503
-4.2416 a}a s|h}s 0.0000
-1.0725 a}a s}s -0.2154
-2.0267 a}a s}s| 0.4953
-4.2416 a}a s}z -0.4170
-4.6497 a}a t|h}t 0.0000
-1.4451 a}a t}t -0.0709
-4.6497 a}a u|h}u 0.0000
-1.9583 a}a u}u -1.0686
-2.0348 a}a v}b 0.0212
-3.5181 a}a w}u 0.0093
-4.6497 a}a x}j 0.0000
-3.1590 a}a x}x -0.4676
-4.2416 a}a x}x| -0.0913
-3.0014 a}a y}i 0.0878
-2.3764 a}a y}y 0.1803
-4.6497 a}a z|z}s 0.0000
-3.8860 a}a z}s 0.0385
-4.6497 a}a z}t 0.0000
-2.1327 a}a z}z -0.0940
-4.6497 a}a z}z| 0.0000
-3.6642 a}a é}e -0.6106
-2.9829 a}a í}i -0.2493
-2.2804 a}a ñ}gn 0.3203
-4.6497 a}a ó}o 0.0000
-3.5181 a}a ú}u -0.0828
-0.0007 a}a| </s> 0.0000
-2.2562 b}b </s> 0.0000
-2.7613 b}b _}e -0.0055
-3.7468 b}b a|h}a 0.0000
-0.5710 b}b a}a -0.5152
-3.0760 b}b a}a| 0.3470
-3.0760 b}b b}b -0.0448
-2.7613 b}b c}k -0.0597
-3.3388 b}b c}z -0.3741
-2.4603 b}b d}d -0.0141
-0.9471 b}b e}e -0.6648
-3.3388 b}b e}e| 1.8034
-3.7468 b}b f}f 0.0000
-3.7468 b}b h|u}u 0.0000
-0.8805 b}b i}i -0.6237
-2.5061 b}b j}j -0.8848
-3.7468 b}b k}k 0.0000
-0.9052 b}b l}l -1.2605
-2.7613 b}b m}m -0.5907
-3.7468 b}b n}n 0.0000
-1.0338 b}b o}o -0.2853
-3.0760 b}b p}p -2.3654
-0.9040 b}b r}r -1.4438
-3.3388 b}b s|c}z 0.0744
-1.6278 b}b s}s -1.0822
-2.3142 b}b t}t -0.8002
-1.2074 b}b u}u -0.5950
-2.4189 b}b v}b -2.5529
-3.7468 b}b w}u 0.0000
-3.0760 b}b y}i -1.8657
-3.3388 b}b y}y 0.0000
-2.3142 b}b á}a -0.2380
-2.5061 b}b é}e -0.1292
-3.7468 b}b é}e| 0.0000
-2.2842 b}b í}i -0.3295
-3.7468 b}b í}i| 0.0000
-2.5061 b}b ó}o -0.3421
-2.4603 b}b ó}o| 1.7821
-2.8644 b}b ú}u 0.0000
-3.3388 b}b ú}u| 0.5837
-1.5951 c|h}ch </s> 0.0000
-0.4351 c|h}ch a}a -0.3482
-0.7334 c|h}ch e}e -0.2841
-0.8512 c|h}ch i}i -0.3355
-2.9230 c|h}ch l}l 0.0000
-0.7614 c|h}ch o}o -0.3685
-2.2522 c|h}ch r}r -0.2578
-2.1594 c|h}ch t}t -0.2580
-1.3577 c|h}ch u}u -0.1289
-2.9230 c|h}ch w}u 0.0000
-2.9230 c|h}ch á}a 0.0000
-2.5150 c|h}ch é}e| 1.3175
-1.9375 c|h}ch í}i -0.6616
-2.5150 c|h}ch ó}o 0.0535
-1.7334 c|h}ch ó}o| 1.8692
-2.9230 c|h}ch ú}u 0.0000
-2.1827 c}k </s> 0.0000
-0.5190 c}k a}a -0.7612
-1.6355 c}k a}a| 0.6725
-3.4005 c}k c}k 0.0000
-1.7020 c}k c}z -0.6220
-3.3076 c}k d}d -0.1019
-4.0713 c}k g}j 0.0000
-4.0713 c}k h|o}o 0.0000
-2.3868 c}k k}k -0.3751
-1.4404 c}k l}l -1.2900
-4.0713 c}k m}m 0.0000
-2.7056 c}k n}n -1.0263
-4.0713 c}k o|h}o 0.0000
-0.4929 c}k o}o -0.0639
-1.6294 c}k o}o| 0.4597
-4.0713 c}k q|u}k 0.0000
-4.0713 c}k q}k 0.0000
-1.2742 c}k r}r -1.4945
-3.6632 c}k s}s 0.0000
-1.1564 c}k t}t -0.8216
-0.9440 c}k u}u -1.0632
-4.0713 c}k v}b 0.0000
-3.4005 c}k y}i 0.3015
-4.0713 c}k z}z 0.0000
-2.1220 c}k á}a -0.3509
-4.0713 c}k á}a| 0.0000
-2.3534 c}k ó}o 0.1636
-2.1720 c}k ó}o| 1.2002
-2.8817 c}k ú}u -0.1331
-4.0713 c}k ú}u| 0.0000
-0.2178 c}k| </s> 0.0000
-0.8886 c}s e}e 0.0000
-0.8886 c}s i}i 0.0000
-0.8886 c}s á}a 0.0000
-0.8886 c}s ú}u 0.0000
-0.1249 c}s|z i}i -0.4660
-2.5435 c}z _}e -0.1812
-0.6130 c}z e}e -0.9644
-3.1135 c}z e}e| -0.1789
-0.1415 c}z i}i -1.1473
-2.1553 c}z é}e -0.0060
-3.3762 c}z é}e| 1.3175
-1.6782 c}z í}i -0.5414
-2.7988 c}z í}i| 0.9890
-0.2865 d|h}d </s> 0.0000
-0.2865 d|z}z i}i 0.0000
-4.2076 d}d '|s}s 0.0000
-1.4786 d}d </s> 0.0000
-3.3251 d}d _}e -0.1053
-4.2076 d}d a|q}a 0.0000
-0.6751 d}d a}a -0.6637
-2.5786 d}d a}a| 1.4630
-3.7995 d}d b}b 0.0000
-3.5368 d}d c}k -0.0705
-4.2076 d}d d|h}d 0.0000
-3.3251 d}d d}d -0.0442
-0.6675 d}d e}e -0.9327
-3.4439 d}d e}e| 1.8026
-4.2076 d}d f}f 0.0000
-4.2076 d}d g}g 0.0000
-3.7995 d}d g}j -0.2804
-3.7995 d}d h|a}a 0.0000
-3.5368 d}d h|e}e -0.1132
-0.8419 d}d i}i -0.3577
-2.9668 d}d j}j -0.2200
-4.2076 d}d k}k 0.0000
-4.2076 d}d l}l 0.0000
-2.4025 d}d m}m -1.3286
-3.2221 d}d n}n -0.1927
-0.5098 d}d o}o -1.1078
-2.2398 d}d o}o| 0.9279
-3.0180 d}d q|u}k -0.6948
-1.7718 d}d r}r -1.1558
-2.8419 d}d s}s -0.1345
-3.4439 d}d t}t -0.4917
-1.5301 d}d u}u -0.5803
-2.7169 d}d v}b -0.8422
-3.4439 d}d w}u -0.1033
-3.0760 d}d y}i 0.1418
-4.2076 d}d y}y 0.0000
-4.2076 d}d z}z 0.0000
-2.6658 d}d á}a -0.0310
-4.2076 d}d á}a| 0.0000
-2.5409 d}d é}e -0.3476
-3.4439 d}d é}e| 1.3166
-2.2051 d}d í}i -0.5365
-3.5368 d}d í}i| -0.7875
-2.8797 d}d ó}o 0.2828
-2.5786 d}d ó}o| 1.4617
-3.7995 d}d ú}u 0.0000
-0.0792 d}d| </s> 0.0000
-0.7636 e|h}e </s> 0.0000
-0.7636 e|h}e b}b 0.0000
-0.7636 e|h}e t}t 0.0000
-1.0012 e}e </s> 0.0000
-4.5563 e}e _}t|a 0.0000
-1.7147 e}e a}a -0.4610
-3.1906 e}e a}a| 1.7108
-2.1426 e}e b}b -0.2629
-2.3403 e}e c|h}ch -0.4361
-1.4930 e}e c}k -0.6009
-4.5563 e}e c}k| 0.0000
-4.5563 e}e c}s 0.0000
-1.6194 e}e c}z -0.5061
-1.6156 e}e d}d -0.0270
-2.4844 e}e e}e -0.4449
-1.9475 e}e f}f -0.1268
-4.5563 e}e g|h}g 0.0000
-2.6263 e}e g|u}g 0.2188
-1.7220 e}e g}g -0.5228
-2.3107 e}e g}j -0.2281
-3.5708 e}e h|a}a -0.2589
-3.3667 e}e h|e}e -0.3907
-3.7926 e}e h|i}i 0.0000
-4.5563 e}e h|o}o 0.0000
-3.5708 e}e h|u}u -0.2099
-4.5563 e}e h|é}e 0.0000
-4.1482 e}e h|í}i -0.3873
-2.2244 e}e i}i -0.5027
-1.9580 e}e j}j 0.1554
-3.3155 e}e k}k -0.1539
-2.4064 e}e l|l}ll 0.2062
-1.4041 e}e l}l -0.0001
-3.8854 e}e l}l| -0.9214
-1.4489 e}e m}m -0.5327
-4.5563 e}e m}m| 0.0000
-4.5563 e}e n|h}n 0.0000
-0.7217 e}e n}n -0.2571
-3.3667 e}e n}n| 2.0883
-2.0879 e}e o}o -0.5264
-3.2697 e}e o}o| 1.5767
-4.5563 e}e p|h}p 0.0000
-1.7319 e}e p}p 0.1016
-2.5216 e}e q|u}k -0.1687
-2.0656 e}e r|r}rr 0.0235
-0.8465 e}e r}r -0.1772
-3.1906 e}e r}r| 0.4658
-3.0656 e}e s|c}z -0.3287
-4.5563 e}e s|h}s 0.0000
-0.7491 e}e s}s -0.4960
-2.3721 e}e s}s| 0.9307
-3.8854 e}e s}z -0.1021
-4.1482 e}e t|h}t 0.4588
-1.5041 e}e t}t -0.0303
-2.5063 e}e u}u -0.8924
-1.7319 e}e v}b -0.0610
-3.6738 e}e w}u -0.1450
-3.6738 e}e x}j 0.0992
-1.7282 e}e x}x -0.0008
-4.5563 e}e x}x| 0.0000
-2.7134 e}e y}i -0.0382
-4.5563 e}e y}i| 0.0000
-3.0145 e}e y}y -0.9609
-4.5563 e}e z}s 0.0000
-3.7926 e}e z}s| 0.1058
-2.1906 e}e z}z -0.2064
-2.7257 e}e z}z| 0.0969
-4.1482 e}e á}a 0.0000
-4.5563 e}e á}a| 0.0000
-4.1482 e}e é}e| 1.3175
-2.9910 e}e í}i 0.0578
-4.5563 e}e í}i| 0.0000
-2.1834 e}e ñ}gn -0.5694
-4.5563 e}e ñ}gn| 0.0000
-3.1906 e}e ó}o 0.0718
-3.3155 e}e ó}o| 1.8235
-3.6738 e}e ú}u -0.4113
-0.0022 e}e| </s> 0.0000
-0.2865 e}i|s _}e 0.0000
-2.1117 f}f </s> 0.0000
-2.9035 f}f _}e -0.1780
-3.5743 f}f a|h}a 0.0000
-0.9242 f}f a}a -0.3680
-3.5743 f}f c}k 0.0000
-0.8150 f}f e}e -0.9745
-3.5743 f}f e}e| 0.0000
-2.0325 f}f f}f -0.0219
-2.8107 f}f g}g -0.0723
-3.5743 f}f g}j 0.0000
-3.5743 f}f i|q}i 0.0000
-0.5289 f}f i}i -1.2225
-3.5743 f}f k}k 0.0000
-1.3635 f}f l}l -1.0340
-2.8107 f}f m}m -0.3938
-0.9337 f}f o}o -0.2856
-2.3847 f}f o}o| 1.6638
-0.9131 f}f r}r -1.4836
-3.5743 f}f s}s 0.0000
-2.6919 f}f t}t 0.0171
-1.0891 f}f u}u -0.9440
-2.0574 f}f á}a -0.2653
-2.2086 f}f é}e -0.5703
-3.1663 f}f é}e| 1.3175
-1.8406 f}f í}i -0.1935
-2.3847 f}f ó}o -0.4508
-3.5743 f}f ó}o| 0.0000
-3.5743 f}f ú}u 0.0000
-0.5188 g|h}g </s> 0.0000
-0.7816 g|h}g l}l 0.0000
-0.7816 g|h}g t}t -0.4909
-0.3514 g|u}g e}e -0.3390
-0.3448 g|u}g i}i -0.5275
-2.4509 g|u}g é}e 0.0000
-1.6872 g|u}g é}e| 1.3166
-1.1230 g|u}g í}i -0.0657
-0.2865 g|ü}g e}e 0.0000
-1.5006 g}g </s> 0.0000
-0.4501 g}g a}a -0.8238
-2.5798 g}g a}a| 2.1236
-2.8016 g}g d}d -0.1594
-3.1572 g}g f}f 0.0000
-3.1572 g}g g}g 0.0000
-2.8016 g}g g}j 0.0738
-3.5653 g}g h|a}a 0.0000
-3.1572 g}g h|e}e 0.0000
-3.5653 g}g h|i}i 0.0000
-1.5545 g}g l}l -0.9012
-2.6828 g}g m}m -0.1340
-1.3757 g}g n}n -1.2182
-0.8490 g}g o}o -0.4495
-2.1027 g}g o}o| 1.4139
-0.6844 g}g r}r -2.0650
-2.4337 g}g s}s 0.1254
-2.8945 g}g t}t -2.4187
-0.8791 g}g u}u -0.7571
-3.5653 g}g w}u 0.0000
-2.8016 g}g y}i 0.0000
-3.1572 g}g y}y -0.3346
-3.5653 g}g z}z 0.0000
-2.5798 g}g á}a -0.1367
-3.1572 g}g í}i -0.3920
-2.1996 g}g ó}o 0.3629
-1.8638 g}g ó}o| 1.3921
-2.5798 g}g ú}u -0.1979
-2.1996 g}g ü}u 0.0000
-2.4306 g}j _}e -0.0481
-0.4084 g}j e}e -0.9857
-0.2684 g}j i}i -0.8165
-1.9118 g}j é}e -0.3680
-1.2834 g}j í}i -0.4264
-2.6539 h|a}a '|s}s 0.0000
-1.4131 h|a}a </s> 0.0000
-0.5285 h|a}a b}b -0.5720
-2.6539 h|a}a c}k 0.0000
-0.9050 h|a}a c}z 0.3930
-1.5223 h|a}a d}d -0.2630
-2.6539 h|a}a f}f 0.0000
-1.9831 h|a}a g}g -0.1202
-2.6539 h|a}a h|a}a 0.0000
-2.6539 h|a}a h|r}r 0.0000
-1.6684 h|a}a i}i -0.2027
-1.9831 h|a}a k}k -0.1280
-1.1913 h|a}a l|l}ll -0.4920
-1.4643 h|a}a l}l -0.0154
-1.1913 h|a}a m}m -0.0526
-1.1369 h|a}a n}n -0.4091
-2.6539 h|a}a r|r}rr 0.0000
-1.0886 h|a}a r}r 0.0782
-1.4131 h|a}a s}s -0.0911
-2.2458 h|a}a t}t 0.0000
-2.2458 h|a}a u}u -0.4582
-2.2458 h|a}a v}b -0.3568
-2.2458 h|a}a w}u 0.0000
-2.6539 h|a}a y}i 0.0000
-1.9831 h|a}a y}y -0.1496
-1.9831 h|a}a z}z 0.0000
-1.9788 h|e}e </s> 0.0000
-2.3869 h|e}e a}a 0.0000
-1.6232 h|e}e b}b -0.4384
-1.1973 h|e}e c|h}ch -0.1418
-2.3869 h|e}e c}k 0.0000
-2.3869 h|e}e f}f 0.0000
-1.5044 h|e}e i}i -0.1624
-0.8699 h|e}e l}l 0.0715
-1.1004 h|e}e m}m -0.2579
-0.9542 h|e}e n}n -0.1782
-1.9788 h|e}e o}o -0.4892
-1.9788 h|e}e p}p 0.0000
-1.7161 h|e}e r|r}rr -0.0754
-0.4376 h|e}e r}r -0.5026
-1.7161 h|e}e s}s 0.0000
-2.3869 h|e}e t}t 0.0000
-2.3869 h|e}e v}b 0.0000
-2.3869 h|e}e x}x 0.0000
-2.3869 h|e}e y}i 0.0000
-2.3869 h|e}e z}z 0.0000
-1.9958 h|i}i </s> 0.0000
-2.4038 h|i}i a}a 0.0000
-0.6701 h|i}i b}b -0.9164
-2.4038 h|i}i c}k 0.0000
-1.4183 h|i}i c}z -0.1375
-1.0759 h|i}i d}d -0.7330
-1.7330 h|i}i e}e 0.0000
-2.4038 h|i}i g|h}g 0.0000
-1.9958 h|i}i g}j -0.1591
-1.7330 h|i}i j}j -0.2045
-1.9958 h|i}i k}k -0.4597
-1.9958 h|i}i l|l}ll 0.0000
-1.5213 h|i}i l}l -0.0133
-1.1173 h|i}i m}m -0.0772
-1.2722 h|i}i n}n -0.1761
-2.4038 h|i}i o}o 0.0000
-1.1630 h|i}i p}p -0.8823
-1.2142 h|i}i r}r -0.3661
-0.7951 h|i}i s}s -0.7628
-1.4183 h|i}i t}t 0.0000
-2.4038 h|i}i z}z 0.0000
-1.6500 h|o}o </s> 0.0000
-2.4136 h|o}o e}e 0.0000
-2.0056 h|o}o f}f -0.4914
-1.2240 h|o}o g}g -0.1851
-2.0056 h|o}o j}j -0.3189
-1.6500 h|o}o k}k 0.0000
-2.4136 h|o}o l|l}ll 0.0000
-1.0479 h|o}o l}l -0.1232
-0.8718 h|o}o m}m -0.1635
-0.7121 h|o}o n}n -0.7617
-2.4136 h|o}o o}o 0.0000
-2.4136 h|o}o p}p 0.0000
-1.2820 h|o}o r|r}rr -0.0059
-0.7292 h|o}o r}r -0.6262
-0.8967 h|o}o s}s -0.7733
-2.4136 h|o}o t}t 0.0000
-2.4136 h|o}o u}u 0.0000
-2.4136 h|o}o v}b 0.0000
-2.0056 h|o}o w}u 0.0000
-2.4136 h|o}o y}i 0.0000
-2.4136 h|o}o y}y 0.0000
-0.2865 h|r}r á}a 0.0000
-1.8607 h|u}u </s> 0.0000
-0.8361 h|u}u a}a -0.0614
-1.3863 h|u}u b}b -0.4129
-2.2688 h|u}u d}d 0.0000
-0.8683 h|u}u e}e -0.2077
-1.8607 h|u}u g}g 0.0000
-1.5051 h|u}u i}i 0.0000
-0.5843 h|u}u m}m -0.3068
-1.0280 h|u}u n}n -0.2631
-2.2688 h|u}u o}o 0.0000
-1.5980 h|u}u r}r -0.3782
-1.3863 h|u}u s}s -0.0738
-1.5051 h|u}u t}t -0.2430
-1.5980 h|u}u y}y -0.1554
-2.2688 h|u}u é}e 0.0000
-1.8607 h|u}u í}i 0.0000
-0.1249 h|y}i </s> 0.0000
-0.2865 h|y}y u}u 0.0000
-0.3556 h|á}a b}b 0.0000
-0.7636 h|á}a g}g 0.0000
-0.8886 h|é}e c}k 0.0000
-0.8886 h|é}e n}n| 0.0000
-0.4805 h|é}e r}r 0.0000
-1.0647 h|í}i a}a| 0.0000
-0.6566 h|í}i b}b 0.0000
-0.6566 h|í}i c}k -0.4430
-1.0647 h|í}i g}g 0.0000
-0.5875 h|ú}u m}m 0.0000
-0.5875 h|ú}u n}n 0.0000
-0.1249 h}a|ch _}e 0.0000
-0.1249 h}ch|e </s> 0.0000
-0.2865 i|q}i </s> 0.0000
-1.8478 i}i </s> 0.0000
-4.4647 i}i _|a}a 0.0000
-4.4647 i}i _|d}d 0.0000
-4.4647 i}i _}a 0.0000
-1.0775 i}i a}a -1.2475
-4.0566 i}i a}a| 2.3293
-1.6868 i}i b}b -0.4748
-2.6868 i}i c|h}ch 0.2582
-1.1348 i}i c}k -0.6891
-1.5457 i}i c}z -0.7207
-1.1403 i}i d}d -0.5152
-4.4647 i}i d}d| 0.0000
-1.1713 i}i e}e -1.4405
-1.7820 i}i f}f -0.0724
-3.7010 i}i g|h}g -0.1840
-2.7310 i}i g|u}g -0.4741
-1.7599 i}i g}g -0.1745
-2.1063 i}i g}j -0.0362
-4.0566 i}i h|i}i 0.0000
-4.0566 i}i h|u}u -0.4270
-3.7939 i}i i}i -0.1191
-2.5061 i}i j}j -0.5733
-4.4647 i}i k|h}k 0.0000
-3.2239 i}i k}k -0.0128
-1.9907 i}i l|l}ll -0.3905
-1.5024 i}i l}l -0.3183
-3.1368 i}i l}l| 0.4771
-1.3816 i}i m}m -0.3468
-0.8795 i}i n}n -0.1630
-4.4647 i}i n}n| 0.0000
-1.1336 i}i o}o -1.0113
-2.0138 i}i p}p 0.4946
-2.5447 i}i q|u}k -0.1901
-2.9477 i}i r|r}rr -0.4997
-1.3482 i}i r}r -0.6861
-4.0566 i}i r}r| 1.0843
-4.0566 i}i s|c}z -0.4027
-4.0566 i}i s|h}s 0.2827
-1.1721 i}i s}s -0.0844
-3.0320 i}i s}s| 1.6577
-4.0566 i}i t|h}t 0.4588
-1.2452 i}i t}t -0.1564
-4.0566 i}i t}t| 0.1066
-2.7310 i}i u}u -0.6831
-1.5145 i}i v}b -0.2237
-4.0566 i}i w}u -0.3362
-3.1782 i}i x}x -0.3151
-4.4647 i}i x}x| 0.0000
-3.7010 i}i y}y 0.0000
-3.5822 i}i z}s 0.1202
-1.6076 i}i z}z -0.7819
-4.4647 i}i z}z| 0.0000
-3.0320 i}i á}a -0.2185
-2.5761 i}i é}e -0.6303
-3.7939 i}i é}e| -0.6648
-4.0566 i}i í}i -0.4638
-2.9741 i}i ñ}gn 0.5373
-1.3964 i}i ó}o -1.2397
-1.9278 i}i ó}o| 0.5706
-4.4647 i}i ú}u 0.0000
-0.1795 i}i| </s> 0.0000
-0.2865 j|ü}j r}r 0.0000
-2.4523 j}j </s> 0.0000
-0.4761 j}j a}a -0.4985
-3.2159 j}j a}a| 0.0000
-3.2159 j}j d}d 0.0000
-0.6328 j}j e}e -0.6283
-1.4109 j}j i}i -0.0834
-3.2159 j}j m}m 0.0000
-3.2159 j}j n}n 0.0000
-2.4523 j}j o|h}o -0.1952
-3.2159 j}j o|ã}o 0.0000
-0.8121 j}j o}o -0.5406
-3.2159 j}j s}s 0.0000
-0.7119 j}j u}u -0.6842
-2.4523 j}j á}a -0.1710
-3.2159 j}j á}a| 0.0000
-2.4523 j}j é}e -0.4136
-3.2159 j}j é}e| 0.0000
-2.5451 j}j í}i 0.0143
-2.5451 j}j ó}o 0.2385
-1.9294 j}j ó}o| 1.7821
-3.2159 j}j ú}u 0.0000
-0.1249 j}t|a </s> 0.0000
-0.2865 j}y a}a 0.0000
-0.9855 k|h}k </s> 0.0000
-0.2218 k|h}k m}m -0.3990
-0.9855 k|h}k t}t 0.0000
-0.9430 k}k </s> 0.0000
-0.6419 k}k a}a 0.2241
-2.6444 k}k b}b 0.0000
-2.6444 k}k d}d 0.0000
-0.8808 k}k e}e -0.1822
-1.9736 k}k h|a}a 0.0000
-2.2364 k}k h|i}i 0.0000
-2.6444 k}k h|o}o 0.0000
-0.6858 k}k i}i -0.6635
-1.5128 k}k l}l -0.4061
-2.6444 k}k m}m 0.0000
-2.6444 k}k o|h}o 0.0000
-1.1027 k}k o}o -0.0733
-1.8808 k}k r}r -0.1708
-1.9736 k}k s}s -0.1579
-2.6444 k}k t}t 0.0000
-1.2118 k}k u}u -0.1323
-2.2364 k}k w}u 0.0000
-1.2788 k}k y}i -0.4671
-2.6444 k}k í}i 0.0000
-1.6558 l|l}ll </s> 0.0000
-2.5757 l|l}ll a|h}a -0.1433
-0.3648 l|l}ll a}a -0.6102
-0.5542 l|l}ll e}e -0.7360
-1.3355 l|l}ll i}i -0.2790
-0.8339 l|l}ll o}o -0.8114
-2.3129 l|l}ll s}s -0.0912
-1.8521 l|l}ll u}u -0.2489
-2.1013 l|l}ll y}i 0.1338
-2.2201 l|l}ll á}a -0.0900
-2.9837 l|l}ll á}a| 0.0000
-2.9837 l|l}ll é}e 0.0000
-2.9837 l|l}ll é}e| 0.0000
-2.5757 l|l}ll í}i 0.0000
-2.9837 l|l}ll í}i| 0.0000
-2.2201 l|l}ll ó}o 0.2864
-2.1013 l|l}ll ó}o| 2.1823
-1.2000 l}l </s> 0.0000
-3.0976 l}l _}e -0.1029
-4.0831 l}l a|q}a 0.0000
-0.6931 l}l a}a -0.3340
-2.3342 l}l a}a| 1.3477
-2.3652 l}l b}b -0.4306
-3.2007 l}l c|h}ch -0.1714
-1.9837 l}l c}k -0.4012
-3.2007 l}l c}z 0.5007
-1.7880 l}l d}d 0.1756
-4.0831 l}l e|h}e 0.0000
-0.6945 l}l e}e -0.4516
-2.3342 l}l e}e| 0.8217
-2.3986 l}l f}f -0.7211
-3.2007 l}l g|u}g -0.0383
-2.1338 l}l g}g -0.5476
-3.2007 l}l g}j 0.1885
-4.0831 l}l h|a}a 0.0000
-4.0831 l}l h|e}e 0.0000
-4.0831 l}l h|i}i 0.0000
-0.7077 l}l i}i -0.8425
-2.9515 l}l j}j 0.0267
-2.9515 l}l k}k 0.0064
-2.6504 l}l l}l -0.5342
-1.6630 l}l m}m -0.6974
-2.9515 l}l n}n -0.5252
-1.0148 l}l o}o -0.0795
-2.2168 l}l o}o| 1.0270
-3.6751 l}l p|h}p 0.1066
-2.3052 l}l p}p -1.2249
-2.8935 l}l q|u}k 0.6599
-3.6751 l}l r}r -0.4349
-2.0642 l}l s}s -0.8052
-1.4522 l}l t}t -0.2287
-1.3463 l}l u}u -0.0495
-1.7880 l}l v}b 0.0540
-4.0831 l}l w}u 0.0000
-2.9515 l}l y}i 0.3597
-4.0831 l}l y}y 0.0000
-4.0831 l}l z}s 0.0000
-2.8935 l}l z}z 0.1231
-2.1245 l}l á}a 0.0900
-3.0976 l}l á}a| 1.7597
-2.3816 l}l é}e -0.1394
-3.6751 l}l é}e| 1.3175
-1.9904 l}l í}i 0.1925
-2.9515 l}l í}i| 0.7871
-2.2055 l}l ó}o 0.0284
-2.4744 l}l ó}o| 1.4811
-3.6751 l}l ú}u 0.0000
-0.0122 l}l| </s> 0.0000
-0.5875 m|h}m </s> 0.0000
-0.5875 m|h}m m}m 0.0000
-4.0246 m}m '|s}s 0.0000
-2.0221 m}m </s> 0.0000
-2.6241 m}m _}e -0.2955
-0.6774 m}m a}a -0.1775
-2.4158 m}m a}a| 1.4824
-1.3633 m}m b}b -0.8072
-2.6967 m}m c}k -0.2013
-4.0246 m}m d}d 0.0000
-0.6975 m}m e}e -0.9728
-2.6241 m}m e}e| 1.1527
-0.7649 m}m i}i -0.9780
-3.2609 m}m l}l 0.0000
-4.0246 m}m m|h}m 0.0000
-3.0391 m}m m}m -0.1257
-2.4158 m}m n}n -0.6416
-0.8097 m}m o}o -0.5903
-2.2329 m}m o}o| 1.0995
-0.9592 m}m p}p -0.6309
-2.7838 m}m s}s -0.0628
-4.0246 m}m t}t 0.0000
-1.4036 m}m u}u -0.8133
-3.3538 m}m y}i 0.4314
-4.0246 m}m y}y 0.0000
-1.9527 m}m á}a -0.3739
-3.2609 m}m á}a| 1.9646
-2.1940 m}m é}e -0.4760
-3.2609 m}m é}e| 1.3166
-2.2757 m}m í}i -0.1044
-3.6165 m}m í}i| 1.1947
-2.3231 m}m ó}o 0.2340
-2.3067 m}m ó}o| 1.3763
-3.1421 m}m ú}u -0.3011
-0.0792 m}m| </s> 0.0000
-0.1795 n|h}n </s> 0.0000
-0.8843 n}n </s> 0.0000
-2.9254 n}n _}e -0.0113
-0.9374 n}n a}a -0.7880
-3.1472 n}n a}a| 1.8248
-3.0601 n}n b}b -0.0819
-2.5217 n}n c|h}ch 0.1917
-1.6045 n}n c}k -1.0409
-4.3880 n}n c}s|z 0.0000
-1.3403 n}n c}z -0.4158
-0.9591 n}n d}d -0.6422
-1.1054 n}n e}e -0.5750
-3.9800 n}n e}e| 1.8034
-1.7035 n}n f}f -0.4988
-2.9875 n}n g|u}g -0.1199
-1.7610 n}n g}g -0.5161
-2.3161 n}n g}j 0.5341
-3.7172 n}n h|a}a -0.3212
-3.7172 n}n h|e}e -0.1177
-3.7172 n}n h|i}i -0.2061
-4.3880 n}n h|o}o 0.0000
-3.7172 n}n h|u}u -2.3467
-1.2155 n}n i}i -0.3938
-4.3880 n}n i}i| 0.0000
-2.4887 n}n j}j -0.7351
-3.0601 n}n k}k -0.1300
-3.9800 n}n l|l}ll -0.3533
-2.8462 n}n l}l -0.1407
-2.3380 n}n m}m -2.9870
-2.3855 n}n n}n -0.7313
-1.2346 n}n o}o -0.5870
-2.8462 n}n o}o| 1.3393
-3.9800 n}n p}p 0.0000
-2.4782 n}n q|u}k -0.4911
-2.8227 n}n r}rr 0.7705
-1.3183 n}n s}s 0.0093
-4.3880 n}n s}s| 0.0000
-0.6965 n}n t}t -0.7388
-1.8114 n}n u}u -0.5829
-1.8092 n}n v}b -0.3779
-4.3880 n}n x}x 0.0000
-2.9875 n}n y}i -0.5341
-3.4025 n}n y}y -0.0871
-4.3880 n}n z}s 0.0000
-2.0561 n}n z}z -0.5046
-2.7397 n}n á}a -0.2591
-2.8004 n}n é}e -0.4008
-3.4025 n}n é}e| 1.1117
-2.4680 n}n í}i -0.3000
-3.5055 n}n í}i| 1.0490
-2.7397 n}n ó}o -0.6502
-2.4580 n}n ó}o| 1.1703
-2.9875 n}n ú}u -0.1057
-4.3880 n}n ú}u| 0.0000
-0.0004 n}n| </s> 0.0000
-0.5875 o|'}o d}d 0.0000
-0.5875 o|'}o h|a}a 0.0000
-1.0647 o|h}o </s> 0.0000
-1.0647 o|h}o l}l 0.0000
-0.3010 o|h}o n}n -0.2411
-1.0647 o|h}o ó}o 0.0000
-0.2865 o|q}o </s> 0.0000
-0.2865 o|ã}o o}o| 0.0000
-0.6078 o}o </s> 0.0000
-2.3543 o}o a}a -0.1768
-1.6567 o}o b}b -0.3778
-2.7291 o}o c|h}ch -0.0939
-1.6622 o}o c}k -0.1748
-4.4470 o}o c}k| 0.0000
-4.0390 o}o c}s|z 0.1066
-1.9275 o}o c}z 0.2666
-1.8466 o}o d}d 0.4011
-2.5923 o}o e}e -0.1558
-4.4470 o}o e}e| 0.0000
-2.1036 o}o f}f -0.1923
-4.4470 o}o g|h}g 0.0000
-4.4470 o}o g|u}g 0.0000
-2.0886 o}o g}g -0.7583
-2.4703 o}o g}j 0.0368
-3.5646 o}o h|a}a -0.4159
-3.4615 o}o h|e}e 0.0593
-2.8595 o}o h|i}i -0.8956
-4.0390 o}o h|o}o -0.4547
-4.0390 o}o h|í}i -0.3873
-2.6290 o}o i}i -0.2924
-2.5477 o}o j}j -0.4546
-4.4470 o}o k|h}k 0.0000
-3.0813 o}o k}k 0.1183
-2.6290 o}o l|l}ll 0.2449
-1.3185 o}o l}l -0.0215
-3.3154 o}o l}l| 0.6532
-1.3429 o}o m}m -0.0793
-0.7664 o}o n}n -0.4928
-3.3154 o}o n}n| 2.1395
-4.4470 o}o o|q}o 0.0000
-2.6290 o}o o}o -0.3091
-1.7894 o}o p}p -0.0671
-2.6420 o}o q|u}k 0.2764
-2.2111 o}o r|r}rr -0.1266
-0.9556 o}o r}r -0.6156
-3.5646 o}o r}r| 0.9386
-0.7769 o}o s}s -0.4801
-1.6762 o}o s}s| 0.3481
-4.4470 o}o t|h}t 0.0000
-1.6115 o}o t}t -0.0868
-2.6834 o}o u}u -0.1787
-1.8772 o}o v}b -0.3743
-3.1605 o}o w}u -0.2215
-2.8383 o}o x}x -0.4657
-3.1605 o}o y}i -0.3880
-2.3752 o}o y}y 0.2351
-4.4470 o}o z}s 0.0000
-2.4703 o}o z}z -0.4179
-4.4470 o}o z}z| 0.0000
-4.4470 o}o é}e 0.0000
-4.4470 o}o é}e| 0.0000
-3.3154 o}o í}i -0.1657
-4.4470 o}o í}i| 0.0000
-3.2063 o}o ñ}gn -0.0433
-0.0010 o}o| </s> 0.0000
-0.1249 p|h}p </s> 0.0000
-0.8886 p|h}p n}n 0.0000
-2.4449 p}p </s> 0.0000
-3.0794 p}p _}e -0.0240
-0.7068 p}p a}a -0.5306
-3.9618 p}p b}b 0.0000
-2.2282 p}p c}z -0.9066
-0.7363 p}p e}e -0.8578
-3.9618 p}p e}e| 0.0000
-3.9618 p}p f}f 0.0000
-3.2910 p}p h|a}a -0.2776
-3.5538 p}p h|e}e 0.0000
-3.2910 p}p h|i}i -0.1673
-3.9618 p}p h|o}o 0.0000
-1.1464 p}p i}i -0.7735
-3.9618 p}p k}k 0.0000
-1.1001 p}p l}l -1.7319
-0.8972 p}p o}o -0.8725
-3.1982 p}p p}p -0.1745
-0.6423 p}p r}r -1.9850
-2.3531 p}p s}s -0.1731
-1.6625 p}p t}t -0.9701
-1.2408 p}p u}u -1.1669
-3.5538 p}p y}y 0.0000
-2.3136 p}p á}a -0.1094
-3.9618 p}p á}a| 0.0000
-2.7211 p}p é}e -0.3639
-2.6339 p}p í}i -0.2735
-2.4712 p}p ó}o 0.3318
-2.9764 p}p ó}o| 2.1223
-2.6339 p}p ú}u -0.2941
-0.7636 q|a}a b}b 0.0000
-0.3556 q|a}a t}t -0.3666
-0.5875 q|i}i a}a 0.0000
-0.5875 q|i}i y}i 0.0000
-2.9474 q|u}k </s> 0.0000
-0.3204 q|u}k e}e -0.4446
-0.3470 q|u}k i}i -0.6602
-2.2766 q|u}k é}e -0.4752
-2.1837 q|u}k é}e| 1.3166
-1.3386 q|u}k í}i 0.0511
-2.2766 q|u}k í}i| -0.7875
-0.1249 q}k u}u -0.4634
-0.1795 q}k|u </s> 0.0000
-2.9992 r|r}rr </s> 0.0000
-0.6673 r|r}rr a}a -0.4954
-0.5954 r|r}rr e}e -0.2412
-0.6792 r|r}rr i}i -0.6974
-0.6833 r|r}rr o}o -0.4853
-1.2655 r|r}rr u}u -0.6168
-1.8676 r|r}rr y}i -0.2910
-1.8676 r|r}rr á}a -0.2746
-2.5911 r|r}rr é}e 0.0000
-2.9992 r|r}rr é}e| 0.0000
-1.8676 r|r}rr í}i -0.7082
-2.0137 r|r}rr ó}o 0.3208
-2.9992 r|r}rr ó}o| 0.0000
-0.9632 r}r </s> 0.0000
-3.0305 r}r _}e -0.0993
-4.3962 r}r a|h}a 0.0000
-4.3962 r}r a|q}a 0.0000
-0.7203 r}r a}a -0.2894
-2.8087 r}r a}a| 1.5026
-2.2176 r}r b}b -1.1914
-2.8792 r}r c|h}ch -0.4233
-1.9793 r}r c}k -1.1583
-2.0305 r}r c}z -0.6148
-1.6240 r}r d}d -0.1864
-4.3962 r}r d}d| 0.0000
-0.8854 r}r e}e -0.7227
-4.3962 r}r e}e| 0.0000
-2.6947 r}r f}f -0.4440
-4.3962 r}r g|h}g 0.0000
-3.1554 r}r g|u}g -0.7441
-1.9826 r}r g}g -0.9646
-2.2289 r}r g}j -0.3395
-3.9882 r}r h|a}a 0.0000
-4.3962 r}r h|o}o 0.0000
-0.9421 r}r i}i -0.2333
-2.8087 r}r j}j -0.6734
-3.1554 r}r k}k -0.0388
-1.6254 r}r l}l -0.8851
-1.5033 r}r m}m -1.1207
-1.7712 r}r n}n -1.2412
-0.9182 r}r o}o -0.4097
-2.8309 r}r o}o| 1.3170
-2.2176 r}r p}p -0.5808
-2.5782 r}r q|u}k 0.3501
-2.7875 r}r r}r -0.5315
-1.5142 r}r s}s -0.6931
-3.9882 r}r s}z -0.4170
-3.9882 r}r t|h}t 0.4588
-1.3352 r}r t}t -0.3188
-4.3962 r}r t}t| 0.0000
-1.7793 r}r u}u -0.8078
-2.1702 r}r v}b -0.4504
-3.6326 r}r w}u -0.1720
-3.9882 r}r x}x 0.0000
-3.1554 r}r y}i -0.3422
-2.6326 r}r z}z -0.6189
-1.7349 r}r á}a -0.4846
-1.6864 r}r á}a| 0.0360
-2.9336 r}r é}e -0.1975
-2.9957 r}r é}e| 0.6668
-1.6443 r}r í}i -0.6052
-3.9882 r}r í}i| 1.1947
-2.5299 r}r ó}o 0.3227
-2.3243 r}r ó}o| 1.0311
-3.5138 r}r ú}u -0.1506
-3.6326 r}r ú}u| 0.5829
-1.0957 r}rr a}a -0.3815
-0.1343 r}rr e}e -1.4015
-1.3544 r}rr i}i -0.4323
-1.0322 r}rr o}o -0.7707
-1.4361 r}rr u}u -0.4041
-2.8152 r}rr y}i 0.0000
-2.8152 r}rr á}a -0.3053
-2.7224 r}rr é}e 0.0000
-2.5005 r}rr í}i 0.0000
-2.7224 r}rr ó}o 0.2864
-0.0116 r}r| </s> 0.0000
-0.1362 s|c}z e}e -1.2096
-0.7160 s|c}z i}i -0.2837
-1.2935 s|c}z é}e -0.4821
-0.0792 s|h}s </s> 0.0000
-1.0647 s|h}s k}k 0.0000
-0.4018 s}s </s> 0.0000
-3.0787 s}s _}e -0.1375
-1.0778 s}s a}a -0.1841
-3.9572 s}s a}a| 2.3293
-2.8483 s}s b}b -0.5327
-2.9648 s}s c|h}ch -0.2127
-1.5047 s}s c}k -1.0544
-2.4876 s}s c}z -0.1377
-3.1756 s}s d}d -0.0264
-1.0791 s}s e}e -0.6562
-2.3153 s}s e}e| 0.5280
-2.3079 s}s f}f -0.6495
-3.9572 s}s g|u}g 0.0000
-2.6637 s}s g}g -0.1047
-2.6985 s}s h|a}a 0.0576
-3.1245 s}s h|e}e -0.1146
-3.0373 s}s h|i}i -0.3043
-3.6944 s}s h|o}o -0.0909
-1.1159 s}s i}i -0.9224
-3.6944 s}s j}j -0.2378
-2.9026 s}s k}k -0.1904
-2.2658 s}s l}l -0.8366
-1.9026 s}s m}m -1.2938
-2.7170 s}s n}n -0.5273
-1.2934 s}s o}o -0.7306
-3.9572 s}s o}o| 2.1226
-1.4483 s}s p}p -1.0785
-2.7170 s}s q|u}k -0.2194
-3.0373 s}s r}r -0.9875
-2.5873 s}s s}s -0.1530
-0.8633 s}s t}t -0.6020
-1.3561 s}s u}u -0.6794
-2.9326 s}s v}b 0.1634
-3.3797 s}s w}u -0.0689
-3.9572 s}s y}i 0.0000
-4.3652 s}s z}z 0.0000
-2.8483 s}s á}a -0.8803
-3.0787 s}s é}e -0.4127
-3.6944 s}s é}e| -0.6648
-2.7565 s}s í}i -0.0955
-3.6016 s}s í}i| 1.1939
-2.8234 s}s ó}o -0.2062
-2.6637 s}s ó}o| 1.3921
-3.4828 s}s ú}u -0.0696
-4.3652 s}s ú}u| 0.0000
-0.0006 s}s| </s> 0.0000
-0.7816 s}z </s> 0.0000
-1.1896 s}z c}k 0.0000
-0.7816 s}z e}e 0.0000
-0.7816 s}z i}i -0.4628
-1.1896 s}z í}i 0.0000
-0.0512 t|h}t </s> 0.0000
-1.2407 t|h}t f}f 0.0000
-0.2865 t}d|o _}b|l 0.0000
-1.9836 t}t </s> 0.0000
-3.0805 t}t _}e -0.1691
-4.2701 t}t a|h}a 0.0000
-0.5905 t}t a}a -0.7345
-2.8696 t}t a}a| 1.6786
-3.0293 t}t b}b -0.9121
-3.2846 t}t c|h}ch -0.2389
-4.2701 t}t c}k 0.0000
-4.2701 t}t c}z 0.0000
-0.6612 t}t e}e -0.4559
-2.1203 t}t e}e| 0.4296
-4.2701 t}t g}g 0.0000
-3.3877 t}t h|a}a -0.1637
-3.0805 t}t h|e}e 0.0239
-3.8621 t}t h|i}i 0.0000
-3.8621 t}t h|o}o 0.0000
-4.2701 t}t h|u}u 0.0000
-3.5065 t}t h|y}i 0.1058
-0.7919 t}t i}i -0.1721
-2.5686 t}t l}l -0.6523
-3.5065 t}t l}l| 1.0600
-2.9836 t}t m}m -0.2805
-2.9836 t}t n}n -0.3936
-0.8958 t}t o}o -0.5416
-2.7048 t}t o}o| 1.3170
-0.9328 t}t r}r -1.8803
-2.7795 t}t s}s -0.0237
-4.2701 t}t s}s| 0.0000
-2.6412 t}t t}t -0.1640
-1.3572 t}t u}u -0.4254
-4.2701 t}t u}u| 0.0000
-3.5065 t}t w}u 0.0000
-2.9836 t}t y}i -0.0869
-4.2701 t}t y}y 0.0000
-3.8621 t}t z}s 0.0000
-3.0805 t}t z}z 0.1187
-2.1774 t}t á}a -0.3678
-3.5065 t}t á}a| 1.9646
-2.4273 t}t é}e -0.0743
-3.0293 t}t é}e| 0.8129
-2.0860 t}t í}i -0.1278
-3.3877 t}t í}i| 1.0490
-2.2934 t}t ó}o 0.1760
-1.9968 t}t ó}o| 0.8322
-2.6826 t}t ú}u -0.2879
-4.2701 t}t ú}u| 0.0000
-0.1249 t}t| </s> 0.0000
-0.5875 u|h}u </s> 0.0000
-0.5875 u|h}u t}t 0.0000
-1.9818 u}u </s> 0.0000
-1.1380 u}u a}a -0.8881
-1.3492 u}u b}b 0.0670
-1.9149 u}u c|h}ch -0.2014
-1.5986 u}u c}k -0.8860
-1.5200 u}u c}z -0.2876
-1.2447 u}u d}d -0.2855
-1.0960 u}u e}e -0.9152
-2.0720 u}u f}f -0.3556
-3.5415 u}u g|u}g 0.0000
-1.8777 u}u g}g -0.6170
-2.2651 u}u g}j -0.2458
-3.9495 u}u h|e}e 0.0000
-1.5077 u}u i}i -1.0224
-2.0098 u}u j}j -0.5551
-2.6630 u}u k}k -0.0455
-2.3843 u}u l|l}ll 0.3259
-0.9937 u}u l}l -0.5160
-3.9495 u}u l}l| 0.0000
-1.2920 u}u m}m -0.4774
-3.1859 u}u m}m| 0.2819
-1.0166 u}u n}n -0.4958
-2.2828 u}u o}o -1.0225
-1.4509 u}u p}p 0.2827
-2.9641 u}u q|u}k -0.4187
-2.0503 u}u r|r}rr -0.5560
-1.0003 u}u r}r -0.2838
-3.9495 u}u s|h}s 0.0000
-1.0855 u}u s}s -0.4001
-3.1859 u}u s}s| 2.3375
-3.9495 u}u t|h}t 0.0000
-1.2269 u}u t}t -0.2958
-2.0610 u}u v}b -1.0589
-3.5415 u}u w}u -0.3362
-3.1859 u}u x}x -0.3764
-2.9641 u}u y}i -0.0812
-1.7765 u}u y}y -0.9393
-3.9495 u}u z|h}z 0.0000
-2.0296 u}u z}z -0.3404
-2.4589 u}u á}a -0.0136
-3.5415 u}u á}a| 1.9654
-2.7088 u}u é}e -0.1199
-3.9495 u}u ë}e 0.0000
-2.6630 u}u í}i -0.0090
-2.5169 u}u ñ}gn -0.0585
-3.0671 u}u ó}o| 2.1823
-0.1795 u}u| </s> 0.0000
-1.9158 v}b </s> 0.0000
-3.2567 v}b _}e -0.3630
-0.6548 v}b a}a -0.6583
-3.6647 v}b a}a| 0.0000
-0.5633 v}b e}e -0.7364
-3.6647 v}b e}e| 0.0000
-3.6647 v}b g}j 0.0000
-0.5313 v}b i}i -0.8628
-2.9939 v}b l}l -2.3793
-0.8354 v}b o}o -0.9579
-3.2567 v}b r}r 0.0000
-2.9939 v}b s}s -0.3100
-1.7654 v}b u}u -1.5257
-3.6647 v}b y}i 0.0000
-2.1478 v}b á}a -0.0125
-3.6647 v}b á}a| 0.0000
-2.9939 v}b é}e -0.1318
-3.2567 v}b é}e| 1.3175
-1.9469 v}b í}i -0.0236
-2.9011 v}b í}i| 1.1939
-2.6792 v}b ó}o -0.3097
-2.3782 v}b ó}o| 1.7821
-1.1012 w}u </s> 0.0000
-2.2908 w}u _|a}a 0.0000
-0.5130 w}u a}a -0.1660
-2.2908 w}u e|h}e 0.0000
-0.7256 w}u e}e -0.1683
-1.5272 w}u h|i}i -0.2456
-0.7256 w}u i}i -0.2085
-2.2908 w}u m}m 0.0000
-1.5272 w}u n}n 0.0000
-1.1592 w}u o}o -0.2065
-2.2908 w}u r}r 0.0000
-1.6200 w}u s}s -0.2753
-2.2908 w}u t}t 0.0000
-2.2908 w}u y}y 0.0000
-2.2908 w}u á}a 0.0000
-0.2865 x|_}k e}i|s 0.0000
-0.2865 x}i|s </s> 0.0000
-1.3279 x}j a}a 0.0000
-0.0872 x}j i}i -0.9669
-1.3279 x}j i}i| 0.0000
-1.4802 x}x </s> 0.0000
-1.1792 x}x a}a -0.1945
-1.3959 x}x c}k -0.0744
-2.9128 x}x c}s 0.0000
-1.5124 x}x c}z -1.0248
-2.9128 x}x d}d 0.0000
-1.5849 x}x e}e -0.2397
-2.5048 x}x h|a}a -0.4930
-2.9128 x}x h|e}e 0.0000
-1.7812 x}x h|i}i -0.3658
-2.0304 x}x h|o}o -0.3885
-0.6177 x}x i}i -0.6966
-2.9128 x}x j}j 0.0000
-2.5048 x}x m}m 0.0000
-1.5849 x}x o}o 0.1635
-0.5694 x}x p}p -2.6901
-2.9128 x}x q|u}k 0.0000
-2.5048 x}x s}s 0.0000
-0.7287 x}x t}t -0.7613
-2.2420 x}x u}u -2.4449
-2.9128 x}x v}b 0.0000
-2.9128 x}x y}i 0.0000
-2.5048 x}x á}a 0.0000
-2.9128 x}x í}i 0.0000
-2.9128 x}x ó}o| 0.0000
-0.2178 x}x| </s> 0.0000
-0.1217 y}i </s> 0.0000
-1.7684 y}i a}a -0.1921
-2.5320 y}i b}b 0.0000
-2.1240 y}i d}d 0.0000
-2.1240 y}i f}f 0.0000
-1.5465 y}i l}l -0.1298
-2.1240 y}i m}m -0.3930
-1.2041 y}i n}n -0.0779
-2.5320 y}i p}p 0.0000
-1.5465 y}i r}r -0.0462
-1.5465 y}i s}s 0.0813
-2.5320 y}i t}t 0.0000
-2.5320 y}i u}u 0.0000
-2.1240 y}i v}b 0.0000
-2.5320 y}i w}u 0.0000
-2.5320 y}i z}z 0.0000
-0.2865 y}i| </s> 0.0000
-0.5092 y}y a}a -0.3866
-0.5224 y}y e}e -0.6740
-2.1249 y}y i}i 0.0000
-0.7533 y}y o}o -0.1016
-0.8860 y}y u}u -0.6096
-2.0321 y}y á}a 0.0000
-2.7957 y}y á}a| 0.0000
-1.2304 y}y ó}o| 1.5224
-0.2865 z|_}e l}l 0.0000
-0.2865 z|h}z n}n 0.0000
-0.2865 z|z}s </s> 0.0000
-1.0826 z}s </s> 0.0000
-0.3010 z}s a}a -0.1872
-1.0826 z}s c}k -0.3271
-1.4906 z}s e}e 0.0000
-1.0826 z}s o}o 0.0000
-1.4906 z}s á}a 0.0000
-0.1249 z}s| </s> 0.0000
-0.2865 z}t z}s 0.0000
-1.1625 z}z </s> 0.0000
-0.2061 z}z a}a -0.9997
-2.5114 z}z a}a| 2.3285
-2.5114 z}z b}b -0.1267
-1.3551 z}z c}k -0.6374
-1.8125 z}z e}e -0.2063
-1.9886 z}z g}g -0.7213
-3.2751 z}z h|a}a 0.0000
-2.3926 z}z h|e}e -0.1179
-3.2751 z}z h|i}i 0.0000
-3.2751 z}z h|u}u 0.0000
-1.8125 z}z i}i -0.2924
-2.8670 z}z k}k 0.0000
-2.5114 z}z l}l -0.1641
-2.3926 z}z m}m -0.1340
-2.3926 z}z n}n -0.4013
-0.9973 z}z o}o -0.5203
-2.0855 z}z q|u}k 0.5424
-3.2751 z}z r}r 0.0000
-3.2751 z}z s}s 0.0000
-2.5114 z}z t}t -0.1556
-1.6663 z}z u}u -0.6169
-3.2751 z}z y}i 0.0000
-2.1435 z}z á}a -0.0584
-2.8670 z}z á}a| 1.9654
-3.2751 z}z í}i| 0.0000
-2.0343 z}z ó}o 0.1463
-1.4972 z}z ó}o| 1.3183
-3.2751 z}z ú}u 0.0000
-2.8670 z}z ú}u| 0.5837
-0.0098 z}z| </s> 0.0000
-1.2407 Á}a b}b 0.0000
-1.2407 Á}a f}f 0.0000
-0.8327 Á}a l}l -0.4883
-0.5699 Á}a n}n -0.3084
-1.2407 Á}a v}b 0.0000
-1.1896 É}e l}l| 0.0000
-0.0580 É}e s}s -0.3021
-0.1795 Í}i n}n 0.0000
-0.2865 Ó}o s}s 0.0000
-0.3556 Ú}u l}l -0.4799
-0.7636 Ú}u n}n 0.0000
-1.6245 á}a b}b -1.1815
-1.5276 á}a c}k -0.5172
-3.1152 á}a c}k| 0.0000
-1.8744 á}a c}z 0.3157
-2.4444 á}a d}d -2.4102
-2.3515 á}a e}e -0.4954
-1.5276 á}a f}f -0.8476
-3.1152 á}a g|u}g 0.0000
-2.7071 á}a g}g 0.0000
-1.8287 á}a g}j -0.6637
-2.7071 á}a h|u}u -0.4270
-2.7071 á}a i}i 0.0000
-2.3515 á}a j}j -0.3197
-1.3815 á}a l}l -0.4196
-3.1152 á}a l}l| 0.0000
-1.3815 á}a m}m -0.3950
-3.1152 á}a m}m| 0.0000
-0.7214 á}a n}n -0.9781
-0.4843 á}a n}n| 0.6962
-1.9256 á}a p}p -0.4452
-2.7071 á}a q|u}k -0.2360
-2.4444 á}a r|r}rr -2.3725
-1.2159 á}a r}r -0.3411
-1.4307 á}a s}s -1.1186
-1.5982 á}a s}s| 1.5785
-1.0883 á}a t}t -1.0539
-2.1297 á}a u}u -0.4079
-2.2327 á}a v}b -0.1321
-2.4444 á}a x}x -2.3579
-3.1152 á}a y}y 0.0000
-2.3515 á}a z}z -0.2589
-3.1152 á}a z}z| 0.0000
-2.7071 á}a ñ}gn -0.4608
-0.0015 á}a| </s> 0.0000
-2.3957 é}e </s> 0.0000
-2.3957 é}e a}a -0.4359
-2.8037 é}e a}a| 0.0000
-2.1329 é}e b}b -0.1193
-1.4033 é}e c}k -0.3482
-2.0401 é}e c}z 0.0595
-1.5172 é}e d}d -0.5923
-1.9213 é}e f}f -0.1330
-2.8037 é}e g}g 0.0000
-1.8182 é}e g}j -0.3648
-1.9213 é}e i}i -0.4738
-2.1329 é}e j}j -0.1319
-1.8182 é}e l|l}ll 0.1975
-1.3131 é}e l}l -0.3936
-2.3957 é}e l}l| 1.0608
-1.4380 é}e m}m -0.5202
-0.8451 é}e n}n -1.0238
-1.3131 é}e n}n| 1.8121
-2.8037 é}e o}o 0.0000
-1.5172 é}e p}p -0.3271
-2.0401 é}e r|r}rr -0.3691
-0.7613 é}e r}r -0.4207
-1.1950 é}e s}s -0.5031
-0.9731 é}e s}s| 1.2775
-1.0120 é}e t}t -0.6044
-2.3957 é}e u}u -0.4689
-2.8037 é}e u}u| 0.0000
-2.1329 é}e v}b -0.2018
-2.1329 é}e x}j 0.4299
-2.1329 é}e x}x -0.1907
-0.0067 é}e| </s> 0.0000
-0.2865 ë}e n}n 0.0000
-3.2388 í}i </s> 0.0000
-0.6736 í}i a}a -1.2196
-0.4418 í}i a}a| 0.3129
-2.3564 í}i b}b -0.7469
-3.2388 í}i c|h}ch 0.0000
-1.6970 í}i c}k -0.4070
-1.9523 í}i c}z -0.4442
-1.4609 í}i d}d -0.0268
-3.2388 í}i d}d| 0.0000
-2.5680 í}i e}e -2.4759
-2.5680 í}i e}e| -0.1789
-1.5721 í}i f}f -1.1236
-3.2388 í}i g|u}g 0.0000
-2.8308 í}i g}g -0.3948
-2.0492 í}i g}j 0.5522
-2.1072 í}i l}l -0.1970
-1.5906 í}i m}m -0.3706
-1.3395 í}i n}n -0.1731
-1.3502 í}i n}n| 1.4298
-1.9981 í}i o}o -1.1331
-1.6513 í}i o}o| 1.2958
-2.1072 í}i p}p -0.2468
-2.4752 í}i q|u}k -0.0031
-1.9981 í}i r}r -0.4663
-3.2388 í}i r}r| 0.0000
-1.1530 í}i s}s -1.1118
-2.2533 í}i s}s| 2.1326
-1.4609 í}i t}t -0.5984
-2.1072 í}i v}b -0.3749
-3.2388 í}i z}z 0.0000
-2.5680 í}i z}z| -0.8245
-0.0090 í}i| </s> 0.0000
-0.4126 ñ}gn a}a -0.8695
-0.8047 ñ}gn a}a| 1.1620
-1.1155 ñ}gn e}e -0.6139
-2.7444 ñ}gn e}e| 0.0000
-1.5036 ñ}gn i}i -0.2722
-0.8346 ñ}gn o}o -0.5331
-0.8558 ñ}gn o}o| 1.0053
-2.7444 ñ}gn u}u 0.0000
-2.3364 ñ}gn á}a -0.4040
-2.7444 ñ}gn é}e 0.0000
-1.9808 ñ}gn í}i 0.0000
-2.0736 ñ}gn ó}o -1.9288
-1.7589 ñ}gn ó}o| 2.1223
-2.7444 ñ}gn ú}u 0.0000
-0.2865 ñ}gn| </s> 0.0000
-2.2732 ó}o </s> 0.0000
-2.8507 ó}o b}b -0.3597
-2.0691 ó}o c}k -0.3516
-2.4951 ó}o c}z -0.3749
-2.0691 ó}o d}d -0.3997
-2.2732 ó}o f}f -0.1011
-2.0180 ó}o g}g -0.8994
-1.4951 ó}o g}j -0.3272
-3.2587 ó}o j}j 0.0000
-1.4407 ó}o l}l -0.2815
-1.4671 ó}o m}m 0.1278
-1.3594 ó}o n}n -0.5332
-0.1442 ó}o n}n| 0.2139
-1.9308 ó}o p}p -0.5233
-3.2587 ó}o q|u}k 0.0000
-2.8507 ó}o r|r}rr -0.3945
-1.5743 ó}o r}r -0.8197
-1.7418 ó}o s}s -0.5857
-2.8507 ó}o s}s| 2.3383
-1.8261 ó}o t}t -0.3491
-2.1271 ó}o v}b -0.2677
-2.1271 ó}o x}x -0.7833
-3.2587 ó}o y}y 0.0000
-0.0007 ó}o| </s> 0.0000
-1.9540 ú}u </s> 0.0000
-1.0342 ú}u a}a -1.2293
-1.0342 ú}u a}a| 1.7456
-1.0342 ú}u b}b -0.5356
-1.9540 ú}u c|h}ch -0.4067
-1.9540 ú}u c}k 0.0000
-2.3621 ú}u d}d| 0.0000
-1.9540 ú}u e}e -0.4953
-1.5984 ú}u e}e| 1.8026
-2.3621 ú}u f}f 0.0000
-1.9540 ú}u g}j -0.1591
-2.3621 ú}u l|l}ll 0.0000
-1.1213 ú}u l}l -0.9386
-1.5984 ú}u l}l| 1.0600
-1.5984 ú}u m}m -0.3990
-0.8451 ú}u n}n -0.2976
-1.1725 ú}u n}n| 2.0883
-2.3621 ú}u o}o| 0.0000
-1.5984 ú}u p}p -0.2368
-1.1725 ú}u r}r -0.2990
-1.2304 ú}u s}s -0.1849
-1.9540 ú}u s}s| 2.3383
-1.4796 ú}u t}t -0.3977
-2.3621 ú}u z}z| 0.0000
-1.9540 ú}u ñ}gn -0.4608
-0.0378 ú}u| </s> 0.0000
-0.0792 ü}u e}e -0.0079
-1.3657 ü}u e}e| 0.0000
-1.3657 ü}u i}i 0.0000

\3-grams:
-0.8204 <s> _|a}a _|k}k
-0.1668 <s> _|b}b _}e
-0.1672 <s> _|c}k _|o}o
-0.0322 <s> _|c}z _}e
-0.0964 <s> _|d}d _}e
-0.6443 <s> _|e}e _|t}t
-0.1672 <s> _|g}j _}e
-0.4679 <s> _|o}o _}e
-0.0458 <s> _|p}p _}e
-0.1668 <s> _|t}t _}e
-0.3433 <s> _|u}u _}e
-0.1668 <s> _|v}b _}e
-1.0966 <s> _}e f}f
-0.6298 <s> _}e m}m
-0.9202 <s> _}e n}n
-0.6298 <s> _}e r}r
-0.9202 <s> _}e s}s
-1.2698 <s> a}a b}b
-1.0446 <s> a}a c}k
-1.7149 <s> a}a c}z
-1.1748 <s> a}a d}d
-2.1829 <s> a}a e}e
-1.5358 <s> a}a f}f
-2.7844 <s> a}a g|u}g
-1.3742 <s> a}a g}g
-2.4328 <s> a}a g}j
-2.1829 <s> a}a h|o}o
-2.2109 <s> a}a i}i
-2.2731 <s> a}a j}j
-3.2532 <s> a}a k}k
-2.7215 <s> a}a l|l}ll
-0.9754 <s> a}a l}l
-1.2936 <s> a}a m}m
-0.9805 <s> a}a n}n
-1.0587 <s> a}a p}p
-2.2731 <s> a}a q|u}k
-1.5675 <s> a}a r|r}rr
-1.2168 <s> a}a r}r
-2.7864 <s> a}a s|c}z
-1.2052 <s> a}a s}s
-1.3007 <s> a}a t}t
-1.3115 <s> a}a u}u
-1.6162 <s> a}a v}b
-3.2532 <s> a}a y}i
-1.9399 <s> a}a y}y
-2.0068 <s> a}a z}z
-2.7864 <s> a}a é}e
-2.2109 <s> a}a ñ}gn
-3.0767 <s> a}a ú}u
-0.4989 <s> b}b a}a
-0.8626 <s> b}b e}e
-1.2110 <s> b}b i}i
-1.3250 <s> b}b l}l
-0.7851 <s> b}b o}o
-0.9270 <s> b}b r}r
-0.9045 <s> b}b u}u
-1.8021 <s> b}b á}a
-2.4918 <s> b}b é}e
-2.4918 <s> b}b ú}u
-0.6021 <s> c|h}ch a}a
-0.7547 <s> c|h}ch e}e
-0.5149 <s> c|h}ch i}i
-0.8293 <s> c|h}ch o}o
-1.7231 <s> c|h}ch r}r
-1.1303 <s> c|h}ch u}u
-0.5956 <s> c}k a}a
-1.5920 <s> c}k l}l
-0.2509 <s> c}k o}o
-1.2250 <s> c}k r}r
-1.0677 <s> c}k u}u
-3.2435 <s> c}k y}i
-2.1469 <s> c}k á}a
-2.3359 <s> c}k ó}o
-3.0670 <s> c}k ú}u
-0.3010 <s> c}z e}e
-0.3759 <s> c}z i}i
-1.4440 <s> c}z é}e
-1.4027 <s> c}z í}i
-1.3328 <s> d}d a}a
-0.2335 <s> d}d e}e
-0.6068 <s> d}d i}i
-1.1921 <s> d}d o}o
-2.0952 <s> d}d r}r
-1.4854 <s> d}d u}u
-2.5758 <s> d}d á}a
-2.1999 <s> d}d é}e
-2.6387 <s> d}d í}i
-2.9310 <s> d}d ó}o
-2.9250 <s> e}e a}a
-3.1014 <s> e}e b}b
-2.1939 <s> e}e c|h}ch
-1.8039 <s> e}e c}k
-1.6912 <s> e}e d}d
-1.7168 <s> e}e f}f
-2.6347 <s> e}e g}g
-2.6347 <s> e}e g}j
-3.1014 <s> e}e i}i
-1.6912 <s> e}e j}j
-2.6347 <s> e}e l|l}ll
-1.2441 <s> e}e l}l
-1.0680 <s> e}e m}m
-0.6300 <s> e}e n}n
-2.3902 <s> e}e p}p
-1.9131 <s> e}e q|u}k
-2.1213 <s> e}e r|r}rr
-1.9131 <s> e}e r}r
-3.1014 <s> e}e s|c}z
-0.5660 <s> e}e s}s
-2.1213 <s> e}e t}t
-2.1213 <s> e}e u}u
-1.5632 <s> e}e v}b
-0.7582 <s> e}e x}x
-2.9250 <s> e}e z}z
-0.7080 <s> f}f a}a
-1.0408 <s> f}f e}e
-0.7142 <s> f}f i}i
-1.2169 <s> f}f l}l
-0.8647 <s> f}f o}o
-0.8150 <s> f}f r}r
-0.8781 <s> f}f u}u
-1.9572 <s> f}f á}a
-2.1948 <s> f}f é}e
-2.0152 <s> f}f í}i
-2.7265 <s> f}f ó}o
-0.3358 <s> g|u}g e}e
-0.3358 <s> g|u}g i}i
-1.2811 <s> g|u}g í}i
-0.5134 <s> g}g a}a
-1.4448 <s> g}g l}l
-0.7326 <s> g}g o}o
-0.5810 <s> g}g r}r
-0.7136 <s> g}g u}u
-2.4249 <s> g}g ó}o
-0.1938 <s> g}j e}e
-0.4815 <s> g}j i}i
-1.6897 <s> g}j é}e
-0.4305 <s> h|a}a b}b
-0.8212 <s> h|a}a c}z
-1.8911 <s> h|a}a d}d
-1.6008 <s> h|a}a g}g
-1.8911 <s> h|a}a i}i
-2.0676 <s> h|a}a k}k
-1.0553 <s> h|a}a l|l}ll
-1.8911 <s> h|a}a l}l
-1.3563 <s> h|a}a m}m
-1.2983 <s> h|a}a n}n
-1.1600 <s> h|a}a r}r
-1.2983 <s> h|a}a s}s
-2.0676 <s> h|a}a v}b
-1.8911 <s> h|a}a y}y
-1.8911 <s> h|a}a z}z
-1.5348 <s> h|e}e b}b
-1.1796 <s> h|e}e c|h}ch
-0.8037 <s> h|e}e l}l
-1.2445 <s> h|e}e m}m
-1.5348 <s> h|e}e n}n
-1.2445 <s> h|e}e r|r}rr
-0.3537 <s> h|e}e r}r
-1.2235 <s> h|i}i c}z
-0.9230 <s> h|i}i d}d
-1.5158 <s> h|i}i e}e
-1.6922 <s> h|i}i g}j
-1.5158 <s> h|i}i j}j
-1.5158 <s> h|i}i l}l
-1.2255 <s> h|i}i n}n
-0.8718 <s> h|i}i p}p
-1.1606 <s> h|i}i r}r
-0.5956 <s> h|i}i s}s
-1.5158 <s> h|i}i t}t
-1.8393 <s> h|o}o f}f
-1.6628 <s> h|o}o g}g
-1.8393 <s> h|o}o j}j
-1.0189 <s> h|o}o l}l
-0.7690 <s> h|o}o m}m
-0.6307 <s> h|o}o n}n
-0.8592 <s> h|o}o r}r
-0.7427 <s> h|o}o s}s
-1.2506 <s> h|u}u a}a
-1.1857 <s> h|u}u b}b
-0.7373 <s> h|u}u e}e
-1.7174 <s> h|u}u g}g
-0.5502 <s> h|u}u m}m
-0.8970 <s> h|u}u n}n
-1.2506 <s> h|u}u r}r
-1.5410 <s> h|u}u s}s
-1.7174 <s> h|u}u t}t
-1.2506 <s> h|u}u y}y
-1.7174 <s> h|u}u í}i
-0.3433 <s> h|á}a b}b
-0.3433 <s> h|é}e r}r
-2.0253 <s> i}i b}b
-1.5896 <s> i}i d}d
-1.9528 <s> i}i g}g
-2.9329 <s> i}i l|l}ll
-1.7243 <s> i}i l}l
-0.9083 <s> i}i m}m
-0.1352 <s> i}i n}n
-2.9329 <s> i}i o}o
-1.9528 <s> i}i r|r}rr
-1.6353 <s> i}i r}r
-1.7050 <s> i}i s}s
-2.4012 <s> i}i t}t
-2.9329 <s> i}i u}u
-2.7564 <s> i}i v}b
-2.2216 <s> i}i z}z
-0.7606 <s> j}j a}a
-0.8523 <s> j}j e}e
-1.3424 <s> j}j i}i
-2.0735 <s> j}j o|h}o
-0.8397 <s> j}j o}o
-0.3346 <s> j}j u}u
-0.1672 <s> k|h}k m}m
-0.4949 <s> k}k a}a
-0.8751 <s> k}k e}e
-0.6990 <s> k}k i}i
-1.7412 <s> k}k l}l
-1.0300 <s> k}k o}o
-1.5648 <s> k}k r}r
-0.9720 <s> k}k u}u
-1.7412 <s> k}k w}u
-0.5141 <s> l|l}ll a}a
-0.2204 <s> l|l}ll e}e
-1.3906 <s> l|l}ll o}o
-1.3886 <s> l|l}ll u}u
-0.6664 <s> l}l a}a
-0.6347 <s> l}l e}e
-0.5630 <s> l}l i}i
-0.8611 <s> l}l o}o
-1.0016 <s> l}l u}u
-2.6081 <s> l}l y}i
-2.0764 <s> l}l á}a
-1.7005 <s> l}l í}i
-2.6081 <s> l}l ó}o
-0.4338 <s> m}m a}a
-2.0899 <s> m}m c}k
-0.7677 <s> m}m e}e
-0.8672 <s> m}m i}i
-0.7495 <s> m}m o}o
-1.0292 <s> m}m u}u
-1.9438 <s> m}m á}a
-1.9760 <s> m}m é}e
-2.0485 <s> m}m í}i
-2.4244 <s> m}m ó}o
-2.4873 <s> m}m ú}u
-0.6532 <s> n}n a}a
-2.4736 <s> n}n b}b
-0.5740 <s> n}n e}e
-2.4736 <s> n}n g|u}g
-0.9640 <s> n}n i}i
-0.5506 <s> n}n o}o
-1.0512 <s> n}n u}u
-2.4736 <s> n}n á}a
-2.0068 <s> n}n ú}u
-2.4107 <s> o}o a}a
-0.7342 <s> o}o b}b
-2.1184 <s> o}o c|h}ch
-0.9148 <s> o}o c}k
-2.0555 <s> o}o c}z
-2.0555 <s> o}o d}d
-2.5872 <s> o}o e}e
-0.9806 <s> o}o f}f
-2.5872 <s> o}o i}i
-2.1184 <s> o}o j}j
-2.4107 <s> o}o k}k
-1.1769 <s> o}o l}l
-2.1184 <s> o}o m}m
-1.8759 <s> o}o n}n
-0.9081 <s> o}o p}p
-0.7387 <s> o}o r}r
-1.2896 <s> o}o s}s
-1.3786 <s> o}o t}t
-2.4107 <s> o}o v}b
-2.5872 <s> o}o x}x
-1.8759 <s> o}o y}y
-2.4107 <s> o}o í}i
-0.7372 <s> p}p a}a
-0.7473 <s> p}p e}e
-3.0191 <s> p}p h|i}i
-1.3124 <s> p}p i}i
-1.3000 <s> p}p l}l
-0.9811 <s> p}p o}o
-0.4351 <s> p}p r}r
-2.4263 <s> p}p s}s
-1.3656 <s> p}p u}u
-3.1956 <s> p}p y}y
-2.2880 <s> p}p á}a
-2.3752 <s> p}p é}e
-2.7288 <s> p}p í}i
-3.0191 <s> p}p ó}o
-2.3752 <s> p}p ú}u
-0.3433 <s> q|a}a t}t
-0.3522 <s> q|u}k e}e
-0.3174 <s> q|u}k i}i
-1.9965 <s> q|u}k é}e
-1.5277 <s> q|u}k í}i
-1.1008 <s> r}rr a}a
-0.1298 <s> r}rr e}e
-1.3813 <s> r}rr i}i
-1.0389 <s> r}rr o}o
-1.4308 <s> r}rr u}u
-2.8839 <s> r}rr y}i
-2.5936 <s> r}rr á}a
-2.8839 <s> r}rr é}e
-2.8839 <s> r}rr í}i
-0.7368 <s> s}s a}a
-2.2586 <s> s}s c|h}ch
-2.5611 <s> s}s c}k
-0.6875 <s> s}s e}e
-2.2586 <s> s}s h|a}a
-2.5611 <s> s}s h|e}e
-2.8514 <s> s}s h|i}i
-2.5611 <s> s}s h|o}o
-0.9261 <s> s}s i}i
-3.0278 <s> s}s l}l
-2.8514 <s> s}s m}m
-0.7869 <s> s}s o}o
-2.1203 <s> s}s p}p
-1.7303 <s> s}s t}t
-0.5970 <s> s}s u}u
-2.8514 <s> s}s w}u
-2.5591 <s> s}s á}a
-2.8514 <s> s}s é}e
-2.2586 <s> s}s í}i
-2.2074 <s> s}s ó}o
-2.5611 <s> s}s ú}u
-0.8993 <s> t}t a}a
-0.5982 <s> t}t e}e
-2.6459 <s> t}t h|e}e
-1.1301 <s> t}t i}i
-2.3536 <s> t}t l}l
-0.9108 <s> t}t o}o
-0.4983 <s> t}t r}r
-2.8223 <s> t}t s}s
-1.2238 <s> t}t u}u
-2.3536 <s> t}t á}a
-1.8770 <s> t}t é}e
-2.2907 <s> t}t í}i
-2.6459 <s> t}t ó}o
-2.8223 <s> t}t ú}u
-1.0280 <s> u}u b}b
-2.0703 <s> u}u c}k
-1.2041 <s> u}u l}l
-0.4881 <s> u}u n}n
-2.0703 <s> u}u r|r}rr
-0.9254 <s> u}u r}r
-0.7270 <s> u}u s}s
-0.8617 <s> u}u t}t
-2.0703 <s> u}u z}z
-0.8483 <s> v}b a}a
-0.4689 <s> v}b e}e
-0.4468 <s> v}b i}i
-2.5203 <s> v}b l}l
-1.0110 <s> v}b o}o
-1.6265 <s> v}b u}u
-1.9855 <s> v}b á}a
-1.8306 <s> v}b í}i
-2.2300 <s> v}b ó}o
-0.4960 <s> w}u a}a
-0.5929 <s> w}u e}e
-1.3618 <s> w}u h|i}i
-0.5929 <s> w}u i}i
-1.3618 <s> w}u o}o
-0.6443 <s> x}x e}e
-0.6443 <s> x}x i}i
-0.3433 <s> y}i v}b
-0.4559 <s> y}y a}a
-0.7570 <s> y}y e}e
-1.4682 <s> y}y i}i
-0.6478 <s> y}y o}o
-0.7570 <s> y}y u}u
-0.3802 <s> z}z a}a
-1.0786 <s> z}z e}e
-1.0806 <s> z}z h|e}e
-1.3709 <s> z}z i}i
-0.8361 <s> z}z o}o
-1.0786 <s> z}z u}u
-0.8204 <s> Á}a l}l
-0.3536 <s> Á}a n}n
-0.0580 <s> É}e s}s
-0.1672 <s> Í}i n}n
-0.3433 <s> Ú}u l}l
-1.0966 <s> á}a m}m
-0.5649 <s> á}a n}n
-0.3854 <s> á}a r}r
-1.2811 <s> é}e b}b
-1.2811 <s> é}e l}l
-1.2811 <s> é}e p}p
-0.7495 <s> é}e s}s
-0.5119 <s> é}e t}t
-1.1047 <s> é}e x}x
-0.0580 <s> í}i n}n
-0.5928 <s> ó}o p}p
-0.5928 <s> ó}o r}r
-0.5435 <s> ú}u l}l
-0.4806 <s> ú}u n}n
-0.8358 <s> ú}u t}t
-0.1672 _|a}a _|k}k _}a
-0.5651 _|b}b _}e _}e
-0.5435 _|c}z _}e _}e
-1.0123 _|c}z _}e d}d
-0.5348 _|d}d _}e _}e
-0.3433 _|k}k _}a </s>
-0.3433 _|o}o _}e m}m
-0.7689 _|p}p _}e </s>
-0.9454 _|p}p _}e _}e
-0.9454 _|p}p _}e d}d
-0.9454 _|p}p _}e p}p
-0.5651 _|t}t _}e _}e
-0.3433 _|v}b _}e i}i
-0.1668 _}a h}ch|e </s>
-0.1672 _}b|l _}e w}u
-1.3977 _}e _}e f}f
-1.2212 _}e _}e l}l
-0.8660 _}e _}e m}m
-0.5315 _}e _}e n}n
-0.6864 _}e _}e r}r
-0.8660 _}e _}e s}s
-0.1672 _}e _}j|o j}t|a
-0.0964 _}e a}a </s>
-0.0964 _}e b}b _}e
-0.0458 _}e c}z _}e
-0.1126 _}e d}d _}e
-0.1672 _}e e}e </s>
-0.0014 _}e f}f _}e
-0.0014 _}e g}j _}e
-0.1668 _}e h}a|ch _}e
-0.3005 _}e i}i </s>
-0.0014 _}e l}l _}e
-0.0322 _}e m}m _}e
-0.0280 _}e n}n _}e
-0.1126 _}e p}p _}e
-0.0348 _}e r}r _}e
-0.0414 _}e s}s _}e
-0.0580 _}e t}t _}e
-0.1672 _}e v}b _}e
-0.1668 _}j|o j}t|a </s>
-0.8204 a}a a}a t}t
-0.8204 a}a a}a v}b
-2.7325 a}a b}b </s>
-0.3877 a}a b}b a}a
-2.5560 a}a b}b a}a|
-2.7325 a}a b}b b}b
-2.0212 a}a b}b d}d
-1.2228 a}a b}b e}e
-1.1339 a}a b}b i}i
-0.6788 a}a b}b l}l
-1.0810 a}a b}b o}o
-1.1673 a}a b}b r}r
-1.5653 a}a b}b s}s
-1.5653 a}a b}b u}u
-2.2657 a}a b}b í}i
-2.5560 a}a b}b ó}o
-2.7325 a}a b}b ó}o|
-1.4225 a}a c|h}ch </s>
-0.4102 a}a c|h}ch a}a
-1.4225 a}a c|h}ch e}e
-0.9557 a}a c|h}ch i}i
-0.6021 a}a c|h}ch o}o
-1.2460 a}a c|h}ch u}u
-1.7692 a}a c}k </s>
-0.6407 a}a c}k a}a
-1.1107 a}a c}k c}z
-2.1208 a}a c}k k}k
-1.4682 a}a c}k l}l
-0.7790 a}a c}k o}o
-2.4132 a}a c}k o}o|
-1.2463 a}a c}k r}r
-0.6516 a}a c}k t}t
-0.8096 a}a c}k u}u
-2.1208 a}a c}k á}a
-2.4132 a}a c}k ó}o|
-2.5896 a}a c}k ú}u
-0.9310 a}a c}z e}e
-0.0654 a}a c}z i}i
-2.1845 a}a c}z é}e
-1.8958 a}a c}z í}i
-1.1484 a}a d}d </s>
-0.5674 a}a d}d a}a
-2.7616 a}a d}d a}a|
-3.2933 a}a d}d d}d
-1.2718 a}a d}d e}e
-2.8266 a}a d}d h|e}e
-1.4827 a}a d}d i}i
-2.5821 a}a d}d j}j
-1.9500 a}a d}d m}m
-0.2994 a}a d}d o}o
-2.3132 a}a d}d o}o|
-2.5241 a}a d}d q|u}k
-1.8831 a}a d}d r}r
-2.8266 a}a d}d s}s
-1.8709 a}a d}d u}u
-2.2230 a}a d}d v}b
-2.8266 a}a d}d á}a
-3.1169 a}a d}d é}e
-2.7616 a}a d}d í}i
-3.2933 a}a d}d ó}o
-3.1169 a}a d}d ó}o|
-1.5092 a}a e}e </s>
-1.6857 a}a e}e d}d
-0.6435 a}a e}e l}l
-1.5092 a}a e}e n}n
-0.3882 a}a e}e r}r
-0.9165 a}a e}e s}s
-1.6857 a}a e}e v}b
-1.5092 a}a e}e z}z
-2.0480 a}a f}f </s>
-1.1027 a}a f}f a}a
-0.8808 a}a f}f e}e
-1.8715 a}a f}f f}f
-1.8715 a}a f}f g}g
-0.5384 a}a f}f i}i
-1.8715 a}a f}f l}l
-1.0058 a}a f}f o}o
-1.3367 a}a f}f o}o|
-0.9031 a}a f}f r}r
-1.8715 a}a f}f u}u
-2.0480 a}a f}f á}a
-1.0679 a}a f}f í}i
-0.5113 a}a g|u}g e}e
-0.4484 a}a g|u}g i}i
-0.9801 a}a g|u}g é}e|
-2.1243 a}a g}g </s>
-0.6564 a}a g}g a}a
-2.3007 a}a g}g a}a|
-2.3007 a}a g}g d}d
-2.1243 a}a g}g m}m
-1.3554 a}a g}g n}n
-0.6864 a}a g}g o}o
-1.8320 a}a g}g o}o|
-0.5653 a}a g}g r}r
-0.9031 a}a g}g u}u
-1.7691 a}a g}g ó}o
-2.1243 a}a g}g ó}o|
-1.5895 a}a g}g ü}u
-0.4847 a}a g}j e}e
-0.2071 a}a g}j i}i
-1.6296 a}a g}j é}e
-0.3994 a}a h|a}a m}m
-0.6897 a}a h|a}a r}r
-0.5651 a}a h|e}e i}i
-0.5651 a}a h|e}e r}r
-0.3433 a}a h|i}i m}m
-0.6984 a}a h|o}o g}g
-1.1672 a}a h|o}o n}n
-0.6355 a}a h|o}o r|r}rr
-0.6984 a}a h|o}o r}r
-0.3516 a}a h|u}u a}a
-0.8204 a}a h|u}u i}i
-1.0501 a}a i}i </s>
-1.6940 a}a i}i b}b
-1.6940 a}a i}i c}k
-1.3388 a}a i}i c}z
-1.1012 a}a i}i d}d
-1.4017 a}a i}i g}g
-0.8582 a}a i}i l}l
-1.4037 a}a i}i m}m
-0.9629 a}a i}i n}n
-0.9251 a}a i}i r}r
-0.8282 a}a i}i s}s
-1.6940 a}a i}i t}t
-1.8705 a}a i}i w}u
-0.4466 a}a j}j a}a
-0.3979 a}a j}j e}e
-1.6149 a}a j}j i}i
-1.0134 a}a j}j o}o
-1.1761 a}a j}j u}u
-1.9072 a}a j}j ó}o|
-1.3433 a}a k}k </s>
-0.3979 a}a k}k a}a
-1.3433 a}a k}k e}e
-0.5740 a}a k}k i}i
-1.3433 a}a k}k o}o
-0.4049 a}a l|l}ll a}a
-0.4680 a}a l|l}ll e}e
-1.3076 a}a l|l}ll i}i
-1.0189 a}a l|l}ll o}o
-1.8393 a}a l|l}ll ó}o|
-0.7976 a}a l}l </s>
-1.1020 a}a l}l a}a
-2.9056 a}a l}l a}a|
-1.8735 a}a l}l b}b
-1.5627 a}a l}l c}k
-2.6153 a}a l}l c}z
-1.4450 a}a l}l d}d
-0.7027 a}a l}l e}e
-3.0821 a}a l}l e}e|
-2.2159 a}a l}l f}f
-2.0118 a}a l}l g}g
-0.6442 a}a l}l i}i
-3.0821 a}a l}l k}k
-1.2428 a}a l}l m}m
-1.4235 a}a l}l o}o
-2.3128 a}a l}l o}o|
-2.2617 a}a l}l p}p
-2.6133 a}a l}l q|u}k
-3.0821 a}a l}l r}r
-1.9855 a}a l}l s}s
-1.3586 a}a l}l t}t
-1.5257 a}a l}l u}u
-1.7687 a}a l}l v}b
-2.3128 a}a l}l z}z
-2.9056 a}a l}l á}a
-2.6153 a}a l}l á}a|
-2.5504 a}a l}l é}e
-2.3708 a}a l}l í}i
-2.9056 a}a l}l ó}o
-3.0821 a}a l}l ó}o|
-0.1672 a}a l}l| </s>
-1.8137 a}a m}m </s>
-0.8625 a}a m}m a}a
-1.1790 a}a m}m b}b
-0.5251 a}a m}m e}e
-2.4173 a}a m}m e}e|
-0.7748 a}a m}m i}i
-2.4173 a}a m}m n}n
-0.7234 a}a m}m o}o
-2.8840 a}a m}m o}o|
-1.1148 a}a m}m p}p
-2.7076 a}a m}m s}s
-2.4173 a}a m}m u}u
-2.1728 a}a m}m á}a
-2.8840 a}a m}m á}a|
-1.9765 a}a m}m é}e
-2.7076 a}a m}m í}i
-2.3524 a}a m}m ó}o|
-0.6367 a}a n}n </s>
-1.0909 a}a n}n a}a
-2.1489 a}a n}n c|h}ch
-1.8084 a}a n}n c}k
-1.4258 a}a n}n c}z
-0.7551 a}a n}n d}d
-1.5121 a}a n}n e}e
-2.8056 a}a n}n f}f
-3.3373 a}a n}n g|u}g
-1.7551 a}a n}n g}g
-2.3572 a}a n}n g}j
-3.3373 a}a n}n h|e}e
-1.3128 a}a n}n i}i
-2.3572 a}a n}n j}j
-2.6260 a}a n}n k}k
-2.8685 a}a n}n l}l
-2.8705 a}a n}n m}m
-2.3250 a}a n}n n}n
-1.1767 a}a n}n o}o
-2.5681 a}a n}n o}o|
-2.0909 a}a n}n q|u}k
-1.4337 a}a n}n s}s
-0.7899 a}a n}n t}t
-1.7990 a}a n}n u}u
-3.3373 a}a n}n y}y
-1.5521 a}a n}n z}z
-2.8056 a}a n}n á}a
-3.1608 a}a n}n é}e
-2.3250 a}a n}n í}i
-2.8685 a}a n}n í}i|
-3.3373 a}a n}n ó}o
-0.0034 a}a n}n| </s>
-0.4559 a}a o}o </s>
-1.1672 a}a o}o l}l
-0.7004 a}a o}o r}r
-2.2841 a}a p}p </s>
-0.5413 a}a p}p a}a
-1.1173 a}a p}p e}e
-1.1965 a}a p}p i}i
-1.0629 a}a p}p l}l
-0.8310 a}a p}p o}o
-0.7431 a}a p}p r}r
-1.9918 a}a p}p s}s
-1.2520 a}a p}p t}t
-1.2520 a}a p}p u}u
-2.4606 a}a p}p í}i
-2.2841 a}a p}p ó}o
-0.2352 a}a q|u}k e}e
-0.5099 a}a q|u}k i}i
-1.6065 a}a q|u}k é}e
-1.6065 a}a q|u}k í}i
-1.6065 a}a q|u}k í}i|
-0.6307 a}a r|r}rr a}a
-0.6307 a}a r|r}rr e}e
-0.7060 a}a r|r}rr i}i
-0.5929 a}a r|r}rr o}o
-1.6735 a}a r|r}rr u}u
-1.9639 a}a r|r}rr y}i
-2.1403 a}a r|r}rr í}i
-0.6350 a}a r}r </s>
-1.0009 a}a r}r a}a
-2.7011 a}a r}r a}a|
-2.1482 a}a r}r b}b
-2.4000 a}a r}r c|h}ch
-1.8058 a}a r}r c}k
-1.9899 a}a r}r c}z
-1.5594 a}a r}r d}d
-1.2982 a}a r}r e}e
-3.2359 a}a r}r g|u}g
-1.7827 a}a r}r g}g
-2.2674 a}a r}r g}j
-0.9607 a}a r}r i}i
-2.9436 a}a r}r j}j
-2.9456 a}a r}r k}k
-1.2561 a}a r}r l}l
-1.7538 a}a r}r m}m
-1.8560 a}a r}r n}n
-0.9791 a}a r}r o}o
-2.9456 a}a r}r o}o|
-2.7011 a}a r}r p}p
-2.2451 a}a r}r q|u}k
-1.3007 a}a r}r s}s
-3.4123 a}a r}r t|h}t
-1.3157 a}a r}r t}t
-2.9456 a}a r}r u}u
-3.4123 a}a r}r x}x
-2.9436 a}a r}r y}i
-2.8807 a}a r}r z}z
-1.5594 a}a r}r á}a
-1.3056 a}a r}r á}a|
-2.9436 a}a r}r é}e|
-1.5250 a}a r}r í}i
-3.4123 a}a r}r ó}o
-2.8807 a}a r}r ó}o|
-0.0263 a}a r}r| </s>
-0.1775 a}a s|c}z e}e
-0.6443 a}a s|c}z i}i
-0.1474 a}a s}s </s>
-1.3084 a}a s}s a}a
-3.1569 a}a s}s c|h}ch
-2.0866 a}a s}s c}k
-2.3876 a}a s}s c}z
-3.1569 a}a s}s d}d
-1.3822 a}a s}s e}e
-2.9804 a}a s}s e}e|
-2.6901 a}a s}s f}f
-3.1569 a}a s}s g}g
-3.1569 a}a s}s h|i}i
-1.3769 a}a s}s i}i
-3.1569 a}a s}s k}k
-2.0866 a}a s}s l}l
-2.2907 a}a s}s m}m
-3.1569 a}a s}s n}n
-1.7109 a}a s}s o}o
-2.0603 a}a s}s p}p
-2.9804 a}a s}s q|u}k
-2.4456 a}a s}s s}s
-1.1938 a}a s}s t}t
-1.8928 a}a s}s u}u
-3.1569 a}a s}s á}a
-2.6901 a}a s}s í}i
-2.6252 a}a s}s ó}o|
-0.0020 a}a s}s| </s>
-0.1672 a}a s}z </s>
-1.7139 a}a t}t </s>
-0.6927 a}a t}t a}a
-2.3174 a}a t}t a}a|
-0.8573 a}a t}t e}e
-2.2525 a}a t}t e}e|
-0.6370 a}a t}t i}i
-1.7419 a}a t}t l}l
-2.3174 a}a t}t m}m
-0.8536 a}a t}t o}o
-0.9137 a}a t}t r}r
-2.3154 a}a t}t t}t
-1.2846 a}a t}t u}u
-2.2525 a}a t}t á}a
-2.0149 a}a t}t é}e
-2.0729 a}a t}t í}i
-1.8766 a}a t}t ó}o
-2.3154 a}a t}t ó}o|
-2.2710 a}a u}u </s>
-2.2710 a}a u}u c}k
-1.8042 a}a u}u c}z
-0.8863 a}a u}u d}d
-1.3634 a}a u}u g}g
-2.2710 a}a u}u j}j
-1.4048 a}a u}u l}l
-1.1261 a}a u}u m}m
-1.8022 a}a u}u n}n
-1.0069 a}a u}u r}r
-0.7059 a}a u}u s}s
-0.4806 a}a u}u t}t
-2.0945 a}a u}u x}x
-2.1946 a}a v}b </s>
-0.6208 a}a v}b a}a
-0.6124 a}a v}b e}e
-0.5725 a}a v}b i}i
-0.7373 a}a v}b o}o
-2.1946 a}a v}b á}a
-2.1946 a}a v}b é}e
-2.0181 a}a v}b í}i
-2.1946 a}a v}b ó}o|
-0.5348 a}a w}u a}a
-0.8938 a}a x}x </s>
-0.2041 a}a x}x i}i
-0.1672 a}a x}x| </s>
-0.1856 a}a y}i </s>
-1.2279 a}a y}i l}l
-1.2279 a}a y}i s}s
-0.5396 a}a y}y a}a
-1.0325 a}a y}y e}e
-0.5244 a}a y}y o}o
-0.5718 a}a y}y u}u
-1.8529 a}a y}y ó}o|
-0.3433 a}a z}s a}a
-1.0843 a}a z}z </s>
-0.4311 a}a z}z a}a
-2.0966 a}a z}z e}e
-1.9202 a}a z}z g}g
-1.2762 a}a z}z i}i
-0.5584 a}a z}z o}o
-1.2304 a}a z}z u}u
-1.5649 a}a z}z ó}o
-1.5649 a}a z}z ó}o|
-0.0984 a}a é}e r}r
-1.2464 a}a í}i a}a|
-0.3010 a}a í}i d}d
-1.2464 a}a í}i n}n
-1.2464 a}a í}i s}s
-1.2464 a}a í}i z}z|
-0.3752 a}a ñ}gn a}a
-0.7818 a}a ñ}gn a}a|
-1.0828 a}a ñ}gn e}e
-1.7725 a}a ñ}gn i}i
-0.8787 a}a ñ}gn o}o
-1.0414 a}a ñ}gn o}o|
-1.9490 a}a ñ}gn á}a
-1.9490 a}a ñ}gn í}i
-1.9490 a}a ñ}gn ó}o
-1.9490 a}a ñ}gn ó}o|
-0.7113 a}a ú}u l}l|
-0.5651 b}b _}e </s>
-0.7161 b}b a}a </s>
-1.8893 b}b a}a b}b
-2.7555 b}b a}a c|h}ch
-1.8893 b}b a}a c}k
-2.0442 b}b a}a c}z
-1.4122 b}b a}a d}d
-2.7555 b}b a}a g}g
-2.7555 b}b a}a h|a}a
-1.7754 b}b a}a i}i
-1.2458 b}b a}a j}j
-2.5790 b}b a}a k}k
-1.8893 b}b a}a l|l}ll
-1.2172 b}b a}a l}l
-1.7754 b}b a}a m}m
-0.6389 b}b a}a n}n
-2.5790 b}b a}a n}n|
-1.5469 b}b a}a r|r}rr
-0.9025 b}b a}a r}r
-1.1817 b}b a}a s}s
-1.1733 b}b a}a t}t
-2.2887 b}b a}a u}u
-2.5790 b}b a}a y}i
-2.5790 b}b a}a y}y
-2.2887 b}b a}a z}z
-1.9862 b}b a}a ñ}gn
-0.0014 b}b a}a| </s>
-0.4682 b}b b}b a}a
-0.3887 b}b c}k o}o
-0.1672 b}b c}z e}e
-0.8662 b}b d}d a}a
-0.6897 b}b d}d e}e
-0.8662 b}b d}d i}i
-0.8662 b}b d}d u}u
-1.1330 b}b e}e </s>
-2.3794 b}b e}e a}a
-1.9106 b}b e}e b}b
-2.3794 b}b e}e c}k
-1.5590 b}b e}e d}d
-1.8477 b}b e}e i}i
-1.4718 b}b e}e l|l}ll
-1.1330 b}b e}e l}l
-2.3794 b}b e}e m}m
-0.8797 b}b e}e n}n
-2.3794 b}b e}e r|r}rr
-0.3549 b}b e}e r}r
-1.4718 b}b e}e s}s
-1.3993 b}b e}e t}t
-1.2828 b}b e}e z}z
-1.9126 b}b e}e ñ}gn
-0.1672 b}b e}e| </s>
-1.9772 b}b i}i </s>
-1.0235 b}b i}i a}a
-2.4460 b}b i}i b}b
-1.4037 b}b i}i c}k
-1.6255 b}b i}i c}z
-1.1174 b}b i}i d}d
-0.8239 b}b i}i e}e
-1.9772 b}b i}i l|l}ll
-0.6933 b}b i}i l}l
-1.9772 b}b i}i m}m
-1.2374 b}b i}i n}n
-1.1648 b}b i}i o}o
-2.4460 b}b i}i q|u}k
-1.1818 b}b i}i r}r
-2.4460 b}b i}i s|c}z
-1.5798 b}b i}i s}s
-1.1174 b}b i}i t}t
-2.4460 b}b i}i á}a
-1.9792 b}b i}i é}e
-2.4460 b}b i}i ó}o
-1.5384 b}b i}i ó}o|
-0.0458 b}b j}j e}e
-0.7917 b}b l}l a}a
-0.2127 b}b l}l e}e
-2.4213 b}b l}l e}e|
-0.8475 b}b l}l i}i
-1.2329 b}b l}l o}o
-2.4213 b}b l}l u}u
-2.4213 b}b l}l ó}o|
-0.0984 b}b m}m a}a
-1.0115 b}b o}o </s>
-1.8259 b}b o}o b}b
-2.2927 b}b o}o c|h}ch
-1.5814 b}b o}o c}k
-1.8259 b}b o}o d}d
-1.7610 b}b o}o g}g
-2.1162 b}b o}o i}i
-0.8354 b}b o}o l}l
-2.1162 b}b o}o l}l|
-1.3126 b}b o}o m}m
-1.1712 b}b o}o n}n
-1.3851 b}b o}o r|r}rr
-0.5692 b}b o}o r}r
-1.1712 b}b o}o s}s
-1.1255 b}b o}o t}t
-2.1162 b}b o}o u}u
-1.8259 b}b o}o x}x
-1.8259 b}b o}o y}y
-2.2927 b}b o}o z}z
-0.0014 b}b p}p r}r
-0.4699 b}b r}r a}a
-0.5786 b}b r}r e}e
-0.6755 b}b r}r i}i
-1.1761 b}b r}r o}o
-1.2775 b}b r}r u}u
-1.9537 b}b r}r á}a
-2.4225 b}b r}r á}a|
-1.6532 b}b r}r í}i
-2.4225 b}b r}r ó}o
-1.8908 b}b r}r ó}o|
-0.1672 b}b s|c}z e}e
-1.5222 b}b s}s a}a
-0.5772 b}b s}s e}e
-0.8783 b}b s}s i}i
-0.9874 b}b s}s o}o
-0.4346 b}b s}s t}t
-1.2299 b}b s}s u}u
-0.1461 b}b t}t e}e
-1.0123 b}b t}t i}i
-1.0123 b}b t}t u}u
-1.9426 b}b u}u </s>
-1.6502 b}b u}u c}k
-1.6502 b}b u}u c}z
-1.2115 b}b u}u e}e
-1.9426 b}b u}u f}f
-1.1067 b}b u}u i}i
-2.1190 b}b u}u j}j
-2.1190 b}b u}u k}k
-1.6522 b}b u}u l|l}ll
-1.0224 b}b u}u l}l
-2.1190 b}b u}u m}m
-1.2529 b}b u}u n}n
-2.1190 b}b u}u q|u}k
-0.7477 b}b u}u r}r
-0.7905 b}b u}u s}s
-1.1389 b}b u}u t}t
-1.0224 b}b u}u y}y
-2.1190 b}b u}u í}i
-0.1963 b}b v}b e}e
-0.4408 b}b v}b i}i
-0.0014 b}b y}i </s>
-0.5455 b}b á}a n}n|
-1.0123 b}b á}a r}r
-0.5435 b}b á}a s}s
-0.8204 b}b é}e i}i
-0.8204 b}b é}e l}l
-0.2730 b}b í}i a}a
-0.5735 b}b í}i a}a|
-0.3536 b}b ó}o l}l
-0.3516 b}b ó}o n}n|
-0.0414 b}b ó}o| </s>
-0.1672 b}b ú}u| </s>
-0.7390 c|h}ch a}a </s>
-1.5988 c|h}ch a}a b}b
-1.5988 c|h}ch a}a c|h}ch
-0.9004 c|h}ch a}a d}d
-2.0676 c|h}ch a}a i}i
-2.0676 c|h}ch a}a l}l
-1.2014 c|h}ch a}a m}m
-1.1222 c|h}ch a}a n}n
-2.0676 c|h}ch a}a p}p
-2.0676 c|h}ch a}a q|u}k
-0.7100 c|h}ch a}a r}r
-1.0253 c|h}ch a}a s}s
-2.0676 c|h}ch a}a t}t
-1.6008 c|h}ch a}a v}b
-1.0875 c|h}ch a}a z}z
-0.6021 c|h}ch e}e </s>
-1.3025 c|h}ch e}e c|h}ch
-1.3025 c|h}ch e}e c}k
-1.3005 c|h}ch e}e l}l
-0.7891 c|h}ch e}e n}n
-1.3005 c|h}ch e}e q|u}k
-0.8617 c|h}ch e}e r}r
-1.5928 c|h}ch e}e s}s
-1.3025 c|h}ch e}e t}t
-1.5928 c|h}ch e}e v}b
-1.7693 c|h}ch e}e z}z
-0.9402 c|h}ch i}i </s>
-1.6515 c|h}ch i}i a}a
-1.6515 c|h}ch i}i c|h}ch
-1.1847 c|h}ch i}i c}k
-1.6515 c|h}ch i}i g}g
-1.4750 c|h}ch i}i l|l}ll
-0.9402 c|h}ch i}i l}l
-1.6515 c|h}ch i}i m}m
-0.7439 c|h}ch i}i n}n
-1.4750 c|h}ch i}i p}p
-1.4750 c|h}ch i}i q|u}k
-1.4750 c|h}ch i}i r}r
-1.4750 c|h}ch i}i s}s
-1.1847 c|h}ch i}i v}b
-0.4601 c|h}ch o}o </s>
-1.7412 c|h}ch o}o a}a
-0.9208 c|h}ch o}o c}k
-1.7412 c|h}ch o}o c}z
-1.5648 c|h}ch o}o f}f
-1.5648 c|h}ch o}o l}l
-1.2744 c|h}ch o}o n}n
-1.7412 c|h}ch o}o q|u}k
-1.7412 c|h}ch o}o r|r}rr
-1.2725 c|h}ch o}o r}r
-0.6709 c|h}ch o}o s}s
-0.2918 c|h}ch r}r i}i
-0.3433 c|h}ch t}t </s>
-1.1449 c|h}ch u}u b}b
-1.1449 c|h}ch u}u c}k
-1.1449 c|h}ch u}u e}e
-1.1449 c|h}ch u}u f}f
-0.9685 c|h}ch u}u l}l
-1.1449 c|h}ch u}u n}n
-1.1449 c|h}ch u}u p}p
-1.1449 c|h}ch u}u s}s
-0.1672 c|h}ch é}e| </s>
-0.0984 c|h}ch í}i s}s
-0.1672 c|h}ch ó}o n}n|
-0.0512 c|h}ch ó}o| </s>
-1.1939 c}k a}a </s>
-1.3415 c}k a}a b}b
-3.1319 c}k a}a c|h}ch
-1.4804 c}k a}a c}z
-0.9847 c}k a}a d}d
-2.6002 c}k a}a e}e
-2.6632 c}k a}a f}f
-2.9555 c}k a}a g}g
-2.4207 c}k a}a i}i
-2.3627 c}k a}a j}j
-2.0353 c}k a}a l|l}ll
-1.1196 c}k a}a l}l
-1.0616 c}k a}a m}m
-0.8376 c}k a}a n}n
-1.4804 c}k a}a p}p
-1.8678 c}k a}a r|r}rr
-0.7305 c}k a}a r}r
-3.1319 c}k a}a r}r|
-1.2446 c}k a}a s}s
-1.3681 c}k a}a s}s|
-1.4397 c}k a}a t}t
-1.6030 c}k a}a u}u
-2.6651 c}k a}a v}b
-3.1319 c}k a}a y}i
-2.3115 c}k a}a y}y
-2.6651 c}k a}a z}z
-2.3627 c}k a}a í}i
-2.2244 c}k a}a ñ}gn
-0.0031 c}k a}a| </s>
-1.2413 c}k c}z e}e
-0.0295 c}k c}z i}i
-0.3433 c}k d}d o}o
-0.4437 c}k k}k </s>
-0.7324 c}k k}k e}e
-1.0876 c}k k}k s}s
-1.0876 c}k k}k y}i
-0.2837 c}k l}l a}a
-1.1983 c}k l}l e}e
-1.0434 c}k l}l i}i
-1.3901 c}k l}l o}o
-0.6368 c}k l}l u}u
-1.7438 c}k l}l á}a
-1.7418 c}k l}l í}i
-2.2106 c}k l}l ó}o
-0.2341 c}k n}n i}i
-0.4766 c}k n}n o}o
-1.3424 c}k o}o </s>
-2.1457 c}k o}o a}a
-1.9116 c}k o}o b}b
-2.6912 c}k o}o c|h}ch
-2.6892 c}k o}o c}k
-2.6892 c}k o}o c}z
-2.6912 c}k o}o d}d
-3.1580 c}k o}o e}e
-2.6912 c}k o}o f}f
-2.9815 c}k o}o g}g
-2.0131 c}k o}o g}j
-2.9815 c}k o}o h|e}e
-3.1580 c}k o}o h|o}o
-2.2126 c}k o}o i}i
-3.1580 c}k o}o j}j
-2.6912 c}k o}o l|l}ll
-1.1949 c}k o}o l}l
-0.7379 c}k o}o m}m
-0.3604 c}k o}o n}n
-1.9908 c}k o}o o}o
-2.0877 c}k o}o p}p
-3.1580 c}k o}o q|u}k
-1.5514 c}k o}o r|r}rr
-1.1812 c}k o}o r}r
-1.4467 c}k o}o s}s
-1.3095 c}k o}o s}s|
-2.0365 c}k o}o t}t
-2.9815 c}k o}o u}u
-2.9815 c}k o}o v}b
-2.6892 c}k o}o y}y
-2.9815 c}k o}o z}z
-0.0030 c}k o}o| </s>
-0.9542 c}k r}r a}a
-0.4171 c}k r}r e}e
-0.5811 c}k r}r i}i
-1.2801 c}k r}r o}o
-0.9542 c}k r}r u}u
-1.6075 c}k r}r á}a
-2.2003 c}k r}r é}e
-1.6075 c}k r}r í}i
-1.9099 c}k r}r ó}o
-0.6461 c}k t}t a}a
-1.4523 c}k t}t e}e
-0.6741 c}k t}t i}i
-0.5246 c}k t}t o}o
-1.3979 c}k t}t r}r
-0.8960 c}k t}t u}u
-1.9629 c}k t}t á}a
-2.3181 c}k t}t ó}o
-1.7833 c}k t}t ó}o|
-1.6741 c}k t}t ú}u
-2.5304 c}k u}u </s>
-0.9599 c}k u}u a}a
-1.2844 c}k u}u b}b
-1.4983 c}k u}u c|h}ch
-2.1752 c}k u}u c}z
-1.6366 c}k u}u d}d
-0.8676 c}k u}u e}e
-1.4428 c}k u}u i}i
-0.6915 c}k u}u l}l
-1.2279 c}k u}u m}m
-1.6646 c}k u}u n}n
-2.7069 c}k u}u o}o
-1.1332 c}k u}u p}p
-1.3636 c}k u}u r|r}rr
-1.2073 c}k u}u r}r
-1.2967 c}k u}u s}s
-1.3093 c}k u}u t}t
-2.2401 c}k u}u y}y
-1.7616 c}k u}u á}a
-2.2381 c}k u}u é}e
-0.2918 c}k y}i </s>
-1.0601 c}k á}a l}l
-0.9972 c}k á}a m}m
-0.4323 c}k á}a n}n
-0.8177 c}k á}a n}n|
-1.3525 c}k á}a p}p
-0.9972 c}k á}a r}r
-1.2975 c}k ó}o l}l
-0.5283 c}k ó}o m}m
-0.8308 c}k ó}o n}n
-1.1211 c}k ó}o n}n|
-0.8308 c}k ó}o p}p
-1.1211 c}k ó}o t}t
-0.0105 c}k ó}o| </s>
-0.7693 c}k ú}u b}b
-0.7693 c}k ú}u c|h}ch
-0.1668 c}s|z i}i e}e
-0.2887 c}z _}e </s>
-0.9258 c}z e}e </s>
-1.9817 c}z e}e a}a
-2.7510 c}z e}e b}b
-2.7510 c}z e}e c}k
-1.1139 c}z e}e d}d
-2.2822 c}z e}e f}f
-2.7510 c}z e}e g}g
-2.2842 c}z e}e i}i
-1.0786 c}z e}e l}l
-1.8056 c}z e}e m}m
-0.7145 c}z e}e n}n
-2.2822 c}z e}e o}o
-1.1858 c}z e}e p}p
-0.5859 c}z e}e r}r
-0.9025 c}z e}e s}s
-2.2842 c}z e}e s}s|
-1.9306 c}z e}e t}t
-2.7510 c}z e}e v}b
-0.0014 c}z e}e| </s>
-3.0459 c}z i}i </s>
-0.6678 c}z i}i a}a
-3.2224 c}z i}i a}a|
-1.7999 c}z i}i b}b
-2.1801 c}z i}i c}k
-3.2224 c}z i}i c}z
-1.2039 c}z i}i d}d
-1.1361 c}z i}i e}e
-2.1521 c}z i}i f}f
-2.7536 c}z i}i g}g
-1.7030 c}z i}i l}l
-3.2224 c}z i}i l}l|
-1.6935 c}z i}i m}m
-1.5367 c}z i}i n}n
-0.6897 c}z i}i o}o
-1.6003 c}z i}i p}p
-1.7434 c}z i}i r}r
-1.7434 c}z i}i s}s
-1.4929 c}z i}i t}t
-2.4531 c}z i}i u}u
-2.7556 c}z i}i v}b
-2.4531 c}z i}i é}e
-0.6590 c}z i}i ó}o
-1.7880 c}z i}i ó}o|
-1.2086 c}z é}e a}a
-1.0321 c}z é}e l}l
-0.7418 c}z é}e n}n
-1.2086 c}z é}e r}r
-1.2086 c}z é}e s}s
-1.2086 c}z é}e s}s|
-1.2086 c}z é}e t}t
-1.2086 c}z é}e u}u
-0.1672 c}z é}e| </s>
-0.4771 c}z í}i a}a
-0.5408 c}z í}i a}a|
-1.6857 c}z í}i c}k
-0.8195 c}z í}i f}f
-1.6857 c}z í}i n}n
-1.6857 c}z í}i o}o|
-1.6857 c}z í}i r}r
-1.2189 c}z í}i v}b
-0.0964 c}z í}i| </s>
-0.4679 d}d _}e _}e
-0.4650 d}d a}a </s>
-1.9036 d}d a}a b}b
-2.3429 d}d a}a c}k
-2.1321 d}d a}a c}z
-0.7505 d}d a}a d}d
-3.1122 d}d a}a e}e
-2.4009 d}d a}a f}f
-2.9357 d}d a}a g}g
-3.1122 d}d a}a i}i
-2.6454 d}d a}a l|l}ll
-1.7988 d}d a}a l}l
-1.3947 d}d a}a m}m
-1.2918 d}d a}a n}n
-2.2918 d}d a}a p}p
-3.1122 d}d a}a r|r}rr
-1.0670 d}d a}a r}r
-0.6861 d}d a}a s}s
-2.2046 d}d a}a s}s|
-2.0419 d}d a}a t}t
-3.1122 d}d a}a u}u
-2.2046 d}d a}a v}b
-2.9357 d}d a}a y}y
-2.6434 d}d a}a z}z
-2.0419 d}d a}a ñ}gn
-0.0193 d}d a}a| </s>
-0.4682 d}d c}k a}a
-0.4682 d}d c}k o}o
-0.6443 d}d d}d i}i
-1.3398 d}d e}e </s>
-1.8734 d}d e}e a}a
-1.5815 d}d e}e b}b
-1.5132 d}d e}e c}k
-1.3293 d}d e}e c}z
-1.8222 d}d e}e d}d
-1.5376 d}d e}e f}f
-2.6530 d}d e}e g}g
-2.9433 d}d e}e i}i
-1.8222 d}d e}e j}j
-1.3671 d}d e}e l}l
-1.3451 d}d e}e m}m
-0.8956 d}d e}e n}n
-2.1075 d}d e}e o}o
-1.4612 d}d e}e p}p
-1.8386 d}d e}e r|r}rr
-0.9504 d}d e}e r}r
-2.2122 d}d e}e s|c}z
-0.5093 d}d e}e s}s
-3.1198 d}d e}e s}s|
-1.4085 d}d e}e t}t
-2.1396 d}d e}e u}u
-1.9526 d}d e}e v}b
-2.1744 d}d e}e z}z
-2.6530 d}d e}e z}z|
-3.1198 d}d e}e ó}o|
-0.1668 d}d e}e| </s>
-0.1672 d}d g}j e}e
-0.2918 d}d h|e}e r}r
-2.0000 d}d i}i </s>
-0.9652 d}d i}i a}a
-2.4137 d}d i}i b}b
-2.4786 d}d i}i c|h}ch
-1.0185 d}d i}i c}k
-1.3388 d}d i}i c}z
-1.0621 d}d i}i d}d
-1.1061 d}d i}i e}e
-1.3468 d}d i}i f}f
-1.7570 d}d i}i g}g
-2.7689 d}d i}i g}j
-2.1249 d}d i}i j}j
-1.9652 d}d i}i l|l}ll
-1.9331 d}d i}i l}l
-1.6812 d}d i}i m}m
-1.3802 d}d i}i n}n
-1.3310 d}d i}i o}o
-2.0792 d}d i}i p}p
-2.9454 d}d i}i q|u}k
-1.1601 d}d i}i r}r
-0.7981 d}d i}i s}s
-1.5110 d}d i}i t}t
-1.3802 d}d i}i v}b
-2.1761 d}d i}i z}z
-2.4766 d}d i}i á}a
-2.4137 d}d i}i é}e
-2.4786 d}d i}i ó}o
-1.4994 d}d i}i ó}o|
-0.2887 d}d j}j u}u
-1.2082 d}d m}m a}a
-0.0414 d}d m}m i}i
-0.3887 d}d n}n e}e
-0.2541 d}d o}o </s>
-2.3321 d}d o}o b}b
-2.1560 d}d o}o c}k
-3.2775 d}d o}o c}s|z
-2.8087 d}d o}o c}z
-1.6331 d}d o}o l}l
-1.8315 d}d o}o m}m
-1.6631 d}d o}o n}n
-2.2652 d}d o}o p}p
-0.9831 d}d o}o r}r
-0.6281 d}d o}o s}s
-2.0133 d}d o}o s}s|
-2.4570 d}d o}o t}t
-2.5662 d}d o}o u}u
-2.8087 d}d o}o v}b
-3.2775 d}d o}o w}u
-3.2775 d}d o}o x}x
-3.2775 d}d o}o z}z
-0.0090 d}d o}o| </s>
-0.0512 d}d q|u}k i}i
-0.6579 d}d r}r a}a
-0.8482 d}d r}r e}e
-0.8705 d}d r}r i}i
-0.8705 d}d r}r o}o
-1.8389 d}d r}r u}u
-0.9188 d}d r}r á}a
-1.0700 d}d r}r á}a|
-2.0154 d}d r}r é}e|
-0.9451 d}d r}r í}i
-0.4766 d}d s}s </s>
-0.7689 d}d s}s c}k
-0.9454 d}d s}s o}o
-0.1668 d}d t}t </s>
-1.2148 d}d u}u a}a
-1.7883 d}d u}u b}b
-0.7282 d}d u}u c}k
-0.8227 d}d u}u c}z
-1.3909 d}d u}u d}d
-1.3909 d}d u}u e}e
-1.3909 d}d u}u j}j
-1.0107 d}d u}u l}l
-1.7883 d}d u}u m}m
-2.2571 d}d u}u m}m|
-2.2571 d}d u}u n}n
-1.7903 d}d u}u o}o
-1.7254 d}d u}u p}p
-0.7282 d}d u}u r}r
-1.5458 d}d u}u s}s
-2.2571 d}d u}u v}b
-1.4878 d}d u}u z}z
-0.1627 d}d v}b e}e
-0.6015 d}d v}b i}i
-0.3433 d}d w}u a}a
-0.1796 d}d y}i </s>
-1.1214 d}d á}a d}d
-0.5898 d}d á}a n}n
-0.9450 d}d á}a n}n|
-0.9450 d}d á}a v}b
-1.2464 d}d é}e b}b
-1.2464 d}d é}e c}k
-1.0699 d}d é}e c}z
-1.0699 d}d é}e j}j
-0.7147 d}d é}e m}m
-0.7776 d}d é}e s}s|
-0.1668 d}d é}e| </s>
-0.4856 d}d í}i a}a
-0.4607 d}d í}i a}a|
-1.4057 d}d í}i g}j
-1.5822 d}d í}i n}n|
-1.5822 d}d í}i o}o|
-0.8129 d}d í}i s}s
-0.0014 d}d í}i| </s>
-0.9076 d}d ó}o l}l
-0.9076 d}d ó}o n}n
-0.4388 d}d ó}o n}n|
-0.0193 d}d ó}o| </s>
-0.9216 e}e a}a </s>
-1.3246 e}e a}a b}b
-1.5551 e}e a}a c}k
-2.2448 e}e a}a c}z
-0.8227 e}e a}a d}d
-1.9525 e}e a}a f}f
-2.4213 e}e a}a g}g
-0.8923 e}e a}a l}l
-1.2998 e}e a}a m}m
-0.8069 e}e a}a n}n
-1.7100 e}e a}a p}p
-0.8069 e}e a}a r}r
-1.3790 e}e a}a s}s
-1.8896 e}e a}a s}s|
-1.4090 e}e a}a t}t
-2.4213 e}e a}a v}b
-0.0348 e}e a}a| </s>
-1.5265 e}e b}b </s>
-0.7121 e}e b}b a}a
-0.7654 e}e b}b e}e
-0.7654 e}e b}b i}i
-1.1729 e}e b}b l}l
-1.4616 e}e b}b o}o
-0.5830 e}e b}b r}r
-1.8168 e}e b}b u}u
-1.8168 e}e b}b í}i
-0.2482 e}e c|h}ch a}a
-0.7833 e}e c|h}ch e}e
-1.7956 e}e c|h}ch i}i
-0.7253 e}e c|h}ch o}o
-1.6191 e}e c|h}ch ó}o|
-2.1741 e}e c}k </s>
-1.0285 e}e c}k a}a
-1.1046 e}e c}k c}z
-1.0865 e}e c}k l}l
-2.1112 e}e c}k n}n
-0.6561 e}e c}k o}o
-1.3965 e}e c}k r}r
-0.5362 e}e c}k t}t
-0.8129 e}e c}k u}u
-2.1112 e}e c}k á}a
-2.6429 e}e c}k ó}o
-0.4435 e}e c}z e}e
-0.2421 e}e c}z i}i
-1.2189 e}e c}z í}i
-2.5165 e}e c}z í}i|
-1.5080 e}e d}d </s>
-0.7909 e}e d}d a}a
-2.5204 e}e d}d a}a|
-2.5204 e}e d}d d}d
-0.7457 e}e d}d e}e
-0.4611 e}e d}d i}i
-0.9299 e}e d}d o}o
-2.5204 e}e d}d o}o|
-1.4501 e}e d}d r}r
-1.0631 e}e d}d u}u
-2.0536 e}e d}d í}i
-0.7439 e}e e}e </s>
-1.1198 e}e e}e d}d
-1.1827 e}e e}e l}l
-0.8311 e}e e}e m}m
-0.8311 e}e e}e n}n
-0.8822 e}e e}e r}r
-0.8311 e}e e}e s}s
-1.3222 e}e f}f a}a
-0.4472 e}e f}f e}e
-1.7196 e}e f}f f}f
-0.5160 e}e f}f i}i
-1.1461 e}e f}f l}l
-1.1761 e}e f}f o}o
-1.6567 e}e f}f r}r
-2.1884 e}e f}f t}t
-1.3680 e}e f}f u}u
-2.0119 e}e f}f á}a
-1.7196 e}e f}f ó}o
-0.6021 e}e g|u}g e}e
-0.2121 e}e g|u}g i}i
-1.0408 e}e g|u}g í}i
-2.4139 e}e g}g </s>
-0.4016 e}e g}g a}a
-2.4139 e}e g}g g}j
-1.2925 e}e g}g l}l
-0.8850 e}e g}g o}o
-2.4139 e}e g}g o}o|
-0.7089 e}e g}g r}r
-0.7996 e}e g}g u}u
-2.4139 e}e g}g á}a
-2.2375 e}e g}g ó}o
-1.7027 e}e g}g ó}o|
-2.2375 e}e g}g ú}u
-0.7877 e}e g}j e}e
-0.1313 e}e g}j i}i
-1.0607 e}e g}j í}i
-0.3887 e}e h|a}a b}b
-0.5651 e}e h|a}a c}z
-0.7693 e}e h|e}e m}m
-0.3005 e}e h|e}e n}n
-0.3887 e}e h|u}u s}s
-0.1672 e}e h|í}i c}k
-1.7350 e}e i}i </s>
-1.7350 e}e i}i b}b
-1.7350 e}e i}i c}k
-1.3798 e}e i}i d}d
-1.9115 e}e i}i l}l
-1.9115 e}e i}i m}m
-0.4119 e}e i}i n}n
-0.9314 e}e i}i r}r
-1.0911 e}e i}i s}s
-0.8412 e}e i}i t}t
-1.7350 e}e i}i v}b
-0.3118 e}e j}j a}a
-0.6783 e}e j}j e}e
-1.6462 e}e j}j i}i
-0.7320 e}e j}j o}o
-1.7091 e}e j}j u}u
-2.1779 e}e j}j é}e
-2.1779 e}e j}j í}i
-2.1779 e}e j}j ó}o
-1.7111 e}e j}j ó}o|
-0.3536 e}e k}k i}i
-1.2607 e}e l|l}ll </s>
-0.3582 e}e l|l}ll a}a
-0.9091 e}e l|l}ll e}e
-1.2607 e}e l|l}ll i}i
-0.7494 e}e l|l}ll o}o
-1.7295 e}e l|l}ll s}s
-1.7295 e}e l|l}ll y}i
-1.7295 e}e l|l}ll í}i
-0.9965 e}e l}l </s>
-0.6277 e}e l}l a}a
-2.2631 e}e l}l a}a|
-2.5554 e}e l}l c}k
-1.7518 e}e l}l d}d
-0.6754 e}e l}l e}e
-2.2002 e}e l}l e}e|
-2.5554 e}e l}l f}f
-2.7319 e}e l}l g|u}g
-2.2002 e}e l}l g}g
-0.7354 e}e l}l i}i
-2.7319 e}e l}l j}j
-2.5554 e}e l}l m}m
-1.0948 e}e l}l o}o
-2.5554 e}e l}l o}o|
-2.2631 e}e l}l s}s
-1.5040 e}e l}l t}t
-1.7865 e}e l}l u}u
-1.7196 e}e l}l v}b
-2.5554 e}e l}l á}a
-1.9115 e}e l}l é}e
-1.9626 e}e l}l í}i
-2.2631 e}e l}l í}i|
-2.5554 e}e l}l ó}o|
-0.0014 e}e l}l| </s>
-1.9178 e}e m}m </s>
-0.9575 e}e m}m a}a
-1.1219 e}e m}m b}b
-0.7453 e}e m}m e}e
-0.9758 e}e m}m i}i
-2.6870 e}e m}m m}m
-2.2202 e}e m}m n}n
-0.5879 e}e m}m o}o
-0.6841 e}e m}m p}p
-1.9758 e}e m}m u}u
-1.8209 e}e m}m á}a
-2.2202 e}e m}m ó}o
-1.0015 e}e n}n </s>
-1.2952 e}e n}n a}a
-3.4142 e}e n}n a}a|
-2.7029 e}e n}n b}b
-3.4142 e}e n}n c|h}ch
-1.5703 e}e n}n c}k
-1.1055 e}e n}n c}z
-0.9176 e}e n}n d}d
-1.3521 e}e n}n e}e
-1.8156 e}e n}n f}f
-3.4142 e}e n}n g|u}g
-1.9046 e}e n}n g}g
-3.2377 e}e n}n g}j
-1.5027 e}e n}n i}i
-2.5938 e}e n}n j}j
-2.5480 e}e n}n l}l
-2.6449 e}e n}n m}m
-2.4341 e}e n}n n}n
-1.7092 e}e n}n o}o
-2.9454 e}e n}n o}o|
-3.2377 e}e n}n q|u}k
-2.8825 e}e n}n r}rr
-1.3253 e}e n}n s}s
-0.4044 e}e n}n t}t
-1.9682 e}e n}n u}u
-1.9248 e}e n}n v}b
-2.2927 e}e n}n z}z
-2.5480 e}e n}n é}e
-3.4142 e}e n}n é}e|
-2.5066 e}e n}n í}i
-3.2377 e}e n}n ó}o
-2.9454 e}e n}n ó}o|
-0.0512 e}e n}n| </s>
-0.4337 e}e o}o </s>
-1.0058 e}e o}o c}k
-1.8715 e}e o}o g}g
-1.1405 e}e o}o l}l
-1.0058 e}e o}o n}n
-0.9266 e}e o}o r}r
-0.9514 e}e o}o s}s
-1.5163 e}e o}o s}s|
-1.5812 e}e o}o t}t
-2.0480 e}e o}o y}y
-0.0414 e}e o}o| </s>
-2.2275 e}e p}p </s>
-0.6187 e}e p}p a}a
-1.6347 e}e p}p c}z
-0.8751 e}e p}p e}e
-2.2275 e}e p}p h|a}a
-1.3337 e}e p}p i}i
-1.6927 e}e p}p l}l
-0.8054 e}e p}p o}o
-0.8302 e}e p}p r}r
-0.9468 e}e p}p t}t
-1.1228 e}e p}p u}u
-2.4040 e}e p}p á}a
-2.2275 e}e p}p ó}o
-0.4694 e}e q|u}k e}e
-0.2430 e}e q|u}k i}i
-1.1456 e}e q|u}k í}i
-0.5809 e}e r|r}rr a}a
-0.9031 e}e r|r}rr e}e
-0.7570 e}e r|r}rr i}i
-0.5414 e}e r|r}rr o}o
-1.0580 e}e r|r}rr u}u
-2.0703 e}e r|r}rr y}i
-1.6015 e}e r|r}rr á}a
-2.0703 e}e r|r}rr í}i
-1.0634 e}e r}r </s>
-0.7348 e}e r}r a}a
-2.4690 e}e r}r a}a|
-2.2191 e}e r}r b}b
-1.7605 e}e r}r c}k
-1.6990 e}e r}r c}z
-1.5907 e}e r}r d}d
-1.2273 e}e r}r e}e
-2.0615 e}e r}r f}f
-2.8226 e}e r}r g|u}g
-2.0615 e}e r}r g}g
-2.2191 e}e r}r g}j
-1.0596 e}e r}r i}i
-2.5202 e}e r}r j}j
-3.2894 e}e r}r k}k
-1.6309 e}e r}r l}l
-1.3333 e}e r}r m}m
-1.3898 e}e r}r n}n
-0.8956 e}e r}r o}o
-2.4232 e}e r}r o}o|
-1.9919 e}e r}r p}p
-3.2894 e}e r}r q|u}k
-2.1222 e}e r}r r}r
-1.2246 e}e r}r s}s
-1.1680 e}e r}r t}t
-2.3819 e}e r}r u}u
-1.5599 e}e r}r v}b
-3.2894 e}e r}r w}u
-3.2894 e}e r}r y}i
-2.4690 e}e r}r z}z
-2.0253 e}e r}r á}a
-1.9761 e}e r}r á}a|
-2.8206 e}e r}r é}e
-3.2894 e}e r}r é}e|
-1.5599 e}e r}r í}i
-3.1130 e}e r}r ó}o
-2.3093 e}e r}r ó}o|
-3.1130 e}e r}r ú}u|
-0.0348 e}e r}r| </s>
-0.0902 e}e s|c}z e}e
-1.0703 e}e s|c}z é}e
-0.3951 e}e s}s </s>
-1.1570 e}e s}s a}a
-2.6755 e}e s}s b}b
-1.1495 e}e s}s c}k
-2.5206 e}e s}s c}z
-3.2103 e}e s}s d}d
-1.3058 e}e s}s e}e
-2.5206 e}e s}s e}e|
-2.4067 e}e s}s f}f
-2.2419 e}e s}s g}g
-2.6175 e}e s}s h|a}a
-3.3868 e}e s}s h|i}i
-1.2419 e}e s}s i}i
-2.4792 e}e s}s l}l
-2.1589 e}e s}s m}m
-2.6175 e}e s}s n}n
-1.6573 e}e s}s o}o
-1.1262 e}e s}s p}p
-2.4792 e}e s}s q|u}k
-2.5664 e}e s}s s}s
-0.7199 e}e s}s t}t
-1.8579 e}e s}s u}u
-2.5664 e}e s}s v}b
-3.3868 e}e s}s á}a
-2.9180 e}e s}s í}i
-3.2103 e}e s}s ó}o
-2.9180 e}e s}s ó}o|
-0.0055 e}e s}s| </s>
-0.4682 e}e s}z i}i
-0.1672 e}e t|h}t </s>
-1.5104 e}e t}t </s>
-0.5896 e}e t}t a}a
-2.4554 e}e t}t b}b
-0.5896 e}e t}t e}e
-2.6318 e}e t}t e}e|
-0.8362 e}e t}t i}i
-2.1002 e}e t}t n}n
-1.0022 e}e t}t o}o
-0.9663 e}e t}t r}r
-2.6318 e}e t}t s}s
-1.8114 e}e t}t t}t
-1.7657 e}e t}t u}u
-2.6318 e}e t}t z}z
-1.9206 e}e t}t í}i
-2.6318 e}e t}t í}i|
-2.4554 e}e t}t ó}o
-2.1651 e}e t}t ó}o|
-1.1628 e}e u}u </s>
-0.7634 e}e u}u d}d
-1.6296 e}e u}u m}m
-0.4412 e}e u}u n}n
-0.7634 e}e u}u r}r
-0.9183 e}e u}u t}t
-1.5836 e}e v}b </s>
-0.5647 e}e v}b a}a
-0.5884 e}e v}b e}e
-0.5740 e}e v}b i}i
-0.9250 e}e v}b o}o
-1.5378 e}e v}b u}u
-2.4040 e}e v}b á}a
-2.4040 e}e v}b ó}o|
-0.4679 e}e w}u </s>
-0.1126 e}e x}j i}i
-1.9410 e}e x}x </s>
-1.1799 e}e x}x a}a
-1.3375 e}e x}x c}k
-1.4276 e}e x}x c}z
-1.8761 e}e x}x e}e
-2.4078 e}e x}x h|a}a
-1.6965 e}e x}x h|i}i
-1.8761 e}e x}x h|o}o
-0.7857 e}e x}x i}i
-1.6965 e}e x}x o}o
-0.4847 e}e x}x p}p
-2.4078 e}e x}x s}s
-0.6608 e}e x}x t}t
-1.9410 e}e x}x u}u
-2.4078 e}e x}x á}a
-0.1413 e}e y}i </s>
-0.9537 e}e y}i n}n
-0.6547 e}e y}y a}a
-0.1761 e}e y}y e}e
-1.1214 e}e y}y ó}o|
-0.1668 e}e z}s| </s>
-0.6990 e}e z}z </s>
-0.3310 e}e z}z a}a
-0.7175 e}e z}z c}k
-1.9454 e}e z}z e}e
-1.9454 e}e z}z m}m
-1.4786 e}e z}z o}o
-1.9454 e}e z}z q|u}k
-1.9454 e}e z}z u}u
-1.9454 e}e z}z ó}o|
-0.0122 e}e z}z| </s>
-0.1672 e}e é}e| </s>
-0.9685 e}e í}i a}a
-0.9685 e}e í}i a}a|
-0.9685 e}e í}i b}b
-0.6132 e}e í}i d}d
-1.1449 e}e í}i s}s
-0.3962 e}e ñ}gn a}a
-0.7853 e}e ñ}gn a}a|
-1.4208 e}e ñ}gn i}i
-0.8076 e}e ñ}gn o}o
-0.7061 e}e ñ}gn o}o|
-1.9525 e}e ñ}gn ó}o|
-0.1761 e}e ó}o n}n|
-0.0458 e}e ó}o| </s>
-0.1755 e}e ú}u n}n
-0.2918 f}f _}e </s>
-1.4094 f}f a}a </s>
-1.1595 f}f a}a b}b
-2.2298 f}f a}a c|h}ch
-1.0019 f}f a}a c}k
-1.1332 f}f a}a c}z
-1.7630 f}f a}a d}d
-2.2298 f}f a}a g}g
-1.1332 f}f a}a l|l}ll
-1.0019 f}f a}a l}l
-1.1875 f}f a}a m}m
-1.0626 f}f a}a n}n
-1.0414 f}f a}a r}r
-1.2175 f}f a}a s}s
-1.1595 f}f a}a t}t
-2.0533 f}f a}a u}u
-1.0626 f}f a}a v}b
-2.0533 f}f a}a x}x
-1.6277 f}f e}e </s>
-2.3389 f}f e}e b}b
-1.8072 f}f e}e c|h}ch
-0.7169 f}f e}e c}k
-1.4314 f}f e}e d}d
-2.3389 f}f e}e i}i
-1.2967 f}f e}e l}l
-1.8721 f}f e}e m}m
-0.8930 f}f e}e n}n
-2.3389 f}f e}e o}o
-1.4314 f}f e}e r|r}rr
-0.4996 f}f e}e r}r
-0.8707 f}f e}e s}s
-2.3389 f}f e}e s}s|
-1.8701 f}f e}e t}t
-0.9450 f}f f}f </s>
-1.1214 f}f f}f a}a
-0.6527 f}f f}f e}e
-1.1214 f}f f}f i}i
-0.9450 f}f f}f m}m
-0.9450 f}f f}f r}r
-0.3433 f}f g}g a}a
-1.8558 f}f i}i </s>
-1.4579 f}f i}i a}a
-0.4734 f}f i}i c}k
-0.9808 f}f i}i c}z
-1.7589 f}f i}i d}d
-1.2818 f}f i}i e}e
-2.6251 f}f i}i g|u}g
-2.0934 f}f i}i g}g
-1.4802 f}f i}i j}j
-1.1461 f}f i}i l}l
-0.8668 f}f i}i n}n
-1.7589 f}f i}i q|u}k
-0.9736 f}f i}i r}r
-1.4802 f}f i}i s}s
-2.0934 f}f i}i t}t
-2.1583 f}f i}i x}x
-0.8103 f}f l}l a}a
-0.5626 f}f l}l e}e
-1.0792 f}f l}l i}i
-0.5819 f}f l}l o}o
-0.6938 f}f l}l u}u
-0.1668 f}f m}m a}a
-1.4510 f}f o}o </s>
-2.0438 f}f o}o b}b
-1.3541 f}f o}o c}k
-2.2203 f}f o}o l|l}ll
-1.7535 f}f o}o l}l
-1.7515 f}f o}o m}m
-1.2402 f}f o}o n}n
-0.1638 f}f o}o r}r
-2.0438 f}f o}o s}s
-1.6886 f}f o}o s}s|
-1.4510 f}f o}o t}t
-0.0512 f}f o}o| </s>
-0.5235 f}f r}r a}a
-0.4609 f}f r}r e}e
-0.8696 f}f r}r i}i
-1.0130 f}f r}r o}o
-1.0737 f}f r}r u}u
-2.2409 f}f r}r á}a
-1.7092 f}f r}r í}i
-0.6443 f}f t}t a}a
-0.7837 f}f u}u e}e
-1.5331 f}f u}u g}g
-1.3536 f}f u}u g}j
-1.8884 f}f u}u i}i
-2.0648 f}f u}u j}j
-2.0648 f}f u}u k}k
-2.0648 f}f u}u l}l
-0.9682 f}f u}u m}m
-0.3925 f}f u}u n}n
-1.5331 f}f u}u r}r
-1.0525 f}f u}u s}s
-1.2956 f}f u}u t}t
-1.0966 f}f á}a b}b
-0.9202 f}f á}a c}z
-0.9202 f}f á}a l}l
-0.9202 f}f á}a n}n|
-0.6298 f}f á}a r}r
-1.0966 f}f á}a t}t
-0.9454 f}f é}e r|r}rr
-0.1761 f}f é}e r}r
-0.1672 f}f é}e| </s>
-0.8465 f}f í}i a}a
-0.4472 f}f í}i a}a|
-1.1369 f}f í}i c}z
-1.3133 f}f í}i l}l
-1.3133 f}f í}i n}n|
-0.8446 f}f í}i s}s
-0.3005 f}f ó}o n}n
-0.7693 f}f ó}o r}r
-0.1672 g|h}g t}t </s>
-0.5342 g|u}g e}e </s>
-1.5026 g|u}g e}e l}l
-0.7715 g|u}g e}e n}n
-0.7715 g|u}g e}e r|r}rr
-0.9098 g|u}g e}e r}r
-1.5026 g|u}g e}e s}s
-1.6791 g|u}g e}e t}t
-1.6791 g|u}g e}e z}z|
-1.5092 g|u}g i}i a}a
-1.6857 g|u}g i}i b}b
-0.7404 g|u}g i}i d}d
-0.7404 g|u}g i}i e}e
-1.2169 g|u}g i}i l}l
-1.5092 g|u}g i}i m}m
-1.1540 g|u}g i}i n}n
-0.6734 g|u}g i}i r}r
-1.6857 g|u}g i}i t}t
-1.2189 g|u}g i}i ó}o|
-0.1668 g|u}g é}e| </s>
-0.7311 g|u}g í}i a}a
-0.9076 g|u}g í}i a}a|
-0.4408 g|u}g í}i n}n|
-0.9148 g}g a}a </s>
-1.6245 g}g a}a b}b
-1.4484 g}g a}a c}z
-0.8116 g}g a}a d}d
-2.6948 g}g a}a g}g
-2.6948 g}g a}a i}i
-2.2280 g}g a}a l|l}ll
-1.2724 g}g a}a l}l
-1.5499 g}g a}a m}m
-0.6983 g}g a}a n}n
-1.7873 g}g a}a r|r}rr
-0.6584 g}g a}a r}r
-1.1385 g}g a}a s}s
-2.5184 g}g a}a s}s|
-1.5499 g}g a}a t}t
-1.7873 g}g a}a ñ}gn
-0.0964 g}g a}a| </s>
-0.3433 g}g d}d a}a
-0.3433 g}g g}j i}i
-0.3819 g}g l}l a}a
-1.1237 g}g l}l e}e
-0.8792 g}g l}l i}i
-0.4690 g}g l}l o}o
-0.6443 g}g m}m a}a
-0.4679 g}g m}m e}e
-0.3468 g}g n}n a}a
-1.3025 g}g n}n e}e
-0.5809 g}g n}n i}i
-0.7891 g}g n}n o}o
-1.7693 g}g n}n í}i
-1.7693 g}g n}n ó}o|
-0.6037 g}g o}o </s>
-1.0873 g}g o}o b}b
-1.1075 g}g o}o c}z
-2.2959 g}g o}o d}d
-0.9246 g}g o}o l}l
-2.1195 g}g o}o m}m
-1.0318 g}g o}o n}n
-1.0495 g}g o}o r}r
-0.9112 g}g o}o s}s
-1.5267 g}g o}o s}s|
-1.2836 g}g o}o t}t
-2.1195 g}g o}o v}b
-2.2959 g}g o}o y}y
-1.5847 g}g o}o z}z
-0.0280 g}g o}o| </s>
-0.3156 g}g r}r a}a
-0.5774 g}g r}r e}e
-1.0381 g}g r}r i}i
-1.1794 g}g r}r o}o
-1.4804 g}g r}r u}u
-1.3903 g}g r}r á}a
-1.9938 g}g r}r í}i
-2.4606 g}g r}r ó}o|
-2.4606 g}g r}r ú}u
-0.7113 g}g s}s </s>
-0.0014 g}g t}t o}o
-2.0894 g}g u}u </s>
-0.4454 g}g u}u a}a
-1.7342 g}g u}u b}b
-1.4966 g}g u}u d}d
-2.2658 g}g u}u j}j
-1.7971 g}g u}u l|l}ll
-1.0573 g}g u}u l}l
-1.5546 g}g u}u m}m
-0.9226 g}g u}u n}n
-1.7991 g}g u}u o}o
-0.8315 g}g u}u r}r
-1.0379 g}g u}u s}s
-2.2658 g}g u}u t}t
-2.2658 g}g u}u y}y
-2.2658 g}g u}u á}a
-2.2658 g}g u}u á}a|
-0.1672 g}g y}y a}a
-0.3887 g}g á}a n}n
-0.1672 g}g í}i a}a
-0.7689 g}g ó}o n}n
-0.7689 g}g ó}o n}n|
-0.7689 g}g ó}o r}r
-0.0164 g}g ó}o| </s>
-0.3887 g}g ú}u n}n|
-0.0792 g}g ü}u e}e
-0.4682 g}j _}e </s>
-1.1278 g}j e}e </s>
-2.0962 g}j e}e d}d
-1.0448 g}j e}e l}l
-2.2727 g}j e}e l}l|
-0.3131 g}j e}e n}n
-1.4523 g}j e}e o}o
-0.6662 g}j e}e r}r
-1.3274 g}j e}e s}s
-2.0962 g}j e}e t}t
-2.2362 g}j i}i </s>
-1.0841 g}j i}i a}a
-2.2362 g}j i}i b}b
-0.8933 g}j i}i c}k
-1.1486 g}j i}i d}d
-1.1486 g}j i}i e}e
-1.7014 g}j i}i g}g
-1.3161 g}j i}i l}l
-2.4127 g}j i}i l}l|
-1.7014 g}j i}i m}m
-0.8744 g}j i}i n}n
-0.9783 g}j i}i o}o
-1.9459 g}j i}i p}p
-0.9902 g}j i}i r}r
-0.9668 g}j i}i s}s
-1.5465 g}j i}i t}t
-2.2362 g}j i}i v}b
-2.4127 g}j i}i é}e
-2.4127 g}j i}i ó}o
-1.5923 g}j i}i ó}o|
-0.7693 g}j é}e l}l
-0.5928 g}j é}e n}n
-0.5928 g}j é}e s}s
-0.9289 g}j í}i a}a
-0.2093 g}j í}i a}a|
-0.9289 g}j í}i t}t
-1.5286 h|a}a b}b a}a
-1.1733 h|a}a b}b e}e
-0.3475 h|a}a b}b i}i
-0.5166 h|a}a b}b l}l
-1.2382 h|a}a b}b r}r
-1.5286 h|a}a b}b í}i
-0.1836 h|a}a c}z e}e
-0.6173 h|a}a c}z i}i
-1.1521 h|a}a c}z í}i
-0.2445 h|a}a d}d a}a
-0.2918 h|a}a g}g a}a
-0.3887 h|a}a i}i t}t
-0.4682 h|a}a k}k </s>
-1.0423 h|a}a l|l}ll </s>
-0.1347 h|a}a l|l}ll a}a
-0.5928 h|a}a l}l a}a
-0.7693 h|a}a l}l e}e
-0.8658 h|a}a m}m </s>
-0.8658 h|a}a m}m a}a
-0.8658 h|a}a m}m b}b
-1.0423 h|a}a m}m i}i
-0.6298 h|a}a n}n </s>
-0.6298 h|a}a n}n i}i
-0.6298 h|a}a n}n s}s
-1.1449 h|a}a r}r a}a
-1.1449 h|a}a r}r d}d
-1.1449 h|a}a r}r e}e
-0.6781 h|a}a r}r i}i
-1.1449 h|a}a r}r o}o
-0.8204 h|a}a s}s s}s
-0.8204 h|a}a s}s t}t
-0.1672 h|a}a u}u s}s
-0.1672 h|a}a v}b e}e
-0.2918 h|a}a y}y a}a
-0.1668 h|e}e b}b r}r
-0.7693 h|e}e c|h}ch a}a
-0.3025 h|e}e c|h}ch o}o
-0.4679 h|e}e i}i m}m
-0.6298 h|e}e l}l a}a
-0.9202 h|e}e l}l e}e
-1.0966 h|e}e l}l i}i
-0.9202 h|e}e l}l m}m
-0.8662 h|e}e m}m e}e
-0.3994 h|e}e m}m i}i
-0.6897 h|e}e m}m o}o
-0.5455 h|e}e n}n </s>
-1.0123 h|e}e n}n d}d
-0.8358 h|e}e n}n s}s
-0.1672 h|e}e o}o d}d
-0.4682 h|e}e r|r}rr a}a
-1.3525 h|e}e r}r </s>
-0.7597 h|e}e r}r e}e
-0.7597 h|e}e r}r i}i
-0.5488 h|e}e r}r m}m
-1.0621 h|e}e r}r n}n
-1.5289 h|e}e r}r o}o
-1.3525 h|e}e r}r t}t
-1.5289 h|e}e r}r z}z
-1.3133 h|i}i b}b a}a
-0.8465 h|i}i b}b e}e
-0.1249 h|i}i b}b i}i
-0.0984 h|i}i c}z i}i
-0.0872 h|i}i d}d r}r
-0.1672 h|i}i g}j i}i
-0.4682 h|i}i j}j a}a
-0.4682 h|i}i j}j o}o
-0.1672 h|i}i k}k o}o
-0.6443 h|i}i l}l a}a
-0.6897 h|i}i m}m </s>
-0.8662 h|i}i m}m a}a
-0.8662 h|i}i m}m o}o
-0.7113 h|i}i n}n e}e
-0.7113 h|i}i n}n g}j
-0.3536 h|i}i p}p o}o
-0.3536 h|i}i p}p ó}o
-0.3005 h|i}i r}r i}i
-0.7693 h|i}i r}r o}o
-0.4191 h|i}i s}s p}p
-0.3222 h|i}i s}s t}t
-0.1672 h|o}o f}f f}f
-0.2376 h|o}o g}g a}a
-0.1672 h|o}o j}j a}a
-0.9454 h|o}o l}l </s>
-0.4766 h|o}o l}l a}a
-0.9450 h|o}o m}m a}a
-0.6547 h|o}o m}m b}b
-0.9450 h|o}o m}m e}e
-0.6527 h|o}o m}m i}i
-1.1214 h|o}o m}m ó}o
-0.5699 h|o}o n}n d}d
-0.5699 h|o}o n}n e}e
-0.7495 h|o}o n}n o}o
-0.8144 h|o}o n}n r}rr
-0.5348 h|o}o r|r}rr a}a
-0.7113 h|o}o r|r}rr e}e
-0.7113 h|o}o r|r}rr o}o
-0.5528 h|o}o r}r a}a
-0.7973 h|o}o r}r i}i
-1.2641 h|o}o r}r m}m
-0.4437 h|o}o r}r t}t
-0.5649 h|o}o s}s p}p
-0.2304 h|o}o s}s t}t
-1.0123 h|u}u a}a </s>
-1.0123 h|u}u a}a c}k
-1.0123 h|u}u a}a l}l
-1.0123 h|u}u a}a n}n
-1.0123 h|u}u a}a t}t
-0.1775 h|u}u b}b i}i
-0.9801 h|u}u e}e l|l}ll
-0.5113 h|u}u e}e l}l
-0.9801 h|u}u e}e s}s
-0.1675 h|u}u m}m a}a
-1.2641 h|u}u m}m e}e
-1.0876 h|u}u m}m i}i
-1.2641 h|u}u m}m o}o
-0.2887 h|u}u n}n d}d
-0.4682 h|u}u r}r a}a
-0.4682 h|u}u r}r t}t
-0.6443 h|u}u s}s a}a
-0.3433 h|u}u t}t u}u
-0.2918 h|u}u y}y e}e
-0.1672 h|í}i c}k u}u
-0.4795 i}i a}a </s>
-1.7390 i}i a}a b}b
-2.7904 i}i a}a c|h}ch
-2.2556 i}i a}a c}k
-1.7583 i}i a}a c}z
-0.9868 i}i a}a d}d
-2.1976 i}i a}a g}g
-1.8703 i}i a}a j}j
-0.9393 i}i a}a l}l
-1.6383 i}i a}a m}m
-0.9640 i}i a}a n}n
-2.9669 i}i a}a o}o
-2.7904 i}i a}a p}p
-2.5001 i}i a}a r|r}rr
-0.9801 i}i a}a r}r
-0.8993 i}i a}a s}s
-1.8703 i}i a}a t}t
-2.7904 i}i a}a z}z
-0.1672 i}i a}a| </s>
-0.8681 i}i b}b a}a
-0.6990 i}i b}b e}e
-0.7205 i}i b}b i}i
-0.7924 i}i b}b l}l
-1.5371 i}i b}b o}o
-1.0290 i}i b}b r}r
-0.8193 i}i b}b u}u
-2.3575 i}i b}b á}a
-2.1811 i}i b}b í}i
-2.3575 i}i b}b ó}o|
-1.1811 i}i c|h}ch </s>
-0.5883 i}i c|h}ch a}a
-0.8888 i}i c|h}ch e}e
-0.8907 i}i c|h}ch i}i
-0.6463 i}i c|h}ch o}o
-1.3575 i}i c|h}ch t}t
-1.3575 i}i c|h}ch u}u
-1.9294 i}i c}k </s>
-0.3094 i}i c}k a}a
-0.9003 i}i c}k a}a|
-1.9642 i}i c}k c}z
-1.9642 i}i c}k k}k
-2.0020 i}i c}k l}l
-0.9228 i}i c}k o}o
-0.9163 i}i c}k o}o|
-2.1983 i}i c}k r}r
-1.3444 i}i c}k t}t
-1.6816 i}i c}k u}u
-2.9095 i}i c}k á}a
-2.7331 i}i c}k ó}o
-1.6454 i}i c}k ó}o|
-0.8401 i}i c}z e}e
-2.0318 i}i c}z e}e|
-0.0786 i}i c}z i}i
-2.0318 i}i c}z í}i
-1.9964 i}i d}d </s>
-0.3798 i}i d}d a}a
-2.1927 i}i d}d a}a|
-0.8337 i}i d}d e}e
-1.1402 i}i d}d i}i
-0.5038 i}i d}d o}o
-1.9586 i}i d}d o}o|
-2.4352 i}i d}d r}r
-2.0378 i}i d}d u}u
-2.9040 i}i d}d é}e
-2.9040 i}i d}d í}i
-2.9040 i}i d}d ó}o|
-1.4048 i}i e}e </s>
-2.6966 i}i e}e b}b
-2.3414 i}i e}e c}z
-1.8929 i}i e}e d}d
-2.8731 i}i e}e g|u}g
-1.9277 i}i e}e g}g
-2.4063 i}i e}e j}j
-1.6645 i}i e}e l}l
-1.9277 i}i e}e m}m
-0.2745 i}i e}e n}n
-1.8308 i}i e}e r|r}rr
-0.5723 i}i e}e r}r
-1.4506 i}i e}e s}s
-1.6090 i}i e}e t}t
-2.4043 i}i e}e v}b
-2.1618 i}i e}e z}z
-1.4931 i}i f}f a}a
-0.9048 i}i f}f e}e
-2.2624 i}i f}f f}f
-0.1658 i}i f}f i}i
-2.0859 i}i f}f l}l
-1.3548 i}i f}f o}o
-2.0859 i}i f}f r}r
-1.3170 i}i f}f u}u
-2.2624 i}i f}f é}e
-2.0859 i}i f}f í}i
-0.3433 i}i g|h}g t}t
-0.3163 i}i g|u}g e}e
-0.3163 i}i g|u}g i}i
-2.2845 i}i g}g </s>
-0.4271 i}i g}g a}a
-1.8157 i}i g}g l}l
-2.2845 i}i g}g m}m
-0.6190 i}i g}g n}n
-1.0033 i}i g}g o}o
-2.2845 i}i g}g o}o|
-0.9412 i}i g}g r}r
-1.0033 i}i g}g u}u
-1.8177 i}i g}g ó}o|
-0.5037 i}i g}j e}e
-0.1968 i}i g}j i}i
-1.4693 i}i g}j í}i
-0.1672 i}i h|u}u a}a
-0.4682 i}i i}i n}n
-0.2742 i}i j}j a}a
-0.8270 i}i j}j e}e
-1.0715 i}i j}j i}i
-0.7690 i}i j}j o}o
-0.8204 i}i k}k a}a
-0.6439 i}i k}k e}e
-2.0537 i}i l|l}ll </s>
-0.3010 i}i l|l}ll a}a
-0.7896 i}i l|l}ll e}e
-1.2333 i}i l|l}ll i}i
-0.6312 i}i l|l}ll o}o
-2.0537 i}i l|l}ll ó}o
-1.2778 i}i l}l </s>
-0.8307 i}i l}l a}a
-2.5420 i}i l}l a}a|
-2.0752 i}i l}l b}b
-1.7215 i}i l}l d}d
-0.8497 i}i l}l e}e
-2.5420 i}i l}l f}f
-0.4205 i}i l}l i}i
-1.5618 i}i l}l l}l
-1.5618 i}i l}l m}m
-1.2608 i}i l}l o}o
-2.5420 i}i l}l o}o|
-1.7215 i}i l}l t}t
-1.4997 i}i l}l u}u
-1.8307 i}i l}l v}b
-2.5420 i}i l}l y}i
-2.0752 i}i l}l á}a
-1.7727 i}i l}l í}i
-2.3655 i}i l}l ó}o
-2.0752 i}i l}l ó}o|
-0.0378 i}i l}l| </s>
-1.9515 i}i m}m </s>
-0.8521 i}i m}m a}a
-1.4955 i}i m}m a}a|
-1.8423 i}i m}m b}b
-1.0976 i}i m}m e}e
-0.5979 i}i m}m i}i
-0.8828 i}i m}m o}o
-1.3816 i}i m}m o}o|
-0.6176 i}i m}m p}p
-1.5925 i}i m}m u}u
-2.4863 i}i m}m á}a
-2.1311 i}i m}m ó}o
-2.1960 i}i m}m ó}o|
-1.5662 i}i n}n </s>
-0.6611 i}i n}n a}a
-3.1648 i}i n}n a}a|
-2.3955 i}i n}n c|h}ch
-1.2087 i}i n}n c}k
-1.5662 i}i n}n c}z
-1.1814 i}i n}n d}d
-1.2733 i}i n}n e}e
-1.3348 i}i n}n f}f
-2.6960 i}i n}n g|u}g
-1.5911 i}i n}n g}g
-1.8362 i}i n}n g}j
-2.6980 i}i n}n h|a}a
-2.9883 i}i n}n h|i}i
-2.6980 i}i n}n h|u}u
-1.1651 i}i n}n i}i
-2.2986 i}i n}n j}j
-2.9883 i}i n}n k}k
-3.1648 i}i n}n l}l
-1.7935 i}i n}n m}m
-2.2572 i}i n}n n}n
-1.2417 i}i n}n o}o
-3.1648 i}i n}n o}o|
-2.6331 i}i n}n q|u}k
-1.2123 i}i n}n s}s
-0.8546 i}i n}n t}t
-1.6359 i}i n}n u}u
-1.3796 i}i n}n v}b
-3.1648 i}i n}n y}y
-3.1648 i}i n}n z}z
-2.6331 i}i n}n á}a
-3.1648 i}i n}n é}e
-2.9883 i}i n}n ó}o
-2.0434 i}i n}n ó}o|
-2.4535 i}i n}n ú}u
-0.5806 i}i o}o </s>
-2.9107 i}i o}o b}b
-2.7342 i}i o}o c|h}ch
-2.4439 i}i o}o c}k
-2.0445 i}i o}o d}d
-2.7342 i}i o}o e}e
-1.5260 i}i o}o l}l
-2.4439 i}i o}o m}m
-0.3294 i}i o}o n}n
-2.7342 i}i o}o p}p
-1.5974 i}i o}o r}r
-0.7635 i}i o}o s}s
-2.0903 i}i o}o t}t
-2.9107 i}i o}o v}b
-1.5617 i}i p}p </s>
-0.4654 i}i p}p a}a
-1.2613 i}i p}p c}z
-1.5617 i}i p}p e}e
-0.9602 i}i p}p i}i
-0.9602 i}i p}p l}l
-1.0852 i}i p}p o}o
-2.0305 i}i p}p p}p
-1.8541 i}i p}p r}r
-1.5617 i}i p}p t}t
-0.9339 i}i p}p u}u
-2.0305 i}i p}p á}a
-2.0305 i}i p}p ó}o|
-0.1863 i}i q|u}k e}e
-0.5195 i}i q|u}k i}i
-0.1891 i}i r|r}rr e}e
-0.9202 i}i r|r}rr i}i
-1.0966 i}i r|r}rr u}u
-0.6869 i}i r}r </s>
-0.8615 i}i r}r a}a
-1.6258 i}i r}r c}k
-1.2502 i}i r}r e}e
-2.2293 i}i r}r g}j
-1.0591 i}i r}r i}i
-1.2389 i}i r}r l}l
-1.0665 i}i r}r m}m
-1.9269 i}i r}r n}n
-1.3986 i}i r}r o}o
-1.3528 i}i r}r s}s
-1.5512 i}i r}r t}t
-2.1644 i}i r}r u}u
-1.9269 i}i r}r v}b
-1.2736 i}i r}r á}a
-1.1578 i}i r}r á}a|
-2.5197 i}i r}r é}e|
-1.3675 i}i r}r í}i
-2.5197 i}i r}r ó}o
-2.1644 i}i r}r ó}o|
-2.5197 i}i r}r ú}u
-0.1672 i}i r}r| </s>
-0.1672 i}i s|c}z i}i
-0.1672 i}i s|h}s </s>
-1.2067 i}i s}s </s>
-1.1931 i}i s}s a}a
-2.6957 i}i s}s b}b
-1.2279 i}i s}s c}k
-2.3405 i}i s}s c}z
-2.8722 i}i s}s d}d
-1.4875 i}i s}s e}e
-1.6443 i}i s}s f}f
-2.6957 i}i s}s g}g
-2.8722 i}i s}s h|a}a
-0.9974 i}i s}s i}i
-2.6957 i}i s}s j}j
-1.5436 i}i s}s l}l
-1.0665 i}i s}s m}m
-2.4054 i}i s}s n}n
-1.4746 i}i s}s o}o
-1.3339 i}i s}s p}p
-2.8722 i}i s}s q|u}k
-1.9646 i}i s}s r}r
-2.4054 i}i s}s s}s
-0.3901 i}i s}s t}t
-2.3405 i}i s}s u}u
-2.8722 i}i s}s á}a
-2.6957 i}i s}s é}e
-2.6957 i}i s}s ó}o|
-0.0300 i}i s}s| </s>
-0.1672 i}i t|h}t </s>
-1.9330 i}i t}t </s>
-0.3852 i}i t}t a}a
-2.3324 i}i t}t a}a|
-1.0637 i}i t}t e}e
-2.3304 i}i t}t e}e|
-0.9036 i}i t}t i}i
-2.6227 i}i t}t m}m
-0.8502 i}i t}t o}o
-1.7289 i}i t}t o}o|
-1.6777 i}i t}t r}r
-2.7992 i}i t}t t}t
-0.9645 i}i t}t u}u
-2.3304 i}i t}t z}z
-1.8538 i}i t}t á}a
-2.6227 i}i t}t é}e|
-2.6227 i}i t}t í}i
-2.7992 i}i t}t í}i|
-1.7569 i}i t}t ó}o|
-2.3324 i}i t}t ú}u
-0.1672 i}i t}t| </s>
-1.3133 i}i u}u </s>
-0.4472 i}i u}u d}d
-0.4058 i}i u}u n}n
-1.3133 i}i u}u r}r
-0.3965 i}i v}b a}a
-0.9735 i}i v}b e}e
-0.7552 i}i v}b i}i
-0.5599 i}i v}b o}o
-1.7606 i}i v}b u}u
-2.5299 i}i v}b á}a
-2.5299 i}i v}b í}i
-2.5299 i}i v}b ó}o|
-0.1672 i}i w}u a}a
-0.8662 i}i x}x </s>
-0.3994 i}i x}x i}i
-0.6897 i}i x}x t}t
-0.4679 i}i z}s a}a
-1.5705 i}i z}z </s>
-0.0764 i}i z}z a}a
-2.2602 i}i z}z c}k
-2.4367 i}i z}z e}e
-1.3401 i}i z}z o}o
-1.9699 i}i z}z q|u}k
-2.4367 i}i z}z á}a
-1.3153 i}i z}z ó}o|
-1.0123 i}i á}a l}l
-0.5435 i}i á}a n}n|
-0.5455 i}i á}a t}t
-1.2918 i}i é}e l}l
-0.2218 i}i é}e n}n
-0.9995 i}i é}e n}n|
-0.9995 i}i é}e r}r
-1.4682 i}i é}e t}t
-0.0014 i}i é}e| </s>
-0.1672 i}i í}i s}s
-1.0703 i}i ñ}gn a}a
-1.0703 i}i ñ}gn a}a|
-0.8938 i}i ñ}gn e}e
-0.6015 i}i ñ}gn o}o
-0.8938 i}i ñ}gn o}o|
-2.6479 i}i ó}o </s>
-2.6479 i}i ó}o c}z
-2.4715 i}i ó}o d}d
-2.4715 i}i ó}o n}n
-0.0131 i}i ó}o n}n|
-2.1811 i}i ó}o t}t
-0.0024 i}i ó}o| </s>
-0.8001 j}j a}a </s>
-1.2772 j}j a}a b}b
-1.6082 j}j a}a c}k
-1.8507 j}j a}a c}z
-0.8405 j}j a}a d}d
-2.3195 j}j a}a i}i
-1.5502 j}j a}a l}l
-1.3394 j}j a}a m}m
-0.8405 j}j a}a n}n
-1.7878 j}j a}a p}p
-0.6338 j}j a}a r}r
-1.0916 j}j a}a s}s
-2.3195 j}j a}a v}b
-2.3195 j}j a}a w}u
-0.6839 j}j e}e </s>
-1.9864 j}j e}e a}a
-2.1628 j}j e}e b}b
-1.2553 j}j e}e c}k
-2.1628 j}j e}e c}z
-1.6941 j}j e}e d}d
-2.1628 j}j e}e e}e
-1.3936 j}j e}e f}f
-1.3936 j}j e}e m}m
-1.2967 j}j e}e n}n
-2.1628 j}j e}e o}o
-0.5643 j}j e}e r}r
-0.9349 j}j e}e s}s
-0.9542 j}j e}e t}t
-2.1628 j}j e}e v}b
-1.3847 j}j i}i </s>
-1.3847 j}j i}i c}k
-0.8530 j}j i}i d}d
-0.8530 j}j i}i m}m
-1.2082 j}j i}i n}n
-1.2082 j}j i}i r}r
-0.1668 j}j o|h}o n}n
-0.4838 j}j o}o </s>
-1.9834 j}j o}o a}a
-1.9834 j}j o}o e}e
-1.9834 j}j o}o h|a}a
-1.8070 j}j o}o l}l
-1.1173 j}j o}o n}n
-0.7193 j}j o}o r}r
-0.5858 j}j o}o s}s
-1.5167 j}j o}o v}b
-1.5520 j}j u}u a}a
-1.6149 j}j u}u b}b
-0.9165 j}j u}u d}d
-1.0714 j}j u}u e}e
-0.9387 j}j u}u g}g
-1.1383 j}j u}u i}i
-1.6149 j}j u}u l}l
-0.8953 j}j u}u n}n
-0.9165 j}j u}u r}r
-0.8195 j}j u}u s}s
-1.6149 j}j u}u v}b
-1.3724 j}j u}u z}z
-0.3433 j}j á}a n}n
-0.1668 j}j é}e r}r
-0.4682 j}j í}i a}a|
-0.2918 j}j ó}o n}n|
-0.0414 j}j ó}o| </s>
-0.1668 k|h}k m}m e}e
-0.7618 k}k a}a </s>
-1.1134 k}k a}a b}b
-1.5822 k}k a}a d}d
-1.5822 k}k a}a i}i
-1.5822 k}k a}a l}l
-1.0505 k}k a}a n}n
-1.0505 k}k a}a r}r
-1.5822 k}k a}a s}s
-1.0505 k}k a}a t}t
-0.8765 k}k e}e </s>
-1.1668 k}k e}e e}e
-1.3433 k}k e}e i}i
-1.3433 k}k e}e l}l
-0.8745 k}k e}e n}n
-0.6320 k}k e}e r}r
-0.5260 k}k i}i </s>
-1.3618 k}k i}i e}e
-0.8270 k}k i}i l}l
-1.5383 k}k i}i m}m
-0.5929 k}k i}i n}n
-1.0695 k}k i}i s}s
-0.2445 k}k l}l a}a
-0.7113 k}k l}l i}i
-0.6527 k}k o}o </s>
-1.1214 k}k o}o n}n
-0.6547 k}k o}o v}b
-0.3433 k}k r}r a}a
-0.4682 k}k s}s o}o
-1.0123 k}k u}u o}o
-0.8358 k}k u}u r}r
-1.0123 k}k u}u w}u
-0.0378 k}k y}i </s>
-0.1672 l|l}ll a|h}a </s>
-0.5690 l|l}ll a}a </s>
-1.7298 l|l}ll a}a b}b
-0.9522 l|l}ll a}a d}d
-0.9522 l|l}ll a}a m}m
-0.9175 l|l}ll a}a n}n
-2.0221 l|l}ll a}a r|r}rr
-0.9345 l|l}ll a}a r}r
-0.7761 l|l}ll a}a s}s
-2.1986 l|l}ll a}a z}z
-1.0638 l|l}ll e}e </s>
-1.1430 l|l}ll e}e c}z
-1.5424 l|l}ll e}e g|u}g
-0.8006 l|l}ll e}e g}g
-1.4775 l|l}ll e}e j}j
-1.1016 l|l}ll e}e n}n
-0.7280 l|l}ll e}e r}r
-1.4775 l|l}ll e}e s}s
-1.5404 l|l}ll e}e t}t
-0.6517 l|l}ll e}e v}b
-2.0092 l|l}ll e}e z}z
-2.0092 l|l}ll e}e z}z|
-1.2279 l|l}ll i}i a}a
-0.7591 l|l}ll i}i d}d
-1.2279 l|l}ll i}i e}e
-0.6962 l|l}ll i}i n}n
-1.2279 l|l}ll i}i s}s
-0.7611 l|l}ll i}i t}t
-0.2835 l|l}ll o}o </s>
-0.8633 l|l}ll o}o n}n
-1.7295 l|l}ll o}o r}r
-0.5846 l|l}ll o}o s}s
-1.7295 l|l}ll o}o v}b
-0.2918 l|l}ll s}s </s>
-0.7113 l|l}ll u}u e}e
-0.5348 l|l}ll u}u v}b
-0.1755 l|l}ll y}i </s>
-0.3433 l|l}ll á}a n}n|
-0.3433 l|l}ll ó}o n}n|
-0.1126 l|l}ll ó}o| </s>
-0.5651 l}l _}e </s>
-0.5651 l}l _}e _}e
-0.9332 l}l a}a </s>
-1.3111 l}l a}a b}b
-1.8247 l}l a}a c}k
-1.3181 l}l a}a c}z
-0.8966 l}l a}a d}d
-2.9696 l}l a}a f}f
-1.8247 l}l a}a g}g
-2.9696 l}l a}a g}j
-2.5029 l}l a}a i}i
-2.4379 l}l a}a j}j
-2.9696 l}l a}a l}l
-1.2004 l}l a}a m}m
-0.7917 l}l a}a n}n
-2.1035 l}l a}a p}p
-2.9696 l}l a}a q|u}k
-2.5029 l}l a}a r|r}rr
-0.7361 l}l a}a r}r
-2.9696 l}l a}a r}r|
-1.2342 l}l a}a s}s
-2.0243 l}l a}a s}s|
-1.2973 l}l a}a t}t
-1.8993 l}l a}a u}u
-1.6563 l}l a}a v}b
-2.9696 l}l a}a w}u
-2.7932 l}l a}a x}x
-2.7932 l}l a}a y}i
-2.5029 l}l a}a y}y
-1.5983 l}l a}a z}z
-0.0147 l}l a}a| </s>
-0.8288 l}l b}b a}a
-0.3174 l}l b}b e}e
-0.8308 l}l b}b o}o
-1.2975 l}l b}b u}u
-0.6443 l}l c|h}ch e}e
-0.4679 l}l c|h}ch o}o
-0.3658 l}l c}k a}a
-1.6791 l}l c}k l}l
-0.6990 l}l c}k o}o
-0.6990 l}l c}k u}u
-1.2103 l}l c}k á}a
-0.6443 l}l c}z e}e
-0.1775 l}l c}z i}i
-0.9294 l}l d}d </s>
-0.5172 l}l d}d a}a
-0.7533 l}l d}d e}e
-1.4060 l}l d}d i}i
-0.7076 l}l d}d o}o
-1.4060 l}l d}d r}r
-1.6983 l}l d}d s}s
-1.8748 l}l d}d í}i
-0.8396 l}l e}e </s>
-1.4119 l}l e}e a}a
-1.7219 l}l e}e b}b
-2.9683 l}l e}e c|h}ch
-1.4208 l}l e}e c}k
-1.5580 l}l e}e c}z
-2.2570 l}l e}e d}d
-2.5015 l}l e}e e}e
-2.1990 l}l e}e f}f
-1.4031 l}l e}e g}g
-1.5969 l}l e}e g}j
-2.0607 l}l e}e i}i
-1.5969 l}l e}e j}j
-2.4995 l}l e}e l}l
-1.3168 l}l e}e m}m
-1.1576 l}l e}e n}n
-1.7799 l}l e}e o}o
-2.7918 l}l e}e o}o|
-2.7918 l}l e}e p}p
-1.3312 l}l e}e r}r
-2.7918 l}l e}e s|c}z
-0.5494 l}l e}e s}s
-1.6397 l}l e}e s}s|
-1.4788 l}l e}e t}t
-1.4489 l}l e}e v}b
-1.9260 l}l e}e x}x
-2.1478 l}l e}e y}i
-2.4366 l}l e}e y}y
-2.1021 l}l e}e z}z
-2.4366 l}l e}e í}i
-2.1021 l}l e}e ñ}gn
-2.7918 l}l e}e ó}o
-0.0147 l}l e}e| </s>
-0.7973 l}l f}f </s>
-0.5528 l}l f}f a}a
-1.0876 l}l f}f i}i
-0.4437 l}l f}f o}o
-1.2641 l}l f}f r}r
-0.6443 l}l g|u}g i}i
-0.4679 l}l g|u}g í}i
-0.1576 l}l g}g a}a
-1.0621 l}l g}g o}o
-1.0621 l}l g}g u}u
-1.5289 l}l g}g ó}o|
-0.6443 l}l g}j e}e
-0.1775 l}l g}j i}i
-1.9128 l}l i}i </s>
-1.2563 l}l i}i a}a
-1.2628 l}l i}i b}b
-0.9954 l}l i}i c}k
-1.2255 l}l i}i c}z
-0.9650 l}l i}i d}d
-1.5448 l}l i}i e}e
-1.6909 l}l i}i f}f
-1.4978 l}l i}i g}g
-1.6909 l}l i}i g}j
-2.7786 l}l i}i j}j
-2.9550 l}l i}i l}l
-1.2196 l}l i}i m}m
-1.1111 l}l i}i n}n
-1.6264 l}l i}i o}o
-2.1858 l}l i}i p}p
-2.1858 l}l i}i q|u}k
-2.1858 l}l i}i r}r
-2.9550 l}l i}i s|h}s
-1.2138 l}l i}i s}s
-1.1021 l}l i}i t}t
-1.7878 l}l i}i v}b
-2.9550 l}l i}i x}x
-2.7786 l}l i}i z}s
-0.8217 l}l i}i z}z
-2.4862 l}l i}i ó}o|
-0.5348 l}l j}j a}a
-0.7113 l}l k}k i}i
-0.5455 l}l l}l a}a
-0.5455 l}l l}l e}e
-0.5455 l}l l}l o}o
-1.9997 l}l m}m </s>
-0.7718 l}l m}m a}a
-0.2702 l}l m}m e}e
-0.9031 l}l m}m i}i
-1.1335 l}l m}m o}o
-1.9997 l}l m}m s}s
-1.8232 l}l m}m u}u
-1.9997 l}l m}m ó}o
-1.9997 l}l m}m ó}o|
-0.7113 l}l n}n </s>
-0.2445 l}l n}n e}e
-0.6086 l}l o}o </s>
-2.1811 l}l o}o a}a
-1.7818 l}l o}o b}b
-1.1907 l}l o}o c}k
-2.6479 l}l o}o c}z
-2.4715 l}l o}o d}d
-2.6479 l}l o}o e}e
-2.4715 l}l o}o f}f
-1.1690 l}l o}o g}g
-1.3838 l}l o}o g}j
-1.8275 l}l o}o j}j
-2.6479 l}l o}o l}l
-1.4015 l}l o}o m}m
-1.1483 l}l o}o n}n
