
\data\
ngram 1=154
ngram 2=1585
ngram 3=8483


\1-grams:
-2.7229 '|s}s -0.7167
-1.2315 </s> 0.0000
-99.0000 <s> -2.6406
-3.2000 ]}a -0.2396
-2.2969 _|a}a -0.4437
-2.7229 _|b}b -0.5406
-2.5011 _|c}k -0.6375
-2.8990 _|c}z -0.5406
-2.7229 _|d}d -0.7167
-2.8990 _|e}e -0.2396
-2.8990 _|f}f -0.2396
-3.2000 _|g}j -0.2396
-2.7229 _|i}i -0.3365
-2.8990 _|k}k -0.5406
-3.2000 _|n}n -0.2396
-2.8990 _|o}o -0.2976
-2.5011 _|p}p -0.6375
-2.7229 _|t}t -0.5406
-3.2000 _|u}u -0.2396
-3.2000 _|v}b -0.2396
-3.2000 _|y}i -0.2396
-3.2000 _|z}z -0.2396
-2.5980 _}a -0.4614
-2.8990 _}b|l -0.5406
-3.2000 _}d|o -0.2396
-1.7087 _}e -0.8947
-3.2000 _}e|k -0.2396
-3.2000 _}e|z -0.2396
-2.8990 _}j|o -0.5406
-2.8990 _}t|a -0.2396
-3.2000 _}t|e -0.2396
-2.4219 a|h}a -0.5406
-2.7229 a|q}a -0.4157
-1.5768 a}a -1.2947
-1.8990 a}a| -1.5406
-1.6815 b}b -0.9086
-2.0539 c|h}ch -0.9047
-1.7229 c}k -1.0030
-2.5980 c}k| -0.8416
-2.7229 c}s -0.2396
-2.8990 c}s|z -0.5406
-1.8576 c}z -1.0923
-3.2000 d|h}d -0.2396
-3.2000 d|z}z -0.2396
-1.7529 d}d -0.9100
-2.5011 d}d| -0.9385
-2.7229 e|h}e -0.2396
-1.5373 e}e -1.2360
-1.9696 e}e| -1.4700
-3.2000 e}i|s -0.2396
-1.7687 f}f -0.9416
-2.4219 g|h}g -0.6075
-2.1208 g|u}g -0.9556
-3.2000 g|ü}g -0.2396
-1.8198 g}g -0.9043
-1.8778 g}j -1.1938
-1.9696 h|a}a -0.6375
-2.0539 h|e}e -0.6628
-2.0239 h|i}i -0.5894
-2.1208 h|o}o -0.4971
-3.2000 h|r}r -0.2396
-2.2458 h|u}u -0.4504
-3.2000 h|y}i -0.2396
-3.2000 h|y}y -0.2396
-3.2000 h|á}a -0.2396
-2.8990 h|é}e -0.2396
-2.5980 h|í}i -0.2396
-3.2000 h|ú}u -0.2396
-3.2000 h}a|ch -0.2396
-3.2000 h}ch|e -0.2396
-3.2000 i|q}i -0.2396
-1.5468 i}i -1.2763
-2.8990 i}i| -0.5406
-3.2000 j|ü}j -0.2396
-1.9448 j}j -0.8312
-3.2000 j}t|a -0.2396
-3.2000 j}y -0.2396
-2.5980 k|h}k -0.3645
-1.8990 k}k -0.9070
-2.1208 l|l}ll -0.8015
-1.6202 l}l -1.0444
-2.2000 l}l| -1.2396
-2.8990 m|h}m -0.2396
-1.6202 m}m -1.0980
-2.7229 m}m| -0.7167
-2.8990 n|h}n -0.5406
-1.6090 n}n -1.0468
-2.2000 n}n| -1.2396
-3.2000 o|'}o -0.2396
-2.5980 o|h}o -0.2396
-3.2000 o|q}o -0.2396
-3.2000 o|ã}o -0.2396
-1.6318 o}o -1.2396
-2.0239 o}o| -1.4157
-2.7229 p|h}p -0.4157
-1.8198 p}p -0.9947
-3.2000 q|a}a -0.2396
-3.2000 q|i}i -0.2396
-1.9696 q|u}k -1.0379
-2.7229 q}k -0.7167
-2.8990 q}k|u -0.5406
-2.1586 r|r}rr -0.8416
-1.6560 r}r -1.0455
-2.8990 r}rr -0.4700
-2.5011 r}r| -0.9385
-2.5980 s|c}z -0.6075
-2.5980 s|h}s -0.6375
-1.5980 s}s -1.1075
-2.1208 s}s| -1.3187
-2.7229 s}z -0.2396
-2.4219 t|h}t -0.7167
-3.2000 t}d|o -0.2396
-1.5872 t}t -1.0554
-2.8990 t}t| -0.5406
-2.8990 u|h}u -0.2396
-1.6437 u}u -1.2021
-2.8990 u}u| -0.5406
-1.8198 v}b -0.9540
-1.9213 w}u -0.7262
-3.2000 x|_}k -0.2396
-3.2000 x}i|s -0.2396
-2.7229 x}j -0.3645
-2.1208 x}x -0.5576
-2.7229 x}x| -0.7167
-1.7851 y}i -0.7989
-3.2000 y}i| -0.2396
-1.8990 y}y -1.0267
-3.2000 z|_}e -0.2396
-3.2000 z|h}z -0.2396
-3.2000 z|z}s -0.2396
-2.2969 z}s -0.5754
-3.2000 z}s| -0.2396
-3.2000 z}t -0.2396
-1.8990 z}z -0.7877
-2.3549 z}z| -1.0847
-3.2000 Á}a -0.2396
-3.2000 É}e -0.2396
-3.2000 Í}i -0.2396
-3.2000 Ó}o -0.2396
-3.2000 Ú}u -0.2396
-1.7229 á}a -0.9464
-2.0539 á}a| -1.3857
-1.7687 é}e -0.8863
-1.8990 é}e| -1.5406
-3.2000 ë}e -0.2396
-1.6949 í}i -1.0449
-1.9959 í}i| -1.4437
-2.2969 ñ}gn -0.6955
-3.2000 ñ}gn| -0.2396
-1.8021 ó}o -0.9850
-1.8198 ó}o| -1.6198
-1.8778 ú}u -0.6867
-2.3549 ú}u| -1.0847
-3.2000 ü}u -0.2396

\2-grams:
-0.0866 '|s}s </s> 0.0000
-4.6957 <s> ]}a -0.2556
-3.4165 <s> _|a}a -0.3068
-3.9536 <s> _|b}b -0.7327
-4.1546 <s> _|c}k -0.5566
-3.2588 <s> _|c}z -1.3695
-3.7000 <s> _|d}d -0.9546
-3.6158 <s> _|e}e -0.3348
-4.6657 <s> _|f}f -0.2556
-4.1920 <s> _|g}j -0.5566
-3.9536 <s> _|i}i -0.2556
-4.6657 <s> _|k}k -0.2556
-3.6158 <s> _|o}o -0.4317
-3.4215 <s> _|p}p -1.2098
-3.9536 <s> _|t}t -0.7327
-3.9650 <s> _|u}u -0.4317
-3.9650 <s> _|v}b -0.7327
-4.6957 <s> _|y}i -0.2556
-4.6112 <s> _}a -0.2556
-4.6957 <s> _}d|o -0.2556
-3.1138 <s> _}e -0.7079
-4.6957 <s> _}e|k -0.2556
-4.6957 <s> _}e|z -0.2556
-4.6657 <s> _}j|o -0.2556
-4.6957 <s> _}t|e -0.2556
-3.9370 <s> a|h}a -0.2556
-0.9681 <s> a}a -1.9992
-1.5529 <s> b}b -1.9437
-2.3224 <s> c|h}ch -1.3859
-0.9779 <s> c}k -2.6329
-1.9126 <s> c}z -2.0960
-1.1139 <s> d}d -2.3208
-4.6376 <s> e|h}e -0.2556
-1.1198 <s> e}e -2.0285
-1.4948 <s> f}f -1.9398
-2.9434 <s> g|u}g -1.1935
-1.7964 <s> g}g -1.8143
-2.3548 <s> g}j -1.7785
-2.1540 <s> h|a}a -1.1560
-2.5110 <s> h|e}e -0.9246
-2.5298 <s> h|i}i -0.9056
-2.3830 <s> h|o}o -0.9735
-2.5058 <s> h|u}u -0.9929
-4.6957 <s> h|y}y -0.2556
-3.9650 <s> h|á}a -0.4317
-3.9592 <s> h|é}e -0.4317
-4.6112 <s> h|í}i -0.2556
-4.1920 <s> h|ú}u -0.2556
-1.2883 <s> i}i -1.9799
-4.6957 <s> j|ü}j -0.2556
-1.9715 <s> j}j -1.5980
-4.6957 <s> j}y -0.2556
-4.1636 <s> k|h}k -0.5566
-2.4798 <s> k}k -1.0515
-2.3649 <s> l|l}ll -1.6448
-1.6129 <s> l}l -1.9561
-4.6657 <s> m|h}m -0.2556
-1.2652 <s> m}m -2.0902
-1.7471 <s> n}n -1.7839
-4.1920 <s> o|'}o -0.2556
-4.6112 <s> o|h}o -0.2556
-1.6338 <s> o}o -1.5294
-4.6376 <s> p|h}p -0.2556
-1.0259 <s> p}p -2.3297
-3.9650 <s> q|a}a -0.4317
-4.1920 <s> q|i}i -0.2556
-2.2250 <s> q|u}k -1.5408
-4.6376 <s> q}k -0.2556
-4.6657 <s> q}k|u -0.2556
-1.1612 <s> r}rr -2.4498
-1.1934 <s> s}s -2.0023
-1.3988 <s> t}t -1.9330
-4.6657 <s> u|h}u -0.2556
-2.1496 <s> u}u -1.2836
-1.5246 <s> v}b -2.0070
-2.6828 <s> w}u -1.0826
-3.5907 <s> x}x -0.4317
-3.8402 <s> y}i -0.4317
-2.7524 <s> y}y -1.0795
-2.6734 <s> z}z -0.9368
-3.4281 <s> Á}a -0.5109
-3.4828 <s> É}e -0.8577
-4.1920 <s> Í}i -0.5566
-4.6957 <s> Ó}o -0.2556
-3.9650 <s> Ú}u -0.4317
-3.1146 <s> á}a -0.7871
-2.9352 <s> é}e -0.7163
-3.4274 <s> í}i -0.8577
-4.5192 <s> ñ}gn -0.2556
-3.4393 <s> ó}o -0.5566
-3.2058 <s> ú}u -0.9246
-0.3393 ]}a </s> 0.0000
-0.3740 _|a}a </s> 0.0000
-1.5657 _|a}a _|b}b -0.2556
-1.5585 _|a}a _|c}k -0.2556
-1.5657 _|a}a _|d}d -0.2556
-1.5694 _|a}a _|f}f -0.2556
-1.5657 _|a}a _|i}i -0.2556
-1.5694 _|a}a _|k}k -0.5566
-1.5585 _|a}a _|p}p -0.2556
-1.5731 _|a}a _|z}z -0.2556
-1.5621 _|a}a _}a -0.2556
-0.9688 _|b}b _|a}a -0.2556
-0.2135 _|b}b _}e -0.3525
-0.5437 _|c}k _|a}a -0.2556
-0.3142 _|c}k _|o}o -0.2556
-0.1441 _|c}z _}e -0.4475
-0.0906 _|d}d _}e -0.4017
-0.9810 _|e}e </s> 0.0000
-1.1333 _|e}e _|a}a -0.2556
-1.1398 _|e}e _|c}k -0.2556
-1.1398 _|e}e _|p}p -0.2556
-1.1442 _|e}e _|t}t -0.2556
-1.0866 _|e}e _}e -0.2556
-0.6094 _|f}f </s> 0.0000
-0.6715 _|f}f _|i}i -0.2556
-0.3613 _|g}j _}e -0.2556
-0.5441 _|i}i _|b}b -0.2556
-1.0642 _|i}i _|p}p -0.2556
-1.0672 _|i}i _|t}t -0.2556
-1.0278 _|i}i _}e -0.2556
-0.1471 _|k}k _}a -0.4317
-0.3708 _|n}n _|c}k -0.2556
-0.6828 _|o}o </s> 0.0000
-1.2629 _|o}o _|c}k -0.2556
-1.2706 _|o}o _|c}z -0.2556
-1.2706 _|o}o _|e}e -0.2556
-1.2731 _|o}o _|n}n -0.2556
-1.2629 _|o}o _|p}p -0.2556
-1.2017 _|o}o _}e -0.4317
-1.0657 _|p}p _|a}a -0.2556
-0.1616 _|p}p _}e -0.4897
-0.9688 _|t}t _|a}a -0.2556
-0.2135 _|t}t _}e -0.3525
-0.6094 _|u}u </s> 0.0000
-0.6512 _|u}u _}e -0.2556
-0.3613 _|v}b _}e -0.4317
-0.3393 _|y}i </s> 0.0000
-0.3613 _|z}z _}e -0.2556
-0.9785 _}a </s> 0.0000
-1.0383 _}a _}e -0.2556
-0.3142 _}a h}ch|e -0.7327
-0.1441 _}b|l _}e -0.5566
-0.3719 _}d|o _}b|l -0.2556
-0.7253 _}e </s> 0.0000
-0.8302 _}e _}e -1.0089
-1.8941 _}e _}j|o -0.5566
-2.4075 _}e _}t|a -0.2556
-1.3713 _}e a}a -0.9546
-1.4821 _}e b}b -0.9546
-1.1709 _}e c}z -1.2098
-1.4874 _}e d}d -1.0338
-1.7878 _}e e}e -0.5566
-1.8305 _}e f}f -0.8577
-1.6356 _}e g}j -0.8577
-1.6669 _}e h}a|ch -0.7327
-1.2185 _}e i}i -0.5566
-1.8053 _}e l}l -0.8577
-1.4768 _}e m}m -1.3695
-1.4758 _}e n}n -1.4317
-1.3864 _}e p}p -1.0338
-2.4075 _}e q}k|u -0.2556
-1.6150 _}e r}r -1.3348
-1.6079 _}e s}s -1.2556
-1.2208 _}e t}t -1.1007
-2.1774 _}e u}u -0.2556
-1.8377 _}e v}b -0.5566
-2.2774 _}e w}u -0.2556
-2.4165 _}e x|_}k -0.2556
-0.3723 _}e|k x}i|s -0.2556
-0.3559 _}e|z e}e -0.2556
-0.1474 _}j|o j}t|a -0.7327
-0.6442 _}t|a t}t -0.2556
-0.6729 _}t|a z|_}e -0.2556
-0.3723 _}t|e t}d|o -0.2556
-0.3517 a|h}a </s> 0.0000
-1.2226 a|h}a m}m -0.2556
-0.7343 a|h}a r}r -0.2556
-1.2525 a|h}a í}i| -0.2556
-0.3035 a|q}a </s> 0.0000
-0.8210 a|q}a s}s -0.2556
-1.3227 a}a </s> 0.0000
-2.0773 a}a a}a -0.3647
-1.4524 a}a b}b -1.7602
-1.7182 a}a c|h}ch -0.9088
-1.4227 a}a c}k -1.7486
-3.1693 a}a c}k| -0.2556
-2.7121 a}a c}s -0.2556
-1.4732 a}a c}z -2.4067
-3.2357 a}a d|z}z -0.2556
-1.4387 a}a d}d -2.2204
-3.1492 a}a d}d| -0.2556
-1.7886 a}a e}e -1.0338
-1.7387 a}a f}f -1.1587
-3.1300 a}a g|h}g -0.2556
-2.1302 a}a g|u}g -0.8924
-3.2357 a}a g|ü}g -0.2556
-1.5071 a}a g}g -1.4349
-1.7433 a}a g}j -1.4170
-2.1209 a}a h|a}a -0.5566
-2.2091 a}a h|e}e -0.4774
-2.4413 a}a h|i}i -0.4317
-2.2136 a}a h|o}o -0.7785
-1.9508 a}a h|u}u -0.6078
-3.1693 a}a h|í}i -0.2556
-1.5347 a}a i}i -0.9812
-1.6119 a}a j}j -1.4317
-3.1693 a}a k|h}k -0.2556
-1.7764 a}a k}k -0.7785
-1.8187 a}a l|l}ll -1.1148
-1.4198 a}a l}l -1.8587
-2.6646 a}a l}l| -0.5566
-1.4053 a}a m}m -1.9310
-3.2124 a}a n|h}n -0.2556
-1.3267 a}a n}n -2.1704
-2.1339 a}a n}n| -2.3594
-1.7625 a}a o}o -0.5566
-1.5650 a}a p}p -1.6195
-1.6877 a}a q|u}k -1.2970
-3.1903 a}a q}k -0.2556
-1.6159 a}a r|r}rr -1.4158
-1.4063 a}a r}r -2.1890
-2.0098 a}a r}r| -1.4597
-2.4857 a}a s|c}z -0.7327
-2.7050 a}a s|h}s -0.2556
-1.3769 a}a s}s -2.0412
-1.6911 a}a s}s| -2.5921
-3.1903 a}a s}z -0.5566
-3.1300 a}a t|h}t -0.2556
-1.4187 a}a t}t -1.7934
-3.2124 a}a u|h}u -0.2556
-1.6248 a}a u}u -1.4300
-1.5650 a}a v}b -1.5048
-2.2973 a}a w}u -0.4017
-3.1903 a}a x}j -0.2556
-2.1302 a}a x}x -0.7608
-2.7121 a}a x}x| -0.5566
-1.8060 a}a y}i -0.7722
-1.7139 a}a y}y -1.3393
-3.2357 a}a z|z}s -0.2556
-2.4690 a}a z}s -0.4317
-3.2357 a}a z}t -0.2556
-1.5468 a}a z}z -1.2073
-3.1117 a}a z}z| -0.2556
-2.5672 a}a é}e -0.6535
-2.0942 a}a í}i -0.6816
-1.7226 a}a ñ}gn -1.2592
-2.8698 a}a ó}o -0.2556
-2.1936 a}a ú}u -0.3225
-0.0119 a}a| </s> 0.0000
-1.3712 b}b </s> 0.0000
-2.3239 b}b _}e -0.3525
-2.5533 b}b a|h}a -0.2556
-0.8980 b}b a}a -1.6264
-2.0277 b}b a}a| -0.8577
-1.9832 b}b b}b -0.3805
-1.9931 b}b c}k -0.4774
-2.3933 b}b c}z -0.5566
-1.9998 b}b d}d -0.5566
-1.0030 b}b e}e -1.4071
-2.0387 b}b e}e| -0.5566
-2.3534 b}b f}f -0.2556
-2.5185 b}b h|u}u -0.2556
-1.0280 b}b i}i -1.4204
-2.4281 b}b j}j -1.2098
-2.4104 b}b k}k -0.2556
-1.1822 b}b l}l -1.8107
-2.2766 b}b m}m -0.6535
-2.2703 b}b n}n -0.2556
-1.0574 b}b o}o -1.2507
-2.3769 b}b p}p -0.8577
-1.1488 b}b r}r -1.7705
-2.5782 b}b s|c}z -0.5566
-1.7843 b}b s}s -1.2430
-1.9579 b}b t}t -0.9246
-1.2213 b}b u}u -1.1282
-2.0135 b}b v}b -0.9960
-2.4192 b}b w}u -0.2556
-1.6811 b}b y}i -0.8577
-2.4104 b}b y}y -0.2556
-1.6747 b}b á}a -0.6236
-1.5782 b}b é}e -0.3647
-2.4104 b}b é}e| -0.2556
-1.4909 b}b í}i -0.8296
-2.4467 b}b í}i| -0.2556
-1.6828 b}b ó}o -0.9088
-1.6844 b}b ó}o| -1.2556
-1.6893 b}b ú}u -0.2556
-2.0773 b}b ú}u| -0.5566
-1.0936 c|h}ch </s> 0.0000
-0.8411 c|h}ch a}a -1.1560
-0.8014 c|h}ch e}e -0.9282
-0.8404 c|h}ch i}i -0.7622
-2.0597 c|h}ch l}l -0.2556
-0.8423 c|h}ch o}o -1.0515
-1.6577 c|h}ch r}r -0.5566
-1.6485 c|h}ch t}t -0.4317
-1.2033 c|h}ch u}u -0.5344
-2.1413 c|h}ch w}u -0.2556
-2.0922 c|h}ch á}a -0.2556
-1.6816 c|h}ch é}e| -0.5566
-1.6624 c|h}ch í}i -0.6535
-1.6735 c|h}ch ó}o -0.5566
-1.3174 c|h}ch ó}o| -1.1587
-2.1320 c|h}ch ú}u -0.2556
-1.2219 c}k </s> 0.0000
-0.9421 c}k a}a -1.9651
-1.8186 c}k a}a| -2.4048
-1.9972 c}k c}k -0.2556
-1.5718 c}k c}z -2.0374
-2.3777 c}k d}d -0.4317
-2.4257 c}k g}j -0.2556
-2.4964 c}k h|o}o -0.2556
-1.6792 c}k k}k -0.7505
-1.0692 c}k l}l -1.6458
-2.3172 c}k m}m -0.2556
-1.7858 c}k n}n -1.0338
-2.5707 c}k o|h}o -0.2556
-0.8821 c}k o}o -1.9911
-1.4933 c}k o}o| -2.4109
-2.4557 c}k q|u}k -0.2556
-2.5809 c}k q}k -0.2556
-1.2491 c}k r}r -1.6870
-1.9710 c}k s}s -0.2556
-1.1309 c}k t}t -1.8426
-1.0148 c}k u}u -1.7539
-2.4045 c}k v}b -0.2556
-2.0082 c}k y}i -0.5566
-2.4330 c}k z}z -0.2556
-1.2985 c}k á}a -1.0153
-2.4797 c}k á}a| -0.2556
-1.3543 c}k ó}o -0.7327
-1.4154 c}k ó}o| -1.8684
-1.6779 c}k ú}u -0.3805
-2.5413 c}k ú}u| -0.2556
-0.0633 c}k| </s> 0.0000
-0.9111 c}s e}e -0.2556
-0.9124 c}s i}i -0.2556
-0.9322 c}s á}a -0.2556
-0.9445 c}s ú}u -0.2556
-0.1426 c}s|z i}i -0.7327
-2.0448 c}z _}e -0.6078
-0.5114 c}z e}e -1.7787
-2.0806 c}z e}e| -0.8577
-0.5370 c}z i}i -2.1347
-1.1024 c}z é}e -0.5566
-1.5850 c}z é}e| -0.5566
-0.8256 c}z í}i -1.0338
-1.2155 c}z í}i| -0.9546
-0.3393 d|h}d </s> 0.0000
-0.3562 d|z}z i}i -0.2556
-2.6400 d}d '|s}s -0.2556
-1.2029 d}d </s> 0.0000
-2.3502 d}d _}e -0.4317
-2.6400 d}d a|q}a -0.2556
-1.0563 d}d a}a -2.0245
-1.6377 d}d a}a| -1.5980
-2.0235 d}d b}b -0.2556
-1.8509 d}d c}k -0.5566
-2.6704 d}d d|h}d -0.2556
-1.7260 d}d d}d -0.3348
-1.0794 d}d e}e -1.9529
-2.0845 d}d e}e| -0.7327
-2.3815 d}d f}f -0.2556
-2.4066 d}d g}g -0.2556
-2.0684 d}d g}j -0.5566
-2.0845 d}d h|a}a -0.2556
-2.5024 d}d h|e}e -0.5566
-1.0798 d}d i}i -1.8724
-1.8806 d}d j}j -0.6078
-2.4424 d}d k}k -0.2556
-2.3003 d}d l}l -0.2556
-2.0060 d}d m}m -1.4731
-1.7067 d}d n}n -0.4774
-1.1373 d}d o}o -2.2197
-1.5608 d}d o}o| -1.9368
-2.4714 d}d q|u}k -1.1587
-1.3604 d}d r}r -1.3634
-1.6094 d}d s}s -0.6358
-1.9959 d}d t}t -0.7327
-1.2725 d}d u}u -1.2663
-2.4066 d}d v}b -1.1587
-1.8781 d}d w}u -0.4317
-1.6290 d}d y}i -0.7997
-2.4424 d}d y}y -0.2556
-2.4424 d}d z}z -0.2556
-1.5427 d}d á}a -0.6078
-2.5024 d}d á}a| -0.2556
-1.5463 d}d é}e -0.6816
-1.8755 d}d é}e| -0.7327
-1.3627 d}d í}i -1.0685
-1.7480 d}d í}i| -0.8577
-1.5487 d}d ó}o -0.5980
-1.4809 d}d ó}o| -1.5980
-2.0684 d}d ú}u -0.2556
-0.0499 d}d| </s> 0.0000
-0.7567 e|h}e </s> 0.0000
-0.8144 e|h}e b}b -0.2556
-0.8062 e|h}e t}t -0.2556
-1.3297 e}e </s> 0.0000
-3.1812 e}e _}t|a -0.2556
-1.5689 e}e a}a -1.4885
-2.1647 e}e a}a| -1.3348
-1.5742 e}e b}b -1.3413
-1.8265 e}e c|h}ch -1.3399
-1.5130 e}e c}k -1.8282
-3.1354 e}e c}k| -0.2556
-3.1577 e}e c}s -0.2556
-1.6291 e}e c}z -2.2069
-1.3948 e}e d}d -1.6087
-1.8326 e}e e}e -0.9995
-1.7755 e}e f}f -1.4639
-3.0940 e}e g|h}g -0.2556
-1.9709 e}e g|u}g -1.2970
-1.5796 e}e g}g -1.6273
-1.8606 e}e g}j -1.7375
-2.5867 e}e h|a}a -0.6535
-2.2805 e}e h|e}e -0.6816
-2.4092 e}e h|i}i -0.2556
-2.9891 e}e h|o}o -0.2556
-2.4344 e}e h|u}u -0.4774
-3.1812 e}e h|é}e -0.2556
-3.1354 e}e h|í}i -0.5566
-1.5898 e}e i}i -1.0222
-1.6583 e}e j}j -1.4882
-2.0849 e}e k}k -0.4317
-1.6107 e}e l|l}ll -1.0775
-1.3764 e}e l}l -1.5898
-2.4301 e}e l}l| -0.8577
-1.4059 e}e m}m -1.7977
-3.1577 e}e m}m| -0.2556
-3.1812 e}e n|h}n -0.2556
-1.2979 e}e n}n -2.1908
-2.0344 e}e n}n| -1.1587
-1.5718 e}e o}o -1.2614
-2.2775 e}e o}o| -1.2556
-3.1577 e}e p|h}p -0.2556
-1.7117 e}e p}p -1.5630
-1.9116 e}e q|u}k -1.5267
-1.7225 e}e r|r}rr -1.5055
-1.3366 e}e r}r -2.0878
-1.9274 e}e r}r| -1.3348
-2.4566 e}e s|c}z -0.9826
-3.1354 e}e s|h}s -0.2556
-1.3757 e}e s}s -2.2849
-1.7900 e}e s}s| -2.1532
-2.4612 e}e s}z -0.3805
-2.6602 e}e t|h}t -0.5566
-1.4047 e}e t}t -1.6063
-1.9365 e}e u}u -1.0190
-1.4969 e}e v}b -1.6473
-2.3932 e}e w}u -0.4317
-3.1577 e}e x}j -1.0338
-1.9181 e}e x}x -1.4170
-3.1577 e}e x}x| -0.2556
-1.7420 e}e y}i -0.9668
-3.2060 e}e y}i| -0.2556
-1.8617 e}e y}y -1.0338
-3.0561 e}e z}s -0.2556
-2.4705 e}e z}s| -0.7327
-1.5820 e}e z}z -1.2556
-1.7590 e}e z}z| -1.7997
-2.5134 e}e á}a -0.2556
-2.9592 e}e á}a| -0.2556
-2.5687 e}e é}e| -0.5566
-2.1377 e}e í}i -0.6893
-2.9311 e}e í}i| -0.2556
-1.7581 e}e ñ}gn -1.4389
-3.2060 e}e ñ}gn| -0.2556
-2.0753 e}e ó}o -0.6358
-1.9534 e}e ó}o| -1.2098
-2.5628 e}e ú}u -0.7327
-0.0141 e}e| </s> 0.0000
-0.3613 e}i|s _}e -0.2556
-1.2265 f}f </s> 0.0000
-2.2803 f}f _}e -0.5566
-2.4634 f}f a|h}a -0.2556
-0.9492 f}f a}a -1.2575
-2.2863 f}f c}k -0.2556
-1.0740 f}f e}e -1.5242
-2.3733 f}f e}e| -0.2556
-1.2628 f}f f}f -0.7327
-2.3243 f}f g}g -0.4317
-2.3446 f}f g}j -0.2556
-2.5116 f}f i|q}i -0.2556
-0.8968 f}f i}i -1.6528
-2.3516 f}f k}k -0.2556
-1.3850 f}f l}l -1.3348
-2.2404 f}f m}m -0.7327
-1.0420 f}f o}o -1.3087
-1.9515 f}f o}o| -1.1587
-1.0427 f}f r}r -1.7273
-2.2296 f}f s}s -0.2556
-1.4643 f}f t}t -0.3348
-1.2052 f}f u}u -1.3403
-1.3911 f}f á}a -0.7079
-1.7181 f}f é}e -0.7327
-1.9377 f}f é}e| -0.5566
-1.4726 f}f í}i -0.7997
-1.7213 f}f ó}o -0.6816
-2.3243 f}f ó}o| -0.2556
-2.3446 f}f ú}u -0.2556
-0.2979 g|h}g </s> 0.0000
-0.6791 g|h}g l}l -0.2556
-1.1742 g|h}g t}t -0.5566
-0.3540 g|u}g e}e -0.9224
-0.6017 g|u}g i}i -0.9612
-1.7401 g|u}g é}e -0.2556
-1.2505 g|u}g é}e| -0.7327
-0.8731 g|u}g í}i -0.5980
-0.3559 g|ü}g e}e -0.2556
-1.1538 g}g </s> 0.0000
-0.9001 g}g a}a -1.6863
-1.7064 g}g a}a| -0.9546
-1.8918 g}g d}d -0.4317
-1.8945 g}g f}f -0.2556
-1.9026 g}g g}g -0.2556
-1.9109 g}g g}j -0.4317
-2.3467 g}g h|a}a -0.2556
-1.9308 g}g h|e}e -0.2556
-2.3621 g}g h|i}i -0.2556
-1.2930 g}g l}l -1.2017
-1.6762 g}g m}m -0.5566
-1.5433 g}g n}n -1.2556
-0.9564 g}g o}o -1.3843
-1.4660 g}g o}o| -1.4317
-1.0555 g}g r}r -1.8958
-1.6729 g}g s}s -0.3225
-2.1946 g}g t}t -0.8577
-1.1357 g}g u}u -1.3129
-2.3318 g}g w}u -0.2556
-1.6961 g}g y}i -0.2556
-2.3245 g}g y}y -0.5566
-2.3245 g}g z}z -0.2556
-1.5542 g}g á}a -0.4774
-2.2456 g}g í}i -0.5566
-1.5604 g}g ó}o -0.5566
-1.1414 g}g ó}o| -1.6706
-1.7046 g}g ú}u -0.4774
-1.4803 g}g ü}u -0.8577
-1.9717 g}j _}e -0.3805
-0.4627 g}j e}e -1.5160
-0.4356 g}j i}i -1.4799
-1.1125 g}j é}e -0.6816
-0.8415 g}j í}i -1.0089
-2.1575 h|a}a '|s}s -0.2556
-1.2940 h|a}a </s> 0.0000
-1.2405 h|a}a b}b -1.2494
-1.9632 h|a}a c}k -0.2556
-1.3927 h|a}a c}z -1.2409
-1.2461 h|a}a d}d -0.4986
-1.9810 h|a}a f}f -0.2556
-1.9995 h|a}a g}g -0.5566
-2.0460 h|a}a h|a}a -0.2556
-2.1760 h|a}a h|r}r -0.2556
-1.3582 h|a}a i}i -0.4774
-1.3958 h|a}a k}k -0.3805
-1.6261 h|a}a l|l}ll -0.8296
-1.1332 h|a}a l}l -0.4597
-1.1332 h|a}a m}m -0.5286
-0.9809 h|a}a n}n -0.5830
-2.0903 h|a}a r|r}rr -0.2556
-1.0529 h|a}a r}r -0.4552
-1.5572 h|a}a s}s -0.3647
-1.5549 h|a}a t}t -0.2556
-1.9297 h|a}a u}u -0.5566
-1.9995 h|a}a v}b -0.5566
-1.6078 h|a}a w}u -0.2556
-1.9871 h|a}a y}i -0.2556
-1.6053 h|a}a y}y -0.5566
-1.6053 h|a}a z}z -0.2556
-1.4021 h|e}e </s> 0.0000
-1.8614 h|e}e a}a -0.2556
-1.9022 h|e}e b}b -0.7327
-1.3219 h|e}e c|h}ch -0.5566
-1.9167 h|e}e c}k -0.2556
-1.9317 h|e}e f}f -0.2556
-1.0475 h|e}e i}i -0.4317
-1.1561 h|e}e l}l -0.5318
-1.1561 h|e}e m}m -0.6535
-0.8977 h|e}e n}n -0.4986
-1.8836 h|e}e o}o -0.5566
-1.5206 h|e}e p}p -0.2556
-2.0219 h|e}e r|r}rr -0.3805
-0.6958 h|e}e r}r -0.8770
-1.1543 h|e}e s}s -0.2556
-1.8657 h|e}e t}t -0.2556
-1.9473 h|e}e v}b -0.2556
-2.0157 h|e}e x}x -0.2556
-1.9368 h|e}e y}i -0.2556
-1.9689 h|e}e z}z -0.2556
-1.3430 h|i}i </s> 0.0000
-1.8002 h|i}i a}a -0.2556
-1.1067 h|i}i b}b -1.1007
-1.8572 h|i}i c}k -0.2556
-1.8999 h|i}i c}z -0.6535
-1.2509 h|i}i d}d -0.8199
-1.4229 h|i}i e}e -0.2556
-2.0002 h|i}i g|h}g -0.2556
-1.9055 h|i}i g}j -0.5566
-1.4786 h|i}i j}j -0.5566
-1.4744 h|i}i k}k -0.5566
-1.4915 h|i}i l|l}ll -0.2556
-1.2385 h|i}i l}l -0.3348
-0.9152 h|i}i m}m -0.4774
-1.2373 h|i}i n}n -0.4017
-1.8231 h|i}i o}o -0.2556
-1.8888 h|i}i p}p -0.7327
-1.2422 h|i}i r}r -0.6816
-0.9973 h|i}i s}s -0.8789
-1.4323 h|i}i t}t -0.2556
-1.9112 h|i}i z}z -0.2556
-1.0837 h|o}o </s> 0.0000
-1.6905 h|o}o e}e -0.2556
-1.7804 h|o}o f}f -0.5566
-1.3737 h|o}o g}g -0.6816
-1.8305 h|o}o j}j -0.5566
-1.1687 h|o}o k}k -0.2556
-1.8675 h|o}o l|l}ll -0.2556
-1.1462 h|o}o l}l -0.4897
-1.1462 h|o}o m}m -0.7327
-1.0091 h|o}o n}n -0.8924
-1.7308 h|o}o o}o -0.2556
-1.7965 h|o}o p}p -0.2556
-1.4014 h|o}o r|r}rr -0.6236
-1.0126 h|o}o r}r -0.8084
-1.7169 h|o}o s}s -1.0089
-1.7124 h|o}o t}t -0.2556
-1.7355 h|o}o u}u -0.2556
-1.7965 h|o}o v}b -0.2556
-1.3842 h|o}o w}u -0.2556
-1.7857 h|o}o y}i -0.2556
-1.8189 h|o}o y}y -0.2556
-0.3616 h|r}r á}a -0.2556
-1.1217 h|u}u </s> 0.0000
-0.7458 h|u}u a}a -0.4475
-1.6255 h|u}u b}b -0.5566
-1.6465 h|u}u d}d -0.2556
-1.5752 h|u}u e}e -0.5244
-1.6641 h|u}u g}g -0.2556
-1.1882 h|u}u i}i -0.2556
-0.9926 h|u}u m}m -0.9546
-1.6016 h|u}u n}n -0.6078
-1.6094 h|u}u o}o -0.2556
-1.6174 h|u}u r}r -0.5566
-1.1958 h|u}u s}s -0.3348
-1.1942 h|u}u t}t -0.4317
-1.6824 h|u}u y}y -0.5566
-1.6508 h|u}u é}e -0.2556
-1.6296 h|u}u í}i -0.2556
-0.3393 h|y}i </s> 0.0000
-0.3595 h|y}y u}u -0.2556
-0.6498 h|á}a b}b -0.2556
-0.6562 h|á}a g}g -0.2556
-0.8175 h|é}e c}k -0.2556
-0.8387 h|é}e n}n| -0.2556
-0.8123 h|é}e r}r -0.2556
-0.9459 h|í}i a}a| -0.2556
-0.9282 h|í}i b}b -0.2556
-0.9322 h|í}i c}k -0.5566
-0.9404 h|í}i g}g -0.2556
-0.6463 h|ú}u m}m -0.2556
-0.6456 h|ú}u n}n -0.2556
-0.3613 h}a|ch _}e -0.2556
-0.3393 h}ch|e </s> 0.0000
-0.3393 i|q}i </s> 0.0000
-1.3173 i}i </s> 0.0000
-3.0379 i}i _|a}a -0.2556
-3.1253 i}i _|d}d -0.2556
-3.1063 i}i _}a -0.2556
-1.4111 i}i a}a -2.0553
-2.8804 i}i a}a| -0.5566
-1.4697 i}i b}b -1.5709
-1.7456 i}i c|h}ch -0.9019
-1.3986 i}i c}k -2.1528
-1.5160 i}i c}z -2.1891
-1.3672 i}i d}d -2.0893
-3.0882 i}i d}d| -0.2556
-1.4641 i}i e}e -2.0072
-1.7005 i}i f}f -1.5057
-2.4076 i}i g|h}g -0.4317
-2.2484 i}i g|u}g -1.4017
-1.5150 i}i g}g -1.5278
-1.7049 i}i g}j -1.7254
-2.5716 i}i h|i}i -0.2556
-2.6053 i}i h|u}u -0.5566
-2.4338 i}i i}i -0.3805
-1.6442 i}i j}j -1.0826
-3.1063 i}i k|h}k -0.2556
-1.9786 i}i k}k -0.4317
-1.5673 i}i l|l}ll -1.4889
-1.3639 i}i l}l -1.4690
-2.1482 i}i l}l| -1.2970
-1.3487 i}i m}m -1.7734
-1.3197 i}i n}n -1.9632
-3.0074 i}i n}n| -0.2556
-1.5309 i}i o}o -1.9991
-1.6704 i}i p}p -1.2158
-1.7432 i}i q|u}k -1.2870
-2.2510 i}i r|r}rr -0.8840
-1.3805 i}i r}r -1.6706
-2.6294 i}i r}r| -0.5566
-3.1063 i}i s|c}z -0.5566
-3.1063 i}i s|h}s -0.5566
-1.3194 i}i s}s -1.7992
-2.3859 i}i s}s| -1.4017
-2.6232 i}i t|h}t -0.5566
-1.3055 i}i t}t -1.7736
-2.6483 i}i t}t| -0.5566
-1.8059 i}i u}u -0.8577
-1.6122 i}i v}b -1.8054
-2.8915 i}i w}u -0.5566
-2.1441 i}i x}x -0.6535
-3.1253 i}i x}x| -0.2556
-2.3585 i}i y}y -0.2556
-2.2588 i}i z}s -0.4317
-1.5394 i}i z}z -1.7470
-3.0540 i}i z}z| -0.2556
-1.9650 i}i á}a -0.6236
-1.7005 i}i é}e -1.0795
-2.5454 i}i é}e| -0.8577
-2.7650 i}i í}i -0.5566
-1.9955 i}i ñ}gn -0.6816
-1.6697 i}i ó}o -2.0374
-1.6704 i}i ó}o| -2.5060
-2.8695 i}i ú}u -0.2556
-0.1373 i}i| </s> 0.0000
-0.3598 j|ü}j r}r -0.2556
-1.4178 j}j </s> 0.0000
-0.7757 j}j a}a -1.3665
-2.1529 j}j a}a| -0.2556
-2.1092 j}j d}d -0.2556
-0.8429 j}j e}e -1.2970
-1.0235 j}j i}i -0.5437
-2.0601 j}j m}m -0.2556
-2.0555 j}j n}n -0.2556
-2.2563 j}j o|h}o -0.7327
-2.2787 j}j o|ã}o -0.2556
-0.8842 j}j o}o -1.1968
-2.0509 j}j s}s -0.2556
-1.0274 j}j u}u -1.2178
-1.4901 j}j á}a -0.4317
-2.1889 j}j á}a| -0.2556
-1.7016 j}j é}e -0.7327
-2.1529 j}j é}e| -0.2556
-1.4876 j}j í}i -0.3805
-1.4964 j}j ó}o -0.5566
-1.2504 j}j ó}o| -1.2556
-2.1472 j}j ú}u -0.2556
-0.3393 j}t|a </s> 0.0000
-0.3573 j}y a}a -0.2556
-0.8816 k|h}k </s> 0.0000
-0.4361 k|h}k m}m -0.7327
-0.9312 k|h}k t}t -0.2556
-0.8857 k}k </s> 0.0000
-0.8992 k}k a}a -0.6494
-2.1464 k}k b}b -0.2556
-2.1709 k}k d}d -0.2556
-0.9791 k}k e}e -0.6188
-1.4186 k}k h|a}a -0.2556
-1.7829 k}k h|i}i -0.2556
-2.2599 k}k h|o}o -0.2556
-0.7997 k}k i}i -0.9277
-1.2126 k}k l}l -0.6236
-2.1233 k}k m}m -0.2556
-2.3123 k}k o|h}o -0.2556
-1.0293 k}k o}o -0.5109
-2.1370 k}k r}r -0.4317
-1.7343 k}k s}s -0.3805
-2.1100 k}k t}t -0.2556
-1.2137 k}k u}u -0.4017
-2.2187 k}k w}u -0.2556
-1.2193 k}k y}i -1.0338
-2.1512 k}k í}i -0.2556
-1.0935 l|l}ll </s> 0.0000
-1.6277 l|l}ll a|h}a -0.5566
-0.8064 l|l}ll a}a -1.2658
-0.9054 l|l}ll e}e -1.2525
-1.1201 l|l}ll i}i -0.7142
-0.9694 l|l}ll o}o -1.2738
-1.3657 l|l}ll s}s -0.5566
-1.3697 l|l}ll u}u -0.4986
-1.1311 l|l}ll y}i -0.7327
-1.3759 l|l}ll á}a -0.4317
-2.0844 l|l}ll á}a| -0.2556
-2.0210 l|l}ll é}e -0.2556
-2.0540 l|l}ll é}e| -0.2556
-1.9988 l|l}ll í}i -0.2556
-2.0740 l|l}ll í}i| -0.2556
-1.5942 l|l}ll ó}o -0.4317
-1.2394 l|l}ll ó}o| -1.0338
-1.3541 l}l </s> 0.0000
-2.2055 l}l _}e -0.4774
-2.8239 l}l a|q}a -0.2556
-1.0537 l}l a}a -1.7909
-1.8237 l}l a}a| -1.7180
-2.0233 l}l b}b -0.8419
-1.9381 l}l c|h}ch -0.5566
-1.6606 l}l c}k -1.1143
-2.2428 l}l c}z -0.7327
-1.6629 l}l d}d -1.1181
-2.8239 l}l e|h}e -0.2556
-1.0683 l}l e}e -1.7895
-1.6756 l}l e}e| -1.7180
-1.8123 l}l f}f -0.9546
-1.8371 l}l g|u}g -0.5566
-1.8171 l}l g}g -1.0153
-1.7399 l}l g}j -0.7327
-2.6388 l}l h|a}a -0.2556
-2.6723 l}l h|e}e -0.2556
-2.6608 l}l h|i}i -0.2556
-1.1192 l}l i}i -1.8259
-1.8270 l}l j}j -0.4017
-1.9254 l}l k}k -0.3225
-2.1786 l}l l}l -0.7028
-1.5945 l}l m}m -1.3477
-1.7934 l}l n}n -0.6236
-1.1595 l}l o}o -1.5902
-1.6175 l}l o}o| -1.8354
-2.3340 l}l p|h}p -0.5566
-2.0474 l}l p}p -1.1449
-2.0672 l}l q|u}k -0.6816
-2.4785 l}l r}r -0.5566
-1.7149 l}l s}s -1.1429
-1.4965 l}l t}t -1.4861
-1.3552 l}l u}u -1.2745
-1.6084 l}l v}b -1.2642
-2.6177 l}l w}u -0.2556
-1.8139 l}l y}i -0.6236
-2.6076 l}l y}y -0.2556
-2.7484 l}l z}s -0.2556
-2.6076 l}l z}z -0.4597
-1.3909 l}l á}a -0.7516
-2.2789 l}l á}a| -0.9546
-1.6640 l}l é}e -0.5914
-2.2516 l}l é}e| -0.5566
-1.5036 l}l í}i -0.8065
-2.0701 l}l í}i| -1.1007
-1.5555 l}l ó}o -0.8467
-1.7359 l}l ó}o| -1.5778
-2.2472 l}l ú}u -0.2556
-0.0242 l}l| </s> 0.0000
-0.6094 m|h}m </s> 0.0000
-0.6463 m|h}m m}m -0.2556
-2.7019 m}m '|s}s -0.2556
-1.3027 m}m </s> 0.0000
-2.4690 m}m _}e -0.6706
-0.9178 m}m a}a -1.7600
-2.1444 m}m a}a| -1.5778
-1.2914 m}m b}b -1.6303
-2.1149 m}m c}k -0.4519
-2.4888 m}m d}d -0.2556
-0.9664 m}m e}e -1.8490
-1.6988 m}m e}e| -1.3695
-1.0425 m}m i}i -1.7663
-1.9064 m}m l}l -0.2556
-2.7131 m}m m|h}m -0.2556
-1.7764 m}m m}m -0.4774
-1.5262 m}m n}n -0.8789
-1.0658 m}m o}o -1.7368
-1.7010 m}m o}o| -1.7608
-1.4239 m}m p}p -1.8883
-1.6744 m}m s}s -0.6078
-2.4090 m}m t}t -0.2556
-1.2550 m}m u}u -1.2678
-1.7923 m}m y}i -0.3805
-2.5463 m}m y}y -0.2556
-1.3313 m}m á}a -1.0409
-2.1631 m}m á}a| -0.7327
-1.6049 m}m é}e -0.7997
-1.9393 m}m é}e| -0.7327
-1.6005 m}m í}i -0.6766
-2.1568 m}m í}i| -0.5566
-1.4234 m}m ó}o -0.7163
-1.4769 m}m ó}o| -1.6870
-2.1414 m}m ú}u -0.5566
-0.0866 m}m| </s> 0.0000
-0.1373 n|h}n </s> 0.0000
-1.2478 n}n </s> 0.0000
-2.5224 n}n _}e -0.4774
-1.2706 n}n a}a -1.9725
-1.8494 n}n a}a| -1.2098
-1.9230 n}n b}b -0.5188
-1.8600 n}n c|h}ch -0.9903
-1.6283 n}n c}k -1.7111
-2.8664 n}n c}s|z -0.2556
-1.6367 n}n c}z -2.3178
-1.4188 n}n d}d -2.1939
-1.1639 n}n e}e -1.6835
-2.2881 n}n e}e| -0.5566
-1.5799 n}n f}f -1.6121
-1.7790 n}n g|u}g -0.8924
-1.3587 n}n g}g -1.4499
-1.6378 n}n g}j -1.4389
-2.6556 n}n h|a}a -0.5566
-2.1011 n}n h|e}e -0.3805
-2.2977 n}n h|i}i -0.5566
-2.7152 n}n h|o}o -0.2556
-2.7553 n}n h|u}u -0.8577
-1.1834 n}n i}i -1.6944
-2.8664 n}n i}i| -0.2556
-1.8529 n}n j}j -1.2663
-2.0829 n}n k}k -0.5188
-2.7152 n}n l|l}ll -0.5566
-1.9128 n}n l}l -0.7327
-1.9128 n}n m}m -1.3201
-1.7408 n}n n}n -1.0685
-1.1672 n}n o}o -1.7423
-1.9618 n}n o}o| -1.5109
-2.2559 n}n p}p -0.2556
-1.8547 n}n q|u}k -1.5778
-1.8819 n}n r}rr -0.6893
-1.3794 n}n s}s -1.6408
-2.7152 n}n s}s| -0.2556
-1.4446 n}n t}t -2.3384
-1.4855 n}n u}u -1.2234
-2.0711 n}n v}b -1.7028
-2.7152 n}n x}x -0.2556
-1.6325 n}n y}i -1.3695
-2.0829 n}n y}y -0.6535
-2.7695 n}n z}s -0.2556
-1.7674 n}n z}z -1.3009
-1.6283 n}n á}a -0.6173
-1.6899 n}n é}e -0.7785
-2.0829 n}n é}e| -0.9546
-1.6839 n}n í}i -0.9348
-2.2929 n}n í}i| -1.0338
-1.8408 n}n ó}o -0.7722
-1.7616 n}n ó}o| -1.8991
-1.9485 n}n ú}u -0.3695
-2.7842 n}n ú}u| -0.2556
-0.0242 n}n| </s> 0.0000
-0.6533 o|'}o d}d -0.2556
-0.6612 o|'}o h|a}a -0.2556
-0.8545 o|h}o </s> 0.0000
-0.9215 o|h}o l}l -0.2556
-0.9202 o|h}o n}n -0.4317
-0.9390 o|h}o ó}o -0.2556
-0.3393 o|q}o </s> 0.0000
-0.3671 o|ã}o o}o| -0.2556
-1.2388 o}o </s> 0.0000
-1.5366 o}o a}a -0.8313
-1.4673 o}o b}b -1.5041
-1.7610 o}o c|h}ch -0.9880
-1.4686 o}o c}k -1.6078
-3.0446 o}o c}k| -0.2556
-3.0810 o}o c}s|z -0.5566
-1.6386 o}o c}z -1.7896
-1.4059 o}o d}d -1.2684
-1.5344 o}o e}e -0.7099
-2.8617 o}o e}e| -0.2556
-1.6351 o}o f}f -1.2333
-3.0109 o}o g|h}g -0.2556
-2.9233 o}o g|u}g -0.2556
-1.6372 o}o g}g -1.3732
-1.9809 o}o g}j -1.4687
-2.5002 o}o h|a}a -0.5566
-2.3154 o}o h|e}e -0.3525
-2.1766 o}o h|i}i -1.0795
-2.9233 o}o h|o}o -0.5566
-3.0446 o}o h|í}i -0.5566
-1.7337 o}o i}i -0.7079
-1.6767 o}o j}j -1.0233
-3.0446 o}o k|h}k -0.2556
-1.8022 o}o k}k -0.4897
-1.7201 o}o l|l}ll -0.8840
-1.3299 o}o l}l -1.6062
-2.0828 o}o l}l| -1.1007
-1.4649 o}o m}m -1.7307
-1.2679 o}o n}n -2.1056
-2.9506 o}o n}n| -1.1007
-3.1005 o}o o|q}o -0.2556
-1.6999 o}o o}o -0.8840
-1.4950 o}o p}p -1.5127
-1.7160 o}o q|u}k -1.2970
-1.7638 o}o r|r}rr -1.3019
-1.2989 o}o r}r -1.9554
-2.3458 o}o r}r| -1.0338
-1.2974 o}o s}s -2.1621
-1.6455 o}o s}s| -2.7399
-3.0109 o}o t|h}t -0.2556
-1.3816 o}o t}t -1.5259
-1.6290 o}o u}u -0.6535
-1.4950 o}o v}b -1.5847
-1.9150 o}o w}u -0.5566
-1.8103 o}o x}x -0.7997
-1.8477 o}o y}i -0.9546
-1.5770 o}o y}y -1.2628
-2.9797 o}o z}s -0.2556
-1.6752 o}o z}z -1.1007
-2.9950 o}o z}z| -0.2556
-2.7599 o}o é}e -0.2556
-2.8286 o}o é}e| -0.2556
-2.1380 o}o í}i -0.4017
-2.8734 o}o í}i| -0.2556
-2.1935 o}o ñ}gn -0.5109
-0.0160 o}o| </s> 0.0000
-0.3035 p|h}p </s> 0.0000
-0.8217 p|h}p n}n -0.2556
-1.3480 p}p </s> 0.0000
-2.3420 p}p _}e -0.4317
-1.0453 p}p a}a -1.7470
-2.3300 p}p b}b -0.2556
-1.6545 p}p c}z -1.7028
-0.9894 p}p e}e -1.6895
-2.4371 p}p e}e| -0.2556
-2.3671 p}p f}f -0.2556
-2.0125 p}p h|a}a -0.5566
-2.0212 p}p h|e}e -0.2556
-2.0183 p}p h|i}i -0.3805
-2.4768 p}p h|o}o -0.2556
-1.0443 p}p i}i -1.4421
-2.4149 p}p k}k -0.2556
-1.1831 p}p l}l -1.8765
-1.1451 p}p o}o -1.6720
-1.9930 p}p p}p -0.4317
-1.1105 p}p r}r -2.2472
-1.3229 p}p s}s -0.7327
-1.2702 p}p t}t -1.3653
-1.1839 p}p u}u -1.5141
-2.4149 p}p y}y -0.2556
-1.3287 p}p á}a -0.4712
-2.4604 p}p á}a| -0.2556
-2.3671 p}p é}e -0.6078
-1.5398 p}p í}i -0.5188
-1.4626 p}p ó}o -0.5566
-1.6520 p}p ó}o| -0.9546
-1.7950 p}p ú}u -0.5980
-0.6498 q|a}a b}b -0.2556
-0.6442 q|a}a t}t -0.5566
-0.6435 q|i}i a}a -0.2556
-0.6547 q|i}i y}i -0.2556
-1.8235 q|u}k </s> 0.0000
-0.5118 q|u}k e}e -1.2343
-0.5119 q|u}k i}i -1.2077
-1.4695 q|u}k é}e -0.5566
-1.2499 q|u}k é}e| -0.7327
-0.8302 q|u}k í}i -0.6236
-1.2517 q|u}k í}i| -0.8577
-0.0903 q}k u}u -0.7327
-0.1373 q}k|u </s> 0.0000
-1.7798 r|r}rr </s> 0.0000
-0.8339 r|r}rr a}a -1.1248
-0.8328 r|r}rr e}e -1.0305
-0.9650 r|r}rr i}i -0.9880
-1.0534 r|r}rr o}o -1.0809
-1.0538 r|r}rr u}u -0.7997
-1.1662 r|r}rr y}i -1.1007
-1.3068 r|r}rr á}a -0.4986
-1.5252 r|r}rr é}e -0.2556
-2.0013 r|r}rr é}e| -0.2556
-1.1627 r|r}rr í}i -1.1007
-1.1667 r|r}rr ó}o -0.4774
-1.9857 r|r}rr ó}o| -0.2556
-1.4804 r}r </s> 0.0000
-2.5211 r}r _}e -0.4897
-2.7982 r}r a|h}a -0.2556
-2.8474 r}r a|q}a -0.2556
-1.1282 r}r a}a -2.0217
-1.9494 r}r a}a| -1.5566
-1.8261 r}r b}b -1.3026
-2.0999 r}r c|h}ch -0.8840
-1.5759 r}r c}k -1.5408
-1.7632 r}r c}z -1.8577
-1.5777 r}r d}d -1.5372
-2.8140 r}r d}d| -0.2556
-1.1269 r}r e}e -1.8778
-2.6543 r}r e}e| -0.2556
-1.9343 r}r f}f -0.8924
-2.7982 r}r g|h}g -0.2556
-2.1061 r}r g|u}g -1.2098
-1.7604 r}r g}g -1.3827
-1.5843 r}r g}j -1.6593
-2.2868 r}r h|a}a -0.2556
-2.7139 r}r h|o}o -0.2556
-1.1448 r}r i}i -1.8791
-1.8516 r}r j}j -0.9546
-1.9494 r}r k}k -0.4317
-1.8179 r}r l}l -1.6260
-1.5235 r}r m}m -1.7828
-1.6744 r}r n}n -1.5149
-1.2716 r}r o}o -1.8673
-2.0968 r}r o}o| -1.5344
-1.6922 r}r p}p -1.3026
-1.8534 r}r q|u}k -1.1850
-2.2084 r}r r}r -0.7997
-1.6167 r}r s}s -1.7372
-2.3594 r}r s}z -0.5566
-2.7982 r}r t|h}t -0.5566
-1.5210 r}r t}t -1.7079
-2.8651 r}r t}t| -0.2556
-1.4468 r}r u}u -1.2243
-1.7604 r}r v}b -1.4170
-2.2774 r}r w}u -0.4317
-2.7139 r}r x}x -0.2556
-1.9364 r}r y}i -0.9088
-1.9494 r}r z}z -1.1307
-1.3840 r}r á}a -1.3751
-1.7045 r}r á}a| -2.6788
-1.7561 r}r é}e -0.4774
-1.8481 r}r é}e| -1.3695
-1.3828 r}r í}i -1.4657
-2.2916 r}r í}i| -0.5566
-1.5805 r}r ó}o -0.6893
-1.5352 r}r ó}o| -2.0409
-2.0786 r}r ú}u -0.4317
-2.7829 r}r ú}u| -0.7327
-1.0327 r}rr a}a -0.9444
-1.0287 r}rr e}e -1.7526
-1.0297 r}rr i}i -0.7997
-1.0378 r}rr o}o -1.1007
-1.4863 r}rr u}u -0.8429
-1.0490 r}rr y}i -0.2556
-1.5037 r}rr á}a -0.5566
-1.5127 r}rr é}e -0.2556
-1.0429 r}rr í}i -0.2556
-1.0501 r}rr ó}o -0.4317
-0.0499 r}r| </s> 0.0000
-0.4517 s|c}z e}e -1.5344
-0.4519 s|c}z i}i -0.4774
-1.1886 s|c}z é}e -0.5566
-0.1559 s|h}s </s> 0.0000
-1.0570 s|h}s k}k -0.2556
-1.1242 s}s </s> 0.0000
-2.5522 s}s _}e -0.5566
-1.2177 s}s a}a -1.7002
-2.2778 s}s a}a| -0.5566
-1.6783 s}s b}b -0.7079
-1.9585 s}s c|h}ch -0.4665
-1.4831 s}s c}k -1.7882
-1.7589 s}s c}z -1.5456
-1.9321 s}s d}d -0.5566
-1.2862 s}s e}e -1.6754
-1.7651 s}s e}e| -2.0190
-1.7528 s}s f}f -1.1814
-2.3116 s}s g|u}g -0.2556
-1.9395 s}s g}g -0.9716
-1.6345 s}s h|a}a -0.5219
-1.8534 s}s h|e}e -0.4317
-1.7676 s}s h|i}i -0.5188
-2.7286 s}s h|o}o -0.3805
-1.1756 s}s i}i -1.7713
-2.2860 s}s j}j -0.5566
-1.5791 s}s k}k -0.6535
-1.7397 s}s l}l -1.2904
-1.5647 s}s m}m -1.6535
-1.6722 s}s n}n -0.8392
-1.2899 s}s o}o -1.6792
-2.2986 s}s o}o| -0.5566
-1.4134 s}s p}p -1.9318
-1.7651 s}s q|u}k -1.1402
-2.5227 s}s r}r -1.2970
-1.5631 s}s s}s -0.9019
-1.0883 s}s t}t -2.1488
-1.4415 s}s u}u -1.5803
-1.8384 s}s v}b -0.7028
-2.0842 s}s w}u -0.4774
-2.2542 s}s y}i -0.2556
-2.6455 s}s z}z -0.2556
-1.6814 s}s á}a -0.8840
-1.8340 s}s é}e -0.5566
-1.9470 s}s é}e| -0.8577
-1.7468 s}s í}i -0.6236
-2.0921 s}s í}i| -0.7327
-1.7553 s}s ó}o -0.8119
-1.5292 s}s ó}o| -1.6706
-2.0791 s}s ú}u -0.3348
-2.7900 s}s ú}u| -0.2556
-0.0201 s}s| </s> 0.0000
-0.9259 s}z </s> 0.0000
-1.0191 s}z c}k -0.2556
-0.9935 s}z e}e -0.2556
-0.9950 s}z i}i -0.5566
-1.0158 s}z í}i -0.2556
-0.1258 t|h}t </s> 0.0000
-1.1312 t|h}t f}f -0.2556
-0.3719 t}d|o _}b|l -0.2556
-1.2238 t}t </s> 0.0000
-2.1903 t}t _}e -0.5566
-2.7590 t}t a|h}a -0.2556
-1.1145 t}t a}a -2.1172
-2.0379 t}t a}a| -1.3695
-1.8792 t}t b}b -0.9088
-1.9153 t}t c|h}ch -0.4774
-2.5122 t}t c}k -0.2556
-2.5800 t}t c}z -0.2556
-1.0604 t}t e}e -1.9870
-1.6520 t}t e}e| -2.1189
-2.5620 t}t g}g -0.2556
-1.8057 t}t h|a}a -0.4317
-1.8104 t}t h|e}e -0.3805
-2.2546 t}t h|i}i -0.2556
-2.2678 t}t h|o}o -0.2556
-2.7193 t}t h|u}u -0.2556
-2.0911 t}t h|y}i -0.7327
-1.1327 t}t i}i -1.9033
-1.5723 t}t l}l -0.9716
-2.0651 t}t l}l| -0.7327
-1.8701 t}t m}m -0.7785
-2.1613 t}t n}n -0.7785
-1.2733 t}t o}o -1.8520
-2.2546 t}t o}o| -1.5344
-1.2742 t}t r}r -2.2272
-1.5199 t}t s}s -0.5566
-2.6830 t}t s}s| -0.2556
-1.6926 t}t t}t -0.6949
-1.2227 t}t u}u -1.4348
-2.8183 t}t u}u| -0.2556
-2.0406 t}t w}u -0.2556
-1.7108 t}t y}i -0.7785
-2.5987 t}t y}y -0.2556
-2.7321 t}t z}s -0.2556
-2.0379 t}t z}z -0.5566
-1.4818 t}t á}a -0.9826
-2.0540 t}t á}a| -0.7327
-1.4840 t}t é}e -0.6980
-1.7183 t}t é}e| -1.2098
-1.4804 t}t í}i -0.9771
-1.9114 t}t í}i| -1.0338
-1.4855 t}t ó}o -0.8666
-1.4441 t}t ó}o| -2.2424
-1.7170 t}t ú}u -0.7785
-2.7454 t}t ú}u| -0.2556
-0.1373 t}t| </s> 0.0000
-0.6094 u|h}u </s> 0.0000
-0.6442 u|h}u t}t -0.2556
-1.2455 u}u </s> 0.0000
-1.4178 u}u a}a -1.5254
-1.3955 u}u b}b -1.2684
-1.8020 u}u c|h}ch -1.1007
-1.5139 u}u c}k -1.2409
-1.6345 u}u c}z -1.9215
-1.2850 u}u d}d -1.5600
-1.2991 u}u e}e -1.5216
-1.6771 u}u f}f -1.0016
-2.4146 u}u g|u}g -0.2556
-1.5909 u}u g}g -1.0867
-1.7944 u}u g}j -1.1764
-2.8071 u}u h|e}e -0.2556
-1.5055 u}u i}i -1.2970
-1.5949 u}u j}j -1.1307
-1.7955 u}u k}k -0.4105
-1.9602 u}u l|l}ll -0.8354
-1.3019 u}u l}l -1.5270
-2.8536 u}u l}l| -0.2556
-1.3686 u}u m}m -1.5127
-2.4568 u}u m}m| -0.7327
-1.2814 u}u n}n -1.5596
-1.7776 u}u o}o -1.0338
-1.5172 u}u p}p -1.3538
-2.1926 u}u q|u}k -0.9546
-1.6904 u}u r|r}rr -0.9653
-1.3029 u}u r}r -1.4560
-2.9344 u}u s|h}s -0.2556
-1.2258 u}u s}s -1.5778
-2.4146 u}u s}s| -0.7327
-2.9057 u}u t|h}t -0.2556
-1.3219 u}u t}t -1.4365
-1.8600 u}u v}b -1.2556
-2.7551 u}u w}u -0.5566
-2.8297 u}u x}x -0.7327
-1.9388 u}u y}i -0.6535
-1.7355 u}u y}y -1.5400
-2.9812 u}u z|h}z -0.2556
-1.6359 u}u z}z -0.9348
-2.0314 u}u á}a -0.6816
-2.8071 u}u á}a| -0.5566
-2.0370 u}u é}e -0.4317
-2.9812 u}u ë}e -0.2556
-1.7828 u}u í}i -0.4774
-1.7469 u}u ñ}gn -0.6236
-2.0427 u}u ó}o| -1.0338
-0.1373 u}u| </s> 0.0000
-1.3436 v}b </s> 0.0000
-2.2296 v}b _}e -0.5566
-0.9865 v}b a}a -1.6366
-2.2906 v}b a}a| -0.2556
-0.8067 v}b e}e -1.6081
-2.3088 v}b e}e| -0.2556
-2.2847 v}b g}j -0.2556
-0.8320 v}b i}i -1.6712
-1.8194 v}b l}l -0.8577
-0.9880 v}b o}o -1.6523
-1.8255 v}b r}r -0.2556
-1.6186 v}b s}s -0.5566
-1.3001 v}b u}u -1.3913
-2.2563 v}b y}i -0.2556
-1.2332 v}b á}a -0.5318
-2.3278 v}b á}a| -0.2556
-1.6353 v}b é}e -0.3805
-1.8572 v}b é}e| -0.5566
-1.1716 v}b í}i -0.7327
-1.6500 v}b í}i| -0.7327
-1.8464 v}b ó}o -0.4774
-1.3075 v}b ó}o| -1.2556
-0.8896 w}u </s> 0.0000
-1.9929 w}u _|a}a -0.2556
-0.6781 w}u a}a -0.6008
-2.0190 w}u e|h}e -0.2556
-0.9088 w}u e}e -0.6313
-1.9588 w}u h|i}i -0.4317
-0.8387 w}u i}i -0.5801
-1.8626 w}u m}m -0.2556
-1.8589 w}u n}n -0.2556
-0.9976 w}u o}o -0.4986
-1.8740 w}u r}r -0.2556
-1.2408 w}u s}s -0.5566
-1.8515 w}u t}t -0.2556
-1.9360 w}u y}y -0.2556
-1.8937 w}u á}a -0.2556
-0.3723 x|_}k e}i|s -0.2556
-0.3393 x}i|s </s> 0.0000
-0.9302 x}j a}a -0.2556
-0.4338 x}j i}i -1.2098
-0.9725 x}j i}i| -0.2556
-0.9188 x}x </s> 0.0000
-1.0343 x}x a}a -0.7028
-1.4864 x}x c}k -0.7871
-2.0616 x}x c}s -0.2556
-1.9209 x}x c}z -1.3695
-1.8845 x}x d}d -0.2556
-1.2624 x}x e}e -0.5980
-1.9537 x}x h|a}a -0.5566
-1.9747 x}x h|e}e -0.2556
-1.9676 x}x h|i}i -0.7997
-1.9893 x}x h|o}o -0.7327
-0.7233 x}x i}i -1.0881
-1.9470 x}x j}j -0.2556
-1.4682 x}x m}m -0.2556
-1.0384 x}x o}o -0.5188
-1.9084 x}x p}p -1.4674
-1.9537 x}x q|u}k -0.2556
-1.8198 x}x s}s -0.2556
-1.4616 x}x t}t -1.3751
-1.8403 x}x u}u -0.8577
-1.9084 x}x v}b -0.2556
-1.8963 x}x y}i -0.2556
-1.8731 x}x á}a -0.2556
-1.8619 x}x í}i -0.2556
-1.9084 x}x ó}o| -0.2556
-0.0866 x}x| </s> 0.0000
-0.3839 y}i </s> 0.0000
-1.3372 y}i a}a -0.4317
-1.9739 y}i b}b -0.2556
-1.5629 y}i d}d -0.2556
-1.5645 y}i f}f -0.2556
-1.2017 y}i l}l -0.4774
-1.5473 y}i m}m -0.5566
-1.0959 y}i n}n -0.3939
-2.0125 y}i p}p -0.2556
-1.0981 y}i r}r -0.3525
-1.2004 y}i s}s -0.3525
-1.9423 y}i t}t -0.2556
-1.9618 y}i u}u -0.2556
-2.0125 y}i v}b -0.2556
-2.0355 y}i w}u -0.2556
-2.0308 y}i z}z -0.2556
-0.3393 y}i| </s> 0.0000
-0.5917 y}y a}a -1.0795
-0.8118 y}y e}e -1.1632
-1.2828 y}y i}i -0.2556
-0.8752 y}y o}o -0.8653
-0.7593 y}y u}u -0.8375
-1.2903 y}y á}a -0.2556
-2.0230 y}y á}a| -0.2556
-1.0376 y}y ó}o| -1.5344
-0.3587 z|_}e l}l -0.2556
-0.3584 z|h}z n}n -0.2556
-0.3393 z|z}s </s> 0.0000
-0.9026 z}s </s> 0.0000
-0.4592 z}s a}a -0.4597
-0.9409 z}s c}k -0.5566
-1.3944 z}s e}e -0.2556
-0.9365 z}s o}o -0.2556
-1.4243 z}s á}a -0.2556
-0.3393 z}s| </s> 0.0000
-0.3697 z}t z}s -0.2556
-1.0991 z}z </s> 0.0000
-0.9153 z}z a}a -1.7159
-2.2177 z}z a}a| -0.7327
-1.5807 z}z b}b -0.4317
-1.3485 z}z c}k -1.2870
-1.1849 z}z e}e -0.4774
-1.7985 z}z g}g -0.9546
-2.2405 z}z h|a}a -0.2556
-1.6143 z}z h|e}e -0.4317
-2.2563 z}z h|i}i -0.2556
-2.3075 z}z h|u}u -0.2556
-1.3338 z}z i}i -0.4774
-2.2177 z}z k}k -0.2556
-1.5723 z}z l}l -0.4317
-1.3406 z}z m}m -0.5566
-1.4399 z}z n}n -0.5566
-1.0795 z}z o}o -1.1676
-1.6088 z}z q|u}k -0.8577
-2.1192 z}z r}r -0.2556
-2.0908 z}z s}s -0.2556
-1.5673 z}z t}t -0.4317
-1.3426 z}z u}u -0.7997
-2.1756 z}z y}i -0.2556
-1.3485 z}z á}a -0.4017
-1.8276 z}z á}a| -0.5566
-2.2483 z}z í}i| -0.2556
-1.4575 z}z ó}o -0.7327
-1.3545 z}z ó}o| -1.7470
-2.2104 z}z ú}u -0.2556
-1.8491 z}z ú}u| -0.5566
-0.0350 z}z| </s> 0.0000
-1.0142 Á}a b}b -0.2556
-1.0241 Á}a f}f -0.2556
-1.0061 Á}a l}l -0.5566
-1.0045 Á}a n}n -0.5566
-1.0291 Á}a v}b -0.2556
-0.6663 É}e l}l| -0.2556
-0.6449 É}e s}s -0.4986
-0.3584 Í}i n}n -0.2556
-0.3580 Ó}o s}s -0.2556
-0.6463 Ú}u l}l -0.5566
-0.6456 Ú}u n}n -0.2556
-1.1911 á}a b}b -1.1587
-1.3938 á}a c}k -0.9546
-2.5514 á}a c}k| -0.2556
-1.5543 á}a c}z -0.9088
-1.9799 á}a d}d -0.8577
-1.7517 á}a e}e -0.7327
-1.7863 á}a f}f -1.0795
-2.4710 á}a g|u}g -0.2556
-1.9919 á}a g}g -0.2556
-1.6600 á}a g}j -0.9546
-2.0401 á}a h|u}u -0.5566
-1.9322 á}a i}i -0.2556
-2.0105 á}a j}j -0.7327
-1.1505 á}a l}l -0.8577
-2.4898 á}a l}l| -0.2556
-1.2306 á}a m}m -0.9246
-2.5626 á}a m}m| -0.2556
-0.9266 á}a n}n -1.2836
-0.9571 á}a n}n| -2.6000
-1.6557 á}a p}p -0.5566
-2.4274 á}a q|u}k -0.5566
-1.8178 á}a r|r}rr -0.8577
-1.0255 á}a r}r -0.8270
-1.3275 á}a s}s -1.0515
-1.4796 á}a s}s| -1.4861
-1.2752 á}a t}t -1.2970
-1.7696 á}a u}u -0.6535
-1.7921 á}a v}b -0.7327
-2.4710 á}a x}x -0.8577
-2.4032 á}a y}y -0.2556
-2.0042 á}a z}z -0.4317
-2.5195 á}a z}z| -0.2556
-2.0435 á}a ñ}gn -0.5566
-0.0172 á}a| </s> 0.0000
-1.7368 é}e </s> 0.0000
-2.1784 é}e a}a -0.5566
-2.3163 é}e a}a| -0.2556
-1.8725 é}e b}b -0.3805
-1.4471 é}e c}k -0.6706
-2.3018 é}e c}z -0.7327
-1.5522 é}e d}d -0.7785
-1.5535 é}e f}f -0.5566
-2.2878 é}e g}g -0.2556
-1.9056 é}e g}j -0.9546
-1.5312 é}e i}i -0.5566
-1.9143 é}e j}j -0.5566
-1.5730 é}e l|l}ll -0.4774
-1.2296 é}e l}l -0.7608
-1.9383 é}e l}l| -0.5566
-1.5397 é}e m}m -0.7327
-1.0502 é}e n}n -1.1495
-1.2469 é}e n}n| -1.4597
-2.2061 é}e o}o -0.2556
-1.4531 é}e p}p -0.6535
-1.9352 é}e r|r}rr -0.7327
-0.8984 é}e r}r -0.9323
-1.2875 é}e s}s -0.7997
-0.9918 é}e s}s| -1.7997
-1.0494 é}e t}t -0.9826
-2.2119 é}e u}u -0.5566
-2.4747 é}e u}u| -0.2556
-1.6948 é}e v}b -0.5566
-2.4642 é}e x}j -0.5566
-1.9322 é}e x}x -0.5566
-0.0119 é}e| </s> 0.0000
-0.3584 ë}e n}n -0.2556
-2.1288 í}i </s> 0.0000
-0.9563 í}i a}a -1.5344
-0.9612 í}i a}a| -2.7661
-1.7174 í}i b}b -0.7327
-2.5320 í}i c|h}ch -0.2556
-1.4067 í}i c}k -0.8119
-1.8699 í}i c}z -0.9546
-1.4680 í}i d}d -0.9688
-2.6151 í}i d}d| -0.2556
-1.8280 í}i e}e -0.8577
-1.8791 í}i e}e| -0.8577
-1.6220 í}i f}f -1.3348
-2.5491 í}i g|u}g -0.2556
-2.0677 í}i g}g -0.5566
-1.6282 í}i g}j -0.8577
-1.6107 í}i l}l -0.4017
-1.4017 í}i m}m -0.7722
-1.1548 í}i n}n -0.7544
-1.0782 í}i n}n| -1.8577
-1.5302 í}i o}o -0.9088
-1.3147 í}i o}o| -1.5566
-1.7291 í}i p}p -0.4986
-2.0884 í}i q|u}k -0.4317
-1.6138 í}i r}r -0.6078
-2.6151 í}i r}r| -0.2556
-1.0208 í}i s}s -1.2768
-1.7453 í}i s}s| -0.9546
-1.3998 í}i t}t -0.9688
-1.8662 í}i v}b -0.6236
-2.4842 í}i z}z -0.2556
-1.8982 í}i z}z| -0.8577
-0.0150 í}i| </s> 0.0000
-0.9358 ñ}gn a}a -1.1870
-0.9464 ñ}gn a}a| -1.9088
-0.9339 ñ}gn e}e -0.7529
-1.8941 ñ}gn e}e| -0.2556
-1.3838 ñ}gn i}i -0.6078
-0.9381 ñ}gn o}o -0.9246
-0.9488 ñ}gn o}o| -1.8577
-1.8188 ñ}gn u}u -0.2556
-1.8412 ñ}gn á}a -0.5566
-1.8528 ñ}gn é}e -0.2556
-1.4015 ñ}gn í}i -0.2556
-1.1953 ñ}gn ó}o -0.8577
-1.1962 ñ}gn ó}o| -0.9546
-1.8771 ñ}gn ú}u -0.2556
-0.3393 ñ}gn| </s> 0.0000
-1.4838 ó}o </s> 0.0000
-1.8768 ó}o b}b -0.5566
-1.4375 ó}o c}k -0.6816
-1.9010 ó}o c}z -0.7327
-1.5440 ó}o d}d -0.6816
-1.6840 ó}o f}f -0.3525
-1.4421 ó}o g}g -1.2098
-1.3591 ó}o g}j -1.4317
-2.3480 ó}o j}j -0.2556
-1.0020 ó}o l}l -1.0089
-1.2784 ó}o m}m -0.8577
-0.9689 ó}o n}n -0.9141
-0.8170 ó}o n}n| -3.0836
-1.4421 ó}o p}p -0.8199
-2.3543 ó}o q|u}k -0.2556
-2.3946 ó}o r|r}rr -0.5566
-1.0772 ó}o r}r -0.8754
-1.2774 ó}o s}s -0.7079
-1.9241 ó}o s}s| -0.5566
-1.2170 ó}o t}t -0.7997
-1.6881 ó}o v}b -0.7997
-1.7051 ó}o x}x -1.1007
-2.3355 ó}o y}y -0.2556
-0.0099 ó}o| </s> 0.0000
-1.4893 ú}u </s> 0.0000
-1.0813 ú}u a}a -0.9960
-1.0965 ú}u a}a| -1.2970
-1.2741 ú}u b}b -0.8199
-2.1038 ú}u c|h}ch -0.5566
-1.6155 ú}u c}k -0.2556
-2.1735 ú}u d}d| -0.2556
-1.5798 ú}u e}e -0.5566
-1.6469 ú}u e}e| -0.7327
-2.0195 ú}u f}f -0.2556
-2.0564 ú}u g}j -0.5566
-2.1184 ú}u l|l}ll -0.2556
-1.2688 ú}u l}l -0.9088
-1.6647 ú}u l}l| -0.7327
-1.9590 ú}u m}m -0.7327
-1.0833 ú}u n}n -0.7079
-1.1036 ú}u n}n| -1.1587
-2.0967 ú}u o}o| -0.2556
-1.4232 ú}u p}p -0.4317
-1.1691 ú}u r}r -0.5566
-1.1650 ú}u s}s -0.4986
-1.6596 ú}u s}s| -0.5566
-1.3985 ú}u t}t -0.5566
-2.1571 ú}u z}z| -0.2556
-1.6700 ú}u ñ}gn -0.5566
-0.0350 ú}u| </s> 0.0000
-0.8012 ü}u e}e -0.3525
-0.8312 ü}u e}e| -0.2556
-0.8022 ü}u i}i -0.2556

\3-grams:
-0.1555 <s> ]}a </s>
-0.5884 <s> _|a}a </s>
-1.2018 <s> _|a}a _|b}b
-1.2018 <s> _|a}a _|d}d
-1.2018 <s> _|a}a _|i}i
-0.7598 <s> _|a}a _|k}k
-1.2002 <s> _|a}a _|p}p
-1.2033 <s> _|a}a _|z}z
-1.2010 <s> _|a}a _}a
-0.0324 <s> _|b}b _}e
-0.0670 <s> _|c}k _|o}o
-0.0053 <s> _|c}z _}e
-0.0092 <s> _|d}d _}e
-0.9120 <s> _|e}e </s>
-0.9679 <s> _|e}e _|c}k
-0.9679 <s> _|e}e _|p}p
-0.5622 <s> _|e}e _|t}t
-0.9506 <s> _|e}e _}e
-0.2494 <s> _|f}f _|i}i
-0.0740 <s> _|g}j _}e
-0.5130 <s> _|i}i _|b}b
-0.7081 <s> _|i}i _|t}t
-0.6982 <s> _|i}i _}e
-0.0755 <s> _|k}k _}a
-0.8211 <s> _|o}o </s>
-1.0269 <s> _|o}o _|c}z
-1.0269 <s> _|o}o _|e}e
-0.3658 <s> _|o}o _}e
-0.0084 <s> _|p}p _}e
-0.0324 <s> _|t}t _}e
-0.6211 <s> _|u}u </s>
-0.2485 <s> _|u}u _}e
-0.0479 <s> _|v}b _}e
-0.1555 <s> _|y}i </s>
-0.1462 <s> _}a h}ch|e
-0.1671 <s> _}d|o _}b|l
-1.0561 <s> _}e f}f
-0.6795 <s> _}e m}m
-0.8228 <s> _}e n}n
-0.6832 <s> _}e r}r
-0.8278 <s> _}e s}s
-1.5699 <s> _}e x|_}k
-0.1672 <s> _}e|k x}i|s
-0.1615 <s> _}e|z e}e
-0.0756 <s> _}j|o j}t|a
-0.1672 <s> _}t|e t}d|o
-0.4031 <s> a|h}a </s>
-0.7410 <s> a|h}a m}m
-0.7464 <s> a|h}a í}i|
-3.1811 <s> a}a </s>
-3.5746 <s> a}a a}a
-1.2687 <s> a}a b}b
-3.4270 <s> a}a c|h}ch
-1.0439 <s> a}a c}k
-3.6948 <s> a}a c}s
-1.7125 <s> a}a c}z
-1.1740 <s> a}a d}d
-2.1872 <s> a}a e}e
-1.5364 <s> a}a f}f
-2.7218 <s> a}a g|u}g
-1.3733 <s> a}a g}g
-2.4383 <s> a}a g}j
-3.6119 <s> a}a h|e}e
-2.1941 <s> a}a h|o}o
-3.5306 <s> a}a h|u}u
-2.2064 <s> a}a i}i
-2.2717 <s> a}a j}j
-3.7229 <s> a}a k|h}k
-3.1190 <s> a}a k}k
-2.6224 <s> a}a l|l}ll
-0.9748 <s> a}a l}l
-1.2922 <s> a}a m}m
-3.7244 <s> a}a n|h}n
-0.9795 <s> a}a n}n
-3.4491 <s> a}a o}o
-1.0584 <s> a}a p}p
-2.2749 <s> a}a q|u}k
-3.7237 <s> a}a q}k
-1.5673 <s> a}a r|r}rr
-1.2156 <s> a}a r}r
-2.8399 <s> a}a s|c}z
-1.2038 <s> a}a s}s
-1.2993 <s> a}a t}t
-1.3114 <s> a}a u}u
-1.6154 <s> a}a v}b
-3.5906 <s> a}a x}x
-3.1254 <s> a}a y}i
-1.9412 <s> a}a y}y
-2.0043 <s> a}a z}z
-2.8416 <s> a}a é}e
-3.5798 <s> a}a í}i
-2.2136 <s> a}a ñ}gn
-2.9718 <s> a}a ú}u
-2.9260 <s> b}b </s>
-3.1346 <s> b}b a|h}a
-0.4981 <s> b}b a}a
-0.8618 <s> b}b e}e
-3.1330 <s> b}b h|u}u
-1.2097 <s> b}b i}i
-1.3261 <s> b}b l}l
-0.7847 <s> b}b o}o
-0.9273 <s> b}b r}r
-0.9051 <s> b}b u}u
-1.8199 <s> b}b á}a
-2.3812 <s> b}b é}e
-2.3884 <s> b}b ú}u
-0.6007 <s> c|h}ch a}a
-0.7513 <s> c|h}ch e}e
-0.5138 <s> c|h}ch i}i
-0.8270 <s> c|h}ch o}o
-1.6282 <s> c|h}ch r}r
-1.1456 <s> c|h}ch u}u
-2.3515 <s> c|h}ch á}a
-2.3032 <s> c|h}ch é}e|
-3.4864 <s> c}k </s>
-0.5955 <s> c}k a}a
-1.5926 <s> c}k l}l
-0.2508 <s> c}k o}o
-1.2258 <s> c}k r}r
-1.0677 <s> c}k u}u
-3.2014 <s> c}k y}i
-2.1540 <s> c}k á}a
-2.3483 <s> c}k ó}o
-2.9688 <s> c}k ú}u
-0.2991 <s> c}z e}e
-0.3740 <s> c}z i}i
-1.4593 <s> c}z é}e
-1.4100 <s> c}z í}i
-3.2560 <s> d}d </s>
-1.3319 <s> d}d a}a
-0.2335 <s> d}d e}e
-3.5308 <s> d}d h|a}a
-0.6067 <s> d}d i}i
-1.1919 <s> d}d o}o
-2.1012 <s> d}d r}r
-1.4863 <s> d}d u}u
-3.4969 <s> d}d w}u
-2.4867 <s> d}d á}a
-2.2127 <s> d}d é}e
-3.4964 <s> d}d é}e|
-2.5595 <s> d}d í}i
-2.8131 <s> d}d ó}o
-3.5286 <s> d}d ú}u
-0.2659 <s> e|h}e </s>
-3.1566 <s> e}e </s>
-2.7760 <s> e}e a}a
-2.9625 <s> e}e b}b
-2.2065 <s> e}e c|h}ch
-1.8049 <s> e}e c}k
-1.6901 <s> e}e d}d
-1.7205 <s> e}e f}f
-2.6477 <s> e}e g}g
-2.6710 <s> e}e g}j
-3.5328 <s> e}e h|u}u
-2.9660 <s> e}e i}i
-1.6937 <s> e}e j}j
-3.4739 <s> e}e k}k
-2.6510 <s> e}e l|l}ll
-1.2435 <s> e}e l}l
-1.0677 <s> e}e m}m
-0.6297 <s> e}e n}n
-2.4055 <s> e}e p}p
-1.9205 <s> e}e q|u}k
-2.1298 <s> e}e r|r}rr
-1.9092 <s> e}e r}r
-3.0589 <s> e}e s|c}z
-0.5658 <s> e}e s}s
-2.1187 <s> e}e t}t
-2.1338 <s> e}e u}u
-1.5636 <s> e}e v}b
-0.7587 <s> e}e x}x
-3.3681 <s> e}e y}i
-2.7779 <s> e}e z}z
-2.8876 <s> f}f </s>
-3.1850 <s> f}f a|h}a
-0.7069 <s> f}f a}a
-1.0398 <s> f}f e}e
-0.7127 <s> f}f i}i
-1.2190 <s> f}f l}l
-0.8638 <s> f}f o}o
-0.8142 <s> f}f r}r
-0.8782 <s> f}f u}u
-1.9692 <s> f}f á}a
-2.1118 <s> f}f é}e
-3.1272 <s> f}f é}e|
-2.0326 <s> f}f í}i
-2.6554 <s> f}f ó}o
-3.1768 <s> f}f ú}u
-0.3293 <s> g|u}g e}e
-0.3408 <s> g|u}g i}i
-1.1928 <s> g|u}g í}i
-2.6373 <s> g}g </s>
-0.5128 <s> g}g a}a
-2.8867 <s> g}g h|a}a
-1.4540 <s> g}g l}l
-0.7323 <s> g}g o}o
-0.5813 <s> g}g r}r
-0.7145 <s> g}g u}u
-2.8859 <s> g}g w}u
-2.3552 <s> g}g ó}o
-2.7603 <s> g}g ü}u
-0.1937 <s> g}j e}e
-0.4808 <s> g}j i}i
-1.5895 <s> g}j é}e
-2.1975 <s> h|a}a </s>
-0.4299 <s> h|a}a b}b
-2.4488 <s> h|a}a c}k
-0.8231 <s> h|a}a c}z
-1.7136 <s> h|a}a d}d
-1.6504 <s> h|a}a g}g
-1.7343 <s> h|a}a i}i
-1.9247 <s> h|a}a k}k
-1.0644 <s> h|a}a l|l}ll
-1.6879 <s> h|a}a l}l
-1.3403 <s> h|a}a m}m
-1.2666 <s> h|a}a n}n
-2.4730 <s> h|a}a r|r}rr
-1.1434 <s> h|a}a r}r
-1.3119 <s> h|a}a s}s
-2.0094 <s> h|a}a v}b
-2.3448 <s> h|a}a w}u
-2.4538 <s> h|a}a y}i
-1.7668 <s> h|a}a y}y
-1.7668 <s> h|a}a z}z
-1.9559 <s> h|e}e </s>
-1.4387 <s> h|e}e b}b
-1.0786 <s> h|e}e c|h}ch
-2.1081 <s> h|e}e c}k
-1.7691 <s> h|e}e i}i
-0.8027 <s> h|e}e l}l
-1.2402 <s> h|e}e m}m
-1.3012 <s> h|e}e n}n
-2.0025 <s> h|e}e p}p
-1.2981 <s> h|e}e r|r}rr
-0.3383 <s> h|e}e r}r
-1.8329 <s> h|e}e s}s
-2.1248 <s> h|e}e x}x
-2.1118 <s> h|e}e y}i
-2.1173 <s> h|e}e z}z
-1.1681 <s> h|i}i c}z
-0.9278 <s> h|i}i d}d
-1.3853 <s> h|i}i e}e
-2.1034 <s> h|i}i g|h}g
-1.6362 <s> h|i}i g}j
-1.3913 <s> h|i}i j}j
-1.9728 <s> h|i}i l|l}ll
-1.3598 <s> h|i}i l}l
-1.6626 <s> h|i}i m}m
-1.2320 <s> h|i}i n}n
-0.8940 <s> h|i}i p}p
-1.0536 <s> h|i}i r}r
-0.5885 <s> h|i}i s}s
-1.3863 <s> h|i}i t}t
-2.0881 <s> h|i}i z}z
-1.8697 <s> h|o}o </s>
-1.7662 <s> h|o}o f}f
-1.5156 <s> h|o}o g}g
-1.7711 <s> h|o}o j}j
-1.9230 <s> h|o}o k}k
-2.2094 <s> h|o}o l|l}ll
-1.0113 <s> h|o}o l}l
-0.7647 <s> h|o}o m}m
-0.6224 <s> h|o}o n}n
-2.1734 <s> h|o}o o}o
-2.1917 <s> h|o}o p}p
-2.0481 <s> h|o}o r|r}rr
-0.8455 <s> h|o}o r}r
-0.7521 <s> h|o}o s}s
-2.1679 <s> h|o}o t}t
-2.1748 <s> h|o}o u}u
-2.1888 <s> h|o}o y}i
-2.1975 <s> h|o}o y}y
-1.1754 <s> h|u}u a}a
-1.1018 <s> h|u}u b}b
-0.7496 <s> h|u}u e}e
-1.6468 <s> h|u}u g}g
-1.8909 <s> h|u}u i}i
-0.5464 <s> h|u}u m}m
-0.9155 <s> h|u}u n}n
-1.2927 <s> h|u}u r}r
-1.3882 <s> h|u}u s}s
-1.5711 <s> h|u}u t}t
-1.2956 <s> h|u}u y}y
-2.0687 <s> h|u}u é}e
-1.6433 <s> h|u}u í}i
-0.1627 <s> h|y}y u}u
-0.2483 <s> h|á}a b}b
-0.6383 <s> h|á}a g}g
-0.6890 <s> h|é}e c}k
-0.2687 <s> h|é}e r}r
-0.2937 <s> h|í}i g}g
-0.4587 <s> h|ú}u m}m
-0.4584 <s> h|ú}u n}n
-3.0526 <s> i}i </s>
-3.1035 <s> i}i a}a
-2.0309 <s> i}i b}b
-3.2444 <s> i}i c|h}ch
-3.1544 <s> i}i c}z
-1.5900 <s> i}i d}d
-3.2290 <s> i}i f}f
-1.9589 <s> i}i g}g
-3.3084 <s> i}i k}k
-2.8173 <s> i}i l|l}ll
-1.7248 <s> i}i l}l
-0.9084 <s> i}i m}m
-0.1352 <s> i}i n}n
-2.8103 <s> i}i o}o
-1.9693 <s> i}i r|r}rr
-1.6361 <s> i}i r}r
-1.7044 <s> i}i s}s
-2.2850 <s> i}i t}t
-2.8530 <s> i}i u}u
-2.6285 <s> i}i v}b
-2.2343 <s> i}i z}z
-3.3121 <s> i}i ñ}gn
-0.1629 <s> j|ü}j r}r
-2.5524 <s> j}j </s>
-0.7557 <s> j}j a}a
-0.8482 <s> j}j e}e
-1.3415 <s> j}j i}i
-1.9896 <s> j}j o|h}o
-2.7053 <s> j}j o|ã}o
-0.8368 <s> j}j o}o
-0.3345 <s> j}j u}u
-2.5760 <s> j}j á}a
-2.5779 <s> j}j ó}o
-2.6951 <s> j}j ú}u
-0.1620 <s> j}y a}a
-0.0840 <s> k|h}k m}m
-0.4897 <s> k}k a}a
-0.8689 <s> k}k e}e
-2.0306 <s> k}k h|a}a
-2.1310 <s> k}k h|i}i
-0.6847 <s> k}k i}i
-1.6071 <s> k}k l}l
-2.1963 <s> k}k o|h}o
-1.0258 <s> k}k o}o
-1.4783 <s> k}k r}r
-0.9801 <s> k}k u}u
-1.7033 <s> k}k w}u
-1.9472 <s> k}k y}i
-0.5171 <s> l|l}ll a}a
-0.2224 <s> l|l}ll e}e
-1.4250 <s> l|l}ll o}o
-1.3342 <s> l|l}ll u}u
-2.8876 <s> l}l </s>
-0.6664 <s> l}l a}a
-3.0849 <s> l}l e|h}e
-0.6348 <s> l}l e}e
-0.5632 <s> l}l i}i
-0.8619 <s> l}l o}o
-1.0038 <s> l}l u}u
-2.5548 <s> l}l y}i
-1.9866 <s> l}l á}a
-1.7151 <s> l}l í}i
-2.5338 <s> l}l ó}o
-0.2440 <s> m|h}m m}m
-3.1156 <s> m}m </s>
-0.4332 <s> m}m a}a
-2.1112 <s> m}m c}k
-0.7666 <s> m}m e}e
-0.8663 <s> m}m i}i
-3.3349 <s> m}m l}l
-3.4232 <s> m}m m|h}m
-3.2193 <s> m}m n}n
-0.7489 <s> m}m o}o
-1.0292 <s> m}m u}u
-3.3074 <s> m}m y}i
-3.4148 <s> m}m y}y
-1.9466 <s> m}m á}a
-1.9863 <s> m}m é}e
-2.0607 <s> m}m í}i
-3.3785 <s> m}m í}i|
-2.3248 <s> m}m ó}o
-2.4351 <s> m}m ú}u
-2.6929 <s> n}n </s>
-0.6542 <s> n}n a}a
-2.4244 <s> n}n b}b
-0.5744 <s> n}n e}e
-2.4155 <s> n}n g|u}g
-0.9652 <s> n}n i}i
-0.5509 <s> n}n o}o
-1.0552 <s> n}n u}u
-2.4029 <s> n}n á}a
-2.8433 <s> n}n é}e
-2.8419 <s> n}n í}i
-2.0609 <s> n}n ú}u
-0.4612 <s> o|'}o d}d
-0.4640 <s> o|'}o h|a}a
-0.2819 <s> o|h}o </s>
-2.5933 <s> o}o </s>
-2.2591 <s> o}o a}a
-0.7343 <s> o}o b}b
-2.0476 <s> o}o c|h}ch
-0.9150 <s> o}o c}k
-1.9574 <s> o}o c}z
-1.9388 <s> o}o d}d
-2.4425 <s> o}o e}e
-0.9822 <s> o}o f}f
-2.9819 <s> o}o h|i}i
-2.4825 <s> o}o i}i
-2.0423 <s> o}o j}j
-2.2912 <s> o}o k}k
-2.8512 <s> o}o l|l}ll
-1.1748 <s> o}o l}l
-2.0240 <s> o}o m}m
-1.8586 <s> o}o n}n
-0.9085 <s> o}o p}p
-0.7377 <s> o}o r}r
-1.2860 <s> o}o s}s
-1.3768 <s> o}o t}t
-2.2523 <s> o}o v}b
-2.9190 <s> o}o w}u
-2.4943 <s> o}o x}x
-1.8849 <s> o}o y}y
-2.8327 <s> o}o z}z
-2.3131 <s> o}o í}i
-3.0529 <s> o}o í}i|
-0.2769 <s> p|h}p n}n
-3.3784 <s> p}p </s>
-0.7368 <s> p}p a}a
-0.7468 <s> p}p e}e
-3.6412 <s> p}p f}f
-2.9244 <s> p}p h|i}i
-3.6498 <s> p}p h|o}o
-1.3109 <s> p}p i}i
-1.2996 <s> p}p l}l
-0.9808 <s> p}p o}o
-0.4350 <s> p}p r}r
-2.4307 <s> p}p s}s
-1.3651 <s> p}p u}u
-3.1582 <s> p}p y}y
-2.2914 <s> p}p á}a
-2.4006 <s> p}p é}e
-2.7573 <s> p}p í}i
-2.8839 <s> p}p ó}o
-2.3946 <s> p}p ú}u
-0.6360 <s> q|a}a b}b
-0.2475 <s> q|a}a t}t
-0.4577 <s> q|i}i a}a
-0.4617 <s> q|i}i y}i
-2.4286 <s> q|u}k </s>
-0.3476 <s> q|u}k e}e
-0.3132 <s> q|u}k i}i
-1.9326 <s> q|u}k é}e
-2.3085 <s> q|u}k é}e|
-1.4297 <s> q|u}k í}i
-2.3091 <s> q|u}k í}i|
-0.0478 <s> q}k u}u
-0.0708 <s> q}k|u </s>
-1.1010 <s> r}rr a}a
-0.1298 <s> r}rr e}e
-1.3816 <s> r}rr i}i
-1.0390 <s> r}rr o}o
-1.4336 <s> r}rr u}u
-2.7258 <s> r}rr y}i
-2.6357 <s> r}rr á}a
-2.7767 <s> r}rr é}e
-2.7247 <s> r}rr í}i
-3.2213 <s> r}rr ó}o
-2.9772 <s> s}s </s>
-0.7363 <s> s}s a}a
-2.2806 <s> s}s c|h}ch
-2.5685 <s> s}s c}k
-0.6872 <s> s}s e}e
-2.2707 <s> s}s h|a}a
-2.5997 <s> s}s h|e}e
-2.7317 <s> s}s h|i}i
-2.6211 <s> s}s h|o}o
-0.9251 <s> s}s i}i
-3.2450 <s> s}s k}k
-2.9293 <s> s}s l}l
-2.7086 <s> s}s m}m
-0.7866 <s> s}s o}o
-2.1202 <s> s}s p}p
-1.7204 <s> s}s t}t
-0.5970 <s> s}s u}u
-2.7528 <s> s}s w}u
-3.4413 <s> s}s y}i
-2.4854 <s> s}s á}a
-2.7374 <s> s}s é}e
-3.3778 <s> s}s é}e|
-2.2750 <s> s}s í}i
-3.4122 <s> s}s í}i|
-2.2222 <s> s}s ó}o
-2.6096 <s> s}s ú}u
-2.9248 <s> t}t </s>
-0.8983 <s> t}t a}a
-0.5975 <s> t}t e}e
-2.5398 <s> t}t h|e}e
-3.2556 <s> t}t h|o}o
-1.1287 <s> t}t i}i
-2.2816 <s> t}t l}l
-0.9108 <s> t}t o}o
-0.4983 <s> t}t r}r
-2.7098 <s> t}t s}s
-1.2232 <s> t}t u}u
-3.2230 <s> t}t w}u
-3.1431 <s> t}t y}i
-2.2756 <s> t}t á}a
-1.8846 <s> t}t é}e
-2.1932 <s> t}t í}i
-2.5106 <s> t}t ó}o
-2.7394 <s> t}t ú}u
-3.2898 <s> t}t ú}u|
-0.2356 <s> u|h}u </s>
-2.2413 <s> u}u </s>
-1.0345 <s> u}u b}b
-1.9737 <s> u}u c}k
-2.2612 <s> u}u d}d
-2.2681 <s> u}u e}e
-2.3856 <s> u}u g}g
-1.2102 <s> u}u l}l
-2.3004 <s> u}u m}m
-0.4891 <s> u}u n}n
-1.9960 <s> u}u r|r}rr
-0.9286 <s> u}u r}r
-0.7279 <s> u}u s}s
-0.8648 <s> u}u t}t
-2.4561 <s> u}u v}b
-1.9900 <s> u}u z}z
-2.9574 <s> v}b </s>
-0.8477 <s> v}b a}a
-0.4679 <s> v}b e}e
-0.4460 <s> v}b i}i
-2.4248 <s> v}b l}l
-1.0102 <s> v}b o}o
-3.0946 <s> v}b r}r
-1.6325 <s> v}b u}u
-1.9959 <s> v}b á}a
-1.8352 <s> v}b í}i
-3.0568 <s> v}b í}i|
-2.2816 <s> v}b ó}o
-0.4885 <s> w}u a}a
-1.9890 <s> w}u e|h}e
-0.5957 <s> w}u e}e
-1.2763 <s> w}u h|i}i
-0.5926 <s> w}u i}i
-1.2194 <s> w}u o}o
-1.9820 <s> w}u y}y
-0.9652 <s> x}x a}a
-0.5833 <s> x}x e}e
-0.5075 <s> x}x i}i
-0.9665 <s> x}x o}o
-0.5211 <s> y}i </s>
-0.3141 <s> y}i v}b
-0.4468 <s> y}y a}a
-0.7595 <s> y}y e}e
-1.3929 <s> y}y i}i
-0.6532 <s> y}y o}o
-0.7554 <s> y}y u}u
-1.8128 <s> y}y á}a
-0.3776 <s> z}z a}a
-0.9993 <s> z}z e}e
-1.1274 <s> z}z h|e}e
-2.0040 <s> z}z h|i}i
-2.0071 <s> z}z h|u}u
-1.2495 <s> z}z i}i
-0.8419 <s> z}z o}o
-1.0094 <s> z}z u}u
-1.8401 <s> z}z á}a
-1.8761 <s> z}z ó}o
-1.1008 <s> Á}a b}b
-1.1045 <s> Á}a f}f
-0.7191 <s> Á}a l}l
-0.3837 <s> Á}a n}n
-1.1064 <s> Á}a v}b
-1.0679 <s> É}e l}l|
-0.0772 <s> É}e s}s
-0.0736 <s> Í}i n}n
-0.1622 <s> Ó}o s}s
-0.2478 <s> Ú}u l}l
-0.6345 <s> Ú}u n}n
-1.5125 <s> á}a c}z
-1.4235 <s> á}a l}l
-1.0241 <s> á}a m}m
-0.4690 <s> á}a n}n
-0.4039 <s> á}a r}r
-1.2355 <s> é}e b}b
-1.1746 <s> é}e l}l
-1.7139 <s> é}e l}l|
-1.4656 <s> é}e n}n
-1.2052 <s> é}e p}p
-1.3831 <s> é}e r}r
-0.6589 <s> é}e s}s
-0.5179 <s> é}e t}t
-1.0165 <s> é}e x}x
-0.0887 <s> í}i n}n
-1.2137 <s> í}i t}t
-0.3446 <s> ñ}gn ú}u
-1.1535 <s> ó}o m}m
-0.5008 <s> ó}o p}p
-0.4830 <s> ó}o r}r
-1.1533 <s> ó}o s}s
-0.4896 <s> ú}u l}l
-0.3993 <s> ú}u n}n
-0.7462 <s> ú}u t}t
-0.1055 _|a}a _|b}b _}e
-0.2192 _|a}a _|c}k _|a}a
-0.0479 _|a}a _|d}d _}e
-0.2356 _|a}a _|f}f </s>
-0.3074 _|a}a _|i}i _|p}p
-0.0361 _|a}a _|k}k _}a
-0.0822 _|a}a _|p}p _}e
-0.1634 _|a}a _|z}z _}e
-0.1462 _|a}a _}a h}ch|e
-0.1678 _|b}b _|a}a </s>
-0.7631 _|b}b _}e </s>
-0.4502 _|b}b _}e _}e
-0.9247 _|b}b _}e c}z
-0.9697 _|b}b _}e p}p
-0.6238 _|c}k _|a}a _|c}k
-0.6245 _|c}k _|a}a _|f}f
-0.6450 _|c}k _|o}o </s>
-0.8492 _|c}k _|o}o _|c}k
-0.8514 _|c}k _|o}o _|n}n
-0.8492 _|c}k _|o}o _|p}p
-1.0046 _|c}z _}e </s>
-0.4315 _|c}z _}e _}e
-1.3611 _|c}z _}e b}b
-0.9400 _|c}z _}e d}d
-1.3976 _|c}z _}e g}j
-1.4038 _|c}z _}e h}a|ch
-1.2728 _|c}z _}e i}i
-1.3331 _|c}z _}e p}p
-1.2738 _|c}z _}e t}t
-0.8595 _|d}d _}e </s>
-0.3895 _|d}d _}e _}e
-1.0443 _|d}d _}e c}z
-1.1166 _|d}d _}e d}d
-1.1421 _|d}d _}e h}a|ch
-0.1678 _|e}e _|a}a </s>
-0.1462 _|e}e _|c}k _|o}o
-0.0822 _|e}e _|p}p _}e
-0.5496 _|e}e _|t}t _|a}a
-0.2503 _|e}e _|t}t _}e
-0.3434 _|e}e _}e l}l
-0.2194 _|f}f _|i}i _|b}b
-0.4856 _|g}j _}e </s>
-0.5164 _|g}j _}e _}e
-0.5496 _|i}i _|b}b _|a}a
-0.2503 _|i}i _|b}b _}e
-0.0822 _|i}i _|p}p _}e
-0.1055 _|i}i _|t}t _}e
-0.3340 _|i}i _}e n}n
-0.2836 _|k}k _}a </s>
-0.7395 _|k}k _}a _}e
-0.2192 _|n}n _|c}k _|a}a
-0.1462 _|o}o _|c}k _|o}o
-0.0740 _|o}o _|c}z _}e
-0.3136 _|o}o _|e}e _|a}a
-0.1667 _|o}o _|n}n _|c}k
-0.3075 _|o}o _|p}p _|a}a
-0.3063 _|o}o _}e m}m
-0.7941 _|o}o _}e n}n
-0.1678 _|p}p _|a}a </s>
-0.5773 _|p}p _}e </s>
-0.7740 _|p}p _}e _}e
-1.2297 _|p}p _}e c}z
-0.8829 _|p}p _}e d}d
-1.3510 _|p}p _}e g}j
-0.8738 _|p}p _}e p}p
-1.2476 _|p}p _}e t}t
-0.1678 _|t}t _|a}a </s>
-0.7631 _|t}t _}e </s>
-0.4502 _|t}t _}e _}e
-0.9367 _|t}t _}e t}t
-1.0203 _|t}t _}e v}b
-0.6273 _|u}u _}e r}r
-0.6269 _|u}u _}e s}s
-0.6616 _|v}b _}e </s>
-0.2976 _|v}b _}e i}i
-0.3497 _|z}z _}e _}t|a
-0.3341 _}a _}e m}m
-0.0459 _}a h}ch|e </s>
-0.1403 _}b|l _}e w}u
-0.0740 _}d|o _}b|l _}e
-1.3571 _}e _}e f}f
-1.1341 _}e _}e l}l
-0.7867 _}e _}e m}m
-0.5512 _}e _}e n}n
-0.7169 _}e _}e r}r
-0.7890 _}e _}e s}s
-0.0362 _}e _}j|o j}t|a
-0.2435 _}e _}t|a t}t
-0.0485 _}e a}a </s>
-0.0509 _}e b}b _}e
-0.0274 _}e c}z _}e
-0.0420 _}e d}d _}e
-0.1335 _}e e}e </s>
-0.0645 _}e f}f _}e
-0.0641 _}e g}j _}e
-0.0479 _}e h}a|ch _}e
-0.2449 _}e i}i </s>
-1.2529 _}e i}i _|a}a
-1.2532 _}e i}i _|d}d
-1.2532 _}e i}i _}a
-0.0645 _}e l}l _}e
-0.0189 _}e m}m _}e
-0.0163 _}e n}n _}e
-0.0420 _}e p}p _}e
-0.0708 _}e q}k|u </s>
-0.0205 _}e r}r _}e
-0.0247 _}e s}s _}e
-0.0356 _}e t}t _}e
-0.3220 _}e u}u </s>
-0.1402 _}e v}b _}e
-0.5316 _}e w}u </s>
-0.6419 _}e w}u _|a}a
-0.1672 _}e x|_}k e}i|s
-0.1555 _}e|k x}i|s </s>
-0.3514 _}e|z e}e _}t|a
-0.0459 _}j|o j}t|a </s>
-0.3483 _}t|a t}t _}e
-0.1625 _}t|a z|_}e l}l
-0.1671 _}t|e t}d|o _}b|l
-0.2968 a|h}a m}m e}e
-0.5788 a|h}a r}r a}a
-0.5786 a|h}a r}r e}e
-0.0082 a|h}a í}i| </s>
-0.3201 a|q}a s}s a}a
-1.1822 a}a a}a c}k
-1.1778 a}a a}a m}m
-1.1563 a}a a}a n}n
-1.1780 a}a a}a r}r
-1.1703 a}a a}a s}s
-0.7520 a}a a}a t}t
-0.7637 a}a a}a v}b
-2.5679 a}a b}b </s>
-0.3862 a}a b}b a}a
-2.4573 a}a b}b a}a|
-2.6683 a}a b}b b}b
-2.0486 a}a b}b d}d
-1.2159 a}a b}b e}e
-3.1168 a}a b}b e}e|
-1.1288 a}a b}b i}i
-3.1721 a}a b}b k}k
-0.6780 a}a b}b l}l
-1.0770 a}a b}b o}o
-1.1643 a}a b}b r}r
-1.5728 a}a b}b s}s
-1.5607 a}a b}b u}u
-3.1730 a}a b}b w}u
-3.0145 a}a b}b y}i
-3.0120 a}a b}b á}a
-2.9730 a}a b}b é}e
-2.2800 a}a b}b í}i
-2.4333 a}a b}b ó}o
-2.6336 a}a b}b ó}o|
-3.0175 a}a b}b ú}u
-3.1246 a}a b}b ú}u|
-1.3003 a}a c|h}ch </s>
-0.4075 a}a c|h}ch a}a
-1.2246 a}a c|h}ch e}e
-0.9450 a}a c|h}ch i}i
-0.5981 a}a c|h}ch o}o
-1.1213 a}a c|h}ch u}u
-1.8227 a}a c|h}ch í}i
-1.8247 a}a c|h}ch ó}o
-1.7687 a}a c}k </s>
-0.6388 a}a c}k a}a
-1.1139 a}a c}k c}z
-3.0420 a}a c}k g}j
-2.0567 a}a c}k k}k
-1.4622 a}a c}k l}l
-0.7756 a}a c}k o}o
-2.2845 a}a c}k o}o|
-3.0441 a}a c}k q|u}k
-1.2467 a}a c}k r}r
-0.6510 a}a c}k t}t
-0.8078 a}a c}k u}u
-3.0425 a}a c}k z}z
-2.0315 a}a c}k á}a
-3.0457 a}a c}k á}a|
-2.2751 a}a c}k ó}o|
-2.5078 a}a c}k ú}u
-0.0340 a}a c}k| </s>
-0.5416 a}a c}s á}a
-0.5444 a}a c}s ú}u
-0.9294 a}a c}z e}e
-0.0652 a}a c}z i}i
-2.0969 a}a c}z é}e
-1.9026 a}a c}z í}i
-3.0620 a}a c}z í}i|
-0.1616 a}a d|z}z i}i
-1.1474 a}a d}d </s>
-0.5669 a}a d}d a}a
-2.6626 a}a d}d a}a|
-3.6509 a}a d}d b}b
-3.1848 a}a d}d d}d
-1.2694 a}a d}d e}e
-3.6657 a}a d}d e}e|
-2.8837 a}a d}d h|e}e
-1.4788 a}a d}d i}i
-2.6039 a}a d}d j}j
-1.9558 a}a d}d m}m
-0.2992 a}a d}d o}o
-2.3170 a}a d}d o}o|
-2.5521 a}a d}d q|u}k
-1.8813 a}a d}d r}r
-2.8428 a}a d}d s}s
-1.8672 a}a d}d u}u
-2.2366 a}a d}d v}b
-3.6089 a}a d}d w}u
-3.5117 a}a d}d y}i
-3.7256 a}a d}d y}y
-3.7256 a}a d}d z}z
-2.8354 a}a d}d á}a
-3.7321 a}a d}d á}a|
-2.9644 a}a d}d é}e
-2.6388 a}a d}d í}i
-3.1484 a}a d}d ó}o
-2.9534 a}a d}d ó}o|
-3.6619 a}a d}d ú}u
-0.0270 a}a d}d| </s>
-1.3833 a}a e}e </s>
-2.0359 a}a e}e b}b
-1.5914 a}a e}e d}d
-2.0373 a}a e}e g}g
-0.6522 a}a e}e l}l
-1.9841 a}a e}e m}m
-1.3798 a}a e}e n}n
-0.3926 a}a e}e r}r
-0.9329 a}a e}e s}s
-1.6049 a}a e}e v}b
-1.4038 a}a e}e z}z
-1.8657 a}a f}f </s>
-1.0804 a}a f}f a}a
-2.4834 a}a f}f c}k
-0.8736 a}a f}f e}e
-1.7017 a}a f}f f}f
-1.7848 a}a f}f g}g
-2.5030 a}a f}f i|q}i
-0.5307 a}a f}f i}i
-1.7225 a}a f}f l}l
-0.9943 a}a f}f o}o
-1.3648 a}a f}f o}o|
-0.8940 a}a f}f r}r
-2.4768 a}a f}f s}s
-2.2750 a}a f}f t}t
-1.6901 a}a f}f u}u
-1.9092 a}a f}f á}a
-2.4286 a}a f}f é}e|
-1.0746 a}a f}f í}i
-2.3721 a}a f}f ó}o
-0.2510 a}a g|h}g l}l
-0.3994 a}a g|u}g e}e
-0.3459 a}a g|u}g i}i
-0.9269 a}a g|u}g é}e|
-0.1615 a}a g|ü}g e}e
-1.9368 a}a g}g </s>
-0.6514 a}a g}g a}a
-2.2194 a}a g}g a}a|
-2.2378 a}a g}g d}d
-2.6788 a}a g}g g}g
-2.6806 a}a g}g g}j
-2.4551 a}a g}g l}l
-2.0104 a}a g}g m}m
-1.3652 a}a g}g n}n
-0.6821 a}a g}g o}o
-1.7545 a}a g}g o}o|
-0.5634 a}a g}g r}r
-2.6170 a}a g}g s}s
-0.9008 a}a g}g u}u
-2.5750 a}a g}g á}a
-1.6772 a}a g}g ó}o
-1.9340 a}a g}g ó}o|
-1.6036 a}a g}g ü}u
-0.4799 a}a g}j e}e
-0.2040 a}a g}j i}i
-1.5549 a}a g}j é}e
-1.8799 a}a g}j í}i
-1.2201 a}a h|a}a d}d
-1.1877 a}a h|a}a l}l
-0.4378 a}a h|a}a m}m
-0.5702 a}a h|a}a r}r
-1.2822 a}a h|a}a t}t
-0.9794 a}a h|e}e c|h}ch
-0.4964 a}a h|e}e i}i
-0.4485 a}a h|e}e r}r
-0.7943 a}a h|i}i j}j
-0.2785 a}a h|i}i m}m
-1.4440 a}a h|o}o </s>
-0.6396 a}a h|o}o g}g
-1.4668 a}a h|o}o m}m
-1.0528 a}a h|o}o n}n
-0.5546 a}a h|o}o r|r}rr
-0.6227 a}a h|o}o r}r
-1.1670 a}a h|u}u </s>
-0.2691 a}a h|u}u a}a
-0.7532 a}a h|u}u i}i
-1.1277 a}a h|u}u m}m
-0.2944 a}a h|í}i a}a|
-1.0524 a}a i}i </s>
-2.0728 a}a i}i a}a
-1.5568 a}a i}i b}b
-2.2020 a}a i}i c|h}ch
-1.5470 a}a i}i c}k
-1.2434 a}a i}i c}z
-1.1068 a}a i}i d}d
-1.3261 a}a i}i g}g
-2.3197 a}a i}i i}i
-2.2595 a}a i}i k}k
-0.8613 a}a i}i l}l
-1.4113 a}a i}i m}m
-0.9649 a}a i}i n}n
-0.9294 a}a i}i r}r
-0.8297 a}a i}i s}s
-1.5320 a}a i}i t}t
-1.8404 a}a i}i w}u
-2.3028 a}a i}i z}s
-2.1295 a}a i}i z}z
-0.4432 a}a j}j a}a
-0.3958 a}a j}j e}e
-1.5165 a}a j}j i}i
-1.0068 a}a j}j o}o
-2.5192 a}a j}j s}s
-1.1754 a}a j}j u}u
-2.5323 a}a j}j á}a|
-2.5292 a}a j}j é}e|
-2.4089 a}a j}j í}i
-2.4116 a}a j}j ó}o
-1.7722 a}a j}j ó}o|
-0.1883 a}a k|h}k m}m
-1.1560 a}a k}k </s>
-0.3952 a}a k}k a}a
-1.7954 a}a k}k b}b
-1.7972 a}a k}k d}d
-1.1829 a}a k}k e}e
-1.7551 a}a k}k h|i}i
-0.5613 a}a k}k i}i
-1.6014 a}a k}k l}l
-1.1957 a}a k}k o}o
-1.9617 a}a l|l}ll </s>
-2.1843 a}a l|l}ll a|h}a
-0.3983 a}a l|l}ll a}a
-0.4634 a}a l|l}ll e}e
-1.1955 a}a l|l}ll i}i
-1.0084 a}a l|l}ll o}o
-2.0964 a}a l|l}ll u}u
-1.9826 a}a l|l}ll y}i
-2.2705 a}a l|l}ll á}a|
-2.2625 a}a l|l}ll é}e
-2.2692 a}a l|l}ll í}i|
-2.1748 a}a l|l}ll ó}o
-1.7035 a}a l|l}ll ó}o|
-0.7969 a}a l}l </s>
-3.5356 a}a l}l a|q}a
-1.0971 a}a l}l a}a
-2.7709 a}a l}l a}a|
-1.8802 a}a l}l b}b
-1.5632 a}a l}l c}k
-2.6626 a}a l}l c}z
-1.4455 a}a l}l d}d
-0.7008 a}a l}l e}e
-2.9314 a}a l}l e}e|
-2.2249 a}a l}l f}f
-3.3260 a}a l}l g|u}g
-2.0175 a}a l}l g}g
-3.2819 a}a l}l g}j
-3.5194 a}a l}l h|a}a
-3.5228 a}a l}l h|e}e
-0.6428 a}a l}l i}i
-3.3217 a}a l}l j}j
-2.9816 a}a l}l k}k
-1.2427 a}a l}l m}m
-3.3068 a}a l}l n}n
-1.4164 a}a l}l o}o
-2.3131 a}a l}l o}o|
-3.4753 a}a l}l p|h}p
-2.2789 a}a l}l p}p
-2.5494 a}a l}l q|u}k
-3.0339 a}a l}l r}r
-1.9884 a}a l}l s}s
-1.3575 a}a l}l t}t
-1.5217 a}a l}l u}u
-1.7687 a}a l}l v}b
-3.5297 a}a l}l z}s
-2.3408 a}a l}l z}z
-2.6882 a}a l}l á}a
-2.6639 a}a l}l á}a|
-2.4422 a}a l}l é}e
-2.3611 a}a l}l í}i
-3.4107 a}a l}l í}i|
-2.7276 a}a l}l ó}o
-2.9457 a}a l}l ó}o|
-3.4572 a}a l}l ú}u
-0.0066 a}a l}l| </s>
-1.8123 a}a m}m </s>
-0.8597 a}a m}m a}a
-1.1786 a}a m}m b}b
-3.2866 a}a m}m c}k
-3.3326 a}a m}m d}d
-0.5240 a}a m}m e}e
-2.4509 a}a m}m e}e|
-0.7735 a}a m}m i}i
-3.2055 a}a m}m m}m
-2.4371 a}a m}m n}n
-0.7223 a}a m}m o}o
-2.7905 a}a m}m o}o|
-1.1153 a}a m}m p}p
-2.5860 a}a m}m s}s
-3.3255 a}a m}m t}t
-2.4026 a}a m}m u}u
-2.1719 a}a m}m á}a
-2.8335 a}a m}m á}a|
-1.9865 a}a m}m é}e
-2.5783 a}a m}m í}i
-3.0609 a}a m}m ó}o
-2.2506 a}a m}m ó}o|
-0.0708 a}a n|h}n </s>
-0.6364 a}a n}n </s>
-1.0900 a}a n}n a}a
-3.6093 a}a n}n a}a|
-2.1547 a}a n}n c|h}ch
-1.8092 a}a n}n c}k
-1.4262 a}a n}n c}z
-0.7550 a}a n}n d}d
-1.5082 a}a n}n e}e
-2.6951 a}a n}n f}f
-3.2214 a}a n}n g|u}g
-1.7525 a}a n}n g}g
-2.3604 a}a n}n g}j
-3.2662 a}a n}n h|e}e
-1.3105 a}a n}n i}i
-3.7972 a}a n}n i}i|
-2.3665 a}a n}n j}j
-2.6509 a}a n}n k}k
-2.8001 a}a n}n l}l
-2.9042 a}a n}n m}m
-2.3310 a}a n}n n}n
-1.1749 a}a n}n o}o
-2.5867 a}a n}n o}o|
-3.7263 a}a n}n p}p
-2.0960 a}a n}n q|u}k
-1.4326 a}a n}n s}s
-0.7898 a}a n}n t}t
-1.7981 a}a n}n u}u
-3.5118 a}a n}n y}i
-3.2643 a}a n}n y}y
-1.5532 a}a n}n z}z
-2.6992 a}a n}n á}a
-3.0158 a}a n}n é}e
-2.3294 a}a n}n í}i
-2.8135 a}a n}n í}i|
-3.2323 a}a n}n ó}o
-3.5730 a}a n}n ó}o|
-0.0001 a}a n}n| </s>
-0.4707 a}a o}o </s>
-1.5748 a}a o}o k}k
-1.0694 a}a o}o l}l
-1.4981 a}a o}o m}m
-1.4292 a}a o}o n}n
-1.5069 a}a o}o p}p
-0.7300 a}a o}o r}r
-1.4408 a}a o}o s}s
-1.5411 a}a o}o u}u
-1.6151 a}a o}o í}i
-2.1368 a}a p}p </s>
-0.5402 a}a p}p a}a
-1.1113 a}a p}p e}e
-1.1913 a}a p}p i}i
-1.0621 a}a p}p l}l
-0.8301 a}a p}p o}o
-2.8614 a}a p}p p}p
-0.7421 a}a p}p r}r
-1.9048 a}a p}p s}s
-1.2529 a}a p}p t}t
-1.2507 a}a p}p u}u
-2.6462 a}a p}p á}a
-2.9154 a}a p}p á}a|
-2.3596 a}a p}p í}i
-2.1519 a}a p}p ó}o
-2.7780 a}a p}p ó}o|
-2.8190 a}a p}p ú}u
-0.2312 a}a q|u}k e}e
-0.5023 a}a q|u}k i}i
-1.5531 a}a q|u}k é}e
-1.4720 a}a q|u}k í}i
-1.5361 a}a q|u}k í}i|
-0.0478 a}a q}k u}u
-2.5224 a}a r|r}rr </s>
-0.6258 a}a r|r}rr a}a
-0.6257 a}a r|r}rr e}e
-0.7033 a}a r|r}rr i}i
-0.5922 a}a r|r}rr o}o
-1.6632 a}a r|r}rr u}u
-1.8062 a}a r|r}rr y}i
-2.3706 a}a r|r}rr á}a
-2.4545 a}a r|r}rr é}e
-2.5608 a}a r|r}rr é}e|
-1.9861 a}a r|r}rr í}i
-2.3027 a}a r|r}rr ó}o
-2.5586 a}a r|r}rr ó}o|
-0.6349 a}a r}r </s>
-0.9995 a}a r}r a}a
-2.7201 a}a r}r a}a|
-2.1520 a}a r}r b}b
-2.4118 a}a r}r c|h}ch
-1.8054 a}a r}r c}k
-1.9918 a}a r}r c}z
-1.5592 a}a r}r d}d
-1.2954 a}a r}r e}e
-3.6951 a}a r}r f}f
-3.1274 a}a r}r g|u}g
-1.7839 a}a r}r g}g
-2.2666 a}a r}r g}j
-3.8570 a}a r}r h|o}o
-0.9595 a}a r}r i}i
-2.8681 a}a r}r j}j
-2.9779 a}a r}r k}k
-1.2566 a}a r}r l}l
-1.7529 a}a r}r m}m
-1.8566 a}a r}r n}n
-0.9784 a}a r}r o}o
-2.9866 a}a r}r o}o|
-2.7069 a}a r}r p}p
-2.2503 a}a r}r q|u}k
-1.3007 a}a r}r s}s
-3.3756 a}a r}r t|h}t
-1.3154 a}a r}r t}t
-3.8686 a}a r}r t}t|
-2.9169 a}a r}r u}u
-3.6219 a}a r}r v}b
-3.7941 a}a r}r w}u
-3.3733 a}a r}r x}x
-2.8733 a}a r}r y}i
-2.7903 a}a r}r z}z
-1.5577 a}a r}r á}a
-1.3059 a}a r}r á}a|
-3.6199 a}a r}r é}e
-2.8679 a}a r}r é}e|
-1.5234 a}a r}r í}i
-3.2359 a}a r}r ó}o
-2.7602 a}a r}r ó}o|
-0.0016 a}a r}r| </s>
-0.1941 a}a s|c}z e}e
-0.5140 a}a s|c}z i}i
-0.2146 a}a s|h}s </s>
-0.5668 a}a s|h}s k}k
-0.1471 a}a s}s </s>
-1.3061 a}a s}s a}a
-3.0758 a}a s}s c|h}ch
-2.0858 a}a s}s c}k
-2.4012 a}a s}s c}z
-3.0725 a}a s}s d}d
-1.3803 a}a s}s e}e
-2.8514 a}a s}s e}e|
-2.7157 a}a s}s f}f
-3.0735 a}a s}s g}g
-3.3577 a}a s}s h|a}a
-3.0481 a}a s}s h|i}i
-1.3736 a}a s}s i}i
-3.5609 a}a s}s j}j
-3.0090 a}a s}s k}k
-2.0929 a}a s}s l}l
-2.2938 a}a s}s m}m
-3.0300 a}a s}s n}n
-1.7069 a}a s}s o}o
-2.0569 a}a s}s p}p
-2.8514 a}a s}s q|u}k
-2.4499 a}a s}s s}s
-1.1907 a}a s}s t}t
-1.8912 a}a s}s u}u
-3.4440 a}a s}s v}b
-3.5190 a}a s}s w}u
-3.0319 a}a s}s á}a
-3.4424 a}a s}s é}e
-2.7152 a}a s}s í}i
-3.5209 a}a s}s í}i|
-3.4116 a}a s}s ó}o
-2.5147 a}a s}s ó}o|
-0.0001 a}a s}s| </s>
-0.1219 a}a s}z </s>
-0.3134 a}a t|h}t f}f
-1.7074 a}a t}t </s>
-0.6915 a}a t}t a}a
-2.3657 a}a t}t a}a|
-0.8551 a}a t}t e}e
-2.1590 a}a t}t e}e|
-3.1029 a}a t}t h|a}a
-3.1044 a}a t}t h|e}e
-3.1754 a}a t}t h|y}i
-0.6360 a}a t}t i}i
-1.7477 a}a t}t l}l
-3.1702 a}a t}t l}l|
-2.3588 a}a t}t m}m
-0.8530 a}a t}t o}o
-0.9131 a}a t}t r}r
-2.9900 a}a t}t s}s
-2.2445 a}a t}t t}t
-1.2821 a}a t}t u}u
-3.2382 a}a t}t y}y
-2.1483 a}a t}t á}a
-2.0214 a}a t}t é}e
-3.0731 a}a t}t é}e|
-2.0801 a}a t}t í}i
-1.8814 a}a t}t ó}o
-2.2257 a}a t}t ó}o|
-0.2435 a}a u|h}u t}t
-2.1079 a}a u}u </s>
-2.1658 a}a u}u c}k
-1.8409 a}a u}u c}z
-0.8872 a}a u}u d}d
-2.5964 a}a u}u f}f
-1.3760 a}a u}u g}g
-2.6293 a}a u}u g}j
-2.1783 a}a u}u j}j
-2.6296 a}a u}u k}k
-1.4085 a}a u}u l}l
-1.1296 a}a u}u m}m
-1.7112 a}a u}u n}n
-2.6004 a}a u}u r|r}rr
-1.0084 a}a u}u r}r
-0.7058 a}a u}u s}s
-0.4811 a}a u}u t}t
-2.0141 a}a u}u x}x
-2.0861 a}a v}b </s>
-0.6197 a}a v}b a}a
-0.6083 a}a v}b e}e
-2.6493 a}a v}b e}e|
-0.5693 a}a v}b i}i
-0.7359 a}a v}b o}o
-2.5465 a}a v}b s}s
-2.4370 a}a v}b u}u
-2.0649 a}a v}b á}a
-2.1245 a}a v}b é}e
-1.8669 a}a v}b í}i
-2.0797 a}a v}b ó}o|
-0.9405 a}a w}u </s>
-0.3640 a}a w}u a}a
-0.9171 a}a w}u i}i
-1.1621 a}a w}u r}r
-1.0639 a}a w}u s}s
-0.2924 a}a x}j a}a
-0.7602 a}a x}x </s>
-1.3582 a}a x}x a}a
-1.4754 a}a x}x c}k
-0.2054 a}a x}x i}i
-1.4723 a}a x}x m}m
-0.0224 a}a x}x| </s>
-0.1562 a}a y}i </s>
-1.1341 a}a y}i l}l
-1.6174 a}a y}i m}m
-1.4829 a}a y}i n}n
-1.4838 a}a y}i r}r
-1.1339 a}a y}i s}s
-1.6722 a}a y}i t}t
-0.5307 a}a y}y a}a
-1.0263 a}a y}y e}e
-2.1566 a}a y}y i}i
-0.5238 a}a y}y o}o
-0.5682 a}a y}y u}u
-2.1591 a}a y}y á}a
-2.2993 a}a y}y á}a|
-1.7191 a}a y}y ó}o|
-0.1555 a}a z|z}s </s>
-0.2145 a}a z}s a}a
-0.7187 a}a z}s o}o
-0.1663 a}a z}t z}s
-1.0756 a}a z}z </s>
-0.4261 a}a z}z a}a
-2.3720 a}a z}z b}b
-2.2678 a}a z}z c}k
-1.9013 a}a z}z e}e
-1.8134 a}a z}z g}g
-1.2794 a}a z}z i}i
-2.3687 a}a z}z l}l
-2.2637 a}a z}z m}m
-2.3125 a}a z}z n}n
-0.5554 a}a z}z o}o
-2.5103 a}a z}z r}r
-2.3668 a}a z}z t}t
-1.2338 a}a z}z u}u
-2.2678 a}a z}z á}a
-1.4661 a}a z}z ó}o
-1.4588 a}a z}z ó}o|
-2.5230 a}a z}z ú}u
-2.4566 a}a z}z ú}u|
-0.0191 a}a z}z| </s>
-1.0384 a}a é}e l}l|
-0.1445 a}a é}e r}r
-1.3813 a}a í}i a}a
-1.0811 a}a í}i a}a|
-1.6707 a}a í}i c}z
-0.3152 a}a í}i d}d
-1.1262 a}a í}i n}n
-1.4446 a}a í}i n}n|
-1.0967 a}a í}i s}s
-1.6521 a}a í}i s}s|
-1.2018 a}a í}i z}z|
-0.3734 a}a ñ}gn a}a
-0.7775 a}a ñ}gn a}a|
-1.0733 a}a ñ}gn e}e
-2.3586 a}a ñ}gn e}e|
-1.6482 a}a ñ}gn i}i
-0.8729 a}a ñ}gn o}o
-1.0338 a}a ñ}gn o}o|
-1.8950 a}a ñ}gn á}a
-2.3517 a}a ñ}gn é}e
-1.8500 a}a ñ}gn í}i
-1.8110 a}a ñ}gn ó}o
-1.8112 a}a ñ}gn ó}o|
-0.3201 a}a ó}o t}t
-1.1756 a}a ú}u d}d|
-1.1728 a}a ú}u l|l}ll
-0.6641 a}a ú}u l}l|
-0.9879 a}a ú}u n}n
-0.9955 a}a ú}u n}n|
-1.1748 a}a ú}u z}z|
-0.4288 b}b _}e </s>
-0.8107 b}b _}e _}e
-0.9671 b}b _}e a}a
-0.9362 b}b _}e i}i
-0.2618 b}b a|h}a r}r
-0.7152 b}b a}a </s>
-1.8854 b}b a}a b}b
-2.6352 b}b a}a c|h}ch
-1.8834 b}b a}a c}k
-2.0404 b}b a}a c}z
-1.4106 b}b a}a d}d
-3.0184 b}b a}a e}e
-3.2280 b}b a}a g|h}g
-2.5851 b}b a}a g}g
-2.6897 b}b a}a h|a}a
-3.2291 b}b a}a h|í}i
-1.7760 b}b a}a i}i
-1.2469 b}b a}a j}j
-2.4497 b}b a}a k}k
-1.9015 b}b a}a l|l}ll
-1.2159 b}b a}a l}l
-3.2040 b}b a}a l}l|
-1.7699 b}b a}a m}m
-0.6381 b}b a}a n}n
-2.4778 b}b a}a n}n|
-3.0077 b}b a}a o}o
-2.9145 b}b a}a p}p
-1.5491 b}b a}a r|r}rr
-0.9018 b}b a}a r}r
-3.0941 b}b a}a r}r|
-3.2072 b}b a}a s|h}s
-1.1799 b}b a}a s}s
-1.1721 b}b a}a t}t
-2.3005 b}b a}a u}u
-2.4529 b}b a}a y}i
-2.4423 b}b a}a y}y
-2.2911 b}b a}a z}z
-1.9977 b}b a}a ñ}gn
-0.0016 b}b a}a| </s>
-0.3831 b}b b}b a}a
-0.8232 b}b b}b i}i
-0.9212 b}b b}b y}i
-0.9628 b}b c}k </s>
-0.8961 b}b c}k a}a
-0.2735 b}b c}k o}o
-0.0926 b}b c}z e}e
-0.7725 b}b d}d a}a
-0.5725 b}b d}d e}e
-0.7758 b}b d}d i}i
-1.1890 b}b d}d o}o
-0.7978 b}b d}d u}u
-1.1322 b}b e}e </s>
-2.2605 b}b e}e a}a
-1.8333 b}b e}e b}b
-2.2492 b}b e}e c}k
-2.6412 b}b e}e c}z
-1.5609 b}b e}e d}d
-2.6206 b}b e}e g}g
-1.7518 b}b e}e i}i
-2.7730 b}b e}e k}k
-1.4815 b}b e}e l|l}ll
-1.1333 b}b e}e l}l
-2.2240 b}b e}e m}m
-0.8789 b}b e}e n}n
-2.7628 b}b e}e n}n|
-2.6172 b}b e}e o}o
-2.2862 b}b e}e r|r}rr
-0.3548 b}b e}e r}r
-1.4725 b}b e}e s}s
-2.6990 b}b e}e s}s|
-2.8386 b}b e}e t|h}t
-1.4010 b}b e}e t}t
-1.2884 b}b e}e z}z
-1.9488 b}b e}e ñ}gn
-0.0039 b}b e}e| </s>
-0.3300 b}b f}f l}l
-0.3184 b}b h|u}u t}t
-1.8688 b}b i}i </s>
-1.0234 b}b i}i a}a
-2.2933 b}b i}i b}b
-1.4031 b}b i}i c}k
-1.6311 b}b i}i c}z
-1.1164 b}b i}i d}d
-0.8244 b}b i}i e}e
-2.6325 b}b i}i g}g
-2.6920 b}b i}i j}j
-1.8953 b}b i}i l|l}ll
-0.6929 b}b i}i l}l
-2.8414 b}b i}i l}l|
-1.8729 b}b i}i m}m
-1.2347 b}b i}i n}n
-1.1670 b}b i}i o}o
-2.7029 b}b i}i p}p
-2.3479 b}b i}i q|u}k
-1.1810 b}b i}i r}r
-2.4166 b}b i}i s|c}z
-1.5739 b}b i}i s}s
-1.1150 b}b i}i t}t
-2.6781 b}b i}i v}b
-2.3753 b}b i}i á}a
-2.0078 b}b i}i é}e
-2.3358 b}b i}i ó}o
-1.5482 b}b i}i ó}o|
-0.0236 b}b j}j e}e
-0.3316 b}b k}k h|a}a
-0.7922 b}b l}l a}a
-0.2128 b}b l}l e}e
-2.3614 b}b l}l e}e|
-0.8487 b}b l}l i}i
-1.2364 b}b l}l o}o
-2.3272 b}b l}l u}u
-2.7287 b}b l}l á}a
-2.8775 b}b l}l é}e|
-2.7634 b}b l}l í}i
-2.3656 b}b l}l ó}o|
-0.1452 b}b m}m a}a
-0.9943 b}b m}m u}u
-0.3176 b}b n}n i}i
-1.0064 b}b o}o </s>
-2.4817 b}b o}o a}a
-1.8293 b}b o}o b}b
-2.1949 b}b o}o c|h}ch
-1.5843 b}b o}o c}k
-1.8208 b}b o}o d}d
-2.4807 b}b o}o e}e
-2.5277 b}b o}o f}f
-1.6638 b}b o}o g}g
-1.9917 b}b o}o i}i
-2.5454 b}b o}o j}j
-2.5629 b}b o}o l|l}ll
-0.8338 b}b o}o l}l
-2.0168 b}b o}o l}l|
-1.3139 b}b o}o m}m
-1.1652 b}b o}o n}n
-2.5549 b}b o}o o}o
-2.5613 b}b o}o q|u}k
-1.3970 b}b o}o r|r}rr
-0.5680 b}b o}o r}r
-1.1664 b}b o}o s}s
-1.1240 b}b o}o t}t
-1.9798 b}b o}o u}u
-2.6291 b}b o}o w}u
-1.8610 b}b o}o x}x
-1.8420 b}b o}o y}y
-2.1806 b}b o}o z}z
-0.0595 b}b p}p r}r
-0.4703 b}b r}r a}a
-0.5790 b}b r}r e}e
-2.8951 b}b r}r e}e|
-0.6762 b}b r}r i}i
-1.1802 b}b r}r o}o
-1.2853 b}b r}r u}u
-1.8845 b}b r}r á}a
-2.3617 b}b r}r á}a|
-1.6699 b}b r}r í}i
-2.3508 b}b r}r ó}o
-1.8063 b}b r}r ó}o|
-0.0859 b}b s|c}z e}e
-1.9651 b}b s}s </s>
-1.4043 b}b s}s a}a
-0.5859 b}b s}s e}e
-0.8928 b}b s}s i}i
-1.0101 b}b s}s o}o
-0.4387 b}b s}s t}t
-1.1711 b}b s}s u}u
-0.1643 b}b t}t e}e
-0.9509 b}b t}t i}i
-0.9573 b}b t}t u}u
-1.7474 b}b u}u </s>
-2.2613 b}b u}u b}b
-1.5668 b}b u}u c}k
-1.5758 b}b u}u c}z
-2.1975 b}b u}u d}d
-1.2070 b}b u}u e}e
-1.8175 b}b u}u f}f
-1.1111 b}b u}u i}i
-2.0016 b}b u}u j}j
-2.0332 b}b u}u k}k
-1.6977 b}b u}u l|l}ll
-1.0196 b}b u}u l}l
-1.9486 b}b u}u m}m
-1.2467 b}b u}u n}n
-2.0681 b}b u}u q|u}k
-2.3976 b}b u}u r|r}rr
-0.7462 b}b u}u r}r
-2.5898 b}b u}u s|h}s
-0.7869 b}b u}u s}s
-2.5572 b}b u}u s}s|
-1.1363 b}b u}u t}t
-1.0304 b}b u}u y}y
-2.0316 b}b u}u í}i
-2.4181 b}b u}u ñ}gn
-0.2207 b}b v}b e}e
-0.4841 b}b v}b i}i
-0.2896 b}b w}u e}e
-0.0369 b}b y}i </s>
-0.4382 b}b y}y a}a
-0.4961 b}b y}y u}u
-1.4438 b}b á}a e}e
-1.4673 b}b á}a j}j
-1.3134 b}b á}a l}l
-0.5649 b}b á}a n}n|
-0.9009 b}b á}a r}r
-0.4832 b}b á}a s}s
-0.7613 b}b é}e i}i
-0.7305 b}b é}e l}l
-1.1314 b}b é}e n}n|
-1.2830 b}b é}e o}o
-0.9830 b}b é}e r}r
-1.0295 b}b é}e s}s|
-1.0557 b}b é}e t}t
-0.0066 b}b é}e| </s>
-0.2901 b}b í}i a}a
-0.5051 b}b í}i a}a|
-1.4503 b}b í}i c}k
-1.3765 b}b í}i n}n|
-0.0082 b}b í}i| </s>
-0.4034 b}b ó}o l}l
-0.2902 b}b ó}o n}n|
-0.0005 b}b ó}o| </s>
-1.0356 b}b ú}u </s>
-1.0999 b}b ú}u f}f
-0.9828 b}b ú}u l}l
-0.9286 b}b ú}u n}n|
-0.9504 b}b ú}u s}s
-1.0640 b}b ú}u s}s|
-0.0094 b}b ú}u| </s>
-0.7394 c|h}ch a}a </s>
-1.5169 c|h}ch a}a b}b
-1.5333 c|h}ch a}a c|h}ch
-2.2647 c|h}ch a}a c}k
-2.2885 c|h}ch a}a c}z
-0.9037 c|h}ch a}a d}d
-2.4052 c|h}ch a}a e}e
-2.3036 c|h}ch a}a g}g
-1.9537 c|h}ch a}a i}i
-2.4016 c|h}ch a}a k}k
-1.9302 c|h}ch a}a l}l
-1.2066 c|h}ch a}a m}m
-1.1234 c|h}ch a}a n}n
-1.9591 c|h}ch a}a p}p
-1.9780 c|h}ch a}a q|u}k
-0.7117 c|h}ch a}a r}r
-1.0279 c|h}ch a}a s}s
-1.9300 c|h}ch a}a t}t
-1.6277 c|h}ch a}a v}b
-1.0955 c|h}ch a}a z}z
-0.6045 c|h}ch e}e </s>
-2.0602 c|h}ch e}e b}b
-1.3485 c|h}ch e}e c|h}ch
-1.3309 c|h}ch e}e c}k
-1.9866 c|h}ch e}e d}d
-2.0731 c|h}ch e}e l|l}ll
-1.2181 c|h}ch e}e l}l
-1.9917 c|h}ch e}e m}m
-0.7918 c|h}ch e}e n}n
-1.2441 c|h}ch e}e q|u}k
-0.8665 c|h}ch e}e r}r
-2.1577 c|h}ch e}e r}r|
-1.4494 c|h}ch e}e s}s
-1.3214 c|h}ch e}e t}t
-1.4645 c|h}ch e}e v}b
-2.2247 c|h}ch e}e z}s|
-1.6747 c|h}ch e}e z}z
-0.9432 c|h}ch i}i </s>
-1.5172 c|h}ch i}i a}a
-1.5720 c|h}ch i}i c|h}ch
-1.1981 c|h}ch i}i c}k
-1.8784 c|h}ch i}i e}e
-1.9691 c|h}ch i}i f}f
-1.5381 c|h}ch i}i g}g
-2.1123 c|h}ch i}i h|u}u
-1.3491 c|h}ch i}i l|l}ll
-0.9464 c|h}ch i}i l}l
-1.5026 c|h}ch i}i m}m
-0.7459 c|h}ch i}i n}n
-1.3588 c|h}ch i}i p}p
-1.3645 c|h}ch i}i q|u}k
-1.3253 c|h}ch i}i r}r
-1.3155 c|h}ch i}i s}s
-1.8000 c|h}ch i}i t}t
-1.2168 c|h}ch i}i v}b
-1.9106 c|h}ch i}i z}z
-0.3078 c|h}ch l}l e}e
-0.4629 c|h}ch o}o </s>
-1.6606 c|h}ch o}o a}a
-0.9370 c|h}ch o}o c}k
-1.6715 c|h}ch o}o c}z
-1.4602 c|h}ch o}o f}f
-1.4347 c|h}ch o}o l}l
-1.2948 c|h}ch o}o n}n
-1.6783 c|h}ch o}o q|u}k
-1.6820 c|h}ch o}o r|r}rr
-1.1957 c|h}ch o}o r}r
-0.6769 c|h}ch o}o s}s
-2.0569 c|h}ch o}o v}b
-0.8796 c|h}ch r}r e}e
-0.1999 c|h}ch r}r i}i
-0.2978 c|h}ch t}t </s>
-0.7435 c|h}ch t}t e}e
-1.4612 c|h}ch u}u a}a
-1.0565 c|h}ch u}u b}b
-1.0706 c|h}ch u}u c}k
-1.4137 c|h}ch u}u d}d
-1.0423 c|h}ch u}u e}e
-1.0852 c|h}ch u}u f}f
-0.8439 c|h}ch u}u l}l
-1.0394 c|h}ch u}u n}n
-1.0710 c|h}ch u}u p}p
-1.0296 c|h}ch u}u s}s
-0.2508 c|h}ch w}u a}a
-0.3431 c|h}ch á}a v}b
-0.0033 c|h}ch é}e| </s>
-0.9685 c|h}ch í}i n}n|
-0.1487 c|h}ch í}i s}s
-0.1165 c|h}ch ó}o n}n|
-0.0007 c|h}ch ó}o| </s>
-0.3104 c|h}ch ú}u a}a|
-1.1924 c}k a}a </s>
-1.3407 c}k a}a b}b
-3.0040 c}k a}a c|h}ch
-3.1866 c}k a}a c}k
-1.4796 c}k a}a c}z
-0.9843 c}k a}a d}d
-2.5046 c}k a}a e}e
-2.5836 c}k a}a f}f
-2.7791 c}k a}a g}g
-3.4904 c}k a}a h|a}a
-3.4405 c}k a}a h|u}u
-2.4189 c}k a}a i}i
-2.3663 c}k a}a j}j
-2.0418 c}k a}a l|l}ll
-1.1190 c}k a}a l}l
-1.0610 c}k a}a m}m
-0.8370 c}k a}a n}n
-3.3680 c}k a}a o}o
-1.4805 c}k a}a p}p
-3.3338 c}k a}a q|u}k
-1.8691 c}k a}a r|r}rr
-0.7302 c}k a}a r}r
-3.0509 c}k a}a r}r|
-1.2434 c}k a}a s}s
-1.3689 c}k a}a s}s|
-1.4383 c}k a}a t}t
-1.6038 c}k a}a u}u
-2.6649 c}k a}a v}b
-3.4927 c}k a}a x}x
-3.0209 c}k a}a y}i
-2.3197 c}k a}a y}y
-2.6624 c}k a}a z}z
-2.3846 c}k a}a í}i
-2.2314 c}k a}a ñ}gn
-3.5920 c}k a}a ó}o
-3.5077 c}k a}a ú}u
-0.0000 c}k a}a| </s>
-0.7578 c}k c}k a}a
-0.7998 c}k c}k l}l
-0.7351 c}k c}k o}o
-0.7829 c}k c}k u}u
-1.2511 c}k c}z e}e
-0.0268 c}k c}z i}i
-0.7469 c}k d}d e}e
-0.2936 c}k d}d o}o
-0.1881 c}k g}j i}i
-0.3092 c}k h|o}o </s>
-0.4426 c}k k}k </s>
-0.6263 c}k k}k e}e
-1.3375 c}k k}k i}i
-1.5424 c}k k}k l}l
-1.7182 c}k k}k m}m
-0.9954 c}k k}k s}s
-1.5428 c}k k}k u}u
-0.9645 c}k k}k y}i
-0.2841 c}k l}l a}a
-1.2023 c}k l}l e}e
-1.0472 c}k l}l i}i
-1.4004 c}k l}l o}o
-0.6397 c}k l}l u}u
-1.7823 c}k l}l á}a
-2.6015 c}k l}l é}e
-1.6815 c}k l}l í}i
-2.1447 c}k l}l ó}o
-0.2968 c}k m}m e}e
-0.2651 c}k n}n i}i
-0.4240 c}k n}n o}o
-0.2935 c}k o|h}o ó}o
-1.3395 c}k o}o </s>
-2.1449 c}k o}o a}a
-1.9093 c}k o}o b}b
-2.7130 c}k o}o c|h}ch
-2.5822 c}k o}o c}k
-2.6012 c}k o}o c}z
-2.6655 c}k o}o d}d
-2.9846 c}k o}o e}e
-2.6999 c}k o}o f}f
-2.8286 c}k o}o g}g
-2.0210 c}k o}o g}j
-2.8867 c}k o}o h|e}e
-3.5299 c}k o}o h|i}i
-3.1249 c}k o}o h|o}o
-2.2194 c}k o}o i}i
-3.0210 c}k o}o j}j
-2.7091 c}k o}o l|l}ll
-1.1936 c}k o}o l}l
-3.5065 c}k o}o l}l|
-0.7378 c}k o}o m}m
-0.3601 c}k o}o n}n
-1.9942 c}k o}o o}o
-2.0854 c}k o}o p}p
-3.0295 c}k o}o q|u}k
-1.5531 c}k o}o r|r}rr
-1.1797 c}k o}o r}r
-1.4439 c}k o}o s}s
-1.3100 c}k o}o s}s|
-2.0300 c}k o}o t}t
-2.8273 c}k o}o u}u
-2.8027 c}k o}o v}b
-3.4543 c}k o}o w}u
-3.4143 c}k o}o x}x
-2.5951 c}k o}o y}y
-3.6236 c}k o}o z}s
-2.8344 c}k o}o z}z
-0.0001 c}k o}o| </s>
-0.2106 c}k q|u}k e}e
-0.0478 c}k q}k u}u
-2.6876 c}k r}r </s>
-0.9550 c}k r}r a}a
-0.4173 c}k r}r e}e
-0.5815 c}k r}r i}i
-1.2852 c}k r}r o}o
-0.9581 c}k r}r u}u
-1.6229 c}k r}r á}a
-2.7498 c}k r}r á}a|
-2.1020 c}k r}r é}e
-1.6229 c}k r}r í}i
-1.9519 c}k r}r ó}o
-2.8112 c}k r}r ú}u
-0.5782 c}k s}s </s>
-0.6342 c}k s}s ó}o
-0.6465 c}k t}t a}a
-1.4530 c}k t}t e}e
-0.6747 c}k t}t i}i
-0.5254 c}k t}t o}o
-1.4039 c}k t}t r}r
-0.8975 c}k t}t u}u
-1.8766 c}k t}t á}a
-2.8175 c}k t}t í}i
-2.2060 c}k t}t ó}o
-1.8046 c}k t}t ó}o|
-1.6958 c}k t}t ú}u
-2.3440 c}k u}u </s>
-0.9604 c}k u}u a}a
-1.2852 c}k u}u b}b
-1.5055 c}k u}u c|h}ch
-2.0827 c}k u}u c}z
-1.6345 c}k u}u d}d
-0.8673 c}k u}u e}e
-1.4458 c}k u}u i}i
-0.6913 c}k u}u l}l
-1.2283 c}k u}u m}m
-1.6622 c}k u}u n}n
-2.6236 c}k u}u o}o
-1.1347 c}k u}u p}p
-1.3681 c}k u}u r|r}rr
-1.2067 c}k u}u r}r
-1.2945 c}k u}u s}s
-1.3089 c}k u}u t}t
-2.2761 c}k u}u y}y
-2.9790 c}k u}u z}z
-1.7778 c}k u}u á}a
-2.1821 c}k u}u é}e
-3.0188 c}k u}u ñ}gn
-0.2745 c}k v}b e}e
-0.1391 c}k y}i </s>
-0.8746 c}k y}i n}n
-0.3482 c}k z}z y}i
-0.9853 c}k á}a l}l
-0.9064 c}k á}a m}m
-0.4331 c}k á}a n}n
-0.8217 c}k á}a n}n|
-1.2574 c}k á}a p}p
-1.9531 c}k á}a r|r}rr
-0.8946 c}k á}a r}r
-1.8473 c}k á}a s}s
-0.0094 c}k á}a| </s>
-1.6622 c}k ó}o d}d
-1.1431 c}k ó}o l}l
-0.5444 c}k ó}o m}m
-0.8313 c}k ó}o n}n
-0.9254 c}k ó}o n}n|
-0.8720 c}k ó}o p}p
-1.4953 c}k ó}o r}r
-0.9923 c}k ó}o t}t
-1.7612 c}k ó}o y}y
-0.0001 c}k ó}o| </s>
-1.0509 c}k ú}u a}a|
-0.6930 c}k ú}u b}b
-0.7355 c}k ú}u c|h}ch
-1.0535 c}k ú}u n}n|
-1.1468 c}k ú}u p}p
-1.0753 c}k ú}u s}s
-0.0191 c}k ú}u| </s>
-0.3275 c}s e}e r}r
-0.3257 c}s i}i t}t
-0.3182 c}s á}a b}b
-0.3162 c}s ú}u s}s
-0.0855 c}s|z i}i e}e
-0.1861 c}z _}e </s>
-1.2224 c}z _}e a}a
-1.1800 c}z _}e c}z
-1.1915 c}z _}e i}i
-0.9256 c}z e}e </s>
-1.9933 c}z e}e a}a
-2.6331 c}z e}e b}b
-2.6208 c}z e}e c}k
-1.1142 c}z e}e d}d
-2.2165 c}z e}e f}f
-2.6341 c}z e}e g}g
-2.3081 c}z e}e i}i
-3.0243 c}z e}e j}j
-1.0787 c}z e}e l}l
-3.1926 c}z e}e l}l|
-1.8076 c}z e}e m}m
-0.7143 c}z e}e n}n
-2.2047 c}z e}e o}o
-1.1885 c}z e}e p}p
-3.0480 c}z e}e r|r}rr
-0.5859 c}z e}e r}r
-3.1097 c}z e}e r}r|
-0.9026 c}z e}e s}s
-2.3223 c}z e}e s}s|
-1.9331 c}z e}e t}t
-2.6173 c}z e}e v}b
-3.0602 c}z e}e ñ}gn
-0.0019 c}z e}e| </s>
-2.8447 c}z i}i </s>
-0.6677 c}z i}i a}a
-3.1898 c}z i}i a}a|
-1.7998 c}z i}i b}b
-2.1770 c}z i}i c}k
-3.0656 c}z i}i c}z
-1.2034 c}z i}i d}d
-1.1361 c}z i}i e}e
-2.1582 c}z i}i f}f
-2.6613 c}z i}i g}g
-3.4410 c}z i}i j}j
-3.4039 c}z i}i l|l}ll
-1.7014 c}z i}i l}l
-3.1622 c}z i}i l}l|
-1.6917 c}z i}i m}m
-1.5351 c}z i}i n}n
-0.6898 c}z i}i o}o
-1.6019 c}z i}i p}p
-3.4837 c}z i}i q|u}k
-1.7420 c}z i}i r}r
-1.7409 c}z i}i s}s
-1.4913 c}z i}i t}t
-3.6729 c}z i}i t}t|
-2.4694 c}z i}i u}u
-2.7706 c}z i}i v}b
-3.3897 c}z i}i z}z
-2.4654 c}z i}i é}e
-3.6640 c}z i}i é}e|
-0.6592 c}z i}i ó}o
-1.7904 c}z i}i ó}o|
-1.1706 c}z é}e a}a
-1.5528 c}z é}e d}d
-1.5531 c}z é}e f}f
-0.8945 c}z é}e l}l
-0.7416 c}z é}e n}n
-1.4444 c}z é}e n}n|
-0.9968 c}z é}e r}r
-1.0970 c}z é}e s}s
-1.0270 c}z é}e s}s|
-1.0436 c}z é}e t}t
-1.1715 c}z é}e u}u
-0.0033 c}z é}e| </s>
-0.4748 c}z í}i a}a
-0.5382 c}z í}i a}a|
-1.5931 c}z í}i c}k
-0.8377 c}z í}i f}f
-1.5471 c}z í}i n}n
-1.5788 c}z í}i o}o|
-2.0723 c}z í}i p}p
-1.6172 c}z í}i r}r
-1.8080 c}z í}i s}s
-1.9819 c}z í}i t}t
-1.2720 c}z í}i v}b
-0.0016 c}z í}i| </s>
-0.3307 d|z}z i}i c}k
-0.0459 d}d '|s}s </s>
-0.8422 d}d _}e </s>
-0.3352 d}d _}e _}e
-1.0960 d}d _}e e}e
-1.0154 d}d _}e i}i
-0.1421 d}d a|q}a </s>
-0.4648 d}d a}a </s>
-1.9029 d}d a}a b}b
-2.3389 d}d a}a c}k
-2.1319 d}d a}a c}z
-0.7504 d}d a}a d}d
-3.5864 d}d a}a d}d|
-3.0115 d}d a}a e}e
-2.4168 d}d a}a f}f
-2.7743 d}d a}a g}g
-3.3735 d}d a}a g}j
-3.5083 d}d a}a h|o}o
-2.9602 d}d a}a i}i
-2.6781 d}d a}a l|l}ll
-1.7976 d}d a}a l}l
-1.3941 d}d a}a m}m
-1.2907 d}d a}a n}n
-2.2967 d}d a}a p}p
-2.9793 d}d a}a r|r}rr
-1.0667 d}d a}a r}r
-3.4623 d}d a}a r}r|
-3.5668 d}d a}a s|h}s
-0.6859 d}d a}a s}s
-2.2132 d}d a}a s}s|
-2.0397 d}d a}a t}t
-2.9812 d}d a}a u}u
-2.2086 d}d a}a v}b
-3.5227 d}d a}a w}u
-2.8040 d}d a}a y}y
-2.5542 d}d a}a z}z
-2.0484 d}d a}a ñ}gn
-0.0003 d}d a}a| </s>
-0.5337 d}d b}b a}a
-0.5566 d}d b}b e}e
-0.4057 d}d c}k a}a
-0.4005 d}d c}k o}o
-0.1555 d}d d|h}d </s>
-0.9866 d}d d}d </s>
-0.9401 d}d d}d a}a
-0.5539 d}d d}d i}i
-1.1166 d}d d}d l}l
-1.0705 d}d d}d y}i
-1.3378 d}d e}e </s>
-1.8737 d}d e}e a}a
-1.5817 d}d e}e b}b
-3.3827 d}d e}e c|h}ch
-1.5128 d}d e}e c}k
-1.3297 d}d e}e c}z
-1.8182 d}d e}e d}d
-3.3851 d}d e}e e}e
-1.5394 d}d e}e f}f
-3.4350 d}d e}e g|u}g
-2.6547 d}d e}e g}g
-3.3960 d}d e}e g}j
-2.7825 d}d e}e i}i
-1.8241 d}d e}e j}j
-3.2829 d}d e}e l|l}ll
-1.3655 d}d e}e l}l
-1.3439 d}d e}e m}m
-0.8948 d}d e}e n}n
-3.4546 d}d e}e n}n|
-2.1081 d}d e}e o}o
-1.4624 d}d e}e p}p
-1.8416 d}d e}e r|r}rr
-0.9496 d}d e}e r}r
-3.4204 d}d e}e r}r|
-2.2318 d}d e}e s|c}z
-3.5913 d}d e}e s|h}s
-0.5091 d}d e}e s}s
-3.0059 d}d e}e s}s|
-1.4070 d}d e}e t}t
-2.1506 d}d e}e u}u
-1.9508 d}d e}e v}b
-2.1756 d}d e}e z}z
-2.6746 d}d e}e z}z|
-3.3539 d}d e}e ñ}gn
-3.4662 d}d e}e ó}o
-3.0315 d}d e}e ó}o|
-0.0026 d}d e}e| </s>
-0.3052 d}d f}f o}o
-0.2884 d}d g}g a}a
-0.0872 d}d g}j e}e
-0.6456 d}d h|a}a h|r}r
-0.5796 d}d h|a}a m}m
-0.1758 d}d h|e}e r}r
-0.8838 d}d h|e}e s}s
-1.9921 d}d i}i </s>
-0.9650 d}d i}i a}a
-2.3017 d}d i}i b}b
-2.5070 d}d i}i c|h}ch
-1.0182 d}d i}i c}k
-1.3393 d}d i}i c}z
-1.0616 d}d i}i d}d
-1.1061 d}d i}i e}e
-1.3487 d}d i}i f}f
-1.7583 d}d i}i g}g
-2.6379 d}d i}i g}j
-2.1342 d}d i}i j}j
-1.9692 d}d i}i l|l}ll
-1.9287 d}d i}i l}l
-1.6784 d}d i}i m}m
-1.3783 d}d i}i n}n
-1.3316 d}d i}i o}o
-2.0885 d}d i}i p}p
-2.8397 d}d i}i q|u}k
-1.1595 d}d i}i r}r
-3.3955 d}d i}i r}r|
-0.7977 d}d i}i s}s
-1.5082 d}d i}i t}t
-1.3816 d}d i}i v}b
-2.1810 d}d i}i z}z
-2.4146 d}d i}i á}a
-2.3183 d}d i}i é}e
-2.5006 d}d i}i ó}o
-1.5018 d}d i}i ó}o|
-1.2302 d}d j}j </s>
-1.0713 d}d j}j e}e
-1.2875 d}d j}j m}m
-0.2019 d}d j}j u}u
-0.2883 d}d k}k a}a
-0.3078 d}d l}l e}e
-1.1071 d}d m}m a}a
-0.0480 d}d m}m i}i
-0.9713 d}d n}n a}a
-0.2909 d}d n}n e}e
-0.9522 d}d n}n o}o
-0.2540 d}d o}o </s>
-2.3330 d}d o}o b}b
-2.1567 d}d o}o c}k
-3.2476 d}d o}o c}s|z
-2.7298 d}d o}o c}z
-3.3879 d}d o}o d}d
-3.4575 d}d o}o e}e
-3.5055 d}d o}o f}f
-3.6952 d}d o}o h|e}e
-3.5415 d}d o}o l|l}ll
-1.6319 d}d o}o l}l
-1.8318 d}d o}o m}m
-1.6609 d}d o}o n}n
-3.5333 d}d o}o o}o
-2.2670 d}d o}o p}p
-0.9828 d}d o}o r}r
-3.6995 d}d o}o r}r|
-0.6279 d}d o}o s}s
-2.0169 d}d o}o s}s|
-2.4527 d}d o}o t}t
-2.5781 d}d o}o u}u
-2.7174 d}d o}o v}b
-3.1981 d}d o}o w}u
-3.1846 d}d o}o x}x
-3.5881 d}d o}o y}i
-3.4785 d}d o}o y}y
-3.1625 d}d o}o z}z
-3.6753 d}d o}o ñ}gn
-0.0002 d}d o}o| </s>
-0.0214 d}d q|u}k i}i
-0.6593 d}d r}r a}a
-0.8503 d}d r}r e}e
-0.8732 d}d r}r i}i
-0.8757 d}d r}r o}o
-1.7238 d}d r}r u}u
-0.9266 d}d r}r á}a
-1.0861 d}d r}r á}a|
-2.4073 d}d r}r é}e
-1.9641 d}d r}r é}e|
-0.9534 d}d r}r í}i
-2.3673 d}d r}r ó}o
-0.4114 d}d s}s </s>
-0.6750 d}d s}s c}k
-1.3870 d}d s}s h|i}i
-1.2797 d}d s}s i}i
-0.8785 d}d s}s o}o
-0.0830 d}d t}t </s>
-2.3111 d}d u}u </s>
-1.2162 d}d u}u a}a
-1.6936 d}d u}u b}b
-0.7296 d}d u}u c}k
-0.8256 d}d u}u c}z
-1.3851 d}d u}u d}d
-1.3860 d}d u}u e}e
-2.4952 d}d u}u g}g
-2.4560 d}d u}u i}i
-1.4004 d}d u}u j}j
-2.6194 d}d u}u l|l}ll
-1.0087 d}d u}u l}l
-1.6907 d}d u}u m}m
-2.2173 d}d u}u m}m|
-2.0601 d}d u}u n}n
-1.8266 d}d u}u o}o
-1.6238 d}d u}u p}p
-2.6664 d}d u}u q|u}k
-2.5356 d}d u}u r|r}rr
-0.7272 d}d u}u r}r
-1.5314 d}d u}u s}s
-2.1791 d}d u}u v}b
-1.5015 d}d u}u z}z
-2.5562 d}d u}u ñ}gn
-0.1781 d}d v}b e}e
-0.5406 d}d v}b i}i
-0.2524 d}d w}u a}a
-0.6948 d}d w}u i}i
-0.0740 d}d y}i </s>
-1.1334 d}d y}i s}s
-0.2314 d}d y}y a}a
-0.3177 d}d z}z e}e
-1.3914 d}d á}a b}b
-1.0817 d}d á}a d}d
-1.5414 d}d á}a f}f
-1.3751 d}d á}a l}l
-0.4792 d}d á}a n}n
-0.7877 d}d á}a n}n|
-1.3189 d}d á}a r}r
-0.8545 d}d á}a v}b
-0.0094 d}d á}a| </s>
-1.2007 d}d é}e b}b
-1.1698 d}d é}e c}k
-0.9875 d}d é}e c}z
-1.6134 d}d é}e f}f
-0.9813 d}d é}e j}j
-0.6329 d}d é}e m}m
-1.4308 d}d é}e n}n
-1.3483 d}d é}e r}r
-0.6853 d}d é}e s}s|
-0.0022 d}d é}e| </s>
-0.4872 d}d í}i a}a
-0.4624 d}d í}i a}a|
-1.9243 d}d í}i c}k
-1.3096 d}d í}i g}j
-1.4569 d}d í}i n}n|
-1.9557 d}d í}i o}o
-1.4959 d}d í}i o}o|
-0.8201 d}d í}i s}s
-0.0020 d}d í}i| </s>
-1.3812 d}d ó}o j}j
-0.8056 d}d ó}o l}l
-0.8001 d}d ó}o n}n
-0.3541 d}d ó}o n}n|
-1.3620 d}d ó}o s}s|
-0.0002 d}d ó}o| </s>
-0.5711 d}d ú}u a}a
-0.6442 d}d ú}u o}o|
-0.3406 e|h}e b}b y}i
-0.3136 e|h}e t}t i}i
-0.2497 e}e _}t|a z|_}e
-0.9216 e}e a}a </s>
-1.3283 e}e a}a b}b
-2.7304 e}e a}a c|h}ch
-1.5601 e}e a}a c}k
-2.1022 e}e a}a c}z
-0.8238 e}e a}a d}d
-1.8869 e}e a}a f}f
-2.2980 e}e a}a g}g
-2.6919 e}e a}a j}j
-2.7490 e}e a}a k}k
-0.8934 e}e a}a l}l
-1.3022 e}e a}a m}m
-0.8069 e}e a}a n}n
-1.7250 e}e a}a p}p
-0.8077 e}e a}a r}r
-1.3809 e}e a}a s}s
-1.8006 e}e a}a s}s|
-1.4124 e}e a}a t}t
-2.6969 e}e a}a u}u
-2.3090 e}e a}a v}b
-2.7318 e}e a}a ñ}gn
-0.0005 e}e a}a| </s>
-1.5584 e}e b}b </s>
-0.7085 e}e b}b a}a
-0.7644 e}e b}b e}e
-0.7651 e}e b}b i}i
-1.1803 e}e b}b l}l
-1.3504 e}e b}b o}o
-0.5845 e}e b}b r}r
-1.6781 e}e b}b u}u
-2.3445 e}e b}b é}e
-2.4563 e}e b}b é}e|
-1.7052 e}e b}b í}i
-2.0497 e}e c|h}ch </s>
-0.2481 e}e c|h}ch a}a
-0.7815 e}e c|h}ch e}e
-1.6271 e}e c|h}ch i}i
-0.7252 e}e c|h}ch o}o
-2.2034 e}e c|h}ch t}t
-1.5091 e}e c|h}ch ó}o|
-2.0797 e}e c}k </s>
-1.0250 e}e c}k a}a
-3.0135 e}e c}k a}a|
-3.0490 e}e c}k c}k
-1.1075 e}e c}k c}z
-3.1017 e}e c}k h|o}o
-1.0847 e}e c}k l}l
-3.0886 e}e c}k m}m
-2.0293 e}e c}k n}n
-0.6541 e}e c}k o}o
-2.9133 e}e c}k o}o|
-1.3975 e}e c}k r}r
-0.5359 e}e c}k t}t
-0.8115 e}e c}k u}u
-2.0065 e}e c}k á}a
-2.5124 e}e c}k ó}o
-0.0340 e}e c}k| </s>
-0.2899 e}e c}s e}e
-0.4427 e}e c}z e}e
-0.2416 e}e c}z i}i
-2.9368 e}e c}z é}e|
-1.2212 e}e c}z í}i
-2.4424 e}e c}z í}i|
-1.5037 e}e d}d </s>
-0.7884 e}e d}d a}a
-2.4236 e}e d}d a}a|
-2.8750 e}e d}d c}k
-2.4358 e}e d}d d}d
-0.7437 e}e d}d e}e
-2.9631 e}e d}d f}f
-2.9654 e}e d}d g}g
-0.4600 e}e d}d i}i
-2.8327 e}e d}d n}n
-0.9278 e}e d}d o}o
-2.4111 e}e d}d o}o|
-1.4520 e}e d}d r}r
-1.0627 e}e d}d u}u
-2.8819 e}e d}d w}u
-2.8056 e}e d}d y}i
-2.8813 e}e d}d é}e|
-2.0602 e}e d}d í}i
-2.8458 e}e d}d í}i|
-2.7447 e}e d}d ó}o|
-0.7547 e}e e}e </s>
-1.0302 e}e e}e d}d
-1.1131 e}e e}e l}l
-0.8466 e}e e}e m}m
-0.8432 e}e e}e n}n
-2.0345 e}e e}e p}p
-0.8974 e}e e}e r}r
-0.8457 e}e e}e s}s
-1.9494 e}e e}e t}t
-1.9796 e}e e}e v}b
-2.0705 e}e e}e x}x
-2.3811 e}e f}f </s>
-1.3112 e}e f}f a}a
-0.4468 e}e f}f e}e
-1.6375 e}e f}f f}f
-2.6432 e}e f}f g}j
-0.5136 e}e f}f i}i
-1.1537 e}e f}f l}l
-1.1730 e}e f}f o}o
-1.5370 e}e f}f r}r
-2.0937 e}e f}f t}t
-1.3731 e}e f}f u}u
-1.8848 e}e f}f á}a
-1.6612 e}e f}f ó}o
-0.1400 e}e g|h}g </s>
-0.5855 e}e g|u}g e}e
-0.2121 e}e g|u}g i}i
-1.8879 e}e g|u}g é}e|
-0.9675 e}e g|u}g í}i
-2.2404 e}e g}g </s>
-0.4001 e}e g}g a}a
-2.8081 e}e g}g g}g
-2.3583 e}e g}g g}j
-1.2957 e}e g}g l}l
-2.7551 e}e g}g m}m
-0.8816 e}e g}g o}o
-2.3098 e}e g}g o}o|
-0.7078 e}e g}g r}r
-0.7992 e}e g}g u}u
-2.7607 e}e g}g y}i
-2.3232 e}e g}g á}a
-2.1206 e}e g}g ó}o
-1.6998 e}e g}g ó}o|
-2.1313 e}e g}g ú}u
-0.7824 e}e g}j e}e
-0.1262 e}e g}j i}i
-1.0734 e}e g}j í}i
-0.2995 e}e h|a}a b}b
-0.5258 e}e h|a}a c}z
-0.7097 e}e h|e}e m}m
-0.2351 e}e h|e}e n}n
-1.0108 e}e h|e}e r}r
-0.8069 e}e h|i}i c}k
-0.7461 e}e h|i}i d}d
-0.6901 e}e h|i}i s}s
-0.3432 e}e h|o}o v}b
-0.8275 e}e h|u}u a}a
-1.0155 e}e h|u}u d}d
-0.2923 e}e h|u}u s}s
-0.2796 e}e h|é}e n}n|
-0.1221 e}e h|í}i c}k
-1.5751 e}e i}i </s>
-1.5978 e}e i}i b}b
-1.5880 e}e i}i c}k
-2.1609 e}e i}i c}z
-1.2746 e}e i}i d}d
-2.2290 e}e i}i f}f
-2.3586 e}e i}i g|h}g
-2.2304 e}e i}i g}j
-2.2101 e}e i}i j}j
-2.1817 e}e i}i l|l}ll
-1.7663 e}e i}i l}l
-1.7626 e}e i}i m}m
-0.4124 e}e i}i n}n
-0.9353 e}e i}i r}r
-1.0935 e}e i}i s}s
-2.3732 e}e i}i t|h}t
-0.8421 e}e i}i t}t
-1.6136 e}e i}i v}b
-2.1705 e}e i}i z}z
-0.3093 e}e j}j a}a
-2.6200 e}e j}j a}a|
-2.6157 e}e j}j d}d
-0.6743 e}e j}j e}e
-1.5281 e}e j}j i}i
-0.7284 e}e j}j o}o
-1.6067 e}e j}j u}u
-2.4920 e}e j}j á}a
-2.1138 e}e j}j é}e
-2.0912 e}e j}j í}i
-2.0924 e}e j}j ó}o
-1.7298 e}e j}j ó}o|
-1.0106 e}e k}k </s>
-1.0542 e}e k}k e}e
-0.3551 e}e k}k i}i
-1.0756 e}e k}k o}o
-1.2815 e}e k}k t}t
-1.2836 e}e k}k í}i
-1.1698 e}e l|l}ll </s>
-0.3528 e}e l|l}ll a}a
-0.8993 e}e l|l}ll e}e
-1.1724 e}e l|l}ll i}i
-0.7460 e}e l|l}ll o}o
-1.6308 e}e l|l}ll s}s
-2.0148 e}e l|l}ll u}u
-1.5854 e}e l|l}ll y}i
-2.0171 e}e l|l}ll á}a
-1.6855 e}e l|l}ll í}i
-1.9620 e}e l|l}ll ó}o|
-0.9948 e}e l}l </s>
-0.6249 e}e l}l a}a
-2.1910 e}e l}l a}a|
-3.0707 e}e l}l b}b
-3.0445 e}e l}l c|h}ch
-2.4098 e}e l}l c}k
-1.7566 e}e l}l d}d
-0.6724 e}e l}l e}e
-2.0990 e}e l}l e}e|
-2.4286 e}e l}l f}f
-2.6303 e}e l}l g|u}g
-2.1074 e}e l}l g}g
-2.9690 e}e l}l g}j
-3.1790 e}e l}l h|i}i
-0.7325 e}e l}l i}i
-2.6287 e}e l}l j}j
-3.1098 e}e l}l l}l
-2.3996 e}e l}l m}m
-2.9915 e}e l}l n}n
-1.0893 e}e l}l o}o
-2.4033 e}e l}l o}o|
-3.0828 e}e l}l q|u}k
-2.1837 e}e l}l s}s
-1.5031 e}e l}l t}t
-1.7766 e}e l}l u}u
-1.7224 e}e l}l v}b
-2.9997 e}e l}l y}i
-2.3589 e}e l}l á}a
-1.9186 e}e l}l é}e
-1.9606 e}e l}l í}i
-2.2024 e}e l}l í}i|
-2.8788 e}e l}l ó}o
-2.4198 e}e l}l ó}o|
-3.1240 e}e l}l ú}u
-0.0033 e}e l}l| </s>
-1.9194 e}e m}m </s>
-0.9533 e}e m}m a}a
-1.1220 e}e m}m b}b
-0.7432 e}e m}m e}e
-3.0040 e}e m}m e}e|
-0.9733 e}e m}m i}i
-3.0606 e}e m}m l}l
-2.6110 e}e m}m m}m
-2.2458 e}e m}m n}n
-0.5870 e}e m}m o}o
-0.6846 e}e m}m p}p
-2.9960 e}e m}m s}s
-1.9738 e}e m}m u}u
-3.0320 e}e m}m y}i
-1.8236 e}e m}m á}a
-2.9715 e}e m}m é}e
-2.9699 e}e m}m í}i
-2.2362 e}e m}m ó}o
-2.9196 e}e m}m ó}o|
-0.0459 e}e m}m| </s>
-0.0708 e}e n|h}n </s>
-1.0006 e}e n}n </s>
-1.2936 e}e n}n a}a
-3.3008 e}e n}n a}a|
-2.7209 e}e n}n b}b
-3.3027 e}e n}n c|h}ch
-1.5704 e}e n}n c}k
-1.1056 e}e n}n c}z
-0.9173 e}e n}n d}d
-1.3493 e}e n}n e}e
-1.8153 e}e n}n f}f
-3.2871 e}e n}n g|u}g
-1.9002 e}e n}n g}g
-3.0754 e}e n}n g}j
-3.7520 e}e n}n h|e}e
-3.8002 e}e n}n h|i}i
-3.8590 e}e n}n h|o}o
-1.4990 e}e n}n i}i
-2.6053 e}e n}n j}j
-3.7467 e}e n}n k}k
-2.5602 e}e n}n l}l
-2.6602 e}e n}n m}m
-2.4388 e}e n}n n}n
-1.7030 e}e n}n o}o
-2.8765 e}e n}n o}o|
-3.1067 e}e n}n q|u}k
-2.7888 e}e n}n r}rr
-1.3243 e}e n}n s}s
-0.4043 e}e n}n t}t
-1.9661 e}e n}n u}u
-1.9285 e}e n}n v}b
-3.5589 e}e n}n y}i
-3.8636 e}e n}n z}s
-2.2968 e}e n}n z}z
-3.5566 e}e n}n á}a
-2.5520 e}e n}n é}e
-3.3351 e}e n}n é}e|
-2.5100 e}e n}n í}i
-3.1050 e}e n}n ó}o
-2.8633 e}e n}n ó}o|
-3.7022 e}e n}n ú}u
-3.8647 e}e n}n ú}u|
-0.0016 e}e n}n| </s>
-0.4342 e}e o}o </s>
-2.3192 e}e o}o b}b
-1.0137 e}e o}o c}k
-2.2943 e}e o}o d}d
-2.3442 e}e o}o e}e
-1.7608 e}e o}o g}g
-1.1470 e}e o}o l}l
-2.3183 e}e o}o m}m
-1.0088 e}e o}o n}n
-2.3298 e}e o}o p}p
-0.9299 e}e o}o r}r
-0.9549 e}e o}o s}s
-1.4311 e}e o}o s}s|
-1.6031 e}e o}o t}t
-1.9603 e}e o}o y}y
-0.0009 e}e o}o| </s>
-0.1421 e}e p|h}p </s>
-2.0802 e}e p}p </s>
-0.6172 e}e p}p a}a
-1.6539 e}e p}p c}z
-0.8712 e}e p}p e}e
-2.1336 e}e p}p h|a}a
-2.8097 e}e p}p h|e}e
-1.3257 e}e p}p i}i
-1.6888 e}e p}p l}l
-0.8045 e}e p}p o}o
-0.8287 e}e p}p r}r
-2.5867 e}e p}p s}s
-0.9473 e}e p}p t}t
-1.1218 e}e p}p u}u
-2.2619 e}e p}p á}a
-2.6822 e}e p}p í}i
-2.0953 e}e p}p ó}o
-2.7625 e}e p}p ú}u
-0.4704 e}e q|u}k e}e
-0.2436 e}e q|u}k i}i
-1.0769 e}e q|u}k í}i
-0.5790 e}e r|r}rr a}a
-0.8992 e}e r|r}rr e}e
-0.7572 e}e r|r}rr i}i
-0.5424 e}e r|r}rr o}o
-1.0615 e}e r|r}rr u}u
-1.9523 e}e r|r}rr y}i
-1.5328 e}e r|r}rr á}a
-1.9517 e}e r|r}rr í}i
-2.3091 e}e r|r}rr ó}o
-1.0631 e}e r}r </s>
-0.7339 e}e r}r a}a
-2.4843 e}e r}r a}a|
-2.2255 e}e r}r b}b
-1.7603 e}e r}r c}k
-1.7005 e}e r}r c}z
-1.5906 e}e r}r d}d
-1.2244 e}e r}r e}e
-2.0673 e}e r}r f}f
-2.8652 e}e r}r g|u}g
-2.0649 e}e r}r g}g
-2.2189 e}e r}r g}j
-3.6776 e}e r}r h|a}a
-1.0578 e}e r}r i}i
-2.5340 e}e r}r j}j
-3.1958 e}e r}r k}k
-1.6324 e}e r}r l}l
-1.3330 e}e r}r m}m
-1.3902 e}e r}r n}n
-0.8948 e}e r}r o}o
-2.4402 e}e r}r o}o|
-1.9937 e}e r}r p}p
-3.1806 e}e r}r q|u}k
-2.1315 e}e r}r r}r
-1.2247 e}e r}r s}s
-1.1677 e}e r}r t}t
-2.3733 e}e r}r u}u
-1.5610 e}e r}r v}b
-3.2304 e}e r}r w}u
-3.1939 e}e r}r y}i
-2.4843 e}e r}r z}z
-2.0195 e}e r}r á}a
-1.9781 e}e r}r á}a|
-2.7398 e}e r}r é}e
-3.1797 e}e r}r é}e|
-1.5579 e}e r}r í}i
-2.9442 e}e r}r ó}o
-2.3068 e}e r}r ó}o|
-3.0287 e}e r}r ú}u|
-0.0022 e}e r}r| </s>
-0.0891 e}e s|c}z e}e
-1.1899 e}e s|c}z i}i
-1.0130 e}e s|c}z é}e
-0.0796 e}e s|h}s </s>
-0.3949 e}e s}s </s>
-1.1561 e}e s}s a}a
-2.6877 e}e s}s b}b
-1.1495 e}e s}s c}k
-2.5318 e}e s}s c}z
-3.0980 e}e s}s d}d
-1.3049 e}e s}s e}e
-2.5320 e}e s}s e}e|
-2.4151 e}e s}s f}f
-3.7973 e}e s}s g|u}g
-2.2501 e}e s}s g}g
-2.6261 e}e s}s h|a}a
-3.2804 e}e s}s h|i}i
-1.2405 e}e s}s i}i
-2.4889 e}e s}s l}l
-2.1605 e}e s}s m}m
-2.6279 e}e s}s n}n
-1.6553 e}e s}s o}o
-1.1260 e}e s}s p}p
-2.4896 e}e s}s q|u}k
-2.5705 e}e s}s s}s
-0.7193 e}e s}s t}t
-1.8572 e}e s}s u}u
-2.5814 e}e s}s v}b
-3.2646 e}e s}s á}a
-3.6773 e}e s}s é}e
-3.7149 e}e s}s é}e|
-2.8436 e}e s}s í}i
-3.0817 e}e s}s ó}o
-2.8257 e}e s}s ó}o|
-3.7510 e}e s}s ú}u
-0.0001 e}e s}s| </s>
-0.8208 e}e s}z c}k
-0.3943 e}e s}z i}i
-0.8200 e}e s}z í}i
-0.0314 e}e t|h}t </s>
-1.5031 e}e t}t </s>
-0.5880 e}e t}t a}a
-2.3448 e}e t}t b}b
-3.0819 e}e t}t c}z
-0.5876 e}e t}t e}e
-2.5185 e}e t}t e}e|
-2.9392 e}e t}t h|a}a
-2.9407 e}e t}t h|e}e
-3.0454 e}e t}t h|i}i
-0.8337 e}e t}t i}i
-3.0105 e}e t}t l}l|
-2.0218 e}e t}t n}n
-1.0006 e}e t}t o}o
-0.9649 e}e t}t r}r
-2.4913 e}e t}t s}s
-1.8243 e}e t}t t}t
-1.7524 e}e t}t u}u
-2.5678 e}e t}t z}z
-2.8015 e}e t}t á}a
-3.0080 e}e t}t á}a|
-2.8026 e}e t}t é}e
-1.9254 e}e t}t í}i
-2.5557 e}e t}t í}i|
-2.3008 e}e t}t ó}o
-2.1675 e}e t}t ó}o|
-2.9073 e}e t}t ú}u
-1.1882 e}e u}u </s>
-1.9746 e}e u}u c}k
-0.7752 e}e u}u d}d
-2.0140 e}e u}u f}f
-2.0359 e}e u}u g}j
-1.5375 e}e u}u m}m
-0.4467 e}e u}u n}n
-0.7757 e}e u}u r}r
-1.8742 e}e u}u s}s
-0.9367 e}e u}u t}t
-1.5935 e}e v}b </s>
-0.5636 e}e v}b a}a
-0.5852 e}e v}b e}e
-2.8519 e}e v}b g}j
-0.5713 e}e v}b i}i
-0.9225 e}e v}b o}o
-2.7372 e}e v}b s}s
-1.5451 e}e v}b u}u
-2.8495 e}e v}b y}i
-2.2593 e}e v}b á}a
-2.7421 e}e v}b é}e
-2.7952 e}e v}b é}e|
-2.7931 e}e v}b ó}o
-2.2759 e}e v}b ó}o|
-0.3418 e}e w}u </s>
-1.1012 e}e w}u m}m
-1.0205 e}e w}u s}s
-1.1004 e}e w}u t}t
-0.0262 e}e x}j i}i
-1.8382 e}e x}x </s>
-1.1673 e}e x}x a}a
-1.3407 e}e x}x c}k
-2.7930 e}e x}x c}s
-1.4410 e}e x}x c}z
-2.7501 e}e x}x d}d
-1.7511 e}e x}x e}e
-2.3393 e}e x}x h|a}a
-2.7736 e}e x}x h|e}e
-1.7228 e}e x}x h|i}i
-1.7948 e}e x}x h|o}o
-0.7710 e}e x}x i}i
-2.7668 e}e x}x j}j
-2.5882 e}e x}x m}m
-1.6571 e}e x}x o}o
-0.4862 e}e x}x p}p
-2.7685 e}e x}x q|u}k
-2.3250 e}e x}x s}s
-0.6613 e}e x}x t}t
-1.9808 e}e x}x u}u
-2.7567 e}e x}x v}b
-2.7534 e}e x}x y}i
-2.3312 e}e x}x á}a
-2.7567 e}e x}x ó}o|
-0.0459 e}e x}x| </s>
-0.1241 e}e y}i </s>
-1.8696 e}e y}i b}b
-1.8153 e}e y}i f}f
-1.7180 e}e y}i l}l
-1.8120 e}e y}i m}m
-0.8790 e}e y}i n}n
-1.7175 e}e y}i s}s
-0.1555 e}e y}i| </s>
-0.6674 e}e y}y a}a
-0.1870 e}e y}y e}e
-1.0518 e}e y}y ó}o|
-0.2937 e}e z}s c}k
-0.0459 e}e z}s| </s>
-0.6994 e}e z}z </s>
-0.3290 e}e z}z a}a
-0.7223 e}e z}z c}k
-1.8050 e}e z}z e}e
-2.2020 e}e z}z i}i
-2.2845 e}e z}z l}l
-1.8364 e}e z}z m}m
-2.2424 e}e z}z n}n
-1.4772 e}e z}z o}o
-1.8727 e}e z}z q|u}k
-1.8367 e}e z}z u}u
-1.8388 e}e z}z ó}o|
-0.0005 e}e z}z| </s>
-0.5933 e}e á}a m}m
-0.5404 e}e á}a n}n
-0.0094 e}e á}a| </s>
-0.0033 e}e é}e| </s>
-0.8202 e}e í}i a}a
-0.8209 e}e í}i a}a|
-0.8775 e}e í}i b}b
-0.5323 e}e í}i d}d
-1.5013 e}e í}i m}m
-1.4233 e}e í}i n}n
-1.0198 e}e í}i s}s
-0.0082 e}e í}i| </s>
-0.3965 e}e ñ}gn a}a
-0.7865 e}e ñ}gn a}a|
-1.3360 e}e ñ}gn i}i
-0.8086 e}e ñ}gn o}o
-0.7072 e}e ñ}gn o}o|
-2.2932 e}e ñ}gn í}i
-2.2242 e}e ñ}gn ó}o
-1.8489 e}e ñ}gn ó}o|
-0.1555 e}e ñ}gn| </s>
-1.3782 e}e ó}o f}f
-1.3427 e}e ó}o g}g
-1.2211 e}e ó}o l}l
-0.1833 e}e ó}o n}n|
-1.2484 e}e ó}o r}r
-0.0006 e}e ó}o| </s>
-1.1071 e}e ú}u l}l|
-0.1214 e}e ú}u n}n
-0.3497 e}i|s _}e q}k|u
-0.1782 f}f _}e </s>
-0.9195 f}f _}e b}b
-0.2618 f}f a|h}a r}r
-1.4069 f}f a}a </s>
-1.1623 f}f a}a b}b
-2.1359 f}f a}a c|h}ch
-1.0033 f}f a}a c}k
-1.1364 f}f a}a c}z
-1.7714 f}f a}a d}d
-2.5490 f}f a}a e}e
-2.0983 f}f a}a g}g
-2.4511 f}f a}a i}i
-1.1425 f}f a}a l|l}ll
-1.0032 f}f a}a l}l
-1.1891 f}f a}a m}m
-1.0616 f}f a}a n}n
-2.4862 f}f a}a r|r}rr
-1.0425 f}f a}a r}r
-2.6764 f}f a}a s|c}z
-1.2181 f}f a}a s}s
-1.1613 f}f a}a t}t
-1.9246 f}f a}a u}u
-1.0671 f}f a}a v}b
-1.9589 f}f a}a x}x
-2.4565 f}f a}a z}z
-2.6829 f}f a}a é}e
-0.2859 f}f c}k o}o
-1.6364 f}f e}e </s>
-2.2470 f}f e}e b}b
-1.7263 f}f e}e c|h}ch
-0.7190 f}f e}e c}k
-1.4392 f}f e}e d}d
-2.2492 f}f e}e i}i
-1.3020 f}f e}e l}l
-1.8937 f}f e}e m}m
-0.8942 f}f e}e n}n
-2.2467 f}f e}e o}o
